#Parameter# /_1 {2,50} 1601 ZERO_GRAD
-2.86015183e-01 +5.45099556e-01 +8.18347409e-02 +2.38843724e-01 +1.65701002e-01 +2.47959830e-02 -5.01081467e-01 +5.10892987e-01 +5.63953519e-01 -2.40186825e-01 -1.89210594e-01 +3.30704629e-01 -2.56963015e-01 +2.79984325e-01 +3.26608539e-01 -2.16743872e-01 +6.43092468e-02 -6.61738157e-01 -4.36027735e-01 +5.33071935e-01 -3.00355494e-01 -2.28653610e-01 -3.87402147e-01 +4.78595823e-01 +4.23476100e-01 +1.55673221e-01 -2.80764282e-01 +3.38333249e-01 -4.90767419e-01 +5.53644955e-01 -1.28054813e-01 -3.71699892e-02 -3.82059336e-01 +5.26871264e-01 -3.16262484e-01 +3.37559491e-01 -4.14205194e-01 +3.20391864e-01 -4.30298448e-01 -4.36039343e-02 -6.32279813e-01 +1.71978429e-01 -5.77892184e-01 +6.35063887e-01 +2.70838231e-01 -2.44119503e-02 +1.40937746e-01 +1.07103840e-01 -4.53282088e-01 +4.56035435e-01 -4.94312346e-02 +3.59144598e-01 -2.18723804e-01 -2.19544128e-01 +9.81821269e-02 -1.30164787e-01 -6.37455940e-01 +3.32090646e-01 +3.71259063e-01 -2.81396836e-01 +6.19224727e-01 -3.95230889e-01 +1.94194004e-01 +3.28753114e-01 -4.19675380e-01 +4.04688686e-01 -1.75760627e-01 -7.32235909e-02 +3.15965772e-01 -9.08936337e-02 -2.30842069e-01 +2.18169466e-01 -1.51067832e-02 -4.66935605e-01 +5.14954850e-02 +1.86780263e-02 +3.28727305e-01 -1.52668312e-01 +3.76507014e-01 +1.31727532e-01 +5.00118196e-01 -1.36132047e-01 +3.45115840e-01 -5.13064742e-01 +6.09438717e-01 -7.43972436e-02 +1.77501917e-01 +1.26342118e-01 -3.25126201e-01 +3.11908275e-01 +2.36255333e-01 -3.25243443e-01 -1.86670676e-01 -1.96952805e-01 +5.14140606e-01 -5.50294995e-01 +4.11946833e-01 -2.70577431e-01 +2.51843393e-01 -2.69698948e-01 
#Parameter# /_2 {2} 33 ZERO_GRAD
+6.43675923e-01 +5.84838033e-01 
#Parameter# /_3 {50,3} 2401 ZERO_GRAD
+1.79191381e-01 -1.97383270e-01 +3.72748673e-01 -8.61578286e-02 -1.69013798e-01 -5.17442897e-02 +2.05208525e-01 +7.63016846e-03 +5.08681126e-02 +1.81481689e-01 -1.68920040e-01 +3.68311763e-01 +1.84308916e-01 +3.65316689e-01 -1.46109387e-01 -2.75234938e-01 -1.19157031e-01 -1.29676297e-01 +3.76416862e-01 -1.38389632e-01 +3.33114624e-01 -2.12379426e-01 +2.09869817e-01 +4.29194331e-01 -1.50793463e-01 -1.93142503e-01 -1.56213939e-01 -1.43415108e-01 +7.36092776e-02 +4.28462252e-02 +1.99769557e-01 +1.15049720e-01 +2.21925274e-01 -2.30330661e-01 +3.19796175e-01 -1.21078566e-01 -1.56932130e-01 +7.24827945e-02 -1.16910577e-01 -1.82174921e-01 -1.94209553e-02 -3.18401605e-01 +2.91787297e-01 +2.35378876e-01 +2.16042832e-01 -1.43053662e-02 -9.92124006e-02 -1.27640218e-01 -1.15820812e-02 +5.13144024e-02 -9.66454148e-02 -3.24274600e-01 -1.06132776e-01 -2.90204883e-02 -3.12262744e-01 +1.25770504e-02 -1.02335498e-01 +1.76960081e-01 -1.80967197e-01 +3.24267685e-01 +1.71379760e-01 -2.77105361e-01 +2.54770331e-02 +1.90840885e-01 -1.49742514e-01 +3.98550451e-01 -7.44725689e-02 +1.26050070e-01 -3.31839263e-01 +9.48087424e-02 -2.48492464e-01 +2.83640444e-01 -1.43204749e-01 -2.30016895e-02 -8.67385194e-02 +4.19259429e-01 -2.68118888e-01 +1.63274541e-01 -2.40436345e-01 +3.28665584e-01 +1.33279890e-01 -4.22575891e-01 +8.27954635e-02 -9.94249899e-03 -2.17487633e-01 -1.84929430e-01 -3.75767589e-01 -3.83395314e-01 -6.28686100e-02 -6.59581646e-02 +1.79884247e-02 +2.49722391e-01 -2.34165907e-01 +1.63205653e-01 +3.53948832e-01 +1.10525474e-01 -3.38296384e-01 +4.17132070e-03 -4.50119376e-01 -3.37827563e-01 -1.05585866e-01 +2.53912117e-02 -3.03298712e-01 -8.07910189e-02 -2.34882057e-01 -2.45276868e-01 -4.32132855e-02 +2.68876135e-01 +5.80427190e-03 -4.10930300e-03 -9.55295190e-02 -4.10844237e-01 +3.94192003e-02 +8.51834267e-02 -3.49112302e-01 -2.14763671e-01 +2.12897778e-01 +4.40173671e-02 -1.60253704e-01 -1.12244688e-01 -3.45568508e-01 -1.67134270e-01 +2.01671213e-01 -7.93575495e-02 -3.00798655e-01 +1.61763817e-01 -1.09920926e-01 +2.39251330e-01 -1.73748478e-01 -3.32377315e-01 +1.07443698e-01 +3.91570367e-02 -1.90029740e-01 +6.04990348e-02 -2.83183396e-01 -1.01343766e-01 -2.02291563e-01 +1.06075652e-01 -1.17953874e-01 -1.05541214e-01 -3.32854033e-01 -2.74806023e-01 -2.22697422e-01 +5.97842596e-02 -3.51550221e-01 +7.61775970e-02 -1.38566911e-01 +1.14070781e-01 -2.46429890e-01 -2.91998327e-01 
#Parameter# /_4 {50,50} 40001 ZERO_GRAD
+7.96231329e-02 -9.60315317e-02 -2.76777800e-02 -2.95628402e-02 +3.63873355e-02 -1.62134960e-01 +1.91217601e-01 +2.54728228e-01 +6.61666095e-02 +2.08868101e-01 -1.30803272e-01 +6.43948745e-03 +2.79994071e-01 +7.86214098e-02 +2.58494690e-02 +2.97130257e-01 -1.56133100e-01 +2.74905842e-02 +2.46308371e-01 +1.55091316e-01 -2.09936917e-01 +2.43396223e-01 +9.20871124e-02 -7.49140084e-02 +8.22008494e-03 -8.47215131e-02 -2.01464787e-01 -8.92778784e-02 +6.23806417e-02 +2.85091519e-01 -1.34607002e-01 +1.15618721e-01 +1.37075856e-01 +3.13445538e-01 +9.77989435e-02 +1.72824413e-01 -2.32430622e-01 +9.85795353e-03 +8.41217190e-02 -1.05590083e-01 -2.26886831e-02 +2.64919549e-01 +3.12599316e-02 -6.25170693e-02 +1.91604614e-01 -6.33717254e-02 +5.40272193e-03 +1.04146861e-01 +1.97024032e-01 +1.09984562e-01 +3.97375934e-02 -1.13685951e-01 +8.44589695e-02 +6.21394031e-02 -1.45045206e-01 +5.61124571e-02 -7.73135796e-02 +2.29516342e-01 +2.52119690e-01 +1.23792231e-01 -3.34407985e-02 +1.27455369e-01 -6.23622201e-02 -1.30277842e-01 +2.19697163e-01 +1.10983290e-01 -1.15044139e-01 +1.40858591e-01 +2.68181115e-01 +1.62072197e-01 +1.56327784e-01 -4.30589840e-02 -8.57348442e-02 +9.17788446e-02 +2.16028586e-01 +3.20015177e-02 +6.49467632e-02 +2.77928889e-01 +2.36043081e-01 +2.18532503e-01 +2.33867660e-01 -1.01578839e-01 +2.32689515e-01 +8.51029754e-02 +1.19605005e-01 +2.59647727e-01 +1.70793326e-03 -1.55507132e-01 +4.13631350e-01 +4.05584909e-02 +1.69483498e-01 +3.92200388e-02 +2.76230872e-01 +6.54159635e-02 +1.36646070e-02 +1.68649137e-01 +1.97963133e-01 -1.25657499e-01 -3.45852599e-02 +1.57336175e-01 +3.23735952e-01 +1.87594727e-01 +2.50608712e-01 +1.95114329e-01 +1.73329771e-01 -6.24582265e-03 +2.06960067e-01 +1.32372305e-01 -2.40178823e-01 +1.92857251e-01 +1.26864523e-01 +2.60798156e-01 -2.64963321e-02 -6.37808666e-02 +6.75489530e-02 -5.81576824e-02 -1.61977425e-01 -2.37935901e-01 +7.01286420e-02 +2.60928571e-01 -1.38621375e-01 +2.61470824e-01 -1.05199754e-01 +5.33368811e-02 -3.18402439e-01 -1.08074225e-01 -2.56776899e-01 +1.76594079e-01 -2.38929182e-01 -1.54867515e-01 -1.41344830e-01 -7.82999489e-03 +1.65219828e-01 +2.85621434e-01 -6.02763742e-02 -1.25174716e-01 -2.32104927e-01 -2.89138347e-01 +2.99673140e-01 -4.76180762e-02 +7.91425630e-02 +9.87373218e-02 -2.20371872e-01 +1.08240224e-01 +2.83059984e-01 +7.40321800e-02 +1.59453049e-01 +2.50234663e-01 -2.17217833e-01 +1.68449998e-01 +1.97259523e-02 -8.38039741e-02 -8.68467465e-02 -1.80711716e-01 -3.11265141e-01 -4.25377069e-03 -2.02543028e-02 -2.58582145e-01 -6.01660386e-02 -3.81401889e-02 +1.92114025e-01 -9.49785858e-02 -6.46907315e-02 -3.76425683e-02 -4.28301208e-02 -1.64082289e-01 +1.54138485e-03 +6.01155870e-02 -3.97497535e-01 -1.25338867e-01 +1.40108156e-03 -2.12876663e-01 -7.39107281e-02 -3.30711782e-01 -1.87559053e-01 -6.33190423e-02 +1.41873181e-01 +1.60727069e-01 -1.54835522e-01 +1.68958038e-01 -1.06719173e-01 -1.10680990e-01 -1.16732284e-01 -3.42093349e-01 -1.56467617e-01 +2.56136686e-01 -5.40655479e-02 -6.04492202e-02 -1.66931704e-01 +7.81455934e-02 -1.57495454e-01 -2.00096354e-01 +1.49043605e-01 -3.67767692e-01 -1.33108899e-01 +3.42061482e-02 -1.56178102e-01 -3.41819972e-01 -7.90736377e-02 -1.66678429e-02 -1.72667429e-01 +1.43894389e-01 -1.36726782e-01 -1.04011931e-02 +6.83973283e-02 +1.74611330e-01 -1.78483669e-02 +4.37122993e-02 +1.83522239e-01 +8.14467594e-02 -2.39179477e-01 +2.08893821e-01 +1.01365283e-01 -1.15513101e-01 +5.46927080e-02 +5.64740710e-02 -2.39320353e-01 -6.82304576e-02 +1.18239328e-01 +9.20922607e-02 -9.61761177e-02 -1.56166270e-01 +5.26794456e-02 +2.88982689e-01 -8.03321227e-02 -4.93483543e-02 +1.75008699e-02 -1.39474880e-03 +2.49004364e-01 -7.42813423e-02 -1.21166490e-01 +1.58342764e-01 +4.96639684e-02 -9.68951359e-02 -1.02766022e-01 -3.50518897e-02 +2.48934329e-01 +2.63434261e-01 +1.54739022e-01 +2.05555618e-01 -1.75693169e-01 -1.91958427e-01 +9.67291892e-02 -1.45059610e-02 +4.12247218e-02 +1.14944264e-01 -1.68316409e-01 -9.15724114e-02 +7.05831125e-02 -3.23150605e-01 -3.84231389e-01 +1.19364999e-01 -1.30792767e-01 -3.23544085e-01 -1.81113765e-01 +5.15304320e-02 -2.18603298e-01 +2.30440691e-01 +7.51674292e-04 -3.44466984e-01 -2.95490801e-01 -2.51881599e-01 +1.21625111e-01 +8.31914917e-02 -1.89567119e-01 +1.13012508e-01 -6.99968189e-02 +7.16352165e-02 -2.57687539e-01 -1.82538912e-01 -2.23469451e-01 -2.33373150e-01 +3.63112614e-02 -6.39960319e-02 -3.20282370e-01 -2.60653347e-01 -1.28958911e-01 -2.05959946e-01 -4.01253730e-01 -1.80858523e-01 -3.19817841e-01 -1.79363504e-01 +5.07794842e-02 -4.28957166e-03 -1.95991114e-01 +4.86230738e-02 -5.67708611e-02 +9.81459916e-02 -3.32836330e-01 -3.57142426e-02 -3.09904844e-01 +1.63658738e-01 +4.66681458e-02 -3.52337696e-02 -2.44023651e-01 +8.18430781e-02 +8.35369676e-02 +9.10735875e-02 -9.88909751e-02 +4.72296551e-02 -1.17599852e-01 -1.96350455e-01 +2.12467685e-01 -4.81358431e-02 -4.48195860e-02 -6.44666255e-02 +2.20958769e-01 -1.02034092e-01 +6.56626225e-02 +1.08992167e-01 +1.47840366e-01 +2.32210919e-01 +7.15454370e-02 -1.92366138e-01 -8.74334946e-02 +1.65372655e-01 -1.49258211e-01 +4.22226936e-02 -1.75881758e-01 +9.32505503e-02 -3.99610624e-02 +1.74979135e-01 -1.24034338e-01 -1.14580374e-02 +3.27379048e-01 +8.98605287e-02 +2.51410216e-01 -1.18757412e-01 +9.42180380e-02 -6.07026592e-02 +3.31649125e-01 +2.69575834e-01 -3.44636030e-02 +1.20043881e-01 +5.83825447e-02 +1.03183039e-01 +1.54618397e-01 -1.47857293e-01 +1.42455306e-02 +2.08420753e-01 -1.32897839e-01 +1.73099682e-01 -7.96722919e-02 +3.08603972e-01 -4.47835922e-02 -2.13881463e-01 +4.76509668e-02 +2.37206027e-01 +1.86432421e-01 -1.47196099e-01 +3.92293125e-01 -9.64835361e-02 +8.54978338e-02 +1.66755408e-01 +1.11748107e-01 +2.43876711e-01 +1.35723323e-01 +1.40419126e-01 +4.61591259e-02 +3.92077982e-01 -2.27784105e-02 +2.42355503e-02 +2.19794601e-01 +3.69466543e-02 +4.97193914e-03 -2.15125158e-01 -1.55758306e-01 +1.79782495e-01 +1.09186307e-01 +1.11962788e-01 -8.06025416e-02 +1.11921668e-01 -8.00193027e-02 +4.14331444e-03 +9.53253880e-02 +2.51865774e-01 -1.73470691e-01 +3.08764607e-01 +4.44484770e-01 +1.88258260e-01 -7.16632679e-02 -5.46678454e-02 +1.34919912e-01 -1.62241459e-01 +4.07265484e-01 +3.59509468e-01 -1.08079717e-01 -9.87352356e-02 +1.21726036e-01 +2.54595160e-01 +4.57778312e-02 -1.22260705e-01 +1.90983608e-01 +3.91207486e-02 -2.21846327e-02 +3.56359452e-01 +1.32883027e-01 +3.17438245e-01 +2.08843216e-01 +1.18266590e-01 -1.08244218e-01 -8.66992176e-02 +2.98969243e-02 +2.36629233e-01 +1.66055914e-02 +2.10079148e-01 +8.71959105e-02 +9.12620723e-02 -8.06936398e-02 +2.86588460e-01 +2.69723564e-01 +2.83671230e-01 +4.08153057e-01 -7.01310858e-02 +1.49439365e-01 +5.47451563e-02 -7.89402872e-02 +3.04238707e-01 -5.88240027e-02 +9.38410759e-02 +2.72846401e-01 +3.21051925e-01 +1.55594870e-01 +2.08280250e-01 -3.34540079e-03 -1.54537737e-01 -1.03171840e-01 +9.20174420e-02 +1.11800440e-01 +9.16357115e-02 +4.54572439e-02 +6.22546524e-02 -7.58047476e-02 -9.76705272e-03 +5.90677895e-02 -1.62530124e-01 +2.31371239e-01 -1.95445567e-02 -1.23799816e-01 +1.08354069e-01 +1.36816382e-01 +6.17463104e-02 +1.21435747e-01 +3.70430976e-01 +2.57520586e-01 -4.85049523e-02 +1.99663103e-01 +2.30901204e-02 +1.42736048e-01 +1.32578507e-01 -1.97280392e-01 +2.09943838e-02 -1.88515022e-01 +1.40340075e-01 +1.40660912e-01 +8.20601508e-02 +3.02324239e-02 -2.57508844e-01 +1.24932863e-01 -5.99511201e-03 +2.06677858e-02 +1.32438868e-01 +1.68786690e-01 +1.09449327e-01 -1.75042540e-01 -1.68552071e-01 +7.04253241e-02 -6.41732514e-02 -3.85160395e-03 +1.87359601e-01 +1.37767375e-01 -1.09665118e-01 +1.49509624e-01 +1.02391161e-01 +1.96407512e-01 -1.34517953e-01 +2.61665225e-01 +1.51574507e-01 +9.34282988e-02 +1.05474845e-01 -1.58405885e-01 -9.29576531e-02 +1.90817520e-01 +1.63925722e-01 +3.56493175e-01 +2.81814039e-01 -9.12980065e-02 +2.46612474e-01 +1.35082051e-01 +3.47016975e-02 -6.60380945e-02 -1.72384027e-02 +2.69327313e-01 +1.54397860e-01 -4.70611751e-02 -2.08752438e-01 +2.94665135e-02 -2.43431449e-01 +7.53706172e-02 -2.00405732e-01 -5.27638607e-02 -1.64111778e-01 -1.62805468e-01 -4.92608584e-02 -3.34371835e-01 +1.70470595e-01 +8.70713070e-02 +1.56315804e-01 -2.65690297e-01 +1.21068617e-03 -1.95662603e-01 -1.84859544e-01 -1.66363940e-01 +1.58893839e-01 -3.29430811e-02 +2.28147320e-02 -2.38370776e-01 +4.45685070e-03 -1.18649460e-01 -1.84163019e-01 -1.63872480e-01 -2.03309968e-01 -1.87528178e-01 +6.60236180e-02 -3.69529277e-01 -6.28837571e-02 +1.41668946e-01 +4.33754176e-02 -2.46846676e-01 -1.14650145e-01 -1.05463699e-01 +5.19271754e-02 -2.57784754e-01 +2.81796847e-02 -1.69262737e-01 +1.62276283e-01 -1.97717994e-02 +3.05796470e-02 -1.49525359e-01 -2.01203465e-01 -1.50881171e-01 +1.86395511e-01 -2.74347663e-02 +1.56646043e-01 -2.56595135e-01 +3.12730335e-02 -2.77752668e-01 +1.17427841e-01 -5.01802526e-02 -7.38092363e-02 -2.56096303e-01 +1.42572179e-01 -2.68470317e-01 -3.17217946e-01 -2.30915874e-01 +2.06682738e-02 +2.00968206e-01 +1.64275020e-01 +3.53148133e-01 -1.09269559e-01 -3.76191497e-01 +1.65330414e-02 -6.90300111e-03 +1.10837959e-01 -2.69242413e-02 +4.84253559e-03 -7.66383931e-02 +6.50687739e-02 -8.11499730e-02 +2.93841492e-03 -3.70619506e-01 -5.79500459e-02 +1.30229652e-01 +1.30175740e-01 +1.64582789e-01 +1.29184157e-01 -2.20731273e-01 +7.64030591e-02 +2.10036755e-01 -1.29437476e-01 -7.14827776e-02 -3.71516980e-02 +1.58262685e-01 +1.34056313e-02 -1.23270072e-01 -3.26785184e-02 -6.31300285e-02 -1.38961464e-01 +1.93329826e-01 -1.16879717e-01 +1.24672882e-01 -5.15996635e-01 +2.19623476e-01 -2.74852723e-01 -2.18348414e-01 +1.38944075e-01 -2.05767497e-01 -8.10156316e-02 -1.06226102e-01 -1.13185398e-01 -1.27292186e-01 -1.21506810e-01 +1.41957000e-01 +1.50391003e-02 -2.05472603e-01 +3.39921117e-02 -8.80846158e-02 +1.79184794e-01 -2.37185434e-01 -2.34593555e-01 -2.98508227e-01 +1.80415377e-01 -1.14056200e-01 -1.83877185e-01 -6.56864643e-02 -3.90378945e-02 +1.59083962e-01 -2.55232781e-01 -8.71354192e-02 -1.50406301e-01 -6.75999522e-02 +1.68330699e-01 -1.03098288e-01 +1.19789824e-01 -2.53359079e-01 -2.42194198e-02 -3.09430629e-01 +1.19915575e-01 -1.71765372e-01 -2.18151938e-02 +1.28528357e-01 -1.75260857e-01 -2.24040031e-01 +1.40124485e-01 -1.16954580e-01 +1.43779665e-01 -2.79627591e-02 -2.34699681e-01 +7.35706538e-02 -2.66736388e-01 +2.01007351e-01 +6.40535131e-02 -5.40155312e-03 -1.33332416e-01 +1.61717325e-01 -8.51193741e-02 +2.68790781e-01 +1.99219793e-01 +9.56222508e-03 +2.43593618e-01 +2.87175607e-02 +2.11608484e-01 -2.68086672e-01 -5.93493469e-02 +3.11750267e-02 +1.96100444e-01 -2.10314855e-01 +1.75922349e-01 -5.32498816e-03 +1.65387373e-02 -1.41219366e-02 -2.93931872e-01 -1.67679787e-01 +9.68788862e-02 -1.58068433e-01 -2.53490657e-01 -1.56907663e-02 -2.69265145e-01 -2.72600293e-01 -2.25913420e-01 -5.49837798e-02 +4.69007082e-02 -1.23622760e-01 -2.02376902e-01 -1.98657140e-01 +5.33447117e-02 -4.61358437e-03 -1.15372084e-01 -2.46658638e-01 +5.05669750e-02 -9.79434624e-02 -3.20600152e-01 -3.60133171e-01 +8.13704655e-02 +1.09433591e-01 +1.00220717e-01 +5.35738356e-02 +4.85590808e-02 -2.45066613e-01 -9.47019234e-02 -1.06833959e-02 +7.30442256e-02 +1.02613248e-01 -1.12892963e-01 +1.20006308e-01 +5.77200130e-02 -2.33109072e-01 -1.49569899e-01 -3.22497606e-01 -4.00622696e-01 -2.32503489e-01 +1.03663586e-01 -9.54730883e-02 -1.03920467e-01 -6.49909750e-02 +2.68078178e-01 +5.28233647e-02 +1.27468444e-02 +1.11510478e-01 +1.07173122e-01 +2.30735214e-03 +2.45890059e-02 +5.42901047e-02 +1.22536689e-01 -6.61203191e-02 -1.47582904e-01 -9.07740518e-02 +1.67043984e-01 -2.50499517e-01 -1.32980663e-02 +1.07472278e-01 +4.12263311e-02 -2.25733846e-01 +6.21178709e-02 +2.79967636e-01 +8.87628496e-02 +1.62808940e-01 -6.39948696e-02 -2.85336599e-02 +1.01613142e-01 +1.71751916e-01 -1.68416426e-01 +1.97297305e-01 -3.62008274e-01 +3.46971273e-01 +1.27761289e-01 -2.26628967e-02 -5.14480062e-02 +2.31775208e-04 +1.17004782e-01 +7.65122548e-02 -3.54455635e-02 -2.21748278e-01 -1.66025385e-01 -6.12650737e-02 +1.81581154e-01 -1.96748108e-01 -2.36439273e-01 -1.60505101e-01 +2.50631571e-02 +2.56830044e-02 -1.92696661e-01 -1.36216044e-01 -2.18387078e-02 -3.49602550e-02 -2.94307739e-01 -2.53132321e-02 +7.78603032e-02 -1.85857609e-01 -3.22368562e-01 +1.54144540e-01 -1.99108109e-01 +1.71959735e-02 -1.01630181e-01 -2.47537732e-01 +1.81249619e-01 -2.11256277e-02 -1.92148939e-01 -2.40564257e-01 -3.35273594e-01 -1.03771880e-01 -1.22834995e-01 -1.35522559e-01 +1.48519361e-02 -3.15520972e-01 -1.03577457e-01 +8.65776688e-02 -2.63333976e-01 -3.13442022e-01 -1.77453575e-03 +1.29434690e-01 -2.24335670e-01 +2.78374813e-02 -2.21218225e-02 -1.37112647e-01 +1.34933805e-02 -3.24698567e-01 +1.15340948e-01 -1.03269652e-01 -2.18397439e-01 -1.41461715e-01 +3.05990934e-01 -3.20264935e-01 +1.52119040e-01 -5.08312881e-02 -2.01068193e-01 -1.73381239e-01 -2.66283035e-01 -2.39772215e-01 +2.26995915e-01 -1.31449595e-01 +4.79630008e-02 -2.88472712e-01 -3.98770571e-02 -1.66836798e-01 -2.00697437e-01 -2.36510828e-01 -2.20466584e-01 -3.24234106e-02 -2.90990591e-01 -6.09112158e-02 -1.42771363e-01 +1.72959656e-01 +2.04859450e-02 -7.09594637e-02 +5.33701703e-02 +8.36552680e-02 +1.69642478e-01 -2.41301790e-01 -2.10079581e-01 -3.41197215e-02 +1.81551389e-02 +1.26337022e-01 -1.84419587e-01 -3.47362131e-01 -1.79745197e-01 -6.32640943e-02 +7.45828450e-02 -2.41397843e-01 -5.87593317e-02 +9.40580964e-02 -1.19613521e-01 -1.70349583e-01 +1.24164268e-01 -1.02434643e-01 -2.06390589e-01 -1.78220987e-01 +1.48137361e-01 -1.97152406e-01 -1.23895511e-01 -3.07373181e-02 -1.42628238e-01 -4.98273037e-03 -9.47703328e-03 -2.44668782e-01 -5.79762571e-02 -2.83771843e-01 +9.34359506e-02 -1.58406958e-01 -2.23333955e-01 +4.29121032e-02 -1.13766804e-01 +4.41155881e-02 -1.31134670e-02 +3.32839072e-01 +1.45650893e-01 +2.32745379e-01 +1.11488244e-02 +1.76408067e-01 +3.84674743e-02 -9.84409675e-02 +1.50735676e-01 +2.30822027e-01 +2.02989563e-01 +3.26997876e-01 -1.74336866e-01 -2.00888157e-01 +2.66968429e-01 +7.96768442e-02 +1.13435518e-02 +2.97450330e-02 -1.71862379e-01 -1.01449147e-01 +9.33618844e-02 +3.52439225e-01 -1.02839127e-01 +3.41251120e-02 +1.12613022e-01 +1.08549267e-01 +2.47812733e-01 +2.08881438e-01 +5.59531413e-02 +1.70182377e-01 +3.66061553e-02 -5.23582138e-02 -1.61080480e-01 +1.37188300e-01 +9.27719250e-02 +9.94120073e-03 +6.29980266e-02 +9.64077935e-02 +2.03820586e-01 +2.75880069e-01 +9.54492241e-02 -5.91428988e-02 -3.45246680e-03 -6.66677728e-02 +2.48229668e-01 +4.13778313e-02 +2.58431844e-02 +8.12333301e-02 -2.19700664e-01 -4.98878248e-02 -2.38538161e-01 -3.38382795e-02 -4.48133238e-02 +6.80437163e-02 +1.53108872e-02 +1.16122678e-01 -1.40727937e-01 +4.38572057e-02 +9.93400142e-02 -1.29867360e-01 -6.20481148e-02 -1.65077448e-01 +3.38833891e-02 +1.96969941e-01 +4.86614369e-02 +1.27754554e-01 -8.50738436e-02 -2.33695075e-01 -7.41218477e-02 -1.35823980e-01 -4.28687781e-03 +1.42422169e-01 +6.50102794e-02 -1.93450570e-01 -1.51512608e-01 -2.24279672e-01 +1.18581587e-02 +5.35484813e-02 -8.35170597e-02 +1.41639560e-01 +8.65919590e-02 -2.78929293e-01 -2.08034307e-01 -2.76646286e-01 +7.36604035e-02 +5.01043499e-02 -1.47129640e-01 +1.91847280e-01 +2.64104247e-01 +8.88576284e-02 -1.15856700e-01 -8.57686773e-02 +2.53514290e-01 -2.12286711e-01 -5.39534874e-02 -1.08174197e-01 +1.44675836e-01 +5.09357341e-02 -4.04365882e-02 -9.40505788e-02 -1.37982965e-01 +7.05602169e-02 +1.79604031e-02 -3.08736026e-01 -2.59013683e-01 -1.39436126e-01 +1.62117630e-01 +3.18728834e-02 +1.06078342e-01 -8.73334855e-02 -1.34677052e-01 -3.26955110e-01 -5.62314987e-02 -4.11995947e-02 +1.15925789e-01 -2.52443314e-01 -2.04727024e-01 -5.03096692e-02 +1.29304990e-01 +2.35100955e-01 -2.75646776e-01 +1.70020133e-01 +1.17294714e-01 +2.28798673e-01 +2.19918519e-01 +1.12553306e-01 +5.90134300e-02 -1.99974671e-01 -1.60983250e-01 +1.41368940e-01 +6.37950152e-02 +5.12741506e-02 +2.47095928e-01 +3.25946659e-01 +2.02431694e-01 -1.64391398e-02 -1.36657298e-01 -4.70491722e-02 +1.33238912e-01 -1.30581195e-02 +4.03971262e-02 -1.63856119e-01 +2.34964848e-01 -6.20145425e-02 -1.94831133e-01 +2.91875913e-03 -1.49843648e-01 -2.89355844e-01 -9.27259475e-02 -1.80936828e-01 +5.95832840e-02 +1.50026977e-01 -9.16998088e-02 +1.35586858e-01 -1.34343505e-01 -1.22541629e-01 -1.82375088e-01 -2.22836837e-01 -2.16870412e-01 -2.83335060e-01 -1.90889239e-01 -6.71827048e-02 -9.84536931e-02 +1.10492416e-01 -1.52893618e-01 -1.88280478e-01 -3.30700785e-01 +1.02453068e-01 -1.24731414e-01 -2.13284656e-01 -6.84795603e-02 +9.05104429e-02 +1.73183866e-02 -9.47505832e-02 +6.38494268e-02 -7.40738213e-02 +2.74445385e-01 -2.97527105e-01 +8.97084847e-02 +6.19100556e-02 -1.66191950e-01 +1.52444959e-01 +1.44007010e-02 +1.88458234e-01 -8.51924494e-02 -8.96401927e-02 -1.90470684e-02 -3.26784134e-01 +5.19138500e-02 +1.40966803e-01 -2.95578420e-01 -2.06199512e-01 -2.71227300e-01 -2.49933973e-01 +1.47319302e-01 -1.76761106e-01 +7.88466111e-02 -1.27393946e-01 +1.08447328e-01 +1.06416747e-01 -1.46206126e-01 -1.42225266e-01 -1.93649456e-01 -1.35491595e-01 +6.85615465e-02 -2.79773206e-01 -8.14346597e-02 +7.68532464e-03 -2.37674102e-01 -2.62280386e-02 -1.18171662e-01 -2.08488673e-01 -2.29972955e-02 -2.32267320e-01 -4.52901758e-02 +2.36873507e-01 -2.42823318e-01 -2.82036424e-01 -1.67718217e-01 -1.42285109e-01 -1.38517842e-01 -1.99783370e-01 -2.19306841e-01 -1.26215639e-02 -2.12592557e-01 -8.52505714e-02 -1.51971737e-02 -8.60363767e-02 +9.75029245e-02 -1.35587841e-01 +1.55932963e-01 -1.97774678e-01 -1.10080823e-01 +1.49490982e-02 -2.06905425e-01 +1.23594381e-01 +1.67085320e-01 -6.72627836e-02 -8.41558129e-02 +1.01980828e-01 +6.31144643e-02 +5.67506347e-03 +1.11611567e-01 +2.49267429e-01 -1.15646601e-01 -4.21045609e-02 +4.23606625e-03 +2.47296672e-02 +5.01334518e-02 +1.57967955e-01 +1.73541829e-01 +1.13120779e-01 -3.36418301e-02 -1.99190110e-01 -3.94327641e-02 +2.88858954e-02 +3.00015807e-01 +2.25099444e-01 +3.08367729e-01 +3.64813149e-01 +1.87511399e-01 +3.83284807e-01 +1.47381485e-01 -7.04229027e-02 +2.27247670e-01 +2.78514296e-01 +7.05089197e-02 -1.85716942e-01 +3.24538238e-02 +2.19925642e-01 +2.66117007e-01 +1.21457927e-01 -1.15317628e-01 -9.78592932e-02 -5.37477322e-02 +1.13195069e-01 +1.85108066e-01 -1.01170875e-01 +6.63026422e-02 +1.60433829e-01 +2.83587188e-01 -3.04766335e-02 -1.04145192e-01 +2.15930000e-01 -1.12940697e-02 -2.58745532e-03 +1.04444139e-01 +2.29078591e-01 -1.53909385e-01 -7.49422014e-02 +1.90966830e-01 -7.53620863e-02 +2.52694488e-01 -7.49276504e-02 +3.17107558e-01 +3.05992514e-01 +2.79737741e-01 +1.39437735e-01 +7.61464834e-02 +1.46679565e-01 +6.79792324e-03 +4.21358645e-02 +2.73347627e-02 -1.60167858e-01 -1.78297088e-01 -1.13890432e-01 +6.04084600e-03 +1.53231829e-01 +1.93946943e-01 -1.36461295e-02 -5.10421582e-02 +3.65849048e-01 -1.78148985e-01 +3.91425192e-02 -6.33122101e-02 +3.59339237e-01 +1.48746312e-01 -1.01775050e-01 -6.90242723e-02 +2.49277707e-02 -7.68358409e-02 -4.58640745e-03 +1.45611791e-02 -6.38497472e-02 -1.26435896e-02 +4.27087903e-01 -1.17531687e-01 -3.96417119e-02 +2.30453357e-01 +2.36954942e-01 +2.91743070e-01 +4.96708229e-02 +1.09277010e-01 +9.89827514e-02 +1.67615101e-01 +1.14980139e-01 -6.96122497e-02 +2.22636342e-01 -1.16870411e-01 +8.57383534e-02 +3.69117916e-01 +2.74817377e-01 +2.97534484e-02 +1.99306771e-01 -4.88521121e-02 +1.60404712e-01 +2.65282452e-01 +3.37478906e-01 +9.97579619e-02 -2.58248579e-02 +7.05061406e-02 -5.49004078e-02 -5.85762374e-02 +2.43475363e-01 +2.57900804e-01 -1.68393299e-01 +1.95714876e-01 +4.28411625e-02 +2.70563245e-01 +3.47134352e-01 +2.33191699e-01 +7.15751667e-03 -1.58258826e-01 -1.57690570e-01 +1.73471868e-02 -8.94273743e-02 -7.63474181e-02 -5.29600196e-02 +2.70770729e-01 +2.28506932e-03 -1.36534208e-02 +6.20557880e-03 -1.39289856e-01 -5.56671061e-02 +1.73213929e-01 -7.40960538e-02 -2.31683940e-01 +4.36459109e-02 +7.62238950e-02 -1.15080364e-01 +8.84678811e-02 -5.11378013e-02 -1.50273055e-01 -9.76335332e-02 +2.08014101e-01 -1.68081880e-01 +2.00173892e-02 +1.08536094e-01 +1.69367000e-01 +6.58285171e-02 +1.96036473e-01 -1.07548110e-01 +1.20682955e-01 +3.07408065e-01 -1.20287031e-01 +7.69920871e-02 +1.86783463e-01 -3.72893184e-01 +6.18354939e-02 +8.18458502e-04 +2.40147002e-02 -2.37597272e-01 -5.17593399e-02 +1.30396530e-01 -1.07216872e-01 -1.17439814e-01 -6.50697649e-02 +2.07370240e-02 -8.28530416e-02 -1.83215905e-02 +1.19521052e-01 +1.11945830e-01 +5.63779138e-02 +8.07444677e-02 -1.19947135e-01 -7.40691572e-02 -2.20055103e-01 -2.27142256e-02 -4.90973294e-02 -1.89758837e-02 +1.18667394e-01 -3.75029147e-02 -2.42128000e-02 +3.11885215e-03 -7.04612955e-02 -2.50099629e-01 +1.43725485e-01 +2.37098280e-02 -1.32728085e-01 -2.68016994e-01 -1.85447142e-01 -7.74792768e-03 -2.66586214e-01 -1.30545512e-01 -2.31266707e-01 +6.55261502e-02 -2.02667743e-01 -1.43223315e-01 -1.42446384e-01 -2.13273242e-01 +1.38749987e-01 -2.10472688e-01 -1.12303765e-02 +7.44978487e-02 -6.76873326e-02 -2.70937353e-01 +1.69336408e-01 +3.02150935e-01 -2.14657813e-01 -8.32338855e-02 +3.42694223e-01 -3.77242006e-02 +8.67931172e-02 -2.51315534e-02 +6.83794767e-02 -5.55203184e-02 +1.05085433e-01 +8.48858356e-02 -2.04768404e-02 +1.85988784e-01 +2.05943450e-01 +3.65773708e-01 +4.98217270e-02 -1.06904149e-01 -8.14700797e-02 -9.02833566e-02 +2.28841394e-01 +2.31982935e-02 -1.35906279e-01 -1.42418817e-01 +2.27855980e-01 -5.23538664e-02 +2.11527586e-01 -9.64818224e-02 +3.14504981e-01 -4.71559875e-02 +1.27835557e-01 +5.40230609e-03 -3.85543704e-02 -5.60030043e-02 +2.37049028e-01 +1.67381465e-01 +2.30482355e-01 +1.79053500e-01 -1.57719646e-02 +3.12021494e-01 -1.45647541e-01 -6.00241087e-02 -2.10204780e-01 +1.21044487e-01 +2.83849120e-01 +8.23935866e-02 +2.38460332e-01 +2.89347857e-01 +2.87074834e-01 +3.30120400e-02 +8.49967152e-02 -7.22192004e-02 -1.83321327e-01 +1.75944895e-01 +1.03381909e-01 +1.24165528e-01 +1.36968523e-01 +2.31451124e-01 +1.72907725e-01 -8.74937847e-02 +2.79696107e-01 +2.71578729e-01 +3.10330212e-01 +3.59836847e-01 -1.89160556e-01 -3.50816473e-02 -4.75748852e-02 +1.10764034e-01 +2.83160359e-01 +9.01820287e-02 +2.19810337e-01 -1.16452411e-01 +5.94271943e-02 -1.51687056e-01 +8.39570984e-02 -3.56690921e-02 -7.38931671e-02 -1.75307453e-01 +3.05210829e-01 +1.11128949e-02 +3.32165137e-02 +3.06042470e-02 +6.81050122e-04 +1.81261182e-01 +1.29175425e-01 +1.20749157e-02 +6.13685586e-02 -8.40567425e-02 +1.97702542e-01 +2.05487788e-01 +2.76766736e-02 +2.52109915e-01 +2.38673449e-01 +1.72374785e-01 -7.40183168e-04 +1.81364343e-01 +2.12412983e-01 -8.90163928e-02 +1.58776239e-01 +2.98730314e-01 +3.08091938e-01 +4.94020730e-02 +3.07013154e-01 -2.14955240e-01 +2.52302699e-02 +6.15483783e-02 +6.70117605e-03 -2.46976331e-01 -3.42933983e-02 +2.44549572e-01 +2.90215224e-01 +4.93651293e-02 -1.63822025e-01 -4.21498954e-01 +2.31738001e-01 +1.44553125e-01 -4.15428057e-02 -1.51874155e-01 -8.20493624e-02 +3.66290696e-02 -2.82577407e-02 +1.46751806e-01 -1.57053977e-01 -1.36863798e-01 -1.35443285e-01 +2.69834846e-01 +9.25149955e-03 +1.69140026e-01 -1.68415174e-01 +1.22399114e-01 +4.89844661e-03 +2.53458079e-02 +1.82023361e-01 +9.69155729e-02 -2.72799015e-01 +4.34501320e-01 +2.02453628e-01 +6.62543327e-02 +2.48636827e-01 +3.24821323e-02 -9.06821433e-03 +1.26123950e-01 -1.35998994e-01 +2.08395466e-01 -5.06352365e-01 -2.67647833e-01 +2.72087544e-01 +7.19779581e-02 -5.70014231e-02 +2.07990989e-01 -2.89919198e-01 +4.88805063e-02 -3.40862758e-03 -2.44612649e-01 -2.55854040e-01 -1.67029500e-01 +1.97612956e-01 -1.10909209e-01 -2.12594926e-01 -3.75299938e-02 -1.00706339e-01 -4.07897793e-02 -2.17849284e-01 -2.66933620e-01 +2.01129720e-01 +4.79933731e-02 -1.55121610e-01 -1.59398783e-02 -5.93694523e-02 +1.70279872e-02 -3.90698165e-01 -9.16931480e-02 -4.54849452e-02 -1.02066487e-01 -3.46260101e-01 -4.65372950e-02 -2.64612466e-01 +2.72959527e-02 -3.50616843e-01 -9.76384133e-02 +2.81806774e-02 +1.37329966e-01 -1.16400696e-01 -2.04393148e-01 +1.40787750e-01 -2.73961663e-01 -1.16891205e-01 +6.24441393e-02 -2.06920709e-02 -1.12290993e-01 -6.40574023e-02 -2.77964056e-01 -3.85411717e-02 -8.80018324e-02 -2.35625114e-02 +8.96299183e-02 +4.02884483e-02 -1.60443410e-01 +1.70850486e-01 -7.11060092e-02 -2.99042046e-01 -3.91570032e-01 +8.73051435e-02 -2.85403937e-01 -2.29235485e-01 -1.45310730e-01 +2.36867577e-01 -2.07246885e-01 +1.80598781e-01 +1.13737494e-01 +7.24390373e-02 -2.98724204e-01 -4.09731269e-01 -1.73486695e-02 +8.18721205e-02 -6.45405576e-02 -3.62136997e-02 +2.09325224e-01 -1.26504362e-01 -2.99081385e-01 -4.88598533e-02 -6.99313134e-02 +5.02880067e-02 -3.12317997e-01 +3.40657607e-02 -2.74195690e-02 -7.84964561e-02 -2.35986382e-01 +6.85397089e-02 -1.18189149e-01 +1.37165770e-01 +1.59456078e-02 +5.35022579e-02 -3.10307413e-01 -7.79112428e-02 -1.65516898e-01 -2.29061514e-01 +8.22968930e-02 -1.79820359e-01 -3.42989236e-01 -1.16376929e-01 -1.29178926e-01 -2.70896286e-01 -1.51721925e-01 -2.82990307e-01 -6.04811087e-02 -7.19231507e-03 -2.14588642e-01 -2.45174497e-01 -2.79537588e-01 -9.97384638e-02 +2.30187386e-01 +7.34732375e-02 -4.60332520e-02 +9.26656425e-02 +1.08309045e-01 +2.09840804e-01 +2.27301672e-01 +1.90958738e-01 -9.50329378e-02 -4.59019579e-02 -1.84790511e-02 -2.10010144e-03 +1.76195502e-01 -1.39549866e-01 -4.07408327e-02 +1.16203927e-01 +4.96657053e-03 +2.39078254e-02 +1.01201177e-01 +6.80786371e-03 +9.83112156e-02 -1.31957561e-01 +2.23148376e-01 -2.92043891e-02 -2.93614089e-01 +3.53086293e-02 -1.23905703e-01 +2.68011123e-01 +3.32611620e-01 -2.27119654e-01 +2.79143423e-01 -9.52202007e-02 -4.12841365e-02 +8.60566273e-02 -5.48650883e-02 -8.55674595e-02 +1.52555794e-01 +3.24997008e-02 +2.00685099e-01 +3.74132507e-02 -1.04044666e-04 +1.76923230e-01 +2.89137393e-01 +2.39588290e-01 -1.71472400e-01 -3.49463969e-02 +2.03048825e-01 -5.89088723e-02 -5.32876216e-02 +3.09275389e-01 -6.29292130e-02 -8.10909569e-02 -2.67324030e-01 -1.29268780e-01 +7.34423697e-02 +2.37529159e-01 +2.11174972e-02 -2.60337114e-01 +1.92359120e-01 -1.12223983e-01 +6.50656298e-02 +4.71117580e-03 -3.67154181e-01 -2.25380793e-01 -4.35910195e-01 +1.67692564e-02 +6.22810721e-02 -2.52483368e-01 -3.29108745e-01 -9.79997665e-02 -2.39733323e-01 -1.67829290e-01 +1.42314732e-02 +8.31100568e-02 +2.64142513e-01 +2.19076991e-01 +2.31425807e-01 -1.72503456e-01 -2.83650875e-01 -2.30774745e-01 -1.55031949e-01 +7.12292939e-02 -1.74061254e-01 -1.40211612e-01 -2.10314035e-01 +1.99732020e-01 -1.78183839e-01 +7.83809498e-02 -6.53268397e-02 -2.20796973e-01 -2.79758144e-02 -1.51023537e-01 -1.81129202e-01 -3.02316129e-01 -2.36409113e-01 -1.20527320e-01 -1.29317999e-01 +2.00700760e-02 -1.11406736e-01 -2.94786245e-01 -6.39727935e-02 -8.75622854e-02 -2.08086655e-01 +1.36345536e-01 -1.70223534e-01 -2.96294931e-02 -5.13605066e-02 -1.94033906e-02 +4.89791706e-02 -1.48268431e-01 +3.45364138e-02 -7.73612002e-04 +6.52379841e-02 -5.08666076e-02 +2.36126170e-01 -2.08123356e-01 +1.48978561e-01 -1.55354932e-01 -8.83818418e-02 -1.92681849e-01 -1.48362458e-01 +6.29987419e-02 +1.60178885e-01 -1.98309660e-01 -2.97670275e-01 -1.09886348e-01 -9.44643617e-02 +1.56188786e-01 -1.14310622e-01 +6.06974307e-03 -6.99252449e-03 +1.76580593e-01 +4.14403863e-02 +8.54499936e-02 -1.01581044e-01 -8.58054012e-02 +2.44599562e-02 -3.16907763e-01 +1.01646595e-01 -1.47293434e-01 +1.00340158e-01 +1.89843595e-01 +3.81115521e-03 +5.39529733e-02 -2.56185144e-01 -1.08283222e-01 -2.29144588e-01 -6.55469969e-02 +1.11853443e-01 +4.60334569e-02 +3.63857925e-01 -1.21110238e-01 +2.48375565e-01 +7.23096505e-02 -3.60337235e-02 +2.97170179e-03 +2.90129989e-01 +1.37331225e-02 +1.10347830e-01 -5.25023863e-02 +2.61804074e-01 +1.90000013e-01 +1.56363338e-01 +1.93847284e-01 +1.89168870e-01 +1.58524826e-01 +1.26055911e-01 -1.35423928e-01 +2.05931947e-01 +3.45303565e-01 +1.55261517e-01 +1.57947272e-01 -1.42056495e-01 +5.22205643e-02 +3.55227292e-02 -1.48260286e-02 -8.19872692e-02 +2.08651155e-01 +5.13114734e-03 -2.20882148e-01 -1.35022223e-01 +2.31696993e-01 -1.51941210e-01 +3.87177348e-01 -3.92865669e-03 -2.71549463e-01 -2.23950058e-01 +6.13419302e-02 +3.31563652e-01 -2.74619646e-02 -4.36774977e-02 -1.39020026e-01 +2.62978464e-01 +1.55840861e-02 +3.90216380e-01 +2.99704205e-02 +2.91600432e-02 +1.46952882e-01 +2.63110340e-01 +2.39482090e-01 +2.31301963e-01 -1.17756734e-02 +2.85470515e-01 +1.71537414e-01 +1.40529394e-01 -1.51478589e-01 -5.98804001e-03 +2.29390696e-01 +7.85626322e-02 -1.02771118e-01 -2.76806522e-02 +2.28673726e-01 +1.47690922e-01 -2.16451913e-01 +1.89455807e-01 -1.57131419e-01 -2.28559271e-01 -1.12544611e-01 +3.24988514e-01 +4.94081788e-02 -1.10872947e-01 +1.52555779e-01 +1.65355101e-01 +3.75375559e-04 +6.12866972e-03 -1.21033583e-02 -1.36364371e-01 -6.40475526e-02 +3.73525202e-01 +1.76597506e-01 -4.04686071e-02 +5.69393113e-02 -9.61074531e-02 -1.02200896e-01 +2.57182330e-01 +6.71176985e-02 -1.78628340e-01 +9.31897163e-02 +2.85303801e-01 +5.76289557e-03 +1.40118271e-01 -9.22360048e-02 +1.50289917e-02 +3.25060815e-01 -6.85028881e-02 +7.83391818e-02 -7.72258267e-03 +2.49334618e-01 +2.52954274e-01 +1.88956425e-01 -3.94194722e-02 +1.79507315e-01 -9.14523154e-02 +2.69107632e-02 -2.13191077e-01 +1.62194267e-01 +2.54654437e-01 -8.48695338e-02 +2.91552037e-01 +2.36004606e-01 +1.16955280e-01 -6.82271421e-02 +1.11579739e-01 -1.35161728e-01 +2.20489636e-01 +8.59629363e-02 +2.60903805e-01 +1.05543055e-01 +1.41534895e-01 +8.59133005e-02 -3.20378318e-02 +2.61627324e-02 -6.59891590e-02 +2.45255679e-01 -2.08266735e-01 +9.45914537e-02 +4.79547232e-02 -2.80994270e-02 +8.10733512e-02 -3.03700473e-02 +1.20484188e-01 +1.59008373e-02 -9.02897418e-02 +1.93592951e-01 +1.58354342e-01 -1.46926016e-01 +1.12182476e-01 -1.75388902e-01 +1.59418687e-01 -8.19804072e-02 +1.92354187e-01 +1.73918650e-01 -1.64218098e-01 -9.01354197e-03 +8.42448100e-02 +1.01215862e-01 -1.55147195e-01 +8.26006979e-02 +1.05517261e-01 +2.93817967e-01 -6.52832910e-02 -9.37174484e-02 -1.62425756e-01 -8.93278718e-02 +1.63048863e-01 +1.75887004e-01 -2.50385962e-02 -1.89977586e-01 +1.27545029e-01 +3.23532075e-02 -5.18243713e-03 +5.23083992e-02 -2.77995974e-01 +8.41442123e-02 -3.09048533e-01 +1.79236792e-02 +6.25945479e-02 -1.26910180e-01 -2.01815248e-01 -1.40548468e-01 -1.06674433e-01 -2.43043765e-01 -1.87025934e-01 -2.68410752e-03 +9.06067118e-02 +2.49935433e-01 -2.92495340e-02 +1.47751734e-01 -2.58101732e-01 +1.87257126e-01 -1.64649054e-01 -2.02926069e-01 +7.94455223e-03 -3.37322474e-01 -1.62445400e-02 +2.13808030e-01 +5.87534420e-02 +1.02698252e-01 +1.76721811e-02 -2.28810295e-01 -1.64781794e-01 -1.17117353e-02 -2.99434423e-01 -2.95113295e-01 -3.68259162e-01 +1.79549709e-01 -2.14089319e-01 +1.51415795e-01 +5.71587048e-02 -1.42634928e-01 +3.09314489e-01 +1.54565841e-01 +1.38197646e-01 -8.78326520e-02 -3.90280411e-02 +5.30147590e-02 +1.25424787e-01 -2.58915089e-02 +2.78642937e-03 +2.19198033e-01 +2.36688823e-01 +9.25518349e-02 +2.91475207e-01 +1.20506570e-01 +4.07497764e-01 +5.44851832e-02 +2.60751545e-01 +7.39510655e-02 +3.54510963e-01 +2.85986811e-01 +1.85986191e-01 +3.40799212e-01 +1.82831049e-01 +1.49980396e-01 -1.48022056e-01 +9.48469266e-02 -1.61739662e-01 +2.54184544e-01 +4.00491953e-02 -1.99893281e-01 -1.98978186e-02 +1.56116381e-01 -2.44005069e-01 +3.66995245e-01 -3.35538201e-03 +6.82586133e-02 +9.12749693e-02 -2.26017863e-01 +1.87500089e-01 +2.08204374e-01 +1.99060351e-01 +2.69272327e-02 -2.86366493e-02 +8.19953978e-02 +2.40778655e-01 -1.73158646e-01 +2.15118557e-01 +2.05604285e-01 -1.16111919e-01 +2.16929331e-01 -3.58680636e-02 +2.10349083e-01 -2.16272846e-01 -3.12999003e-02 -3.40225041e-01 +6.45060241e-02 -2.09565282e-01 +6.34296089e-02 -3.38603109e-01 -6.74064830e-02 -1.77043438e-01 -2.07511812e-01 -3.66302520e-01 +6.02795035e-02 +6.25096709e-02 +7.97536108e-04 -4.08643372e-02 -3.09705567e-02 +8.46212283e-02 -4.00454491e-01 +1.71559110e-01 -3.81227024e-02 +8.41702372e-02 -1.72502417e-02 -3.15310389e-01 -2.71275043e-01 +1.36605904e-01 +1.18502937e-01 -1.31724551e-01 +4.85479496e-02 -2.88822167e-02 +2.53344071e-03 +9.14331600e-02 -1.79985449e-01 -3.22867632e-01 -5.72490133e-03 -2.30522916e-01 -1.07286759e-01 -3.78674895e-01 +6.63305223e-02 -2.37092942e-01 +1.34229204e-02 -1.31719410e-01 -2.62340426e-01 -1.54311284e-01 +1.45603850e-01 -2.02950388e-01 -1.22736797e-01 +1.43034041e-01 +3.49355452e-02 +2.99694121e-01 +8.30169097e-02 -9.41848308e-02 +2.15060338e-01 -6.22044280e-02 +3.24786603e-01 +1.45317474e-02 +1.13186404e-01 +3.27483773e-01 +2.92724490e-01 +8.49232748e-02 +1.85006261e-01 -1.47896975e-01 +1.90381780e-01 +6.05848990e-03 -9.44988150e-03 +1.54682279e-01 +1.99693874e-01 -2.64800843e-02 +3.59135747e-01 -7.01674167e-03 -7.76071772e-02 +3.27527553e-01 +2.41304766e-02 +3.67355466e-01 +5.49605256e-03 +2.47202381e-01 -1.49402181e-02 +2.77960867e-01 +2.96875417e-01 -1.26372322e-01 +3.38739663e-01 +3.03140014e-01 +7.86333159e-02 +3.22485894e-01 +2.19869718e-01 +2.86527902e-01 +1.06074877e-01 +2.66759157e-01 -1.62894860e-01 -1.36910722e-01 -4.82116416e-02 +1.84660390e-01 -8.17629248e-02 -7.87528306e-02 +3.53946649e-02 +2.67293185e-01 +1.42953128e-01 -1.60864323e-01 +6.59697875e-03 +2.10326940e-01 +1.02043971e-01 +1.17105141e-01 +4.06473242e-02 +2.32781217e-01 -2.08772287e-01 +7.59647563e-02 -7.80850602e-03 +2.80248255e-01 -2.20447388e-02 -1.85817406e-01 -1.07707940e-01 +1.18867874e-01 +8.53365958e-02 +1.40454158e-01 +9.08944085e-02 +4.07678634e-02 +4.70540188e-02 +1.62340075e-01 +2.70916760e-01 -1.60669252e-01 +2.35551894e-01 +1.13995001e-01 +3.05351853e-01 +1.80555984e-01 +1.82869270e-01 +1.49876505e-01 +1.44029960e-01 -3.17096636e-02 -1.10510595e-01 +8.72801468e-02 +3.12001735e-01 -3.28140240e-03 -1.03407331e-01 +1.72516778e-01 -1.58406030e-02 -3.75437029e-02 +1.95351705e-01 +2.68822610e-01 -9.86437872e-02 +2.04291180e-01 -1.88210737e-02 +2.84147203e-01 -8.26665387e-02 +2.32763067e-01 -1.09466240e-01 -1.87658295e-01 +4.93606254e-02 +1.61895126e-01 +6.61335215e-02 -4.13959511e-02 +2.50666231e-01 +3.82337123e-02 -1.12012073e-01 +2.65404172e-02 +2.63400853e-01 -1.93680689e-01 -1.75353304e-01 -2.74044871e-01 +4.55425419e-02 +7.47670531e-02 +4.91223633e-02 -2.38141999e-01 -2.70963758e-01 -3.25443208e-01 -6.04617260e-02 -6.28126338e-02 +4.17196900e-02 -1.71860918e-01 +1.22947015e-01 +5.01239710e-02 -9.46005657e-02 -6.37889700e-03 +3.35338004e-02 -7.94992372e-02 +1.93960637e-01 +1.18142031e-01 -1.33968905e-01 -1.76551357e-01 +9.77814421e-02 +2.14681532e-02 -7.47661293e-02 +1.55352121e-02 -3.84458184e-01 -1.21248439e-01 +2.63897687e-01 +8.56820717e-02 +4.75462489e-02 +1.05215222e-01 -6.66960776e-02 -9.92923751e-02 -1.05085345e-02 +1.35018468e-01 -2.65428632e-01 +1.06594376e-01 -1.43984139e-01 -3.09003711e-01 +1.41817421e-01 +5.77102453e-02 -2.98292398e-01 -3.20922583e-02 -1.46812677e-01 -3.61227021e-02 +1.05856381e-01 -8.26531649e-02 +1.72233120e-01 +1.38585120e-02 -2.59397943e-02 +2.12121084e-01 -6.57049268e-02 -1.39840439e-01 +2.11519569e-01 -4.01106589e-02 -1.78411812e-01 +1.45484403e-01 +1.66245580e-01 -3.65718864e-02 +2.37133935e-01 +1.02224328e-01 +2.52458662e-01 +8.37132707e-02 +1.93622053e-01 +1.15438446e-01 -1.48410887e-01 +6.59808218e-02 -2.03733489e-01 +1.08074769e-01 -5.95714850e-03 +2.18403965e-01 -2.36786813e-01 -2.50025600e-01 -1.27043396e-01 -2.89224327e-01 +3.17179523e-02 -3.82053792e-01 -5.58862463e-03 +9.89702940e-02 -3.32500488e-01 +2.08038270e-01 +2.18208790e-01 -1.62989959e-01 +2.85158575e-01 +2.82416698e-02 +2.95696646e-01 -1.29430860e-01 +2.48336494e-01 -1.02973960e-01 +2.45904699e-02 +2.34820135e-02 +2.56300360e-01 +1.78506672e-01 -4.50889803e-02 -5.21345809e-02 -1.92795098e-01 +2.16211587e-01 -9.87830237e-02 -1.21406969e-02 -2.35879853e-01 +1.93234123e-02 +1.38866618e-01 +5.72014600e-02 -3.65787536e-01 +1.70864478e-01 +1.59179270e-01 -6.78890990e-03 +3.04983370e-02 +1.74396168e-02 +9.00278389e-02 -1.27954975e-01 -5.46726622e-02 -1.28790755e-02 -9.50017571e-03 -2.68778391e-02 +1.70306444e-01 -1.80078477e-01 +9.50591639e-02 +1.54661119e-01 -8.31380039e-02 -3.45870614e-01 -2.70603985e-01 -2.44171917e-01 -6.43725917e-02 -2.99768448e-01 -1.58472404e-01 -1.70374453e-01 -8.94100219e-02 -1.66628957e-01 -3.03367615e-01 -2.54421920e-01 -1.42831609e-01 -3.67834494e-02 +2.17925712e-01 +1.07994914e-01 -1.07098982e-01 +1.66112427e-02 -1.51531160e-01 +8.00063238e-02 -1.63674697e-01 -5.34671210e-02 +6.07347116e-02 +2.99713969e-01 -5.21760136e-02 +1.60898983e-01 +5.31490929e-02 -1.15319520e-01 -1.59725457e-01 -1.84167415e-01 +1.76619202e-01 +1.05463035e-01 -2.74666417e-02 +2.83355296e-01 +1.85625516e-02 -1.08817786e-01 +2.29837358e-01 +4.51669917e-02 -2.24975850e-02 +2.02310160e-01 +1.58097222e-01 +2.62645304e-01 +2.69772053e-01 +3.26136290e-03 -1.31656706e-01 +1.91875622e-01 +7.24564865e-02 +2.94488490e-01 +2.39190254e-02 -1.48933753e-02 +1.15324363e-01 +1.01486012e-01 -9.10986364e-02 +4.92922701e-02 +2.75318563e-01 -5.62391663e-03 +2.73775756e-01 +1.69481650e-01 +5.73297478e-02 -5.06530441e-02 +1.32630587e-01 -4.59709615e-02 +7.88660720e-02 +1.63174734e-01 -4.50299010e-02 +5.38774952e-02 -1.05380751e-01 -6.46677986e-02 +1.76921755e-01 +1.36565655e-01 +2.34635800e-01 +1.04920022e-01 -5.16346171e-02 -1.20115150e-02 -4.68229316e-02 +8.00407305e-02 +2.34071705e-02 -3.32479477e-02 +3.08587532e-02 +1.97616905e-01 +2.54933000e-01 +2.80261993e-01 +2.62559354e-01 -3.78893130e-02 +1.17659513e-02 +7.58222789e-02 +9.33516249e-02 +2.99815804e-01 +2.86626846e-01 -9.06203240e-02 -8.23841393e-02 -1.00958049e-01 +2.82927424e-01 -1.31507248e-01 +1.09051608e-01 +9.44618136e-02 +1.77206025e-02 +6.67012334e-02 +2.13077068e-01 +6.18325397e-02 +4.80630435e-02 +3.55898231e-01 +2.37496823e-01 +2.24393681e-01 +1.00869089e-01 +3.70675594e-01 +1.46769121e-01 +9.39778760e-02 -6.95449188e-02 +1.37075156e-01 +1.00295603e-01 -2.70471280e-03 +2.65042245e-01 +2.58000106e-01 +6.94996268e-02 +2.33429879e-01 -8.76423791e-02 +3.39351833e-01 +6.46471679e-02 +2.28632525e-01 +1.39254361e-01 -1.57100543e-01 +1.36206895e-01 +8.39006528e-02 +1.11009203e-01 -2.45519325e-01 -2.78930634e-01 +7.78377503e-02 -1.55887097e-01 +9.49482918e-02 -1.00645043e-01 +2.65441779e-02 -3.36468220e-02 -2.90546745e-01 -9.15265232e-02 -6.88032666e-03 +1.18352607e-01 -2.91425794e-01 +7.88253918e-02 +9.10888687e-02 +1.16981573e-01 -2.20799241e-02 -9.24876630e-02 -3.11365455e-01 +6.90163858e-03 +2.87623126e-02 -2.46886790e-01 -4.24056314e-02 -2.16592774e-01 +3.49866673e-02 -1.50162235e-01 +7.70522654e-02 +8.04658979e-02 -8.64576362e-03 -4.71266508e-02 -1.67617023e-01 +4.93738316e-02 -2.64889318e-02 -2.48341262e-01 +2.84137465e-02 +6.73789456e-02 -1.24487728e-01 -3.17094922e-02 -1.46196216e-01 -1.28821969e-01 -2.52519041e-01 -3.10651481e-01 +1.20442599e-01 +4.80104946e-02 +3.96045111e-02 +1.86370477e-01 +2.67806184e-02 -4.68945131e-02 +2.93721929e-02 +2.10840553e-01 +2.80472070e-01 +3.04102153e-01 -8.00709873e-02 +1.47444755e-01 +3.17545712e-01 -8.92462675e-03 +2.91069657e-01 +4.35823143e-01 -1.48245141e-01 +1.19207516e-01 +1.78254262e-01 +7.90912583e-02 +2.97126919e-01 -1.72184333e-01 -1.36829108e-01 +7.70162344e-02 +3.66349250e-01 -3.35765332e-02 +2.17932373e-01 -4.33601961e-02 +3.10330898e-01 +3.23592499e-02 +2.95015723e-01 -1.12671137e-01 -2.84439940e-02 +2.61602253e-01 +2.79410243e-01 -2.22356915e-01 +2.38632515e-01 +2.85471320e-01 +8.19539428e-02 -8.56318697e-03 +7.86131620e-02 -7.89727941e-02 +1.85863718e-01 +2.67842054e-01 +5.50321117e-02 -1.37559265e-01 +1.80124208e-01 +3.93505134e-02 +4.06132005e-02 +1.92201123e-01 +2.16364995e-01 +6.39578030e-02 +2.61409521e-01 +2.30733350e-01 -3.34093720e-03 +2.02173144e-01 +1.57099277e-01 +1.80740491e-01 -3.58681716e-02 -2.12103024e-01 -8.15301687e-02 -8.64375010e-02 -1.57667011e-01 -2.05992714e-01 -1.69681236e-01 -2.49849722e-01 -1.88425407e-01 +7.62270093e-02 +1.03120230e-01 -2.54609019e-01 -2.46710554e-01 -2.53232777e-01 +2.47850463e-01 -1.56244859e-01 +1.05699562e-01 -2.28168797e-02 +1.11220464e-01 +2.00291306e-01 -1.31095544e-01 +2.25402385e-01 -9.21709836e-02 -2.28954554e-02 -1.63905695e-02 -1.37779757e-01 +6.58485666e-02 -2.58888751e-01 -2.11343825e-01 -2.57102139e-02 -1.15167804e-01 -1.37224346e-01 -2.98026055e-01 +5.38221933e-02 -1.86341688e-01 -2.35647127e-01 +1.73205167e-01 -1.88774735e-01 -1.97896942e-01 -8.68338868e-02 +2.13537291e-01 -5.22112139e-02 -2.22990692e-01 +8.73722285e-02 -9.55547839e-02 -1.71190441e-01 +1.14978477e-01 -1.41411982e-02 
#Parameter# /_5 {50} 801 ZERO_GRAD
+2.05910936e-01 +2.37551734e-01 -3.23650837e-02 -6.52000085e-02 -1.89245731e-01 -1.54102743e-01 +2.49841556e-01 -9.97026265e-02 +5.39935417e-02 -7.44776949e-02 -6.06150366e-02 +2.33661070e-01 +1.06641732e-01 +8.84631947e-02 +2.01754764e-01 +5.54570444e-02 -2.27878913e-01 +1.04041182e-01 -1.10831745e-02 +2.05137059e-01 +1.06049500e-01 +2.42309317e-01 +4.35687741e-03 -3.34921777e-02 -3.63442302e-02 +1.12822451e-01 -1.04780503e-01 +6.38444871e-02 -6.77870363e-02 -4.25005443e-02 -1.18270420e-01 +9.41144451e-02 +3.10489178e-01 +2.17973232e-01 +3.25146258e-01 +3.06088459e-02 -9.63955894e-02 +1.81521654e-01 -3.70584205e-02 +7.26579800e-02 -3.56851728e-03 +1.26692504e-01 -1.00231931e-01 -4.30468284e-02 -4.91597988e-02 +1.88135624e-01 +8.87822062e-02 -2.66966969e-02 -5.31295352e-02 +2.53682464e-01 
#Parameter# /_6 {50,3} 2401 ZERO_GRAD
-1.73594445e-01 +1.84438869e-01 -6.16690703e-02 +2.78189451e-01 +1.08261436e-01 -2.13232145e-01 +6.15817755e-02 -1.42849058e-01 -1.67208329e-01 -3.71030092e-01 +3.38955633e-02 +2.08464768e-02 -2.36788839e-01 +3.12538356e-01 -2.47119144e-01 -2.02813312e-01 -1.17262952e-01 -1.41077667e-01 +2.09990218e-01 -1.58203587e-01 -6.82729185e-02 +2.45433569e-01 +2.15332955e-01 +3.33730608e-01 -3.72253746e-01 -2.34472468e-01 -2.29831696e-01 +1.26489233e-02 +1.44803256e-01 -2.66951054e-01 -2.07785908e-02 +3.92844200e-01 +6.63413480e-02 -1.12863347e-01 -6.50012344e-02 +1.17665961e-01 -1.72446102e-01 -1.89818934e-01 +2.54068345e-01 +3.59410852e-01 +1.14809893e-01 +1.36628494e-01 +3.92199278e-01 -2.01296762e-01 -3.18646520e-01 -5.07716984e-02 +2.91100264e-01 -8.75608996e-02 +3.28146666e-01 +1.21537268e-01 +1.93768755e-01 +6.99322671e-02 -4.66773480e-01 -2.51346767e-01 -1.75994307e-01 -3.57123613e-01 +2.39987001e-01 +1.98233023e-01 +2.17141673e-01 +4.42144722e-01 -2.71416545e-01 +3.35171223e-02 -8.93750340e-02 +8.77861753e-02 +1.08757026e-01 +1.83889419e-01 -3.53202671e-01 -2.64642872e-02 -2.83783704e-01 -2.66874462e-01 +1.40063152e-01 -2.10514084e-01 -3.55228722e-01 +5.64462580e-02 +2.81024307e-01 +2.13037223e-01 -1.03380708e-02 -3.21682036e-01 +3.61095935e-01 -1.21782392e-01 -4.12902474e-01 +1.04352884e-01 -3.72021765e-01 +1.36988789e-01 -1.18278682e-01 -1.08768418e-01 +2.09309429e-01 -8.13931525e-02 -4.64000553e-01 -3.90399903e-01 +1.00478761e-01 +2.68001836e-02 +1.25700474e-01 -2.31481969e-01 +2.18999773e-01 -3.48842144e-01 +2.44428083e-01 +4.91483897e-01 -1.24247551e-01 +1.15140423e-01 +3.49699646e-01 +6.00737929e-02 +3.29289615e-01 +2.60970324e-01 +3.18152726e-01 -1.91274151e-01 -3.24180156e-01 -8.75866935e-02 -2.16952518e-01 +1.69251654e-02 +9.55476835e-02 +3.48554492e-01 +6.92510530e-02 -2.32146293e-01 +7.01206252e-02 -7.48545378e-02 -1.59594387e-01 +1.28993802e-02 +2.95879573e-01 +3.41437757e-02 -2.73209274e-01 -8.92961621e-02 +1.06985196e-01 +1.91080809e-01 -7.96239600e-02 +2.39963025e-01 -2.11964563e-01 -8.38056207e-02 +2.47578491e-02 +4.38915864e-02 -1.06100872e-01 +2.77412325e-01 +2.79699061e-02 -2.15999752e-01 -1.28941894e-01 -2.01992244e-01 -4.41740081e-02 -2.53994852e-01 -3.15975487e-01 +1.01770721e-01 +5.90068251e-02 -2.14894470e-02 -9.61185545e-02 -5.52650876e-02 -3.66908163e-02 -1.70419827e-01 -3.67926896e-01 +1.17521890e-01 -1.58769920e-01 -3.98667604e-02 
#Parameter# /_7 {50,50} 40001 ZERO_GRAD
+1.58848926e-01 +8.63019377e-02 -2.47691229e-01 -1.79753810e-01 -1.20306373e-01 -1.64176300e-01 +8.72840956e-02 +7.31185451e-02 +2.23396361e-01 -1.55999273e-01 +1.11392744e-01 -9.36751217e-02 -1.48210689e-01 +4.63677905e-02 -1.47107586e-01 +2.86707997e-01 +2.45884433e-01 -1.67217553e-01 +1.14114508e-01 -2.23392233e-01 +8.05725828e-02 -8.67634118e-02 -2.34769508e-01 -1.40752405e-01 +1.88236192e-01 +8.90645981e-02 +1.82959288e-01 -6.19394379e-03 +9.46299061e-02 +1.02459028e-01 -1.03358343e-01 +9.61369202e-02 -1.38576046e-01 -1.67751476e-01 +2.04593942e-01 +3.21691707e-02 -2.43602321e-01 -1.85387075e-01 +1.39381625e-02 +1.89015239e-01 -2.82193609e-02 +2.09431916e-01 +8.17327574e-02 -1.20060779e-02 -3.43949497e-02 +1.80737033e-01 -1.11531653e-02 -1.29224539e-01 +1.39633849e-01 -1.34413317e-01 -2.40077808e-01 +2.31205389e-01 +8.91421586e-02 +1.70442596e-01 +1.45599410e-01 -1.93769515e-01 +1.57926604e-02 -2.00300798e-01 +2.28292942e-01 -1.46918669e-01 +1.53624728e-01 -2.59791553e-01 +9.85803008e-02 -5.51588601e-03 +1.46304369e-01 +1.08785525e-01 -9.76345092e-02 +6.55770674e-02 -1.99791491e-01 -1.49900794e-01 +7.79658780e-02 +3.10444199e-02 +1.11009784e-01 +2.88292885e-01 +4.04527411e-03 -6.38889670e-02 +2.42266476e-01 +2.64330745e-01 -1.92131892e-01 -9.98286679e-02 +9.77480263e-02 +1.60236925e-01 -7.96067622e-03 +2.73680110e-02 +1.19602466e-02 -1.34583890e-01 -1.59795359e-02 +1.06290812e-02 +6.33230358e-02 +1.41025484e-01 +9.82718617e-02 +3.23604867e-02 +2.23345175e-01 -2.14576513e-01 +2.47688398e-01 +1.38260797e-01 -1.44830137e-01 -1.67233199e-01 -5.78273311e-02 -1.28049225e-01 +2.00367942e-01 -1.20549038e-01 +2.07883596e-01 -1.82824939e-01 +1.54789269e-01 +1.28387317e-01 +4.79542203e-02 +2.21663609e-01 -2.72761643e-01 -2.63981521e-01 -2.21408885e-02 +2.74102867e-01 +2.69499600e-01 +1.45944297e-01 +1.76845506e-01 +1.93224967e-01 -5.93657009e-02 -1.91896692e-01 +2.74707407e-01 +2.69339144e-01 +1.30580172e-01 +1.38563424e-01 +5.02091087e-02 +7.06974193e-02 -3.12462062e-01 -1.90405603e-02 +1.46192342e-01 -1.47869363e-01 +3.32554691e-02 -4.40458506e-02 +2.65992880e-01 +4.93444875e-02 -1.68356970e-01 +2.76985765e-01 -1.55947313e-01 -2.85126954e-01 +8.11616257e-02 +1.08041272e-01 -7.12100118e-02 -1.80190369e-01 +4.31307033e-02 -3.91989620e-03 -2.68273521e-02 -1.45038560e-01 -9.95395556e-02 +2.20777601e-01 +1.73199147e-01 +2.03169435e-01 +1.70172807e-02 +1.74090162e-01 -5.68913557e-02 -4.28574942e-02 -1.24111682e-01 +2.44054556e-01 +2.77509540e-01 +2.30629921e-01 +1.64785519e-01 +1.50723398e-01 -5.30115776e-02 -1.05888210e-01 -1.84763774e-01 -2.17043862e-01 -1.83747590e-01 -2.37948507e-01 -6.36974648e-02 -2.70091027e-01 -8.18012133e-02 -1.96100727e-01 -1.37630068e-02 +8.73446018e-02 -1.35962404e-02 -1.42689079e-01 -1.01038821e-01 -2.09630221e-01 +1.36107385e-01 +2.65013248e-01 -2.59360462e-01 -5.78143932e-02 -1.09728582e-01 +1.47121951e-01 +4.65815812e-02 +2.05919698e-01 +2.87413895e-01 -1.14297576e-01 -2.35045075e-01 -5.32526746e-02 -9.25721787e-03 -5.55769838e-02 -1.66326582e-01 -2.33963579e-02 -1.45501003e-01 +5.77198677e-02 -9.30217467e-03 -6.61924342e-03 -2.69568056e-01 +1.76667124e-01 -2.83174783e-01 -6.55226037e-02 -2.30095610e-01 +1.02327369e-01 +1.68289304e-01 -1.22670762e-01 +5.69535978e-02 +5.80808409e-02 -2.37985328e-01 +1.39390603e-01 -1.22207180e-01 -5.14824577e-02 -2.25782990e-01 +9.12950486e-02 -9.18797255e-02 -1.63075194e-01 +1.04430117e-01 +7.31519684e-02 +1.34840503e-01 -1.53865099e-01 -2.20321998e-01 -4.92346054e-03 -1.72171310e-01 -3.61912958e-02 -1.83337167e-01 +5.71193993e-02 -1.94574878e-01 -1.81770444e-01 -2.55975109e-02 -1.36184007e-01 +1.55779600e-01 +2.37083688e-01 -1.13606200e-01 +6.03589788e-02 +1.60430044e-01 +5.49403168e-02 -7.54188001e-02 -7.76129812e-02 -1.94493681e-01 +1.50251210e-01 +2.13868335e-01 -8.53699148e-02 +1.64659604e-01 -1.40360788e-01 +6.42702654e-02 +1.07307270e-01 +1.99766234e-01 -6.89857006e-02 +1.09403646e-02 +2.71978140e-01 +8.95173028e-02 -2.46199876e-01 -6.40981570e-02 -1.85996443e-01 +7.29815438e-02 -1.45343676e-01 -2.00842842e-02 -8.99047032e-02 +3.87103222e-02 -2.15013817e-01 -2.05664814e-01 +7.58089945e-02 -1.33783922e-01 -1.58966005e-01 -2.59115100e-02 +3.15919787e-01 -7.89126828e-02 -5.80091849e-02 +3.05279102e-02 +1.34628028e-01 -9.32431221e-02 +1.99571609e-01 +2.61718273e-01 +1.16953686e-01 +2.14221299e-01 +2.37909362e-01 -6.85395226e-02 +1.21564984e-01 -1.19212247e-01 +1.71746358e-01 -2.52573788e-01 -1.41373917e-01 -9.89806280e-02 +2.58759141e-01 +1.81087479e-01 -1.16280608e-01 +1.98626429e-01 -5.46551459e-02 -1.62460372e-01 +1.04694022e-02 -1.42990932e-01 -2.59385735e-01 +1.14268167e-02 -1.89852893e-01 -6.12484105e-02 -2.01403841e-01 +1.52076170e-01 +1.23666570e-01 -3.51470299e-02 +1.62603617e-01 -1.20078988e-01 -2.95736571e-03 -5.70650771e-02 -1.72183841e-01 -9.53769386e-02 +8.95290673e-02 -6.20879494e-02 -1.18235601e-02 +9.05756131e-02 +1.41487479e-01 -1.50171891e-01 -1.12805426e-01 +2.30118394e-01 +3.03930044e-02 +1.88833088e-01 -7.76467547e-02 +1.46389127e-01 +9.14067253e-02 +1.55570880e-02 -4.19213250e-02 +4.18116823e-02 -3.38786617e-02 -1.58289537e-01 -2.51577973e-01 -2.25861669e-01 +2.47695476e-01 +5.51977754e-02 +1.82750076e-01 +6.35131225e-02 -3.79982777e-02 -9.20501202e-02 +1.90585464e-01 +1.42297149e-01 -7.86763951e-02 -1.43745765e-01 -1.57472059e-01 +2.27255374e-01 -1.11465253e-01 +8.93873274e-02 +1.55382261e-01 +1.30255118e-01 +1.11419648e-01 +4.62283418e-02 +2.40526885e-01 +1.90937847e-01 -7.69601911e-02 +4.34455387e-02 +1.98454991e-01 -4.69872281e-02 +6.99188560e-02 +1.68276593e-01 +5.12272157e-02 -8.36070403e-02 -2.35901475e-01 +1.65212333e-01 +9.57575291e-02 +2.20137328e-01 +8.96938145e-02 -1.22150585e-01 -1.74861953e-01 +1.40180975e-01 -1.27420589e-01 +1.76652908e-01 -1.25518188e-01 +1.69685413e-03 +1.54222146e-01 -1.36800528e-01 -1.10910960e-01 -7.26535693e-02 -6.22000806e-02 -2.14816079e-01 +2.06567869e-01 -8.26494396e-02 -1.98120996e-01 -4.68884455e-03 -1.16375819e-01 -2.37949640e-01 -1.68336973e-01 -1.12029664e-01 -1.55161068e-01 -8.75081718e-02 -1.67962208e-01 -2.00972557e-01 +3.86366770e-02 -1.33303106e-01 +1.64480448e-01 +2.23853902e-04 -2.62365211e-02 -2.02890202e-01 -1.56977057e-01 +8.02046731e-02 -1.62362844e-01 -1.54801533e-01 +3.99029702e-02 +3.64718661e-02 +2.00230200e-02 -4.61861230e-02 -1.45364832e-02 -3.39798555e-02 -2.79233195e-02 +6.40916899e-02 +2.80660689e-02 -9.04177651e-02 +2.33103842e-01 -2.33467370e-01 +2.55996585e-02 +1.34381428e-01 +8.85033458e-02 -1.37862638e-01 -8.78140256e-02 +1.31561369e-01 +5.41992188e-02 -1.13644242e-01 +8.40897392e-03 +2.05238029e-01 +5.64727560e-02 +9.08156708e-02 +2.91632384e-01 -1.34718046e-01 -2.08095498e-02 -1.97438553e-01 -5.16569503e-02 +9.16021392e-02 +1.75574914e-01 -2.27420628e-01 +8.68648961e-02 +2.23385316e-04 +1.79140970e-01 -4.72481325e-02 +8.72011296e-03 +2.16734365e-01 +3.17947596e-01 -3.98479290e-02 +1.34065390e-01 -1.58188611e-01 -1.19570807e-01 +5.62919676e-03 +1.66755483e-01 -5.16130850e-02 +1.46562129e-01 -1.17601827e-01 +1.46441922e-01 -2.02042744e-01 +2.67465860e-01 -1.13935150e-01 +1.20479122e-01 +1.22953383e-02 -5.99434637e-02 -6.41386509e-02 +1.86665561e-02 +1.28804132e-01 +1.53033268e-02 +1.58459251e-03 -9.05025657e-03 +8.69098976e-02 +1.66028053e-01 +1.59550786e-01 -8.40143636e-02 +4.38187784e-03 +1.13241993e-01 -1.49994835e-01 -2.19852284e-01 +3.06784332e-01 +2.25745484e-01 -2.11655989e-01 +6.68181404e-02 -3.09104711e-01 +1.17259867e-01 -1.03841210e-02 -2.02319488e-01 +2.33309329e-01 -9.54130888e-02 -3.10630322e-01 -3.57109271e-02 -8.16566050e-02 -2.72075415e-01 +2.30488345e-01 +1.33728087e-01 +2.14882210e-01 +2.80183524e-01 -1.29693180e-01 +1.25725821e-01 -1.72048524e-01 +1.78289965e-01 +1.57896936e-01 +1.72854200e-01 -1.63018540e-01 -2.30944455e-01 +2.24139050e-01 +6.94577470e-02 +7.97618628e-02 -1.46864057e-01 -6.95630461e-02 +2.22053397e-02 +8.68846104e-02 -3.53971332e-01 +1.40458524e-01 -1.89917028e-01 -1.26923934e-01 -1.63098752e-01 +5.72010726e-02 +2.10998729e-02 -1.00557953e-02 +1.35714620e-01 -1.80256888e-01 -6.54896945e-02 +2.65740063e-02 -1.00738041e-01 -2.20893383e-01 -1.08724488e-02 -5.03831357e-02 -6.62465161e-03 -1.79458603e-01 -2.22095281e-01 +2.22098932e-01 +1.62694857e-01 -2.56459981e-01 +9.88796353e-02 -1.22981571e-01 +7.23150698e-03 -3.80662307e-02 +1.36189461e-01 -2.08349749e-01 -2.00721726e-01 -5.27242608e-02 +1.64224550e-01 +1.49432391e-01 -1.58251643e-01 +2.86785632e-01 +1.71093211e-01 -2.86013573e-01 +3.96235324e-02 +1.05439998e-01 -1.96969379e-02 +1.72122255e-01 -1.37900293e-01 -4.58702929e-02 +8.77524763e-02 -4.75148521e-02 -1.20820224e-01 -1.45124659e-01 -2.05600947e-01 +2.13557333e-01 -1.09188423e-01 -7.77996778e-02 -3.60453166e-02 -3.12064946e-01 -3.08343731e-02 +7.96226338e-02 +4.23471294e-02 -2.97871202e-01 -2.47076049e-01 -1.23226307e-01 -1.28961131e-01 +2.61819601e-01 +1.59455225e-01 -2.48442918e-01 +1.98572174e-01 -1.96864352e-01 +6.12716191e-02 +1.52006894e-01 +1.16153389e-01 +3.62130940e-01 +9.12201405e-02 -3.81147355e-01 +2.17105538e-01 +1.52887821e-01 -6.36943802e-02 +1.05635941e-01 -2.98526645e-01 -8.04230496e-02 -2.60736436e-01 -2.81890910e-02 +2.64100805e-02 -3.47491056e-01 +6.09558709e-02 -1.44462407e-01 -1.04137287e-01 -1.75650924e-01 +2.00504288e-02 -2.27207139e-01 -5.46795428e-02 -1.59566123e-02 +1.48052469e-01 +1.02375910e-01 +5.84538803e-02 +2.03435108e-01 -1.15762427e-01 -3.67663324e-01 -1.17928363e-01 -4.68893610e-02 +8.67172889e-03 +7.16171637e-02 -1.63728580e-01 -8.85213614e-02 -2.84317076e-01 -9.83410403e-02 -1.13901109e-01 -2.02776819e-01 +1.77192345e-01 +1.06120557e-01 -5.55786863e-02 -6.41724914e-02 +8.68194103e-02 -1.38575258e-02 -2.20210478e-01 +2.89028019e-01 +1.63496107e-01 +2.07662687e-01 -2.46955574e-01 -1.23775162e-01 +1.68866113e-01 -2.57844657e-01 +3.03767677e-02 -2.53926784e-01 +3.33395779e-01 +2.90263772e-01 -2.01276511e-01 -1.51621308e-02 -1.43219277e-01 +1.80714905e-01 -2.27454945e-01 +1.42944664e-01 +2.03447804e-01 -1.97684675e-01 -4.45121676e-02 +1.50278509e-01 -1.19483881e-01 -1.68765843e-01 +1.27189279e-01 -8.80458727e-02 -1.50380388e-01 +1.78304743e-02 +6.65632039e-02 -5.21205701e-02 -1.65702537e-01 +7.89713562e-02 +2.86400974e-01 -4.23143238e-01 -1.09569747e-02 -1.26357675e-01 -4.29406278e-02 -2.00814992e-01 +9.48960409e-02 +1.84836909e-02 +2.09468022e-01 -6.99972659e-02 +3.08387548e-01 -1.10312499e-01 -1.77189603e-01 +1.59472018e-01 -6.38439059e-02 -9.04506147e-02 +2.16648832e-01 +2.41859809e-01 +2.40672112e-01 +1.93826810e-01 +4.02972028e-02 -3.62378731e-02 -1.26922950e-01 +2.28745770e-02 +1.55695751e-01 -1.86925158e-01 +1.80801049e-01 +1.77444592e-01 +7.96777010e-02 +1.58424098e-02 +1.59241289e-01 -1.31182268e-01 -1.16106598e-02 +4.98449989e-03 -1.43355668e-01 +1.83582574e-03 -7.10634813e-02 +2.17824757e-01 -1.43285140e-01 +8.22884589e-03 -5.93828410e-02 -3.89759988e-02 +2.03676179e-01 -1.93363607e-01 -2.96177328e-01 +2.01897532e-01 +7.03904331e-02 -2.32143849e-01 +2.23679617e-01 +4.47019264e-02 -2.16781676e-01 -9.59631801e-02 -1.86682656e-01 +1.43467918e-01 -6.39685616e-02 -1.09829411e-01 -3.14158708e-01 -1.28604576e-01 -1.61181927e-01 -8.44109878e-02 +1.20153233e-01 +1.56828061e-01 -1.20196864e-01 -2.55728960e-02 -1.05237857e-01 -8.97647291e-02 +2.04182401e-01 -6.98823407e-02 +2.61064649e-01 -1.73996985e-01 -1.26342058e-01 +9.06419903e-02 +1.39161587e-01 +2.20879987e-01 -6.42852485e-02 +2.00879350e-02 +1.16182826e-01 -2.36225471e-01 -2.68913746e-01 +7.99545869e-02 +2.90087491e-01 -3.38051140e-01 -1.91138461e-01 +8.13550800e-02 +2.95061339e-02 -1.23811722e-01 -2.46159211e-01 -2.61828229e-02 -2.23633274e-01 -6.89644367e-02 +6.65810704e-02 -1.84906438e-01 +3.86934914e-02 +1.18734196e-01 -1.15280777e-01 +6.75354376e-02 +1.75941527e-01 +1.18932419e-01 +9.27407667e-02 +1.51662529e-01 -2.24638447e-01 -3.70702177e-01 +1.34596184e-01 +6.20288029e-02 +1.19881868e-01 +2.59593993e-01 -2.39599258e-01 +8.15882683e-02 +9.00044590e-02 +1.21889003e-01 +2.84890993e-03 +4.80512828e-02 +9.41915736e-02 +4.99612978e-03 +8.70221928e-02 -2.50902116e-01 -3.13790828e-01 +1.78050563e-01 -2.34925061e-01 +1.58563275e-02 -1.30861923e-01 +6.57336786e-02 +1.29461158e-02 +1.22690775e-01 -2.61080682e-01 -2.03488573e-01 +2.52437685e-02 +1.18545592e-01 +2.17471659e-01 -4.40782309e-02 -3.28963660e-02 +1.24285027e-01 +1.23863043e-02 +5.54949790e-02 -2.50439309e-02 -5.51335439e-02 +3.55216675e-02 -1.44111127e-01 +1.85581207e-01 +2.91576266e-01 -1.95638314e-01 -5.97349219e-02 +1.79684050e-02 +1.55498847e-01 -5.88362925e-02 -1.51979372e-01 +1.30806103e-01 -1.56025991e-01 +2.60182470e-01 -1.59876764e-01 +2.46886536e-01 +1.46465287e-01 +1.26936644e-01 +8.41680169e-02 -8.41340050e-02 +6.93435669e-02 -1.05578579e-01 -1.59787580e-01 +1.59958261e-03 +1.57842532e-01 -7.60385580e-03 -1.12807021e-01 -4.75161299e-02 +7.06920028e-02 -8.99531972e-03 +1.46548441e-02 -1.12421706e-01 +5.80514856e-02 -2.17216089e-01 +2.06699878e-01 -1.15122348e-02 +1.25079826e-01 -1.22461043e-01 -4.02224530e-03 +1.13750473e-01 +8.82629305e-02 -1.75825115e-02 -1.68546304e-01 -1.76547870e-01 -9.86475199e-02 -2.47478068e-01 +7.44934753e-02 -1.07001014e-01 -7.91176334e-02 +3.81349400e-02 +1.87837154e-01 +4.95224185e-02 +5.80850197e-03 -1.83578894e-01 -1.80524126e-01 -5.88927278e-03 -9.38049778e-02 -6.71526417e-02 +8.53655189e-02 +3.87531938e-03 -2.56165683e-01 +7.24710673e-02 -1.78987473e-01 +3.58550511e-02 +1.20522164e-01 -8.00510123e-02 -2.11986169e-01 +1.79904625e-01 -1.23108529e-01 +2.20060006e-01 +2.28817061e-01 -6.29387200e-02 +1.11076944e-01 -1.98001832e-01 +7.95923099e-02 -2.28506491e-01 -2.18399331e-01 -1.61563791e-02 +4.55999337e-02 -2.47041538e-01 -2.26014212e-01 +1.54025286e-01 -8.60431492e-02 -2.02259153e-01 -3.86531129e-02 +3.34778838e-02 +6.57367855e-02 +2.15061247e-01 -1.15228914e-01 +2.05209792e-01 +3.34743112e-01 +1.76190808e-02 +1.35956466e-01 -1.28687948e-01 -2.34679490e-01 +2.96167910e-01 -1.32023081e-01 +2.30968177e-01 -2.09851228e-02 +2.03197151e-01 -2.43252873e-01 +1.78650960e-01 +2.58741975e-02 -2.33637437e-01 +8.85533467e-02 -8.16862285e-02 +2.57912138e-03 -2.05972627e-01 -1.88569248e-01 +9.87767354e-02 -8.73586163e-02 -1.30961895e-01 +1.71642259e-01 -1.61893889e-01 -1.88062802e-01 -2.97248662e-02 -1.93658859e-01 +4.08360101e-02 +9.64231193e-02 -4.48362455e-02 -1.31231293e-01 +1.11167863e-01 -9.51855481e-02 +1.72564775e-01 +3.05479020e-01 -2.27937937e-01 -1.98895589e-01 -4.95335311e-02 +8.89529884e-02 +2.81593293e-01 -3.92172448e-02 +7.73547143e-02 +2.65574187e-01 +8.26134086e-02 +1.36215493e-01 +2.45702773e-01 +6.70435503e-02 +1.10287815e-01 -2.29921445e-01 -2.15269372e-01 -1.55265272e-01 +5.30642308e-02 -2.01022625e-01 +2.50200689e-01 +2.49402761e-01 +6.83542192e-02 +5.43939807e-02 +1.62251562e-01 +9.76402536e-02 -1.46787941e-01 -1.34805860e-02 +2.03637462e-02 -5.98625913e-02 -1.42927513e-01 +1.14359185e-01 -3.20582956e-01 +1.89334214e-01 +1.77052885e-01 +1.96341932e-01 -4.76241484e-02 -2.27913171e-01 -1.87622920e-01 -7.03660473e-02 +1.86682001e-01 +1.58431143e-01 -1.74088567e-01 -2.71994062e-02 -3.51066440e-02 -5.80549287e-03 -1.22669995e-01 +1.55297378e-02 -1.07857905e-01 +1.43896431e-01 -2.20284760e-02 -1.42651349e-01 +1.06492184e-01 -1.48427591e-01 -2.51491934e-01 +8.14221427e-02 -7.18265921e-02 +4.22962829e-02 +2.10864261e-01 -1.96803927e-01 +7.43513927e-03 -2.92619020e-01 -7.31819198e-02 -1.51373697e-02 +5.86025156e-02 +1.29662648e-01 -8.72840136e-02 +2.21226946e-01 -4.38851342e-02 +1.67685613e-01 +1.64009646e-01 -9.01966467e-02 -3.03785391e-02 -1.24836124e-01 -1.31545633e-01 -3.27417627e-02 -2.96329468e-01 -1.88221917e-01 +4.13462408e-02 -9.24357399e-02 -1.44977301e-01 +1.34270146e-01 -1.44167617e-01 -1.16516978e-01 -4.61659357e-02 +1.32298201e-01 -2.44535133e-01 +1.87258825e-01 +2.67243266e-01 -1.41005933e-01 -6.33622184e-02 +3.06838732e-02 -1.55471399e-01 +1.79016903e-01 +1.53617144e-01 +7.78252184e-02 +1.25989601e-01 -1.19959101e-01 +1.41404718e-01 +7.14717954e-02 +1.38872594e-01 -2.08063215e-01 +2.03399919e-02 +1.23793013e-01 -2.39086002e-01 -1.94592439e-02 -7.32024908e-02 +1.46088049e-01 -2.92854935e-01 +2.09459979e-02 -1.10398382e-01 -5.41640958e-03 +1.91464916e-01 +6.74909130e-02 +2.22165003e-01 +6.92855418e-02 +8.74221995e-02 +2.07863942e-01 +1.76898941e-01 -1.19117238e-01 +3.33916792e-03 -4.18716110e-02 -5.44877537e-02 +1.77216381e-01 -2.71536317e-02 -3.58983316e-02 -5.75522333e-03 -6.45911396e-02 -5.72197847e-02 +1.46211665e-02 +8.70284811e-02 -1.78303614e-01 +3.26275676e-02 +1.71496794e-01 +5.65097407e-02 +1.47998193e-02 -9.16788653e-02 +9.98343751e-02 +1.85459256e-02 -2.34559983e-01 -1.22473679e-01 -1.83085382e-01 -1.39849097e-01 +2.21471459e-01 +2.66711175e-01 +1.52889416e-01 +1.59810632e-01 +2.44346067e-01 +6.13430329e-02 +1.02215283e-01 -1.63422629e-01 +1.98664650e-01 +9.44393873e-02 +1.79898232e-01 +2.65102945e-02 +7.97278360e-02 +4.93428262e-04 -1.72855094e-01 -2.65274704e-01 -1.91915482e-01 +8.17178264e-02 -7.28925988e-02 -1.63815066e-01 +2.44504754e-02 +9.64742526e-02 +1.25800848e-01 -1.90530777e-01 +1.48050666e-01 -5.21174781e-02 -9.67491716e-02 -9.94092673e-02 -7.58977383e-02 -1.91368207e-01 +2.01831181e-02 +2.41988927e-01 +1.57924354e-01 +1.65033862e-01 +1.34589106e-01 -1.47169515e-01 +1.78026911e-02 -9.19851288e-02 -6.13460317e-02 +6.94959909e-02 -1.44808486e-01 -2.95683146e-01 +3.67724709e-02 -2.07368299e-01 -7.61596039e-02 +1.28686195e-02 +5.52812815e-02 +1.13370540e-02 +1.17344819e-01 +1.05746761e-01 +1.10997893e-01 -1.43983558e-01 -9.28191915e-02 -7.83909783e-02 +2.22356632e-01 -2.15126485e-01 -2.44627357e-01 -1.00186251e-01 -1.20693199e-01 -1.23749608e-02 +3.64041850e-02 -1.72783896e-01 -5.65577447e-02 -1.02721624e-01 -1.57920137e-01 +2.61047304e-01 +2.03666314e-01 -5.70238158e-02 -2.36332268e-02 +1.90481022e-01 +6.69376850e-02 +1.89229205e-01 -1.31906644e-01 -1.32942498e-01 +1.19044371e-01 -2.43482396e-01 -1.41819730e-01 -8.21647793e-02 +1.64251715e-01 +2.64621228e-02 -8.41684937e-02 +3.00115675e-01 +2.68118590e-01 +2.51965135e-01 -2.51260757e-01 -9.55576599e-02 -4.46230024e-02 -1.06013238e-01 -5.22625037e-02 +6.19188175e-02 +4.53465916e-02 +1.67924732e-01 +2.15819910e-01 -1.50036544e-01 -2.56587684e-01 -7.11579919e-02 -2.10941687e-01 +2.38471717e-01 -2.29356527e-01 +2.10301146e-01 +6.92116022e-02 -9.34081301e-02 +1.68280631e-01 +3.31767742e-03 -1.84113994e-01 +1.76856279e-01 +1.32496119e-01 -1.01237312e-01 -5.56175187e-02 -1.60212129e-01 +4.36065122e-02 +2.85551369e-01 -6.42628670e-02 -1.89194992e-01 -1.56340841e-02 +7.58387372e-02 +1.37900919e-01 +1.70061380e-01 -1.16562486e-01 -1.49695739e-01 -1.07871875e-01 +1.56588599e-01 -4.62588146e-02 +4.61876392e-02 +1.60201401e-01 -2.48215035e-01 +7.76889026e-02 +1.21069528e-01 +6.79847971e-02 -7.54465759e-02 +1.10662162e-01 +2.58739799e-01 +2.29291901e-01 +2.10067444e-02 -1.96683124e-01 -1.97961658e-01 -4.99892002e-03 -1.08140506e-01 -1.67878419e-01 -2.85962466e-02 -3.02998419e-03 +4.34724540e-02 -4.02599759e-02 +2.62164623e-01 -1.01935126e-01 -1.43216327e-01 +9.45025980e-02 -1.95875645e-01 +3.75526845e-02 +1.40236737e-02 -1.17164858e-01 +1.58120170e-01 +1.27171397e-01 -1.49243698e-01 +2.32109800e-01 +1.82630882e-01 +4.87104021e-02 -1.04627378e-01 +5.37694693e-02 -2.61272416e-02 -1.92142323e-01 +5.04755303e-02 +1.70969605e-01 +6.22338429e-02 +1.53033093e-01 -1.90247431e-01 +9.67739597e-02 +8.40062201e-02 -7.96992630e-02 +5.53785786e-02 +2.03835778e-02 -1.97540849e-01 -1.71482623e-01 +1.64238051e-01 +1.45921946e-01 +1.83132768e-01 +1.84734002e-01 +8.84912536e-02 +2.45544929e-02 -1.79061607e-01 -8.68896544e-02 +3.10671508e-01 +3.05210445e-02 +7.64090940e-02 +1.66658238e-01 +5.44669926e-02 +2.33049437e-01 -2.76474822e-02 -1.39059111e-01 -1.66321158e-01 +1.14350997e-01 -1.49058089e-01 +1.35159135e-01 -2.10851710e-03 -1.95174187e-01 +1.10378601e-01 -1.79855987e-01 -9.84703600e-02 +1.79261267e-01 +3.02245945e-01 -9.32317823e-02 -2.39965096e-01 +7.34658763e-02 -1.17102206e-01 +1.21547878e-01 +1.14682093e-01 -1.56251311e-01 +1.02747969e-01 -1.90404266e-01 +2.41050601e-01 +4.67561297e-02 +1.48912463e-02 +8.75335410e-02 +1.90856084e-01 +2.24139929e-01 +2.07588017e-01 +3.71096618e-02 +2.64410615e-01 +2.06680864e-01 +6.60476238e-02 +1.39185563e-01 -1.91677794e-01 +1.67024508e-01 -5.73038198e-02 +1.26944155e-01 +3.75057459e-02 -1.79748580e-01 +9.08248201e-02 +1.67711869e-01 -6.54171407e-02 +2.14891553e-01 -2.11097613e-01 +2.21857473e-01 -5.66779450e-02 +1.83438554e-01 -1.93804398e-01 +5.82208559e-02 -1.64869457e-01 -1.45983875e-01 -3.34280491e-01 +1.48283318e-02 -1.40701175e-01 -1.29645169e-01 +1.39587373e-01 -1.02594651e-01 +2.04605013e-01 -4.12330590e-02 +1.41244650e-01 +1.15646394e-02 -2.38655850e-01 -5.58156259e-02 -1.26525685e-01 +5.59997857e-02 -1.13437280e-01 -7.96945244e-02 +6.38859048e-02 +7.76725709e-02 -1.45605892e-01 -1.29273441e-02 -9.35101211e-02 +7.16325715e-02 -1.37919307e-01 +1.76627040e-01 +9.32767242e-02 +1.36692658e-01 +1.13774642e-01 -2.51089722e-01 -2.14552417e-01 -6.19236156e-02 -4.28141095e-03 +1.49198145e-01 +6.21179119e-02 +2.06849918e-01 -1.67319551e-01 +5.68734249e-03 +4.78496328e-02 +3.71739902e-02 +1.85504407e-01 -3.00595462e-02 +2.12345600e-01 +1.91202879e-01 -2.15664983e-01 +9.97396000e-03 +3.19105498e-02 -1.74764782e-01 +6.37323335e-02 +5.34409173e-02 -4.08606092e-03 -4.37237918e-02 +2.71975130e-01 +1.85804054e-01 +1.36754453e-01 -4.36033942e-02 -4.15489413e-02 -1.11416675e-01 -1.93407893e-01 +2.46817097e-01 +2.08092898e-01 -2.16729417e-01 -9.33046117e-02 -2.34764770e-01 +1.54357463e-01 +1.85537502e-01 +2.19108418e-01 +2.32193582e-02 -1.36679977e-01 +3.12586784e-01 +6.66724658e-03 +1.53992018e-02 -2.17196286e-01 -6.11050949e-02 +2.63720095e-01 -6.09795265e-02 +1.51929542e-01 -8.98096189e-02 +5.63251525e-02 +1.61798045e-01 -1.94900185e-01 -1.18048877e-01 +2.19570234e-01 -4.40228656e-02 -2.79495977e-02 +5.76010309e-02 +2.64100730e-01 +3.25269878e-01 -2.22992793e-01 +1.30109385e-01 -2.34048560e-01 +1.00860715e-01 -1.00403562e-01 -1.83229193e-01 +1.81424201e-01 -1.92149077e-02 +6.03450872e-02 -2.76618570e-01 -1.43524110e-01 +1.33610219e-01 -1.74807280e-01 -2.39298433e-01 +1.36890471e-01 +1.83907941e-01 +3.04274377e-04 +7.58687826e-03 -1.73773214e-01 +9.45465937e-02 -2.86044091e-01 +1.47651717e-01 +7.93367475e-02 -1.16067722e-01 -2.30195224e-01 -1.99619472e-01 -2.62350857e-01 -7.88046569e-02 -1.47553742e-01 +2.01055989e-01 +4.62295115e-02 -1.41601995e-01 -2.09897190e-01 +1.69275731e-01 +2.91455333e-04 +2.27405414e-01 +2.74614841e-01 -3.54152098e-02 -1.73619092e-01 -1.71386320e-02 +2.38305300e-01 +2.96812933e-02 +5.43886274e-02 -2.79707074e-01 +1.60953507e-01 -1.35628790e-01 -1.21746160e-01 -3.64920050e-02 -2.01582983e-01 -5.62719293e-02 -1.49920911e-01 -4.60206047e-02 -1.53651461e-02 -2.64972776e-01 +2.41558820e-01 +5.75301163e-02 +1.18611418e-02 -4.30036075e-02 -2.18669042e-01 +1.27321735e-01 -3.09362054e-01 +1.57962427e-01 -1.51169300e-01 -6.25377744e-02 -1.98130116e-01 +9.57172737e-02 +2.65113682e-01 -8.88745338e-02 -2.09638074e-01 -1.19241759e-01 -3.95178190e-03 -5.20203561e-02 -3.24754305e-02 -2.10079644e-02 +1.63326621e-01 +1.93517938e-01 +2.73842186e-01 -1.81978777e-01 -9.87681597e-02 -7.44196400e-02 -6.84218481e-02 -4.78199683e-02 -1.27679870e-01 +2.33875930e-01 +5.40729892e-03 -2.47193485e-01 +2.24068359e-01 -1.20890671e-02 +5.04416488e-02 +5.89996614e-02 -5.48328348e-02 +1.42617792e-01 +5.96882552e-02 +1.29815876e-01 +1.61963493e-01 +4.67474498e-02 +7.44053945e-02 +1.45204574e-01 -1.27604455e-01 +1.20868348e-01 -1.62104964e-01 -2.32291922e-01 -2.69473959e-02 -1.18481323e-01 -2.64724549e-02 +1.61174953e-01 -2.13909850e-01 -5.03142923e-02 -2.44437769e-01 +9.31747928e-02 +3.06575410e-02 -2.57313609e-01 +1.70733452e-01 +1.69784784e-01 -1.84769958e-01 +1.89136073e-01 +2.05276147e-01 +1.11918785e-01 +1.67786434e-01 -3.38860936e-02 -1.43857272e-02 -1.02362006e-04 +1.79679647e-01 -2.09163412e-01 +1.05691485e-01 -2.43855760e-01 +1.88324139e-01 +6.18436672e-02 -1.55683756e-01 -1.52388781e-01 -2.88339555e-01 -3.73894628e-03 +1.30898163e-01 -1.50502682e-01 -1.39255315e-01 +2.30581388e-01 +1.44763455e-01 -1.25608325e-01 +2.50678267e-02 -3.27215761e-01 -3.73034738e-02 -9.74055305e-02 +1.00819565e-01 +1.88472778e-01 -1.19323142e-01 +2.11258113e-01 -2.13040654e-02 -1.31377041e-01 +1.75960079e-01 -9.83037129e-02 +8.35431591e-02 -5.92376068e-02 +1.49565071e-01 -9.51854438e-02 +1.59892872e-01 -1.77987680e-01 -2.21790776e-01 -9.02994871e-02 +9.94146392e-02 -1.09540217e-01 +2.10133061e-01 +1.35866269e-01 +9.06452611e-02 +2.47894332e-01 +4.80258055e-02 +1.66245759e-01 -1.09641533e-03 +5.65150790e-02 -1.55253187e-01 +1.07525811e-01 +1.67599723e-01 -1.02203004e-01 +2.21172959e-01 +1.73150793e-01 -1.00785181e-01 +4.06572409e-02 -8.41546953e-02 +1.35100871e-01 +6.89879507e-02 -1.47986248e-01 -4.31032553e-02 -1.14852965e-01 +1.40944034e-01 -2.08039239e-01 +1.70937210e-01 -2.04365209e-01 -9.64439362e-02 -7.03820363e-02 +1.90260932e-02 +2.61366982e-02 +9.07538682e-02 +2.50931442e-01 +1.63663328e-01 -3.60073671e-02 -3.76122259e-02 -2.22113460e-01 -4.13142405e-02 -2.12476522e-01 -1.88305482e-01 -1.73619106e-01 -9.51556340e-02 +3.11594289e-02 -3.49007398e-01 -1.43297195e-01 +1.46858737e-01 -2.70634979e-01 -1.04343072e-02 -6.93400055e-02 +2.76827604e-01 -2.86412835e-01 -1.57374591e-01 +2.32006162e-02 -6.37510344e-02 +2.26395484e-02 +2.82368243e-01 -2.71134853e-01 -1.15600877e-01 -3.07908002e-02 +5.00713475e-02 -2.89785117e-01 -1.87642679e-01 -2.52484810e-02 -3.17408517e-02 -1.51519075e-01 +1.26834676e-01 +1.19536817e-01 -2.46324733e-01 -1.20132141e-01 -2.63981581e-01 -1.93115547e-01 -2.56815599e-03 +2.26863518e-01 +1.91237852e-01 -7.17112795e-02 +4.15611230e-02 +1.10193737e-01 +2.76812673e-01 +2.81657837e-02 +6.16073199e-02 -9.84952003e-02 +7.70357177e-02 -1.15926946e-02 -8.86899531e-02 -5.55815138e-02 -1.96272090e-01 +7.92608857e-02 -1.27915159e-01 -1.08470611e-01 -1.33981675e-01 +1.20758014e-02 +1.68470785e-01 +4.73832227e-02 -5.52227199e-02 +8.46371800e-02 +1.72505587e-01 +1.31580457e-01 -5.66709787e-02 -6.34224489e-02 +1.43861070e-01 -3.46617177e-02 -2.29132324e-01 +1.65447980e-01 +1.82324454e-01 +2.73855659e-03 -8.31339881e-02 +6.25615939e-02 +1.59599259e-01 -1.80498645e-01 -1.13537312e-01 -1.61811784e-01 +1.69562250e-01 -2.45108306e-01 -2.21891388e-01 -6.63179234e-02 -7.77430460e-02 +6.55157417e-02 -1.01584904e-02 -9.27112028e-02 +7.48107806e-02 -5.61614297e-02 -5.22411205e-02 +6.38535395e-02 -7.31161460e-02 -1.14021562e-01 -2.39714801e-01 +1.62424475e-01 -2.64766186e-01 +1.14978418e-01 +1.45588547e-01 +6.92898557e-02 +5.13078943e-02 +2.49837279e-01 -2.05843359e-01 -2.80324090e-02 -1.96559623e-01 -1.78340822e-01 -2.06016883e-01 -1.76910773e-01 +1.52459577e-01 -5.24490327e-02 -1.15608893e-01 -6.15757369e-02 +1.12257805e-02 -6.05784915e-02 -2.20386684e-03 -4.06578891e-02 +6.22440316e-02 -2.79014558e-01 +2.10608765e-01 +1.86280280e-01 +1.30687699e-01 +6.17778786e-02 -1.23945884e-01 +2.13079721e-01 -2.08150446e-01 -7.38398954e-02 -8.58524665e-02 -1.08046822e-01 +2.21818119e-01 -2.23199815e-01 +1.95678651e-01 +1.14265926e-01 -4.69936095e-02 -1.95286293e-02 +1.78425685e-01 -2.11555004e-01 -2.10767791e-01 +1.26817837e-01 -8.68036821e-02 -2.15377629e-01 -1.73911527e-01 -2.40600273e-01 -1.18021712e-01 -1.81078032e-01 +1.44720823e-01 -5.91363683e-02 -2.35560864e-01 -1.42119732e-02 -1.48919478e-01 +1.14244707e-01 -1.74049020e-01 -1.09112501e-01 -1.97086424e-01 +1.39344379e-01 +2.39298314e-01 -2.76743360e-02 -2.19539896e-01 +2.64526069e-01 +1.96938813e-01 -9.72170383e-02 -1.07505284e-01 +6.15390837e-02 +6.13971148e-03 +1.98780686e-01 +2.83272028e-01 -5.45266159e-02 -1.46876544e-01 +5.48868105e-02 -1.53897658e-01 +1.31703913e-01 -1.05595082e-01 +1.48686931e-01 -5.18697947e-02 -1.51099458e-01 -3.94986272e-02 -1.38581291e-01 -4.79922593e-02 +5.12227900e-02 +1.53358504e-01 -1.69421267e-02 -1.68619469e-01 -4.10696231e-02 -1.25413656e-01 -1.11849070e-01 +1.51789576e-01 -1.65270686e-01 +3.17075327e-02 -1.39183849e-01 +1.41531020e-01 +1.01885624e-01 -1.61119834e-01 -1.82846248e-01 -1.45044312e-01 -1.01001292e-01 -5.17419353e-02 -1.25080466e-01 +1.92412570e-01 +4.84267324e-02 -8.24319571e-02 +1.55894145e-01 +1.45650536e-01 -1.77920178e-01 +9.85612795e-02 -1.36172056e-01 -1.38763310e-02 +3.14466432e-02 +2.57117450e-01 -2.14740425e-01 -1.77455768e-02 +1.68348417e-01 +5.54290675e-02 +2.37829499e-02 -3.88600916e-01 +1.22612889e-03 +1.20570678e-02 -1.12476639e-01 -2.05381110e-01 -6.14036135e-02 +1.14444522e-02 -1.14957564e-01 -2.24935919e-01 -1.11937664e-01 +9.01893377e-02 -3.24719064e-02 +1.06459379e-01 -1.95217848e-01 +8.45335498e-02 +1.62788600e-01 +1.26047796e-02 -2.20592141e-01 -1.63050607e-01 +1.94916055e-01 +2.38246560e-01 +4.94026877e-02 +2.34574690e-01 -7.40703493e-02 +1.05021521e-01 +1.02453358e-01 +2.38746777e-01 +1.24326861e-02 +1.05122756e-02 +2.36772835e-01 +9.88890380e-02 -8.67124721e-02 +4.61976938e-02 -1.42912157e-02 -1.13365509e-01 +2.00537249e-01 +1.44964084e-01 -1.08262887e-02 -1.56147704e-01 +6.77353516e-02 +6.70274496e-02 -5.74450120e-02 -9.83753055e-03 +1.27175927e-01 -1.25090303e-02 +1.74755037e-01 +9.34608430e-02 +1.40137613e-01 +5.79048619e-02 +7.12978691e-02 +1.32311359e-01 +1.70380250e-01 +1.95371822e-01 -5.08837111e-04 -1.70099899e-01 -1.67408243e-01 +3.60445529e-02 -2.05314770e-01 -1.06934063e-01 +1.04727615e-02 +2.59041220e-01 +1.50691522e-02 +1.58845663e-01 -1.53032005e-01 -9.34750140e-02 +1.89508542e-01 +2.15567514e-01 -2.35192820e-01 -2.41292398e-02 -1.84941944e-02 +1.34069193e-02 -3.48167792e-02 +5.64159267e-02 +1.92910567e-01 +1.29998893e-01 +2.97580138e-02 +7.82866403e-03 -6.13446496e-02 -4.28790711e-02 +2.66944498e-01 +3.60702947e-02 +2.67699450e-01 +8.98399949e-02 -1.58038110e-01 +2.15581115e-02 -1.31723836e-01 +6.12315945e-02 +2.99813926e-01 -1.58892795e-01 -1.87127054e-01 -1.27355307e-01 +1.98175296e-01 +1.68265402e-01 -1.00085221e-01 +1.90974340e-01 -7.71040395e-02 +6.83085388e-03 +9.21180751e-03 +2.35871077e-01 +1.85791820e-01 -4.20315117e-02 -2.14977518e-01 +1.53313711e-01 +9.89380553e-02 +3.24649736e-02 +1.32022137e-02 +1.54066190e-01 +1.31953945e-02 +1.39425054e-01 +1.39269367e-01 +1.53492600e-01 +1.87590152e-01 +1.06748104e-01 +1.31442044e-02 +9.72020701e-02 +1.40445322e-01 -9.10358503e-02 +2.60158420e-01 +2.57984698e-01 +1.31554157e-01 +2.11429715e-01 -1.02445729e-01 -7.70842060e-02 +8.86504799e-02 -5.20103760e-02 -1.74214635e-02 -2.02103462e-02 +6.11867458e-02 -4.33580987e-02 -7.35099539e-02 -4.61069681e-02 -9.68445316e-02 -2.01681718e-01 -6.60642385e-02 -2.37502740e-03 +5.44332899e-02 -2.71658689e-01 +9.50092152e-02 +1.96159303e-01 -3.36274020e-02 -6.75915554e-02 -4.16301042e-02 +9.66724753e-02 -5.65673672e-02 -8.51004273e-02 +1.90451164e-02 -1.71785071e-01 +1.17548890e-01 -1.62019074e-01 +3.15091349e-02 -2.63756454e-01 +1.87816277e-01 -5.84914051e-02 +2.59211659e-02 -1.62900284e-01 -1.69910371e-01 -1.73887670e-01 +8.51237401e-02 +3.52375731e-02 +1.62505031e-01 -6.40706569e-02 -2.34306782e-01 +2.53008962e-01 +3.99614079e-03 -2.01214194e-01 +1.75571769e-01 +9.85836685e-02 -2.01968774e-01 -2.75096029e-01 -1.14582162e-02 +2.66483366e-01 -6.89626485e-02 +6.43015578e-02 +8.76930207e-02 +1.62588954e-01 -2.21400261e-01 +3.13625187e-02 -9.45896357e-02 -2.25343499e-02 +8.54161531e-02 +9.78780687e-02 +2.09316298e-01 +2.68568546e-01 +1.54078752e-01 +1.50904521e-01 -9.46808830e-02 +8.88450220e-02 -3.91282924e-02 -2.63874363e-02 +8.68856534e-02 -1.70099765e-01 -2.01060891e-01 +2.20857874e-01 -5.25375865e-02 -1.12395592e-01 -1.35660738e-01 -6.21026829e-02 -3.60606909e-01 -9.29443240e-02 +2.47252584e-02 +1.53911620e-01 +1.87938735e-01 -3.00429791e-01 +1.21688038e-01 +1.98604658e-01 -1.33119062e-01 -1.23940483e-01 -1.70683995e-01 +8.09478294e-03 +4.77165878e-02 +1.16209902e-01 -1.97721839e-01 +6.96108565e-02 -2.18030125e-01 +2.06285343e-01 +1.67190488e-02 +1.71536028e-01 +3.04534808e-02 -1.44238919e-01 -2.43474513e-01 +2.00905085e-01 +1.03015877e-01 -2.19417468e-01 -1.74128875e-01 +2.17168063e-01 -1.41841263e-01 -8.59403834e-02 +2.27017611e-01 -1.37374669e-01 +6.62386194e-02 -1.67148501e-01 -1.45202816e-01 +2.29366481e-01 +5.16965352e-02 -1.14346303e-01 +1.02474250e-01 -1.68563351e-01 +1.52578115e-01 -8.98381323e-02 -2.08514812e-03 -2.15179339e-01 -2.33465254e-01 +1.48756849e-02 -9.52038765e-02 +1.53697222e-01 -5.10671027e-02 +2.33472437e-01 +3.10124643e-02 -1.28773451e-01 +1.95656478e-01 +8.34607333e-02 -2.39594787e-01 +4.53532487e-02 +2.00165719e-01 -1.79031402e-01 -1.87571552e-02 +2.24090979e-01 +2.26942990e-02 -1.09491318e-01 -8.15367475e-02 -2.51492381e-01 -2.46065944e-01 +4.24865820e-02 +1.00414135e-01 +2.82694161e-01 +5.26230410e-02 +2.42430180e-01 -1.35099083e-01 -1.51477873e-01 +1.96460143e-01 +1.02957919e-01 -2.37389263e-02 -8.27826187e-02 +2.94928342e-01 -4.87351753e-02 -6.48622140e-02 -1.61948130e-01 +1.16883785e-01 -3.38746421e-02 +1.04644418e-01 -2.04346716e-01 +2.37877846e-01 -1.47271287e-02 -1.52005941e-01 +5.89658767e-02 +1.68584630e-01 -7.25222677e-02 -1.70896307e-01 +1.88955277e-01 -2.16952249e-01 +1.47808775e-01 +7.40567222e-02 -8.71407762e-02 -1.05558924e-01 +1.85359493e-01 +1.46965748e-02 -4.65016626e-02 -1.76506460e-01 -2.62415379e-01 +1.76892318e-02 -2.54316062e-01 +4.41556536e-02 +2.00943172e-01 -1.01794504e-01 -1.71938002e-01 +1.11891180e-01 -6.37897626e-02 +5.18961251e-02 -1.14566170e-01 +1.88689269e-02 -1.19613893e-01 +1.34834692e-01 -1.41862944e-01 -8.11272934e-02 -2.39491791e-01 -4.04499471e-02 -1.63108602e-01 -1.03972711e-01 +2.96627724e-04 +6.55537546e-02 +1.32961899e-01 -1.96538374e-01 +7.00795674e-04 +1.23517394e-01 -8.78249258e-02 -4.88262214e-02 -2.83667535e-01 -2.31411591e-01 +2.99972147e-01 -6.91900551e-02 +1.37144357e-01 -5.03874682e-02 +1.17720328e-01 +1.08495578e-01 -7.60843381e-02 +5.01745045e-02 +1.19138017e-01 +2.19895273e-01 +1.28736109e-01 +1.45194769e-01 +1.76073924e-01 +1.88046262e-01 -6.49111718e-02 -3.26050296e-02 -2.32162159e-02 +1.99996412e-01 +6.72659129e-02 -2.77110636e-01 +6.59815297e-02 +3.33398730e-02 +2.34765448e-02 +2.13491723e-01 -7.03543518e-03 +1.65407613e-01 +8.42648894e-02 -3.83389518e-02 -2.15183496e-01 -5.91400862e-02 -8.34031552e-02 +1.83450550e-01 -2.46683937e-02 +3.96913104e-02 -2.60135710e-01 -7.86724240e-02 +2.86016285e-01 +8.87639150e-02 -1.58284903e-01 +2.65152473e-02 -1.76477060e-01 +1.31858006e-01 +8.41519833e-02 +2.46557593e-01 +1.56310290e-01 -1.48139313e-01 +9.26106572e-02 -1.41697332e-01 -3.82357324e-03 -4.42419015e-02 -1.50455356e-01 -2.75706910e-02 -2.18201280e-01 +1.45510569e-01 +4.13365178e-02 -9.23654065e-02 -7.88304433e-02 -2.23846018e-01 -1.81753010e-01 +1.28391191e-01 +2.63417326e-02 -1.43518984e-01 -1.01436721e-02 +1.06704458e-04 -1.20009027e-01 +7.48661757e-02 -8.36961865e-02 +1.78416669e-01 +5.63186258e-02 -1.43568829e-01 -2.70372570e-01 +1.08772792e-01 +1.41492605e-01 -6.20968081e-02 -4.24698368e-03 +6.64175302e-03 +1.85866237e-01 +4.11497727e-02 +2.73453712e-01 -7.06792176e-02 -2.12978408e-01 -2.26073414e-01 +9.62959826e-02 -1.33919284e-01 +6.89763725e-02 +1.34262338e-01 -2.75281936e-01 +6.06233031e-02 +7.23177269e-02 -2.69153386e-01 -6.34497404e-02 -1.39592633e-01 -7.26800039e-02 +2.86342762e-02 +2.49485731e-01 -1.47567987e-01 -1.70281336e-01 -3.44185144e-01 -2.32222691e-01 -1.93654880e-01 +1.56790674e-01 +1.31954208e-01 +9.19827074e-02 -2.73280963e-02 -8.94525647e-03 +9.40767229e-02 -1.02687567e-01 +2.03772888e-01 +1.59511849e-01 -5.09819575e-02 +2.53998548e-01 +1.93684474e-01 -2.21593976e-01 +3.22503336e-02 -1.30180538e-01 -2.45266572e-01 -1.10487096e-01 +1.49758354e-01 -1.03337675e-01 -2.19703138e-01 -1.62203833e-01 +1.00428373e-01 +8.36143047e-02 -1.87330954e-02 -2.60645926e-01 -1.39725894e-01 +6.19338937e-02 +2.03955114e-01 -1.13750204e-01 +1.44145787e-01 +3.95477712e-02 +1.78288236e-01 -2.06859946e-01 +5.34777306e-02 -2.16210028e-03 -2.71339387e-01 -1.92881912e-01 +3.13009061e-02 -2.44042858e-01 -1.35965228e-01 +3.34883034e-02 +6.34994209e-02 +9.60372835e-02 -1.21219464e-01 +2.01871395e-02 -2.46941075e-01 -4.54337746e-02 -1.08541615e-01 -1.81029633e-01 +1.43236905e-01 +2.01175258e-01 -1.80788636e-01 +2.48084798e-01 -9.35583860e-02 +3.48279744e-01 -1.77033588e-01 -2.16989413e-01 +1.68121412e-01 -7.83634558e-02 -2.07384732e-02 -8.12076405e-03 -7.50299767e-02 +1.36836514e-01 -1.06338263e-01 +7.25437999e-02 +5.79733215e-02 +2.61078030e-01 -1.80635482e-01 +2.52852589e-01 +1.89166129e-01 -2.39568189e-01 -8.91165733e-02 -2.70779192e-01 +1.38226643e-01 +2.74825066e-01 +1.74219817e-01 -2.07383588e-01 +3.22972834e-02 -3.62249687e-02 -2.52689630e-01 -9.68549773e-02 +8.82812291e-02 -1.08902417e-01 -1.05601586e-01 -1.34561822e-01 +1.80003405e-01 +1.03012852e-01 +1.22169718e-01 -1.09365471e-01 +1.80688277e-01 -2.53631145e-01 +2.52849579e-01 -6.08209707e-02 +5.67462780e-02 -2.30318233e-01 -4.80690934e-02 -1.63364336e-02 -5.83501358e-04 -1.64935887e-01 -7.16575161e-02 -1.55813947e-01 +4.57657650e-02 +1.91396117e-01 +3.20027433e-02 -3.32948826e-02 -1.24820441e-01 +2.71459430e-01 -9.29025561e-02 -2.58241035e-02 -1.02919385e-01 +1.68875471e-01 +1.09408408e-01 +5.92042953e-02 -1.11969970e-02 +1.72934636e-01 -2.60372877e-01 +2.40238518e-01 +8.47643614e-02 -9.23399851e-02 +1.11434184e-01 +5.17842323e-02 -1.90805301e-01 +3.96696031e-02 +7.81194028e-03 -1.58699304e-01 -1.01504318e-01 -2.01915100e-01 +2.40639687e-01 +1.75439596e-01 -1.05498143e-01 -1.23008609e-01 +1.60552040e-01 -1.83813721e-01 -2.29213879e-01 +6.08742647e-02 -7.55256340e-02 -1.72441438e-01 +2.17750654e-01 +2.86722571e-01 +5.71599342e-02 -2.79365003e-01 -4.49462049e-02 +1.28448024e-01 -3.24976817e-02 +1.84836879e-01 +3.02043799e-02 +1.19748801e-01 -8.23145434e-02 -9.26158652e-02 +5.29808402e-02 +2.77357250e-02 +6.93823677e-03 +2.86880825e-02 -1.50812909e-01 -2.05586478e-01 -1.09684773e-01 -1.78967923e-01 +4.86981943e-02 +2.49150008e-01 -3.71485986e-02 +1.58810258e-01 +1.67765722e-01 -2.31709078e-01 -1.03590570e-01 +7.76260197e-02 -2.12345675e-01 -1.48049951e-01 +4.30804230e-02 -1.55915424e-01 -1.02101170e-01 +2.44929511e-02 -7.34044537e-02 +2.54770815e-01 +1.67727187e-01 -2.37165704e-01 +2.33033031e-01 +1.09472238e-01 -2.20690548e-01 -2.49343202e-01 +1.27397031e-01 -1.22999392e-01 +2.96482369e-02 -6.66701272e-02 -8.25322717e-02 -2.25261763e-01 -2.56753325e-01 -2.36110225e-01 -1.94469243e-01 -1.74197167e-01 -1.44966859e-02 -4.09097522e-02 +1.41671658e-01 +3.89855988e-02 -1.99664593e-01 -6.07436486e-02 -1.43775284e-01 -2.77639721e-02 +1.28624618e-01 +4.38546352e-02 -1.73873901e-01 -1.54095292e-01 -6.04949147e-02 -6.55681491e-02 -1.09964192e-01 -2.23121345e-02 +9.70592424e-02 +1.08471841e-01 -1.08382434e-01 +1.00129098e-03 -9.21648517e-02 +3.07548475e-02 -3.10249865e-01 +1.68913633e-01 -1.90086693e-01 -2.46279791e-01 -2.62953609e-01 +2.15644717e-01 +1.95225045e-01 +8.47087353e-02 -1.23802215e-01 +2.20656589e-01 +1.83188081e-01 -7.17041343e-02 +1.69481188e-01 +1.27535820e-01 -2.91772150e-02 +5.59275039e-02 -1.70207590e-01 +1.41740099e-01 +1.49685115e-01 +1.20161511e-01 -6.28454760e-02 +2.61749595e-01 -4.26371954e-02 +1.63894624e-01 +9.88971889e-02 -2.60479838e-01 -1.50549799e-01 -5.37345149e-02 -8.86065587e-02 -3.44884574e-01 -4.72469814e-03 +9.34642181e-02 +1.61214188e-01 -1.84636161e-01 +1.04756085e-02 +2.38887947e-02 -1.11529365e-01 -7.36101866e-02 -1.59317240e-01 +2.62262046e-01 -7.33470619e-02 +5.66945784e-02 -8.15587267e-02 -8.56473744e-02 +7.37038553e-02 +2.14274958e-01 +1.51780084e-01 -7.45625198e-02 -1.27418656e-02 +2.63997585e-01 +2.81953990e-01 -2.17788178e-03 +1.81663275e-01 -1.71466321e-01 -5.35507128e-02 -2.26631716e-01 -1.22682616e-01 +1.48163438e-01 -2.02342480e-01 -2.47772217e-01 +1.76663417e-02 -8.61433819e-02 -1.64005846e-01 -2.51784474e-01 +2.79387414e-01 -3.06034815e-02 -5.49646839e-02 -2.44273514e-01 -3.15476768e-02 +5.20199873e-02 -3.26367989e-02 +6.67175353e-02 +1.64957270e-01 -5.90133481e-02 +8.05511251e-02 +1.68001413e-01 -8.35867748e-02 +7.76283517e-02 -1.65592372e-01 +2.78327316e-02 +2.68795580e-01 +8.32883939e-02 -1.30542740e-01 +9.05170292e-02 -2.27970686e-02 +1.36195466e-01 +5.83065068e-03 +2.04701379e-01 +2.21803367e-01 -1.62718952e-01 -1.64465737e-02 +5.77926151e-02 +1.95706725e-01 +2.34199196e-01 -1.63922235e-01 +1.53735340e-01 +1.63610722e-03 -1.26259193e-01 -2.31642649e-01 -1.09372199e-01 
#Parameter# /_8 {50} 801 ZERO_GRAD
-1.08352631e-01 +5.95534779e-02 +7.04674572e-02 -1.98951319e-01 -1.65489651e-02 +2.66880263e-02 -9.93100703e-02 +2.38103330e-01 +8.94391686e-02 +2.30139256e-01 +1.04496427e-01 -2.86759317e-01 +9.30563658e-02 -8.24644789e-02 +1.24194972e-01 +9.32341963e-02 +1.90021068e-01 +2.27589250e-01 -2.52083465e-02 -1.38171956e-01 +1.96573943e-01 -4.83626425e-02 +5.49058393e-02 +1.86947972e-01 -8.11843053e-02 -8.41289908e-02 +1.33833885e-01 +2.40519002e-01 -1.71282440e-01 -3.04740489e-01 -1.60671905e-01 +8.57304223e-03 -1.34947583e-01 -8.99002552e-02 +1.65932894e-01 -1.85649753e-01 +1.50668427e-01 +1.79795951e-01 +2.16066465e-02 +1.97687790e-01 +7.89846703e-02 +1.92998648e-01 +2.55958647e-01 -4.11885716e-02 +1.22423507e-01 +1.80589005e-01 -1.33704185e-01 +2.44155809e-01 +1.06499694e-01 +1.89747989e-01 
#Parameter# /_9 {50,3} 2401 ZERO_GRAD
+2.45592773e-01 -2.35853001e-01 +3.02105516e-01 +3.51918787e-01 +7.71541893e-02 -1.42666191e-01 -2.18727380e-01 -4.61128913e-02 +1.91936731e-01 -2.52861738e-01 +2.54640818e-01 +3.76431555e-01 -8.97889361e-02 -5.62980399e-02 +1.78415149e-01 -2.20869571e-01 +8.83607194e-02 +2.87614733e-01 -2.39985570e-01 +4.41692472e-01 +3.81184727e-01 -1.39484763e-01 +3.34661871e-01 +2.77751476e-01 -1.73613936e-01 -9.27873924e-02 +2.48471379e-01 +2.99250335e-01 -1.75105594e-02 +4.89391424e-02 -1.26768410e-01 -2.24083159e-02 +3.26156288e-01 +3.40704843e-02 -1.18950412e-01 +1.50045708e-01 -8.00899342e-02 -7.62934610e-02 +3.40450346e-01 +1.49097130e-01 -4.02835637e-01 -5.51854335e-02 +9.95238647e-02 -1.66682363e-01 -6.56440109e-02 +3.85175198e-01 -1.15198813e-01 -3.44819695e-01 +2.09535077e-01 -1.92277506e-01 -1.77712247e-01 -4.00932312e-01 +3.53695415e-02 +9.02943239e-02 -1.62287913e-02 -1.90082848e-01 +4.04710025e-01 +3.67254943e-01 -5.39163709e-01 -8.96637663e-02 +2.09161967e-01 -1.42871842e-01 -2.76207000e-01 -2.33303368e-01 +6.32878244e-02 +3.50785971e-01 -2.38167152e-01 -3.44787389e-01 -3.72566849e-01 -5.19652143e-02 +1.06985666e-01 +3.78930569e-01 +8.53705555e-02 +5.64241745e-02 -2.21463382e-01 +1.52224436e-01 -1.46291060e-02 -4.47823048e-01 +1.13012716e-01 +2.31653780e-01 -3.86969715e-01 -4.15535241e-01 +1.03799336e-01 -2.36567408e-02 +2.49096289e-01 -2.03864396e-01 +6.30152375e-02 -1.63028196e-01 -4.06228080e-02 +3.32480669e-02 +5.45440793e-01 -2.54900366e-01 -3.89530033e-01 -6.95945248e-02 +3.74241769e-01 -1.17943138e-01 -2.92131007e-01 +5.84754467e-01 -3.10248762e-01 -1.87496379e-01 -4.07445282e-01 -1.73142329e-01 -3.13933671e-01 -3.40354234e-01 -1.13986589e-01 +3.15298438e-01 -2.64506906e-01 +5.48499115e-02 -1.48278549e-01 -2.56351352e-01 -2.64459610e-01 -6.45412356e-02 +2.26146609e-01 -2.10249364e-01 -2.34849239e-03 +1.69483781e-01 +1.65743679e-01 -2.12177143e-01 -3.71541530e-01 -3.51002723e-01 -1.97754696e-01 -3.75723481e-01 -2.81655550e-01 -1.44404054e-01 -2.58968085e-01 -2.40716010e-01 -8.41190293e-02 -2.41602704e-01 -9.96104032e-02 -3.52233835e-02 +2.08451584e-01 -6.35122210e-02 -2.04730839e-01 -2.51046330e-01 +1.22056238e-01 -8.28460082e-02 -1.72423407e-01 +2.45501801e-01 +7.93991089e-02 -3.40498179e-01 -3.78604867e-02 +5.83769977e-02 -2.94282705e-01 -8.18809047e-02 +2.22774148e-02 -3.87888253e-01 +2.47939676e-02 -3.88737768e-01 -4.78667542e-02 -2.13373512e-01 
#Parameter# /_10 {50,50} 40001 ZERO_GRAD
