#Parameter# /_1 {2,50} 1601 ZERO_GRAD
-3.13315004e-01 -4.06183414e-02 +3.25029045e-01 +3.35473746e-01 +2.21817866e-01 -7.41699338e-02 -2.98951775e-01 +2.09161818e-01 +1.94855422e-01 -3.04816421e-02 -1.09495863e-01 -2.94149488e-01 +5.16212404e-01 -1.87485099e-01 -3.80910009e-01 +5.06223559e-01 -4.11325544e-01 -2.04475418e-01 +3.02359879e-01 -7.98724741e-02 -1.77400783e-02 +3.36192667e-01 -3.48809734e-02 +4.27954555e-01 -1.17722545e-02 +2.97318906e-01 -3.91916722e-01 -7.13120103e-02 +2.65358686e-01 -9.19509828e-02 -5.47609806e-01 +5.19035816e-01 +3.31469148e-01 -3.40273798e-01 -7.90205747e-02 -3.31815392e-01 +3.54149073e-01 -3.74724865e-01 -3.64871114e-01 +4.73537922e-01 +2.90159523e-01 -1.20259725e-01 +2.87944078e-01 +1.41267776e-01 +3.12289566e-01 -1.09855294e-01 +3.25960070e-02 +1.19996019e-01 -3.00806850e-01 +1.61658928e-01 -3.75193655e-01 +3.82666647e-01 +1.93754897e-01 +2.30085403e-01 +2.28414405e-02 -1.53963551e-01 +3.16082448e-01 -3.03357899e-01 -3.30367416e-01 +3.03544551e-01 -5.10994375e-01 +3.98250997e-01 +2.01420277e-01 -1.98714077e-01 -3.09269875e-01 +1.35876670e-01 +1.67656273e-01 +2.74518192e-01 -3.31384927e-01 +2.03601062e-01 -1.82847813e-01 +3.77752930e-02 -2.28313431e-01 +2.26115629e-01 -1.60277292e-01 +7.57033452e-02 +2.53475964e-01 +1.27020776e-01 +2.01795753e-02 -2.41867080e-01 -2.32287794e-01 +5.60052693e-02 +4.23521638e-01 -4.86594766e-01 -3.08405370e-01 +1.97872818e-02 -2.05096044e-02 +3.69999260e-01 +2.84446210e-01 -3.71195495e-01 +3.66261393e-01 +5.98485069e-03 -2.60546923e-01 +2.17710674e-01 -6.52465373e-02 -3.99720699e-01 -2.32405961e-01 +1.92142874e-01 -2.03647092e-01 +5.74064851e-02 
#Parameter# /_2 {2} 33 ZERO_GRAD
+1.20323431e+00 -3.45345646e-01 
#Parameter# /_3 {50,3} 2401 ZERO_GRAD
+1.16633147e-01 +1.53445363e-01 +3.85702103e-01 -2.64559478e-01 -1.76708162e-01 -2.52299011e-01 -2.83724844e-01 +1.33595718e-02 -2.26945188e-02 +2.00592145e-01 -2.31169507e-01 -1.86028883e-01 -1.18044935e-01 +4.17266488e-02 +2.28276685e-01 +2.09151171e-02 -1.88809127e-01 +3.01603436e-01 +2.16589361e-01 +2.89234281e-01 +1.17982663e-02 -1.37902543e-01 +2.32692316e-01 +1.85942218e-01 +5.45456670e-02 +3.87171358e-01 +2.92642415e-01 -2.27351829e-01 +2.48881623e-01 -4.42243665e-02 -2.91512311e-01 +1.73509674e-04 -7.26914331e-02 -5.89309086e-04 -1.14465049e-02 -2.21397445e-01 +2.20266506e-01 -1.87833712e-01 +1.39209419e-01 -2.62293637e-01 -2.73130715e-01 +3.68076891e-01 +1.92184195e-01 +1.26435757e-01 -1.25664324e-01 +3.98753464e-01 -2.67979549e-03 +1.69832766e-01 +2.02889770e-01 +7.56314918e-02 -7.80753279e-03 +8.10306445e-02 +1.26000822e-01 -1.86238632e-01 -1.53510362e-01 +3.38333845e-01 +2.91262925e-01 +6.69411868e-02 +1.58591643e-01 +3.11093897e-01 -2.99719810e-01 +4.22842115e-01 +7.33277500e-02 -2.36380219e-01 -3.30489784e-01 -1.56622514e-01 -6.42159358e-02 -2.05615371e-01 +3.03977370e-01 +1.50647946e-02 +1.49250612e-01 +1.66431352e-01 -1.05479322e-01 -1.54332355e-01 +2.35691518e-01 +1.36712745e-01 +2.60783315e-01 +1.18957147e-01 +2.63013721e-01 +4.52397674e-01 -2.88763136e-01 +1.37427345e-01 +3.51912528e-01 +2.71687001e-01 +1.64256647e-01 -3.22119236e-01 -1.77160978e-01 -1.59629762e-01 +5.45317084e-02 +3.17924283e-02 +3.02148044e-01 +8.32413957e-02 -1.81311011e-01 +2.74887919e-01 +4.57912058e-01 +6.34043366e-02 +1.41386658e-01 -2.98163205e-01 -4.77481522e-02 -1.88029900e-01 -2.87812561e-01 -1.48793116e-01 -1.74064308e-01 -3.45906556e-01 +2.54174232e-01 -1.95453778e-01 +8.11836645e-02 -5.64780179e-03 -1.45457655e-01 +4.10164893e-01 +2.44150695e-04 -2.65515655e-01 +1.25175744e-01 +2.05049559e-01 -3.54349852e-01 -9.97861549e-02 -3.10769469e-01 +3.08021635e-01 +3.76287252e-01 +2.55360752e-01 -2.48455554e-01 +2.71248579e-01 -2.15715379e-01 +2.97144890e-01 +5.73050939e-02 +1.30864963e-01 +2.73852497e-01 +4.64929044e-01 +4.08223838e-01 -1.46258116e-01 +1.43728048e-01 +3.29176158e-01 +1.09907910e-01 -6.82168305e-02 +2.69925088e-01 -3.35973382e-01 -9.10692140e-02 -1.03030741e-01 -2.15960983e-02 +9.35827047e-02 -2.55564153e-01 -5.02200313e-02 -1.89844951e-01 +1.44199178e-01 +1.02954619e-01 -1.65649161e-01 -3.13985556e-01 +1.74932346e-01 +1.94667310e-01 -3.39828104e-01 
#Parameter# /_4 {50,50} 40001 ZERO_GRAD
-1.89370960e-01 +3.99157330e-02 +4.40845862e-02 +1.52256027e-01 -1.35955289e-01 -1.95463952e-02 -1.07844591e-01 +5.22403643e-02 -1.58944190e-01 +3.73120233e-02 -2.11453736e-01 -2.15385109e-01 +1.61349438e-02 -9.91856828e-02 +2.84049481e-01 +2.48224698e-02 -1.37040138e-01 +1.64526984e-01 +1.40798494e-01 +1.06335036e-04 -1.96139649e-01 +2.33244058e-02 +5.16791176e-03 -1.12994470e-01 -6.36337176e-02 -2.48701438e-01 +1.86803624e-01 -1.87631533e-01 -7.90894702e-02 +5.58654964e-02 -7.56272152e-02 +6.32013083e-02 -2.76254237e-01 -3.33086550e-02 +2.21778769e-02 +7.76495263e-02 -4.17881086e-02 -1.92735240e-01 -3.13394442e-02 -2.69901633e-01 -1.78148344e-01 -1.83043510e-01 +1.45002902e-01 -2.48324007e-01 -1.68567553e-01 +7.59069473e-02 -6.23963252e-02 +3.76428254e-02 +2.18665916e-02 +1.75115258e-01 -1.86349690e-01 -8.14156458e-02 -2.53284305e-01 +1.37103558e-01 +2.38979399e-01 +2.06127509e-01 -6.36459468e-03 -7.26491958e-02 -3.52628045e-02 -2.56302990e-02 -1.61102414e-01 -1.07634231e-01 -6.97310790e-02 +7.24904612e-02 -5.80165163e-02 -1.69690654e-01 +1.14959382e-01 -1.10838618e-02 +1.37363017e-01 -7.26134107e-02 +1.19702816e-01 +1.19928204e-01 +2.25029010e-02 +2.14772224e-01 -2.10009128e-01 -3.11545394e-02 +5.69561264e-03 +3.74986678e-02 -1.35513738e-01 +4.98632714e-03 +2.28623465e-01 -2.64691263e-01 -1.45691738e-01 +1.37146696e-01 -2.40158379e-01 +1.30051270e-01 +2.24230528e-01 +6.91862628e-02 -8.33781213e-02 -1.94366813e-01 +7.64599219e-02 -7.11945146e-02 +7.50966221e-02 -1.80028051e-01 +5.09141907e-02 -1.08309858e-01 +1.13001186e-02 +9.38096642e-02 -8.53490084e-02 +1.73758313e-01 -1.89230725e-01 +1.70308333e-02 -2.42505986e-02 +2.71397531e-01 +1.29051000e-01 +1.75908551e-01 +2.52909362e-01 +1.15683071e-01 -2.04029962e-01 +1.16491474e-01 +2.57526845e-01 +1.42933697e-01 -2.08662283e-02 +2.72875696e-01 -2.27071196e-01 -4.50863503e-03 +1.92902163e-01 +2.46735856e-01 +1.88772678e-02 -1.81065008e-01 +6.09372146e-02 -3.01837642e-02 +9.88866240e-02 +1.93771869e-02 -1.34479329e-01 -1.42865032e-01 +3.62841710e-02 -2.08301708e-01 +1.72790706e-01 +1.16577566e-01 +2.12044731e-01 -8.39425996e-02 +2.38494277e-01 -3.32389884e-02 -4.67472989e-03 +1.61688015e-01 +9.48046744e-02 +8.35373774e-02 +1.67274937e-01 -3.40750217e-02 +1.21104226e-01 -3.02138831e-02 +1.90307349e-01 +6.19533770e-02 -1.94670141e-01 +9.39692650e-03 -1.76415309e-01 -2.36088336e-01 -1.47378117e-01 -4.74061742e-02 -1.18815564e-01 +3.27524781e-01 -3.98121625e-02 -1.85305044e-01 -1.23070449e-01 +9.95603390e-03 -1.44382551e-01 -2.30655689e-02 -1.99819639e-01 -1.17847316e-01 +4.29955944e-02 +2.33387593e-02 +2.68201768e-01 -1.28614962e-01 -1.38780549e-01 +6.89569488e-02 -5.05907685e-02 +1.32617772e-01 +2.24272594e-01 +4.14017169e-03 +2.12107748e-01 +5.02322838e-02 -1.88612506e-01 -1.12601668e-01 +2.01842055e-01 -1.37432501e-01 +2.32832953e-01 -4.50147577e-02 +2.66731143e-01 -2.85880994e-02 +5.38768806e-02 -1.76404044e-01 -7.45555162e-02 +1.21034302e-01 -6.20337874e-02 -9.00567025e-02 +1.11962380e-02 +6.83423057e-02 -5.44554181e-03 -3.07003204e-02 +1.39689773e-01 +2.49189958e-01 -2.57084202e-02 -2.40628123e-01 -3.61972465e-03 +2.02942818e-01 -2.19271585e-01 -1.35417432e-01 -7.74756446e-02 +2.47284785e-01 +1.84902638e-01 -5.00990525e-02 +9.99537706e-02 +1.03653908e-01 -1.74932741e-02 +1.02242500e-01 +8.33489299e-02 +1.44276217e-01 -6.90861419e-02 +1.94695681e-01 +5.07494025e-02 -7.46417344e-02 +6.27051964e-02 -1.38362544e-02 -1.56035438e-01 +3.00084502e-01 +1.73126549e-01 -1.33175135e-01 -7.12228268e-02 +1.89806595e-02 -1.10887341e-01 +5.69244921e-02 +7.97831733e-03 +2.06512809e-01 +2.88557947e-01 -2.16611281e-01 -1.03917100e-01 +4.94139045e-02 +7.64950365e-02 +2.70005167e-01 +1.50482774e-01 +1.08048864e-01 +3.43982433e-03 +1.73653036e-01 +2.21874073e-01 +8.97845179e-02 +2.10762359e-02 +2.11008906e-01 -4.16729040e-02 -1.78474173e-01 -1.07272469e-01 -6.98747262e-02 +2.15026736e-01 -3.79180871e-02 +4.11450639e-02 +2.14647740e-01 -1.34440258e-01 -6.12515882e-02 +2.79005319e-01 +1.07343495e-01 +9.62666646e-02 +2.98838377e-01 +3.17086548e-01 +1.95830017e-01 -1.54962897e-01 +8.20398927e-02 +5.22942878e-02 +2.11318895e-01 +1.98579535e-01 +1.55183122e-01 -1.06247822e-02 +1.78569093e-01 +2.69569278e-01 -1.97119281e-01 +3.29489633e-02 -1.16127706e-03 +1.47230491e-01 +8.21051970e-02 +3.04129183e-01 -6.68873414e-02 -4.11212221e-02 +2.27931246e-01 +1.34010941e-01 -9.25667398e-03 -1.50157690e-01 +2.35558480e-01 -1.81318939e-01 -6.63290545e-02 +9.05486867e-02 -8.98210108e-02 +7.15732053e-02 +2.69028783e-01 +4.28288095e-02 -8.01033154e-02 -1.27506807e-01 -1.51037544e-01 -9.82231945e-02 +2.69864440e-01 -1.36688398e-03 +2.97127694e-01 -6.11554831e-02 +1.96764424e-01 -2.66150385e-02 -7.97773078e-02 +9.97409895e-02 +7.94420913e-02 -5.37959747e-02 -1.58534527e-01 +1.69633016e-01 +1.57610640e-01 +1.29740432e-01 -5.07061444e-02 +1.63573384e-01 -1.21332020e-01 -2.76867241e-01 -9.84570906e-02 +9.51445997e-02 -1.58641532e-01 -1.08107686e-01 +1.25719652e-01 +1.08160146e-01 -1.06712125e-01 -1.38609380e-01 +2.21511289e-01 -1.15445718e-01 +1.56410128e-01 +3.98506299e-02 +5.66810779e-02 -1.48978263e-01 +1.16734765e-01 +1.21063396e-01 -1.89266607e-01 +2.22006470e-01 -1.82115778e-01 +1.74132809e-01 +6.93957508e-02 +1.30022541e-01 -1.67156890e-01 -3.57651971e-02 -1.64047092e-01 +1.10777162e-01 +7.55528659e-02 -9.45831835e-02 -2.03604996e-01 +1.36510447e-01 -2.13974208e-01 -6.83657154e-02 +3.41370590e-02 +1.27473205e-01 -2.37907581e-02 +3.61515284e-02 +1.08459666e-01 +1.34392470e-01 -1.94221035e-01 -2.82934643e-02 +6.88656569e-02 +1.16650477e-01 -2.25328267e-01 +4.58644442e-02 +1.93570063e-01 +9.63875204e-02 +5.16783036e-02 -5.76152690e-02 -2.53581166e-01 -2.11592421e-01 -7.71681666e-02 +3.98189090e-02 +2.39552513e-01 -1.55937865e-01 +1.12725094e-01 -2.10263133e-01 +1.14974998e-01 +7.88901299e-02 -4.25849892e-02 +1.38161644e-01 -2.81932652e-01 +7.37819746e-02 -1.34533301e-01 +6.88241273e-02 +6.42555431e-02 -4.39135246e-02 -2.60480136e-01 +1.11424038e-02 -2.33790144e-01 +8.52398516e-04 -3.70923504e-02 +7.34038800e-02 -1.54726177e-01 -1.69103652e-01 -2.53885984e-01 -2.17027158e-01 +1.14757001e-01 -4.85478863e-02 +2.01610997e-01 -5.85863320e-03 +2.31028497e-01 -2.23397329e-01 -9.09935236e-02 -1.24363594e-01 -2.28604930e-03 +4.71576825e-02 +8.21416900e-02 -1.34988517e-01 -2.70698667e-01 -1.60366118e-01 -2.91082442e-01 +3.99327949e-02 +9.16350335e-02 -2.77789515e-02 -1.36976287e-01 -2.81982478e-02 +1.36495307e-01 +3.58034708e-02 +1.50549322e-01 +7.93383047e-02 +3.06784566e-02 -1.86562389e-01 +1.18062623e-01 -1.43198118e-01 +1.83382735e-01 -4.10148920e-03 +4.24455367e-02 +1.14233688e-01 +2.34154388e-01 +1.92131355e-01 +1.37265295e-01 +2.09824547e-01 -2.16543198e-01 +1.19634412e-01 +9.24638957e-02 -1.52101457e-01 +6.25138432e-02 -2.04785213e-01 -1.10128775e-01 +1.41730398e-01 -8.74311551e-02 -1.82752401e-01 +4.26298007e-02 +1.30943954e-01 +2.11083934e-01 +8.67768079e-02 +6.39632270e-02 +2.65373588e-01 -1.06703267e-02 -1.62787810e-01 +1.11459546e-01 -1.71360388e-01 +1.84871390e-01 -2.34965071e-01 +9.35933217e-02 +2.44792059e-01 -1.27802655e-01 +2.01980829e-01 +2.28607446e-01 +2.36465335e-01 +1.81369156e-01 -1.07179202e-01 +1.74339101e-01 +1.92921206e-01 -1.72367930e-01 -2.37387791e-01 -1.54220775e-01 -2.47347020e-02 +3.28146070e-02 +1.43633500e-01 +2.18598768e-01 +1.60322323e-01 -4.59469445e-02 +2.83489525e-02 +1.79710433e-01 -2.16333076e-01 +1.96146041e-01 +1.39261097e-01 +2.10012928e-01 -6.70244917e-02 +8.65159333e-02 -2.65761048e-01 -7.39281699e-02 +2.32072815e-01 +9.19252262e-02 -1.38927326e-01 +1.36247784e-01 +8.29207972e-02 +1.60809189e-01 +1.77597314e-01 +2.43146375e-01 +1.85682803e-01 -1.62680551e-01 +1.76909775e-01 +6.05300516e-02 +2.16668293e-01 -1.17019325e-01 -1.38870403e-01 -2.17240155e-01 -4.66950331e-03 +1.01485394e-01 +8.04167539e-02 +1.62410632e-01 +1.16338253e-01 -1.84313059e-01 +2.28324756e-01 +2.52263874e-01 +1.52009666e-01 -1.07315086e-01 -1.81306675e-01 +1.33953363e-01 -9.21514556e-02 -2.49627382e-01 +4.06680070e-02 -1.85101777e-01 +1.54782802e-01 -1.80733562e-01 -4.66785096e-02 -1.79092497e-01 +5.64746500e-04 -2.43229881e-01 +9.82704461e-02 +3.36274467e-02 +6.72518462e-02 -2.01889962e-01 +2.07318231e-01 -1.15076620e-02 -1.27048418e-01 +3.16908211e-02 -8.37649330e-02 +5.91340996e-02 +9.52458680e-02 -2.03031361e-01 +5.42140342e-02 -1.76448286e-01 +2.63053048e-02 -1.86955839e-01 -1.58887178e-01 +1.23706110e-01 +1.23749666e-01 +1.00021414e-01 -1.83726288e-02 +1.03661329e-01 -1.10511974e-01 -1.25345170e-01 +3.11655551e-02 -1.42141595e-01 +1.89567089e-01 +2.30686180e-02 -1.92666247e-01 -1.02145448e-02 +7.42993206e-02 +2.19327286e-01 -3.50434221e-02 +1.43882364e-01 -1.29073393e-02 -2.70482481e-01 +1.39562950e-01 -7.94455782e-02 +3.26543003e-02 -2.09927365e-01 +9.04885456e-02 +2.45070502e-01 +7.84615707e-03 -9.87665728e-02 -6.90481365e-02 -1.00587182e-01 -7.86493812e-03 -1.67627141e-01 -2.08414167e-01 -2.59991884e-01 -7.37431571e-02 -2.56459385e-01 +8.68935287e-02 +2.15204775e-01 -1.10628769e-01 +1.95505202e-01 +1.82159826e-01 +6.11543246e-02 +1.50665089e-01 -1.13925405e-01 -1.06535144e-01 +4.49906662e-03 -1.23995868e-02 +5.95218167e-02 +2.12111160e-01 -1.39056087e-01 -2.72062927e-01 -2.25064322e-01 -2.25772813e-01 +4.10561860e-02 -2.72330284e-01 +1.44742072e-01 +1.08351141e-01 -5.24108484e-03 -1.82296515e-01 +1.68795586e-01 -2.12441966e-01 +8.92549828e-02 +2.20652565e-01 +8.95725489e-02 +1.72892287e-01 +2.41685333e-03 +6.03433102e-02 -3.45176347e-02 -1.43622339e-01 -2.73219913e-01 +2.89620645e-02 +6.30923212e-02 -7.16718063e-02 -1.90525316e-02 +4.84510846e-02 -1.42861098e-01 +3.64947654e-02 -1.66189119e-01 +2.35171124e-01 -1.01060018e-01 -1.39246434e-01 -2.69381940e-01 -4.51542549e-02 +2.04137221e-01 +1.31067008e-01 -8.41196626e-02 -1.50092021e-01 -1.61565319e-01 +1.50592476e-01 +1.54978678e-01 -1.30004317e-01 +1.84961677e-01 +1.91800416e-01 +2.09424570e-01 +4.20887992e-02 -1.23075210e-01 -6.98398873e-02 -2.26739943e-01 +1.87188193e-01 +1.72006130e-01 -1.47442117e-01 -8.79660249e-02 -4.14957106e-02 -1.58665925e-02 -1.86801031e-01 -4.85921949e-02 +1.86536372e-01 +6.07926697e-02 +8.48209299e-03 -4.43665497e-02 +1.93628311e-01 +2.40962207e-02 -9.30134803e-02 -1.79377291e-02 +7.34995529e-02 +1.57364741e-01 -1.41283467e-01 +2.37503164e-02 +1.89661175e-01 -1.46906197e-01 -1.13885380e-01 -1.61194950e-01 -1.47294506e-01 -1.53979465e-01 +1.76170245e-01 -1.34953812e-01 +1.13158502e-01 -8.24850276e-02 +5.68540208e-02 +5.60451336e-02 -1.90581203e-01 -1.23423964e-01 +1.79879174e-01 +4.32761461e-02 +2.18662336e-01 +3.87637736e-03 -1.92320213e-01 -1.55172542e-01 -5.05223460e-02 -2.31678069e-01 -1.61526814e-01 -2.50351638e-01 +1.69211417e-01 -1.37867302e-01 -2.01420903e-01 +1.37693882e-01 -2.34734431e-01 -1.52649641e-01 -2.42367655e-01 -4.82098907e-02 -6.50238886e-04 +1.01616092e-01 -9.19051245e-02 -3.77002433e-02 +1.38961330e-01 -1.71914503e-01 +2.03427732e-01 -4.69397940e-02 -7.68722221e-02 +2.31808707e-01 +8.38125572e-02 +1.00735299e-01 -4.22136895e-02 -1.03220493e-01 -2.53988713e-01 -1.45050123e-01 -1.19286396e-01 -2.53361929e-02 -2.72573493e-02 -1.17396496e-01 -1.66644424e-01 -1.07453838e-01 -1.03985026e-01 +5.91431633e-02 -3.86752374e-02 +1.51742160e-01 -7.63983056e-02 +1.26732439e-01 +2.18048114e-02 +1.90332904e-01 -6.33219257e-03 -2.73604780e-01 -4.62179147e-02 +1.50033161e-01 +8.10793191e-02 +8.65284353e-02 +1.69026926e-01 +1.83995798e-01 -4.14623916e-02 -6.24900162e-02 +2.25929201e-01 +7.48406947e-02 +1.33837566e-01 -7.11216256e-02 +1.10365182e-01 +2.09900752e-01 -2.57204384e-01 -3.71742472e-02 +5.31030856e-02 +1.31602988e-01 -1.58571497e-01 -8.40435699e-02 -1.16615042e-01 -8.60570148e-02 +1.08554348e-01 -3.44701707e-02 +8.28169361e-02 -1.18205085e-01 +1.29220307e-01 -6.34499732e-03 +7.20919669e-02 +2.27935433e-01 -2.19106898e-01 +1.12870567e-01 -6.89443052e-02 -1.46325871e-01 -4.96667959e-02 -7.00099170e-02 +2.01186404e-01 +1.70750413e-02 -1.04953580e-01 -3.21057364e-02 -2.63786256e-01 -9.67102200e-02 -2.32554778e-01 -6.07374310e-02 -1.97503731e-01 -2.68198729e-01 -3.23865190e-02 -1.74943462e-01 -2.33850405e-01 -8.17167610e-02 -1.76408868e-02 -2.65081823e-02 -2.34478414e-01 +4.35135141e-02 -5.93797453e-02 +5.31212017e-02 -1.82822898e-01 +2.54491307e-02 -1.99858069e-01 -1.85882121e-01 +5.87667711e-02 +7.18980134e-02 -1.46404207e-01 +1.23653203e-01 +1.84010789e-01 +2.20733792e-01 +1.54544264e-01 +1.22073777e-02 -1.09801572e-02 -1.18411355e-01 +8.30754042e-02 -1.33682325e-01 -1.48946390e-01 +9.80869159e-02 -2.10477218e-01 +2.21290141e-01 +1.46232232e-01 +1.18756458e-01 -1.08087741e-01 +5.32239601e-02 +2.08019361e-01 -1.31103024e-01 -1.69062555e-01 -1.28650457e-01 -2.24534452e-01 -6.67027831e-02 +1.12095974e-01 -1.58333257e-01 +2.31996015e-01 +9.81759131e-02 -2.93882728e-01 -2.66836770e-02 +7.99719244e-02 +6.97435439e-02 +1.95881814e-01 -1.13834357e-02 +2.54832059e-01 +5.12176193e-02 -2.53396869e-01 -1.23454414e-01 -6.63865730e-02 -4.74896692e-02 -8.83811489e-02 +9.03717428e-02 -7.15548098e-02 +9.56930220e-02 +4.97481599e-02 -1.07660055e-01 -2.14374661e-01 +2.62278188e-02 +8.44044164e-02 -2.15247288e-01 -9.94457453e-02 +4.67866100e-02 +4.11708355e-02 -2.47829020e-01 +5.23294993e-02 -5.19915260e-02 -1.69679627e-01 +1.49184212e-01 -2.08586752e-01 -4.95497249e-02 -2.21178964e-01 -2.58365512e-01 +2.44241543e-02 -2.36007854e-01 -4.00334299e-02 -1.82235941e-01 +1.59423292e-01 +1.22141317e-01 +5.51244915e-02 +2.24978924e-01 +9.22814459e-02 -2.17738628e-01 -1.89566478e-01 -4.69539873e-02 -2.42126092e-01 +1.14238292e-01 -1.39833346e-01 +9.04906392e-02 -8.63634720e-02 -2.82573789e-01 +2.91959420e-02 -2.18087912e-01 +1.29895419e-01 -2.15034679e-01 -2.33685881e-01 +1.71120495e-01 +4.04653586e-02 +1.33908346e-01 -2.58539110e-01 -1.60767809e-01 +1.67799860e-01 -1.38618827e-01 +4.56378609e-02 +1.07232891e-01 +1.86820656e-01 +1.97995216e-01 -3.91130373e-02 +2.06130847e-01 +1.05407469e-01 -1.08097335e-02 +1.75476849e-01 -1.65376201e-01 -3.05271242e-03 +2.56152093e-01 -5.37351333e-02 -1.23983584e-01 +2.04337999e-01 -1.04359671e-01 -1.68485850e-01 +2.32651457e-01 +1.82009667e-01 +1.09156094e-01 -5.33503946e-03 +6.76325336e-02 +2.46866986e-01 +6.28861040e-02 +2.22414508e-01 -1.35308374e-02 +2.52338052e-01 +9.78853703e-02 -1.11576311e-01 +4.03481722e-02 -7.74677768e-02 +2.49226391e-01 +1.41391113e-01 +6.42743930e-02 -1.71611905e-01 +1.60160020e-01 -5.42833805e-02 +3.16518575e-01 -4.29665893e-02 -2.16409996e-01 +2.91789353e-01 +9.33055952e-02 -1.32869452e-01 -1.05831295e-01 -6.04764074e-02 -1.03479370e-01 -5.09731248e-02 +1.57823116e-01 +2.23746389e-01 -7.73619264e-02 -1.11133158e-01 -2.04100072e-01 +4.54964712e-02 +5.67820519e-02 -8.48316252e-02 -7.10681975e-02 -2.61823833e-01 +2.56918222e-01 -2.18633488e-02 +1.45615060e-02 -2.57376403e-01 +6.37075529e-02 -1.47395507e-01 +1.02939174e-01 -1.99238658e-01 -2.47491807e-01 -4.21219273e-04 -5.89433499e-02 -1.78393394e-01 +1.85551457e-02 -4.83062342e-02 +1.05984345e-01 +1.92441180e-01 +6.40754700e-02 -3.11303809e-02 -1.21014163e-01 +2.27913782e-01 +1.28522605e-01 +2.72530504e-02 +2.63333112e-01 +1.78268522e-01 +1.54969394e-01 +1.01539923e-03 +9.11242068e-02 +3.79032195e-02 -2.02662125e-02 +6.18093647e-02 +2.70278156e-01 +9.88277420e-02 +2.00528651e-01 -1.30267382e-01 -1.19429514e-01 +1.14668712e-01 -7.19115883e-02 +2.69769937e-01 +1.56698152e-01 +1.07096806e-01 +1.12279542e-01 +1.46032944e-01 +3.51178534e-02 +6.45267516e-02 +1.69180054e-02 +1.87988967e-01 +3.03464592e-01 +5.08444719e-02 -2.07892984e-01 +1.74500197e-01 +3.38226616e-01 +2.74720311e-01 +2.37433851e-01 +2.26529315e-01 +1.30441830e-01 +9.04184505e-02 +2.15286106e-01 +6.89944327e-02 +2.77743667e-01 +1.90076843e-01 +1.16137482e-01 -1.07447267e-01 +2.76458502e-01 +2.25657642e-01 -1.50012836e-01 -2.04913720e-01 +3.68061289e-02 +5.48290052e-02 +1.90572917e-01 -2.02738151e-01 -9.38378349e-02 -2.10158573e-03 +2.17709303e-01 +1.64288253e-01 +1.35787979e-01 +3.85199040e-02 +9.56009477e-02 -8.25831071e-02 +1.55981660e-01 -4.68084551e-02 +1.86360791e-01 -1.26188546e-02 -3.90396104e-03 +1.19541623e-01 +2.27998987e-01 +2.05301851e-01 -1.71059221e-01 +1.56933755e-01 -9.81659517e-02 +1.25974357e-01 -1.06566019e-01 -3.34598087e-02 +1.94872618e-01 -1.31646037e-01 -1.06672652e-01 +9.53172296e-02 -3.45192552e-02 +1.19690940e-01 +1.03582792e-01 -2.14941695e-01 +1.07421473e-01 +9.01227370e-02 -2.33188838e-01 -1.94106415e-01 -1.70091018e-01 -1.70833945e-01 -2.06337363e-01 -1.19071066e-01 -2.00624838e-01 +3.88938226e-02 -1.37071520e-01 +6.70913085e-02 -1.07071772e-01 +1.42721131e-01 +2.03100424e-02 +1.58297464e-01 -1.26355037e-01 +1.59336776e-01 -7.19719306e-02 +2.39845216e-02 -1.62537724e-01 -1.69976816e-01 -2.13610098e-01 +1.87920973e-01 -2.00267509e-01 -1.50721759e-01 +8.81562661e-03 -4.33522202e-02 +6.99046180e-02 -2.17383415e-01 +5.91497011e-02 +1.08260721e-01 -8.97455886e-02 +1.45860195e-01 +8.84500667e-02 -5.06889559e-02 +2.97959168e-02 -1.94626469e-02 +1.52822314e-02 +8.35579932e-02 -8.98427069e-02 -1.65925287e-02 -1.82072118e-01 -5.44840619e-02 -2.75940210e-01 +4.93155308e-02 -2.29639962e-01 +2.28915233e-02 +1.42077804e-01 +3.92940752e-02 +1.43434942e-01 -1.10797562e-01 +5.17078154e-02 +1.30201265e-01 +3.42608057e-02 +9.50544402e-02 -7.81953186e-02 -1.61059484e-01 +1.82198495e-01 -5.77173792e-02 -1.96713969e-01 +8.40617493e-02 -2.47978941e-01 +9.62514430e-02 -2.50663936e-01 -1.64623693e-01 -5.46407774e-02 +9.52552631e-03 +1.77579969e-01 -1.42173201e-01 +1.49141252e-01 +2.21626699e-01 +4.34397273e-02 -1.84560150e-01 -1.56140851e-03 +1.46966025e-01 -2.58887976e-01 +1.53666943e-01 +8.40151496e-03 -8.47202316e-02 -2.41669372e-01 -2.73417473e-01 -1.59892902e-01 -3.14202681e-02 -3.42992437e-03 +3.89155522e-02 +7.99895301e-02 -1.25058657e-02 -1.37762159e-01 +1.31613567e-01 -2.12667868e-01 +8.64060130e-03 -2.35985443e-02 +2.66993288e-02 -8.80409703e-02 -1.98337778e-01 -2.61810899e-01 -9.17812064e-02 -1.39204487e-02 +5.76286204e-02 +5.68900432e-04 -1.17048509e-02 -1.39510155e-01 +8.52737799e-02 -2.53489882e-01 +6.32593632e-02 -2.42132172e-01 -1.82736814e-02 -1.64470509e-01 +2.20879298e-02 +1.75200760e-01 -1.55877396e-01 +6.06123470e-02 +3.62708792e-02 -1.50678813e-01 +3.00682187e-02 -1.27580330e-01 -3.25468153e-01 +2.09966719e-01 +1.86011896e-01 +1.72308415e-01 -5.82485460e-02 -2.54541159e-01 -1.89479664e-02 +1.48301587e-01 +1.82936579e-01 +2.82154754e-02 +9.68565866e-02 -2.72768438e-01 -1.65408656e-01 -2.16531202e-01 +8.59420449e-02 +1.51402103e-02 -2.47226015e-01 +1.21652886e-01 -8.56767669e-02 -4.33531553e-02 +1.51516333e-01 -1.66892290e-01 -1.28019914e-01 +1.93575382e-01 -1.73083782e-01 +2.58737747e-02 -2.04557985e-01 -2.72650570e-01 +1.63490489e-01 -1.37030717e-03 -1.89152032e-01 +8.83244276e-02 -2.42087897e-02 +2.29134634e-02 -2.18279555e-01 -2.09402144e-01 -8.38414058e-02 -2.56033754e-03 -2.33718738e-01 -1.94092300e-02 -1.66260332e-01 -7.19989017e-02 -3.56557295e-02 -1.66699573e-01 +3.15880105e-02 -1.26804620e-01 +1.65569082e-01 -3.99999544e-02 -5.64839207e-02 -4.16596606e-02 +2.08591044e-01 +2.65414864e-01 -1.85031042e-01 -4.27758992e-02 -1.33196712e-01 -2.36252055e-01 -9.85201895e-02 -2.99539566e-02 -2.62606084e-01 +3.18894573e-02 +7.66165778e-02 +1.18737400e-01 -2.47865692e-01 +2.02975407e-01 +1.23472713e-01 -1.06452657e-02 +2.24116862e-01 -1.02908045e-01 +5.71228862e-02 -8.62544477e-02 -1.21727027e-01 +8.55667144e-02 +1.91996172e-01 -1.96266711e-01 +8.63763038e-03 -2.20784098e-01 -1.53204158e-01 +4.57631387e-02 -2.31400415e-01 -6.77430257e-02 -1.84928656e-01 -1.92715928e-01 -4.69584949e-02 -1.89357132e-01 -1.02534601e-02 +1.84906691e-01 -5.52781671e-03 -2.37980977e-01 +6.65637776e-02 -1.81046277e-01 -1.07878409e-01 +8.96617472e-02 -9.71462876e-02 +7.23238811e-02 -1.66802723e-02 -2.26694793e-01 -1.82684436e-01 -5.90586364e-02 -1.65486291e-01 -1.13704823e-01 -1.33375064e-01 +1.89422309e-01 +1.05431147e-01 -3.14456969e-02 -1.99792251e-01 +9.44687352e-02 +1.72479376e-01 -2.30804190e-01 -1.62593871e-01 -1.73638731e-01 -2.60830790e-01 +8.76679569e-02 -1.81133404e-01 -5.24917850e-03 +1.84172273e-01 -6.61478639e-02 -2.19179243e-01 -1.39518261e-01 +1.82916492e-01 +8.77984315e-02 -1.09508149e-01 -1.78370520e-01 -3.27099226e-02 +4.38228734e-02 -7.88761750e-02 -1.87012464e-01 +1.73171476e-01 +2.37809286e-01 -1.28458858e-01 -1.39606863e-01 +2.49852955e-01 +1.88701361e-01 -2.00755343e-01 +1.46228746e-01 +1.22178979e-01 +1.69434696e-01 +3.20817642e-02 +2.52464622e-01 -1.90554753e-01 +2.72844255e-01 +2.01124102e-01 +2.00741649e-01 +2.63258159e-01 -4.42740694e-02 +1.48607448e-01 -1.68174103e-01 +3.73390503e-02 +8.61608610e-02 +2.02448890e-01 -1.78559452e-01 -1.91594392e-01 -2.40830109e-02 -9.23602879e-02 +1.82373926e-01 -6.83956295e-02 +8.43866765e-02 +1.08044937e-01 +7.55044296e-02 +2.83264786e-01 -4.74760719e-02 +2.38769695e-01 +1.25696555e-01 +2.47592013e-03 +1.34316562e-02 +2.12080494e-01 -1.34648189e-01 +2.81248204e-02 +1.43155336e-01 +4.90491763e-02 -7.29825273e-02 +1.21374466e-01 +2.01903567e-01 -2.54316241e-01 -4.11045849e-02 -8.00464526e-02 -1.41443789e-01 -1.81193069e-01 +1.07468404e-01 +1.72810599e-01 -2.43187204e-01 -8.40159357e-02 +1.02172509e-01 -1.01717614e-01 +2.40945909e-02 -1.23942889e-01 -7.97732323e-02 +6.44815490e-02 +1.58757791e-01 -2.00519934e-01 -1.48393705e-01 +8.71085003e-02 -8.58424790e-03 +7.97954053e-02 -2.37453371e-01 +7.66389668e-02 -7.96860904e-02 +5.29801473e-02 -2.69492984e-01 -2.15878025e-01 +1.42195597e-01 -1.84408184e-02 +2.14328602e-01 -2.60879751e-02 -1.80252537e-01 -4.72197309e-02 -3.58467661e-02 +1.21059217e-01 +2.45156109e-01 -6.84691072e-02 -2.00267494e-01 +1.16783716e-01 -9.67892110e-02 -2.46041268e-01 -2.01319262e-01 +2.32791036e-01 -8.33713785e-02 +1.05848223e-01 -1.09614760e-01 -3.72150056e-02 -1.34553656e-01 +2.13341013e-01 +3.99556905e-02 +2.36255109e-01 -1.66679740e-01 +3.64489406e-02 -1.29907653e-01 +4.63699251e-02 +1.58034638e-01 +1.72522575e-01 +1.34484246e-01 -1.35625958e-01 +3.94563563e-02 +1.59644276e-01 -1.16747968e-01 +2.13964075e-01 +1.35436103e-01 +2.05564007e-01 -1.52529806e-01 +1.23083919e-01 +1.29370093e-01 -2.25109339e-01 +3.48271541e-02 +7.10774735e-02 -5.67130223e-02 +2.78607327e-02 -2.38761127e-01 +2.05388248e-01 +7.07290694e-02 -2.12482154e-01 -1.01812035e-02 -1.41974464e-01 -1.63874701e-01 -2.04796329e-01 +2.10899070e-01 +8.63940790e-02 +1.83761552e-01 -1.89874336e-01 +1.12603135e-01 -8.30659270e-03 -2.49646023e-01 +4.38135117e-02 -2.17129841e-01 -2.13202983e-01 -7.47614354e-03 -1.25789493e-01 +9.53951553e-02 +1.27304003e-01 -2.86930680e-01 -1.04596853e-01 +2.93478549e-01 +7.81002194e-02 +2.86799312e-01 -2.63582408e-01 +1.70013130e-01 -1.22587293e-01 -1.06196582e-01 -2.66757086e-02 -1.35155329e-02 -2.35869475e-02 -1.23205511e-02 -1.91259339e-01 -4.71782722e-02 -9.75278839e-02 -1.38612419e-01 -1.12730615e-01 +4.73423414e-02 +2.64162451e-01 -1.73778683e-01 -2.44041160e-01 +1.87683463e-01 +2.11815849e-01 +8.21213797e-02 +2.71848321e-01 +3.01831394e-01 -1.54462442e-01 -6.80494830e-02 +1.77224532e-01 +2.01436296e-01 +2.42562890e-01 +2.69876391e-01 +2.26674780e-01 -1.29110351e-01 -2.16117471e-01 +1.94098487e-01 -1.54492753e-02 -1.43429399e-01 -1.02429591e-01 +1.92142203e-01 +8.23362321e-02 +8.44715983e-02 -2.77817130e-01 +2.01952636e-01 +1.98828697e-01 -2.61112209e-02 +8.59518871e-02 +3.73405889e-02 +8.11201632e-02 +2.78459638e-01 +1.28251866e-01 -2.00631544e-01 -9.19128880e-02 -1.77484691e-01 +1.80934072e-01 -1.99871942e-01 -1.25722036e-01 -1.44578189e-01 -1.42661318e-01 +1.20304279e-01 +2.64515728e-02 -2.98991024e-01 -1.04648240e-01 +1.44791648e-01 +4.74872738e-02 -2.12656572e-01 +4.70500961e-02 +2.06636056e-01 +1.95643008e-01 -2.11765375e-02 -7.42533430e-02 +9.19578671e-02 -4.27822433e-02 +2.24008746e-02 +1.97317287e-01 -1.27118111e-01 -5.31859472e-02 +1.51205689e-01 +6.84720352e-02 -1.63740501e-01 +7.28012621e-02 -1.14652500e-01 -4.16975208e-02 +1.01084210e-01 +1.22019507e-01 +8.52699354e-02 +4.60626818e-02 -8.91256407e-02 -2.31264040e-01 -1.28068194e-01 -2.36819535e-01 -2.12714374e-01 -1.50553018e-01 -2.64866620e-01 +3.99579145e-02 -2.98217654e-01 +6.44819215e-02 +2.03373909e-01 +1.36104628e-01 -1.92106217e-02 +1.85622633e-01 -1.66652083e-01 +1.66225344e-01 -1.44200400e-01 -5.24654845e-03 -5.05151637e-02 -2.84595191e-01 +1.89907283e-01 -1.70328990e-01 +3.55579667e-02 +3.35760005e-02 -7.01440796e-02 -1.16225123e-01 -6.59997016e-02 -2.37439290e-01 +1.04547828e-01 -2.57961184e-01 +7.46977627e-02 -2.74217427e-01 +8.93059894e-02 -1.22140363e-01 +5.23989946e-02 +2.45869532e-01 -3.29882115e-01 -3.53627264e-01 +7.25339353e-02 -2.30686162e-02 -2.69923985e-01 +1.40478402e-01 -2.44202346e-01 -1.32396072e-01 +9.71370637e-02 +2.50040758e-02 +3.99240106e-02 +2.07082853e-01 +1.15281006e-03 +9.18093547e-02 -3.82416975e-03 +9.34420750e-02 -1.49609596e-01 -6.58840686e-02 +1.16443932e-01 -4.24685925e-02 +2.40582526e-01 -3.44053376e-03 -1.54002696e-01 -1.04491390e-01 +1.03902057e-01 -2.18414530e-01 -1.59718245e-01 -1.16998240e-01 -1.25668999e-02 +9.27592665e-02 +7.01569300e-03 +1.75676137e-01 -1.48852184e-01 +4.53625284e-02 +2.19900474e-01 -1.29683226e-01 +6.89284503e-02 +8.33545700e-02 -8.72254372e-02 +2.38158301e-01 -4.22183657e-03 +8.89432877e-02 +3.14495899e-02 +1.54690906e-01 -2.20930502e-01 +2.53783464e-01 +1.34544343e-01 +9.36817005e-02 +3.39031905e-01 +1.25107020e-01 +1.24145791e-01 -8.27828571e-02 +2.92009205e-01 +6.82649612e-02 +5.74958287e-02 -1.67756043e-02 +9.93502066e-02 +1.06572680e-01 +8.39858800e-02 -9.48693082e-02 -2.18753487e-01 +2.31468100e-02 -1.55317485e-01 +2.17583656e-01 +2.15242915e-02 +2.52850056e-01 +1.43649265e-01 -1.32823765e-01 +4.07913029e-02 +1.33616149e-01 -2.49472745e-02 +1.83378741e-01 +1.07608177e-01 +6.58867285e-02 -1.28377765e-01 -1.59408942e-01 +2.40095645e-01 -1.32483914e-01 -9.67320204e-02 +2.18522668e-01 -4.93638366e-02 +1.49139449e-01 +1.10840850e-01 +9.57299620e-02 +1.54984742e-01 -1.04965515e-01 -2.47033879e-01 +1.17673345e-01 -2.65409276e-02 +1.14508115e-01 -7.75799975e-02 -2.52761431e-02 -3.29859219e-02 -1.10429063e-01 +3.99562344e-03 -2.38672525e-01 +1.03129774e-01 +2.82422993e-02 -1.31632492e-01 +8.55446607e-02 -1.61274914e-02 -1.16238408e-01 +9.41785872e-02 -1.97451234e-01 +1.91049024e-01 -1.81391850e-01 -3.89365107e-03 +1.80638924e-01 +1.21736228e-01 -1.10788621e-01 +1.59028649e-01 -1.23519175e-01 +5.09641506e-02 +1.41671315e-01 -7.83136711e-02 +1.17291529e-02 -2.19657198e-02 -5.33551276e-02 +2.69294947e-01 +5.73133007e-02 +2.83747941e-01 -6.52455837e-02 +7.26429000e-02 -1.84978575e-01 -2.14553252e-01 -1.07850321e-01 -7.51434192e-02 -6.10732622e-02 +1.60284773e-01 +1.84614763e-01 -9.03583542e-02 +1.51008755e-01 +9.22398642e-02 -9.46149454e-02 -2.27764115e-01 -1.65860072e-01 +2.61190563e-01 -1.40331939e-01 -1.57286510e-01 +1.25251144e-01 -5.88906668e-02 +1.90262303e-01 +2.97886819e-01 +1.60927743e-01 -2.27329403e-01 +2.14860201e-01 -1.42601073e-01 +2.64174100e-02 +2.86190033e-01 -2.26806570e-02 +1.39847044e-02 +2.08720535e-01 +1.47166416e-01 +1.08079754e-01 +2.23561868e-01 -1.36315063e-01 +1.05033442e-01 -5.88383749e-02 +2.35614270e-01 +2.41697803e-01 -1.32877659e-02 +2.42899060e-02 -1.66102678e-01 -2.04186901e-01 -4.82394360e-03 -1.59010217e-01 +2.17990071e-01 -2.36139834e-01 -8.27383250e-02 +1.12542257e-01 -1.44208819e-01 +2.83043921e-01 +9.28708985e-02 -1.94891274e-01 -2.19312638e-01 +2.46235654e-01 -5.02156280e-02 +3.82232596e-03 -1.55475922e-02 +1.02551304e-01 -9.53938067e-02 +2.22124439e-02 +1.03113882e-01 +5.03573082e-02 -6.67021498e-02 +6.18698411e-02 -2.24567950e-02 -7.72268623e-02 +2.08421737e-01 +1.14031628e-01 -5.40206283e-02 +1.67620152e-01 -7.24356622e-02 -1.77859720e-02 -1.70374855e-01 -1.38907433e-01 +1.64721776e-02 +2.13388443e-01 +1.82408154e-01 -1.32837266e-01 -1.27336726e-01 -1.48291156e-01 +2.73993552e-01 -1.44404620e-01 +2.94773698e-01 -4.28431332e-02 +1.18737474e-01 +8.88062268e-02 -1.91664919e-01 +1.18644871e-01 -1.24496229e-01 +3.97645012e-02 -1.47137061e-01 -8.95117149e-02 -3.29397693e-02 -7.78175369e-02 +3.00977409e-01 +1.15677714e-01 +5.95047418e-03 +7.02358931e-02 -1.43489195e-02 +1.10919178e-01 +2.32833922e-01 +1.04643308e-01 -7.00241923e-02 +1.17558792e-01 -1.51509002e-01 +7.57220387e-02 -5.73456474e-02 -1.41757810e-02 -2.28323594e-01 +1.34067580e-01 +3.61287929e-02 -1.11655913e-01 +7.79841989e-02 -2.53562033e-01 -2.27054477e-01 -2.09029287e-01 -2.71593064e-01 -2.70252675e-01 -8.31821188e-02 +2.15376332e-01 -3.42468351e-01 +1.11976281e-01 +1.19845927e-01 -2.93268442e-01 -2.48683199e-01 +7.98611790e-02 -2.24348620e-01 -8.42593536e-02 -1.39896214e-01 +3.26328017e-02 -9.65707749e-03 -2.14227915e-01 -3.56593013e-01 +1.03386836e-02 -1.40847534e-01 -8.09908062e-02 -6.86807707e-02 -3.44686329e-01 +3.88620570e-02 -2.53197737e-02 +2.20289245e-01 +6.80702552e-02 -1.13227382e-01 +1.06915064e-01 +9.76362526e-02 -5.73445633e-02 -4.28516269e-02 -2.22595513e-01 -1.21959940e-01 -5.64367883e-03 -3.77127007e-02 +4.12148647e-02 +1.65919811e-02 -7.11411983e-02 -2.89846420e-01 -9.57804397e-02 +2.54676402e-01 -2.15491831e-01 -7.66950985e-03 -7.01335724e-03 -5.15429564e-02 -1.95227817e-01 +2.31892258e-01 -5.36908284e-02 -2.06282184e-01 -1.82115421e-01 +2.17137456e-01 +3.83556783e-02 -2.74710413e-02 +7.07828254e-03 -4.76720668e-02 -1.18707620e-01 +2.41616979e-01 -9.69849229e-02 -3.64355184e-02 -7.32498914e-02 +5.97976074e-02 -1.73513010e-01 +3.01510263e-02 +9.64815691e-02 +4.83738296e-02 -1.86488226e-01 -1.93827510e-01 -1.03618674e-01 +1.17053278e-01 -2.09109992e-01 -9.90041047e-02 +9.06229019e-02 +5.76976361e-03 -1.53565496e-01 +5.65630607e-02 -7.61951208e-02 +9.00289193e-02 -2.27812871e-01 -8.88283402e-02 +6.96447119e-02 +1.05167985e-01 -1.39825970e-01 -1.59144253e-01 -1.97090924e-01 +2.23907173e-01 -1.25623047e-01 -9.96184871e-02 +2.32505172e-01 +2.57981330e-01 -6.28781542e-02 -6.05649240e-02 +6.47431314e-02 -1.21281281e-01 -2.45031685e-01 +1.34997085e-01 -7.40828812e-02 -9.16226115e-03 +1.89584985e-01 +1.39831051e-01 +2.09979907e-01 +7.98883811e-02 -1.80826321e-01 +2.14298055e-01 -1.55742660e-01 -1.88343110e-03 +1.26317054e-01 +1.57623649e-01 +9.72955897e-02 -3.93702500e-02 -1.57195657e-01 +1.14466824e-01 +1.39597297e-01 +1.64533585e-01 -2.39487499e-01 +1.79182053e-01 -7.38307461e-02 +2.00268477e-01 -8.91047120e-02 +2.35087082e-01 -1.64542452e-01 -4.86692376e-02 +4.89976630e-02 +2.24645272e-01 +9.79245901e-02 -1.67436555e-01 -2.36522183e-01 +5.87092564e-02 -1.36568725e-01 -4.84460555e-02 +1.11885466e-01 -1.06790699e-02 -1.64558887e-01 -8.07043388e-02 +2.14048680e-02 +2.35810861e-01 +4.75665070e-02 -5.83004393e-02 -2.12949052e-01 -1.45972386e-01 -1.46020055e-01 +1.19028008e-02 -1.58453599e-01 -7.89443925e-02 -8.56269225e-02 -2.18293637e-01 +1.63599268e-01 -1.94399655e-01 +5.85858561e-02 +4.44565676e-02 -3.36933509e-02 -2.94394076e-01 +8.62948075e-02 +2.00513586e-01 -8.75884071e-02 -2.95756548e-03 +2.16360599e-01 +2.17152610e-01 +1.65643498e-01 -1.59573704e-01 +1.58989668e-01 +2.12936364e-02 -1.67315286e-02 -2.11401314e-01 +1.56975240e-01 -1.88165680e-02 +1.76956221e-01 -2.38770284e-02 +1.10827520e-01 -1.80787280e-01 +1.78776547e-01 +1.88106045e-01 +5.91262579e-02 +8.56217667e-02 -2.53771693e-01 +2.21672386e-01 -6.34562299e-02 -2.30835974e-01 -3.30343400e-03 +1.54413760e-01 +7.05806315e-02 -1.14962302e-01 +2.15849936e-01 -1.84383228e-01 -7.95017257e-02 +1.14243135e-01 -1.34789243e-01 -2.50632495e-01 +1.38128027e-01 -1.38723284e-01 -1.01792336e-01 +2.45774612e-02 +5.42473570e-02 -6.31223768e-02 +3.86666111e-03 -1.71143860e-01 +2.66347304e-02 +1.64939985e-01 -9.71861836e-03 -1.29336044e-01 -4.95304950e-02 -1.97378650e-01 +3.51940393e-02 +1.22190133e-01 -3.84207629e-02 -8.38203952e-02 -2.50007927e-01 +1.49470478e-01 -4.85044681e-02 -2.41165489e-01 +1.47721052e-01 +1.61306307e-01 +2.21191704e-01 +4.28588577e-02 +5.40249422e-02 +2.35268101e-02 -7.39852712e-02 +1.56428605e-01 -2.13364124e-01 -3.26162457e-01 +1.97066963e-01 +1.53865919e-01 -3.01697433e-01 +2.24217296e-01 -2.66854078e-01 -2.07682595e-01 +2.56564002e-02 -2.40871385e-01 -9.24293026e-02 +1.01985201e-01 +6.18479075e-03 -1.12976149e-01 +2.51905080e-02 -4.69811931e-02 +1.70672789e-01 -1.39627889e-01 -1.96955562e-01 -6.02462552e-02 -2.03507990e-01 -5.55511601e-02 +2.45835587e-01 +1.51818711e-02 +2.75298089e-01 +1.41620964e-01 +2.15570778e-01 -2.19998253e-03 +7.06200954e-03 +1.20323360e-01 +1.54174743e-02 -8.09242502e-02 -1.04166776e-01 +2.47111887e-01 +2.37089202e-01 -1.10293828e-01 +2.14484744e-02 +2.37527147e-01 +2.43107498e-01 +1.14426635e-01 -9.57980230e-02 -1.53024033e-01 -8.19356963e-02 +3.01471483e-02 +9.62321088e-02 +2.20304310e-01 +1.05877340e-01 -8.60144496e-02 +8.42235535e-02 +2.00056881e-01 +3.80909473e-01 -6.30331337e-02 -4.01835628e-02 +1.62535399e-01 +1.07442856e-01 -5.47595434e-02 +2.42214054e-01 -1.10479020e-01 +1.17171429e-01 -1.12340100e-01 +1.91639870e-01 -1.15792610e-01 -1.99206769e-01 -1.78895995e-01 +1.03317238e-01 +1.76723465e-01 +3.29453349e-01 +5.96473366e-02 +2.24921465e-01 +1.98518321e-01 +1.41354337e-01 +2.01105356e-01 -2.27188822e-02 -8.35485663e-03 +1.51749730e-01 -5.71569651e-02 -1.40558988e-01 +4.82533127e-02 +1.68382376e-01 -1.73385978e-01 -1.05216630e-01 -1.86013896e-02 +4.76824632e-03 -1.37385756e-01 +1.31914377e-01 -7.94119686e-02 -8.35025162e-02 -1.48907229e-02 -1.44557074e-01 -1.98987238e-02 -1.15708612e-01 -1.45988137e-01 +1.62679367e-02 +2.64208823e-01 +1.35698363e-01 -1.66445643e-01 -1.05702229e-01 -2.14276053e-02 -4.81087491e-02 +8.41376036e-02 +7.95536786e-02 -3.68223079e-02 +2.16235384e-01 +6.16452731e-02 +1.01071201e-01 +7.27773318e-03 +1.30153209e-01 -4.81616929e-02 +2.31721073e-01 -1.92662850e-02 +2.20141917e-01 -4.93822433e-02 -2.04395249e-01 -9.76495072e-03 -1.74519092e-01 +6.39919490e-02 -2.30347570e-02 +2.06251085e-01 +1.48285180e-01 -1.92813531e-01 +6.37455881e-02 +1.93430949e-02 -6.57169372e-02 +2.75099240e-02 -7.61294216e-02 -2.62870081e-02 -1.36583790e-01 +1.51284888e-01 -2.68195212e-01 +9.38079506e-02 +1.65865421e-01 -1.55668035e-01 -4.55931872e-02 +1.10068500e-01 -6.06941208e-02 +1.33457035e-01 +2.50387430e-01 -2.09336683e-01 -1.70376152e-02 +1.42949566e-01 -1.97606131e-01 +9.34630111e-02 +9.15946364e-02 -2.18200535e-01 -1.08421728e-01 -1.73831359e-01 +6.31227940e-02 +7.76849613e-02 -1.99685484e-01 +1.35221437e-01 -1.66014239e-01 -6.98637441e-02 +4.03144863e-03 +1.31204128e-01 -6.29344210e-02 -1.07745625e-01 +1.72612593e-01 -6.57661557e-02 +1.00577958e-01 +9.60422754e-02 +3.37054729e-02 -2.25159392e-01 +2.11741015e-01 -1.59219969e-02 +1.92610368e-01 -2.62431744e-02 -1.57160327e-01 +1.57502979e-01 +1.68043509e-01 +9.95308086e-02 -1.73096314e-01 -6.39179572e-02 -1.86698049e-01 -8.28014985e-02 +2.94239372e-01 +1.62323982e-01 -7.57573843e-02 -2.96795722e-02 +3.88590991e-02 +2.02826276e-01 +1.45197913e-01 +1.20584033e-01 -3.46247628e-02 -8.45139176e-02 +2.71897376e-01 +9.90887880e-02 -1.64002880e-01 +2.76635885e-01 +2.06962556e-01 +1.74964573e-02 +4.08807620e-02 +1.49985403e-01 -7.30638951e-02 +1.77827328e-01 +5.27561679e-02 +2.46716768e-01 +6.43498003e-02 -1.98114395e-01 +1.75686181e-01 +1.76537320e-01 -1.18225403e-01 -1.43214837e-01 -1.64411232e-01 -5.67087866e-02 -1.95003137e-01 +4.69354093e-02 -1.06226489e-01 -2.07437664e-01 -2.13885188e-01 -6.96102753e-02 +1.40922824e-02 -1.28701493e-01 -6.20250106e-02 -1.17533065e-01 +2.32959837e-01 -2.21440449e-01 +1.89285427e-01 +5.92133999e-02 +1.24385633e-01 -1.03887998e-01 +1.41784504e-01 +3.03301096e-01 +2.25024030e-01 -1.43983774e-03 +2.93198258e-01 -5.72762638e-02 +2.19952032e-01 +1.76437303e-01 +1.10023454e-01 -8.40300173e-02 -5.16054183e-02 +1.54750630e-01 +2.34691426e-01 +1.79534927e-02 -9.27680433e-02 -7.82068372e-02 -1.32849831e-02 -1.45431496e-02 +3.13010037e-01 +1.48115411e-01 +2.64855623e-01 -1.73724487e-01 +2.62950122e-01 -1.49016008e-01 -2.10040033e-01 +1.49313152e-01 -1.78045660e-01 -2.01752990e-01 -2.10713670e-01 -1.36188105e-01 +2.02105850e-01 +5.06702289e-02 -8.97007585e-02 +1.96168512e-01 -3.11430357e-02 -9.58721787e-02 +1.15695581e-01 -2.16383442e-01 +1.74207598e-01 -1.33987308e-01 +1.16261896e-02 +2.28947312e-01 -9.99014676e-02 +2.23589003e-01 -1.13507144e-01 -1.20372683e-01 -9.24888626e-02 +1.85479775e-01 -6.07814603e-02 +2.59404063e-01 -1.19135521e-01 +1.74400344e-01 +2.80053057e-02 -1.01037666e-01 -2.57416815e-01 -1.60123304e-01 +1.95058212e-01 +1.26446590e-01 -1.44902423e-01 +1.76451113e-02 -2.09922135e-01 -1.44299135e-01 -2.44017970e-02 -3.73863131e-01 -2.35187516e-01 -1.50783584e-01 +3.32133889e-01 +3.43478732e-02 +1.94046736e-01 -2.30901167e-01 -2.89408416e-01 -1.71521619e-01 -1.33534810e-02 -3.59166972e-02 +1.76384002e-01 -2.22074285e-01 -6.30827202e-03 -2.92666674e-01 +1.78415343e-01 -2.52592593e-01 +5.56898043e-02 -1.87427312e-01 -1.08822607e-01 -5.41983126e-03 -1.81930363e-01 +4.79234084e-02 +1.13899477e-01 -2.79906448e-02 +1.31940603e-01 -1.11587107e-01 -1.71799272e-01 -2.56590694e-01 -1.71126753e-01 -6.63969144e-02 +3.21823895e-01 -1.62974790e-01 +2.48925965e-02 -6.05422864e-03 +2.14480534e-01 -1.27003357e-01 -3.07087600e-01 +1.02431081e-01 -3.28526981e-02 -3.00743967e-01 -2.10267261e-01 -1.88672706e-01 +2.70279914e-01 -1.56162113e-01 -5.20278104e-02 +1.71571329e-01 -2.17278734e-01 -8.22408795e-02 +1.64792314e-01 -5.31603061e-02 -1.56848005e-03 -2.90357247e-02 -1.45507962e-01 -4.36638594e-02 +8.19674954e-02 +1.94016397e-02 -1.47491276e-01 -1.21412866e-01 -5.44602461e-02 -2.30746314e-01 -2.46461555e-01 +2.67217085e-02 -9.47391987e-02 +8.35241750e-02 +1.61815621e-02 -1.82970524e-01 -2.74663925e-01 -2.74588764e-01 -1.72282942e-02 +1.93626523e-01 +2.40697917e-02 +1.73417702e-01 -1.20374762e-01 -1.74053162e-01 +3.95678990e-02 +1.85703844e-01 -2.03675821e-01 +8.79801288e-02 +1.11927040e-01 -2.17160568e-01 +5.07471850e-03 -1.32591084e-01 -2.49867752e-01 -2.52397001e-01 -2.06969395e-01 -9.33218002e-02 +5.32567315e-02 -9.48332846e-02 +1.93704113e-01 -1.28563091e-01 +8.07378590e-02 -3.49275558e-03 +2.22364008e-01 +2.29962934e-02 -7.47714564e-02 +2.38202825e-01 +6.88817799e-02 +4.11255807e-02 -3.97520997e-02 -2.70096838e-01 +4.45842184e-02 -1.93014339e-01 -1.20048843e-01 -3.31637561e-01 +9.70338732e-02 +1.31939858e-01 -1.69265270e-01 -2.47745290e-01 -1.62113488e-01 -2.32276604e-01 +1.47343606e-01 +3.78149077e-02 -1.26964718e-01 -2.31117934e-01 -1.68032169e-01 -3.01948547e-01 -2.68047690e-01 -2.70877242e-01 -1.23891318e-02 -2.12880000e-01 -8.03944767e-02 -8.17365944e-02 +6.95658326e-02 +1.36547923e-01 +2.13967144e-01 +1.09709196e-01 -6.07980192e-02 +5.48319542e-04 -1.36874869e-01 -1.03359200e-01 -3.82655002e-02 +4.40768301e-02 -2.10155293e-01 +7.19813183e-02 +6.88021705e-02 -2.00070798e-01 -2.40593463e-01 -3.39213498e-02 -1.96826980e-01 +7.74435466e-03 +1.42708886e-02 +1.99580118e-02 -1.40948102e-01 +2.19969377e-02 -8.64911303e-02 +7.73206577e-02 -3.27365659e-02 -2.95899939e-02 +6.52252436e-02 -2.51333535e-01 -1.86185300e-01 +2.47351434e-02 +1.82054907e-01 +1.71475232e-01 -3.21109623e-01 +2.35439658e-01 -1.81130528e-01 -2.32863519e-02 +1.64728135e-01 -3.38198654e-02 +3.44780050e-02 +2.00396657e-01 +5.90550490e-02 +2.25922883e-01 -2.28277773e-01 -1.88864827e-01 -1.56197712e-01 -4.57704328e-02 +2.14178815e-01 +1.16421819e-01 -5.72630279e-02 -1.71885282e-01 +5.88993616e-02 -2.55683392e-01 -2.55154252e-01 -1.95030998e-02 +1.96546122e-01 -1.33721650e-01 -1.87647775e-01 -6.04284368e-02 +4.32786234e-02 -1.10170536e-01 +3.04060453e-03 -2.78082103e-01 -2.05454469e-01 +2.14227140e-01 +5.98358326e-02 -2.07698181e-01 -3.44756022e-02 +2.95195729e-01 +7.13943169e-02 +1.09704994e-01 +2.55261600e-01 -1.61677137e-01 +3.34611088e-02 -2.85149604e-01 +1.59686387e-01 +2.60395169e-01 +2.22321495e-01 -1.97233692e-01 +1.34667471e-01 +1.07577994e-01 +1.91950336e-01 -3.16965617e-02 +1.23487465e-01 +2.57710129e-01 +2.38434657e-01 +2.37677261e-01 -1.82398155e-01 +4.24878299e-02 -2.75198162e-01 +1.88076496e-01 -4.50431043e-03 -4.38217968e-02 -1.99413866e-01 +1.75292864e-02 -1.59310609e-01 +1.30833358e-01 +7.78246596e-02 -8.54196697e-02 +1.64654717e-01 -2.60455370e-01 -4.31215502e-02 +1.18518412e-01 +2.43705809e-01 +2.26318255e-01 -1.19593896e-01 +9.56423283e-02 -9.65054631e-02 +3.22722420e-02 +1.95169196e-01 -2.62229115e-01 +1.86216757e-02 +1.21731825e-01 -5.24125295e-04 +1.27657726e-01 +6.30212277e-02 +1.18464865e-01 
#Parameter# /_5 {50} 801 ZERO_GRAD
-4.57435511e-02 +1.10036552e-01 -5.18938228e-02 +6.65831566e-02 -6.08280264e-02 +1.15969993e-01 -3.51493657e-02 -6.43291697e-02 +1.07348390e-01 -1.65003434e-01 +1.09705580e-02 -1.68952018e-01 +1.78028360e-01 +5.34244403e-02 -1.90056577e-01 -1.26763433e-02 +5.72619364e-02 -1.00801595e-01 -1.45166531e-01 +9.97166261e-02 -1.01637721e-01 -1.24682643e-01 -5.55628836e-02 +7.12800547e-02 +1.01293914e-01 -9.69857872e-02 -5.50543591e-02 -2.76369303e-01 -8.06389749e-02 -1.23504400e-01 -2.59529054e-01 -1.31603077e-01 +1.10855825e-01 +3.73264365e-02 +1.29714921e-01 -1.29305899e-01 +1.16932154e-01 -3.75717576e-03 -1.67877346e-01 -2.73447305e-01 -1.82506181e-02 -2.55365558e-02 -2.26144046e-01 +4.58161980e-02 -1.78219199e-01 +8.70423168e-02 +1.84567317e-01 +1.73450902e-01 -3.87561992e-02 -5.60777076e-02 
#Parameter# /_6 {50,3} 2401 ZERO_GRAD
+1.67209774e-01 -1.02840975e-01 -2.16526330e-01 -2.39555418e-01 -2.57755071e-01 -1.32024288e-02 +1.07855499e-02 -1.35953754e-01 -1.05351210e-02 -1.24955997e-01 -1.02149621e-01 +1.27151221e-01 +2.43431330e-02 -8.38810205e-02 +3.20176154e-01 +5.03156185e-02 -1.29767910e-01 +2.57679075e-01 -3.19196671e-01 -2.40527809e-01 -2.16604739e-01 -3.04396629e-01 +3.29407364e-01 +3.52510810e-02 +5.96369803e-02 -3.32756549e-01 +6.38215244e-02 -2.31761128e-01 -2.47505993e-01 -2.01327369e-01 -2.87487358e-01 -2.58808285e-01 -1.19839177e-01 +7.39917159e-03 +7.93517828e-02 -2.17942968e-01 -1.12881750e-01 -1.26086220e-01 -2.26117074e-02 +1.16859704e-01 -4.06396091e-02 -1.71628296e-02 -3.36398840e-01 +9.19999182e-02 -2.50625193e-01 +3.33068043e-01 +1.16498917e-01 +1.76143795e-01 -2.21879184e-01 -6.07666671e-02 -3.19203496e-01 -6.54712021e-02 -3.28044564e-01 -2.99425423e-01 -1.89784199e-01 -1.36301413e-01 +1.67064637e-01 +5.32726943e-02 -2.88455307e-01 -3.08539629e-01 +2.03268498e-01 +6.87675476e-02 +2.69943267e-01 -6.80381954e-02 +7.66520798e-02 -9.28588212e-02 -3.77767086e-02 -1.12381205e-01 -1.47989482e-01 -2.49800473e-01 +2.72148937e-01 -2.57075459e-01 -6.02656901e-02 -1.21138260e-01 -1.55303255e-01 +2.16395289e-01 +3.74863744e-02 +3.99932265e-03 -1.80313483e-01 +1.52695805e-01 -7.11674094e-02 -5.31938076e-02 -2.10753247e-01 +7.25471079e-02 -2.69592822e-01 -2.77172476e-01 -1.40926629e-01 -2.69494057e-01 +2.56602079e-01 +3.10813218e-01 +2.06600875e-01 +9.02023017e-02 -2.24913239e-01 -1.74959376e-01 +2.09867746e-01 +3.01489681e-01 +1.64056093e-01 +1.13429099e-01 +1.81706041e-01 -1.14494264e-02 +2.47034341e-01 +2.17511743e-01 +2.08699971e-01 +1.08035833e-01 -2.50309676e-01 -2.60674477e-01 +1.23222649e-01 -3.34858626e-01 +1.78311318e-01 -2.05676228e-01 +1.54038042e-01 -1.17111966e-01 +1.41351849e-01 +3.32116455e-01 +2.63319224e-01 +9.71162915e-02 +3.20376426e-01 -2.98585773e-01 -3.25133204e-01 +1.09864146e-01 +2.80069798e-01 +3.32062691e-01 -1.65518597e-01 -1.63279325e-01 -5.07123768e-02 +2.55515128e-01 +2.62810439e-01 -2.40739018e-01 +1.16509467e-01 +2.52943188e-01 +2.05767363e-01 +9.06488001e-02 +2.37048894e-01 -1.55746534e-01 -1.12785429e-01 +2.61488050e-01 +2.02242285e-01 +1.04494691e-02 -1.55173525e-01 +2.75019735e-01 +2.01491207e-01 +9.28800702e-02 +2.02325135e-01 -2.41242051e-01 -2.14156300e-01 -1.41682625e-02 +2.03525037e-01 +2.54313916e-01 +2.44188756e-01 -2.80817688e-01 
#Parameter# /_7 {50,50} 40001 ZERO_GRAD
-3.43554616e-02 +1.10460773e-01 -5.63532412e-02 -1.41609102e-01 -1.29999906e-01 -9.67082381e-03 -2.21842140e-01 -1.02114037e-01 +8.36720914e-02 -4.71723825e-02 +4.01711911e-02 +8.49593431e-02 -7.89303482e-02 +5.89500219e-02 +6.61076605e-03 +2.71403939e-02 +1.26217306e-03 +2.07856819e-01 +1.19837686e-01 +9.95768756e-02 -1.64616078e-01 -2.44583905e-01 +3.56433541e-02 +7.83160776e-02 -1.98232204e-01 +1.41646728e-01 +1.49698868e-01 +6.38797432e-02 -1.54065639e-02 +2.01220915e-01 -8.50322098e-02 -7.28372931e-02 -3.73151898e-02 -2.12931663e-01 +9.81711894e-02 -1.91477939e-01 +2.12405190e-01 +1.52644381e-01 -2.15497568e-01 +8.89214426e-02 -1.14853263e-01 -1.14084750e-01 +9.76068527e-02 +1.60616443e-01 -4.71969247e-02 +9.63166803e-02 +5.61197102e-03 +1.62143782e-01 +1.66559055e-01 -3.89468819e-02 -5.19612432e-03 -1.35261700e-01 +8.48452002e-02 -4.60920334e-02 +8.12224001e-02 -1.74364313e-01 -1.89400971e-01 -2.17325374e-01 +1.89925805e-01 +2.27749094e-01 +2.84670293e-03 +7.42513388e-02 -1.26449406e-01 -3.06422114e-02 +1.95557252e-01 +2.10805342e-01 +4.56468612e-02 -2.11128026e-01 +1.29072055e-01 +6.89912885e-02 -1.06043383e-01 +9.75575894e-02 -2.25665331e-01 -1.08187795e-02 +6.83731288e-02 +6.86919838e-02 -6.50836378e-02 -2.11208105e-01 +2.27460757e-01 +2.03351423e-01 +1.84748873e-01 +2.40403220e-01 +1.44692734e-01 +2.41058275e-01 +2.76906341e-02 -2.08484352e-01 -1.11631602e-01 +2.20650122e-01 -7.71245062e-02 -8.86529237e-02 +1.77636579e-01 +6.28375560e-02 +2.21516505e-01 -1.19212568e-01 +9.54407603e-02 -1.17518008e-01 -4.11965996e-02 +5.72209060e-03 +7.32541531e-02 -5.36587536e-02 +1.97952047e-01 +1.85672656e-01 +2.37758711e-01 -1.37635291e-01 -1.12962544e-01 -8.00273120e-02 -1.92908123e-01 +1.25887051e-01 +1.93563059e-01 +1.37978718e-01 +1.60725012e-01 +1.38486937e-01 +1.84416458e-01 +1.77033260e-01 -1.33646175e-01 -1.18001238e-01 +1.96800902e-01 -5.63507527e-02 -1.80426225e-01 +1.94414213e-01 +1.31833181e-01 -1.75735146e-01 +3.94743830e-02 +2.70061642e-02 -2.74404138e-02 +1.64747790e-01 +5.12592047e-02 -1.66541040e-01 +1.48781642e-01 -4.90171164e-02 -1.55715317e-01 -7.77803808e-02 +1.48643687e-01 +2.27006823e-02 -1.69135332e-01 -1.85222343e-01 -1.55972719e-01 -1.61184877e-01 +2.21465781e-01 -6.25406653e-02 -9.64640975e-02 -2.27194861e-01 -2.20640585e-01 +1.33286551e-01 -7.45836645e-02 +1.13889024e-01 -3.24284732e-02 +1.44147560e-01 +5.69527000e-02 -9.76210833e-02 +6.04040772e-02 +1.62236542e-02 +2.01485589e-01 -1.10440984e-01 -1.96933776e-01 +2.33197361e-02 -8.13879520e-02 -2.15236843e-02 +1.17692068e-01 +3.33042443e-03 +1.38999328e-01 +5.38858324e-02 +2.51607150e-02 -1.70340493e-01 -5.84505647e-02 +2.25062817e-02 -1.66445971e-01 -6.05242848e-02 -1.17690846e-01 -1.91574782e-01 -4.22347933e-02 +1.35610268e-01 -8.28115046e-02 +2.49962956e-02 +9.03871804e-02 +1.52557477e-01 -1.70098722e-01 +1.89200029e-01 -1.42695695e-01 -1.38249844e-01 +3.22372168e-02 -6.73826039e-03 -1.33365035e-01 +1.97678700e-01 -4.79205400e-02 +1.84014842e-01 +1.53489426e-01 +2.12830454e-02 +2.20039710e-01 +1.22465178e-01 -2.21828774e-01 +1.37462512e-01 +5.46050817e-02 +7.04040974e-02 -1.72706842e-01 +3.61459702e-02 +6.41731471e-02 -3.87544930e-02 -2.43634284e-02 +1.75369158e-01 +6.55518919e-02 +1.75837442e-01 +1.55484810e-01 +5.74096888e-02 +1.77628443e-01 -1.76176995e-01 -1.42919719e-01 -6.46632761e-02 +7.39497095e-02 +9.90425795e-02 -7.50102550e-02 -2.08999634e-01 +1.90677270e-01 +1.23848841e-01 +2.84233540e-02 -3.94740999e-02 +2.35766321e-02 -2.66453922e-02 -2.07286686e-01 +2.82311589e-02 +1.03537455e-01 +1.09192386e-01 +6.70894533e-02 -8.37047100e-02 +1.14244834e-01 -2.43435338e-01 +7.88316280e-02 -1.93126291e-01 +1.85151652e-01 -5.13330698e-02 +1.35450855e-01 -4.59088385e-03 -2.15211585e-01 +1.97194085e-01 +1.87807128e-01 -2.12888151e-01 +2.29494974e-01 +1.71259597e-01 -1.58032477e-01 +1.22736946e-01 -2.04782829e-01 -1.30449072e-01 +6.22735769e-02 +9.90120322e-02 +1.60069540e-01 -2.09226862e-01 +6.19585365e-02 +2.16646239e-01 -8.90190005e-02 +1.57529369e-01 +5.51743656e-02 +1.77988365e-01 -2.02401057e-01 +2.04350099e-01 +2.15545371e-01 +9.74200517e-02 -3.52549702e-02 -9.42747742e-02 +5.31436354e-02 +1.55365333e-01 -1.24856398e-01 -1.08746350e-01 +2.12787047e-01 -2.31656030e-01 +1.96570858e-01 +6.95756227e-02 +1.51805922e-01 +1.21763781e-01 -2.14033872e-01 -4.31615114e-03 +1.90587714e-01 -1.65185794e-01 -5.71556240e-02 +1.58361211e-01 +1.44752905e-01 -5.01264483e-02 +2.43968472e-01 -9.55303758e-02 +9.64063257e-02 +2.09630683e-01 +1.73082247e-01 +4.70209271e-02 +3.62811238e-02 +1.85706422e-01 -1.60065040e-01 +1.18781731e-01 +4.86442000e-02 -1.18890613e-01 +8.18996131e-03 +1.32635906e-01 -2.20590815e-01 -1.45694911e-01 -2.86290050e-02 +1.08632877e-01 -9.36329365e-04 +2.35687777e-01 +7.74976462e-02 +2.38176689e-01 +2.13234410e-01 +2.29644626e-02 -2.25533769e-01 -2.42435947e-01 -2.92065144e-02 -2.04933330e-01 +1.87333092e-01 +2.16740415e-01 -1.91072986e-01 -9.01257545e-02 +1.12378970e-01 -7.92116225e-02 -9.91114676e-02 -1.07759818e-01 +2.24696144e-01 -4.61722612e-02 -1.96075812e-01 -1.36417687e-01 +9.38026756e-02 +1.28115967e-01 +6.23545498e-02 +2.32729688e-01 +1.07786879e-01 -2.24926353e-01 +2.56573409e-02 +5.26720136e-02 +8.22938532e-02 -7.93040842e-02 +1.09277412e-01 -2.15212405e-02 -1.19166568e-01 -1.78765386e-01 -1.50859147e-01 +1.95483908e-01 -7.03657120e-02 -6.56544417e-02 +1.29150823e-01 +1.07758924e-01 +7.33645409e-02 +4.33138460e-02 +1.13999978e-01 -2.08561495e-01 -1.72567070e-01 -1.60228491e-01 +1.80710405e-02 +1.62748829e-01 +1.35642573e-01 +1.66285411e-01 -1.37123764e-01 -2.13290140e-01 -1.99161738e-01 +2.24386796e-01 +2.78325528e-02 -1.84553698e-01 -2.02511102e-02 -1.56035215e-01 -2.11191177e-01 -5.77348322e-02 +1.82250604e-01 -5.72720617e-02 -1.67757764e-01 -2.08238885e-01 +1.85756236e-02 -2.51931548e-02 +2.39991501e-01 -1.95162445e-01 -6.72804415e-02 -7.61661381e-02 -1.30360007e-01 -2.55389512e-03 -7.27507621e-02 -2.23860577e-01 +1.78696588e-01 -2.05349892e-01 +7.29794055e-02 +1.29060909e-01 +1.21135190e-01 +1.46930709e-01 -7.88389444e-02 +2.20554098e-01 -7.64670223e-02 +1.92219183e-01 -2.19858244e-01 -1.95161998e-01 +3.64931971e-02 +1.29580751e-01 +7.56204575e-02 +1.76136896e-01 +2.02488199e-01 -1.48949116e-01 +1.27128407e-01 -1.94330037e-01 -9.53677744e-02 +7.40118325e-03 +1.27238497e-01 +1.88087508e-01 -1.11787498e-01 +2.17795387e-01 -4.89126295e-02 -7.99985528e-02 +1.79729298e-01 +2.12549135e-01 -1.30283117e-01 +8.98133069e-02 +1.15090296e-01 -6.48635477e-02 +9.04239565e-02 +6.83084279e-02 +7.06209987e-02 +6.81407005e-02 -2.80822366e-02 -2.30281055e-02 +1.54057518e-01 -9.82122123e-02 +5.69079965e-02 +8.59408826e-02 -6.75338209e-02 -1.67012870e-01 +3.76565754e-03 -2.34079331e-01 +1.54506281e-01 +2.43529156e-01 -1.06161833e-01 -7.83899724e-02 -9.99933332e-02 +7.20563680e-02 -9.10259783e-02 -2.27129996e-01 +1.33998245e-02 -2.05837026e-01 +5.08524030e-02 -2.33783126e-02 +1.82639763e-01 +1.71841010e-01 -9.31103826e-02 -1.43896937e-02 -4.46280092e-02 +1.21312246e-01 -1.84524983e-01 +1.22983709e-01 +1.08503595e-01 +7.72527307e-02 -4.48106825e-02 -1.04826599e-01 -1.01634011e-01 -1.12887591e-01 -2.27178738e-01 -2.06703320e-01 +2.15236977e-01 +2.32641399e-03 -1.79823488e-02 +1.65546983e-02 -4.76274341e-02 +4.46617454e-02 +6.63881749e-02 +1.33397058e-01 -2.19135091e-01 +1.45055249e-01 -5.98672479e-02 -1.74138963e-01 -4.15858328e-02 +6.20739162e-03 -1.53076947e-01 +3.37052196e-02 +1.98540613e-01 -9.35918689e-02 +1.61770329e-01 -1.86050922e-01 +3.79870832e-03 -3.63592803e-02 -1.46121725e-01 +1.21478751e-01 -1.12142235e-01 +5.60374707e-02 +4.15971130e-02 -1.46501392e-01 +1.86580315e-01 +1.47686079e-01 +6.08125776e-02 +1.49410591e-01 -1.24991283e-01 +4.69726771e-02 -1.59635037e-01 -1.21376924e-01 +2.33376518e-01 -2.22687513e-01 +1.51305333e-01 +2.06476495e-01 -2.27103189e-01 -1.36726588e-01 +1.04270145e-01 +1.37543395e-01 +8.60200971e-02 +7.33061135e-03 -1.77317664e-01 +8.87345225e-02 -1.89854324e-01 +1.92048684e-01 +1.47489175e-01 -1.73164308e-01 +1.14122227e-01 -1.09470487e-01 +3.67543846e-02 +7.27372319e-02 -1.28913999e-01 +1.26314312e-02 +6.45630211e-02 -2.11360738e-01 +8.74012858e-02 -5.61480522e-02 -2.41335258e-01 +1.37959763e-01 -2.50177085e-02 +1.84539109e-02 +5.96226305e-02 -1.30956620e-01 +3.60967219e-03 -1.38517380e-01 -2.21497431e-01 -2.20916569e-01 -5.92128038e-02 +1.37938544e-01 +1.48252890e-01 +1.26920506e-01 -8.22292268e-02 -7.82799125e-02 +1.68593973e-02 -1.36063635e-01 +2.18112424e-01 -8.27121735e-03 -1.07477501e-01 -1.79163694e-01 +2.03699872e-01 +1.18321106e-01 +1.68918684e-01 +5.53641468e-02 +7.75754303e-02 +2.41251722e-01 +1.85249731e-01 -1.66970819e-01 -1.49201691e-01 +1.67350993e-01 +1.24080047e-01 +3.27466875e-02 +1.77182987e-01 -6.86385930e-02 +2.21735999e-01 -1.97450772e-01 +2.97617465e-02 +2.26969555e-01 +3.82818729e-02 +1.42250910e-01 -1.34820551e-01 +1.01890191e-01 -1.72262728e-01 -2.39080563e-01 +1.02949217e-01 +1.31099418e-01 -6.49652779e-02 -9.83023345e-02 -1.44957423e-01 +2.08939627e-01 +1.54878199e-03 -1.98464870e-01 -8.31158459e-02 +2.41476491e-01 -2.07482874e-01 -4.73504812e-02 +1.59532920e-01 +1.06347352e-02 -1.40366673e-01 -6.13983721e-02 -1.05922133e-01 +7.90107697e-02 +2.02117071e-01 +3.35303694e-02 +1.61224619e-01 +7.96941966e-02 -1.25980377e-01 -6.38837665e-02 -4.53582257e-02 +1.22496352e-01 +2.17281654e-01 +7.28060305e-03 +1.04236141e-01 -2.27950916e-01 -9.40258354e-02 +1.05537325e-02 +3.94196063e-02 +8.41234475e-02 -8.50158185e-02 +4.80730087e-02 +5.17840236e-02 +8.40661377e-02 +1.82591751e-01 -8.61794204e-02 +1.80843428e-01 -1.80547670e-01 +1.69702277e-01 +2.45061666e-02 +1.91350535e-01 -2.37311721e-02 +1.01947933e-02 -8.22702050e-02 +2.90176719e-02 +1.89364478e-01 -5.87885231e-02 +2.10646465e-01 +1.54130831e-01 +5.26609868e-02 -1.94043905e-01 -8.95643681e-02 -5.50176501e-02 -7.83265382e-02 -1.90219045e-01 +5.13990074e-02 +7.19239861e-02 -1.76212877e-01 +1.17761537e-01 +6.09728247e-02 +1.17620930e-01 -1.45678669e-01 +8.14349204e-02 +2.11209670e-01 -6.00993037e-02 +2.34546319e-01 -1.84441969e-01 +1.51616469e-01 -2.20120057e-01 +1.80490032e-01 -2.60758251e-02 -1.31923065e-01 +2.39081189e-01 +6.32435530e-02 +1.07462555e-02 -1.69642627e-01 -1.39618576e-01 -3.13427448e-02 +1.11332312e-01 -3.69875729e-02 +4.89888340e-02 +6.27531260e-02 +1.76898375e-01 -2.42428035e-01 +1.20416924e-01 -1.05446815e-01 -5.15978038e-02 -9.11852717e-02 -1.19516999e-01 +5.88749796e-02 +4.39384133e-02 +2.39574686e-01 +1.84590235e-01 +1.45120874e-01 -1.72188371e-01 -8.89226794e-03 +1.22453883e-01 +1.94855765e-01 -1.15292177e-01 -2.44901001e-01 -2.17134923e-01 +1.11707017e-01 +1.04408160e-01 -2.15758473e-01 -2.88839191e-02 -2.07892820e-01 -2.25103125e-01 -1.54396012e-01 +1.35525599e-01 -4.15197015e-02 +9.93339270e-02 +9.66008455e-02 -1.86160207e-04 +9.20964926e-02 +2.28967354e-01 -2.36075401e-01 +2.18512490e-01 +1.88184217e-01 -9.12844688e-02 -8.96195322e-02 -1.56548321e-02 +1.97764799e-01 -1.68638021e-01 -1.06055737e-01 -1.74725085e-01 +2.41691634e-01 +1.68593839e-01 -2.44657308e-01 +2.23925337e-01 +1.22326761e-02 -6.59727603e-02 -1.54131055e-01 +3.15117985e-02 -6.45005405e-02 +2.23703533e-02 -1.09363109e-01 +6.27047569e-02 -7.96924531e-02 +1.10546574e-01 -1.15870491e-01 -1.94907606e-01 -1.22708879e-01 -2.22527564e-01 +2.05679163e-01 -8.76701325e-02 -4.89529073e-02 -4.47915196e-02 -9.24104452e-02 -6.38803393e-02 +2.48148590e-02 +8.30060989e-02 +4.28558141e-02 -3.81572545e-03 -1.40234604e-01 +2.19314083e-01 -1.00870341e-01 -4.80599999e-02 -1.97300315e-01 -8.10237229e-02 -5.79807460e-02 -2.09517896e-01 -8.55538994e-02 -5.69991916e-02 +1.31205767e-02 -1.88719839e-01 +7.21069723e-02 -6.01709783e-02 +6.10072762e-02 -1.09364420e-01 +6.78123534e-03 -1.17982537e-01 -1.94848433e-01 -1.16398200e-01 -1.90285698e-01 +1.98564097e-01 -2.28527367e-01 +8.64187330e-02 +1.41993478e-01 +1.65451065e-01 +1.01263568e-01 +1.24324068e-01 -1.33193702e-01 +8.92250240e-03 -2.22685814e-01 +1.41508296e-01 +7.50767738e-02 +1.85263261e-01 +2.27032080e-01 +5.15076965e-02 +1.87575668e-02 -5.25710583e-02 -2.24632517e-01 -2.76550651e-02 +4.80377674e-03 +3.21579725e-02 +1.37717173e-01 -5.09276837e-02 +1.74494967e-01 -1.82021171e-01 +4.72845286e-02 -1.38447940e-01 +1.27328977e-01 -8.53393078e-02 +8.45830590e-02 -7.07599968e-02 +2.18544170e-01 -1.09121516e-01 +2.25060329e-01 -1.42894611e-01 +2.10668728e-01 +1.56731114e-01 +4.48744148e-02 +8.53137225e-02 -5.91038465e-02 -4.34838831e-02 +1.57093510e-01 +8.39947015e-02 +1.28791675e-01 +1.62419572e-01 -1.70422226e-01 -2.00588256e-01 +1.49764076e-01 -9.51958895e-02 +2.24965140e-01 +4.27738875e-02 -1.10208824e-01 -8.24719667e-03 +3.80115062e-02 -2.09921241e-01 +1.01422384e-01 -2.35125005e-01 +1.98215410e-01 +1.19253770e-01 -3.93430591e-02 -1.37110785e-01 +1.02368221e-01 +1.79890022e-01 -1.64859563e-01 -2.09279165e-01 -2.32206315e-01 -1.27816319e-01 +6.00121915e-03 -5.17952442e-02 +1.30372927e-01 +1.94108292e-01 +6.59351051e-03 -2.31651068e-02 -1.94734260e-01 -9.29680169e-02 +8.21318775e-02 +7.57446736e-02 -2.16414869e-01 -3.72245908e-04 +1.81439072e-02 +1.10125139e-01 +3.08923870e-02 -2.20933244e-01 +2.16689631e-01 +1.48749068e-01 +5.30014485e-02 +2.32317850e-01 -1.21719673e-01 +9.56798643e-02 +2.14186236e-01 -1.18269622e-02 +4.31054384e-02 +2.15923175e-01 -2.43857503e-04 -8.58651549e-02 +8.52472633e-02 +2.27348462e-01 +2.39838347e-01 -2.06478879e-01 -1.18007272e-01 +1.94838196e-02 -1.10036492e-01 -5.99641651e-02 -1.63034588e-01 -1.21722065e-01 +1.94536909e-01 +3.53381038e-03 +2.32476011e-01 -2.40136772e-01 -5.10693192e-02 +1.22327730e-01 +1.97555467e-01 +8.50381702e-02 +1.47000983e-01 -2.05921531e-01 +1.94492981e-01 -8.00864100e-02 +1.78692237e-01 +2.34637722e-01 +1.49133578e-01 +1.38960108e-01 -2.33132422e-01 +2.16840208e-03 -8.22141618e-02 -1.51477456e-02 +6.84212893e-02 -1.80380970e-01 +2.38329127e-01 +1.15580708e-02 -3.84711027e-02 +2.43939236e-01 +2.33824655e-01 +1.96935073e-01 +7.49566406e-02 -9.09052193e-02 +4.75681573e-02 +7.58367032e-02 +4.41584736e-02 +2.19598219e-01 -1.39193386e-01 +4.32666987e-02 -1.35376111e-01 -1.49910003e-01 -2.22076625e-01 +2.40923628e-01 -3.19413096e-02 +1.80416569e-01 -3.75406742e-02 +1.57914147e-01 -6.29128665e-02 -6.52877241e-02 -1.98931515e-01 -1.86743587e-02 +2.22853616e-01 +1.20562300e-01 -9.83816385e-02 -3.54499817e-02 -2.30038911e-02 -2.38288581e-01 +8.36499184e-02 -1.55634508e-01 +1.45359531e-01 -2.15655088e-01 -6.63845986e-02 +9.51710194e-02 +1.02077976e-01 -2.08228827e-01 -1.00599378e-01 -5.43283969e-02 -2.21926123e-02 -1.99465811e-01 -7.54535049e-02 +2.20557079e-01 +8.89253169e-02 -1.53366014e-01 +1.18529901e-01 +1.18700430e-01 +8.72334093e-02 +2.11844519e-01 -1.61805362e-01 +1.35267094e-01 +3.58177274e-02 -2.71666348e-02 -1.17829219e-01 -1.48042351e-01 -1.77768528e-01 -2.29154676e-02 +7.83769935e-02 +9.20051187e-02 +7.44767338e-02 -4.81869280e-02 +2.28244200e-01 -4.19020802e-02 +3.12721282e-02 +1.75508410e-02 -4.55442816e-02 -1.56636581e-01 -1.09608769e-02 +1.08582839e-01 -1.56486616e-01 +8.48770291e-02 +1.33131847e-01 +1.27649978e-01 -1.29641831e-01 +1.53967455e-01 -1.00205228e-01 -1.00380570e-01 +1.63875327e-01 +7.14321285e-02 +8.93538743e-02 -1.24025322e-01 +2.18828663e-01 -8.00037384e-02 +1.38364986e-01 -1.13230452e-01 -1.03630006e-01 -8.77299011e-02 +9.73178297e-02 +1.63433999e-02 +2.09813565e-02 +6.47697300e-02 +7.53160864e-02 +1.71695605e-01 -1.12999916e-01 -1.24398381e-01 +8.93019587e-02 +8.54603946e-03 +1.19513974e-01 -3.05618048e-02 +2.10024670e-01 -7.81842768e-02 -1.95367366e-01 -7.01111257e-02 -1.92960054e-01 -1.65432990e-01 +1.65275112e-01 +7.44196922e-02 -1.67069465e-01 -9.57236141e-02 +2.43887708e-01 +2.17051283e-01 -8.87279958e-02 -1.91740200e-01 -2.24481702e-01 -3.31591219e-02 -2.30253875e-01 -1.06524900e-01 +1.98745728e-03 +1.72441110e-01 -1.47859663e-01 -1.61445320e-01 +7.92187601e-02 +1.28404513e-01 -1.21754847e-01 -9.79151875e-02 +2.38220170e-01 +7.07922727e-02 -2.15488151e-01 +7.00869113e-02 -5.68401068e-02 -1.51897967e-02 +1.89512596e-01 -4.71199304e-02 +4.90406901e-02 +1.74640253e-01 +2.25999206e-02 -2.23859936e-01 +1.05730310e-01 -1.33059651e-01 +1.91467240e-01 -1.86346844e-01 -2.25178599e-01 +1.19390443e-01 -2.32636049e-01 -9.29283053e-02 +2.39484176e-01 +9.48918015e-02 +1.65621981e-01 +1.37161836e-01 +1.63348630e-01 -1.97572827e-01 -9.35736299e-02 -1.33369684e-01 -1.41352609e-01 +1.83208123e-01 +9.32815522e-02 -1.64221466e-01 -2.30690196e-01 +9.18984860e-02 +1.11188784e-01 +2.02166304e-01 -2.48254091e-02 +1.79422870e-01 -7.67437220e-02 -2.05039591e-01 -1.31891593e-01 +5.49234599e-02 -1.46433830e-01 +2.21998051e-01 +1.34749010e-01 +1.34064928e-01 +6.15552813e-02 +5.72216362e-02 -7.34993815e-03 +1.32153496e-01 +1.81897148e-01 -6.47299886e-02 +7.73880929e-02 -2.27526650e-01 -6.30690604e-02 -1.97177529e-02 -2.11326778e-03 +1.07762828e-01 -2.01440960e-01 -3.33207399e-02 +4.63553518e-02 +5.98209649e-02 -1.54889762e-01 +1.11782089e-01 +5.86547107e-02 +1.00938067e-01 -2.44337529e-01 +1.98702201e-01 +5.93796223e-02 -7.45335072e-02 +8.97930712e-02 +2.37347201e-01 -3.55926901e-02 +8.70698839e-02 +1.43413052e-01 -1.50061667e-01 -1.26424730e-01 +3.02291662e-02 -2.32844979e-01 +7.69666880e-02 +3.61049622e-02 -1.05271503e-01 +1.58727989e-01 +1.19954273e-01 +1.25086203e-01 +9.56499726e-02 +3.20382565e-02 -2.67272294e-02 -2.15422958e-01 +2.06258431e-01 -7.79789835e-02 -2.36084357e-01 +6.43950552e-02 -2.38546729e-02 -2.33649313e-01 +2.10715979e-02 +5.49428612e-02 +8.47118348e-02 -2.41821736e-01 +2.17547566e-02 -1.04133338e-02 -6.29752427e-02 +1.68485090e-01 -8.83956999e-02 +2.07563117e-01 -2.33550251e-01 +1.46099791e-01 +8.41532201e-02 -1.67051166e-01 -2.02361673e-01 +1.11722752e-01 +2.01187298e-01 +7.51685351e-02 +1.55089542e-01 -6.46084398e-02 +1.16535410e-01 +1.85665041e-02 -2.19668642e-01 +1.86877146e-01 -2.47702003e-03 +6.64447248e-03 -1.08999059e-01 -1.52343675e-01 -2.03356683e-01 +1.24173477e-01 -1.48120850e-01 +1.39030471e-01 -6.09588921e-02 -1.02415189e-01 -2.14529306e-01 +1.27239898e-01 -2.28634879e-01 +2.02431232e-02 +1.41937867e-01 +1.34126380e-01 -1.42293856e-01 -5.72970361e-02 -8.32206905e-02 +2.31351867e-01 +8.57590586e-02 -1.97161913e-01 +4.68501598e-02 +1.20860860e-01 +9.07928199e-02 -1.05935276e-01 -9.35263038e-02 -4.74141985e-02 -8.93347710e-02 +1.87054589e-01 +9.60044563e-03 +3.51774842e-02 -2.55545527e-02 +1.39082775e-01 -8.69120657e-02 +8.32809657e-02 -5.53906262e-02 -5.32866716e-02 -3.70918810e-02 +1.11025125e-02 +6.77234083e-02 +1.90236911e-01 -2.22458243e-02 -2.04626203e-01 +1.01710930e-01 -3.46081555e-02 +2.24453494e-01 +7.04601407e-04 +1.67528614e-01 +1.74289033e-01 -1.65391982e-01 +1.22126192e-02 +1.60195276e-01 -1.68306082e-01 -9.89096314e-02 +1.62288710e-01 +2.17711046e-01 +6.26763254e-02 +1.88949749e-01 -1.54528677e-01 +6.72860593e-02 -1.12227991e-01 -1.15819976e-01 +1.36077955e-01 -2.33904108e-01 -2.32831463e-01 +2.12158844e-01 +7.58623630e-02 +3.39277089e-03 -1.31112516e-01 -1.49964541e-01 -1.33372307e-01 -7.79832602e-02 -1.22298785e-01 +1.99797824e-01 +8.85025412e-02 +2.83148885e-03 -8.71061087e-02 +1.44785956e-01 -8.09009671e-02 -1.96907103e-01 +1.39752313e-01 -1.83183759e-01 -2.13405818e-01 +1.61895677e-01 +3.94091755e-02 +2.41300240e-01 +2.13256136e-01 +1.78873882e-01 +6.46550208e-02 +1.12599745e-01 +2.31661126e-01 +1.17122903e-01 +6.08262569e-02 +8.77048820e-02 +1.08405009e-01 +1.86752513e-01 -2.42136419e-03 +7.34852999e-02 -8.54157507e-02 +5.07832617e-02 -6.81458712e-02 +1.79717049e-01 +1.57450899e-01 -6.48159981e-02 -2.32068762e-01 -1.21590622e-01 -2.40579903e-01 -2.41327256e-01 -9.20052528e-02 -2.38213941e-01 -9.74005014e-02 -1.70891613e-01 +4.84186858e-02 +2.06086889e-01 -6.26138151e-02 -2.13458434e-01 -7.75693357e-03 +6.64578229e-02 +6.08728826e-03 +1.23818085e-01 +1.77616611e-01 -2.02420115e-01 +3.30965668e-02 -2.42847443e-01 +4.74938005e-02 +1.53908953e-01 -2.40699872e-01 -1.52885467e-01 +1.33634314e-01 -1.25721067e-01 -5.21442294e-03 +2.74660438e-02 +1.48973063e-01 -1.24865904e-01 -8.86413455e-03 +7.22617060e-02 +5.97710758e-02 -1.99870706e-01 +3.97448689e-02 -8.23203474e-02 +7.47274607e-02 -4.22074944e-02 +1.38535127e-01 -8.47253948e-02 -4.51299697e-02 -7.06657320e-02 +2.12348834e-01 +3.48266810e-02 -1.11268401e-01 +7.69792646e-02 +1.27273813e-01 -3.56822908e-02 +1.45610645e-01 -1.85588032e-01 -3.55513245e-02 -2.27707431e-01 +1.76720783e-01 -2.12806284e-01 -7.62196779e-02 -1.97204605e-01 +1.90988317e-01 -5.02883196e-02 +1.71905309e-02 +7.91744739e-02 -1.17684528e-01 +2.33960137e-01 +1.50240496e-01 -2.26852298e-02 +4.14725095e-02 +7.97931999e-02 -2.08336875e-01 -1.80064023e-01 -1.40878707e-01 -1.18692964e-01 +8.52193087e-02 +1.44830957e-01 +2.25211874e-01 +1.76117793e-01 -2.98536718e-02 -3.39254290e-02 +2.09165469e-01 -2.35737264e-01 -3.07562947e-03 +1.12969980e-01 +1.39740482e-01 +1.26532421e-01 -1.64426297e-01 +2.10893378e-01 -1.32181048e-02 +1.70693353e-01 +2.14283213e-01 -1.85699701e-01 +3.55866998e-02 +1.28579274e-01 -7.65809119e-02 +2.09603161e-02 +9.02853906e-03 +2.01034650e-01 -1.34747773e-01 +1.20708421e-01 -7.85041004e-02 +2.29129508e-01 -2.32039437e-01 -1.40499800e-01 -1.65692866e-01 +1.41129047e-02 +9.47001725e-02 +1.57244608e-01 -2.06603885e-01 -1.06705010e-01 +4.71231788e-02 -6.65025860e-02 +2.16443911e-01 -2.62470245e-02 -5.53502589e-02 +2.19832942e-01 -1.44594699e-01 -2.11329877e-01 -1.05246201e-01 +3.95069569e-02 -6.53943121e-02 +1.92838922e-01 +9.14034694e-02 +2.44093463e-01 +5.48981577e-02 +2.09791616e-01 +2.39915892e-01 -2.14356676e-01 -2.18930751e-01 -2.33254775e-01 +1.32818773e-01 -1.14092261e-01 +2.44346991e-01 +7.32765049e-02 -2.79778689e-02 -2.29994357e-02 -1.40742332e-01 +1.95270047e-01 -2.34963670e-01 -5.94775379e-02 -4.96037900e-02 +1.90450147e-01 +5.73087186e-02 +1.93244472e-01 +2.25494161e-01 -2.35493928e-01 +9.17344540e-02 +2.43889287e-01 +8.08456987e-02 -8.39543939e-02 -1.96678326e-01 -2.40252182e-01 +5.73408753e-02 +1.17039815e-01 +1.44642934e-01 +1.12155870e-01 +2.01538950e-02 +1.47212848e-01 -8.81296545e-02 +4.82376069e-02 +1.23221025e-01 -1.84227616e-01 -1.68633774e-01 -1.71129882e-01 -2.77570039e-02 -2.18943238e-01 +8.08546692e-02 -8.33806396e-03 -1.72780305e-01 -1.59876347e-01 +6.53239936e-02 +4.31459695e-02 +1.89868495e-01 +1.24009863e-01 +2.27817610e-01 +1.74537435e-01 +1.34441867e-01 +1.79661080e-01 -2.10458636e-01 -2.33222768e-01 -8.68692845e-02 -2.22150415e-01 +8.11987370e-02 +1.49531379e-01 +2.29495004e-01 +8.91408771e-02 -1.10954419e-01 -1.13908902e-01 +1.28269568e-01 -1.59092367e-01 +1.49785563e-01 -1.51301637e-01 -7.22230673e-02 +4.58752662e-02 -2.27110416e-01 +2.00353906e-01 +2.10250840e-01 -2.30765328e-01 +6.38995618e-02 +7.65683502e-02 +1.66914925e-01 +1.67250887e-01 -1.93761826e-01 +7.02368170e-02 -1.47697300e-01 -1.57948554e-01 -2.09596276e-01 -2.10211501e-01 +1.63560554e-01 +8.80417377e-02 +1.12502262e-01 -2.39816457e-01 +1.94454029e-01 -1.16943762e-01 -9.54179466e-03 -8.85218531e-02 -1.12782627e-01 -7.57379681e-02 +5.90990037e-02 +8.17960650e-02 -3.60579640e-02 +1.33960292e-01 +1.18734136e-01 -5.04779816e-03 -1.90626979e-01 +8.07946473e-02 +1.29178718e-01 -1.55682743e-01 +6.67915195e-02 -9.20570940e-02 -3.74713093e-02 -6.98218346e-02 -1.50504798e-01 +1.08866617e-01 +2.26110384e-01 -2.05627948e-01 -2.44674966e-01 +1.09756902e-01 -1.44569576e-03 -1.10158071e-01 +4.91999835e-02 -2.17685103e-01 +1.18281350e-01 -1.93449885e-01 -9.19391364e-02 +2.06192836e-01 -1.15028962e-01 -2.02937767e-01 +3.29950899e-02 -2.20185190e-01 +5.54472357e-02 -3.82834971e-02 +1.98579207e-01 -1.03591919e-01 -7.13903606e-02 -1.95106283e-01 -1.44329935e-01 +1.36888787e-01 -6.19221330e-02 -1.71717167e-01 +7.66124576e-02 -2.32722402e-01 +2.19727308e-02 -2.16916054e-01 -2.18758866e-01 +1.96943805e-01 -8.28815997e-02 +1.26482099e-02 +1.97495475e-01 -6.26514852e-02 -1.54722661e-01 -5.33601940e-02 +4.67209518e-03 -4.73448485e-02 -2.15305284e-01 +5.64895421e-02 -1.91037193e-01 +1.78312406e-01 -2.12106943e-01 +8.05179030e-02 +1.39041707e-01 -1.21690720e-01 -1.26172468e-01 +1.89696059e-01 +9.29445177e-02 -5.78297228e-02 -1.39046505e-01 -2.13738859e-01 -1.39492214e-01 -1.78969145e-01 -1.55664980e-03 -1.38852835e-01 -1.87152252e-01 +9.67653841e-02 +1.62874326e-01 +1.48292020e-01 +1.92706510e-01 -8.31190646e-02 +1.14451602e-01 -1.73362106e-01 +7.80201107e-02 -2.14927971e-01 -2.37301603e-01 +1.05553880e-01 -2.10187316e-01 -8.03701580e-03 +9.91237909e-02 +1.41573355e-01 +4.49701995e-02 -7.18097091e-02 +1.61588341e-02 +2.41274819e-01 -2.37149611e-01 -8.72280598e-02 +5.02111763e-02 +2.00261995e-01 -9.14474279e-02 +8.17043632e-02 +6.41743690e-02 +8.18769485e-02 -1.47368640e-01 -1.08017176e-01 -3.23777497e-02 +1.06964961e-01 -1.44971997e-01 +9.19753164e-02 -1.50190651e-01 -5.59733957e-02 -2.23440364e-01 +1.80898622e-01 -1.08933657e-01 -2.37493157e-01 -9.46511924e-02 +1.64021984e-01 +1.49681583e-01 +9.86814648e-02 +1.74359009e-01 -1.79269999e-01 -2.14617327e-01 -3.63158286e-02 -1.09284148e-01 +1.72565237e-01 +1.76753238e-01 -6.95919544e-02 +1.88057572e-02 -1.29818976e-01 +2.19874457e-01 -1.64524883e-01 -8.91826004e-02 -7.52895623e-02 -3.40029448e-02 -1.01364493e-01 -5.15393019e-02 -2.08065599e-01 +9.50229913e-02 +7.64314979e-02 +1.23469368e-01 +2.25577101e-01 -1.41192764e-01 +2.30789378e-01 -1.21332511e-01 -4.60669547e-02 -2.19378799e-01 +1.31201282e-01 +1.82354793e-01 +3.32515687e-02 +2.26286128e-01 +1.70838133e-01 -1.36937797e-01 -6.44718260e-02 +1.02321997e-01 -8.20352435e-02 +1.10300019e-01 -6.08801395e-02 -6.49714470e-02 +6.36170357e-02 +1.81615874e-01 +1.56128243e-01 +2.11385339e-02 -1.09020948e-01 +9.81549919e-03 -1.63819224e-01 +7.22079724e-02 +8.36321563e-02 -2.15143189e-01 -9.37363803e-02 -1.65299475e-02 +1.63813666e-01 +6.55858368e-02 +5.18822819e-02 -1.40812457e-01 -9.55784321e-03 +1.85056493e-01 -2.00445995e-01 +6.31368905e-02 +2.09771141e-01 +1.59600332e-01 +1.32932812e-02 -1.41947672e-01 -1.70464188e-01 +1.86424330e-01 -2.94335037e-02 -1.71246052e-01 +2.36495480e-01 +1.94257811e-01 -1.00007817e-01 -9.34667885e-03 -2.02737719e-01 -9.62675512e-02 -1.89250916e-01 +6.93722814e-02 +1.08488962e-01 -1.00041896e-01 +1.01549730e-01 -1.64069623e-01 -2.08894417e-01 +3.44221294e-03 -9.80907232e-02 +2.29502514e-01 +4.26481515e-02 -2.04520866e-01 -2.69140601e-02 +7.05419481e-03 -1.30811036e-01 +1.53940693e-01 +2.36018404e-01 -1.67267606e-01 -1.57545075e-01 +1.29654750e-01 -2.10312501e-01 +1.49959177e-02 +1.35133758e-01 -6.01875782e-02 +6.34639412e-02 +1.67725220e-01 +1.52214393e-01 -1.42391324e-01 -4.43995744e-02 +1.77141920e-01 +1.38997868e-01 -9.99695808e-02 +1.04007408e-01 +2.24624649e-01 -1.69715136e-01 +5.27715832e-02 +2.13723555e-01 +1.73068210e-01 +5.43592125e-02 +1.54106453e-01 +6.37887865e-02 -6.13108724e-02 +2.31766537e-01 +7.69447535e-02 +4.46885079e-02 -1.78630531e-01 +1.55894145e-01 -1.54606447e-01 +4.96888161e-03 +1.10168085e-01 -2.18999222e-01 +1.22390702e-01 -1.44156694e-01 +5.75982481e-02 +2.21310422e-01 -6.91369772e-02 -3.03125381e-03 +2.21437439e-01 +3.42689008e-02 +4.66438681e-02 +1.63779929e-01 +9.48259085e-02 +1.05222777e-01 +3.21762115e-02 +1.61966518e-01 +8.25309008e-02 +2.21635416e-01 +2.36068204e-01 +1.41507834e-02 -2.34187797e-01 -4.56770509e-02 +4.54486758e-02 -1.94375545e-01 -6.43129051e-02 +1.65710002e-02 +1.68092474e-01 +8.06132108e-02 +1.85444787e-01 +1.04150042e-01 -1.07569829e-01 +1.40494958e-01 -1.90450355e-01 -2.42116600e-02 +6.04941696e-02 -1.20195717e-01 -1.76934183e-01 +1.83002070e-01 -7.25074410e-02 -3.37670743e-02 -1.50230572e-01 +1.02777794e-01 -2.44432181e-01 -5.80269992e-02 +2.39522621e-01 +1.93331197e-01 +1.67795584e-01 -4.43445444e-02 -2.35162616e-01 +5.16687185e-02 -1.18145421e-01 -6.28560781e-02 -1.59316838e-01 -8.05487037e-02 -5.20480424e-02 +2.01689139e-01 +7.11064488e-02 -1.39071569e-01 -1.65404767e-01 +1.28213599e-01 -2.02568799e-01 -2.16483593e-01 +2.06922546e-01 -1.28398925e-01 -1.59085602e-01 -7.39426315e-02 +2.37393364e-01 +1.31443366e-01 +1.56871900e-01 +1.47068694e-01 +1.24800131e-01 +2.22442299e-02 +1.10940501e-01 -4.92010266e-02 -1.08936712e-01 -9.72426981e-02 -1.53204083e-01 +6.72001094e-02 -2.05710277e-01 -2.30752915e-01 -1.95624813e-01 -8.83535296e-02 +9.70105976e-02 +1.96137562e-01 -3.41895223e-03 -1.37902141e-01 -1.23305686e-01 +1.79198101e-01 -6.89888597e-02 -1.32500052e-01 -9.46996063e-02 +1.44060507e-01 +2.06921652e-01 +1.91015735e-01 -2.23658159e-01 -1.99417323e-01 +8.31509382e-02 +1.53330639e-01 -3.33838016e-02 -5.30843437e-03 -1.99529245e-01 -1.94896773e-01 -2.14109913e-01 -1.54783994e-01 -2.00657412e-01 +1.41990334e-02 +2.39080355e-01 -1.64333627e-01 +2.14628145e-01 -1.34782135e-01 +2.35287055e-01 +1.64090768e-01 -9.33955759e-02 +2.22370133e-01 -1.33170038e-01 -2.01756403e-01 +1.02327392e-01 -2.03940272e-03 +3.16745192e-02 +1.26383260e-01 +3.19616348e-02 -1.22240223e-01 -1.77144736e-01 -6.92056566e-02 -7.96457529e-02 +1.01677880e-01 +6.34075552e-02 -1.93582579e-01 +2.26803377e-01 +2.23772034e-01 -1.45909637e-01 +1.73565850e-01 +1.09966651e-01 +1.42824396e-01 +1.22031167e-01 +2.20436618e-01 -5.07929027e-02 -1.25397205e-01 -6.24974519e-02 +7.77098984e-02 -7.76854306e-02 +1.16969645e-03 +1.57578602e-01 -1.96419030e-01 +2.26508185e-01 -1.43561214e-02 +1.07080683e-01 +1.61612585e-01 -1.35202616e-01 +1.12604901e-01 +3.24234366e-04 -5.78789115e-02 +1.22793958e-01 -1.34538472e-01 -6.42993450e-02 +6.22341782e-02 -2.11974472e-01 +3.77671570e-02 -1.05326429e-01 -1.51178032e-01 +1.85571954e-01 -1.40915558e-01 -8.52713287e-02 -8.19821209e-02 +1.94714323e-01 +2.20152423e-01 +3.60310078e-05 -1.58371061e-01 -1.78442791e-01 +1.61044225e-01 -8.94373059e-02 -2.19934568e-01 +2.15168104e-01 -3.88846248e-02 -9.85820442e-02 +1.62236139e-01 +2.27806017e-01 +2.75938958e-02 -2.24771753e-01 +1.72683641e-01 -8.49858075e-02 +4.94235605e-02 +6.13075942e-02 -7.17137754e-03 -8.14464837e-02 -1.50293231e-01 +1.62528828e-01 -6.80190474e-02 -7.00415373e-02 +2.26429209e-01 -2.36787498e-02 +2.14953318e-01 -2.04266533e-01 +1.17365614e-01 +1.76220015e-01 -1.99238449e-01 -8.39602351e-02 -8.84336233e-03 -1.29275486e-01 -9.18604732e-02 +2.50164717e-02 -5.12419492e-02 +1.43435463e-01 +6.48048669e-02 -1.26367584e-01 -1.25005305e-01 -1.16823137e-01 +8.53627771e-02 -4.32388932e-02 -2.19475985e-01 +1.19770244e-01 +1.15214035e-01 +2.72840261e-03 +8.15858692e-02 +1.50184795e-01 -2.43803248e-01 +8.79399627e-02 -1.53640360e-02 +2.13523105e-01 +1.26565948e-01 -3.07306498e-02 -8.02609921e-02 -1.94353044e-01 +1.06772915e-01 +7.74898082e-02 -4.13980931e-02 -2.42349774e-01 +1.15880206e-01 -2.02173769e-01 +2.39853114e-02 +1.15797922e-01 +1.47620514e-01 -8.43857378e-02 +2.04056039e-01 +1.02560326e-01 +1.83945403e-01 -8.30076039e-02 -1.07788891e-01 +3.32059711e-02 +2.16466650e-01 +1.04451910e-01 +2.12477550e-01 -1.31903097e-01 +1.23735771e-01 -2.05496103e-01 -1.04317307e-01 +1.03022382e-01 +2.37439379e-01 +1.47457615e-01 -9.24630761e-02 +1.08907834e-01 +1.66801497e-01 -2.88412124e-02 +9.75617021e-02 -2.05822423e-01 +8.84060562e-03 -2.24927321e-01 +2.43427709e-01 -1.73378706e-01 +4.14785296e-02 -8.91107619e-02 +7.73248225e-02 -2.23318681e-01 +2.73988992e-02 -8.36078674e-02 -1.12934530e-01 +8.83386284e-02 +2.26322517e-01 +1.25517562e-01 +1.21689126e-01 -1.00913599e-01 -1.47116527e-01 +6.39851391e-03 -6.05874658e-02 +8.43651742e-02 -2.28911713e-01 -2.25215152e-01 -1.31312907e-02 +1.66324154e-01 +3.66742462e-02 -1.78107470e-01 +2.02730164e-01 -1.55781046e-01 +9.92454588e-03 -1.26804903e-01 +8.32075030e-02 -1.44050270e-01 +5.81411272e-02 -2.70174444e-03 -6.73016310e-02 +4.20380086e-02 +1.88471928e-01 -1.61576346e-01 -1.39578015e-01 -2.43769199e-01 -1.73276663e-01 +1.11778572e-01 +1.76759437e-01 +4.24277633e-02 -9.43290591e-02 +1.60322353e-01 +1.70525745e-01 +1.38221338e-01 +8.60841721e-02 +1.38715848e-01 +1.37872919e-01 -2.23276272e-01 -1.31888241e-01 +1.58526704e-01 +4.67883199e-02 +1.69033840e-01 +3.46114486e-02 -4.64565903e-02 -9.94987786e-03 -1.27140880e-02 +4.72746342e-02 +7.73351640e-02 -1.53918535e-01 -7.00481981e-02 -1.21015921e-01 +6.97492063e-03 -1.39604241e-01 +2.19879881e-01 +4.87106591e-02 -2.16235995e-01 -1.41299188e-01 +2.21096352e-01 -1.35713309e-01 -2.90012956e-02 -1.94065288e-01 -1.25467032e-02 -2.21819535e-01 +1.03619561e-01 +5.79347461e-02 -1.93068832e-01 +1.25920549e-01 +5.62004298e-02 -1.19091853e-01 +1.77200302e-01 +4.89735454e-02 +1.01739183e-01 +8.30037892e-03 -8.61133635e-03 +2.03387886e-02 +1.96417421e-02 -3.36536318e-02 +1.09160170e-01 -3.76535952e-02 +2.03469858e-01 -1.23225838e-01 +3.83921415e-02 +3.67957354e-03 -1.05205595e-01 -2.13614017e-01 +2.44039550e-01 -1.89688638e-01 -1.76085055e-01 -1.37308478e-01 -1.84879199e-01 -2.12404802e-01 +1.83484003e-01 +6.02145642e-02 -2.23713785e-01 +1.14140287e-01 +1.01685598e-01 -1.80542618e-01 -3.58048081e-03 +6.75277859e-02 -9.26400274e-02 -1.16674915e-01 +2.03299180e-01 -1.93568692e-01 -1.48694023e-01 +9.50722545e-02 +1.79882571e-01 +9.66786295e-02 -1.70904517e-01 +1.08875230e-01 +1.41403332e-01 -1.56634420e-01 -2.94118375e-02 -1.71678752e-01 -2.61662006e-02 -2.44926870e-01 -4.61179018e-02 +2.16141358e-01 -2.43724570e-01 +1.99982092e-01 +1.05533317e-01 -1.43395185e-01 +2.11464614e-02 +1.05466589e-01 +1.60103902e-01 +8.06029886e-02 +2.25081548e-01 -6.78686798e-03 -2.36934394e-01 +1.25266954e-01 +2.41311774e-01 +2.25032285e-01 +2.06093594e-01 +2.85026580e-02 +1.17538437e-01 -1.38327867e-01 +1.23438612e-01 +2.18281403e-01 -4.18466330e-02 -1.21445015e-01 +7.99737126e-02 -2.40096450e-01 -2.18497053e-01 +1.33177444e-01 +2.26290956e-01 -6.46859407e-02 -5.03870398e-02 +7.62206167e-02 -1.34165674e-01 -1.84200168e-01 +7.73329884e-02 +7.72830397e-02 -1.59822226e-01 +2.27835402e-01 +1.03994772e-01 +1.22966096e-01 +2.80949920e-02 -1.93768770e-01 +1.43566355e-01 -4.32414860e-02 +1.04481980e-01 +1.27847865e-01 +2.44885489e-01 +1.42267808e-01 -6.51978403e-02 +2.29555771e-01 +2.27747992e-01 +8.62318128e-02 +2.03396603e-01 -2.18035355e-01 +1.18907407e-01 +1.63234428e-01 -1.52432352e-01 +3.88994366e-02 -1.61187649e-01 -5.94640523e-02 -1.70872450e-01 -6.06776774e-03 +2.30861977e-01 +1.93052039e-01 +2.88886279e-02 -1.52735323e-01 +2.07576916e-01 +2.30813488e-01 +1.16580173e-01 +6.18747622e-02 -1.58897191e-02 -2.14364231e-02 +2.43167475e-01 -7.00254589e-02 -1.25540867e-01 +1.88987717e-01 -1.42619073e-01 -3.79660428e-02 +2.02136591e-01 +2.15160564e-01 +2.53481418e-02 -1.87153131e-01 -2.33345568e-01 -4.21118140e-02 +8.07975233e-03 +1.33506805e-02 -8.34273398e-02 -7.60610551e-02 +1.43161908e-01 +1.80866405e-01 -3.43798697e-02 +1.50322333e-01 +1.93477288e-01 +1.92140803e-01 -1.99700356e-01 +2.22635970e-01 -1.39811978e-01 -1.20701462e-01 -5.36557287e-02 -1.44195020e-01 +2.52937824e-02 -4.41173613e-02 -2.24827796e-01 +1.88308761e-01 -1.16995618e-01 +8.58224779e-02 +1.69408843e-01 +7.52056390e-02 +8.49683434e-02 +1.45091817e-01 -1.16357788e-01 +2.35822663e-01 -1.13506407e-01 +1.92278132e-01 -1.73542947e-02 -4.64203209e-02 -2.00512126e-01 +1.16127029e-01 +2.19944671e-01 -6.35679960e-02 +6.19133860e-02 -9.61782783e-02 -5.37026078e-02 -1.96174920e-01 +1.08917609e-01 -6.33902252e-02 -3.10010016e-02 -6.70206100e-02 -2.16407567e-01 +9.57434624e-02 -1.61298901e-01 +1.94795951e-01 +1.14051953e-01 -1.22344881e-01 +9.95921046e-02 -1.78330198e-01 +3.04010063e-02 -2.38026172e-01 +4.50647324e-02 -5.60208410e-02 -1.19253859e-01 +1.42958984e-01 -1.57954872e-01 +1.19007781e-01 +1.65994272e-01 -1.62649840e-01 -1.89351231e-01 +9.11692232e-02 +7.42235929e-02 +9.77725834e-02 -2.05000997e-01 -1.79236770e-01 +1.87989697e-01 +2.31001094e-01 +2.33506545e-01 -1.26464695e-01 +5.81651777e-02 +8.46651047e-02 +2.21911803e-01 +1.73973605e-01 -3.51248384e-02 -2.09849119e-01 -1.22938119e-01 -6.38910979e-02 -7.68359601e-02 +1.06865093e-01 +6.18278980e-04 -1.24595255e-01 +1.25630870e-01 -5.14786839e-02 +2.01673061e-02 -1.15344763e-01 +1.42634362e-02 +2.47237533e-02 -7.25656748e-04 -2.41331860e-01 -1.23217255e-02 +6.45685643e-02 -9.34413671e-02 -8.11743438e-02 +2.11082354e-01 +2.24079624e-01 +1.81980714e-01 +2.07492575e-01 -1.20463423e-01 +1.72460839e-01 +7.84187019e-03 +2.13571474e-01 +7.82331377e-02 +1.75145701e-01 +2.86707729e-02 -2.39115059e-01 -3.11377645e-03 -2.67961621e-03 +2.11131141e-01 +5.34926206e-02 +1.47204652e-01 -2.05496773e-01 -1.78735673e-01 +3.23086232e-02 +9.01599377e-02 -2.23836616e-01 -1.32528841e-01 -9.82525945e-02 -8.39478821e-02 +2.28294477e-01 +1.29583493e-01 +8.79167765e-02 -2.02320516e-03 +1.86145499e-01 +2.14405373e-01 +1.22275800e-02 +4.62073088e-03 -1.69257134e-01 -1.54402882e-01 +1.66724071e-01 +1.65767238e-01 -1.42942041e-01 -1.73995525e-01 -6.16859347e-02 +2.21418187e-01 +1.11612245e-01 -1.76489368e-01 +4.61214781e-03 -2.28534922e-01 +5.51415831e-02 -1.65412188e-01 -1.22230053e-02 -1.39445961e-01 -2.27772325e-01 +5.06028384e-02 -1.54887229e-01 +1.35661766e-01 -1.68191358e-01 -1.95319518e-01 +2.09919319e-01 +2.23885462e-01 +2.22500518e-01 +2.04521760e-01 +1.22023299e-01 -2.75474489e-02 -2.15429977e-01 +1.48845300e-01 -3.06816101e-02 +1.85600072e-02 -1.01457432e-01 +2.34239087e-01 -7.32663125e-02 -4.13078815e-02 +1.80948123e-01 +5.55787832e-02 -2.16195211e-01 -2.33878493e-02 +1.47154525e-01 +1.49416611e-01 +2.16682404e-02 -3.31968963e-02 -1.32222861e-01 +1.91985741e-01 -2.39368081e-01 +1.99297592e-01 +7.80819803e-02 +2.10433349e-01 -6.59601688e-02 +2.03244254e-01 +2.33207837e-01 -2.42685109e-01 +1.63658842e-01 -2.33187094e-01 +3.20176035e-02 +2.31223837e-01 -1.20447405e-01 -8.48998278e-02 -1.46062851e-01 -1.50906742e-02 -7.65032768e-02 +8.96210968e-03 +4.46894765e-03 -2.44959593e-02 -1.72494978e-01 -9.81202871e-02 -1.71562403e-01 +2.13734105e-01 -1.10287830e-01 -1.81142718e-01 +2.05764905e-01 +2.36439854e-02 -3.14888656e-02 -2.68059969e-02 -2.00722218e-02 -1.47514522e-01 -1.49101838e-01 -1.17230102e-01 +2.07589671e-01 +7.65623897e-02 +4.10625488e-02 -8.39563012e-02 -1.31975621e-01 -1.72717571e-02 -1.94271058e-01 -2.18520045e-01 +1.68457255e-01 -4.93162870e-03 -1.96465790e-01 +2.01209441e-01 -1.28114432e-01 -1.32045120e-01 +2.60085016e-02 -3.76592577e-03 -3.04788351e-04 -1.13742903e-01 -1.64873630e-01 +8.55263621e-02 +1.87652424e-01 +1.82539687e-01 +2.36749306e-01 -6.64045066e-02 +9.48444754e-02 +1.08456030e-01 -1.93282142e-01 -1.56485528e-01 -1.78232938e-02 +9.49449837e-03 -1.30412161e-01 +1.69150963e-01 +4.86350805e-02 -1.99799001e-01 -2.32574597e-01 +5.04216552e-03 +6.41146451e-02 +2.36918852e-01 -1.60929620e-01 -4.31539714e-02 -2.32677281e-01 -1.34222031e-01 +1.72366306e-01 -3.62814367e-02 +9.18707401e-02 +2.05398962e-01 -1.40180558e-01 +2.09763452e-01 -1.16194382e-01 +1.13159522e-01 -1.89284056e-01 -6.48054183e-02 -1.47102028e-02 -7.00678229e-02 -1.16915852e-01 +4.07867879e-02 +6.16714805e-02 +4.47568744e-02 +2.02057824e-01 +4.77731973e-02 -1.12265319e-01 +1.78833619e-01 +9.21332687e-02 +6.80245310e-02 +2.00043514e-01 +1.76914409e-01 +1.67657420e-01 -1.81985706e-01 -7.40234852e-02 -4.66714799e-02 -2.14205906e-01 +4.47302014e-02 +2.26917371e-01 +1.37808576e-01 +1.20228246e-01 +7.83429295e-02 +2.39697233e-01 +1.90850928e-01 +2.62951404e-02 -1.38819575e-01 -6.28559291e-02 -2.28422344e-01 +1.62654266e-01 -1.81288183e-01 +6.71217591e-02 -1.79379284e-02 -7.60791600e-02 +2.08097056e-01 +2.03110501e-01 +2.58263946e-03 -9.99643952e-02 +6.44632429e-02 +1.19699582e-01 -3.10129523e-02 -3.05164009e-02 -2.07007349e-01 +1.61637947e-01 -2.20515102e-01 +5.28194755e-02 +6.85773343e-02 -1.76096991e-01 +2.03270271e-01 -9.63055193e-02 +1.37156233e-01 -2.17897743e-01 -7.11088479e-02 -1.32941306e-01 +1.34841844e-01 +1.98686555e-01 +2.37993971e-01 +1.78029105e-01 -2.36767977e-02 -7.51176178e-02 -2.02547759e-01 +3.30739170e-02 +9.08329636e-02 -2.25163788e-01 +1.54601023e-01 -5.46136647e-02 +2.15978488e-01 +4.02489305e-03 -2.18560398e-02 -9.49844122e-02 -7.19595701e-02 +4.01597172e-02 +1.45814940e-01 -1.18349165e-01 +1.18676439e-01 -1.03324562e-01 -1.41475141e-01 +2.61017233e-02 +7.02573210e-02 +1.18705347e-01 +1.96113154e-01 +1.77138403e-01 -1.64940536e-01 +1.64181784e-01 -2.79957354e-02 +1.64554998e-01 +2.02358171e-01 -6.65517896e-02 +1.37239888e-01 +2.03970030e-01 -2.05113783e-01 -1.13679975e-01 -9.14577544e-02 +1.40899137e-01 +1.52342811e-01 +1.64121255e-01 -1.08567730e-01 -7.86413699e-02 +9.51067358e-02 +8.26577842e-03 -9.92601067e-02 +1.27231583e-01 +1.24487594e-01 -1.35861695e-01 -1.13933459e-01 
#Parameter# /_8 {50} 801 ZERO_GRAD
-2.22044721e-01 +6.57521933e-02 -3.43781859e-02 +2.26284564e-03 +2.41982535e-01 +7.82150477e-02 +1.73024982e-02 +2.30672613e-01 +3.93903106e-02 -9.27785486e-02 -2.33283579e-01 +1.44948736e-01 +4.61174697e-02 +3.13898176e-02 -6.43023700e-02 -5.69328666e-02 +5.99861890e-02 -2.07742155e-02 +1.63181290e-01 -1.25909001e-01 +1.67017087e-01 +7.65530616e-02 -2.20830768e-01 +8.93872827e-02 +5.95135540e-02 +2.40850076e-01 -2.13025779e-01 +2.40156576e-01 +1.06197149e-02 +2.28900000e-01 -1.00830033e-01 +1.53725013e-01 +1.69409111e-01 -6.62687421e-03 +7.33974725e-02 -1.00531802e-01 +3.04614007e-03 +2.38993540e-01 -5.65012395e-02 +2.01968208e-01 +4.18216437e-02 +1.03274137e-02 +1.61822900e-01 +1.35186568e-01 +2.05215946e-01 +9.92616266e-02 +1.39014468e-01 -2.68044919e-02 -7.27243721e-02 -8.46420676e-02 
#Parameter# /_9 {50,3} 2401 ZERO_GRAD
+6.61366805e-02 +2.16916502e-01 -2.26519823e-01 -2.71890432e-01 +1.33890077e-01 +3.16422313e-01 +1.95192769e-01 -2.28192002e-01 +2.55427092e-01 -3.18420231e-01 -1.86911032e-01 +2.34720200e-01 +2.86578089e-01 -2.45187022e-02 -1.86945111e-01 -2.01907992e-01 +1.36036903e-01 +1.66351438e-01 -1.73416525e-01 +1.29823998e-01 +7.40218461e-02 -2.73373514e-01 +7.78192189e-03 -3.33463550e-01 -3.30386966e-01 -1.64379194e-01 +5.65265194e-02 +1.09242722e-01 +1.48782700e-01 -4.74387722e-04 -2.99339056e-01 +3.02235782e-01 -1.69140518e-01 -9.48643312e-02 -2.74014175e-01 -2.32160017e-01 -9.33342874e-02 +3.06887090e-01 -8.64513144e-02 -3.23260307e-01 +3.54502171e-01 +2.84260716e-02 -2.92347550e-01 +1.69948235e-01 -1.20993510e-01 +1.31431043e-01 -4.98612970e-02 -3.19085568e-01 -2.45834261e-01 +9.50859860e-02 -1.17614120e-01 +2.57144779e-01 +3.40750962e-01 +2.34427348e-01 -3.03921606e-02 +2.57285148e-01 -3.52342397e-01 -2.62611568e-01 +3.51849049e-01 -2.17961729e-01 +1.65271871e-02 -9.49687213e-02 -2.07634538e-01 -8.23764503e-02 -1.01187319e-01 +3.83471757e-01 -1.83710054e-01 -1.58229008e-01 -3.11683044e-02 +1.59429774e-01 -2.08931670e-01 -1.52392864e-01 -7.52838925e-02 -1.84678778e-01 -3.12311560e-01 -2.49844164e-01 +2.51662046e-01 -5.16014807e-02 -9.00133029e-02 +8.88952464e-02 +5.03387190e-02 +2.36192241e-01 -1.84738770e-01 +9.61859077e-02 +2.63980478e-01 -3.08489919e-01 +2.38384396e-01 +1.83911115e-01 -2.06005275e-02 -2.23289415e-01 +1.00755446e-01 +2.20466167e-01 -8.35641250e-02 -1.27162680e-01 +3.14218402e-01 +1.29204229e-01 -1.27655417e-01 -1.44244105e-01 -8.47249925e-02 -1.74700767e-01 +1.80936798e-01 +3.55002582e-01 -2.74589099e-02 -2.13065743e-01 +1.92348972e-01 -2.42726162e-01 -8.22724998e-02 +2.66085505e-01 +1.50473401e-01 -1.99360549e-01 -1.40523538e-01 -4.12831157e-01 -2.65718997e-01 -2.61260509e-01 +1.68583199e-01 +3.78663898e-01 +6.93494380e-02 +2.02260345e-01 -2.71616340e-01 +3.81396472e-01 +1.40770122e-01 -2.55685091e-01 -1.07373059e-01 -3.15125823e-01 -2.81632602e-01 +3.57560813e-01 +1.58521175e-01 +3.97021294e-01 -1.45572737e-01 +1.56577289e-01 -9.13106948e-02 -3.03734332e-01 +4.44902927e-01 -1.44304350e-01 -9.08266753e-02 +4.38082553e-02 -2.57196486e-01 +3.67709398e-01 -2.12912172e-01 -1.18248031e-01 -2.82886475e-01 +1.28051816e-02 -4.81445924e-04 -2.24894941e-01 +2.64519721e-01 +3.82581800e-01 +2.94543147e-01 -5.16769774e-02 -3.78506422e-01 -3.80871773e-01 
#Parameter# /_10 {50,50} 40001 ZERO_GRAD
