#Parameter# /_1 {2,50} 1601 ZERO_GRAD
+8.06255579e-01 -1.19200003e+00 +6.94513977e-01 -8.36482823e-01 -3.22735399e-01 +3.34290445e-01 +3.09032410e-01 -6.82777226e-01 -2.92856783e-01 +6.82072341e-01 +4.49834585e-01 -5.64672410e-01 -6.68949932e-02 +4.48345363e-01 +1.65373906e-01 -4.56700444e-01 +2.43613675e-01 -2.59215593e-01 -2.83918381e-01 +6.11383736e-01 +3.39653671e-01 -4.64584857e-01 -4.32393640e-01 +2.86846906e-01 -5.15504956e-01 +2.94255555e-01 -2.77079016e-01 +6.22474253e-01 -3.78241211e-01 +5.82320154e-01 +5.17424762e-01 -5.13826370e-01 -7.48032331e-01 +5.44957280e-01 -4.96228963e-01 +6.32719457e-01 -2.00390462e-02 +2.64709145e-01 +5.42441607e-01 -2.98341721e-01 +6.29114270e-01 -5.91280282e-01 +5.99952936e-01 -9.38018635e-02 -7.70307839e-01 +4.02381152e-01 -4.36657846e-01 +6.03417635e-01 +1.38570413e-01 -4.81618196e-01 +6.76406175e-02 -8.93434808e-02 +2.38917857e-01 -2.85493314e-01 +2.76119232e-01 -3.85913461e-01 +1.74328744e-01 +3.73064846e-01 +2.18289554e-01 -3.49544674e-01 +5.45297742e-01 -1.66725218e-01 +6.88713670e-01 -8.37926865e-01 -4.92416173e-01 +8.31275702e-01 +5.94066858e-01 -3.58308166e-01 +8.99651870e-02 -5.70867121e-01 -3.22908521e-01 +1.15606701e-02 -5.51373363e-01 +2.86031991e-01 -4.18254763e-01 -1.98532715e-01 -6.48367703e-01 +1.18919633e-01 +1.33463308e-01 -3.03219646e-01 +2.13734820e-01 -1.55575767e-01 -2.28159815e-01 +5.83511233e-01 +2.90675491e-01 -1.84865579e-01 +5.07353544e-01 -6.81733638e-02 -1.19826853e-01 -4.10220653e-01 -4.97659475e-01 +9.41196606e-02 +4.13362563e-01 -5.08720577e-01 +3.03571492e-01 +1.28167048e-01 -6.27824366e-01 +3.98466825e-01 +4.16217238e-01 -4.27642137e-01 
#Parameter# /_2 {2} 33 ZERO_GRAD
+7.40761042e-01 -6.56055212e-02 
#Parameter# /_3 {50,3} 2401 ZERO_GRAD
-3.98921758e-01 +1.69440106e-01 +6.52113482e-02 +3.24369609e-01 +4.63928133e-02 -2.03611955e-01 -2.76271477e-02 -3.86411816e-01 +5.57312295e-02 +5.23810148e-01 -5.13904691e-01 -3.42245877e-01 -1.97262332e-01 +2.00086355e-01 -2.86968768e-01 +2.65775055e-01 -2.39288196e-01 +2.26114467e-01 +1.39517203e-01 -2.21134022e-01 -4.01557565e-01 -1.58123255e-01 +9.55708846e-02 +2.05364510e-01 -7.14908317e-02 +1.35864004e-01 -1.70010433e-01 -1.81007862e-01 -3.04302871e-01 +4.82056677e-01 -1.45258576e-01 +3.52257192e-01 +5.53605974e-01 -3.58444393e-01 -1.67760700e-01 +2.86797047e-01 -1.43838018e-01 -1.60596356e-01 -3.02519351e-01 +1.52557179e-01 -3.52941126e-01 -1.59613937e-01 +2.67574936e-01 -3.16900522e-01 +6.06442809e-01 -1.78647581e-02 +4.02537026e-02 +2.40008444e-01 -3.45901586e-02 -6.00249134e-02 +4.62151915e-01 +4.16020542e-01 -2.79693007e-01 +1.81817308e-01 +2.76780963e-01 +5.72476164e-02 +4.10606675e-02 +2.60091871e-01 -3.87384623e-01 -8.71588230e-01 +7.09515095e-01 -2.53650934e-01 +2.54945755e-01 -3.83409113e-02 +1.78011894e-01 +2.47845933e-01 +3.51744860e-01 +1.96394369e-01 -3.13561171e-01 -1.69607446e-01 +3.76888037e-01 +7.28710517e-02 -1.15924112e-01 +2.04121038e-01 +2.83756554e-01 -2.97537893e-01 -1.28879547e-01 +2.34416589e-01 +2.71096200e-01 -2.57342383e-02 +5.30838072e-01 +6.82872385e-02 -5.49216747e-01 +3.65206003e-01 -3.26678514e-01 -1.38132676e-01 +2.15609774e-01 -2.31363952e-01 +8.83351490e-02 -2.74073422e-01 -1.38742328e-01 +4.12012339e-01 -2.91134417e-01 +9.12104100e-02 -2.81002432e-01 +5.25110543e-01 -1.32039621e-01 -1.25910547e-02 -1.11078933e-01 +3.82374749e-02 -5.95620647e-02 +2.16782853e-01 -2.84506410e-01 -4.39112484e-01 -2.66841024e-01 +1.03669196e-01 +8.06024894e-02 +3.53061587e-01 -1.12775676e-01 -4.68829215e-01 +3.52782547e-01 +2.72111356e-01 -1.06859647e-01 -4.62328911e-01 -3.05876046e-01 -1.12741396e-01 -1.17809504e-01 +8.13388526e-02 +1.02011830e-01 +5.48987649e-02 +1.08255975e-01 +2.74666727e-01 -3.97029430e-01 +2.10874423e-01 -1.90330535e-01 -1.70909211e-01 +5.92531711e-02 -1.76467299e-01 +1.67101249e-01 -5.00333369e-01 +2.00474948e-01 -2.77078271e-01 -4.20214623e-01 +2.92722255e-01 +2.74443299e-01 -7.49006495e-02 +6.35084882e-03 -3.13061774e-01 -2.94379354e-01 -2.50538319e-01 -1.71522021e-01 +6.56425476e-01 -4.19195861e-01 +1.44077793e-01 -5.06197870e-01 +5.55082798e-01 -3.95070195e-01 -4.90559161e-01 -2.21237421e-01 -1.33136079e-01 
#Parameter# /_4 {50,50} 40001 ZERO_GRAD
-1.33732677e-01 +1.43389001e-01 -5.43768965e-02 -2.46218711e-01 -3.06362193e-02 -3.75219524e-01 -1.11092791e-01 +2.33567685e-01 -4.26345617e-01 -2.72503823e-01 -3.94364953e-01 -1.39562130e-01 +3.44951183e-01 -3.35334182e-01 +2.24932539e-03 +1.36058867e-01 -1.86554551e-01 +7.10631385e-02 +4.09640878e-01 -1.63421594e-02 -1.05277486e-01 -5.56186866e-03 +4.16801244e-01 +3.91864777e-02 +2.23116875e-02 -1.32407784e-01 +1.74897879e-01 +2.68134978e-02 -2.27658093e-01 +4.69193943e-02 -1.66225091e-01 +1.08245239e-01 -2.35006452e-01 +1.54785626e-03 -1.19935215e-01 -3.94881338e-01 -9.60388109e-02 -1.52729109e-01 +6.17653988e-02 -2.51103342e-01 -2.53092915e-01 +5.82797511e-05 +3.39005083e-01 +4.67834398e-02 -7.50538856e-02 +2.46949062e-01 +5.69287967e-03 -1.86166495e-01 +6.18345365e-02 -2.53023654e-01 -2.18508169e-01 +1.44058555e-01 +2.06239372e-01 -2.36901402e-01 -3.49083878e-02 -2.56590635e-01 +3.33361447e-01 -8.85435939e-02 +5.22751391e-01 -2.55405083e-02 +1.01882152e-01 -3.64535511e-01 -5.99931292e-02 -2.30420709e-01 -2.33991608e-01 +8.77548754e-02 -6.86278045e-02 -9.08408388e-02 -1.30983114e-01 +1.70193419e-01 +1.01003483e-01 -3.77178043e-01 -2.42640972e-01 +2.75060356e-01 +1.29050866e-01 -4.06174421e-01 +1.21823754e-02 -7.00674877e-02 +2.06099570e-01 +2.24670619e-01 -3.07674289e-01 -2.00878024e-01 -3.82778019e-01 -8.90160799e-02 -2.88244963e-01 -1.17197335e-01 +2.93569237e-01 +2.92687148e-01 -4.95462120e-01 +1.65999219e-01 +1.10353187e-01 +1.45103738e-01 +6.56067058e-02 +1.05702974e-01 -9.51742753e-02 +2.35806942e-01 -1.71126619e-01 -7.85908997e-02 -2.62881875e-01 -1.51492534e-02 +2.74673081e-03 +2.52749156e-02 -8.22852645e-03 -1.66592807e-01 +6.00772388e-02 +1.90479085e-01 +6.23591058e-02 -3.74430805e-01 +2.52681226e-01 -3.54385599e-02 +1.90418407e-01 +8.36258456e-02 +1.12647094e-01 -1.92910388e-01 -3.21540162e-02 -1.98513083e-02 -7.33680427e-02 -2.98177183e-01 +1.59494489e-01 -1.17471619e-02 -2.23347291e-01 -4.53529596e-01 -8.62585008e-02 -2.19167069e-01 -1.68957099e-01 -3.30062002e-01 -1.70029834e-01 -1.76081061e-01 +5.17500117e-02 -7.82047883e-02 -1.01847753e-01 -3.81247811e-02 -1.63829446e-01 +2.65516669e-01 -4.64589074e-02 -1.03573531e-01 -2.91692197e-01 -9.11247209e-02 -5.18623879e-03 -1.57450750e-01 -1.22659273e-01 -2.37441644e-01 -2.28319779e-01 +7.08305389e-02 -3.39887589e-01 -5.19686099e-03 -7.15365782e-02 -7.65013993e-02 -1.75474063e-01 +1.13786086e-01 -8.04801509e-02 +2.61382818e-01 -1.31281447e-02 +1.53082252e-01 -5.49060516e-02 -1.02145150e-01 +1.15910910e-01 +1.23870485e-01 +1.39247000e-01 +1.14170015e-01 +1.20199420e-01 -1.63570642e-01 -1.33309523e-02 +1.67480558e-01 +2.83503115e-01 -2.99067311e-02 +1.15569979e-02 +2.70536959e-01 -1.06898226e-01 -9.38450620e-02 +7.00847656e-02 +2.84923613e-01 +3.01849127e-01 +2.04833388e-01 +2.46851251e-01 +1.70755357e-01 -1.08829305e-01 +3.16381902e-01 +6.66658655e-02 +4.25998688e-01 -7.85618350e-02 +1.47570238e-01 -7.43243471e-02 +1.96628153e-01 +1.31874951e-02 -5.34620546e-02 +6.38740957e-01 -1.59645200e-01 +1.85150683e-01 -9.49821249e-02 +2.51451492e-01 +7.29269981e-02 +1.97555766e-01 +1.11356474e-01 -2.04533674e-02 +3.89513969e-02 -1.96445569e-01 +1.87427044e-01 +1.87512979e-01 -1.52226817e-02 +2.18879342e-01 -3.93411547e-01 +3.84090036e-01 +3.76164243e-02 -5.65845193e-03 +6.93942234e-02 +4.50041384e-01 +9.54805240e-02 +2.76910234e-02 -2.43706033e-01 +1.60599574e-01 +3.43836665e-01 -8.89594108e-02 +1.06658883e-01 +3.55020344e-01 -1.05911218e-01 +6.04755245e-02 -1.47715416e-02 +9.14524272e-02 +1.01650804e-01 +3.65805149e-01 -3.12132269e-01 -1.36171058e-01 -5.12259722e-01 -3.04558307e-01 +1.42987967e-01 -2.89296001e-01 +3.09142202e-01 +4.39683795e-02 +2.43031457e-01 -3.73230577e-02 -1.41628325e-01 +3.36647063e-01 -3.50481868e-02 +1.55614376e-01 -1.70513112e-02 +7.40762055e-02 -9.54204202e-02 -1.36282936e-01 +3.44393224e-01 +3.91234905e-01 -2.51086235e-01 +4.60118577e-02 -3.36167485e-01 +1.24818414e-01 +1.12085089e-01 +2.35606447e-01 +1.67498276e-01 -6.38198256e-02 +4.72562239e-02 -2.38877237e-01 +2.43103400e-01 -1.78380847e-01 -3.67920160e-01 +2.39388138e-01 -2.38430202e-01 -6.67726249e-02 -7.72387139e-04 -1.40401023e-03 +7.75649492e-03 -1.84947431e-01 -4.36230650e-04 -5.81540205e-02 -2.47515157e-01 -2.64490664e-01 +2.29750071e-02 -3.38683933e-01 -1.20540679e-01 -4.20713564e-03 +1.89687479e-02 +3.43226828e-02 -2.70684153e-01 -3.28947455e-01 +5.02107739e-01 +3.40745300e-02 -1.95551038e-01 -5.17870039e-02 -1.44013790e-02 -4.16798927e-02 -1.57758519e-01 -3.17850381e-01 +1.85229883e-01 -3.50681961e-01 +2.64128417e-01 -2.33761594e-01 -1.53650403e-01 -9.85035673e-02 -2.22565874e-01 +1.29191220e-01 -4.16117497e-02 -1.76261276e-01 -1.99751183e-01 -2.17116117e-01 +5.12957454e-01 -9.94049236e-02 +2.91484416e-01 -4.60969210e-01 +6.30047992e-02 -1.91473112e-01 -1.84662446e-01 -3.40288937e-01 -4.17756587e-02 -5.13949990e-02 -3.06951012e-02 -2.46791989e-01 +5.39172366e-02 -5.69773614e-01 -7.44262710e-02 -5.58851719e-01 +7.20648542e-02 -1.08156547e-01 -5.39250001e-02 -1.91102654e-01 -1.84764147e-01 -8.34752768e-02 +5.32494374e-02 +1.86511040e-01 +6.49786890e-02 -2.48046964e-01 +2.22755864e-01 -1.20163940e-01 -5.42703345e-02 -3.19363698e-02 +4.50855084e-02 +1.09837681e-01 -2.14551032e-01 -2.67661899e-01 -4.50730883e-02 -1.35529026e-01 -3.64826590e-01 -1.71861053e-01 -2.43927538e-02 -4.32762764e-02 -3.26547593e-01 -3.24389577e-01 -1.95213616e-01 +1.00950472e-01 -3.61729383e-01 +4.34859917e-02 -1.74744874e-01 -2.34568566e-01 +1.38265908e-01 -1.60780340e-01 -2.09109485e-01 -4.32172328e-01 +5.26466928e-02 -1.38015009e-03 +9.26345121e-03 -1.29339322e-01 -1.98637396e-02 +1.50718559e-02 +1.02809221e-02 +4.26885821e-02 +1.84818879e-01 -1.56512216e-01 +2.66427636e-01 +1.42836750e-01 +2.80919254e-01 +1.81944013e-01 -5.20545803e-02 +6.25018403e-02 +2.72541583e-01 +7.35183135e-02 -5.89038339e-03 +3.19470257e-01 -1.56111419e-01 +2.23797187e-01 +2.48346776e-01 -7.33950436e-02 +2.61670768e-01 +1.75974980e-01 +3.05124164e-01 +1.75677642e-01 -1.69808522e-01 +1.28849477e-01 +3.14981699e-01 -1.51623532e-01 +2.55244583e-01 +1.15488008e-01 +1.73587948e-01 -1.06660441e-01 +1.72165141e-01 +2.06045464e-01 +1.66866243e-01 -1.71107296e-02 +1.71455905e-01 +2.24485770e-01 -5.08288331e-02 +2.45770782e-01 -2.89324075e-02 +2.41791178e-02 -1.36562124e-01 +4.84420396e-02 -4.18747872e-01 +3.80368799e-01 -1.32183403e-01 +4.73803222e-01 -4.95502874e-02 +5.53133845e-01 +3.61012332e-02 -1.41568646e-01 +2.92855740e-01 -3.09014053e-04 -7.10045546e-02 +1.38601199e-01 +2.60449871e-02 -1.45341933e-01 +3.96601051e-01 +5.07390127e-02 -8.41641054e-03 -9.66613293e-02 +1.98201641e-01 +2.11036712e-01 +3.02543133e-01 -2.31012329e-02 +2.14011595e-01 +1.67139232e-01 +6.88928068e-02 +5.65807857e-02 +3.27160865e-01 -3.68827164e-01 +2.56911814e-01 +8.79224688e-02 +1.37086436e-01 +2.97804773e-01 -9.69645977e-02 -4.97741513e-02 -4.93887998e-02 -5.48672117e-03 -2.86440283e-01 -1.99908670e-02 +2.89162993e-01 -8.64385907e-03 -7.28999227e-02 +1.00792944e-01 -8.51298422e-02 +2.25998700e-01 +2.08041832e-01 +1.34729564e-01 -1.31035060e-01 +1.09884692e-02 +2.49245137e-01 -2.50748601e-02 +1.90414116e-01 +2.26464421e-01 +3.84265542e-01 -3.39671522e-02 -2.98311174e-01 +1.56005442e-01 -9.75115895e-02 -7.29659423e-02 -1.86289564e-01 +4.54964302e-02 -3.54197137e-02 +2.92162955e-01 +3.60923380e-01 -3.03608745e-01 -4.86876443e-02 -3.83946121e-01 +4.57066745e-02 +1.01293936e-01 +2.90782332e-01 -3.92292410e-01 -2.47092232e-01 +1.47614256e-01 -4.33743596e-02 +2.56189555e-01 -2.89330930e-01 -1.38588428e-01 -1.47161230e-01 +1.01875104e-02 +4.85648811e-01 +2.23940298e-01 -2.92161494e-01 -6.81582780e-04 +2.00127229e-01 -1.57369480e-01 -2.98292756e-01 +1.95072100e-01 -4.64158505e-01 +9.71700158e-03 -1.42821446e-01 -8.44475850e-02 -2.84948796e-01 -1.31119803e-01 -1.34806499e-01 -3.53731275e-01 -1.58011287e-01 +3.79856288e-01 +5.15043512e-02 +1.63336974e-02 -1.54182002e-01 -7.03249797e-02 +5.55299297e-02 +2.11706206e-01 -4.12225366e-01 +4.57533263e-02 -1.64653644e-01 +3.29344600e-01 +7.00004324e-02 +9.11254659e-02 -2.97933161e-01 +2.56857663e-01 +7.19629005e-02 +9.52578261e-02 +2.78516740e-01 +1.83336064e-02 +6.65555149e-02 +3.67349058e-01 -1.08378194e-01 +3.18268001e-01 +4.96427476e-01 -6.34149835e-02 +1.35561109e-01 +3.70543212e-01 -2.02572837e-01 +1.31148040e-01 -3.21915090e-01 -7.88646415e-02 -5.88744618e-02 +4.45356637e-01 -2.08688620e-02 -3.23271066e-01 -3.00176889e-01 -3.30383271e-01 +1.68447450e-01 +2.23539352e-01 +1.25919685e-01 +1.68390110e-01 +3.44856083e-02 +1.92685172e-01 +1.51510984e-01 +1.29856512e-01 +3.08800459e-01 +7.92286173e-02 +2.41771907e-01 +1.89676672e-01 -4.65951115e-02 +8.71001482e-02 +7.04960003e-02 +4.42159474e-01 -2.80787256e-02 -2.24405229e-01 -1.98031068e-01 +7.80802667e-02 -3.25489372e-01 +1.56706050e-01 +6.56087920e-02 +2.31486991e-01 +4.96894956e-01 +3.62995505e-01 +5.46043329e-02 +2.44434237e-01 +2.40903139e-01 +2.26793662e-02 +1.82100665e-02 +1.45945549e-02 +1.72179848e-01 -2.64543835e-02 +1.04345314e-01 -1.03183828e-01 +2.93559611e-01 +1.47751004e-01 -5.92957027e-02 +4.48451191e-01 +2.17746556e-01 +2.13263288e-01 -1.22596636e-01 -1.63006663e-01 +4.71234173e-02 +1.18731223e-01 +7.48103932e-02 +2.31339529e-01 +1.15671650e-01 -2.11378366e-01 +2.05035299e-01 -1.14970542e-01 +5.21811426e-01 +1.01327695e-01 +3.06039512e-01 -1.55315669e-02 +2.64233440e-01 +5.11769831e-01 +1.36113837e-01 +3.56179595e-01 +3.76270026e-01 +4.01953638e-01 +1.41605437e-01 +6.40642568e-02 -1.95084438e-02 +1.75766870e-01 +1.49839744e-01 +3.03075671e-01 +1.55939711e-02 +2.35598430e-01 -1.33144617e-01 +5.21740258e-01 +9.02147070e-02 +1.25408411e-01 +5.31221628e-02 -1.04291230e-01 -3.09208632e-01 +4.49479334e-02 +2.75745749e-01 -5.91204278e-02 +2.28195325e-01 +1.44724041e-01 +1.13791697e-01 +1.02588651e-03 +2.10034296e-01 -6.52362183e-02 +1.61504760e-01 -1.45955771e-01 +1.47575364e-01 +9.93328169e-04 -4.10309970e-01 +1.07229777e-01 -2.54600257e-01 -3.20873946e-01 +1.53346062e-01 +1.06101811e-01 -3.05552632e-01 -5.56349874e-01 -3.65084261e-02 -4.08981889e-01 +4.60784793e-01 -1.46905929e-01 -1.93851460e-02 -3.15390199e-01 -4.83045653e-02 +1.25462145e-01 -2.82206177e-03 +2.91576713e-01 -1.35772139e-01 +3.50013345e-01 +3.26676875e-01 +2.66431309e-02 +1.84721887e-01 +4.29528132e-02 -4.15088907e-02 +8.25242698e-02 +7.23994598e-02 -3.45357895e-01 -4.68109190e-01 -1.73363373e-01 -3.56871784e-01 +2.91492075e-01 +1.77763775e-01 -2.54827023e-01 +2.52840966e-01 +1.37894884e-01 -1.99502736e-01 +8.49054158e-02 +1.87587868e-02 +2.29417056e-01 +8.99960473e-02 -3.93938795e-02 -1.05853856e-01 -1.00413635e-01 -1.40802979e-01 -2.91576356e-01 +7.94449151e-02 -1.61205888e-01 -1.63145497e-01 +3.69524330e-01 -1.54108122e-01 +1.30054623e-01 -1.20155945e-01 -5.03468439e-02 -8.81288126e-02 +2.55604312e-02 +1.75867960e-01 -2.31918748e-02 -1.23651817e-01 -4.74007316e-02 +3.36693197e-01 +8.14334601e-02 +2.44003624e-01 +1.61713570e-01 -4.04314518e-01 -4.74329107e-02 +2.32622489e-01 -2.03428030e-01 +1.12100765e-01 +2.74194211e-01 -6.35743737e-02 -1.47926018e-01 -1.72045469e-01 +5.17973080e-02 +2.85533637e-01 -1.16877826e-02 +2.03454077e-01 +1.15327984e-01 -2.95905054e-01 +2.60285348e-01 -1.48777202e-01 +6.29899427e-02 -3.35391134e-01 +2.90787399e-01 -2.02654377e-02 +1.61184207e-01 -2.82630414e-01 +3.15306187e-02 +2.53688037e-01 -8.39286577e-03 +2.63764858e-01 -5.07349931e-02 -3.24779391e-01 -2.96652257e-01 -1.87204331e-01 -2.31375486e-01 +9.56673175e-02 -3.61314058e-01 -1.46450877e-01 -1.46154657e-01 -1.15698449e-01 -2.26680502e-01 -2.70486146e-01 -4.69058380e-02 -2.96743661e-01 -3.40876579e-01 -1.17121719e-01 -6.21670425e-01 -1.22525685e-01 -2.15706248e-02 +1.28224179e-01 +1.84195470e-02 -1.15797259e-01 +1.06140286e-01 -2.60132492e-01 -1.35239884e-01 -1.79831088e-01 +7.13652149e-02 +1.31958559e-01 +2.61005580e-01 -1.31861135e-01 -4.47944850e-01 +1.57867163e-01 -5.75644709e-02 -1.09894574e-01 -9.45687070e-02 -1.49505809e-01 -3.04428458e-01 -3.06144774e-01 +1.21204615e-01 -4.14711058e-01 -2.61321098e-01 -7.46841803e-02 +1.70349109e-03 +1.99736342e-01 -6.87075034e-02 +2.66990513e-01 +1.21298134e-01 +1.12200432e-01 -6.93852901e-02 -1.33091018e-01 +2.76876837e-01 +1.05026796e-01 +4.04659629e-01 +4.22589108e-02 +2.30783716e-01 -1.68340832e-01 -2.46089354e-01 +5.87554425e-02 +1.16186582e-01 -2.75106393e-02 -5.75520955e-02 -2.15943530e-01 +2.08521947e-01 -1.30109578e-01 -1.78613961e-01 -3.29653084e-01 -1.12946078e-01 +2.28358507e-02 -1.78293616e-01 -2.59147584e-01 +1.14639111e-01 -1.82409137e-02 -7.71922991e-02 +4.15461928e-01 -2.81282753e-01 +1.41104683e-01 -2.64860019e-02 +1.46470770e-01 -1.31527826e-01 +1.21639222e-01 +7.03645349e-02 +3.07430178e-01 -3.54865104e-01 +1.20780073e-01 -2.98161924e-01 -3.13792467e-01 -1.25683397e-01 +3.07276666e-01 -7.46889189e-02 +1.78319529e-01 -4.46679413e-01 -2.00384587e-01 -1.44068182e-01 -3.47366124e-01 +2.17291579e-01 -2.55576432e-01 +5.21786690e-01 +7.56280124e-02 +7.29651973e-02 -7.33234510e-02 +2.39965633e-01 +1.97883770e-01 +3.25053364e-01 +1.25339672e-01 +8.28763098e-02 +4.21313375e-01 -4.08502072e-02 +3.93995196e-02 +4.40869555e-02 -2.57653445e-01 +2.45815977e-01 -3.98237467e-01 -2.68676400e-01 +2.05864295e-01 +9.57764462e-02 -5.51500656e-02 -3.02152902e-01 -1.42311245e-01 -1.54638067e-01 +1.17055155e-01 -1.79796502e-01 -9.95553881e-02 +6.22683726e-02 +4.06784192e-02 +6.86699674e-02 +2.47352228e-01 +1.24037012e-01 -1.36309549e-01 -2.12010339e-01 +3.12084556e-02 +1.09176069e-01 -6.65917946e-03 +1.73419580e-01 +3.38435590e-01 +5.71258366e-02 -1.45623654e-01 -6.04627877e-02 -3.34256113e-01 +4.72316332e-03 -1.22441575e-01 +9.61407274e-02 +2.25608647e-02 -2.60247290e-01 +1.94141895e-01 -2.68686473e-01 +2.75993854e-01 -2.42645442e-01 -2.64208376e-01 -1.15073286e-01 -6.24613352e-02 -2.38128737e-01 +1.19522326e-01 -2.38574505e-01 -6.08669370e-02 -2.15029955e-01 -2.99769104e-01 +1.39298111e-01 -1.23788163e-01 -4.01371360e-01 +7.38055110e-02 -1.96057409e-01 +3.52176100e-01 +1.21518724e-01 +4.95221131e-02 -3.21652085e-01 +1.01675212e-01 +3.26767087e-01 +4.35360372e-01 +1.91360757e-01 -6.20896697e-01 -4.97310422e-02 -2.00864896e-01 +2.39173681e-01 +2.02010900e-01 -3.15580934e-01 -1.04086094e-01 -2.18412369e-01 +1.30806351e-02 -4.23789546e-02 -5.58077872e-01 +2.39889756e-01 +2.51560304e-02 -1.51113197e-01 -1.52429372e-01 -2.20448673e-01 -4.04532179e-02 +1.67958453e-01 +4.15402979e-01 -1.72529846e-01 +1.20644726e-01 -3.24468642e-01 -5.02847740e-03 -2.51963258e-01 -2.64689595e-01 +1.37625132e-02 -1.40132681e-01 +3.58909696e-01 +3.37206393e-01 +1.96847484e-01 +3.22408557e-01 +2.64916360e-01 -2.44615063e-01 +1.21127740e-01 +3.58929373e-02 -7.96090886e-02 -3.21556702e-02 -1.87483393e-02 +2.27473214e-01 -1.31435990e-01 -1.71773106e-01 +3.05889338e-01 -3.55251953e-02 +4.83707488e-02 -1.62167385e-01 +2.52994984e-01 -1.11155119e-02 -2.67448157e-01 -2.39500999e-01 -2.93082654e-01 +3.65169376e-01 +5.17141679e-03 +2.60125846e-01 -1.29495068e-02 +1.27982840e-01 -2.29091391e-01 +4.34507020e-02 -1.74935199e-02 -5.48127331e-02 -1.53884534e-02 +3.44985187e-01 -1.11146666e-01 +2.30785593e-01 +2.37253189e-01 +5.30124269e-02 +8.01075026e-02 -3.18210237e-02 -1.22320456e-02 -3.11320186e-01 +1.48924977e-01 -2.97667176e-01 +5.98013541e-03 +9.47894379e-02 -1.95528477e-01 +2.32637942e-01 -3.22476029e-01 +3.24420422e-01 -2.05350488e-01 -2.86751628e-01 -2.76729852e-01 -1.25221238e-01 -3.04670960e-01 -5.68711013e-02 +1.99971065e-01 -2.78314024e-01 -2.46904135e-01 -2.81671941e-01 -2.38830969e-01 -9.58096236e-02 -1.00247614e-01 -1.32864863e-01 -7.62160122e-02 -3.00958436e-02 +1.43124670e-01 -3.00421357e-01 -3.21796745e-01 -1.57645956e-01 -4.56067979e-01 +2.55203724e-01 +1.97449163e-01 -2.60824174e-01 +1.46745309e-01 -2.86893010e-01 -7.51278503e-03 +1.78031445e-01 -2.17802644e-01 +7.12039173e-02 -5.73685944e-01 -8.99511799e-02 -2.31978431e-01 -3.71472865e-01 +1.01677366e-01 +6.72149807e-02 -3.56624752e-01 -3.93606991e-01 +1.01746157e-01 +9.29660350e-02 +4.76700068e-02 +1.91589653e-01 -4.90368783e-01 +1.52480930e-01 -2.46663392e-01 +1.91376522e-01 -6.42859757e-01 -2.26636812e-01 -7.68958926e-02 +1.29610330e-01 -6.80710301e-02 -9.24041718e-02 -4.22268242e-01 -3.54485214e-01 -1.86632469e-01 +1.11478962e-01 -5.12206435e-01 -2.72886217e-01 -2.88049430e-01 -8.01260769e-02 -1.60649866e-01 +1.19028099e-01 +8.40769112e-02 +2.67529219e-01 -3.49349290e-01 -1.42976090e-01 -1.44926861e-01 -1.10428683e-01 -1.51291788e-01 +6.77626804e-02 +8.40749145e-02 -1.75054044e-01 +1.94404602e-01 -3.54198247e-01 -2.87876308e-01 -1.47158410e-02 -1.55924588e-01 -4.44969088e-01 +3.20559666e-02 -1.83002979e-01 -3.36500645e-01 -3.70469779e-01 -2.88551599e-01 -8.33256021e-02 -2.66869534e-02 +3.86552773e-02 -1.65711135e-01 -1.15758628e-01 -1.89597398e-01 -2.43137926e-01 -1.26371279e-01 +2.87906617e-01 -2.66947538e-01 +2.11112767e-01 -3.27877045e-01 -2.48889565e-01 -1.53158307e-01 -4.37666804e-01 -3.40933762e-02 -3.54584485e-01 -1.46476895e-01 -2.09872350e-01 -3.25423867e-01 -8.35056975e-02 +5.13338484e-02 -3.59838128e-01 +1.21042281e-01 -2.98036784e-01 -6.61383718e-02 +1.02459177e-01 -4.61941004e-01 -3.43365610e-01 -3.87902170e-01 -4.39906150e-01 -1.24487169e-01 -3.19480240e-01 +2.45146006e-02 -6.39240220e-02 +7.39292847e-03 -1.99361190e-01 -4.61326271e-01 -3.77075434e-01 -2.00593427e-01 +6.67277351e-02 -3.33003968e-01 -3.32164228e-01 +5.74406944e-02 -1.27054557e-01 -9.53498632e-02 -1.68673194e-03 -2.51303732e-01 -1.79537043e-01 -1.77700609e-01 +9.58238170e-03 +3.66593599e-02 +1.09642737e-01 -3.34669411e-01 -1.83314323e-01 -3.81937683e-01 -4.07559285e-03 -4.47557181e-01 -1.27344444e-01 -4.32027280e-02 -2.21009046e-01 -3.88185740e-01 -4.82920676e-01 -6.27629757e-01 -2.15316862e-01 +1.91371471e-01 -9.10913348e-02 -2.23336160e-01 -2.32152790e-01 +6.99457750e-02 -3.29643041e-01 +5.05364947e-02 -2.44671017e-01 -1.95350219e-02 -1.22947916e-01 -2.41880734e-02 -4.30376172e-01 +3.11028779e-01 -6.76746741e-02 -1.79689571e-01 -8.21279511e-02 +1.62079513e-01 -3.62783521e-02 +2.93382525e-01 -4.88851815e-02 -1.12391479e-01 +4.76562530e-02 -1.77222416e-01 -1.70664713e-02 +4.05500859e-01 -5.50616622e-01 +9.74183157e-02 -2.13513717e-01 -2.20920324e-01 -2.92194277e-01 +3.09824999e-02 -3.17887627e-02 -5.62893748e-01 -7.84445554e-02 -3.45741719e-01 -5.03211975e-01 -3.10320407e-01 -5.51490225e-02 -5.52458882e-01 -1.37666479e-01 -2.48259127e-01 -1.71989948e-01 +3.24274421e-01 +3.56100291e-01 +1.45397365e-01 +4.32406105e-02 -3.82628769e-01 -1.94753706e-01 -3.64793599e-01 -2.00997055e-01 +2.21517999e-02 -2.61105388e-01 -1.58454478e-01 -8.99796933e-02 -2.67342776e-01 -1.17380932e-01 -4.68673445e-02 -2.11864471e-01 -5.75738132e-01 +1.25655821e-02 -2.82571971e-01 +9.01786610e-02 +3.89764421e-02 -1.76199809e-01 +2.05454007e-01 +3.76811773e-02 +2.58690625e-01 -2.64929593e-01 -2.39983141e-01 +2.87841689e-02 -2.07502574e-01 -4.21588570e-02 -1.22352853e-01 -2.38430083e-01 -6.58373088e-02 +3.98908466e-01 -3.00549895e-01 +1.00647457e-01 -3.08497071e-01 -4.83310848e-01 -1.05085053e-01 -2.15270091e-02 -1.05495397e-02 -3.40766132e-01 +2.67228652e-02 +2.30942339e-01 -2.59267479e-01 +2.15216070e-01 +2.40027830e-01 -1.73383668e-01 -2.54575193e-01 +1.33578405e-01 -3.59717041e-01 -5.45057237e-01 +9.23279598e-02 -1.45831048e-01 +2.05464140e-01 -2.16272861e-01 +1.55854762e-01 -6.90102857e-03 +2.04029977e-01 +8.41755942e-02 -5.09367660e-02 +1.48363620e-01 -1.08895071e-01 -3.37478906e-01 +3.73679139e-02 +1.12850316e-01 +4.89592075e-01 -2.72236854e-01 -2.06035852e-01 -2.89057553e-01 -1.21679090e-01 -8.46570730e-03 +9.80003402e-02 +2.30464600e-02 -2.69573241e-01 +2.98531689e-02 +1.94104388e-02 +1.53121635e-01 +1.01389505e-01 -1.06161073e-01 +3.08492389e-02 +2.45398551e-01 +1.61625892e-01 -5.11130631e-01 +2.51147270e-01 +6.01886511e-02 -8.05667490e-02 +5.59609056e-01 -2.46799037e-01 +2.78377622e-01 -2.84321278e-01 +2.79356092e-01 -1.79146767e-01 -1.27121985e-01 +7.41780877e-01 +1.48213312e-01 -2.33797953e-01 +1.27150938e-01 -1.52278766e-01 +1.38531089e-01 -2.25052848e-01 +3.15157056e-01 +2.75866032e-01 +1.24743864e-01 -2.70969599e-01 +3.21424097e-01 -1.81928109e-02 -1.37204424e-01 +2.17209384e-01 -3.83756787e-01 +5.51026314e-02 -9.88880321e-02 +1.29801869e-01 -6.85078874e-02 -1.79174826e-01 -1.03507198e-01 -2.48186663e-01 -1.24433689e-01 -3.93965304e-01 +1.51928306e-01 -1.58037230e-01 +2.42871910e-01 +1.10864550e-01 -2.14817878e-02 +2.87560880e-01 -3.89265984e-01 +3.64744216e-02 +1.91206589e-01 +1.22109182e-01 +7.00587258e-02 -1.66178703e-01 -5.10680258e-01 -2.69574642e-01 +5.11917025e-02 -2.14856833e-01 +2.03114733e-01 +2.33221594e-02 -8.70098621e-02 -4.64071929e-02 +1.35179520e-01 +8.15280527e-02 -7.07138926e-02 -1.03973657e-01 -1.86795041e-01 -6.51153266e-01 +2.66768306e-01 -5.72397606e-03 +1.34764612e-01 -1.61531895e-01 -1.53618110e-02 +1.03129409e-01 -6.15115106e-01 +2.71167368e-01 -2.54571140e-01 -1.68239698e-01 -3.26962024e-01 -3.91781777e-02 +2.21477732e-01 +5.27290292e-02 +4.09495592e-01 -3.84301066e-01 -3.17354649e-01 +1.60791442e-01 +9.56132933e-02 +1.15722440e-01 +2.10166886e-01 -1.84192941e-01 +1.85332924e-01 -2.99336255e-01 -1.01304159e-01 +3.39725345e-01 -3.15021873e-01 -6.56269118e-02 +5.14932930e-01 -2.35784933e-01 +5.17335057e-01 +1.18533105e-01 +7.26098269e-02 -3.80382031e-01 +3.22466612e-01 +3.57526481e-01 +3.09331506e-01 +2.02977046e-01 -4.06493038e-01 +3.31307143e-01 -4.72632237e-02 -3.96439247e-02 +4.52987328e-02 +2.39038080e-01 -1.25780523e-01 -3.27083841e-02 -1.89495131e-01 -1.46921039e-01 -2.26568088e-01 +2.09048882e-01 +2.17194289e-01 +1.53472628e-02 -1.16022632e-01 -1.38960078e-01 -1.68966368e-01 +4.01691377e-01 +4.90298390e-01 +6.35656640e-02 +2.35892773e-01 +1.60482675e-01 -1.15778409e-01 +2.90632069e-01 -2.99288779e-01 -2.88717449e-02 -1.48463240e-02 -3.78922403e-01 -3.60251576e-01 -2.01980338e-01 -3.31396371e-01 -2.04661742e-01 -4.37067598e-02 -2.81538397e-01 -2.28848979e-01 -2.82601148e-01 -2.04112113e-01 +8.38690475e-02 -1.06407627e-01 +4.58521349e-03 -6.05979152e-02 -1.26398101e-01 +2.67660199e-03 -9.40326750e-02 -3.61696142e-03 -1.22751944e-01 +7.18429759e-02 +2.64896154e-01 +1.95957750e-01 +1.72691956e-01 -5.56444108e-01 -1.12842374e-01 -3.13195527e-01 -3.31255227e-01 -3.46162796e-01 -1.83322892e-01 +1.59169540e-01 -4.65825468e-01 +7.56942704e-02 -2.48227507e-01 -2.44640872e-01 -1.22134946e-01 -2.04480141e-01 -3.28960061e-01 -1.24471620e-01 -4.54791903e-01 -2.09838927e-01 +9.25380439e-02 +2.04974815e-01 -2.50323325e-01 +3.83621722e-01 -3.07078958e-01 +3.59968580e-02 -1.24413237e-01 -3.84711564e-01 +2.80332426e-03 +1.85729727e-01 -9.53849778e-02 +1.01326570e-01 -1.39298290e-01 +4.29462595e-03 +1.01615697e-01 +1.04547679e-01 +3.89751196e-01 +6.55726939e-02 +1.72432259e-01 -4.70594466e-02 +8.12685043e-02 -1.33185238e-01 +1.42652635e-02 -5.25349453e-02 +5.94006591e-02 +3.82811427e-02 -1.56710201e-04 -4.62920070e-02 +1.40047222e-01 +1.04054458e-01 -1.14636287e-01 +2.63276458e-01 +1.43319052e-02 -4.86084402e-01 +9.75699425e-02 -2.83061773e-01 +1.12380028e-01 +2.62114823e-01 -2.91666806e-01 -7.93517604e-02 -3.64548802e-01 +1.40975434e-02 -2.11675778e-01 -1.69655710e-01 +4.52107489e-01 -2.06268102e-01 -1.60352349e-01 -3.41920815e-02 +2.33008802e-01 +1.45704046e-01 +1.47004709e-01 +2.02526137e-01 -3.97670060e-01 +3.30412418e-01 -1.77642927e-01 +1.20202184e-01 -2.22344890e-01 -2.73137331e-01 +2.08580390e-01 +1.51995018e-01 +1.48123711e-01 -1.09327398e-02 -8.86149928e-02 -1.63504824e-01 +2.97665652e-02 -2.54611652e-02 +4.07417536e-01 -5.27722597e-01 +1.57383848e-02 -5.57370447e-02 -1.76923219e-02 +7.65660629e-02 +9.32592824e-02 -3.44071276e-02 -5.47573715e-02 +1.87204763e-01 -5.38934395e-02 +3.07444096e-01 -1.71751827e-02 +1.11806907e-01 -7.39435628e-02 -1.56568483e-01 -9.06881616e-02 +9.65771675e-02 -1.65110469e-01 -3.95654812e-02 -2.11042523e-01 +1.77212372e-01 +1.50007218e-01 -1.99971423e-01 +3.36462438e-01 -2.65259910e-02 +1.24642156e-01 -6.14117533e-02 +1.96851328e-01 -2.81259924e-01 -1.04910277e-01 -5.49909435e-02 +1.00524358e-01 -1.28120542e-01 +7.56524876e-02 +1.56176269e-01 +2.92757243e-01 +1.67917535e-01 +3.60876530e-01 +4.10125367e-02 +1.44120887e-01 -2.15005547e-01 +9.73194465e-02 +1.48678064e-01 -3.26252699e-01 -1.44215122e-01 +2.59898692e-01 +1.41735807e-01 -4.91945334e-02 +9.69204158e-02 -1.74803585e-01 +2.85656005e-01 -7.50422403e-02 -3.43105555e-01 +3.11973870e-01 +1.79050982e-01 -2.50975251e-01 +1.63596168e-01 -1.24256536e-01 +5.09886444e-01 +2.76534438e-01 +2.72164732e-01 -1.66009009e-01 +3.58075559e-01 +7.48313844e-01 +8.64835829e-02 +3.88910979e-01 -5.81871718e-02 -6.10659234e-02 -8.03696588e-02 -1.39632434e-01 +4.80774306e-02 -1.59277737e-01 +5.93185909e-02 +1.52592540e-01 -2.27978826e-01 +2.39144936e-01 -1.34606317e-01 -1.84268549e-01 +1.68886185e-01 +8.06230027e-03 +1.29349217e-01 +1.70559123e-01 -7.25500211e-02 +4.42711234e-01 +7.37688318e-03 -2.57540107e-01 +6.29500821e-02 +1.78844914e-01 -4.56263684e-02 +1.34882703e-01 +2.52132136e-02 +2.93294284e-02 +4.47315648e-02 +7.56352618e-02 +3.12428743e-01 -2.22856760e-01 -5.28004728e-02 +1.59968764e-01 -1.08497553e-01 +3.33354920e-01 +1.93033308e-01 +4.13046218e-02 +1.70035169e-01 -1.13880835e-01 +3.47539783e-01 -4.36302200e-02 -3.61713737e-01 +2.44616587e-02 -4.37349528e-02 -1.96329504e-01 -1.07459493e-01 +4.20474410e-01 +6.52844738e-03 -2.65351087e-01 -5.18031903e-02 -6.34994730e-03 -3.56971729e-03 -1.35221660e-01 -1.06332764e-01 -2.17517823e-01 +1.48555920e-01 -6.94381818e-02 -8.50934088e-02 +1.67485490e-01 +6.51401430e-02 +1.03683658e-01 +2.07055107e-01 +2.89788812e-01 +1.25838816e-01 +1.37119055e-01 +1.83076739e-01 +8.02648813e-02 +1.27407387e-01 -1.72937512e-01 -5.54235056e-02 -2.67599255e-01 +8.94468576e-02 -1.77051097e-01 +3.42158943e-01 -1.68005273e-01 -6.82134703e-02 -9.98360738e-02 -3.22557271e-01 +2.25296207e-02 -8.18100350e-04 -3.61592561e-01 +9.69895348e-02 +1.92625113e-02 -3.09594184e-01 -1.82957143e-01 -7.88734574e-03 +4.18807454e-02 -1.27470449e-01 -4.42221582e-01 -2.03407913e-01 +1.10378735e-01 -3.88156325e-01 +3.12469900e-01 -6.04593873e-01 -2.25666836e-02 -6.30599931e-02 -3.94917242e-02 -4.55360055e-01 -4.26781863e-01 -6.59747124e-01 -3.58970374e-01 -2.05809966e-01 -3.43114644e-01 -3.00276488e-01 -1.21958226e-01 -2.71913201e-01 +3.56091652e-03 -2.09569603e-01 -1.96464032e-01 -2.81107605e-01 +2.67015815e-01 +2.33941823e-01 -5.29481292e-01 +3.49397585e-02 -2.77754273e-02 -1.04214802e-01 -1.41108379e-01 -6.60110340e-02 +9.33245197e-02 -2.49897674e-01 -1.73312977e-01 -2.37255484e-01 -3.14573914e-01 -4.04287130e-01 -6.54624775e-02 -2.32167244e-02 -7.07828328e-02 +3.38722229e-01 +2.77999789e-01 +1.43574119e-01 -2.87533551e-01 -4.40661758e-02 +3.49877000e-01 +2.80593157e-01 +2.63416171e-01 -3.71235311e-02 +1.37309492e-01 -1.73353538e-01 +1.24070118e-03 -1.06809631e-01 +1.89606592e-01 +5.42375185e-02 -1.95849255e-01 +1.38361186e-01 +1.01564221e-01 +1.24839775e-01 +8.50932524e-02 -8.11867043e-02 +2.57747233e-01 +4.75366145e-01 +8.62353444e-02 -2.46632755e-01 +3.16120178e-01 +1.71602532e-01 +1.20961510e-01 +8.66885036e-02 -1.37129709e-01 +2.80994564e-01 -2.36515388e-01 -1.81617901e-01 +1.56901091e-01 +1.11090183e-01 +4.03244287e-01 +2.86970637e-03 +7.15006143e-02 -9.67782736e-03 -7.06402287e-02 -2.58789193e-02 -1.66263431e-01 +5.06868064e-01 -2.65021890e-01 +3.87822777e-01 -4.26195413e-02 +1.65902525e-01 +7.85620958e-02 -2.69961029e-01 +2.50206441e-01 -7.71063045e-02 +2.48229727e-01 -7.79392198e-02 +5.75864203e-02 -1.37329157e-02 -1.26632422e-01 +2.94789433e-01 -3.22750151e-01 -1.81976128e-02 -1.03540190e-01 +3.40222985e-01 -3.62362951e-01 +3.08233023e-01 +3.87898475e-01 -5.87169826e-02 +3.55028808e-01 -1.69761583e-01 +6.14081174e-02 +3.20427746e-01 -1.45714268e-01 -1.59003124e-01 +1.63825080e-01 -4.77791786e-01 -6.32406175e-02 +3.49540889e-01 -9.22253579e-02 +3.45412642e-02 +6.63707554e-02 -2.31742889e-01 +1.41371518e-01 -6.43667057e-02 +4.38509852e-01 -1.51107088e-01 -8.91480967e-02 +1.91852733e-01 -3.48052263e-01 -9.66308266e-02 +3.23401600e-01 +2.79861838e-01 +3.63881178e-02 -5.90733401e-02 -2.57229060e-02 -1.63105667e-01 +4.38682199e-01 +2.09039617e-02 +9.49093178e-02 -3.95022184e-02 +2.64282972e-01 +1.97370142e-01 +1.45714646e-02 -4.58887935e-01 +7.71066025e-02 +1.06312320e-01 +2.78639138e-01 +3.72750759e-01 +1.25456274e-01 +2.63283402e-01 -4.04870987e-01 +1.36593312e-01 +6.16737641e-02 +4.25627828e-02 +2.39570327e-02 +1.04386918e-01 +2.88733635e-02 -1.33704081e-01 +5.62825538e-02 -3.33801806e-01 +7.28133544e-02 -6.77039176e-02 -3.99352536e-02 -1.25321671e-01 -1.23543561e-01 -7.26799518e-02 -2.11386189e-01 +1.20573737e-01 +5.63498214e-02 +2.58795708e-01 -1.60538536e-02 -3.25797647e-01 +2.05291122e-01 +2.97688663e-01 +3.81804109e-01 +2.01915234e-01 +1.03649370e-01 +2.97494829e-01 -3.07300419e-01 -1.34328753e-01 +1.68398991e-01 +1.50637239e-01 +1.88001946e-01 +6.19163327e-02 +1.84625983e-01 -3.26534867e-01 +2.88061192e-03 +1.13523528e-02 -1.34169757e-01 +1.62181750e-01 +1.06510140e-01 +3.65937680e-01 -6.91830888e-02 +2.55164891e-01 -1.10143110e-01 +2.63282470e-02 -6.61237985e-02 +5.84580265e-02 -4.97655496e-02 -3.40839803e-01 -4.18155603e-02 -7.70496279e-02 -4.81064469e-01 +2.43323013e-01 -2.08034769e-01 -3.59991968e-01 +2.97063351e-01 +3.60489562e-02 +2.01974601e-01 +2.98095196e-01 +1.66435942e-01 +2.49107510e-01 -3.20097029e-01 +3.03013790e-02 +2.03744084e-01 -1.74846411e-01 -1.54290602e-01 +1.52741969e-01 -1.03426404e-01 +1.66958109e-01 +5.31772897e-02 -1.54582515e-01 +1.58001542e-01 -3.75391573e-01 +7.49662742e-02 +1.40704796e-01 -3.27733159e-02 -3.40443105e-02 +8.33145157e-03 -1.87205419e-01 +3.51625592e-01 -2.18632758e-01 -5.62098511e-02 +3.69061790e-02 -2.71515128e-05 -1.66013002e-01 -1.63151622e-01 -2.64411718e-02 +2.30502207e-02 -1.09909020e-01 +3.04556787e-02 +1.18367799e-01 +8.13781321e-02 +5.21483362e-01 +3.05096716e-01 -1.55000538e-01 -8.99234414e-03 +6.51202500e-02 +3.37024927e-01 +3.06617524e-02 +5.64867593e-02 +8.34175795e-02 -2.65202552e-01 -3.60691935e-01 +1.29769653e-01 +1.31434798e-02 -1.05356209e-01 +2.91397005e-01 -9.25901439e-03 +2.18685448e-01 +1.68316782e-01 +1.22855172e-01 -7.55975395e-02 -6.60465360e-02 -6.31233901e-02 +5.84956370e-02 +4.84859920e-04 -1.06610097e-01 -4.34089974e-02 -1.38720319e-01 -1.38736829e-01 +4.87437695e-01 -1.07295305e-01 +1.89888120e-01 +6.05732836e-02 +1.20286636e-01 -3.64193678e-01 -3.33179742e-01 +4.48865712e-01 +1.28325075e-01 -4.48443517e-02 +1.29496470e-01 -1.56364262e-01 -8.13974142e-02 -6.83941543e-02 +1.35760069e-01 -3.36370796e-01 +5.19255996e-02 -3.75070088e-02 +1.03669614e-01 -3.59913468e-01 +1.21651039e-01 +8.06394964e-02 -4.69692409e-01 +3.12022805e-01 +2.34953374e-01 -1.63811579e-01 +2.22494408e-01 +1.52058035e-01 -5.35592139e-02 -1.38449386e-01 -1.33957759e-01 -7.66168013e-02 -8.84786844e-02 -2.56390087e-02 +1.12093702e-01 +3.88273038e-02 +1.91506788e-01 +3.70118469e-01 -2.56239265e-01 +4.54663634e-02 +2.50878423e-01 -1.80029213e-01 +1.90617859e-01 +4.66525331e-02 -3.29425961e-01 -3.07995230e-01 +6.31506205e-01 -4.22508866e-02 +1.91664323e-02 +2.16159970e-01 -1.03993721e-01 -2.89885730e-01 +1.13289557e-01 +3.58669043e-01 +9.05981883e-02 -1.08768120e-01 +3.16038400e-01 -2.17248335e-01 +2.54490018e-01 +2.26065546e-01 +3.80704254e-02 +7.36236945e-02 +1.87490974e-02 -4.64353263e-02 -6.25551701e-01 +3.45903456e-01 -3.17567170e-01 +2.09678546e-01 -3.06481302e-01 +2.90344357e-01 +2.91284412e-01 -1.79356769e-01 -2.48947799e-01 -1.53671771e-01 -1.89365536e-01 -3.35444361e-01 -3.63694072e-01 -1.38848424e-01 +1.43720448e-01 +9.10146832e-02 -2.42731143e-02 +1.23998202e-01 +5.78410923e-02 +1.71226561e-01 -4.10205163e-02 -3.11399288e-02 -1.86442286e-01 -1.90443732e-02 -3.86986405e-01 -2.50036448e-01 -1.10088021e-01 +1.28524259e-01 -5.53814352e-01 -5.08186340e-01 -3.02328736e-01 -1.32313907e-01 -8.41218755e-02 -1.77519619e-01 -2.91075826e-01 -1.54041752e-01 +2.82264739e-01 -3.22690308e-01 +1.59662977e-01 -2.36510441e-01 -1.02285706e-02 -5.54383062e-02 +1.54839456e-01 -6.02303213e-03 +9.76036340e-02 -3.28701198e-01 +8.63273367e-02 -1.58717707e-01 -1.34471446e-01 -2.74842143e-01 +1.01722196e-01 -5.65822199e-02 +1.94880381e-01 -1.65378571e-01 +4.34870347e-02 -3.39338295e-02 -1.12531982e-01 -6.56130090e-02 +1.01625904e-01 -4.38970476e-02 +2.67462283e-01 +2.58663446e-01 +2.96479940e-01 +4.19602811e-01 +3.14592719e-01 -5.53794093e-02 +2.39499539e-01 +1.16019078e-01 +8.42708051e-02 +6.48815781e-02 +2.19122246e-01 +7.07583502e-02 -1.12124421e-01 +3.72798055e-01 -2.93572783e-01 +2.52006762e-02 +1.05273118e-02 +1.13267684e-02 +1.94016755e-01 +2.81927586e-01 -1.09380268e-01 -2.88715154e-01 +5.11832297e-01 +1.57132536e-01 +4.16729450e-01 -1.66123837e-01 +2.02129573e-01 -8.21473897e-02 -1.57222450e-01 +1.91321000e-01 +8.12592208e-02 +2.26826742e-01 +1.43596485e-01 -7.07206205e-02 +1.07824877e-01 +9.83071281e-04 -3.59238759e-02 +2.10409850e-01 -1.21923096e-01 -9.44480672e-02 -2.86495209e-01 +3.36887181e-01 +8.11860804e-03 +3.30115885e-01 +4.27432507e-02 +4.77274716e-01 +8.85247588e-02 +1.74153745e-01 -2.54638512e-02 +3.56331617e-01 +3.63963693e-01 -2.61637513e-02 +9.48223546e-02 +2.56828308e-01 +5.28594814e-02 +1.49644777e-01 -1.19280286e-01 +3.03452332e-02 +1.51035592e-01 -5.07429838e-01 +3.44579130e-01 +1.12207301e-01 -1.31128326e-01 -2.06248626e-01 -3.92480433e-01 -2.62472421e-01 +6.06189109e-02 +8.32174867e-02 -1.29200608e-01 -6.19728386e-01 -1.16227731e-01 -4.81267005e-01 +1.03192031e-01 -1.61973447e-01 -1.62205085e-01 +1.08058684e-01 -1.34385210e-02 +1.63802877e-01 +1.48391098e-01 +2.22466558e-01 +1.72101989e-01 +2.53856033e-02 +1.42279342e-01 +1.74508840e-01 -9.99757126e-02 -1.70778394e-01 +6.32467717e-02 +2.26762712e-01 -9.40214843e-02 -5.48758686e-01 -4.81791854e-01 +1.09978922e-01 -2.57740617e-01 +2.07616597e-01 +2.44584665e-01 +4.75021899e-02 +2.35854700e-01 +1.07612565e-01 -2.02175722e-01 -4.19696718e-02 +1.69866174e-01 -1.11098457e-02 +5.24204195e-01 +4.46535880e-03 -4.00991121e-04 +5.89183010e-02 -4.30095717e-02 -5.19636460e-03 +2.10998908e-01 -2.88652807e-01 -6.64673373e-02 -1.68103516e-01 -4.02837932e-01 +1.12876512e-01 -2.43037730e-01 -1.52781993e-01 -1.10919453e-01 +1.10171512e-01 -1.85193703e-01 -4.14420456e-01 +9.41222385e-02 -2.97980070e-01 +6.43356204e-01 -1.58019245e-01 -1.59363225e-01 +2.55751222e-01 -4.63503562e-02 -9.33914483e-02 -3.27840477e-01 +2.42434949e-01 +9.62830260e-02 +3.15480381e-01 +4.70320493e-01 -1.95149824e-01 +9.88279507e-02 +5.93168676e-01 -1.02982633e-01 +4.82247263e-01 -1.42889768e-01 -5.71348548e-01 -4.89961684e-01 -2.45372638e-01 -1.15865916e-02 +3.77953112e-01 +1.44848093e-01 +7.52262548e-02 +6.30352437e-01 +2.02489004e-01 +1.57861203e-01 -4.44931798e-02 +1.09917670e-01 -1.07024245e-01 -3.81691694e-01 +3.50519389e-01 +1.63066208e-01 +1.63390160e-01 -2.77914386e-02 -1.22734375e-01 -1.55427009e-02 +3.07811409e-01 -4.78885658e-02 -7.08986148e-02 +3.11495423e-01 -1.23408586e-01 +2.56887406e-01 +2.57029116e-01 -1.44627616e-01 +5.15983142e-02 +1.89995561e-02 -2.92022109e-01 -9.44023952e-02 +3.85067880e-01 -2.14688852e-01 +1.63417950e-01 +1.66609958e-01 +8.59595463e-02 +3.45886081e-01 +2.60358334e-01 +2.57881224e-01 +3.45752649e-02 +2.90125489e-01 +4.86536250e-02 -1.04435638e-01 +7.28051245e-01 +2.43917495e-01 -9.92161259e-02 -2.55529303e-02 -8.53053033e-02 -1.69934362e-01 +2.47015148e-01 +2.92725265e-01 -8.78295973e-02 +3.24866742e-01 -1.44497141e-01 +1.13355942e-01 -1.49962068e-01 -3.65617603e-01 -2.47358456e-01 +7.97685906e-02 -4.59334701e-01 -3.39517623e-01 +3.21673810e-01 +7.35418946e-02 -1.60066441e-01 -2.01070756e-01 +9.36324745e-02 -1.50437966e-01 -1.68870032e-01 -9.60473418e-02 +1.44508019e-01 -1.23455048e-01 -1.08120091e-01 -5.64323831e-03 -4.69774604e-02 -5.96332885e-02 -7.01121390e-02 +3.70269269e-01 -3.72489482e-01 +6.43410087e-02 +4.56611663e-01 +4.31525290e-01 +1.20727398e-01 +2.31927130e-02 -5.64539619e-02 -2.11546078e-01 +1.23905644e-01 -2.38602102e-01 -7.61378482e-02 +2.39728943e-01 -6.76476806e-02 -2.38150477e-01 -2.18451127e-01 -2.85224199e-01 +2.80303769e-02 -1.35264531e-01 +2.50275731e-01 -1.81230903e-01 +2.13695634e-02 +4.66929078e-02 +3.21378335e-02 -5.45733124e-02 -2.09131181e-01 +9.77940559e-02 +7.72533705e-03 +3.63271177e-01 -8.40642527e-02 -2.97706634e-01 +1.31402433e-01 +1.51003167e-01 -2.82439798e-01 -1.35030337e-02 -1.27758130e-01 +2.85995334e-01 -3.75737287e-02 +2.81955719e-01 -5.21315813e-01 +6.67765662e-02 +1.60840645e-01 +1.12248726e-01 -1.51963811e-02 -9.57312584e-02 +3.93509120e-01 +2.81839758e-01 +2.76148885e-01 +7.49473795e-02 +9.56071727e-03 +1.01889305e-01 +1.73311725e-01 +5.17853379e-01 +6.16193712e-01 +1.20031394e-01 +2.55542010e-01 +1.88323885e-01 -6.29417971e-02 +7.25023076e-02 -1.24601051e-01 -5.25283992e-01 +9.83301029e-02 +4.49925698e-02 +2.44027406e-01 -1.96590438e-01 -2.71035358e-02 +4.00157869e-02 -4.83101994e-01 -1.23142771e-01 +3.97764981e-01 -1.29003255e-02 +2.32438773e-01 -3.49096395e-02 +3.52996647e-01 +2.85263807e-01 +2.42859364e-01 +9.89599675e-02 +1.99894920e-01 -6.96416348e-02 +5.67543268e-01 +2.94633895e-01 +2.04647943e-01 +2.77510583e-01 -2.43889943e-01 -1.79576024e-01 +2.27479413e-01 +6.82491213e-02 +2.62257844e-01 +1.11421481e-01 +3.97628695e-01 -2.70146489e-01 +7.49734342e-02 -2.84271896e-01 +2.45570868e-01 -1.84247389e-01 +2.32664555e-01 +2.31984094e-01 -2.76418388e-01 +3.14529479e-01 +3.03513825e-01 +1.02481492e-01 +1.44608140e-01 +2.44466662e-01 +2.31469154e-01 +6.20442629e-01 +4.58545148e-01 +4.56464589e-02 +3.04222941e-01 +3.67560657e-03 +2.79380947e-01 -5.98807521e-02 -4.49008681e-02 +7.89132193e-02 -1.95070446e-01 +7.07464740e-02 -4.20539975e-02 +1.45353928e-01 +3.49667042e-01 +1.32927284e-01 -1.12520903e-01 +4.21197712e-02 -5.14860544e-03 -3.36418599e-02 -1.51052982e-01 +6.53168440e-01 +1.89820573e-01 +3.10913265e-01 -1.20315522e-01 +3.48218009e-02 +1.60020187e-01 -2.63825387e-01 +3.26767750e-02 +2.05678686e-01 +3.63053940e-02 +7.81350583e-02 +1.66715048e-02 -2.58397311e-01 -1.74124464e-01 +5.92411458e-02 -1.58364639e-01 -1.91076741e-01 +2.38384858e-01 -2.32250318e-01 +2.70215929e-01 -3.25602949e-01 -2.21893474e-01 -6.46661147e-02 -2.59194762e-01 +2.36904830e-01 +3.09715003e-01 +5.45099610e-03 -1.23021379e-01 -3.10637176e-01 -8.65768567e-02 +4.90846038e-01 +1.87169045e-01 -3.13742191e-01 +4.13066030e-01 -1.87552124e-01 +1.77552968e-01 -1.31972209e-01 -1.67526022e-01 +6.92138895e-02 -3.89712334e-01 +9.05564129e-02 -8.78791735e-02 +6.14766367e-02 +8.15250911e-03 -1.36334926e-01 -1.01467490e-01 -1.61997631e-01 +1.54976949e-01 +1.79972425e-01 +1.02787130e-01 +4.24283117e-01 +1.45090088e-01 +2.37319604e-01 -1.89418390e-01 +2.79889584e-01 -1.65678859e-01 -2.96076804e-01 +2.24085525e-01 -1.58047765e-01 +4.29993898e-01 -2.87040025e-02 -1.15729868e-01 +1.77489251e-01 +4.06629533e-01 -1.93646416e-01 +1.84214756e-01 +7.03609884e-02 +5.31364931e-03 +2.81491339e-01 -1.30252704e-01 +2.45106816e-01 -7.47161210e-02 -2.99469143e-01 +3.59801322e-01 -5.08162200e-01 +2.19545495e-02 +3.01462738e-03 +1.65527109e-02 -1.51481986e-01 -4.65862453e-01 -3.34913313e-01 -6.86380118e-02 +2.85915405e-01 -9.88081843e-02 -1.46498069e-01 -8.90143514e-02 +2.73333848e-01 -2.51128584e-01 +1.53787911e-01 +2.65777469e-01 -1.58667564e-01 +5.01910299e-02 +1.16962623e-02 -1.19924732e-01 -1.06997468e-01 -3.76919001e-01 +1.94537684e-01 +1.03185326e-01 -7.17669800e-02 -3.51529241e-01 -6.45875454e-01 -9.83200148e-02 -1.04650773e-01 +1.53755620e-02 -1.14481159e-01 -3.06079745e-01 +7.59457573e-02 +1.05902046e-01 +7.44893625e-02 +4.21215355e-01 +9.81666520e-02 +1.19462237e-01 +1.08249910e-01 +8.87106955e-02 +1.01144694e-01 +7.68365934e-02 +6.25683647e-03 -1.88256711e-01 -2.69297995e-02 -2.30336457e-01 -6.80209771e-02 +2.24990621e-01 +4.84238602e-02 +3.67941074e-02 -2.22418174e-01 -9.81009230e-02 +2.73517013e-01 +1.51764497e-01 +1.76524237e-01 +2.95451641e-01 -2.11760357e-01 -2.75872767e-01 +4.05699313e-01 +1.10525794e-01 +2.65953213e-01 -1.23768328e-02 +1.79885805e-01 +5.83992302e-02 +9.61925462e-02 +9.12988484e-02 -7.84536377e-02 -1.21745452e-01 -9.97801796e-02 +1.18792772e-01 +1.74136311e-01 +3.19053173e-01 +3.26685339e-01 +3.70937496e-01 +1.34937063e-01 -1.39021024e-01 -1.23091608e-01 -7.90252537e-03 +2.46849447e-01 +4.02930170e-01 -4.94627170e-02 +2.31417224e-01 +2.38443807e-01 
#Parameter# /_5 {50} 801 ZERO_GRAD
+2.17325538e-01 +8.45960304e-02 +2.79237181e-01 +1.51168957e-01 +2.41072252e-01 -1.62275091e-01 +5.57121448e-03 +2.22087190e-01 -7.01175481e-02 +3.15961480e-01 +1.82514355e-01 +1.54706746e-01 -7.29814619e-02 +3.47482180e-03 +4.18497443e-01 +4.18426782e-01 -9.63812992e-02 +4.01798069e-01 +3.30168605e-01 -2.22078711e-02 +2.06814080e-01 -7.40225706e-03 +5.22296131e-01 +4.26616490e-01 -1.83003947e-01 +1.26702994e-01 -2.07870349e-01 +6.02977909e-02 +2.56715685e-01 -8.13480839e-03 +2.58089691e-01 +1.36220753e-01 +2.97837555e-02 +2.59018779e-01 +5.84418029e-02 +7.97456354e-02 +1.28633052e-01 -3.91606167e-02 +2.40196347e-01 +5.43632470e-02 -1.74640659e-02 -9.53099504e-02 +2.26198852e-01 -1.04323924e-01 -3.53618013e-03 +4.25432250e-02 +1.35688856e-01 +1.84546113e-01 -1.68908387e-02 -1.61368340e-01 
#Parameter# /_6 {50,3} 2401 ZERO_GRAD
-4.56793904e-01 +3.91424567e-01 -2.09408626e-01 -4.01180357e-01 -4.27302748e-01 -2.57650346e-01 +1.95483923e-01 -5.97001091e-02 -9.08403192e-03 +4.74589556e-01 -3.22590768e-01 -5.14446080e-01 +2.85670668e-01 -9.05933380e-02 -4.09664840e-01 +3.16959843e-02 -2.22862557e-01 +5.17992139e-01 -1.33691235e-02 +2.26989135e-01 -2.88913488e-01 -3.76122922e-01 +2.00063333e-01 +2.17200279e-01 +4.30135906e-01 -6.14270926e-01 -1.19535729e-01 -3.02585423e-01 -2.94780672e-01 +3.44148874e-01 -1.56327203e-01 -2.15447787e-02 -4.22070175e-01 -3.84807698e-02 -2.20139757e-01 -2.62482792e-01 +3.72635871e-01 +1.18709080e-01 -4.99893159e-01 -2.01445863e-01 -2.22811207e-01 -5.98776400e-01 +5.01601458e-01 +2.20824271e-01 -2.98926294e-01 +2.80507356e-01 -4.95882295e-02 -7.72379618e-03 -4.17122424e-01 -2.35914543e-01 +4.22988057e-01 +1.85097884e-02 +1.10722244e-01 +3.37232232e-01 -1.63217053e-01 +2.40366697e-01 +2.57043451e-01 +9.11340788e-02 -1.49184182e-01 -2.61562616e-01 +3.67295533e-01 +1.34081587e-01 -1.76142126e-01 +1.03921421e-01 +1.07892670e-01 -1.77552581e-01 +3.57645839e-01 -5.43668330e-01 -4.21792477e-01 +2.79073179e-01 -1.92452446e-01 -5.85453920e-02 +5.73632009e-02 -1.66546538e-01 -2.15781823e-01 +6.71903193e-01 +4.46543237e-03 +4.77148294e-01 -5.00495844e-02 +6.16908371e-02 +4.67765421e-01 -1.78798258e-01 +1.22169703e-01 +4.53943163e-02 +2.88383424e-01 -1.08541802e-01 -2.74003953e-01 +2.16788709e-01 -6.88589513e-02 -3.09653103e-01 +4.92588952e-02 +5.95559061e-01 -2.29530632e-01 -4.77747947e-01 -4.61385250e-02 -1.60788357e-01 +4.88644004e-01 +1.19173102e-01 +1.88088506e-01 +1.20305441e-01 +1.14377439e-01 -4.11221594e-01 +7.33024254e-02 +8.59797895e-02 +5.89801297e-02 +1.04500465e-01 +2.65273899e-01 +4.57357652e-02 +4.51620296e-02 -2.31895521e-01 +5.57680070e-01 +5.43213725e-01 -4.09548402e-01 +1.95708215e-01 +2.10874587e-01 -2.37966105e-01 +2.77968884e-01 -5.62695265e-01 -2.13570207e-01 +6.32651821e-02 +2.78686404e-01 +1.07094280e-01 -5.25892913e-01 -2.51922667e-01 -1.52861983e-01 +3.94309938e-01 +1.64918691e-01 +1.04301712e-02 +2.72657156e-01 -2.77774110e-02 +4.06529725e-01 -4.34052289e-01 -6.47684485e-02 +2.12150030e-02 +3.53068113e-01 +5.76531291e-02 -2.71603584e-01 +2.50166953e-01 +3.77621293e-01 +2.10662663e-01 -1.35925174e-01 +1.56156138e-01 -5.89905500e-01 +5.41331694e-02 -1.99564144e-01 -1.34219304e-01 +8.76656398e-02 -6.02481924e-02 +2.98404545e-01 +3.71746123e-01 
#Parameter# /_7 {50,50} 40001 ZERO_GRAD
+1.44995097e-02 +3.05087596e-01 +6.69454932e-02 -1.87562317e-01 -2.80457169e-01 -1.74215347e-01 +1.37929814e-02 -1.11791812e-01 +3.65840435e-01 +1.92758039e-01 +3.45151462e-02 -1.43273339e-01 +1.92736834e-01 +1.33241728e-01 +1.78055942e-01 +1.86148539e-01 -8.04317445e-02 +2.74439633e-01 +2.03537717e-01 -1.28041897e-02 +1.78410396e-01 +2.92224646e-01 -1.30128533e-01 -1.12367691e-02 -3.57556902e-02 +3.33209276e-01 -3.66841629e-03 +2.43210688e-01 +1.37966007e-01 -1.93896055e-01 +7.30824992e-02 +2.63756394e-01 +2.85613716e-01 -9.65328664e-02 +4.97446284e-02 -3.52275670e-01 -2.70177424e-01 +3.40901539e-02 +1.19084097e-01 +3.39869484e-02 -1.52404413e-01 +1.71550304e-01 +1.75037477e-02 +1.99310809e-01 -1.56554595e-01 +2.10280523e-01 -6.34736642e-02 +1.82887882e-01 -1.33919105e-01 -1.57746464e-01 -7.88995624e-02 +5.62883690e-02 -3.65502089e-02 -1.23373270e-01 +1.56636044e-01 -7.68367499e-02 -1.13132790e-01 -2.77713358e-01 -2.48291120e-02 +2.51440644e-01 +1.85484216e-01 -3.88094448e-02 -3.96632813e-02 -1.55436888e-01 +7.31223971e-02 -2.19325081e-01 +6.13412261e-02 -3.87073215e-03 +2.17315659e-01 -7.13450834e-02 +2.12107338e-02 -3.84844244e-01 +6.74698725e-02 +1.84345022e-01 +2.85602044e-02 -3.36593501e-02 -3.30213249e-01 -8.00789148e-02 +2.33014882e-01 +1.49936333e-01 -9.74055007e-02 +1.16584189e-01 +3.06058750e-02 +2.21856132e-01 +1.14947960e-01 -2.13254809e-01 +3.96864563e-01 -2.99623869e-02 -7.97086358e-02 +1.38513759e-01 +7.99358413e-02 -4.32867736e-01 +2.21077263e-01 -2.49195740e-01 +4.94263053e-01 +2.04544477e-02 +5.23698293e-02 +2.43507549e-01 +4.58302014e-02 -8.21949616e-02 -2.21360937e-01 -1.65724486e-01 -1.61693782e-01 -1.20929047e-01 -1.93701535e-01 -2.52695173e-01 -2.27963880e-01 -2.49408215e-01 -9.83262211e-02 -7.01745376e-02 -2.45010317e-03 -2.66905725e-01 +1.44549720e-02 +1.10094756e-01 +3.03484183e-02 -1.13957569e-01 -1.61281656e-02 -7.65541792e-02 -3.54098044e-02 -8.95831287e-02 -1.16351899e-02 -1.96478978e-01 -2.55549848e-01 -1.88903511e-01 -6.76851943e-02 +8.44421014e-02 -2.37590119e-01 -3.44959229e-01 -2.34869331e-01 -2.27562666e-01 +1.09786034e-01 -2.22060204e-01 -2.12259293e-01 -2.56399244e-01 -2.73783594e-01 -1.17053449e-01 +3.13924283e-01 -2.32175633e-01 +1.51178765e-03 +5.60663939e-02 -2.40312293e-01 +2.32581258e-01 -3.48199427e-01 -1.64101496e-01 +8.49804878e-02 -1.81646466e-01 -2.42717803e-01 +9.55388099e-02 -1.39079690e-01 +8.32743347e-02 +2.52507657e-01 -9.39736366e-02 -9.78069901e-02 -1.84195174e-03 +2.34659359e-01 -2.08380073e-01 -1.67332307e-01 -8.87765810e-02 +2.66675860e-01 +4.02911790e-02 -2.04874456e-01 +6.86683953e-02 +5.77265732e-02 +2.50796080e-01 -1.30509958e-01 -1.00884005e-01 +2.71703526e-02 +1.55801043e-01 +1.77895352e-01 -2.80451104e-02 +1.55829877e-01 -1.46052763e-02 -9.99150351e-02 +1.17891617e-01 -4.23674025e-02 -1.62337765e-01 +3.73921275e-01 +1.24400780e-01 -1.43535182e-01 +1.62978739e-01 -1.59973010e-01 -3.79180387e-02 +2.35140342e-02 -1.20243900e-01 +1.08604141e-01 -1.59091577e-02 -1.41495233e-02 -1.34534389e-01 -1.92563683e-01 +1.97890371e-01 +1.34918764e-01 +2.45356932e-01 +6.61790892e-02 -1.96045265e-01 -1.88967511e-01 +1.77024335e-01 -8.07412621e-03 +1.25526786e-01 +2.44196922e-01 -2.46818647e-01 +1.53596804e-01 -2.51884341e-01 +1.60701215e-01 -2.30869949e-01 -2.47871708e-02 -2.06203833e-02 +2.25935459e-01 +2.30709463e-02 +1.05043473e-02 +1.75030142e-01 -2.92169124e-01 -1.32622600e-01 -1.79099977e-01 -2.26943672e-01 +5.71647733e-02 +1.72024027e-01 +7.22200274e-02 +9.73436832e-02 +1.80425212e-01 +2.70923555e-01 -2.09892280e-02 -3.77510220e-01 +5.02056517e-02 +2.87865669e-01 -4.45598960e-02 -1.14658035e-01 -8.71679410e-02 -2.14214265e-01 -1.37025744e-01 +2.56713659e-01 +2.40067095e-01 -2.26671353e-01 -4.51851726e-01 +4.33209278e-02 +1.41574979e-01 +1.94933906e-01 +4.16679204e-01 -2.34808568e-02 +5.25271147e-02 +1.31169111e-01 +3.02747220e-01 -3.25516202e-02 -3.41302454e-01 -6.45042956e-02 -1.57263145e-01 -6.48901165e-02 -1.55459061e-01 -1.39056727e-01 -2.37951502e-01 +6.81348369e-02 -2.48586610e-01 -1.35578051e-01 -1.05574593e-01 -2.39491165e-01 +6.71577677e-02 -1.19522765e-01 -2.05712125e-01 +3.16985510e-02 -2.15461478e-01 +6.35384992e-02 +2.19264790e-01 -9.92985070e-02 -6.79136962e-02 +1.06157497e-01 -1.48617551e-01 -3.91856916e-02 -3.48922759e-01 -2.67628580e-01 +1.78622410e-01 +7.37896562e-02 -6.90037981e-02 +2.07563981e-01 -4.48499620e-01 -3.58198941e-01 -3.93163472e-01 -1.55733213e-01 +1.46394730e-01 -2.16296494e-01 +4.74468358e-02 -7.58444071e-02 -2.95457244e-01 -2.60076057e-02 -7.78572336e-02 -2.93360557e-02 +2.74114758e-02 -2.59707332e-01 -6.72356784e-02 -3.48190457e-01 -1.64266184e-01 -1.61475614e-01 +1.08960107e-01 -8.51867571e-02 +4.17030156e-02 -1.07249685e-01 +2.12968469e-01 -1.39435306e-01 -6.62488937e-02 -1.47645667e-01 -1.75827339e-01 +1.38645083e-01 -6.76807463e-02 +2.06610829e-01 +1.91861093e-01 +1.13596834e-01 -5.10080829e-02 +2.11049989e-01 -2.01382801e-01 +2.34569713e-01 +1.77306771e-01 -1.49171066e-03 -6.80474415e-02 +1.38728844e-03 -2.49774799e-01 +2.04851121e-01 +6.25534654e-02 +3.16547453e-01 -1.27303436e-01 -1.02166040e-02 -1.48772746e-01 +2.75607575e-02 -2.60314494e-01 +3.62503618e-01 -2.13012606e-01 -2.22436935e-02 +1.98995128e-01 +6.22348674e-02 +2.43638620e-01 -1.28134906e-01 -9.20872092e-02 +1.25604406e-01 -2.03946501e-01 +6.66288510e-02 +5.06088585e-02 -2.94322431e-01 +1.04149073e-01 +1.35383680e-02 -4.26998287e-01 -1.55662596e-01 -9.95529741e-02 +4.63034771e-02 +7.30762109e-02 +6.95353523e-02 +1.72251612e-01 +1.40678108e-01 -2.06304684e-01 +2.82542706e-01 +3.22573632e-01 -1.55182660e-03 +9.52359289e-02 -8.98584258e-03 +2.37071931e-01 +2.53474474e-01 +2.58796364e-01 -8.42788517e-02 +2.54909307e-01 +2.14309365e-01 +6.25434518e-02 +1.95687190e-01 -1.18956275e-01 +1.43726483e-01 +4.16138992e-02 +2.21057773e-01 -2.04864740e-01 +4.08533998e-02 +2.17891186e-02 +2.17551887e-01 +1.49350883e-02 +2.87355542e-01 -3.46751213e-01 +2.47070655e-01 +3.68163913e-01 +2.70166188e-01 +1.69022962e-01 -9.86348465e-02 +7.28604943e-02 +9.90442410e-02 +1.90915585e-01 +4.64637354e-02 -1.12151228e-01 +1.33991405e-01 +1.39805540e-01 -2.94960171e-01 -1.67311020e-02 +2.01898441e-01 +2.71541834e-01 +2.18096942e-01 -5.26978672e-02 +3.28236312e-01 -4.62558530e-02 -1.23433992e-01 -4.03418727e-02 +1.76946074e-01 +1.27060190e-01 +1.51818395e-01 +1.66817352e-01 -1.32967740e-01 -6.24332912e-02 +1.83096036e-01 -7.32130706e-02 +1.04016893e-01 -9.60120559e-02 -9.48622152e-02 +7.84962475e-02 +3.66579384e-01 -1.70330748e-01 -1.91338629e-01 +1.91248938e-01 +6.13279678e-02 +3.77017528e-01 +3.80992413e-01 +1.71237215e-01 +4.04980890e-02 -3.07403598e-02 +2.94962853e-01 -6.24655373e-02 +3.46972436e-01 +1.73502967e-01 +3.06075722e-01 +2.45397717e-01 +5.40541206e-03 +7.20561901e-03 +3.16885039e-02 -1.61430817e-02 +1.45916209e-01 +7.89140239e-02 +4.63690698e-01 +6.00053631e-02 +7.36767352e-02 +1.87143788e-01 +6.26880452e-02 +1.11681536e-01 -8.25623274e-02 +2.47441545e-01 -5.38990535e-02 +1.26625583e-01 -5.86649626e-02 -1.11633465e-01 +1.45595551e-01 -1.03022173e-01 -2.29898673e-02 -1.80388838e-01 +1.14619114e-01 -1.51799455e-01 -1.72001161e-02 +1.23741955e-01 +2.89520442e-01 +5.26776195e-01 +3.59599352e-01 +4.09231812e-01 -1.46056011e-01 +5.30504249e-03 +3.46210063e-01 +1.45447534e-03 +2.68644802e-02 -1.03609785e-01 +1.10278182e-01 +2.01157689e-01 -1.85982540e-01 +3.82421650e-02 +1.53127462e-01 +1.66324347e-01 +2.56384641e-01 -2.09012151e-01 -1.35754824e-01 +1.55681685e-01 -2.36786604e-02 -1.64864659e-01 -1.35454580e-01 -7.78982118e-02 -3.04181688e-02 -8.64503905e-02 +9.88856703e-02 +9.46203396e-02 +3.34088534e-01 -4.51169983e-02 -2.55554140e-01 +1.30860759e-02 -2.80871630e-01 +1.97124444e-02 +5.61972409e-02 +4.57783937e-02 -5.13354167e-02 -1.87568679e-01 -1.45996779e-01 -1.44299954e-01 +4.39969189e-02 -4.32420403e-01 -1.81977153e-01 +1.88840643e-01 +1.16732255e-01 -1.56380609e-02 -4.05133143e-02 -1.60600901e-01 -1.12181038e-01 -2.85804458e-02 +1.50970846e-01 -1.73569635e-01 -4.42443416e-02 +1.41117439e-01 -2.01466531e-01 -6.79761767e-02 -9.31933224e-02 +1.79906428e-01 +1.10473996e-02 -2.16542352e-02 -1.85064048e-01 -7.66922021e-03 +6.13948815e-02 +9.73420814e-02 +3.12677056e-01 +1.80919826e-01 -2.83618569e-01 +1.03683665e-01 +2.05548242e-01 +1.48466334e-01 +5.26304962e-03 -1.72606051e-01 +1.27921388e-01 +1.68493047e-01 +1.17052987e-01 -6.74849600e-02 -2.76992619e-01 +1.82013080e-01 +2.98432440e-01 -1.65806394e-02 -1.25328422e-01 -4.15025577e-02 +5.29765412e-02 +2.46446982e-01 -1.51553832e-03 -1.03300802e-01 +1.16173133e-01 -1.74774408e-01 -1.27641708e-01 -1.35093391e-01 +3.24077457e-01 +3.01802456e-01 +1.78225130e-01 -2.04333030e-02 -6.23771288e-02 +1.42590821e-01 -3.99341196e-01 +1.62078306e-01 +1.84509471e-01 +1.86132472e-02 +4.97606071e-03 -4.36659157e-02 -1.17215216e-01 -1.84874550e-01 -6.81655062e-03 +2.51988232e-01 -1.54788658e-01 -1.76351607e-01 +1.76090598e-01 +1.30149573e-01 +1.88708022e-01 +2.27435470e-01 +1.82052031e-01 +5.31092398e-02 -1.38854548e-01 +3.78964692e-02 +3.89064364e-02 -1.20697446e-01 -1.12073913e-01 +2.44690657e-01 +1.73701987e-01 +6.19521551e-02 +4.49448556e-01 -9.44025293e-02 +2.15568244e-01 +1.55785948e-01 -1.35463551e-02 +2.73513850e-02 -5.93931936e-02 +1.30511194e-01 +2.00603709e-01 +2.20913664e-01 +4.10164773e-01 +2.00509608e-01 +3.40817124e-02 +3.50306451e-01 -2.23813117e-01 -1.04389183e-01 +1.68714076e-01 -9.59954709e-02 +4.44900215e-01 +2.88260907e-01 +2.09926292e-01 +1.57592282e-01 +9.69107524e-02 +2.09593296e-01 +1.66874051e-01 -2.94603765e-01 +1.80062950e-01 -1.45478770e-01 +2.29017496e-01 -7.41359293e-02 -2.23404169e-01 -8.83117840e-02 +2.48102129e-01 +4.68333326e-02 -5.77392243e-02 -3.74248587e-02 +1.89993650e-01 -3.29050303e-01 -1.12237379e-01 -1.40789062e-01 +1.65377468e-01 -2.89965332e-01 -1.21985003e-01 +6.31686300e-02 -2.85403896e-02 -5.29556312e-02 +1.89638585e-02 +8.71836692e-02 +1.46802902e-01 -5.63654751e-02 -1.63034096e-01 -3.57728601e-02 -1.27475083e-01 -1.41304046e-01 -2.13544220e-01 +5.07928319e-02 +2.27042153e-01 -8.12223777e-02 -7.06116483e-02 -2.72469789e-01 -3.82007033e-01 -2.86756754e-01 +2.43889838e-01 +1.40878901e-01 -2.96954423e-01 -2.68794388e-01 -2.70205766e-01 +5.36818691e-02 +4.01687659e-02 +3.53624821e-01 -2.51708806e-01 +1.44904912e-01 -9.37940627e-02 +2.78190613e-01 -6.44441545e-02 -2.25507766e-01 +1.23540737e-01 -8.51085410e-02 -2.13482514e-01 -3.11342627e-01 -2.13759318e-01 -3.66775542e-01 +1.35231063e-01 -3.15272100e-02 +1.56364471e-01 +2.80357242e-01 +2.11306721e-01 +4.71384376e-02 +1.52555525e-01 +2.49394961e-02 +1.03607558e-01 +1.69864431e-01 +3.01518917e-01 +2.49884099e-01 -1.35687441e-01 +1.28308535e-02 +7.93553889e-02 +1.55547768e-01 +2.02721402e-01 -1.35776803e-01 +1.29813671e-01 -2.38578424e-01 +4.41033617e-02 +2.03015551e-01 +8.15612227e-02 -1.03064261e-01 +1.22650906e-01 +3.07623088e-01 +8.15331712e-02 -4.35546450e-02 +3.68372917e-01 +1.73082128e-01 +7.16074184e-02 +1.63911343e-01 -1.32037729e-01 +1.93066001e-01 +1.09105594e-01 -1.11296512e-02 -1.12700388e-01 -5.02362363e-02 +1.38016641e-01 +8.03508982e-03 +9.16336626e-02 +5.64486720e-03 -1.30710870e-01 +2.22872078e-01 +2.08958209e-01 -6.57194033e-02 +3.15621227e-01 +3.33085209e-01 +1.68676332e-01 +2.08822474e-01 +8.81820545e-03 -1.12374187e-01 +1.58884838e-01 -2.81087667e-01 +2.97785580e-01 -7.28107467e-02 +7.84223676e-02 -1.90275773e-01 +1.00152016e-01 -3.25276971e-01 -2.63355434e-01 -2.73217671e-02 +1.13972530e-01 -2.96535045e-01 -1.95521981e-01 +1.18831813e-01 -2.15898231e-02 +2.12024003e-01 +1.51115373e-01 -3.98613177e-02 -1.90335169e-01 +1.77838430e-01 -2.12008372e-01 +9.51716006e-02 -1.84803262e-01 -1.69272393e-01 -1.83961153e-01 -1.69836968e-01 -1.15304954e-01 +2.49770982e-03 +9.19275656e-02 +1.29308313e-01 -1.88765362e-01 -2.75428712e-01 -7.24221915e-02 +1.83556810e-01 -7.14329407e-02 -2.99448639e-01 -5.81455231e-02 -1.34481609e-01 -1.09815992e-01 -1.55684069e-01 -2.29301050e-01 -3.38162342e-03 -9.18269083e-02 +6.12347797e-02 +2.40680240e-02 -9.76549834e-02 +8.29539597e-02 -6.37678504e-02 -1.57218918e-01 +4.56191711e-02 -1.52759001e-01 -1.58153370e-01 +1.65791854e-01 +1.10806786e-01 -1.06965423e-01 -1.04672059e-01 -4.11689952e-02 -9.70440507e-02 +9.35328007e-02 -6.23937063e-02 +1.37020662e-01 +2.92866945e-01 +1.93023115e-01 -9.23656300e-02 -1.54025793e-01 -9.38728526e-02 +7.40339682e-02 +6.66691959e-02 +1.20441185e-03 -2.44518474e-01 -3.83124411e-01 +1.40921429e-01 +9.32224467e-02 -2.38343384e-02 +3.32394570e-01 +5.29934838e-03 -2.29121055e-02 +9.64899138e-02 +2.32933626e-01 -3.72389972e-01 +1.75564229e-01 -1.81375667e-01 -8.46484210e-03 -2.37885788e-01 +8.31161514e-02 +4.15861726e-01 +3.66720438e-01 +1.62202537e-01 -1.17795303e-01 +2.07623303e-01 -1.34453028e-01 -2.25482628e-01 -9.59158763e-02 +1.57065108e-01 -1.32404730e-01 -1.12651005e-01 +2.19559014e-01 -3.52886245e-02 -1.57999005e-02 +2.10206598e-01 -2.60135651e-01 -2.24207025e-02 +4.61190604e-02 -4.66063386e-03 +1.90917552e-01 +1.02714650e-01 +7.43062347e-02 -4.28351276e-02 -1.68005958e-01 +2.93523283e-03 +4.83786315e-02 +9.58439261e-02 +5.71840778e-02 -5.22891246e-03 +1.69193611e-01 -1.09603249e-01 -8.25546905e-02 +2.10254975e-02 +4.16642278e-01 +1.12471595e-01 +8.58388562e-03 -1.78452414e-02 +1.66373149e-01 -9.53452960e-02 -1.33754268e-01 -1.12568788e-01 +1.53413862e-01 +2.23648608e-01 +9.52421650e-02 -1.48859620e-01 -5.56731895e-02 -2.14702204e-01 -1.73714548e-01 +1.47436395e-01 +8.92709568e-02 +2.67910838e-01 +3.25218320e-01 +1.09594531e-01 -6.36485890e-02 +1.90682247e-01 -7.87158217e-03 +2.52656802e-03 -1.72803774e-01 +2.34725088e-01 -2.92562664e-01 +1.51691213e-01 -8.50993022e-02 +2.14614660e-01 +2.75535524e-01 -1.98300451e-01 +6.95360154e-02 +2.28884980e-01 +1.82056874e-01 +1.38003185e-01 +2.08114669e-01 -1.21481024e-01 -2.74159223e-01 +1.46781057e-01 +1.70702457e-01 -2.17470914e-01 -1.51690170e-01 -3.91695574e-02 +1.30764276e-01 +1.99123576e-01 -6.61352575e-02 +3.09193190e-02 -1.75995044e-02 -1.10891491e-01 +1.30931243e-01 -3.07435364e-01 -2.58452624e-01 +2.14127913e-01 +2.19111428e-01 -2.05364808e-01 +2.32401356e-01 -3.47236134e-02 +4.24531817e-01 -5.15152253e-02 +3.19456682e-02 -1.61148354e-01 +1.31684393e-01 +4.74478185e-01 -3.57590131e-02 -1.39820009e-01 -2.62262430e-02 -1.47521600e-01 -1.08662926e-01 +6.83067441e-02 +4.78886552e-02 +8.16820189e-03 +6.92540705e-02 +5.11432350e-01 -8.50706324e-02 +1.29807666e-01 +2.14916587e-01 +5.21746516e-01 +1.00298543e-02 +1.47624552e-01 -1.37908265e-01 +1.82883456e-01 -7.95158930e-03 -4.28703129e-02 -9.21153203e-02 -1.62302554e-01 -1.11222342e-01 -1.58798277e-01 +2.32439488e-02 +6.82379007e-02 -2.11628482e-01 +6.83337748e-02 +9.03959852e-03 -4.05160397e-01 +2.05082417e-01 -2.45614246e-01 -1.63157120e-01 -1.69531614e-01 +2.14050114e-02 -1.27955720e-01 +1.74527884e-01 -1.75204784e-01 +2.06515625e-01 -2.48918563e-01 +5.20100370e-02 +3.06004547e-02 -1.04468077e-01 -3.52703094e-01 -9.49739143e-02 -9.12469998e-02 -3.18648219e-02 +8.57490152e-02 -2.43009329e-01 -2.74201065e-01 -3.95494252e-02 -1.20656103e-01 -1.76686794e-01 +1.44992888e-01 -1.55476272e-01 -5.56929074e-02 -3.26038361e-01 +2.28850484e-01 +8.24102461e-02 +2.38444161e-04 -1.33333355e-01 -4.82181385e-02 -9.97266620e-02 -2.05394208e-01 -2.50237584e-01 -1.90573767e-01 +2.35587165e-01 -7.39416853e-02 -2.40458891e-01 -1.72078684e-01 +2.52273977e-02 +3.20151784e-02 +1.57262266e-01 -2.23472059e-01 -1.63527027e-01 +1.94522932e-01 -1.22142956e-01 +8.87661576e-02 -1.79742262e-01 +3.88985932e-01 -1.35427743e-01 -3.51532936e-01 -1.45613417e-01 -2.64195129e-02 -1.90983731e-02 +3.57344262e-02 -2.08473966e-01 -3.74801576e-01 -1.46257669e-01 +2.96949167e-02 -1.67849138e-01 -2.12552175e-01 -1.75562248e-01 +1.57690465e-01 -3.76103818e-02 -9.34007242e-02 +3.06029975e-01 -3.56929004e-01 -8.11887085e-02 -6.83733523e-02 +1.39638796e-01 -1.13955721e-01 -1.49711398e-02 -3.02113146e-02 -1.65698603e-01 -2.69476831e-01 +1.78169191e-01 -8.89950097e-02 +1.21743143e-01 +1.66483641e-01 +3.84336598e-02 -1.00032933e-01 +1.27317086e-01 +7.10292161e-02 -8.47229585e-02 -1.03544042e-01 +1.44612744e-01 +2.90219160e-03 +1.99219838e-01 -1.81788709e-02 -1.53343812e-01 +3.57670486e-02 +1.85386594e-02 -1.08110651e-01 +6.44554198e-02 +3.39919209e-01 +6.39551654e-02 -2.56584615e-01 +3.05405855e-01 +2.76870191e-01 +1.16049536e-02 +2.78743684e-01 +3.96675140e-01 +1.59990788e-02 +2.76142061e-01 +6.37437031e-02 +9.49268043e-02 -8.10888484e-02 +2.59880155e-01 +1.65914983e-01 -8.63907393e-03 +1.82371750e-01 +6.56438991e-02 +3.49579692e-01 +1.56194041e-03 -1.91977188e-01 +7.50963613e-02 +1.44831324e-02 +1.03199124e-01 +2.03500926e-01 -1.79269031e-01 +1.69586316e-01 +5.77176772e-02 -1.35840103e-01 +2.07179353e-01 -6.36992827e-02 +1.84361964e-01 -7.16841146e-02 -1.32785320e-01 +2.28605375e-01 +3.93615812e-01 -3.38101178e-01 +1.36504799e-01 +5.04744232e-01 +3.15152466e-01 +3.49603206e-01 +1.11250825e-01 +1.00293010e-01 -3.53031866e-02 +8.40715021e-02 -1.30431086e-01 -2.72657812e-01 -3.89985144e-02 -9.27421376e-02 -8.49110857e-02 -3.64260912e-01 -1.35185614e-01 +2.20404178e-01 +9.76310223e-02 -2.32118130e-01 -1.97003290e-01 -2.04932481e-01 -8.36541057e-02 -1.06131777e-01 -3.11597288e-01 -1.13733470e-01 -1.80971757e-01 -2.04236060e-01 -1.36613339e-01 -1.13280609e-01 +9.59406644e-02 +1.34170875e-01 +1.78480402e-01 -1.79458410e-01 -1.37297288e-01 +1.43534970e-02 -5.78515138e-03 -2.23891228e-01 -2.00491145e-01 -1.42004609e-01 +1.46765083e-01 -2.39923447e-01 -9.84702706e-02 +1.08273961e-01 -2.59748157e-02 -2.19860122e-01 +1.16953440e-01 +1.27856418e-01 +5.54871112e-02 -1.95875764e-01 +1.57026619e-01 -4.70529636e-03 -1.08783640e-01 -3.07544507e-02 -2.51841396e-01 +3.01864445e-02 -4.95316945e-02 -5.80683947e-02 +3.43009271e-03 +2.48052821e-01 +1.83057673e-02 -1.89895332e-01 -2.30636671e-01 +3.84781718e-01 -2.80855328e-01 -1.21903479e-01 -2.12795928e-01 +2.41888076e-01 +1.45035684e-01 +4.02899027e-01 -2.22255915e-01 +1.89798146e-01 +2.86924124e-01 +1.30653635e-01 +1.06400866e-02 +1.48352057e-01 +4.67154980e-02 -3.75211239e-01 -1.16851099e-01 +2.89131761e-01 -8.85533914e-02 +8.04970041e-02 +4.29334193e-01 +1.92587286e-01 +1.99609488e-01 +3.80523782e-03 -1.01844653e-01 +1.98919833e-01 +3.85251567e-02 +4.03235061e-03 +5.05335569e-01 -1.56220362e-01 +1.41464218e-01 -2.80168712e-01 -9.92313623e-02 -8.98165405e-02 +8.85361806e-02 -1.59867540e-01 +7.73052350e-02 +9.60898399e-03 +3.12544197e-01 +2.50173688e-01 +1.91064313e-01 +2.04661310e-01 -1.40746236e-01 +1.32670462e-01 -2.22503006e-01 +9.77678299e-02 -1.72133848e-01 -1.98552534e-01 -8.29091892e-02 -9.72341672e-02 +1.03010714e-01 -2.04758853e-01 -4.31561247e-02 -1.99292153e-01 -1.71991855e-01 +1.59216344e-01 +1.17925085e-01 -3.21319610e-01 -7.83516839e-03 +2.16374621e-01 -1.13239482e-01 -2.18716964e-01 -5.13189882e-02 -1.37948364e-01 +2.89419480e-02 +3.43830526e-01 -1.20467909e-01 +4.33337867e-01 +1.41868293e-01 -6.88399747e-02 -2.60619484e-02 -1.50019497e-01 -2.50674844e-01 -2.12003678e-01 -1.30258918e-01 -8.37386623e-02 +1.66494760e-03 -4.48917419e-01 -2.90861845e-01 -2.15168223e-01 -2.84913003e-01 -5.18469334e-01 -3.25235873e-01 -1.74958393e-01 -2.85015285e-01 +8.01535472e-02 +1.92327067e-01 -3.58797163e-02 +1.95818037e-01 -3.22318166e-01 +2.19984055e-01 -1.26018137e-01 +1.45572439e-01 -2.09603906e-01 -1.03125408e-01 +9.53642577e-02 -4.24945019e-02 +2.14602128e-01 -8.35739747e-02 +2.66061455e-01 -3.64473537e-02 -1.59891844e-01 -7.35921711e-02 +5.39115727e-01 +7.80821964e-02 +1.03895396e-01 -1.97472557e-01 +6.72939941e-02 -1.31940812e-01 +2.52816319e-01 +3.21000963e-02 -2.22097844e-01 +3.01713943e-01 +1.42883539e-01 +1.29703760e-01 +5.14519811e-02 -3.20423543e-02 +3.20899695e-01 +6.57899827e-02 +8.73478726e-02 +3.22199583e-01 -8.06006324e-03 +2.29938239e-01 -6.03182092e-02 +3.90657425e-01 -1.66696757e-01 +1.12691626e-01 +3.90132874e-01 +7.90101662e-02 -1.08336404e-01 +1.89770162e-01 +5.05544901e-01 +1.82784751e-01 +2.08200991e-01 +5.09008244e-02 -2.53411323e-01 +1.06309541e-01 +1.41938969e-01 +2.07433656e-01 -4.87320460e-02 -2.19973862e-01 +3.53897870e-01 +1.37215018e-01 +3.96831959e-01 -8.70324001e-02 -3.06730241e-01 -1.20374016e-01 +2.08013788e-01 -1.32508069e-01 +4.23571244e-02 -2.55140942e-02 +3.18193793e-01 +3.30929399e-01 -5.27725458e-01 +2.23766908e-01 +1.17192559e-01 -1.17706120e-01 +2.11604238e-01 +1.93007648e-01 -2.77129514e-03 -8.26960579e-02 -4.67402786e-02 +1.60866771e-02 +5.76058356e-03 +2.47307941e-01 +1.25948846e-01 -1.64472163e-01 +5.84415376e-01 +7.12760687e-02 +1.60576217e-02 -2.35352427e-01 -2.78377771e-01 -8.13521221e-02 +3.25484350e-02 -1.35598496e-01 -1.03029750e-01 +9.31338072e-02 +3.15553620e-02 -5.43483831e-02 -5.45586124e-02 -2.61789620e-01 +2.36862013e-03 -1.94074571e-01 -4.26503271e-02 -2.10748017e-01 +3.15035760e-01 -1.17744111e-01 -9.40692276e-02 +2.63144881e-01 -4.07335013e-02 +2.48316661e-01 +1.30262539e-01 +1.60088688e-01 +2.72569418e-01 -3.48240547e-02 +1.48753718e-01 +3.37457024e-02 -2.33809762e-02 +1.01016849e-01 -7.17962533e-02 +8.80867522e-03 +3.77192050e-01 -1.29548475e-01 -8.74873698e-02 -7.68060312e-02 -1.34924039e-01 +4.65861382e-03 +1.87277943e-01 -2.21430436e-01 -7.50239640e-02 -5.05255349e-02 -1.04243141e-02 -1.33124396e-01 +2.63936073e-01 -1.63279697e-01 +1.48970142e-01 +8.90887380e-02 -3.21183726e-02 +1.98008660e-02 +5.36385067e-02 +1.09213106e-02 +1.05045304e-01 +3.64385605e-01 +2.84835875e-01 -2.04804108e-01 +1.09749891e-01 +3.47596556e-01 +1.28427207e-01 +1.68985173e-01 +5.92115372e-02 +5.00784740e-02 -7.94645306e-03 +3.09660733e-01 +8.72313678e-02 -9.77989584e-02 -1.47019073e-01 +2.68112533e-02 +2.80116856e-01 -1.90857112e-01 +2.21961498e-01 +3.06929380e-01 +8.86887759e-02 -1.41539797e-01 +4.04823162e-02 +3.97506077e-03 +1.51328295e-01 -5.21068135e-03 +1.63522735e-01 -1.24886423e-01 +1.22387595e-01 -2.38996401e-01 +1.08201705e-01 -1.02970883e-01 +5.74295931e-02 -4.96532908e-03 +4.45462652e-02 +9.20705032e-03 +1.21922679e-01 -1.10766098e-01 +2.71551847e-01 -1.31361306e-01 -2.20997453e-01 +2.37636834e-01 +1.23904951e-01 +5.51052392e-02 -1.28336415e-01 +1.28258198e-01 +3.58157866e-02 -3.70858073e-01 -3.64493132e-02 +1.54677376e-01 +1.52493447e-01 -6.68036267e-02 -9.90444347e-02 -2.79351920e-01 -1.38580948e-01 +1.42560691e-01 +4.25194949e-01 -1.49642024e-02 -2.91055083e-01 +6.75000548e-02 -1.52070165e-01 -3.29688042e-01 -5.54166734e-01 -8.20503533e-02 -1.94337741e-01 +3.13417822e-01 -2.53608644e-01 +1.73943758e-01 +8.78285244e-02 -1.22172661e-01 +8.07838365e-02 +1.43613219e-01 +2.03072339e-01 -3.01032513e-01 +7.25846216e-02 -7.49238655e-02 -2.09442098e-02 -2.73457766e-01 -3.08210731e-01 +1.31710649e-01 -3.61353338e-01 -3.86456341e-01 +8.95761997e-02 -1.27558634e-01 -3.79933901e-02 -4.59373072e-02 +1.03721216e-01 +1.98275466e-02 -8.55432525e-02 -1.09238110e-01 -1.04229182e-01 -2.40197718e-01 -8.27217754e-03 +1.43727019e-01 -3.42888087e-01 +1.46902084e-01 +1.24048844e-01 -8.16460047e-03 +2.00965509e-01 -1.01997018e-01 -2.30727792e-02 -1.16361067e-01 -2.34564364e-01 -4.23427261e-02 -2.85386235e-01 +5.14152274e-02 -2.43944265e-02 -8.41502547e-02 -2.82463431e-01 -3.53833325e-02 +3.06157768e-01 +8.31930712e-02 +1.65858924e-01 -6.32255673e-02 -1.71400532e-01 -2.20808685e-01 -1.21946134e-01 -7.91809522e-03 -2.21326500e-01 -1.05354451e-01 -3.67324725e-02 -1.30056560e-01 -9.43843555e-03 -9.81811509e-02 +1.83251560e-01 -4.12106924e-02 +8.40237364e-04 +3.07131886e-01 +1.73041731e-01 +1.03087939e-01 -9.86802429e-02 +3.82153653e-02 +2.75825411e-01 -1.42490724e-02 -1.07741706e-01 -3.73391509e-02 -1.47947654e-01 +1.29331648e-01 +2.57037759e-01 +1.25819981e-01 +1.78039715e-01 +3.20950568e-01 -1.34208977e-01 +5.82378209e-02 +9.87383798e-02 +1.40116975e-01 +2.54141688e-01 +7.51958275e-03 -2.07899343e-02 +1.98401943e-01 +2.34639898e-01 +1.64746270e-01 +5.00994474e-02 +3.65452707e-01 +1.43507361e-01 -1.87479436e-01 +1.20909937e-01 +7.34596103e-02 +5.68347648e-02 +3.46066356e-01 -1.98948696e-01 -7.37690479e-02 +9.23421010e-02 +2.91041315e-01 -6.97303563e-02 +1.83936179e-01 -4.54643555e-02 +2.76316255e-01 -1.27942353e-01 -9.33011323e-02 +2.52780616e-01 -3.32514793e-02 +1.01699241e-01 +1.26689121e-01 +1.48536116e-01 +8.60060304e-02 +2.86873609e-01 +1.67301953e-01 -3.97837684e-02 +2.12478921e-01 -1.76608235e-01 +8.98203161e-03 +2.16064557e-01 +4.45686989e-02 -2.93059964e-02 +3.56579751e-01 +1.71872020e-01 -4.62751985e-02 +1.93947196e-01 +2.42197871e-01 -8.25318024e-02 +7.33862817e-02 +2.27724761e-01 -1.21922866e-02 +1.71287552e-01 +4.35186774e-01 +1.97857190e-02 -3.69788170e-01 -5.37628159e-02 -2.67235905e-01 -7.54577145e-02 +8.40627998e-02 -2.25716159e-01 -2.28336364e-01 +8.75970349e-02 +2.11044714e-01 +3.02414834e-01 +1.47819638e-01 -1.92169864e-02 -8.53513107e-02 -2.23008201e-01 -2.13027835e-01 -1.56817630e-01 +3.44498575e-01 +1.67497486e-01 -5.82393147e-02 +2.62787342e-01 +2.99812704e-02 -5.18408827e-02 +5.62265478e-02 +1.14201996e-02 -4.61808182e-02 -2.55226463e-01 -2.16428787e-01 +3.20846319e-01 -8.01950507e-03 -1.64354801e-01 -7.54322335e-02 -5.13263568e-02 -1.89484328e-01 -9.15822685e-02 -9.36079621e-02 -2.57525384e-01 +6.74790740e-02 -2.03480497e-01 +7.38783777e-02 -3.78149509e-01 +2.91502178e-01 +1.31167248e-01 +8.95813555e-02 +1.69886470e-01 -2.77464718e-01 -8.34584534e-02 -2.35997681e-02 +1.62592620e-01 -1.76441729e-01 +1.27724074e-02 +2.81374365e-01 +1.99477926e-01 +6.00079028e-03 -3.11620712e-01 -4.58994433e-02 -1.31811097e-01 +3.67077529e-01 +2.76388317e-01 +6.86475411e-02 -9.29360688e-02 -9.65953842e-02 -1.16748385e-01 +3.36140245e-01 +3.57678324e-01 +2.38266643e-02 +2.61563897e-01 -2.60338366e-01 +8.91854540e-02 +1.79239064e-01 -8.13304782e-02 -5.64469323e-02 -1.29614517e-01 +1.57953762e-02 -2.57083297e-01 -9.75294933e-02 -3.02937090e-01 -7.96106681e-02 -1.76351875e-01 +1.23019600e-02 -2.98940778e-01 +1.71344072e-01 -2.27650359e-01 -5.75495884e-02 +1.20274954e-01 -8.72879326e-02 -5.08350670e-01 -8.91590044e-02 +5.57465889e-02 -1.48637399e-01 +2.24756494e-01 +1.82924122e-01 -1.24084711e-01 -3.55633684e-02 +1.94017664e-01 -1.87189594e-01 -3.86529155e-02 -2.17812806e-01 -2.16077626e-01 -4.36373740e-01 -1.13654941e-01 -2.63960093e-01 -9.24205333e-02 +1.67443231e-01 -3.18584740e-01 -2.32562676e-01 -1.45340292e-02 -1.57267675e-01 +3.09355673e-04 +1.13637581e-01 -1.86483711e-01 +1.55545712e-01 +2.44573370e-01 +9.04899538e-02 +2.54712284e-01 +7.94664845e-02 -1.41239585e-02 -3.80788416e-01 +2.29487285e-01 +2.37333089e-01 +1.28345147e-01 +2.71474808e-01 +1.81901038e-01 -1.88938389e-03 -1.06250934e-01 -1.22493193e-01 +1.85782939e-01 -3.27061825e-02 +2.67725766e-01 +1.99030101e-01 +2.77465582e-01 -4.65615392e-02 +2.85740057e-03 -1.38049155e-01 -8.20141956e-02 -1.27176911e-01 +2.33622342e-01 +3.88488406e-03 -5.90622716e-04 -2.64832228e-01 +1.99830830e-01 -6.43435568e-02 -1.41592756e-01 +1.42321274e-01 +1.51679292e-01 +2.64031142e-01 -9.07375067e-02 +1.64284080e-01 -1.46694228e-01 -1.24347419e-01 -5.54255322e-02 +8.77894089e-02 -2.03455642e-01 +2.97639191e-01 -7.79274181e-02 +3.95343602e-01 -2.44031902e-02 -3.49729247e-02 -1.08163454e-01 -1.19558886e-01 +2.25349337e-01 +1.83338687e-01 +1.20166227e-01 +2.64552861e-01 +2.85869330e-01 -1.39766604e-01 -8.47023819e-03 +2.48742715e-01 +8.56463984e-02 -1.49516478e-01 -1.78438783e-01 +1.23346820e-01 -1.84022024e-01 +1.63480908e-01 +2.06350967e-01 -3.54123092e-03 -3.66094038e-02 +1.04665242e-01 +1.35678740e-03 -1.15770385e-01 -1.04602113e-01 -1.69440303e-02 +2.73984760e-01 -6.77364916e-02 +4.79175933e-02 -6.76769242e-02 -3.52143347e-01 +3.01963359e-01 -1.02420993e-01 -7.75383562e-02 -1.73067525e-01 +7.02714548e-02 +6.92231953e-02 +1.12810597e-01 +1.75725773e-01 +3.06744009e-01 +6.24552965e-02 +1.90485910e-01 -6.03902750e-02 -1.26583457e-01 +1.82077050e-01 +2.51114994e-01 +1.99500680e-01 -1.53256685e-01 -4.37303223e-02 +3.19954008e-01 +1.06961735e-01 -1.97224736e-01 -1.15833014e-01 +1.66043743e-01 -2.64774948e-01 +2.10467726e-01 -1.28443399e-02 +2.63652027e-01 -1.08884431e-01 +2.18357265e-01 +2.02634767e-01 +1.59565464e-01 +2.51619279e-01 -6.59445077e-02 +1.86505929e-01 -4.49435450e-02 +2.07827315e-01 -6.91754892e-02 +1.07754238e-01 +1.09131522e-01 +1.83345154e-01 -1.35135502e-01 -9.28987265e-02 -1.39101341e-01 -3.59134004e-02 +1.16838567e-01 -2.24638097e-02 -8.27243775e-02 -5.99364787e-02 -1.85169335e-02 -4.91055578e-01 -5.03626056e-02 +1.28023520e-01 +1.10699639e-01 -2.36140415e-01 -3.22272390e-01 -1.46204829e-01 +2.06177235e-02 +2.24180251e-01 -8.47195610e-02 +1.35289833e-01 +2.01314315e-01 -1.05590925e-01 -4.70300540e-02 +1.47824049e-01 +1.04222119e-01 -1.82442203e-01 -6.52202889e-02 -1.31344065e-01 -9.11654457e-02 +8.11870396e-02 -3.40500614e-03 -6.98569715e-02 +1.73895003e-03 -7.76861012e-02 -1.46514878e-01 +1.47150218e-01 +1.89042076e-01 -2.13890269e-01 -1.82761610e-01 +3.62311006e-01 -5.31159081e-02 +2.87344009e-01 -6.48573637e-02 +6.94585219e-02 -1.01197071e-01 +2.37465054e-02 -9.33912173e-02 -1.87703952e-01 -2.71742851e-01 -1.99420318e-01 +3.28909198e-04 +2.14376319e-02 -7.80944601e-02 +1.60237938e-01 +1.75884604e-01 -2.08667114e-01 -9.14383382e-02 +3.04928392e-01 -1.50206372e-01 +8.29628333e-02 +1.48444027e-01 -5.27326465e-02 +9.46719870e-02 -3.25286686e-01 +2.42747143e-01 -6.54021231e-03 +2.67666578e-02 -7.64876008e-02 +8.12859535e-02 -2.30937093e-01 -1.68550700e-01 +2.20330611e-01 +9.24976096e-02 -2.08966091e-01 +2.85061777e-01 -7.93460533e-02 -3.13613415e-02 -1.44093737e-01 +8.52281451e-02 -9.82054770e-02 -7.20787644e-02 -3.87790382e-01 -3.41946274e-01 -1.71247095e-01 -1.23442657e-01 +1.25300080e-01 +2.38305703e-01 -6.32744610e-01 +1.01413935e-01 -2.20003333e-02 +7.96998739e-02 +1.02353014e-01 +1.86756864e-01 -1.31832227e-01 +3.58321890e-02 -2.20216885e-01 -1.25837233e-03 -1.19263001e-01 +2.01171473e-01 -1.34540394e-01 -7.63165355e-02 -1.70027569e-01 -1.26819089e-01 +3.20082277e-01 +1.06629089e-01 -1.84092343e-01 +5.12526929e-02 -4.71374631e-04 +1.46395992e-02 +2.45139256e-01 +2.21023560e-01 -2.16518417e-01 +2.46380463e-01 +1.24730701e-02 +1.04738705e-01 -9.01338272e-03 +6.32301718e-03 -1.50585160e-01 +2.02674255e-01 -1.02968194e-01 -1.43905923e-01 +9.87521112e-02 +2.50389397e-01 +1.24095455e-01 +9.33371559e-02 +2.03576088e-01 +1.40846387e-01 +1.63885206e-01 -2.85373218e-02 +1.58066750e-01 +8.42851102e-02 -2.42826670e-01 -1.61266997e-01 +2.62516290e-01 +1.45605400e-01 -1.41438246e-01 +1.90940453e-03 -1.26763340e-02 -7.87979141e-02 -1.58558697e-01 +2.70752698e-01 +1.88517064e-01 -2.69382298e-01 -6.91892132e-02 +1.73128247e-01 -1.28357098e-01 +2.09435105e-01 -5.48641570e-02 +1.13993891e-01 +1.32210597e-01 +1.54577270e-01 +4.61678393e-02 +1.88836128e-01 +3.48707289e-01 +2.53123313e-01 +5.38575016e-02 +2.56722182e-01 +2.54701823e-01 -7.29009733e-02 +1.42483758e-02 +3.17897320e-01 +1.58404931e-01 +8.33701715e-02 -7.69667467e-03 -7.21804723e-02 -1.75483953e-02 +1.12401761e-01 -1.14862725e-01 +3.79355371e-01 +5.21001108e-02 +1.15024641e-01 +1.80910885e-01 -4.73941974e-02 +2.97598541e-01 +3.00355554e-01 +2.11332515e-02 +2.36066371e-01 -1.44186676e-01 -7.58729801e-02 +2.38908678e-01 +1.13597363e-01 -2.30522960e-01 -8.95693079e-02 -3.95823926e-01 -1.82341397e-01 -5.86626641e-02 +7.38269240e-02 -5.37077375e-02 +1.69737879e-02 +2.34649256e-01 +6.14052452e-02 -7.79912295e-03 +1.21655785e-01 -1.11389337e-02 +2.09971413e-01 +1.30186945e-01 +9.63909402e-02 -1.22911245e-01 +2.20143810e-01 +6.40781224e-02 +2.56472886e-01 +1.68043464e-01 +2.05904990e-01 +6.97309151e-02 -1.63393632e-01 -2.08995745e-01 -1.06877305e-01 +7.28945211e-02 -2.03495696e-01 -2.94171683e-02 +1.74891412e-01 +1.15412526e-01 +5.94155155e-02 +1.04243770e-01 +2.28897538e-02 -1.55220211e-01 -7.77955949e-02 +3.41360681e-02 -7.31988549e-02 -1.19614616e-01 -1.12616993e-01 -3.42238188e-01 -1.99498370e-01 +2.06033766e-01 -1.64165586e-01 +5.17194271e-02 -1.01203762e-01 -3.48786861e-02 +5.72595336e-02 -9.81845558e-02 +6.93136454e-02 -3.58938724e-02 +1.08780511e-01 -3.72823089e-01 -1.26448518e-04 -4.33839522e-02 +3.14249769e-02 +3.24751109e-01 +2.15943038e-01 +1.23285815e-01 +6.57849759e-02 -2.24756718e-01 +1.64514080e-01 +1.31347235e-02 +5.29833212e-02 -7.05501586e-02 -1.30853638e-01 +4.05176617e-02 +1.47234172e-01 +1.06734291e-01 +3.51224542e-01 +1.04698315e-01 +3.13000500e-01 +2.35456377e-01 +1.29252478e-01 +1.92801803e-01 -1.16136167e-02 +2.37769589e-01 +3.55017781e-01 -1.28168866e-01 +1.10190317e-01 -7.19394758e-02 -1.70444369e-01 -2.56268948e-01 -1.28368393e-01 +3.02085370e-01 -3.62913981e-02 +1.30176336e-01 +3.85300845e-01 -4.48983610e-02 +2.94076651e-01 +7.50712752e-02 -2.11751703e-02 +4.43164557e-01 -9.62613672e-02 +5.25002778e-02 -1.90801732e-02 +1.88457727e-01 +4.60557975e-02 -2.61749253e-02 +4.30318061e-03 +2.71153420e-01 -5.22285737e-02 +1.35375693e-01 -9.14185494e-02 +1.37548834e-01 -5.51793352e-02 +9.59643722e-02 +7.22228810e-02 +1.73021834e-02 +1.48225784e-01 -5.37486523e-02 +2.67149955e-01 +3.38964462e-01 +2.53026038e-01 -5.75759448e-02 +2.42721617e-01 +2.20338076e-01 +1.90620702e-02 +2.77425826e-01 -1.23879701e-01 +1.47097275e-01 -1.99180081e-01 -5.22607192e-02 +1.77205741e-01 +1.35865450e-01 -4.58846428e-02 +1.22609794e-01 +1.64360881e-01 -2.78638542e-01 -1.39115779e-02 +2.60674387e-01 +9.14202332e-02 +1.18555933e-01 +4.50202152e-02 +6.83981925e-02 -2.65871100e-02 +1.52181983e-01 -1.57414198e-01 -8.65035783e-03 -5.80095947e-02 -2.20441192e-01 -3.00252259e-01 +1.90132454e-01 +1.04168780e-01 +5.29728504e-03 -3.66546720e-01 -9.52960998e-02 -2.04595312e-01 +2.64950305e-01 +3.83437574e-01 -1.19311489e-01 -1.93456560e-02 -3.14568073e-01 -1.86922073e-01 -1.07087582e-01 +2.49907702e-01 +5.10980368e-01 +1.38158530e-01 -5.06627485e-02 +1.32995591e-01 +2.95574188e-01 -3.63212138e-01 +1.53441742e-01 +3.18484418e-02 -7.24511035e-03 -3.13762128e-01 -4.87175919e-02 +2.42759183e-01 +1.58667024e-02 +1.42247856e-01 -2.76358813e-01 -6.81821033e-02 -1.35671750e-01 -3.06626558e-01 -1.66014910e-01 -1.06506161e-01 -2.82051368e-03 -6.73211291e-02 -2.72875994e-01 +1.52370915e-01 +1.08943537e-01 +1.74586207e-01 -4.59653527e-01 -1.52924135e-01 -2.33977109e-01 +3.32496092e-02 -2.63331443e-01 +7.96379521e-02 -1.87502429e-03 +2.23781228e-01 +2.89091796e-01 +7.12985471e-02 -2.03307331e-01 +1.09833531e-01 -1.45046473e-01 -2.28477553e-01 -2.41682276e-01 -2.26479739e-01 +1.43809635e-02 +3.91095243e-02 -2.57911980e-01 +4.54552397e-02 -4.22054440e-01 -2.82349139e-01 -2.80092984e-01 +1.97640173e-02 +2.36501843e-01 -5.59156649e-02 +2.52777338e-01 +1.72456503e-01 +3.31751406e-01 -1.08594134e-01 -9.79459509e-02 -1.92473069e-01 -1.71542630e-01 -1.27894267e-01 -3.75014067e-01 -1.25984281e-01 -1.98592618e-01 +1.39816850e-01 +3.04403991e-01 -1.40407145e-01 -1.81198373e-01 +2.23081484e-01 +1.86590478e-01 +1.11139253e-01 +4.37889667e-03 -1.28217757e-01 +1.79597795e-01 +1.67814225e-01 +2.21080869e-01 -7.18982657e-03 +3.53908300e-01 -1.27886161e-01 +2.46593192e-01 +2.19137311e-01 +1.23909712e-02 +3.74425128e-02 +5.52902445e-02 +3.98239642e-02 -2.79864579e-01 -2.11036906e-01 +1.79463983e-01 -1.59027964e-01 +1.16780691e-01 -8.15177187e-02 +2.00996339e-01 +1.45709887e-01 +6.81806952e-02 +1.39333501e-01 -3.93480584e-02 +1.61067784e-01 +3.15314531e-01 +3.04580361e-01 +2.11998075e-01 +2.50141710e-01 +3.60358268e-01 +3.32713127e-01 +1.45415097e-01 +3.26979816e-01 -3.56310345e-02 -2.72826880e-01 -1.59906149e-02 -1.83692843e-01 +3.21014494e-01 +1.75548658e-01 +3.43629986e-01 -3.97132784e-02 +3.04780662e-01 -7.42130205e-02 +1.55230939e-01 +1.25094259e-03 +1.39752701e-01 -1.89749181e-01 -6.84425309e-02 +4.37049083e-02 +5.07744635e-03 -1.39133349e-01 +3.05456638e-01 +2.46518627e-01 +1.79262310e-01 +3.52864921e-01 -1.43324304e-02 -9.05221328e-02 +2.82957435e-01 +5.90596907e-03 -6.06819913e-02 -2.21408680e-01 -2.62930002e-02 -4.55203392e-02 -1.22302033e-01 +4.27943766e-01 -3.04827929e-01 +2.05420211e-01 -1.07867986e-01 +9.83155668e-02 +2.32818738e-01 +1.16394922e-01 +7.92683512e-02 +2.15278327e-01 -1.31858036e-01 +9.01005343e-02 +2.67919213e-01 -1.29956976e-01 -2.62934208e-01 -3.61373156e-01 -1.32689416e-01 -2.41200462e-01 +1.97073817e-01 -1.00756332e-01 -3.49415429e-02 +1.56954899e-01 +1.85535192e-01 +1.98837090e-02 -1.18100315e-01 -2.06331044e-01 -6.18438162e-02 +2.69804627e-01 +3.06177258e-01 -3.89018446e-01 -1.09820753e-01 +2.88735986e-01 -2.10000947e-01 -2.39759475e-01 +9.46133286e-02 +1.45924360e-01 -3.23591046e-02 +3.15983623e-01 +3.44263986e-02 -1.58875644e-01 -1.82162821e-01 -7.06797913e-02 +3.74933518e-02 +1.69219747e-02 +4.93399985e-02 -2.47010127e-01 +1.44279942e-01 +8.11968893e-02 -1.27543986e-01 +3.05194795e-01 +3.66317302e-01 +3.95451337e-01 -1.92039460e-01 +1.95319831e-01 -2.68602669e-01 -2.50264525e-01 +1.67161778e-01 -1.56143099e-01 -1.08998068e-01 -7.66683221e-02 +1.81582078e-01 +2.71180092e-04 +2.09878772e-01 -1.21099442e-01 +2.48961300e-01 -7.64611810e-02 -5.40299356e-01 -1.79895852e-02 +2.48080850e-01 -1.56304494e-01 +1.58428848e-01 -7.12246448e-02 -3.81221622e-01 -1.44817546e-01 -3.96256179e-01 -2.12884862e-02 +2.81706844e-02 -3.01808268e-01 -1.21215321e-01 -1.16974398e-01 -1.41551131e-02 +1.32409066e-01 +1.64059162e-01 -2.15185001e-01 +1.39036015e-01 -1.13223664e-01 +1.10496365e-01 -6.80832937e-02 +4.12711501e-01 +1.90246329e-01 -7.25120455e-02 +3.02563161e-02 +2.86484212e-01 -2.47883886e-01 +1.39296353e-01 -6.54546991e-02 -1.42261013e-02 -1.73232574e-02 -1.21271178e-01 -2.34689653e-01 +1.37885138e-01 +4.01704013e-01 -2.99771398e-01 +7.63847977e-02 -2.47204512e-01 +1.94908708e-01 +2.36754656e-01 +3.38204324e-01 -1.19824866e-02 +2.65665114e-01 +5.33138067e-02 -4.25488316e-02 +1.65079027e-01 +2.37027779e-01 +1.52705744e-01 +1.14566926e-02 -5.36056720e-02 +1.68525100e-01 +8.59754160e-02 +2.89531648e-01 -2.60027051e-01 -8.61147642e-02 -1.04701675e-01 +1.74030796e-01 -1.40594259e-01 -2.10859761e-01 +2.15418726e-01 -2.04048648e-01 -4.76492979e-02 -2.36932918e-01 +2.31640846e-01 +6.69017318e-05 -1.65280104e-01 +1.57908611e-02 -7.76411816e-02 +7.67675564e-02 -2.27959171e-01 -2.84833848e-01 +1.05231680e-01 -2.84967929e-01 -1.57660618e-02 -1.96403578e-01 +1.10538743e-01 +1.48181051e-01 -7.52474815e-02 +1.77632108e-01 -1.49482533e-01 +4.54504834e-03 -1.63177028e-01 -1.16772607e-01 -3.46171588e-01 -1.55200064e-02 -1.58403113e-01 -2.13688731e-01 +6.77528083e-02 +4.38474193e-02 +9.09589827e-02 -3.01098228e-01 +1.28919318e-01 -1.94536388e-01 +6.84950799e-02 -2.36329976e-02 +6.36321157e-02 +1.58063900e-02 -1.85223311e-01 -1.42172026e-02 -1.59538016e-01 +1.28634006e-01 -1.81695580e-01 +7.69221634e-02 +1.35005429e-01 +7.00179413e-02 +7.06836805e-02 +2.21923381e-01 +1.46136180e-01 -3.71377409e-01 +2.12879807e-01 -3.96185853e-02 +2.87081227e-02 -1.39667124e-01 -2.17295319e-01 -1.78868696e-01 -6.17986433e-02 +4.78669964e-02 -1.55026704e-01 +2.53907681e-01 +1.22893818e-01 +1.25445008e-01 -4.43299741e-01 +1.06898233e-01 -8.27255324e-02 +1.42477155e-01 -8.16801563e-02 +3.09047867e-02 -8.07396695e-02 +9.80678201e-02 +2.12682009e-01 +2.33638778e-01 -1.04648739e-01 +1.51885655e-02 -1.44047976e-01 -1.45305336e-01 +3.80534858e-01 -1.36164227e-03 +6.77326396e-02 -2.73541063e-02 -1.01289988e-01 -1.73678458e-01 +3.88746150e-02 -1.95401981e-01 -1.38364047e-01 -5.47119454e-02 -2.06834935e-02 +7.89424330e-02 -2.40683824e-01 +2.56564692e-02 +5.66015303e-01 +6.03987724e-02 +8.39677975e-02 -1.67799845e-01 +2.24987701e-01 -2.02803448e-01 +2.01098025e-01 +7.69695565e-02 +1.06545158e-01 -1.29186317e-01 -2.51834214e-01 +1.02234436e-02 -1.72971655e-02 +2.45876089e-01 +1.44907102e-01 -1.42526001e-01 +1.03043616e-01 +8.52539837e-02 +1.32057130e-01 -2.10820749e-01 +3.94127443e-02 +2.64265329e-01 +1.86594933e-01 +1.96595743e-01 -1.06207751e-01 +1.62631392e-01 -1.33452386e-01 +1.69637334e-02 +1.22001663e-01 +9.86478478e-02 -5.23218848e-02 +7.81692863e-02 -4.18697074e-02 -1.67365384e-03 +1.13729060e-01 -1.75221056e-01 +3.64359051e-01 +2.01815255e-02 +1.99092906e-02 -1.11855239e-01 -1.53477654e-01 +3.79374802e-01 -5.05749844e-02 -1.48647219e-01 -5.62322093e-03 -5.60633279e-02 +2.79627256e-02 +3.92012224e-02 -1.26129627e-01 +1.75287396e-01 +5.48522584e-02 +8.42491835e-02 +1.25484169e-02 -1.59421951e-01 +2.73521215e-01 -1.40227929e-01 +6.63506314e-02 -5.04073910e-02 +2.32455030e-01 -1.46375030e-01 -4.00513150e-02 +2.22756594e-01 +5.07151596e-02 +2.15503991e-01 
#Parameter# /_8 {50} 801 ZERO_GRAD
-1.14402464e-02 +1.72474504e-01 +1.53229192e-01 +2.46755257e-01 -2.39013098e-02 -1.15693182e-01 +2.17913508e-01 -2.50509251e-02 +4.07579876e-02 +3.28417905e-02 +1.55244142e-01 +1.56214144e-02 -8.75888914e-02 +5.42435271e-04 +1.51296839e-01 +2.05529034e-01 -1.35224745e-01 +3.38646531e-01 -1.68234155e-01 +2.20964089e-01 +1.23596698e-01 +3.65921110e-01 +2.75746197e-01 +1.45466980e-02 -1.45678833e-01 -7.59003907e-02 +6.16064593e-02 +1.68810621e-01 +1.18054092e-01 +6.87027350e-03 -3.94472554e-02 -3.42599005e-02 +2.18202904e-01 +1.96382236e-02 +1.17253594e-01 +3.75004113e-02 +1.91951752e-01 -6.62881359e-02 -6.59109652e-02 -5.58415614e-02 -2.70620119e-02 +1.36111245e-01 -2.10035089e-02 +2.73593329e-02 -1.53150456e-02 +3.45062792e-01 +1.21203214e-01 +1.06778428e-01 +3.54841314e-02 -6.07597381e-02 
#Parameter# /_9 {50,3} 2401 ZERO_GRAD
-2.35032439e-01 -5.19541167e-02 +1.07267223e-01 +2.79408023e-02 -2.60831654e-01 -2.90950835e-01 +2.12543860e-01 -4.55066711e-01 -1.22921854e-01 +9.78888035e-01 -2.07328662e-01 -1.88377529e-01 +2.28973888e-02 +1.19315274e-01 +1.07972920e-02 +1.14158057e-01 +7.21372440e-02 +6.21036053e-01 -8.79497230e-02 -4.46612805e-01 -5.20518422e-01 -3.39118481e-01 +7.89421260e-01 -1.21141374e-01 +3.60321999e-01 -4.36506718e-01 +2.98599422e-01 -9.28906798e-01 -3.31143558e-01 -4.06597927e-02 -2.44415477e-01 -2.15564281e-01 -2.31549695e-01 -6.34011805e-01 -3.09313089e-01 +4.95671593e-02 +2.44420364e-01 -1.88202903e-01 -3.77625644e-01 -7.38495588e-02 -3.45287830e-01 -2.20616356e-01 +4.60542142e-01 -1.17806032e-01 +3.66225928e-01 -4.60243613e-01 -4.15641934e-01 -3.02018411e-02 -3.11266929e-01 -4.19743270e-01 +5.17046414e-02 +9.11353808e-03 +2.88462397e-02 -1.17973268e-01 +2.62689352e-01 +3.02545130e-01 +2.49153733e-01 +3.24915737e-01 -3.27490568e-01 -8.66191328e-01 +1.86615795e-01 -1.42782018e-01 -2.66706854e-01 +1.97330043e-01 +5.01940608e-01 -5.04535079e-01 +4.63912964e-01 -3.28847587e-01 +1.22063801e-01 +3.71445090e-01 +2.04800703e-02 +1.69025064e-01 -8.02636623e-01 -1.23477109e-01 +2.36193269e-01 +4.28796440e-01 -2.74000585e-01 +6.02596760e-01 +6.38426170e-02 -5.64534426e-01 +4.09395009e-01 +3.28009650e-02 +2.84672324e-02 +5.89236498e-01 +8.10678825e-02 +4.20707047e-01 +2.22880603e-03 +3.60842615e-01 +1.96235806e-01 -5.31422317e-01 +1.44995958e-01 +1.34885311e-01 -3.38307202e-01 +2.00148925e-01 -7.15993404e-01 -1.38787568e-01 +4.31874394e-01 -1.19997181e-01 +4.40014839e-01 -3.09023540e-02 +3.62354398e-01 +1.48255065e-01 -1.29930109e-01 -3.86239737e-01 +1.86409190e-01 -1.88109353e-02 +1.89708263e-01 -1.22587672e-02 -3.91744971e-01 -5.80545902e-01 +5.14108002e-01 +3.79044414e-01 +1.12278283e-01 -2.68156230e-01 +1.39316529e-01 -7.87336379e-02 -2.31265407e-02 -6.79926157e-01 -9.48512629e-02 +3.30385268e-01 +1.04186535e-01 -1.03493683e-01 -1.03234053e+00 -4.73187089e-01 -2.32253641e-01 -1.49307579e-01 +4.45359834e-02 +6.31893277e-01 +9.81382206e-02 -3.08562249e-01 -7.20578283e-02 -2.21833944e-01 +2.67525077e-01 +4.94780659e-04 +1.91255864e-02 +1.19194999e-01 +7.35953748e-02 +1.00605935e-01 +4.66372311e-01 -4.98231560e-01 +1.74996063e-01 +4.05389398e-01 -3.25399429e-01 -1.25721186e-01 -6.29457653e-01 -2.66570300e-01 +3.32862020e-01 -6.61386371e-01 +5.30746520e-01 +4.44229186e-01 
#Parameter# /_10 {50,50} 40001 ZERO_GRAD
