#Parameter# /_1 {2,50} 1601 ZERO_GRAD
-2.14276254e-01 -1.37440264e-01 -3.12045682e-02 -1.15874343e-01 -9.91098583e-02 -2.37300217e-01 +4.36464220e-01 -2.94564694e-01 -2.68873036e-01 +3.16596478e-01 +5.72558820e-01 +6.44432679e-02 +1.34332046e-01 -1.24382839e-01 -7.55499780e-01 +6.96175098e-01 -4.92393434e-01 +4.79188383e-01 +4.77071375e-01 -5.91786094e-02 -3.75293314e-01 -1.01778679e-01 +3.67225707e-01 +1.47406489e-01 -4.32671756e-01 +3.64505112e-01 -9.11740363e-02 -9.64729115e-02 -2.00371981e-01 +3.39296818e-01 +3.42154831e-01 +9.07312110e-02 +1.32684171e-01 +1.08854175e-01 +1.49616033e-01 -4.11113352e-01 +1.38237670e-01 -1.27840921e-01 +4.78679329e-01 +3.25282179e-02 +1.79891095e-01 +2.53297955e-01 -2.39465181e-02 -2.46272072e-01 -3.86930138e-01 +5.38082182e-01 +1.63229957e-01 -1.12284511e-01 +1.72091424e-01 -8.58581439e-02 -1.93428434e-02 +7.69695342e-02 -9.23141167e-02 -1.80983752e-01 +4.52519000e-01 -4.58303779e-01 -4.77745891e-01 +3.27525973e-01 -4.92487043e-01 +2.55746156e-01 -4.33499545e-01 -8.85374695e-02 +8.03476050e-02 -1.33991048e-01 -1.12288587e-01 -3.97046059e-02 +3.38317156e-01 -4.15305465e-01 +4.50625718e-01 -6.28106833e-01 +2.96219021e-01 +1.99946150e-01 +4.11311202e-02 -9.71464161e-03 -2.20815212e-01 -2.83002794e-01 +1.53306901e-01 -9.91962329e-02 -3.98212761e-01 +5.47626354e-02 +1.30557165e-01 -9.07154903e-02 +5.13655841e-01 -5.50579071e-01 -2.15176210e-01 -1.28580540e-01 -3.66619766e-01 -7.05616921e-02 -4.78283525e-01 +1.53281301e-01 +1.38212144e-02 +9.04278979e-02 +1.29062995e-01 -1.43500075e-01 +9.33721215e-02 +1.90576296e-02 +2.80069187e-02 +1.20885298e-01 -7.95786902e-02 -2.43289128e-01 
#Parameter# /_2 {2} 33 ZERO_GRAD
+2.38148868e-01 +4.51156974e-01 
#Parameter# /_3 {50,3} 2401 ZERO_GRAD
+4.29870980e-03 +2.57225871e-01 +1.15036532e-01 -4.38261658e-01 +2.04008088e-01 -3.15143526e-01 -2.04643399e-01 -3.89227688e-01 +3.42251629e-01 +3.14457081e-02 -1.83165938e-01 -1.63110182e-01 -4.56248820e-01 +2.45458618e-01 -1.91775933e-01 -3.26938003e-01 -6.67626634e-02 +1.91827193e-02 +1.42350063e-01 -2.94484526e-01 -3.97815704e-01 -2.34165341e-01 -4.56303716e-01 -2.23201767e-01 +2.77396619e-01 -1.34703696e-01 +2.40211457e-01 +6.16586246e-02 -3.11170846e-01 +1.49966046e-01 +1.40062287e-01 +3.29931349e-01 -3.61761749e-01 +3.48599494e-01 -1.28534764e-01 +1.28285259e-01 +1.01600610e-01 -3.39481324e-01 -1.03798613e-01 -2.07542166e-01 +1.98427528e-01 +1.00940138e-01 +1.18953340e-01 -3.70106757e-01 +4.07537669e-02 +2.19215885e-01 -3.20487678e-01 +6.77467957e-02 -2.68753581e-02 +1.28811672e-01 +9.88732874e-02 +1.68272704e-01 +1.89627051e-01 -1.18020512e-01 +1.00590393e-01 +2.98699826e-01 +3.35582733e-01 -3.93223286e-01 -1.96000934e-01 +8.99780095e-02 +1.66238740e-01 -1.85942128e-01 -1.60154641e-01 -2.34346241e-01 +3.57086271e-01 +3.60410839e-01 -4.03920226e-02 -3.49050574e-02 +1.37537763e-01 +1.42214522e-01 -8.90886188e-02 +8.95548761e-02 +7.81832337e-02 -1.13239884e-01 -1.42032094e-02 +3.48925531e-01 +3.08551162e-01 +1.18543550e-01 -2.33253576e-02 +3.66979897e-01 +2.95370430e-01 +2.83025742e-01 +1.38152868e-01 -4.65445556e-02 -2.04491280e-02 +2.96823263e-01 +2.44753897e-01 -2.20055863e-01 -1.40003905e-01 +4.41918708e-02 -1.56212207e-02 -1.86074693e-02 +1.64339423e-01 +1.40877739e-01 +2.25975007e-01 +2.04807803e-01 -2.24451333e-01 -7.14526102e-02 +2.94040829e-01 +2.65852988e-01 +3.89176518e-01 -3.43592428e-02 -6.32223636e-02 +1.77950993e-01 +2.91125346e-02 +5.75065650e-02 -1.33794382e-01 -3.08077872e-01 +3.87690701e-02 -2.20364124e-01 +2.53241241e-01 -5.07684685e-02 -5.64259291e-01 -1.86350301e-01 +2.39797473e-01 +1.87580526e-01 -2.87226558e-01 -9.47356150e-02 -1.11320853e-01 +1.77815184e-01 -8.76456127e-02 +2.81477004e-01 -4.13416982e-01 -2.29057878e-01 -2.51464725e-01 +2.99188584e-01 +2.93051630e-01 -1.94628775e-01 -3.00134420e-01 +1.43186152e-01 -1.90702528e-01 +1.67550147e-01 -1.34884249e-02 +3.48881632e-01 -1.15850411e-01 +2.64996678e-01 -8.58822241e-02 +1.06981872e-02 +3.01376015e-01 -3.60543817e-01 -1.01781741e-01 +7.41989985e-02 +2.07043201e-01 -2.03650817e-01 -1.75397828e-01 +1.39310181e-01 +2.94413511e-03 +6.75398260e-02 -2.89141625e-01 -7.97386467e-02 
#Parameter# /_4 {50,50} 40001 ZERO_GRAD
+2.15227157e-01 -1.48033589e-01 +1.55915245e-01 +1.42325297e-01 -3.04223716e-01 -2.16235325e-01 -2.45539173e-01 -8.31563994e-02 +9.26369652e-02 -2.68620759e-01 -9.37299803e-02 -2.15040773e-01 +2.73341089e-01 +5.21504041e-03 +1.67201251e-01 +5.87663315e-02 +7.50720501e-02 +6.14115298e-02 -2.25512058e-01 -1.36958882e-01 -2.39059761e-01 +7.11115748e-02 +1.30287275e-01 -8.31481516e-02 +3.35231237e-02 -1.53008252e-01 -1.50286984e-02 -1.19668931e-01 +1.65344357e-01 -1.28190696e-01 +3.32892127e-02 +7.17312917e-02 +1.40868723e-01 -1.51894882e-01 +4.46454957e-02 -3.16027552e-01 -8.44271258e-02 -1.51570916e-01 -1.97064672e-02 -1.26697987e-01 -2.63353786e-03 -4.82330360e-02 -3.84375118e-02 +1.55549459e-02 +3.43763307e-02 -2.91066449e-02 +2.22610265e-01 -2.40768597e-01 +2.30303798e-02 -2.43025377e-01 -8.17172378e-02 -1.02738403e-01 -2.35249072e-01 +2.83268869e-01 -2.27496579e-01 -7.93139562e-02 -6.93366900e-02 -4.99066850e-03 +6.19472712e-02 -1.96166322e-01 -1.53147221e-01 -2.44953871e-01 +5.20296469e-02 +1.27261445e-01 +8.64569545e-02 -1.15459539e-01 -1.48569927e-01 +2.10186690e-01 -3.92190926e-02 +8.23137388e-02 +2.80242503e-01 +2.54141480e-01 +4.76834960e-02 -1.41041607e-01 +1.57269705e-02 +2.73551792e-01 +2.32958078e-01 -8.97545591e-02 +2.85109460e-01 +2.18481004e-01 +4.91159782e-02 +8.89172778e-02 +7.23574683e-02 +2.47951448e-01 +1.59672827e-01 -8.55755657e-02 +1.22449771e-02 +1.94815397e-01 -1.45842105e-01 +2.93360978e-01 -9.31962878e-02 +1.36269063e-01 -1.68120205e-01 -1.67579129e-01 +5.98845668e-02 -1.82720914e-01 -1.19987063e-01 -1.87187083e-02 -4.95142192e-02 +1.77637368e-01 +2.25175753e-01 -1.66134052e-02 +1.11595534e-01 +1.46573707e-01 -7.24425241e-02 +2.16164231e-01 +4.49686050e-02 -1.44893140e-01 -1.37659639e-01 +2.31166944e-01 +2.22521320e-01 -1.82516709e-01 +1.69054225e-01 +1.13094427e-01 +4.05029878e-02 +1.95062563e-01 -2.91359928e-02 +6.52258769e-02 +2.29115356e-02 +2.57665832e-02 +3.99138689e-01 +1.88839454e-02 -1.12040594e-01 -1.07012399e-01 -1.82819635e-01 +6.27135709e-02 +1.81869909e-01 +1.32994503e-01 -2.90876683e-02 +3.42562407e-01 -3.42972130e-02 -9.86938402e-02 -1.28917890e-02 +1.65711269e-02 -1.13143057e-01 +1.12361386e-02 -6.38174638e-02 +1.15557879e-01 +1.87508807e-01 -8.38783681e-02 -8.71144533e-02 +1.03686064e-01 +1.30833492e-01 +9.71826464e-02 -2.40580380e-01 +1.99998319e-01 -1.48343697e-01 +6.57340810e-02 +1.31649762e-01 +3.37236851e-01 -1.02748662e-01 -3.68944347e-01 +2.16639087e-01 +4.37495252e-03 +3.79989952e-01 +2.20583901e-01 -2.44129315e-01 +2.03520164e-01 +1.95701927e-01 -8.26515108e-02 -8.16363283e-03 +2.26522282e-01 -1.92003831e-01 +2.88137764e-01 -1.07847840e-01 +2.33893823e-02 -9.83196869e-02 +1.79960549e-01 +9.35667902e-02 -3.87783758e-02 +1.46128774e-01 +1.54338524e-01 +1.66804954e-01 +1.93504751e-01 +1.89030051e-01 -1.44404575e-01 +9.80638992e-03 -7.76592791e-02 +8.59824494e-02 -6.48907200e-02 -1.71168402e-01 -1.69480920e-01 +1.74322128e-01 -3.47921520e-01 -2.24072888e-01 +3.47804725e-01 -2.11855665e-01 -1.08929865e-01 +7.64923766e-02 +1.46289647e-01 -6.02785721e-02 -3.97573635e-02 -6.57609627e-02 +2.55469710e-01 -1.65988371e-01 +2.58212805e-01 -3.29020202e-01 +5.55307092e-03 -1.89754412e-01 +1.47817329e-01 -3.99785489e-02 +6.56048581e-02 +1.43681273e-01 +9.20266211e-02 -3.67965847e-02 -4.14869189e-03 +2.10989043e-01 +2.34494567e-01 +1.60356477e-01 +2.41879180e-01 -1.27131835e-01 +3.37991744e-01 -1.79518849e-01 +9.92056951e-02 +2.21177489e-02 -1.83510836e-02 +1.43842593e-01 +9.05058905e-02 -2.14672405e-02 +1.81236446e-01 -6.47054687e-02 +2.86435872e-01 -4.38961806e-03 +3.65600437e-02 -2.03410372e-01 +1.96244925e-01 -1.19312450e-01 -1.20554842e-01 +1.50278166e-01 +1.98458478e-01 -1.14915567e-02 -1.09854400e-01 +2.79333234e-01 +9.37210172e-02 -1.92821212e-02 -6.89203888e-02 +1.46185085e-01 -1.96703836e-01 +2.19360404e-02 +1.53281972e-01 -3.25146951e-02 +2.00376600e-01 +7.75779858e-02 -1.53966233e-01 -8.71432275e-02 +1.91612747e-02 -2.09901616e-01 -3.00639290e-02 -2.36032575e-01 +1.87653288e-01 +1.48707822e-01 -1.33082867e-01 +1.21555701e-01 -3.10337365e-01 +1.60391599e-01 +1.30531877e-01 -9.30049345e-02 -1.01946015e-02 +1.99814931e-01 +3.11709680e-02 +3.10093351e-02 -6.53775632e-02 +2.32204720e-01 +2.63706118e-01 +2.73213144e-02 +1.37252077e-01 -1.71799883e-01 -1.71621248e-01 -1.89306904e-02 +2.33048216e-01 +7.46642277e-02 +7.99620077e-02 -9.11155716e-03 -1.57741606e-01 -1.40677318e-01 -2.45998487e-01 -1.83161005e-01 -2.04768740e-02 -1.40524179e-01 -5.15056327e-02 -2.58511335e-01 +1.73984002e-02 -1.36649951e-01 -4.77490127e-02 -1.82097197e-01 +2.48217285e-01 +9.35325027e-02 -1.81415007e-01 +1.57923609e-01 +4.15258296e-02 -1.42406657e-01 +1.42496198e-01 -3.87815796e-02 -2.06479788e-01 +1.81854382e-01 -1.67070717e-01 -3.71860936e-02 -1.42843723e-01 -1.85530242e-02 +4.00630897e-03 +1.03665866e-01 +2.45547220e-01 -1.31049916e-01 +1.95164964e-01 -1.62326284e-02 -1.85157478e-01 +5.97306825e-02 +9.69846621e-02 +1.36414245e-02 +9.63210966e-03 -2.49985546e-01 -5.61485551e-02 +3.09029460e-01 -9.96734053e-02 -1.82028696e-01 +1.30492002e-01 +9.76263657e-02 +2.46962950e-01 +7.20306125e-04 -1.18551172e-01 -1.29706651e-01 -4.95959679e-03 +2.12702863e-02 -1.36496902e-01 +8.52271765e-02 +1.94098070e-01 -2.61923164e-01 +2.41813093e-01 -7.40791336e-02 -2.90211201e-01 +1.68847740e-01 -3.34544890e-02 +2.47857198e-01 +1.95180476e-01 -1.57007426e-02 -1.72362819e-01 -1.44368693e-01 -3.36557478e-02 -6.50546104e-02 -1.36994600e-01 -5.74697927e-02 -1.99224025e-01 +1.42656699e-01 +1.38808697e-01 -1.82197019e-02 +1.00080758e-01 -1.26316190e-01 -7.06145018e-02 +9.70846564e-02 -7.86309876e-03 -2.18888655e-01 -1.57600522e-01 -5.44955023e-02 +1.38872579e-01 -1.41632587e-01 +1.52685031e-01 +2.62992889e-01 -1.17405042e-01 +1.58973947e-01 +1.32485881e-01 -2.14152500e-01 +4.40224074e-02 +1.25473335e-01 -1.46844029e-01 +2.11223230e-01 -2.14728564e-01 -1.37348816e-01 +7.41851926e-02 +8.73990916e-03 -1.17022775e-01 -2.59707034e-01 -2.64163077e-01 +8.03209096e-02 +1.54266700e-01 -1.64306223e-01 -1.42522708e-01 -1.31576642e-01 +2.15867274e-02 +3.26225832e-02 +1.79238737e-01 +1.94394737e-02 +2.04492994e-02 -2.18887627e-01 -1.78823233e-01 -1.70836315e-01 -1.98682949e-01 -3.32295090e-01 -2.13724121e-01 -1.72661871e-01 +9.57714841e-02 -1.61933661e-01 +9.52934008e-03 -1.60185352e-01 -3.98822837e-02 -2.25529462e-01 +1.01148359e-01 -1.09126894e-02 -1.60825606e-02 -2.58692801e-01 -8.69231820e-02 +2.93892790e-02 -1.39651885e-02 -1.03899345e-01 +1.67444527e-01 +1.08159088e-01 +7.65451491e-02 -5.88139519e-02 -2.14429632e-01 +6.57556653e-02 -3.23603183e-01 +1.09815352e-01 +9.50671062e-02 -3.11897635e-01 +1.48680568e-01 +1.08829057e-02 -4.07668442e-01 -3.04366171e-01 -1.04187965e-01 +5.60899377e-02 -3.54127809e-02 -3.67050678e-01 -2.70743519e-01 -1.14097251e-02 -1.35269061e-01 -2.48937339e-01 -3.03553760e-01 -1.55528590e-01 -1.00953221e-01 -1.41607374e-01 -1.03600562e-01 -2.70540178e-01 -1.85891032e-01 +8.50350857e-02 -1.26392126e-01 +1.19127966e-01 -2.08552882e-01 -1.68104783e-01 +6.23222664e-02 +9.11389440e-02 -1.51248470e-01 -2.73184597e-01 -2.40238130e-01 -8.81533027e-02 -1.41381085e-01 +2.75856644e-01 +2.32678875e-01 +1.29070595e-01 -1.42247573e-01 -9.98523366e-03 +2.27289218e-02 +5.94604760e-02 -9.50166136e-02 -3.00907344e-01 +4.09046449e-02 -3.52887779e-01 +9.62342992e-02 -2.13867903e-01 +6.15839623e-02 -8.77963454e-02 -2.19446570e-01 -5.16998721e-03 +2.27168091e-02 -1.64237112e-01 -2.72443682e-01 -8.50160941e-02 -1.74827754e-01 -2.34303117e-01 -1.30213931e-01 -3.25915277e-01 -1.32268995e-01 -3.12870324e-01 -1.58319652e-01 -1.47166684e-01 +3.66099514e-02 -1.22039057e-02 -1.08694665e-01 -1.12946682e-01 +1.46459058e-01 +1.28667578e-01 -3.84546556e-02 -9.13088173e-02 -2.16231257e-01 +4.75316383e-02 +7.77488798e-02 +7.06700087e-02 -1.45218000e-01 -3.40292871e-01 -2.53868401e-01 -1.13886788e-01 -2.28138044e-01 -8.79748315e-02 +3.92150655e-02 -3.47553287e-03 -2.78638005e-01 +1.69895157e-01 -1.75977066e-01 +2.45944545e-01 -3.79898190e-01 +2.24912584e-01 +1.13462269e-01 -1.86686054e-01 -1.56329900e-01 -1.36258632e-01 -2.50578940e-01 -2.07588091e-01 +4.60514911e-02 +2.39028454e-01 -1.60512656e-01 +1.67559668e-01 -9.56003591e-02 -1.51702464e-01 -1.90966241e-02 -7.83980340e-02 -2.83280522e-01 -1.14904456e-01 -3.47697765e-01 -9.03495327e-02 -3.16444576e-01 -9.38249528e-02 -2.18721345e-01 -4.75841872e-02 -1.17038317e-01 +2.14862913e-01 -1.64698243e-01 -1.15280010e-01 -3.01180214e-01 +5.46172261e-03 +1.47939518e-01 -1.00013860e-01 +2.98274849e-02 -1.78491846e-01 -2.02727214e-01 -9.45763886e-02 +7.20587894e-02 +1.85461119e-01 -2.19717920e-01 +3.17298844e-02 +1.83453009e-01 +9.63685215e-02 -1.79070726e-01 -3.42049301e-01 +1.03363991e-01 +7.67747462e-02 -1.88781261e-01 +2.03352749e-01 -1.26038557e-02 +2.80579984e-01 -8.69556069e-02 +4.73846085e-02 +1.04837127e-01 -3.37546598e-03 +1.46026507e-01 -2.01118663e-01 -2.14977920e-01 -2.82975465e-01 +1.58304662e-01 -9.81739089e-02 -1.71081483e-01 +1.93467677e-01 -6.12436756e-02 -4.63988595e-02 +1.33575574e-01 +3.17154638e-02 +2.24319771e-02 -2.75781304e-01 -1.03357889e-01 -4.37735245e-02 -1.33442760e-01 +1.08570540e-02 -1.22857548e-01 -1.59924701e-01 +1.24544375e-01 -3.21161970e-02 +1.05310299e-01 -8.77629295e-02 +1.86954379e-01 -4.25563455e-02 +9.58427638e-02 +1.54144987e-01 -2.19609305e-01 -2.39664838e-01 -3.07795882e-01 +1.63127184e-01 +1.83017790e-01 +1.88914329e-01 +1.52486563e-01 -2.84919530e-01 +1.77989434e-02 -8.15968364e-02 +7.72633329e-02 +1.25630721e-02 -2.59984851e-01 +3.09145413e-02 -1.22371063e-01 -7.91168585e-02 -1.10315248e-01 -2.08365664e-01 +1.44404069e-01 -2.46730864e-01 +1.40493527e-01 +1.82161644e-01 +1.25517309e-01 -1.77298740e-01 -1.04661681e-01 -3.56028348e-01 -8.37687477e-02 +2.26634145e-01 -9.67732370e-02 -2.18906015e-01 +2.79757679e-01 -1.87948525e-01 -1.70896307e-01 +9.46243256e-02 -3.63749921e-01 +2.59287536e-01 -6.18747296e-03 +6.88153282e-02 -8.47235098e-02 -2.97981570e-03 +1.78387076e-01 +3.36702764e-01 +1.70602649e-01 -2.37194270e-01 +1.08128250e-01 +1.34551391e-01 +3.70781124e-01 -2.79239602e-02 +2.96966106e-01 +1.89194649e-01 -4.53915671e-02 -1.56173885e-01 -5.53191863e-02 +1.77290067e-01 -5.73953763e-02 +1.95677578e-01 -3.10928494e-01 -1.76901668e-01 +2.83799738e-01 +2.32702836e-01 -2.87993029e-02 +2.56171942e-01 -5.33416755e-02 +2.28584036e-01 -4.41787019e-02 -5.31042479e-02 -3.96272838e-01 +2.14769617e-01 +2.58734614e-01 -6.27566874e-02 -9.94857252e-02 -2.71387786e-01 -1.43663939e-02 -7.03217015e-02 +1.65773019e-01 +2.65638560e-01 +2.26011828e-01 +7.39852386e-03 -1.20895632e-01 -1.16522200e-01 +4.80861180e-02 -1.16962433e-01 +2.18422301e-02 +5.58094420e-02 +1.74404234e-01 +3.36725153e-02 +1.05639651e-01 -9.13866833e-02 -3.00671697e-01 -2.96076298e-01 +2.18363926e-01 +2.01628935e-02 +7.07174242e-02 -2.27440134e-01 -7.14536756e-02 -1.44231796e-01 -2.32052952e-01 -6.58041537e-02 +1.67785183e-01 -2.27010056e-01 -2.89073121e-02 -2.25088045e-01 -1.32457539e-02 -3.07243437e-01 -1.88460067e-01 +4.89361286e-02 -1.52962014e-01 -9.04874131e-02 +7.77241886e-02 -2.52783578e-03 -1.28860697e-01 +2.65478306e-02 +8.22313949e-02 +3.29372436e-02 +1.46853223e-01 +1.03772536e-01 -1.34469569e-01 -1.60377428e-01 +1.50387362e-01 -2.46034339e-01 -1.78144816e-02 -1.32711023e-01 -2.81038702e-01 -1.28297403e-01 +8.46988484e-02 -6.41903281e-02 -1.13894351e-01 -2.20672101e-01 -1.54243544e-01 -1.27740875e-01 -3.90305296e-02 +1.17861167e-01 +2.39713684e-01 -1.49238870e-01 +2.01689318e-01 +1.84753254e-01 -4.24735360e-02 -3.08964193e-01 -5.71979582e-02 -1.92071572e-01 -2.18258679e-01 -2.91994363e-01 +4.08887751e-02 -3.23114619e-02 +1.93230987e-01 +1.54635953e-02 +3.95975262e-02 -2.39776865e-01 -8.44888911e-02 +7.25071877e-02 -2.76671886e-01 -5.86772896e-02 +2.00847387e-01 -8.14271867e-02 -1.77074656e-01 -1.06511265e-01 -1.06475137e-01 -1.35870203e-01 +6.20063841e-02 -8.59694928e-02 -3.26436073e-01 -8.84787142e-02 -2.18448579e-01 +1.81625545e-01 +1.08651750e-01 +1.43851534e-01 +2.07659140e-01 -3.67161371e-02 +1.64334834e-01 -3.76937091e-02 +2.43448745e-02 -2.20328510e-01 -9.66074020e-02 +7.08312318e-02 -3.57269645e-01 +3.85795444e-01 +9.26781259e-03 -1.91970661e-01 +1.85655117e-01 +2.17587538e-02 -1.59646764e-01 +9.09067541e-02 +6.81012794e-02 -1.48391172e-01 +1.30749971e-01 +1.58781216e-01 +1.28417954e-01 -1.77466854e-01 -1.13709547e-01 +2.38413319e-01 +2.64100403e-01 -8.67455602e-02 -2.70510744e-02 -2.70640701e-02 +5.91456331e-02 -8.79701152e-02 +7.85234720e-02 -1.19766258e-01 +1.70718864e-01 -1.23096250e-01 +2.91928232e-01 -2.63488352e-01 +2.32884467e-01 +4.52192985e-02 -1.56238809e-01 +1.33449778e-01 +2.04803020e-01 +1.51198626e-01 -1.64857149e-01 -1.86778009e-01 +3.24988484e-01 +1.25671029e-01 +1.54755861e-01 +1.25362417e-02 +2.35910714e-01 -6.11247681e-02 +1.27978936e-01 -2.35660285e-01 +1.20292731e-01 -6.03221990e-02 +2.95661658e-01 +1.35752127e-01 +2.92465180e-01 +2.42323466e-02 +4.93288003e-02 -1.79744586e-01 +2.81318963e-01 +1.12831229e-02 -1.59171760e-01 -2.08001539e-01 -6.36632740e-02 -2.59848349e-02 -1.77560583e-01 +6.83871880e-02 +2.43611664e-01 -5.54518998e-02 +2.99417764e-01 +2.82610003e-02 +3.19029003e-01 +1.75648466e-01 -2.28176296e-01 +7.44132847e-02 +2.54904330e-01 -2.26671472e-01 +6.75108060e-02 +1.93076432e-01 +3.62014830e-01 +1.71005502e-01 +8.21985602e-02 +4.62213308e-02 +2.47223571e-01 +1.97464973e-01 -1.41960829e-01 +3.15837979e-01 +7.30203316e-02 +2.41969153e-01 -1.76309958e-01 -8.51521194e-02 +3.59638184e-01 -1.68211430e-01 +2.80408654e-02 +1.57409966e-01 -1.34022027e-01 +1.01851009e-01 -1.44917935e-01 +5.40729761e-02 -2.28123918e-01 +1.68631777e-01 -6.22766688e-02 +1.40899703e-01 +3.50383282e-01 -2.23687962e-01 -8.09324235e-02 -7.74583220e-02 -1.77935511e-01 -2.38197938e-01 +2.25893393e-01 -1.28220916e-01 +6.45547286e-02 -8.44664350e-02 -6.58944920e-02 -3.02831501e-01 -2.84533482e-02 +2.64150482e-02 +1.13215312e-01 +6.26854300e-02 -2.00523525e-01 -7.08627105e-02 -2.20474094e-01 -5.54104336e-02 +7.40699917e-02 +1.09419063e-01 +3.26387025e-02 -2.37881884e-01 -9.61790681e-02 -1.41502395e-01 -1.05158538e-01 +2.46957213e-01 -1.60957426e-01 -3.44698131e-02 +9.47172493e-02 +1.31688148e-01 +1.34406105e-01 -7.34889060e-02 +1.44778863e-02 +2.32331723e-01 +7.81085864e-02 +1.77648619e-01 +2.37652883e-01 +5.64799309e-02 -9.66737419e-02 -2.25550011e-01 +1.07911453e-01 -1.57185540e-01 +4.07401174e-02 +9.87976342e-02 -3.27031910e-01 +1.53424606e-01 +7.68102100e-03 +2.58972317e-01 -9.66240242e-02 +6.07200675e-02 +3.55241865e-01 +1.99012682e-02 +1.74585238e-01 -7.39455745e-02 +2.34208733e-01 +1.51066437e-01 -1.34004802e-01 -1.37064978e-02 +3.12915683e-01 -2.29993224e-01 +2.04096749e-01 +1.62249997e-01 -1.53242499e-01 +2.48872623e-01 +2.62479961e-01 +3.00434381e-01 +2.03409716e-01 -1.23016305e-01 +1.06275745e-01 +2.72751927e-01 -1.76514626e-01 -1.94805652e-01 -1.08741470e-01 +2.84973055e-01 +2.51567900e-01 -4.17635143e-02 +6.42886460e-02 +3.19736861e-02 +8.51811171e-02 +1.42030165e-01 -1.23660818e-01 -4.83559864e-03 +2.85212129e-01 -1.27538651e-01 -3.06880534e-01 +2.46176854e-01 +7.62514248e-02 -7.12268129e-02 -1.20669872e-01 +1.18133292e-01 +3.42756003e-01 +4.39997986e-02 -8.22178368e-03 -6.27724826e-02 -1.31836921e-01 +9.66654271e-02 +1.38718605e-01 +1.09872073e-02 +1.83824837e-01 +9.12026688e-03 +2.45029524e-01 +2.22226307e-01 +5.00262976e-02 +4.50719073e-02 -1.20631449e-01 +1.30399212e-01 -2.00392772e-02 -1.03110999e-01 -1.72727093e-01 -2.86844373e-01 -3.01704466e-01 -1.01904258e-01 +2.37954836e-02 -4.89540361e-02 +3.11912559e-02 -8.17878991e-02 -1.06809728e-01 +1.07307807e-02 -2.43797004e-02 +2.31832474e-01 +2.51416881e-02 -8.67193788e-02 -2.85909593e-01 +5.47531024e-02 +1.75037384e-02 +1.84902754e-02 +1.50981501e-01 -1.40470952e-01 -2.95087993e-01 -1.95522964e-01 -2.62249261e-01 +1.54089749e-01 -8.95282105e-02 -6.75001368e-02 -2.18743533e-01 -1.88882843e-01 -1.48397803e-01 -1.48841158e-01 -3.88406552e-02 +8.10461417e-02 -1.85709924e-01 -6.41377494e-02 -7.95470923e-02 +1.21300906e-01 +1.12917624e-01 +1.67201951e-01 +1.73953563e-01 -1.30291194e-01 +5.98536618e-02 -1.36958197e-01 -2.76818812e-01 -2.78580226e-02 +7.77734071e-03 +4.55468953e-01 +2.61825979e-01 -3.00701801e-02 +1.20788626e-01 -9.07020345e-02 -3.33692789e-01 +3.89456153e-01 +2.77746230e-01 -2.58901596e-01 -4.52542789e-02 -7.62434304e-02 -1.02080069e-01 -1.21165067e-01 +1.71914905e-01 +1.36080310e-01 +1.74153566e-01 -2.00168952e-01 -1.04368836e-01 +2.32771918e-01 +3.05027850e-02 +1.06134648e-02 +1.17717117e-01 +2.56679356e-02 -1.85900837e-01 +1.74026638e-01 -1.64128229e-01 +1.57190487e-01 -1.57355759e-02 -9.20732990e-02 -2.60810912e-01 +1.16513334e-01 +2.99848288e-01 -2.20345154e-01 -2.13601068e-01 -6.35570586e-02 +9.01642740e-02 -3.07655036e-01 +2.31921226e-01 -1.23664606e-02 +2.14004517e-01 -4.80277464e-02 +5.19580185e-01 +3.99691872e-02 +2.06746116e-01 -1.91715017e-01 +1.95555940e-01 -1.51212722e-01 -1.39417388e-02 -2.26236563e-02 +2.39565507e-01 -3.38991135e-01 -2.14520887e-01 +2.16913342e-01 -1.74728751e-01 -1.98344797e-01 -3.33039105e-01 -1.07021127e-02 -1.65182859e-01 -3.53042744e-02 -1.80728421e-01 +1.03777470e-02 +1.42205348e-02 -1.20515876e-01 -2.97782123e-01 -2.59870529e-01 +1.38984323e-01 -9.02167186e-02 -2.97920555e-01 +2.00387359e-01 -1.31223025e-02 +3.19039933e-02 +1.37155756e-01 -1.75351933e-01 -2.15995774e-01 -1.38422415e-01 -3.79572153e-01 -1.94887519e-01 +1.16823204e-02 +3.94782610e-03 -2.48278081e-01 +1.55832380e-01 -2.27853119e-01 -2.51620740e-01 -1.49302110e-01 -2.20509678e-01 +1.10737614e-01 -3.89379114e-02 -1.42645717e-01 -1.73630685e-01 -2.16231078e-01 -1.30610391e-01 -6.28651977e-02 -5.00767725e-03 -2.73144931e-01 +2.17180908e-01 -3.07456106e-01 +5.60468175e-02 +1.34112045e-01 +4.68173325e-02 -2.68768877e-01 +1.37517126e-02 -4.56741750e-02 -1.31190613e-01 -5.48005961e-02 -9.50523019e-02 +2.25545857e-02 +4.93734963e-02 -8.27741902e-03 +1.31183282e-01 +1.79510728e-01 +1.51432082e-01 +2.32961103e-01 -9.87029076e-02 -1.20097771e-01 +1.03874147e-01 -1.55145362e-01 +3.51172201e-02 -1.64667040e-01 +6.85663819e-02 +2.99884796e-01 -1.51030421e-01 -2.48507187e-01 -1.40889943e-01 -1.64902985e-01 +2.31732391e-02 +1.94014817e-01 -9.45244730e-02 -5.74709550e-02 +8.82567242e-02 -3.64441514e-01 +3.19278985e-02 +1.40176974e-02 +1.04629532e-01 -2.16191113e-01 +1.94586843e-01 -1.30858170e-02 +2.02629998e-01 -1.02796979e-01 -9.12004150e-04 +3.30946892e-02 +2.33344749e-01 +3.37138698e-02 -2.99544573e-01 +1.56436428e-01 -2.12611817e-02 +2.84687519e-01 +1.85247228e-01 -1.33794159e-01 +1.36990383e-01 +1.14884987e-01 +2.36742571e-02 +1.75994590e-01 -4.46157791e-02 -1.90527365e-01 -1.86016589e-01 +3.30630504e-02 -2.87860781e-01 -4.33248468e-02 +2.17357397e-01 +1.38791487e-01 +5.38754016e-02 -2.33549759e-01 +7.92115927e-02 +2.41886482e-01 -1.82493497e-02 +4.74419445e-02 +1.36268705e-01 +6.37779012e-02 -1.37658283e-01 +9.55635011e-02 +1.96213767e-01 -7.35385641e-02 -2.75141578e-02 +1.40664086e-01 -1.57027215e-01 +4.42183688e-02 +2.21241951e-01 +4.53292094e-02 -1.31760821e-01 +2.84614027e-01 +1.70421004e-01 -2.01526731e-01 +6.29439503e-02 +2.22557157e-01 -2.33072549e-01 +2.53937274e-01 +1.10166103e-01 -8.58847573e-02 -3.42530869e-02 +2.03314602e-01 +1.23344855e-02 -1.07725367e-01 +1.39717653e-01 +2.01020047e-01 -5.41713946e-02 -3.22512120e-01 -4.02197763e-02 -1.81075186e-01 -2.84698606e-01 -1.95459146e-02 +1.26731619e-01 -9.17470604e-02 -4.97916490e-02 +2.79984623e-01 -2.96474881e-02 -1.68108210e-01 -1.41562939e-01 -1.44002154e-01 -1.88367292e-01 +5.48452027e-02 -2.03736708e-01 -1.28090575e-01 -9.25550535e-02 +9.19513479e-02 -1.12325922e-01 -1.66887194e-01 -3.02372456e-01 -2.98198938e-01 +2.02232882e-01 -8.81172344e-02 -1.66357532e-02 -2.16455460e-01 +1.45066440e-01 +1.70664638e-01 -2.08603755e-01 -3.51047456e-01 -1.13981247e-01 +2.25505810e-02 +4.46861759e-02 -2.71304578e-01 -1.10891476e-01 -8.91163126e-02 -1.80694722e-02 -1.18595421e-01 -2.70434707e-01 -2.62927830e-01 -2.13044673e-01 +1.54867083e-01 +4.17553484e-02 -1.38175622e-01 +4.41634655e-02 -2.60311812e-01 -1.52216077e-01 +7.81829432e-02 -1.77910980e-02 -3.50602508e-01 -1.79614261e-01 -1.78720549e-01 -1.61766022e-01 +7.65531063e-02 -2.85055667e-01 +1.73958778e-01 +6.06655218e-02 -2.06061617e-01 -2.11338609e-01 -2.29630753e-01 +7.66686946e-02 -5.47589213e-02 +1.63950190e-01 +9.53032598e-02 +1.98351406e-02 +6.71623722e-02 -1.96336687e-01 -2.85110563e-01 -1.25534773e-01 -1.29394159e-01 -4.05731425e-03 +6.96595237e-02 -9.19737741e-02 -1.90715641e-01 -2.00503796e-01 -7.80462399e-02 +2.60040253e-01 +7.99721777e-02 +2.22788490e-02 -2.61981875e-01 +4.33920585e-02 +5.47973886e-02 -2.98737735e-01 -8.64745378e-02 +1.22848675e-01 -7.39013851e-02 -2.09462702e-01 -4.40785997e-02 -2.01490611e-01 -2.66542822e-01 -6.58813491e-02 -2.68125415e-01 -2.23303869e-01 +4.12573246e-03 +1.28205001e-01 -3.26826483e-01 -6.08896613e-02 -7.96942636e-02 +1.60448849e-01 -3.51212859e-01 +1.52374506e-01 +4.25671428e-01 -1.24999516e-01 +1.20681465e-01 -2.03153804e-01 -2.10725684e-02 -8.71328562e-02 -2.69376308e-01 -1.01862870e-01 +2.55872421e-02 -2.31043383e-01 -2.62701541e-01 -1.87366083e-02 -3.34767997e-01 +3.06204092e-02 +2.42730618e-01 +1.94617137e-01 +8.30161721e-02 +4.59493585e-02 -1.58650175e-01 +4.24087942e-01 -1.41182035e-01 +1.23430222e-01 -1.20849341e-01 +1.67229146e-01 +5.37826531e-02 -2.33330745e-02 +2.11387873e-01 +7.02175777e-03 +1.31619632e-01 +2.65724570e-01 -1.51880756e-01 -1.02861635e-02 +3.18962783e-01 +2.45524630e-01 -1.61950752e-01 -1.22240130e-02 +2.71888018e-01 +2.10954145e-01 +2.51688182e-01 +5.26106767e-02 +8.26582685e-02 -1.17911875e-01 -2.00232118e-02 +8.83722901e-02 -3.77712369e-01 +6.54546246e-02 +2.24772543e-01 +3.52307320e-01 +1.95444584e-01 +1.76398501e-01 +1.51078701e-01 +1.54032320e-01 -1.07183091e-01 +7.38251954e-02 +1.11560859e-01 -2.27615416e-01 +2.40734711e-01 +3.11149051e-03 -2.05217913e-01 +3.03562097e-02 +1.25268668e-01 -2.22167045e-01 +3.34153861e-01 +1.84439629e-01 -2.06533685e-01 -1.51674181e-01 +9.32974294e-02 -1.87811688e-01 -7.09614977e-02 -7.12827444e-02 -1.86944641e-02 +3.05511713e-01 +3.95280272e-02 -2.23485336e-01 +3.31504620e-03 -2.10732713e-01 +1.55180052e-01 -2.50990456e-03 +1.66446865e-01 -5.68928048e-02 -2.33987495e-01 +1.71751618e-01 +2.09684044e-01 -1.72336742e-01 +3.33874911e-01 +3.31305480e-03 -6.60765395e-02 -2.37662852e-01 +2.90339649e-01 +1.83330208e-01 -5.73588237e-02 -1.29672170e-01 +2.62483090e-01 +1.04904495e-01 +2.31748924e-01 -4.42370633e-03 +1.14445694e-01 -8.73471051e-02 +7.65774548e-02 +2.29328766e-01 +3.76296699e-01 +8.78867954e-02 +4.02106106e-01 +2.21376494e-02 -7.99749866e-02 +1.06911242e-01 -7.64806345e-02 +1.74885258e-01 -5.93100190e-02 -8.79530683e-02 -1.41409978e-01 +2.48899743e-01 -1.15578063e-02 +3.60951312e-02 +2.67853469e-01 -5.36989793e-02 -1.59311116e-01 +1.64657876e-01 +2.18960017e-01 +1.99743301e-01 -1.93009228e-01 -1.62091821e-01 -2.26533577e-01 +9.33999494e-02 -1.04007693e-02 +6.10628650e-02 -8.36375654e-02 +8.45782012e-02 +1.48793042e-01 +2.59796649e-01 +2.67298520e-01 -2.35450678e-02 -7.30455965e-02 +3.12208503e-01 +2.71329936e-02 +1.98668391e-01 +2.64198005e-01 +9.33819115e-02 -1.51891142e-01 +1.17265828e-01 -1.33593053e-01 -1.07734375e-01 -7.56298229e-02 +1.82004243e-01 -4.68152940e-01 -1.18005879e-01 +2.01016784e-01 +4.24859792e-01 +2.41398051e-01 +7.91882426e-02 -9.06893834e-02 -6.15046509e-02 -3.89478356e-02 +5.41513450e-02 +2.04166606e-01 -1.91825286e-01 +7.31015354e-02 -4.01044078e-02 -4.24239673e-02 -2.46269954e-03 -1.56604305e-01 +1.18590280e-01 -3.76411676e-02 -1.99937690e-02 +6.76208362e-03 +1.57681983e-02 +2.47251485e-02 -2.06626251e-01 -1.62772000e-01 -2.34463019e-03 -2.23706931e-01 +6.75189868e-02 -2.40199581e-01 +1.85652763e-01 +1.26410974e-02 +6.21156991e-02 -1.63426682e-01 +1.13835856e-01 -2.16396675e-01 -2.81548500e-01 -1.31945997e-01 -7.14295357e-02 -6.64214566e-02 +8.56192559e-02 -2.08148852e-01 +1.10702209e-01 -2.53769499e-03 -1.50909320e-01 +7.12717045e-03 -2.78089523e-01 -2.11226255e-01 -2.27276385e-01 +1.33605540e-01 +2.49577552e-01 +7.22199008e-02 +9.00039077e-02 -2.42819726e-01 +1.60429716e-01 -3.67057808e-02 -1.74465656e-01 -1.35844499e-01 +2.48706695e-02 -7.10684657e-02 +3.06965262e-01 +1.17085576e-01 +1.70861617e-01 -3.63161899e-02 +2.29773283e-01 +2.13991240e-01 +9.96843278e-02 -4.09129367e-04 -1.39060691e-01 +4.90075559e-04 +1.72939122e-01 +1.33863855e-02 -1.09304912e-01 +3.32414895e-01 +3.25391628e-02 -2.99505098e-03 +2.11767837e-01 -6.33901581e-02 +1.49108954e-02 +2.02103019e-01 +7.96299279e-02 +1.71279609e-02 +6.48948252e-02 -5.79239205e-02 -7.62888491e-02 +1.44282371e-01 +1.22881062e-01 +2.07754597e-01 +9.29553956e-02 +1.49408489e-01 -8.20500627e-02 +6.42864555e-02 +2.13997617e-01 -1.95921764e-01 +2.47098207e-01 +1.74770325e-01 +9.45696160e-02 +1.34396255e-01 +5.00674807e-02 +2.15478763e-01 +2.33628997e-03 -1.05374210e-01 +8.26788619e-02 -1.05101094e-01 +7.67371282e-02 +3.55045378e-01 -1.31130040e-01 +4.43615280e-02 -1.49057925e-01 -3.98537032e-02 -1.43659174e-01 +2.51471698e-01 -2.91465633e-02 +6.14603460e-02 -9.99498740e-02 +1.17645100e-01 -2.78522409e-02 +1.37757853e-01 -3.01219910e-01 +1.43717870e-01 +2.37406492e-01 -5.67371547e-02 +7.46531412e-02 -5.60411140e-02 -2.09028527e-01 -9.70067456e-02 -2.40780771e-01 -1.65773138e-01 +1.16263531e-01 -4.13680216e-03 +6.75511956e-02 -6.36616955e-03 -3.17574777e-02 -8.07233378e-02 -2.68184364e-01 -8.47725347e-02 -3.47715355e-02 +2.98774634e-02 -2.95809563e-02 +4.27556187e-02 -2.71500230e-01 -7.27735693e-03 -1.42173573e-01 -2.42159203e-01 +1.69483274e-01 +1.58723235e-01 -1.73378989e-01 +1.95648789e-01 -2.90144444e-01 -1.25708774e-01 +6.17122184e-03 +1.37751386e-01 -2.00857222e-01 -2.16190755e-01 -1.49161905e-01 +1.36075458e-02 +4.89611067e-02 -3.15383971e-01 -6.81701750e-02 -1.68634176e-01 +2.65508115e-01 +9.72375460e-03 -1.39665172e-01 +2.18976736e-01 +3.27950656e-01 +1.44646630e-01 +7.81009868e-02 +3.25708389e-01 -1.63196385e-01 +2.58098304e-01 +1.74160421e-01 -8.51219986e-03 -1.03936985e-01 +9.66833308e-02 -7.19194114e-02 -3.37015837e-02 -3.40851471e-02 -5.76587431e-02 -5.33481576e-02 +1.80151150e-01 -7.53893033e-02 -5.01939766e-02 -2.38708444e-02 -2.46872872e-01 -1.80938557e-01 -1.04239829e-01 -3.05925071e-01 -1.00484435e-02 -1.08441792e-01 +1.32324293e-01 -2.64311820e-01 -1.45696789e-01 -3.36029470e-01 -3.93260866e-01 -2.61868387e-01 -1.11618757e-01 +1.44597769e-01 -1.01325125e-01 +7.84787610e-02 -1.41249597e-01 -5.25961183e-02 +3.17228347e-01 -3.45678665e-02 +1.36442259e-02 -1.55849710e-01 +3.09651971e-01 -2.35923659e-02 -2.90445328e-01 -8.15248787e-02 -5.85058182e-02 +1.44030405e-02 -1.32895485e-01 +8.68493617e-02 +1.04338631e-01 +2.02497676e-01 +9.34891328e-02 +2.28141308e-01 +2.72998720e-01 -1.82806998e-01 +2.11449370e-01 -2.75206957e-02 +2.47522354e-01 +2.03811869e-01 -4.15011728e-03 +2.13114291e-01 +1.68667629e-01 +5.02850339e-02 +3.31799299e-01 -1.21368140e-01 +1.12038039e-01 -2.17707932e-01 -9.64269862e-02 -1.19855382e-01 +2.28093654e-01 +3.09926718e-01 -7.64768347e-02 +9.03889015e-02 -1.62094861e-01 +1.42506808e-01 -3.28909487e-01 -1.76223680e-01 -2.02448443e-02 -1.52975619e-01 +1.51819080e-01 -1.57559812e-01 +2.50483811e-01 +1.81566864e-01 +2.64856845e-01 +1.80976912e-01 +1.74463511e-01 +6.17291965e-02 +3.03341419e-01 -3.75007421e-01 +3.12942505e-01 -7.81259760e-02 +1.18319735e-01 +1.11518046e-02 +4.50812839e-03 +1.18627839e-01 +4.87221032e-02 -7.87645057e-02 -4.41204384e-02 +1.45158336e-01 -1.40646368e-01 +8.85969847e-02 +4.08160202e-02 -1.07799172e-01 -1.68725610e-01 +5.44130206e-02 -2.74968594e-01 +5.41372187e-02 -2.06216156e-01 -2.27392942e-01 +1.39207751e-01 -2.70323474e-02 -1.16090581e-01 -1.11678153e-01 -2.63619602e-01 +1.08580373e-01 -1.23304442e-01 +1.27297923e-01 -2.59650320e-01 -1.32249370e-01 -8.79960656e-02 -2.12810636e-02 +3.15334015e-02 +1.22469075e-01 +8.96980986e-02 -1.54941827e-01 -1.38232578e-02 +2.77826027e-03 -2.43330136e-01 -1.48496211e-01 +8.90110135e-02 -2.30356157e-01 -3.13193291e-01 -3.04411590e-01 -1.82840079e-01 -2.27095410e-01 +1.50092408e-01 -2.68561114e-02 -8.00261050e-02 +3.26102227e-01 -2.77393341e-01 -8.69351730e-04 -2.25193918e-01 +7.48666972e-02 +1.46433720e-02 -6.34996742e-02 +2.24290684e-01 +2.95974195e-01 +1.95772648e-01 +1.23327568e-01 +2.18427703e-01 +5.82334632e-03 -1.14677154e-01 -9.20113698e-02 +2.63936073e-01 -9.99672040e-02 -1.05358616e-01 +3.22028399e-02 -1.26047060e-01 +1.35442317e-01 +1.65160820e-01 +6.53283224e-02 +4.09191586e-02 +2.95026362e-01 +3.34357738e-01 -1.43239960e-01 +1.54373452e-01 +2.67568946e-01 -3.77515368e-02 +1.40639901e-01 -6.93447515e-02 +1.87779814e-01 +9.99424756e-02 -1.05246902e-01 -6.41563013e-02 +3.56345065e-02 -2.22440925e-03 +2.43481398e-01 +1.98988557e-01 -1.30111858e-01 +2.00043350e-01 +1.18854538e-01 +7.14656860e-02 +3.64767194e-01 +2.26848260e-01 +2.12506447e-02 -6.45434931e-02 -1.48322418e-01 -1.25252903e-01 -4.75348495e-02 +9.47231501e-02 +1.27872646e-01 -6.10728227e-02 +7.99913332e-02 +1.70418471e-01 +9.27029774e-02 -7.07085729e-02 -2.06650365e-02 -1.64132062e-02 -1.58859521e-01 -7.06169382e-02 +2.76231676e-01 +3.03892158e-02 +2.21199766e-02 +4.27689292e-02 +1.44820213e-01 +2.92736024e-01 +9.51752141e-02 +6.35969043e-02 +2.73637563e-01 +6.92908745e-03 -6.70790151e-02 +2.71724880e-01 -2.86024101e-02 +3.15264195e-01 +9.76462364e-02 +3.40071529e-01 -6.45742342e-02 +1.17949508e-01 +1.98530301e-01 +2.86725760e-01 +1.40241101e-01 -1.16265327e-01 -8.51853192e-02 +1.50748044e-01 +1.61466599e-02 +1.85622081e-01 -5.79991005e-02 +4.27444950e-02 +1.05584778e-01 -1.94382817e-01 -1.31904557e-02 +1.08029991e-01 +3.07294846e-01 -3.37217897e-02 -1.88212991e-01 -2.97379773e-02 -1.54738054e-02 -1.00655518e-01 -2.39984468e-01 +3.09272796e-01 +5.04457802e-02 +3.66727829e-01 -2.74507076e-01 +1.06782883e-01 +2.11971417e-01 -3.15359801e-01 +5.50323091e-02 +1.78153947e-01 +2.10524082e-01 -1.05331186e-02 +1.33889347e-01 +1.95031643e-01 +1.15260622e-02 -5.82211725e-02 -1.87972952e-02 -1.12430394e-01 +1.81341544e-01 +2.39939809e-01 +1.42738089e-01 -4.77582999e-02 -9.56899673e-02 +2.73505896e-01 +1.98682562e-01 +1.18851408e-01 -9.96078700e-02 -1.76267564e-01 +5.67951985e-02 +1.33696958e-01 +1.95588380e-01 -1.47364989e-01 -2.45833069e-01 -1.16527334e-01 +3.11060883e-02 +2.99320389e-02 +1.00468077e-01 -1.22255236e-02 +5.76356053e-02 +2.46986613e-01 -1.83477804e-01 -1.28611792e-02 -7.07651302e-02 -1.80126831e-01 -1.13740087e-01 +6.05386905e-02 -2.58253157e-01 +5.02684414e-02 +2.17643213e-02 +1.99264184e-01 -6.15195073e-02 -8.29715431e-02 +9.08917114e-02 -1.35700792e-01 +2.30527878e-01 -2.20223874e-01 +1.72436312e-02 -1.70382455e-01 +3.00006419e-01 -1.81292012e-01 -9.64340195e-03 +2.16769308e-01 -8.81625339e-02 -2.31809989e-01 -2.64819898e-02 +1.80424526e-01 -2.17236709e-02 +1.67016476e-01 -1.92499220e-01 +5.92589602e-02 +1.40071020e-01 +3.07659090e-01 +6.41479567e-02 +1.81339905e-01 -1.08018674e-01 +1.72272578e-01 -1.81690857e-01 +1.01488963e-01 -3.77055198e-01 -1.35474563e-01 -1.00825004e-01 -2.11167648e-01 +9.48977470e-02 +1.41444892e-01 -9.36684236e-02 -7.43847713e-02 +1.54732615e-01 -1.25760445e-02 -4.52915914e-02 +3.73980492e-01 -4.00703922e-02 -2.85156459e-01 +1.93173036e-01 -4.38382998e-02 +1.10283785e-01 -7.21836388e-02 +2.11647540e-01 +2.32737988e-01 -1.89615786e-01 +4.03804958e-01 -1.56231016e-01 -4.54695523e-02 -2.01388702e-01 -8.32773596e-02 +5.21096699e-02 +2.12534979e-01 +4.93676178e-02 +1.00781947e-01 -2.77802169e-01 -1.94440007e-01 -7.83874616e-02 -3.25070694e-02 +6.03919141e-02 -2.32112631e-02 -2.49261573e-01 -1.79044724e-01 +2.32033599e-02 -2.28016257e-01 -2.06555769e-01 -1.75413087e-01 +2.43349031e-01 +1.10511377e-01 +8.31829384e-02 +5.71218133e-02 -7.02905878e-02 -5.66162169e-02 +7.36777857e-02 -5.91008775e-02 +1.56098053e-01 -2.48468548e-01 -2.75085360e-01 -1.17662460e-01 -6.49216026e-02 +1.11131772e-01 -4.91345413e-02 -2.51942754e-01 -1.43340854e-02 -1.17121264e-01 -1.44582853e-01 +6.13051765e-02 -1.91157445e-01 +1.13379158e-01 +2.05873027e-02 +1.70733452e-01 -1.41255125e-01 -2.21638963e-01 -4.94976938e-02 -1.35073557e-01 -5.65141961e-02 -2.15993792e-01 +2.02463225e-01 -2.65301522e-02 -1.46127507e-01 -3.07018548e-01 +3.47447097e-02 +1.29217997e-01 +2.86471248e-01 -1.11225776e-01 +2.54732788e-01 -7.97357634e-02 -1.38369098e-01 -2.42442235e-01 -4.97419648e-02 -9.64211896e-02 +3.36900234e-01 +2.24360853e-01 -8.91911387e-02 -9.01059434e-02 +1.37576431e-01 +1.81367695e-01 -7.24158511e-02 +2.97881681e-02 +3.44420761e-01 -5.91800995e-02 +3.09391674e-02 +3.26908857e-01 +1.41068876e-01 +3.25517386e-01 +5.36815748e-02 -1.08205818e-01 +2.63492949e-02 +2.43829817e-01 -1.44343659e-01 -5.97983561e-02 +1.25013098e-01 -1.59293830e-01 +2.41092056e-01 +2.75774837e-01 +2.33237877e-01 -2.95044761e-02 +1.04179457e-01 +1.54625803e-01 +4.44398262e-02 +3.25888127e-01 +1.87237456e-01 -2.11894959e-02 +1.75934076e-01 +1.54446706e-01 -1.61039144e-01 +1.08975414e-02 -9.47868451e-02 -7.21446723e-02 +6.80548623e-02 +7.10003003e-02 +1.41516030e-01 +2.51807533e-02 -2.74373442e-01 +1.67708024e-01 -2.96010464e-01 -7.91416913e-02 +6.58942237e-02 -3.36027071e-02 -1.07879993e-02 -1.16418600e-01 -2.15312541e-01 -2.66202658e-01 -2.08973706e-01 -1.28671423e-01 +6.23178929e-02 -1.24841079e-01 -7.17333406e-02 +3.13939005e-02 -9.42982957e-02 +1.13622501e-01 +2.70021819e-02 +1.47118285e-01 -2.95999438e-01 -3.19542557e-01 +1.47981137e-01 -2.43187457e-01 +2.86560208e-01 +7.32317194e-02 -2.87932366e-01 +1.07521735e-01 +1.19078189e-01 +2.08731711e-01 +2.83158813e-02 +1.19728386e-01 -5.05051985e-02 -4.98277321e-02 -1.83777034e-01 +4.31602262e-03 -1.34778351e-01 -2.65165418e-01 +1.87422708e-01 +5.48495688e-02 +2.19963759e-01 -1.12464562e-01 +6.16589673e-02 -3.00833970e-01 -2.96114795e-02 -3.27684224e-01 +2.09979638e-01 -2.68998235e-01 +2.03944251e-01 -5.92188165e-02 -1.57785177e-01 +1.18428588e-01 +9.93465781e-02 -1.02740685e-02 +2.91415080e-02 +2.05325037e-01 +2.34088451e-01 +1.06127888e-01 +2.27469772e-01 +1.42940655e-01 -2.09092334e-01 +4.09490466e-02 +4.71959226e-02 +2.59525716e-01 +8.01793039e-02 +2.09474996e-01 +1.50843143e-01 +3.86520065e-02 -1.63824335e-02 -1.02334088e-02 -1.12298533e-01 +3.43271285e-01 -1.23477228e-01 +1.65234894e-01 -9.59891379e-02 +2.24769846e-01 +1.20376274e-01 +1.46413565e-01 +1.15573622e-01 +8.35353062e-02 +2.15797350e-01 -3.46713036e-01 -5.70602641e-02 +1.83359265e-01 +2.48328000e-02 +8.25460479e-02 +3.32351425e-03 -1.58371672e-01 +3.04050833e-01 +3.13503921e-01 +1.48262560e-01 -9.62036923e-02 +1.77285701e-01 -9.47712660e-02 -1.27734812e-02 +1.32231370e-01 +1.07556723e-01 +1.63521454e-01 +9.37447920e-02 +3.93369757e-02 -2.94333994e-01 -2.22915001e-02 +1.46836653e-01 -1.30717203e-01 +1.39919251e-01 +4.85356823e-02 +4.37087379e-02 +2.16596201e-01 -3.02658439e-01 +1.98331669e-01 +8.30140412e-02 +1.72496811e-02 -1.80932552e-01 -1.17854163e-01 -9.34529305e-02 -6.38510808e-02 -1.59486115e-01 +1.75175712e-01 -6.72411099e-02 -1.50970474e-01 +2.27896750e-01 +5.40791936e-02 -6.82629272e-02 -2.11589243e-02 -1.46820530e-01 -8.16739723e-02 -1.63477674e-01 +1.87924337e-02 -9.43243387e-04 -1.48029834e-01 -2.09933221e-02 -1.99386001e-01 -6.89394176e-02 +2.79370360e-02 -1.81795791e-01 -1.13702171e-01 +1.53755754e-01 +3.70735046e-03 -4.67838608e-02 -1.92701910e-02 +3.59906666e-02 -1.89986408e-01 -1.37275025e-01 -3.14140737e-01 +1.69298798e-01 -2.21393883e-01 +1.35535553e-01 -1.53888404e-01 +4.67234142e-02 +1.44489601e-01 +3.67424786e-02 -3.36557627e-01 +7.94405118e-02 -1.85642123e-01 -1.25102535e-01 +3.00629549e-02 -1.39392093e-01 -1.27701551e-01 -7.48991817e-02 +1.64683387e-02 +1.39760956e-01 +3.16615105e-02 +3.57783064e-02 -1.16584785e-01 -5.19034714e-02 -2.89902650e-02 +1.11605681e-01 -1.17284685e-01 -2.25234572e-02 -1.06041422e-02 -8.27896297e-02 +2.42082223e-01 -1.51868448e-01 -6.14723116e-02 -1.68374795e-02 -4.38041352e-02 -8.24011043e-02 +9.10749584e-02 +1.26575932e-01 -1.61414415e-01 +1.69505015e-01 +4.81260158e-02 -3.70786712e-02 +4.63978834e-02 -2.44600430e-01 -1.19168684e-02 +1.14422321e-01 +1.44181460e-01 +2.08711609e-01 +5.82558056e-03 +2.09145382e-01 +8.99398699e-02 -1.66639611e-01 +1.88849285e-01 -5.80789410e-02 -1.64295778e-01 -1.27069294e-01 -3.13501693e-02 +8.65976736e-02 +2.14928716e-01 -1.06151991e-01 -1.69888735e-02 +1.08389743e-01 -1.91077981e-02 -1.81193680e-01 +1.86670676e-01 -1.26054868e-01 +8.16617832e-02 -1.03533953e-01 +2.29030833e-01 +1.11670822e-01 -5.61804026e-02 +1.06903046e-01 +7.35535398e-02 -7.96389654e-02 +1.85352907e-01 +8.60678554e-02 +8.15674588e-02 +2.93259323e-01 +1.24419019e-01 -3.05817858e-03 +1.05323911e-01 +8.63422453e-03 -1.12234399e-01 +2.30014294e-01 +1.33466214e-01 +1.88042656e-01 +1.37267128e-01 -1.03771992e-01 +1.93179533e-01 +3.92252684e-01 +5.31786680e-02 -1.68544725e-02 -4.83999178e-02 +2.71760017e-01 +2.60074824e-01 -7.28038922e-02 -1.40770420e-01 +1.70521900e-01 +1.52207360e-01 +2.43608117e-01 +1.17156014e-01 -1.23479940e-01 -1.23515911e-01 -8.56002420e-02 -7.36921132e-02 +1.61486909e-01 +1.23039685e-01 -2.24916175e-01 -2.41634712e-01 +6.18592054e-02 -1.77098945e-01 -3.07360828e-01 -6.69269785e-02 +1.01166833e-02 +1.45348310e-01 -5.65659814e-02 -2.29722589e-01 +1.62294686e-01 -1.53062046e-01 +9.86349881e-02 +8.79888162e-02 +1.13808364e-01 +1.17133841e-01 -5.19713014e-02 -1.94382131e-01 +5.34042679e-02 +2.03121290e-01 -2.46639401e-01 +6.42078146e-02 +1.52409419e-01 -1.46059647e-01 +1.13749459e-01 -1.19809940e-01 -1.95031628e-01 +1.57835156e-01 +1.22239165e-01 -2.25065485e-01 +2.47371476e-02 +1.78977698e-01 +4.38700709e-03 -2.19025481e-02 +5.58384210e-02 +5.33957630e-02 +5.08577637e-02 -2.40853503e-01 +1.73159301e-01 -2.17094719e-01 -1.45957410e-01 +1.08152069e-01 +9.03809294e-02 -6.60708025e-02 -1.62260577e-01 +9.68853384e-02 -1.33625586e-02 -7.60251805e-02 +1.10748947e-01 -1.13084652e-01 -5.37144579e-02 -2.36636654e-01 +1.35746859e-02 +2.73157526e-02 +1.20069265e-01 +2.08829474e-02 +1.02326669e-01 +2.76831120e-01 -1.48555905e-01 +2.84251183e-01 +1.35396263e-02 +2.04478681e-01 +2.02710271e-01 +1.55171692e-01 +1.48868576e-01 -9.22776684e-02 +7.33091608e-02 +3.07371706e-01 +1.81618989e-01 -1.47024551e-02 -5.06347418e-02 +2.14671656e-01 +6.74021542e-02 -1.19558178e-01 -1.12154350e-01 +2.03312457e-01 -7.05948621e-02 +9.53102633e-02 -9.46359411e-02 +1.26805127e-01 +2.30169013e-01 +3.76502946e-02 +2.16098413e-01 +1.12114787e-01 +1.89488992e-01 -1.28254190e-01 -1.72474176e-01 +1.07180066e-02 -1.90963432e-01 -2.59686522e-02 +1.13642856e-01 +9.70663652e-02 +2.01341614e-01 +7.19348639e-02 +1.90368026e-01 +3.40642244e-01 -3.10400099e-01 +2.31439531e-01 +4.53744940e-02 +1.33623928e-01 -5.37195727e-02 -2.43885815e-02 +2.46785149e-01 +2.31749356e-01 +3.16893935e-01 +3.88230383e-02 -1.44698605e-01 -3.44724618e-02 -8.69475678e-02 +1.82401657e-01 +2.85446703e-01 -7.11732581e-02 -6.50108308e-02 -9.16672572e-02 +2.04181209e-01 +2.81670600e-01 +1.19658969e-01 +2.59173419e-02 -2.61739809e-02 +4.55848388e-02 -3.83091196e-02 +2.23440528e-01 +3.05137578e-02 +1.79100022e-01 +1.42377719e-01 +2.96500027e-01 +1.36421183e-02 -1.11169755e-01 +1.46854252e-01 +3.06937575e-01 +2.52685368e-01 -1.34528041e-01 +1.80665731e-01 +1.53255731e-01 +2.23531649e-01 +1.98134914e-01 +6.43306971e-02 +2.79535145e-01 -1.05329320e-01 +3.26500386e-01 +2.61073947e-01 +2.86699563e-01 +7.90207535e-02 +2.81053752e-01 -1.77391514e-01 +4.15526051e-03 +1.89623367e-02 -5.76115884e-02 +6.68544099e-02 +2.78364241e-01 +1.09947793e-01 +1.57826409e-01 +5.85852414e-02 -2.43287519e-01 +2.53144532e-01 -3.80783901e-02 +2.23451573e-03 +1.61928877e-01 -1.91630051e-01 +1.16953857e-01 +7.37105459e-02 +1.69357538e-01 -1.33689269e-01 +2.86233217e-01 +1.21437095e-01 +1.23421289e-01 -2.00712204e-01 +3.50339562e-01 -6.71065375e-02 -1.42316610e-01 +2.11062014e-01 +1.82149678e-01 -2.28119027e-02 +2.55204707e-01 +1.34944230e-01 +1.69165254e-01 +1.88178003e-01 +9.22070071e-02 -1.11991681e-01 -5.89025877e-02 +1.77077487e-01 -6.42202944e-02 -4.60463166e-02 -5.50716824e-04 +1.08960904e-01 +3.38706225e-01 +3.23630840e-01 +1.13635592e-01 -4.43696305e-02 +4.47442457e-02 +2.13909820e-02 -1.31309062e-01 +1.39994889e-01 +2.26258874e-01 +1.36228548e-02 +2.29088515e-01 -6.32116497e-02 -9.05320793e-02 -7.32404441e-02 +3.29564586e-02 
#Parameter# /_5 {50} 801 ZERO_GRAD
-1.07524823e-02 -1.01793468e-01 -2.17697635e-01 -1.45841435e-01 -2.37840533e-01 -2.21858159e-01 -2.84716487e-01 -1.72142476e-01 +2.09876329e-01 +4.09180745e-02 +1.20180719e-01 -2.86992252e-01 -1.78671807e-01 -1.81488190e-02 -2.29838267e-02 -2.86342204e-01 -2.87779570e-01 -3.68556082e-01 -3.63046557e-01 -2.42546543e-01 -1.71591043e-01 -9.91956145e-02 -3.86103080e-03 -7.13399574e-02 +1.99960381e-01 -2.95851916e-01 +1.64976865e-01 -3.05288792e-01 -1.04107946e-01 +4.28270251e-02 +1.05190538e-01 -1.80220559e-01 +1.89617265e-03 -2.33441189e-01 -2.61994660e-01 +1.28473595e-01 +2.33383849e-02 -1.15171924e-01 -1.05274320e-01 -6.57105893e-02 +7.01605082e-02 -3.25350285e-01 -1.87140182e-01 -2.88647890e-01 -1.12274513e-02 -8.77008028e-03 -2.71786481e-01 -1.57834321e-01 -2.70849228e-01 -2.56177336e-01 
#Parameter# /_6 {50,3} 2401 ZERO_GRAD
-1.32032305e-01 -3.22036237e-01 +1.11823142e-01 -3.10582578e-01 -3.33102226e-01 -2.79358923e-02 +2.72882432e-01 +2.23374695e-01 +1.12133384e-01 +1.30021006e-01 -2.79082656e-01 +1.27197891e-01 +3.04097444e-01 +1.19579017e-01 +1.16081119e-01 -2.52308607e-01 +3.25708777e-01 +4.65820432e-02 -2.43495971e-01 -2.58134782e-01 -1.70787141e-01 +2.68711120e-01 +3.14049751e-01 -3.76734138e-03 -1.69146433e-01 +2.19245106e-01 -2.75551111e-01 -2.49001503e-01 -8.09341073e-02 +2.99805671e-01 -3.26014429e-01 -2.57646918e-01 -1.55583024e-03 -8.07034969e-03 +3.32097977e-01 +3.32520753e-01 +2.52606362e-01 +1.68574721e-01 -3.16425025e-01 +1.31320506e-01 -2.77061164e-01 +2.16218978e-01 -7.59745240e-02 +2.34444052e-01 +2.17581183e-01 +3.18649858e-01 +1.60744756e-01 -3.39302421e-03 -1.79620162e-01 -7.23451376e-03 +1.30241543e-01 +1.66709632e-01 +3.15244764e-01 -6.98959827e-03 +4.93730903e-02 +2.84006625e-01 +1.79313153e-01 -7.95307755e-02 -3.26423287e-01 +9.04084444e-02 +2.50998110e-01 -3.11965585e-01 +2.49019891e-01 +1.70093268e-01 -2.38988221e-01 +1.72065467e-01 +1.38954580e-01 -2.60681272e-01 -1.51593223e-01 -1.86347485e-01 -1.44990534e-01 -2.30384648e-01 -1.29753843e-01 -6.97559118e-02 +3.08259457e-01 -1.83736473e-01 -6.34008050e-02 +5.89223206e-02 -2.48674661e-01 +1.11245930e-01 -3.14906627e-01 +1.14685595e-01 +1.75242573e-01 +9.97692049e-02 +2.38020927e-01 +2.89583951e-01 +3.50014865e-02 +1.42925858e-01 +8.78291130e-02 +3.12403828e-01 +1.34597600e-01 -2.18073726e-02 -1.99869394e-01 +1.82302684e-01 -4.72941101e-02 -2.87939191e-01 -1.19265810e-01 +1.23286963e-01 +2.04637051e-02 -2.34278426e-01 +2.24881977e-01 +2.75098890e-01 -2.62236953e-01 -1.77821219e-01 +1.52884573e-01 +1.04330629e-01 +1.00038350e-01 +1.97002560e-01 +2.49999732e-01 -4.27425504e-02 -7.59653151e-02 +3.14209312e-01 -1.49855927e-01 +3.41318250e-02 -8.66437852e-02 -4.14586961e-02 -3.10139865e-01 +3.10848504e-01 +1.37212932e-01 +6.47214055e-02 +1.72184855e-01 +9.32329297e-02 +5.84640801e-02 -1.21604279e-01 +2.03706473e-01 -2.80032068e-01 -3.23008895e-01 -1.01319119e-01 +2.37747878e-01 -4.58113551e-02 +1.52282000e-01 -3.26683283e-01 -2.54222631e-01 +1.46174252e-01 +5.12354970e-02 +3.06547374e-01 -5.65412045e-02 -1.07391357e-01 -5.36238551e-02 -2.31095850e-02 -8.42617750e-02 +2.00070232e-01 -7.50385821e-02 +2.57120579e-01 +2.53329664e-01 +3.03484291e-01 +2.15685695e-01 -1.07644737e-01 -1.01571023e-01 +9.96668935e-02 
#Parameter# /_7 {50,50} 40001 ZERO_GRAD
-3.33607644e-02 +7.87315518e-02 -2.25317106e-01 +1.02749035e-01 -2.14865118e-01 -4.11347151e-02 -2.20351845e-01 -9.84871686e-02 +1.32391497e-01 +1.47823885e-01 -3.03450674e-02 -7.41076022e-02 +1.79104373e-01 -5.46422005e-02 +1.63506731e-01 -1.34550869e-01 -2.01399267e-01 +2.35675082e-01 -2.42576063e-01 +1.65820763e-01 -2.41827101e-01 +1.93715319e-01 -8.73737484e-02 -1.43478960e-02 +5.93824238e-02 -1.58648938e-01 +1.39582440e-01 +4.98074442e-02 +4.23098058e-02 -1.65913999e-01 -1.73833609e-01 +4.32661921e-02 +1.90702274e-01 -1.62438527e-01 +1.84099302e-01 -1.63314924e-01 -1.14036471e-01 +1.07189313e-01 -8.85486156e-02 +2.36276522e-01 +4.05727774e-02 +1.08041093e-01 +2.25933269e-01 -1.64693773e-01 +2.03081772e-01 +7.15700239e-02 +1.69145510e-01 +1.52530804e-01 +5.14626503e-04 +8.79588872e-02 +1.66039392e-01 -6.17350191e-02 +2.43019566e-01 +2.18756333e-01 +5.15125841e-02 +8.36622864e-02 -1.22627772e-01 -6.52412772e-02 -1.20719917e-01 -1.21429585e-01 -1.80286303e-01 +9.44317728e-02 +3.78349870e-02 +1.73083141e-01 -3.41988653e-02 +3.00274938e-02 +1.95794508e-01 -1.17685467e-01 +1.72926053e-01 +1.78027883e-01 +8.37612003e-02 -3.48954201e-02 -1.99489132e-01 +3.29339504e-03 +1.17027089e-01 +2.24389449e-01 +1.91173956e-01 +1.20536610e-01 +8.81287307e-02 +3.17579359e-02 -2.34815761e-01 +7.63633996e-02 +2.04481021e-01 +6.05633706e-02 +2.23553225e-01 -1.95186809e-01 -1.47204205e-01 +9.47942883e-02 +2.09169045e-01 -1.84690997e-01 +1.61841527e-01 +9.44967568e-03 +1.71043143e-01 -5.10407239e-02 +2.20022038e-01 +6.25920743e-02 -8.24941844e-02 -2.25071907e-02 -1.34747118e-01 +2.19240800e-01 -1.63167447e-01 -1.12687886e-01 +8.75138789e-02 +6.32679611e-02 -1.77594781e-01 +1.79058507e-01 +4.27713543e-02 +1.94877818e-01 +1.81568459e-01 +1.24173507e-01 -1.92225188e-01 -2.20614284e-01 -1.13464415e-01 +1.81781754e-01 -4.71068472e-02 -5.88465780e-02 -2.12137282e-01 -6.39624596e-02 -2.25552559e-01 +2.10620001e-01 +1.21139139e-02 +2.05171809e-01 -2.37276956e-01 +2.44827554e-01 -4.68111932e-02 -6.44363165e-02 -1.69406593e-01 +3.79082412e-02 -1.61997646e-01 -3.28773856e-02 +1.68171719e-01 -1.62350982e-01 +7.73434341e-03 +1.61864594e-01 +2.07122222e-01 -1.06885105e-01 -1.60726786e-01 +1.48293927e-01 -3.90900970e-02 +2.14408591e-01 -1.85870111e-01 -2.11563647e-01 +7.98398107e-02 +1.30167380e-01 +9.45144147e-02 +9.84241217e-02 +2.37422004e-01 -7.64735788e-02 -1.17854238e-01 +6.14342541e-02 -1.62920445e-01 +1.46263078e-01 -1.64946586e-01 +1.72577187e-01 -1.41190141e-02 -1.78412497e-01 +1.21977612e-01 +1.45018980e-01 -2.42401004e-01 +1.55569956e-01 -2.35131830e-01 -1.76992342e-01 -1.43484786e-01 -5.23050576e-02 +2.35715792e-01 -7.71749914e-02 +8.34278613e-02 +7.02633709e-02 +1.10143200e-01 -2.31517017e-01 +4.11219448e-02 -1.07961550e-01 +1.84078112e-01 -1.78315103e-01 -1.04424566e-01 +2.47059315e-02 -2.04970330e-01 +1.69624165e-01 -1.22478053e-01 -2.42672265e-02 +1.13118514e-01 -1.35750443e-01 +9.41661745e-02 +1.70117840e-01 -1.45442978e-01 +6.02656156e-02 +4.19240445e-02 +2.28235617e-01 -1.35874644e-01 -1.33951396e-01 +1.39277741e-01 +1.90420344e-01 -2.31965095e-01 -3.43988389e-02 -2.37482741e-01 +1.98979124e-01 -2.11750537e-01 +2.78459489e-03 -7.99396038e-02 -2.34941229e-01 +2.44354144e-01 +2.40265086e-01 +2.36727342e-01 +1.58723041e-01 +1.42929181e-01 +8.59255642e-02 -7.66021758e-02 +8.67196470e-02 +2.23622188e-01 +1.69685945e-01 -6.70635253e-02 -2.12188721e-01 +1.67304650e-01 -2.11689323e-02 -7.84725994e-02 +1.50434360e-01 -7.26854801e-02 -1.05544820e-01 -1.61326766e-01 -6.51363432e-02 -7.45729059e-02 +1.06695756e-01 -1.95293829e-01 -7.82366097e-02 +5.07540256e-02 -2.16257751e-01 +1.58259347e-01 -2.09948778e-01 +9.73511487e-02 +1.49692446e-02 -7.89811015e-02 -1.77607983e-02 +7.70944506e-02 +7.58538395e-02 -6.40226156e-02 -1.41701847e-02 -1.38152659e-01 -8.77427459e-02 +8.01732987e-02 -2.89948434e-02 +2.32342109e-01 -1.14951327e-01 -1.97922871e-01 -9.48275775e-02 +2.37046227e-01 +2.02349678e-01 -5.94918281e-02 +1.58702150e-01 +1.00444660e-01 +9.96342450e-02 +8.87753516e-02 +3.49738449e-02 -2.15344384e-01 +2.31507406e-01 +2.07844272e-01 +2.24960431e-01 -2.35857919e-01 -1.58890396e-01 -1.02732256e-01 -1.07595339e-01 -4.95207161e-02 +2.02819899e-01 +9.57034528e-03 -1.18144169e-01 +7.48412758e-02 -2.30873659e-01 +1.80414543e-01 +8.39357525e-02 -7.98811764e-02 -1.91038281e-01 +7.40515143e-02 -2.05733046e-01 -1.71553612e-01 -1.17098451e-01 -1.99974000e-01 +2.12628797e-01 -8.11982155e-03 -4.69342470e-02 -2.21577331e-01 +1.38816521e-01 -1.40322596e-01 +7.25774914e-02 -1.36649311e-02 -1.95965558e-01 +2.44251341e-02 -6.70669824e-02 -2.42422715e-01 +2.21628234e-01 +6.33654147e-02 -1.94149405e-01 +6.93883449e-02 -6.59391582e-02 -1.71329588e-01 -4.80856001e-02 -1.51463836e-01 +1.96300521e-01 +1.83237657e-01 +2.34354749e-01 -1.94242418e-01 +1.01318806e-02 -1.95230827e-01 -1.17574558e-01 -3.12389731e-02 -4.37508225e-02 -2.26093337e-01 -2.23351344e-01 +9.84714776e-02 -3.91956866e-02 +7.20092505e-02 +8.18271935e-03 -1.52682126e-01 -9.01754797e-02 -1.37046352e-01 +1.08206496e-01 -8.64346176e-02 -2.32449651e-01 -5.16895801e-02 +1.33664474e-01 +2.31293455e-01 +3.86810154e-02 +1.51573285e-01 +1.03522688e-02 +8.10479075e-02 -1.08042151e-01 +1.56377628e-01 -1.21952146e-02 -2.34120637e-01 +1.77946553e-01 +1.40581474e-01 -2.19210923e-01 +7.68214911e-02 -1.33818835e-02 -1.82148308e-01 -4.70959097e-02 -2.13232294e-01 +1.33935884e-01 -2.21498162e-02 +3.45035046e-02 +7.88023323e-02 +6.45618886e-02 +1.89730063e-01 +1.46064386e-01 -4.81689423e-02 +2.11254373e-01 -6.92687631e-02 +6.64874464e-02 -1.19425729e-01 -6.04961067e-02 +6.34452552e-02 -1.60691634e-01 +1.19273141e-01 +3.79764289e-02 -2.44180977e-01 +1.74403831e-01 -4.29641306e-02 -1.13302499e-01 +3.34873646e-02 -4.05212194e-02 +7.30924159e-02 -2.31707841e-01 -1.44245535e-01 -2.39406154e-01 -1.70961589e-01 +5.06857187e-02 -1.69374987e-01 -4.56241220e-02 +2.23682985e-01 -5.35176098e-02 -9.74201113e-02 -5.52633405e-03 -6.61836416e-02 +2.23733649e-01 -2.33669564e-01 +3.07510048e-02 -9.42376554e-02 -1.12828165e-01 +8.06061178e-02 -1.28251001e-01 -4.94524240e-02 -1.76535055e-01 -1.91623867e-01 -1.99069366e-01 -1.65929511e-01 -3.35240662e-02 -1.47351980e-01 +7.80719370e-02 +1.66358277e-01 -1.42876357e-02 -6.42568767e-02 +1.21364161e-01 +2.14806214e-01 +7.06924945e-02 +2.00154826e-01 +1.29996404e-01 -1.82037190e-01 -1.84281021e-01 +5.04814237e-02 +6.60011023e-02 +2.28940710e-01 -7.48625994e-02 +1.90712079e-01 -4.98627573e-02 -1.60452425e-01 -1.66240066e-01 +2.35964701e-01 +1.66935906e-01 -4.04997766e-02 +1.68154880e-01 -1.59141660e-01 -6.18706346e-02 +2.63434649e-03 +1.38602361e-01 +3.15681845e-02 -3.02101970e-02 -6.61468059e-02 +1.04744390e-01 +9.01202112e-02 -6.20245337e-02 -5.80015182e-02 +1.93236157e-01 -4.14833724e-02 +1.63881913e-01 -9.05216485e-02 -1.94151759e-01 -3.97476256e-02 +1.97140560e-01 +1.89164981e-01 -1.78649828e-01 -1.52514338e-01 -2.07594246e-01 +9.95476991e-02 -6.25701249e-03 +2.01776370e-01 -1.20597184e-02 +5.17558903e-02 +1.47496611e-02 -1.68207258e-01 -9.29741561e-02 -5.00772893e-02 +6.86180443e-02 +2.14300528e-01 +6.60020858e-02 +1.23485908e-01 +1.52084455e-01 -3.03158760e-02 +1.36392698e-01 -4.91752177e-02 -3.13325375e-02 +2.66097337e-02 +3.75853330e-02 -2.13765457e-01 +1.05317682e-02 -1.09875306e-01 -5.10086417e-02 -1.92921683e-01 -1.52249441e-01 -3.06387693e-02 +2.33203024e-02 -3.02822739e-02 -1.27669349e-01 -1.74746811e-01 +1.64571360e-01 -1.93388179e-01 +1.26098707e-01 -1.46062434e-01 -2.38321543e-01 +2.44153246e-01 -3.16957235e-02 -2.15236530e-01 +7.03034550e-02 +4.63341326e-02 -1.57248974e-02 -2.17390448e-01 +1.80795655e-01 +5.02248853e-02 +2.41084114e-01 +1.46968409e-01 +2.32620999e-01 +8.39365274e-02 +9.90854353e-02 -6.55624866e-02 -1.80742443e-01 +1.92625538e-01 +7.80858248e-02 +1.83228597e-01 +1.19897470e-01 +1.71068415e-01 +1.88731000e-01 -1.12385362e-01 +5.47890812e-02 -1.40651271e-01 -1.68826386e-01 +1.01848990e-02 +1.82526872e-01 +1.64756045e-01 -1.53882116e-01 +6.20019585e-02 +1.29771098e-01 -1.95422977e-01 +2.23692164e-01 +1.26584455e-01 -9.51511264e-02 +1.14651099e-01 -8.70846212e-03 -2.50338912e-02 -2.26633847e-02 +1.38601080e-01 +1.77257106e-01 -1.26191169e-01 +3.02401930e-02 -1.52456760e-02 +1.18183360e-01 +4.22479361e-02 -5.99022210e-02 +7.88431913e-02 +1.13810763e-01 +1.28326967e-01 -2.09146678e-01 -1.69639096e-01 -7.61327744e-02 +2.06241652e-01 -2.26998299e-01 -1.29430264e-01 -4.01354730e-02 +9.77254957e-02 -1.36455506e-01 -1.16859287e-01 +1.26381859e-01 -1.83196664e-01 +1.33016005e-01 -1.91368222e-01 -1.38176382e-01 -2.43903041e-01 +2.04999894e-02 -1.67861909e-01 +2.27924094e-01 -8.54994506e-02 +2.08083585e-01 -1.25686720e-01 -1.80367395e-01 +1.01984039e-01 +5.91849834e-02 -1.39437765e-02 +4.36865538e-02 +5.26373088e-03 +1.34566054e-01 +9.21459943e-02 +2.90108472e-02 -1.55522764e-01 -2.74206251e-02 +2.06222013e-01 +1.81327626e-01 -2.07924306e-01 +1.77318603e-02 +2.71228999e-02 +1.44730374e-01 +1.15080491e-01 +5.20706326e-02 +2.15912685e-01 +6.90508336e-02 +2.07204804e-01 +2.31403276e-01 +1.24120072e-01 +2.31439397e-01 -1.15953594e-01 +2.22266808e-01 +2.13593096e-02 +1.45764932e-01 -7.29143322e-02 -6.56000823e-02 +1.38719425e-01 -2.50406861e-02 +2.03850672e-01 +4.51682508e-03 +3.67745012e-02 -1.28779352e-01 -1.46361411e-01 +9.96530801e-02 +1.36950806e-01 -1.68943733e-01 +7.65776783e-02 -2.95517892e-02 +9.12648886e-02 +1.24597207e-01 +1.76835254e-01 -1.48508519e-01 -8.72005373e-02 -1.21545188e-01 -5.97798526e-02 -1.60744071e-01 +2.29164049e-01 +8.83565396e-02 -1.86430484e-01 +2.27996156e-01 -2.32576087e-01 +1.68020293e-01 -1.56914264e-01 +4.68659252e-02 +1.55066237e-01 +2.26418361e-01 +2.19531938e-01 +3.00172716e-02 +7.87584931e-02 -1.53123632e-01 +6.84708506e-02 +1.06934622e-01 +2.40665480e-01 -6.48823380e-02 -8.12856257e-02 -3.25646251e-02 -8.65870714e-02 -1.00860298e-01 -1.03994638e-01 +9.21877176e-02 -1.47878706e-01 -8.69196206e-02 -7.19366968e-02 +1.31061867e-01 -2.12772608e-01 -2.22095102e-01 +1.65558323e-01 -4.49490994e-02 -5.39876372e-02 -1.21432550e-01 +4.17651981e-02 +1.39763340e-01 -1.35716543e-01 +1.28056571e-01 -9.79617983e-02 -2.92605013e-02 +2.16373309e-01 -1.84048235e-01 -8.76465291e-02 +3.12902182e-02 -2.02896774e-01 -2.29669034e-01 -2.07608998e-01 +2.19210073e-01 -2.29784623e-01 -9.03726816e-02 -2.11623326e-01 -1.86612025e-01 +1.62709162e-01 -1.43365860e-02 +1.96010336e-01 -1.49602383e-01 -2.42422983e-01 +4.70088273e-02 -1.76985115e-01 +1.28267720e-01 +3.02051455e-02 +2.42745474e-01 -2.04345137e-01 -2.05174148e-01 -1.82213992e-01 +2.18543395e-01 -1.70281887e-01 +2.44712546e-01 -1.09424546e-01 +9.24742073e-02 -2.20326737e-01 +2.36539647e-01 -2.04282179e-01 -2.31806725e-01 +5.24006635e-02 +8.87329131e-02 -3.47601324e-02 +4.48777825e-02 +1.94408730e-01 +8.10986608e-02 +1.91331849e-01 +1.26321629e-01 +2.15068892e-01 -1.60481319e-01 +2.38454178e-01 +6.22116178e-02 -2.05139339e-01 +8.92493874e-02 -1.97539285e-01 -1.20215043e-01 +2.36660987e-02 +2.24146113e-01 -1.16987482e-01 -1.63076580e-01 +1.64899096e-01 -2.03169256e-01 -5.10264039e-02 +1.58766583e-01 +2.38357410e-01 -1.08634859e-01 +1.02714077e-01 -6.87602013e-02 -8.88452977e-02 -1.19951978e-01 +2.12919816e-01 -1.19765773e-01 -1.09263808e-01 -6.35592639e-02 +1.57037184e-01 -8.55186880e-02 +8.65766257e-02 -2.36581177e-01 +2.32415095e-01 -6.58017248e-02 +9.79687124e-02 +7.65120536e-02 +4.72813100e-02 +2.25465193e-01 -1.67426974e-01 -1.91860348e-01 +2.76515335e-02 -1.53278649e-01 -3.03561538e-02 -2.16745675e-01 +2.43000016e-01 -1.37315899e-01 +6.11599833e-02 -1.75443232e-01 -1.04547620e-01 +1.86098859e-01 -6.94814473e-02 -5.94365448e-02 -1.17992669e-01 +1.82886869e-02 -2.58664191e-02 -8.02367926e-03 +1.02698877e-01 +1.27305761e-01 -1.12337664e-01 +1.23052761e-01 +1.49530277e-01 +2.25399747e-01 +1.34473011e-01 +2.32435688e-01 +1.86502472e-01 -1.99896976e-01 -2.15146482e-01 -2.33742476e-01 -1.95122138e-01 +1.72140107e-01 +1.41732380e-01 +1.87496766e-01 -4.49367464e-02 -2.28813171e-01 -1.24130160e-01 +1.09894857e-01 +7.00291842e-02 +1.22767255e-01 +2.22047850e-01 -2.06998914e-01 +1.42819926e-01 -1.65059417e-02 +1.45217285e-01 +3.95014435e-02 -1.16405785e-01 -1.58874691e-01 +1.42992750e-01 +1.34215206e-02 +1.14593104e-01 +2.01352581e-01 +1.65535510e-03 +2.00298384e-01 -5.36875874e-02 +1.44645616e-01 +9.21019167e-02 -1.66645646e-01 +7.63347298e-02 +2.18087003e-01 -1.91529542e-01 -1.16205350e-01 -2.76817232e-02 +2.84955949e-02 +1.65076301e-01 -2.34871179e-01 -1.27565265e-02 +1.28913373e-02 +2.16473445e-01 +7.67895132e-02 -4.33486700e-03 -1.50761679e-01 -7.69344121e-02 -2.01674461e-01 -1.06113315e-01 +5.90554029e-02 -2.42109910e-01 -8.67139548e-02 -5.94771206e-02 -1.03217632e-01 +1.08962253e-01 +1.21745721e-01 +7.09047765e-02 +4.19125110e-02 -1.61630839e-01 -7.93066919e-02 +1.62870303e-01 +2.22930461e-02 -1.51920646e-01 -9.71108228e-02 +1.48532167e-01 +8.25534612e-02 +1.14502624e-01 -6.67128414e-02 +7.66445696e-03 -2.07271233e-01 +1.40435889e-01 -1.86271816e-01 +1.88670203e-01 -9.32417810e-03 -2.90821344e-02 -8.46038908e-02 +1.45485118e-01 +1.18026629e-01 -9.06392932e-04 -1.20036155e-02 +2.09810883e-02 -2.02924550e-01 +2.22684875e-01 +9.71565396e-02 -2.24748522e-01 -2.03413486e-01 +1.82132557e-01 -3.80960852e-02 -1.46187007e-01 +3.99837345e-02 +1.70796201e-01 +3.06801945e-02 +1.37600452e-02 -2.29701161e-01 +9.68947858e-02 -1.38278976e-01 +2.42161170e-01 -1.99013203e-01 +6.73425347e-02 -1.28380388e-01 +2.00872824e-01 +8.64183754e-02 -1.89597219e-01 +2.54573375e-02 +2.23321900e-01 -1.08046010e-01 -1.52305961e-01 +5.60873598e-02 -1.91301674e-01 +1.32397220e-01 -1.09830171e-01 -1.86959654e-01 +1.48505375e-01 -1.41715333e-01 -8.88280869e-02 +1.46663636e-02 +1.98464885e-01 -7.30463713e-02 -1.82586700e-01 +6.21001571e-02 +4.79709655e-02 -2.32453138e-01 -4.70529348e-02 -3.75396162e-02 -4.65117544e-02 -1.94249555e-01 +1.21482983e-01 -1.15872100e-01 -1.01070806e-01 -1.58430904e-01 -1.62375987e-01 -5.01945168e-02 -6.53590113e-02 -1.35733441e-01 +1.42070487e-01 -2.03384921e-01 -7.55842477e-02 -1.00854263e-01 -3.88512611e-02 -1.89728782e-01 +2.26972327e-01 +2.34718904e-01 -2.08181590e-02 -1.16438508e-01 +1.70948014e-01 +1.06725499e-01 +4.31386083e-02 -6.56179339e-02 +4.15858477e-02 -1.41006857e-01 -2.15321779e-02 +1.86665729e-01 +1.48127660e-01 -9.10133123e-02 -1.49704799e-01 -1.55034184e-01 -3.23803127e-02 +1.35316685e-01 -7.27510601e-02 +2.56065875e-02 +6.27536029e-02 -5.68646938e-02 -7.95369446e-02 -2.16039762e-01 +4.14124578e-02 +6.44771606e-02 +6.18339628e-02 -1.15383327e-01 -6.62120879e-02 -2.29071140e-01 -9.96438414e-02 -1.56323016e-01 -2.02650264e-01 +1.71396211e-01 -1.48971707e-01 +1.70704558e-01 +1.17676422e-01 -1.95655227e-03 -7.92717189e-02 -8.04805458e-02 +1.94190606e-01 -1.07008457e-01 -1.56943575e-01 -1.53666407e-01 +5.46911210e-02 -6.81871176e-03 +2.26889744e-01 +1.47585407e-01 +1.96936145e-01 +2.14801922e-01 +1.15095481e-01 +1.34740368e-01 +1.87432840e-01 -6.54516369e-02 -2.19731599e-01 -2.41120934e-01 +1.60642788e-01 -1.56144649e-02 +1.89969197e-01 +4.27166075e-02 -6.01351261e-03 +2.24325165e-01 -9.58332121e-02 -7.83189386e-02 -1.68557644e-01 -4.17651087e-02 +2.96453685e-02 +2.34436557e-01 -1.92883611e-01 +1.07357934e-01 -4.88599986e-02 -2.16848910e-01 +2.43314788e-01 +2.20467702e-01 +2.42925331e-01 -1.06938183e-01 +1.14050508e-03 -1.61679417e-01 +1.29541293e-01 +2.15862617e-01 -2.21641600e-01 -1.84331059e-01 +4.13851291e-02 +1.41036287e-01 -1.19403735e-01 -1.28040701e-01 +2.22840115e-01 +3.61338705e-02 -1.28511667e-01 -3.86626124e-02 +6.35455698e-02 +2.46860236e-02 +4.02443260e-02 -1.18866041e-01 +1.37033418e-01 +1.07221499e-01 -2.33018503e-01 -2.53297985e-02 +1.52746394e-01 -1.62624627e-01 +5.68198711e-02 +1.45915821e-01 +1.69288024e-01 -2.31142208e-01 +5.00995666e-02 -2.75627971e-02 -9.54771638e-02 -1.25558436e-01 -1.43908709e-01 +2.08161607e-01 -2.28172481e-01 +1.72272399e-01 +2.01651081e-01 -2.39491180e-01 +1.73707679e-01 -1.75464720e-01 -9.92686003e-02 -7.98201561e-02 +8.92002434e-02 +7.29767531e-02 +2.15362772e-01 -1.61994904e-01 -2.14742646e-01 -5.21384776e-02 +2.44776353e-01 +1.33677110e-01 +9.22097117e-02 -6.94546551e-02 +1.33961812e-01 -2.24660829e-01 -7.97342807e-02 -1.93006873e-01 -4.30976152e-02 -1.89040571e-01 +2.31597617e-01 +2.24600002e-01 +5.94054163e-03 -1.98912352e-01 +1.74740955e-01 +1.21201858e-01 -1.51869237e-01 -1.04604274e-01 +3.09194773e-02 +7.33797252e-03 -1.04189783e-01 +5.03205806e-02 -8.61343741e-03 +8.92181844e-02 +1.88892633e-02 -8.08577836e-02 +4.33381647e-02 -1.14132017e-01 +8.36635977e-02 +1.06670395e-01 +1.84538215e-02 -2.20040083e-02 -2.04157367e-01 +1.98160425e-01 -1.50891498e-01 +2.91627496e-02 -5.97369373e-02 +2.16040269e-01 -1.09932914e-01 -1.94083810e-01 -1.28545851e-01 -2.81832963e-02 -1.72157496e-01 +2.02731684e-01 +9.74196345e-02 +1.35993078e-01 -9.68032181e-02 -1.08203441e-01 -2.43913859e-01 -2.30467826e-01 -6.74663037e-02 -1.10409856e-02 +1.64925024e-01 -7.40983784e-02 +1.82975873e-01 -1.25474185e-01 +8.92807543e-03 -8.87853205e-02 -1.37654722e-01 +7.56177753e-02 -8.57546926e-02 +1.65161490e-03 +7.02413172e-02 -8.51821154e-02 -4.86818254e-02 +2.07547471e-01 -6.98844641e-02 +2.18868449e-01 -1.53323531e-01 +2.21520767e-01 +2.41572455e-01 +1.23955160e-02 -2.46325135e-02 +2.29385212e-01 -1.58025146e-01 +1.05930120e-02 -2.11395875e-01 -1.91995054e-01 -5.32021523e-02 -1.98119149e-01 +2.01201394e-01 +1.53883681e-01 -3.52036208e-02 +1.99223951e-01 +1.23644486e-01 +8.74987692e-02 -1.07289284e-01 -2.55412608e-02 +2.18752190e-01 -5.24836481e-02 -1.66969314e-01 +7.78448135e-02 -1.04666725e-01 +4.46213633e-02 -3.88382375e-02 -2.12715268e-01 +5.11522591e-03 -2.13660598e-01 +1.57415614e-01 -9.71686840e-03 +5.49153984e-03 +2.27884755e-01 +1.23534054e-02 -1.59929872e-01 +8.80983919e-02 +2.03232422e-01 -2.21532762e-01 -1.85595781e-01 +5.67499846e-02 -2.34198451e-01 +1.37845889e-01 +2.84031481e-02 -1.07701197e-01 -2.19628230e-01 -8.45676363e-02 +2.06303850e-01 -2.01670691e-01 -1.87612385e-01 +4.49624211e-02 +2.06604972e-01 +1.81445822e-01 -1.90304816e-01 +7.66373426e-02 -2.41639018e-02 -1.47620708e-01 -9.93354321e-02 -9.48371887e-02 -9.02563035e-02 -1.38444439e-01 -1.01586431e-01 +3.70581895e-02 +3.69917601e-02 +1.72783002e-01 +8.03628713e-02 +1.35728464e-01 +1.86600193e-01 -2.65226364e-02 -7.35445321e-03 +1.95658430e-01 -3.73072177e-02 +2.37338826e-01 -1.44567192e-01 -7.99726248e-02 +9.15877074e-02 -6.00002259e-02 -1.18609771e-01 +1.24314502e-01 +1.83832869e-01 +1.98611870e-01 -5.18177897e-02 +2.42303863e-01 -1.96573138e-02 -3.23490202e-02 -1.32595569e-01 -4.90227342e-02 +2.06040516e-01 +6.70038313e-02 +1.30698696e-01 -2.02896297e-02 -1.93326280e-01 -2.27128386e-01 -3.29819024e-02 -9.61565673e-02 +9.51757878e-02 +6.48793131e-02 -1.86917350e-01 +1.93848684e-01 +2.32888684e-01 +1.58648148e-01 -1.49825543e-01 +1.34777322e-01 -4.98509407e-02 -6.66991770e-02 -2.14577824e-01 +1.70155868e-01 -8.11679661e-03 -3.77888680e-02 +1.42301545e-01 +1.52016357e-01 +3.78067344e-02 +5.86394817e-02 +2.42705300e-01 +2.15792760e-01 -1.41134828e-01 -1.69284672e-01 -1.04927063e-01 -2.45863497e-02 -7.07598180e-02 +1.06415853e-01 -1.31252974e-01 -1.76975995e-01 -2.17974424e-01 -1.24325886e-01 -1.29308432e-01 +4.06359881e-02 +1.84154585e-01 +9.47870761e-02 +1.32789984e-01 +1.69698998e-01 +2.24639580e-01 +2.02667490e-01 +9.40137953e-02 -1.53665900e-01 -8.54481012e-02 -2.87877321e-02 +5.49308956e-03 +2.04579964e-01 +1.10192701e-01 +2.35843077e-01 +8.42732936e-02 -4.58009094e-02 +1.40814885e-01 -4.57854420e-02 +1.26009718e-01 -1.69994980e-02 -3.53688002e-02 +6.20499700e-02 -6.50410503e-02 -1.62883133e-01 -1.83515713e-01 +8.21955502e-03 -1.44251406e-01 +1.30634204e-01 +1.98487505e-01 +1.00129411e-01 -2.40128696e-01 +3.47006172e-02 +5.85871190e-02 +8.54508728e-02 +1.52549818e-01 +1.83708355e-01 +6.96841925e-02 -1.61448628e-01 +8.69718045e-02 +2.07482919e-01 -2.66441554e-02 -1.05614394e-01 +8.22406262e-02 -3.09896469e-02 +9.21782404e-02 -1.77951872e-01 -2.05483988e-01 -1.65522128e-01 -1.67893618e-01 +4.37726080e-03 -1.10237002e-02 -5.85743785e-03 -2.07250953e-01 +2.72239596e-02 -8.74580443e-03 -3.88969481e-02 +2.08782837e-01 +2.33947054e-01 +2.15875581e-01 -2.30296344e-01 -2.19820753e-01 -1.78818822e-01 +5.71779460e-02 +2.17908815e-01 +1.96340546e-01 +2.37562492e-01 -1.10489398e-01 -7.57226497e-02 +2.39422962e-01 -9.35190916e-03 -2.29294792e-01 +1.33473650e-01 -9.84572768e-02 +9.59011465e-02 +5.28695136e-02 -1.06216148e-01 -1.23242669e-01 +8.32588524e-02 -2.13883311e-01 -2.34217063e-01 +1.86570093e-01 +2.09112838e-01 -1.46036372e-01 +1.32117137e-01 +1.46851093e-02 -2.20646620e-01 +9.09743756e-02 -1.97618380e-01 +5.14172018e-03 -1.78858250e-01 -1.55974448e-01 -1.64708704e-01 -1.43495694e-01 -1.76130086e-01 -2.06576794e-01 -1.66002840e-01 -1.20949604e-01 -2.72919238e-03 -2.31981456e-01 +3.41137499e-02 -1.74331397e-01 +3.98213714e-02 -1.12408876e-01 +1.65019348e-01 -1.38673216e-01 -1.80285975e-01 +5.64206988e-02 +1.07544586e-01 +1.00813940e-01 +3.74116749e-02 -1.45355448e-01 +2.87269503e-02 -2.19367772e-01 -1.63258389e-01 -1.79611772e-01 -2.03491673e-01 -2.07305700e-01 +7.39125162e-02 +2.20986947e-01 -1.18548244e-01 -1.28566861e-01 +1.59857139e-01 -6.18514270e-02 -2.36785322e-01 -1.19296461e-02 +3.72518152e-02 -2.14307308e-02 -3.94015312e-02 -1.07685432e-01 +1.22849926e-01 +1.73574492e-01 +1.30897954e-01 +8.45117718e-02 -1.71534121e-02 -1.86070472e-01 +1.57426253e-01 -1.88001364e-01 -8.13106298e-02 +1.96869686e-01 -1.21864989e-01 -1.04051426e-01 +1.89638138e-03 -6.42043352e-02 +7.31842965e-02 -8.61364901e-02 +1.22599378e-01 -1.18732870e-01 -1.46942139e-02 -3.42729241e-02 +1.97377995e-01 +2.11257443e-01 +1.94929942e-01 -1.32284254e-01 -2.21156120e-01 -4.24771011e-02 +1.25240341e-01 +2.18590900e-01 -1.74207866e-01 -9.81620550e-02 -1.10673144e-01 +1.34786561e-01 -1.19268507e-01 +1.84615478e-01 -1.51477069e-01 +2.42494792e-02 +2.32303098e-01 +6.83551282e-02 +1.81926951e-01 +2.75557488e-02 -1.19581401e-01 -2.93720216e-02 +4.91875559e-02 +2.36646309e-01 +6.03158027e-02 -6.41391426e-02 +7.50479251e-02 +1.98232219e-01 -1.54745057e-01 +2.18918249e-01 -1.74865857e-01 -2.44275510e-01 +3.49865705e-02 -2.31911197e-01 -2.38716856e-01 -6.19640499e-02 -1.03975162e-01 -2.30012015e-01 +2.31550887e-01 +8.76064450e-02 +2.31776908e-01 -1.17588431e-01 +2.14825422e-02 -8.00453126e-02 +1.37911603e-01 +2.44057402e-01 +8.31135958e-02 +9.12486166e-02 -1.26142085e-01 +4.89321500e-02 +2.31168732e-01 +2.41124585e-01 +1.54476613e-02 +6.32472485e-02 +2.41190031e-01 +2.28207096e-01 -1.66998923e-01 -1.20900318e-01 +2.15806678e-01 -1.55099869e-01 -4.24721837e-02 +4.28184420e-02 -2.01741993e-01 +1.17714360e-01 +7.27099329e-02 -2.22611696e-01 -1.73484981e-02 +2.26164624e-01 -7.28571564e-02 -1.12872347e-01 -1.33282259e-01 -8.16654116e-02 -1.03659332e-02 +1.08558550e-01 +2.29459271e-01 +1.30581453e-01 -2.03185529e-02 -2.08094075e-01 +7.64176697e-02 -3.05540264e-02 -1.54278278e-01 -1.93742096e-01 -6.51739240e-02 +1.97988436e-01 +2.06000045e-01 +8.36954564e-02 +8.23290497e-02 -1.06974736e-01 +1.42899916e-01 -4.64573503e-02 -7.58092701e-02 +1.06482640e-01 +1.76364645e-01 -1.63219661e-01 +9.52078551e-02 -8.39191675e-02 -2.39079669e-01 -2.44178638e-01 -1.94260821e-01 +1.56717852e-01 +2.44294569e-01 -1.82412177e-01 -1.40563548e-02 +2.33411208e-01 -2.24094883e-01 -1.24335438e-01 -1.23219341e-02 +1.81994453e-01 +1.64508834e-01 -1.42906159e-02 -3.88825685e-02 -3.80574167e-02 -1.62838399e-03 +3.98012251e-02 -2.38644347e-01 +1.84023514e-01 +9.11899358e-02 -1.54321864e-01 -1.86207101e-01 -1.23750955e-01 +8.35946947e-02 -5.43387979e-02 -1.63964897e-01 +2.37862185e-01 -4.32872623e-02 +9.14671868e-02 -3.52209359e-02 +1.52841315e-01 -1.46702230e-02 -2.29566559e-01 -4.39430326e-02 -2.27940857e-01 -1.54730886e-01 -1.94536403e-01 -2.40067258e-01 +1.68275163e-01 +2.40282938e-01 -4.48417813e-02 -7.01740384e-02 -9.79040563e-02 -1.41575888e-01 -2.41054803e-01 -2.04721168e-01 +8.50168914e-02 -6.17104918e-02 +2.39117846e-01 +1.92347065e-01 -6.44365400e-02 -5.07767349e-02 -7.70722330e-02 +2.38032475e-01 -2.35576272e-01 +8.59522074e-02 +8.49753767e-02 +2.43556663e-01 +6.10490590e-02 -2.12916017e-01 +8.55172724e-02 -1.12204105e-01 -1.13546029e-01 -1.73846424e-01 -6.88228011e-02 -2.14610666e-01 -9.82956439e-02 -2.44779363e-01 -1.48485094e-01 -1.11424848e-01 -2.39293501e-01 +4.44908887e-02 -6.82133734e-02 -2.23632574e-01 -2.26555929e-01 -2.21719339e-01 -8.28145593e-02 +1.11048475e-01 -3.80738229e-02 -8.32507908e-02 +2.29731873e-01 -1.83279246e-01 +2.10283443e-01 -1.98957473e-01 -2.12176830e-01 +1.36351302e-01 -1.35118812e-01 -1.84540525e-01 +5.39396852e-02 +2.33987346e-01 -1.62081257e-01 +8.50297064e-02 +1.61600262e-02 +1.22650549e-01 +1.17989883e-01 -2.16854379e-01 -2.20820814e-01 +2.03216776e-01 +6.92071468e-02 +8.66931528e-02 -4.94360924e-03 +3.17931622e-02 -2.24704742e-02 -1.21466622e-01 +1.99910715e-01 +2.09070459e-01 -9.60560143e-02 +1.30611613e-01 -1.10872298e-01 -5.91839701e-02 +1.60140291e-01 -1.00739405e-01 +1.81848869e-01 +2.34175041e-01 +7.72291869e-02 -2.29272082e-01 +5.53422421e-02 -1.62060678e-01 -1.36363775e-01 -1.82860047e-02 +1.43697366e-01 -2.38497227e-01 +1.00925580e-01 -1.38015717e-01 -1.93581760e-01 +2.18250290e-01 +1.68641955e-02 +4.40960079e-02 +2.14931831e-01 -1.46851271e-01 +2.13739470e-01 -2.62966752e-03 -7.29500651e-02 -1.29269794e-01 -2.16134235e-01 +1.01335630e-01 -3.09944898e-02 -1.57268584e-01 -2.09383339e-01 +1.55994147e-02 +2.37940803e-01 +7.57025331e-02 +2.29918078e-01 +1.88945979e-02 -6.03830069e-02 +1.34066150e-01 +1.53505519e-01 -1.52388901e-01 -1.91400558e-01 -4.13478166e-02 -2.27028251e-01 -8.07343423e-03 +1.32610992e-01 -1.29802227e-01 -1.58451945e-01 +1.07333586e-01 -5.77373207e-02 +2.01454014e-02 -1.55077174e-01 -2.04523593e-01 +7.36088902e-02 -4.27038968e-03 -1.83632165e-01 -1.07556492e-01 +2.35130087e-01 +9.58406776e-02 -2.08288223e-01 -2.41950303e-02 -1.44518033e-01 +1.42809138e-01 +1.60349384e-01 +2.07264826e-01 +2.11793140e-01 -1.27357930e-01 -2.38913164e-01 -8.66002291e-02 +7.37843663e-02 -9.60264653e-02 +1.68285951e-01 +9.33115631e-02 -1.67322323e-01 -1.23206519e-01 -1.93002537e-01 +1.62875041e-01 -1.01226255e-01 -1.22546263e-01 +6.92533404e-02 -1.32884711e-01 +1.27207622e-01 -1.92803591e-01 -1.70213282e-02 -9.19448882e-02 +8.47079903e-02 +6.57120794e-02 -1.48637578e-01 -9.17196274e-03 +1.47145987e-03 +5.95881045e-03 +1.69250473e-01 +2.15708777e-01 +1.90388367e-01 +1.01536736e-01 +2.33815923e-01 +1.06177479e-02 -1.57329470e-01 +1.03951246e-02 -1.36258543e-01 +1.30170628e-01 +1.53644577e-01 +1.27196029e-01 -2.14696050e-01 -6.15037978e-02 -6.04126751e-02 +1.25421897e-01 +7.53862411e-02 +8.73772055e-02 +1.73687682e-01 +2.18322441e-01 -6.93160295e-02 +1.63756385e-01 -6.03825748e-02 -2.40760893e-02 -5.75854927e-02 +2.20459446e-01 +6.51768595e-02 -1.54280111e-01 -1.82426944e-01 +1.15460709e-01 +9.00013596e-02 +1.19076207e-01 -2.24813312e-01 +7.42057413e-02 +2.05883667e-01 +1.00014657e-02 -7.44125247e-03 -2.02422976e-01 -2.10036933e-01 +9.25883502e-02 +8.76382142e-02 -2.05781758e-01 +5.70258051e-02 -1.65409148e-02 +6.92418963e-02 +8.28020722e-02 -5.50004989e-02 -6.55145943e-03 +1.44281641e-01 +2.34626606e-01 -2.93571949e-02 +4.16044146e-02 -1.10491171e-01 +1.22601837e-02 +1.75227359e-01 +2.44080469e-01 +3.94701511e-02 -7.66178221e-02 +1.77840665e-01 +2.13823602e-01 -5.85931838e-02 +1.20279640e-02 -4.26498801e-02 +1.61959335e-01 +1.18828818e-01 -1.51833296e-01 -1.83814615e-01 +2.36077771e-01 -1.56117901e-01 -2.34904960e-01 -1.37463063e-01 +1.01524040e-01 -1.18921697e-02 -1.37328506e-01 -5.00506163e-03 -1.65532142e-01 -2.27868944e-01 -2.24036485e-01 +2.10323080e-01 -3.91034037e-02 +3.78363878e-02 +1.29556164e-01 +8.52623135e-02 -1.10519722e-01 -9.95813757e-02 +2.20280886e-03 -9.46685672e-04 -1.87587768e-01 +2.05692634e-01 +1.38618186e-01 +1.05066195e-01 -1.56760141e-01 +2.26782843e-01 +2.23703608e-01 +1.63518831e-01 -1.61994338e-01 -2.01876760e-01 +3.88464481e-02 -1.94560528e-01 +2.54343301e-02 -2.25049406e-01 +1.03970036e-01 -6.70195818e-02 -1.15121230e-01 -1.02455020e-02 +1.77238092e-01 +2.36234769e-01 +1.47509977e-01 +2.15005502e-01 +5.98274320e-02 +1.94043681e-01 -7.92198330e-02 +1.57058343e-01 +9.64061469e-02 -1.96350172e-01 -4.14105654e-02 -1.99231118e-01 -2.95025259e-02 +2.34075233e-01 +1.73283920e-01 -8.86181295e-02 -1.23655818e-01 +8.16338807e-02 +6.03147298e-02 -1.52779967e-02 +5.30511886e-02 -1.63174257e-01 -1.72174126e-02 -4.01081741e-02 -1.36708543e-01 +1.82502881e-01 +1.83833435e-01 +1.42246619e-01 -1.65219188e-01 -5.33235073e-03 -3.72929275e-02 +2.71578580e-02 -2.03186423e-02 +1.14872530e-01 -9.58520025e-02 +2.40172222e-01 -1.62229031e-01 -2.10544825e-01 -1.98032200e-01 +2.40732580e-02 +6.35002702e-02 -2.23257914e-01 +1.13495126e-01 +2.32119113e-02 +1.64871961e-02 +2.23077461e-01 -1.56517580e-01 -2.08243191e-01 -2.20762268e-01 +2.41606131e-01 +7.20209926e-02 +2.40106732e-02 +1.84822336e-01 +8.06850344e-02 +1.79909930e-01 -2.18039557e-01 -1.68453038e-01 +1.30705431e-01 -9.14224088e-02 +1.99526086e-01 -1.20980822e-01 -2.35181570e-01 +1.09048441e-01 +1.22904703e-01 -2.10769773e-01 -2.13958159e-01 +5.59157878e-02 -9.95367765e-02 +7.26856440e-02 +5.09440452e-02 +9.32356566e-02 -2.29718819e-01 +7.20746070e-02 +1.33626163e-03 +1.46638006e-02 -1.23361640e-01 +1.01849183e-01 -1.55852050e-01 -2.06996292e-01 +2.34819204e-02 +7.20610172e-02 +7.15280622e-02 -2.28876173e-01 +1.51753917e-01 +2.31115073e-02 -3.97967845e-02 -1.41916811e-01 -1.33445770e-01 +1.64110228e-01 -1.92552954e-01 +2.04559669e-01 -9.33181643e-02 +1.79990679e-02 -1.83544308e-02 -1.13788843e-02 +1.39704511e-01 -8.98508132e-02 -1.89107060e-02 -1.08036727e-01 -1.97077647e-01 -5.83435595e-03 +2.37081200e-02 -2.25196466e-01 -1.60248280e-01 -1.41835138e-01 -6.45330548e-03 +1.70321241e-01 +1.77268192e-01 +2.42993221e-01 +1.81338593e-01 -9.75894481e-02 -2.31889293e-01 +1.27044663e-01 -3.88830006e-02 -1.38595089e-01 -2.26399899e-01 -3.77419889e-02 -1.24662571e-01 +5.75924963e-02 +2.30394453e-02 +6.84406012e-02 -5.44649810e-02 -8.02520365e-02 +1.83735207e-01 -4.48120832e-02 +1.81272730e-01 +4.62590307e-02 +2.16299668e-01 -1.94244787e-01 +1.79014996e-01 -2.25253224e-01 +5.68966419e-02 -1.69055492e-01 -1.53700307e-01 -3.09162885e-02 -1.73251390e-01 +1.00307837e-01 +1.09622374e-01 -2.04580694e-01 +8.82025510e-02 +1.27672508e-01 +2.29374245e-01 +5.69745451e-02 -1.80409789e-01 -6.23536259e-02 +1.22358218e-01 +2.26262137e-01 +2.42354259e-01 -1.00197509e-01 +9.85061377e-02 -6.28067851e-02 +1.58214435e-01 +1.84605584e-01 -9.18339491e-02 +7.73091465e-02 +2.39994481e-01 +9.75267142e-02 -8.57952535e-02 +7.19062984e-03 -1.87382221e-01 +2.29031637e-01 -2.82286704e-02 -1.23381361e-01 +2.86640674e-02 +2.11240485e-01 -1.29776150e-01 +1.37815759e-01 -2.06178159e-01 -6.15281910e-02 -1.81102097e-01 -9.18880552e-02 -1.03816569e-01 -6.37862980e-02 +4.29522842e-02 -1.01185709e-01 +1.73257813e-01 +1.86898559e-02 +2.43483976e-01 +2.31791690e-01 -1.18318319e-01 +2.09708065e-02 -2.28438064e-01 -5.49791753e-02 -2.35909030e-01 +1.98994860e-01 +4.92728204e-02 -2.11757287e-01 -8.47280025e-04 -9.25957412e-02 -7.53664970e-02 -2.07547724e-01 +1.93321720e-01 +1.53562978e-01 -1.89935803e-01 -9.73308980e-02 +1.52114823e-01 -2.69870162e-02 -2.20443368e-01 +2.81150192e-02 -1.53034687e-01 +8.70319754e-02 -1.13759845e-01 -2.26930246e-01 -4.93939221e-02 +6.18077666e-02 +2.08517447e-01 +9.90482420e-02 +4.51752990e-02 -2.35136598e-01 -1.29892468e-01 +1.19128361e-01 +9.80594903e-02 -4.13830131e-02 -3.90742719e-03 +1.02869019e-01 -3.22950929e-02 +7.19275922e-02 -2.09606767e-01 -2.18268275e-01 -1.92976579e-01 -2.06660509e-01 -2.08723202e-01 -1.47361457e-01 -1.38278127e-01 +1.82537898e-01 -5.52952439e-02 +1.77070946e-02 +2.32061341e-01 -2.18458727e-01 +1.03765503e-01 +2.21532151e-01 -3.31995636e-02 +1.21629283e-01 -2.12017789e-01 -3.12256962e-02 -6.33306056e-02 +6.34731203e-02 -1.51786193e-01 +1.89574704e-01 +1.80470720e-01 -1.09355330e-01 -2.38282442e-01 +1.69603869e-01 -6.06973171e-02 +2.14731082e-01 +1.86659142e-01 +1.44956514e-01 +4.14665490e-02 +6.59760684e-02 +1.16744563e-01 +2.43489668e-01 +2.06101686e-02 -1.37181863e-01 +6.39607757e-02 +1.61335364e-01 +1.40719518e-01 -1.63339853e-01 +9.96591896e-02 -4.94908541e-02 -1.76980630e-01 -1.83915213e-01 +1.05780080e-01 -1.48135498e-01 -5.89888543e-02 -1.23438261e-01 +1.45036265e-01 -1.38067752e-01 +1.84102610e-01 -8.80460590e-02 +6.12856448e-03 +1.41579852e-01 -1.35201961e-02 -1.53568923e-01 +5.21977097e-02 +2.12898418e-01 +1.03686646e-01 +1.94103345e-01 -1.85425609e-01 +1.66174918e-02 -1.28189445e-01 +2.19477162e-01 +1.08924016e-01 +1.62056223e-01 -9.99947637e-02 +1.29968569e-01 -1.18019864e-01 +1.27436772e-01 +1.39088556e-01 +2.14083180e-01 +1.21850863e-01 +5.37905246e-02 +9.83565599e-02 +1.97294846e-01 -4.21944559e-02 -2.03598648e-01 -1.56801581e-01 +1.68439820e-01 -1.22876562e-01 +1.40033349e-01 +2.26774976e-01 -1.94585919e-01 -2.04199448e-01 +2.28091374e-01 -1.15604326e-01 -1.31572932e-01 -2.28981882e-01 +2.02336952e-01 +2.19979808e-01 +2.24332705e-01 +3.40411812e-02 +2.18742773e-01 +8.53613466e-02 -5.46717048e-02 +1.68845758e-01 +1.84915587e-01 +2.23101333e-01 +2.31577903e-02 -1.85531884e-01 -8.64483118e-02 +1.87480703e-01 +1.18786588e-01 -1.87701434e-01 -8.16485882e-02 -1.72773674e-01 +8.49034935e-02 +1.95180312e-01 +1.28314927e-01 -2.08001226e-01 -1.44423500e-01 +2.43383870e-01 -1.62215576e-01 -2.86503583e-02 +1.20571956e-01 +1.62741944e-01 -1.15004838e-01 +2.21597061e-01 +2.13152781e-01 -1.75081044e-01 -9.65103507e-03 -2.08004713e-02 -1.34744257e-01 -2.12207079e-01 +2.38796875e-01 -7.41153955e-02 +8.89465362e-02 +1.95581719e-01 -6.22599125e-02 +2.28034839e-01 -2.13572383e-03 +1.48021951e-01 -1.54758111e-01 +1.50454059e-01 +7.18229562e-02 -1.44838601e-01 +6.59111887e-02 -1.58741757e-01 -2.31139198e-01 -4.18156385e-03 -5.10762632e-03 -2.18888372e-01 +1.81486771e-01 +1.89762309e-01 +1.87746808e-01 -1.36137068e-01 -2.02215344e-01 +1.31114408e-01 +1.03295639e-01 +1.55809656e-01 -1.27745152e-01 +5.64469248e-02 +2.32273147e-01 +2.31311426e-01 +2.57709473e-02 +2.03227207e-01 -2.85799652e-02 +1.24896809e-01 +5.99268824e-02 +2.05229148e-01 -1.43371031e-01 +2.23201051e-01 -2.01701969e-01 +2.26260915e-01 -2.31526256e-01 +1.40684739e-01 +1.28432766e-01 +1.72215849e-02 -1.02138221e-02 -2.36253828e-01 -6.86305761e-02 +5.58827817e-03 +7.80905634e-02 +7.94389993e-02 +1.58223167e-01 -1.02530271e-02 -2.29098499e-02 +2.36237094e-01 +6.84753209e-02 -6.95750117e-04 -2.42594555e-01 +1.18244812e-01 -1.10300869e-01 +2.01819703e-01 -4.52382565e-02 -1.54448926e-01 +7.40021467e-04 -8.41835886e-02 -1.46163672e-01 +6.78574890e-02 -2.08482355e-01 -5.91770262e-02 -1.40345380e-01 -1.10867918e-02 -5.20132035e-02 -2.32408702e-01 -1.90605402e-01 -9.60819274e-02 -9.10622925e-02 +3.00172418e-02 +1.72643945e-01 +3.70766968e-02 -1.71108216e-01 -1.92641616e-02 -1.66065425e-01 -2.26402298e-01 +1.60896048e-01 -4.74213958e-02 -8.40908289e-02 +8.62392038e-02 +1.73999295e-01 -1.68809742e-01 +1.81496963e-01 +2.00527295e-01 +7.33533651e-02 +1.08590409e-01 -1.19018123e-01 +1.37406141e-02 +1.79183617e-01 +6.56245798e-02 +7.11436123e-02 -1.36065632e-01 -3.31997871e-05 -4.07643616e-02 -5.72821051e-02 -1.79529935e-01 -1.95157826e-02 -2.32817948e-01 -1.63182199e-01 +2.07425013e-01 -1.01720154e-01 -2.07701653e-01 +4.81493771e-03 -1.66212246e-01 -2.38158539e-01 +2.07186237e-01 -9.09948349e-03 +1.89164728e-02 +6.61007911e-02 -2.07994476e-01 +2.40697429e-01 -2.27256551e-01 +9.24897939e-02 +1.61388412e-01 +1.18350729e-01 +1.91189811e-01 +8.02105814e-02 +1.35221258e-01 -2.40545183e-01 +1.30534396e-01 -6.33991510e-02 -4.93185967e-02 -2.27656171e-01 -2.15846449e-02 -1.63780302e-02 +2.15621158e-01 -6.80670142e-03 -1.96283177e-01 +2.27077201e-01 -2.38397658e-01 +1.58116177e-01 +4.19038683e-02 -7.90158063e-02 +2.05243081e-02 -1.51956186e-01 -1.51706368e-01 +1.26256302e-01 -2.00941414e-02 -1.11346751e-01 +2.77013034e-02 +9.25401598e-02 -1.82769954e-01 -1.81574643e-01 +2.00262144e-01 +1.87034756e-02 +6.95868880e-02 +2.12625936e-01 +1.95239171e-01 +1.98824003e-01 +4.30776626e-02 -1.60028666e-01 +4.89473790e-02 -2.14628682e-01 -1.73038900e-01 -1.99720159e-01 +1.81180730e-01 -1.48356527e-01 +2.01482013e-01 +7.92263001e-02 +5.81833571e-02 -2.53809094e-02 +1.13684162e-01 +6.79830760e-02 -2.13018477e-01 +8.62410814e-02 +1.32533982e-01 -1.89279497e-01 +2.16136798e-01 +3.46495211e-03 +1.71264723e-01 +2.08002478e-02 -1.14746392e-03 -9.95219201e-02 -1.26093924e-01 +2.23822907e-01 -1.06073633e-01 -1.47531271e-01 +9.17538255e-02 -3.14050913e-02 -9.75599438e-02 +1.37337342e-01 +6.18796498e-02 +3.42486650e-02 -1.87854648e-01 -1.59275591e-01 -6.75707906e-02 +5.11402041e-02 -2.13936642e-01 +7.56337792e-02 +1.43108174e-01 -2.34676391e-01 -1.04703546e-01 -1.65653974e-02 -6.96053803e-02 +1.12262830e-01 -1.56559795e-01 +9.10582691e-02 -9.89276618e-02 -6.78053498e-03 +1.97356746e-01 +1.83908924e-01 -1.30786568e-01 +8.77351314e-02 -2.39077941e-01 +2.65239924e-02 +1.27779141e-01 +1.26642123e-01 -2.03193396e-01 +1.73836783e-01 -8.00507218e-02 +3.52155119e-02 +2.41220459e-01 -7.83923417e-02 -1.97654575e-01 -3.81131023e-02 +9.44627672e-02 +1.80498853e-01 +1.52477339e-01 +9.70333368e-02 +9.28723961e-02 +1.16552398e-01 -1.32981881e-01 +2.10045427e-02 -6.88269436e-02 +1.04437664e-01 -2.06483752e-01 -1.34368345e-01 +3.80075723e-02 +4.09506410e-02 -4.89215702e-02 -4.79712039e-02 -1.49394959e-01 -1.37178004e-01 +1.66072145e-01 -2.41693005e-01 -8.42637271e-02 -1.77483469e-01 +2.07272217e-01 +3.28834802e-02 +3.88581306e-02 +1.88526347e-01 +9.88857895e-02 +1.92742363e-01 -8.07455629e-02 +1.29038379e-01 +1.39745966e-01 +9.72968787e-02 +2.16424361e-01 -2.40140840e-01 -1.57619506e-01 +1.33699924e-02 +1.91904679e-01 +1.93956509e-01 +2.24647969e-02 +2.36672685e-01 -1.97418779e-01 -1.00109026e-01 +7.62628168e-02 +8.93611163e-02 +1.49081603e-01 +2.34973267e-01 +2.06480101e-01 +1.18897334e-01 +7.74281472e-02 +2.31543705e-01 +2.19510645e-02 -1.75765187e-01 +1.38527885e-01 -2.31899008e-01 +3.48520428e-02 +1.92744032e-01 -1.89667687e-01 +2.37370715e-01 +2.03345731e-01 +8.80197734e-02 +1.42375246e-01 -4.37285155e-02 +1.47416398e-01 -1.35908455e-01 -8.78707319e-02 -3.94906849e-02 -4.58489209e-02 +8.44205171e-02 +1.46567330e-01 -1.16484910e-01 +1.73092976e-01 -2.05011368e-02 -1.22576594e-01 +1.47274479e-01 -1.17130756e-01 +1.27351657e-01 -1.77596331e-01 +1.14954814e-01 +1.34631246e-02 +1.53513834e-01 -5.38502187e-02 +1.07324347e-01 +6.40524179e-02 +2.02579692e-01 +1.14769444e-01 +1.14218742e-02 -1.11254141e-01 -2.19590485e-01 +7.22429901e-02 -3.21794599e-02 -1.12491041e-01 -5.09652495e-02 +8.19136351e-02 -1.08725205e-01 +1.08358845e-01 +4.27659601e-02 +2.16547891e-01 -5.79127073e-02 -1.72349185e-01 -7.34479874e-02 -2.23445445e-02 -2.97245830e-02 -1.75950110e-01 +1.16033390e-01 -6.09035790e-03 -4.54442650e-02 +1.74626753e-01 +1.30271390e-01 -3.87577266e-02 -2.12739706e-02 -1.90470636e-01 +9.62755233e-02 +2.16330603e-01 +1.95156112e-01 +2.87351012e-03 +1.86889395e-01 +1.46442190e-01 -1.01549283e-01 -2.29127720e-01 -1.70065731e-01 +1.59105524e-01 +1.17780373e-01 +2.24659592e-02 +2.69428939e-02 +1.57557085e-01 -1.47518486e-01 +3.82177979e-02 +1.44802853e-01 +1.28350154e-01 +5.18298596e-02 -1.30430311e-02 -1.63705349e-01 -2.33678982e-01 +1.03092924e-01 +1.26915351e-01 -1.37493908e-02 +2.36336812e-01 -7.01795369e-02 -8.92391354e-02 -9.47638154e-02 +2.89375037e-02 +2.25530609e-01 +6.20268285e-03 -2.37072781e-01 -1.69523120e-01 +1.93236277e-01 -1.53025478e-01 +9.95868295e-02 -1.67281479e-02 -3.89430523e-02 +6.55823499e-02 -6.49054796e-02 +1.37321204e-02 +2.23722979e-01 +2.09642157e-01 -1.18961215e-01 -9.09113735e-02 +1.43456742e-01 -6.74566627e-02 +1.12542823e-01 +2.37908646e-01 -1.49199665e-02 -8.67915750e-02 +1.26791880e-01 -4.98345643e-02 -1.84545219e-02 +1.56688347e-01 +1.67334810e-01 +6.65434748e-02 -4.95854020e-03 -2.03745186e-01 -2.38412678e-01 +2.28973791e-01 +1.99547216e-01 -4.69348729e-02 +1.05949193e-02 -1.37164742e-02 -7.84103870e-02 -6.46450073e-02 +1.15593955e-01 +1.46935776e-01 -2.39826590e-02 +2.16656759e-01 -2.39253923e-01 -1.09171331e-01 +1.21011928e-01 +1.47177294e-01 -1.82040408e-01 +1.18391350e-01 -1.95682004e-01 -1.64761394e-01 -2.19351381e-01 -2.20754221e-01 +2.08931133e-01 +1.37030765e-01 
#Parameter# /_8 {50} 801 ZERO_GRAD
+7.45515674e-02 +4.24067825e-02 +1.62343398e-01 +4.19720262e-02 +2.19452828e-02 +8.01316947e-02 +4.09874767e-02 -8.61598104e-02 -2.13107467e-03 +1.14051893e-01 -1.10942721e-01 +2.17400089e-01 -4.42265123e-02 -1.60595328e-02 +6.40624017e-02 -9.89062488e-02 -9.76118445e-03 +5.02639860e-02 -1.96282610e-01 -4.94198054e-02 -1.86813638e-01 -7.34904259e-02 +9.37951952e-02 +1.38485357e-01 +5.47241420e-02 -1.72427773e-01 -1.68958455e-02 -1.99483350e-01 +3.69556397e-02 -1.37463346e-01 -2.22852513e-01 -1.13772303e-02 -1.86136574e-01 +1.91883698e-01 +1.02604225e-01 +1.71403632e-01 +2.13615343e-01 +1.95844725e-01 +1.78934470e-01 -2.41560340e-02 +3.46856266e-02 -1.21360756e-01 +1.49739251e-01 +1.46455303e-01 +4.26013321e-02 -1.92761570e-02 -6.11707866e-02 -8.18688273e-02 +1.93064585e-01 -7.96044916e-02 
#Parameter# /_9 {50,3} 2401 ZERO_GRAD
-2.45471194e-01 -3.78061116e-01 +9.28609073e-03 -2.70270169e-01 +3.42593849e-01 +2.61977404e-01 +1.55380219e-01 +1.95462883e-01 -2.24514872e-01 -3.40151042e-01 -2.32941255e-01 +1.34223163e-01 +3.34413916e-01 -1.24084018e-01 +1.80653483e-01 +3.12222302e-01 -8.68028775e-02 -1.53412119e-01 +1.11543924e-01 -1.84647948e-01 +2.26690471e-01 -2.18077868e-01 +2.09747329e-01 +4.22023922e-01 +8.54575783e-02 +2.63436049e-01 -1.77516580e-01 +7.62832835e-02 +8.82975459e-02 -2.61757404e-01 -3.15146595e-01 -2.82827407e-01 +4.09316123e-02 -2.43547708e-01 +1.74638614e-01 +9.00945291e-02 +3.56317237e-02 -2.63757288e-01 +3.11782479e-01 +1.09849401e-01 -1.40288159e-01 -8.55633020e-02 -3.11126828e-01 -3.40286285e-01 +1.02453448e-01 +2.77912706e-01 +3.46817255e-01 +2.70355463e-01 -1.86596632e-01 +1.97990820e-01 -2.75535613e-01 +3.20383042e-01 +1.26007676e-01 -8.01443160e-02 +2.87161380e-01 -2.94078499e-01 -2.83853054e-01 -7.82749429e-02 -1.52246684e-01 -2.39791349e-01 +1.69753775e-01 -5.05983159e-02 -3.27525526e-01 +3.46345007e-02 -1.86606213e-01 +8.52852017e-02 +1.33743271e-01 -1.86098009e-01 +3.56636643e-01 -1.39844224e-01 -5.96292727e-02 -3.50047290e-01 -5.37807532e-02 +2.42164470e-02 -2.46058777e-01 -3.30795914e-01 -1.34136096e-01 +2.56905079e-01 -2.30565444e-01 -3.99181426e-01 +2.78251499e-01 +3.07848603e-01 +6.57524690e-02 +3.67001027e-01 -2.43788704e-01 +8.43941644e-02 +5.07033654e-02 +2.52417386e-01 +3.53328884e-02 -1.81023553e-01 +3.73170912e-01 -2.68461347e-01 +3.14602971e-01 -9.48966946e-03 +9.39332619e-02 +5.66811822e-02 +2.68648583e-02 +1.60325065e-01 -2.72487044e-01 +3.80806446e-01 +1.59428567e-01 -2.68886656e-01 +6.88527897e-02 -1.91884972e-02 +2.77792960e-01 +3.82918455e-02 +3.56758177e-01 -1.51248753e-01 -3.61886740e-01 +1.00749284e-01 -3.64669144e-01 +3.48918945e-01 +3.51836644e-02 -3.47725093e-01 +1.81916431e-01 +4.54983681e-01 -2.74511963e-01 -3.62999439e-01 -1.81239188e-01 +4.08620775e-01 -2.11402178e-01 -1.59444109e-01 -1.99839726e-01 +1.85499310e-01 +2.60411650e-01 -3.80151987e-01 +1.32952943e-01 +2.69440144e-01 -1.03949599e-01 -1.37327313e-01 -7.80322552e-02 -1.27450958e-01 +2.85000205e-01 +3.09525698e-01 -2.93110698e-01 +2.20375150e-01 +3.55410390e-02 -4.08555239e-01 +3.28035921e-01 +3.52853179e-01 +4.63021547e-01 -1.50638059e-01 +1.58980757e-01 -2.13079482e-01 -1.91469789e-02 +2.63533950e-01 -7.73802251e-02 +2.07796603e-01 +4.95569035e-02 +3.82561773e-01 
#Parameter# /_10 {50,50} 40001 ZERO_GRAD
