#Parameter# /_1 {2,50} 1601 ZERO_GRAD
+3.59665126e-01 +9.12784263e-02 -3.53438914e-01 +1.33043930e-01 +1.27748281e-01 +3.23096484e-01 -3.58546078e-01 +6.68098629e-02 -2.08935320e-01 +2.12827668e-04 +9.85672623e-02 -9.58645996e-03 -1.66927665e-01 +1.76432043e-01 +1.68705985e-01 -3.51382613e-01 -9.07407627e-02 +3.39271486e-01 -1.06754571e-01 +1.18838049e-01 +3.66761774e-01 -2.13868037e-01 -3.86946112e-01 -1.06577545e-01 -2.08282590e-01 -3.54496837e-02 +1.06009960e-01 +2.61868656e-01 -3.10309052e-01 -9.61058773e-03 -1.67797118e-01 +2.61891276e-01 +2.81592816e-01 -8.71732086e-03 -3.71155351e-01 -3.23313400e-02 -1.86422970e-02 -1.75326392e-01 -7.38323405e-02 +1.11842766e-01 +3.93610537e-01 -3.52347381e-02 -6.99592531e-02 +3.89018655e-01 -2.58290172e-01 +2.85826445e-01 -6.01767041e-02 -4.60904181e-01 -8.21869075e-02 -9.12878290e-02 -2.01302692e-01 +3.92827034e-01 -1.85695633e-01 -3.09470356e-01 +9.61694494e-02 -5.11960462e-02 +1.94920853e-01 -1.85141340e-01 -3.09650093e-01 +3.27729762e-01 -3.74872386e-01 -4.48088758e-02 -5.24188057e-02 +2.95217782e-01 -1.90491587e-01 +1.39544323e-01 -2.53277212e-01 -2.58412629e-01 +9.27183479e-02 -2.84758788e-02 +1.12856694e-01 +4.06136692e-01 +3.04080427e-01 +2.00892136e-01 +5.72896712e-02 +3.50287348e-01 -5.80189586e-01 +6.76591843e-02 +9.10184309e-02 -6.60080882e-03 -1.25389770e-01 +2.42760465e-01 -4.43539694e-02 +7.00050145e-02 -9.53974319e-04 -2.22827256e-01 +1.09220780e-02 +2.98238844e-01 -4.89551462e-02 +2.17589796e-01 +2.65203476e-01 -2.20371962e-01 +2.07967803e-01 +3.58785003e-01 -1.40079837e-02 +2.27632653e-02 +2.16607869e-01 -1.26200408e-01 -2.91270524e-01 +2.01637477e-01 
#Parameter# /_2 {2} 33 ZERO_GRAD
-5.44037893e-02 +8.98004770e-01 
#Parameter# /_3 {50,3} 2401 ZERO_GRAD
+1.17048585e+00 +1.64875202e-02 +6.25003040e-01 +2.96417505e-01 -5.68661392e-02 -6.38367414e-01 +1.35414672e+00 +6.48543715e-01 -4.60405618e-01 -4.11874741e-01 +4.20473069e-02 +3.04160446e-01 +4.79814291e-01 -4.91924167e-01 +8.89152169e-01 +7.27961957e-01 -5.46689391e-01 +1.37840259e+00 -7.12050050e-02 +2.11924329e-01 -1.78910196e-01 -4.32981253e-01 +7.82959759e-01 -2.24336728e-01 +5.78556359e-01 +1.55644536e-01 +4.39039171e-01 -2.54233867e-01 +6.23728514e-01 +5.23231685e-01 +5.23417294e-01 +2.56305307e-01 +2.62160271e-01 -5.75595617e-01 -5.16861379e-02 -6.21351123e-01 -4.92752820e-01 +2.58738875e-01 -4.12309289e-01 +1.09525692e+00 +1.65167078e-01 +5.51668108e-01 +4.43436921e-01 +1.94169655e-01 +1.21719539e+00 -2.98114121e-01 -6.16119027e-01 +3.55604410e-01 -5.59575595e-02 -1.56515956e-01 +4.96615559e-01 +2.17239380e-01 +2.77387023e-01 -1.61094770e-01 +3.05481911e-01 -4.88361150e-01 +6.47729397e-01 +3.72885406e-01 -3.39167625e-01 -5.66736870e-02 -2.42358714e-01 -4.73056510e-02 +6.33081049e-02 -4.44150686e-01 +2.54773319e-01 +2.74167269e-01 -1.02299541e-01 +5.52970529e-01 +1.16372190e-03 -3.43919605e-01 -2.22155392e-01 +2.53124148e-01 +5.62082887e-01 -1.43105060e-01 +5.47974631e-02 +1.04788981e-01 -3.90510410e-02 -5.00982217e-02 -1.22398540e-01 -1.83188578e-03 +4.97852772e-01 +1.25048056e-01 -1.79685414e-01 +3.79075035e-02 +4.29922432e-01 +2.04220131e-01 +6.26593158e-02 +4.03458804e-01 -4.31131601e-01 +9.47531998e-01 +5.90251759e-02 -1.70819208e-01 +3.47785950e-01 -2.63436884e-01 +8.89328480e-01 -4.63124849e-02 -5.66532731e-01 +3.07618052e-01 -2.20330179e-01 -5.12830541e-03 -6.66709185e-01 -9.11028236e-02 -5.18623471e-01 +1.64100632e-01 -2.70341724e-01 +4.43123788e-01 -1.09463620e+00 -6.72563493e-01 +1.75922513e-01 -1.31065287e-02 +5.23417234e-01 -3.46470892e-01 -7.48221040e-01 +2.50788331e-01 -4.11963999e-01 -1.06062818e+00 -1.02881387e-01 -1.12890768e+00 +2.37801790e-01 -1.68799669e-01 +1.12132385e-01 +4.11329538e-01 -7.96146095e-01 -1.22280829e-01 -4.18817282e-01 -7.02546015e-02 -3.15980673e-01 +7.81204343e-01 -4.11406206e-03 -3.32616568e-01 -8.30363095e-01 -6.82818964e-02 +7.76361674e-03 +4.06724513e-02 +4.47750352e-02 +4.86007601e-01 +6.04954250e-02 -3.73533249e-01 +1.50735930e-01 -7.98830628e-01 -5.21735311e-01 -2.64237002e-02 -4.77081627e-01 +4.61305708e-01 -1.03778160e+00 +5.12831986e-01 +7.40634203e-01 -3.87399644e-01 +1.11929655e-01 +2.85860866e-01 
#Parameter# /_4 {50,50} 40001 ZERO_GRAD
+1.00240394e-01 -3.43717784e-02 -2.00967535e-01 -1.80870786e-01 +1.58755749e-01 +1.26863956e-01 -2.16543555e-01 -1.60582513e-02 +8.06074291e-02 -1.85013011e-01 -3.63230705e-02 +1.36318048e-02 -1.92264318e-01 -5.64500839e-02 -1.31690606e-01 -2.03369141e-01 +1.51397794e-01 -8.99359211e-02 +1.01427242e-01 -4.35522906e-02 +2.69372575e-02 +9.93379503e-02 +3.33905727e-01 +7.76099190e-02 -9.12397727e-02 -2.16221616e-01 -8.83450508e-02 -1.80560812e-01 -2.78039128e-01 -7.61643797e-02 -4.65109088e-02 +3.59047711e-01 -2.14900285e-01 +4.42066580e-01 +8.21327697e-03 +1.54729681e-02 +6.07116148e-03 -4.22751606e-02 +4.13731605e-01 +1.47298630e-03 -7.22602522e-03 -2.37885475e-01 +2.64262140e-01 -1.56384215e-01 +1.55287966e-01 -4.24219668e-02 -1.04900524e-01 -1.80659190e-01 -2.70509478e-02 +2.23693296e-01 -3.51233512e-01 -7.73387700e-02 -1.84009748e-03 +3.72765623e-02 -3.04769069e-01 -2.61076689e-01 -1.58187464e-01 +1.29174262e-01 +4.05835062e-02 +1.18977614e-01 +1.43277897e-02 -3.18095922e-01 -6.29643351e-03 +8.74804705e-02 +4.55344431e-02 -6.05905242e-03 -4.32939976e-01 -3.21272314e-01 -9.35273319e-02 -1.81340173e-01 -6.74935505e-02 -4.28810477e-01 -5.15866540e-02 -3.09651911e-01 -1.00504518e-01 -1.32741615e-01 -3.06072325e-01 -1.71140283e-01 -2.85830237e-02 +2.41651759e-01 +2.08944846e-02 -2.87205130e-01 -1.01413429e-01 -3.43509130e-02 -1.99422851e-01 -3.75761330e-01 -8.90903622e-02 +2.31683608e-02 -3.03843796e-01 -1.61297277e-01 +1.42967656e-01 +8.08880478e-02 -1.13220870e-01 -1.12376615e-01 -2.08113164e-01 +4.26249616e-02 -2.39150763e-01 -4.74218419e-03 -7.79122040e-02 +1.92909509e-01 +1.25549048e-01 -8.66118297e-02 +2.27894425e-01 +5.06088920e-02 +4.62276608e-01 +3.18440408e-01 +3.27571750e-01 -1.10231407e-01 -2.71755811e-02 +4.07691836e-01 +1.18035093e-01 -1.91030297e-02 +7.50639796e-01 +1.88695807e-02 +2.77664959e-01 +1.23143710e-01 +1.09653510e-02 +3.93263787e-01 +8.96885023e-02 +2.74710208e-01 +8.34195781e-03 +1.35931149e-01 -4.35483605e-01 +2.26184711e-01 +6.14150107e-01 +3.26299489e-01 +1.23372763e-01 +2.84001678e-01 +3.19008678e-01 +3.58267874e-02 +3.70151788e-01 +1.92364708e-01 -9.42813829e-02 -1.48295581e-01 -8.25209990e-02 +5.45329213e-01 +3.33740383e-01 -7.90682584e-02 +2.27868095e-01 +6.21874511e-01 +1.76941246e-01 -1.86548233e-01 +5.47371447e-01 +1.56571582e-01 +2.33924210e-01 -2.16918617e-01 +6.20638207e-02 +1.73103973e-01 +7.38097057e-02 -8.08033794e-02 -1.39893487e-01 -1.07662670e-01 -1.83312282e-01 -2.72090912e-01 -2.77436674e-01 -1.53554738e-01 -2.32770234e-01 -8.58972818e-02 -1.74266547e-01 -2.03199118e-01 -3.64222676e-01 -4.02813032e-02 +3.95605117e-02 +1.05906896e-01 -2.64127016e-01 -2.27110949e-03 -5.10883331e-01 -3.85233670e-01 +1.59281209e-01 -5.33649176e-02 -1.09132603e-01 -4.66950446e-01 +8.65429640e-02 -2.57758439e-01 -1.62657127e-01 +3.81656960e-02 -1.33374169e-01 +2.42961068e-02 -2.20177993e-01 +2.28601471e-01 +1.53135166e-01 -2.91787475e-01 +2.02350140e-01 -1.51404202e-01 -2.50744343e-01 -3.08830172e-01 -2.04786420e-01 -1.92425042e-01 -1.22487344e-01 -3.61399740e-01 -1.27512738e-01 +8.44776109e-02 -3.53730172e-01 +5.41674830e-02 +1.24902114e-01 -2.15680107e-01 -1.54263347e-01 -1.93338215e-01 -2.24151202e-02 -2.93640703e-01 +8.53713155e-02 +4.08145010e-01 +1.38465896e-01 -1.06031343e-01 -1.06853507e-01 -1.99571460e-01 -1.18889086e-01 -1.96273863e-01 -7.75096864e-02 -7.01308548e-02 +2.89302498e-01 +1.53441697e-01 +3.06443393e-01 +1.45642743e-01 +4.36923606e-03 -6.94671497e-02 -2.59200353e-02 -1.06116898e-01 -2.23226368e-01 +3.99554744e-02 -4.28754389e-02 +3.90001863e-01 +1.20515786e-01 +1.95367038e-01 +3.75491440e-01 -2.96898991e-01 +1.18841238e-01 -1.87404543e-01 -2.93158323e-01 -5.68274856e-02 -7.39223929e-03 +2.69143701e-01 -1.28049463e-01 +2.10262984e-01 +9.22720060e-02 -2.64938653e-01 +1.08481273e-01 +1.60610989e-01 +8.24848935e-02 +2.04862088e-01 -1.57380298e-01 -1.36607632e-01 +1.31909981e-01 -3.14308912e-01 -1.58448964e-01 -7.04327524e-02 -2.65978277e-01 +5.52552119e-02 -9.12547186e-02 +2.80389562e-02 -8.30295458e-02 -6.05188496e-02 -7.51128271e-02 -1.97001427e-01 -2.09578514e-01 +1.70697704e-01 -2.69138306e-01 +3.34677547e-01 +2.97772978e-03 -3.40806514e-01 +3.17515582e-02 -2.91241288e-01 -3.55315953e-02 +2.78176069e-02 -2.89193958e-01 -4.19298559e-01 -1.70565769e-01 -3.41929078e-01 -1.03005007e-01 -1.59223787e-02 -3.38413894e-01 -6.46021143e-02 +3.19007933e-01 -1.02811418e-01 -4.17442262e-01 -3.16513300e-01 -4.67900559e-02 +2.61487782e-01 -1.87830761e-01 -8.55261385e-02 -1.63288295e-01 -1.89421520e-01 -1.29431844e-01 +1.33438617e-01 -3.05006385e-01 -1.78635240e-01 -4.30709392e-01 +3.78511883e-02 +8.30012113e-02 -5.77515721e-01 -1.71538722e-02 -4.89692464e-02 -1.18982762e-01 -1.47182286e-01 +1.04888633e-01 +4.49193344e-02 -6.51142793e-03 +1.19554564e-01 +2.58237630e-01 +2.34554663e-01 +2.84177035e-01 -2.01227099e-01 +1.91600755e-01 -1.60959691e-01 +1.18428737e-01 +1.26137752e-02 +3.19138110e-01 -1.65685281e-01 -2.31434807e-01 +1.18570462e-01 +1.56187654e-01 +3.67667019e-01 -1.01221547e-01 +1.47313729e-01 +5.92478275e-01 +2.25959867e-01 +2.02653751e-01 +5.49478829e-01 +6.50002301e-01 +1.62325427e-01 -1.06961064e-01 -1.90253526e-01 -4.93163198e-01 +7.24914491e-01 +7.37558454e-02 -1.05455182e-01 +3.41193974e-02 +4.68052149e-01 +6.38745427e-01 +3.04829478e-01 +4.21766132e-01 -2.75438070e-01 +8.39076638e-02 -3.38252842e-01 +1.75334767e-01 +4.40688699e-01 +8.90799463e-02 +1.15127318e-01 -1.98336661e-01 +4.08214748e-01 +9.56487060e-02 +2.34364182e-01 +2.17384383e-01 -3.79397720e-02 +2.36789212e-01 -1.08168617e-01 +3.47056121e-01 +1.92431480e-01 -2.09678829e-01 +2.26494387e-01 -3.46103042e-01 +1.54643757e-02 -2.19820559e-01 -3.00260663e-01 -1.85364619e-01 -1.67745382e-01 -2.67399251e-01 -2.31104232e-02 -1.55296415e-01 -4.11611460e-02 -3.63338500e-01 -4.66694273e-02 -2.72391289e-01 +1.03162408e-01 -5.97990751e-01 -2.71109462e-01 -2.75495470e-01 -2.71019369e-01 -9.74325985e-02 -7.67631680e-02 -3.64203006e-01 -3.59482348e-01 +1.50751799e-01 -4.21427011e-01 -2.20410556e-01 -2.42173895e-01 +9.44757313e-02 +1.23415433e-01 -5.84916651e-01 +9.28750336e-02 -2.16428444e-01 -4.32894200e-01 +1.89043522e-01 -1.89735904e-01 +1.10500827e-02 -1.40099019e-01 -6.02923967e-02 -2.20716074e-01 -3.50188196e-01 -2.64533013e-01 -4.54409458e-02 -3.61948125e-02 -1.22769699e-01 -1.72688708e-01 -1.57988951e-01 +5.47830909e-02 -1.02645651e-01 +9.45927501e-02 -4.35338647e-04 -2.71464616e-01 +1.15092516e-01 -2.20701963e-01 +1.12950265e-01 -6.56669661e-02 -8.93699601e-02 +4.34060246e-01 +1.27051383e-01 -1.04376115e-01 -1.80895388e-01 +8.02350864e-02 +2.20681384e-01 +3.53194363e-02 +3.01335286e-03 +1.68463558e-01 -8.55099112e-02 -7.18970448e-02 +4.59584147e-01 -2.32394740e-01 -3.20739269e-01 +2.43038610e-02 -3.31295095e-02 +1.30974919e-01 -1.68515280e-01 +1.52717158e-01 +6.39587566e-02 +1.83807194e-01 -2.50979483e-01 +1.26183853e-01 -8.22522268e-02 +3.78913544e-02 +1.11040194e-02 -1.05461225e-01 -2.85544217e-01 +3.28760684e-01 -4.66616452e-02 +2.67199099e-01 +9.18244198e-02 +1.60368860e-01 +4.81344074e-01 +3.35260421e-01 +7.48863723e-03 -2.75913104e-02 -5.24582565e-02 +8.97270143e-02 +3.44059318e-01 +1.60000339e-01 +4.20995384e-01 -3.17854844e-02 +4.75509316e-01 +3.16203773e-01 -2.00621918e-01 -1.55089334e-01 -4.55982648e-02 -3.22166711e-01 -1.02013372e-01 +2.84253567e-01 -3.92854899e-01 -4.09587696e-02 +1.86758220e-01 -8.22069049e-02 -3.79147053e-01 -2.73964673e-01 -3.67914975e-01 +1.47946537e-01 -1.27403453e-01 -2.18683854e-01 -2.87731886e-01 -2.53521025e-01 -3.51496667e-01 -1.42220303e-01 -5.15222028e-02 -8.38634744e-02 +5.72106317e-02 -3.70421529e-01 -5.24218082e-01 +8.06075111e-02 -2.14783773e-01 -3.08378369e-01 -5.09067662e-02 +1.67482108e-01 +1.80368111e-01 -5.67028165e-01 +8.29206929e-02 +2.44895220e-02 -2.29088247e-01 -2.08118677e-01 +1.42935617e-02 +3.79963480e-02 -4.65832576e-02 -3.94194275e-01 -1.94357350e-01 -3.74776237e-02 -1.60653219e-01 -8.83895606e-02 -2.10272923e-01 +7.78259858e-02 -1.47726759e-01 +1.88393325e-01 +8.53752419e-02 -5.37484474e-02 -1.47015974e-01 -1.73272908e-01 +9.00809094e-02 -2.34817266e-01 +4.31905389e-01 -8.21265206e-02 +2.85876870e-01 -1.76327631e-01 -1.39350653e-01 +5.65355569e-02 -7.49893934e-02 +7.12457746e-02 +2.28655741e-01 -1.18784435e-01 +1.34568214e-01 +1.28620341e-01 +2.28604183e-01 +1.47145927e-01 +2.65531361e-01 -6.97867274e-02 -1.42386466e-01 +3.87219101e-01 -2.23788410e-01 +1.68872267e-01 +3.86926800e-01 -1.02109388e-01 +1.65049657e-01 -3.36514935e-02 +2.38698795e-01 +6.55317530e-02 +1.25282809e-01 +9.51443985e-02 +1.88728407e-01 +3.43492508e-01 -4.04225755e-03 -1.27142012e-01 +2.88775653e-01 -1.14463992e-01 +2.65940875e-01 +1.92185745e-01 +1.98291615e-02 +3.94784696e-02 +2.17388466e-01 +4.53917403e-03 +5.10082096e-02 -1.43033490e-01 +1.08320862e-01 -1.64451674e-01 -2.15387002e-01 -2.09773742e-02 +7.07329437e-02 +5.80837801e-02 -5.11823297e-02 +1.46820605e-01 -4.91717979e-02 +1.29656881e-01 +3.35859388e-01 -8.53603333e-02 +1.25406027e-01 +8.63936990e-02 +1.88668206e-01 +1.41138583e-01 -1.42209619e-01 +5.21782748e-02 +4.26884711e-01 +2.65881747e-01 -1.50870040e-01 -1.43536642e-01 +1.09423220e-01 +1.87525660e-01 -2.59914510e-02 -1.52586848e-01 -2.33115070e-02 +1.07666560e-01 -2.31115580e-01 -2.12816820e-02 -8.70696083e-02 -2.46798582e-02 +1.82647675e-01 +1.11269794e-01 +3.29345018e-01 +1.99030533e-01 +3.14478099e-01 -1.84226707e-01 -1.19619839e-01 +2.57534951e-01 -7.42056742e-02 +2.16921568e-01 +1.74066722e-01 +1.75227553e-01 +2.65267794e-03 +1.21680588e-01 +2.56802499e-01 +2.39540011e-01 -6.50854632e-02 +3.16956416e-02 +2.03003407e-01 -1.82300851e-01 +1.10928521e-01 -3.36832225e-01 +3.94238979e-01 -2.92307083e-02 +1.68477863e-01 +7.98986410e-04 +2.46164203e-01 +1.25053585e-01 +3.31726149e-02 -1.39690280e-01 -9.20015499e-02 +9.95550212e-03 -1.53742924e-01 +4.89790291e-02 +3.38621199e-01 +3.77849787e-01 +5.68749785e-01 -9.49358344e-02 -4.26062308e-02 +1.03765093e-01 -8.09550136e-02 +2.31979802e-01 -1.56883910e-01 -8.43524113e-02 -3.32053989e-01 +2.77220875e-01 +1.81691796e-01 +2.66657025e-01 -1.62169307e-01 -2.11216182e-01 +1.56304210e-01 +1.41170546e-01 -2.91220415e-02 -9.71975327e-02 -1.23486936e-01 -1.26367137e-01 +7.68791698e-03 +1.54576004e-01 -3.28052104e-01 -5.31180464e-02 -1.11310221e-01 +2.90096641e-01 -8.77144635e-02 +2.82258511e-01 +1.86200827e-01 +2.69852668e-01 -8.06203038e-02 +1.02472126e-01 -1.48307398e-01 +8.95739347e-02 -3.62365812e-01 -3.30999881e-01 +2.05080763e-01 +1.36616707e-01 -9.33427438e-02 +9.13480576e-03 +2.43164357e-02 +2.44747475e-03 -8.82696286e-02 +1.28218979e-01 -3.70417088e-02 +2.28821021e-02 +1.80030942e-01 -2.48208605e-02 -3.78467590e-02 +3.64550427e-02 -4.27139401e-02 -9.54324976e-02 +3.30482304e-01 -5.00638271e-03 +5.94260953e-02 +8.59958008e-02 -5.01772249e-03 -9.32713449e-02 +2.06705853e-01 +1.11932261e-02 -2.59981185e-01 +1.09943122e-01 -3.04457814e-01 -3.83091648e-03 -1.41721144e-01 +1.98461071e-01 +1.24578796e-01 +3.39371823e-02 -3.74217890e-02 +7.62596652e-02 +4.88899797e-02 +1.08113497e-01 -6.96362704e-02 -1.04126267e-01 +2.31572896e-01 +8.70561451e-02 +7.06109628e-02 +1.73307538e-01 +1.90131843e-01 +9.93462130e-02 +2.56112128e-01 -8.26561451e-02 +1.96499797e-03 +1.81907162e-01 +1.61186412e-01 +1.56757012e-02 +4.42769408e-01 -4.82599527e-01 +3.11204642e-01 -4.89185415e-02 +2.76028335e-01 -8.14744756e-02 -7.69397989e-02 -2.96465904e-01 +3.64447199e-02 +3.14201862e-01 -2.76577175e-01 +5.74576370e-02 +1.09865531e-01 -2.02298656e-01 +3.66663933e-01 +1.80055425e-01 -2.69091427e-01 +8.48130360e-02 +5.89227498e-01 +1.14390045e-01 -1.10021077e-01 -2.69548655e-01 -7.74194598e-01 +5.15595019e-01 +8.57146457e-02 +5.20655513e-02 -4.59918417e-02 +2.46947154e-01 +5.62388003e-01 +2.77944118e-01 +2.93109149e-01 -5.39046116e-02 -4.69906889e-02 -3.87044668e-01 -1.01975761e-01 +3.17586988e-01 -4.38251764e-01 -2.00251788e-01 -8.71015266e-02 +3.07818919e-01 -2.76331872e-01 +4.49329875e-02 +1.56097636e-01 +2.53957063e-01 +2.34955549e-01 +9.60363671e-02 -6.11949600e-02 -1.67356089e-01 -3.10663760e-01 -3.17674875e-01 -7.66809732e-02 -2.69756079e-01 +7.61971623e-02 +2.14116186e-01 +1.27398252e-01 +1.57710478e-01 +2.30937332e-01 +1.30515963e-01 +1.70256406e-01 +2.21025303e-01 -2.23930225e-01 +3.74547035e-01 -1.91920120e-02 +1.45246521e-01 +2.60450482e-01 +3.18423480e-01 +2.05809787e-01 +7.08559230e-02 +5.70021510e-01 +8.60105678e-02 +1.41095817e-01 -2.18645141e-01 -6.04379535e-01 +3.44184369e-01 +9.98386368e-02 +1.13179728e-01 +5.90645038e-02 -3.11918780e-02 +5.77343702e-01 +9.37562585e-02 +4.90916893e-02 -2.96171814e-01 +1.09204218e-01 -6.20327778e-02 -1.08432375e-01 +3.10881883e-01 +3.80545370e-02 +9.82864797e-02 +4.42819260e-02 +5.83233058e-01 +6.46316409e-02 +7.83581659e-02 +7.99933225e-02 +4.74398397e-02 -1.15937322e-01 +1.24354936e-01 -1.12684146e-01 +1.95113912e-01 -2.80431062e-01 -2.29309216e-01 +7.19016045e-02 +2.54437298e-01 +2.54064620e-01 +2.41378725e-01 -1.37404591e-01 -3.04574281e-01 +1.29094526e-01 +1.70513630e-01 +1.71736479e-01 -2.82642096e-01 +2.68364012e-01 +8.59418362e-02 +3.20664972e-01 -1.04744457e-01 +1.39178395e-01 +8.16531256e-02 +1.92397833e-01 +2.63773173e-01 +5.04443683e-02 -3.45531076e-01 +2.00392857e-01 +2.38635048e-01 +1.66246086e-01 +2.85403896e-03 +4.77324247e-01 -1.42686471e-01 +2.48691708e-01 +4.35878299e-02 +5.66911176e-02 -8.59315246e-02 -3.66163939e-01 +4.87351686e-01 -8.82729962e-02 -8.53763074e-02 +1.15190461e-01 -2.71207839e-01 -2.63163634e-02 +1.92510523e-02 -2.38181204e-01 +5.88203549e-01 +1.91965863e-01 -9.29606333e-02 +4.87841144e-02 -2.75149614e-01 +5.38316034e-02 +3.00271302e-01 +1.83691923e-03 +1.66736487e-02 -1.58289701e-01 -6.51845615e-03 +6.09084725e-01 -3.01409215e-01 +4.98099804e-01 +1.34452015e-01 +6.76004142e-02 -1.69066377e-02 +4.51719314e-01 +1.01045467e-01 -9.86047760e-02 +7.45679438e-02 +5.26962169e-02 +1.94432348e-01 +2.35707209e-01 -1.60257354e-01 +9.71299231e-01 +6.33126795e-01 +1.83532000e-01 +4.24908936e-01 +8.47805321e-01 +2.17305720e-01 +3.24974321e-02 -3.11303258e-01 -6.67307913e-01 +8.99721742e-01 +3.52281481e-01 +1.96624815e-01 +1.60762727e-01 -7.62875052e-03 +7.88305938e-01 +7.39086270e-02 +4.30019289e-01 -7.45632425e-02 +1.67790547e-01 -2.74109662e-01 -2.11393118e-01 +9.86700580e-02 -2.90273339e-01 -1.41350374e-01 -4.71265793e-01 +4.56123620e-01 +4.32520583e-02 +1.81269541e-01 +3.84716660e-01 +1.68596119e-01 +1.97664276e-01 +2.73053944e-01 +2.21243963e-01 -4.64036092e-02 -3.44457775e-01 -2.98545003e-01 +1.46070778e-01 -3.67133677e-01 +3.24929833e-01 +2.58142650e-01 +3.37972879e-01 -8.17459896e-02 +3.63422900e-01 +3.12954754e-01 +7.96722695e-02 +1.62488997e-01 +2.24719033e-01 +1.18714891e-01 +2.53999472e-01 +3.30255270e-01 +4.51053143e-01 -9.54616070e-02 +4.56916653e-02 +7.22612441e-02 -1.79656614e-02 +1.80884153e-01 +7.40285814e-02 +1.57147527e-01 -3.20153147e-01 +1.19900964e-01 -2.59677842e-02 +2.28455082e-01 -9.73695517e-02 +2.26312950e-01 +3.37833911e-01 +8.08440596e-02 +2.52824873e-01 +2.77881801e-01 +7.67278895e-02 -3.96750182e-01 +1.01680215e-02 +3.40562284e-01 +3.28106098e-02 -4.05584760e-02 +4.21812274e-02 +3.83222848e-01 +7.10864514e-02 -1.04339048e-01 +2.52358109e-01 +1.25222266e-01 -5.35728689e-03 +1.67665817e-02 -2.18529627e-02 +6.29158244e-02 -2.14143738e-01 -3.47403139e-01 +2.23785922e-01 +2.63259947e-01 +1.61905259e-01 -2.74003912e-02 +2.24753618e-01 -4.62509925e-03 -1.53100397e-02 -3.69208932e-01 -2.38856599e-01 -8.55793804e-02 -1.01483226e-01 -1.75760791e-01 +3.06800395e-01 -2.90713221e-01 -1.98490713e-02 +1.10845409e-01 +1.73036918e-01 -1.29115641e-01 -1.44441605e-01 -1.81597382e-01 -2.18662873e-01 +5.27905151e-02 -4.83405180e-02 -1.49059713e-01 -2.01086830e-02 +1.43178821e-01 +1.35911703e-01 -1.82821378e-01 +1.24257006e-01 -1.49145305e-01 -2.39659280e-01 +3.42850327e-01 -2.86185712e-01 -1.74875066e-01 -2.05582231e-02 -4.45591621e-02 +1.89132899e-01 +6.99647442e-02 -1.98975056e-01 +2.95638561e-01 +1.77954391e-01 -4.82878163e-02 +1.51694983e-01 +1.59127682e-01 -4.72480850e-03 +1.23151034e-01 -2.93443412e-01 -1.79104522e-01 -1.18424885e-01 -1.15668729e-01 -2.67342478e-01 -1.90738529e-01 -3.55516881e-01 +2.51756124e-02 -2.82281190e-01 -2.99642682e-01 +5.78462007e-03 -1.18860742e-02 +1.47965670e-01 -7.97137469e-02 +1.26108110e-01 -1.33663386e-01 -1.93352371e-01 +1.19346015e-01 -3.49576920e-01 -3.28406274e-01 -4.46245313e-01 +1.35755055e-02 -3.05400223e-01 -1.33948103e-01 -3.23356777e-01 -2.92006910e-01 -2.35819705e-02 -5.42102419e-02 -4.42343056e-01 -2.27537140e-01 -9.34202224e-03 +4.74656634e-02 -3.24200809e-01 -2.02906340e-01 -1.97306380e-01 -1.36431590e-01 -2.26677820e-01 -8.67869556e-02 -1.83993950e-01 -3.28979380e-02 -2.54889905e-01 -3.13330650e-01 -4.91415560e-01 -1.82561070e-01 -3.00132990e-01 +1.80685401e-01 -4.89906490e-01 +1.99459463e-01 -3.53396028e-01 -3.08129579e-01 +1.36098862e-02 +2.85783727e-02 +2.22883541e-02 +2.89751645e-02 +9.99789387e-02 +7.58833066e-03 +2.15346873e-01 +9.34467167e-02 +2.87628084e-01 +1.83930218e-01 +4.17421609e-02 +2.87772775e-01 -6.47864565e-02 +1.95821345e-01 +2.06163943e-01 +8.59833360e-02 -3.18219334e-01 +1.14571624e-01 -9.71733928e-02 +2.20115513e-01 +4.89045650e-01 -1.06103413e-01 +2.88235664e-01 +2.74822623e-01 +3.96707028e-01 +3.38714033e-01 +1.71335369e-01 +3.63511205e-01 -9.71374810e-02 +2.08359197e-01 +3.14369768e-01 +4.29205835e-01 +1.07579917e-01 +4.58172485e-02 +1.32460818e-01 +2.93505788e-01 -2.32248127e-01 +5.72513975e-03 +1.89674184e-01 +1.71261236e-01 +3.80498290e-01 +3.29185687e-02 +4.99487847e-01 +2.82770306e-01 -2.21378654e-01 +1.41654298e-01 +3.88038009e-01 +5.04341349e-02 -1.30022705e-01 +3.35388213e-01 -3.35025974e-02 -1.37222007e-01 +2.36618772e-01 -2.19667792e-01 -2.77329355e-01 +7.19609857e-03 -1.33798450e-01 -6.47531748e-02 -4.85525161e-01 -4.17523265e-01 -9.85019878e-02 -2.78178528e-02 -1.07420143e-02 +3.03390771e-02 +4.96042259e-02 -3.79513390e-02 +1.35421574e-01 -2.19962105e-01 -3.43596607e-01 -5.24012804e-01 -3.10454100e-01 -2.54228652e-01 -7.54319668e-01 -4.76280265e-02 -2.94821739e-01 +5.98957464e-02 +4.03072327e-01 -5.93351901e-01 -1.52456582e-01 -9.21546370e-02 -3.07855844e-01 -3.09606671e-01 -3.55566025e-01 +8.43600109e-02 -5.30427039e-01 -8.17892477e-02 -2.91942149e-01 -3.73614058e-02 -7.73665756e-02 -3.61593276e-01 -3.82510990e-01 -2.58422524e-01 -2.64029354e-01 -4.30952132e-01 -1.61274835e-01 +1.04036480e-01 -3.41770500e-01 +1.21018648e-01 -2.30419278e-01 -2.76259273e-01 -4.25692588e-01 -2.32956797e-01 -2.28653356e-01 -1.63642123e-01 +1.10008575e-01 -1.72576055e-01 -4.70152088e-02 +5.04960790e-02 +8.77810642e-03 +1.18200466e-01 +4.02354062e-01 -1.17432728e-01 +3.62633611e-03 +1.63750470e-01 +6.84110150e-02 +1.60919517e-01 +2.61956751e-01 -1.85507894e-01 +1.50498018e-01 +3.12647700e-01 +9.28793177e-02 +1.08999521e-01 +2.65313350e-02 +4.24762487e-01 -8.47061798e-02 -8.51536691e-02 -2.17656076e-01 +4.19070810e-01 -1.89533949e-01 -3.90813686e-03 -3.08597237e-01 +4.51504476e-02 +4.17422384e-01 -7.95493871e-02 +1.71002269e-01 +1.06146589e-01 -4.04829346e-02 -3.41700733e-01 -6.57656491e-02 +2.91896671e-01 -3.35435301e-01 -5.84241152e-02 -2.88452476e-01 +3.89053792e-01 -1.30419694e-02 +1.53664025e-02 -1.09860793e-01 +3.25379193e-01 +2.20846936e-01 +6.46643862e-02 -6.88087568e-02 -4.54891711e-01 -2.64526755e-01 -2.87539929e-01 -2.40152791e-01 +2.21866407e-02 -3.65692914e-01 -1.75787121e-01 +3.40403393e-02 -1.31407335e-01 -3.89030308e-01 -4.10625897e-02 -2.18891263e-01 +1.54403836e-01 -2.60320336e-01 -1.58920631e-01 -4.04468715e-01 -4.70100790e-01 -5.16097367e-01 -3.26211512e-01 +2.54638225e-01 -5.83195269e-01 -5.30135572e-01 -8.85242224e-02 -6.54438585e-02 -1.01518966e-01 +3.88505816e-01 -5.38295329e-01 -1.70865476e-01 +9.22244191e-02 -2.95225441e-01 -1.82074949e-01 -4.83939081e-01 -5.14523745e-01 -2.45684117e-01 -2.12349251e-01 +2.51691461e-01 +1.94224596e-01 +1.19173773e-01 -1.92847550e-01 -1.28543794e-01 -2.08857417e-01 -1.45470709e-01 -1.42791897e-01 -1.26780570e-01 -2.14734450e-01 -4.22444552e-01 -2.06915557e-01 -3.95240128e-01 +1.84895784e-01 -3.20222735e-01 +2.81323463e-01 -1.77106395e-01 -2.07186148e-01 -3.71477246e-01 -1.42827397e-03 -1.59573793e-01 -4.73258868e-02 -4.20701921e-01 -1.23972751e-01 -3.19199920e-01 +1.60690229e-02 -3.05634122e-02 +3.38686407e-02 -4.97228742e-01 -1.24753281e-01 -6.45187497e-01 +8.02277401e-02 -3.44495058e-01 -4.69226539e-01 +6.02333322e-02 -3.80988121e-01 -3.90480272e-03 -1.18485671e-02 -2.13058889e-01 -1.28481984e-01 +2.70143121e-01 -4.72083151e-01 -2.23720074e-01 +9.29859504e-02 -8.15481767e-02 -2.51408607e-01 -1.02248535e-01 -1.46904722e-01 +4.31091860e-02 -7.92935267e-02 -5.15428968e-02 +2.38457635e-01 -1.11865491e-01 -1.67236090e-01 -2.05267295e-01 -1.64761603e-01 -1.60679802e-01 -3.24825466e-01 -3.40091556e-01 +6.24851473e-02 -1.02097556e-01 -2.31413901e-01 -2.82541811e-01 +6.07090071e-03 -2.69338459e-01 -1.74491927e-01 +3.70723754e-02 -2.15954959e-01 -1.17430218e-01 -2.32840493e-01 -5.91269955e-02 -2.62125693e-02 -2.45693222e-01 +1.37324780e-01 -1.06182098e-01 -7.30080158e-02 +1.59326732e-01 -2.58415222e-01 -1.36890501e-01 -2.17657164e-01 -5.69458120e-02 -8.34231451e-02 -2.71419197e-01 +1.29113376e-01 -2.96396073e-02 +5.01205064e-02 -1.32529438e-01 -7.92129189e-02 -1.31354824e-01 +4.24297713e-02 -6.90460131e-02 -3.37053597e-01 -1.27742067e-01 +1.34202421e-01 -2.10358471e-01 -2.06147268e-01 +1.49290264e-01 +2.76927799e-01 +2.22679079e-01 -2.33467564e-01 +1.53635621e-01 -1.98247492e-01 -4.31324214e-01 -1.69805422e-01 -3.58593673e-01 -2.72311240e-01 -7.47082084e-02 -2.22180411e-01 -2.90843006e-02 -5.91211626e-03 -2.50425786e-01 -3.79525088e-02 +9.09255818e-02 +1.50604859e-01 -9.78295803e-02 -2.16503337e-01 +5.34357019e-02 -2.12325707e-01 +1.06881507e-01 -5.39380545e-03 -5.60588352e-02 +3.37172560e-02 -1.01808615e-01 -6.84690252e-02 -1.17180184e-01 -2.37176239e-01 +1.04262836e-01 +1.79537088e-01 -2.58394331e-01 +2.05370441e-01 -3.29999328e-02 -3.29660773e-01 +3.43619406e-01 +3.51542383e-01 -1.72554240e-01 +2.58305427e-02 -5.23623712e-02 +7.77888745e-02 +6.92090839e-02 +5.71146645e-02 +3.07330508e-02 +1.09505475e-01 +5.71110360e-02 +1.25849843e-01 +1.59493506e-01 -2.18170565e-02 +1.59745008e-01 +3.02339084e-02 -1.81167811e-01 +3.94735307e-01 +2.87716925e-01 -2.51925468e-01 +9.51229408e-02 +1.93523780e-01 -3.61419329e-03 +1.86176300e-01 -3.04989606e-01 +1.33725647e-02 +3.10603410e-01 -2.26532280e-01 -2.14147374e-01 +1.60709500e-01 +2.46040504e-02 +3.10338765e-01 +2.00321928e-01 +4.57887016e-02 -2.85913318e-01 -5.45159698e-01 -2.88719267e-01 -4.46457416e-02 -3.48039716e-01 -8.49871188e-02 +2.32660957e-02 -9.81208310e-02 -5.40158510e-01 +9.29695740e-02 +1.30127743e-01 -3.42537999e-01 +2.38638639e-01 -3.86883259e-01 -1.06162824e-01 +1.37045205e-01 -6.05959892e-01 -3.85015905e-01 +2.58987285e-02 -6.91474974e-01 -2.69990861e-01 -2.56076455e-01 +1.40897050e-01 +8.62800777e-02 +2.60692954e-01 -2.45205149e-01 -2.03703105e-01 +2.37129834e-02 -2.22604461e-02 +1.00343786e-01 -3.79684031e-01 +1.59785375e-01 -1.89823598e-01 -3.36159915e-01 -1.42114729e-01 +1.15536839e-01 -1.16602115e-01 -3.58150810e-01 -1.40095413e-01 +1.70495719e-01 +1.58498868e-01 -3.80486071e-01 -1.50053918e-01 -1.53925911e-01 -1.44511983e-01 +1.20687276e-01 +1.65018700e-02 -2.19484046e-01 -7.24228993e-02 -1.90880463e-01 -2.53394675e-02 +4.07512784e-01 +2.01259896e-01 +1.35963678e-01 +1.24835141e-01 +2.51322031e-01 +5.10970354e-01 +3.51389199e-01 +1.36428997e-01 -4.29696888e-02 -2.22474128e-01 -2.91624255e-02 -5.06273843e-02 +1.96991488e-01 -1.06866062e-02 +2.45709166e-01 +4.14329059e-02 +4.05359939e-02 -1.10228747e-01 +5.24608493e-01 +4.66859527e-02 +2.37456575e-01 +3.22477430e-01 +1.29692554e-01 -3.37147534e-01 +3.28782082e-01 +3.39183748e-01 +3.67583223e-02 +1.15775816e-01 -2.48007089e-01 +4.22706366e-01 -1.38743266e-01 -8.73589143e-02 -2.59413905e-02 -5.86924627e-02 +3.74269718e-03 +1.24648206e-01 +2.14622289e-01 -1.07446695e-02 -1.50730222e-01 +2.76506573e-01 +5.56451678e-01 +6.54573664e-02 +1.87812820e-01 +3.34710181e-01 +7.03835338e-02 -1.47146016e-01 +1.75528184e-01 +1.35621518e-01 +6.16423264e-02 -1.20779827e-01 -4.27699775e-01 -5.52775674e-02 +4.22360599e-01 +1.19578682e-01 +2.13649392e-01 +2.59781688e-01 -6.79218099e-02 -2.04314500e-01 +6.27575889e-02 -9.57942307e-02 -2.12996975e-01 +3.29581738e-01 +2.33224452e-01 -2.69905001e-01 +8.18451345e-02 -2.64656007e-01 +5.20502105e-02 -3.90642136e-02 -1.11310706e-01 -1.53568253e-01 -1.61733314e-01 -6.82653189e-02 +5.13355911e-01 +1.89333081e-01 +3.72754820e-02 -2.16830030e-01 +2.87217468e-01 +1.17707834e-01 +4.71897304e-01 -3.21904987e-01 +1.05744176e-01 +8.15070346e-02 +1.06301598e-01 -1.40124680e-02 +2.54133176e-02 -1.51060447e-01 -1.13696545e-01 +1.76818565e-01 -4.47432026e-02 +3.16820234e-01 +3.65501158e-02 +1.74882963e-01 -1.37204444e-02 +4.71456945e-02 -5.31525053e-02 -3.35326754e-02 +1.43930331e-01 +5.23078799e-01 -1.07312307e-01 +4.50505137e-01 +1.80254266e-01 +2.42359206e-01 +2.10912406e-01 -9.21830311e-02 +1.92080289e-01 +9.05691832e-02 +2.59855986e-02 +1.65683925e-01 -1.18790701e-01 -3.37590207e-03 +2.59730875e-01 -1.37862429e-01 -1.03233045e-03 -2.49070488e-03 -7.91088194e-02 -4.63946536e-02 -6.72331601e-02 +3.07223827e-01 +3.58628854e-02 +2.35808432e-01 +7.76828602e-02 +2.35071868e-01 +1.20351553e-01 -5.19917570e-02 +1.02125786e-01 +2.06286564e-01 -2.04317227e-01 +2.37785980e-01 +1.10773966e-01 +3.40774022e-02 -2.32504219e-01 -2.52791941e-01 +2.49677718e-01 -4.23006713e-02 -7.04659298e-02 +3.61043066e-01 -1.13655098e-01 +2.66581982e-01 +1.13037877e-01 +1.05541080e-01 +1.34447841e-02 -1.25229955e-01 -1.23471897e-02 +2.50445515e-01 -1.85940549e-01 +8.71628970e-02 -5.69527932e-02 +1.43584222e-01 -6.07843027e-02 +6.74708784e-02 +3.27735692e-01 -7.52657056e-02 -1.45101860e-01 +2.00278267e-01 -3.58736776e-02 -1.23476416e-01 -2.87077665e-01 -2.30497733e-01 -1.76622361e-01 +1.25813037e-01 +2.22378761e-01 -2.24223863e-02 -5.08267045e-01 -2.04031646e-01 +1.19218402e-01 -1.61047131e-01 -3.09263617e-01 -1.88021481e-01 -4.82915938e-02 +1.34082213e-01 +9.57367197e-02 +2.02869298e-03 -3.68341118e-01 -2.92028040e-01 -5.07667512e-02 +1.28964201e-01 -2.14857772e-01 -2.12419271e-01 +6.95504472e-02 -1.47738174e-01 +1.92318678e-01 +9.53921154e-02 +4.37067337e-02 -9.44188237e-02 -2.16807708e-01 -3.73752505e-01 -5.13995886e-01 -2.87982345e-01 -4.49050218e-02 -5.21541119e-01 -3.15243453e-01 +1.54393673e-01 +1.63407370e-01 +8.65589455e-03 -2.90618032e-01 -1.42119318e-01 -2.12482557e-01 -1.25652075e-01 -2.00476006e-01 -4.53268945e-01 -2.85862535e-01 -2.42271811e-01 -2.14147404e-01 -1.28416270e-01 -2.15784404e-02 -2.85559684e-01 +8.58971197e-03 -3.12403262e-01 +1.75654948e-01 +1.26246065e-01 -1.59150496e-01 -1.75061643e-01 -3.67680416e-02 -4.36765432e-01 -7.50948712e-02 -2.95819730e-01 -1.54340670e-01 +3.66729647e-02 -2.90680230e-01 -4.52693067e-02 +1.67520985e-01 -9.20918062e-02 -1.41240522e-01 -3.25144976e-02 +1.70881916e-02 -6.00350089e-02 +2.73016915e-02 -7.08431238e-04 +3.41924161e-01 -9.08566639e-02 +2.55700678e-01 -2.31833383e-01 -1.72755927e-01 +2.48229474e-01 +7.21299127e-02 -3.24335307e-01 -2.40549386e-01 +1.44580202e-02 -1.37770101e-01 +1.70428604e-01 -6.85152262e-02 -1.13474518e-01 +6.22013351e-04 -4.64638770e-02 +1.09419741e-01 -8.83330479e-02 -4.44422029e-02 -8.40588659e-02 -6.20579235e-02 -8.20756033e-02 +1.18656471e-01 -2.25781322e-01 +1.95779085e-01 -1.34874918e-02 -1.11878917e-01 -7.59324059e-02 -3.25491250e-01 -1.23466238e-01 -4.06888694e-01 -1.25470519e-01 -7.31189549e-03 +2.02446595e-01 -3.08859527e-01 +1.65819913e-01 -2.21573740e-01 +6.62475300e-04 -1.36296898e-01 -3.99527699e-01 -2.21139774e-01 -1.54040642e-02 -1.08320996e-01 -5.82601577e-02 +9.59738418e-02 -6.50018454e-02 -2.07717702e-01 +2.60092407e-01 -1.86095551e-01 +4.10326570e-01 +3.60616073e-02 -5.65663017e-02 -3.01202089e-01 +6.26906157e-02 +3.89752179e-01 -3.16396326e-01 +1.34173140e-01 -7.22112507e-02 -2.04449087e-01 +1.33393243e-01 -2.31693298e-01 +1.19689271e-01 +4.68917415e-02 -4.06684242e-02 -3.73058975e-01 -2.43016705e-01 -2.15291262e-01 -1.32876113e-01 -2.84690291e-01 -8.61419439e-02 -3.80248204e-02 -2.38209575e-01 +5.28946444e-02 -3.49623640e-03 -2.82525480e-01 -2.32949868e-01 +1.67520031e-01 -4.22275245e-01 +1.76707193e-01 -3.47943187e-01 -6.39694231e-03 +2.58900344e-01 +6.38216957e-02 +5.36727794e-02 -2.45171785e-01 -1.92867324e-01 -1.43379167e-01 -3.56773704e-01 -4.20641184e-01 -2.10192621e-01 -1.42339855e-01 -1.07764468e-01 +4.55463886e-01 -6.45651221e-02 -3.47179890e-01 -2.20061585e-01 -1.83755860e-01 -5.23508549e-01 -2.57681817e-01 -2.88775504e-01 +2.77682662e-01 +1.08248461e-02 +3.54043216e-01 +3.73800583e-02 -1.86704561e-01 +1.05700403e-01 -7.88443312e-02 -2.10911930e-01 -8.56736973e-02 -3.52642298e-01 -2.13216722e-01 -1.28063068e-01 -5.95002174e-01 +7.47428089e-02 +2.48466954e-01 -1.09938063e-01 +3.65956634e-01 -1.72925055e-01 -1.27399057e-01 -1.33975744e-01 +9.52405483e-02 +2.54848272e-01 -1.11316040e-01 +1.77581862e-01 +2.11055800e-01 +2.32348859e-01 +3.84068564e-02 +1.23193495e-01 +1.77041456e-01 +2.25602090e-01 -1.25676731e-03 +1.65762097e-01 +2.86691815e-01 +6.84519187e-02 +3.01236689e-01 +3.93555909e-01 +6.04123343e-03 +1.85741782e-01 +2.88751155e-01 -1.85251951e-01 +2.08591789e-01 -5.41841611e-03 +7.12043198e-04 +8.29487219e-02 +2.50802189e-01 +1.65860444e-01 +3.44910771e-01 +5.04003644e-01 +3.34945351e-01 +1.97323650e-01 -6.69324324e-02 +2.42997229e-01 -1.67571306e-01 +1.18363284e-01 +4.49133962e-01 -1.94812402e-01 -1.24899730e-01 +1.96333602e-01 -7.92362913e-02 +2.36350715e-01 +1.31741976e-02 +9.94369984e-02 +3.79253715e-01 -1.09106898e-01 -1.57639205e-01 +2.31836572e-01 +2.38256961e-01 +2.94469595e-01 +6.84912549e-03 +7.07888156e-02 -1.85675219e-01 -1.39718488e-01 -1.30057976e-01 +1.96268186e-01 -3.72957975e-01 -8.30050558e-04 -2.86112994e-01 -1.37780964e-01 +2.48594418e-01 +3.16152610e-02 +2.00305849e-01 -7.34602064e-02 +8.21361691e-02 +5.09889275e-02 -1.26674041e-01 -3.59619856e-02 -1.67915657e-01 -3.03474385e-02 -3.44688334e-02 +2.43908361e-01 -2.27587715e-01 -8.84179994e-02 +9.89065692e-03 -8.69078189e-02 +9.04660821e-02 -1.42332911e-01 +7.88139030e-02 +1.74409613e-01 +6.89789131e-02 -3.12333465e-01 -1.03518531e-01 -1.41448468e-01 +6.05762750e-02 +2.27712050e-01 -4.24007058e-01 +1.59011275e-01 -2.78974045e-02 +1.09421918e-02 -3.85536738e-02 -1.16681986e-01 +3.05400509e-02 +2.00503185e-01 +2.17481822e-01 -1.79888085e-01 +3.67828995e-01 +2.20690951e-01 +2.97040820e-01 +3.11053187e-01 -1.01472393e-01 +1.89720809e-01 +1.39227688e-01 +1.19831180e-02 -2.09124580e-01 -1.93994567e-01 -4.90435250e-02 -1.39289707e-01 +2.36083955e-01 +1.35510594e-01 -2.78446823e-01 -3.18818912e-02 -4.10897911e-01 -1.12975677e-02 +3.88852805e-02 -2.70551443e-02 +2.82312129e-02 +2.44240865e-01 -2.72241533e-01 +2.83990055e-01 -1.51849031e-01 -2.87976146e-01 +9.20265913e-02 +2.73602813e-01 -3.41334671e-01 +7.64122531e-02 +9.60024372e-02 -2.07654595e-01 -3.16174477e-02 +2.51353890e-01 -5.58032021e-02 +2.32183322e-01 -3.46909255e-01 -6.97086975e-02 -4.25851285e-01 +3.07074398e-01 +2.39276305e-01 -2.38455638e-01 -3.03793520e-01 +1.88683346e-01 -2.64068007e-01 +1.53067559e-02 +1.81569040e-01 -5.06533802e-01 -1.86586175e-02 -1.41586393e-01 -1.55644789e-01 +8.40999037e-02 -1.79091305e-01 -2.11318552e-01 -2.18168631e-01 -2.99416482e-01 -2.86417127e-01 -4.06842470e-01 -1.31441653e-01 -4.56201971e-01 +1.58632100e-01 -4.81652200e-01 -3.11722457e-02 -4.95991200e-01 +3.25496286e-01 -3.36288631e-01 +1.80245683e-01 +2.91641772e-01 -7.00849220e-02 +1.61258727e-01 +1.28183812e-01 -4.99862432e-01 +8.02184716e-02 -8.49537194e-01 -3.50498378e-01 +3.04923862e-01 -6.59242809e-01 -8.54765356e-01 -4.93199900e-02 -1.88109457e-01 +3.63080800e-01 +8.84406149e-01 -7.63553619e-01 -4.57404524e-01 +2.52360046e-01 -2.23816887e-01 -1.43613890e-01 -7.07312822e-01 -4.19985205e-01 -1.60788953e-01 -2.12481692e-01 -1.72200218e-01 +6.62861407e-01 -1.36704773e-01 +2.40283478e-02 +5.10298610e-02 -1.60735041e-01 +1.23190388e-01 -8.34523201e-01 +1.52223572e-01 +1.31086230e-01 -3.60523641e-01 +8.48959982e-02 -2.03060433e-01 -1.62021354e-01 +2.46396258e-01 +6.29470125e-02 +7.42563009e-01 +3.40780824e-01 +6.50953352e-02 +8.57246593e-02 +8.20419937e-02 -1.94278106e-01 +8.23417082e-02 -8.95985141e-02 +5.99650554e-02 -3.24297279e-01 +7.14038461e-02 -1.15078390e-01 -3.86349075e-02 -2.01295882e-01 -8.34508389e-02 +2.78902519e-03 +1.28601208e-01 +1.27572224e-01 -1.44780397e-01 +1.33964187e-02 +6.45818710e-02 -1.65082216e-01 -1.86354294e-01 -4.99447547e-02 -1.53635815e-01 -5.75605966e-02 +3.22268069e-01 -1.29704878e-01 -9.08045992e-02 -1.75138220e-01 +7.60077164e-02 -3.74758780e-01 +2.01363638e-01 -9.18703005e-02 +2.09961236e-01 -4.58794869e-02 +2.36249298e-01 -1.47785887e-01 -1.68608636e-01 -2.71275610e-01 +9.04374197e-03 +2.82366991e-01 -3.01326567e-04 -2.17137933e-01 +1.08213358e-01 +7.06380457e-02 -1.13214135e-01 +7.62735382e-02 -1.61758199e-01 +8.44224691e-02 -3.39964122e-01 -6.45011738e-02 +1.87294185e-01 -1.16800919e-01 +1.88826919e-01 -1.21143470e-02 +1.42491102e-01 +2.15844974e-01 +2.69082844e-01 -2.95359880e-01 +1.60801426e-01 +1.50310844e-01 +2.02062018e-02 -3.74422334e-02 +3.48124862e-01 -1.13127500e-01 +2.63309062e-01 +2.05153510e-01 +4.36767071e-01 +2.40033701e-01 +8.37450102e-02 +3.33030075e-01 +2.25369200e-01 -2.26681475e-02 -3.30464602e-01 +1.58323362e-01 +1.74986228e-01 +2.12900192e-01 +6.05723113e-02 -6.11458793e-02 +3.09803158e-01 -1.52130634e-01 +2.14808062e-01 +3.42838392e-02 +9.14960057e-02 -1.00209005e-01 +2.10908696e-01 +9.07439440e-02 +1.12995073e-01 -7.10137337e-02 +4.09601897e-01 +5.07952511e-01 +8.27388540e-02 +1.04918450e-01 +8.37304220e-02 +2.10675467e-02 +8.73583779e-02 +1.77123263e-01 +1.22738756e-01 -6.89788014e-02 +3.91366035e-01 -5.17818779e-02 +9.66257155e-02 +3.24615836e-01 -6.06777817e-02 -1.73245043e-01 -3.03505123e-01 -1.73691045e-02 +2.59877741e-02 -3.01751375e-01 -1.89856142e-01 -2.06803307e-01 -2.14244410e-01 -2.91214257e-01 -7.07507581e-02 -2.29193196e-01 -2.61792958e-01 +1.27365455e-01 -1.49945229e-01 +7.98687115e-02 +1.31208152e-01 -2.57374048e-01 +8.85911062e-02 +5.45349121e-02 -8.50212760e-03 -2.50348803e-02 +1.04721375e-01 -9.10532624e-02 -9.50892568e-02 -3.60471874e-01 -1.19014293e-01 -3.66899759e-01 -7.30717694e-03 +1.74407855e-01 -1.35054933e-02 -3.42352949e-02 +9.44733247e-02 -3.77478272e-01 -1.60844833e-01 -1.97271183e-01 +3.63980383e-02 +1.55895546e-01 +1.06689632e-02 -6.43532351e-02 -2.12180793e-01 +4.71611805e-02 -2.08343014e-01 +5.23933843e-02 -3.09451848e-01 -2.39969566e-01 -1.70041844e-01 -7.06086084e-02 -7.37548992e-02 -2.46930942e-01 +1.20902218e-01 +4.67383973e-02 -1.13820881e-01 +9.59553793e-02 -2.24276796e-01 +2.12106869e-01 +6.80895150e-02 -3.36490124e-01 -2.80541480e-01 -3.07352692e-01 -8.78863111e-02 -5.05786240e-02 -2.99836308e-01 -5.95328063e-02 -3.55456203e-01 -2.59761810e-01 +7.48420656e-02 +1.11300573e-01 -8.35933313e-02 -3.82325888e-01 -1.96936894e-02 -4.59689610e-02 -8.70853439e-02 -1.90977544e-01 -4.65560704e-01 -2.51536071e-03 -1.77819595e-01 -2.95770504e-02 +1.25815868e-01 -4.52706665e-01 +1.86454400e-01 -1.69154648e-02 -2.27594107e-01 -3.50749999e-01 -1.34641901e-01 -1.78362414e-01 -4.93372828e-01 -5.14997959e-01 -1.24661878e-01 -1.78549424e-01 -1.08632855e-01 +5.95000982e-02 +1.12668581e-01 +1.71103463e-01 -1.74512938e-02 -1.73346058e-01 +6.90127984e-02 -1.30125195e-01 -7.36718550e-02 +4.68912929e-01 +5.22515774e-02 +1.88379195e-02 -4.55884874e-01 -3.34721893e-01 -1.84054434e-01 -1.61000881e-02 +2.61385143e-01 -3.44904780e-01 +6.33473843e-02 -4.85097915e-01 -2.28157863e-01 -2.14984268e-01 -4.09801364e-01 -2.99321562e-01 -5.05824149e-01 -1.36046588e-01 -5.38031459e-01 -3.63807738e-01 -1.83485568e-01 +2.84336746e-01 +7.55052388e-01 -4.92054701e-01 -2.66942829e-01 -1.55488923e-01 +1.11546498e-02 -4.22571808e-01 -3.64761323e-01 -5.84155060e-02 -4.27904725e-01 -6.13945872e-02 -2.45863348e-01 +2.72989452e-01 -4.33698326e-01 -2.41540581e-01 -1.91119194e-01 -2.29137778e-01 -9.69649181e-02 -2.33197168e-01 +1.06753886e-01 -2.00658947e-01 -1.22104324e-01 +2.35254318e-03 -2.60426462e-01 -1.16317324e-01 +6.19153790e-02 -1.69213295e-01 +2.88702935e-01 -1.11038789e-01 -3.28816846e-02 +1.55383097e-02 -2.00654119e-02 +5.66734793e-03 +4.74579632e-02 -3.53134662e-01 -2.00606704e-01 -1.62481107e-02 -2.41153598e-01 -1.11892670e-01 -3.32319200e-01 -2.13577926e-01 -3.90214950e-01 -1.17368139e-01 -3.14342193e-02 -2.11246967e-01 -9.43784192e-02 +5.93045503e-02 -5.98907396e-02 -1.12782665e-01 -1.11924268e-01 -2.43545592e-01 -4.93398786e-01 +9.20902938e-03 -4.04041469e-01 +7.16064498e-02 -1.41021414e-02 -1.12883434e-01 +4.99876663e-02 -1.32018328e-01 +3.77526060e-02 -3.07449371e-01 +1.66721225e-01 -1.40683070e-01 +6.76920339e-02 -3.95295472e-04 -9.33396257e-03 -1.33029046e-02 -7.04694390e-02 -8.32474902e-02 -3.07971179e-01 -3.76570076e-01 -4.02493119e-01 +1.86481297e-01 +2.33353227e-01 +1.67882636e-01 -3.59359235e-01 +1.01571806e-01 -2.92545319e-01 -4.68423784e-01 +2.56844163e-01 +1.79295391e-01 +1.78235680e-01 +3.35905194e-01 +2.07449943e-01 +9.56826657e-02 +4.04060304e-01 -1.52979404e-01 -3.05737019e-01 +1.83175445e-01 +2.50784189e-01 +3.31338793e-01 +4.03991312e-01 -2.50822961e-01 +1.54286951e-01 +5.02245165e-02 +2.65556008e-01 +4.56553251e-01 +1.05718456e-01 -2.86044180e-02 +3.65147501e-01 +4.98479843e-01 +1.33724123e-01 +4.33785081e-01 +1.69050232e-01 +2.96363831e-01 +4.16213602e-01 +9.76067558e-02 +4.06251431e-01 -1.47266954e-01 +1.76403970e-01 +4.44648385e-01 -1.30503938e-01 +8.36189166e-02 +3.85876834e-01 +1.53006062e-01 +2.15292677e-01 +1.24165870e-01 +2.92250603e-01 +5.82871079e-01 +1.92340627e-01 +8.13201815e-02 +4.05748457e-01 +6.24689599e-03 +3.38581800e-01 +2.82615274e-02 -1.16183087e-02 +2.13219866e-01 -1.17730021e-01 +4.59066108e-02 +4.59698550e-02 +3.21324587e-01 -8.21477175e-02 +1.06321439e-01 -3.67244750e-01 -3.95227373e-01 +1.14544947e-02 -6.37146365e-03 +2.18155608e-01 +2.09124573e-02 -1.05482042e-01 -1.80449992e-01 +5.59828691e-02 +9.63486433e-02 -1.47299856e-01 -1.56847373e-01 -5.78214943e-01 +7.34957010e-02 +1.38376042e-01 -1.63044184e-01 +1.40621677e-01 +1.14845976e-01 +3.27117711e-01 -6.65894821e-02 -2.22170725e-01 -1.28322423e-01 +1.61143199e-01 +5.36811305e-03 +1.42341956e-01 -1.39135689e-01 -2.21557822e-03 +1.57689855e-01 +3.97136182e-01 -3.98440719e-01 -2.11158022e-01 -3.55680823e-01 -8.90654102e-02 -3.94369140e-02 -8.23370293e-02 -2.49550179e-01 +1.76082283e-01 -7.78673962e-02 -4.07007724e-01 -2.01432183e-01 +7.43306354e-02 +1.02060579e-01 -1.40412658e-01 -7.40465447e-02 -5.22407852e-02 -3.74094009e-01 -2.44443491e-01 -2.64149725e-01 +6.02697954e-02 -5.28436184e-01 -3.40847582e-01 +2.22100303e-01 -1.29124925e-01 +2.09476590e-01 -1.62614211e-01 -1.57277420e-01 -4.61341590e-01 +8.61136392e-02 -5.33687294e-01 +3.76655813e-03 -1.61942050e-01 +4.23809476e-02 +1.12904102e-01 -2.73922175e-01 -3.18945915e-01 +3.60316224e-02 -1.40383810e-01 -3.04598242e-01 +1.82543382e-01 -2.74903983e-01 -2.68293738e-01 +3.81126463e-01 -3.35366815e-01 +2.61491716e-01 -2.67109185e-01 +3.12996298e-01 +4.80755605e-02 -3.60862046e-01 -9.20064971e-02 +1.80079192e-02 -6.38642758e-02 +1.61695138e-01 +1.38926983e-01 -3.74899954e-02 +1.65655524e-01 +4.20282818e-02 -1.09861799e-01 +1.73623729e-02 -1.27416536e-01 -1.27249166e-01 -1.03269234e-01 +8.21769834e-02 +1.35918841e-01 +8.44149366e-02 +2.66527861e-01 +2.23000646e-01 -1.28119498e-01 -5.55344000e-02 -3.88340354e-02 -9.40228030e-02 +4.78743948e-02 +2.91237365e-02 -1.32737145e-01 +4.00421917e-02 +3.02963406e-01 -5.33354245e-02 +1.97476037e-02 -7.69320205e-02 +1.62472337e-01 +2.92096436e-01 -6.42719343e-02 -1.03961781e-01 -9.68006030e-02 -3.15156639e-01 -1.70838386e-01 +4.60988954e-02 -3.49463314e-01 -1.25257999e-01 +1.91752121e-01 -2.87241429e-01 -3.00277561e-01 -9.17002410e-02 -3.44529718e-01 +3.76948178e-01 -4.24182802e-01 +3.80382501e-02 +2.92282283e-01 -4.80723828e-02 +1.09959431e-01 +3.71968418e-01 +1.98282860e-02 +5.17054275e-02 +2.84435116e-02 +1.51611045e-01 -8.58677775e-02 -3.99380654e-01 +2.58619010e-01 +7.91470259e-02 -3.45421821e-01 +2.68729657e-01 +1.43268138e-01 -5.17069027e-02 +1.77510738e-01 +6.89011067e-02 +1.64995581e-01 +4.54397574e-02 
#Parameter# /_5 {50} 801 ZERO_GRAD
+2.50406433e-02 +4.52020764e-02 -7.67651061e-03 +2.14233138e-02 -2.18889952e-01 +1.68994188e-01 -5.76338954e-02 +4.67103198e-02 -6.86423406e-02 -2.56484635e-02 +3.15114856e-02 -2.03530751e-02 -2.07707975e-02 -1.42561167e-01 -1.17503084e-01 -3.72460261e-02 -3.50262910e-01 +9.32846498e-03 +8.43215957e-02 -1.97219655e-01 +1.11665554e-01 +1.28425173e-02 +1.98945984e-01 +1.80423930e-01 +4.26438870e-03 +2.62025028e-01 -6.24673478e-02 -2.57291477e-02 -8.23870078e-02 +2.55987793e-01 +8.23207498e-02 +1.56576902e-01 +1.91002741e-01 -9.29432958e-02 -4.75278758e-02 -4.93992567e-02 -2.73726404e-01 +2.27673560e-01 -7.75376111e-02 -5.01572229e-02 -1.03522748e-01 -1.92040503e-02 -3.13976020e-01 +4.20724563e-02 +4.20624055e-02 -1.43892989e-01 +9.79895070e-02 +2.49413867e-02 +2.40105540e-01 -3.26029956e-01 
#Parameter# /_6 {50,3} 2401 ZERO_GRAD
-9.31193829e-02 +3.21925551e-01 -2.25067526e-01 +7.77414441e-03 +3.14607233e-01 -1.73994213e-01 -2.21781865e-01 -2.97767967e-01 -7.09897876e-02 -1.04582310e-01 +1.20031953e-01 -4.41205502e-02 +3.00797194e-01 +3.50423455e-02 +2.16225952e-01 +1.89221650e-01 +1.34076446e-01 -5.59831858e-02 +2.60665745e-01 -1.84279725e-01 +9.91094708e-02 -3.16200703e-01 -1.38727963e-01 -7.53430128e-02 +2.61339873e-01 +2.35591084e-01 +2.47503668e-01 -1.16218150e-01 +5.48504591e-02 -9.64187533e-02 -2.93095112e-01 -5.63689470e-02 +2.90930897e-01 -2.54146934e-01 -1.34055793e-01 +8.17243457e-02 +1.38668060e-01 +1.87142283e-01 +1.30496025e-02 +2.79324055e-02 -1.75455064e-01 -7.60037005e-02 +1.46932155e-01 +1.06761515e-01 +8.63994360e-02 -2.11176202e-01 -3.32391590e-01 +2.06330150e-01 -1.93284541e-01 -2.51735359e-01 +2.79724687e-01 -2.57356852e-01 -1.99870273e-01 +3.09323639e-01 -1.49726868e-02 +2.78692454e-01 -2.03636289e-01 -2.54687279e-01 +1.76302403e-01 +3.26535076e-01 -3.21248174e-02 -2.02696398e-01 +2.16596454e-01 -1.09473288e-01 -1.36839956e-01 -2.42941245e-01 -1.09524250e-01 -1.39398426e-01 +2.61068672e-01 -2.90328145e-01 -2.24698126e-01 +2.71206826e-01 +2.53040195e-02 +1.93640679e-01 +3.35895091e-01 -2.80502230e-01 -2.10537463e-01 -1.46491215e-01 -6.57951832e-03 +3.27603430e-01 +1.73117667e-01 +3.02140325e-01 +2.57209033e-01 -2.05832899e-01 -1.93900764e-01 +1.35260969e-01 -1.53122529e-01 +2.28227824e-01 -1.47860870e-01 -9.74029303e-02 +2.11417049e-01 +1.87204391e-01 -3.04750144e-01 +2.69138008e-01 -1.61702961e-01 -3.21155638e-01 -1.31225631e-01 -1.75521597e-01 -5.50700426e-02 +1.13952070e-01 -1.45902529e-01 +1.36450440e-01 -5.37221432e-02 -1.58518657e-01 +1.13703996e-01 +2.16992646e-01 -2.03850970e-01 -2.81598687e-01 -2.83365846e-02 -1.33226246e-01 -1.05670437e-01 +2.17192084e-01 -2.05160707e-01 +3.97847891e-02 -7.41903484e-02 +6.06369376e-02 +1.51130617e-01 -1.57845184e-01 -1.45770490e-01 -1.09983712e-01 +8.26889277e-02 +2.61211663e-01 -3.94886732e-02 +1.12308592e-01 +3.19200158e-02 -1.95273802e-01 +2.46925563e-01 -1.94406837e-01 -2.74665058e-02 -2.58959234e-02 -2.38018036e-02 +3.34410280e-01 +1.20812207e-01 +3.20925325e-01 +1.17950559e-01 -9.96923894e-02 +3.15406352e-01 -9.55108851e-02 -1.68063596e-01 +2.32007414e-01 +3.04760665e-01 -4.94405627e-02 -3.31595093e-01 -9.06121880e-02 -1.53792888e-01 +3.28418821e-01 +1.71273381e-01 +8.39488804e-02 +1.58095956e-02 -1.82537347e-01 
#Parameter# /_7 {50,50} 40001 ZERO_GRAD
+4.04788703e-02 +6.34974986e-02 -1.54090300e-01 +4.16114479e-02 -1.24302365e-01 +7.07942396e-02 +6.54333085e-02 -2.22391307e-01 -8.36397409e-02 -2.04070628e-01 -1.46819443e-01 -6.77423626e-02 -5.67771643e-02 +2.06890836e-01 +5.30325025e-02 +4.13170606e-02 +6.89466745e-02 -1.72323495e-01 +1.95239037e-02 -1.48001671e-01 +1.97746053e-01 +1.52845219e-01 +1.75737575e-01 +1.38920948e-01 +2.39037350e-01 +1.91574946e-01 +2.91434675e-02 -1.25405982e-01 -1.46537304e-01 +2.40474239e-01 -1.92911133e-01 +7.75832683e-02 -7.13794380e-02 +2.20910162e-02 +9.39933956e-03 +1.63885996e-01 -1.86669916e-01 +1.32886931e-01 -5.59280217e-02 -1.94037378e-01 +1.70491412e-01 +1.59948543e-01 -1.16092265e-01 -5.58407158e-02 +2.09146738e-03 -1.88637763e-01 +1.92936942e-01 +1.71230361e-01 +7.31277913e-02 -2.18581229e-01 -2.21516490e-02 +1.34435490e-01 -8.81360173e-02 +4.39720005e-02 -1.69181198e-01 +1.03809074e-01 +2.31323138e-01 +2.37475649e-01 +2.11569622e-01 +1.92540452e-01 +1.63435534e-01 -5.61774522e-02 +9.68739241e-02 -8.79086703e-02 +2.29496256e-01 +6.24134690e-02 +2.55599767e-02 +1.54669270e-01 +2.37836823e-01 -1.70143276e-01 +1.69491917e-02 +1.67837933e-01 +2.00461939e-01 +8.82061869e-02 +7.74542987e-03 -2.15512022e-01 +1.70971230e-01 -2.43071362e-01 -7.34879524e-02 +2.41361991e-01 -7.64275938e-02 +8.42112154e-02 +1.29486576e-01 +1.06062815e-01 +2.36908630e-01 +7.79426843e-02 -1.76845282e-01 -2.26838171e-01 -9.05728042e-02 +4.62144166e-02 -1.46120727e-01 +6.22571558e-02 +1.01092800e-01 -2.27454484e-01 -2.44324446e-01 -7.19741434e-02 +1.96989030e-02 +7.69851953e-02 -6.29039556e-02 +2.14826718e-01 -1.62524432e-01 -2.17046022e-01 +5.12595028e-02 -1.20956779e-01 +2.28254333e-01 -6.04064167e-02 -1.65450066e-01 +6.70146793e-02 +3.81536931e-02 +2.41753235e-01 +1.03529736e-01 +7.94648081e-02 +2.10179389e-03 +1.87308088e-01 -1.98123008e-02 +1.67017654e-01 -9.91374999e-02 +3.22857052e-02 -1.20874092e-01 -8.41775090e-02 -2.51421332e-02 -1.39617160e-01 +1.13212392e-01 +7.57207423e-02 +4.32703048e-02 +6.77017421e-02 +8.16880018e-02 -1.31644875e-01 +1.61250487e-01 +2.16418609e-01 -1.92888230e-01 +1.25972643e-01 +3.31073999e-03 +1.68982252e-01 +1.04463249e-02 -1.37043595e-01 +6.40435368e-02 +1.03557393e-01 +1.95785567e-01 +1.97962806e-01 -7.18408823e-02 +7.89337903e-02 -2.75902450e-02 +3.53219360e-02 -1.82830080e-01 -5.64600676e-02 -8.83250087e-02 +7.97712356e-02 -1.24381036e-01 -1.62297636e-02 -2.20731214e-01 -8.56999457e-02 +1.59934148e-01 -1.30798519e-02 -6.12675101e-02 -2.11883351e-01 +2.43112877e-01 -1.62335500e-01 +1.86151609e-01 -1.41549855e-02 -1.41474456e-01 -1.21567070e-01 +2.44775936e-01 +1.18870631e-01 +1.11494049e-01 -1.42428786e-01 +4.88639325e-02 -8.05738121e-02 +1.74451455e-01 -1.16746649e-01 -1.88563347e-01 -6.94884360e-02 -2.08267123e-01 +1.81671038e-01 +2.37088874e-01 -2.44920149e-01 +1.12602815e-01 -1.69316620e-01 +5.66029698e-02 +1.50987491e-01 +2.41602108e-01 -1.52484089e-01 +8.53957981e-02 -1.06188461e-01 -4.51480597e-02 +7.37172216e-02 +2.02672735e-01 -5.60285151e-02 -1.11418024e-01 +2.31359765e-01 +1.67752609e-01 +2.43665203e-01 +1.98607460e-01 +1.95169136e-01 -3.98236513e-02 -1.23538695e-01 -5.54445237e-02 +8.78328234e-02 +1.06978014e-01 +2.70770937e-02 -1.21228538e-01 -1.72494352e-03 -1.66037470e-01 +9.76864845e-02 +1.01668641e-01 +2.34155506e-02 +2.15437278e-01 +2.16552272e-01 -1.12654090e-01 -1.68916136e-01 -1.03821561e-01 -1.11330241e-01 +1.80177227e-01 +4.09606546e-02 +1.26661286e-01 -1.46410465e-02 +8.82146209e-02 +2.28615358e-01 -1.86456978e-01 +1.75288007e-01 +1.02541909e-01 -1.55589998e-01 -1.71007156e-01 +7.58232921e-02 +9.33452100e-02 -4.06001806e-02 -6.15419149e-02 -5.01582921e-02 -3.27672064e-02 +1.43107042e-01 +9.37046856e-02 +2.27172226e-02 -1.49719685e-01 +2.17085168e-01 +1.22530475e-01 +1.05294779e-01 +1.21835396e-01 +6.03526384e-02 -3.79612744e-02 -1.94688514e-01 +5.27362674e-02 +1.89249530e-01 -6.14034235e-02 +1.42873213e-01 +1.48864970e-01 +1.92385241e-01 +1.84767708e-01 -5.01242876e-02 -2.08929941e-01 -3.10082585e-02 -9.87758487e-02 -1.51237413e-01 -1.11158237e-01 +1.65388778e-01 +2.95104533e-02 +9.59305614e-02 -6.46859407e-02 +1.17604285e-02 +7.81562477e-02 -5.42429835e-02 +1.95439026e-01 +2.80781537e-02 +1.28601059e-01 +1.67950049e-01 -7.11339265e-02 +3.03481668e-02 -5.97320199e-02 -3.15563232e-02 +1.90010220e-02 +9.10573751e-02 -2.25083530e-02 -2.37804145e-01 -1.14001021e-01 -1.69214457e-02 -1.96107864e-01 -5.84073812e-02 +1.79002896e-01 +4.71098721e-03 -7.19430298e-02 -1.34683996e-02 -2.10249156e-01 +8.77842158e-02 -1.76854566e-01 +2.06798688e-01 +3.46444994e-02 +3.76253575e-02 +6.77767843e-02 +6.68364912e-02 +1.72451720e-01 -1.77304447e-01 -1.55914754e-01 +1.82167247e-01 +1.70396343e-01 -2.32814416e-01 +6.83305115e-02 -1.30683750e-01 +9.54126567e-02 +2.43535981e-01 +2.12139472e-01 -9.90305394e-02 -1.83867827e-01 +1.30088970e-01 +1.37104169e-01 +9.39260274e-02 -2.13100627e-01 -1.67408630e-01 +4.57354933e-02 -1.60398170e-01 -1.59178957e-01 -4.27892804e-03 +2.03435495e-01 -1.60211802e-01 -1.48710474e-01 -1.05722085e-01 +2.18771353e-01 +1.92248538e-01 +4.27440852e-02 +2.32307240e-01 +2.36998305e-01 +1.64295122e-01 -2.33651280e-01 +1.57474443e-01 -1.48965716e-01 +1.08265474e-01 -1.35423630e-01 +1.79685429e-01 +1.80245116e-01 +4.01256830e-02 -1.59043312e-01 -1.24291636e-01 -9.76650715e-02 -1.76224589e-01 -6.49990737e-02 -1.86990798e-01 +2.05612823e-01 -2.42584959e-01 +2.19120190e-01 +7.34908134e-02 -1.85235187e-01 +1.77049920e-01 +2.42156729e-01 +3.23765725e-02 +1.77837208e-01 +1.96096301e-03 -7.34902620e-02 +5.26115745e-02 -1.87883258e-01 +1.18715957e-01 -1.14787146e-01 +2.17540964e-01 -7.54985213e-03 -4.25472856e-03 +1.52514860e-01 +1.22146681e-01 -5.83174825e-02 +3.12719196e-02 +5.31241447e-02 -8.44989717e-02 +2.22385988e-01 +9.97957736e-02 -8.18179101e-02 +1.07710510e-02 +1.60779804e-02 -1.72699139e-01 -1.71407163e-01 +2.25434884e-01 +1.69714317e-01 -1.34670436e-01 -2.36861706e-01 +1.49708018e-01 +1.62597761e-01 -2.05000103e-01 +4.73255962e-02 +8.28865021e-02 +2.01950446e-01 +4.57252115e-02 +1.86749026e-01 +1.28744394e-02 -2.22796679e-01 +1.62317306e-02 +1.39174327e-01 -1.51132047e-03 +8.67685825e-02 -1.08511880e-01 -9.98601168e-02 -1.55238599e-01 -2.49303281e-02 -2.35118672e-01 +2.31277481e-01 +1.82971880e-01 +1.37724355e-01 -2.24926844e-01 +5.68950623e-02 +1.30392954e-01 -1.04804680e-01 -1.30004287e-02 -1.71214789e-01 +1.48114696e-01 +1.89036325e-01 -6.51274770e-02 -1.16020218e-01 +1.72197089e-01 +5.09438366e-02 +7.10149556e-02 +1.96030840e-01 -8.18203688e-02 -2.61097550e-02 -2.70143598e-02 -1.26546472e-01 +1.58901021e-01 -1.70118511e-02 +1.77873626e-01 -4.32573706e-02 +5.54789752e-02 -2.18729243e-01 -1.55480951e-01 +1.44524291e-01 +1.18007496e-01 -6.23899698e-02 +2.07680300e-01 -1.97287679e-01 -2.40163088e-01 -8.20855796e-03 -1.23789452e-01 -5.90397567e-02 +4.32693958e-03 +2.13149652e-01 +1.86872944e-01 +1.86340585e-01 +2.14980796e-01 -4.89298701e-02 -6.25280589e-02 -7.22948760e-02 -2.00006366e-01 -1.48474663e-01 -1.98787749e-01 +6.37942702e-02 +1.80470064e-01 +7.19375759e-02 -2.12210983e-01 +2.15040222e-01 +2.41068408e-01 +1.34192780e-01 -1.84922308e-01 -2.43726969e-01 +5.39672524e-02 +2.14931384e-01 +1.11906230e-03 +9.68228132e-02 +5.15883714e-02 -1.03256345e-01 -1.34695232e-01 -2.24112540e-01 -2.19855294e-01 -5.68277389e-02 +4.01244015e-02 -1.25174373e-01 +2.20186219e-01 -1.42066404e-01 +8.35896581e-02 -1.60526931e-01 +7.00497776e-02 +1.91586450e-01 +1.92169473e-01 +1.77468225e-01 +2.01605305e-01 +1.28424242e-01 -6.50973469e-02 -1.86575979e-01 -1.53910309e-01 -8.23834240e-02 +1.84521332e-01 +2.40566865e-01 +1.84931621e-01 +2.32302830e-01 +1.89134315e-01 -1.40969709e-01 +7.88481385e-02 +1.57314643e-01 -1.52197778e-01 -1.08677387e-01 +2.08310336e-02 +6.23074025e-02 -3.80592197e-02 +3.93596441e-02 +1.28696159e-01 +1.03433952e-01 +9.61248726e-02 -9.54180956e-02 +2.17269227e-01 -1.29250318e-01 -1.99706256e-01 -2.28676856e-01 +1.18785277e-01 +2.14534029e-01 -3.25787812e-02 +7.98977762e-02 -1.91141367e-01 -9.53190029e-02 +1.46682277e-01 +8.48846883e-02 -2.41178945e-01 -1.40010849e-01 -7.49298185e-02 -1.15370989e-01 -1.08441114e-01 +1.59726813e-01 -8.69621933e-02 +5.22828549e-02 +1.24233589e-01 -2.19995484e-01 -1.71676293e-01 -2.41769224e-01 +1.09872624e-01 -1.93208247e-01 +1.47462383e-01 +1.89674154e-01 +1.14555806e-02 +4.66249436e-02 +1.92264423e-01 +1.50522873e-01 -1.54062718e-01 +9.98188108e-02 +1.26353949e-02 +3.02008241e-02 -9.12035406e-02 -6.96305633e-02 -1.66579068e-01 -9.65788960e-04 -1.83669165e-01 +1.70036957e-01 +4.18978781e-02 -2.40435287e-01 +4.15227562e-02 -1.93808824e-02 -7.57851303e-02 +1.39488384e-01 -9.04488415e-02 +7.90962428e-02 +3.60642821e-02 +8.07668716e-02 -7.92175233e-02 -7.95114338e-02 +1.23863950e-01 -7.06823170e-03 -1.12184137e-02 -1.73415840e-01 +4.08915728e-02 -2.06532955e-01 +3.57928425e-02 -2.22383529e-01 +6.48244172e-02 -1.02791265e-01 +3.59732062e-02 -2.14228511e-01 +1.26033947e-01 -1.89758390e-01 -1.42324895e-01 +5.64208776e-02 +7.64851123e-02 -1.97866693e-01 -4.88410443e-02 -1.82632089e-01 +1.93044558e-01 -1.67116314e-01 -2.21107006e-01 -7.57685304e-02 +1.75945774e-01 -9.52064097e-02 +2.31859103e-01 +1.53805837e-01 -1.33018136e-01 +8.57165903e-02 -2.35374093e-01 -2.16460079e-02 -1.10389888e-01 -7.12541342e-02 +1.54055282e-01 +2.15110525e-01 -2.77900547e-02 +9.08146948e-02 -8.82742703e-02 -1.81822211e-01 +1.88656166e-01 -3.49614918e-02 -2.19269842e-02 -3.17144096e-02 -2.13913396e-01 -1.50788918e-01 -2.16601491e-02 -1.85902685e-01 +8.33188444e-02 -2.42695972e-01 -8.89941603e-02 +1.18540600e-01 -1.01816520e-01 +1.36677369e-01 +6.37858063e-02 -7.24828392e-02 -6.83538765e-02 -1.55631393e-01 +2.13203236e-01 -1.79540932e-01 -2.17962265e-01 -2.09708810e-01 -1.45943314e-01 +1.02063403e-01 +3.29175144e-02 +1.47821352e-01 -5.57980537e-02 +1.51699618e-01 +1.09958246e-01 -1.04092926e-01 +1.07438162e-01 -1.82204068e-01 -1.04534954e-01 -4.70855832e-02 +1.49773702e-01 +1.29813716e-01 +1.63856968e-01 +3.10861617e-02 +1.13017842e-01 -1.63217783e-01 -2.34399810e-01 -1.30735070e-01 +2.11558685e-01 -2.25370675e-02 -2.41003782e-01 +3.85848135e-02 +1.09851763e-01 -4.54239696e-02 +1.35215208e-01 +1.24880061e-01 -1.41106158e-01 +1.74083009e-01 -9.93782282e-02 -7.74849057e-02 -2.43193671e-01 +1.03348061e-01 -9.22159851e-03 -1.72571242e-02 +1.43827245e-01 +2.09413916e-02 +3.00042182e-02 -2.17861205e-01 +8.58934373e-02 -3.85411829e-02 -2.39394769e-01 -1.66220486e-01 -3.30516100e-02 -2.30095088e-02 +1.30537525e-01 -2.10356966e-01 -1.88033253e-01 -1.51387125e-01 +2.21348256e-02 +1.41857609e-01 -8.75526816e-02 +2.01887920e-01 -1.54681563e-01 -5.89500070e-02 -1.21776976e-01 -2.21694410e-01 +6.84604794e-02 +2.02233896e-01 +1.51112601e-01 +1.55957803e-01 -2.27252349e-01 -6.97170347e-02 +1.16372421e-01 +9.13153738e-02 -1.55990243e-01 +8.00608546e-02 -1.53834254e-01 +6.98608011e-02 -1.94359571e-01 +1.15502343e-01 -9.13234204e-02 -2.03925312e-01 -1.70185417e-02 +1.43406376e-01 -2.67817527e-02 -1.26058191e-01 +8.11048001e-02 +9.40791219e-02 +4.65621799e-02 -2.27490291e-01 -1.05624795e-02 -1.43663764e-01 +1.10375777e-01 -1.46682560e-03 -1.51757032e-01 -1.32636100e-01 +1.02362916e-01 +1.21824667e-01 +1.60268381e-01 -1.86924800e-01 -5.27243465e-02 -2.00691968e-01 +1.96923479e-01 -2.08396643e-01 -1.67563990e-01 -2.32096151e-01 +1.20212302e-01 +1.58984587e-01 +9.99257416e-02 +1.38122573e-01 +4.87716347e-02 -1.16548181e-01 +1.06487915e-01 -2.27957129e-01 +1.04879126e-01 +2.30709687e-01 -8.52674395e-02 -1.01492673e-01 -2.76072025e-02 -4.92008626e-02 -7.92144537e-02 +5.34657389e-02 -1.76591575e-02 +5.63171357e-02 +2.33211830e-01 +2.17470959e-01 -1.86297119e-01 +5.08603305e-02 +2.08244905e-01 -2.36437067e-01 -1.29848853e-01 +1.79002807e-01 -1.55841872e-01 -1.31785244e-01 +1.77476719e-01 +1.22618005e-01 -1.24683745e-01 +1.97140500e-01 -1.11189559e-01 -3.58305871e-02 -1.34038776e-01 -8.12192112e-02 -2.16476262e-01 +1.81752011e-01 +1.95800796e-01 +1.21976808e-01 +1.50524333e-01 +8.03551525e-02 +6.91357404e-02 +1.64815500e-01 -7.06880093e-02 -1.93405092e-01 -1.65181443e-01 +3.99961025e-02 +6.77376539e-02 -5.66850156e-02 +3.51942331e-02 +7.09697157e-02 -1.23493113e-01 -9.21183079e-02 +2.27517933e-02 -1.39046520e-01 +1.07943729e-01 +9.89471376e-03 +1.04310825e-01 -2.83328444e-02 +1.07217535e-01 -2.09814191e-01 +2.37664267e-01 +2.17721954e-01 -7.37581849e-02 +1.06558204e-04 +2.07309708e-01 +1.36406615e-01 +8.38205069e-02 +7.72037357e-02 +2.34667435e-01 -2.33598053e-02 -9.87785906e-02 +2.15493292e-02 -2.34539092e-01 +1.49269715e-01 -2.24541873e-01 +1.98975071e-01 -1.39064163e-01 -3.45765501e-02 -1.74868733e-01 -1.60804957e-01 +1.80131748e-01 +2.16229483e-01 +2.33859584e-01 -3.15900743e-02 +7.25890547e-02 +2.43930206e-01 -1.57893345e-01 -1.47084519e-01 +2.15367064e-01 -8.65719616e-02 -2.04822913e-01 -2.43936375e-01 +5.58018833e-02 -9.52518731e-02 -1.31287664e-01 -3.16058695e-02 +2.31103912e-01 -1.99919537e-01 +1.60401598e-01 +1.81388751e-01 -1.72808871e-01 +1.32069275e-01 -5.12506664e-02 -1.50400326e-01 -8.87446254e-02 +4.05657440e-02 -1.07331887e-01 -2.44368866e-01 -2.26306438e-01 +1.89025119e-01 -1.21455878e-01 -1.36693820e-01 +2.34724656e-01 +1.54544860e-02 +2.44183227e-01 -1.75452977e-01 +3.29972655e-02 -1.36824265e-01 +1.03117779e-01 -1.04631349e-01 -6.79998100e-03 +2.37678602e-01 -1.55899078e-01 -1.46962613e-01 -2.11322114e-01 +1.66098669e-01 +1.35733083e-01 +7.99837261e-02 +1.74958244e-01 -9.43375826e-02 +6.95932657e-02 +2.40833178e-01 +2.06610188e-01 +1.73707142e-01 -3.62222493e-02 -2.11091459e-01 -3.78885418e-02 -2.35857993e-01 -1.77825838e-01 +2.05108628e-01 -1.37033388e-01 +5.54169267e-02 -2.72303671e-02 -5.72767854e-03 +1.75007716e-01 -1.23472363e-02 +2.46129781e-02 -1.31946102e-01 -1.99793279e-03 -5.98516613e-02 +1.70000002e-01 -1.23411417e-03 -1.79884166e-01 -2.78083831e-02 +1.71848938e-01 -2.41615176e-02 -5.90713322e-02 -1.72120035e-01 -1.41305983e-01 +5.53375036e-02 -2.35487878e-01 +1.54629901e-01 +1.30086586e-01 +8.81098211e-03 -1.76162928e-01 +9.33629423e-02 +7.68490583e-02 +4.71845269e-03 -2.08042711e-01 +9.06663984e-02 +4.70791906e-02 +9.42273289e-02 +1.73525348e-01 +2.15801969e-01 -8.29564482e-02 +1.93717822e-01 -1.56759292e-01 +3.77773792e-02 -1.42314434e-02 -1.80098400e-01 -2.43687302e-01 -2.16115311e-01 +1.16105631e-01 -1.79525167e-02 -2.05378219e-01 +9.57498401e-02 -1.95191205e-01 -1.13010272e-01 +1.52708963e-01 -2.34561726e-01 +4.38067168e-02 +1.60733029e-01 -8.13902766e-02 -3.87152731e-02 -1.61021352e-01 +1.93260953e-01 -1.98158041e-01 -3.15477997e-02 -2.23002836e-01 +1.23332039e-01 -4.36814725e-02 +1.83877498e-02 -1.67848051e-01 -1.82202280e-01 -4.63662446e-02 -1.99897438e-02 -1.28105104e-01 +2.38459855e-02 +1.42563060e-01 +1.67386755e-01 -1.17259771e-02 -1.50956079e-01 +2.30562240e-02 -9.64931548e-02 +1.17151663e-01 +1.81038529e-02 -7.65063167e-02 +1.22347370e-01 -1.32197082e-01 -1.50425702e-01 +6.66779131e-02 -1.84653997e-01 -1.68734640e-02 +8.56059939e-02 -1.28129423e-01 -1.64727211e-01 -5.79617172e-02 +7.34152645e-02 -4.06721383e-02 -4.12372351e-02 -8.34949166e-02 +2.13224187e-01 -1.25366032e-01 +2.03494176e-01 +2.37474188e-01 -1.23575881e-01 +9.13609564e-03 +7.19266981e-02 +1.30965754e-01 +1.87266633e-01 -6.27476275e-02 +1.36583939e-01 -1.56760544e-01 +2.19657913e-01 +1.89245924e-01 -2.39444256e-01 -4.95154113e-02 +3.01806182e-02 -2.44312227e-01 +9.20665711e-02 -2.25848913e-01 +3.59077603e-02 +2.43799999e-01 -8.37942958e-03 +6.97698146e-02 -1.51916385e-01 -1.01121068e-02 +1.46871224e-01 -1.37700498e-01 +1.23764917e-01 +7.37530738e-02 +1.72837898e-01 -1.48400992e-01 +1.96475849e-01 -7.22647905e-02 -2.03388304e-01 +9.44761485e-02 -2.07540825e-01 +4.17438895e-02 -7.68141299e-02 -4.98523265e-02 +5.07735163e-02 -2.60994136e-02 +1.44071132e-02 -1.74770534e-01 -2.25021273e-01 -2.40368098e-02 -5.37570119e-02 +8.99776816e-04 -1.75091594e-01 +1.17083386e-01 -1.22441441e-01 -2.17895210e-01 +1.18445471e-01 -2.72017717e-02 +2.12936595e-01 -2.38909572e-01 +1.15000382e-01 +2.20320269e-01 +2.81268507e-02 +2.37184808e-01 +7.45419115e-02 +4.21554297e-02 +1.83395609e-01 +1.49474695e-01 -1.52075142e-02 +7.88118690e-02 +1.33129403e-01 +1.16253659e-01 +2.24405810e-01 +6.56956881e-02 +4.12886590e-02 +1.60246894e-01 -1.27969548e-01 -1.34130806e-01 +9.31826085e-02 +6.49316758e-02 -1.70707464e-01 +8.12113285e-06 +1.94641948e-03 -2.15438545e-01 +3.28919142e-02 +9.17709917e-02 -4.31671143e-02 -9.58679318e-02 -1.79351538e-01 +1.39537737e-01 +2.17005759e-02 -1.56959578e-01 -1.88205495e-01 -1.99356377e-01 -1.92833126e-01 +9.35326666e-02 +6.93665445e-03 -6.84792995e-02 -1.85391426e-01 +1.45581737e-01 +1.43116996e-01 -2.16857433e-01 +1.86240524e-02 -2.10678086e-01 -1.56695947e-01 -2.17787653e-01 +1.71300963e-01 -8.53250325e-02 -4.79493737e-02 -2.42952630e-01 -1.27914548e-01 +6.34137839e-02 +1.13606259e-01 -1.62813753e-01 +1.90069571e-01 +1.30062416e-01 +2.16140375e-01 +1.21127024e-01 +7.15017468e-02 +9.59539562e-02 -4.97882962e-02 +2.44800463e-01 +1.17570564e-01 +1.42300740e-01 +1.10758409e-01 -1.26242757e-01 +1.67726681e-01 -1.31801501e-01 -5.74394315e-02 -2.15757474e-01 +2.41248891e-01 -8.53064209e-02 -1.56223640e-01 +8.36626142e-02 +2.15921596e-01 -8.17507207e-02 +1.04027793e-01 +3.65227014e-02 +6.66656345e-02 +1.19195357e-01 +2.11204126e-01 +2.06015602e-01 -6.86036497e-02 +1.75557479e-01 +1.36126354e-01 -1.92656726e-01 +2.42538914e-01 -2.12619379e-01 -1.39822304e-01 -2.32474729e-01 -1.67937577e-03 -2.24911854e-01 -2.12075472e-01 -2.07439899e-01 +1.69006422e-01 +2.15024546e-01 -1.26441568e-02 +4.34522331e-03 +4.42474037e-02 +2.43643031e-01 +5.20762950e-02 +8.38546008e-02 +1.29449055e-01 -1.62969187e-01 -6.05818629e-03 +1.03178620e-03 +1.87962800e-02 +1.63565889e-01 -1.16053596e-01 +1.74394056e-01 -2.96372175e-03 +7.31983036e-02 +1.75969154e-02 -2.16160312e-01 -1.87548906e-01 -4.22676951e-02 +7.77930468e-02 +4.09334898e-05 -1.21817991e-01 -1.31686598e-01 -1.11496761e-01 +1.03588924e-01 +1.92873195e-01 -2.17531517e-01 -3.62257659e-02 +1.53681830e-01 -4.34861034e-02 +1.33661702e-01 -6.77993596e-02 +7.20420629e-02 -7.67199546e-02 +2.20966950e-01 +1.65371403e-01 +1.93623796e-01 -7.56062120e-02 -9.17301476e-02 -1.63260698e-01 -1.65943116e-01 -2.28724688e-01 -2.13823929e-01 +4.58468050e-02 -2.08649710e-01 +1.74986735e-01 +1.81242272e-01 +4.86901551e-02 +1.48733184e-01 -1.83285981e-01 -1.14124805e-01 -5.24313599e-02 +3.30446661e-03 -8.87066722e-02 -1.44731760e-01 +1.86983958e-01 -1.10981226e-01 -8.13662410e-02 -8.83277655e-02 -4.94243205e-02 +2.43836194e-02 -1.08182788e-01 -1.64923042e-01 -1.00390211e-01 +2.28691563e-01 -1.41629741e-01 -5.81748933e-02 -7.95082748e-03 -2.13179067e-01 +9.30419713e-02 -6.24017417e-02 -1.81840032e-01 +3.65480632e-02 -1.12347752e-02 -2.05392689e-02 -2.21776813e-01 -1.29187107e-01 +1.10918000e-01 +1.20698139e-01 +8.86313468e-02 -2.02375978e-01 -9.89889205e-02 +1.45501420e-01 +1.36093959e-01 +1.22789249e-01 -2.21574664e-01 -1.31250799e-01 -6.62999600e-02 -7.63804764e-02 +1.47946641e-01 +1.58250779e-02 -1.28039718e-03 -1.93534106e-01 +1.76081613e-01 +1.01182610e-02 +1.62877783e-01 +6.96165860e-03 +2.05767944e-01 -8.17748606e-02 -1.75500855e-01 -4.97952104e-02 +1.85123399e-01 -1.08050659e-01 +1.28478125e-01 -1.17845446e-01 -1.01599365e-01 +9.18620080e-02 +1.96672782e-01 +2.31676474e-01 -1.82313815e-01 +4.96387035e-02 -2.02867404e-01 -4.01078612e-02 +5.83345145e-02 +2.08911106e-01 -9.70444083e-03 +1.30701646e-01 +2.17686012e-01 -1.32850528e-01 -1.37546390e-01 +2.35268101e-01 -1.94071233e-02 -1.16319224e-01 -1.71914786e-01 -7.48035014e-02 -1.72636747e-01 +1.25310272e-02 +2.23115101e-01 -7.84404129e-02 -6.25086725e-02 +6.21075928e-03 -2.39840001e-01 -4.42579389e-04 -2.08278745e-01 -1.00847721e-01 +8.44726413e-02 -1.91095024e-02 -2.22974420e-02 -1.06534436e-01 -5.74755520e-02 -9.18924809e-02 +2.01163068e-01 -1.85613364e-01 +2.11364761e-01 -1.98296100e-01 +1.47192106e-01 +2.32381955e-01 +1.04607776e-01 -2.03073010e-01 +4.82632965e-02 -1.73228592e-01 +1.43110588e-01 +1.36755928e-01 -1.47269681e-01 +8.99212509e-02 -1.54621914e-01 -3.04641277e-02 -1.76187828e-01 +6.78320378e-02 -1.96606755e-01 +6.05909675e-02 +2.11318359e-01 +7.46626407e-02 -1.41241133e-01 +2.84512341e-03 -1.83661893e-01 -6.54842705e-02 -1.60560012e-04 -9.07200724e-02 -4.23666835e-02 +1.93383381e-01 +5.41849583e-02 +1.20191738e-01 -8.02060813e-02 +5.21480888e-02 +4.47207242e-02 +2.37320915e-01 -2.08381340e-01 +2.42227480e-01 +1.98604837e-01 +8.25016946e-02 +2.29954913e-01 +3.21552604e-02 -2.86024660e-02 -6.92543387e-03 -1.38151735e-01 +1.94314942e-01 -2.27699667e-01 +1.68921843e-01 +2.18651250e-01 +4.35800701e-02 +1.89050272e-01 +1.84365705e-01 -1.10315308e-01 -1.00348949e-01 +1.52034611e-02 +1.59801170e-01 +2.32546195e-01 -8.14210474e-02 -6.82384372e-02 -2.10719183e-01 +5.23307770e-02 -1.72389865e-01 +2.13330194e-01 -7.15511292e-02 -4.24061120e-02 +1.04338095e-01 -1.22685350e-01 -2.46945918e-02 +1.16035774e-01 +3.82216126e-02 +1.81562796e-01 +5.70354313e-02 -2.04684868e-01 -2.99577564e-02 -2.17035457e-01 -1.39567405e-01 +1.21603444e-01 -9.59219187e-02 -1.62918806e-01 -1.07039258e-01 +2.37364903e-01 -2.12711304e-01 +9.77619141e-02 -1.19262487e-02 +3.97223085e-02 +1.45495340e-01 -7.13607669e-02 +1.13619581e-01 -1.38446599e-01 -1.18911266e-04 +9.31272656e-02 -1.07668951e-01 -1.79240346e-01 -1.59231320e-01 -2.14019075e-01 +1.75544456e-01 -1.98247835e-01 +1.33190528e-01 -2.05981672e-01 -1.72837824e-02 -5.23561388e-02 +1.47589311e-01 +8.02250206e-03 +2.35566124e-01 -1.38751060e-01 +1.09962478e-01 -2.36040801e-01 +5.03108650e-02 +1.92540810e-01 -5.61911315e-02 +8.53336900e-02 -1.04983404e-01 -2.90583968e-02 +1.68290585e-02 +1.53683379e-01 +1.98803499e-01 +9.48196501e-02 -9.72390175e-02 -1.21513300e-01 -1.90682113e-01 +1.51397452e-01 +1.24189839e-01 +1.76759511e-02 -7.43127465e-02 -1.48229003e-02 +8.95280689e-02 -3.38189751e-02 -1.61373809e-01 +2.12001339e-01 +1.57179877e-01 +2.06215963e-01 +9.30156857e-02 -1.96925193e-01 +7.01096207e-02 +1.10501900e-01 -1.81900546e-01 +5.36392778e-02 +2.11016491e-01 +1.67949095e-01 -1.93973839e-01 -1.33222580e-01 -8.77051502e-02 +1.63326219e-01 -8.63986909e-02 -2.04648525e-01 -1.61286682e-01 +1.89421922e-02 -7.82754123e-02 +5.80101460e-02 +1.70596376e-01 +3.67015600e-04 -1.11050025e-01 -3.55048478e-03 -1.95232213e-01 +2.04177991e-01 -1.18827373e-01 +3.09925526e-02 +5.31951934e-02 -7.82733858e-02 -1.96991652e-01 +1.66730836e-01 -1.01649210e-01 +1.01227805e-01 -1.13191143e-01 -1.67562768e-01 -1.10830769e-01 +1.54704854e-01 +1.13513842e-01 +1.13194868e-01 +3.80192548e-02 -9.72611308e-02 +2.89425105e-02 -3.55048478e-03 +2.07430258e-01 +1.73005417e-01 -7.73455352e-02 +1.72649339e-01 +5.69670945e-02 -1.79397330e-01 +1.09137014e-01 -4.22835350e-04 +1.71401009e-01 -4.21048403e-02 -2.06041813e-01 +2.27887467e-01 -1.49179190e-01 -4.63226438e-02 -4.10432070e-02 -1.49665654e-01 +8.00805539e-02 +1.83349028e-01 -1.49285644e-01 +2.29559854e-01 -1.38528317e-01 -1.98960632e-01 -2.38997236e-01 +4.72321957e-02 -5.46172261e-04 -2.33282149e-02 +2.39247218e-01 +2.06624761e-01 +1.22784898e-01 -1.12044394e-01 -2.24287450e-01 -1.50773659e-01 +4.70999628e-02 -1.27810806e-01 +9.18137282e-02 -1.88712299e-01 -1.98613375e-01 +1.88164636e-01 +1.03102788e-01 +1.22167170e-03 +1.32495418e-01 +2.14026704e-01 -1.74567699e-01 -9.61746275e-03 +1.73689947e-01 +8.13395828e-02 +2.08946183e-01 -1.63165614e-01 +1.48951963e-01 -2.20764115e-01 -1.08874589e-01 +1.72235623e-01 -7.13838488e-02 +9.63447839e-02 +1.35236427e-01 +2.41480783e-01 +6.25721067e-02 +1.12991944e-01 +2.00107768e-01 -1.05051041e-01 -1.61740005e-01 +1.85829088e-01 -2.03275397e-01 -1.17457867e-01 -1.36083007e-01 +1.24038905e-02 +1.17194459e-01 -2.05576718e-02 +4.53641564e-02 -2.30314001e-01 +1.84263960e-01 +1.37727931e-01 +2.17656180e-01 +1.42595217e-01 +1.60112575e-01 +2.39207342e-01 +1.34728029e-01 -2.79588997e-02 -1.02505341e-01 -1.51404276e-01 -1.68581188e-01 +2.06997141e-01 -1.65784419e-01 +1.58981755e-01 +9.21787471e-02 +1.25117883e-01 +1.65586278e-01 +2.26067975e-01 +2.23319903e-01 -2.14220583e-01 +2.11526468e-01 +1.44755736e-01 +1.77044138e-01 +2.18798965e-02 +2.36187294e-01 -8.93910378e-02 +1.90574452e-01 +7.75103718e-02 +1.29015550e-01 -1.13716245e-01 -1.81657404e-01 +1.01483837e-01 -1.23838976e-01 -1.34857744e-02 -7.84992725e-02 +1.21568590e-02 -5.61448932e-03 +2.37542078e-01 -2.01450169e-01 -2.35622168e-01 -9.66744423e-02 -2.18572661e-01 +4.94132489e-02 -2.17387319e-01 -1.18327394e-01 -8.18371773e-04 +1.51524320e-01 +1.52003542e-01 +6.16857857e-02 -2.42402434e-01 +2.02475145e-01 +1.20327607e-01 -1.91452965e-01 -2.11935550e-01 -1.86215401e-01 +1.24572366e-02 -2.01502278e-01 +6.22647852e-02 +1.93485469e-02 +9.60729569e-02 +2.84957141e-02 +7.29773790e-02 -2.73561031e-02 +2.41374716e-01 -8.07590634e-02 -1.89786673e-01 +1.95623532e-01 -9.60656703e-02 +1.22818202e-02 +1.52123526e-01 +1.21589974e-01 +2.14663669e-01 +1.54877752e-02 +1.93345353e-01 -1.19561419e-01 +1.55308530e-01 +2.05011442e-01 +2.08718970e-01 -1.66637376e-01 -2.10258514e-02 -1.92348287e-01 +1.53813973e-01 +9.33934897e-02 -1.69425279e-01 -9.17017162e-02 -2.14935973e-01 -1.65751353e-01 +1.89346984e-01 +1.35447785e-01 +2.03576252e-01 -1.57793909e-01 +6.32529408e-02 -4.18106914e-02 +2.58675367e-02 +4.52593714e-02 -7.54892826e-02 +1.08940467e-01 -1.33410573e-01 +4.38226312e-02 +2.46590525e-02 +6.47393018e-02 -1.00903004e-01 +2.18818173e-01 -1.26803249e-01 +2.11395994e-01 -1.32830560e-01 +1.48263648e-01 +6.83406144e-02 +1.13646194e-01 +2.27775529e-01 -2.84622908e-02 +1.76051810e-01 -1.11418381e-01 +2.30020598e-01 -5.48690259e-02 +2.26343617e-01 -1.09736457e-01 +1.84770688e-01 -1.62725136e-01 +5.64766377e-02 +2.25210771e-01 -1.27394229e-01 -6.60712421e-02 -1.71013921e-02 +5.62034994e-02 -5.38933873e-02 -2.61589438e-02 -1.09022141e-01 -1.62063643e-01 -2.30015725e-01 -2.24488363e-01 -1.76769376e-01 +1.32280454e-01 +2.07438663e-01 -1.47819683e-01 -1.38304025e-01 +3.42255086e-02 +7.53284544e-02 +1.59111157e-01 +1.44800350e-01 +1.62766531e-01 +1.04516700e-01 +1.44062892e-01 -2.84929574e-03 -2.04458579e-01 +5.42406887e-02 -6.52019829e-02 +5.16947955e-02 +3.49859148e-02 +5.29332906e-02 +4.55774516e-02 -1.23428978e-01 -6.28030598e-02 -8.14368725e-02 +1.89596012e-01 -9.09520835e-02 -1.96597576e-02 -1.67696416e-01 +9.60977226e-02 +1.52756348e-01 +1.85583487e-01 +1.79428905e-02 -1.91266388e-02 -9.72438753e-02 +8.02757591e-02 -1.63307250e-01 -4.28258926e-02 -6.60209358e-03 -1.45035535e-01 +8.97099823e-02 -3.58762741e-02 -2.11192772e-01 -9.81452167e-02 -1.22027993e-02 +2.42246106e-01 -1.04511008e-01 +6.10563308e-02 -1.60697043e-01 -1.01713449e-01 -2.38899440e-01 -3.31707001e-02 +6.82304949e-02 +1.72239706e-01 -7.46046156e-02 -9.73469764e-02 +1.23445854e-01 +1.86377779e-01 -6.73263371e-02 -3.12964022e-02 -8.14842284e-02 -9.25260335e-02 +1.13678679e-01 +1.18795499e-01 +6.91571385e-02 +1.01609275e-01 +2.32620552e-01 +2.04848245e-01 -1.34459972e-01 -1.75809890e-01 -1.82781965e-01 -1.86140329e-01 +9.63087529e-02 +2.05858722e-01 -2.43375391e-01 -1.03704020e-01 +3.67475003e-02 +6.58593029e-02 -9.84624028e-03 -5.46914339e-02 +2.20854655e-01 -1.20590627e-02 +1.62867859e-01 -1.30305514e-01 +3.71366739e-04 +3.86296660e-02 -7.11808354e-02 -1.78044736e-02 +2.12849572e-01 +1.39907107e-01 -2.39518180e-01 +1.12210765e-01 -7.52279758e-02 +1.33466259e-01 +8.43808204e-02 +2.25206167e-02 -2.66395509e-03 -1.91343412e-01 +1.48335382e-01 +1.46001577e-04 -5.97229898e-02 -2.28237107e-01 +1.98080093e-02 -1.17007881e-01 -7.22555220e-02 +1.43019333e-01 +1.37302414e-01 -2.17054650e-01 -4.37700301e-02 +1.49429992e-01 -1.35974199e-01 +3.06666642e-02 -2.34374881e-01 -1.55101836e-01 -3.78265977e-03 -9.72144753e-02 -1.39669061e-01 +1.36154547e-01 +1.28288046e-01 -1.89173222e-02 -2.23606721e-01 -8.34135711e-03 -1.05459228e-01 -2.44825065e-01 -1.05103001e-01 +1.59006253e-01 -6.18867129e-02 +9.12175328e-02 +2.04287186e-01 -2.87157446e-02 -7.12612122e-02 -1.80318505e-02 +1.11627445e-01 -3.69052738e-02 -1.53379649e-01 -7.43429661e-02 +1.65053442e-01 +2.40499988e-01 -1.65171832e-01 -1.82967871e-01 -7.24563152e-02 -5.94499558e-02 -5.68528175e-02 -1.26309037e-01 -2.45132148e-02 +7.53646940e-02 -1.75630003e-01 -2.24469244e-01 +6.28454536e-02 -2.34502614e-01 -1.44034415e-01 -8.85870904e-02 -7.85096288e-02 +1.69414744e-01 -1.93554014e-01 -2.16283500e-01 +1.58635274e-01 -1.60853088e-01 -2.19087139e-01 -6.10507578e-02 -1.31452620e-01 +4.89773303e-02 +2.02206716e-01 -4.91661727e-02 -1.22869551e-01 -1.34920478e-01 +2.08391979e-01 -1.24314249e-01 -6.34395629e-02 -1.61231235e-01 -2.39831790e-01 -1.56432882e-01 -1.77826554e-01 -1.35937512e-01 +2.94487029e-02 -6.90272450e-02 -2.08493650e-01 -1.25156343e-01 +1.12852648e-01 -2.19091251e-01 -1.02465898e-02 -1.74644172e-01 +1.24299809e-01 -4.63743657e-02 +1.96463332e-01 -7.51353651e-02 +9.75773782e-02 -1.49699867e-01 -2.46930271e-02 +1.87399611e-01 +2.16745585e-02 -2.01122701e-01 -2.34877735e-01 -1.69944614e-02 -4.42420244e-02 +2.28517875e-01 +2.23965541e-01 +1.94073871e-01 +3.00569981e-02 +8.70935768e-02 +1.55585840e-01 +1.40273422e-02 -1.99438691e-01 -1.92994595e-01 -1.78923845e-01 +9.84676182e-03 +5.23356944e-02 -9.26899910e-02 +1.56136826e-01 +3.79885286e-02 -7.55123794e-03 -2.22709760e-01 +8.04618150e-02 +5.18675894e-02 -6.86911494e-02 -9.97351855e-02 -2.00285733e-01 +1.13438830e-01 +2.04704300e-01 -1.05856076e-01 -1.81939855e-01 +5.34308404e-02 +9.74720567e-02 -1.15815237e-01 +1.32427365e-02 +1.98007420e-01 +4.76652384e-03 +6.62027150e-02 +4.82818931e-02 -2.05183983e-01 +1.92495778e-01 +7.26222247e-02 +1.48980334e-01 +1.46276876e-01 -2.33725011e-01 -6.88084513e-02 -1.19833797e-02 -5.16611636e-02 +2.23045602e-01 -3.75542641e-02 +1.47196963e-01 -4.98916358e-02 +1.28253713e-01 +7.24474937e-02 -6.61909282e-02 -1.17858663e-01 +7.45637864e-02 -1.70811981e-01 +2.25266710e-01 +5.10095209e-02 +2.11132213e-01 -1.42578244e-01 +1.74974337e-01 +2.16239706e-01 +9.90042835e-02 +1.06277838e-01 +1.45738795e-01 +1.01253241e-02 +2.13440970e-01 +7.11766928e-02 +1.78464457e-01 +1.26915947e-01 +4.53516096e-02 +2.26893276e-02 +5.74655831e-03 +2.19625518e-01 +1.73823580e-01 -2.26314947e-01 -2.30528116e-02 -4.54630703e-02 +6.52831048e-02 -2.03550160e-01 -1.63597792e-01 +1.60128400e-01 -3.78326029e-02 -7.26411939e-02 -1.55480191e-01 +2.39830121e-01 +3.83951515e-02 -5.08475304e-03 -2.31296495e-01 +1.51915699e-02 -1.11485422e-01 -8.74107182e-02 -5.18515557e-02 -1.02517843e-01 +5.16744703e-02 +2.03528330e-01 +2.42199078e-01 +6.16749376e-02 -1.07861444e-01 +5.54023832e-02 +3.16189677e-02 -2.32576892e-01 -8.54639709e-03 +8.59726518e-02 -2.30992138e-02 +2.00352952e-01 +1.39576778e-01 -7.83171803e-02 -3.53471786e-02 +1.51469186e-01 -2.18318492e-01 +1.80223688e-01 -1.57672241e-01 +7.87229985e-02 +4.59558219e-02 -1.91779658e-01 -6.43800646e-02 +1.27276823e-01 -1.42998695e-01 +9.63191837e-02 +1.42228603e-03 +2.16874406e-01 +2.30386093e-01 +7.52693266e-02 +4.52503711e-02 +1.37857512e-01 -2.29438484e-01 +8.23195130e-02 +2.01887920e-01 +2.37960860e-01 -2.79646963e-02 -1.75756633e-01 -3.90836746e-02 +1.28452376e-01 -1.57909036e-01 -7.08468854e-02 +1.68604121e-01 -6.15690947e-02 -1.02381483e-01 -2.38984793e-01 +8.06649476e-02 -5.97141236e-02 -2.35152230e-01 +9.32677537e-02 -1.44693822e-01 -1.46962821e-01 -1.99152306e-01 +1.07828781e-01 -1.42009795e-01 -1.26422793e-01 +1.18074909e-01 +7.95502812e-02 +3.13699245e-04 -3.16116214e-03 +1.19421884e-01 +1.92882642e-01 -2.07910582e-01 +3.35134417e-02 +6.31327927e-03 -2.04229206e-02 -1.02110207e-01 -1.79417491e-01 +5.19439429e-02 +1.34741291e-01 -1.63359642e-01 +1.51237711e-01 +2.43475839e-01 +8.55509490e-02 -8.89838636e-02 +7.40170926e-02 -8.32943320e-02 -1.63884163e-02 +9.97457057e-02 +6.62431270e-02 -1.79812223e-01 -2.22283721e-01 -8.18357319e-02 -1.93419054e-01 +1.69469565e-02 -1.79588661e-01 +8.59930366e-02 -2.19206244e-01 -4.14096713e-02 +1.02537587e-01 -1.30825192e-01 +7.58053213e-02 -2.27723733e-01 +1.89764842e-01 +1.31480590e-01 +1.13301381e-01 +1.72634169e-01 -4.89622205e-02 +5.81558496e-02 -9.12636817e-02 +1.12740681e-01 -1.16595477e-02 +4.68568355e-02 -8.02318156e-02 +1.09045133e-01 +2.08847672e-02 -1.42647877e-01 +1.25953034e-01 -2.09516928e-01 -8.15144181e-02 +1.43098101e-01 +3.44479233e-02 +1.55461118e-01 +8.13898891e-02 +1.54333189e-01 -3.48493010e-02 +7.94868916e-02 -1.25447720e-01 -3.18971425e-02 -2.13854432e-01 +3.89237553e-02 +9.46101695e-02 -2.29916275e-01 -1.88779131e-01 +6.68056458e-02 -1.86564371e-01 +8.30916613e-02 +6.13306463e-03 -1.02773204e-01 -2.24194080e-01 -4.06061858e-02 +2.04188749e-01 -1.12350330e-01 -3.23203951e-02 +2.00054213e-01 -1.77373141e-02 -1.68179870e-02 +4.68427986e-02 -1.76673517e-01 +2.14921132e-01 -1.27104700e-01 +7.93380588e-02 +2.16240749e-01 -2.20836610e-01 +5.09622544e-02 -1.97257310e-01 -1.22448772e-01 -1.44233823e-01 +5.53181022e-02 +1.93683609e-01 +1.45025417e-01 -1.98057383e-01 +1.38713077e-01 +2.00263038e-01 +6.15815073e-02 +1.55747369e-01 +1.60559818e-01 -1.45719409e-01 +4.50462550e-02 -8.56401771e-02 -1.27733663e-01 +2.30772719e-01 +2.16048211e-02 +3.43483835e-02 -2.37809390e-01 +2.24957034e-01 +5.23991734e-02 +1.26954898e-01 -8.71926099e-02 +1.51401982e-01 -2.35598654e-01 -8.44758153e-02 -2.14055300e-01 +1.96741626e-01 +1.76266208e-01 -1.37603581e-02 +1.13149181e-01 -3.34159285e-02 +1.62185267e-01 +7.98359066e-02 -3.71405184e-02 -9.31309164e-02 -2.16371447e-01 -1.03801057e-01 +1.99651569e-02 -2.26367921e-01 +1.40588120e-01 -2.29407191e-01 +1.75188929e-02 +8.55107605e-03 -4.36283052e-02 +6.90299422e-02 -8.58791918e-02 -1.03629485e-01 -1.60058647e-01 +4.13884670e-02 -2.44886994e-01 +2.39110038e-01 -1.70224056e-01 -2.05692053e-02 -9.08274949e-03 -1.98947042e-02 -2.44624585e-01 +5.48748821e-02 +1.38995871e-01 +5.69619238e-03 -1.94757253e-01 -1.33855462e-01 -1.10179320e-01 +1.87238172e-01 -2.41380841e-01 -5.02596498e-02 -1.15628406e-01 +2.91257948e-02 +2.18483165e-01 -4.97070253e-02 -1.10662401e-01 -2.17928782e-01 +2.75371820e-02 -1.27576739e-01 -1.04003146e-01 -5.08025289e-04 +1.93996325e-01 -3.20401043e-02 -1.77135944e-01 -2.19525993e-02 +9.52339023e-02 -2.20834717e-01 -1.55961439e-01 -1.17846727e-02 -1.36016577e-01 -2.33529508e-02 +1.78250000e-01 +5.95802218e-02 -1.05789840e-01 -1.82848513e-01 +1.42141357e-01 +1.59312651e-01 -5.79105318e-03 +1.24826387e-01 -3.57736945e-02 -1.56615466e-01 +2.41549537e-01 -9.37216729e-02 +4.29600030e-02 +1.63576171e-01 -1.02842227e-01 -2.24864185e-01 -8.97039473e-02 -1.15940660e-01 -1.27619743e-01 -2.06226945e-01 +6.19520396e-02 +9.86225754e-02 -1.40793324e-02 -2.32757002e-01 +7.12618977e-02 -4.17682379e-02 -1.42281100e-01 +1.46486327e-01 +2.12210193e-01 +2.35433772e-01 +4.61943448e-03 +2.67188400e-02 +8.95960182e-02 -4.23692465e-02 +1.68571964e-01 -7.22431690e-02 -1.46696448e-01 +1.73692897e-01 +1.24746934e-01 +2.16619208e-01 +4.43666726e-02 +2.02006862e-01 +2.20135912e-01 -6.23582304e-03 +1.87708452e-01 +1.74886435e-02 +2.53418237e-02 -1.20962135e-01 -8.06400180e-02 +2.40913585e-01 -1.77662268e-01 -2.17826560e-01 +5.27740270e-02 +4.88442928e-02 +2.26732090e-01 +1.04891136e-01 +2.27031186e-01 -1.88999057e-01 +1.88845679e-01 +6.72730356e-02 +2.39528790e-01 +1.37666538e-01 +9.49857682e-02 +5.23362309e-02 -3.64385545e-03 +4.90020961e-02 -1.84220076e-01 -1.90821677e-01 -1.41879112e-01 +1.28754184e-01 -4.06223238e-02 -1.37787610e-01 -1.15299299e-01 -2.16758028e-01 +2.15721801e-01 +4.27146107e-02 -1.51942030e-01 +1.25004753e-01 +1.24744996e-01 +2.34153122e-02 -2.44847164e-01 +9.24311131e-02 -6.61592484e-02 +5.04736751e-02 +3.43107134e-02 +1.25887796e-01 +6.86839074e-02 -2.30960548e-02 +7.12405890e-02 +4.50341851e-02 +1.70503065e-01 -7.68756568e-02 -4.12462503e-02 -7.17113614e-02 -1.88599780e-01 +1.21128157e-01 -1.28898680e-01 -1.42633617e-02 +2.06837207e-02 -1.58168584e-01 +1.73527524e-01 +1.55922279e-01 +1.54949054e-01 -2.30747715e-01 +6.06394857e-02 -1.96835101e-02 -4.87595350e-02 +1.15031138e-01 -7.83957392e-02 +2.21495479e-02 -1.33343488e-01 -1.89231783e-01 -2.27981225e-01 -2.44405434e-01 +2.11490646e-01 +1.25619337e-01 +1.51133135e-01 +2.33046561e-02 +1.60069272e-01 -1.25473469e-01 +2.44155988e-01 -3.72034460e-02 +4.06825393e-02 -2.24899158e-01 +2.26504967e-01 -1.01509482e-01 -5.38868010e-02 +1.05914667e-01 +1.65030807e-02 -1.75506443e-01 -2.22066045e-03 -1.02046296e-01 -3.51651013e-02 -1.06732354e-01 -1.71601757e-01 -1.31630003e-01 -2.01418251e-02 +5.68291396e-02 -1.07477099e-01 +5.67639619e-02 +2.36485168e-01 -1.88565090e-01 -1.22810170e-01 +1.92001447e-01 +1.24936804e-01 -1.16779998e-01 +2.76429206e-02 +7.98159689e-02 -1.50342047e-01 +8.07298720e-03 +1.78111628e-01 -2.30475783e-01 -2.44826049e-01 +2.10461900e-01 +2.25593194e-01 +1.99372023e-02 +1.56205848e-01 +2.04105631e-01 -5.18599004e-02 -1.10317916e-01 -1.05078518e-01 -1.72047049e-01 +1.01488724e-01 -1.16306245e-01 +1.29240200e-01 -3.22242081e-03 +1.36940226e-01 -3.19550335e-02 -1.54693708e-01 -2.78339535e-02 -1.20691098e-01 -2.40050733e-01 -6.52736425e-02 -2.00448662e-01 +1.45540982e-02 -6.82842582e-02 +1.77402362e-01 +2.20777169e-01 -5.12889326e-02 +1.16665766e-01 +9.83490199e-02 +1.18882671e-01 +2.03714684e-01 -1.91392273e-01 +1.00920632e-01 -1.21009819e-01 +6.81512803e-02 +5.84466308e-02 -1.29175231e-01 +1.94198772e-01 +7.30485171e-02 +1.32943541e-02 +1.07385889e-01 -1.79859698e-01 +2.04739884e-01 -8.93036872e-02 -1.03138268e-01 +6.51727468e-02 -2.20155895e-01 +6.98480755e-02 +3.79128903e-02 -9.12691206e-02 -2.39893600e-01 +2.10396394e-01 -3.14415246e-02 -2.19867259e-01 +7.27301985e-02 -5.25550246e-02 -1.73362419e-01 -1.06305242e-01 -2.37015828e-01 -1.62079886e-01 -2.17657849e-01 +1.85248256e-03 +1.52757898e-01 +2.34375194e-01 +2.33655348e-01 -1.67250335e-02 +1.25981316e-01 +1.68854222e-01 +2.12384507e-01 +1.07289925e-01 +1.99397340e-01 -2.86092013e-02 +2.30772004e-01 -3.72203141e-02 -2.31781393e-01 -2.07141072e-01 -2.22361639e-01 +2.70297080e-02 +6.93517774e-02 -6.50154352e-02 +1.10989913e-01 -2.11707160e-01 -1.41891837e-02 -1.65497124e-01 +1.62898704e-01 -2.10693419e-01 -1.32410258e-01 -1.19109511e-01 -1.28690049e-01 +9.38896686e-02 +1.93526760e-01 -4.49149758e-02 +6.82666898e-04 -1.22387424e-01 +1.00273386e-01 +1.79389730e-01 -3.21957916e-02 -1.06755406e-01 +6.45373911e-02 +1.77621290e-01 +1.06953844e-01 +8.49478394e-02 +8.51921737e-03 -6.65680915e-02 +1.24710068e-01 -1.62661493e-01 +8.79126340e-02 -1.45613521e-01 +2.43194744e-01 -2.20199063e-01 -1.51551902e-01 -2.79480368e-02 +1.78053543e-01 -1.25064701e-02 -2.33121067e-02 -8.54696482e-02 -3.22011709e-02 -2.29753554e-03 -7.89090991e-04 -1.39939815e-01 -8.17579180e-02 +1.67346671e-01 +9.39190537e-02 +2.41385251e-02 -1.63871512e-01 -3.32626402e-02 -2.14673519e-01 +2.15015069e-01 -2.33720183e-01 +1.25540182e-01 -1.70062900e-01 -5.68122119e-02 +5.11766970e-03 -1.62667066e-01 +1.69235930e-01 +7.02153593e-02 +4.89342213e-03 -3.23251188e-02 +5.53089529e-02 -1.70588076e-01 -9.31653529e-02 -2.57511139e-02 -1.48870319e-01 -2.38466546e-01 -2.32410520e-01 +6.75446242e-02 -1.09892786e-02 -5.49677461e-02 -1.62550062e-01 +1.47111431e-01 +1.91936001e-01 -4.63539213e-02 +1.50264665e-01 +1.44522324e-01 +2.43109629e-01 -9.47933048e-02 +2.02455357e-01 +1.41507521e-01 -2.35765398e-01 -1.68891281e-01 +1.27748057e-01 -2.31388301e-01 +5.46845049e-02 -2.42319092e-01 -9.50681120e-02 +4.85330671e-02 -9.26727057e-02 -3.83527875e-02 +1.57596394e-01 -1.86877549e-02 +2.35305414e-01 -1.21018812e-01 -7.77617544e-02 -2.32173353e-02 +2.45354325e-02 -1.53138921e-01 -2.24123359e-01 -1.71430051e-01 +7.70731419e-02 +9.17936414e-02 +2.95875221e-02 -4.44228947e-02 +2.58229524e-02 +1.41991213e-01 +5.65170199e-02 +1.87028006e-01 -2.03525305e-01 +1.92433253e-01 -1.51724726e-01 +1.81564793e-01 -1.99859172e-01 +1.05162397e-01 +2.09072813e-01 -1.92192584e-01 -2.26290524e-02 -2.36226931e-01 -5.88430464e-03 +6.39991313e-02 +2.09192738e-01 +6.59876317e-02 +2.16965392e-01 -2.26388007e-01 +2.38732651e-01 -4.73175049e-02 -8.70034844e-02 -5.93756139e-02 +2.13985279e-01 -1.76263094e-01 -1.48490608e-01 -2.08936691e-01 +7.94830471e-02 +1.28021255e-01 -8.82813036e-02 -2.01472878e-01 -6.87980652e-03 -2.06527710e-02 -8.16655457e-02 -2.19972521e-01 -2.23668590e-01 +2.43444994e-01 +1.20790735e-01 +2.27140337e-02 +1.67931125e-01 -2.43839726e-01 +1.67100564e-01 +1.85777947e-01 +2.01492146e-01 +4.86334711e-02 
#Parameter# /_8 {50} 801 ZERO_GRAD
+1.76376507e-01 -2.01512411e-01 +2.39676759e-01 +3.92480046e-02 +1.23550609e-01 +2.41034076e-01 +1.70084789e-01 -2.59084851e-02 +2.30599716e-01 -1.83086351e-01 -1.53628290e-01 -5.84639013e-02 -5.47751039e-02 -2.67967582e-04 -4.74024117e-02 -1.41728312e-01 +1.17691770e-01 -2.13882953e-01 +4.31425422e-02 +7.90752620e-02 +3.87399644e-02 -6.32712841e-02 -2.38380745e-01 +8.49115998e-02 +1.70288160e-01 +5.93859404e-02 -1.93334535e-01 -9.80579853e-03 +1.70073554e-01 -5.90283871e-02 +1.61111549e-01 -1.90136254e-01 +4.46993858e-02 -1.66149303e-01 -1.67912245e-01 +1.91392824e-01 -1.49035156e-02 +2.43069395e-01 -1.59687400e-01 -1.77615345e-01 +7.82804936e-02 +2.29996592e-02 -1.03694230e-01 -6.82466030e-02 +5.86517602e-02 +1.82762399e-01 +2.40030721e-01 -8.15809369e-02 +1.35271028e-01 -2.23776311e-01 
#Parameter# /_9 {50,3} 2401 ZERO_GRAD
+2.68358380e-01 -5.27002335e-01 -3.14409971e-01 -2.38004625e-01 +2.04376444e-01 -1.01560829e-02 -4.10427362e-01 -9.66456812e-03 +5.92640899e-02 +1.96989208e-01 +3.38644117e-01 -8.57926309e-02 -3.32068890e-01 -3.02386861e-02 -4.93077576e-01 -2.85317957e-01 +6.16967604e-02 -5.88007629e-01 -2.42985398e-01 -2.03053549e-01 -2.25216284e-01 +2.88203597e-01 -4.14467424e-01 -3.03224891e-01 +4.79674608e-01 +2.69014984e-01 -1.22690961e-01 +2.95221005e-02 +3.31238717e-01 -7.83940405e-02 +3.20600510e-01 +3.57641578e-01 -1.86965242e-01 +3.10817689e-01 -9.56152007e-02 -4.37978916e-02 -8.12757611e-02 +9.49697644e-02 -3.39520067e-01 +7.53005147e-01 +5.04496023e-02 +1.10937305e-01 +2.40272596e-01 -5.47517501e-02 +1.59701720e-01 +5.78191727e-02 +1.41847625e-01 -1.63465977e-01 +3.30415756e-01 +7.52600506e-02 -2.45380518e-03 +6.50234222e-02 -1.91495940e-01 -3.07306021e-01 -5.65117598e-02 -1.07517108e-01 -8.64171982e-02 -2.82411784e-01 -1.76612228e-01 -1.83267832e-01 +2.69385841e-04 -2.13157922e-01 -5.09081841e-01 -1.52031913e-01 -3.93413097e-01 -1.19019605e-01 +1.88325629e-01 -2.53783584e-01 -2.97991574e-01 +2.98927754e-01 -1.85690373e-01 +4.21272337e-01 -2.18613401e-01 -3.44349027e-01 +3.94256681e-01 +2.91975260e-01 -3.84341985e-01 -1.43203393e-01 +3.47590894e-01 +2.70206071e-02 -7.97728002e-02 -7.02096224e-02 -2.95516327e-02 -3.31441611e-02 +2.07389116e-01 -3.09594721e-01 -2.61150092e-01 +1.88931212e-01 +6.38391152e-02 +2.96044379e-01 +3.53673637e-01 -2.83503681e-01 +3.38093489e-01 +1.47931069e-01 +1.58474505e-01 -1.76035926e-01 -3.26599889e-02 +3.67072341e-03 +2.25938305e-01 -3.41659397e-01 -4.03391756e-02 +1.79354683e-01 +2.95306951e-01 -1.28867865e-01 +1.55286491e-01 -2.11213782e-01 +4.65644419e-01 -4.49980348e-02 +2.40207121e-01 +3.13299775e-01 -5.98309785e-02 -1.79552674e-01 +8.64636749e-02 -4.62613106e-02 +1.81594223e-01 +4.11617428e-01 -8.97449404e-02 +5.32031834e-01 +4.10031348e-01 +2.41982773e-01 +1.62633777e-01 -1.06794268e-01 +6.24348462e-01 -2.63608359e-02 +8.51833969e-02 +1.90396354e-01 -1.17228292e-01 +6.71095476e-02 -3.47410291e-01 +1.06354058e-01 -5.15274942e-01 -1.76782355e-01 +1.35287717e-01 -2.53915116e-02 -3.68039422e-02 +1.53914601e-01 +3.57789248e-01 -3.28502767e-02 -9.30401236e-02 -6.03313684e-01 -2.43490279e-01 +7.69121498e-02 -4.45064157e-01 +4.27345514e-01 -4.19524312e-01 -3.44397426e-01 -6.42020926e-02 +2.03750104e-01 -1.47644565e-01 +3.16935927e-01 
#Parameter# /_10 {50,50} 40001 ZERO_GRAD
