#Parameter# /_1 {2,50} 1601 ZERO_GRAD
+5.73650777e-01 -2.79608071e-01 +2.12545604e-01 +1.39003053e-01 -4.10266608e-01 +6.88289404e-02 +2.79564232e-01 +2.70675570e-01 -1.56802982e-01 +3.33757520e-01 -3.86817575e-01 -1.57920465e-01 -1.38800114e-01 +2.24218667e-01 +3.85453314e-01 -3.94215465e-01 -1.57672260e-02 +1.29821718e-01 -2.17710137e-01 -4.44789641e-02 -2.55138189e-01 +9.89322588e-02 +4.86048996e-01 -2.20847368e-01 -1.29714280e-01 -2.43520424e-01 -2.58080631e-01 -2.53980577e-01 +1.70832500e-01 -3.31364274e-01 +1.51234567e-01 -2.08216608e-01 -2.69796222e-01 +3.56677651e-01 +3.22300464e-01 -4.52181309e-01 +3.65683883e-01 -5.32828987e-01 -3.47087830e-01 +3.75367641e-01 -2.41826817e-01 +4.40470099e-01 -2.23170310e-01 +1.41503677e-01 +1.84278935e-01 -1.74541056e-01 -9.60893482e-02 +1.16662674e-01 -4.09218460e-01 +1.03648677e-01 -2.77515292e-01 +3.12850833e-01 -2.84185469e-01 -2.22112030e-01 -1.44487852e-02 +9.47663486e-02 -2.85695434e-01 +2.01635677e-02 -5.02963066e-01 +1.79236591e-01 +4.63779122e-02 +3.92821729e-01 -3.72245669e-01 +3.50633711e-01 +4.21383649e-01 +1.62936971e-02 -2.71034449e-01 -1.18806362e-01 +9.97476056e-02 +1.25315756e-01 +2.82363892e-02 +3.56892318e-01 -5.45488745e-02 +4.17598337e-01 +1.63036376e-01 -1.26324743e-01 +3.26750398e-01 +4.58852984e-02 -5.35332039e-02 +3.64615232e-01 +3.19271535e-01 -3.63209039e-01 -3.50861341e-01 -2.20340248e-02 -4.33568120e-01 +3.93280685e-01 -2.50597209e-01 +1.68490604e-01 +3.97970974e-01 +3.19723599e-02 -7.79024810e-02 +3.43312360e-02 -2.11298808e-01 -1.20138526e-01 -3.84238631e-01 +7.21247867e-02 -2.41579235e-01 +2.96417564e-01 -3.57079744e-01 +1.77881703e-01 
#Parameter# /_2 {2} 33 ZERO_GRAD
+8.58177304e-01 -1.02549493e-02 
#Parameter# /_3 {50,3} 2401 ZERO_GRAD
-2.33107939e-01 -3.32869977e-01 +2.54624397e-01 -2.31848240e-01 -4.45585549e-02 +3.59347105e-01 -1.90245539e-01 -2.93801636e-01 -6.39762431e-02 -7.31190592e-02 +2.43577704e-01 -3.06860089e-01 +1.15681008e-01 +1.35354891e-01 +3.24574858e-01 -1.58979252e-01 -3.01814705e-01 -7.48102441e-02 -6.60708547e-02 +1.08319707e-01 +1.65327013e-01 +1.13337830e-01 +3.06790322e-01 -1.46009579e-01 +1.33779734e-01 -3.76199931e-02 +1.07727334e-01 -1.58574015e-01 +1.34770885e-01 -7.82306045e-02 +2.33417302e-01 -2.08547443e-01 -2.89630473e-01 +2.93603331e-01 +3.71672928e-01 -3.79791915e-01 +3.03727239e-01 -4.27062549e-02 -3.78152013e-01 +6.40669912e-02 +2.68447280e-01 -2.26352572e-01 +2.50265837e-01 -1.91841856e-01 +1.37762204e-01 -5.30903302e-02 -1.43132299e-01 +1.24538958e-01 +2.26680964e-01 +9.56203789e-02 -6.64148182e-02 -2.49908239e-01 -2.09936239e-02 -2.86580771e-01 +2.50919405e-02 -1.54346555e-01 +2.54512906e-01 -2.92429298e-01 -1.03505544e-01 +1.68460280e-01 +8.08059350e-02 +1.16776146e-01 +2.80232310e-01 +2.95093566e-01 -1.61681119e-02 +3.51620615e-01 +1.95425197e-01 +2.98612475e-01 +3.01606148e-01 +3.48874629e-01 +2.68535800e-02 -1.27286315e-01 +2.11945008e-02 -3.57429028e-01 -3.77867788e-01 -2.90860653e-01 +3.52452785e-01 -2.71144301e-01 -9.65600181e-03 +1.28439009e-01 +8.10465664e-02 -2.94692904e-01 -1.71402216e-01 +2.26548970e-01 +1.14872500e-01 -3.91975105e-01 +7.89562166e-02 +1.34029180e-01 +1.96561545e-01 -1.16999298e-01 -2.07398072e-01 +2.74278194e-01 +2.21404269e-01 -1.63685799e-01 +1.06192060e-01 +3.80703270e-01 -2.22280622e-01 +2.71820903e-01 +2.02706307e-01 -1.11737631e-01 +7.53763393e-02 -2.50180602e-01 -1.66030362e-01 -3.03905934e-01 +2.04969421e-01 -4.15638745e-01 +5.72721623e-02 -5.49415089e-02 -5.09821530e-03 +3.44023138e-01 -3.10541019e-02 +9.23997685e-02 -2.78686702e-01 -2.74656236e-01 -5.02798744e-02 -4.37769383e-01 +2.81664103e-01 +1.09590888e-01 +1.87309816e-01 -3.55985135e-01 +2.17422009e-01 +6.51127100e-02 +1.31889671e-01 +2.70829238e-02 +8.66251811e-02 -4.25621495e-02 -3.88970643e-01 -2.58384615e-01 -2.64524460e-01 +2.90149778e-01 +1.58218164e-02 -1.43479958e-01 +2.40748152e-01 -1.63479466e-02 -3.56171280e-01 -1.53640509e-01 +1.08799085e-01 -2.59063572e-01 +6.69507459e-02 -2.71675348e-01 -1.89023733e-01 -3.24027956e-01 +2.83059418e-01 -8.12183172e-02 -3.17616671e-01 -1.55128792e-01 -9.26587917e-03 -1.50987282e-01 +1.64325550e-01 -3.59665930e-01 
#Parameter# /_4 {50,50} 40001 ZERO_GRAD
+2.58728974e-02 +3.64649855e-02 +2.90959720e-02 -2.51623154e-01 -2.84511566e-01 -2.19960615e-01 -9.30128898e-03 -2.56351471e-01 -9.77705121e-02 -2.96432804e-02 +2.76180148e-01 -2.01157749e-01 -1.50690973e-01 -1.41201466e-01 -1.83317304e-01 -2.84607053e-01 +1.16474897e-01 +7.68703669e-02 +1.19000718e-01 +1.36780962e-01 -2.94983536e-01 +4.66851220e-02 -1.46218553e-01 -5.43616302e-02 -2.03914717e-01 -1.77798420e-01 +1.48600072e-01 +1.18909113e-01 -2.71209359e-01 +4.09200899e-02 -1.00845046e-01 +9.21169817e-02 +1.57080248e-01 +1.16114222e-01 +7.60277510e-02 -2.39976421e-01 -6.60221279e-02 -1.10690847e-01 +1.57383069e-01 -4.13041979e-01 +7.86575228e-02 +2.83714067e-02 -1.34001521e-03 -8.93371850e-02 -1.02374945e-02 -4.54383940e-02 -3.59595451e-03 -1.16596773e-01 +1.30630374e-01 +1.29828513e-01 -5.81367463e-02 +2.39611819e-01 +1.23092040e-01 +1.65689334e-01 +9.09822285e-02 -6.29309416e-02 +1.68460146e-01 +2.56583214e-01 -7.12074041e-02 +2.15284596e-03 -3.49456593e-02 +4.00007397e-01 +1.82896376e-01 -2.54086759e-02 -3.47753018e-02 -5.79405203e-02 +6.87952936e-02 +1.08503282e-01 -9.95673016e-02 -6.54263794e-02 +7.28456378e-02 -2.58488566e-01 +7.43588135e-02 +2.43217051e-01 -4.44976203e-02 -2.66646910e-02 +1.51831180e-01 -2.17732966e-01 -1.22022055e-01 +9.79161412e-02 +1.79382786e-01 +1.30074471e-03 +2.28057448e-02 -1.90268442e-01 +8.02762061e-02 +1.62707213e-02 +2.29401082e-01 -1.65949687e-01 +9.45549160e-02 +3.66021931e-01 +5.82736358e-02 -4.99835983e-02 +9.38050374e-02 -1.51270986e-01 +3.33368838e-01 -8.91149137e-03 -4.33689468e-02 -1.08927310e-01 -4.71857423e-03 +1.35503292e-01 -3.69011581e-01 -1.96617261e-01 +1.00934245e-01 -2.05050871e-01 -7.74970353e-02 -2.65654862e-01 +2.93860491e-02 -2.46578515e-01 -1.08799741e-01 -3.16344291e-01 +1.14549361e-01 -2.08568230e-01 -1.36918370e-02 +2.50108957e-01 -5.52537963e-02 +1.06289357e-01 +4.99400049e-02 +9.73140299e-02 -1.05712503e-01 +1.35122746e-01 -1.39897406e-01 -2.56949425e-01 +6.56697527e-02 +8.63679161e-04 +1.47168159e-01 -2.52130866e-01 -7.78241381e-02 +1.34579718e-01 -3.80397998e-02 -6.72235712e-02 +2.06187680e-01 -1.54609844e-01 -2.21500963e-01 +1.28172144e-01 -1.17447056e-01 +1.38049752e-01 -1.49854317e-01 -1.51933745e-01 +1.38762027e-01 +1.02817915e-01 -6.89721480e-02 +1.23887524e-01 -7.18545094e-02 +1.10122412e-01 +7.45716691e-02 +2.61344165e-01 -3.13268378e-02 -1.65305585e-01 +8.37942287e-02 +5.57812452e-02 -2.52997339e-01 -2.06139475e-01 -8.56659114e-02 +2.08860844e-01 -3.11983466e-01 -2.77413100e-01 -2.59946078e-01 -3.36277515e-01 -1.67906910e-01 -3.53352666e-01 +1.90366998e-01 +1.70004785e-01 +3.41232121e-02 -1.69609264e-02 +3.73705551e-02 -1.24772094e-01 +1.08486228e-01 +1.14524722e-01 -1.35111406e-01 -1.66169137e-01 -2.68683702e-01 -3.26240920e-02 -1.55444220e-01 -1.82144091e-01 -5.91996312e-02 -3.14791828e-01 +3.73944044e-02 +3.30143161e-02 -1.07245378e-01 +5.43521298e-03 -5.47931567e-02 +1.79670397e-02 -2.31812537e-01 +2.11617664e-01 -1.92646161e-01 -2.94741124e-01 +2.40501352e-02 +3.11473705e-04 -1.03462465e-01 -1.28632084e-01 -2.14749977e-01 -4.29637469e-02 -3.86017637e-04 -2.94264585e-01 -2.30945230e-01 -1.55129686e-01 -1.26927316e-01 +6.35164008e-02 +2.58178353e-01 -1.13426603e-01 +4.17646728e-02 -3.42173755e-01 -2.10241437e-01 -2.43839830e-01 -1.99739873e-01 -4.33411986e-01 -1.85122192e-01 -9.55031142e-02 +1.55514985e-01 -3.20701569e-01 +8.99252668e-02 -1.77093670e-01 -1.76940948e-01 -1.79616153e-01 +2.00918451e-01 -5.25321588e-02 -2.33780712e-01 -7.96190053e-02 +1.04292415e-01 -1.46132708e-01 -6.07864186e-02 +1.36878714e-03 -3.12568992e-02 +1.56137958e-01 -3.21356833e-01 -3.28666508e-01 +9.87156555e-02 +3.14856358e-02 -2.65042067e-01 -1.99229568e-01 -1.26485810e-01 +1.05484664e-01 +1.07681423e-01 -1.90263703e-01 -1.85477331e-01 -2.08017468e-01 +2.10699756e-02 +5.58005050e-02 -1.81967273e-01 -3.52464318e-01 -1.93232715e-01 +4.44499627e-02 -3.94219488e-01 -6.66446239e-02 -1.39997512e-01 +6.24539144e-02 +1.41136587e-01 -1.71916798e-01 -1.20289236e-01 -1.93058491e-01 -4.02636528e-02 -3.24380904e-01 -7.05680326e-02 +1.65690348e-01 +8.35835487e-02 -3.51637602e-01 -2.34396774e-02 -1.63747847e-01 +1.36354759e-01 -1.50163263e-01 +3.46629560e-01 -1.04798347e-01 -2.92678446e-01 +7.03362897e-02 +1.81434229e-01 -3.80423889e-02 +7.86895230e-02 +2.60363758e-01 -2.26459652e-01 +3.28821808e-01 -2.76728123e-01 +2.35637903e-01 +1.32960901e-01 -2.79667191e-02 -2.87813723e-01 -6.75020292e-02 -9.81378555e-02 +9.77685824e-02 +1.22800462e-01 -1.80885598e-01 +1.73155785e-01 +9.72471610e-02 -2.27773279e-01 -4.64962609e-02 -1.15525804e-01 -4.86436300e-02 -3.16835493e-01 -2.70551682e-01 -1.54540300e-01 -3.34195256e-01 -1.28687605e-01 -1.17363833e-01 -2.08572615e-02 -2.06527293e-01 -3.16570550e-01 +1.03719950e-01 -3.52014601e-01 +2.16362961e-02 +1.46551877e-01 -2.52883136e-01 -2.38602869e-02 +3.23217064e-02 -1.24685921e-01 -9.68257114e-02 +5.56252822e-02 +1.83459893e-01 +1.41838640e-01 -1.46734277e-02 -8.03669989e-02 +3.02364975e-01 +6.93933945e-03 +8.20731670e-02 -2.46450990e-01 -4.12814356e-02 -9.79604498e-02 +1.07068375e-01 -2.96839327e-02 -4.13222387e-02 +9.06610861e-02 -1.26477644e-01 +8.32013488e-02 -6.27679527e-02 -2.26883560e-01 -2.29597524e-01 +2.19800621e-01 -6.25652745e-02 -5.31285517e-02 -5.71274990e-03 -1.94115132e-01 -9.18094143e-02 -1.76604837e-01 -3.21151726e-02 -1.72189519e-01 +1.09329827e-01 +7.36826211e-02 -1.71557724e-01 +3.11371237e-02 -1.83798924e-01 +1.37000442e-01 -9.51153487e-02 +1.99068308e-01 +7.75480941e-02 +9.52821150e-02 +1.06094338e-01 -8.26289132e-02 -1.48747340e-01 -9.38467383e-02 -8.58290568e-02 -4.41618301e-02 +1.11610033e-01 +1.42077222e-01 -3.49477457e-04 -1.95131719e-01 +2.71876599e-03 -1.08591624e-01 +4.43203300e-02 -9.82223600e-02 -1.45464122e-01 +1.40917793e-01 -1.61013991e-01 +5.18919416e-02 +2.58189023e-01 -1.12433903e-01 +2.19567478e-01 +2.62609094e-01 -4.49298583e-02 +2.24669576e-01 +1.05429240e-01 -2.24462360e-01 -5.27986214e-02 -1.68276265e-01 -1.57677084e-01 +1.38521388e-01 +1.76472649e-01 -3.31201196e-01 -1.90209180e-01 -5.91106042e-02 -1.23140775e-01 +6.88296258e-02 -8.45838264e-02 -1.40501529e-01 +5.08210063e-02 +8.74673650e-02 -1.80508390e-01 +2.01880485e-02 +7.27353990e-02 +1.29584381e-02 -1.21299259e-01 -3.50452610e-03 -2.79676139e-01 -2.28794336e-01 -2.83001006e-01 -2.66898990e-01 -1.59129463e-02 -1.74064487e-01 +1.67789117e-01 -1.28388703e-01 -2.84059085e-02 -2.34657884e-01 -5.22251949e-02 -2.43043333e-01 -2.85662144e-01 -1.72818735e-01 -3.38959336e-01 +7.67036006e-02 -8.53325129e-02 +1.81927189e-01 -9.66753736e-02 -4.10032459e-02 -1.78318322e-01 -8.37113261e-02 +3.59726846e-02 +2.71657761e-02 -1.08483061e-01 -2.11137757e-01 -1.43096387e-01 +1.85020596e-01 -4.55845147e-03 +1.18493035e-01 +5.22202179e-02 +1.39552891e-01 -3.61900330e-02 +9.17706117e-02 -4.41506766e-02 -1.13348188e-02 +1.25898942e-01 -3.91227715e-02 -1.29266158e-01 -1.92970827e-01 +4.18430492e-02 -3.48096639e-01 -1.29718492e-02 +5.32079972e-02 -5.89825287e-02 -1.84990570e-01 +1.25772506e-01 +1.35978788e-01 -6.13574721e-02 +1.90151855e-02 -5.01934327e-02 -1.62677392e-01 -2.27684096e-01 -3.37687045e-01 -2.74237216e-01 +5.22168204e-02 +3.57169323e-02 +1.17935250e-02 -2.70690173e-01 -1.60747007e-01 +2.53700316e-01 -2.34516174e-01 -1.94509372e-01 -1.94229051e-01 -1.75392091e-01 +1.11377910e-01 -3.01062018e-01 -1.30919918e-01 -1.06529035e-01 +1.65920913e-01 -2.74359107e-01 -5.08672856e-02 -3.18277925e-01 -2.43129984e-01 +2.34343961e-01 +1.98166922e-01 -2.93906406e-02 +1.01474509e-01 +1.66888088e-02 -1.79812983e-01 -1.32253692e-01 -7.83326849e-02 +1.69497475e-01 +2.64464974e-01 +1.99731171e-01 +1.69985145e-02 -3.00137907e-01 +1.14683062e-01 +2.55704939e-01 +2.06262961e-01 -1.96943972e-02 +1.01262011e-01 -1.15871429e-01 -1.63238674e-01 -5.59285358e-02 +8.14827234e-02 -3.40092242e-01 -3.44874829e-01 -2.02712268e-01 -1.18099451e-01 -3.69832397e-01 -6.71004653e-02 -1.97813258e-01 +2.45709848e-02 -3.42919827e-01 +1.13738351e-01 -1.77991968e-02 -3.33288670e-01 -2.12704748e-01 +2.69525141e-01 -6.32103756e-02 +2.78905004e-01 +5.82204163e-02 -2.97969311e-01 -1.80498093e-01 +1.77857459e-01 -1.79807305e-01 -2.76059508e-01 +8.19892809e-02 +1.89941898e-01 -1.06369399e-01 -1.50140477e-02 -3.70528661e-02 -2.49367595e-01 -1.59000501e-01 -1.65262654e-01 +1.79684550e-01 -1.49255684e-02 +1.30434483e-01 -1.45807102e-01 +6.27918020e-02 +3.24756764e-02 +2.40572289e-01 +1.07625887e-01 -5.64304404e-02 +1.75761618e-02 +2.25641116e-01 +2.48625740e-01 +1.66817367e-01 +1.19154364e-01 +6.51611239e-02 -2.53431112e-01 -5.11818789e-02 +4.95037176e-02 +3.75886634e-02 -1.93437934e-01 +6.79044658e-03 -2.16428235e-01 +7.97174573e-02 +5.49929813e-02 -4.58943360e-02 +1.54716179e-01 +6.52238056e-02 +3.07057947e-02 -1.03485182e-01 +1.42792225e-01 -2.46945217e-01 +1.68673754e-01 +1.92343995e-01 +1.65881038e-01 -1.16471551e-01 -2.81010836e-01 +1.34793177e-01 +1.04897253e-01 -1.44904631e-03 -1.59060389e-01 +1.23781696e-01 +1.93461761e-01 +1.06737882e-01 -1.88728511e-01 -7.80759305e-02 +2.87791222e-01 -3.58009607e-01 +9.04309079e-02 +9.44594815e-02 -6.26357123e-02 -1.10643893e-01 +4.60501723e-02 -1.97407439e-01 +8.35701674e-02 +2.48440266e-01 -2.97752291e-01 -1.99533626e-01 +2.14909110e-02 -2.13066727e-01 -4.08964530e-02 -1.03939407e-01 +9.83026698e-02 +2.65643090e-01 +2.02955022e-01 -2.51990080e-01 -1.26141027e-01 -1.09651282e-01 -1.86034173e-01 +2.21508801e-01 -1.01822719e-01 +8.92404467e-02 -8.26776326e-02 -1.28631145e-01 +5.99962883e-02 -3.22735876e-01 +2.44206458e-01 -2.09282488e-02 +1.31777853e-01 +1.28205985e-01 -1.02340803e-01 +8.73475298e-02 -1.53891250e-01 -5.25407791e-02 -1.41396344e-01 +6.74449503e-02 -3.35286230e-01 -1.05719417e-01 -7.96785429e-02 -1.25977680e-01 +6.23918511e-03 -1.35436922e-01 -1.61255181e-01 -7.70217329e-02 -2.44238530e-03 +8.20759013e-02 -1.16715208e-01 +3.34187932e-02 -2.29135513e-01 -6.30530939e-02 +2.53600180e-01 -2.75010139e-01 +1.36945352e-01 -1.35641679e-01 -1.03764266e-01 +1.10546477e-01 -3.32562804e-01 +1.83001608e-01 +1.37335688e-01 -2.07017392e-01 +7.21537769e-02 +7.53751919e-02 +3.72454412e-02 +1.81538031e-01 -6.74624369e-02 -2.49377921e-01 -1.99287474e-01 -1.58675108e-02 +1.48784921e-01 +2.57152408e-01 +1.04137681e-01 -1.09080546e-01 -3.27947021e-01 +6.69265091e-02 -2.01306313e-01 +3.26261707e-02 +1.26522541e-01 -1.45515531e-01 +2.37726524e-01 +5.55635281e-02 -8.72904435e-02 -8.02828446e-02 -9.85381659e-03 +6.50033355e-02 +2.31583402e-01 -4.74506840e-02 -1.02402762e-01 -1.25804022e-01 +1.83378980e-02 -1.19045772e-01 +1.11270562e-01 +2.43581086e-01 -1.49676269e-02 +8.77578184e-02 +1.93462908e-01 -9.43695679e-02 -5.09909317e-02 +3.81667996e-05 -8.97636563e-02 +2.26208642e-01 +5.08451052e-02 +2.44214669e-01 -2.04408199e-01 +2.27691457e-01 -1.90581400e-02 -1.08272187e-01 -2.28970483e-01 -2.45781735e-01 +2.19476610e-01 +1.59117877e-01 +2.91132897e-01 -7.86073431e-02 -1.58165291e-01 -6.52205423e-02 -1.52170569e-01 +1.83429480e-01 +2.77884126e-01 +3.82544324e-02 -2.19419509e-01 -5.90861738e-02 +1.95651218e-01 +1.67308405e-01 -9.48607251e-02 +1.47603974e-01 -6.33037761e-02 -1.36638656e-01 +1.41697437e-01 +5.76507933e-02 -4.66619954e-02 +7.61170834e-02 +2.16216773e-01 +3.37743074e-01 +1.39734700e-01 +1.49186319e-02 +1.37509242e-01 -4.82715033e-02 -6.54584076e-03 -2.02326179e-01 +7.27838650e-02 -3.14479291e-01 -1.04941890e-01 +1.31436408e-01 +5.81269152e-03 +3.08104744e-03 +9.25435871e-02 +1.18924556e-02 +5.20481840e-02 +8.98241252e-02 +7.36441836e-02 -1.75090387e-01 +1.62224814e-01 +5.84670156e-02 -4.07739542e-02 +1.07681379e-01 +3.72725576e-02 +1.28722697e-01 +1.52197108e-01 -1.41873121e-01 -1.40876159e-01 +4.02353518e-02 -1.39795691e-01 +1.41989261e-01 +1.33349463e-01 -1.72356591e-01 +1.97164744e-01 +1.00515351e-01 -2.04967469e-01 -9.53850616e-03 +1.25328591e-02 +2.07390398e-01 -3.26325856e-02 +1.77752122e-01 +1.88828424e-01 +2.01017693e-01 +4.13195193e-02 -2.17866540e-01 -1.51483834e-01 +7.64030963e-02 +1.66613445e-01 -1.60763562e-01 +2.09402144e-01 +1.53941095e-01 +3.01607072e-01 +4.70143929e-02 +5.39300218e-02 +1.18205175e-01 +4.47842292e-02 -9.76187512e-02 -3.27374130e-01 -9.47910845e-02 -6.54908419e-02 -4.48740683e-02 -1.42942980e-01 +3.05780377e-02 -4.45175469e-02 +9.21057165e-02 -2.53462911e-01 -2.04237625e-01 -1.97746471e-01 -1.65111795e-02 +9.31890830e-02 -6.12631626e-02 +1.72333285e-01 -2.33092457e-01 -1.78490743e-01 -3.02746203e-02 -9.24116522e-02 -1.02274470e-01 +2.42877044e-02 +2.68497015e-03 -2.68988669e-01 +8.10294896e-02 -1.52814671e-01 -1.25233844e-01 +8.99399966e-02 -2.87138551e-01 -1.69143468e-01 -9.34882648e-03 +1.89977080e-01 +1.01986649e-02 -2.30880845e-02 -3.17572206e-01 -1.35457039e-01 +6.30999282e-02 +2.28431702e-01 -9.56228152e-02 +1.59129098e-01 -1.38924569e-01 -8.70301649e-02 +2.43688915e-02 +1.67941630e-01 +1.06525846e-01 -1.62701949e-01 -1.02237061e-01 +2.38575310e-01 +2.56355762e-01 +7.85151646e-02 +6.48464039e-02 +1.40699655e-01 -1.25313908e-01 +2.27167293e-01 +4.05541994e-02 +7.11601004e-02 -1.24524556e-01 -1.16682120e-01 +2.40825504e-01 +4.25838232e-02 +1.28356051e-02 -1.39340341e-01 -2.14701533e-01 -8.33995268e-02 +2.84069449e-01 +1.84202954e-01 +1.10179178e-01 -1.33470938e-01 -6.68858215e-02 +3.15957695e-01 +6.91334456e-02 -1.20999284e-01 +8.70741531e-02 +8.91162902e-02 +1.73785195e-01 +1.54753655e-01 -3.30216624e-02 -2.09381849e-01 +2.26778135e-01 +2.15256125e-01 -6.70012012e-02 -1.68217614e-01 +1.35771647e-01 +6.92531765e-02 +1.60684779e-01 -4.77872603e-02 +2.37902761e-01 +2.32384354e-01 +2.75371879e-01 -2.40254238e-01 -2.27286696e-01 -3.90663818e-02 +1.43231288e-01 +3.41183364e-01 +1.54047400e-01 +7.63207227e-02 +1.07996874e-01 +1.58322603e-02 +2.66343564e-01 +1.04527175e-01 -2.12953970e-01 -2.76242495e-01 -2.03521222e-01 -2.55998939e-01 +1.06285356e-01 -1.39977694e-01 -1.25298994e-02 -6.55672476e-02 -1.63841844e-01 +3.28782469e-01 -6.57345280e-02 -2.25786150e-01 +3.15383792e-01 +2.50475705e-01 +1.46922395e-01 +1.35042608e-01 +9.28417593e-02 -2.24953189e-01 +1.58373773e-01 +7.12931156e-02 +4.10736306e-03 +2.34167024e-01 +1.72735333e-01 +6.49073124e-02 -1.32595479e-01 +6.73234388e-02 +1.72372207e-01 -4.82672937e-02 +4.33544256e-02 -2.34382093e-01 +1.76127538e-01 -2.22695656e-02 +2.20923319e-01 +9.00663808e-02 -3.70736830e-02 -1.69644460e-01 -1.65085047e-01 +8.81969854e-02 -2.62975752e-01 -5.34033366e-02 -1.34264246e-01 -2.07826290e-02 +1.04274258e-01 -1.33057788e-01 -1.84670508e-01 -3.19950551e-01 +6.10849783e-02 +6.70409650e-02 -1.68054521e-01 +3.32563400e-01 +1.06260911e-01 +7.00139776e-02 -6.89569488e-02 -9.48665850e-03 -5.01823463e-02 +1.71520442e-01 +1.70744941e-01 +2.04073548e-01 +1.22181013e-01 -6.13345578e-02 -1.77341849e-01 +9.59735066e-02 +1.25656202e-01 -1.51326627e-01 +1.10647619e-01 +1.26810685e-01 +1.54149115e-01 +2.05730215e-01 -1.71520859e-01 -1.49651505e-02 +1.47729546e-01 -4.31064032e-02 +1.86797217e-01 +2.99958318e-01 +2.25107998e-01 +1.81118727e-01 -1.39275178e-01 -2.95209642e-02 +1.58187002e-01 +3.28871667e-01 +1.27282754e-01 +1.86581254e-01 +2.47475818e-01 +1.08945213e-01 +3.89697224e-01 +1.13596506e-01 -1.16617000e-02 -9.86794829e-02 +2.09170893e-01 -3.90055031e-02 +2.05006078e-01 +5.39957806e-02 +9.48460773e-02 +7.78274313e-02 -6.48187250e-02 +1.79202855e-01 +3.41772884e-02 +3.80525365e-02 -7.57786185e-02 -7.65170902e-02 -3.37641239e-01 -1.60783023e-01 +1.58374533e-01 +4.39768210e-02 -2.17776731e-01 +6.03358038e-02 -1.12683177e-01 -1.45705584e-02 -2.46090591e-01 +1.61839604e-01 +2.89945364e-01 -2.65216500e-01 -5.60133569e-02 +2.33071551e-01 -2.77314186e-01 +1.42163694e-01 +9.44221094e-02 -1.07185833e-01 -1.41375765e-01 -1.25264063e-01 +9.27092135e-02 -2.15101585e-01 -2.20600963e-01 +4.61879410e-02 -1.51542202e-01 -1.08174630e-01 -2.47675627e-01 -1.27814844e-01 -1.79498829e-02 -2.08972860e-03 -3.35824043e-01 +9.27587003e-02 -2.41707295e-01 -1.31953493e-01 +1.57480000e-03 -6.40477762e-02 +2.88192421e-01 +2.93774195e-02 -3.31027150e-01 -2.29667112e-01 +7.85909314e-03 -2.00696081e-01 -3.25672805e-01 +1.41515404e-01 +4.90392335e-02 +1.03256352e-01 +3.90933976e-02 +2.39930712e-02 -1.37057960e-01 +4.14511338e-02 -1.77772582e-01 +1.68344349e-01 +6.23604108e-04 +2.17760801e-01 -1.11095697e-01 -1.44028172e-01 -7.50268102e-02 -2.24156275e-01 -1.91740301e-02 +1.33223146e-01 -2.87278652e-01 +1.10533774e-01 +1.85056910e-01 -5.78669384e-02 -1.69368595e-01 +1.76831141e-01 -1.04629649e-02 -1.46473050e-01 -8.20416585e-02 -4.95316945e-02 -1.90617831e-03 +5.10828048e-02 -1.07430592e-02 +2.61246473e-01 -2.64847189e-01 -2.49478236e-01 +7.44314445e-03 +2.70246118e-01 +4.63171937e-02 -8.67083371e-02 +2.56536864e-02 +1.90709814e-01 -1.98966470e-02 +2.59584516e-01 -2.00262472e-01 -3.08381855e-01 -1.05857559e-01 -1.16640247e-01 -2.40797624e-01 -1.27600297e-01 +6.97045326e-02 +2.60226905e-01 -7.47346580e-02 -2.36248970e-01 -9.68720242e-02 -1.11028194e-01 -3.84818353e-02 +1.64517522e-01 -2.30286926e-01 -3.42154086e-01 -2.77807295e-01 -2.60089397e-01 +9.92675051e-02 -2.35453732e-02 -9.81054232e-02 +4.99166362e-02 -4.89452295e-02 -2.58083910e-01 -2.02735722e-01 -1.51451766e-01 -8.08441192e-02 -2.68957675e-01 +1.60800070e-01 -1.93789303e-02 -2.19073415e-01 -1.11089475e-01 -1.05935946e-01 +6.29460812e-02 -1.54989854e-01 -1.28100336e-01 +4.79383320e-02 -1.99637771e-01 +1.90967359e-02 -3.32530111e-01 -1.84404641e-01 -1.12488583e-01 +2.33135954e-01 +6.75240159e-02 -1.06463321e-01 -1.86202794e-01 +2.25697294e-01 -5.38466275e-02 -1.15886167e-01 -3.40304613e-01 -3.48760039e-01 -1.94286734e-01 +3.96578126e-02 +6.94192871e-02 -3.94545317e-01 -2.03038499e-01 -3.16486627e-01 -2.76474565e-01 -2.51025230e-01 +1.10025732e-02 -3.21532071e-01 -1.73740044e-01 +1.10538520e-01 +6.17868342e-02 -4.82159927e-02 -3.46182436e-02 +3.45919997e-01 +1.71511516e-01 -6.17619194e-02 -1.10111386e-01 +3.81780297e-01 +1.48292616e-01 -2.26467792e-02 -1.83538288e-01 +7.76268467e-02 -2.50767559e-01 +3.36776257e-01 +1.26454622e-01 +5.73880300e-02 -4.07272903e-03 +2.40612611e-01 +1.58111677e-01 -1.09206706e-01 +6.62223101e-02 -3.81850004e-02 +2.15624034e-01 -2.55215645e-01 +1.69432357e-01 +2.83362299e-01 +3.68336648e-01 +1.06805563e-01 -3.64102386e-02 -1.47245124e-01 +2.14455500e-01 +4.44322042e-02 -1.14440978e-01 +2.35619187e-01 +1.69453397e-01 +1.84957925e-02 +5.09139970e-02 -6.75064772e-02 -1.12307735e-01 -2.17371341e-02 -1.33117676e-01 +2.65049458e-01 +8.66302401e-02 +1.46302357e-01 +7.77418911e-02 -8.40507895e-02 +4.13919836e-02 +5.83222024e-02 +2.33435273e-01 -1.12912171e-01 -1.27113596e-01 +3.07435375e-02 +1.41523154e-02 -8.11078921e-02 +1.13470234e-01 -1.23382762e-01 +8.35162476e-02 -2.97496885e-01 -1.68513432e-01 +1.37129351e-01 +1.86341912e-01 -1.91358984e-01 -2.62880802e-01 -1.54584065e-01 -1.93887085e-01 +2.58625150e-02 +1.50326982e-01 -1.33929476e-01 +2.05869079e-01 -2.27167711e-01 +1.14068970e-01 -1.19484998e-01 -1.37005553e-01 +9.64983404e-02 -1.80841148e-01 -4.63955626e-02 -2.87142664e-01 +1.66455090e-01 +2.29713157e-01 -4.54525910e-02 -1.65569991e-01 -2.03444555e-01 -1.70476481e-01 +1.85813561e-01 +1.44482315e-01 +1.64049014e-01 +8.84013399e-02 -2.07381174e-01 -1.50657222e-02 -2.10035264e-01 +6.76327124e-02 +1.72843456e-01 -1.06803656e-01 -1.81464270e-01 +4.71615344e-02 +1.40732348e-01 -1.57523245e-01 +8.54744241e-02 +1.22150667e-01 -1.38952956e-01 -1.53038323e-01 -8.08672532e-02 -3.66614796e-02 +3.79200540e-02 +1.98885426e-01 +1.35998055e-01 -1.45297706e-01 +1.69806425e-02 +1.16261892e-01 -1.29014164e-01 +1.92244247e-01 -3.44657227e-02 +2.80208498e-01 -2.74208367e-01 +6.49665967e-02 +4.01599854e-02 -3.64474505e-02 +2.56938726e-01 -1.68829232e-01 +1.62110329e-01 +1.47004426e-01 +3.01673949e-01 +8.62228125e-02 +1.96105331e-01 +6.04716502e-02 +4.09309752e-02 -1.00809462e-01 -2.27185979e-01 -1.51983360e-02 -4.18366157e-02 +1.04668923e-01 -3.21071781e-02 +1.08131811e-01 -5.21797836e-02 +1.96474791e-01 +1.58399448e-01 +1.83431625e-01 +8.65921676e-02 -1.10590443e-01 -5.51717505e-02 -1.85901061e-01 +1.65125445e-01 -1.71666861e-01 +4.38651033e-02 -1.20909952e-01 -1.44554615e-01 -2.45542541e-01 +2.60748118e-01 +7.19873458e-02 -3.12131327e-02 -1.20128438e-01 +1.54623501e-02 -2.26213075e-02 +2.74552613e-01 -4.16181944e-02 +1.04761648e-03 +3.17226321e-01 +2.90504962e-01 -1.15211800e-01 +6.10766001e-02 -1.29553288e-01 +3.19994479e-01 -1.95402503e-01 +1.09549679e-01 -9.48352590e-02 -1.64715387e-02 -6.83576688e-02 +1.17089190e-01 +2.38471389e-01 +2.28330731e-01 -1.24071926e-01 -1.34659916e-01 +4.14887518e-01 -1.45809315e-02 -3.43325526e-01 +1.45426616e-01 +2.26340100e-01 +2.76205659e-01 -1.10422023e-01 -2.74656355e-01 -2.27726642e-02 -3.78552377e-02 +4.01272066e-02 +1.31418154e-01 +1.72477700e-02 -2.58104861e-01 +2.96884179e-01 +1.66900173e-01 +6.04049489e-02 +5.83587959e-02 +1.48732439e-01 +5.84016182e-02 +7.41518885e-02 -2.71491468e-01 +3.24656293e-02 -4.69080312e-03 +4.67939489e-02 +2.58431554e-01 +1.01869084e-01 -2.60407440e-02 -2.27369249e-01 -6.39415681e-02 +4.47260290e-02 -1.76982865e-01 +1.94061741e-01 -2.32499674e-01 -1.53248047e-03 -2.43742034e-01 -2.80944332e-02 +1.57902375e-01 -2.37463847e-01 -2.69645721e-01 +1.95127696e-01 -1.98448554e-01 -2.26882696e-01 -3.98794264e-02 -1.69185638e-01 -5.16117215e-02 +1.75741658e-01 -3.63303907e-02 -2.06134617e-01 +2.42041096e-01 -1.22552864e-01 -6.74013747e-03 +1.04570329e-01 +1.16226338e-01 +1.78275220e-02 +6.94661960e-02 +2.02139124e-01 +2.24645332e-01 +1.11297980e-01 +1.12746648e-01 -1.03446543e-01 -7.28661641e-02 +2.03256667e-01 -5.38568981e-02 -9.66314450e-02 -3.26619118e-01 -2.27573052e-01 +6.24253340e-02 -3.12864222e-02 +4.03749943e-03 +1.54251885e-02 -2.26322174e-01 -1.28873989e-01 -5.95619678e-02 -4.92142178e-02 -1.53292879e-01 +4.61448990e-02 -4.71973084e-02 -1.66295230e-01 -9.34592038e-02 +1.63665023e-02 +4.28816080e-02 +3.40658903e-01 +1.29420161e-01 +3.66566449e-01 +3.47457498e-01 -1.53130755e-01 +1.10654302e-01 +9.41814631e-02 +2.54977643e-01 +1.81576863e-01 +1.96517572e-01 -2.77697258e-02 +1.94833785e-01 +1.97331443e-01 -1.10871814e-01 +1.56115904e-01 +2.94986516e-01 +1.03288926e-01 +1.81212962e-01 +3.20460558e-01 -1.00775070e-01 +1.61655545e-01 -1.61546409e-01 +2.76185572e-01 +1.43779963e-01 -8.89596790e-02 -1.77714244e-01 -1.92095920e-01 -1.24976054e-01 -2.09836289e-01 +6.24498799e-02 +6.20292164e-02 +9.43606254e-03 +1.35301441e-01 -5.75169809e-02 -1.66133881e-01 -2.12211892e-01 +6.27317354e-02 +3.18013608e-01 -1.84277907e-01 +2.36576051e-01 +1.70183569e-01 +1.97956413e-01 -1.88061431e-01 +5.04584499e-02 +1.08161792e-01 +1.82464778e-01 -2.57178962e-01 +1.36769593e-01 +2.05590487e-01 +2.20265508e-01 +1.54729679e-01 +7.96292648e-02 -1.46320790e-01 +1.87206790e-01 -1.09985769e-01 -7.55625591e-02 +6.22096360e-02 +2.20723659e-01 -2.13205740e-01 +2.68912822e-01 -8.98793563e-02 +1.19219825e-01 -4.25627306e-02 -7.25106075e-02 +9.35005322e-02 -1.87950134e-02 -1.19994730e-01 +5.00327908e-02 +8.59013349e-02 -2.61430591e-01 +2.06311584e-01 -6.66639656e-02 +2.79581100e-01 +1.27596170e-01 +1.18309982e-01 -2.10294142e-01 +1.53578281e-01 -3.33820358e-02 -1.34066179e-01 +1.74131498e-01 +1.50323018e-01 -1.22616746e-01 +3.57263267e-01 +1.71097219e-01 +1.76623240e-01 -3.18165198e-02 -5.83910570e-02 +1.10790946e-01 -3.73880938e-02 +5.86989475e-03 +1.97369218e-01 +1.01410270e-01 +4.85315323e-02 -2.36797705e-01 +7.74444640e-02 -8.22274387e-03 -3.35117392e-02 -1.57874618e-02 +6.44655712e-03 -2.12339878e-01 +5.93642108e-02 -2.73613393e-01 +5.12537844e-02 -2.94227570e-01 -2.16816217e-01 -1.61819831e-02 -2.04469621e-01 +3.92370671e-02 -1.39745712e-01 -8.41103122e-02 -1.38664588e-01 -2.07927883e-01 -7.38003897e-03 -2.35320032e-02 +2.95180008e-02 +2.33394101e-01 +8.74786973e-02 -2.22502157e-01 +3.39245200e-02 +8.39223564e-02 +9.56887938e-03 +7.20739588e-02 +1.32384986e-01 -8.22451413e-02 -1.05793089e-01 -2.35380247e-01 +9.29899141e-02 +3.91388014e-02 -7.45187551e-02 -2.13825479e-01 +2.38649664e-03 +6.09174632e-02 -4.45470922e-02 +9.57852304e-02 -3.30318101e-02 +7.41786584e-02 -9.52418819e-02 +1.41731083e-01 -1.74674481e-01 -7.39947557e-02 +1.18436307e-01 -5.15253469e-02 +5.70473038e-02 +1.93268165e-01 +1.97406918e-01 +1.39484197e-01 -7.82594532e-02 -1.77082554e-01 +3.26456994e-01 +1.77255020e-01 +2.01830506e-01 +1.85503781e-01 -7.38317594e-02 -1.06167093e-01 +1.45288974e-01 -2.09681168e-02 +4.92001884e-02 +5.23372218e-02 -2.70236611e-01 +2.04525977e-01 -9.14024375e-03 -1.24892723e-02 +1.89940482e-01 +1.46120042e-01 -1.49231069e-02 +3.03861052e-01 -2.80521847e-02 -2.68857032e-01 +3.81674141e-01 +2.07312241e-01 +1.30384564e-01 +1.71503425e-01 +3.47085327e-01 +2.01452479e-01 -1.84060454e-01 +3.85853685e-02 -5.21961376e-02 -8.23931098e-02 -1.81504890e-01 +2.24720780e-02 +2.71672141e-02 -2.50095487e-01 -5.04132584e-02 +2.31558189e-01 +6.76997602e-02 -1.62486825e-02 +1.67765208e-02 -6.95657954e-02 +3.25057991e-02 -9.22533795e-02 +1.81985587e-01 +3.64493653e-02 +2.89138734e-01 -1.10597223e-01 +3.97066660e-02 -9.34882313e-02 +3.77981886e-02 -1.50018306e-02 +4.93569411e-02 +1.30676076e-01 +2.19743639e-01 +3.50682475e-02 +1.72376260e-01 -5.52681088e-02 -1.29457295e-01 +5.91169335e-02 -1.33220255e-01 +1.25187486e-02 -2.25768358e-01 -1.06958173e-01 -1.71035320e-01 -1.56316027e-01 +1.59223303e-02 +1.30841270e-01 -2.14535713e-01 +1.59846976e-01 -2.91885495e-01 -1.73388571e-01 +4.00450267e-02 +2.12350294e-01 +2.45527685e-01 +1.70742899e-01 +1.46710485e-01 -3.43804270e-01 -1.91130772e-01 +1.05219319e-01 -1.13207959e-02 -1.72752813e-01 +8.62660706e-02 -2.91567501e-02 +1.12996370e-01 +1.29308194e-01 -4.17481214e-02 -6.07517622e-02 +4.88276146e-02 +2.03343213e-01 -1.86726779e-01 +9.05114517e-04 -1.64957970e-01 +1.49009496e-01 +2.52940767e-02 -2.61764247e-02 -3.16762000e-01 +4.59527783e-02 -4.50461963e-03 +6.32703817e-03 +1.42837867e-01 -4.35191207e-02 +2.40281522e-02 +1.06832504e-01 -2.32687667e-01 -8.16392526e-02 +9.12663992e-03 -3.97041291e-01 -2.39089027e-01 -7.13173822e-02 -4.61412519e-02 -2.00396270e-01 -5.31802922e-02 +7.93310925e-02 +6.04675710e-02 +1.95082694e-01 +1.16231158e-01 +9.13277566e-02 +1.52340025e-01 -1.22870781e-01 +2.56605685e-01 +1.02169856e-01 -8.76918435e-02 -1.43349171e-01 +1.19070970e-01 +1.67719901e-01 -2.52471775e-01 +9.22302529e-02 -2.13752776e-01 +1.19666018e-01 +1.10996410e-01 +4.09956053e-02 -1.00450416e-04 -1.33609071e-01 +1.52214170e-01 -1.45313457e-01 -3.56990278e-01 -1.58458408e-02 +1.48432419e-01 -2.38401443e-01 +1.63006827e-01 -1.83410048e-01 -1.75779298e-01 -2.20409140e-01 -2.64058441e-01 +1.54682383e-01 +1.13325156e-01 -2.26237047e-02 -7.84958303e-02 -1.74512133e-01 -6.05355017e-02 +9.48999822e-02 +2.58975983e-01 +2.71119148e-01 -3.47099975e-02 -1.86810866e-01 +2.63340652e-01 +1.23110607e-01 -9.86738354e-02 +1.06718026e-01 +2.32361376e-01 -9.73359197e-02 +4.85168584e-02 +9.31534469e-02 +2.91258335e-01 +3.52307446e-02 -1.63585007e-01 +2.41659507e-01 -9.64448228e-03 +4.99242805e-02 -2.34056991e-02 -3.20937455e-01 +1.88566014e-01 -1.97868973e-01 -2.76212901e-01 -1.28191426e-01 +2.91050300e-02 -1.07023995e-02 -1.84836477e-01 -1.09909780e-01 +8.34439974e-03 -8.79602507e-02 -2.61149526e-01 +1.43720239e-01 -5.15917316e-03 +1.61941275e-01 +9.52753872e-02 -2.83862203e-02 +1.14377327e-01 -4.83255498e-02 +2.33359799e-01 +2.84681469e-01 +1.84314400e-02 +1.32577911e-01 +1.25016198e-01 +2.24627808e-01 +3.13658178e-01 -2.23741263e-01 +2.62789011e-01 -2.07960382e-01 +4.96195108e-02 -6.29439624e-03 +1.02535272e-02 -1.62732348e-01 -1.13256305e-01 -1.61636561e-01 -2.83700436e-01 -1.88983195e-02 -1.14828631e-01 -1.32159829e-01 -1.58549860e-01 +7.41251558e-02 +2.02115670e-01 -3.81109655e-01 -2.77557611e-01 -8.24602395e-02 +4.39560786e-02 -4.53741252e-02 +8.50084797e-02 -1.40999854e-01 +1.43469229e-01 +2.16368705e-01 -3.25058430e-01 +3.10452096e-02 +8.06086063e-02 -1.97743535e-01 +1.19824111e-01 +5.54484054e-02 +1.41638462e-02 -9.45734382e-02 -1.30768463e-01 -2.53168762e-01 +1.95361853e-01 -3.85080166e-02 +2.50159204e-01 -5.88706285e-02 -3.73435579e-02 +1.39748827e-01 -2.45662510e-01 -1.47283286e-01 -1.63957760e-01 -3.14281672e-01 -8.93292651e-02 -1.49526447e-01 -8.58955756e-02 +1.77161321e-01 -3.20652515e-01 -5.62970452e-02 -1.85076565e-01 +2.32790224e-02 +1.40600160e-01 +1.04463890e-01 +1.30831644e-01 +3.12485456e-01 -1.13377415e-01 -1.76824972e-01 +1.82772532e-01 -9.68352854e-02 +8.25333968e-02 +1.98329300e-01 +1.87709048e-01 +1.45763993e-01 +1.25110209e-01 +3.53921503e-01 +1.15222849e-01 -2.03345314e-01 -1.25747889e-01 -1.18784919e-01 +2.49225870e-02 +1.35257468e-01 +2.37355337e-01 -2.25577980e-01 +1.23460889e-01 -2.52078380e-02 +6.82239383e-02 +6.02965392e-02 -3.21430825e-02 +6.27742112e-02 +1.73899621e-01 +1.47673920e-01 -1.78483799e-01 +2.01561078e-02 -2.03865826e-01 -3.12428474e-01 +1.29414037e-01 -2.64122576e-01 -1.03434280e-01 +1.72072172e-01 +1.13751151e-01 +8.32828358e-02 +2.03692883e-01 +1.74692959e-01 -2.87828982e-01 +8.02414045e-02 +1.95176780e-01 -9.71205235e-02 -3.02056130e-02 +2.50798948e-02 +1.76920176e-01 -9.93081257e-02 -9.44521511e-04 +2.08506837e-01 +2.52744358e-04 -1.02628365e-01 +1.71546414e-01 -1.82392135e-01 -4.35989490e-03 +1.66910857e-01 -2.63394773e-01 -9.04730335e-02 +3.11003119e-01 +2.08849549e-01 +6.41586930e-02 +9.36061591e-02 -1.29020303e-01 -2.63370633e-01 -1.35687679e-01 +1.99017942e-01 -5.56549057e-02 +1.55452818e-01 +4.64992784e-02 -4.23138365e-02 +1.94773704e-01 +1.19198039e-01 -2.08047450e-01 -1.48120508e-01 +1.14395586e-03 -9.26690325e-02 +2.12229446e-01 +8.17752909e-03 -6.63838908e-02 -1.34065980e-02 +1.53860986e-01 -3.22244138e-01 +1.13383181e-01 -1.76954716e-01 -1.78074881e-01 -2.01082900e-02 +1.37380570e-01 -1.79924816e-01 +4.09400905e-04 -1.42422587e-01 +1.11715972e-01 -5.42246513e-02 -1.35750487e-01 -1.12854205e-01 -1.06001236e-01 -6.94977418e-02 -2.42865905e-02 -2.60513842e-01 -1.29361674e-01 -8.52848291e-02 +1.22944631e-01 -2.60953099e-01 +3.24781798e-02 +1.80802424e-03 +1.15282901e-01 -2.74203330e-01 +2.01030686e-01 +5.65363504e-02 +1.94939271e-01 +6.68366700e-02 -1.20186955e-01 -1.09161370e-01 -6.05799891e-02 -1.74009681e-01 -1.33631751e-01 +2.27580458e-01 -2.92657524e-01 -2.27334023e-01 -1.03957146e-01 +1.64989278e-01 -1.48490220e-01 -5.89669831e-02 -3.35857347e-02 -2.47704357e-01 -3.43118399e-01 +6.37744367e-02 +1.40197694e-01 +7.49787241e-02 -2.40797788e-01 +1.67673871e-01 -5.02440520e-02 +2.98012737e-02 +1.43057048e-01 -2.64149427e-01 -2.81717293e-02 -9.17767212e-02 +1.89667478e-01 -2.34557152e-01 +2.62185615e-02 -2.28717104e-01 -1.98071688e-01 -2.16756880e-01 +3.00509464e-02 +7.27467686e-02 +2.37096444e-01 -3.07635874e-01 -1.57583892e-01 -2.57064104e-01 -1.02627762e-01 -1.32346645e-01 -1.48566946e-01 +7.95299858e-02 +6.69386014e-02 -1.03856809e-01 +1.10771336e-01 +1.07946545e-01 -7.50258490e-02 +2.34106898e-01 +1.12679221e-01 +1.74768995e-02 +2.45709449e-01 -8.20976868e-02 +3.60165685e-02 -1.92851931e-01 -6.17192984e-02 +6.78229844e-06 -6.64230958e-02 +2.30665863e-01 +1.29606947e-01 -1.99384704e-01 -7.05087781e-02 -6.49514273e-02 +5.84760383e-02 +1.13675781e-01 +9.20252725e-02 -1.01592951e-01 -4.53330651e-02 +9.88137871e-02 +1.15481295e-01 -2.80898307e-02 +9.76018887e-03 -1.93060070e-01 +1.51044741e-01 +4.64035794e-02 +2.60639012e-01 +2.86847919e-01 +1.26099527e-01 -7.33850989e-03 +5.36638573e-02 -6.81135580e-02 -1.32327735e-01 +1.26216665e-01 +7.44949952e-02 -4.35405187e-02 -8.40910077e-02 +2.63907820e-01 +3.08402777e-01 -7.02576786e-02 -9.75678265e-02 +1.80160418e-01 -1.02745190e-01 +4.39046323e-02 -1.80391341e-01 +1.86350197e-01 -3.62209380e-02 -1.52452439e-01 +1.34691134e-01 -1.23526044e-02 -1.47928610e-01 -1.12811439e-01 +8.24758932e-02 -2.98814595e-01 +1.43515214e-01 +2.51860768e-01 -1.02567084e-01 +7.23719448e-02 -6.03320673e-02 +1.03693016e-01 +1.97906092e-01 -1.28783388e-02 -3.99233818e-01 -1.18156429e-02 +2.77034581e-01 -1.33115798e-01 +1.85392991e-01 -2.42470667e-01 -4.25965041e-02 +1.03872120e-01 -1.39747784e-01 -3.34947109e-01 -5.41990399e-02 +2.55437165e-01 -1.71666786e-01 -1.17193483e-01 -1.76899612e-01 +1.20788947e-01 -1.67597488e-01 -2.93442011e-01 -1.07188471e-01 -1.02781653e-01 +8.55513439e-02 +1.52613580e-01 +1.18317660e-02 -1.16638370e-01 -2.52112746e-01 -1.36575103e-01 +1.00599803e-01 +7.24656805e-02 -1.05422907e-01 -1.16783053e-01 -8.22369233e-02 +3.34238112e-01 +3.33785824e-02 +1.83118969e-01 -3.85971256e-02 +3.30007792e-01 +3.06275040e-01 +2.08750460e-02 +8.08600336e-02 +1.02316082e-01 -4.07659821e-02 +3.20419639e-01 +2.36094221e-01 -2.37695307e-01 +3.33401076e-02 +1.20684639e-01 +5.38128503e-02 +1.84281155e-01 +1.53949872e-01 -2.33076006e-01 +8.80531296e-02 -1.83195010e-01 -1.92409635e-01 +9.72863659e-02 +3.35250020e-01 -3.02955955e-02 -1.23315178e-01 -3.09359133e-01 +2.13319473e-02 -6.31181747e-02 +8.11753795e-02 -2.66424809e-02 +1.26322582e-01 -4.57054488e-02 +5.18333465e-02 -7.68312290e-02 +1.86736673e-01 -1.57746762e-01 -6.99459016e-02 +2.87757903e-01 +2.57877350e-01 +6.36982024e-02 +6.83139730e-03 +5.28757125e-02 -7.51991645e-02 +1.66877702e-01 +3.79216522e-01 +2.62697279e-01 +1.78200483e-01 -1.84893291e-02 -1.94681719e-01 -1.80851832e-01 -1.98260352e-01 +1.06359506e-02 -3.30389619e-01 -1.96423933e-01 +1.47686228e-01 +9.13204849e-02 +1.46212444e-01 -2.72054046e-01 -3.17691751e-02 -3.68479162e-01 -1.23949714e-01 -3.84719558e-02 -1.56231532e-02 -1.52164698e-01 -2.93140411e-01 +7.49745697e-04 -1.43381700e-01 +3.38862538e-01 -1.39182031e-01 -2.06469223e-01 +5.08814789e-02 -2.84061641e-01 +5.29369414e-02 -1.52844042e-01 -2.56162792e-01 -1.28944382e-01 -8.75617191e-02 -8.98227021e-02 +2.99423430e-02 +1.07326746e-01 -1.75086752e-01 +2.94026211e-02 -8.66913646e-02 -2.09057018e-01 +4.39212434e-02 +2.07586840e-01 -2.34206989e-01 -2.36646578e-01 -2.19964877e-01 -2.87168268e-02 -2.30717301e-01 -1.07691869e-01 +7.53745809e-02 +1.18624061e-01 -2.04641283e-01 -1.44458553e-02 +8.50991830e-02 -2.09255412e-01 +8.08774158e-02 -1.49765508e-02 +8.88780504e-02 +2.02490054e-02 +6.59929514e-02 +8.94279107e-02 -2.79580414e-01 +1.77601010e-01 -9.33732465e-02 +2.07630813e-01 -3.28719586e-01 -6.34452999e-02 -1.87930346e-01 +1.05460577e-01 +2.00014457e-01 +1.05203807e-01 +6.36047274e-02 +1.58843949e-01 -1.47129428e-02 -2.03210153e-02 +5.30823991e-02 +4.01743986e-02 -1.62166059e-01 +8.38375837e-02 -3.25611472e-01 -1.23703010e-01 -9.40744299e-03 +1.80996493e-01 +4.97948490e-02 -6.45029778e-03 -2.85960436e-02 -2.52906024e-01 +1.48381516e-01 -8.35781079e-03 -1.41947836e-01 +1.06543772e-01 -1.44231364e-01 +1.49622619e-01 +2.35382482e-01 -1.71663508e-01 -1.30173847e-01 -3.31304967e-01 -1.90854117e-01 -2.46012628e-01 +1.70484692e-01 -2.40102902e-01 -2.12710634e-01 +1.61616411e-02 -2.43436426e-01 -9.86870155e-02 -3.52447391e-01 -2.03735352e-01 +8.17527771e-02 +3.08339931e-02 -3.69810164e-02 -1.85080603e-01 +2.69434065e-01 -1.30202413e-01 -3.75135988e-02 -2.19806403e-01 +1.14122294e-01 -1.85343698e-01 +2.58906215e-01 -2.01178804e-01 +1.37440473e-01 +1.01787597e-02 -1.65300921e-01 +1.56554028e-01 -1.21401642e-02 -7.24775493e-02 -9.73206460e-02 +3.63335833e-02 +1.30809918e-01 +1.26894325e-01 +3.67437303e-02 -3.11264127e-01 -2.14433417e-01 +1.67565584e-01 +1.39276236e-01 +9.69385207e-02 +1.97903857e-01 +2.41109788e-01 -1.23356432e-01 -6.48169145e-02 +1.20778553e-01 +9.20760781e-02 -2.67245501e-01 -1.53941050e-01 +2.40562454e-01 -2.05026567e-01 +1.33515850e-01 +1.54844329e-01 +2.61772484e-01 -6.78400919e-02 -2.64736146e-01 +2.05405235e-01 +2.00616494e-01 -1.91447660e-01 +1.04474187e-01 +1.37575552e-01 -1.89060509e-01 +9.58961621e-03 +2.43598670e-01 -2.25815251e-02 +1.99381784e-01 +3.05176765e-01 +2.40383938e-01 -1.11738704e-01 -1.22626521e-01 +5.88850155e-02 +7.79484538e-03 +3.05566415e-02 +7.44073614e-02 +2.28335172e-01 -1.23293810e-01 +9.56881866e-02 +2.91813940e-01 -2.79723983e-02 -1.87380269e-01 +1.02029361e-01 +8.01958293e-02 -2.40187030e-02 +1.37637943e-01 +1.13437355e-01 +3.76725018e-01 -6.47719204e-02 +1.55019155e-02 -2.81916082e-01 -1.95624530e-01 +8.87801275e-02 +1.02630734e-01 -6.23393729e-02 -1.10207811e-01 +4.56778258e-02 +2.77177185e-01 -1.48240596e-01 +2.00260341e-01 +1.14794217e-01 -1.28896743e-01 -1.13883689e-01 -1.23357795e-01 +8.57524574e-02 -8.83864388e-02 -2.01066118e-03 -3.56810428e-02 +9.49390009e-02 +7.51932934e-02 +1.97790250e-01 -7.46415779e-02 -2.21767709e-01 +2.42337614e-01 +7.25152716e-02 -1.37614176e-01 +6.01502657e-02 +1.97304353e-01 +1.83133800e-02 -2.40816534e-01 +3.27997774e-01 -1.52817979e-01 +2.33414173e-01 -1.42055690e-01 +2.23072857e-01 -1.82954445e-02 -1.04279734e-01 -1.14989258e-01 +6.38574511e-02 +4.01309542e-02 -2.32086554e-02 +2.29789913e-01 -1.40342250e-01 +2.31750205e-01 -4.30716015e-02 +1.19109787e-01 -2.59038836e-01 -5.34469113e-02 +3.16555351e-02 -7.72339031e-02 -3.11282724e-02 +5.71708232e-02 +2.67918527e-01 -2.86656559e-01 -1.65964682e-02 -5.92038445e-02 +8.23642835e-02 -2.03712702e-01 +1.57785520e-01 +2.96533033e-02 +2.28204966e-01 -1.54846031e-02 -7.25431740e-02 +1.60575613e-01 -1.95531920e-01 +1.09379934e-02 +1.56794056e-01 +1.27584144e-01 -1.17379874e-01 -2.10740864e-01 -2.37731621e-01 +1.64580554e-01 -1.18256405e-01 -6.46088645e-02 +2.30036870e-01 +1.60814300e-01 +1.44184977e-01 -9.88248214e-02 +1.11103266e-01 +9.08317938e-02 +2.62198567e-01 +8.41154903e-02 +6.80647865e-02 -1.38648942e-01 +3.90703976e-01 -1.21577308e-01 +3.27324010e-02 -9.82358381e-02 +1.84740558e-01 -1.16384864e-01 -1.84665751e-02 -4.17530118e-03 -1.13073334e-01 +3.91911298e-01 +1.18304513e-01 -1.64990753e-01 -9.27419364e-02 -9.64292884e-02 +1.71532258e-01 -5.48877940e-02 +1.86040848e-02 +1.33986384e-01 +2.71553457e-01 -5.28327748e-02 -1.83118492e-01 -6.53861165e-02 -2.86618043e-02 +2.39473864e-01 +6.18774556e-02 +1.09705858e-01 +1.62808746e-01 -4.93488349e-02 +6.99731186e-02 -2.47714221e-01 -9.77091566e-02 +1.20524950e-01 -1.23217203e-01 +3.67668986e-01 +1.95293441e-01 +3.16513628e-01 -5.68733402e-02 +9.02271420e-02 -1.10289808e-02 -7.89706185e-02 +1.79749671e-02 -3.24676931e-02 -3.03038359e-02 -1.66770652e-01 -3.13377857e-01 -4.48553078e-02 +2.67701354e-02 -1.91161871e-01 -3.44130471e-02 +9.16340426e-02 -3.92026007e-01 -3.10962051e-01 +8.68390203e-02 -3.73123921e-02 +4.10998091e-02 -1.42955348e-01 +1.36888668e-01 +4.44747023e-02 -6.96999729e-02 -1.24155670e-01 +2.22861066e-01 -1.06843136e-01 +8.22721049e-02 +1.47953019e-01 -3.97431254e-02 +5.57135604e-02 +1.86539724e-01 -2.48512596e-01 -1.19479567e-01 +1.80808753e-01 -1.83817029e-01 -2.16077790e-01 +6.20932803e-02 +1.02355108e-01 -1.47823423e-01 -2.20298618e-02 -1.75163582e-01 -2.12414548e-01 +5.52590266e-02 +9.93290395e-02 +4.38797772e-02 +4.77656983e-02 +8.28407258e-02 -1.58115011e-02 -1.28258631e-01 -5.81699982e-02 +2.02724129e-01 +1.94841608e-01 +7.32131004e-02 -1.79851010e-01 -1.34465814e-01 +9.19897333e-02 +2.51475990e-01 +5.02655692e-02 -1.25937119e-01 -1.01353869e-01 -2.18933210e-01 +4.46778312e-02 +1.17472135e-01 -5.33567853e-02 -2.80416068e-02 +1.50276735e-01 -1.61384508e-01 -2.25745719e-02 -1.90333545e-01 +1.28306299e-01 +1.90527320e-01 -2.04025075e-01 +1.65096402e-01 +8.79688635e-02 -1.94248427e-02 +5.48576079e-02 +2.09703129e-02 -3.86805050e-02 -1.80350929e-01 -1.59634039e-01 +8.50209594e-02 +1.59144342e-01 +1.49346560e-01 -8.79880115e-02 -2.51336277e-01 -1.53088301e-01 -5.80220344e-03 -1.97139248e-01 +5.55327684e-02 +1.86438695e-01 -1.65714603e-02 -2.52229482e-01 +2.52068788e-01 -3.29570062e-02 -1.47339016e-01 -2.95518376e-02 -1.44342363e-01 -1.85696110e-01 -1.30368769e-01 -1.29910812e-01 +1.68360308e-01 -1.40933961e-01 -1.04689337e-01 +2.09812313e-01 +1.36179253e-01 +1.36765223e-02 +1.17001988e-01 +1.65242180e-01 +1.37032941e-01 -5.18634766e-02 +6.28476292e-02 +3.76016796e-02 +2.55898565e-01 +2.32971117e-01 +6.91585317e-02 +3.22563231e-01 +1.08757399e-01 +2.21525840e-02 -2.50756908e-02 +1.72495350e-01 +1.14647463e-01 +1.02637559e-01 +1.19625449e-01 -7.52526000e-02 -1.47268459e-01 -4.78037782e-02 +2.74755299e-01 +3.86110187e-01 +2.15196796e-02 +1.92994535e-01 +6.45937026e-02 +6.97158277e-02 +5.17964549e-02 +2.25914091e-01 +1.31109402e-01 +6.89893588e-02 -1.98332980e-01 -7.33710602e-02 +3.26947033e-01 +1.32121876e-01 +2.10265771e-01 +1.74274985e-02 +1.29880086e-01 -1.05892710e-01 -4.77845930e-02 +1.78319290e-02 -1.19399406e-01 -1.76109523e-01 -5.71723394e-02 +1.99116066e-01 -1.82395265e-01 -1.26543894e-01 -1.28804639e-01 
#Parameter# /_5 {50} 801 ZERO_GRAD
+4.01605666e-02 +8.24069902e-02 -2.40566418e-01 -1.87116250e-01 -2.47281164e-01 -3.35245252e-01 -1.92209005e-01 +1.38639346e-01 -1.88933149e-01 -1.31014928e-01 +1.88750818e-01 +3.73487696e-02 +2.09848713e-02 -1.70781270e-01 -1.72990084e-01 -2.86334455e-01 -3.83279026e-02 +3.54778171e-02 -1.99425742e-01 +1.29269902e-02 +1.79502726e-01 +1.29297236e-03 -2.21582383e-01 -1.35806231e-02 -1.22302495e-01 -3.56561661e-01 +5.19170165e-02 +1.20649450e-01 +1.17515102e-01 -7.63391657e-03 +9.24705714e-02 -2.52078086e-01 -7.97658935e-02 +9.36232656e-02 -5.00008576e-02 -2.23675132e-01 -2.76137423e-02 +1.97819788e-02 -2.33225115e-02 +1.02732055e-01 +4.81414422e-02 -6.68542460e-02 -1.58613414e-01 -2.07525730e-01 -9.18223262e-02 -1.99997742e-02 -6.83780760e-02 +1.73266456e-01 +1.46369580e-02 +5.75935245e-02 
#Parameter# /_6 {50,3} 2401 ZERO_GRAD
-1.88741088e-02 -4.02489007e-02 +2.19815969e-03 +2.65341908e-01 +2.06965119e-01 -2.18195260e-01 -1.80056334e-01 +3.21426123e-01 -6.18560016e-02 +2.21250206e-01 +1.02137327e-02 -1.63588926e-01 -2.67642349e-01 +1.58592254e-01 +1.81879610e-01 -1.73558578e-01 +4.96324003e-02 +2.54889458e-01 -1.38847500e-01 -4.56958413e-02 -8.77028853e-02 +8.27866793e-02 +2.97827452e-01 +2.25358218e-01 +2.36093909e-01 +3.02188247e-01 -4.15366590e-02 +1.29254758e-01 +8.59252810e-02 -2.79645652e-01 -1.80577785e-01 -2.20106766e-01 -1.49874941e-01 +1.25411570e-01 -9.47623402e-02 +2.47086912e-01 -3.35994333e-01 -2.69993782e-01 -4.78462279e-02 -1.80523738e-01 +2.01923251e-02 -7.20897019e-02 -2.18330711e-01 -2.00814143e-01 +1.09011978e-01 -1.86741248e-01 +2.82559693e-02 -1.57803491e-01 +1.91007227e-01 -9.04383808e-02 -3.04604620e-01 -1.68803096e-01 -1.39493316e-01 -3.03515643e-01 -1.37867913e-01 +2.41982132e-01 -1.56594500e-01 -2.10573435e-01 -3.82231176e-02 -4.84861135e-02 +2.29995817e-01 -1.35913193e-02 -1.06277600e-01 +1.92008823e-01 -3.34489465e-01 +1.29784435e-01 +2.76263565e-01 -3.62864137e-02 -4.67905700e-02 -5.76267540e-02 -2.37699270e-01 -6.75620735e-02 +2.94214219e-01 -1.87384039e-01 +1.50455654e-01 -2.41861045e-02 -3.04606885e-01 -3.02172601e-02 +3.19062442e-01 -1.26550853e-01 -2.83940315e-01 +1.33828402e-01 -2.21489221e-01 +4.75320518e-02 +3.00800472e-01 +2.90010303e-01 -3.15427214e-01 +2.60940284e-01 -2.76250899e-01 +2.13018626e-01 +1.83441609e-01 +2.07102001e-02 -2.48943269e-02 +2.54394710e-02 -2.31217980e-01 +2.81943649e-01 -2.54767627e-01 -2.49327868e-01 -1.19402081e-01 +3.06242377e-01 +2.32696265e-01 +1.42778218e-01 +1.29717827e-01 +2.39315718e-01 -1.97958514e-01 -1.57133013e-01 -2.26265103e-01 +1.01807714e-02 -2.14338854e-01 +6.64758980e-02 +2.53378898e-01 -1.99151263e-01 -3.53940129e-02 +1.94232255e-01 -2.36657023e-01 -2.41547137e-01 -9.32014436e-02 +3.18329662e-01 -2.92653114e-01 +2.34640211e-01 +9.53923166e-02 -2.29332358e-01 +1.89797729e-01 +2.51092583e-01 -3.30319941e-01 +8.13529491e-02 -1.11522838e-01 +3.03914577e-01 +1.19350851e-02 +1.56792700e-02 -2.94840634e-02 +2.42966145e-01 -2.06969023e-01 +1.05516613e-02 -3.05118263e-01 +2.83317775e-01 -2.46392563e-01 -8.57913494e-03 +2.67464429e-01 -1.56395048e-01 -2.03854233e-01 +2.38232702e-01 +4.66511250e-02 -2.78045267e-01 -3.05659145e-01 -9.92300659e-02 +2.06291467e-01 +5.16648591e-02 +2.17557997e-01 +7.14754462e-02 
#Parameter# /_7 {50,50} 40001 ZERO_GRAD
-2.44679689e-01 -1.59263998e-01 -1.56219661e-01 -1.36699483e-01 +3.98466140e-02 -1.74021289e-01 +1.37474686e-02 -2.42264882e-01 +2.41535023e-01 +2.17647925e-01 -1.52775958e-01 +1.87951043e-01 +1.68278351e-01 -9.93086547e-02 +1.65625349e-01 -5.09832501e-02 +1.68117717e-01 -1.42214060e-01 +2.37699822e-01 -7.39409029e-03 -1.56313539e-01 +1.65890589e-01 -2.14728415e-01 -1.08148634e-01 -7.47869313e-02 +8.69429559e-02 -9.25003737e-02 +5.48912734e-02 -8.75453204e-02 +2.42067859e-01 -2.03356922e-01 +2.13765278e-01 +1.51013583e-02 +2.01200411e-01 -2.19285548e-01 +2.23686323e-01 +1.04645982e-01 +2.32067034e-01 +1.74588710e-02 -2.00265363e-01 +1.91387758e-01 +2.02274784e-01 +1.64621845e-01 -4.50038761e-02 +1.32375643e-01 -9.18649435e-02 -2.72282958e-03 -1.61438197e-01 +1.41795710e-01 +2.15349004e-01 +1.86372891e-01 +1.76960781e-01 -2.00219542e-01 -9.97512043e-03 -1.50287598e-02 +1.35043964e-01 -1.47205591e-02 -1.42766222e-01 +5.31885177e-02 +1.45464256e-01 +1.22960404e-01 +1.61209330e-01 +8.54477137e-02 +5.35560995e-02 +9.27765816e-02 -1.19161293e-01 +1.48424506e-03 +1.80351004e-01 -1.16447777e-01 +3.52127105e-02 +5.79842478e-02 +1.32492378e-01 +3.81405801e-02 +1.41614541e-01 -1.89018264e-01 +1.58716902e-01 +1.76801234e-02 +1.31158188e-01 +6.71566278e-02 -1.91854239e-02 -3.28385532e-02 +1.14699528e-01 +1.94268987e-01 -1.80015057e-01 -1.32648230e-01 +5.77002317e-02 -5.88782728e-02 -6.55427128e-02 +1.96960106e-01 -5.22410572e-02 -8.78872722e-02 +1.76706597e-01 +4.73828614e-03 +1.34362385e-01 -2.01360896e-01 -2.13391006e-01 +3.14435810e-02 +7.88692385e-02 +4.37592119e-02 +4.63042408e-02 +1.33427158e-01 -1.22196585e-01 -2.26741686e-01 -1.26148194e-01 -5.92899323e-02 +2.27989510e-01 -1.18323863e-02 -1.15362301e-01 -2.37423927e-01 -1.54610500e-01 -1.71012878e-01 +1.54991016e-01 -7.53357857e-02 -2.19931856e-01 +2.21489325e-01 -1.47972018e-01 -2.00871676e-02 +1.96897283e-01 -9.17432159e-02 -2.36093208e-01 -1.95996702e-01 +1.59113482e-01 +1.58083633e-01 +1.87862068e-02 -3.07236165e-02 +8.22075158e-02 -1.13303170e-01 -7.92096704e-02 -2.16061398e-01 -7.03666806e-02 -2.27188885e-01 -1.70955360e-01 +2.42277488e-01 -2.30892256e-01 -9.16073173e-02 -4.40928489e-02 +1.97899207e-01 +1.65778264e-01 +2.09833637e-01 -2.39117965e-01 +5.02633005e-02 -1.88090205e-02 +1.34388462e-01 -3.64394486e-03 -2.31997997e-01 -1.13142669e-01 -1.46944374e-01 -1.18337035e-01 -1.52906984e-01 +1.77050635e-01 -2.05551833e-01 -5.83555847e-02 -6.47803545e-02 -1.35845751e-01 +7.17087239e-02 +1.12951547e-02 -2.16177404e-02 +1.28411040e-01 +6.16135448e-02 +2.11332127e-01 -1.05365708e-01 +6.32390380e-04 -2.07982063e-02 +2.11377442e-03 +3.50847393e-02 -1.85395449e-01 -4.85668927e-02 +1.92268327e-01 +6.56394660e-03 -1.82525143e-01 -1.83494911e-01 -1.39948189e-01 -1.26875013e-01 +2.13655427e-01 +1.97216049e-01 -1.35455281e-01 -1.22385934e-01 +4.82438356e-02 -2.10190460e-01 +1.23285308e-01 +2.41307780e-01 -8.50191712e-03 -1.04130000e-01 -6.68689609e-04 -1.67592853e-01 +1.04136899e-01 +7.10845739e-02 -1.77121699e-01 -5.93680143e-03 +1.83187142e-01 +1.66317299e-01 -1.50996298e-01 -2.59037167e-02 -1.79024041e-02 +1.41323403e-01 +1.37872681e-01 +1.95332631e-01 -7.35466927e-02 -7.47689605e-02 +2.05339640e-02 +1.61255911e-01 -1.67786375e-01 +1.44974336e-01 -2.00999558e-01 -1.71814352e-01 +3.54774445e-02 -4.08676863e-02 +1.19829729e-01 +2.20380530e-01 -2.08087161e-01 -2.09766269e-01 -2.08799720e-01 -1.21513754e-02 -1.35904402e-01 +5.92059046e-02 +1.36280224e-01 +9.01456326e-02 -1.61372811e-01 +2.20209762e-01 -2.53438354e-02 -6.00043833e-02 +4.79791611e-02 +5.35382330e-03 +1.30618408e-01 +1.62911758e-01 -2.85855383e-02 -6.41526133e-02 +1.80778846e-01 -2.22269833e-01 -3.08468193e-02 -1.37760252e-01 -1.54218584e-01 +8.92136842e-02 -2.25377619e-01 +2.20380083e-01 +2.04352006e-01 +1.37082294e-01 +5.65292090e-02 -8.59672427e-02 +2.12015614e-01 +1.32127151e-01 +9.99443978e-02 +2.29690149e-01 -1.21689878e-01 +1.63103715e-01 -1.06138527e-01 -9.92342830e-02 -2.60275304e-02 +2.12717339e-01 -6.95411563e-02 -2.09267765e-01 -1.11261591e-01 -2.04643950e-01 -2.35098571e-01 +5.95335215e-02 +1.24658570e-01 -8.18841904e-02 +8.46574754e-02 +1.42197058e-01 -9.37748253e-02 -1.96781248e-01 +1.94885537e-01 +1.60049722e-01 -1.32176027e-01 +2.08323404e-01 -1.26266539e-01 -2.25509822e-01 -1.93864107e-01 -8.75699371e-02 +1.32840261e-01 -5.50578237e-02 +1.17293075e-01 -1.67695016e-01 +9.14646536e-02 +5.79158962e-03 +6.32269531e-02 +7.07779378e-02 +1.80566758e-02 +2.27470919e-01 +1.37810335e-01 +1.28586426e-01 -1.70088530e-01 +7.00745434e-02 -6.39532208e-02 +1.66185662e-01 -1.49899662e-01 +4.76745814e-02 -7.62430727e-02 -1.13912076e-02 +1.60608426e-01 -1.84661090e-01 +1.06238589e-01 -1.31094307e-02 -1.80448145e-02 +2.37204120e-01 +1.17296830e-01 -1.12744436e-01 +2.23829597e-02 +1.81909487e-01 +2.20528945e-01 +1.43740699e-01 +4.08019871e-02 -2.27677092e-01 +1.36126861e-01 -2.03773826e-01 +1.28406331e-01 -1.43275782e-01 -2.25686595e-01 +1.30440727e-01 -1.21894538e-01 +9.73016471e-02 -1.52169436e-01 -2.75546163e-02 +1.95805296e-01 -2.22201228e-01 -1.38862103e-01 -2.03987107e-01 -1.96535408e-01 +1.59949586e-01 +2.12389931e-01 +1.51697263e-01 -1.49628341e-01 +2.41657570e-01 -2.28901684e-01 +8.77083093e-02 +1.17078677e-01 -1.38851106e-01 -1.68172836e-01 -1.83721334e-01 +1.67028889e-01 +2.30460361e-01 +1.55147806e-01 -2.21388131e-01 +4.52906340e-02 +1.32327154e-01 -2.31202453e-01 +1.64414272e-01 -8.98562223e-02 -3.30671221e-02 -1.90775663e-01 -1.50102168e-01 +8.35634023e-02 +1.40122429e-01 +9.97659713e-02 -2.10769802e-01 +2.76497453e-02 +5.89954406e-02 -6.05613887e-02 +1.54377565e-01 -9.08863842e-02 -1.99009523e-01 -6.15851879e-02 +9.42320973e-02 +6.46734387e-02 -9.46817398e-02 -2.10931376e-01 -6.74908459e-02 -1.16834462e-01 +1.21986255e-01 +6.49987310e-02 +1.64413005e-02 +2.23970965e-01 +4.59902138e-02 -9.58441198e-02 +6.56609684e-02 +1.51568428e-01 -8.01068246e-02 +9.75386351e-02 -1.78897977e-01 +5.54306954e-02 -9.10970569e-02 +1.45259902e-01 -2.67838091e-02 -5.37033528e-02 -3.26963216e-02 +1.89203635e-01 -9.64091718e-03 +1.84956416e-01 -2.44905800e-01 -1.09124690e-01 +2.10690990e-01 -8.35907906e-02 +1.52456656e-01 +8.38811249e-02 +3.39625925e-02 -2.30475575e-01 -1.87682763e-01 -3.85320783e-02 -4.50501591e-02 +1.68610141e-01 -2.70257890e-03 -5.30431420e-02 +1.10381261e-01 -9.30953026e-02 -1.62427932e-01 -7.90397972e-02 -1.72298312e-01 +6.28000349e-02 +1.75642088e-01 +1.76072165e-01 -1.85346872e-01 -2.31598884e-01 +8.28996748e-02 -1.05869830e-01 +1.33493587e-01 +4.32405919e-02 +2.26481408e-02 -2.08285898e-02 -2.39241630e-01 +2.32303396e-01 -1.15528449e-01 -1.26366496e-01 +1.71726957e-01 -2.54694521e-02 -1.81854993e-01 -8.35439861e-02 +1.93073496e-01 -2.51805484e-02 -1.87299967e-01 -2.64957845e-02 +2.41386995e-01 +1.71132401e-01 -4.72881496e-02 -5.43228984e-02 -1.46359742e-01 -2.06875414e-01 -1.27559751e-01 -1.11252293e-01 -1.56859830e-01 -1.19661391e-02 -1.17108315e-01 +1.53493419e-01 +1.07902840e-01 -2.27859363e-01 -1.85649902e-01 +1.98944643e-01 -1.08135134e-01 -1.06116310e-01 -1.00145444e-01 -1.88816294e-01 -2.39302650e-01 -8.70710015e-02 -1.82600528e-01 -1.39874667e-02 +1.90353945e-01 +1.52192518e-01 -1.25512540e-01 -6.10941499e-02 -1.59305722e-01 +2.28898674e-02 -1.58507615e-01 +1.44550964e-01 -1.75399512e-01 +1.03501633e-01 +1.53081283e-01 -1.36632726e-01 -1.87709659e-01 -2.17106998e-01 -1.96839601e-01 +7.14130849e-02 -1.74656600e-01 +1.77286401e-01 +2.05906227e-01 -5.53709716e-02 -9.38203931e-02 +2.11466864e-01 -1.07548818e-01 -1.38062373e-01 +2.08055124e-01 -4.46067899e-02 -2.09063232e-01 +1.94145188e-01 +3.93554568e-03 +1.49145350e-01 +1.32424697e-01 +1.32000104e-01 -2.24207416e-01 -1.00457072e-01 +9.10170823e-02 +1.17533639e-01 -6.54008389e-02 +4.53263074e-02 -1.59725875e-01 -1.71797603e-01 +1.27543360e-02 +2.08699301e-01 -1.24622665e-01 +2.36638233e-01 -7.41161555e-02 -1.31156623e-01 -6.73407912e-02 -4.17435318e-02 +2.27914616e-01 -1.01855263e-01 +1.34186298e-02 -3.67333889e-02 +1.49149999e-01 +1.21284649e-01 -1.66579932e-01 -2.30350509e-01 -1.56557024e-01 +1.35574654e-01 -1.56031847e-02 +9.35382694e-02 -1.14036798e-01 -1.62322879e-01 +1.53087720e-01 +8.69534165e-02 -1.78357303e-01 +2.11134657e-01 +2.22878903e-02 +2.35427484e-01 -3.23536247e-02 +2.23656669e-01 +2.41417751e-01 +4.43068296e-02 -8.11736882e-02 +1.75444230e-01 +8.41304809e-02 +1.46211222e-01 -6.43592030e-02 +1.93979815e-01 +2.17167452e-01 -1.29224241e-01 +1.59175694e-03 +2.06766322e-01 -1.13066331e-01 -1.39138624e-01 +1.77943304e-01 +2.21406147e-01 -9.93102491e-02 +3.63327712e-02 -1.20612055e-01 +1.13874823e-02 -1.10123903e-02 +1.09235391e-01 +5.22160381e-02 +1.05001345e-01 -7.49194324e-02 -1.77311227e-01 -1.74236029e-01 -1.80519342e-01 -2.37244740e-01 -1.50757045e-01 +1.58059761e-01 +5.54548651e-02 -1.89819485e-01 -2.59769559e-02 +1.38334289e-01 -1.93276793e-01 +1.95830330e-01 -2.40952075e-01 -1.78378612e-01 -1.24084949e-02 +6.00955933e-02 +2.47410387e-02 -1.15956292e-01 -1.72738329e-01 -2.67039090e-02 +1.11044750e-01 +1.79189816e-01 +1.38180032e-01 +5.76297939e-03 +1.04092807e-02 +2.12317556e-02 -1.58971399e-02 -1.82188988e-01 -1.96613908e-01 +4.17099148e-02 +2.39440843e-01 -2.12301373e-01 +9.06517953e-02 -7.05375522e-02 -1.77633882e-01 +2.07512394e-01 +5.71997315e-02 -1.36708155e-01 +2.85811573e-02 +1.28136232e-01 +1.30234733e-01 +2.33868226e-01 +2.37177297e-01 -2.32973531e-01 +1.01639494e-01 +1.38816252e-01 -2.39335820e-01 +6.28817230e-02 -4.67975140e-02 -1.24573164e-01 -1.77787766e-01 -9.31432694e-02 +1.09506264e-01 -1.19318962e-01 -1.36341512e-01 +1.72852889e-01 -9.61691588e-02 +1.59728751e-01 -4.71591204e-02 -1.82919249e-01 -1.90133393e-01 -5.65725565e-03 -6.35476857e-02 +3.08071822e-02 -5.90187758e-02 -1.32428035e-01 -1.32875964e-01 -2.33702138e-01 +2.09125832e-01 +2.37848118e-01 -1.36427581e-02 +6.16625100e-02 -5.78739047e-02 -2.25463033e-01 -1.40886649e-01 -1.70225695e-01 +5.39910644e-02 +1.17062643e-01 +1.46938965e-01 +9.46099013e-02 -8.29090178e-02 +1.62892923e-01 +1.98076531e-01 +8.22035819e-02 +1.92598864e-01 -2.12731734e-01 -2.20552385e-01 -1.44690961e-01 -1.61969453e-01 +3.62506658e-02 +2.23037526e-01 -1.81700826e-01 -2.22123563e-02 +1.61454186e-01 +3.75197083e-02 -1.44886494e-01 +1.81917697e-02 -5.70881814e-02 -7.67619312e-02 -1.32730946e-01 +1.28799245e-01 +9.09394175e-02 +1.62287071e-01 +1.53730854e-01 -5.00404388e-02 -1.98933750e-01 +1.46100029e-01 -1.96164310e-01 +1.41072080e-01 -1.41763657e-01 -8.05612504e-02 +2.29791552e-02 +1.96078733e-01 -2.06540525e-02 +9.58812088e-02 -5.35735637e-02 -1.21585108e-01 -1.33417904e-01 -1.60104334e-01 -8.23989064e-02 -6.28369451e-02 +2.40897387e-02 -1.13524124e-01 -2.25584537e-01 -2.15461195e-01 -2.36448452e-01 -2.06976533e-01 +1.01807848e-01 +1.93826988e-01 -8.91977698e-02 -7.39565343e-02 +5.16259819e-02 -9.69620645e-02 -1.19059116e-01 -1.63418666e-01 +5.11975586e-03 +2.17208907e-01 -1.92367703e-01 -1.68050468e-01 -2.14023709e-01 +2.27824003e-02 -1.00174993e-01 -8.32962990e-03 -1.83203027e-01 -5.85958362e-04 +6.70973212e-02 +6.93349391e-02 -2.01867580e-01 +1.19064733e-01 +2.27118835e-01 +1.14781633e-01 +1.61542937e-01 +1.03018209e-01 -2.21656457e-01 -3.36608291e-02 -1.15275562e-01 +1.71346620e-01 +2.05823377e-01 -1.96389034e-01 +1.15846232e-01 +2.24408314e-01 +1.65930495e-01 -1.39454395e-01 +8.25554579e-02 -1.59834355e-01 +1.37684628e-01 +8.41642767e-02 -2.18014270e-01 +9.12909955e-02 -1.23377845e-01 +4.38601822e-02 -2.32130066e-01 -2.02430129e-01 -2.11377293e-02 -1.60048336e-01 +2.21518412e-01 -1.84388369e-01 +6.00789040e-02 +1.60639986e-01 +1.78923473e-01 -1.65983886e-02 +3.38869840e-02 +1.66831389e-01 -1.53934360e-01 -2.04661906e-01 +1.06264696e-01 -1.44211069e-01 +1.42150804e-01 -1.95604965e-01 -2.21400768e-01 +2.06686005e-01 +3.27105820e-03 -1.69644684e-01 +7.92629570e-02 -3.83187383e-02 -5.83575368e-02 -6.36621118e-02 -3.29092443e-02 +1.16582707e-01 +9.21472460e-02 +1.98900893e-01 +7.60659128e-02 +3.83230597e-02 +6.98985010e-02 +1.17874131e-01 +1.44588664e-01 +1.40268609e-01 -2.41006345e-01 -2.22307324e-01 -1.12850413e-01 -1.18984297e-01 -1.66009843e-01 -1.64834857e-01 +2.05638424e-01 +1.23904929e-01 -1.56402111e-01 +1.60478637e-01 -1.85611904e-01 -2.61676162e-02 +1.52641788e-01 -2.03752339e-01 -1.18520290e-01 -1.01313442e-01 +7.78162032e-02 -1.72427058e-01 -1.36710823e-01 -7.76485205e-02 -3.12937498e-02 +1.50037453e-01 +1.55542716e-01 +2.26720855e-01 +1.80541426e-02 +1.66385755e-01 -9.40511376e-02 -4.73352671e-02 -2.13643089e-01 +2.33457550e-01 -1.10155687e-01 +1.55856505e-01 +1.51116028e-01 -2.20240518e-01 -3.61966789e-02 +1.16674110e-01 +1.49405047e-01 +1.68796793e-01 +1.53215960e-01 +6.95027262e-02 -2.22341165e-01 -2.39136070e-02 +2.43537739e-01 +1.30052522e-01 -1.41615391e-01 +1.93445817e-01 -3.30283493e-02 +1.54665992e-01 -2.22020760e-01 +1.01098135e-01 -2.33022571e-02 +1.85174569e-01 +1.08771905e-01 -9.79946554e-03 -4.52743471e-02 -1.79568619e-01 -1.43980920e-01 +2.78497785e-02 -2.13979229e-01 +1.21403858e-01 +1.21780783e-02 +9.45669562e-02 +1.24772832e-01 +1.20780334e-01 +4.86560613e-02 +2.13738099e-01 +6.65414780e-02 -4.36879247e-02 +3.05522531e-02 -1.43317580e-02 -4.51231003e-02 +2.00999275e-01 +1.08880952e-01 +1.51636973e-01 -1.39381662e-01 +2.18394861e-01 -2.01547176e-01 +1.75907657e-01 -1.81364805e-01 +5.59033304e-02 +1.48951784e-01 +1.72985300e-01 -1.46354258e-01 -2.16778323e-01 -1.69461906e-01 -1.76421821e-01 -1.30913496e-01 -4.25998122e-02 -6.33578748e-02 -1.56542972e-01 -2.03016520e-01 -7.96149522e-02 -3.09328884e-02 -2.20344961e-02 -6.01461381e-02 +1.09998867e-01 -1.55545264e-01 +2.22487077e-01 +1.33698732e-02 +6.51714057e-02 +5.05896360e-02 +2.00549379e-01 +1.96584597e-01 -5.28876334e-02 -1.58166409e-01 -2.20402852e-01 -9.18378979e-02 +2.02313349e-01 +1.29877403e-01 -1.66982278e-01 -2.47140080e-02 +9.69229788e-02 +1.34697661e-01 +9.77060348e-02 +4.62545902e-02 -1.70178279e-01 -8.27108771e-02 +2.01480255e-01 -2.34270558e-01 -2.37004727e-01 +3.10003310e-02 +1.08470097e-01 +4.29596007e-03 +2.29584232e-01 -2.14188650e-01 +1.62181601e-01 +7.48998672e-02 -4.06847149e-02 +1.12782702e-01 +2.42372915e-01 +2.32080147e-01 +2.33585700e-01 +6.49680644e-02 -1.23781830e-01 +8.04403871e-02 -2.03221172e-01 +1.94183335e-01 +1.86320379e-01 +2.43050620e-01 -1.30440295e-01 -5.95221967e-02 -1.76822111e-01 -4.65613604e-02 -1.31710470e-02 +2.32166991e-01 -1.72356322e-01 +1.04546472e-01 -2.40941599e-01 -6.18974566e-02 +1.89752266e-01 -1.88947946e-01 -1.03778303e-01 +5.23331612e-02 +1.48479566e-01 +1.65013179e-01 -1.75671563e-01 -1.31657124e-01 +2.10678533e-01 +4.60052490e-03 -2.51729041e-02 -1.63387418e-01 +5.70387989e-02 +1.54165491e-01 +1.03958264e-01 -9.88805145e-02 -1.42111421e-01 -1.73745543e-01 +2.36693963e-01 +1.91563770e-01 +8.49419385e-02 -1.61523342e-01 -7.28361011e-02 -9.24479961e-02 -1.86242253e-01 +1.42829016e-01 -2.19214529e-01 +4.67368811e-02 +2.31258050e-01 +1.96268573e-01 -3.91098261e-02 +2.20485643e-01 +1.26218781e-01 -2.15653732e-01 -1.10479236e-01 -4.13584560e-02 +1.73612878e-01 -2.36939505e-01 +8.10024887e-02 +1.93636701e-01 -2.46032029e-02 +1.74206346e-02 -1.60138220e-01 +2.15036556e-01 +1.15553245e-01 +2.66085714e-02 -5.07998466e-02 +5.34786433e-02 +1.18195280e-01 -1.74394011e-01 +2.37929836e-01 +2.22540125e-01 +8.25848728e-02 -1.89077109e-02 +1.22733369e-01 +2.27438018e-01 -7.85028934e-03 -1.95891887e-01 +1.81176811e-02 -7.57367760e-02 +4.76424396e-03 -1.66612118e-02 -9.38826799e-02 -1.29400179e-01 -2.79180706e-03 +2.39387289e-01 -2.38085344e-01 +2.06677720e-01 +1.68887660e-01 +8.38694721e-02 -9.22029614e-02 -2.09646866e-01 +2.15386197e-01 -1.41467452e-02 +2.78296918e-02 +2.20197275e-01 +2.19212487e-01 -2.19036728e-01 +1.46318212e-01 -7.90088177e-02 +4.67739552e-02 -2.06862092e-01 +1.80331454e-01 -1.34328127e-01 -1.98929876e-01 +1.22174397e-01 -2.25895137e-01 -1.23176686e-01 +1.71612933e-01 +1.68852255e-01 -9.31709111e-02 +1.46237865e-01 -2.37360626e-01 +1.12269267e-01 -2.72631496e-02 +1.39457330e-01 -4.66457009e-03 +1.07815862e-03 +2.41671696e-01 -2.35975891e-01 -1.67803317e-01 +6.97381347e-02 -1.67680278e-01 +5.50380796e-02 +1.92591056e-01 +1.92084685e-01 -1.53460041e-01 -6.03136867e-02 +1.63560078e-01 -2.09822357e-01 +2.08826512e-02 +1.56625018e-01 +4.08900827e-02 -8.72865915e-02 -2.30749771e-01 -1.69487119e-01 -1.29599974e-01 +7.54742771e-02 -2.56558657e-02 +1.31728426e-01 +1.30120352e-01 +3.09031755e-02 +2.42263868e-01 -9.38131511e-02 -1.59567863e-01 +3.81608456e-02 +2.53592283e-02 +3.77862304e-02 -7.80393630e-02 -1.78222716e-01 -1.96326628e-01 -2.02465460e-01 +1.45272389e-01 -7.57530630e-02 -2.19515279e-01 -1.05897561e-01 -1.10402673e-01 -8.85229111e-02 +1.12289563e-01 +1.06444374e-01 -2.22722888e-02 -1.25331759e-01 -1.25276819e-01 -1.15956068e-01 +1.42061099e-01 +1.44053474e-01 +2.11648151e-01 -7.91665465e-02 +8.59910101e-02 +2.06922099e-01 +1.54234424e-01 +6.59302920e-02 +2.17255875e-01 -1.78313076e-01 -2.37752005e-01 +3.09606940e-02 +1.05713800e-01 -9.68746990e-02 -3.98309678e-02 +1.90274790e-01 -2.40394294e-01 +2.29514644e-01 +8.01460594e-02 -1.65616721e-01 +7.78208822e-02 +7.24004060e-02 -1.70661122e-01 -2.25788593e-01 +2.18310907e-01 -1.53226018e-01 -1.08821705e-01 +2.11473390e-01 +4.86757010e-02 -7.39685297e-02 +1.57667384e-01 -1.71786323e-01 +6.62347823e-02 +1.72559783e-01 +2.17834011e-01 -7.44388998e-02 +1.15392953e-02 -1.43728659e-01 +2.07102045e-01 -9.58980173e-02 +2.43896261e-01 +1.82298049e-01 +1.59469649e-01 -9.99241620e-02 -1.36917353e-01 +1.53402403e-01 -1.16988257e-01 +1.25125796e-02 -8.65197927e-02 +2.14542106e-01 +2.39553228e-01 -5.29717207e-02 -3.70781124e-02 +7.69860297e-02 -2.03612894e-02 +1.13478526e-01 +1.29379168e-01 +7.90826976e-03 -2.05407709e-01 +1.84902474e-01 -2.40739480e-01 -2.96279788e-03 +3.34473699e-02 +5.38229495e-02 +1.62605032e-01 -1.63879544e-01 -6.93022460e-02 +3.53469998e-02 +2.29137972e-01 -1.96645990e-01 -2.33138308e-01 -1.03540868e-01 -1.12932205e-01 +1.40741020e-02 +8.41870755e-02 +1.86632678e-01 -6.16227835e-02 +7.76639730e-02 -8.86243582e-02 +2.16326401e-01 -2.27419928e-01 -8.82790834e-02 +6.35921806e-02 +1.31976053e-01 +1.96748868e-01 -1.49578214e-01 +1.32156923e-01 +2.32357994e-01 +7.82243162e-02 +1.12136498e-01 -6.64323568e-02 -6.99566007e-02 +1.43067047e-01 -7.34786689e-02 +3.89867276e-02 +1.93376407e-01 +1.58624753e-01 -2.16118947e-01 -6.14179671e-02 +5.03260344e-02 -1.62001103e-01 -1.13193959e-01 -1.52702540e-01 +1.13529965e-01 -2.16863006e-02 -2.98138559e-02 -1.88478902e-01 -6.60077333e-02 -2.19951183e-01 +1.57696620e-01 +7.70472735e-02 -1.88960373e-01 -1.51443556e-01 -1.01155594e-01 +9.70395356e-02 +2.42919818e-01 -4.23166156e-03 +8.76232833e-02 +3.69920284e-02 -2.34532252e-01 -1.61318719e-01 +1.32315800e-01 +1.50961593e-01 +2.06870064e-01 -2.13702410e-01 +1.55076936e-01 +8.19900185e-02 -5.65807521e-02 +2.13217512e-01 +8.11202973e-02 +1.66745767e-01 +1.76703110e-01 +3.59912962e-02 -7.52301514e-03 -1.58621043e-01 -3.90311033e-02 -1.21428654e-01 +1.81875065e-01 +2.03658327e-01 -2.44709894e-01 +1.87137797e-01 -2.35560715e-01 +1.38242677e-01 -1.40589774e-02 -1.68014139e-01 -3.20166945e-02 -1.70099586e-01 +2.32550666e-01 +9.62022990e-02 +2.15277001e-01 +7.04432875e-02 -5.04776835e-03 +8.98546427e-02 -2.41093308e-01 -8.73555690e-02 +2.36691967e-01 +8.27850848e-02 -1.43759355e-01 +1.83584705e-01 -1.62677109e-01 -7.46131986e-02 +1.08408913e-01 -1.70525283e-01 +2.07693085e-01 -8.97162855e-02 -1.80818945e-01 -1.31807998e-01 -1.51731968e-01 +1.91700593e-01 -5.85841537e-02 -1.52808279e-02 -5.97604662e-02 +2.58206576e-02 -6.64432496e-02 -2.20924228e-01 -1.59452438e-01 -2.33781219e-01 -1.29492074e-01 -2.19058275e-01 -1.81107908e-01 +3.93977761e-03 +1.11031964e-01 -1.03569701e-01 -1.03415102e-01 -2.14063972e-01 -2.78374851e-02 -1.70402125e-01 -1.19949721e-01 -1.34026155e-01 +1.29709169e-01 +2.14377299e-01 -1.17577568e-01 -3.28230262e-02 +4.49166447e-02 -7.71587044e-02 +1.98044822e-01 +1.04100004e-01 -1.68084055e-02 -1.94504574e-01 -1.58729702e-02 +7.19768852e-02 +1.13133684e-01 +1.98415592e-01 -1.34317681e-01 -3.02199870e-02 +1.15406409e-01 +7.36276656e-02 -8.38781148e-02 -1.52594045e-01 +3.55503708e-02 +1.54324427e-01 +1.57059118e-01 -5.91195375e-02 +1.80857033e-02 +1.39000133e-01 +1.15545049e-01 -2.12737501e-01 +1.38290390e-01 -1.61471248e-01 -1.06457084e-01 +9.30803269e-02 -1.44827098e-01 -7.62463063e-02 +1.98709235e-01 +2.03826651e-01 +2.39620551e-01 -2.21926466e-01 -2.40679145e-01 +1.61128834e-01 -6.07098937e-02 -1.21333644e-01 -1.55149534e-01 -2.44198188e-01 -2.12005183e-01 +1.45559713e-01 +4.41293269e-02 -1.06020272e-01 -5.35441935e-03 -1.57742739e-01 -4.69564348e-02 +4.24631983e-02 +7.22610801e-02 -1.07713640e-02 +4.42252904e-02 +1.92962542e-01 +5.79818636e-02 +1.13580093e-01 +1.86967775e-01 -2.02615038e-01 +5.48966229e-03 +2.19289735e-01 +1.63923785e-01 -1.71450734e-01 +1.86286703e-01 -1.91241533e-01 -1.21348523e-01 +1.25777230e-01 +1.34421036e-01 -1.31914765e-01 +4.64223176e-02 -2.06211373e-01 -1.03346720e-01 +5.72526604e-02 -2.36324072e-02 +2.23957047e-01 +1.51156560e-01 +2.11617246e-01 +1.91635713e-01 -1.04644805e-01 +6.94335848e-02 +1.06031731e-01 +2.39652798e-01 +2.06616357e-01 -9.93525088e-02 -2.34362617e-01 -1.18663594e-01 -4.59460765e-02 -1.20247006e-02 -2.10797861e-01 +1.58053979e-01 +9.43065435e-02 -1.58959419e-01 -1.77340209e-02 +1.10837027e-01 +1.14355460e-01 -1.81718618e-02 +1.84949294e-01 -1.21897310e-02 +2.36600354e-01 +5.87887913e-02 -3.91745567e-03 +3.01177055e-02 +8.64256769e-02 -2.17517689e-01 -2.32747436e-01 -1.34273633e-01 +1.07961461e-01 +1.38835683e-01 +1.73521563e-01 -1.91126689e-01 -1.10010073e-01 +2.03564033e-01 +3.55913192e-02 -2.28280798e-01 -5.14453351e-02 -6.34704530e-02 +1.03137448e-01 +7.95901865e-02 -2.42391795e-01 -2.25225538e-02 -3.31674367e-02 +1.56057611e-01 -2.09828019e-02 -6.62252754e-02 +1.42317966e-01 -1.76624775e-01 +1.16491899e-01 -1.81391597e-01 +2.40064368e-01 +1.02647141e-01 +1.86314896e-01 -2.02145666e-01 +9.72044617e-02 -1.77292943e-01 -1.53095216e-01 -1.91873834e-01 +2.04599544e-01 -2.21680015e-01 -6.61681294e-02 -3.63074690e-02 -2.44559005e-01 +2.04599127e-01 +1.63357720e-01 -1.12413704e-01 +1.46028951e-01 -1.03270218e-01 +1.34491518e-01 +1.28909424e-01 -2.03418314e-01 +2.36832663e-01 +1.55362770e-01 -2.30882302e-01 +1.00565568e-01 +7.27636367e-02 -1.71833634e-02 +2.20100537e-01 +2.08098695e-01 -6.55765384e-02 -9.55876410e-02 -1.09209850e-01 +2.34051302e-01 +1.32090226e-01 -1.55118197e-01 -7.70160556e-03 +1.38857290e-01 -1.05340645e-01 +1.16550997e-01 +2.39623502e-01 -4.53263372e-02 +5.84307760e-02 -1.92525610e-01 +2.05973998e-01 -1.79523975e-01 -2.04410851e-01 -3.52719426e-02 -1.47013754e-01 +2.42314532e-01 -1.61862195e-01 +6.41140789e-02 -1.26828909e-01 -2.32341915e-01 -3.52760255e-02 -2.04736352e-01 +1.60045311e-01 +2.54833251e-02 -2.41374075e-02 +2.06120327e-01 -2.18433037e-01 +1.95058435e-02 +4.86756712e-02 +1.59789160e-01 -7.42276609e-02 +2.20046505e-01 -3.97877991e-02 +8.97086710e-02 -2.02964187e-01 -2.23263621e-01 -2.27491856e-01 -1.18759736e-01 -1.88424736e-01 +5.33791631e-02 +1.38699263e-02 +5.12086898e-02 -1.95786506e-02 +1.34496376e-01 +1.31735876e-01 -1.99186549e-01 -2.19065070e-01 -6.63506985e-02 +2.28434846e-01 +1.80128798e-01 -1.79905057e-01 -2.37311110e-01 +9.90989655e-02 -1.47111401e-01 -1.76716745e-02 +1.12244263e-01 -1.35312051e-01 +1.43277004e-01 +2.05577120e-01 +6.79633766e-02 -1.74354672e-01 -9.46375281e-02 -5.63918948e-02 +1.58087060e-01 -1.68475717e-01 +2.22863451e-01 +1.29327670e-01 +1.93478242e-01 +2.42248341e-01 +2.34581277e-01 +8.23953301e-02 +8.25522095e-02 -1.02095008e-01 -9.12227482e-02 -6.73886836e-02 +6.60498589e-02 -9.06403810e-02 -4.35754657e-04 +6.59034699e-02 +9.61561948e-02 +1.24876574e-01 -7.45522082e-02 -2.13599414e-01 -1.29415512e-01 -8.86008441e-02 -1.18884012e-01 -2.30978608e-01 +1.41517416e-01 -1.27249360e-02 +1.95650175e-01 -1.99160054e-01 -1.81450784e-01 -2.31419623e-01 +6.83710128e-02 +1.55848414e-02 +2.01514378e-01 -7.34367669e-02 +2.01772109e-01 -2.12885559e-01 -1.82370529e-01 +8.81458670e-02 -2.22156540e-01 +9.04135257e-02 -2.27880329e-01 +1.04610100e-01 -2.03755885e-01 -1.90724835e-01 -1.74974799e-01 -2.03134418e-01 -8.07110965e-02 -1.16081387e-01 -2.24441007e-01 -3.76127660e-03 -2.02944651e-01 +1.88326135e-01 +1.18901581e-02 -1.46246299e-01 +9.83836502e-02 -1.48733974e-01 +1.99377909e-01 -6.10176027e-02 +2.26192921e-02 -1.85874254e-01 -1.30088657e-01 -6.61729872e-02 +1.16742924e-01 -1.92128360e-01 -1.38929427e-01 +1.23447374e-01 +1.21862814e-01 +5.26815504e-02 -2.12102965e-01 +1.07890889e-01 -1.30626649e-01 +2.36220613e-01 +1.53264984e-01 -1.57834888e-01 +2.24701315e-02 +1.13484070e-01 -1.55375302e-02 +2.36459032e-01 +7.90457278e-02 -5.45886457e-02 -7.81151503e-02 -1.66542605e-01 +4.44036573e-02 -8.50076079e-02 +1.27950594e-01 -4.01065797e-02 +2.44592384e-01 +1.61419958e-02 -1.31515592e-01 +1.50794104e-01 +7.96785206e-02 +1.08919844e-01 -1.51920378e-01 +1.23532161e-01 +1.13868564e-02 +2.35866264e-01 -2.17903361e-01 +1.13047346e-01 -4.92322445e-02 -1.21413641e-01 +1.85588226e-01 -7.51440674e-02 +2.28440717e-01 -8.34075660e-02 +1.79056689e-01 +1.21383324e-01 +9.95760113e-02 +2.18859211e-01 +1.83181718e-01 +9.52544063e-02 +1.14469454e-01 +1.38266936e-01 +5.58786541e-02 +1.36319414e-01 -2.04085678e-01 -1.83336988e-01 +2.21060365e-02 +1.14660397e-01 -1.69242740e-01 +6.81116134e-02 +8.73106569e-02 -8.95453840e-02 -2.44020790e-01 -2.37032369e-01 +1.32434413e-01 -2.00487524e-01 +2.21811160e-01 -1.16093814e-01 -1.29797071e-01 -8.03591013e-02 -1.27240792e-01 -1.60721496e-01 -4.11289930e-02 +1.37898281e-01 -5.90639561e-02 +1.82880148e-01 -9.06931907e-02 -2.02220678e-03 +1.72494799e-02 +5.03035039e-02 -1.75114930e-01 +8.70817453e-02 +9.78283733e-02 +1.41559139e-01 -1.77416325e-01 +4.98727709e-02 +9.47903544e-02 -2.23457068e-02 -5.04363179e-02 +2.22289994e-01 -2.49837041e-02 -3.95295918e-02 +4.38667685e-02 +1.57322958e-01 +1.51303306e-01 +2.01392993e-01 +2.26524636e-01 +4.14221436e-02 +2.97426730e-02 +5.00934869e-02 +1.03729650e-01 +1.56336620e-01 +4.29960340e-02 +1.05264530e-01 +6.66766614e-02 -2.48917937e-02 +2.22709328e-02 +1.09116420e-01 +3.13455909e-02 -1.95033208e-01 +2.13140711e-01 -1.24185063e-01 -8.48387927e-02 -2.80370414e-02 -6.02044612e-02 +1.12564281e-01 +6.14336878e-02 -7.52686709e-02 +1.59778133e-01 +1.65931061e-01 +1.08159378e-01 +1.78507134e-01 -2.25812584e-01 -1.33274168e-01 -2.10546404e-01 +1.09744594e-01 +1.05649576e-01 +1.37258619e-02 +1.09059498e-01 +1.74282596e-01 +2.07236394e-01 -2.39570931e-01 +1.75009295e-01 -1.69783264e-01 +1.29322246e-01 +2.19944999e-01 +1.34614661e-01 +9.57988650e-02 -1.79958552e-01 -9.83570963e-02 -2.62858868e-02 -8.47665817e-02 -1.08203560e-01 +5.79377264e-02 +1.01482555e-01 +6.43628389e-02 +2.00084046e-01 -1.79130778e-01 -1.62519544e-01 +3.84608656e-02 +3.40470821e-02 -1.41977504e-01 -1.01340175e-01 +2.02515557e-01 -9.61132199e-02 -4.75947708e-02 -2.37975836e-01 -1.42606854e-01 +1.69464871e-01 -4.75371182e-02 +2.23292246e-01 -9.26656574e-02 +9.11016017e-02 +1.99917451e-01 -6.39666766e-02 +5.88700175e-04 -2.17804894e-01 +1.79207340e-01 +2.08118007e-01 +8.51506144e-02 +1.43691704e-01 -1.90970302e-02 +1.49425417e-02 +1.08199909e-01 +6.85029775e-02 +3.47402543e-02 +9.01971310e-02 +5.63887209e-02 -1.46811932e-01 +1.84988245e-01 +1.73741430e-02 -1.25286013e-01 +1.03142038e-01 +4.84742671e-02 -8.66100639e-02 -2.20824838e-01 -1.56957507e-02 +2.26638839e-01 -1.34375110e-01 -1.06842950e-01 -1.41306698e-01 -1.40886605e-02 -1.89331234e-01 -9.49425250e-02 +1.91518798e-01 +1.46575257e-01 +8.67304951e-02 +1.32009789e-01 +2.09602013e-01 -1.28273129e-01 +8.51800293e-02 -1.86148822e-01 -2.07576275e-01 -3.82351726e-02 -5.78078181e-02 +2.96033174e-02 +1.07230708e-01 +4.91013676e-02 +2.15454534e-01 -1.85652822e-02 -4.22943830e-02 -4.33464497e-02 -2.14556560e-01 +1.40513346e-01 +1.48756802e-03 +2.27911070e-01 +4.45461273e-03 -5.25214225e-02 -1.34662181e-01 -9.15657729e-02 +9.43510681e-02 +1.83999464e-01 +2.12710515e-01 +1.52909800e-01 -1.90286130e-01 -1.16002992e-01 -8.51498544e-02 -2.08660871e-01 +2.08979264e-01 +1.13739774e-01 -1.20924301e-01 -1.95184067e-01 -1.74329519e-01 -3.31117362e-02 -5.28002381e-02 -9.65074450e-02 +1.98225528e-02 +1.30552396e-01 -2.40242094e-01 +2.02945188e-01 +1.00020215e-01 +9.77588743e-02 +1.19523481e-01 -2.47661024e-02 +2.54158676e-03 -1.06879443e-01 +1.38796493e-01 +7.26251751e-02 -1.74555182e-01 +2.16022804e-01 +1.44238025e-02 -2.17641801e-01 +2.86138505e-02 +2.04252496e-01 +1.70588210e-01 +2.33882263e-01 +5.51633984e-02 +4.02365178e-02 +1.19014457e-01 -8.56888890e-02 -2.41151005e-01 -1.98664725e-01 -1.91194043e-01 -5.01107872e-02 -1.15088195e-01 -1.83122575e-01 -2.67806351e-02 +6.01838678e-02 -1.61731437e-01 +1.66352078e-01 +2.28584781e-01 -6.51698261e-02 +2.43893668e-01 -2.31910601e-01 -3.91920358e-02 +1.75743714e-01 -1.87136590e-01 +1.12240061e-01 +1.02541894e-02 -8.78006518e-02 -1.05629966e-01 -7.75615871e-03 +3.56934965e-03 +1.35361686e-01 -9.79865193e-02 +1.76329568e-01 -1.67792141e-02 -1.38459891e-01 +1.36754796e-01 +1.43119648e-01 +1.32069439e-02 +1.62333503e-01 +2.01187029e-01 -4.86041009e-02 +4.86870259e-02 +1.39049694e-01 -1.60142764e-01 +2.15237394e-01 +1.84078529e-01 -8.90503973e-02 +1.65991262e-01 -2.42067873e-02 -9.16301459e-02 -3.41569930e-02 -1.38265848e-01 -2.22580031e-01 +1.56288937e-01 +1.78670391e-01 -1.12266988e-02 -9.55446362e-02 +1.15360096e-01 +4.39015180e-02 +1.73423737e-02 -7.73198456e-02 +4.29052860e-02 +1.64330259e-01 -3.70341837e-02 -5.62670827e-02 +1.75714642e-02 +2.11625114e-01 -9.58482921e-02 -1.67753845e-01 -2.18131259e-01 -2.40079120e-01 +1.24034449e-01 +8.90813768e-03 -5.76991141e-02 -1.66080520e-01 -1.68307871e-01 -2.06830680e-01 -1.43487036e-01 -2.40928084e-01 -1.79390758e-02 -2.35203594e-01 -1.57762751e-01 +2.08571896e-01 +2.05219045e-01 -1.65522933e-01 -2.32313320e-01 +9.22200233e-02 -3.06522250e-02 -3.87825668e-02 -1.27332553e-01 +2.16626301e-01 +1.82796851e-01 +2.02110276e-01 +1.12255827e-01 +2.12437361e-02 -1.56755537e-01 -1.24616429e-01 -6.83822036e-02 -8.90645981e-02 +1.03138238e-02 +1.90672502e-01 -2.44606435e-02 -4.36837375e-02 -2.31412143e-01 -3.07279825e-02 +1.77903727e-01 -1.37128800e-01 -1.25892371e-01 +6.96251541e-02 -8.01161975e-02 -6.66449964e-03 -1.92378730e-01 +1.77117005e-01 +2.38879517e-01 +7.88100064e-03 -2.42644653e-01 -1.54565662e-01 +7.85126835e-02 +1.96733609e-01 +9.11490768e-02 -2.35635802e-01 +4.47637886e-02 -1.00397915e-01 -1.32417113e-01 +1.02824554e-01 +8.08069259e-02 +7.05354065e-02 -2.01693714e-01 -1.44458354e-01 +8.68370086e-02 +4.62954789e-02 +2.06924811e-01 -4.59450036e-02 +2.28287652e-01 -1.26326352e-01 +1.22799441e-01 +6.29367381e-02 -1.15122855e-01 -1.91630319e-01 -1.81429923e-01 -7.72037506e-02 +3.41702253e-02 -1.10352039e-03 +6.21172041e-02 -1.82630569e-01 +2.42343590e-01 +8.09605867e-02 -2.67913640e-02 -1.71613425e-01 -7.85125196e-02 +2.27969736e-02 +2.36133412e-01 +4.93784994e-02 -1.72898769e-02 +4.11930829e-02 -2.28531793e-01 -1.30902678e-02 +1.51549980e-01 -1.71935365e-01 -2.42611408e-01 -1.86940536e-01 +1.64301768e-01 +1.23433843e-01 -3.96322310e-02 -9.87586081e-02 +7.31672496e-02 +1.00247070e-01 -1.08106196e-01 -6.59140497e-02 +3.89044732e-02 -9.68295485e-02 -1.22549310e-01 +1.92016169e-01 +3.63843590e-02 -3.60488743e-02 -7.51346797e-02 -8.99465829e-02 -2.24564672e-01 -2.07075328e-01 +9.97789949e-02 -1.56488955e-01 +9.01262015e-02 +1.45999685e-01 +1.66940555e-01 +2.31772140e-01 +1.48964360e-01 -7.27138668e-02 +2.39682749e-01 +1.02463529e-01 -1.23960704e-01 -1.30837440e-01 -3.82419527e-02 -1.40463769e-01 +3.30178291e-02 -1.95201129e-01 +1.14324883e-01 +2.18020275e-01 -8.40746909e-02 +2.05982521e-01 -8.35924149e-02 -2.29462415e-01 +6.72135204e-02 -6.09520823e-02 -3.76565754e-03 +1.61463723e-01 +1.00125536e-01 -1.60607338e-01 +4.11139280e-02 -1.09332129e-01 -1.59963027e-01 -2.42374867e-01 +2.37805888e-01 -4.01439667e-02 +5.47340363e-02 +1.44704714e-01 -1.92869753e-02 +4.31083143e-03 -1.19211048e-01 +3.88748497e-02 -1.84980571e-01 +1.47081092e-01 -1.98957324e-03 -2.24097073e-01 -1.83829457e-01 +1.70390710e-01 -5.50822765e-02 +1.90059081e-01 -2.30250239e-01 +2.14482680e-01 +1.94857970e-01 -1.19111881e-01 -1.93849444e-01 -1.48928761e-01 -1.17488518e-01 -2.00521544e-01 -2.12216556e-01 +2.22993344e-02 +1.71500370e-01 +1.45963281e-02 -1.17676258e-01 +8.36308748e-02 -3.36772650e-02 +1.23078331e-01 -9.81268436e-02 +2.17140481e-01 -4.12575901e-02 -2.07559228e-01 -1.88313469e-01 -1.78512067e-01 -5.83977848e-02 +6.94501251e-02 +1.36157319e-01 +1.70837209e-01 +1.44823641e-02 -4.44534421e-03 +8.24791342e-02 -1.93770975e-02 +7.43394941e-02 +5.88809699e-02 +2.07284257e-01 -2.33115584e-01 +1.63501546e-01 -1.50683969e-02 -1.83059335e-01 +6.02409691e-02 -1.66085511e-01 -2.23649412e-01 +2.80730426e-03 -1.26419157e-01 +2.24787906e-01 +1.48149088e-01 +1.03671998e-02 -7.56314695e-02 +1.98527738e-01 -5.98190427e-02 +1.85519025e-01 +1.50814846e-01 +2.01397195e-01 -1.52898222e-01 +1.92097172e-01 +7.32732266e-02 +5.49949855e-02 -2.13743195e-01 +1.76633045e-01 +9.05917734e-02 +1.86555520e-01 -1.24356039e-01 -1.49132386e-01 -4.83358651e-02 -2.37793922e-02 -8.65722448e-02 -9.35396850e-02 -2.15038583e-01 +1.73748776e-01 +1.77532330e-01 +1.75430521e-01 -5.45704812e-02 -7.84244686e-02 +1.17731705e-01 +9.22563225e-02 -1.22968934e-01 -3.70238721e-03 -1.39050454e-01 -1.94598138e-01 +1.00594446e-01 -1.09123185e-01 -2.02465892e-01 -1.47197902e-01 +5.40577620e-02 +2.14045659e-01 -1.21303469e-01 -4.45215553e-02 +2.18303055e-02 -1.13904610e-01 -7.43690133e-02 -2.31798977e-01 -1.61781207e-01 -1.00169405e-01 -2.29007781e-01 -1.20077133e-02 -9.76362824e-02 -1.21198758e-01 -5.16667664e-02 +2.02413425e-01 -1.82441399e-01 -1.95769951e-01 -2.23995358e-01 +4.11445349e-02 -4.96294647e-02 -7.10361004e-02 +1.72751680e-01 +6.73608333e-02 -1.75741851e-01 +2.14714333e-01 -1.41079754e-01 +2.38428071e-01 -1.85538843e-01 -1.88278630e-01 +1.26815632e-01 +5.30937761e-02 -2.10903630e-01 +2.06450924e-01 -1.90549135e-01 +1.53912380e-01 -1.62676573e-02 -2.36806199e-01 +9.20332968e-03 +3.14339250e-02 -1.66730106e-01 -2.41123453e-01 -4.20757085e-02 -1.61084563e-01 +2.34439805e-01 +5.73527366e-02 +2.24548236e-01 +3.13241780e-03 +2.11483940e-01 +3.79261374e-03 +2.29003713e-01 -1.24238357e-01 -8.40152651e-02 -1.09518304e-01 -1.88932315e-01 +1.09796226e-03 +1.93882957e-01 -1.77971810e-01 -1.94214940e-01 +2.29502782e-01 -1.02191716e-01 -1.02925897e-02 -7.46072382e-02 -1.86048627e-01 -9.77525264e-02 +3.27878743e-02 -1.48621142e-01 +2.18341932e-01 -2.05225319e-01 +1.96377560e-01 +3.80643457e-02 -1.24908581e-01 -2.13524818e-01 +1.27257392e-01 -9.19261277e-02 -1.95187107e-01 +1.41091511e-01 +1.30660966e-01 +1.15595266e-01 -2.16346711e-01 +1.26110092e-01 -7.30629414e-02 -7.43186176e-02 +1.54223874e-01 +1.73960626e-03 -7.78309554e-02 +2.31993869e-01 -1.15430802e-01 -1.83480784e-01 +2.84066349e-02 -1.42910898e-01 +1.43370479e-02 -4.66384590e-02 +1.41383573e-01 -1.04599997e-01 -9.14669037e-02 +8.72963220e-02 +1.64262399e-01 +1.87239870e-01 +4.32684869e-02 -1.06378347e-01 -9.36595351e-02 +2.07193479e-01 +1.58771679e-01 +9.95627195e-02 -1.27081528e-01 +1.61566362e-01 -1.19620785e-01 -1.16357997e-01 +1.00486591e-01 +5.36804348e-02 -1.53589249e-03 +1.53159097e-01 +2.09832951e-01 -2.14251488e-01 -2.04511523e-01 -2.26083100e-02 +4.86280471e-02 -4.34301943e-02 -1.70882791e-01 +1.31874099e-01 -7.84550905e-02 +1.24900684e-01 +1.19424269e-01 +2.43082121e-01 -1.89989716e-01 +2.04885468e-01 +6.12057298e-02 +1.11727014e-01 -2.31483713e-01 +1.90446362e-01 +1.56509146e-01 -1.97404772e-01 +1.53894141e-01 +1.42980739e-01 -1.55550689e-01 -3.26760858e-02 -4.53933775e-02 -1.29597917e-01 -8.29575211e-02 -1.38693988e-01 +2.25925818e-01 -5.50912321e-02 +9.91598517e-02 -6.85831457e-02 -4.94165272e-02 -1.66028887e-01 -6.68939948e-02 +2.70234495e-02 -5.76406717e-02 +1.70435175e-01 -1.82190239e-01 +1.93374470e-01 +2.15751275e-01 +1.24166146e-01 +1.13843754e-01 -1.13496825e-01 -1.03021234e-01 +2.22720191e-01 +7.74364322e-02 -1.78134292e-02 +1.02366656e-02 +2.82122344e-02 -1.59174457e-01 -8.43027234e-03 -1.06835619e-01 -2.08342522e-02 +1.16452709e-01 +5.89617044e-02 +1.58073857e-01 -1.51477516e-01 -1.10483274e-01 -6.04809821e-02 +2.15155438e-01 -2.17366323e-01 +2.22666666e-01 -1.15602329e-01 -5.77073246e-02 +1.68998018e-01 -4.39781696e-02 +8.77814740e-02 -1.84420392e-01 -2.30117217e-01 -1.75845176e-01 -1.18299857e-01 -2.89963186e-03 -8.20818841e-02 -1.51014328e-02 -1.35377526e-01 +5.26456684e-02 +1.94155499e-01 -1.67367011e-02 +1.63054243e-01 -2.39232212e-01 +2.31814101e-01 +1.61173940e-03 -1.08971059e-01 -5.32064587e-02 +1.03144795e-02 -1.57686144e-01 +6.36519641e-02 +7.92531818e-02 +1.49401173e-01 +1.52972892e-01 +2.23110035e-01 -2.10451171e-01 +2.28489324e-01 -1.10087022e-01 -2.52577662e-02 -1.43515304e-01 -1.59304008e-01 +2.10548177e-01 +1.52083203e-01 +1.00820974e-01 +1.50392935e-01 +1.46353558e-01 -1.38095051e-01 +2.12221250e-01 -2.42644772e-01 -5.42664677e-02 +2.26683155e-01 +2.05978051e-01 -7.78681487e-02 -3.80253494e-02 -2.10813731e-02 -6.85265660e-03 -1.98652819e-01 -1.10077962e-01 -1.25935823e-02 -2.15941370e-01 +1.23935714e-01 -4.35732007e-02 -2.03946576e-01 -8.56911242e-02 -9.71276164e-02 -4.58209813e-02 -6.02037609e-02 -1.54498458e-01 -3.24275643e-02 +8.71713609e-02 +5.38045615e-02 -1.02674618e-01 +2.33162865e-01 -2.33677983e-01 +1.70413598e-01 +2.92526335e-02 +1.06060699e-01 -8.35530013e-02 -1.80119336e-01 +1.71884462e-01 -1.92857653e-01 +1.82627842e-01 -1.75950676e-01 -1.18138060e-01 -2.71724463e-02 +2.39481911e-01 +1.55895397e-01 +7.63526410e-02 +1.30967811e-01 +6.31708652e-02 +1.97695091e-01 +1.45598963e-01 +5.07406443e-02 -2.38720000e-01 +5.40884286e-02 -1.40111953e-01 +1.69577152e-02 -1.47778153e-01 +2.83402205e-03 +2.26935342e-01 -3.61226350e-02 -1.78625762e-01 +9.78875607e-02 +6.02899939e-02 +2.44165406e-01 +1.15124539e-01 +5.17428964e-02 +4.72293645e-02 +8.42043906e-02 -2.32092336e-01 -6.11509085e-02 -9.93367583e-02 +2.12816373e-01 +2.26032242e-01 +8.63140672e-02 -1.17857471e-01 +8.42480510e-02 -9.28092003e-02 -2.33155563e-01 +2.12051913e-01 +1.68791607e-01 -1.70318410e-01 -1.28652677e-01 +2.32431695e-01 +1.26657933e-02 -2.50826627e-02 -1.34311020e-02 +6.18706644e-03 +8.56076330e-02 -2.35763341e-02 +1.09873906e-01 +2.76662558e-02 -5.79463243e-02 -7.45092928e-02 +1.86356887e-01 +9.25555676e-02 -1.85622409e-01 -2.14795887e-01 +2.42045805e-01 -2.34763786e-01 +6.65093958e-03 +1.19347975e-01 -2.42019728e-01 +1.18258193e-01 -5.56267798e-03 +1.65569887e-01 +1.99426427e-01 +6.94453865e-02 -1.32228255e-01 +9.55230743e-02 +1.44284144e-01 -1.57784730e-01 +1.05954126e-01 -7.42445886e-03 -1.10187337e-01 +1.77129135e-01 -2.06463918e-01 +1.97518423e-01 -1.85241371e-01 +2.40720466e-01 -2.77224481e-02 +5.20058721e-02 +7.30298460e-03 +2.15634540e-01 -1.48849666e-01 +6.73930347e-03 -7.19403327e-02 -1.89557999e-01 -7.98492134e-03 -2.60864198e-02 +1.82805941e-01 +9.76650566e-02 -1.91183597e-01 -5.91458678e-02 +1.40311435e-01 +4.80469614e-02 +1.43875673e-01 -1.66851699e-01 -1.72680825e-01 +5.68968803e-02 +1.14193574e-01 +1.43270984e-01 +6.94157332e-02 -2.20309332e-01 -5.58658540e-02 -1.12737119e-02 -1.01032391e-01 -1.80032402e-01 -1.43476993e-01 -2.59229392e-02 +1.81196168e-01 +2.18765005e-01 -1.14407733e-01 +2.04515114e-01 -2.19307527e-01 -5.92817366e-02 -1.60506457e-01 -9.39717889e-02 -1.58186883e-01 -3.16574425e-02 -9.91311669e-03 +1.57862023e-01 -7.05722123e-02 -1.40256107e-01 +1.60827830e-01 +1.53285414e-02 +5.69847375e-02 -3.99004370e-02 +9.91976112e-02 +1.92141131e-01 +1.74573556e-01 -2.83731073e-02 +2.41341844e-01 -2.59778798e-02 +1.82442799e-01 +2.09926769e-01 -1.16794720e-01 +1.34835169e-01 -1.07689053e-02 -2.37530470e-01 +7.19423592e-03 -2.13797525e-01 -1.97745860e-01 -1.79166287e-01 -1.18905589e-01 -1.44768298e-01 -2.25674957e-02 +1.48003548e-02 -2.22628310e-01 +5.30362576e-02 +2.24293485e-01 -2.26761639e-01 +1.46223113e-01 -1.66969374e-01 +1.67650506e-01 +3.21433395e-02 +1.63040623e-01 +2.08025053e-01 +1.34014770e-01 +2.41866872e-01 -5.67153394e-02 -3.36563736e-02 +1.47540316e-01 +3.50050181e-02 -1.90319970e-01 -1.01455420e-01 -4.68437821e-02 -1.69140369e-01 +2.38987952e-02 +1.24649271e-01 +1.56393200e-02 +3.31525356e-02 +2.32844502e-02 +2.17828795e-01 -3.91396731e-02 -5.02311885e-02 
#Parameter# /_8 {50} 801 ZERO_GRAD
-2.28303224e-02 -8.64940733e-02 -2.14362726e-01 -2.21946687e-02 -2.09778801e-01 -1.86919361e-01 -1.89707249e-01 -1.84843644e-01 +6.82329088e-02 +2.06600770e-01 +2.25232497e-01 -2.35798523e-01 -1.34567529e-01 +8.71054381e-02 -5.80484569e-02 -3.04206014e-02 +2.17552349e-01 -6.79460615e-02 +1.75424084e-01 -5.96712381e-02 +1.21692672e-01 -1.46848202e-01 -2.13734359e-01 -1.54786199e-01 -1.34016663e-01 -3.07837874e-02 +1.25112936e-01 +1.02458075e-01 +4.40464169e-02 -1.77606553e-01 -1.04262173e-01 +1.76857546e-01 +1.05340585e-01 +2.28638455e-01 -1.89438909e-01 +7.72575289e-02 +1.74136803e-01 -1.56982005e-01 -1.37461990e-01 -2.19930708e-03 -1.29031807e-01 +1.73608676e-01 -1.05286732e-01 +9.90290940e-03 -4.91705388e-02 -1.14044800e-01 -4.02037650e-02 +5.23806661e-02 +1.00746751e-03 +8.82318765e-02 
#Parameter# /_9 {50,3} 2401 ZERO_GRAD
-2.98935056e-01 +4.70372438e-01 -2.76636004e-01 -3.57624620e-01 -8.30656067e-02 -2.15319037e-01 +2.70259559e-01 +4.66808453e-02 +3.23090225e-01 -2.27513775e-01 +2.87712296e-03 -3.49525422e-01 -1.08645655e-01 -4.48361486e-02 +3.34347457e-01 +2.73918241e-01 -1.54212922e-01 -2.39212483e-01 +2.75436610e-01 +1.07949823e-01 -2.24698991e-01 -3.60348821e-01 +3.12468201e-01 +1.09840445e-01 -9.15761143e-02 +3.17084819e-01 -1.44112436e-02 -1.04386032e-01 -1.08608790e-01 -1.82578489e-01 +3.74167889e-01 -1.99437886e-01 -3.62567902e-01 +4.09070253e-02 -2.76876003e-01 +2.55012184e-01 +2.95160413e-01 -1.83819905e-01 -2.53369182e-01 -2.10039839e-01 +6.03924990e-02 -2.50915080e-01 -1.36554968e-02 -3.16836834e-01 -8.44043270e-02 -9.72047225e-02 +3.72282982e-01 -2.94390619e-01 +2.76983738e-01 +1.57277863e-02 -2.80291080e-01 +2.96214551e-01 +3.52139652e-01 +2.87334442e-01 -2.09955558e-01 -6.15153313e-02 +2.04466566e-01 +2.28607163e-01 +1.14970282e-01 -5.36156110e-02 +2.60680109e-01 +1.07278928e-01 -3.33749443e-01 -3.21453512e-01 -8.91702473e-02 -2.43763119e-01 +1.81892470e-01 +2.78298836e-02 -3.02120298e-01 +7.32995346e-02 -3.71893167e-01 +3.27019960e-01 -6.65100515e-02 +3.52116168e-01 -3.65485132e-01 +2.96174407e-01 +7.36378804e-02 +1.55907974e-01 -9.10957903e-03 -2.63952076e-01 +3.48883808e-01 +7.12599531e-02 +6.78181648e-02 +3.03717345e-01 -3.65729660e-01 +2.24539086e-01 +3.78001243e-01 +3.33194882e-01 +1.78867832e-01 -2.91911304e-01 +1.23600997e-01 -2.08837628e-01 +3.98905575e-01 -2.18370497e-01 +7.84045011e-02 +2.21461341e-01 +1.61478326e-01 -1.82652131e-01 -2.54218161e-01 -1.08523510e-01 +3.29889804e-02 -3.29936415e-01 +1.98926762e-01 +1.45743176e-01 -2.28468503e-04 +4.31602150e-01 +1.86920092e-01 -1.44883409e-01 +2.14542091e-01 +2.00523540e-01 -2.04243511e-03 +3.61205965e-01 +3.80983591e-01 -1.20622572e-03 +1.11597106e-01 +1.94925800e-01 -2.96455175e-01 +3.46491158e-01 -3.23137283e-01 -2.06416056e-01 +2.99914479e-01 +1.52658939e-01 -2.37027109e-01 -8.31486005e-03 +4.44245860e-02 -3.35899264e-01 +1.12965494e-01 -1.09333612e-01 -3.33873749e-01 +1.16017289e-01 +1.76018164e-01 +1.78780720e-01 +2.03174338e-01 -6.27038404e-02 +2.63194799e-01 -3.49416673e-01 +1.85932592e-01 +7.00817183e-02 -1.30657896e-01 +3.62107784e-01 -1.74654886e-01 +2.09648162e-01 -1.44892186e-01 +7.31794089e-02 -3.60584527e-01 -3.78597885e-01 -1.54819861e-01 +4.19141442e-01 +6.48954604e-03 -2.08049893e-01 
#Parameter# /_10 {50,50} 40001 ZERO_GRAD
