#Parameter# /_1 {2,50} 1601 ZERO_GRAD
-2.59347647e-01 -5.63796498e-02 -2.01523915e-01 +4.41039175e-01 +4.89229411e-02 -1.97702348e-01 +3.34957331e-01 -1.63451269e-01 +3.79884392e-01 +1.53985769e-01 -8.94159898e-02 -4.21366245e-01 -2.76414335e-01 -1.35440174e-02 -5.21946326e-02 +1.63664415e-01 +3.63032818e-01 -1.45788550e-01 +8.71214271e-02 +3.92203569e-01 +3.46635759e-01 -4.24871683e-01 +7.63350427e-02 -2.62539417e-01 -8.53481665e-02 +9.24212933e-02 -1.25508249e-01 +3.12330872e-01 -1.62238941e-01 +3.07954133e-01 -4.70929220e-02 +1.19797222e-01 -5.31247705e-02 -1.61407348e-02 +4.09367025e-01 +2.02152371e-01 -2.50906259e-01 -6.55254573e-02 -4.89823192e-01 +2.68248208e-02 -2.01787814e-01 +1.93966851e-01 +1.25274003e-01 +3.14880371e-01 +4.27690238e-01 -4.21671361e-01 -2.88776010e-01 -8.74333233e-02 -1.79157615e-01 -1.94889978e-02 -1.89870104e-01 +1.40102729e-01 -2.31884024e-03 +2.22913712e-01 -3.43834013e-02 +5.27443141e-02 -1.84022769e-01 -7.50135481e-02 -3.55353117e-01 +2.02948555e-01 -1.88408896e-01 +4.60515380e-01 +1.42559648e-01 +1.99742749e-01 +2.83476204e-01 -3.63541186e-01 +3.07603598e-01 -3.21053714e-01 -7.86568075e-02 -1.61119655e-03 +7.64164031e-02 -4.22374725e-01 -1.16998866e-01 +3.69806528e-01 -2.59764135e-01 +3.73363346e-01 -3.03977519e-01 -1.45906478e-01 +4.80028689e-01 -4.65220511e-01 -3.70152533e-01 -2.84879357e-01 -9.32333916e-02 -2.45001435e-01 +1.27837807e-01 -1.14336535e-01 -2.10643530e-01 +8.33602846e-02 -3.56106699e-01 +2.76423216e-01 -2.42708577e-03 +3.67033064e-01 -2.40917519e-01 +4.83395964e-01 +3.71175379e-01 -3.68279248e-01 +3.02943677e-01 -5.76593205e-02 +8.09118152e-02 +1.72013074e-01 
#Parameter# /_2 {2} 33 ZERO_GRAD
+8.12636256e-01 -4.23903078e-01 
#Parameter# /_3 {50,3} 2401 ZERO_GRAD
+1.59635469e-01 +2.12338530e-02 +2.16541693e-01 -1.40730232e-01 +1.15370892e-01 +3.26223433e-01 -1.46413803e-01 +9.60802808e-02 +7.64043629e-02 -1.27503753e-01 +8.11137185e-02 +2.72937983e-01 +2.24422261e-01 +2.74674892e-01 +3.30195367e-01 +1.24466464e-01 -1.08288135e-02 -2.68505663e-01 -2.45226830e-01 +2.98237920e-01 +1.23043180e-01 -2.26705447e-01 -4.86300439e-02 -2.63690315e-02 -2.34638825e-01 -2.06091329e-01 -2.33571324e-02 +1.11891970e-01 -2.53531724e-01 -1.18204184e-01 -9.13839489e-02 +8.44482854e-02 -2.61413664e-01 +9.39426944e-02 -2.69715458e-01 -1.46421358e-01 +1.69693932e-01 -2.64053494e-01 -3.66854042e-01 +1.62337035e-01 -1.53737590e-01 -9.36318189e-02 +1.94021896e-01 +1.27933681e-01 +1.87105373e-01 +6.12745136e-02 -3.89246106e-01 +2.98527628e-01 +1.80250823e-01 +3.50984156e-01 +2.12559775e-01 +5.68672009e-02 +3.39652032e-01 -2.23688677e-01 +2.75659680e-01 +1.50354221e-01 +3.13015997e-01 -4.07522209e-02 -3.94809246e-01 -4.95061949e-02 -5.63702472e-02 -6.49838150e-02 -4.10091072e-01 +1.51687533e-01 +3.12561512e-01 -1.91969231e-01 -4.13244605e-01 -1.39790758e-01 -2.54964679e-01 +2.03771248e-01 -9.18400288e-03 +1.33744091e-01 +2.96666533e-01 +7.92570859e-02 +2.94418037e-02 -1.69213966e-01 -2.61934046e-02 -1.16932809e-01 -2.11993694e-01 +1.30088717e-01 -2.34454304e-01 +7.95829967e-02 +2.84651876e-03 -2.36087069e-01 -2.97806591e-01 -2.40719486e-02 -2.21401855e-01 +3.11407477e-01 -4.54876781e-01 +4.72181439e-02 +6.13288581e-02 +3.66979241e-02 -3.62092584e-01 -3.88968498e-01 +1.97476640e-01 -2.07189426e-01 -3.01980406e-01 +1.08405180e-01 +1.62794784e-01 +2.33939350e-01 -4.27233502e-02 -8.55111051e-03 +1.96012869e-01 -2.04075649e-02 -9.06899646e-02 +3.31597596e-01 +3.49954545e-01 -1.29093185e-01 +2.40508795e-01 +3.23944002e-01 -1.94277748e-01 +3.23308229e-01 +1.13155633e-01 +4.29310918e-01 +6.83313608e-02 -3.42192948e-01 -2.76888192e-01 -3.05412710e-01 +5.22366678e-03 +2.47673467e-01 -1.46283597e-01 +2.62939036e-01 -1.46858826e-01 -5.03578298e-02 +7.92409945e-03 +1.63921937e-01 +9.80043784e-02 -1.76561549e-01 -1.50147285e-02 +7.21302703e-02 +9.18669328e-02 +1.91022511e-04 +1.41603738e-01 -2.89729118e-01 -1.55682757e-01 +2.14291394e-01 -2.44950712e-01 +3.33157241e-01 -3.17979336e-01 -3.24150510e-02 +8.65450315e-03 +1.77667871e-01 -6.22012839e-03 +1.03043757e-01 +9.22194794e-02 +2.37122685e-01 -1.51594684e-01 -1.49750948e-01 +1.15363486e-01 +1.11442126e-01 
#Parameter# /_4 {50,50} 40001 ZERO_GRAD
+1.30159795e-01 -6.00595176e-02 +2.23670572e-01 +1.84961975e-01 -1.36930346e-01 +7.83591066e-04 +7.65842572e-02 -1.38350800e-01 -1.99785054e-01 -8.00310820e-02 -2.47761786e-01 +1.57797605e-01 -2.35295445e-02 +2.76702166e-01 +8.23628753e-02 -2.44662717e-01 +6.12176768e-02 -9.72477794e-02 +2.29679532e-02 +1.48779064e-01 -7.32940808e-02 -2.44091153e-01 +9.44053754e-03 -2.04008117e-01 +1.09338500e-01 -1.20710693e-01 -1.21914193e-01 -6.62859827e-02 +2.59253234e-01 -2.21973374e-01 +2.37519115e-01 +3.04056704e-01 +4.54066470e-02 +8.38452205e-02 -1.46580547e-01 -4.69846539e-02 -4.80703413e-02 +6.70870543e-02 -8.32159668e-02 -6.67697340e-02 +5.93216754e-02 +1.18368305e-01 -9.50802956e-03 -2.83151507e-01 +1.68516368e-01 -1.68399606e-02 -2.86972404e-01 -9.32447314e-02 +6.01160042e-02 -1.98788255e-01 +1.77741438e-01 -1.64876908e-01 -4.41540070e-02 -1.95715815e-01 -2.86706127e-02 +1.82629034e-01 +2.17126593e-01 -7.52285272e-02 +2.47604325e-01 +3.35637666e-02 +1.79219142e-01 +6.41326085e-02 +2.08028890e-02 +1.17260300e-01 +1.00218505e-01 +3.52045405e-03 +8.72311890e-02 +6.74474314e-02 +8.26655626e-02 +1.07910469e-01 -1.89080983e-01 -2.74592608e-01 +1.91541657e-01 +2.38569498e-01 +1.36025265e-01 +2.02512950e-01 +2.36725926e-01 +1.30976096e-01 -2.24262297e-01 +1.39984086e-01 -5.16351499e-02 -1.12909473e-01 -1.88493375e-02 +2.76865184e-01 -3.44026983e-02 -2.36489475e-01 -1.77527949e-01 -5.99739477e-02 -1.97690517e-01 -1.07924923e-01 -1.61975995e-01 -1.51219115e-01 +1.97266400e-01 -1.14568574e-02 -2.26749089e-02 +2.19276816e-01 +4.15026210e-02 +1.11725211e-01 -8.72453973e-02 +1.10043079e-01 +1.21264741e-01 -8.29109848e-02 -7.18117505e-02 -7.81498253e-02 -9.21364501e-03 +2.62067169e-01 -2.81204134e-02 +2.73552835e-01 -6.79922700e-02 -1.04517356e-01 +2.50653654e-01 +2.22532317e-01 -2.52424389e-01 -3.78080197e-02 -1.27383009e-01 +1.76440611e-01 -2.54171789e-02 -1.39472470e-01 -3.78836356e-02 +2.43874565e-01 +2.19278097e-01 -1.35243446e-01 -4.81208786e-02 -1.06008500e-02 +2.20984697e-01 +3.45760095e-03 +2.52420008e-01 +2.72254258e-01 -6.97639212e-02 +1.34909093e-01 -2.13247418e-01 -1.64086908e-01 +9.39535201e-02 +2.98761964e-01 +1.66523024e-01 +2.26550668e-01 -2.32967749e-01 +1.61854371e-01 -1.18571520e-01 +1.26058474e-01 +1.21310968e-02 -8.21907893e-02 +1.26374006e-01 +2.02205226e-01 -1.45185575e-01 +6.74289390e-02 -7.04699978e-02 +9.38532725e-02 -1.76999159e-03 -1.17869392e-01 -1.33744050e-02 -3.80040482e-02 +1.18950926e-01 +1.06070400e-03 -1.31159648e-01 -2.04804271e-01 -1.20056435e-01 -5.67362159e-02 -1.23937503e-01 -2.20461786e-01 -2.65784785e-02 +1.10999495e-01 +4.01854403e-02 +1.69858649e-01 +2.41140034e-02 -1.59632161e-01 -2.36866519e-01 -1.61106661e-01 +7.05452561e-02 -3.12345773e-01 +5.75487316e-02 +2.27227017e-01 +1.94645688e-01 +1.65545214e-02 +9.34831798e-02 +1.34821892e-01 -3.68586600e-01 +5.21802194e-02 +3.06018263e-01 +1.02680735e-01 +1.79667294e-01 -4.28822637e-02 -1.88125029e-01 -2.29937211e-01 -3.96256521e-02 +1.38312861e-01 +4.68364730e-02 -1.86817661e-01 +6.34340495e-02 -1.51490912e-01 +6.91994652e-02 -8.25959742e-02 -9.03386902e-03 -8.84986594e-02 +8.69012550e-02 -8.19779411e-02 -1.67176753e-01 -3.00973743e-01 +3.35230790e-02 -9.08460021e-02 -2.03485519e-01 -1.82676673e-01 -2.74047311e-02 -5.59199043e-02 +1.30551770e-01 +1.58334244e-02 +2.89158989e-02 -4.72412705e-02 +1.06586084e-01 -6.29747510e-02 -6.65204376e-02 -9.38475952e-02 +1.34096686e-02 -2.11629078e-01 -7.46823028e-02 +6.54878542e-02 +1.18701138e-01 -1.66030034e-01 -1.72050744e-01 -1.45022124e-01 -2.33240783e-01 +2.48811200e-01 +1.99899882e-01 +1.19406074e-01 -1.31164417e-01 -8.22411701e-02 -2.44259626e-01 -1.16883576e-01 +7.27763548e-02 +1.79567300e-02 -3.61952335e-02 +7.48823211e-02 +6.49201050e-02 +2.67361440e-02 -3.56111258e-01 -8.16857517e-02 -1.09289363e-01 +5.77011928e-02 +2.03648314e-01 -9.34497938e-02 -8.78421888e-02 -9.32566375e-02 +3.39773782e-02 -2.89208710e-01 -2.64970422e-01 +7.94037580e-02 -2.60627151e-01 -2.28864118e-01 -3.35709631e-01 -6.20084256e-02 -1.48013949e-01 -2.03757316e-01 -6.67887479e-02 +1.08621247e-01 +1.93726927e-01 -1.12758078e-01 -3.52538601e-02 -1.88964829e-01 +1.52924702e-01 -2.11122744e-02 -2.59598702e-01 +2.23851904e-01 -1.68885991e-01 +1.71794053e-02 +1.46724835e-01 -8.94889086e-02 -3.02785244e-02 -2.65436947e-01 -4.99079935e-02 +9.96869877e-02 +1.71195567e-02 +4.43144478e-02 +2.66624987e-01 +2.14253932e-01 -6.45546243e-02 -2.57440321e-02 -2.06476435e-01 -6.40154183e-02 -2.13882178e-01 +1.59508327e-03 -1.40265048e-01 +1.66354463e-01 +2.59340912e-01 +1.42615167e-02 +9.95529667e-02 -2.29450151e-01 +1.60430670e-01 -1.14753813e-01 -1.59302995e-01 +1.80683807e-01 -2.44901814e-02 -1.84412189e-02 +2.25072980e-01 +9.19576660e-02 -1.14315346e-01 -2.63363689e-01 -9.44314525e-02 +9.35344305e-03 -8.34310576e-02 -1.68151408e-01 -6.54702485e-02 +1.68662310e-01 -1.54755428e-01 -1.81520626e-01 -1.61319613e-01 -2.56820560e-01 -1.23979509e-01 -9.28179100e-02 -1.56021088e-01 -3.28432828e-01 +4.24653403e-02 -1.78799033e-01 +1.03821792e-01 -3.69136035e-02 +6.42333850e-02 +1.05957128e-01 -2.09874853e-01 -1.41572088e-01 +2.02684373e-01 -1.82536259e-01 -8.63989219e-02 -2.01228499e-01 +1.79915279e-01 -2.93619912e-02 -1.74156189e-01 -5.41801564e-02 +7.58034587e-02 -2.44132057e-01 +1.41203314e-01 -4.15706411e-02 -1.49603263e-02 +4.54011187e-02 +1.48588456e-02 -7.23177567e-02 +1.05170161e-01 +2.49978036e-01 -2.18000993e-01 -1.51258364e-01 -8.55215713e-02 -2.38267295e-02 -7.22937062e-02 -1.48567006e-01 +3.81245092e-02 -2.06041887e-01 +3.46513502e-02 -2.89820552e-01 +8.93489569e-02 +1.29886754e-02 -1.18788369e-01 +1.55768171e-01 +3.17066908e-01 -1.53920516e-01 +1.28432751e-01 -2.29725465e-01 +1.92685738e-01 -1.89279467e-01 +7.87112042e-02 -5.13027748e-03 -5.11703081e-02 +1.95525885e-01 -9.90623310e-02 +1.84882745e-01 -1.40287578e-01 +2.53475070e-01 +1.19562455e-01 +1.15075372e-01 -1.27922565e-01 +9.00770649e-02 -1.83852673e-01 -4.28668894e-02 +1.13173127e-01 -4.02574241e-02 +3.88201773e-02 +1.07178371e-02 +1.22971423e-02 -1.13556236e-02 +4.58030328e-02 +1.34474382e-01 +2.51160953e-02 +1.54580176e-01 +2.21446320e-01 +8.23156312e-02 +1.38816327e-01 +1.21276200e-01 +1.63518369e-01 -3.09418272e-02 -1.32412657e-01 +4.91949059e-02 +4.08392474e-02 +1.66605279e-01 +1.77800059e-01 +1.86162114e-01 -3.71202305e-02 +6.61371499e-02 +2.00103030e-01 +2.54864424e-01 +7.26030767e-02 +4.94784489e-02 -3.44486758e-02 -6.40806407e-02 +1.52061254e-01 +9.63746943e-03 -7.48358071e-02 +1.09554060e-01 +1.90214723e-01 +1.70061633e-01 -1.65450707e-01 +3.39424133e-01 -2.42888883e-01 +9.91248935e-02 +2.59823471e-01 +1.45699978e-01 +2.11557429e-02 +3.16246133e-03 +6.22391067e-02 -2.21600175e-01 +1.66574776e-01 -3.94495055e-02 +1.66351378e-01 -6.87042251e-02 +2.34810382e-01 +4.01304923e-02 +1.11808538e-01 +2.29821786e-01 +2.25537688e-01 +2.96446264e-01 +3.38915646e-01 -1.13423280e-01 -9.47105885e-02 -1.47766545e-01 -1.67100713e-01 -3.14572789e-02 +1.73404813e-02 +1.76102355e-01 -8.13362598e-02 +7.40574822e-02 +1.73297495e-01 +1.74942881e-01 +1.18497476e-01 -8.55241939e-02 -1.13003686e-01 +5.90594001e-02 +4.19063270e-02 -1.39801160e-01 +2.34775096e-01 +1.62858486e-01 -1.45493776e-01 +2.05428004e-01 -3.77057195e-02 -1.37910157e-01 -1.40385330e-01 +1.72137529e-01 -1.41087383e-01 +2.21134931e-01 -1.54155985e-01 -1.45357117e-01 -2.49563709e-01 -1.74231142e-01 -3.36234607e-02 +1.19605446e-02 -1.74606242e-03 +9.53492597e-02 -2.81746387e-01 -8.38833377e-02 +1.42905846e-01 +6.40726984e-02 +1.31595194e-01 +3.12018096e-01 -7.12978020e-02 -1.80333868e-01 -8.08134824e-02 +7.63578042e-02 -1.59026101e-01 +1.01991184e-01 -1.71813026e-01 -1.42543584e-01 +9.12540555e-02 -2.06160843e-01 +2.52308846e-02 -1.13753140e-01 -5.04070222e-02 -4.54887785e-02 -9.71363783e-02 +7.03824684e-02 +1.68872610e-01 +1.06690042e-01 +1.09700143e-01 -3.14433570e-03 +1.71549737e-01 -1.82099849e-01 +5.13239056e-02 +6.89146519e-02 -1.62495777e-01 +3.25079769e-01 -8.87030438e-02 +1.04878619e-02 +2.88715124e-01 -7.47724250e-02 +1.53888062e-01 -4.56390493e-02 +2.51431763e-01 -1.00654781e-01 +1.52262330e-01 -1.02025166e-01 -1.53834552e-01 +1.45816952e-01 +2.07244247e-01 -1.92465670e-02 -3.83713804e-02 +6.64166734e-02 -1.77938834e-01 +1.21225096e-01 -2.38092523e-02 +1.71968803e-01 +3.19245785e-01 +1.20212883e-01 -1.25328526e-01 +2.09606394e-01 +1.96122676e-01 -1.05730861e-01 +1.83835089e-01 +1.06013022e-01 -2.93718223e-02 -2.44519651e-01 +1.92184702e-01 +2.50859797e-01 +1.20805562e-01 -1.06858604e-01 -1.32857934e-02 +1.02766287e-02 +9.29011479e-02 +5.66378869e-02 -6.37081638e-02 -2.84450084e-01 -1.36009991e-01 +1.79126531e-01 -1.44083634e-01 -5.08118421e-02 +9.39547345e-02 -1.79650858e-01 +2.63523012e-01 -8.48534927e-02 +3.82578485e-02 -2.58616537e-01 +1.99472293e-01 -1.41217276e-01 -1.28076710e-02 -1.71991408e-01 -2.40346998e-01 -2.78335333e-01 +4.50244313e-03 -2.29153961e-01 -1.75392821e-01 +1.53751820e-01 -1.00144282e-01 -1.56386986e-01 -1.81898028e-01 +4.89264689e-02 -9.64612812e-02 -1.06406711e-01 -1.14590280e-01 +1.14313893e-01 -1.06799632e-01 +1.40370145e-01 +7.35569000e-02 -3.23014587e-01 -2.34390557e-01 +8.39753635e-03 -1.47999167e-01 +1.03814699e-01 -2.10476726e-01 -1.38522997e-01 -2.25249246e-01 -3.63220274e-01 -1.69559374e-01 -1.77985174e-03 -1.85784847e-01 -8.21853708e-03 +5.07000415e-03 -1.09847859e-01 +1.23379953e-01 -1.76172778e-01 -2.92144597e-01 -1.62684858e-01 -1.86437257e-02 +2.38541678e-01 -1.91954270e-01 -2.76887715e-01 +1.07158989e-01 -1.08849041e-01 +1.04308009e-01 +1.22953311e-01 -9.73210856e-03 -1.46019503e-01 +2.13545471e-01 -3.02361280e-01 -3.06939662e-01 -2.31563941e-01 +3.68998498e-02 -1.42545372e-01 +1.08647749e-01 +7.87251592e-02 -3.03274184e-01 +4.16722149e-02 -1.66636690e-01 +7.45478198e-02 -1.15968756e-01 -2.14720666e-01 -1.93259388e-01 -1.88938662e-01 -3.85988578e-02 +7.56545737e-02 -1.87813029e-01 +4.21193540e-02 +2.33938128e-01 +4.59747203e-02 -1.38115585e-01 -3.09853107e-01 +1.91652551e-01 -7.23628178e-02 -2.82641590e-01 -1.13525175e-01 -1.14799934e-02 -9.63899717e-02 +1.99046806e-01 -8.61137584e-02 -3.23769778e-01 -1.29842162e-01 +4.87328656e-02 +2.58095004e-02 -1.34198293e-01 +1.11511640e-01 +1.55654609e-01 -5.68957850e-02 -1.23872079e-01 -4.53575701e-02 -7.22960606e-02 +1.21943966e-01 -1.08391561e-01 +2.91298069e-02 -2.24756971e-01 -4.70722280e-02 +1.63469747e-01 +1.75138757e-01 +2.87433583e-02 -2.43348330e-02 +1.29483089e-01 -1.18831128e-01 +1.46963954e-01 +2.46936962e-01 -1.32596761e-01 +1.58038855e-01 +6.95416378e-03 -4.94625755e-02 -2.88253695e-01 -2.11389855e-01 -9.28956047e-02 -1.01925589e-01 -1.38294041e-01 -1.06443435e-01 -3.30314077e-02 -2.34954983e-01 +1.09840736e-01 +4.81898785e-02 +2.02535331e-01 -2.72672564e-01 -2.88967282e-01 -9.56811830e-02 +1.06323222e-02 -4.15933914e-02 -2.35196412e-01 +1.58704221e-02 -9.75195393e-02 -1.87554508e-01 +3.12554091e-02 +5.63459247e-02 -2.06689417e-01 -2.38462865e-01 -1.59739822e-01 -2.17246749e-02 -1.07724294e-01 -1.08307868e-01 +1.15130931e-01 -6.93912879e-02 -1.12737358e-01 +3.17187086e-02 +6.26474712e-03 -7.65293092e-02 +2.86768489e-02 +1.47727892e-01 -4.60862070e-02 -1.91857606e-01 -1.47103623e-01 -5.63588031e-02 +1.00808859e-01 -1.49171740e-01 +9.95753706e-02 +1.12842537e-01 +1.06717022e-02 -9.43341777e-02 +2.12319642e-01 +1.69680417e-01 -2.57589251e-01 +1.60395145e-01 -2.65204698e-01 -3.31686139e-02 -1.26548171e-01 +1.26507401e-01 -2.76745915e-01 +1.02397509e-01 -2.10262492e-01 -9.18608997e-03 +8.93651396e-02 -1.28915027e-01 -1.59374312e-01 -2.06631944e-01 +1.47819415e-01 -2.99306214e-01 +2.66437471e-01 -2.07871303e-01 -6.65561706e-02 +1.30523950e-01 +2.01356083e-01 +1.13257378e-01 +1.21778995e-01 +2.35117659e-01 -2.10439950e-01 +1.36361653e-02 +2.99705043e-02 -1.72000602e-01 +9.61887911e-02 -4.43684161e-02 -1.50858592e-02 +1.26120448e-01 -2.42421776e-01 -8.38025138e-02 +2.55375773e-01 +4.23164666e-02 -1.69561252e-01 -2.57163614e-01 -1.55670211e-01 -1.11074567e-01 -3.19672935e-02 -2.08639845e-01 +1.30168991e-02 -1.75493449e-01 -1.98864415e-01 -1.98786676e-01 +3.59678231e-02 -1.00215420e-01 +9.85405520e-02 +7.20803291e-02 +3.57853770e-01 +2.28762791e-01 +2.41230190e-01 +1.01156995e-01 +2.47545645e-01 +2.78126717e-01 -1.72862098e-01 -7.26367161e-02 +2.67799139e-01 +2.60594249e-01 -2.75227547e-01 -2.47918352e-01 -6.10354766e-02 +1.01396944e-02 +1.84736803e-01 -2.70363912e-02 +1.20319620e-01 +5.33428788e-02 +1.54401422e-01 -4.44866419e-02 -2.22303852e-01 -1.23933647e-02 +2.16320351e-01 +3.88145864e-01 +2.72864159e-02 +1.05911262e-01 -7.22614825e-02 +1.44969895e-01 +1.50049746e-01 +1.30468458e-01 -1.47140622e-01 -4.72179661e-03 -2.01556370e-01 -7.15640336e-02 -5.56575842e-02 -3.24215852e-02 +8.45812112e-02 +7.55444318e-02 +2.54351012e-02 +3.85224707e-02 +2.91704480e-02 -2.12537885e-01 +2.47156814e-01 +3.59415114e-01 +1.52060643e-01 -1.39091745e-01 -3.03098578e-02 -1.72018096e-01 -6.31221831e-02 -8.88233855e-02 +4.26065549e-02 +1.02363527e-01 +1.03802130e-01 -8.54138359e-02 -1.37275115e-01 -2.83241510e-01 -1.32998303e-01 -1.29492953e-01 -1.35262787e-01 -7.85169974e-02 -3.23730484e-02 +1.65021777e-01 -2.80808568e-01 -1.46859691e-01 +2.03750789e-01 -2.17176199e-01 +2.20019951e-01 -2.38136187e-01 -1.42701864e-01 +2.23098900e-02 +2.15735465e-01 +1.21829018e-01 -7.20374063e-02 -2.80427992e-01 -3.36588353e-01 -2.03036964e-01 +4.24958952e-02 +1.39141947e-01 +3.99000347e-02 +1.52727172e-01 -3.17806065e-01 -2.15640023e-01 -2.69614846e-01 +1.11155123e-01 +1.18183337e-01 -1.59138814e-01 -2.92497605e-01 -3.96145023e-02 -1.72241077e-01 +2.27044478e-01 -1.30691886e-01 +9.29643586e-02 +1.24703683e-01 -3.57576311e-02 -6.83934689e-02 -2.24245917e-02 +1.06360659e-01 -2.73857206e-01 -2.15058029e-01 -9.55499932e-02 -2.84488112e-01 -1.04324482e-01 +1.11998674e-02 -2.30012119e-01 +1.96607355e-02 +2.17741445e-01 -1.84139639e-01 -8.86894912e-02 -1.80935726e-01 -2.45084893e-03 +1.06084250e-01 +1.17412671e-01 +7.30060786e-02 -5.34284376e-02 -3.36872004e-02 -7.91094303e-02 -1.95814833e-01 -9.95353237e-02 -4.32740338e-02 +9.21215266e-02 +9.23750103e-02 -3.89060616e-01 -1.45185947e-01 -2.06747398e-01 -1.44812360e-01 -2.12589264e-01 +1.89480409e-01 -1.96510255e-01 -1.87416032e-01 -1.91296116e-01 -3.15667093e-01 -7.03633716e-03 -2.70522475e-01 +1.42954767e-01 +1.03821866e-01 -2.52586901e-01 +1.93983763e-01 -1.07626736e-01 -5.96495271e-02 -1.35632783e-01 +2.23349988e-01 +1.34389803e-01 -5.71879148e-02 -3.49697545e-02 +1.10753253e-01 -1.88758690e-02 -1.07919954e-01 -1.27464294e-01 -5.63725792e-02 -1.75701320e-01 -1.82485119e-01 +7.68014118e-02 -3.26227814e-01 -1.11471094e-01 +8.68857503e-02 +2.72414777e-02 -1.34737998e-01 -1.14371218e-02 -2.92058468e-01 +2.25256056e-01 +4.98818643e-02 +2.83868283e-01 -1.73734635e-01 -1.73859671e-01 -1.34148255e-01 -2.49042720e-01 -1.70228302e-01 -2.48781249e-01 +1.01401508e-01 -1.15951234e-02 +1.62726402e-01 -2.13862672e-01 -2.64588416e-01 -4.01290916e-02 -5.51959425e-02 +4.14113551e-02 +2.08871323e-03 -3.04270923e-01 -2.35332713e-01 -2.62878746e-01 -1.06852621e-01 +1.48220643e-01 -2.82633235e-03 -1.19795509e-01 +2.46158510e-01 -3.47389877e-02 +5.87162822e-02 -1.33670121e-01 +1.95124030e-01 -2.12337151e-01 -2.34795541e-01 -1.29655600e-01 +8.78095776e-02 -1.86701849e-01 -7.72174224e-02 +1.54622763e-01 -2.53966868e-01 -2.95001119e-01 -1.10686459e-01 -2.33591005e-01 -3.00864518e-01 +2.99451411e-01 -7.36997277e-02 -1.36912867e-01 -2.68464774e-01 -1.96917117e-01 -1.01522252e-01 -2.50757992e-01 +5.62352911e-02 +5.55432215e-02 -2.04548344e-01 +7.59252831e-02 -2.28026971e-01 -2.67441720e-01 -2.02556610e-01 +4.08501402e-02 -2.28193089e-01 +1.98674917e-01 -1.56251058e-01 +1.24915689e-01 -1.28068060e-01 +1.23004308e-02 -1.88595653e-01 +4.49240096e-02 -1.92996621e-01 -2.81378459e-02 -2.21382082e-01 -4.17071916e-02 -2.12543219e-01 -1.44004166e-01 -2.96512749e-02 -1.70710728e-01 -1.71387181e-01 +2.93786287e-01 -1.87157094e-01 -2.34044895e-01 -6.72973767e-02 +1.07535839e-01 -1.40556172e-01 -8.72366428e-02 +2.30373628e-02 -8.89811069e-02 -4.26582582e-02 +8.33639726e-02 +1.44902289e-01 +2.01157555e-01 -3.02120179e-01 -2.74433136e-01 -2.79819250e-01 +4.91067022e-02 +4.01094668e-02 -2.70033270e-01 +1.40394103e-02 -7.06136525e-02 +5.76365739e-02 -1.66179538e-01 +1.53394803e-01 -1.17546834e-01 +1.45723194e-01 +2.40572050e-01 -9.02761668e-02 -2.53652960e-01 -3.47926944e-01 -1.69894740e-01 -2.80301809e-01 -1.48766071e-01 -2.19345868e-01 +1.62218273e-01 +8.19670334e-02 +1.77221909e-01 -1.61169201e-01 +5.45849353e-02 -2.79328346e-01 +2.08983775e-02 +7.36679733e-02 -2.47382745e-01 -2.47891340e-02 -1.72347099e-01 -1.50209174e-01 -1.58123728e-02 +1.02805145e-01 -8.89928788e-02 +1.02400288e-01 -1.40872419e-01 -2.36715138e-01 +1.86780721e-01 +7.11380020e-02 -1.87883541e-01 -7.15820715e-02 +2.20216826e-01 -5.52967899e-02 -1.44765243e-01 +2.30652466e-03 -2.37725172e-02 +1.95331410e-01 +1.63360134e-01 +1.77995145e-01 -1.11959614e-01 -1.87772527e-01 -2.60810822e-01 -7.00106695e-02 -3.01281869e-01 +3.61557072e-03 +1.42772049e-01 +7.05185682e-02 -2.43323609e-01 -6.31717360e-03 +2.24457189e-01 +1.35458589e-01 -1.25653058e-01 +5.71553744e-02 -1.42029477e-02 -2.28226930e-01 -2.17746422e-01 +1.07854925e-01 +1.17635421e-01 -2.00822785e-01 -1.08413063e-01 -1.23216712e-03 -1.14240125e-01 -1.49033023e-02 +1.48486039e-02 +1.25095785e-01 -3.50390285e-01 -1.60138607e-01 -2.09909841e-01 -5.57794347e-02 +1.89711809e-01 +2.39786744e-01 -2.82868277e-02 -2.97865450e-01 -1.57212660e-01 +1.83320552e-01 +1.15870573e-01 +2.58480608e-01 +1.42313927e-01 +1.52385101e-01 -8.91458243e-02 -2.16249213e-01 +5.40708937e-02 -1.00358978e-01 -8.30535963e-02 +1.00636102e-01 -1.19055361e-01 -2.05117926e-01 -1.04902014e-01 -1.93958893e-01 -2.62808830e-01 +1.63743794e-01 +1.18996032e-01 +5.56151895e-03 +1.70831442e-01 +1.92722142e-01 -9.63186696e-02 -1.21388756e-01 +1.53267920e-01 -9.83928293e-02 +2.90845186e-01 +2.43256226e-01 -9.94300246e-02 -1.48605898e-01 +6.96714073e-02 -4.09819447e-02 +2.63877720e-01 +1.43325254e-01 +4.30068607e-03 +1.71219096e-01 +2.83317156e-02 +2.95812398e-01 +1.89269081e-01 +2.04556987e-01 -1.19052924e-01 -7.51654804e-02 -1.76352486e-02 +2.37325355e-01 +2.37750262e-01 +1.65628158e-02 -2.33932342e-02 +3.08397822e-02 -2.05621317e-01 -9.03798547e-03 +3.30097109e-01 +2.07458898e-01 +1.15761638e-01 +1.57362863e-01 +2.00325131e-01 +2.09742915e-02 -1.17979534e-01 +9.46446285e-02 +2.49643587e-02 +2.72266120e-01 -6.27280995e-02 -5.46043925e-02 -4.77611013e-02 -1.67847693e-01 +3.76607710e-03 +1.85313046e-01 -4.19440586e-03 +3.08358908e-01 +9.12520885e-02 +1.61787167e-01 -4.72665802e-02 +1.80012137e-01 +1.01105019e-01 -5.90329580e-02 +2.04415485e-01 -2.10969776e-01 +3.73960346e-01 -2.08030771e-02 -1.26881152e-01 +3.08050185e-01 +2.07777157e-01 +2.64838845e-01 -4.76505570e-02 +3.36987861e-02 -8.92221928e-02 +1.29211649e-01 -4.99281101e-02 +2.76360303e-01 +2.70258933e-01 +5.70677556e-02 +5.66375852e-02 +5.54748289e-02 +7.07085431e-02 -8.47716257e-02 +4.16293815e-02 -8.50058869e-02 +2.00623170e-01 +4.41172794e-02 +6.10849038e-02 +2.68527150e-01 -5.24375762e-04 +1.87149391e-01 +1.78132311e-01 -6.63024858e-02 -2.12431625e-01 +5.29565811e-02 -1.68764591e-01 +2.25730851e-01 +4.97041494e-02 -1.02495648e-01 -7.05267861e-02 +3.51072922e-02 +8.01642016e-02 -1.65275440e-01 +6.37610117e-03 -1.43491924e-01 +9.96852890e-02 +1.17762275e-01 -1.13427071e-02 +3.43565159e-02 +1.65888578e-01 -5.28062731e-02 +1.40173897e-01 -1.80638298e-01 -1.63530871e-01 +1.63331941e-01 -1.89292356e-01 +2.36091148e-02 +9.97129753e-02 +2.67970532e-01 -5.46302460e-02 +2.29291901e-01 +4.01875898e-02 -1.41781807e-01 +1.81616694e-01 -2.23252341e-01 -2.82397717e-02 -9.64512005e-02 +1.80600226e-01 -1.31434202e-01 -6.60251733e-03 +2.32696250e-01 -2.09272966e-01 -2.44174540e-01 -1.31486759e-01 +7.35492557e-02 -1.63258195e-01 +6.57125786e-02 -1.08555749e-01 -1.57246143e-01 +8.21462274e-02 -1.75490886e-01 -7.47016585e-03 +2.66099244e-01 -1.69249058e-01 +2.42134660e-01 +1.06798641e-01 +1.05856836e-01 +7.14852884e-02 -1.52427256e-01 +2.25697413e-01 +1.64858446e-01 -1.69080626e-02 +1.82410821e-01 +2.06414819e-01 -2.39468217e-01 +2.84344833e-02 -7.24522546e-02 -1.86656550e-01 +5.57988621e-02 -1.43351853e-01 -3.15688819e-01 +6.27862364e-02 -2.20674068e-01 -7.30703399e-02 -1.50919303e-01 -1.19657628e-01 -4.56278846e-02 +1.57752410e-01 +5.20610847e-02 -2.55007923e-01 -1.08270340e-01 +1.27567336e-01 -3.09267104e-01 -1.32635936e-01 -1.12863518e-01 +1.89189523e-01 -2.19574235e-02 -1.18184149e-01 +2.29358245e-02 -2.34400749e-01 -1.84728712e-01 +1.74041186e-02 +1.69310987e-01 -9.88337100e-02 +1.14357919e-01 +3.33432220e-02 -1.63834572e-01 -3.62059735e-02 -2.38846824e-01 +1.65375069e-01 -2.27145538e-01 -8.62519518e-02 -2.35205027e-03 +1.88324675e-01 +2.17081428e-01 +7.62823001e-02 +1.10008925e-01 +2.02862293e-01 +2.46490419e-01 -2.50014700e-02 -1.78576142e-01 -2.53806591e-01 +1.50931135e-01 +5.75104877e-02 +2.59399772e-01 -2.44537547e-01 +3.39160562e-01 +4.36452962e-02 +3.32871079e-01 -9.41982418e-02 +2.67822519e-02 +1.84115052e-01 +2.65355587e-01 +2.66254157e-01 +6.87677134e-03 +3.69265765e-01 +2.16391817e-01 -2.18139216e-01 +4.41625677e-02 +2.67225951e-01 -1.18413597e-01 -6.85340986e-02 -5.92396893e-02 +1.12547055e-02 +4.08792645e-02 -1.34361073e-01 +2.75070012e-01 -1.76405907e-01 +1.92612827e-01 +2.99400002e-01 +1.60227329e-01 +1.76958174e-01 +1.12959020e-01 -7.22783655e-02 -1.87288940e-01 -7.28686200e-03 -1.76153630e-01 -1.39145613e-01 +1.20521039e-01 +1.91825151e-01 +2.78828412e-01 -6.29730001e-02 -1.05659194e-01 +2.68246084e-01 +1.71169519e-01 -3.49828973e-02 +7.21224397e-02 +1.60585448e-01 -1.89522296e-01 +1.55891180e-01 +2.73694992e-01 +3.37933660e-01 -1.73999831e-01 -4.54360992e-02 -1.23620905e-01 -1.07248977e-01 -3.13485771e-01 -8.31819847e-02 -2.53706902e-01 -8.03068355e-02 +1.89602032e-01 +2.14229763e-01 +3.78078446e-02 +5.65008186e-02 -9.82766077e-02 -3.57160680e-02 -7.70177692e-02 +6.33898303e-02 -3.55780870e-02 -1.72344074e-01 -8.50427523e-02 +8.37220699e-02 -3.05662639e-02 -1.05774269e-01 -1.63259670e-01 -1.68377697e-01 -6.13392629e-02 +1.09038450e-01 -3.26141454e-02 +1.58864364e-01 +5.82190193e-02 -2.35671252e-01 -3.22051644e-01 +2.07941290e-02 -2.84925476e-02 +9.50920433e-02 -1.40543312e-01 +5.44628222e-03 -5.37945107e-02 -9.73195732e-02 +3.03579308e-02 +7.22276047e-02 -1.77167132e-01 -1.85238972e-01 +2.17196286e-01 -1.60087734e-01 -1.61646783e-01 +5.54529019e-02 +1.82606339e-01 -1.15430960e-02 +1.16550095e-01 +7.92141333e-02 +1.16775163e-01 +1.42527357e-01 -6.87750056e-02 -2.16762006e-01 +3.17492425e-01 +1.16393296e-03 -1.90581698e-02 +6.63315430e-02 -1.45462928e-02 +3.00892830e-01 +1.65083766e-01 +5.07295802e-02 +1.73027709e-01 -1.76870659e-01 +2.77601004e-01 +8.67531449e-02 -2.03094073e-02 +4.34870981e-02 -1.23400457e-01 +8.63441154e-02 +2.82753855e-01 +2.61406094e-01 +1.48220226e-01 +2.55949646e-01 +1.24086954e-01 +1.57490417e-01 -2.04234809e-01 -1.09628893e-01 -6.75715134e-02 +2.56407827e-01 -6.58249334e-02 -2.90023256e-02 +1.53041348e-01 +1.44016698e-01 +1.06872685e-01 -4.74952720e-02 +2.01955289e-01 +5.38576022e-02 +1.67603940e-01 +7.40009770e-02 +1.19686157e-01 -3.60829756e-02 -1.32482395e-01 +1.78850099e-01 -6.67937042e-04 +7.66075077e-03 -1.95997685e-01 +3.14250261e-01 +8.98509473e-03 -9.99479890e-02 +2.92038947e-01 -2.03426123e-01 -9.24601480e-02 +2.78254449e-01 -6.01923577e-02 +8.48837420e-02 -1.80394024e-01 -1.08335763e-01 -1.17999360e-01 -1.58898488e-01 -2.89975256e-01 -3.25101793e-01 +1.22283166e-02 -2.65330896e-02 -2.06143811e-01 +2.71934479e-01 +1.13161966e-01 -7.25440830e-02 +8.54794383e-02 +1.05210572e-01 -1.14290044e-01 -1.74342677e-01 -2.27777362e-01 -1.42582893e-01 -1.13024414e-01 +1.71990842e-01 +1.77205488e-01 -2.19761670e-01 -9.79349669e-03 +5.64263836e-02 -2.34155193e-01 -1.51413530e-01 -5.64977676e-02 -9.33757052e-03 +1.21609032e-01 +3.09276883e-03 -1.65825139e-03 -9.62369069e-02 +1.45557836e-01 -1.14175849e-01 +3.46183777e-02 -3.00844517e-02 +4.59281392e-02 -9.39552039e-02 -1.12786360e-01 +1.37592062e-01 -2.33589992e-01 +6.63100109e-02 +3.69002372e-02 -3.17986822e-03 +1.42957434e-01 -2.22948149e-01 -6.32360503e-02 -2.33497530e-01 -2.60433972e-01 -2.75399506e-01 +6.76647276e-02 -3.46372575e-02 +8.36734250e-02 +2.22752597e-02 -8.64309166e-03 +2.10033402e-01 -1.40373155e-01 -2.42851093e-01 +2.16890559e-01 -5.93634658e-02 -5.71372882e-02 +3.77961062e-02 -1.20551020e-01 -1.32034570e-01 -3.13165516e-01 +3.06104571e-01 -2.90568650e-01 -2.93256551e-01 +3.25627886e-02 -2.07354963e-01 -2.95266770e-02 -1.38891786e-01 -1.85394555e-01 -1.14207864e-01 +6.63144812e-02 +1.36966154e-01 -1.16441205e-01 -5.99822327e-02 +2.35566162e-02 -1.28340870e-02 -2.90710986e-01 +1.99071795e-01 -1.59603730e-01 -5.51014282e-02 -1.25841588e-01 -1.42693952e-01 +2.13298187e-01 -8.91268030e-02 -2.29683444e-01 -1.42471135e-01 +1.43948629e-01 -3.30456197e-02 +4.39929627e-02 -2.10990891e-01 +2.02876166e-01 -1.47565559e-01 -1.85081735e-01 +4.36459109e-02 -1.52352408e-01 -1.37900278e-01 -1.62683666e-01 -2.51032382e-01 -2.26645768e-01 -1.84913039e-01 -6.24425448e-02 -9.28519145e-02 +1.14353858e-01 -3.41780260e-02 -1.31185502e-01 +1.80398375e-01 -3.64943258e-02 -7.10494518e-02 -1.52703106e-01 -1.16978837e-02 -5.15683368e-02 -1.11816794e-01 -2.01839775e-01 -1.02149859e-01 +1.51485940e-02 -2.38001004e-01 -1.08560780e-02 -2.13466808e-01 +5.06329052e-02 -1.88801467e-01 +2.39618421e-02 -1.35230705e-01 +1.74803227e-01 -1.38805091e-01 -4.64007631e-03 -1.20257109e-01 +1.79031864e-01 +3.82283889e-02 -2.44431764e-01 -6.68990985e-02 -1.77903369e-01 -9.37465802e-02 +3.26449946e-02 +1.24251535e-02 +1.78148508e-01 -2.29083881e-01 +1.80644542e-01 -2.07298473e-01 +9.89243761e-02 -1.08718924e-01 -1.45490065e-01 -2.53258437e-01 +1.77759990e-01 +9.91407931e-02 -6.84944466e-02 +3.44831543e-03 +5.96110001e-02 -2.60194093e-02 -1.32066399e-01 +1.76944032e-01 +4.71009240e-02 +9.91455093e-02 -6.01594225e-02 -2.63771359e-02 -8.14040366e-04 -4.24853601e-02 +5.41640855e-02 -1.45473525e-01 +1.23170145e-01 -1.55689567e-01 -2.14389801e-01 +2.54823477e-03 +1.14558987e-01 +2.44505070e-02 +5.83341233e-02 +1.35925254e-02 +1.88228294e-01 -1.24371521e-01 -1.74306426e-02 +1.60906598e-01 -2.82338485e-02 -1.65726215e-01 -1.91041917e-01 +1.14328109e-01 +1.63008034e-01 -2.83239365e-01 -2.04010814e-01 -2.57389378e-02 -1.16939932e-01 -5.39791472e-02 +8.38638097e-02 -1.75688744e-01 -1.12554610e-01 +5.90968551e-03 -1.86252847e-01 -1.57080725e-01 +1.46101356e-01 -2.86432296e-01 -4.51783091e-02 +4.45778482e-02 -2.57592112e-01 +1.05538383e-01 -1.90197855e-01 +5.71998842e-02 -2.84480989e-01 +1.42676517e-01 -4.01440501e-01 +3.97490785e-02 +5.79980835e-02 -1.37522548e-01 +7.01471344e-02 +2.79605120e-01 -1.89829450e-02 +1.93955451e-01 -7.22359419e-02 -1.34787336e-01 -2.78698802e-01 -1.30372807e-01 -1.55788764e-01 +6.77283406e-02 -1.94924951e-01 -1.82845920e-01 -1.90502137e-01 +2.59653300e-01 +9.33299586e-02 -1.73190400e-01 +9.50236544e-02 +6.42260537e-02 -1.44327596e-01 +4.95544774e-03 +1.81510150e-01 -2.09462363e-03 -1.38734773e-01 +1.76830202e-01 -1.41991243e-01 -2.60837078e-01 -3.17240745e-01 -2.50716954e-02 -7.00687990e-02 -1.83259383e-01 -2.44147986e-01 +2.61311412e-01 -1.32257387e-01 +2.33988285e-01 -1.30127430e-01 +2.49558557e-02 +1.38151690e-01 -2.79038757e-01 -1.17646204e-02 -9.33275372e-02 -3.31310600e-01 +1.55267213e-02 +3.11594993e-01 -3.43556167e-03 +1.69909492e-01 -1.80558369e-01 +1.60583779e-01 +1.81719616e-01 +3.62103395e-02 -2.76500862e-02 -1.39271379e-01 +2.74354946e-02 +4.17269617e-02 +3.58364880e-02 +1.67012420e-02 +7.23409429e-02 -1.78986683e-01 +9.06524509e-02 -8.34356397e-02 -1.06483242e-02 +2.40664527e-01 +1.08069412e-01 +9.64560062e-02 -1.39911938e-03 +1.36490330e-01 -1.44791445e-02 +1.71400890e-01 +2.00784966e-01 -4.53723520e-02 +1.15033634e-01 +1.33378401e-01 +7.68384039e-02 -1.92045689e-01 -1.20343678e-01 -1.72584906e-01 -2.07071658e-03 -5.59648760e-02 +6.19268455e-02 -1.31038427e-01 -6.11045621e-02 -1.12579875e-01 -5.10400832e-02 +2.24057108e-01 +2.24623084e-01 -1.98154873e-03 +6.23698756e-02 +1.59481630e-01 -3.59515250e-02 -3.10890214e-03 -2.40881629e-02 +3.69645916e-02 -1.54350117e-01 -1.10181896e-02 +7.61868572e-03 +9.19936597e-02 -1.22557439e-01 -7.62927998e-03 -2.15514330e-04 -1.72801211e-01 -4.45064753e-02 -1.24166407e-01 +1.59705892e-01 +5.95796965e-02 -1.91209298e-02 -9.54129845e-02 +1.49987921e-01 +1.45121634e-01 +7.21667856e-02 +5.08204624e-02 +8.14979300e-02 +7.41692111e-02 +2.38811672e-02 -1.37061805e-01 -3.81412804e-02 -1.62632927e-01 +6.67794198e-02 +2.67725497e-01 -4.13799360e-02 +1.33367479e-01 -1.48523569e-01 -2.62848847e-03 -1.27640283e-02 +3.43160816e-02 +2.80957043e-01 +5.13895378e-02 -1.42383143e-01 +3.40874910e-01 +2.93294102e-01 +3.88390645e-02 +5.35274073e-02 +1.16705671e-01 -1.09692819e-01 -2.85447910e-02 -4.04518358e-02 +1.61839336e-01 +1.35873318e-01 -2.50196695e-01 +3.60603854e-02 -1.09497294e-01 -1.02305710e-01 -5.30703925e-02 +9.33052003e-02 +3.17142129e-01 +3.06515008e-01 +2.71601021e-01 +5.69391400e-02 -2.88341474e-02 -1.85268313e-01 +9.78305936e-03 -9.81099457e-02 -6.56500459e-02 +1.90111086e-01 -5.85882552e-02 -1.44215718e-01 -2.05330268e-01 +2.99810315e-03 -2.43946716e-01 -1.63472876e-01 +1.63785834e-02 -2.87155569e-01 +3.35582763e-01 -2.89163321e-01 +1.48179248e-01 +2.33263195e-01 -6.57822341e-02 +2.13265166e-01 -1.22115202e-01 +1.77974150e-01 +9.86386389e-02 +2.79486179e-01 +2.96477348e-01 -6.28823787e-02 -4.86681387e-02 -3.13808993e-02 -4.22988273e-02 -1.28244460e-01 -1.02268144e-01 +6.47809505e-02 -2.74208158e-01 -7.22130612e-02 +2.44364947e-01 +1.25474781e-01 +1.70824617e-01 -9.39099863e-02 -9.88391414e-02 +2.67847866e-01 -1.90768450e-01 -1.44036606e-01 +1.89014643e-01 +3.21205080e-01 -2.58617640e-01 -1.46812618e-01 -6.87390566e-02 +2.98686117e-01 -3.56200300e-02 -7.48536661e-02 +1.56155929e-01 -2.38721505e-01 -1.18076295e-01 -2.25949109e-01 -5.00204181e-03 +3.14058632e-01 +2.16046721e-01 +3.19231659e-01 +3.92455101e-01 +1.35945708e-01 +2.65316129e-01 +2.60076731e-01 +8.77053887e-02 -1.64147496e-01 +2.88231205e-02 +7.64238015e-02 +2.41186216e-01 -9.29431915e-02 +3.40402305e-01 +1.56821366e-02 -7.13786930e-02 +6.35268763e-02 -1.30089492e-01 +1.66936263e-01 +2.25516230e-01 +3.33554924e-01 +1.74638033e-01 -1.46453440e-01 -1.39530867e-01 +2.08333910e-01 +1.32666782e-01 +8.15982297e-02 +9.96209756e-02 +1.07544266e-01 -1.20329946e-01 -1.65307283e-01 +1.80714026e-01 +1.37839586e-01 +2.31279302e-02 +1.15517586e-01 -1.75599791e-02 +7.04059079e-02 +2.68304288e-01 +3.12124908e-01 +1.66432988e-02 -6.34157732e-02 +2.80375093e-01 +1.57848984e-01 +4.94273454e-02 +6.18232079e-02 +2.52227724e-01 +4.60559726e-02 +1.30433947e-01 +4.57077585e-02 +2.86614418e-01 +1.83437150e-02 +2.29295507e-01 +8.95831808e-02 +1.26588017e-01 +1.94972321e-01 -2.23678410e-01 -7.42895827e-02 -1.88548610e-01 -1.41010970e-01 +1.28084540e-01 -1.89390421e-01 +1.56476289e-01 -1.62625760e-01 +1.19256966e-01 +9.45095047e-02 -2.78314143e-01 -2.05691934e-01 +1.69738829e-01 +1.30625173e-01 +1.91251919e-01 +8.72864872e-02 -2.06436455e-01 -6.58297017e-02 +2.47626547e-02 +8.52686539e-02 +4.50986475e-02 +1.29647642e-01 -3.43597792e-02 -1.21496789e-01 -1.42773658e-01 -4.92112152e-02 +2.10088223e-01 -1.39047671e-02 -1.89364225e-01 +7.44634122e-02 -1.39301062e-01 +1.28010631e-01 +7.67300662e-04 +5.76039441e-02 +1.56107679e-01 -1.85943082e-01 -3.13976556e-02 +5.79257011e-02 +1.27427250e-01 -2.35314563e-01 +3.28996837e-01 +1.47853093e-02 +5.25023006e-02 +8.31826478e-02 +2.46099100e-01 +1.96929500e-01 -1.62670791e-01 +1.05989203e-01 +1.69615731e-01 -1.21575624e-01 -3.51580419e-02 -8.78326967e-02 -2.44697835e-02 -9.96979252e-02 +1.60902068e-01 +1.64739519e-01 +1.72074288e-01 -1.38095230e-01 -1.49568513e-01 -2.26593241e-02 +2.09034696e-01 +1.15052737e-01 +1.11074954e-01 +2.80453175e-01 -2.00011637e-02 +2.35455595e-02 -2.30522990e-01 +2.63691396e-01 +1.36182204e-01 -1.30490020e-01 +6.83867633e-02 -1.81508213e-01 +2.13651031e-01 -2.57558655e-02 +2.36832872e-01 -4.11667712e-02 +2.11640194e-01 +1.72201455e-01 +1.93774059e-01 -1.28145680e-01 +1.39207110e-01 -9.77475643e-02 -2.15174421e-03 +9.56362486e-02 -7.81090260e-02 -2.05897167e-01 +2.46054217e-01 -1.79511160e-01 +3.15799743e-01 +3.15723479e-01 +7.19982684e-02 +2.36355454e-01 +1.55879557e-01 -6.08579069e-02 +2.11418733e-01 +6.70394748e-02 +9.09314901e-02 +2.89947093e-01 +3.14250320e-01 +1.77719876e-01 -1.13081269e-01 +2.05113627e-02 +2.48876542e-01 +1.11487389e-01 +1.14333615e-01 +1.82610363e-01 -1.29315123e-01 +3.15088332e-02 +1.61743671e-01 +1.34759188e-01 +1.79150596e-01 +1.31171972e-01 -2.07508475e-01 +1.86396658e-01 +2.71391477e-02 +2.90902257e-01 -2.44606867e-01 +4.21657078e-02 +6.27728775e-02 +1.52791142e-01 +1.31657824e-01 +1.68574035e-01 +3.01586300e-01 -1.06508963e-01 +1.17500126e-01 +1.17610976e-01 +1.17415853e-01 -6.73230067e-02 +2.41676167e-01 -1.03226945e-01 +1.16227165e-01 +1.82027236e-01 +2.94372797e-01 -2.80024740e-03 +1.17140738e-02 +2.71723837e-01 +2.67841101e-01 +1.75409511e-01 -3.11060846e-01 -1.94650918e-01 -2.11833954e-01 +2.70007581e-01 -2.34262906e-02 -1.29845038e-01 -2.58361042e-01 -3.27242881e-01 -4.88400646e-02 -1.53705791e-01 -3.31601590e-01 +1.85823232e-01 -2.25569397e-01 +2.34415218e-01 +2.09589172e-02 +4.29976098e-02 -2.51789391e-01 -2.17893168e-01 -1.18786283e-01 +1.23215705e-01 +6.17600754e-02 -3.21411039e-03 -2.20390812e-01 -9.75078195e-02 -2.20744282e-01 -4.10468550e-03 -7.87082538e-02 -2.78582275e-01 +3.43257114e-02 +7.34656900e-02 +1.32400647e-01 +1.51500493e-01 -2.39178628e-01 +1.33242235e-01 +1.34407997e-01 +9.23959017e-02 +1.61622420e-01 +1.44598633e-01 +1.58039704e-01 -1.96192622e-01 -1.94110334e-01 -2.61526078e-01 +9.83716547e-02 +1.00196600e-01 -1.05798848e-01 -8.15917328e-02 +1.99704260e-01 -1.74225029e-02 -1.30892113e-01 -1.56465203e-01 +1.40775904e-01 -3.97818238e-02 -3.72354724e-02 -1.58713445e-01 -2.86433622e-02 +3.33421558e-01 +5.85698858e-02 +1.14837103e-01 +3.37189138e-01 -3.88034135e-02 +3.34884614e-01 -1.00065351e-01 -1.31104529e-01 +2.31157497e-01 +8.84023383e-02 +3.02904528e-02 +3.30162615e-01 +9.70820636e-02 +1.24915369e-01 -1.30111679e-01 +1.68692827e-01 +5.22520393e-02 +1.68947637e-01 +1.26011014e-01 -8.09765011e-02 -1.21371642e-01 +2.30522789e-02 +3.39346260e-01 -2.57092476e-01 +1.69828907e-01 -1.79800063e-01 -1.17543831e-01 -9.42158252e-02 +3.07484001e-01 -4.70093042e-02 -2.02188045e-01 +8.96728039e-02 -5.14082536e-02 -6.60652518e-02 +2.62365490e-02 +1.12302572e-01 -5.07518612e-02 +2.06832588e-01 -1.00401036e-01 +2.86435559e-02 +1.59074098e-01 -1.76408604e-01 -1.51179999e-01 +5.70388176e-02 +1.65459756e-02 +8.81205127e-02 +9.32273939e-02 -3.07318836e-01 -1.35897234e-01 -3.40836078e-01 +9.21468902e-03 -3.55716825e-01 -2.38197312e-01 -1.92626297e-01 -8.86157900e-02 -1.06009483e-01 -2.17816457e-01 -4.99895401e-02 -1.45693883e-01 -1.59527168e-01 -2.27542505e-01 -3.18028271e-01 -2.21211061e-01 +1.23448662e-01 +1.34119079e-01 +8.28768034e-03 +5.35010360e-02 +5.99848330e-02 -2.07919300e-01 +1.60014212e-01 +9.55604017e-03 -3.16256672e-01 -1.64796755e-01 -1.81855395e-01 +2.28324700e-02 -1.37387812e-01 +1.78606644e-01 -7.00660944e-02 +4.64964397e-02 -2.85592526e-01 -6.44879118e-02 -1.61099821e-01 -2.71444887e-01 -1.83587114e-03 -1.06562950e-01 +4.67594452e-02 -2.49697998e-01 -2.81702727e-01 -1.08103640e-01 -9.95601341e-02 -1.27036758e-02 -1.28655776e-01 +1.07452266e-01 -2.96238512e-01 -1.22655794e-01 -1.12558275e-01 -1.53970987e-01 +9.31927785e-02 -1.13491714e-01 +7.06204623e-02 -1.76166162e-01 -2.21052587e-01 +7.66425068e-03 -1.08811013e-01 +1.10322475e-01 -3.60982604e-02 -5.48623651e-02 -1.50671735e-01 -2.09785551e-01 +1.89098027e-02 -1.35668248e-01 -3.33244205e-01 +1.38164952e-01 +1.62898034e-01 +1.24373183e-01 +5.89822344e-02 -1.23280995e-01 +4.42281067e-02 +1.23728782e-01 -1.28955036e-01 -2.51487494e-01 -9.63377804e-02 -2.73573902e-02 -1.20397292e-01 -1.40047088e-01 -1.35620952e-01 -2.40889728e-01 +1.48166120e-02 -1.87387809e-01 +1.20589003e-01 +4.94611785e-02 +1.02371015e-01 +2.27581933e-02 +8.33716989e-03 +1.99379161e-01 -1.07904226e-01 +1.96775690e-01 +1.45170867e-01 -2.62754988e-02 +1.01132482e-01 -2.85526454e-01 -2.72334144e-02 +9.93001983e-02 +1.51265711e-01 -2.53143728e-01 -2.31188804e-01 +2.23993361e-01 -2.89995313e-01 -1.32366806e-01 -1.30094275e-01 -8.58723298e-02 -2.13207886e-01 -2.00397477e-01 -9.98018384e-02 -2.81362653e-01 -2.89049566e-01 +2.44245142e-01 +1.27485424e-01 -2.81311065e-01 +1.20345682e-01 -2.58329481e-01 +7.21489564e-02 -1.97334439e-01 +9.96689647e-02 +2.98927933e-01 -1.63151637e-01 -1.04826339e-01 +1.99859068e-01 -1.67972893e-01 -7.94764012e-02 -1.77082226e-01 +2.08970547e-01 -1.53366970e-02 +2.17408493e-01 -5.01305833e-02 +5.06503768e-02 +3.00553534e-02 +1.66994378e-01 +3.04464251e-01 -2.76437879e-01 +4.03591804e-02 -1.51489228e-01 +2.56293148e-01 -2.34469667e-01 +1.39037386e-01 +1.31305501e-01 +2.87428368e-02 -2.18139559e-01 +2.16349408e-01 -1.72413692e-01 +8.65895301e-02 -7.30010197e-02 -1.78188711e-01 +2.13891491e-01 +9.51646566e-02 -2.43781120e-01 +1.23603895e-01 -1.52694806e-01 +2.18021408e-01 +1.70536205e-01 -1.16193973e-01 -6.01354241e-02 -3.39204460e-01 -1.10418722e-01 -2.03768134e-01 -1.70231789e-01 -1.99693397e-01 +1.69968039e-01 +4.59281206e-02 +2.43512735e-01 +1.45242184e-01 -1.02704622e-01 +1.15995236e-01 +1.64285809e-01 +2.75766373e-01 -2.84407765e-01 -4.83179145e-04 -2.44273967e-03 +7.51961991e-02 -1.72903314e-01 -1.90246984e-01 -1.13190316e-01 +2.81923786e-02 -1.76123202e-01 +1.28681824e-01 +1.73496589e-01 +8.78199190e-02 -1.50275156e-01 +1.87556088e-01 -1.82738170e-01 +2.31773019e-01 +2.01526761e-01 -2.60534376e-01 -2.73722857e-01 -2.65437305e-01 +1.39521807e-01 +1.44478291e-01 +6.81792572e-02 +2.66455770e-01 +1.09281026e-01 -2.30179518e-01 -4.24107909e-02 +2.36232325e-01 -1.40827969e-01 +1.93784878e-01 +4.34156805e-02 +1.89888477e-01 -5.07412888e-02 +1.29534036e-01 +2.41883218e-01 -4.22725976e-02 -5.87559976e-02 +2.66645968e-01 -1.02788925e-01 +2.64371574e-01 -2.10543983e-02 -5.34667484e-02 -7.21012950e-02 -4.03875597e-02 +1.97598971e-02 +3.21198031e-02 +2.00669259e-01 -1.98378876e-01 -6.83454573e-02 -1.02034912e-01 -2.29798302e-01 +1.15272768e-01 +3.89994588e-03 +7.35243186e-02 -1.60602584e-01 +6.56474531e-02 +1.10237179e-02 -1.01683147e-01 +1.03680678e-01 -6.97826669e-02 -2.27407277e-01 +7.22450539e-02 -1.23299919e-01 +1.65660203e-01 -1.78798050e-01 +1.01615876e-01 -4.41364981e-02 +2.07982481e-01 -1.66502103e-01 +4.32819091e-02 +1.21142551e-01 +1.92082852e-01 +1.33460924e-01 +1.56807318e-01 +2.16528699e-01 +2.60287464e-01 -1.90740917e-02 -1.44759476e-01 +2.10793167e-01 +2.95855105e-01 -2.50969995e-02 +7.20370933e-02 +3.15547347e-01 +2.37504900e-01 +3.11212629e-01 +1.88395754e-01 +5.81605285e-02 +7.61009306e-02 -7.70148560e-02 +1.84979171e-01 +1.69778839e-01 +1.15085982e-01 -1.24725446e-01 -1.42757073e-01 -8.58024657e-02 -1.12439200e-01 +2.18446642e-01 -2.34730259e-01 -2.75484994e-02 +6.95621520e-02 -1.13058589e-01 +1.78537458e-01 +1.35186672e-01 +3.23352993e-01 -9.52420160e-02 +4.08811681e-02 -1.26543373e-01 -5.16734831e-02 +1.33375227e-01 +2.67925840e-02 +1.85433924e-01 +1.28756195e-01 +9.94684994e-02 +1.75408438e-01 +1.01944745e-01 -1.90532804e-01 +2.12227166e-01 +2.31678545e-01 +7.59092942e-02 +1.90752715e-01 -5.54497773e-03 -1.82978988e-01 -5.77416010e-02 +9.08754542e-02 +2.57922083e-01 -9.37555581e-02 +2.60160804e-01 +1.33158848e-01 +1.80625647e-01 -3.66642140e-02 -5.62449768e-02 +2.35236749e-01 +3.54524434e-01 -6.11806326e-02 -3.36114131e-02 -1.53770700e-01 -1.29364938e-01 +2.02997983e-01 +1.98698163e-01 +1.81046650e-02 +6.05217144e-02 +8.89192447e-02 +2.28404015e-01 +2.07823128e-01 +1.02203041e-02 -7.65563846e-02 +2.21759006e-01 +1.24002293e-01 -1.17138676e-01 -7.97035545e-02 -1.44721285e-01 -1.42546192e-01 +1.63602307e-01 +3.02377731e-01 +8.17829370e-02 +3.52635086e-01 +1.23640902e-01 +2.19490007e-01 -3.55852768e-02 +1.69312537e-01 -1.50004998e-01 +5.91966398e-02 -1.31980583e-01 +3.20152402e-01 +1.91053391e-01 -1.39277920e-01 -9.11424160e-02 -2.19004378e-02 +9.72916707e-02 +2.73892641e-01 -4.33296673e-02 -1.47372298e-02 +7.40425065e-02 +9.33048427e-02 +2.57816344e-01 +1.88539922e-01 -1.09656669e-01 +1.60239473e-01 +2.49783725e-01 +4.25784737e-02 
#Parameter# /_5 {50} 801 ZERO_GRAD
+2.51332186e-02 +1.53587610e-01 -2.10248213e-02 -2.66984612e-01 -3.55001446e-03 -5.00450144e-03 -8.65112096e-02 -1.36238813e-01 -2.40029857e-01 -2.09854126e-01 +1.53796226e-01 +5.14306165e-02 -7.01116994e-02 -9.74361133e-03 -1.07408680e-01 -1.34070262e-01 -1.78796142e-01 -1.63330361e-01 +1.40864372e-01 +1.03453035e-02 +2.14838475e-01 +5.81840426e-02 -3.28736007e-02 -1.88963741e-01 +1.86598627e-04 -1.39109358e-01 -8.62908661e-02 +1.10397220e-01 -2.39282753e-02 -1.57330744e-02 -1.05330236e-01 -2.28036508e-01 -2.87621915e-01 -3.08846563e-01 -8.12678114e-02 +2.16818169e-01 -1.62326712e-02 -1.65215105e-01 -1.79309458e-01 -2.15417340e-01 -9.06328857e-03 -1.46405131e-01 +9.35373306e-02 +8.19556341e-02 -1.93371683e-01 -3.17625582e-01 -2.47416303e-01 +2.20563933e-01 -2.31510118e-01 -2.52717048e-01 
#Parameter# /_6 {50,3} 2401 ZERO_GRAD
+1.85825974e-01 -3.27685088e-01 -1.60312936e-01 +1.40250921e-02 +1.24016076e-01 -2.54964173e-01 -1.84945211e-01 -5.63569963e-02 -2.02999711e-02 +1.98345780e-02 +1.77782089e-01 +1.15157366e-01 -2.46545121e-01 -1.17034048e-01 -5.09295762e-02 +2.56882042e-01 -1.41525254e-01 -1.69166639e-01 +2.32651085e-01 +7.52763152e-02 +2.78886765e-01 -9.88551825e-02 -2.93238461e-01 -2.77787715e-01 -2.41445720e-01 -2.52711356e-01 +1.35985494e-01 +2.15864748e-01 +1.95442945e-01 +2.52473384e-01 -2.09307745e-01 +2.68329382e-02 -1.63597316e-01 +9.29128528e-02 +2.37663954e-01 +4.52124774e-02 +1.71880275e-01 +3.72325778e-02 -1.29241392e-01 +2.42232591e-01 -2.50093371e-01 +3.93113196e-02 +3.28169167e-02 -2.91173041e-01 -3.23923826e-02 -7.40663111e-02 -6.22141957e-02 -2.39403784e-01 -2.01736048e-01 +2.40901679e-01 -3.25874507e-01 -2.37847567e-02 +3.24795276e-01 +2.70736665e-01 +2.87998825e-01 -6.59568906e-02 -4.00536060e-02 +3.31335753e-01 +3.28646451e-01 -1.67720109e-01 -1.41011670e-01 +1.49217665e-01 -1.28097355e-01 +2.61438042e-01 -1.73273787e-01 -1.63050458e-01 -2.96471447e-01 +1.55163646e-01 -1.10664338e-01 +2.84934908e-01 +2.72897333e-01 -1.02791131e-01 -6.54292107e-03 +1.05185419e-01 -2.41789758e-01 -3.08692515e-01 +2.03414887e-01 -3.29356253e-01 +6.79568648e-02 -1.87524527e-01 -1.28761321e-01 +1.43969089e-01 -1.05487257e-01 +2.55116612e-01 +4.53471839e-02 -2.82992423e-02 -2.03254253e-01 +2.58680671e-01 -2.39399552e-01 -1.58344910e-01 +3.30427021e-01 -2.58540779e-01 +2.78524786e-01 +6.04188740e-02 -2.52759993e-01 -3.07675302e-01 -8.89988691e-02 -1.67875901e-01 +5.05435765e-02 -2.54739225e-01 -3.58834565e-02 -1.42747432e-01 +1.07304513e-01 +2.72156626e-01 -3.20402384e-02 +1.36308938e-01 +1.02201223e-01 -7.55526721e-02 +1.50355428e-01 -2.95683384e-01 -1.94176778e-01 -1.64791882e-01 +2.18887925e-02 +8.90602469e-02 -2.98076123e-01 +2.77655452e-01 -2.29498684e-01 +1.98961288e-01 -6.53561354e-02 -3.11667204e-01 +1.72203273e-01 -5.78946769e-02 +2.47339875e-01 +6.50081038e-03 +2.88157076e-01 -3.13607216e-01 +3.93334031e-02 -1.02253288e-01 -1.67504117e-01 -3.23663205e-01 +3.07390004e-01 +2.05464929e-01 -2.57013142e-01 -1.04077071e-01 +2.71068662e-01 -2.46147156e-01 -3.05097729e-01 -1.96335807e-01 +3.18115205e-01 +4.99228239e-02 +7.35658407e-03 +1.33989930e-01 +2.46077776e-02 +1.04799271e-01 -1.81275696e-01 -3.11325133e-01 -3.10986042e-01 -3.25899482e-01 +6.78406060e-02 -8.76984000e-03 
#Parameter# /_7 {50,50} 40001 ZERO_GRAD
+1.98282644e-01 -1.27203792e-01 -1.63783133e-02 +1.13082081e-02 -2.19875574e-03 +1.59796998e-01 +9.99088734e-02 -1.43261373e-01 +1.86870173e-01 +2.44534597e-01 +1.18331984e-01 -2.68335789e-02 -1.85542271e-01 +1.10494003e-01 -6.69384897e-02 -2.22562641e-01 +2.32057557e-01 -2.89052725e-03 +3.04377526e-02 +2.22779363e-02 -2.71550566e-02 -1.73719078e-01 -1.77598298e-01 -1.20799869e-01 +2.03373894e-01 -5.80612719e-02 +1.07658044e-01 -1.85852915e-01 -1.58199191e-01 -9.84326005e-02 -1.18295223e-01 -1.89347357e-01 +4.76491898e-02 +1.00509241e-01 -2.15090796e-01 +1.26383081e-01 +2.22257525e-02 +1.36703983e-01 -1.03323013e-02 +1.43369868e-01 +7.57923573e-02 +8.93321782e-02 +1.50062144e-03 -1.74018502e-01 -1.28596455e-01 +9.33553278e-03 -1.70542687e-01 -1.92762524e-01 -4.69416380e-04 +1.38151497e-02 -7.11007416e-03 +1.33249164e-03 +8.65140110e-02 -2.17739433e-01 -2.63720751e-04 -2.29942590e-01 -1.40354484e-02 -1.88826025e-02 -3.04170698e-02 -2.19675153e-02 -2.15326667e-01 -2.40747318e-01 +1.18036583e-01 +1.49430469e-01 +1.01170391e-02 -1.64707094e-01 +8.41979533e-02 +2.04509094e-01 +1.23599604e-01 -4.31244224e-02 +6.46411926e-02 +2.76902765e-02 -8.77809972e-02 -2.00927123e-01 +8.32389444e-02 +1.37557492e-01 +1.86137110e-02 +1.10828727e-02 -2.40573272e-01 -2.26462126e-01 +1.27190575e-01 +4.56974953e-02 -2.13759303e-01 +7.99860209e-02 -1.92034215e-01 -6.11506402e-03 +9.08507258e-02 -6.21001273e-02 -1.97707117e-01 -1.27825320e-01 -1.28348023e-01 -1.03571460e-01 -1.07042745e-01 -1.02863938e-01 +1.09180316e-01 -2.34295577e-02 -1.49203598e-01 -1.38384283e-01 -2.13966712e-01 -9.40794796e-02 +8.95627886e-02 -8.90682340e-02 +1.60769895e-01 +8.78064334e-03 -2.28073120e-01 -1.92343250e-01 -3.81165445e-02 -1.93060488e-01 -1.41902104e-01 +1.73317686e-01 -2.18981996e-01 +1.51970252e-01 -9.61065739e-02 -6.79457337e-02 -5.49037904e-02 +1.98095366e-01 +1.25145689e-01 +1.69701353e-01 -5.27365506e-02 -6.16289973e-02 +7.51858205e-02 +3.93011719e-02 -1.50423124e-01 +7.13874251e-02 +1.36791244e-01 -9.81953740e-03 -2.25456357e-01 -1.88715279e-01 -2.45137662e-02 -1.96748197e-01 +1.76069602e-01 -1.10977143e-01 -9.38054919e-02 -1.38523906e-01 -8.32256675e-03 -1.14373207e-01 +8.12186301e-03 +1.45896211e-01 +1.36838481e-01 -1.83165267e-01 -5.44586033e-02 +1.05207756e-01 -1.78740323e-01 +3.47672850e-02 +6.44854158e-02 -7.94215202e-02 +1.74918935e-01 -1.07588798e-01 -4.90370393e-03 -9.72876996e-02 -1.94386095e-02 -2.09088609e-01 +1.93251804e-01 +2.38009825e-01 +1.82364956e-01 +7.39505142e-02 +2.43728146e-01 -1.50792852e-01 +1.67702690e-01 +4.25831974e-03 +2.14852646e-01 +2.00402483e-01 +1.28759488e-01 +2.75851339e-02 +1.40347555e-01 -1.82520181e-01 +6.92021400e-02 +2.02728495e-01 +2.03361049e-01 -2.26019859e-01 +1.00033715e-01 -1.04136139e-01 -1.42406523e-02 +1.14480332e-01 -2.36097172e-01 +1.40254304e-01 +6.81804568e-02 -7.63072073e-03 -1.79578066e-01 -1.81684464e-01 +1.94764584e-02 +1.38065711e-01 +7.87116140e-02 -1.10404074e-01 -1.43084794e-01 +5.01793474e-02 -1.81609452e-01 +6.03098720e-02 -2.25694641e-01 +2.30691284e-02 -1.02064893e-01 +9.34537798e-02 +1.07570365e-01 -7.85496235e-02 +1.66850254e-01 -8.09411108e-02 -6.28645420e-02 -3.52808237e-02 -1.62163794e-01 +9.40240175e-02 -2.41765380e-02 -2.31534272e-01 -1.45038426e-01 -6.75851554e-02 +9.84597057e-02 +2.15513855e-02 -1.29857659e-02 -2.12779045e-01 +1.96237013e-01 -6.68298304e-02 -1.99379265e-01 +2.31975004e-01 +5.01201898e-02 +6.36332780e-02 -6.68088943e-02 +1.25404939e-01 -4.11895663e-02 +1.04821369e-01 +2.10477605e-01 +1.99163064e-01 -1.50477916e-01 +1.66814610e-01 +1.37334839e-01 -2.34653413e-01 -9.10085887e-02 +1.58777431e-01 +1.01319149e-01 -1.47548854e-01 +2.20088109e-01 -1.47725821e-01 +1.96413711e-01 +2.14935094e-02 -6.22403771e-02 +3.41708511e-02 -1.15017071e-01 +1.06378511e-01 +1.37008294e-01 -1.04057729e-01 -1.88374192e-01 -1.69799298e-01 +2.87241787e-02 +8.68258625e-02 -1.37291878e-01 +9.26658660e-02 +2.34980986e-01 +1.39694437e-01 +5.89020103e-02 -1.94969103e-01 +1.09598801e-01 -2.28632048e-01 -1.67358875e-01 -1.95410252e-01 -1.16784543e-01 +1.87800243e-01 -1.41945750e-01 +1.00078359e-01 -2.97478884e-02 +1.80998430e-01 -2.01311499e-01 -7.86545724e-02 -1.60760552e-01 -6.75184727e-02 +1.33678749e-01 +2.12660655e-01 +1.78203776e-01 -4.60601598e-02 -1.07882917e-01 +4.14630771e-03 -9.86274928e-02 -4.67988104e-02 +1.15357801e-01 -1.44129872e-01 -1.10300258e-01 -6.17738664e-02 +1.42073184e-02 -1.25316232e-02 +2.06042781e-01 +1.07937053e-01 -2.64612734e-02 +6.90553635e-02 -1.47174716e-01 -4.77227718e-02 +5.10550290e-02 -4.00752723e-02 +9.45902020e-02 +6.98504597e-02 -1.91798925e-01 -1.71975553e-01 +2.08177790e-01 +2.39622101e-01 -4.69671488e-02 -1.20249316e-01 -1.14152476e-01 +1.88113257e-01 -8.27217400e-02 +1.11020610e-01 -1.27031833e-01 +1.87902316e-01 -1.08238384e-01 -1.17549241e-01 -1.61409438e-01 +1.13888040e-01 -1.10366330e-01 +5.78667223e-03 -4.14895862e-02 +4.31595743e-03 -8.73590112e-02 -1.14852175e-01 +2.26107880e-01 +3.60408872e-02 +2.11016640e-01 -1.19308949e-01 -8.70665163e-02 +2.93605477e-02 -2.12664068e-01 +1.34371802e-01 -2.35607326e-02 -4.22729701e-02 -1.72043726e-01 -7.86752552e-02 +1.70554504e-01 -2.25664228e-01 +1.60542175e-01 -1.13320112e-01 +1.40307352e-01 +1.27008095e-01 +5.89474887e-02 -1.19215012e-01 -2.14739278e-01 -6.47221804e-02 +2.19742700e-01 -1.32956803e-02 +2.03600377e-02 -2.36292407e-01 +1.05779544e-01 -1.21059738e-01 -2.01026678e-01 +5.32167405e-02 -2.19740108e-01 -1.24486983e-02 -2.32137591e-02 +6.97563142e-02 +1.21391550e-01 -9.53626782e-02 +9.99559015e-02 +5.19762933e-03 +1.38760433e-01 -8.32545757e-03 +7.41388947e-02 +1.58566371e-01 +4.40421849e-02 +1.32893935e-01 -5.03339618e-02 -2.32968345e-01 -1.64011911e-01 +1.87088743e-01 +1.38102278e-01 -4.33599502e-02 -1.81773007e-01 -1.68960810e-01 +1.69401690e-01 +1.77067965e-02 +2.43610889e-02 -1.49101079e-01 -1.41815126e-01 -1.32144809e-01 -2.17723340e-01 +2.31729910e-01 -9.14089531e-02 -2.01652795e-01 -1.62870437e-01 -1.74885437e-01 +3.27638537e-02 +1.61503300e-01 +1.22909650e-01 -9.61615890e-02 -1.61572888e-01 -1.59267694e-01 +1.19797125e-01 -1.30643472e-01 +7.50392228e-02 -5.66545278e-02 +1.05145976e-01 -1.53526664e-01 -1.80889070e-02 +2.13010922e-01 -9.66487825e-02 +2.13244721e-01 +1.02728859e-01 -4.70550209e-02 -1.46886706e-01 +1.95174053e-01 +1.73872367e-01 -1.05753124e-01 -1.09022051e-01 -2.13364080e-01 +2.33931988e-02 +1.69477448e-01 -2.43971691e-01 -2.31775790e-02 -2.04468071e-02 -5.23626059e-02 -1.30518854e-01 -2.06263885e-01 -1.66438162e-01 -1.21430755e-01 +1.43154874e-01 -1.23754144e-03 -2.02457488e-01 -4.16425616e-02 +2.33855382e-01 -2.40824640e-01 +3.71001214e-02 -6.63761050e-02 -1.75395310e-01 +1.50839999e-01 +2.54563540e-02 -5.88853955e-02 +1.21127203e-01 -2.25198939e-01 -9.36430097e-02 -1.31285191e-01 +1.80083826e-01 -5.30441254e-02 -2.17658699e-01 +1.06250837e-01 +5.94554842e-03 +1.35124013e-01 -1.57035992e-01 +9.52339917e-02 -1.74812183e-01 -2.13764906e-01 -9.10434574e-02 +2.01730654e-01 -2.61195153e-02 -1.89206123e-01 +2.04859480e-01 -2.48359591e-02 +1.71247050e-01 -3.03838551e-02 -7.15889782e-02 -4.77123857e-02 +1.13123164e-01 -1.58296317e-01 -1.90582588e-01 -1.36132449e-01 +1.05137780e-01 +5.10092229e-02 -6.51789457e-02 -4.71523404e-03 -4.58068103e-02 +1.38724908e-01 -2.18256921e-01 +5.95693737e-02 -1.63191333e-01 +1.01305053e-01 -2.19479337e-01 +3.69489342e-02 +2.23871782e-01 +7.48288184e-02 +1.42380670e-01 -2.30762020e-01 +2.68169791e-02 +4.50497866e-03 -1.52709484e-01 +1.32893875e-01 +1.89660028e-01 -2.41121829e-01 +1.59062132e-01 +2.27996752e-01 +1.45730093e-01 +1.83972552e-01 -8.14747363e-02 -3.09218466e-02 -9.83821154e-02 +7.91799277e-02 +1.97170421e-01 -3.56314927e-02 +1.49449244e-01 -1.39818490e-01 -3.38990986e-03 -1.70128226e-01 -1.27060086e-01 -8.52005333e-02 -3.80310863e-02 +2.29721859e-01 +2.16152534e-01 -1.77477539e-01 +1.58457711e-01 -1.82682857e-01 +2.52517909e-02 -2.26709187e-01 +1.13458201e-01 +4.95530218e-02 -2.39796743e-01 -8.88328403e-02 -2.82010734e-02 +7.68614560e-02 +1.85890302e-01 +1.23126760e-01 -1.89918190e-01 +1.64914295e-01 -2.22574592e-01 -1.99541047e-01 -2.41090953e-02 -1.68766350e-01 +1.96163073e-01 -1.32083595e-02 +1.26340941e-01 -1.64595455e-01 -2.04745650e-01 +1.16282865e-01 +1.74572393e-01 +1.18453786e-01 -8.38929564e-02 -1.68101087e-01 -4.15317565e-02 -2.01828182e-01 -2.27429673e-01 -1.93841413e-01 -2.08223701e-01 -1.35524750e-01 -1.02876022e-01 +2.32812122e-01 +5.33241779e-02 -8.08796287e-02 +1.74694806e-02 +1.64327040e-01 -1.33563265e-01 -1.30485237e-01 -1.01192281e-01 +1.15822032e-01 -1.27242506e-01 -2.16329053e-01 +8.07203799e-02 -2.10223705e-01 +8.88726562e-02 +8.12321901e-04 -1.36761904e-01 +1.41108885e-01 +5.50678223e-02 +1.58187613e-01 -5.05632609e-02 +6.89813942e-02 +1.53035387e-01 -1.69495076e-01 +2.21769765e-01 +5.89382201e-02 +2.03737721e-01 -6.73733503e-02 +1.29150584e-01 +1.84671298e-01 -4.55039591e-02 +2.39490643e-01 -2.02196807e-01 -1.67010412e-01 +5.53724915e-02 +3.80257219e-02 +5.20555526e-02 -2.26559058e-01 -8.64204317e-02 +2.15461567e-01 +2.03421786e-01 +7.38334507e-02 +7.34454244e-02 +7.20679015e-02 +4.36066538e-02 -1.79984272e-02 +3.31723541e-02 -2.19830632e-01 +9.08707529e-02 -1.00699991e-01 -1.84541941e-01 -2.14648917e-01 -7.32654333e-03 +1.11073539e-01 -2.04433545e-01 +1.59492806e-01 +3.78758460e-02 +2.16690615e-01 -6.39277399e-02 +1.90319136e-01 +3.91315669e-02 -1.02799222e-01 -5.88249117e-02 +2.06728473e-01 +1.30553856e-01 -2.43697643e-01 +1.81743070e-01 +2.06243858e-01 -2.17269495e-01 +2.01017544e-01 -2.14746535e-01 -1.39508635e-01 -8.83405805e-02 -2.12359369e-01 +1.64099261e-01 +9.34694260e-02 -7.89982527e-02 -8.17481577e-02 +1.47282645e-01 +2.11155266e-02 +2.07431987e-01 -9.99078453e-02 +2.69544274e-02 +8.45940560e-02 -5.53276390e-02 +1.78903833e-01 -1.17913276e-01 +1.09879389e-01 +2.32642516e-01 -1.86607748e-01 -1.17975414e-01 +3.74533981e-02 -3.57280672e-02 +6.84164912e-02 +2.28287116e-01 -1.02366507e-01 -1.63417548e-01 +9.57316607e-02 +1.13662332e-02 +1.91939518e-01 +1.38108835e-01 -1.80692792e-01 +2.15818152e-01 +5.37214428e-02 +3.32628191e-03 -1.60589457e-01 -2.25398883e-01 +5.81550747e-02 +2.44233206e-01 +1.13734528e-01 -2.97980607e-02 -1.08605698e-01 +1.50430486e-01 -3.96211296e-02 +8.44136029e-02 +1.01713166e-01 -1.53764814e-01 +7.86817223e-02 -4.09148633e-02 +6.64689690e-02 +4.87063676e-02 +1.54671803e-01 +2.21850142e-01 +1.63311258e-01 +1.40402719e-01 +2.25243106e-01 -1.84858471e-01 -9.13827866e-02 -1.01180285e-01 +5.65177351e-02 +1.94580629e-01 -2.40866691e-01 +5.69183081e-02 +1.51739433e-01 +4.54831272e-02 +1.61416575e-01 +7.40109831e-02 -4.24271226e-02 -1.85945615e-01 +1.08629420e-01 -1.47678047e-01 -1.11416057e-01 +5.51746637e-02 +7.89057761e-02 +1.55303970e-01 +3.37407738e-02 -1.30932346e-01 -1.54612184e-01 +2.20586464e-01 +2.44077817e-01 +2.18366191e-01 +3.10613066e-02 +2.00015858e-01 -3.45665663e-02 -6.95778430e-02 +1.74724653e-01 +1.53118223e-02 -9.29035991e-02 -2.28115916e-01 -2.42890537e-01 -1.74503207e-01 +1.90892294e-01 -4.83898222e-02 -3.94178480e-02 +2.18032733e-01 +1.84818372e-01 +2.39763409e-02 -2.43564770e-01 -2.23343134e-01 -1.03130668e-01 -3.99903953e-02 -3.24048400e-02 +1.67802796e-01 -6.48829788e-02 +2.19866797e-01 -1.14471629e-01 -3.59489471e-02 +1.68661460e-01 +3.17048579e-02 +9.71201211e-02 +1.23794153e-01 -2.38776609e-01 +2.55666822e-02 -1.21520177e-01 +1.76188126e-01 +2.37245396e-01 -1.19829819e-01 -2.03967690e-02 +1.49922386e-01 -4.77806032e-02 -1.20260879e-01 +1.56629488e-01 -1.28941119e-01 -1.90721244e-01 +1.09156951e-01 -2.28332803e-01 -2.04436660e-01 -3.67756933e-02 +1.71678439e-01 +1.88974932e-01 -1.46984234e-01 -1.84746772e-01 -1.23416223e-01 +7.07922876e-03 +1.14602894e-02 -6.93939626e-03 +1.36143714e-02 -1.59100339e-01 +9.63603407e-02 +9.52378660e-02 +1.59299329e-01 -1.26355544e-01 +6.64962083e-02 -1.30135834e-01 +6.95144087e-02 +1.00916490e-01 -5.16551584e-02 +3.14261466e-02 -1.46820933e-01 -2.10160911e-02 -8.90624076e-02 -1.11220181e-01 +1.27262905e-01 -6.18574023e-02 +1.30937502e-01 +2.23114640e-02 +2.16907725e-01 -2.31873617e-01 -1.99877352e-01 -4.10269201e-02 -1.46211654e-01 -8.88525844e-02 -2.42276266e-01 -2.42141932e-01 +2.29809433e-02 +3.36516649e-02 +1.99093089e-01 +2.31927678e-01 -6.19744360e-02 -5.91993332e-04 +8.19747597e-02 -6.40848428e-02 +2.45758444e-02 +5.94130009e-02 +5.60009927e-02 +2.46817619e-02 +6.54685050e-02 +2.08404467e-01 +1.56320646e-01 +2.19158754e-01 +2.24022374e-01 +1.78616866e-01 +2.63122469e-02 -1.17579699e-02 +7.82157630e-02 +5.23006767e-02 +4.21810895e-02 -1.95613429e-01 -1.26745343e-01 -2.64174044e-02 +2.25853100e-01 +9.28254575e-02 -2.14118764e-01 -3.86114269e-02 -8.45032036e-02 +3.79531533e-02 -1.15588889e-01 -1.20507166e-01 +2.48249322e-02 +1.70135096e-01 +2.01337174e-01 -7.02663362e-02 +1.45043284e-02 +1.49934143e-02 +2.37788484e-01 -2.09895819e-02 +3.36689204e-02 +2.22305283e-01 +8.69217962e-02 +1.60130069e-01 +8.97406042e-03 -5.85981458e-02 +1.80688426e-01 -7.34089762e-02 +8.28197747e-02 +9.44472700e-02 -5.40752411e-02 -6.46621883e-02 -2.35901132e-01 +1.93278939e-02 -4.51608896e-02 +6.57925159e-02 -1.30138338e-01 +2.29772910e-01 +6.16017729e-02 -9.85119641e-02 +1.16131291e-01 +9.17392522e-02 -1.60338283e-02 +1.44931868e-01 +2.03056350e-01 +1.51709154e-01 -2.66853124e-02 +1.21175185e-01 +8.80085379e-02 +6.37325197e-02 +1.33947030e-01 +8.21945220e-02 +1.80101320e-01 +5.72788268e-02 +1.67819157e-01 -1.59338117e-04 +2.11593851e-01 -2.16625720e-01 +5.93736619e-02 -1.83750093e-01 +6.06466085e-02 +2.32367367e-02 +1.72093555e-01 +2.07526848e-01 +5.22883385e-02 +2.06203356e-01 +2.44627908e-01 -3.51690650e-02 -1.21253282e-02 +2.01254204e-01 +1.40655473e-01 -5.93086332e-02 +1.08997092e-01 -1.79123655e-01 +3.06926668e-03 -1.63861960e-01 +1.99986771e-01 +3.60438079e-02 +9.18032080e-02 -2.26786017e-01 +2.26399675e-01 -1.00718766e-01 +1.99205592e-01 -2.25014120e-01 +1.67280242e-01 -2.10510552e-01 -1.13614202e-02 -2.17409328e-01 -1.09254643e-01 -1.39348507e-01 -1.83417946e-02 -1.67739064e-01 +1.00713864e-01 -2.01765776e-01 +1.80244043e-01 -2.14172572e-01 -1.78378537e-01 -4.59599942e-02 -1.05876803e-01 +1.42983451e-01 +3.41538638e-02 -2.40452915e-01 +1.72886178e-01 -1.09730035e-01 +6.94832653e-02 -1.98087528e-01 +1.40780374e-01 +1.51299074e-01 +1.41048327e-01 -9.89470333e-02 -1.72033936e-01 +6.39237463e-03 -2.08809659e-01 +2.15649381e-01 -1.55866846e-01 +1.92624882e-01 -2.07238555e-01 +7.23958164e-02 +1.20673925e-02 -2.27387726e-01 +8.80132169e-02 +1.84527680e-01 +1.15451202e-01 -1.52735159e-01 -2.39952102e-01 +1.38601497e-01 -5.73784262e-02 +2.23482326e-01 +2.36305609e-01 +1.10452428e-01 -8.42168927e-02 -2.19151095e-01 +3.94789726e-02 -2.04205304e-01 -1.66783720e-01 -1.75687253e-01 +2.37242743e-01 -1.18799970e-01 +1.78475663e-01 -1.32842243e-01 -2.18236491e-01 -2.18750954e-01 +2.20984206e-01 -2.10438684e-01 +2.01573983e-01 -1.67590961e-01 -1.72970742e-01 +1.10717878e-01 -1.04626268e-01 -1.40620649e-01 +7.00776726e-02 +1.48399577e-01 +8.23940784e-02 +1.38053104e-01 +1.34488717e-01 +9.94462222e-02 -1.51450485e-01 +5.81945032e-02 -1.86025918e-01 -2.22346872e-01 +2.41383806e-01 -2.18484625e-01 +1.36043593e-01 -2.05285668e-01 +2.06002191e-01 +7.74795264e-02 -2.28154257e-01 -2.29767129e-01 +1.20895728e-01 +9.86437500e-03 +3.63559872e-02 -7.83435255e-02 -7.89843202e-02 +1.64234444e-01 +1.10056475e-01 +3.63730043e-02 -8.15424770e-02 +1.39907166e-01 +2.33903185e-01 +3.96199077e-02 -1.33888304e-01 -2.97735184e-02 -1.72997534e-01 -9.39095318e-02 +1.12786636e-01 -9.12375748e-03 +2.48966664e-02 +2.31706336e-01 -9.80449915e-02 +1.55321971e-01 -1.12623066e-01 -1.01449043e-01 +4.94636148e-02 +8.55108351e-02 +1.69609591e-01 -2.33288378e-01 +7.70300627e-04 +1.09058604e-01 +1.10244006e-02 -1.16316617e-01 -1.96629420e-01 +9.60988849e-02 -1.34859860e-01 +1.17363915e-01 +5.28357476e-02 +1.77404717e-01 -1.82394356e-01 +1.97873399e-01 -1.01246372e-01 -1.00607723e-01 -1.66452885e-01 -1.92858204e-01 -1.22879267e-01 +4.04571444e-02 -1.13063052e-01 -9.63768661e-02 +1.34466007e-01 +2.38714263e-01 -3.53421271e-03 -5.41413277e-02 -1.75214648e-01 -7.94276595e-03 +2.30013385e-01 -1.17054194e-01 -2.17205569e-01 +2.44354323e-01 +2.28639141e-01 -1.75822675e-02 +1.14422604e-01 -1.73075318e-01 -4.07368094e-02 +5.47568500e-03 -2.12558851e-01 -5.24853617e-02 -1.72410309e-02 -9.39222872e-02 +6.98788613e-02 -1.79444581e-01 -2.23808929e-01 -7.48091787e-02 +1.78844258e-01 -1.96844444e-01 +1.56004861e-01 +9.30659026e-02 +2.33258948e-01 +3.25495005e-03 +1.66276261e-01 -6.49276078e-02 +2.41831586e-01 -1.83623284e-02 +2.23839328e-01 -9.03518498e-02 -2.43352860e-01 -2.61714458e-02 +1.10947713e-01 +7.79183209e-03 +2.22657695e-01 +1.86178789e-01 +1.83831945e-01 +2.36239001e-01 -8.58590454e-02 -1.80866733e-01 +5.61259240e-02 +7.47759640e-03 +2.29398683e-01 +8.74519795e-02 -1.44995406e-01 -1.89485997e-01 +1.32393345e-01 +2.00577527e-02 +1.23431072e-01 -1.06296271e-01 -1.93540648e-01 -8.65184963e-02 +1.74597055e-02 +2.23672137e-01 -1.39995664e-01 +1.52186498e-01 +4.16788012e-02 +1.41029492e-01 +4.42698598e-03 -1.80876464e-01 +1.15770504e-01 +1.85871258e-01 -8.72200429e-02 +1.47175983e-01 -1.71725780e-01 +2.13886946e-02 +1.63054541e-01 +2.77981013e-02 -2.22572923e-01 -4.65761423e-02 +1.90037563e-01 +1.35784298e-02 +1.70236394e-01 -1.33596301e-01 +1.48230359e-01 -3.95168215e-02 +2.44236782e-01 -2.02053830e-01 +1.05556771e-01 -1.44232407e-01 +1.21665105e-01 -1.55422062e-01 -1.17100760e-01 +4.57263142e-02 +1.66155741e-01 +1.79790184e-01 -5.42524904e-02 -3.22880000e-02 -1.19289905e-02 +2.18435213e-01 +1.81929663e-01 -3.19178104e-02 +1.45876259e-02 +1.32899478e-01 +2.10006073e-01 +5.71567267e-02 -7.56035447e-02 +1.68696046e-04 +1.74027309e-01 -6.30911291e-02 -7.80994743e-02 -6.11110032e-02 +6.25225455e-02 -1.11942858e-01 -1.16635889e-01 -5.14343679e-02 -2.35772759e-01 -1.63593441e-01 -1.48364663e-01 -1.27186954e-01 -1.74700320e-01 +4.04691845e-02 -2.40435898e-02 +3.94664556e-02 -2.42700547e-01 +1.16400272e-02 +1.02651671e-01 -8.10300559e-02 -1.75315559e-01 -2.13123307e-01 -2.32419074e-02 -1.29474029e-01 +1.26526207e-02 -2.02364534e-01 -5.61139882e-02 +1.03340641e-01 -1.84055924e-01 -4.15148735e-02 +6.25963062e-02 -1.91957712e-01 -1.30751342e-01 -2.07489491e-01 +5.53695112e-02 -1.06479168e-01 -1.86796457e-01 +6.66400045e-02 -1.53265864e-01 -2.36318111e-01 -7.14487433e-02 -1.45517886e-02 -2.06355602e-02 -1.08562723e-01 -5.76437712e-02 -5.30686975e-03 +1.82507470e-01 +9.05411094e-02 +9.88314599e-02 -1.62181765e-01 -1.18902713e-01 +1.50308922e-01 +2.32081428e-01 -1.91524550e-01 -5.83707094e-02 -2.17518792e-01 -2.28299588e-01 -2.20617041e-01 -9.02312845e-02 -2.40293771e-01 +7.66794533e-02 -1.57176495e-01 +2.23021954e-02 -4.73146141e-02 -3.97821516e-02 +1.55777231e-01 -2.21352085e-01 +6.73946291e-02 +2.39442438e-02 -2.19585612e-01 -2.66022980e-02 -2.99781710e-02 -2.26311386e-03 +1.29057035e-01 -6.30162358e-02 +6.73648268e-02 +2.07144424e-01 +6.21212870e-02 -7.22138286e-02 -5.21504581e-02 +1.66916862e-01 -3.64283472e-02 -9.48634744e-03 +2.08889440e-01 -7.79537708e-02 -2.31192559e-01 -1.37413576e-01 +1.03177294e-01 +1.78680405e-01 +3.28614265e-02 -2.03293711e-02 +1.92582712e-01 +9.68390554e-02 +3.36194783e-02 +2.21509680e-01 -2.19203547e-01 -2.01573968e-03 +4.82167155e-02 -1.23973474e-01 -1.75991505e-02 -4.22804356e-02 +2.14438424e-01 +6.47793561e-02 -1.40313327e-01 +7.37493187e-02 -1.90749466e-02 +4.48541194e-02 -1.66187584e-01 -1.67009741e-01 +8.73485059e-02 +1.65071025e-01 -3.37888449e-02 +1.87925503e-01 +2.43682042e-01 -9.62604880e-02 +7.61721581e-02 +1.66936383e-01 +1.26795605e-01 +2.42942259e-01 -8.22246671e-02 -7.72888958e-03 -1.68473393e-01 -1.46599576e-01 -4.71530259e-02 -5.33764064e-02 -2.22162068e-01 +2.17272863e-01 -1.91623256e-01 -1.70478076e-01 +9.52999145e-02 -1.41097665e-01 -9.45179611e-02 +2.07974866e-01 +1.40685931e-01 -1.45570874e-01 -3.70774418e-02 -2.84421891e-02 -3.81950587e-02 +1.20137632e-03 -1.27249107e-01 -1.02764115e-01 +1.98530838e-01 +1.10688135e-01 -2.44081542e-01 -1.29812509e-01 -2.31494650e-01 +8.70163888e-02 +1.26844928e-01 +1.56862929e-01 -2.24422231e-01 -1.43681616e-01 -1.43794686e-01 +1.79352805e-01 +1.46358237e-01 +3.44612747e-02 +1.68718562e-01 -1.30649179e-01 -2.01220110e-01 +1.47736534e-01 +1.84417859e-01 -5.08212149e-02 -4.94290441e-02 +4.93643433e-02 -1.08415678e-01 -9.40715969e-02 +1.59050748e-01 +2.02228501e-01 -4.16465104e-02 +1.30179480e-01 +1.03261903e-01 -1.40745893e-01 +2.20108792e-01 -1.67528480e-01 -1.58384442e-01 +1.48742944e-02 -1.98359996e-01 +5.42835444e-02 +1.57874674e-02 -9.69860703e-02 -2.35173896e-01 +2.30748549e-01 +2.13633612e-01 +2.22790852e-01 +2.43169591e-01 -1.48121580e-01 +6.37035519e-02 +2.99270898e-02 +1.90150589e-02 +1.40309766e-01 +2.16560677e-01 +2.00625375e-01 +3.28509063e-02 -1.48216993e-01 +1.29211947e-01 +1.99775025e-01 -1.83582187e-01 -1.82974204e-01 -1.60806566e-01 +3.64839584e-02 +9.44256634e-02 +2.63525397e-02 -4.09716368e-03 -7.53501058e-03 +8.73606354e-02 +3.59625369e-02 -1.67832047e-01 -2.26934984e-01 -1.68398559e-01 -7.36789405e-03 -8.24109316e-02 -1.16904512e-01 -5.31348288e-02 -1.39394641e-01 +1.63740262e-01 +1.55242130e-01 +1.68915883e-01 -2.17663050e-02 +5.90556115e-02 +2.06032380e-01 -1.00705475e-01 -1.70151889e-03 -1.61689028e-01 +2.25271732e-02 -8.94461572e-02 -1.72145322e-01 -1.00242168e-01 -1.75759614e-01 -1.42585784e-01 +8.51350278e-02 +1.65923640e-01 -2.96287835e-02 +1.85938224e-01 +1.45454243e-01 +2.03180566e-01 +5.05986363e-02 -1.62113339e-01 -1.67288035e-02 +6.86137825e-02 +2.26509586e-01 -1.46552190e-01 +1.17623255e-01 +3.20789963e-02 -1.72542125e-01 +2.34404787e-01 +1.01532787e-02 +1.98066577e-01 -9.08205360e-02 -6.45380616e-02 -2.19609827e-01 -1.86039805e-02 +5.86424321e-02 +1.69120565e-01 +3.05827707e-02 -9.02404934e-02 +9.95706022e-03 +2.40594283e-01 -1.63615704e-01 -1.55032694e-01 +2.09571794e-01 +1.13242581e-01 +1.70959488e-01 +2.36284986e-01 -1.72998995e-01 -1.94397822e-01 -1.71336651e-01 +4.99391705e-02 +7.33380467e-02 +3.88370901e-02 +1.25076011e-01 -2.54395902e-02 +8.71059150e-02 -1.62568092e-01 +2.12490276e-01 -1.82556033e-01 -1.75552085e-01 -3.13656628e-02 +1.21881559e-01 +7.25733191e-02 +1.41836867e-01 -1.73042387e-01 -1.54507011e-01 +1.52189568e-01 -6.97471201e-02 -8.46354961e-02 -3.04735005e-02 +1.75580069e-01 -7.28723407e-02 +1.90284997e-02 +1.02353558e-01 +1.82898089e-01 +1.44932732e-01 +8.93240720e-02 +2.15068385e-01 +1.68673351e-01 -1.38794154e-01 -2.04709247e-01 -1.96970567e-01 -2.05721855e-02 +1.21038213e-01 +1.05595574e-01 +2.04986915e-01 +2.27411762e-01 +1.75162703e-02 -1.11806542e-02 -5.09323180e-02 +1.90810040e-01 +1.91226602e-04 -1.39241964e-01 -8.38813931e-02 -7.54996836e-02 +2.10049897e-02 -1.12404257e-01 +1.69994310e-01 -2.29206830e-02 -1.94500431e-01 +1.62482068e-01 +9.57681090e-02 +6.44500554e-03 -1.80681527e-01 -8.34465325e-02 -1.03124708e-01 -1.19959339e-01 -2.87645012e-02 -1.43892527e-01 -1.88707322e-01 -2.31827036e-01 -8.52760077e-02 +2.09428146e-01 +2.89478749e-02 -2.24305511e-01 -4.15283442e-02 +7.51330703e-02 +2.29091987e-01 +2.05504462e-01 +1.78026810e-01 +1.21371135e-01 +2.37888232e-01 +1.35137290e-02 -2.20110610e-01 +1.01128861e-01 +1.98038667e-02 -1.37957394e-01 +1.31371453e-01 -1.62409484e-01 +2.00549677e-01 +2.40028962e-01 +9.67721641e-03 +1.57615021e-01 +8.54839534e-02 +1.72470614e-01 +1.91019252e-01 -9.21292156e-02 -4.84588146e-02 +1.35578081e-01 +1.13056853e-01 +1.59828290e-01 -1.44801989e-01 -1.20632641e-01 +2.02424079e-02 -8.08814764e-02 +1.60403401e-02 -3.08570862e-02 +1.85309216e-01 -9.21240002e-02 -1.47398144e-01 -4.94528264e-02 +2.29594097e-01 +1.15288839e-01 +2.49013305e-03 +1.10081032e-01 +1.45804271e-01 +3.93851548e-02 -2.44701505e-02 -1.63995951e-01 +7.33468086e-02 +9.22085196e-02 -5.08022457e-02 +2.01037750e-01 -1.10670522e-01 +1.44068018e-01 +2.31009260e-01 -7.72241503e-02 -1.87787920e-01 -1.77803040e-01 -1.63036063e-01 -1.21017776e-01 -6.52793646e-02 +2.28719100e-01 +3.83231491e-02 -1.91389561e-01 +1.88090846e-01 -5.02585024e-02 +2.16333076e-01 +1.03415653e-01 -2.13809937e-01 -1.67415291e-01 +2.37855062e-01 +1.97771937e-02 +5.75366169e-02 -7.67735541e-02 -1.28454506e-01 +2.26992086e-01 -2.15943083e-01 -1.02858320e-01 -1.24836564e-02 +2.22073779e-01 -4.33354378e-02 -8.32355917e-02 +2.26673231e-01 -2.30553910e-01 +9.42337364e-02 -2.12857753e-01 -5.35026491e-02 +1.94615915e-01 +2.27429375e-01 +7.21872002e-02 -1.62664831e-01 +1.22692570e-01 +2.79906541e-02 -6.27745539e-02 -7.56339580e-02 +3.70029658e-02 +1.32193401e-01 -1.67076290e-02 +5.60504645e-02 -7.09918886e-02 -1.06374010e-01 +8.48404318e-02 +1.11491308e-01 -1.32888794e-01 -1.18099943e-01 +7.65814632e-02 -1.95197701e-01 +1.58530608e-01 +1.39621571e-01 +3.31351012e-02 +2.14775130e-01 +1.81052431e-01 +3.19983214e-02 +2.20907852e-01 -1.96566731e-01 -2.90175527e-02 +3.33335251e-02 -9.45372880e-02 +3.73374969e-02 +2.00460419e-01 -9.23868567e-02 +2.33843878e-01 +9.81867462e-02 +2.09725693e-01 +1.75986037e-01 +9.15977210e-02 +5.56008369e-02 -7.05481470e-02 +1.46276221e-01 +2.27919862e-01 -1.83405310e-01 -1.21335402e-01 +5.10599166e-02 -1.26364589e-01 +2.27235407e-02 +5.65344244e-02 +1.44412473e-01 -9.60663110e-02 +5.30610234e-02 -1.92623004e-01 +4.16314453e-02 -1.78129941e-01 -1.95723236e-01 +1.41941592e-01 -2.13976279e-01 -4.39622253e-02 -8.57901275e-02 -5.75338453e-02 -2.27009937e-01 -6.50964528e-02 +1.25785723e-01 -1.25925526e-01 +1.06357783e-02 +8.07274431e-02 +4.63683903e-03 +1.43020138e-01 -4.49816883e-03 +2.07968637e-01 +1.53748646e-01 -1.10119432e-02 -4.62547392e-02 +7.58804232e-02 +2.09984526e-01 -1.28668308e-01 -2.81607062e-02 +4.01716083e-02 -1.64197356e-01 +1.84444293e-01 -2.20811218e-02 +2.16088668e-01 -2.16493800e-01 +2.93079764e-02 -1.01732090e-01 +2.40556285e-01 -7.02978522e-02 +1.71498135e-01 -2.27542669e-02 +1.70477912e-01 -8.47058147e-02 +3.42976302e-02 -7.69834965e-02 +4.37801927e-02 +1.66237697e-01 -1.95211962e-01 +5.70775717e-02 +2.16930285e-01 +5.68962544e-02 +4.46257442e-02 -2.12090105e-01 -8.56412500e-02 -6.71372712e-02 -1.31431535e-01 +4.51642126e-02 -1.01345658e-01 +1.71008691e-01 +2.26221308e-01 +1.02557704e-01 +1.48903981e-01 -2.10391223e-01 -2.17783555e-01 -2.29111105e-01 +8.62946361e-02 -6.69269860e-02 -3.80857289e-02 +8.08844119e-02 +4.38551605e-03 +2.30322972e-01 +6.39449507e-02 +1.43845573e-01 +1.09817520e-01 +6.93882555e-02 +6.63218945e-02 -4.01535928e-02 +7.49859959e-02 -2.26818338e-01 +1.68792173e-01 +1.30202636e-01 +1.63473383e-01 -6.41844720e-02 +8.95860642e-02 +1.87446028e-02 -1.01264820e-01 -1.98482931e-01 -2.01425746e-01 -1.39318511e-01 -1.16710842e-01 -1.05428413e-01 +1.84733197e-01 +2.34778002e-01 +1.03019431e-01 +1.12265512e-01 -2.11790055e-01 -1.57116085e-01 -2.88765132e-03 +1.00628778e-01 +1.37233242e-01 +2.41168395e-01 -1.89580888e-01 -6.36318475e-02 -1.20889381e-01 -1.84734881e-01 +6.27250224e-02 +2.15769932e-01 +9.19827074e-02 +3.96644622e-02 +9.14917141e-02 -1.98351800e-01 -3.33745480e-02 +7.15678185e-02 +1.33368865e-01 +1.97516546e-01 -1.48466066e-01 +2.23222449e-01 -2.00787947e-01 +5.77706844e-02 -1.66436464e-01 +4.25342470e-02 -1.35644406e-01 +7.96826333e-02 -1.11718819e-01 +1.16781756e-01 -2.06619471e-01 -1.62958413e-01 +1.87050208e-01 +1.98223904e-01 +7.16347843e-02 -2.28690594e-01 +1.27262846e-01 +1.13100216e-01 -7.89916217e-02 +6.02691621e-02 +9.59706753e-02 -2.35855132e-01 -1.60841942e-01 -1.21748745e-01 +1.55553266e-01 +2.28720680e-01 +2.04355195e-01 -4.02103812e-02 +5.36941141e-02 -4.59851176e-02 +1.69205025e-01 +4.55500633e-02 -2.32516825e-02 -1.19731829e-01 -2.02871144e-01 -2.35180512e-01 -6.39145076e-03 -1.08112231e-01 -3.40286642e-02 -4.83805835e-02 +1.77892402e-01 +1.05798677e-01 +7.46102631e-03 +4.39522415e-02 -3.26845646e-02 -2.93858498e-02 -5.29657304e-03 -6.53356016e-02 -5.82031608e-02 +6.13306910e-02 -1.77530766e-01 -2.12528706e-01 +7.02513605e-02 -1.18556023e-02 +2.37009361e-01 -7.31892288e-02 -1.36677444e-01 +1.00084394e-02 -2.22558290e-01 +8.54432583e-05 +4.86699492e-02 +2.07166374e-03 +1.44460574e-01 +4.83190864e-02 +1.95154503e-01 +2.43750438e-01 +7.04817474e-03 +1.10785648e-01 +7.30835050e-02 +4.35258597e-02 -1.81475163e-01 +7.46227056e-02 +9.06337798e-03 +1.36614367e-01 +3.08676511e-02 +1.91183493e-01 -4.77936268e-02 +1.22421786e-01 +6.21368140e-02 -5.38046211e-02 +1.09223977e-01 -2.11218059e-01 -1.21675409e-01 -1.30579382e-01 -3.61887515e-02 -9.00552869e-02 -2.30223641e-01 -2.18741298e-02 +3.26950699e-02 -1.82981312e-01 +4.55873460e-02 -2.38821715e-01 +1.67237416e-01 +1.23961821e-01 -2.35411987e-01 +6.59441501e-02 -1.71375886e-01 -8.34303498e-02 -1.65042788e-01 -1.71430945e-01 +1.12225071e-01 -1.36737227e-02 -1.35275185e-01 -5.45556843e-02 +6.71317428e-02 +2.24996358e-02 -9.20514613e-02 +1.20911375e-01 +2.31556147e-02 +5.92095107e-02 -2.40462482e-01 -1.10883638e-01 +1.57328621e-01 +1.43845245e-01 -1.90920815e-01 +1.77763849e-02 +6.45377785e-02 +1.97343752e-01 +1.93579778e-01 +7.34664053e-02 +1.24980167e-01 -2.33924389e-02 -9.29480791e-02 +1.74668327e-01 +4.70377654e-02 +2.06091389e-01 +1.98437318e-01 -3.12370658e-02 -1.88658267e-01 +1.90189466e-01 -9.39165801e-02 +2.28152260e-01 -2.21250400e-01 +1.21398941e-01 -8.78676027e-02 -2.42924690e-02 +8.17547590e-02 -2.08076358e-01 -1.88174099e-01 -1.85373291e-01 -1.91108733e-01 +2.30077878e-01 -1.43952310e-01 -6.33597374e-02 -3.83471102e-02 -3.78911942e-02 -1.00032493e-01 +1.35040209e-01 +6.85760826e-02 -1.37244672e-01 +2.35087618e-01 -9.38789696e-02 -2.32312679e-01 -1.91660121e-01 -3.62324566e-02 +1.46167710e-01 -2.08065957e-02 +1.01546571e-01 -1.51283562e-01 +9.19999033e-02 +1.57339320e-01 -5.51108271e-02 +8.33916515e-02 +3.87306362e-02 -9.67839956e-02 +1.28929451e-01 +1.79613873e-01 +6.41308278e-02 +1.09706417e-01 +1.59930736e-02 +9.04652923e-02 +3.36146206e-02 -1.39179990e-01 +1.86471745e-01 +2.41669863e-02 -2.34814376e-01 -2.32795298e-01 +2.35154405e-01 -7.00469464e-02 -2.17892244e-01 -1.34750187e-01 +3.21738571e-02 +1.89386830e-01 -1.36824980e-01 -2.01292187e-01 -3.41184288e-02 -1.43022016e-01 -1.29346102e-01 -8.65551233e-02 +1.25956222e-01 -2.01769754e-01 -6.22479320e-02 +1.81601182e-01 -1.49184376e-01 +2.05360427e-01 +5.11377305e-02 +1.10962495e-01 -1.78569630e-01 +4.24397439e-02 -1.56405807e-01 -1.12132534e-01 +2.04908207e-01 +6.17953688e-02 -1.75060853e-01 +1.86056048e-02 +1.40476957e-01 +2.25446180e-01 +1.45647630e-01 +7.42745847e-02 -1.78676680e-01 +1.63404539e-01 +2.40528777e-01 +1.36201814e-01 -8.97740424e-02 -4.67914939e-02 +4.20662910e-02 +1.02089718e-01 -6.94584250e-02 +1.25543848e-01 -6.37437403e-02 +2.06048712e-01 -8.18487853e-02 -9.16814506e-02 -1.53227493e-01 +3.27318460e-02 +2.10113093e-01 -2.02868998e-01 +3.01701277e-02 -1.27366185e-02 -7.96674490e-02 -2.34605014e-01 -1.50838882e-01 +1.21135339e-01 -2.08270326e-01 +1.60237744e-01 +1.08987287e-01 -1.18079185e-02 -8.18781853e-02 -4.10587192e-02 +1.51404127e-01 -1.25570506e-01 +1.64392546e-01 -2.03893870e-01 -1.95024431e-01 +1.72184572e-01 +2.43392542e-01 -1.45139009e-01 +1.48953065e-01 +2.21734568e-01 +2.17882231e-01 -4.22420204e-02 -1.86946735e-01 +8.53629261e-02 -3.91815603e-03 -1.06086627e-01 +1.38785645e-01 +1.86201856e-01 -7.99010098e-02 -9.80114043e-02 +1.91380069e-01 -1.05198026e-01 -1.93029895e-01 -1.35175526e-01 +1.12330362e-01 +6.47141486e-02 +8.17684084e-02 -1.86821878e-01 +1.40920892e-01 +3.88727635e-02 +2.20218047e-01 +1.28768876e-01 -1.32372916e-01 -1.85532421e-02 -1.46025121e-01 +1.98584005e-01 +2.37022653e-01 +2.02800825e-01 -2.02951312e-01 -2.79110372e-02 +2.44026318e-01 +2.38234982e-01 +2.22540870e-01 +1.34425774e-01 -1.24953985e-01 -1.10258952e-01 +2.28219882e-01 +2.38647923e-01 -2.19443962e-01 +5.94746023e-02 +2.07835779e-01 +6.11735433e-02 +4.03503329e-02 +1.51651010e-01 -1.38809383e-01 +1.08922407e-01 -6.11788183e-02 -1.93135768e-01 -1.77624881e-01 +1.43658653e-01 +2.23117396e-01 +1.04966387e-01 +1.70283034e-01 +6.70922250e-02 +1.56605706e-01 +5.79775721e-02 -1.35724753e-01 -1.68225810e-01 -7.65116364e-02 -3.71286869e-02 -1.89655587e-01 +9.20164138e-02 -2.29303688e-01 -2.16967553e-01 +1.15553752e-01 +1.86620638e-01 +1.70391351e-02 -1.53109491e-01 +2.42815807e-01 +4.95403558e-02 -1.66222200e-01 +4.94690388e-02 +9.59469378e-03 -1.76192939e-01 +2.41448328e-01 -2.86246389e-02 +1.42463967e-01 +2.41415203e-03 -2.43436575e-01 -6.19868189e-02 -1.70236021e-01 -1.13560796e-01 +1.03923693e-01 +2.28750840e-01 +1.37986243e-03 +1.22353896e-01 +8.16722661e-02 -2.11112931e-01 -7.18631446e-02 +2.33338639e-01 -1.76107526e-01 +1.36222199e-01 +1.36423543e-01 +2.37136647e-01 +6.05292469e-02 -1.00290030e-01 -2.02606678e-01 -2.23986283e-01 -1.78229675e-01 +2.84912437e-02 -1.22231498e-01 -8.29937160e-02 -2.08373278e-01 -1.43605590e-01 -1.26592577e-01 -1.11825064e-01 -1.96724623e-01 -2.17047215e-01 -4.57834452e-02 +2.29189247e-02 +2.29297444e-01 -2.33806401e-01 +1.04188770e-02 +1.78869084e-01 -1.87154323e-01 -1.34679183e-01 +2.33350560e-01 -2.28203908e-01 +1.42154291e-01 -2.27288097e-01 +5.23239374e-04 +1.11961380e-01 +8.36331993e-02 +5.59256971e-03 -3.03403884e-02 +1.41871974e-01 -1.44693583e-01 +1.44645199e-01 +1.14801869e-01 -9.71041471e-02 -6.93888664e-02 +5.73652834e-02 +1.23590574e-01 -4.14225161e-02 -1.55702055e-01 +2.08841279e-01 -9.28358436e-02 -5.72605133e-02 -4.97694761e-02 -6.62419200e-03 -1.77818090e-01 +1.75225899e-01 +5.79674989e-02 +1.07129648e-01 -1.42040163e-01 -1.31153911e-01 -1.85439348e-01 -2.48770416e-02 +3.39220315e-02 -7.25191832e-03 -8.09574574e-02 -1.34539187e-01 +2.25177541e-01 -1.41528144e-01 +2.36397132e-01 +9.04758722e-02 +2.18664601e-01 -5.08829355e-02 +2.15520605e-01 -2.16799170e-01 -8.75416398e-02 +6.91321045e-02 +2.04605296e-01 -1.75228775e-01 +2.33875141e-01 -6.87744468e-02 +1.77380964e-01 -7.22308606e-02 -9.73084420e-02 -1.46898150e-01 +2.16309920e-01 -5.01060188e-02 +5.64740449e-02 +6.95247203e-02 +2.36605868e-01 +1.31310210e-01 -1.13090158e-01 -1.70183703e-01 +4.99060601e-02 -1.54708326e-02 +9.06043500e-02 -1.56247109e-01 +9.81913656e-02 +9.79992896e-02 -2.12025881e-01 +5.70407063e-02 +3.54449600e-02 +8.72438401e-02 +1.24301761e-02 +7.28063732e-02 +5.25868386e-02 +2.89405733e-02 +2.35656694e-01 -2.08595201e-01 +1.91159621e-01 -7.84078836e-02 +2.19479099e-01 +1.29946634e-01 +2.59005874e-02 -1.11055374e-01 +4.59015369e-03 +5.38314879e-03 -5.40349782e-02 +2.40664408e-01 +2.23709688e-01 -1.20218314e-01 -8.87107849e-03 -3.89354974e-02 +2.09669098e-01 -1.11261860e-01 +1.27745166e-01 +1.69504002e-01 -3.95947695e-03 +1.97677761e-02 -1.19966656e-01 +4.93714213e-03 +2.40374997e-01 -1.61502331e-01 -1.43136144e-01 +7.49348104e-03 +2.23150104e-02 -7.34059811e-02 -8.07283223e-02 +8.17564577e-02 -1.48512423e-01 +7.24856108e-02 -1.76107228e-01 +5.84830195e-02 -9.56777185e-02 +7.64156878e-03 +1.52023479e-01 +7.34136999e-03 +7.42737800e-02 +1.17525116e-01 -1.00312635e-01 -1.99733719e-01 -4.97679859e-02 +2.80508846e-02 +2.42678359e-01 -1.10951811e-02 +7.40702599e-02 -7.21710920e-02 +1.19874492e-01 +1.18049547e-01 -2.14363649e-01 -1.32248238e-01 -3.29864472e-02 -4.64258641e-02 +6.35722429e-02 -1.77076459e-03 +2.21001998e-01 -1.02249190e-01 +6.47547394e-02 +1.35142133e-01 -1.14564821e-01 +1.35025397e-01 -9.07856226e-02 -1.60196334e-01 -1.26366317e-02 -2.26797402e-01 +1.18643597e-01 -6.25191033e-02 -2.20494911e-01 -7.73993134e-02 +1.70660749e-01 -9.65781510e-03 -1.04250520e-01 -1.60251111e-02 +2.25469992e-01 +1.61683902e-01 +1.37381107e-02 +1.33283481e-01 +6.57389611e-02 -1.90319091e-01 +1.55753210e-01 -2.24622041e-02 -6.01069927e-02 -1.48624629e-01 +2.12010190e-01 -4.82026935e-02 +1.33633330e-01 +1.82622597e-01 -1.72938406e-02 +1.00594714e-01 +2.01681748e-01 -1.94695964e-01 -4.02230173e-02 +5.10357767e-02 +1.46237597e-01 -1.43952459e-01 -9.19855386e-02 +1.40203223e-01 -2.43871555e-01 +1.78427562e-01 +8.79466385e-02 -1.79169118e-01 +1.49843886e-01 -3.04310024e-02 +1.99679717e-01 -4.17961776e-02 -1.05448619e-01 -2.16306999e-01 -1.48839056e-01 +5.31009883e-02 -2.03558207e-01 -2.02874437e-01 +2.12182269e-01 +3.37483436e-02 +2.36677721e-01 +6.52574450e-02 +8.34560245e-02 -1.51665121e-01 +1.71469703e-01 +1.43726602e-01 -3.59572470e-02 -1.59767181e-01 +6.32217675e-02 +7.78734684e-05 -2.84218192e-02 -8.70801210e-02 +3.35353166e-02 -4.07709032e-02 -1.36873245e-01 +2.13809654e-01 -1.04561344e-01 -2.00994402e-01 +1.31299153e-01 -1.85402036e-02 +6.99092895e-02 +1.13930851e-02 -1.73487887e-01 -1.89116359e-01 +2.26201937e-01 +1.55601636e-01 -2.04305470e-01 +7.11688250e-02 +1.34717777e-01 +2.35684663e-02 +1.84026256e-01 +2.39687547e-01 +1.97666213e-01 +6.99473470e-02 -4.02894914e-02 -6.41643107e-02 +1.43934205e-01 -1.97334439e-02 +1.54338881e-01 +6.68094903e-02 -2.53228694e-02 +1.16025344e-01 -1.14695966e-01 +1.52768776e-01 -5.74460477e-02 -5.44309765e-02 -1.01722345e-01 +1.42803684e-01 -7.99822658e-02 +1.66281626e-01 +7.97089189e-02 +9.46464390e-02 -1.75149649e-01 +8.20916444e-02 -1.65028155e-01 +1.34819046e-01 -9.69948471e-02 +5.32940477e-02 -2.25346431e-01 -1.65577501e-01 +3.55769545e-02 -4.98325527e-02 -2.10027784e-01 +1.82931080e-01 +2.41485074e-01 +2.21784517e-01 +8.70102495e-02 +2.28238478e-01 +2.29789987e-01 +5.85536212e-02 -1.59451529e-01 -1.72284916e-01 -6.58661276e-02 -2.40614265e-01 +1.71502724e-01 +1.06488213e-01 -7.64489621e-02 -1.77862197e-01 -5.04434109e-02 -5.75029999e-02 +7.40781277e-02 -5.58261573e-02 -8.68768692e-02 -2.13474303e-01 -2.28061765e-01 +2.43710428e-02 +1.84396401e-01 -1.84449792e-01 -1.23535894e-01 +1.27317324e-01 -8.89890194e-02 -1.77459180e-01 -2.39320740e-01 -2.39801839e-01 -8.38308185e-02 +6.17107600e-02 -2.58494914e-02 -9.90531445e-02 -1.69771209e-01 +1.06306866e-01 +1.19906083e-01 -1.20910287e-01 +1.48989186e-01 +9.61113125e-02 +5.59381098e-02 -1.83990479e-01 +4.94409055e-02 -2.26160064e-01 +1.31477043e-01 -1.33508176e-01 +2.58644968e-02 +1.86652705e-01 +1.48155198e-01 +1.20623603e-01 +1.06470421e-01 +1.24026790e-01 -1.30789876e-01 +2.06296101e-01 -1.19481087e-01 +3.62513959e-03 +2.13384777e-02 -1.92840666e-01 -3.86110991e-02 -5.85661829e-02 -3.25796753e-02 -6.93810731e-02 -1.57517195e-01 +1.52525827e-01 -1.20506845e-01 +1.98224977e-01 -8.73192698e-02 -1.51711047e-01 +2.23551542e-02 +1.93553105e-01 -1.41020969e-01 +1.19039521e-01 -9.30867344e-02 -1.53521821e-01 -9.42074060e-02 -7.06246048e-02 +1.43653408e-01 +1.04181752e-01 -5.30436933e-02 -2.00438350e-02 +8.54836553e-02 -2.21933022e-01 -5.36474288e-02 -8.45321119e-02 +2.30849341e-01 -1.62553728e-01 +4.85782772e-02 -1.99703664e-01 +1.16813257e-01 -7.23931044e-02 -7.23130256e-02 -1.98021114e-01 +9.23682749e-03 -1.59582406e-01 -1.78712279e-01 -1.11288637e-01 +5.00031561e-02 -1.78367227e-01 -3.16344500e-02 -2.85919905e-02 -1.44363970e-01 -1.08696327e-01 -7.86584914e-02 -1.19799674e-02 +8.12932104e-02 +2.42301241e-01 +7.60468096e-02 -1.01449907e-01 -1.56819582e-01 +3.17011625e-02 +2.41934970e-01 +1.07053354e-01 -1.78587854e-01 -7.81576484e-02 +8.77100974e-02 +9.81293768e-02 -1.65550292e-01 +1.66252986e-01 -7.09496140e-02 +1.41388640e-01 -1.02271482e-01 -1.75063372e-01 -7.72365928e-03 +5.65522760e-02 +2.15578720e-01 +2.39789173e-01 +2.01189592e-01 -5.18966466e-02 -1.09743223e-01 +1.25996038e-01 -1.55660808e-02 -2.16251612e-02 -1.95601419e-01 +1.81652471e-01 -2.06793100e-01 +1.66483656e-01 +1.75649971e-02 +1.70347109e-01 -9.58836675e-02 +2.25225821e-01 +1.25850543e-01 -1.44580901e-02 -8.03564191e-02 -1.74714521e-01 -5.61677068e-02 +1.01686493e-01 +1.86636344e-01 +1.43859670e-01 +5.66160828e-02 +6.57578260e-02 +1.36360630e-01 +5.92625886e-02 -2.27066189e-01 -1.10614926e-01 +4.57699448e-02 -2.00061172e-01 +1.85406312e-01 +9.09364671e-02 -1.48967147e-01 -8.71825814e-02 +5.33737391e-02 -5.20977378e-03 +9.57597047e-02 +1.34823218e-01 -8.38475376e-02 +2.03284100e-01 -2.06090614e-01 +5.55207580e-02 +1.92642495e-01 +1.77505091e-01 +1.22639850e-01 -1.77376658e-01 -2.03771248e-01 -7.67037123e-02 +1.15176067e-01 -4.00998592e-02 +2.15373680e-01 -1.41244113e-01 -6.83093071e-03 -9.55269039e-02 -3.79018188e-02 +1.42627522e-01 +1.40709713e-01 +2.03880146e-01 +2.38849983e-01 -1.67731643e-01 +1.59602448e-01 +9.28987414e-02 +1.76746473e-01 -2.35673994e-01 -8.27987343e-02 +1.30719319e-01 +2.21595615e-02 +1.17021337e-01 -1.37323752e-01 -2.37459436e-01 -1.33743957e-01 -1.05741516e-01 -9.60487723e-02 +1.66332677e-01 -6.40936196e-02 -2.76544690e-02 -5.90313822e-02 -6.59868121e-02 
#Parameter# /_8 {50} 801 ZERO_GRAD
+1.82302296e-03 -2.26352826e-01 +1.81045517e-01 +1.96912333e-01 -1.29314601e-01 +1.63775399e-01 +4.86953408e-02 +1.57328978e-01 -1.43222719e-01 +6.72782511e-02 +3.78044695e-02 -2.37295330e-01 -1.11980811e-01 +1.59096494e-01 -2.10557044e-01 +1.34257391e-01 +1.10884160e-02 -1.40847981e-01 -2.15516999e-01 -7.67003000e-02 -1.27472997e-01 +7.75053650e-02 +1.76047936e-01 +7.49557763e-02 +1.37749001e-01 -1.96365923e-01 -2.21071512e-01 +1.08377799e-01 +3.33137959e-02 -9.16765183e-02 +5.33217341e-02 +2.35282347e-01 +5.62687963e-02 -1.91674262e-01 +2.27395013e-01 -2.12651342e-01 -8.43724906e-02 -6.80442601e-02 -1.77052915e-01 -8.23023319e-02 +2.10437924e-02 +6.52752966e-02 -1.78401694e-01 -1.54802740e-01 +1.53650388e-01 -4.57267761e-02 +2.06168666e-01 -1.37179375e-01 +1.48493454e-01 -3.09605896e-02 
#Parameter# /_9 {50,3} 2401 ZERO_GRAD
-3.66490453e-01 +1.29245609e-01 +1.19103894e-01 +3.06126121e-02 +3.09622943e-01 -9.96472314e-02 +2.48425648e-01 -4.79948938e-01 +1.25585005e-01 +3.81685227e-01 -3.00529391e-01 -2.80491084e-01 +1.23444878e-01 +1.79112390e-01 -3.66170645e-01 +6.80363700e-02 +1.73179448e-01 -1.38990998e-01 +1.74327299e-01 +3.20868433e-01 +9.84380469e-02 -2.33382672e-01 -2.02301532e-01 -3.52425069e-01 +2.70220965e-01 +2.37435941e-02 -3.70039225e-01 +2.17126869e-02 -8.75800923e-02 +3.52392226e-01 -2.64703725e-02 +3.50990117e-01 -5.60981855e-02 -2.84776688e-01 -1.41782269e-01 -1.73127770e-01 +2.97085881e-01 -2.50409395e-01 +1.64468586e-01 +1.36617916e-02 -3.61696690e-01 +3.98126394e-01 +2.78197993e-02 -1.62998661e-01 +3.05511594e-01 +3.08728635e-01 +2.49991760e-01 -2.29078811e-03 -3.11626583e-01 +5.88945746e-02 -3.54022086e-01 -2.78344870e-01 +4.23651725e-01 +1.60895988e-01 -2.54930645e-01 +2.97648042e-01 +1.08047538e-01 -3.42548430e-01 +2.00117901e-01 +6.43131807e-02 +1.64978996e-01 +1.80965289e-01 -2.11902335e-02 -1.88133046e-02 +2.26891398e-01 -8.45800266e-02 -3.18098456e-01 -1.12976447e-01 -1.90645620e-01 +2.53337651e-01 -1.28793299e-01 +2.28868261e-01 -1.47626847e-02 -1.19636178e-01 +4.89672972e-03 +2.88881630e-01 -1.86654240e-01 -1.23332419e-01 +1.23385191e-01 +3.54010046e-01 +1.34149998e-01 +2.43251711e-01 -1.70558944e-01 +1.01026699e-01 +1.29305959e-01 +1.83744505e-01 -5.73462546e-02 -1.71865284e-01 -2.03295663e-01 -2.87511170e-01 -8.13600048e-03 +1.71600103e-01 -1.53657302e-01 +4.87219021e-02 -8.42197612e-02 +1.82711855e-01 -9.58954021e-02 -1.99840188e-01 -2.70212382e-01 +2.91862991e-02 -1.74479768e-01 +3.14629674e-01 +2.68795252e-01 -2.56479025e-01 -2.32383296e-01 +2.33329952e-01 +2.88642257e-01 +1.99495200e-02 -3.32653970e-01 +1.10394336e-01 -3.03631872e-01 -2.24366635e-02 +2.23092377e-01 -1.14100315e-01 -6.44819960e-02 -2.61580706e-01 +7.19315037e-02 +2.40439400e-01 +2.18482420e-01 -1.07659232e-02 +2.96100676e-01 -9.10659507e-03 -1.43486992e-01 -3.01150113e-01 -3.46426129e-01 +2.31351539e-01 -4.49780613e-01 -1.47149116e-01 -2.35540420e-01 +8.62907469e-02 -9.10429582e-02 +2.98177838e-01 -1.45423353e-01 +3.57647806e-01 +3.40116858e-01 -1.33972997e-02 -1.94163680e-01 -4.01443802e-02 +2.74836496e-02 -1.84117988e-01 +2.30000451e-01 -1.75463572e-01 +9.17429291e-03 +3.50482017e-01 +1.97082564e-01 +4.40575272e-01 +2.25640938e-01 -2.97136158e-01 +7.03489482e-02 -4.11039919e-01 
#Parameter# /_10 {50,50} 40001 ZERO_GRAD
