#Parameter# /_1 {3,50} 2401 ZERO_GRAD
-2.89115489e-01 +1.51836157e-01 -2.21050814e-01 -2.15003520e-01 -7.78258741e-02 -2.64520943e-02 -5.19737899e-02 -3.34200472e-01 +6.21195436e-02 +1.26187652e-01 +1.13545686e-01 -1.52789816e-01 -4.80885506e-02 -1.85051888e-01 +1.66495115e-01 -1.55626178e-01 -1.93172053e-01 +3.08346450e-02 +8.07177424e-02 +1.91868156e-01 -9.95148122e-02 +1.77105874e-01 +1.33096963e-01 -3.11386496e-01 +1.15780592e-01 -2.40571052e-01 -1.77626535e-01 -4.10578847e-02 +1.74625248e-01 -1.33418143e-01 -4.40288484e-02 -2.02286452e-01 -1.78452864e-01 -2.43359298e-01 -5.78566194e-02 +7.28929043e-02 +2.67959148e-01 -3.07438612e-01 -2.88132012e-01 -2.11304218e-01 -1.91169664e-01 +1.43016338e-01 -2.77057797e-01 +1.44589484e-01 +2.65210301e-01 +3.30476433e-01 -2.22500265e-01 -1.01543948e-01 -2.35526741e-01 +1.99405462e-01 -2.28649378e-03 -1.59858987e-01 +3.36239845e-01 -2.57294685e-01 -9.30226743e-02 -4.27284241e-02 -2.66170055e-01 -2.96554387e-01 +3.26707751e-01 -1.90921605e-01 +1.63855165e-01 +1.06413096e-01 +9.38786566e-02 -1.72467530e-02 -2.72529244e-01 +2.29906648e-01 +1.06980085e-01 +3.22900414e-02 +2.69007355e-01 -2.62695074e-01 -2.59837925e-01 -2.79110581e-01 +1.46764249e-01 +2.33931452e-01 +9.70806479e-02 +2.51295775e-01 -1.94538400e-01 +5.82831204e-02 -1.63232937e-01 +1.06599569e-01 -2.07169235e-01 +4.25911248e-02 +2.51861542e-01 +5.00505567e-02 +1.38829738e-01 +1.99252665e-02 +1.68758839e-01 -4.88077402e-02 -2.02712134e-01 +3.07680219e-01 +5.89483678e-02 +1.84191138e-01 -2.71264523e-01 +4.65121865e-03 -3.49733233e-03 +1.48456991e-01 -2.37619221e-01 +7.49755800e-02 +1.08348250e-01 -8.17545652e-02 -4.42994833e-02 +4.93173301e-02 -2.59200990e-01 -2.39254296e-01 +3.35599691e-01 +7.08062649e-02 -1.95257694e-01 +2.50206739e-01 -3.07789594e-01 -3.97967696e-02 -2.46347815e-01 -2.31146812e-03 -2.69884408e-01 +1.09834880e-01 -1.06765702e-01 +2.57489771e-01 -1.24256417e-01 -3.35120112e-01 +1.74816698e-01 +2.00351924e-01 -8.83907080e-04 -5.39115667e-02 +1.38489008e-01 -1.77661136e-01 -1.28942668e-01 +1.02302015e-01 +4.63551581e-02 +1.29925132e-01 +1.08116150e-01 -2.67696679e-02 +4.35404778e-02 -2.50301123e-01 -2.11414531e-01 +2.98101574e-01 -2.92304456e-01 -2.86676437e-01 +1.11455828e-01 +2.34694749e-01 +2.69387215e-01 -1.50426716e-01 +1.88654095e-01 +1.82993323e-01 +6.80983961e-02 -2.11173072e-01 +2.99110800e-01 -1.30675897e-01 -9.65427011e-02 -2.01938763e-01 +2.62579620e-02 +2.32625991e-01 
#Parameter# /gru-builder/_0 {50,4} 3201 ZERO_GRAD
+3.26128751e-01 +1.75106049e-01 -8.60524923e-02 -1.81962088e-01 -4.84213158e-02 -3.69536966e-01 +4.06761877e-02 +2.90427953e-01 +4.25191402e-01 -2.04844493e-02 +1.60550639e-01 +2.04077780e-01 +1.73650876e-01 +1.35080308e-01 +1.53681770e-01 -4.54654127e-01 -5.76450080e-02 -4.97049354e-02 +5.19126887e-03 -6.25218973e-02 +3.89879420e-02 +2.58457452e-01 -6.56860322e-02 -4.38643843e-01 +1.30729809e-01 -3.33900362e-01 +3.44078869e-01 -1.70948967e-01 +2.67944455e-01 +7.72042247e-03 -2.81567961e-01 -3.56290728e-01 -2.16330275e-01 -1.69297427e-01 -1.00515015e-01 -3.24090213e-01 +7.37963393e-02 +2.11903289e-01 +2.12986186e-01 +1.08472565e-02 -2.83289142e-02 +3.28368810e-03 -5.47751710e-02 -1.63592458e-01 +1.12551861e-01 +1.63873225e-01 -2.48769388e-01 -1.44581988e-01 -9.06281993e-02 +2.31854945e-01 +1.38640314e-01 +1.30971760e-01 +1.08416984e-02 -3.85598540e-01 +2.19180211e-01 +2.91159481e-01 +1.87419340e-01 -4.80854839e-01 -3.02073210e-01 -2.51895696e-01 +1.62093699e-01 -2.40122899e-01 +1.42318429e-03 -2.54822299e-02 +3.39481503e-01 -1.63806334e-01 -2.78697222e-01 +2.99959838e-01 -1.50335088e-01 -6.70336280e-03 -2.43880808e-01 -2.81482458e-01 -3.88520747e-01 +1.61048040e-01 -4.89142358e-01 -1.98405936e-01 -7.25017339e-02 +2.10247654e-02 +9.79256108e-02 +4.41892564e-01 +1.28531903e-01 +7.24963322e-02 -1.62953198e-01 +3.25230122e-01 +3.40766340e-01 +4.08453107e-01 +1.32526115e-01 -1.26775175e-01 -5.97496852e-02 +2.20077544e-01 -3.20080578e-01 -8.75050351e-02 +2.19680071e-01 -3.79603952e-01 -6.19526088e-01 +3.52858305e-01 +1.95767924e-01 +1.56816155e-01 +3.01144898e-01 -1.96373224e-01 -2.39447981e-01 -3.60732526e-01 -4.91862208e-01 -1.65422142e-01 -1.86613411e-01 -3.03632796e-01 -3.20653588e-01 -3.62617046e-01 -3.11911196e-01 +1.22932829e-01 -3.81916881e-01 -1.14481084e-01 -4.73669358e-02 -2.29558587e-01 +7.66144618e-02 +4.19013053e-02 +1.34406537e-01 -2.69373596e-01 +1.66360438e-01 -8.82145390e-02 -4.40719247e-01 +6.85971454e-02 -1.31969631e-01 -7.88050704e-03 -1.50727153e-01 -2.27717042e-01 -5.26936390e-02 +1.50084853e-01 -2.33758092e-02 -4.22856444e-03 -3.08235437e-01 -5.38019538e-01 -1.09905586e-01 -1.73927814e-01 -4.33905609e-02 -4.17136140e-02 +7.75604844e-02 -4.18546051e-01 +1.95585918e-02 -3.86613041e-01 -4.05516833e-01 -2.69312799e-01 -4.17994022e-01 -7.97717497e-02 -6.72749937e-01 -1.88618809e-01 +4.86389548e-02 -3.63210857e-01 -1.87448785e-01 -2.66666096e-02 -3.31024602e-02 -4.38136697e-01 -4.25666392e-01 -2.88385581e-02 -4.06217039e-01 -4.17685241e-01 +1.21842504e-01 +5.56167699e-02 +2.67526239e-01 +2.26494055e-02 -2.29493633e-01 -4.34671909e-01 -1.44013658e-01 +1.04810737e-01 -3.71960491e-01 -4.78792876e-01 -2.03319639e-01 +8.83012041e-02 +1.32295489e-01 -1.99289639e-02 -3.61198127e-01 -6.15792334e-01 -1.14372119e-01 -5.53548038e-01 -4.59387392e-01 -1.72655240e-01 -5.83234541e-02 -4.56883818e-01 +2.76203733e-02 +1.24996334e-01 -4.39786911e-03 -3.83466214e-01 +1.45597667e-01 +8.11410882e-03 +1.70936752e-02 -4.15554821e-01 -1.97062477e-01 +1.05831549e-01 -2.61739522e-01 -2.01650113e-02 -4.35684204e-01 -6.87150002e-01 -1.42768174e-01 +3.19922537e-01 -4.00717407e-01 -4.40462440e-01 +5.29824942e-02 +1.38722301e-01 -5.83441496e-01 -4.54517931e-01 
#Parameter# /gru-builder/_1 {50,50} 40001 ZERO_GRAD
+3.77547264e-01 -1.03834443e-01 +1.07220985e-01 -6.13564672e-03 +1.74881697e-01 -1.21782264e-02 -2.61786543e-02 -5.97920269e-02 +1.83750056e-02 -5.89403920e-02 +1.07361801e-01 +3.58555555e-01 +8.19854736e-02 -7.99212698e-03 +8.72795880e-02 -2.03735486e-01 +2.56654918e-01 +1.82872772e-01 +3.69412720e-01 +1.20997898e-01 +1.88596681e-01 -2.37096280e-01 +1.43389463e-01 +2.70215068e-02 -3.21509354e-02 +1.84371427e-01 -9.01355222e-02 +1.11263819e-01 +2.59794682e-01 +1.31137267e-01 -1.96963012e-01 -2.59352416e-01 +1.01599144e-02 -2.37910319e-02 +3.40885550e-01 +4.78871129e-02 +3.22609931e-01 +1.08285613e-01 +2.91436762e-01 +9.45868418e-02 +8.21627304e-02 -7.43291453e-02 -6.32032473e-03 +8.24175104e-02 +2.61571035e-02 -1.49467140e-01 -1.79802239e-01 -7.68298507e-02 -1.59107134e-01 +8.44756514e-02 +2.35760480e-01 +3.30087572e-01 +1.13406703e-01 +4.38323431e-02 +1.97650176e-02 +1.04579002e-01 +1.41672328e-01 +9.85689759e-02 +3.49956781e-01 +3.82357627e-01 +1.69918448e-01 -1.37832969e-01 -3.71045209e-02 +2.71374315e-01 +1.57855332e-01 -1.72975376e-01 -1.38142342e-02 -1.35584339e-01 +1.22098193e-01 +3.30134109e-02 +4.06103611e-01 +1.07752115e-01 +3.22190523e-01 -7.03567863e-02 +3.49221021e-01 +1.40511125e-01 +3.77050370e-01 +2.63848215e-01 +2.51783170e-02 +1.57664955e-01 -1.50716528e-01 -1.92693874e-01 +3.78885359e-01 +1.90560669e-01 +6.59728944e-02 -2.39073653e-02 +9.09416303e-02 +2.21375704e-01 +2.06449285e-01 +3.24598998e-02 +2.39191532e-01 +3.71535607e-02 +1.48017317e-01 +1.84387118e-01 +1.82949767e-01 +2.76974052e-01 -2.28342623e-01 +4.37763482e-01 +8.19719061e-02 -4.48270664e-02 +7.50712678e-02 -9.87304747e-02 -3.74332786e-01 -2.86729378e-03 -1.79353461e-01 -2.00659826e-01 -4.23501916e-02 +3.24526846e-01 -1.55133516e-01 -5.20366617e-02 -2.78539449e-01 +5.56766987e-01 -8.88968334e-02 -1.74896106e-01 -1.23534568e-01 -3.76030445e-01 +3.24520729e-02 -4.91006523e-02 -1.46016493e-01 +1.67893633e-01 +3.22706923e-02 -2.75940329e-01 -1.61392853e-01 +8.27184841e-02 +1.36763945e-01 +4.40062672e-01 +7.05803186e-02 +3.31215113e-01 +1.16749674e-01 -9.82710794e-02 +2.47161567e-01 -9.83526930e-02 -1.18540265e-01 +1.46557279e-02 +2.60891497e-01 -2.70248383e-01 -5.08183129e-02 +3.36144686e-01 +4.27263767e-01 -1.14645682e-01 -1.30930737e-01 -2.03751862e-01 +1.87317714e-01 +3.43054801e-01 -1.88835174e-01 +5.62547194e-03 +1.50383458e-01 -5.93604222e-02 -3.54982227e-01 -2.87128359e-01 +1.47177204e-01 -1.66588098e-01 -2.14203715e-01 -1.24470554e-01 -2.36281469e-01 -7.65998214e-02 +4.67211120e-02 +2.04249084e-01 -3.08108598e-01 +9.21359733e-02 -9.01813358e-02 -1.70789808e-01 -6.30823476e-03 -1.03031605e-01 -1.55292511e-01 +1.87959462e-01 -2.38992244e-01 +3.17240469e-02 -2.84637094e-01 -4.06559557e-01 -2.54094630e-01 -2.46375650e-01 -3.05265695e-01 +6.08308874e-02 -3.37558031e-01 +1.52605563e-01 -2.88338978e-02 -1.75892904e-01 -3.26119483e-01 +5.27888872e-02 +2.18932003e-01 -3.17606330e-02 -8.93621966e-02 +8.93686041e-02 -1.95259914e-01 -7.36506134e-02 -6.63321614e-02 -2.48645425e-01 +1.29029378e-01 +9.94506851e-02 -1.57725632e-01 -1.03794090e-01 -5.81820356e-03 +1.15681775e-01 -7.99596906e-02 -1.98427886e-01 -1.29354492e-01 -2.30891883e-01 -2.19616622e-01 -1.50452331e-01 -2.55258977e-01 -6.67072758e-02 +4.56388801e-01 -2.08612889e-01 +2.04097256e-01 +3.87337416e-01 +2.61345923e-01 -1.56718895e-01 -4.86168750e-02 +1.12400405e-01 +2.67049819e-01 -2.88905352e-01 +1.05912872e-01 -5.23742475e-02 +2.81372696e-01 +2.87012488e-01 -3.13699961e-01 -1.43111452e-01 -2.44913533e-01 -2.32292950e-01 +8.28578025e-02 -1.49093926e-01 -5.28595075e-02 -9.68722925e-02 -1.73870474e-01 -7.49080241e-01 -1.17362365e-01 -4.00104746e-02 +2.26100404e-02 +3.96488607e-01 +1.24108829e-01 +9.17651206e-02 -3.81912105e-02 -4.13312018e-02 -1.49331853e-01 -4.15312164e-02 -2.49972165e-01 -7.11515248e-02 -3.29685092e-01 -7.56664500e-02 -1.37104124e-01 +2.21968025e-01 -8.00195336e-02 -3.44621956e-01 -2.13652430e-03 -1.22276865e-01 -1.08591765e-01 -1.32438704e-01 +9.91345793e-02 +3.39652836e-01 -2.62965053e-01 +2.16406077e-01 -1.64784808e-02 +7.45687410e-02 -1.31682660e-02 +2.49694422e-01 +3.79836887e-01 -5.39627038e-02 -9.08697397e-02 +1.59389421e-01 +2.84530014e-01 -2.00420916e-01 -3.93061265e-02 -2.16424927e-01 +3.79774570e-02 +2.88958073e-01 -2.76942700e-02 +2.93758094e-01 +1.68852970e-01 +1.04488991e-01 +2.52936363e-01 -1.86920669e-02 -9.04046744e-02 +2.57141441e-01 +2.23065361e-01 -1.06259421e-01 +1.25145450e-01 +5.64167127e-02 +3.07146966e-01 -3.58426906e-02 +1.80313602e-01 -9.91773140e-03 +2.06959322e-01 -6.62597045e-02 +9.56417769e-02 +2.84101337e-01 -9.74129885e-02 -2.43107751e-01 +6.06923713e-04 +2.17048392e-01 -1.54603139e-01 +7.71306604e-02 +7.54690841e-02 -1.55885011e-01 +2.69455135e-01 +3.06120217e-01 -2.48435259e-01 -7.73378983e-02 -1.30855039e-01 -1.39490411e-01 +2.61376589e-03 -1.15689822e-01 +2.91079879e-01 +1.94645748e-01 -8.28187615e-02 +2.50218660e-01 +1.31368786e-01 +2.83915158e-02 +1.42076194e-01 -2.12778538e-01 +1.17614735e-02 -2.34548360e-01 +3.00588340e-01 -1.98668297e-02 +1.50317103e-01 +4.45757300e-01 -1.96833521e-01 +2.89140373e-01 -2.95025706e-01 -3.26665878e-01 -3.31284136e-01 +2.92495284e-02 -1.60638301e-03 +2.62444541e-02 -2.25395814e-01 -2.05393180e-01 -3.02126259e-01 +3.42341624e-02 -1.16603702e-01 +2.17114419e-01 -1.88077226e-01 -1.53774157e-01 -1.73157230e-02 -7.39959553e-02 -4.06800449e-01 +1.59615725e-01 -8.82952288e-02 +4.16236967e-02 -2.79489636e-01 +1.77767023e-01 -2.81266689e-01 +5.28757134e-03 -4.09192704e-02 +1.13125099e-02 -1.13505110e-01 +1.99878395e-01 -3.90669815e-02 -1.27886832e-01 +9.56358165e-02 -8.70462954e-02 +8.80784318e-02 +2.12649375e-01 -5.55062182e-02 -5.21368533e-02 -2.14863375e-01 +1.76650718e-01 -1.51457936e-01 +2.26621181e-01 -1.77172258e-01 -1.46469682e-01 -1.87907144e-01 +9.88858193e-02 +4.21105698e-02 -1.29453316e-01 -3.14835794e-02 +3.24683845e-01 -2.66468227e-01 +9.10695568e-02 -2.59950340e-01 +1.98299345e-02 -3.35917413e-01 -1.99406698e-01 +2.43934691e-02 +2.32287630e-01 -1.81192786e-01 +1.79691315e-01 +8.49588960e-02 +1.54080555e-01 -3.03050540e-02 +7.45244250e-02 +1.34420455e-01 -1.89695299e-01 -2.77659535e-01 +1.51825562e-01 -7.02879429e-02 -1.98682353e-01 +1.27002046e-01 +5.53925708e-02 -1.21435642e-01 -1.72246337e-01 +9.29400250e-02 +1.35327820e-02 +1.58073083e-02 +1.02498166e-01 -8.11512545e-02 -2.78514504e-01 +2.51213938e-01 -1.70685023e-01 +7.51518086e-02 +1.31672472e-01 +3.02287340e-01 +2.21256524e-01 -3.88662905e-01 +7.33497590e-02 -2.27254480e-01 +1.16542801e-01 +1.17560595e-01 +1.02530450e-01 +1.70773998e-01 -2.64079779e-01 +1.65443823e-01 +3.88687789e-01 -1.96108446e-02 -1.36517763e-01 -3.06154937e-01 +4.78898212e-02 -3.12529728e-02 -2.01567747e-02 +2.22034782e-01 -1.73278958e-01 +1.46137461e-01 -3.50025356e-01 +8.50494877e-02 +1.61082059e-01 +6.15865737e-02 +3.96326274e-01 -1.91332966e-01 -9.96488854e-02 -1.51788846e-01 +1.56558737e-01 +2.27735728e-01 +1.82215855e-01 -2.80475467e-01 -2.24324331e-01 +3.92791294e-02 -8.48388001e-02 +1.15511186e-01 +1.25347272e-01 +1.87393531e-01 +3.59966531e-02 -1.83248073e-01 +1.94736212e-01 -2.60540873e-01 +2.73511857e-01 +2.01628074e-01 -1.70648724e-01 -3.08473147e-02 +1.08638600e-01 +8.31245184e-02 -2.02941522e-01 -2.53950745e-01 +2.38087654e-01 +1.38747454e-01 -1.92789406e-01 +2.10639089e-01 +6.60247877e-02 +3.06773484e-01 +8.54108036e-02 +9.17586088e-02 +3.14478785e-01 -1.89807231e-03 -2.82744586e-01 +2.28166670e-01 +1.05610855e-01 +3.40529501e-01 +7.65189156e-02 -1.46911899e-02 +2.67430216e-01 -1.88216835e-01 +2.40775466e-01 -3.38074639e-02 +2.31446743e-01 +8.98320507e-03 +2.43445300e-02 +2.08907098e-01 -5.91087118e-02 +2.58488208e-01 +5.77329136e-02 +7.15729594e-02 -7.08247349e-02 -2.19132170e-01 +2.33617336e-01 -3.88106033e-02 +1.38631910e-01 -7.90558010e-02 +2.40711093e-01 +2.03925416e-01 +1.30482078e-01 -2.15499729e-01 +2.45732203e-01 +1.98857278e-01 -9.84947979e-02 +1.41960323e-01 +6.04344457e-02 -1.99753493e-01 +9.50964838e-02 -2.14135110e-01 -6.26403792e-03 -1.45339355e-01 -1.42944679e-01 +2.05479681e-01 +4.26257635e-03 -1.23286739e-01 -8.23001564e-02 -4.32427883e-01 +8.78685787e-02 -2.18521096e-02 +4.32313353e-01 -2.62205690e-01 -6.21224120e-02 +1.47534445e-01 -1.71745345e-02 -7.82250166e-02 +1.12984419e-01 -2.78044969e-01 -1.11505561e-01 +1.08960727e-02 -3.54601026e-01 -2.79234082e-01 -3.82675231e-01 -4.03865933e-01 -3.90026003e-01 -1.91872910e-01 +1.05223730e-01 -3.72191489e-01 -1.68393124e-02 -2.58225739e-01 -2.65005052e-01 -3.87134314e-01 -3.77628297e-01 +2.24581048e-01 -1.02244176e-01 -3.80581677e-01 +2.15706393e-01 +2.37395048e-01 -6.96816444e-02 -2.33290970e-01 -2.06108108e-01 +1.15377478e-01 +4.05854210e-02 -2.97190756e-01 -2.13799123e-02 -3.09380591e-01 -3.25156599e-02 -1.07534356e-01 -1.78679794e-01 -1.57593936e-01 -2.56345958e-01 -7.14472309e-02 +1.23866871e-02 -1.75346881e-01 +2.91082375e-02 -4.43588123e-02 +1.74990550e-01 -6.88260607e-03 +4.16374169e-02 -2.69885600e-01 +1.67983368e-01 -2.51720309e-01 -1.39170289e-01 -8.22535828e-02 -2.08314195e-01 -1.40051901e-01 -1.12265624e-01 -8.17570835e-02 +6.71889707e-02 -9.09193233e-02 -1.42059654e-01 -8.66373777e-02 -2.38759160e-01 -4.33096558e-01 -8.45319703e-02 -8.99715796e-02 +8.56416393e-03 -2.48821646e-01 -1.07172988e-01 -1.65782198e-01 -1.13539547e-01 -7.77767180e-03 -6.50803447e-02 -1.67401791e-01 +1.19103715e-01 -3.89576912e-01 -1.19719096e-03 -2.51554161e-01 +7.06740795e-03 -2.58611023e-01 +2.66715400e-02 -3.24220747e-01 -5.39934672e-02 -3.39929461e-01 +1.18970983e-01 -4.20234799e-01 -2.53375560e-01 -2.88238406e-01 -2.91846782e-01 -6.51123077e-02 -4.49038923e-01 +5.39186178e-03 +5.27553894e-02 +6.11868761e-02 -1.20822648e-02 -1.85463890e-01 +2.33542085e-01 -1.55698150e-01 -9.90789756e-03 -5.07896766e-02 -8.34166259e-02 -1.70915961e-01 -1.45056412e-01 -3.38744998e-01 +3.30878347e-01 -1.37899844e-02 -2.29481924e-02 -4.80740331e-02 +6.11132523e-03 +2.79602021e-01 -8.78810212e-02 +4.20340598e-02 -1.93021148e-01 -1.97098739e-02 -1.74742892e-01 +1.58408180e-01 -1.90165132e-01 -9.04075950e-02 +2.27790385e-01 -9.92000401e-02 +3.52237746e-02 -2.58529902e-01 -8.61786529e-02 +1.23788416e-01 -1.22619629e-01 -2.23547429e-01 -1.67283416e-02 +9.71248150e-02 -1.99539319e-01 -2.46504918e-02 -1.57867223e-02 +1.59330532e-01 -2.42930487e-01 +1.26160264e-01 +1.68916136e-01 +1.86816230e-01 +2.99179286e-01 +2.37414852e-01 +2.56265141e-02 +1.54716328e-01 +4.56983037e-02 -4.06148359e-02 -4.36358303e-02 +8.64317492e-02 -1.73061058e-01 -1.79023296e-01 +3.63227278e-02 +3.18776876e-01 -2.09574699e-01 +2.33611494e-01 -6.36189431e-02 +5.05799092e-02 +2.89603710e-01 -1.68858126e-01 +1.08901329e-01 -7.35537112e-02 -2.19723463e-01 +1.12160444e-01 -3.13431978e-01 +1.12508386e-01 +1.92243978e-01 +3.30951154e-01 +1.82658210e-01 +1.29498541e-01 -7.90460929e-02 -3.43990698e-02 +4.91522811e-02 -3.83860134e-02 +1.27116665e-01 -4.13981564e-02 +3.07563722e-01 -2.89058313e-02 +4.16961052e-02 +3.33072782e-01 +6.56647608e-02 -2.74059195e-02 -2.88789481e-01 +2.47521311e-01 -2.35440776e-01 -7.25041404e-02 +6.80083036e-02 +1.88546583e-01 +1.32485375e-01 +1.93773553e-01 -4.04949002e-02 -7.81781897e-02 +3.76828611e-01 -1.73348963e-01 +1.00372083e-01 -2.02973530e-01 -2.76762694e-01 -1.13143325e-01 -3.12236041e-01 -9.52540338e-02 +2.62893498e-01 +1.42845303e-01 -2.69660056e-02 +3.50828618e-01 -9.62524191e-02 +9.73768979e-02 +3.90847139e-02 +7.28176534e-02 -1.57414541e-01 -8.58543888e-02 -1.18110932e-01 +2.80295432e-01 -1.52716607e-01 +2.59470850e-01 +1.28911376e-01 -1.08384997e-01 +3.16051066e-01 -1.35101378e-01 +1.91853553e-01 +8.80707428e-02 +1.12557545e-01 +2.68096685e-01 +5.99814244e-02 +1.21362485e-01 -1.20937183e-01 +2.07653433e-01 +8.11576322e-02 +4.37094748e-01 +1.30756587e-01 +8.54776334e-03 +2.65101522e-01 -1.24604098e-01 +2.99331062e-02 -1.41210943e-01 +2.34069228e-01 +2.20880613e-01 -1.85416609e-01 -1.20167919e-01 +1.69228181e-01 +1.01339944e-01 -1.82382893e-02 +1.39299175e-02 +1.21894985e-01 +1.61931574e-01 +2.50965822e-02 +1.19177327e-01 +2.16724783e-01 +1.95731074e-01 +1.83793589e-01 -3.18341047e-01 -2.33149722e-01 -2.68097758e-01 +8.08370709e-02 -4.78432208e-01 +1.54664402e-03 -3.61918807e-01 +3.36154819e-01 -1.65151972e-02 -2.99016982e-02 +2.02321723e-01 +2.77833138e-02 +1.01860449e-01 +5.41394986e-02 -2.21518442e-01 -8.03517848e-02 +3.72004099e-02 -4.20644015e-01 -2.88295001e-01 +1.98868848e-02 -1.71652764e-01 -4.68281865e-01 -3.26547235e-01 -4.57014740e-01 -9.58305746e-02 +1.30169466e-01 -2.54806001e-02 -3.44664991e-01 -3.63387078e-01 -7.61158541e-02 -1.26413301e-01 +2.68579572e-01 -5.00379615e-02 +8.45839232e-02 -1.43131360e-01 -3.02651487e-02 -5.02819777e-01 -3.05651575e-01 -1.43233433e-01 +1.11190572e-01 -9.50471312e-02 +2.44167522e-01 -4.54985648e-01 -1.14334449e-01 +8.43267888e-02 +1.05127372e-01 +4.24748007e-03 -1.34917721e-01 +1.82764113e-01 +3.24115127e-01 -3.34423870e-01 +7.23023638e-02 +2.60494322e-01 +1.41234308e-01 -1.16489142e-01 +3.13389068e-03 -1.55670792e-01 +1.23628721e-01 -2.47139633e-01 -3.13960254e-01 +1.10676296e-01 -5.43735847e-02 +8.81826207e-02 -2.88313806e-01 -1.38821229e-01 +3.92005414e-01 +1.32124480e-02 -2.48571843e-01 -4.51542437e-01 -1.46457674e-02 -2.02108070e-01 -2.51165658e-01 +1.96070615e-02 +7.97636434e-02 -9.26690325e-02 -4.74781245e-01 -3.54146332e-01 -4.14424658e-01 -1.45888820e-01 +4.22995538e-02 -5.52151874e-02 -6.41149208e-02 -2.02354074e-01 +1.17114067e-01 -1.04232505e-01 -1.12654716e-01 -2.72315830e-01 -9.31772292e-02 -3.35688502e-01 +1.06787913e-01 -1.57079007e-02 -1.02457039e-01 -2.30672657e-01 -3.93326223e-01 -3.44334930e-01 +1.06615953e-01 -1.17120750e-01 +2.85441875e-02 +9.55818743e-02 +3.53849113e-01 +6.03643321e-02 +7.25417584e-02 -9.33377072e-02 -9.24035683e-02 -7.79398233e-02 -6.51131049e-02 -2.18660668e-01 +4.20529321e-02 +5.71700074e-02 +1.69942901e-01 +1.07629664e-01 +2.26250336e-01 -3.42463523e-01 +2.95527518e-01 -2.88689762e-01 -4.94144142e-01 +5.42859614e-01 -2.46102944e-01 +2.63326526e-01 +2.71043330e-01 +5.41840568e-02 -2.45382205e-01 -6.11730106e-02 +2.40064636e-01 +2.93593824e-01 +5.65589070e-01 +3.09502967e-02 +4.05025244e-01 +2.19293088e-01 -2.22036675e-01 +4.84178662e-02 -1.05375974e-02 -1.03010289e-01 -2.36224174e-01 +4.19240817e-02 -2.53039002e-01 -8.20040237e-04 +3.66835207e-01 +5.39114401e-02 +1.14516746e-02 +1.41488656e-01 -1.22317873e-01 -9.22933593e-02 +3.73900265e-01 +1.88701868e-01 +1.71365157e-01 +1.13495635e-02 +6.96989074e-02 -3.47926855e-01 +7.14753475e-03 +3.00023146e-02 -1.29139692e-01 -4.53161895e-01 +1.32311895e-01 -1.86255530e-01 -2.54912078e-01 -7.92395398e-02 +5.54774813e-02 -2.71632778e-03 +2.07212716e-01 -4.94715333e-01 +5.27923763e-01 -3.10537964e-01 +2.01331258e-01 -2.76276439e-01 -4.40204501e-01 +3.04052949e-01 +1.25386372e-01 +2.00637639e-01 -4.65248488e-02 +1.31674364e-01 -3.70401330e-02 +3.77485305e-02 -1.75338257e-02 +2.40890056e-01 +5.61966717e-01 +3.24466750e-02 +1.19979471e-01 -2.09966540e-01 -2.93780118e-02 -3.28494221e-01 -2.30601236e-01 +1.23870239e-01 +7.94811845e-02 +3.78475130e-01 -2.70977139e-01 -6.60383776e-02 +8.98647606e-02 +1.37536705e-01 -2.65261024e-01 -2.63929188e-01 -2.14840889e-01 +1.92174867e-01 +2.00818196e-01 -1.70419216e-01 -1.74407259e-01 +2.68827349e-01 +2.32526228e-01 -4.33749780e-02 -1.27325743e-01 -3.86615157e-01 +4.86826301e-02 +8.55360255e-02 +1.17509633e-01 +1.71344280e-01 +1.13505825e-01 +4.18830872e-01 +2.38727517e-02 +2.15839893e-01 +8.94460902e-02 -2.55888283e-01 -2.26666093e-01 +4.34676647e-01 -8.25570822e-02 +3.73589575e-01 +1.27144054e-01 -3.29209834e-01 +3.07625562e-01 -4.10277277e-01 +2.74709195e-01 -2.74808798e-02 +1.40633747e-01 +1.60710976e-01 +6.76316991e-02 -6.56852871e-02 -6.44142032e-02 +1.93256110e-01 -8.85438472e-02 +3.55667979e-01 +2.28686497e-01 +6.62281811e-02 +2.14041583e-02 +2.23696351e-01 +1.23985991e-01 -3.55122834e-01 +2.83138543e-01 +4.42915410e-01 -3.52471471e-01 -1.53476834e-01 +3.26129571e-02 -3.47407348e-02 -7.14909956e-02 +2.35070005e-01 +1.01155162e-01 -1.57094941e-01 +2.14273855e-01 +1.07255727e-01 +2.74289578e-01 +3.94148469e-01 +2.03820750e-01 +4.41846281e-01 +6.83467165e-02 -1.36869535e-01 +1.88133150e-01 -2.78778583e-01 -7.53617287e-02 -1.38336644e-01 -3.70919965e-02 -1.73030362e-01 -1.05191365e-01 +1.95045471e-01 +2.00140342e-01 -3.12336028e-01 -1.84821919e-01 -3.84621173e-01 -3.04313283e-02 +3.07918549e-01 -5.97863160e-02 +3.26438993e-01 +1.12959012e-01 +1.79068521e-02 -1.18400410e-01 -3.28136295e-01 -8.07748362e-02 -1.52329728e-01 +2.67206103e-01 -3.89743447e-01 -1.04905004e-02 -4.32499886e-01 -2.72027582e-01 +1.16727643e-01 +1.85142249e-01 -3.53354245e-01 -2.53446907e-01 +3.78348306e-02 -3.93543154e-01 -3.35421205e-01 +3.13033491e-01 +1.39038945e-02 +1.47003472e-01 -5.29335737e-02 -9.22708213e-02 -2.22098187e-01 +2.41960332e-01 +2.25192755e-01 -1.62565902e-01 -7.37061724e-02 -1.60423331e-02 -1.86233342e-01 -2.42182314e-01 +3.38002235e-01 +1.00824207e-01 -3.49725187e-02 +3.09525430e-01 +4.45850380e-03 +3.95147391e-02 +8.80970359e-02 +1.58783481e-01 -7.87122268e-03 -9.11772773e-02 -1.44488275e-01 -7.52551630e-02 +5.16502187e-02 +1.67299896e-01 +2.50239968e-01 +8.51918906e-02 -8.53327289e-02 +1.09801397e-01 +3.39445509e-02 +5.71079515e-02 +4.02267314e-02 +3.23387533e-02 +2.53009766e-01 -2.46434152e-01 -6.81018159e-02 -1.12691298e-01 +3.64846587e-01 +1.58476919e-01 -1.84787005e-01 -5.24320751e-02 +2.30184644e-02 -1.24104552e-01 +2.33717766e-02 -1.08457118e-01 +3.47830206e-01 -4.69804481e-02 -8.90128985e-02 +2.11297095e-01 +1.14737138e-01 -2.61567891e-01 -1.95163116e-02 -1.41443312e-01 +2.03961357e-01 -2.89209429e-02 -1.89110860e-01 +1.77473631e-02 +1.13923274e-01 +1.58612624e-01 +5.49453795e-02 +2.70004362e-01 -1.88721612e-01 -4.22635451e-02 +3.25018585e-01 -2.28670120e-01 +1.35158673e-01 -1.19472444e-01 -2.43975576e-02 -3.91647816e-01 +1.16569802e-01 +4.35911492e-02 -5.59726804e-02 +8.41889009e-02 +2.38975242e-01 -1.79323167e-01 +3.82575870e-01 +2.60689035e-02 -6.95263818e-02 -1.15766369e-01 -2.49627665e-01 +2.81348079e-01 +3.19412768e-01 +1.88703313e-01 +2.71154284e-01 -2.30491698e-01 -1.23141050e-01 -1.28903031e-01 +2.19973903e-02 +1.60635889e-01 +1.69364884e-01 +2.13473812e-01 -1.34184480e-01 -8.22005421e-02 -3.49680558e-02 +1.31722093e-01 -1.17082624e-02 -5.50445840e-02 -1.03897661e-01 +1.45263121e-01 -2.49770656e-01 -1.34325504e-01 +6.65797517e-02 +1.01765715e-01 +1.56004474e-01 +1.56347886e-01 +1.62397340e-01 +1.32652357e-01 +8.64747539e-02 +1.32679911e-02 -1.30490959e-01 -2.78689265e-02 -1.14618495e-01 -2.24637985e-01 +4.28693503e-01 -1.90795660e-01 +2.15515345e-01 +1.26199186e-01 -2.11997867e-01 -2.69939005e-01 +1.07554771e-01 -3.14340413e-01 -2.61152424e-02 -1.29375448e-02 +2.45309159e-01 -3.31275553e-01 -2.41312366e-02 +7.16436058e-02 -3.07524741e-01 -1.88046694e-01 -4.93478626e-02 -1.75633747e-02 -2.64455646e-01 +1.00821748e-01 +1.36061102e-01 +9.70190838e-02 +5.95307052e-02 -2.16697752e-01 +9.77080762e-02 -6.60674199e-02 -2.23883130e-02 +1.70824915e-01 +5.04402034e-02 +3.75591666e-02 +1.07364573e-01 +1.78394735e-01 +6.27672672e-02 -1.08721361e-01 +1.43763497e-01 -2.61730015e-01 -3.75461906e-01 -2.03647688e-01 -3.00557930e-02 +2.20779300e-01 +3.28761861e-02 +9.77213606e-02 -1.47874966e-01 +1.29979134e-01 -1.04079910e-01 -1.96812287e-01 -2.69714668e-02 +3.43859009e-02 +3.25731337e-01 -1.11002453e-01 -4.83048186e-02 +2.83979215e-02 -3.59447122e-01 -4.92416203e-01 -1.47480726e-01 +3.43674012e-02 -3.21070105e-01 -6.81587756e-02 +2.44221926e-01 +4.03113902e-01 -5.25821388e-01 +1.93975538e-01 -1.43117189e-01 -2.59701252e-01 +1.42791063e-01 +1.00889444e-01 +2.19097883e-01 -2.11488038e-01 -1.94105044e-01 -4.91065890e-01 -3.11969191e-01 +1.05353713e-01 -1.53914109e-01 +4.31046993e-01 -3.39698762e-01 +3.30914319e-01 +2.33682208e-02 -3.31183881e-01 +3.42233062e-01 -1.90891013e-01 -3.79425257e-01 -3.46797436e-01 +1.50962889e-01 -2.20343217e-01 -2.11956739e-01 +2.85154283e-01 +1.10463575e-01 +1.19647221e-03 +1.04084693e-01 -2.80511752e-02 -2.07079947e-01 +2.26131290e-01 +1.22375183e-01 +1.23223163e-01 -1.35714263e-01 +2.56677568e-02 -1.17023081e-01 -2.56450266e-01 -1.29920579e-02 -1.72038779e-01 +7.39166439e-02 +1.43167451e-01 +7.93088675e-02 +2.22634986e-01 -6.60528690e-02 -2.23542199e-01 -1.06601059e-01 -2.61234939e-01 -1.32535115e-01 -1.49273142e-01 +2.93923944e-01 -3.50071996e-01 +1.93853416e-02 +2.51601823e-02 -9.57460031e-02 -1.84159633e-02 -2.66074747e-01 -3.27454329e-01 -8.92749354e-02 -2.55212188e-01 -3.55469733e-01 -2.06033021e-01 -1.41560942e-01 -4.92972374e-01 -1.54476061e-01 -6.11938648e-02 -1.52796388e-01 -1.25351921e-01 +1.55907124e-01 -1.24031454e-02 -2.34715834e-01 -1.98114157e-01 -3.88808176e-02 -2.98112836e-02 -1.87987611e-01 -1.27164662e-01 +1.65676232e-02 -1.56949341e-01 -9.75606143e-02 -9.49246511e-02 -3.53978217e-01 +2.51581315e-02 -2.25760445e-01 +2.62925234e-02 +1.69193476e-01 -2.73294538e-01 +4.19679172e-02 +2.36551419e-01 +1.55282199e-01 -2.80627370e-01 -1.11396029e-03 +1.43031955e-01 -2.67598275e-02 -1.77391022e-01 -3.22888702e-01 -5.44958226e-02 -2.33680680e-01 -1.75744772e-01 +2.65496731e-01 +4.61088233e-02 -1.04638509e-01 +5.55612333e-03 -3.95282835e-01 +9.23525263e-03 +4.23986018e-01 +2.13699248e-02 +2.03696534e-01 -1.83348984e-01 -6.27461970e-02 -1.91091970e-01 -6.31787330e-02 +1.87281221e-01 +1.40517056e-01 +4.29817647e-01 +1.82355851e-01 -6.89684749e-02 -2.46761903e-01 -2.23145351e-01 -8.97998288e-02 -2.28938103e-01 -5.78826517e-02 -4.02266115e-01 +1.99984573e-02 -4.10289288e-01 -1.00826323e-01 +4.45003174e-02 +1.51709598e-02 +7.73700774e-02 +1.82116423e-02 -1.36609823e-01 -1.05728649e-01 +7.12020546e-02 -6.51045963e-02 -1.37294531e-01 -1.94971442e-01 -9.67521444e-02 -3.32013369e-01 -8.16905499e-02 -5.98319434e-02 +2.10200071e-01 -6.11602552e-02 +2.35272422e-01 -4.70327400e-02 +1.43122971e-01 +2.22818613e-01 -3.06405991e-01 +2.32376918e-01 +2.05315631e-02 -2.80794059e-03 -1.59113750e-01 +2.50344187e-01 -3.81891310e-01 -1.22033998e-01 +2.67055541e-01 -1.21531993e-01 +2.15127066e-01 -3.24675202e-01 +1.07685328e-01 +1.00000901e-02 -1.44864306e-01 +2.44367763e-01 -2.04480402e-02 -2.37539440e-01 -6.04684511e-03 -2.06056505e-01 +9.72610153e-03 -1.76159814e-01 +3.08233321e-01 -1.23640768e-01 +2.83457637e-01 +1.95026034e-04 +1.40741155e-01 +8.20314959e-02 +2.19921261e-01 +2.45056786e-02 -3.64831328e-01 -2.03662962e-01 +2.10359484e-01 +6.78106025e-02 -4.52582277e-02 -2.40982100e-01 -3.17024380e-01 +1.21502772e-01 +5.85223287e-02 -3.39195803e-02 -1.54416829e-01 +1.25970438e-01 +2.83863723e-01 +4.35491502e-01 -2.20528901e-01 -2.11401150e-01 -1.46096036e-01 -1.70715541e-01 -9.85107496e-02 -8.63098800e-02 +2.23300502e-01 +3.51179987e-02 +3.15154999e-01 -4.81280684e-01 +3.39299589e-01 -3.03675234e-01 -7.13281333e-02 -2.55441159e-01 -6.27407610e-01 +3.48190069e-01 -1.47633210e-01 -1.98487304e-02 +1.16111904e-01 -1.01891167e-01 -2.38122493e-01 -1.40782237e-01 +1.06691070e-01 +1.07154272e-01 +3.68335485e-01 +2.66779631e-01 +3.61752093e-01 -2.47682989e-01 -6.77471980e-02 +1.77594468e-01 -1.81825593e-01 +7.95668140e-02 -5.16245700e-02 +4.53139573e-01 +1.34881750e-01 -5.19032357e-03 +4.22391564e-01 +1.69720441e-01 -2.30783135e-01 +3.22274044e-02 -2.90916175e-01 -4.82237525e-02 +1.48734853e-01 +1.35721579e-01 +2.32471094e-01 +1.45966560e-01 +5.90387695e-02 -2.19010144e-01 -3.61479074e-01 -6.51325434e-02 -8.92228261e-03 +3.30552608e-01 +3.23194042e-02 +1.78803295e-01 -4.42151204e-02 +1.56347468e-01 -2.52553284e-01 +1.21827066e-01 -3.36879566e-02 +3.36457998e-01 -2.87577569e-01 +1.91681634e-03 -1.07158706e-01 +2.45877132e-02 +1.43488288e-01 -4.72934365e-01 -4.86566722e-02 -6.60145879e-02 +1.76528841e-01 +5.53780869e-02 -6.40910044e-02 -2.14395329e-01 +1.23043306e-01 +1.12962767e-01 -5.53144455e-01 -2.86662132e-01 -2.41717011e-01 +2.04769880e-01 +4.73966375e-02 -8.02942291e-02 +3.52835238e-01 -1.40440613e-01 -1.84736103e-01 -3.42582941e-01 -1.91923883e-03 +1.12407103e-01 -4.09038782e-01 -5.45329899e-02 +8.29433650e-02 -2.73231268e-01 +9.03421566e-02 +9.07601602e-03 -3.97743434e-01 -7.50312284e-02 -1.14805149e-02 +1.52760535e-01 +3.60366106e-02 +7.48039484e-02 +4.37724739e-02 -2.74607539e-01 -3.11063826e-01 -3.79845463e-02 -1.69789538e-01 -5.72883636e-02 +3.40901107e-01 -3.27013463e-01 +8.12908784e-02 -2.45241433e-01 -2.92104185e-02 +6.42149374e-02 -1.92582086e-01 -9.82114300e-02 -1.69797093e-01 -2.44263232e-01 +3.32521386e-02 -9.83402729e-02 +1.70885488e-01 -1.87117189e-01 -5.58399856e-01 -5.63467108e-02 -8.22290853e-02 -3.25076342e-01 -2.81401336e-01 -2.42130935e-01 -2.01470658e-01 -3.15384775e-01 -1.37734309e-01 -2.73012649e-02 -1.62069187e-01 +6.56279474e-02 +1.71571717e-01 -1.40936285e-01 -6.11311644e-02 -9.43616703e-02 -1.30640268e-01 -1.64148837e-01 -1.34782761e-01 -2.26353377e-01 +1.50279095e-02 +6.72147283e-03 +1.12945668e-01 +2.81728134e-02 -3.74063700e-01 -8.95728245e-02 +8.00927654e-02 -4.48337160e-02 -2.92516500e-01 -2.11840615e-01 -2.77839005e-02 +2.38342673e-01 +5.66621451e-03 +3.19531292e-01 -4.82458435e-02 +2.66146123e-01 -1.94977358e-01 +1.42691761e-01 -6.06424920e-03 -2.06010230e-02 +1.48556545e-01 -8.28180015e-02 +1.21495640e-03 +1.68868586e-01 -1.68154880e-01 -1.49106786e-01 -2.87479274e-02 +1.23348519e-01 +1.93905815e-01 +1.77265897e-01 +9.57271382e-02 +1.66773051e-01 +7.12540597e-02 +2.97205657e-01 -1.14032410e-01 +1.45023465e-01 -7.15509951e-02 +1.84249446e-01 +9.72925033e-03 +1.49798185e-01 +7.01159462e-02 +1.59328520e-01 -2.19489306e-01 +3.52199040e-02 -1.69989377e-01 -4.78631817e-02 +2.34857593e-02 +2.83484280e-01 +3.26364338e-01 +1.19601458e-01 +3.33448112e-01 +8.75472277e-02 -1.15905941e-01 +2.97712177e-01 -1.56642720e-02 +2.75925368e-01 +2.38713659e-02 +1.82639122e-01 +2.03608021e-01 -9.72664803e-02 -1.80223227e-01 +3.42178047e-01 -1.75963826e-02 -2.45043654e-02 -1.34485632e-01 +1.10217549e-01 +1.30997881e-01 -4.42365371e-02 -9.47978627e-03 -4.12955396e-02 -2.82261461e-01 -7.84640908e-02 -1.80360004e-01 -3.68545577e-02 -8.34745616e-02 -4.00737114e-03 -1.71285361e-01 -9.25166011e-02 -5.55587523e-02 +2.68358052e-01 -2.00307757e-01 +1.12610914e-01 -2.44041413e-01 -1.65075853e-01 -5.40248938e-02 -1.20660797e-01 +2.68891722e-01 +9.55350115e-04 +2.03068271e-01 +7.14374259e-02 -1.49694949e-01 -1.00061595e-01 -1.02937222e-02 +7.14102089e-02 -9.92427953e-03 +1.86795071e-01 -1.24943800e-01 +1.53867811e-01 +1.96910780e-02 +2.25225426e-02 -1.58577293e-01 +1.80012994e-02 +1.04663976e-01 -5.55752292e-02 +2.18791306e-01 +5.46408407e-02 +1.60634637e-01 -4.42795306e-02 +1.06354102e-01 +1.74854547e-01 +5.22119589e-02 -2.98193157e-01 +4.43660766e-02 +3.97295922e-01 -6.67181611e-02 +1.91347227e-01 -6.60870150e-02 -1.94676206e-01 -3.76740515e-01 +2.28699580e-01 -9.31552723e-02 +2.70379603e-01 -2.38554195e-01 +1.16084695e-01 +5.30571602e-02 +1.43411696e-01 -4.02281135e-02 -4.03970517e-02 +1.76709488e-01 -1.02904454e-01 +1.95291892e-01 -1.13211729e-01 +1.93658233e-01 +9.36614946e-02 +4.22265334e-03 -1.88054651e-01 -3.97538006e-01 +1.79276790e-03 +1.70350909e-01 -3.50495838e-02 +3.98467243e-01 -6.31216820e-03 -1.19695656e-01 +1.06381275e-01 -8.68233293e-03 -8.08159262e-02 +2.67919488e-02 -1.59013584e-01 -2.14010984e-01 -5.89342639e-02 +2.15619951e-01 -6.35582060e-02 +3.10376543e-03 -1.05098464e-01 -1.43913582e-01 +2.47897670e-01 +1.99642554e-02 -1.27991587e-01 -2.20620871e-01 +9.54323821e-03 -3.23718861e-02 -1.40300706e-01 +1.14492662e-01 +2.47780055e-01 +1.11478180e-01 +1.53446540e-01 -3.58544216e-02 -1.01051629e-01 -5.88275641e-02 -2.00628817e-01 +2.08955422e-01 +2.83090591e-01 -2.67116517e-01 -6.54047206e-02 -8.14794153e-02 -7.86478445e-03 +1.89871162e-01 -2.52326638e-01 +3.67166027e-02 -9.46864262e-02 -9.24574807e-02 +7.23869652e-02 -8.65486562e-02 +2.58450419e-01 -1.21202372e-01 +9.97080058e-02 -2.94688284e-01 -1.30246148e-01 -2.07752615e-01 +2.16158345e-01 -9.40730702e-03 +7.17735887e-02 +4.27264333e-01 -5.07094152e-02 -1.28037632e-01 -3.28841597e-01 -1.35447621e-01 +2.81508803e-01 -2.69639075e-01 -1.32958842e-02 +3.26562822e-02 +2.69648045e-01 -1.02683557e-02 -2.62667425e-02 -8.54011849e-02 +2.21898124e-01 -1.24942094e-01 +1.02038570e-01 -3.61922055e-01 -1.47132739e-01 +7.63218477e-02 -1.36977389e-01 -1.81927621e-01 +3.05784613e-01 +3.84074040e-02 +3.56657952e-01 +7.46405572e-02 -1.70446560e-01 +6.83502778e-02 -2.18387887e-01 +3.11285444e-03 +2.59881169e-01 -1.24336056e-01 -9.06974077e-02 -1.62369624e-01 +2.15638086e-01 +2.18643472e-01 -1.18138537e-01 +3.00165534e-01 -1.40307307e-01 +1.45763770e-01 +1.11721501e-01 +2.61762202e-01 +1.12688988e-01 +2.63736635e-01 +1.75340340e-01 -1.31010368e-01 -1.53298378e-01 -1.72837541e-01 +3.41694087e-01 +3.08105081e-01 -2.18868896e-01 +9.70494524e-02 -2.31370732e-01 -9.80234444e-02 -4.19887722e-01 -1.26934245e-01 +1.37623176e-01 -2.36350223e-01 -4.99768227e-01 +1.98713362e-01 +6.94860667e-02 +2.98804929e-03 -4.29810025e-02 +1.55937672e-01 +9.70427170e-02 +1.64764673e-01 -5.92503734e-02 +7.99649283e-02 +8.14703181e-02 +1.17645971e-01 -1.28018856e-01 +2.39341229e-01 +2.76432574e-01 +1.83704391e-01 +1.82927504e-01 +1.45118579e-01 -1.49214163e-01 -5.79892211e-02 +2.36676410e-01 +4.11703587e-01 +1.44935176e-01 +1.40225068e-02 +1.03687905e-02 +4.36897799e-02 +3.28065515e-01 -1.99702770e-01 -1.00479722e-01 +1.38030007e-01 +2.86920723e-02 +4.22219224e-02 -4.46068421e-02 +3.25732380e-01 +1.92771032e-01 -2.34471083e-01 -4.67602275e-02 +2.36630137e-03 +3.94407064e-02 +4.56167683e-02 -4.61267047e-02 -1.46983370e-01 -3.36783916e-01 +6.80544763e-04 +9.25839618e-02 +2.15718672e-01 +7.42892874e-03 +1.73136726e-01 +8.97571072e-03 +2.08778656e-03 +7.46131688e-02 -1.56408161e-01 +2.52518922e-01 +5.66782802e-02 +2.45606042e-02 -9.30296481e-02 -1.47854045e-01 +1.30291522e-01 +1.99317142e-01 +2.28047013e-01 -1.17207773e-01 +3.63297313e-01 +6.25501899e-03 -4.42277081e-02 -2.15246994e-02 -5.41491844e-02 -1.17424384e-01 +4.05108668e-02 -2.45011151e-02 +1.68888960e-02 -1.18376248e-01 -1.03335805e-01 -1.23550385e-01 +5.14856219e-01 -3.26359749e-01 -4.91739735e-02 -3.32787663e-01 -4.69545454e-01 +3.70201290e-01 -8.84510875e-02 +4.67307329e-01 -9.24485847e-02 +1.07575573e-01 -2.78137565e-01 -1.46312073e-01 -1.37973562e-01 +9.54462364e-02 +5.27184367e-01 +2.26830527e-01 -5.20182438e-02 -1.13742024e-01 -1.67667508e-01 +9.44739655e-02 -2.19733864e-01 -3.90715674e-02 -7.35648302e-03 +1.75680757e-01 -8.28947574e-02 +2.56051749e-01 +4.80360165e-02 -1.93818696e-02 +1.66135073e-01 +1.96663141e-01 -1.55314282e-01 +2.66353220e-01 +2.89552599e-01 +2.80967921e-01 +5.64431064e-02 +1.04418829e-01 +1.92326188e-01 +8.79033655e-02 -2.70355105e-01 +3.85346897e-02 -1.35498315e-01 +2.33262569e-01 -1.60022825e-01 +1.30029708e-01 +1.62101500e-02 +2.71878988e-02 -5.91873936e-02 +1.07902713e-01 -3.45406383e-01 -4.80324868e-03 -9.86697972e-02 +8.82895738e-02 -3.43214542e-01 +2.82216519e-01 +4.61987495e-01 -1.52914196e-01 +5.94933219e-02 -2.91703761e-01 -1.04582347e-01 +6.04422428e-02 +2.23624304e-01 -2.16531813e-01 +2.88980510e-02 -6.99539930e-02 -3.29452038e-01 +9.42931324e-02 -3.03656757e-01 -1.69395749e-02 +2.72203684e-01 +1.01698115e-01 -2.17603534e-01 -3.31307292e-01 +1.58770159e-01 -2.07231253e-01 +4.65777926e-02 +6.64416924e-02 -2.00402200e-01 -1.58784956e-01 -3.44033003e-01 -4.86310944e-02 -1.20233536e-01 -1.50207505e-02 -1.54114097e-01 -6.51207641e-02 +7.83735290e-02 -6.97484314e-02 -1.34715751e-01 +8.98492485e-02 +2.70811856e-01 -1.21897021e-02 -3.25145394e-01 -1.20201685e-01 +7.42640644e-02 -2.62175232e-01 +2.79711246e-01 -2.69521713e-01 +1.41652077e-01 -1.64328009e-01 -1.86659083e-01 -3.19275893e-02 -8.50338116e-02 -1.25273061e-03 +1.51436552e-01 -2.48385072e-01 +1.43722594e-01 +2.31319275e-02 -3.14945847e-01 +2.58824527e-02 -1.37323126e-01 -2.40443587e-01 -2.92919755e-01 -1.09056771e-01 -1.12606116e-01 -1.11839697e-01 -1.38114244e-01 -3.21464449e-01 -2.06836209e-01 +3.40232141e-02 +7.97472075e-02 +4.21113297e-02 +5.34356982e-02 -4.15902525e-01 +6.53060749e-02 -1.09878220e-01 +1.42273217e-01 -3.39156896e-01 -4.03018951e-01 -3.69165957e-01 -1.14695154e-01 -1.69710621e-01 -2.02289790e-01 -1.77144051e-01 -3.01065594e-01 -9.46769640e-02 -2.85459571e-02 -9.88083631e-02 -1.45424753e-01 +7.60488852e-04 +2.64184684e-01 +2.70414297e-02 -3.26797133e-03 -2.78850526e-01 +2.33428016e-01 -2.99260497e-01 +7.48337656e-02 -1.74156651e-01 +4.13482219e-01 -3.81998658e-01 -1.52272791e-01 +5.90219581e-03 +2.47694969e-01 -2.82513022e-01 +1.00499943e-01 -1.64110079e-01 +2.04615086e-01 -3.21456075e-01 -3.30510378e-01 -2.93375134e-01 -1.80033460e-01 -4.08770770e-01 -1.42568573e-01 -2.20489949e-01 -5.88981770e-02 -6.85039014e-02 -1.92588776e-01 -2.24111021e-01 -5.29597282e-01 -5.03886521e-01 -5.81400245e-02 +2.04727218e-01 +1.71450645e-01 -4.10939097e-01 -7.50933634e-03 +7.94517342e-03 -3.93705457e-01 -1.55443475e-01 -3.41314077e-01 -8.22744817e-02 +1.68990910e-01 -2.29130134e-01 +3.27228382e-02 -3.98780666e-02 +2.54735406e-02 -2.67542332e-01 -3.15467924e-01 +4.04616371e-02 -2.63958067e-01 -2.00841546e-01 +5.32901324e-02 -7.34268948e-02 -1.47230342e-01 +4.61700894e-02 +6.14877865e-02 -1.52745545e-01 -1.39199430e-02 -2.05880776e-01 +2.09025994e-01 -2.42931768e-01 -3.36456984e-01 -1.02737673e-01 -1.38615340e-01 +1.93100646e-02 +7.59852007e-02 +3.33401114e-02 +2.91310042e-01 +6.26850948e-02 -1.07375324e-01 -4.01261747e-02 -4.56974119e-01 -2.29216013e-02 -3.14774483e-01 -3.21087807e-01 -2.98352331e-01 -1.38507411e-01 -1.67342797e-01 -9.56608802e-02 -4.99592483e-01 -4.72542256e-01 -1.49173439e-01 -5.06727807e-02 +2.75246829e-01 -4.63808566e-01 -6.71227975e-03 -3.85724545e-01 +1.16214573e-01 -4.20202106e-01 -1.28869370e-01 +7.77989477e-02 -3.05107355e-01 -2.61314988e-01 +3.47336322e-01 -1.83304444e-01 -2.53897548e-01 -9.99765918e-02 -3.57913643e-01 +1.11198470e-01 +1.89776486e-03 +2.10735604e-01 -1.17248170e-01 -8.82319435e-02 -1.93199158e-01 -1.30765945e-01 +8.38257000e-02 +1.84036955e-01 -6.17505684e-02 +6.22257963e-02 -1.19348504e-01 -7.44670746e-04 +8.34471956e-02 -1.63287744e-02 -4.33702432e-02 +1.63577750e-01 +1.10433653e-01 +5.51844798e-02 +2.06285596e-01 -2.18299761e-01 -2.64411628e-01 -4.25114304e-01 -2.48468116e-01 +6.87060058e-02 +1.20297857e-01 +6.86853006e-02 +2.06180245e-01 +8.74868184e-02 -6.10688403e-02 -4.79517616e-02 -1.40803114e-01 -1.02676027e-01 -5.94882555e-02 -2.08896160e-01 +1.10284872e-01 +8.09240416e-02 +3.91115606e-01 -7.61463121e-02 +4.55240011e-02 -1.59896076e-01 -2.15173021e-01 -3.54933031e-02 +5.70065267e-02 +1.70085393e-02 +2.71320194e-01 +3.83019507e-01 +9.28777084e-03 +1.59273017e-02 +7.33165350e-03 +2.59013146e-01 +3.08188021e-01 +2.32313246e-01 +3.16854894e-01 +6.75846264e-02 +2.97744840e-01 -1.83673084e-01 +8.21434930e-02 +6.96919188e-02 -1.72214359e-01 +6.49314597e-02 +8.19019303e-02 +7.90283680e-02 -8.85489956e-02 -2.89726928e-02 +3.16907197e-01 +2.24425681e-02 +5.98741472e-02 +1.37610957e-01 -3.77408355e-01 +4.32913870e-01 -2.23382916e-02 +2.89423764e-01 +3.37315619e-01 +2.24923387e-01 +9.40627977e-02 -6.67867661e-02 +5.32730259e-02 -1.24350016e-03 +4.20986772e-01 -4.43905145e-02 +1.80534810e-01 -9.17250756e-03 -1.19597144e-01 +8.75577852e-02 +2.06155688e-01 -2.60587521e-02 +2.86490228e-02 +3.05436552e-01 -1.76753357e-01 +2.00020727e-02 +2.30100274e-01 +1.13941640e-01 +1.34865731e-01 +1.50612265e-01 +5.53685687e-02 -1.10923477e-01 +9.59214196e-02 +7.56355189e-03 +2.38456920e-01 +1.12615086e-01 +2.61482061e-03 -8.24265555e-02 -2.91446716e-01 +4.23737824e-01 -2.35394821e-01 +2.24990234e-01 -2.79770404e-01 +2.48127922e-01 -3.03627223e-01 +2.78005660e-01 -1.17233314e-01 +3.97115707e-01 +2.41465077e-01 -3.36650908e-01 +1.24844790e-01 -6.17146306e-02 -1.10295348e-01 +2.62102515e-01 -3.91619802e-01 +4.54752594e-01 -6.46892041e-02 +2.89286733e-01 +1.95500165e-01 -9.68676433e-02 +2.11623646e-02 -3.26254889e-02 +3.98862988e-01 -6.42750412e-02 +4.12765801e-01 +3.31823617e-01 +2.20286176e-01 +1.66060641e-01 +4.48740005e-01 -4.75366600e-02 -3.44610393e-01 +6.17275834e-02 -2.02804625e-01 +4.22562957e-02 -7.97738135e-02 +3.01404387e-01 +2.15597153e-02 +4.17168140e-01 +1.53037012e-01 -5.55165298e-02 -2.19895810e-01 -1.36318743e-01 +4.02904123e-01 +1.90942064e-01 -6.06426783e-03 +4.21345904e-02 +1.22069202e-01 -4.97200824e-02 -3.32547843e-01 -2.54200548e-01 -4.38020751e-02 +7.64368922e-02 +2.74161100e-01 -6.27752841e-02 -3.04376390e-02 +2.93349270e-02 -3.49669337e-01 -3.76073420e-01 -3.02897066e-01 +3.45320195e-01 -1.58407643e-01 -8.15135166e-02 +1.38740793e-01 -1.77252635e-01 +5.61812937e-01 -1.61748245e-01 -1.89668104e-01 -2.14650948e-02 -8.51267055e-02 +5.12747131e-02 +1.04342245e-01 +9.71713755e-03 -2.62993187e-01 -1.03438608e-02 -1.21652089e-01 -2.37074718e-01 -4.32492346e-01 -2.09903374e-01 -3.07371795e-01 +2.37963110e-01 +1.21968262e-01 -1.08183533e-01 +1.61446333e-01 -1.62183732e-01 -1.78704530e-01 -2.00867862e-01 -2.50378698e-01 -2.56123096e-01 +2.29407340e-01 +4.66779666e-03 +2.63632804e-01 -2.02066749e-01 -2.64278710e-01 -9.42270756e-02 -2.04852730e-01 -1.35127753e-01 -2.52414316e-01 -5.39658358e-03 +2.12715924e-01 -2.00921878e-01 -3.32912803e-01 +8.42489228e-02 +2.72662103e-01 -1.99212551e-01 +3.42285693e-01 -1.80665210e-01 +1.68748528e-01 -5.81466220e-02 -6.89316716e-04 +4.17785496e-02 +7.89754912e-02 +1.95809096e-01 +1.90993920e-02 +2.56075978e-01 +8.84076506e-02 +6.59442544e-02 -2.00159494e-02 -3.56495172e-01 +8.64742026e-02 -1.42080605e-01 +1.76561639e-01 +1.69486523e-01 -1.20904922e-01 -8.82305652e-02 -3.61000985e-01 +4.67921682e-02 +7.61229603e-04 -1.06762521e-01 -1.59194455e-01 +9.90686417e-02 -8.58213007e-02 +1.28772348e-01 -2.90508922e-02 -4.09592837e-01 -1.51431784e-01 +2.73055434e-02 -8.24786425e-02 +5.66059835e-02 +5.20916693e-02 +1.50533497e-01 +1.36199996e-01 -2.08770365e-01 -1.14575170e-01 -9.98487696e-02 +6.51713684e-02 +1.18687488e-01 -1.67200327e-01 +2.34246880e-01 +1.13215297e-01 +2.28981711e-02 -1.73678726e-01 +1.82029843e-01 -2.02042088e-01 +7.79499412e-02 -2.52365381e-01 -1.57795399e-01 -2.31159106e-01 -6.30425587e-02 -3.99302207e-02 +9.74333882e-02 +1.50793836e-01 -1.82940647e-01 +3.90878618e-02 -2.19917029e-01 -2.59838760e-01 +5.27562909e-02 -3.92455198e-02 +5.37368171e-02 +4.24756825e-01 +4.18861657e-02 -1.34898350e-01 -1.41454726e-01 +1.25697300e-01 -1.16721563e-01 +1.12407438e-01 +2.06022233e-01 +3.84636849e-01 +3.64452273e-01 +1.38388050e-03 -1.75299391e-01 -4.25927341e-02 +2.31182665e-01 +3.16421576e-02 +3.32783192e-01 -8.89988691e-02 +6.90750778e-02 +1.43390283e-01 +1.03701223e-02 +5.21198511e-02 -7.38780200e-02 +1.52565226e-01 +1.06856979e-01 +2.35183343e-01 +7.10188691e-03 +1.18124068e-01 +2.86383671e-04 +2.90780291e-02 +2.11081922e-01 -1.03002101e-01 +4.57727343e-01 +1.13296777e-01 -3.61693919e-01 -1.44500852e-01 -1.44597232e-01 -2.36637250e-01 -2.73392439e-01 +1.88845292e-01 -6.46590963e-02 +1.38654664e-01 +9.40787494e-02 +1.32740349e-01 -2.86867499e-01 +1.23301521e-01 -2.47092098e-01 +3.63100879e-02 +2.28525534e-01 +9.17886123e-02 -1.51280522e-01 +2.66495422e-02 -2.27327242e-01 +1.45054102e-01 -2.12429374e-01 -2.14343593e-01 -1.69644579e-01 +1.63474694e-01 +4.24664840e-02 -5.15572689e-02 -1.66116431e-01 -1.70352459e-01 -2.16431424e-01 -5.57479560e-02 -2.27412537e-01 +1.78213760e-01 +1.03383765e-01 -8.40376392e-02 -3.11492216e-02 +1.23359926e-01 +4.53604013e-01 -2.30805308e-01 +9.97525007e-02 +1.55671239e-01 -1.21556714e-01 +1.15882315e-01 -1.37987405e-01 -2.00936034e-01 +2.88902014e-01 +8.88735205e-02 -3.04126292e-01 -3.21412981e-02 -3.69151123e-03 +1.66076809e-01 -2.85176039e-01 -1.67427242e-01 -1.91342950e-01 +1.80651341e-02 +1.16636930e-03 +2.22093150e-01 +1.35467619e-01 +4.40043323e-02 -2.59051055e-01 +3.80887866e-01 -2.57046544e-03 -8.16378929e-03 -2.31959447e-02 +3.69125232e-02 +1.14483438e-01 +7.30275409e-04 +1.77455977e-01 -3.67074087e-02 -9.52254012e-02 +7.35759363e-02 -1.44947141e-01 +2.39508539e-01 +1.20483220e-01 +5.23843169e-02 -2.55378127e-01 +4.94699366e-02 -4.30532135e-02 -1.70218758e-04 +1.77496910e-01 -3.41423564e-02 +7.18152523e-02 -3.15166228e-02 +2.70815521e-01 -3.84663269e-02 +1.79922283e-01 +2.87846208e-01 -1.41492859e-02 +1.63356364e-01 -2.32867315e-01 +8.07346776e-02 +2.11978629e-02 -5.35517521e-02 +1.77930608e-01 +8.38433504e-02 -1.50418608e-02 +1.97470754e-01 -6.79546371e-02 +4.74455133e-02 
#Parameter# /gru-builder/_2 {50} 801 ZERO_GRAD
+5.33009917e-02 +2.00277120e-01 +8.41253027e-02 +1.34719700e-01 +1.62270129e-01 +1.03125639e-01 +1.08901888e-01 +4.16085646e-02 +2.17517838e-01 +1.49804994e-01 +1.59185842e-01 +1.39659986e-01 +1.67777970e-01 +2.73547381e-01 +4.72635888e-02 +1.22577570e-01 +8.51245299e-02 +1.21091925e-01 +1.85590312e-01 +2.10077435e-01 +2.08968729e-01 +1.87950194e-01 +1.87374681e-01 +9.40880477e-02 +1.95359886e-01 +5.30925728e-02 +1.96942046e-01 +1.03431970e-01 +5.73213659e-02 -2.48117466e-02 +1.79361403e-01 +2.05078512e-01 +1.50430858e-01 +5.91670722e-02 +1.29110426e-01 +9.61689800e-02 +1.52616844e-01 +1.24085933e-01 +6.84694126e-02 +1.75509155e-01 +1.92653641e-01 +1.64537922e-01 +1.44202635e-01 +6.14712238e-02 +2.00688183e-01 +1.47815555e-01 +9.45362523e-02 +1.57048360e-01 +2.93339863e-02 +1.65227100e-01 
#Parameter# /gru-builder/_3 {50,4} 3201 ZERO_GRAD
-1.86837465e-02 +4.03760105e-01 +4.81396854e-01 -1.70910135e-02 -5.39537251e-01 +6.36204183e-02 -3.46967019e-02 +3.84863764e-01 -2.61002809e-01 -1.87211573e-01 -2.94986427e-01 +2.32022926e-01 +1.09760568e-01 -1.54171690e-01 +1.60741553e-01 +2.76708156e-01 -1.45346150e-01 +1.59974530e-01 +2.70612478e-01 -1.66327298e-01 +4.13625032e-01 -4.28529270e-02 -4.18911457e-01 +5.71843907e-02 -1.01987012e-01 +2.76078522e-01 -6.15274832e-02 +8.83439854e-02 +5.05999215e-02 -6.22055307e-02 +4.45321679e-01 +3.57468247e-01 +8.53985325e-02 -1.42331302e-01 -1.10484377e-01 +2.27791741e-01 -3.82526457e-01 -2.15491101e-01 +2.58421123e-01 -2.88444996e-01 -2.83721894e-01 +5.34380615e-01 +7.36462474e-02 -2.53809452e-01 -4.06681597e-01 -1.27573684e-01 +1.75143808e-01 +2.33031213e-01 +5.18904388e-01 +1.31946906e-01 +3.19432080e-01 +2.31972686e-03 -1.26056299e-01 -2.50220060e-01 +6.14545405e-01 -1.28552541e-01 +4.85296734e-02 -3.15956324e-01 +3.61001760e-01 -4.24787641e-01 -3.87253851e-01 -5.06515950e-02 -9.24763829e-02 +2.83330709e-01 -2.40833089e-01 +6.68194890e-02 +1.43857852e-01 -3.82334441e-02 -1.69923455e-01 +2.34250143e-01 +9.38646570e-02 +8.72301534e-02 -1.73909009e-01 -3.28493476e-01 +1.14403963e-01 +9.56712514e-02 +1.29333675e-01 -3.73206586e-01 +2.11592272e-01 -4.70365018e-01 +5.49915321e-02 -5.19751906e-02 -2.04669401e-01 +1.30322529e-02 -3.15706313e-01 -2.99390018e-01 -4.10109684e-02 +2.63962865e-01 +3.25045913e-01 -4.83127609e-02 +1.19348943e-01 -2.77624726e-02 +3.55775565e-01 +5.64012885e-01 +4.68059152e-01 +2.56242514e-01 -5.82914688e-02 -1.23481274e-01 +5.13400733e-02 +2.24749550e-01 +5.34546599e-02 +7.22496584e-02 -7.72314519e-02 -7.54106343e-02 +2.86769122e-01 -1.06324188e-01 +1.95968568e-01 -7.75460200e-03 +2.80763894e-01 +3.39851528e-02 +1.50071785e-01 +2.61148393e-01 +5.35886660e-02 -1.47877643e-02 -1.65191412e-01 +4.33098227e-01 -2.58907169e-01 +6.52235970e-02 +2.74740756e-01 -1.80031627e-01 -2.71731466e-01 +2.74047583e-01 +3.40607822e-01 -2.32512400e-01 -2.47087866e-01 -3.88481729e-02 +9.68317762e-02 -2.12005228e-01 +4.62722689e-01 -1.42356798e-01 +1.29450962e-01 +3.86812627e-01 +1.24148518e-01 +1.04530118e-01 -3.18388566e-02 -2.28526399e-01 -2.19100460e-01 -2.27186024e-01 +4.70918976e-02 -1.88876912e-01 +3.46158206e-01 -2.23368004e-01 -2.44315177e-01 -1.86525229e-02 -1.54086798e-01 -2.19937608e-01 -9.11952853e-02 +1.27212942e-01 +2.86957830e-01 +9.18124169e-02 +1.33076325e-01 +3.53711843e-01 +3.42498988e-01 +1.03935078e-01 -2.36596307e-03 -1.00482196e-01 +2.60011613e-01 +2.72574961e-01 +4.11530316e-01 +4.04525936e-01 -5.75994179e-02 -7.15388060e-02 +4.14579839e-01 +4.08648074e-01 +8.15566629e-02 +2.17532143e-01 -1.29623786e-01 -8.32599699e-02 -1.88198745e-01 +8.49373043e-02 +9.89847109e-02 +3.01714391e-01 +3.03928554e-01 +3.46636891e-01 +4.28551942e-01 -1.44841775e-01 +4.67341274e-01 -3.37120704e-02 +1.81603745e-01 +5.18768907e-01 -3.56965154e-01 +3.23148459e-01 +3.08334887e-01 -1.70302801e-02 -4.96872872e-01 +4.79859591e-01 +3.46333325e-01 +9.92325246e-02 -2.99107313e-01 +5.20827286e-02 +2.27231875e-01 -4.63763237e-01 +4.33219433e-01 -2.74980068e-01 +4.87529486e-01 +3.12514633e-01 +1.34294733e-01 +4.34585810e-01 +6.44287288e-01 +1.87808767e-01 
#Parameter# /gru-builder/_4 {50,50} 40001 ZERO_GRAD
+6.26734346e-02 -3.73493917e-02 +1.72009692e-01 -2.27080032e-01 +7.35326633e-02 -2.52673686e-01 -3.80840421e-01 -2.53847808e-01 -1.73592418e-01 +1.31050631e-01 +1.07305840e-01 -1.80597499e-01 +3.30177322e-02 +1.52874678e-01 -2.67644107e-01 -4.23911251e-02 -2.45718941e-01 -2.66105235e-01 +8.54177028e-02 -1.50167137e-01 +6.04347251e-02 -1.55810744e-01 -1.84104130e-01 +2.18926579e-01 -1.44095451e-01 -2.69039541e-01 +3.83832902e-02 +8.38637799e-02 -1.62892863e-01 +1.44738287e-01 -1.89148232e-01 -5.91659993e-02 +7.53418282e-02 +1.18722707e-01 -2.85477489e-01 +8.28715339e-02 -8.13850686e-02 +9.67344269e-02 +9.23133940e-02 +5.60561083e-02 +2.32236404e-02 -1.66436315e-01 -2.57466942e-01 -9.85760465e-02 +1.15875332e-02 +8.05828795e-02 +1.77978858e-01 -1.84135497e-01 -1.68726668e-01 -5.60477600e-02 -1.02059528e-01 +9.32511911e-02 -1.83418170e-01 -2.90914066e-03 -1.82196885e-01 -1.69630587e-01 -1.02696858e-01 -1.71472819e-03 -1.05806477e-01 -1.45878851e-01 +1.23628087e-01 -1.35853469e-01 +8.44646129e-04 +1.65184122e-02 -4.80571799e-02 -4.26896997e-02 -3.07971030e-01 -1.77280400e-02 +9.54149812e-02 +3.89613248e-02 -1.82792187e-01 -2.72192694e-02 -2.04061151e-01 +1.24756321e-01 -2.45268136e-01 -4.17255849e-01 +4.99124639e-02 -1.88526645e-01 -5.81185054e-03 -1.30933747e-01 -1.89360604e-01 -3.34818393e-01 -2.94761825e-02 -1.26136228e-01 -1.54491082e-01 +3.64500657e-03 +1.50994554e-01 -2.85124779e-03 +2.19049096e-01 -1.15022771e-01 -1.03775576e-01 -1.35418460e-01 -3.41917366e-01 -2.29269028e-01 +4.07977074e-01 -1.82742000e-01 -1.27059549e-01 -3.42596263e-01 -1.13207787e-01 -1.17643930e-01 +8.52060243e-02 +1.31588489e-01 -9.31531638e-02 -1.74553320e-02 -3.90714318e-01 +1.50998846e-01 -3.29757541e-01 +1.68876443e-02 +4.34284192e-03 +1.90372214e-01 -1.02886491e-01 +4.12213393e-02 -7.56566077e-02 +1.47977993e-01 +1.49019092e-01 -1.41239062e-01 +1.82913527e-01 +3.71359959e-02 +1.89413697e-01 -1.87207073e-01 +2.55473098e-03 -1.70002818e-01 -4.24201898e-02 -6.32205456e-02 -8.07225928e-02 -4.07785267e-01 -5.16722314e-02 -1.71233073e-01 +2.83831488e-02 +6.60438165e-02 -1.56331569e-01 -3.34738418e-02 +2.66224951e-01 -2.20853671e-01 +1.23774558e-01 -1.70347348e-01 -2.45334376e-02 -1.35736749e-01 -2.18568221e-01 -2.37263620e-01 -4.23508763e-01 +3.12444344e-02 -1.08127892e-01 +1.22314855e-01 -2.95600630e-02 -2.24024534e-01 +1.77549914e-01 -1.53969526e-01 -4.02416401e-02 +7.75343254e-02 +2.59428322e-01 +1.59785613e-01 +1.24477722e-01 +1.72832742e-01 +3.19312438e-02 -1.24217525e-01 +3.22309166e-01 +3.57285812e-02 +2.67140150e-01 +7.53956288e-02 -1.09773591e-01 +2.06379279e-01 +1.20509654e-01 -2.86658760e-03 -1.04460105e-01 -9.83358920e-03 +1.44189410e-02 +2.14453891e-01 -1.16415165e-01 +2.81731129e-01 +5.74943535e-02 -8.28190073e-02 +1.14934251e-01 -1.67267874e-01 +5.52723147e-02 +3.34587723e-01 +1.99386361e-03 -2.17604376e-02 +3.24317575e-01 +2.68042117e-01 +3.62702683e-02 +1.44891575e-01 -1.27438977e-01 +2.50176549e-01 +8.24121907e-02 -8.64544213e-02 +1.50521785e-01 +1.84306294e-01 +2.03301087e-01 -1.17042042e-01 -1.04016535e-01 -2.07605539e-03 +1.74487695e-01 -9.99552291e-03 +3.31693911e-03 -1.47636719e-02 -3.12406980e-02 +2.17558995e-01 -3.18942927e-02 +3.45057040e-01 +7.00915083e-02 +5.32655343e-02 +1.11296758e-01 +9.88496244e-02 -9.44923460e-02 +1.76005568e-02 +8.57318789e-02 -1.55883223e-01 +5.07166944e-02 -1.13367930e-01 +1.29585728e-01 +3.52965713e-01 +2.41181493e-01 +2.91528348e-02 -9.21551958e-02 +1.79783091e-01 -2.38403440e-01 +2.50996709e-01 +6.69017658e-02 +9.30698365e-02 +4.93953303e-02 +2.62635220e-02 +6.54067472e-02 +2.17736326e-02 -2.72394687e-01 +4.18877155e-01 +6.74990714e-02 -1.46306425e-01 +1.73225105e-01 +2.15384662e-01 -4.08977643e-02 -1.28050148e-01 +1.35679901e-01 -1.66255265e-01 -1.35008723e-01 +9.15322602e-02 +5.97776137e-02 -3.42951119e-02 -3.16592194e-02 +1.08099960e-01 +6.75519705e-02 -3.02857608e-01 -1.17742360e-01 -1.63181111e-01 +2.92268675e-02 -4.61489037e-02 -2.67237872e-01 +8.91718417e-02 -6.25218358e-03 +3.70021723e-02 -1.90643683e-01 -2.32606187e-01 +5.36650121e-02 +6.62902370e-02 +4.88840975e-02 +1.67654142e-01 -4.06454235e-01 -2.29336366e-01 -1.04551822e-01 -1.17432863e-01 +3.43325473e-02 -2.48251185e-01 +2.18998700e-01 +2.70628147e-02 +2.32365325e-01 +1.91903919e-01 -2.39759162e-01 -1.56472415e-01 -2.16159910e-01 -2.84194559e-01 -7.31589273e-02 +4.55071107e-02 -3.29508968e-02 +1.13742329e-01 -2.97955424e-02 -2.29910672e-01 +8.58426243e-02 -1.88606203e-01 -1.99707896e-01 -1.72598422e-01 +1.64289281e-01 -5.14893718e-02 +7.89424628e-02 +1.23403914e-01 -2.77873755e-01 +1.04188576e-01 -2.48435158e-02 -4.43845429e-02 -6.42308146e-02 -7.33473897e-02 -8.23972449e-02 -2.30911210e-01 -7.60315508e-02 +1.97625607e-01 +4.78770323e-02 -1.63914904e-01 +1.37833193e-01 +6.23389967e-02 -2.57750507e-02 +9.75925326e-02 +2.02238373e-02 -7.00545236e-02 +1.88963339e-01 +1.59012318e-01 +1.59785315e-01 -1.42162248e-01 -7.47063607e-02 -1.30735159e-01 +1.30941898e-01 +5.78575544e-02 -1.91206500e-01 +9.96100232e-02 +1.14543334e-01 +1.51201049e-02 -9.87826437e-02 -3.53626385e-02 -1.39517784e-01 +3.03115007e-02 +1.72181427e-01 +2.94258207e-01 -2.59332787e-02 -5.45489937e-02 -9.42984968e-02 -1.62343591e-01 +2.25662872e-01 +4.73010957e-01 +3.31576586e-01 +1.01354294e-01 +3.21785718e-01 -5.20794205e-02 -9.66647491e-02 +2.34173179e-01 +8.40225592e-02 +3.94170061e-02 -1.46089047e-01 +2.03441232e-01 +6.11691736e-03 +3.16591635e-02 +3.94708030e-02 +9.46035236e-02 +8.22919086e-02 +9.84086692e-02 +1.45399064e-01 -6.48867860e-02 -2.21592560e-01 -1.34014353e-01 +1.29006997e-01 +3.56369972e-01 +1.40412137e-01 +1.88753039e-01 +6.09638095e-02 -6.19324259e-02 -2.20045522e-01 +1.82171419e-01 +2.27337807e-01 -1.95549533e-01 +4.48861778e-01 +1.71509370e-01 -1.28884375e-01 -7.95477480e-02 +7.40110129e-02 +1.90502927e-01 -1.68653354e-01 +1.47461697e-01 -1.04511559e-01 +2.40633730e-02 +2.48527721e-01 +3.17470543e-02 -8.18058923e-02 -2.29003909e-03 -1.14846334e-01 +2.04172805e-02 -9.93485749e-02 +5.86702675e-02 +2.54142851e-01 +4.79072094e-01 +3.57221723e-01 +1.01063736e-01 +4.60930690e-02 +1.66794300e-01 +1.31935552e-01 +1.76513255e-01 -1.87129617e-01 -2.35218197e-01 +1.81914166e-01 +1.48343295e-01 -1.82302415e-01 +9.24398527e-02 +1.12173364e-01 -2.76274290e-02 +2.65352204e-02 +1.23820186e-01 +5.99193163e-02 -1.68697983e-02 +1.43775433e-01 -3.30647156e-02 +1.06715318e-02 +8.80104899e-02 +1.08048856e-01 +4.68876101e-02 -1.35140300e-01 -7.59720281e-02 -1.13389827e-01 +2.85171151e-01 -8.38577934e-03 -1.06695235e-01 +3.01113218e-01 +2.77541906e-01 +6.10106252e-02 +3.04721296e-01 -1.26347393e-01 +1.86937734e-01 -3.70429233e-02 -1.91245839e-01 +1.16786202e-02 +1.16664700e-01 -7.53291417e-03 -4.04185727e-02 +1.81865707e-01 +2.61994064e-01 -3.84299643e-02 +2.21703097e-01 +1.15738921e-01 +7.94014707e-02 -9.15359482e-02 +4.78308499e-01 +3.14162195e-01 -1.13635845e-01 +3.35102201e-01 -2.69869380e-02 +9.40261707e-02 +1.95886552e-01 +1.54661641e-01 -1.75046042e-01 +2.85384774e-01 +1.62055776e-01 +4.75002229e-02 +2.05278248e-01 -1.57405883e-01 +1.85301423e-01 +2.70612776e-01 -1.58962131e-01 +3.76277231e-02 +5.44725731e-02 -1.95371702e-01 -2.18433172e-01 -7.97733292e-02 +1.13549054e-01 +6.65607527e-02 +1.42369539e-01 +8.72608945e-02 -1.90385327e-01 -1.90772980e-01 -3.36555213e-01 -3.16904694e-01 +8.57085362e-02 -4.29950356e-01 -1.75633267e-01 -2.23852843e-01 -2.44165316e-01 -4.07607481e-02 -3.83603461e-02 -1.85025573e-01 -8.58174562e-02 +1.69886202e-01 -1.10343859e-01 -1.32586971e-01 -4.45817821e-02 +7.04938322e-02 -3.27850044e-01 -4.40353714e-02 -2.80741602e-01 -3.55839333e-03 +5.87302409e-02 -1.51294798e-01 -3.91872853e-01 -2.31872231e-01 -4.42019850e-02 +1.06355309e-01 +1.16223134e-01 +3.73679213e-02 -1.24796398e-01 -2.37007588e-01 +5.32032400e-02 -2.14876011e-01 +1.16228878e-01 +1.49374381e-01 -8.93835425e-02 -1.54962972e-01 -9.00422931e-02 -9.50002819e-02 +1.53266281e-01 +3.36665958e-02 -2.19909358e-03 +5.97543046e-02 -7.70791899e-03 -3.27903420e-01 -2.34748088e-02 -1.27549842e-03 -1.97665337e-02 -2.04536274e-01 +5.00926077e-02 +4.49818384e-04 +1.30425721e-01 -1.67487174e-01 +5.69176003e-02 -2.21241973e-02 +8.54889378e-02 +1.43793840e-02 +8.90269354e-02 -8.65439549e-02 -1.35178119e-01 -3.00635435e-02 +2.59928882e-01 -6.10638503e-03 -1.57090932e-01 -7.57433921e-02 -2.15374827e-02 -3.16295819e-03 +9.23956409e-02 -2.44054064e-01 +3.30738336e-01 +3.91546994e-01 +9.71271917e-02 +2.99854606e-01 -6.19098283e-02 +1.98291689e-01 -4.35847091e-03 -2.32761443e-01 -5.07305935e-02 +2.36655548e-01 +2.99822450e-01 -1.18366117e-02 -1.65371422e-03 +1.47939203e-02 +1.38032541e-01 -8.40960220e-02 +1.10933615e-03 +2.43895158e-01 +2.37418771e-01 +2.19260827e-01 +1.46194339e-01 +1.11867674e-01 +8.39358618e-05 -1.62439302e-01 +1.77071109e-01 +4.59982120e-02 +2.74401635e-01 -2.58761225e-03 -8.27258155e-02 +9.30016339e-02 -1.69615135e-01 -2.43552066e-02 +1.41485974e-01 +6.09730594e-02 +3.48044746e-02 +1.47884607e-01 +2.94960558e-01 +2.57369697e-01 +2.46594533e-01 -6.14706129e-02 +2.15992421e-01 +3.34375024e-01 -1.33608758e-01 -1.93104252e-01 +3.15294862e-01 +2.41723374e-01 +1.94001093e-03 +1.24550022e-01 +7.04889670e-02 -3.17953140e-01 +2.21572995e-01 +2.36075312e-01 +2.37179220e-01 +1.30347475e-01 +3.77018809e-01 +9.79843959e-02 -9.04348940e-02 +3.25789690e-01 +2.87035942e-01 +1.68250173e-01 +5.18299639e-01 +2.56791025e-01 -1.25501782e-01 -1.34052083e-01 -1.34468988e-01 -1.45501979e-02 -5.67266271e-02 +2.08157390e-01 -9.99931321e-02 +9.06767771e-02 -1.87921464e-01 +2.42013767e-01 +2.47239009e-01 -1.07157476e-01 +1.96057528e-01 +2.75004387e-01 -7.24944770e-02 -2.73452848e-02 +4.41694587e-01 +1.29431233e-01 +2.67715245e-01 -2.65882581e-01 -1.53735369e-01 -3.14222336e-01 -2.31762119e-02 -2.35892713e-01 +1.75257877e-01 -3.76641043e-02 -3.94446217e-02 +2.29012355e-01 -1.88303351e-01 -4.03295457e-02 -9.19438303e-02 -1.72040537e-01 +4.69980761e-02 -2.17364609e-01 -3.76904309e-02 -1.43376037e-01 -1.48508608e-01 +6.09814264e-02 -4.08428311e-02 +2.28288546e-01 -1.09327480e-01 -3.45495760e-01 +2.90856156e-02 -9.93381366e-02 -1.76620394e-01 +1.81498662e-01 -2.78579086e-01 +2.12264791e-01 +4.98604737e-02 +2.44038850e-01 +6.30217716e-02 -9.13583301e-03 -9.07063559e-02 -1.06929533e-01 +2.50045240e-01 +2.56827861e-01 -2.44694222e-02 -2.35485584e-01 -6.29547611e-02 -2.59951681e-01 +1.63737372e-01 -1.19485579e-01 -3.35707307e-01 -1.25297636e-01 -1.25221059e-01 -2.72679627e-01 -1.41071239e-02 +1.68876782e-01 +1.81981832e-01 +1.24109477e-01 +2.03603059e-01 +2.29648009e-01 +1.86239347e-01 +1.74215585e-01 +3.16290349e-01 -8.74634907e-02 +2.25843266e-01 +3.26243371e-01 +9.65976864e-02 -6.54297099e-02 -4.36344817e-02 +8.61103367e-03 +2.17734128e-01 -2.09338874e-01 -1.32609010e-01 +1.17073618e-01 +2.91126162e-01 -1.01860143e-01 -2.23033965e-01 -8.66699032e-03 +1.67329490e-01 +2.04055250e-01 +1.60206452e-01 -1.23753615e-01 +4.72289398e-02 +3.99702638e-02 +1.11999763e-02 -1.62472233e-01 -9.01694782e-03 -1.94539294e-01 -4.85420376e-02 +1.91341996e-01 -2.07410306e-01 -1.53362572e-01 +3.62560689e-03 +1.32513598e-01 +1.53236046e-01 -4.90872115e-02 -1.42545197e-02 -2.15533301e-01 -6.31881878e-02 -1.75691500e-01 -1.04353070e-01 +1.31959155e-01 -1.81057870e-01 -2.48756245e-01 -3.55707929e-02 +2.11504906e-01 -3.31639469e-01 -2.07260326e-01 -2.17936590e-01 -6.68040812e-02 -2.47410327e-01 -1.33410348e-02 -1.54351443e-01 +3.37055996e-02 -2.65404046e-01 -2.09682196e-01 -1.08712375e-01 +1.26893505e-01 +2.29990244e-01 -5.59878461e-02 +1.37991682e-01 -6.73441440e-02 +1.66646801e-02 -1.55538633e-01 -2.74884589e-02 +6.05250448e-02 +7.09243640e-02 +5.33991344e-02 -1.41309574e-01 +1.10631555e-01 +2.74758577e-01 -1.44594237e-02 -1.61297798e-01 -4.80920859e-02 +1.48017272e-01 -1.51428446e-01 -1.89851016e-01 -2.58245200e-01 +1.39873624e-01 +2.02637259e-02 +1.84209287e-01 +1.65748447e-01 -5.22910058e-02 +7.35200942e-02 -1.87970251e-01 +3.05252850e-01 +4.16505337e-02 +9.99078900e-02 +7.86011443e-02 -1.81475550e-01 -8.87390226e-02 -2.35483930e-01 +1.99628726e-01 +7.60125443e-02 -1.66597024e-01 +3.39034386e-02 -1.38078704e-01 +8.14885572e-02 +9.30061040e-04 -1.33513927e-01 +2.49807555e-02 +3.51383090e-01 -2.49605939e-01 -1.67467102e-01 +1.66108117e-01 -1.21109091e-01 +2.22889945e-01 +2.18223438e-01 -4.88064513e-02 +3.16577524e-01 +1.52181387e-01 +8.53357557e-03 -8.26318637e-02 -1.42867621e-02 -1.41708001e-01 -4.67662290e-02 +2.23851815e-01 -1.24599934e-01 +7.56378993e-02 +1.38990611e-01 -1.21509194e-01 +1.61668479e-01 +8.72223079e-02 -1.92161828e-01 +1.15481541e-01 -3.63935567e-02 +6.23065718e-02 -4.72193919e-02 +1.40931830e-02 -3.48175690e-02 +1.34926543e-01 -1.05463408e-01 -3.20186377e-01 -1.28680289e-01 +2.15855300e-01 +1.87512845e-01 -1.83687806e-02 -1.89706206e-01 -4.68083054e-01 +2.95593316e-04 +1.21370003e-01 +1.61968023e-01 -1.21544376e-01 -2.56172772e-02 +2.27744132e-01 +2.93305755e-01 +2.80554354e-01 +2.61951536e-01 -1.72861680e-01 +9.02577117e-02 +2.34241948e-01 -3.36733088e-02 +1.69963479e-01 +2.54551709e-01 -1.60387844e-01 +7.48324320e-02 +2.45725349e-01 +1.14676438e-01 -2.60695189e-01 -2.03727975e-01 +1.53645307e-01 -1.53184086e-01 +3.66828889e-01 -1.47361346e-02 -4.72301058e-02 -4.74272929e-02 +5.33470996e-02 +2.73448348e-01 +9.75480601e-02 -1.35317132e-01 +2.39635825e-01 +1.99361965e-02 +5.96253462e-02 -2.93786265e-02 +1.21126488e-01 +2.26442978e-01 +2.31965318e-01 -1.16405353e-01 +2.35502377e-01 +5.67856878e-02 -1.14889279e-01 -2.39840806e-01 -2.17868283e-01 -1.32603213e-01 +1.31586477e-01 +1.91405147e-01 +1.37667835e-01 -7.04679359e-03 -1.15145072e-02 +1.47075906e-01 -2.55301334e-02 -1.01580754e-01 +1.58397049e-01 +3.13292265e-01 +2.67131746e-01 -6.27804324e-02 -7.95517340e-02 +5.21249175e-02 +5.11946939e-02 -1.81045920e-01 -9.29932371e-02 -2.62651950e-01 -1.03105322e-01 +6.69297278e-02 +1.80286527e-01 +8.75627920e-02 -1.80087119e-01 -4.34841573e-01 +3.64739038e-02 +7.33692721e-02 -1.75730482e-01 -6.16309941e-02 -5.86293191e-02 +1.68726265e-01 +2.41209776e-03 +2.08472103e-01 -4.10731696e-02 +7.94131681e-03 -2.97891274e-02 -2.27418572e-01 -3.17249686e-01 +9.67936516e-02 -2.19895706e-01 +1.13034658e-01 -2.88966298e-01 +8.10170639e-03 -1.72366604e-01 +2.43015394e-01 +5.00446260e-02 -1.07914276e-01 -9.79754776e-02 -1.59080982e-01 +3.43258716e-02 +2.15426758e-01 -3.85907501e-01 -3.38582873e-01 -2.65197586e-02 -2.76562572e-01 +3.91677804e-02 +6.84852451e-02 -1.46393314e-01 -1.23489507e-01 -1.60059193e-03 -1.35005757e-01 -2.92894065e-01 -4.96147238e-02 -3.20688915e-03 +1.76952943e-01 -1.54761672e-01 -2.09106311e-01 -2.17429101e-01 -2.20978618e-01 +1.69531479e-01 -3.42720859e-02 +1.93956435e-01 -1.56015977e-01 -4.28534865e-01 +5.86177129e-03 +9.82106626e-02 +2.11243667e-02 +5.26355989e-02 -1.15370736e-01 -9.63603333e-02 +3.40603322e-01 +1.48441121e-01 -1.79425806e-01 +1.77806243e-01 +1.19426683e-01 +1.49816558e-01 +1.86285377e-01 -1.13077156e-01 +2.04238698e-01 -1.00456282e-01 -7.15009049e-02 -2.07338423e-01 -1.91623911e-01 -4.41842638e-02 -1.17061570e-01 +8.08767378e-02 -3.93348336e-02 -1.50931776e-01 +3.43612581e-01 -3.81171294e-02 +9.59829539e-02 +1.63920373e-01 +4.16452698e-02 -2.22553074e-01 -1.00623950e-01 -4.43337671e-02 +1.04658464e-02 -1.86839290e-02 -4.30868492e-02 -1.38106644e-02 +6.58564940e-02 -2.34477565e-01 -2.04957858e-01 -3.39161187e-01 -1.77150294e-01 +3.70639861e-02 -1.24219619e-01 +1.38707116e-01 -1.05663173e-01 -1.07773639e-01 +1.25727743e-01 -1.83852747e-01 -2.02762499e-01 +1.49231657e-01 -5.01076691e-03 -2.22472250e-01 +1.63954228e-01 +1.49802640e-02 -2.86856871e-02 -2.89536901e-02 +4.64417562e-02 -1.49647743e-01 -1.52269915e-01 -1.73035905e-01 -3.15834969e-01 -3.27660233e-01 -3.91678244e-01 -6.03428446e-02 -3.33719850e-02 -2.00473070e-01 -4.71623242e-02 -2.44103566e-01 -1.54898390e-01 -3.70218366e-01 -2.20720038e-01 -3.91261615e-02 -2.36974843e-02 -1.66135341e-01 -3.34921241e-01 +2.03942489e-02 +1.08192496e-01 -3.07569832e-01 -8.85118842e-02 +1.15697898e-01 +1.15776733e-02 -1.29052877e-01 -6.67073280e-02 +2.30705485e-01 -1.68090776e-01 -2.14971870e-01 +3.43746692e-02 -3.10084939e-01 +1.41674578e-01 +6.59501851e-02 +1.97508767e-01 +7.56290779e-02 +1.38367742e-01 +1.27606705e-01 +2.48813108e-01 +1.68713480e-02 +1.61815569e-01 +4.02222157e-01 -8.38101432e-02 +1.46450415e-01 +1.46993756e-01 +1.26191705e-01 +3.00595127e-02 +1.91171288e-01 +6.67448640e-02 -3.15112323e-01 +3.90263200e-02 +3.30130458e-01 -2.81469643e-01 +3.01324204e-02 +2.17762426e-01 +2.21306488e-01 +4.91553038e-01 +1.55146571e-03 +9.35387891e-03 +1.61354348e-01 -1.43497422e-01 +3.92403938e-02 -1.66616198e-02 +3.48445058e-01 +2.74247397e-02 -2.25143582e-02 +2.66182274e-01 +2.67020851e-01 -1.31892497e-02 +3.73077989e-01 +1.17081858e-01 -1.92736275e-02 +2.13374868e-01 -2.51654774e-01 +3.59326273e-01 -2.71648988e-02 +2.03019008e-02 -2.32311204e-01 -1.36512905e-01 +2.99814820e-01 -2.11810857e-01 -8.87615159e-02 -2.95244366e-01 -8.18969980e-02 +9.76041630e-02 -3.80720079e-01 -1.59372211e-01 +1.89490896e-02 -1.36954142e-02 -2.25605667e-01 -1.17512017e-01 -3.18766147e-01 -3.23188096e-01 -4.37118322e-01 -3.19765836e-01 -2.64442742e-01 +1.62806675e-01 -9.07191113e-02 +2.19621271e-01 -2.06782639e-01 +2.08426733e-02 -3.05636972e-01 +2.00801622e-02 +1.25858366e-01 -7.57082179e-02 +5.38196191e-02 -4.83534217e-01 -3.71299028e-01 +1.05631582e-01 +1.08820751e-01 -5.10621741e-02 +1.35328099e-01 +1.25105605e-01 +9.45826173e-02 -5.35637587e-02 +9.64715332e-02 -8.51637796e-02 +2.35640883e-01 -1.86984733e-01 -2.31214657e-01 -1.07794657e-01 -1.04937673e-01 -4.84678715e-01 +2.27230787e-01 -1.50948957e-01 -1.08784869e-01 +6.04443476e-02 -1.77609071e-01 -1.17112741e-01 -4.87431847e-02 -1.40669748e-01 -1.17184006e-01 -9.85810440e-03 -3.84426624e-01 +1.34689301e-01 +6.87328279e-02 -2.15248078e-01 +9.09941494e-02 -3.48121285e-01 -7.46324360e-02 -1.26538664e-01 -1.55408338e-01 -2.08374679e-01 +2.42791716e-02 +9.04094651e-02 -3.15003991e-02 +1.05123654e-01 -1.06469758e-01 +4.67148200e-02 -6.56690300e-02 -1.39252674e-02 -1.88309699e-01 -6.78177476e-02 -2.82822609e-01 -2.43928418e-01 +2.26709805e-03 +9.01846513e-02 -3.35854627e-02 +4.08041142e-02 -2.23906159e-01 -3.36368740e-01 +9.76394638e-02 -4.06298749e-02 -4.71828610e-01 -2.63878584e-01 -1.44826144e-01 +1.05950326e-01 +7.12803677e-02 -2.50626266e-01 -3.33102077e-01 -2.21889243e-01 +8.42662156e-02 +1.49669116e-02 -2.04873886e-02 +1.28961906e-01 +6.45073801e-02 +5.67643456e-02 +2.59528816e-01 -1.17378883e-01 -2.00409010e-01 -8.09028521e-02 -1.89127862e-01 -2.23436244e-02 -7.14113861e-02 -9.65740979e-02 +1.48311621e-02 +2.21475251e-02 +2.10192487e-01 +1.92710087e-01 -1.47247091e-02 +6.86816126e-02 +8.21146816e-02 -1.07864730e-01 +2.24511489e-01 +1.96806848e-01 +1.27745941e-01 -3.08365561e-02 +7.14103953e-05 -6.60831630e-02 +7.03307521e-03 -7.35621080e-02 +1.24247380e-01 +4.05298695e-02 +5.16580939e-02 +1.07569164e-02 -1.96495891e-01 -1.00316830e-01 +1.02799758e-01 +6.74392208e-02 -3.41090597e-02 +2.81115383e-01 +2.12968022e-01 -1.28121883e-01 +3.81072879e-01 -1.33897275e-01 -1.47685885e-01 +3.17599624e-01 +2.09592938e-01 +1.77847773e-01 -1.60725474e-01 -2.44619712e-01 -1.11797601e-01 +2.10695758e-01 -1.46773234e-01 -6.12156540e-02 -1.78108186e-01 -9.44922119e-02 -2.28158176e-01 -1.84171304e-01 +1.36580124e-01 +1.04139067e-01 +1.06034033e-01 -1.18517704e-01 +4.35340285e-01 -1.40865326e-01 +6.98527023e-02 +2.85341948e-01 -3.99205349e-02 +2.30926022e-01 +1.02062047e-01 +1.14012197e-01 +2.57741272e-01 +3.59833807e-01 +3.35364603e-02 +1.90353647e-01 +6.39990494e-02 +1.30112857e-01 +4.47206572e-02 +2.84969449e-01 +7.34437332e-02 +1.11521728e-01 +2.10643589e-01 +4.77333702e-02 +2.07690999e-01 +4.83245403e-02 +6.95925280e-02 +1.94132164e-01 -2.30451137e-01 +2.26190522e-01 -4.99428213e-02 +8.83352235e-02 +1.83407754e-01 -5.12776226e-02 -9.78483930e-02 -3.74221317e-02 -1.79874793e-01 -1.29486144e-01 +2.81371385e-01 +3.24400902e-01 -5.87520562e-02 +4.98619005e-02 +1.12704836e-01 +4.04272228e-01 -3.39294404e-01 +7.99264982e-02 -1.43247157e-01 +7.41053447e-02 -1.93148199e-02 -4.14067023e-02 +3.58004928e-01 -8.76212865e-02 +1.33000389e-01 +1.14623591e-01 +2.72267789e-01 +2.80662067e-02 +9.49222594e-02 -1.11071952e-01 -1.63419228e-02 +4.07278359e-01 +1.23097755e-01 -1.59039676e-01 -5.34969606e-02 -1.02663614e-01 +3.47466737e-01 -9.66728330e-02 -1.19008914e-01 -8.86127502e-02 -1.25788361e-01 -1.88982576e-01 +1.03128530e-01 -1.09465107e-01 +1.97830066e-01 -3.26476306e-01 +2.94839144e-02 -2.16667596e-02 -1.05782188e-01 -2.25704372e-01 +2.55144853e-02 +2.40987435e-01 +1.77531242e-01 +1.12193316e-01 +2.29417697e-01 +1.53828740e-01 +2.68034548e-01 +6.50785118e-02 +4.16850373e-02 +1.04715914e-01 +1.67434841e-01 -2.05572724e-01 -1.19406790e-01 +1.07442558e-01 +2.66022421e-02 +2.44613215e-01 +1.87075958e-01 +2.54685938e-01 -2.00761244e-01 -1.90419152e-01 -1.01776294e-01 +1.73450366e-01 -9.09107700e-02 +5.10638319e-02 +2.85452157e-01 +8.16240534e-02 -1.13410866e-02 +1.93038240e-01 +1.11419827e-01 +3.00231446e-02 +2.52182454e-01 +3.85257304e-01 -1.92993775e-01 -1.38470028e-02 +3.35455209e-01 +9.78964716e-02 +1.47895396e-01 +2.66235560e-01 +1.24035310e-03 +8.94483104e-02 -2.93367915e-02 +1.19124815e-01 +2.27506962e-02 +1.19322717e-01 -5.56152016e-02 -5.21340687e-03 -2.86356211e-02 +2.93713391e-01 -2.17003867e-01 +1.54193696e-02 +3.92479688e-01 -1.18443608e-01 +9.59357396e-02 +2.94188917e-01 +1.95246667e-01 +7.63083175e-02 +2.69444566e-02 +6.18328676e-02 -4.20514084e-02 +6.10710233e-02 +5.91329075e-02 -9.60478485e-02 +5.96039696e-03 -4.53829728e-02 +3.13688964e-01 +1.85463920e-01 -8.44080597e-02 +5.33657782e-02 -1.18262649e-01 -1.49337679e-01 -2.68207770e-02 +1.13059863e-01 +2.98648894e-01 -1.52008787e-01 +1.60669684e-02 +6.51908666e-02 +1.80424482e-01 -1.44146591e-01 +2.32807562e-01 +8.71986430e-03 +1.67530790e-01 +2.35770658e-01 -1.08272970e-01 -2.30769351e-01 +7.94205293e-02 +8.03587437e-02 +3.87352347e-01 +2.36752614e-01 +2.32870094e-02 +3.99784818e-02 -8.96503553e-02 -4.35044989e-02 +9.52022448e-02 +1.41194552e-01 +2.19181016e-01 +2.16005564e-01 -1.94074512e-01 -1.00241825e-01 +6.49435595e-02 +7.98750892e-02 +1.24507301e-01 -1.37395620e-01 -7.50765204e-02 +2.90845819e-02 +1.89176768e-01 -5.43570034e-02 +4.79531400e-02 -1.36987746e-01 -1.55460864e-01 +2.64451891e-01 -7.14948475e-02 -2.98597757e-02 +1.98866665e-01 -8.23028907e-02 -1.27463058e-01 +3.11681598e-01 +2.19064206e-02 +2.00748011e-01 -1.47840455e-01 +1.23955972e-01 +1.84125438e-01 -2.12407634e-02 +2.67861754e-01 +1.99868262e-01 +1.75748661e-01 +1.73841953e-01 +5.96774332e-02 +6.47829287e-03 +1.94262326e-01 -1.29464433e-01 -9.96700302e-02 +6.74289912e-02 -2.39223152e-01 +1.78476870e-01 -1.93813771e-01 +1.35730937e-01 -3.51026416e-01 -2.42272362e-01 +1.75804615e-01 -1.16384245e-01 -1.39203027e-01 -2.50750836e-02 -1.60117760e-01 +1.15228057e-01 -1.75922051e-01 +1.07317790e-01 +5.14061190e-02 +1.51703386e-02 +6.11518174e-02 +1.33873776e-01 -2.02709213e-01 +1.15443178e-01 +1.04315519e-01 -6.51346706e-03 -2.90283442e-01 -1.07417397e-01 -9.69214141e-02 +2.91834008e-02 +1.34536058e-01 -2.20744565e-01 -2.68968105e-01 -1.46859542e-01 +1.14082612e-01 -1.28990009e-01 -2.08686516e-01 -1.56368941e-01 +1.67920455e-01 -3.39522421e-01 +1.80305853e-01 +2.80724108e-01 +4.01597098e-02 +7.78241530e-02 -8.86173025e-02 -5.11807948e-02 +6.40359595e-02 +4.73015718e-02 +1.32388502e-01 +2.37892985e-01 +4.41699848e-03 +3.26923519e-01 +1.75290227e-01 +1.69794649e-01 +9.02008824e-03 +1.86994463e-01 +8.61338153e-02 -1.18038796e-01 +6.07379489e-02 +1.78941652e-01 +7.49470219e-02 -2.47484110e-02 +1.23199694e-01 +2.36825813e-02 +1.65672392e-01 -1.99421495e-01 +2.69922972e-01 -4.46136706e-02 +1.07158363e-01 -4.62323055e-02 +2.47534186e-01 -3.24065313e-02 +2.97784477e-01 +5.41263260e-02 +2.50188887e-01 +1.77221924e-01 +7.82568101e-03 +1.40433097e-02 +2.82798469e-01 +1.24580137e-01 -6.79787695e-02 +2.32909039e-01 +3.01268548e-01 -1.81941554e-01 +1.84034348e-01 -2.83059359e-01 +2.50142962e-01 +2.27035638e-02 -1.30491570e-01 +1.88019484e-01 -1.63293540e-01 -3.45874369e-01 -6.51210174e-03 +2.56790139e-04 -1.14931151e-01 +2.12253734e-01 +8.89413059e-02 +1.58036068e-01 +2.44035572e-01 -1.84453070e-01 +9.95528623e-02 +2.01225325e-01 +2.63576180e-01 +4.28883433e-01 +2.83622742e-01 +2.37934113e-01 +1.18570268e-01 +2.10390948e-02 +1.12165213e-01 -1.86374895e-02 -7.24378899e-02 +2.58293539e-01 -1.62178203e-01 +1.06725484e-01 -1.23584650e-01 +2.55271852e-01 -4.63048555e-02 -2.48134747e-01 +2.64254212e-01 +2.15151355e-01 -1.57423615e-01 +2.34190926e-01 +3.65044713e-01 +6.64303526e-02 -1.54380491e-02 -6.11244626e-02 +3.05887848e-01 +3.06068026e-02 +5.29426634e-01 -1.83663964e-02 +2.06446171e-01 +1.83198199e-01 +3.13690692e-01 +3.78183946e-02 -1.05118088e-01 -1.60107743e-02 +3.83272201e-01 -5.88608198e-02 +1.97405979e-01 -7.72922784e-02 +1.95534006e-01 -3.87516543e-02 -1.54697224e-01 -2.01896299e-02 -4.75641042e-02 +1.47462130e-01 +2.24886701e-01 -3.93137634e-02 -6.43932670e-02 -2.30277926e-01 -2.45448679e-01 -4.73881476e-02 -2.70361394e-01 -4.54572380e-01 -6.84680715e-02 -2.06902966e-01 -2.41037682e-01 +4.85376827e-03 +1.68225646e-01 -2.20885098e-01 +1.12274125e-01 -2.19041660e-01 -9.08827335e-02 -3.47585201e-01 +2.26959795e-01 -2.18264267e-01 +6.95334747e-02 +5.19290715e-02 +6.27462491e-02 -2.15310603e-01 -9.41733457e-03 +1.48278758e-01 -3.76610577e-01 -1.50321454e-01 +1.38560563e-01 -3.78424883e-01 -1.76354766e-01 +5.53705245e-02 -2.13654310e-01 -1.41987726e-01 -1.81286652e-02 +7.60494471e-02 -8.29338059e-02 -2.56926477e-01 +1.94140926e-01 +2.07894407e-02 -1.44848198e-01 -2.87963450e-01 +1.09470837e-01 +3.17459889e-02 -1.83137536e-01 +7.84161687e-03 +2.85039067e-01 -1.30324826e-01 -2.94492722e-01 -1.01551339e-01 -9.78488997e-02 +2.94168085e-01 +2.14981243e-01 -9.14118662e-02 -6.64188701e-04 +3.18208486e-01 -1.51820391e-01 +3.49103004e-01 +2.16938883e-01 +1.34395789e-02 +2.97078073e-01 +1.14581645e-01 -2.34642908e-01 +1.63009867e-01 +2.27230430e-01 +1.09608456e-01 +1.75896853e-01 +2.03402817e-01 +4.54274658e-03 -6.98122382e-02 +3.40691984e-01 +4.79906686e-02 -1.87174659e-02 -3.61881405e-02 +2.19347030e-01 +1.65919825e-01 +1.27287060e-01 +2.97579139e-01 +2.94526607e-01 +2.27852479e-01 -4.02141362e-02 +9.83844399e-02 +9.17007849e-02 +1.72131121e-01 +5.49799092e-02 -7.74213821e-02 -1.20923877e-01 +2.29260668e-01 -6.42768517e-02 -1.71356529e-01 -2.14355662e-02 -1.35331750e-01 -6.78703338e-02 +5.46274299e-04 +2.48967364e-01 +9.88511294e-02 -2.55445629e-01 -6.56165034e-02 -3.27636092e-03 +4.14560661e-02 +1.92911863e-01 +1.88816547e-01 -1.89707249e-01 -1.16091736e-01 +1.14275992e-01 -6.32791668e-02 -2.36926541e-01 +1.50407612e-01 +1.80247173e-01 -2.76437134e-01 -2.84063160e-01 +1.66201264e-01 +2.40007758e-01 +6.86605498e-02 -1.82973012e-01 +1.37251735e-01 +2.11022928e-01 -8.77114758e-03 +3.12791802e-02 -1.58661008e-01 -1.46463171e-01 -7.95371309e-02 -2.18154252e-01 -2.74175890e-02 -2.13767976e-01 +3.46962139e-02 +1.48968443e-01 -2.57414728e-01 -6.87576830e-02 +9.64067429e-02 +4.62955199e-02 -2.79155999e-01 -3.66562545e-01 +1.15179129e-01 +1.39229178e-01 +3.71355563e-02 -2.59459112e-02 -1.09474435e-01 -4.79250886e-02 -1.02258660e-01 +4.57175747e-02 +3.36640514e-02 -3.75171155e-01 +7.92194158e-04 +2.43669413e-02 +2.54362710e-02 +1.43770456e-01 -2.56049722e-01 +1.84934020e-01 -8.73987079e-02 +4.58401144e-02 +1.20354995e-01 +1.43188350e-02 -1.44338012e-01 +2.42537260e-02 +1.26013175e-01 +2.20160365e-01 +3.36151659e-01 +2.13977888e-01 +1.38752908e-01 -3.53528820e-02 +8.95243734e-02 +4.20685351e-01 -1.38801813e-01 +1.19103774e-01 +1.57330371e-02 -1.02251641e-01 +1.55001944e-02 -7.97421783e-02 +8.46215487e-02 -5.62655404e-02 +2.39147246e-01 -1.41557395e-01 +2.55562484e-01 -3.29253264e-02 -3.86133969e-01 +4.31109309e-01 -9.39162299e-02 +1.47685334e-01 -1.54340327e-01 -2.03285322e-01 +2.49222204e-01 +6.26962632e-02 -1.79530621e-01 -2.55698740e-01 -5.11664664e-03 +6.51211441e-02 -2.72434771e-01 +1.51226809e-02 +1.13642104e-02 -2.05789030e-01 +2.18035862e-01 -1.71899095e-01 +2.44491082e-02 +1.67661935e-01 +2.17829868e-01 -1.01263896e-01 -2.05352798e-01 +5.83270863e-02 +1.84361264e-01 +1.55789569e-01 -1.00896820e-01 -1.24860615e-01 +9.57652926e-02 +1.23593137e-01 +1.78593844e-01 +1.63706839e-01 -8.17465708e-02 +4.41078842e-02 -2.73154140e-01 -4.70705479e-02 -1.06448559e-02 +3.04964602e-01 -1.27674952e-01 -6.90138265e-02 +6.26484379e-02 -4.90052588e-02 +1.94267631e-01 +1.34507850e-01 -1.45316526e-01 +2.20229074e-01 -2.69988850e-02 -1.64991081e-01 -2.62652069e-01 +2.05555722e-01 -1.72269344e-01 +2.44544312e-01 +9.36577544e-02 +4.06420976e-02 +1.11621454e-01 +2.46168569e-01 -2.07754090e-01 -7.57862404e-02 -3.29181165e-01 -5.82818240e-02 -1.23712547e-01 -1.90227583e-01 +4.20341454e-02 +5.93262911e-02 +1.37470305e-01 -1.36620458e-02 +3.28730166e-01 -4.19222564e-01 -1.11085132e-01 +1.15301758e-02 -2.80958358e-02 +1.37942582e-01 -1.15208216e-02 -2.35367324e-02 +5.48491627e-02 +1.09811202e-01 -3.24618727e-01 -2.99687564e-01 -1.28382802e-01 -2.04583004e-01 -8.49129334e-02 -7.01507460e-03 -1.60734639e-01 +1.07974455e-01 -2.69454211e-01 -5.44041544e-02 +9.51998960e-03 -3.94888252e-01 -2.38455255e-02 -3.74667555e-01 +8.39997083e-02 +2.19988041e-02 -3.11324596e-01 -1.05857819e-01 -2.60839406e-02 -4.99475338e-02 +1.38974935e-01 -2.00391740e-01 -3.81019235e-01 -1.77050889e-01 -2.08324373e-01 -8.63512829e-02 -3.05179089e-01 +1.52697235e-01 -1.74400270e-01 +1.96531340e-01 -1.70317635e-01 -4.51798141e-01 +1.22125968e-01 -1.15214676e-01 -8.06108564e-02 -8.03897306e-02 +1.44109786e-01 -4.03871238e-01 +1.61459059e-01 -3.58433336e-01 -1.35637775e-01 +2.86322329e-02 -1.96953595e-01 -2.60800898e-01 -5.87241910e-02 +3.87697779e-02 -9.02463682e-03 -1.35652617e-01 +1.13441925e-02 +1.03519462e-01 -1.58281118e-01 -5.70334792e-02 +1.10217690e-01 -1.52460128e-01 +5.53506762e-02 -1.32028386e-01 +1.14610955e-01 -2.17136461e-02 +2.13841662e-01 +2.61983842e-01 +1.90977871e-01 -6.12201020e-02 -7.32073858e-02 +1.75612956e-01 +5.96529655e-02 -1.50468171e-01 +1.13303594e-01 -6.65884688e-02 +7.29128569e-02 -4.54335250e-02 +2.20809415e-01 +1.11934669e-01 +1.79354418e-02 -1.52017832e-01 -5.37836878e-03 -1.80376843e-02 +1.28018409e-02 +1.03687853e-01 +3.70953348e-03 +7.98911005e-02 -8.99798423e-02 -2.02058569e-01 -1.41111359e-01 -1.34905905e-01 -1.01252042e-01 -1.91779941e-01 +3.48267853e-01 +1.05626136e-01 +3.45860682e-02 -2.11945847e-01 +2.49280035e-01 -2.11982299e-02 -1.15294635e-01 -1.18622894e-03 -1.88879862e-01 -2.26106152e-01 -4.60917987e-02 -1.08631328e-01 +9.76538509e-02 -8.86190161e-02 -1.02949619e-01 +1.61541086e-02 +2.83301950e-01 +2.33434111e-01 +1.83163315e-01 -2.41871625e-02 +4.25359942e-02 +1.96205750e-01 -1.22653414e-02 +1.64135247e-01 -1.10654712e-01 +3.41449171e-01 -7.38827810e-02 +1.78780854e-01 -1.98609695e-01 +3.35075766e-01 +2.34474212e-01 -1.12898992e-02 +8.36354643e-02 +1.21567771e-01 +1.09599955e-01 +2.06768394e-01 -6.39697090e-02 +8.83094072e-02 +1.33673966e-01 +4.98063862e-02 +9.40938946e-03 -1.97087854e-01 +1.04825489e-01 +2.74423391e-01 +8.04443434e-02 +9.32424441e-02 -8.03220794e-02 +3.48154195e-02 -1.64235458e-01 -1.09913208e-01 -1.28337983e-02 -1.02486350e-01 -6.73923921e-03 +2.42796823e-01 +1.76526442e-01 +2.07882822e-01 +1.44688219e-01 +2.00760096e-01 -1.83680832e-01 +2.18581676e-01 -1.19015746e-01 -1.18857272e-01 +4.35121879e-02 +4.36582386e-01 -1.14207163e-01 -1.04336910e-01 -5.81715852e-02 +2.20249742e-01 -4.02829610e-02 +1.63791433e-01 +4.20277417e-01 -2.10128948e-02 +1.86575457e-01 -5.33648469e-02 -1.32032499e-01 +3.17580789e-01 +3.75280917e-01 +1.24923907e-01 -6.04215823e-02 +6.36302158e-02 -1.48348421e-01 -1.19365819e-01 +1.82498917e-01 -9.88981202e-02 -3.16942066e-01 +1.95522934e-01 -2.77269911e-02 -7.95852244e-02 +1.60053924e-01 +4.08540577e-01 -2.38295663e-02 +2.00890880e-02 +3.05436581e-01 +5.36739267e-02 +9.15238783e-02 +2.89464146e-01 +1.45134971e-01 +6.89696372e-02 +6.39435500e-02 +2.02389821e-01 +8.75333101e-02 -1.43381044e-01 -1.72031552e-01 +3.74530464e-01 +3.58495027e-01 -2.37024963e-01 +2.61740953e-01 +1.50724381e-01 -8.02507848e-02 +2.62369998e-02 +2.80935109e-01 +3.09368104e-01 +3.08243483e-01 +1.02103665e-01 -1.00226700e-01 -8.73950049e-02 +2.31010690e-01 +2.01839387e-01 +1.00202203e-01 +2.08564550e-02 +2.06152126e-01 -2.10209578e-01 +6.24476708e-02 +2.84259647e-01 +2.79725827e-02 -1.23454526e-01 +2.96038419e-01 -9.89608020e-02 -4.14085984e-02 -4.76458780e-02 +1.33333817e-01 +9.42514464e-02 +6.64164685e-03 +2.15197921e-01 +3.84505652e-02 +1.22871399e-01 -4.53626700e-02 +3.99540752e-01 +2.43890092e-01 +1.85461208e-01 +2.17384752e-02 +3.28611545e-02 +2.26138026e-01 +3.78364354e-01 +8.84111747e-02 +2.89956599e-01 +2.51867145e-01 +3.20621699e-01 +1.23626888e-01 +1.19763978e-01 +3.45961452e-01 +1.21893687e-02 +1.53125254e-02 +1.00027964e-01 +2.85826504e-01 -1.56833366e-01 +3.16457242e-01 -3.16113710e-01 -1.04964614e-01 +4.98370044e-02 -1.39980420e-01 +4.39467356e-02 -1.09930253e-02 +1.97666362e-01 -5.88909388e-02 +5.39248958e-02 +3.55040759e-01 +2.89410889e-01 -1.24233961e-02 +2.88256228e-01 +3.88954222e-01 -9.76158902e-02 +9.20541137e-02 +4.47403230e-02 -1.07468449e-01 +6.60559833e-02 +2.19139159e-01 -1.79801866e-01 -5.47707900e-02 +6.82252124e-02 +1.36433676e-01 -3.18570375e-01 -7.57019445e-02 +1.62471607e-01 -2.46986791e-01 +1.63558081e-01 +3.29760283e-01 -5.14445305e-02 +8.89567658e-02 +1.94221973e-01 -7.91476760e-03 +1.27237439e-01 -8.34466144e-02 +4.22008127e-01 -1.95054427e-01 +5.85062981e-01 +2.41755813e-01 -7.94016421e-02 +3.51311088e-01 +3.90925109e-02 +7.40783662e-02 -9.72877517e-02 -6.91784620e-02 +1.80736333e-01 -1.16445422e-01 -1.67510808e-01 +1.49666280e-01 -3.18058163e-01 -4.33602005e-01 -1.95666045e-01 +1.58227272e-02 +1.04687214e-01 +3.13512206e-01 +2.60715276e-01 +2.18963876e-01 +3.49275857e-01 -1.53132871e-01 +1.79122925e-01 +3.23946849e-02 +2.78712422e-01 +4.42327708e-01 +3.31169814e-01 +2.21095636e-01 -1.15997486e-01 +3.68889160e-02 -1.35752052e-01 +2.94540942e-01 +1.30965218e-01 -3.58540229e-02 -1.36005774e-01 +1.71745270e-01 -2.44674105e-02 +9.25850645e-02 +1.59403667e-01 -8.31709802e-02 +1.01443872e-01 +1.78090706e-01 -3.33965458e-02 -1.76723927e-01 +2.50313401e-01 +1.65879846e-01 +3.55675668e-02 +2.13977426e-01 -1.18118234e-01 -1.03222542e-01 +2.47570187e-01 +4.81416285e-02 +2.97274776e-02 +1.54048890e-01 -5.73231615e-02 -1.74207725e-02 -1.02239557e-01 -2.17817634e-01 -6.71677738e-02 -2.27707341e-01 +2.11270630e-01 -1.68114960e-01 +2.05139011e-01 +4.34090421e-02 -3.32614839e-01 +1.36074111e-01 +1.79218858e-01 +2.20134944e-01 +2.10614562e-01 -2.82522708e-01 +2.81124622e-01 -2.58282483e-01 +3.28837894e-02 +7.33448118e-02 -9.71621796e-02 -1.21920347e-01 -1.00569881e-01 -1.19488612e-01 -5.06027676e-02 -1.74322009e-01 -1.13065727e-01 -2.90355772e-01 -1.55539870e-01 +1.23364672e-01 -2.46049255e-01 -2.23858785e-02 -3.25499445e-01 +1.63164511e-01 -3.11056912e-01 +1.88485578e-01 +1.95098951e-01 -1.38813689e-01 +4.75629941e-02 -1.02159448e-01 -4.04592216e-01 -1.46214426e-01 -1.43949702e-01 -1.28280222e-01 -8.07225406e-02 +1.89557955e-01 -1.54652344e-02 -1.18912719e-01 -1.25323489e-01 -2.00780686e-02 -7.79007152e-02 -9.93875340e-02 +5.94196208e-02 -1.83593735e-01 +4.10072207e-02 -2.67665416e-01 +7.04665035e-02 +8.81919488e-02 -2.19629221e-02 +1.90413684e-01 +7.82391205e-02 +2.47278512e-01 -1.84863150e-01 -2.77127832e-01 -2.42073879e-01 +1.36370137e-01 +2.52750009e-01 -1.00119717e-01 +4.36109692e-01 +2.52596676e-01 -1.51651964e-01 -1.81131437e-01 +3.57031703e-01 -2.02365190e-01 +2.06333816e-01 -1.32252619e-01 +1.50220171e-01 +5.56886233e-02 +3.02429348e-01 -4.11874712e-01 +2.01467454e-01 -2.87825823e-01 +1.56016171e-01 -1.32217154e-01 -1.48821637e-01 +1.69158634e-02 +1.17841534e-01 +2.13305041e-01 -3.73134851e-01 -1.89245850e-01 +1.99889645e-01 +2.11469978e-01 +3.90565172e-02 -4.42876443e-02 -1.96373388e-02 +3.25189710e-01 -5.78671172e-02 -2.04834968e-01 -1.41297042e-01 -1.62185937e-01 +4.48081195e-02 -5.64392051e-03 -2.31667086e-01 -4.81897108e-02 -1.87721178e-01 -1.93494394e-01 +4.72573005e-02 -5.39140925e-02 +4.05847989e-02 -7.24213719e-02 -1.70274884e-01 -1.13651626e-01 -2.96583474e-01 -1.33291587e-01 -2.46507823e-01 +1.45887643e-01 +2.52274871e-02 -2.80943513e-02 -2.68351644e-01 -3.45725492e-02 +1.83131531e-01 +1.91987589e-01 -5.97341964e-03 +2.22974092e-01 +8.43639448e-02 +5.55981770e-02 +6.55705035e-02 +1.98374406e-01 +1.10821083e-01 -5.43785580e-02 +2.20414251e-02 -6.71548098e-02 -7.64180049e-02 -1.13235652e-01 +5.59151396e-02 -4.94730920e-02 -2.41811618e-01 -2.83229388e-02 -4.36162055e-02 +1.16892397e-01 +1.77666443e-05 +1.85993284e-01 +2.56703436e-01 -2.00388417e-01 +4.77665104e-02 -2.13265672e-01 +2.44437933e-01 +7.63994008e-02 -8.92635062e-02 -5.75188622e-02 +2.10948229e-01 +2.34599903e-01 +2.18243703e-01 -1.23241514e-01 +1.90219954e-01 +4.02285367e-01 -1.39289290e-01 +1.14490800e-01 +1.89846139e-02 -1.62005395e-01 -3.91620025e-03 -3.22083175e-01 +1.89753041e-01 +1.07140660e-01 -1.30094275e-01 -7.93115571e-02 +9.52074155e-02 +2.21583262e-01 +1.16831578e-01 -1.91705838e-01 -1.00154206e-02 -4.32177633e-03 +2.77463645e-02 +2.05075979e-01 +1.63184777e-01 -8.35274085e-02 +2.89699554e-01 +1.52220473e-01 +3.16678658e-02 +1.45738274e-01 +1.26568347e-01 +2.26253971e-01 -4.06199619e-02 -2.01313525e-01 -3.27316225e-02 -3.14773573e-03 -1.75333649e-01 -3.71925049e-02 -8.74843821e-02 -2.40472794e-01 +2.50226527e-01 -5.98190278e-02 -5.91216162e-02 +2.33425111e-01 +1.59617871e-01 -1.72128826e-01 +3.13215613e-01 +1.37254551e-01 -4.95545603e-02 -1.52345840e-02 +9.19774547e-02 -1.04976013e-01 -1.05444618e-01 +1.47207364e-01 -1.29498601e-01 -3.70330960e-02 -1.50088936e-01 +2.61022598e-01 -1.72241256e-01 -2.13003829e-01 +1.31702647e-01 +1.86599672e-01 +1.32014126e-01 -1.03730828e-01 +3.07184041e-01 -3.05206418e-01 -1.01108730e-01 -8.98386762e-02 +6.48250803e-02 +7.64136463e-02 +5.54672144e-02 -1.49537429e-01 +2.43514180e-02 -2.54596889e-01 +3.32739018e-02 +3.37576941e-02 -3.78413856e-01 +7.22506568e-02 +1.10345259e-01 -7.96860084e-02 -1.96720183e-01 -3.95407602e-02 -3.11492216e-02 -2.98457500e-02 +8.52084681e-02 +1.15009464e-01 +2.14725822e-01 +6.34411201e-02 +1.77498996e-01 +1.13023706e-01 -3.66814107e-01 +3.34057696e-02 +1.91359576e-02 -5.60828634e-02 -6.57116845e-02 -2.02398777e-01 -4.13164645e-01 -7.85676911e-02 +7.71858543e-02 -1.03967108e-01 -7.80352205e-02 -6.83138100e-03 +1.08010374e-01 -6.40508309e-02 -1.87978223e-01 +4.15296219e-02 -4.19543460e-02 +8.27763081e-02 +1.83034062e-01 -4.64661093e-03 +2.84307986e-01 -5.22276834e-02 +7.40382746e-02 +1.91306900e-02 -2.17366949e-01 -1.77555159e-01 +8.89072195e-02 +2.27051564e-02 -2.20712814e-02 -7.67006278e-02 +1.74820811e-01 -2.55384535e-01 +1.34709090e-01 +2.01760262e-01 -1.36339247e-01 -1.87156335e-01 -1.91424504e-01 +1.73044149e-02 +1.13005444e-01 -1.53219908e-01 -1.60658173e-02 -1.54283464e-01 -5.91879711e-03 -9.98157784e-02 +7.66721442e-02 -1.86811358e-01 +2.84150958e-01 -9.68502834e-03 +7.66692543e-03 +2.09258139e-01 -3.32686454e-01 +1.73201129e-01 +1.59370750e-01 -2.47547001e-01 -1.28695428e-01 -1.59218814e-02 +5.78495115e-02 +2.18745783e-01 -1.20925158e-01 -2.27549180e-01 -6.20679371e-02 +1.80514887e-01 -1.33926407e-01 +5.86630180e-02 -1.66066766e-01 -3.05336446e-01 -1.16611816e-01 -1.75019369e-01 +6.29550517e-02 -1.60408154e-01 -1.46922588e-01 +5.93065619e-02 +2.68005311e-01 +1.09990776e-01 +1.16853505e-01 +1.72182098e-01 -2.52079144e-02 -1.64155960e-01 +3.74192923e-01 -8.09980333e-02 -1.60158649e-01 +3.51537585e-01 +2.09383383e-01 +8.65873992e-02 -1.71870999e-02 -1.32294081e-03 -1.59988061e-01 -2.93393165e-01 -3.63869555e-02 -8.32144544e-02 -2.14643538e-01 +1.73648391e-02 +4.69665304e-02 +7.30974525e-02 -2.05655675e-02 +2.00922936e-01 -1.86831519e-01 +1.59930244e-01 -3.95978689e-02 -7.25467801e-02 +3.54726128e-02 -6.46585003e-02 -1.40326187e-01 +2.93966442e-01 -2.93192379e-02 +2.21779749e-01 +6.56020716e-02 -1.30417332e-01 -2.74198711e-01 -7.56415427e-02 +5.00019128e-03 +8.46372023e-02 -1.08939670e-01 -1.45511329e-01 -2.95691460e-01 +1.94677249e-01 +2.29490712e-01 +9.27691981e-02 -1.00118950e-01 +1.26619801e-01 -8.79195854e-02 +2.95054838e-02 -1.11814812e-01 -5.87679520e-02 +1.90091401e-01 
#Parameter# /gru-builder/_5 {50} 801 ZERO_GRAD
-8.21161941e-02 -1.18525222e-01 +3.24623496e-03 -1.22000128e-01 -1.12572975e-01 -1.36346510e-02 -1.69459537e-01 -1.16564453e-01 -5.55367544e-02 -5.66886701e-02 -8.82893354e-02 -7.37482458e-02 -7.42507949e-02 -8.38411227e-03 +4.64586280e-02 -5.06254546e-02 -5.77132292e-02 -8.28130022e-02 -5.23013175e-02 -6.06227554e-02 -8.11334923e-02 +1.37445964e-02 -1.48168162e-01 +9.17554926e-03 +6.71600401e-02 -2.83412158e-01 -4.34790663e-02 -2.40529757e-02 -1.85672387e-01 -5.73993474e-02 -6.47596270e-02 -1.64617911e-01 -5.83303683e-02 +1.86158456e-02 -1.05604954e-01 +6.53654046e-04 -1.85273308e-03 +3.84629914e-03 +1.55790830e-02 -5.43950573e-02 -1.82820223e-02 -5.65383509e-02 +2.14439984e-02 -8.80418532e-03 +4.91175428e-02 +3.13815139e-02 -5.13776727e-02 -3.21172513e-02 -1.16975531e-02 -1.38230711e-01 
#Parameter# /gru-builder/_6 {50,4} 3201 ZERO_GRAD
-3.51804733e-01 -4.22488213e-01 -4.32571501e-01 +1.83123589e-01 +4.61785704e-01 +1.02061622e-01 +3.93897057e-01 +1.76551402e-01 +2.55220562e-01 -3.66611898e-01 +1.10398293e-01 +5.32829881e-01 -3.39375228e-01 +2.36904453e-02 +3.98442447e-01 +1.26153365e-01 +7.81881288e-02 -2.77094066e-01 -8.74797031e-02 -2.66045243e-01 +2.61358052e-01 -3.40910941e-01 -4.35121298e-01 +2.37128541e-01 +4.42772716e-01 +3.03909153e-01 +2.30744362e-01 +2.31880888e-01 -4.29531962e-01 +2.28459388e-01 +2.98682600e-01 -3.95686597e-01 +3.35606188e-01 +2.74149448e-01 +2.82450914e-01 +3.29510152e-01 -4.15910304e-01 +4.47255559e-03 +2.79336214e-01 +3.81058872e-01 +4.52852219e-01 +3.17128718e-01 -2.26016894e-01 -1.96565330e-01 -2.76665509e-01 +4.65822399e-01 -5.60182445e-02 +2.05048993e-01 -2.93361157e-01 -1.82179213e-01 +3.10448587e-01 -2.34062374e-01 +3.11386228e-01 +1.50097862e-01 -2.76532769e-01 -1.64784372e-01 +2.30850466e-03 +2.77324468e-02 +3.52099478e-01 -3.38469893e-01 +2.76458412e-01 +1.58366095e-02 +1.76838145e-01 +3.79974097e-02 -2.10074291e-01 +2.77697057e-01 -2.31283650e-01 +1.23078926e-02 +4.18279231e-01 -4.59642291e-01 +3.23963314e-01 -1.14759326e-01 -4.86709118e-01 -1.03841648e-01 +5.06808102e-01 -1.93236068e-01 +3.25477302e-01 -1.13275260e-01 +2.26690769e-02 -2.11498931e-01 +1.72673076e-01 -3.65078241e-01 +2.81535476e-01 -4.55470160e-02 -2.16802463e-01 -1.06026836e-01 -3.39587003e-01 +3.49496990e-01 -2.81873733e-01 +1.89275026e-01 +3.95952672e-01 +2.98905849e-01 -1.98338598e-01 +3.88509780e-01 -1.59278139e-01 +1.68164417e-01 -7.39708692e-02 +1.41953155e-01 +2.40890712e-01 +1.32047668e-01 -2.93529451e-01 -3.35389301e-02 -8.18228498e-02 +1.87024191e-01 -1.87599272e-01 -3.60562980e-01 +1.20827474e-01 +3.01577061e-01 +2.58878589e-01 -7.46580809e-02 +3.68137099e-02 +2.30772078e-01 +1.70968130e-01 +2.93202549e-01 -3.66016299e-01 +2.33961090e-01 +1.94703653e-01 +1.63978592e-01 +4.20414582e-02 +6.86569232e-03 -2.46241540e-02 +2.23461855e-02 -3.13390940e-01 +1.10531777e-01 -3.02309841e-01 +2.10352108e-01 +4.41519767e-02 +1.81240529e-01 +1.37652494e-02 -8.07411522e-02 -9.48480591e-02 -2.17844754e-01 +1.43210858e-01 -1.31895259e-01 +3.35432738e-01 -2.46045426e-01 +3.91243547e-02 -1.05466500e-01 +3.87336820e-01 -8.85655954e-02 -2.23170161e-01 -3.08644213e-02 +2.90986627e-01 -3.64619754e-02 +3.13297004e-01 -3.45448494e-01 +1.61692172e-01 -2.59840697e-01 -5.11644706e-02 +3.80438060e-01 -2.53640801e-01 -8.30010325e-02 +3.19481730e-01 +2.23645255e-01 +4.65673767e-02 -5.03833555e-02 -7.09576458e-02 +1.15438648e-01 -2.82540828e-01 +1.34800971e-01 +2.32755736e-01 +4.04124111e-01 +2.30879098e-01 -4.04389948e-01 -4.24228221e-01 +4.50691909e-01 +3.51751983e-01 -2.49134183e-01 -2.84025341e-01 +1.96872085e-01 -1.39786586e-01 +3.30807030e-01 +2.72387058e-01 -8.64281207e-02 -3.56945813e-01 +2.05647871e-01 -3.75561506e-01 -5.86683676e-02 -6.42917603e-02 +1.93126678e-01 +3.29826772e-01 -3.42403054e-01 -2.72786647e-01 -3.66432995e-01 -3.42134148e-01 -2.12441653e-01 +2.16124639e-01 -2.95774698e-01 +2.95783520e-01 +1.70726761e-01 +2.70272613e-01 +3.34920168e-01 +3.08012843e-01 -2.34800175e-01 -4.16841567e-01 +2.44609386e-01 +3.61456543e-01 -4.81268227e-01 +3.11450779e-01 -6.33899495e-02 
#Parameter# /gru-builder/_7 {50,50} 40001 ZERO_GRAD
