#Parameter# /_1 {2,25} 801 ZERO_GRAD
-2.88955390e-01 -1.64802030e-01 -1.91397533e-01 +5.94099402e-01 +7.71638155e-01 -6.96446002e-02 -2.99606383e-01 +2.29774207e-01 -5.08503318e-01 -6.58164546e-02 -7.03285515e-01 +5.93894303e-01 -1.15307324e-01 +3.93126868e-02 -3.92414898e-01 +6.74321234e-01 -7.10585833e-01 +1.74752504e-01 -1.88395649e-01 -1.90965682e-01 -9.33041930e-01 +9.58506584e-01 -9.46317017e-01 +7.75096774e-01 +5.32736778e-01 -8.39521170e-01 -3.32023710e-01 -1.61320403e-01 -1.09415606e-01 -1.17377475e-01 +2.83571005e-01 -4.32592779e-01 -2.59015620e-01 -1.80751592e-01 -2.58624434e-01 -4.12887633e-01 +3.12518962e-02 -1.59522280e-01 -8.12580824e-01 +7.59798959e-02 -2.59439170e-01 +4.72316533e-01 -6.37251496e-01 +2.32005730e-01 -1.57174289e-01 +6.12050653e-01 +1.80374652e-01 -4.58814889e-01 -2.43927129e-02 -2.05576181e-01 
#Parameter# /_2 {2} 33 ZERO_GRAD
+5.07432342e-01 +2.94504941e-01 
#Parameter# /_3 {25,3} 1201 ZERO_GRAD
-5.49856387e-02 +5.04966378e-01 +6.16695344e-01 -4.24056575e-02 -2.97124445e-01 +6.10481083e-01 -3.04573327e-01 +5.72105885e-01 -3.62505466e-01 +4.84523445e-01 +4.45818514e-01 -2.10568890e-01 +3.63927901e-01 +9.65493545e-02 +8.14858302e-02 +1.79176018e-01 -2.86303740e-02 -4.52273548e-01 -5.96997961e-02 +2.49136537e-01 -4.27197307e-01 -1.82075709e-01 -2.27838308e-01 +1.01540156e-01 +7.02159107e-01 -5.53148568e-01 +3.22815925e-01 -4.27655689e-02 -3.38467419e-01 -3.18542346e-02 -5.36849678e-01 -4.94883806e-01 +4.07007545e-01 -3.52378964e-01 +3.33517045e-02 -4.24612790e-01 -1.96340919e-01 +4.34899390e-01 -1.03159368e-01 -5.05949140e-01 -4.87495400e-02 +1.79544449e-01 +2.28345469e-01 -3.51412803e-01 -3.35335970e-01 -8.45853686e-01 +1.36699885e-01 -3.34569663e-01 +3.09116423e-01 -1.55486897e-01 -1.16688162e-01 -4.81023279e-04 -1.40514866e-01 +1.28218144e-01 +3.40582997e-01 +3.51562321e-01 -5.03781497e-01 -1.12073831e-01 -3.08337212e-01 +5.03755212e-01 -1.22568592e-01 +1.91145286e-01 +2.22959910e-02 +1.07453372e-02 -3.74057181e-02 +2.17386231e-01 -2.53332943e-01 -6.32975027e-02 -1.19345218e-01 +1.19252898e-01 -9.93340075e-01 +3.53184231e-02 -4.01260376e-01 -1.43014252e-01 +5.51255345e-01 
#Parameter# /_4 {25,25} 10001 ZERO_GRAD
+1.07775293e-02 -3.14247847e-01 -1.82590231e-01 +3.40461314e-01 -1.39575908e-02 -1.87700033e-01 +4.92582858e-01 -1.74437374e-01 -3.33379745e-01 +3.38475525e-01 +2.01851651e-01 +4.04689014e-01 -1.55562997e-01 +6.44872785e-02 +3.89886320e-01 +5.96843064e-02 +5.65185025e-03 -3.77015769e-01 +3.98509204e-01 +5.20829633e-02 +3.95944983e-01 -6.55371323e-02 +2.55482569e-02 -2.51145482e-01 +8.00303370e-02 -1.64540000e-02 +6.56328723e-02 +5.15470386e-01 -9.87228155e-02 +2.09423304e-01 +2.27781177e-01 +1.44186750e-01 -1.87411994e-01 -2.68506408e-01 +4.09534663e-01 -2.89118230e-01 +3.53844464e-01 -2.07032651e-01 +4.91842717e-01 -1.41153485e-01 -3.32493261e-02 -6.68545216e-02 +2.10409716e-01 +3.05801302e-01 +1.12049289e-01 +1.76141351e-01 -2.39345595e-01 +9.50403214e-02 -1.64014846e-01 -3.08292180e-01 +1.52226895e-01 -1.29728273e-01 +1.92605719e-01 +9.19020325e-02 +2.43302450e-01 -9.16749910e-02 +4.81575280e-01 -3.25275868e-01 -2.65640914e-01 -4.27276582e-01 +3.91461372e-01 -4.99679893e-02 -4.50902075e-01 +3.00530586e-02 -2.00558871e-01 -3.17346543e-01 -3.05301875e-01 +6.64124429e-01 -1.25735581e-01 -5.06005287e-01 +3.17098945e-01 -5.44463843e-02 +6.14752620e-03 -3.63668174e-01 -1.04680479e-01 -1.16383083e-01 -1.10830829e-01 -4.45551842e-01 -2.36645758e-01 -2.46808976e-01 -2.49795586e-01 +9.29794759e-02 -1.14105586e-02 -2.81272437e-02 -3.88117582e-02 +1.74948052e-01 +2.59844035e-01 +2.18707874e-01 -7.44330645e-01 -1.44987106e-01 -4.86490969e-03 -2.38491118e-01 -2.94030458e-02 -5.18347463e-03 -9.41068009e-02 -2.77396454e-03 -1.48917675e-01 -6.39996350e-01 +2.00781152e-01 +6.62157731e-03 +2.14003041e-01 -7.28334486e-02 +4.66904640e-01 -1.82457462e-01 +2.04559013e-01 +1.58081800e-01 -8.76599625e-02 +7.79570490e-02 -2.11411670e-01 +1.00906357e-01 -1.46444008e-01 +9.86765176e-02 -4.74853739e-02 +6.94763005e-01 -1.26068622e-01 +6.04890697e-02 +9.48446617e-02 +4.25343066e-02 +2.16731444e-01 +3.94568235e-01 -1.25087485e-01 +3.97521406e-01 +1.79988042e-01 +4.52193543e-02 -2.71975428e-01 +4.94312197e-02 +2.22927451e-01 +7.08007738e-02 -3.48500580e-01 -9.74952355e-02 -2.68404156e-01 -2.36785084e-01 +1.05325408e-01 +3.59236151e-01 +1.81169882e-01 -1.99619755e-01 -2.55614609e-01 +3.67348902e-02 -1.20511375e-01 +1.44895598e-01 +1.41127169e-01 -1.66411921e-02 -1.21764787e-01 -4.68125910e-01 -5.70298284e-02 -8.42184842e-01 -2.21031874e-01 +4.10218060e-01 -2.82013953e-01 +2.83407748e-01 -7.09440783e-02 +1.83661699e-01 +1.84435658e-02 +9.83586907e-02 +2.42646843e-01 -1.27350479e-01 +2.00753704e-01 +9.70016643e-02 -6.78190496e-03 +3.48005950e-01 +2.01294184e-01 +5.15561253e-02 +2.69413114e-01 -6.60246909e-01 +1.39593616e-01 +6.41335994e-02 -2.38963112e-01 -2.41623014e-01 +1.60223827e-01 +2.09001571e-01 -9.20991078e-02 -3.79502267e-01 -1.10708419e-02 -3.05983037e-01 -2.57644296e-01 -3.16116470e-03 -4.15130198e-01 +1.67682692e-01 +2.61156887e-01 +2.33706951e-01 +2.38230273e-01 -1.06805928e-01 +2.89165288e-01 +1.86136425e-01 +2.04188749e-01 +4.12653498e-02 +7.05558360e-02 -1.73848018e-01 -5.28970242e-01 +1.85311794e-01 +1.21438161e-01 -3.83567125e-01 +3.80481869e-01 +4.07194734e-01 -4.54214871e-01 +1.31208058e-02 -2.53079057e-01 -7.14138329e-01 -2.07101181e-01 +2.39949390e-01 -2.69830257e-01 -1.47150010e-01 -4.09369558e-01 +1.52404472e-01 -3.29402447e-01 -2.79901803e-01 +3.77360992e-02 +4.52444941e-01 -3.36084962e-01 +2.67144859e-01 -2.20622808e-01 -3.10556740e-01 -2.08069131e-01 +3.04751158e-01 -2.45001003e-01 +1.61098972e-01 +8.85356739e-02 -3.48968506e-01 +5.18575311e-01 -9.94314030e-02 +2.87743747e-01 +8.42837766e-02 -7.80319273e-01 +1.31497189e-01 +1.46735637e-02 +2.26778716e-01 -3.03803712e-01 +5.87680340e-02 -1.70520410e-01 +1.15218095e-01 -3.72078866e-02 -3.09864283e-01 +1.02767840e-01 +1.82533294e-01 -4.70724441e-02 -7.86523446e-02 -2.80987501e-01 -7.43497163e-02 +6.97400987e-01 -4.28479880e-01 -2.32877120e-01 -2.98758209e-01 -4.17147800e-02 -6.21907592e-01 -3.16328138e-01 -2.59072304e-01 +8.28895941e-02 -3.59382592e-02 +2.94941440e-02 +3.29843760e-01 -2.30591029e-01 -1.52067021e-02 -2.02223510e-02 -2.84831459e-03 +2.56985605e-01 -1.64906070e-01 -3.92067075e-01 -1.49628550e-01 +4.46444973e-02 +1.77246377e-01 -1.54477954e-01 +5.37323654e-02 +3.63353401e-01 -5.98557174e-01 -1.80588942e-02 -5.94225824e-02 -3.50942314e-02 -6.68068044e-03 +1.66161492e-01 -2.89018154e-01 -3.37954432e-01 +1.53904781e-01 +5.11633791e-02 +1.47562116e-01 -2.63222903e-01 -6.94613978e-02 -2.64060706e-01 +4.45537001e-01 -1.26506105e-01 +1.23992391e-01 +5.19087911e-01 +4.49925512e-01 -1.90513879e-01 +3.84163618e-01 -5.11971489e-02 +2.23049194e-01 +1.33596346e-01 -5.98371848e-02 +8.42710197e-01 +3.29382420e-02 -2.66467929e-01 +2.70902783e-01 +2.45340765e-01 -1.29910275e-01 +2.72923946e-01 +3.07446420e-01 +1.27759248e-01 +2.06063375e-01 +2.74599582e-01 +1.42443582e-01 -1.22857854e-01 -2.74783224e-01 +2.70558894e-01 +1.64824203e-01 -1.40144341e-02 -1.99984340e-03 +3.69526982e-01 +4.04101573e-02 -1.84935495e-01 -1.40283614e-01 +2.10626021e-01 -1.02297798e-01 -3.43515903e-01 +1.95317969e-01 +1.23613082e-01 -1.76092274e-02 +3.70505691e-01 +2.44634509e-01 -3.22517157e-02 +3.70755970e-01 +3.48785996e-01 +1.88929692e-01 +6.86631054e-02 +9.59692672e-02 +1.45948499e-01 +4.35329080e-01 -7.76434779e-01 +1.97694048e-01 +2.16958866e-01 +2.28358001e-01 +2.99594760e-01 +3.37985903e-01 -1.08674534e-01 +3.11743677e-01 -4.33343351e-01 -1.11355379e-01 -2.74473190e-01 -3.86931300e-01 +2.59533256e-01 +3.52374524e-01 -4.76276837e-02 +8.50089490e-02 +5.08184195e-01 +2.94654995e-01 -6.24695480e-01 +7.85311639e-01 -7.74622932e-02 -1.88075788e-02 -1.99769720e-01 +4.65552330e-01 -1.53768256e-01 -1.07036419e-01 -3.66578758e-01 +1.31753683e-01 +2.07171049e-02 +2.24762093e-02 -2.46137455e-01 -2.49804541e-01 -7.15493634e-02 -4.66050506e-02 -1.25327036e-01 -3.17496806e-01 -1.71626493e-01 -8.65232110e-01 +3.12121630e-01 +1.76237419e-01 -3.35768193e-01 -4.84944843e-02 -3.43957156e-01 +4.58183326e-02 -3.04108441e-01 -1.27582148e-01 -5.77882290e-01 -2.00819775e-01 +6.91801906e-02 -1.86283886e-02 +1.29014077e-02 -4.15110558e-01 -1.94455646e-02 -1.77744612e-01 -1.81771025e-01 -8.49950835e-02 -1.08323835e-01 -4.45544459e-02 -3.73421684e-02 -3.16186816e-01 -2.80100107e-01 +5.75595312e-02 -6.44324839e-01 -2.87300706e-01 -1.06391512e-01 -1.08320445e-01 -4.81243700e-01 -1.21785372e-01 -1.61879510e-01 -3.73548597e-01 -7.23376125e-02 -2.75398474e-02 +3.44700783e-01 -2.52339602e-01 -1.26911193e-01 -8.14640746e-02 -4.23259884e-01 +1.56406507e-01 -2.99518555e-01 -3.96722555e-01 +3.09230477e-01 -1.69382393e-01 -1.53838545e-01 +3.71251583e-01 +1.87849134e-01 -1.55812696e-01 +4.49200235e-02 -4.29969311e-01 +3.29758883e-01 +1.20470367e-01 +2.93896228e-01 +6.67410791e-02 +3.34070116e-01 -3.37964028e-01 +1.51759246e-02 -1.48428291e-01 -1.31688491e-01 -2.75647342e-01 +2.78551608e-01 -2.98289478e-01 +3.25742513e-01 +2.02223480e-01 +1.68364212e-01 -7.15189204e-02 +1.58137813e-01 +4.20640051e-01 -2.86650211e-01 +1.03632174e-01 +2.54207999e-02 -2.47030526e-01 -2.07519412e-01 -2.46012136e-01 +2.69423127e-01 +1.68774500e-01 -4.39231023e-02 +1.18423477e-01 +2.41441429e-01 +2.21301883e-01 -1.49799898e-01 +1.87725022e-01 -7.02151135e-02 +2.31817052e-01 +4.31782365e-01 -3.27500105e-01 +4.20535713e-01 -9.60650593e-02 +5.63903511e-01 +6.95689917e-02 +2.84236938e-01 +9.38112512e-02 -7.04986900e-02 -5.39507866e-02 -7.20768794e-02 -4.14368600e-01 -2.94613391e-01 -1.46076769e-01 -3.54691714e-01 +6.49358988e-01 -4.41462696e-01 +1.65277213e-01 +2.76539415e-01 -1.80864587e-01 -1.27809092e-01 -7.21861944e-02 -3.34498495e-01 +2.69900113e-01 +5.26451111e-01 -1.20269097e-01 +1.35346070e-01 -1.94456860e-01 -3.62297893e-01 +1.03101380e-01 +3.03384513e-01 +3.07964772e-01 -2.42134258e-01 +5.61917424e-02 -1.62202135e-01 +3.20173234e-01 -1.90727948e-03 +3.39064270e-01 -1.67176336e-01 -1.47188574e-01 +4.28791344e-01 +3.91266912e-01 +4.00536768e-02 +1.90766584e-02 +3.96300942e-01 +2.93162584e-01 -2.45153904e-01 -6.95151985e-02 -1.66074768e-01 -6.32700846e-02 -1.76093891e-01 -1.18438296e-01 -2.35558897e-01 -2.40325779e-01 +3.76882136e-01 +2.57666092e-02 +1.70906425e-01 -1.19011343e-01 -2.38691503e-03 -2.66219348e-01 +3.54395628e-01 -6.53488785e-02 -1.09312415e-01 +1.67049304e-01 -3.45313340e-01 +5.74066460e-01 -1.26131967e-01 +2.00508073e-01 -2.21098110e-01 +6.28309488e-01 -6.02845252e-01 -4.71245557e-01 +2.62506843e-01 +4.04014021e-01 +1.67322025e-01 +8.20819438e-02 -2.81265415e-02 +6.46699667e-02 +1.10351369e-01 +4.68763530e-01 -5.98470084e-02 -8.34693909e-02 +2.12386772e-01 +3.32871556e-01 -4.25103515e-01 +3.08602285e-02 +3.16449970e-01 +3.39939207e-01 +2.59034708e-02 +1.68927088e-01 +4.75210369e-01 +2.62620538e-01 +1.05755113e-01 -4.65749614e-02 +2.79233575e-01 -9.54528004e-02 +1.07154191e-01 -2.88798362e-01 +1.84383258e-01 +2.91957259e-01 +9.49954465e-02 -2.52491981e-02 -2.60122538e-01 -1.76247373e-01 +2.29991540e-01 -2.04942912e-01 +3.08463156e-01 -7.49869421e-02 +8.78807902e-02 +1.56238273e-01 +1.95534810e-01 -1.64141715e-01 +1.53759494e-01 +1.44044816e-01 -3.87127012e-01 +7.20550045e-02 -3.37600261e-01 +7.09510744e-02 +1.66436613e-01 -1.91567644e-01 +1.84533700e-01 +3.53323340e-01 -2.46938597e-02 +5.95107675e-02 +3.49050201e-02 -3.22999731e-02 -1.34819314e-01 -2.37863094e-01 +2.10482597e-01 -2.77166128e-01 -3.43785524e-01 +6.95713162e-02 -1.88141942e-01 +1.89527050e-01 -2.13742703e-01 -2.53038853e-01 +1.34762868e-01 -2.88486570e-01 -3.70336115e-01 -2.26382792e-01 -5.98135352e-01 -2.61969179e-01 -1.54628426e-01 -3.43417972e-01 +1.47815943e-01 -4.06719685e-01 -2.05697075e-01 -5.93567565e-02 +2.33855501e-01 -3.30300599e-01 +6.55152127e-02 +2.78722256e-01 -6.76944703e-02 -2.19227046e-01 +2.70403206e-01 +1.09860763e-01 -5.90765551e-02 +3.98598820e-01 +6.95758611e-02 +2.62965888e-01 +2.90872574e-01 -1.40084714e-01 -5.05147837e-02 -3.56702834e-01 +1.12855263e-01 +2.56825268e-01 -2.88457453e-01 -3.13829154e-01 -4.17411149e-01 +2.57961214e-01 -3.24052334e-01 +2.32387096e-01 +2.80827165e-01 -1.70693904e-01 +4.27660830e-02 +2.97277302e-01 -3.34234424e-02 
#Parameter# /_5 {25} 401 ZERO_GRAD
-2.68462837e-01 +1.88647896e-01 -2.80154981e-02 +1.71962664e-01 -1.68920338e-01 -3.31496686e-01 -2.51221925e-01 -3.03967565e-01 -1.92125902e-01 -2.12082759e-01 -3.13786596e-01 +4.10303175e-02 +6.98999017e-02 -3.16920191e-01 -1.90395296e-01 +2.64886975e-01 +3.16341147e-02 -2.43939355e-01 -8.41749366e-03 -6.73520984e-03 -3.29584748e-01 -1.06863603e-01 -4.49369311e-01 -1.62024260e-01 -2.78688103e-01 
#Parameter# /_6 {25,3} 1201 ZERO_GRAD
-1.80228144e-01 +1.17227077e-01 -3.05176079e-02 -1.79322362e-02 +3.92727673e-01 -4.05641079e-01 -3.63405287e-01 +2.41640031e-01 -1.43104583e-01 -3.92639130e-01 -1.67995572e-01 +1.94006860e-01 +1.55820847e-02 +4.11620677e-01 -2.60188580e-01 +3.54057968e-01 -4.06637818e-01 -1.49185538e-01 +3.00501823e-01 +2.03966796e-01 -3.88389587e-01 +4.13150728e-01 +2.06077635e-01 -2.33320713e-01 -3.27357769e-01 -1.15584016e-01 +3.47478628e-01 +1.53270662e-02 -3.02755088e-01 -3.67747635e-01 -9.77244973e-02 -1.20777369e-01 +2.67772973e-01 +2.47256398e-01 -2.78824866e-01 +2.91705251e-01 -2.22888857e-01 +2.33247697e-01 -4.55576122e-01 +4.35480475e-02 +9.52242613e-02 +1.10335708e-01 +3.23828399e-01 -2.96468794e-01 -6.83679581e-02 +2.79435754e-01 +2.02750981e-01 -2.04646379e-01 +1.25960350e-01 +2.76585519e-01 -3.71441007e-01 +4.03307676e-01 -3.78853351e-01 -3.90995383e-01 +2.65128016e-02 +1.96298718e-01 -4.26639318e-01 -2.00866491e-01 -1.50364071e-01 +2.21995711e-02 +4.12829936e-01 -3.35100412e-01 -1.49082541e-01 -1.32408321e-01 -1.69795841e-01 -2.60799050e-01 +2.20035732e-01 +2.77091324e-01 +3.98713410e-01 -1.04208738e-01 +1.98772073e-01 -3.90498042e-02 +4.59387004e-01 +4.04543757e-01 +4.37173665e-01 
#Parameter# /_7 {25,25} 10001 ZERO_GRAD
+4.37266827e-02 -1.12549737e-01 +1.29401863e-01 +2.74282694e-01 -1.85250461e-01 +1.92307532e-01 -2.50899464e-01 -1.71793789e-01 -2.16450930e-01 -1.11579373e-01 -1.58011958e-01 +1.20910108e-02 -2.97703445e-01 -3.13014627e-01 -3.17201853e-01 +3.24478865e-01 -4.30418551e-02 -1.68300286e-01 +3.45633030e-02 -5.66002131e-02 +4.63362634e-02 -1.52574152e-01 -9.65915173e-02 +1.48284465e-01 +5.18815815e-02 +1.70086861e-01 -2.14504689e-01 +2.90164471e-01 -2.24710941e-01 -1.27580479e-01 -2.39831775e-01 +1.18066639e-01 -4.59234118e-02 +1.91020966e-01 +5.55342138e-02 -3.11416149e-01 -3.75915766e-02 +4.75707352e-02 +1.18673146e-01 -3.00619006e-02 +1.75877333e-01 +2.83818424e-01 -8.69896114e-02 -1.39982104e-02 +3.44716251e-01 +7.48608410e-02 +1.74479544e-01 +2.89745986e-01 +3.60541940e-02 +1.50318265e-01 +1.09458208e-01 +3.21239352e-01 -1.09171867e-01 +1.42378598e-01 -1.72689527e-01 -2.82509238e-01 +1.22529328e-01 -1.29645318e-01 -1.95083037e-01 +2.12672174e-01 -3.18322778e-02 -7.58832395e-02 +1.17741585e-01 -2.18637064e-01 +7.30256438e-02 -1.34296477e-01 -2.99364805e-01 +3.94505262e-03 +5.20938635e-02 -9.65306759e-02 +3.14803064e-01 +1.61656260e-01 +7.02232122e-02 +1.89074874e-01 +3.27808261e-01 +1.86400175e-01 +1.86931431e-01 -2.51955390e-01 +1.50270313e-01 -1.44690573e-02 +1.86513543e-01 +1.29292816e-01 +2.18854964e-01 +1.12746179e-01 -9.98883545e-02 +6.94423914e-04 -1.50931776e-02 -2.29211241e-01 -1.22896120e-01 -3.28885883e-01 +1.21283621e-01 +2.94476748e-01 -8.54949057e-02 +1.83706045e-01 -4.86960411e-02 +2.03357458e-01 +2.12622643e-01 +8.41111243e-02 -1.17486984e-01 +5.64602315e-02 +2.78071165e-01 -2.53408045e-01 +3.07333291e-01 +2.95479178e-01 +2.37132430e-01 -5.67776561e-02 -7.34012127e-02 -2.83182383e-01 -2.26210490e-01 -3.10387045e-01 +9.25040245e-02 +3.37915421e-02 +2.13756621e-01 -1.86337873e-01 -3.40021908e-01 -1.65621117e-01 -2.38693893e-01 +3.12423348e-01 -1.48849517e-01 +1.68239415e-01 -3.39999646e-01 -1.10852718e-02 -2.54029214e-01 +2.34068573e-01 +3.25262904e-01 +1.51689321e-01 -1.79159507e-01 -1.10181451e-01 +1.87370181e-01 -1.20086387e-01 +6.18452728e-02 -8.81480873e-02 -3.19411308e-01 -1.35266051e-01 +1.23313665e-02 +1.44617438e-01 +1.15595311e-01 -2.75722980e-01 -6.43528104e-02 -1.85332224e-01 -2.70633906e-01 -6.75669014e-02 +2.15861380e-01 -2.44908363e-01 +4.34775651e-02 -3.13004047e-01 -3.18614900e-01 -5.38688004e-02 +2.58307755e-01 +2.28309035e-01 +1.68831050e-02 -2.79227376e-01 +1.89220607e-01 -2.97945172e-01 -1.65856868e-01 -2.13602856e-01 -2.03648567e-01 -3.34227711e-01 -1.06093422e-01 +2.58587658e-01 +2.03900576e-01 -1.24489948e-01 +2.10085630e-01 +2.79884994e-01 -6.90499544e-02 +1.60781264e-01 -2.06697136e-01 -2.93100476e-01 -2.67361820e-01 +9.03769433e-02 -2.96529710e-01 +9.65777040e-03 +1.32919759e-01 +1.96237683e-01 +2.75610685e-01 -1.75219327e-01 +7.77831972e-02 -2.64014930e-01 +2.45038569e-01 +5.07262349e-02 +1.83888555e-01 +1.77947700e-01 -2.25956708e-01 +1.03433818e-01 +2.08294094e-01 -6.22608662e-02 -2.18207985e-01 +1.37069583e-01 -2.51161516e-01 -2.70750463e-01 -2.14562684e-01 -2.53377825e-01 +1.76375449e-01 +3.31750810e-01 +2.10430086e-01 -2.90788800e-01 +1.69115663e-01 +2.84152627e-02 +1.62963867e-01 +8.90470445e-02 -2.91641712e-01 -5.83907962e-03 -2.40776747e-01 +3.53803337e-02 -2.46943623e-01 +1.29034966e-01 +1.04408056e-01 +7.36719966e-02 +1.51946217e-01 -2.01874077e-02 +2.61946201e-01 -1.01027757e-01 +3.04614842e-01 -1.88715726e-01 -9.29686129e-02 +7.84214735e-02 -1.15364283e-01 +3.36196065e-01 -1.48952901e-01 -1.33099899e-01 -1.77821755e-01 +8.62921774e-02 -3.05248857e-01 -2.18009144e-01 +1.36574984e-01 +3.13509107e-01 +1.93776906e-01 -2.46404052e-01 +3.40388119e-01 +4.59445715e-02 +2.00661361e-01 +3.48348916e-02 +4.99945879e-02 -3.27884376e-01 +1.09861135e-01 -1.96798041e-01 +9.26276445e-02 -1.29052237e-01 +2.72548437e-01 +7.87264109e-02 -2.40429312e-01 +1.15292042e-01 +3.28377426e-01 -1.99258074e-01 +2.28035629e-01 -1.64589509e-01 -3.01107138e-01 -1.47439033e-01 -4.91128266e-02 +2.58774757e-01 -4.31852043e-02 -2.68916428e-01 +3.26968431e-02 +2.53469050e-02 -6.29476011e-02 +1.73729837e-01 -1.64681792e-01 +2.48022914e-01 +3.39808941e-01 -7.04739094e-02 -2.44108737e-01 +2.52362967e-01 -2.32235312e-01 +1.87689483e-01 -1.69103086e-01 +2.83000171e-01 +3.37760925e-01 +2.55852342e-01 +1.52755380e-01 +4.25781906e-02 -3.34648132e-01 -3.16050351e-01 -4.71014380e-02 +3.03580701e-01 +2.61100590e-01 +2.61032164e-01 +1.35760278e-01 -8.89618993e-02 +2.68537641e-01 +2.92675555e-01 +1.37103438e-01 +3.35442126e-02 +3.28702033e-02 -4.28954959e-02 +2.89995193e-01 -2.88562626e-01 +2.07198739e-01 +1.32416517e-01 -3.13870668e-01 +1.76196337e-01 -4.40661311e-02 +1.17433071e-01 +5.58972359e-04 +2.72653818e-01 +3.40347290e-01 +4.05909419e-02 +3.68494689e-02 +1.91586554e-01 +1.98611319e-01 -1.42287195e-01 -2.61156499e-01 -2.95489013e-01 +3.16899717e-01 +2.03400016e-01 -1.71124473e-01 -3.32625687e-01 -2.02557072e-01 +2.84267426e-01 +2.33227611e-01 -2.74455130e-01 -3.27881753e-01 +1.01048470e-01 +2.27080762e-01 +1.72134936e-02 +2.66087949e-01 -8.79597664e-03 +2.48229384e-01 +1.56407654e-01 +1.55380070e-01 +2.12734044e-01 -3.57985497e-03 -1.66673034e-01 +2.91332304e-01 -2.37024605e-01 +3.42561185e-01 +1.94445491e-01 -3.97819579e-02 -1.11598834e-01 -2.52731204e-01 +9.64468420e-02 -8.58409703e-02 +1.99543238e-01 -1.30076006e-01 -2.15512380e-01 +4.20788527e-02 +2.54364550e-01 +5.91862202e-02 -1.09957829e-01 +5.83169460e-02 -9.17285383e-02 +2.88063467e-01 -2.63326764e-02 -1.27791762e-02 +1.92413032e-01 +5.73084354e-02 -2.53950536e-01 +1.32318676e-01 -3.05712253e-01 -3.11887622e-01 +2.81399965e-01 +2.49279320e-01 +2.53613770e-01 +2.62680888e-01 +1.27426088e-01 -1.89763799e-01 +1.16621673e-01 +1.87114477e-02 -1.66071951e-01 +1.99284256e-02 -3.35352004e-01 -1.83535710e-01 -2.59074450e-01 -6.77440763e-02 +1.92791820e-02 +1.66336656e-01 +2.07430482e-01 +7.26063550e-02 +2.97465444e-01 -9.14861262e-02 +1.11104250e-02 -1.80352703e-01 +2.40660787e-01 +1.80610061e-01 -7.53124952e-02 -1.53282031e-01 +1.05133176e-01 -2.43024141e-01 -1.50899678e-01 -9.21817720e-02 -4.97429669e-02 +2.42495298e-01 -2.01373264e-01 -2.86843598e-01 -1.39372081e-01 -2.58180380e-01 +7.44288862e-02 -5.59481978e-03 -5.84088564e-02 +1.83044791e-01 -1.90876424e-01 +5.86381257e-02 -2.61952937e-01 -1.32544562e-01 -1.47005618e-02 -1.07763022e-01 +1.71308160e-01 +4.09089923e-02 -2.40465224e-01 +2.41086483e-01 -8.32397342e-02 +3.63867879e-02 -1.18210569e-01 -1.16887465e-01 -1.15723431e-01 -1.33724660e-01 -5.34416139e-02 -1.01223618e-01 -2.27082670e-01 -1.05318606e-01 +1.57555044e-01 -6.71861470e-02 +2.12445676e-01 +1.26939416e-02 +3.25373352e-01 -7.83064961e-02 +1.68124497e-01 +6.94441199e-02 -2.06901401e-01 +3.34205091e-01 -3.36136341e-01 -5.25209308e-03 -3.26416194e-01 -1.83575734e-01 +1.06864125e-01 +2.63659775e-01 -1.54714525e-01 +1.04505986e-01 +2.85184145e-01 +4.73330021e-02 -2.46628582e-01 -1.23513579e-01 +3.34518194e-01 +3.07205975e-01 +1.05010569e-02 -8.43861699e-03 +9.26046073e-02 -3.08601469e-01 +2.24052429e-01 +9.85560119e-02 +1.88325524e-01 -4.78563607e-02 +3.58408988e-02 -2.04238147e-01 -2.67663032e-01 +2.61526406e-02 +1.47738874e-01 -3.35309148e-01 -2.56066203e-01 -1.45972699e-01 +3.31053078e-01 +2.65060902e-01 +2.65082717e-01 +1.64722025e-01 +8.05968344e-02 -4.25901413e-02 +1.57305300e-01 -5.90420961e-02 +8.37631524e-02 -2.79987931e-01 +2.13051438e-01 -7.94344246e-02 +6.16629720e-02 -3.15842867e-01 +3.45007002e-01 +1.44656718e-01 +2.16421962e-01 -4.11755443e-02 +2.57572949e-01 -8.63730311e-02 +1.04782999e-01 +1.37041211e-01 -2.46849954e-02 -1.82574630e-01 +1.34172708e-01 -1.72528222e-01 -1.45876408e-03 -1.30663678e-01 -4.90222871e-02 -1.22246206e-01 +1.98739648e-01 -5.73740005e-02 +2.43441761e-01 +5.12707829e-02 -1.02328047e-01 -2.30639771e-01 -5.32966256e-02 -9.04872417e-02 -2.11233333e-01 -2.88355827e-01 +1.35197014e-01 +2.73212194e-02 -2.37348109e-01 -5.09245992e-02 +2.13057637e-01 -2.89739788e-01 +3.87829840e-02 +2.10988998e-01 +7.36457705e-02 +1.39542043e-01 -3.09964955e-01 +2.14613020e-01 -1.95792764e-01 -1.93653673e-01 +1.18224889e-01 +2.77569890e-01 -1.28753647e-01 +2.59873748e-01 -3.10075939e-01 +8.10879171e-02 +3.41459334e-01 -2.72590935e-01 +1.36803538e-01 -3.02222878e-01 +3.81435156e-02 -1.56126916e-02 +9.35713351e-02 +8.95005167e-02 -2.40356386e-01 -2.02005774e-01 -9.91729200e-02 +6.90411627e-02 +1.86327100e-03 -2.87353605e-01 +3.05286646e-02 +2.61506438e-01 -1.26171768e-01 +7.18681216e-02 +4.17831540e-03 +2.17816591e-01 -2.31200904e-01 +2.54914522e-01 +6.90318346e-02 -1.14478111e-01 +1.45482004e-01 +1.07347310e-01 +1.23748541e-01 -1.47394732e-01 +1.77474916e-01 -2.45878220e-01 +1.11634612e-01 -1.36682391e-03 +2.24834681e-02 -3.11825871e-02 -2.95161307e-01 -1.64936706e-01 -8.71697366e-02 -3.43522519e-01 -2.26870015e-01 +7.27063715e-02 +9.67474282e-02 -7.36820698e-02 +1.56351864e-01 +2.18021810e-01 -1.77241638e-01 -3.20932895e-01 -3.25448811e-02 +1.27784073e-01 +1.95441484e-01 +2.35119164e-01 -2.15233579e-01 -3.08412373e-01 +7.43778348e-02 +1.92679465e-01 +2.40256667e-01 +4.43726480e-02 -2.50994056e-01 -3.33808482e-01 +1.64089918e-01 -8.13954473e-02 +2.44404376e-01 -1.49300814e-01 +2.63079345e-01 +2.51418173e-01 -1.82257250e-01 -6.28133118e-02 -2.69826174e-01 -2.87151814e-01 +3.81433964e-02 +9.40299928e-02 -6.40387535e-02 +2.55340338e-02 -4.76806760e-02 +2.13025272e-01 +3.35158408e-01 +1.02682471e-01 +7.38812387e-02 +2.21907794e-02 -2.23905057e-01 +1.82898998e-01 -2.99953192e-01 -1.26027763e-01 -8.01590383e-02 +1.59480810e-01 -4.30172682e-03 +7.32813478e-02 +2.66208053e-01 -2.28120983e-02 -2.98244953e-02 -1.58227950e-01 +3.00424099e-01 -6.54971898e-02 +2.91380584e-02 -3.09364378e-01 -2.10030720e-01 +2.73960233e-01 +2.42246687e-01 +1.41410798e-01 +8.95577669e-02 +2.59981453e-01 +9.52539444e-02 +7.17267394e-02 +9.63836610e-02 +1.92148626e-01 +4.65091169e-02 +1.56545997e-01 +3.16168070e-01 -2.25995213e-01 +3.44653964e-01 +1.13141865e-01 +6.84902966e-02 +1.06497765e-01 +3.29783857e-02 +1.66031003e-01 -2.58061886e-02 -2.12323025e-01 
#Parameter# /_8 {25} 401 ZERO_GRAD
+1.92465723e-01 -1.04817018e-01 -2.17415512e-01 +2.63951361e-01 -3.09440881e-01 +6.58156872e-02 -2.68982500e-01 +3.42929065e-01 +9.78236794e-02 -2.63073832e-01 -3.06146145e-01 -2.90428221e-01 +5.55390120e-02 +1.63657844e-01 -1.65922016e-01 -1.96370229e-01 -2.31494516e-01 +2.02054858e-01 -1.31532744e-01 -2.71769464e-02 +2.11635709e-01 +2.17094123e-01 -3.40705216e-01 -1.58701628e-01 -3.42691571e-01 
#Parameter# /_9 {25,3} 1201 ZERO_GRAD
-3.22147816e-01 -8.90015513e-02 +6.09828591e-01 +1.45952463e-01 +1.12796381e-01 -4.92674440e-01 -1.50937900e-01 +1.37219831e-01 +4.26223099e-01 +3.24612349e-01 -2.38009140e-01 +1.81158155e-01 +3.02211612e-01 +7.25857258e-01 -3.91008317e-01 -3.38423491e-01 +5.33478968e-02 -5.30914068e-01 +4.70178455e-01 +4.95310992e-01 +2.87415594e-01 +1.60461158e-01 -7.93710649e-01 -4.59405988e-01 +8.53895918e-02 +2.00193703e-01 -1.32938653e-01 +1.27160849e-04 +3.08763295e-01 -4.58968431e-01 -5.20011008e-01 +2.28888631e-01 -2.52326019e-02 +3.10392022e-01 +9.41734836e-02 +4.03968245e-01 -3.93455863e-01 +1.86903685e-01 -2.07528934e-01 -4.96074781e-02 +4.40958261e-01 +3.82109344e-01 -2.32461467e-01 +3.48140448e-01 +3.92403722e-01 -1.84270471e-01 -1.07752502e-01 -3.51215333e-01 -1.13220796e-01 -2.89635509e-01 -3.36334370e-02 -4.62237865e-01 +1.86407387e-01 -2.65312582e-01 -1.86594054e-01 -3.99051569e-02 +4.13731903e-01 +2.17753634e-01 -1.82259232e-01 +5.28359711e-01 -1.50955901e-01 -1.51870385e-01 +3.52520466e-01 +2.00125426e-01 +3.65296513e-01 +1.05484791e-01 +3.54328334e-01 -5.32190323e-01 -4.72200364e-01 +4.08108532e-01 +2.49713600e-01 -1.65543765e-01 -6.34141207e-01 +3.34612191e-01 -2.27055326e-01 
#Parameter# /_10 {25,25} 10001 ZERO_GRAD
+1.34722963e-01 -2.01828614e-01 +1.01576984e-01 +1.63060516e-01 +2.92423572e-02 +2.25597382e-01 -2.13299066e-01 +2.16830656e-01 -2.72915810e-01 +1.82420969e-01 -1.52896568e-01 -1.35776624e-01 -8.79162773e-02 +1.04167514e-01 -1.63926914e-01 +8.31902996e-02 -3.80234897e-01 +3.06292415e-01 +9.95736718e-02 +3.36911052e-01 -4.62959409e-02 +2.52768770e-02 -6.64949864e-02 +1.64567664e-01 +1.85019687e-01 -2.68936604e-01 -2.70337105e-01 -5.48335016e-02 -2.39258602e-01 -1.95151046e-01 -2.50084907e-01 -3.67608935e-01 -3.02700043e-01 +2.76616309e-02 +2.67115384e-02 +2.86039896e-03 -2.69383073e-01 +1.79511309e-01 +4.07302797e-01 +1.27171487e-01 -1.48380831e-01 -2.79699683e-01 -3.06013852e-01 -2.40505897e-02 +2.34247848e-01 +3.58566493e-01 -1.08173721e-01 +9.34542418e-02 -2.91040558e-02 -1.61659509e-01 +3.58596817e-02 +2.96577722e-01 -2.77675986e-01 -1.42897993e-01 -1.81997061e-01 -3.63419205e-02 +1.27062965e-02 -2.31959060e-01 +4.82052676e-02 +6.64716437e-02 -3.59355301e-01 +1.67033970e-01 +2.01860398e-01 -1.82587523e-02 -2.30850071e-01 +3.17499965e-01 -1.82152957e-01 +2.94612676e-01 +1.68714017e-01 -2.49454230e-01 -4.08291072e-01 -6.06255531e-02 +3.83317292e-01 -7.33865798e-02 -2.43608594e-01 +3.11855137e-01 -1.79098591e-01 +4.20650989e-02 -1.26587510e-01 -3.01906198e-01 -9.26415250e-02 -1.12139009e-01 +1.12125114e-01 -3.14868033e-01 +2.78734893e-01 -1.92991972e-01 +8.67280364e-02 -8.50001350e-02 -3.30151767e-01 +6.44058064e-02 +2.30051666e-01 +2.21040487e-01 -6.36513252e-03 -1.46016270e-01 +2.02979222e-01 -1.59702048e-01 +1.76574439e-01 +8.65191296e-02 +3.40281337e-01 +1.57061726e-01 +2.67157197e-01 +4.78851721e-02 -1.45057306e-01 -1.66648686e-01 +2.42525116e-01 +8.71479809e-02 +1.04841359e-01 -1.45822778e-01 +3.38902473e-02 +2.06942424e-01 -3.23073387e-01 +1.89797848e-01 -2.24926606e-01 +3.52853127e-02 +1.40424445e-01 +3.27355415e-01 -1.01628847e-01 -1.81984439e-01 -2.40224957e-01 +1.92351967e-01 -1.10981844e-01 +1.64492309e-01 +2.34121177e-02 +2.96448976e-01 +1.28457874e-01 -3.02919179e-01 -3.45692396e-01 -7.01033473e-02 -2.11199582e-01 -2.74476498e-01 -1.71072736e-01 -2.37823695e-01 +3.05562705e-01 -2.79640704e-01 -3.39968204e-01 -3.65655199e-02 -4.14044596e-02 +2.92513758e-01 +1.98410317e-01 +1.84158325e-01 -3.70231897e-01 -3.02415304e-02 +3.49210709e-01 -2.95459837e-01 +3.48926187e-01 +4.29867953e-01 +3.34386855e-01 +2.39413038e-01 +1.67058364e-01 +1.73386842e-01 -2.99509257e-01 -2.79645830e-01 -6.17999546e-02 +3.06329668e-01 +1.93251193e-01 -2.29492575e-01 -8.80333856e-02 -4.15497571e-02 -1.25904918e-01 +2.89546758e-01 +2.86786884e-01 -5.71235493e-02 +3.15603837e-02 +1.26174614e-01 -8.35688785e-02 +2.83447593e-01 -3.78146946e-01 +1.02953412e-01 -3.21754187e-01 -1.06875584e-01 -1.63242489e-01 -1.55343473e-01 -1.75733313e-01 -1.05926432e-01 +2.04376698e-01 +1.32604539e-01 -2.81756997e-01 +2.55842775e-01 +1.57659948e-01 -2.22729400e-01 -9.03899744e-02 -1.81431875e-01 +2.65795738e-01 -8.08987841e-02 -8.28848407e-02 -1.48378342e-01 +2.65766114e-01 +8.51231962e-02 -2.73637384e-01 +5.74459881e-02 -8.12566131e-02 -2.14230925e-01 -2.38062605e-01 +1.38061538e-01 -7.02005252e-02 +5.24694845e-02 -1.04675099e-01 -1.22060753e-01 -2.26626378e-02 +2.71286309e-01 +2.51358211e-01 +1.49490669e-01 -1.57513916e-01 -2.04520136e-01 -1.28706783e-01 -2.45493203e-01 -6.65215701e-02 -3.72939944e-01 +2.75935382e-01 +8.02654028e-02 +2.41616294e-01 -1.31560966e-01 -2.56102905e-02 -6.01623729e-02 -2.21859619e-01 -7.06503615e-02 +3.69629174e-01 +1.60924286e-01 +1.35791019e-01 -2.68700659e-01 +2.19876587e-01 +8.81787315e-02 -5.88390790e-02 +4.84991036e-02 -3.79291832e-01 -1.43587753e-01 +1.33373186e-01 -5.18469334e-01 +3.06943983e-01 -4.80157584e-02 +3.44121367e-01 +1.63242385e-01 -1.98963493e-01 +2.73838378e-02 +2.50454485e-01 -1.34353377e-02 +2.34069467e-01 -1.72211170e-01 -3.92540723e-01 +3.55400980e-01 -1.15924038e-01 -1.70937702e-01 -1.70621693e-01 -4.84880984e-01 +1.54088870e-01 -6.05316341e-01 +4.60920408e-02 +2.23528314e-02 -3.76469195e-01 -2.18305185e-01 -3.06357712e-01 -3.03479880e-01 +1.88708559e-01 +6.01474158e-02 +1.91573679e-01 -1.66704565e-01 -3.42936516e-01 +3.06475133e-01 +3.46039206e-01 +3.15359622e-01 +1.73477337e-01 +2.69858032e-01 -3.02104443e-01 -3.32582034e-02 +3.32750231e-02 -2.86514521e-01 +3.01123261e-01 -3.32376361e-01 +3.17056209e-01 -7.09033459e-02 -1.68599591e-01 -3.07893217e-01 +3.45274031e-01 +1.96163222e-01 -1.35955915e-01 -2.63840675e-01 -3.59360874e-01 +3.01403522e-01 +2.44567208e-02 -3.97009179e-02 +1.79825380e-01 +1.91509232e-01 -7.25178868e-02 -3.70293707e-01 +8.80247429e-02 +6.28523231e-02 -1.10496525e-02 -6.86073378e-02 -1.17165200e-01 -2.67097622e-01 +2.48559132e-01 -2.13233590e-01 +1.22301899e-01 -1.38165712e-01 -1.22792065e-01 -1.66692331e-01 +2.06089258e-01 -9.18880701e-02 -5.88488430e-02 +3.15320224e-01 +3.52202088e-01 +2.40760684e-01 -1.27483025e-01 +2.52425820e-01 +5.67731448e-02 +1.66245878e-01 +1.30630240e-01 +1.65737823e-01 -1.47207677e-01 -1.85478970e-01 -3.04047585e-01 +2.69232810e-01 +1.01078510e-01 -1.91634685e-01 -4.39463705e-02 -2.98856199e-01 +3.02535713e-01 +3.03083986e-01 +2.74944037e-01 +2.07591698e-01 +2.98997730e-01 -2.43452676e-02 -1.92750439e-01 -1.21101923e-01 -2.81478792e-01 -6.97158277e-03 +3.47807318e-01 -3.94600034e-01 -1.73902631e-01 -2.34054372e-01 +5.11294365e-01 +2.33250968e-02 -3.90402108e-01 -2.07804471e-01 -1.43674567e-01 -3.42640430e-01 -1.85176820e-01 -4.50991541e-02 -7.44307637e-01 -3.90087999e-02 -5.14340494e-03 +3.98234308e-01 -7.26504028e-02 -1.60014760e-02 -5.95696628e-01 -1.31292880e-01 +1.20155841e-01 +1.37385219e-01 +7.68681690e-02 -1.08096980e-01 -1.94250178e-02 -2.82364544e-02 -1.49818271e-01 +1.33651406e-01 -3.33029032e-01 -3.17714572e-01 +1.82203174e-01 +2.08569363e-01 +5.71559183e-03 +3.30382735e-01 -2.84137689e-02 -3.19295049e-01 -2.23030239e-01 +2.20260948e-01 -1.94191143e-01 -8.61010700e-02 +2.65765846e-01 +3.47731635e-02 +3.50584537e-02 +7.56714046e-02 -2.88283706e-01 -5.23977540e-02 +2.68133402e-01 -8.48312750e-02 +9.88802686e-02 -2.36359626e-01 +1.91957891e-01 -1.64342284e-01 +2.10061133e-01 +3.62711139e-02 +1.11336447e-01 -5.19567961e-03 -6.42572194e-02 +3.20947081e-01 -2.03750089e-01 -8.07449743e-02 -3.78913611e-01 -2.97216505e-01 +2.29371458e-01 +2.40209997e-01 +5.29879704e-03 +3.01743656e-01 +1.99019894e-01 +3.13735962e-01 +8.45566019e-02 +2.15070620e-01 -3.73037040e-01 +2.45787635e-01 +3.45142901e-01 -1.67339653e-01 +3.75570990e-02 +2.15647727e-01 +2.46378202e-02 -2.98612565e-01 +1.13691166e-01 -3.95983979e-02 -2.83929557e-01 +9.36542526e-02 +9.29302871e-02 -5.06880321e-02 +1.74668711e-02 +1.87841970e-02 +4.29799147e-02 +1.20012745e-01 +5.35690784e-02 +3.51116329e-01 -1.17376707e-01 +5.92105277e-02 -2.07515448e-01 +2.21196443e-01 +3.53539646e-01 -3.69595855e-01 -2.13196173e-01 -3.22638571e-01 +7.14440122e-02 +3.97490561e-01 -2.69262165e-01 -8.86476263e-02 +2.81599224e-01 -1.05647102e-01 -8.15934762e-02 -1.74625546e-01 -1.05281882e-01 -3.40640008e-01 +2.11283907e-01 -1.88370511e-01 +3.21080387e-01 +2.26817787e-01 +1.81190431e-01 +2.23071411e-01 -4.16876286e-01 -7.55463680e-03 +1.04987644e-01 +2.74104327e-01 -1.73674837e-01 +3.51287723e-01 -8.59482959e-02 +1.88570827e-01 -2.50949264e-01 +3.19521934e-01 -1.99214503e-01 -2.51336813e-01 -3.84896308e-01 -2.79464394e-01 -2.66876012e-01 -4.52754423e-02 +1.98204413e-01 -1.65815979e-01 +7.83435106e-02 -2.13424772e-01 -3.22082967e-01 -1.88239440e-01 -4.96169068e-02 -1.67121366e-01 -1.33009583e-01 -2.44560763e-01 +2.44849041e-01 -2.65025735e-01 +9.28291902e-02 +2.32067943e-01 -2.41059572e-01 +2.84071088e-01 +2.02378660e-01 -2.44486947e-02 -1.88978925e-01 +3.12637687e-01 -3.14362526e-01 -2.59748567e-02 +4.29710895e-01 +1.68148186e-02 -2.28677958e-01 +1.92272961e-01 -3.08855742e-01 +2.05280036e-01 -1.05751976e-01 +2.81323433e-01 +2.07600489e-01 +1.00660250e-01 -3.63927484e-01 +3.16676885e-01 +2.00726330e-01 +2.21792951e-01 +3.54574382e-01 -3.44091535e-01 -1.15930200e-01 -3.21211904e-01 -7.90582737e-04 +4.13279116e-01 -2.89435714e-01 +1.36688113e-01 -1.51065752e-01 -2.34701745e-02 +1.95625275e-01 -3.29216748e-01 +7.21564814e-02 +1.25552371e-01 +2.86398381e-01 -4.29569781e-01 -1.43296897e-01 +2.85480935e-02 +3.97981182e-02 -3.24725866e-01 +1.69748634e-01 -4.53753740e-01 +1.06095046e-01 +2.75338423e-02 +3.99946183e-01 -1.89192265e-01 -1.22399695e-01 -2.64271140e-01 -1.56269461e-01 +1.08049192e-01 -5.72229363e-02 -1.68052956e-01 -3.56486320e-01 +2.15752244e-01 +2.29700103e-01 +1.41992658e-01 -5.64772487e-02 +5.99530749e-02 -2.36534625e-01 -4.62169871e-02 -2.22210079e-01 -3.51153642e-01 +2.34034240e-01 -2.28145704e-01 +9.33726877e-02 -7.10295588e-02 +1.26818612e-01 -4.17506471e-02 -2.59465426e-01 +7.97737539e-02 -2.94393599e-01 +3.67369145e-01 -1.79101631e-01 -1.44965276e-02 +3.36259544e-01 +1.18283695e-03 -2.64443874e-01 +2.05591127e-01 +2.69153535e-01 -1.05088539e-01 +2.28742078e-01 +1.96996778e-01 -6.53693229e-02 +1.53630450e-01 -2.63621807e-02 -5.72999567e-02 +1.11965321e-01 +2.32498720e-01 -1.44160673e-01 -3.31171788e-02 -1.24784261e-01 +2.48675317e-01 -3.26675296e-01 -2.53599614e-01 +2.60490198e-02 -3.61412942e-01 -3.72370750e-01 -2.42097452e-01 +2.69121140e-01 -1.57158673e-01 -3.82047325e-01 -1.71832785e-01 +1.18046507e-01 -2.96902388e-01 +2.51804918e-01 -1.63212404e-01 +2.25284547e-01 -2.17634991e-01 +4.83921692e-02 -2.80402958e-01 +2.51433272e-02 -1.24795854e-01 -3.45985919e-01 +1.18904062e-01 +2.68663079e-01 -4.54051867e-02 +2.57985312e-02 +2.21320435e-01 -8.76768529e-02 +1.54410228e-01 -1.17340982e-01 -3.40509355e-01 +2.32181549e-01 +2.39903092e-01 -3.79913151e-01 -1.04599372e-01 -2.13547602e-01 +4.72791418e-02 +3.68367493e-01 -1.89546093e-01 -1.97662711e-01 +3.35331082e-01 -1.67058513e-01 -9.90211144e-02 +2.42041573e-01 +2.40652993e-01 +1.44919246e-01 +1.16703391e-01 +9.06291604e-02 +7.46261775e-02 +3.24380845e-01 -3.27865452e-01 -1.98288992e-01 +1.35669589e-01 +5.28162792e-02 -2.03369051e-01 -4.03890014e-03 -2.83643126e-01 -1.24906577e-01 -1.68147460e-01 +1.31193563e-01 +1.84926406e-01 -2.74010241e-01 
#Parameter# /_11 {25} 401 ZERO_GRAD
+1.65802836e-01 -1.42339185e-01 +1.14192940e-01 +2.86730886e-01 +4.27530818e-02 +1.60944492e-01 +3.21268588e-01 -1.41406775e-01 -2.43334159e-01 -3.00737232e-01 +1.28899038e-01 -2.91242540e-01 -2.15281293e-01 -1.00882150e-01 +3.55587661e-01 +3.53933245e-01 -2.49052614e-01 -2.86906391e-01 -1.74016222e-01 +6.62058741e-02 -1.82102710e-01 -3.61185260e-02 -1.35323524e-01 -3.68746929e-02 +4.95393313e-02 
#Parameter# /_12 {25} 401 ZERO_GRAD
-3.37261021e-01 -1.78433090e-01 -2.92000890e-01 +5.23129106e-03 -2.38419086e-01 +2.86135912e-01 -5.78755140e-03 -3.00176531e-01 -6.41918182e-02 +3.31775725e-01 +1.50469542e-01 -2.02892497e-01 -8.92995000e-02 -1.65446416e-01 +2.59436131e-01 +2.26451933e-01 -2.36721992e-01 -2.27931470e-01 +2.97321737e-01 -1.35617658e-01 +1.49108261e-01 -1.27607971e-01 +1.94910824e-01 +2.18217075e-01 +8.53520632e-02 
#Parameter# /_13 {25,25} 10001 ZERO_GRAD
+2.68419236e-01 +2.97956578e-02 -1.64640486e-01 +1.47154063e-01 -3.45193595e-01 +3.91442627e-01 -2.51789570e-01 +3.84623289e-01 +3.02476853e-01 +8.22390765e-02 +5.86936235e-01 +1.90670460e-01 +5.06817997e-01 +1.43119156e-01 +1.59064710e-01 +1.57501206e-01 -1.07644938e-01 +5.13165951e-01 -2.98209220e-01 +4.73103762e-01 +1.55951455e-01 -4.09808934e-01 +1.63741693e-01 -2.38619477e-01 +3.12183022e-01 -1.18182972e-01 -3.46867353e-01 -9.36144590e-02 -2.42742077e-01 +1.10226803e-01 +2.68364489e-01 -1.65150061e-01 +1.00492192e-02 +6.25168979e-01 -1.89257607e-01 +5.17202199e-01 +8.38799536e-01 +1.62276313e-01 -1.06332093e-01 -2.82161623e-01 -6.78250343e-02 -3.45000446e-01 +2.24842936e-01 -3.39028984e-01 +8.06141019e-01 +3.48386198e-01 -1.80540055e-01 +4.79537576e-01 +4.37451862e-02 -2.33733684e-01 -3.09934556e-01 +4.06826973e-01 +4.07792032e-01 -1.89104334e-01 -2.24082753e-01 -5.19300759e-01 +2.36259643e-02 -7.36451447e-01 -7.45677710e-01 -2.08064184e-01 -6.57517672e-01 -5.21929801e-01 -6.36683762e-01 -3.68247092e-01 +1.97374746e-01 +3.55616331e-01 -3.39881003e-01 -4.28386815e-02 +4.36794311e-01 -5.84724784e-01 -6.10859811e-01 +5.21191835e-01 -1.27459159e-02 +9.40096974e-02 +2.18681052e-01 -2.79660642e-01 -2.49906495e-01 -3.69354337e-01 -1.34305269e-01 +2.62677878e-01 -1.85753614e-01 +1.45239756e-01 -9.14658681e-02 +1.86108261e-01 +2.19299376e-01 +4.36044484e-03 -7.57978335e-02 -8.18384886e-02 -2.86787838e-01 +2.16258034e-01 -3.38566303e-01 -1.43460795e-01 -6.26077726e-02 -2.36845359e-01 -4.09529269e-01 -1.79462940e-01 +5.98445274e-02 +1.55942261e-01 -1.39253199e-01 -1.00674257e-01 -6.23813756e-02 +1.50595933e-01 -2.07475543e-01 +3.15212995e-01 -1.27611190e-01 -7.96692744e-02 +1.53597787e-01 +7.65215755e-02 -4.12396453e-02 +4.34107304e-01 -8.43629241e-02 +6.84203729e-02 +4.76490378e-01 -1.58876598e-01 -1.13875955e-01 +3.26775193e-01 -1.54568795e-02 -1.16354145e-01 -3.33137847e-02 +2.86330938e-01 -2.12386295e-01 -1.55016333e-01 +1.42837629e-01 -3.25101078e-01 +2.47605458e-01 +8.06720331e-02 -6.02651000e-01 -7.40330994e-01 +2.04970509e-01 -3.63963008e-01 +5.51328123e-01 -1.50505155e-02 +4.14275348e-01 +7.48737097e-01 +3.36417109e-01 +3.93792480e-01 +9.66680586e-01 +6.58828259e-01 +3.62641573e-01 -2.72438079e-01 -2.47772653e-02 +1.15359567e-01 +3.09691846e-01 +7.31278509e-02 +6.40497923e-01 +3.64730418e-01 -5.47969639e-01 +5.45852959e-01 -1.51547253e-01 -2.87981600e-01 -1.51029050e-01 +4.45621192e-01 -8.02962761e-03 -3.75543743e-01 +1.05815478e-01 -2.82903880e-01 -8.59773532e-02 -4.99107867e-01 -1.81405663e-01 -2.33805373e-01 -3.71376693e-01 -3.65586728e-01 -5.71533918e-01 -2.70573914e-01 -1.35572543e-02 -2.86195576e-01 -1.46326631e-01 -4.42866096e-03 -2.66213536e-01 -3.72361690e-01 -3.43044847e-01 +2.21039727e-01 -5.75303078e-01 -1.42482549e-01 +1.03521675e-01 +3.55121523e-01 -8.79640207e-02 +4.90072556e-03 -1.94507048e-01 +6.58492148e-02 +2.01585606e-01 -2.08047718e-01 -3.41055870e-01 -5.35488546e-01 -2.00302705e-01 +1.08278506e-02 -6.28801525e-01 -2.97301188e-02 -3.58205259e-01 +2.20290452e-01 +1.72824308e-01 +3.30659688e-01 +1.86488777e-01 +6.84891641e-02 -5.88497519e-02 +2.89245322e-02 -1.13358408e-01 -3.31384242e-01 -1.43054634e-01 -1.11037135e-01 +2.06244528e-01 -3.28410976e-02 +3.13964963e-01 +1.79544061e-01 +3.38483989e-01 -5.49442530e-01 -3.82370889e-01 -2.71575868e-01 -1.69216797e-01 -1.73631147e-01 +6.11434169e-02 -1.36439621e-01 -4.96232472e-02 +3.84865217e-02 -8.14969689e-02 -2.65814096e-01 -1.50366455e-01 +6.15978949e-02 +2.50123084e-01 -1.99211866e-01 +1.61554605e-01 +4.96830881e-01 -5.44646978e-01 +1.75317526e-01 +3.20688114e-02 -3.79202336e-01 +2.25777235e-02 +4.97499496e-01 -2.32660845e-01 +5.00401914e-01 -2.58917272e-01 +1.47249788e-01 -3.35912853e-01 -3.33765984e-01 -6.25247806e-02 -6.64670587e-01 -2.51370758e-01 -1.91641673e-01 +2.66124189e-01 -2.39405409e-01 +4.67379987e-01 +2.39338070e-01 -2.42741436e-01 +3.03245813e-01 -3.29706930e-02 -3.60711753e-01 +6.59609079e-01 +1.01472788e-01 +9.41972155e-03 -3.58343691e-01 +2.15928316e-01 -5.32974564e-02 -3.66580188e-01 +1.69439703e-01 +2.24254772e-01 -3.53397019e-02 +1.12534389e-01 -1.97462320e-01 -7.89695680e-02 -3.75670463e-01 -7.91915432e-02 -9.30144638e-03 +3.82978246e-02 -2.14931712e-01 +2.48848066e-01 -5.10853767e-01 -2.51225591e-01 -3.72560211e-02 +3.33188325e-01 -4.26186830e-01 -6.39582798e-03 +2.72211991e-02 -5.16267493e-03 +1.81088373e-01 -1.76375374e-01 +3.54620010e-01 -1.54000580e-01 +1.69067055e-01 -1.68176726e-01 +1.95132867e-01 +4.88220096e-01 +1.98404476e-01 +4.19171065e-01 +3.04789633e-01 +2.04265252e-01 +1.47185162e-01 -8.14016350e-03 +4.33824480e-01 +3.57008874e-02 +3.29129308e-01 +3.66071045e-01 +4.44228575e-02 +2.83511072e-01 +6.49709925e-02 +5.12708575e-02 -2.47997671e-01 +2.02174932e-01 -6.76177144e-02 -1.65447265e-01 +3.09031606e-01 +6.62561059e-02 +3.91727805e-01 +4.96481284e-02 -2.91958563e-02 +3.93343598e-01 +4.71345000e-02 -2.58520842e-02 +1.25841141e-01 -9.37268361e-02 +1.58231094e-01 -2.18405560e-01 +4.05892134e-02 -4.03579116e-01 -2.11816296e-01 -2.26396531e-01 -1.07387573e-01 -8.32620040e-02 -1.69352859e-01 -6.11405745e-02 -2.73523927e-01 +1.51441157e-01 +2.47554705e-01 -2.29966789e-01 +3.11957985e-01 +3.76240849e-01 +2.09257871e-01 +3.83796841e-01 +3.14222574e-01 +1.18410856e-01 +1.49467975e-01 -1.09210804e-01 +7.92021900e-02 -2.15896890e-01 -2.60872126e-01 -6.69849068e-02 -3.87129188e-01 -4.74068224e-01 -5.63264310e-01 +1.16879813e-01 +3.40598613e-01 +4.00008827e-01 -1.72238778e-02 -3.25248420e-01 +1.10987298e-01 -1.84230864e-01 -2.30291467e-02 +6.93446919e-02 -3.03910166e-01 +4.43154246e-01 -4.34091628e-01 -1.24597438e-02 +6.99258596e-02 -4.79722805e-02 -2.25154355e-01 +1.57517523e-01 -2.19380215e-01 +6.07479364e-02 -1.11664616e-01 -3.39871854e-01 +2.05718413e-01 -4.94153887e-01 -2.25510731e-01 -1.53018773e-01 +9.45484266e-02 +1.85838863e-02 -5.27725108e-02 -2.40317911e-01 +2.49119282e-01 -2.65279919e-01 -4.07560378e-01 -1.54219389e-01 +1.40299335e-01 -3.30099910e-01 +1.01698585e-01 -1.72970578e-01 -6.05423339e-02 -1.39631137e-01 +4.24919510e-03 +1.10704355e-01 -1.11561850e-01 +7.27647468e-02 -4.68001291e-02 +1.07305169e-01 +1.57790467e-01 -4.09695953e-02 -1.64488941e-01 +2.32798997e-02 +1.44960791e-01 -1.21476538e-01 +2.34704271e-01 +2.77065746e-02 +1.22431472e-01 +2.61295289e-01 -2.67252952e-01 +9.78261977e-02 -2.25789428e-01 -1.11977465e-01 +2.35128522e-01 -8.44163448e-02 -7.22923875e-02 +1.58445656e-01 +3.11059743e-01 +1.12523481e-01 -3.68301600e-01 +1.68573245e-01 -2.07605869e-01 -4.03720111e-01 +1.27675548e-01 -2.78816551e-01 -1.17958738e-02 -1.87979698e-01 -1.37218341e-01 -4.17303108e-02 -4.50904697e-01 -3.15752387e-01 -2.24595785e-01 +3.88357371e-01 +2.12797523e-01 -2.48677537e-01 -3.41904610e-01 +2.03931257e-02 -2.60947108e-01 +3.40772606e-02 -2.02019632e-01 -3.05854142e-01 +1.12339370e-01 -3.41785908e-01 -3.80622715e-01 +6.36632264e-01 -2.49043386e-02 +3.84659842e-02 -2.05397829e-01 +3.91351074e-01 +4.82065141e-01 +1.00213096e-01 +6.26777470e-01 +6.36097610e-01 +4.69223469e-01 +3.20490658e-01 -3.11743468e-01 +2.78797895e-01 -2.19113231e-01 +1.50322005e-01 -2.09390491e-01 +1.18707977e-01 +4.13343936e-01 -1.18228421e-01 +3.51395458e-01 +1.46518275e-01 +1.73123464e-01 +1.04187317e-01 +2.50478834e-01 -3.15437205e-02 -3.48881334e-02 +1.94797486e-01 +3.64762664e-01 +9.83051397e-03 -1.95986908e-02 +1.02451950e-01 +2.57853210e-01 +2.85113424e-01 +3.65717202e-01 +1.43587459e-02 +2.85875618e-01 -1.80833980e-01 +7.54541606e-02 -4.19897765e-01 -2.00843662e-01 +2.96901137e-01 +2.07506374e-01 +5.36799952e-02 -2.82785267e-01 -3.25185321e-02 +9.76023376e-02 +3.33121657e-01 +3.18733126e-01 +4.99851078e-01 +5.07856905e-01 -4.15390044e-01 +1.07110269e-01 -4.25231576e-01 +2.43822575e-01 -4.93332714e-01 -8.18246067e-01 +8.50101262e-02 -7.65012026e-01 -7.30240047e-01 -6.14475310e-01 -3.53053659e-01 -1.05721831e-01 +1.12943612e-01 +3.04331869e-01 +3.67751420e-02 -1.83509693e-01 -4.00203854e-01 -5.22276282e-01 +6.05101585e-01 -4.66125071e-01 -5.49609475e-02 -1.26191095e-01 -3.74240220e-01 -2.64939159e-01 +4.07087922e-01 -1.04912743e-01 -4.07764345e-01 -2.75012583e-01 +6.52026162e-02 +3.10791641e-01 +1.55017510e-01 -2.43028283e-01 +2.02014595e-01 +1.86165452e-01 +2.89332688e-01 +3.70578885e-01 +5.76659888e-02 -2.26261288e-01 -4.22356635e-01 -1.67660505e-01 +1.72583188e-03 +3.92539680e-01 -1.25480399e-01 -3.68604571e-01 -1.55953586e-01 +6.38634637e-02 -3.81124824e-01 -1.47235453e-01 +6.65127337e-02 -9.63335708e-02 -1.69773638e-01 -3.15569967e-01 -1.43014237e-01 -5.39604165e-02 +3.56659740e-01 +3.08333963e-01 +1.76143393e-01 +4.93422061e-01 +3.52981269e-01 +3.56931984e-01 +2.66051888e-01 -8.57160315e-02 +3.65724474e-01 -2.66085297e-01 +4.87991944e-02 -3.85887593e-01 -1.90995112e-01 +4.17543910e-02 -2.68627405e-01 +3.77748817e-01 +1.65362179e-01 +1.07498012e-01 +4.18447196e-01 -7.26542830e-01 -4.48552698e-01 +1.67419821e-01 -8.02354664e-02 +6.38672531e-01 +3.13323110e-01 +5.59144497e-01 +7.92064071e-01 -1.82232466e-02 +7.61965513e-01 +8.78964245e-01 +1.10141718e+00 -2.64147967e-01 +1.11480609e-01 +2.51588792e-01 -2.88683981e-01 -1.89596042e-02 -1.78114116e-01 +6.17994905e-01 +1.12434340e+00 -4.56156552e-01 +7.52381504e-01 -5.62069476e-01 +6.13378584e-02 +2.96909869e-01 -7.56070837e-02 -1.44278124e-01 -6.97316304e-02 -1.38398662e-01 +2.26643488e-01 +4.85579818e-02 +2.32817963e-01 -8.61730501e-02 -1.09256111e-01 +2.95762178e-02 -3.93480867e-01 -2.67333567e-01 -1.24609068e-01 -2.19652638e-01 -4.36153203e-01 -2.34612137e-01 +1.76323190e-01 +3.44236284e-01 -1.01951100e-01 -7.53791854e-02 -3.38065267e-01 +1.13000110e-01 +1.49221122e-01 -1.16473526e-01 +1.30597964e-01 -4.49686289e-01 +3.87508981e-02 +2.19323412e-01 -3.51352066e-01 -1.99695468e-01 -1.76939234e-01 -2.44187787e-01 -1.96949631e-01 -8.70376304e-02 +6.33145422e-02 -1.02598779e-01 -2.27088109e-02 +2.74402946e-01 -1.50997549e-01 +9.18385088e-02 -1.01354145e-01 +1.98204756e-01 +1.69613197e-01 +1.47247016e-01 +1.56189546e-01 +2.28594810e-01 +2.28906646e-01 +2.19087929e-01 -5.40544502e-02 
#Parameter# /_14 {25,25} 10001 ZERO_GRAD
-1.79808497e-01 +2.59446770e-01 +2.35420391e-01 -8.94393101e-02 -1.96125805e-01 +1.99771062e-01 -1.72082141e-01 -3.07099193e-01 +1.41049668e-01 -1.64594665e-01 -3.62957686e-01 -4.91194546e-01 -3.64946276e-01 -1.09921448e-01 +1.35694414e-01 -4.41878349e-01 +7.13485405e-02 +3.24651331e-01 -1.58737302e-01 -2.64331967e-01 -2.52819270e-01 -6.68133721e-02 -2.12604582e-01 -1.19068436e-01 +1.50683865e-01 +2.88424045e-01 +4.30513501e-01 +2.45854363e-01 -2.14585409e-01 +4.14193012e-02 +1.64025620e-01 -3.20378572e-01 -1.16505809e-01 +1.65450662e-01 +1.16423648e-02 +2.39054382e-01 +2.81910934e-02 -1.46367192e-01 -4.07872014e-02 +1.72214373e-03 -4.45912451e-01 +4.39466685e-01 +3.15078616e-01 -3.63039374e-02 -1.05043262e-01 -2.67423749e-01 +2.23435357e-01 -3.01853895e-01 -2.55296230e-01 +2.95555383e-01 -2.23615795e-01 -3.60004574e-01 -4.39432234e-01 +1.07167058e-01 +1.20499574e-01 +7.21668974e-02 -4.13076803e-02 -1.42531186e-01 -6.04295619e-02 -2.88906008e-01 -5.93835354e-01 +1.04250841e-01 +1.83358610e-01 -3.69304866e-02 +2.78100036e-02 -3.49857360e-01 +1.51820615e-01 +3.55468184e-01 +2.55658567e-01 -6.03347361e-01 -3.50480787e-02 +5.51365279e-02 +1.29581932e-02 +1.38564914e-01 -5.57200313e-02 +1.73877820e-01 +1.66361392e-01 +2.41008297e-01 +2.04598248e-01 +6.31978065e-02 +2.12750539e-01 -3.49740118e-01 -3.70410085e-02 -3.58648568e-01 +1.00975439e-01 -1.50464952e-01 -1.04287311e-01 -3.38851124e-01 -8.84542465e-02 -2.31999710e-01 +9.36710164e-02 -6.65863007e-02 +2.60644797e-02 -1.57287151e-01 -4.10619378e-02 +1.01310924e-01 -2.27804296e-02 +2.15254873e-01 +1.49038777e-01 -1.17516942e-01 -8.98425877e-02 +7.52887502e-02 +4.61360574e-01 -2.79333711e-01 +2.00144291e-01 -3.54424328e-01 +5.22842631e-02 +5.09575345e-02 -2.96905816e-01 -3.18967849e-02 +1.06060551e-02 +9.88016054e-02 -2.57454097e-01 +3.70975554e-01 +1.73977241e-01 -2.28732526e-01 +3.11497718e-01 -4.37773131e-02 +1.64267227e-01 +1.96486220e-01 -2.77729690e-01 -1.05610490e-01 -1.09258272e-01 -2.88474023e-01 -5.51010435e-03 -1.97807446e-01 -2.42295295e-01 +1.91508364e-02 -1.82155624e-01 +2.28021219e-01 +4.43157315e-01 -1.45517103e-02 +1.77864898e-02 +4.53425944e-01 +2.12544695e-01 +3.40031713e-01 +2.51245499e-02 -5.48743531e-02 +1.37872532e-01 -1.93553105e-01 +9.51698795e-03 -1.24696471e-01 +4.49766293e-02 +1.08412690e-02 -4.52753380e-02 -1.97791949e-01 +9.38800648e-02 +1.82361901e-01 +2.26345375e-01 -2.00846002e-01 +2.17087984e-01 +3.18773612e-02 +3.32470089e-01 +2.97332674e-01 +2.58856088e-01 -5.26540019e-02 -2.23818973e-01 +2.94656992e-01 -9.11624916e-03 +3.80423963e-01 +5.08126497e-01 -8.41912180e-02 -1.21109873e-01 -1.47104159e-01 +2.48795107e-01 +1.14114031e-01 +2.91096438e-02 +2.41713226e-01 -1.85946152e-01 +1.67938918e-01 +1.67450488e-01 -2.51934379e-01 +1.39644504e-01 -1.09161353e-02 +3.45342040e-01 +9.66455191e-02 -9.71485227e-02 +1.45376518e-01 -3.74844521e-01 -2.61983335e-01 +5.78199439e-02 +2.60316819e-01 +1.53497219e-01 +7.82804098e-03 +1.48308262e-01 +1.06121944e-02 +1.61239520e-01 +2.11228952e-01 +1.62810862e-01 -1.48571670e-01 +2.69325882e-01 -9.22575220e-02 -2.05937147e-01 -1.37082189e-01 +2.73090750e-01 -5.48726171e-02 +1.01867460e-01 +9.56583023e-02 -1.14362694e-01 -8.99972990e-02 -3.56500179e-01 +8.72876793e-02 +2.60404587e-01 -4.01065469e-01 +1.58802103e-02 -3.57912332e-02 +2.63130188e-01 -1.02077521e-01 +1.73928171e-01 +2.06096768e-01 +5.40615581e-02 +4.25458193e-01 -4.27903347e-02 +4.98806238e-01 -3.13534737e-01 -3.26679856e-01 -4.55452859e-01 -3.92079085e-01 +2.16420203e-01 +2.94699401e-01 +2.33804107e-01 +5.76738119e-02 -2.26181552e-01 -1.68573558e-01 -2.80548364e-01 -1.79316282e-01 -1.98522910e-01 +1.21791533e-03 -4.32461143e-01 -2.93749511e-01 -1.28312975e-01 -2.38918617e-01 -2.57361412e-01 -3.66065025e-01 -8.85762647e-03 -2.09687039e-01 -2.61297941e-01 -4.71273959e-01 -4.15241897e-01 -4.89873253e-02 -3.03577513e-01 +1.94775552e-01 -3.02629709e-01 +2.75820822e-01 -2.30800614e-01 -8.99831206e-02 +6.20438866e-02 +4.91576977e-02 +1.22732691e-01 -1.58723205e-01 -1.34211943e-01 +1.18014291e-01 -1.54668465e-01 -1.31080048e-02 +1.75430119e-01 +4.07766759e-01 -3.89338642e-01 +4.79315907e-01 -2.03946888e-01 +1.89320654e-01 -3.67852934e-02 -9.91234258e-02 +1.74202099e-02 +2.36142159e-01 -3.15205827e-02 +2.03927517e-01 -1.45709753e-01 +3.96349318e-02 -4.03180048e-02 +3.74227732e-01 -1.36830583e-01 -1.14426516e-01 +2.56318629e-01 -2.30927303e-01 -3.13563980e-02 +4.03664827e-01 -1.86418623e-01 +1.66166812e-01 -2.40977347e-01 -2.92629302e-01 -2.23507598e-01 +1.05395302e-01 +3.75106484e-01 -1.40918672e-01 +3.09476256e-01 +1.45212011e-02 -1.15750976e-01 +2.71486551e-01 +5.01801372e-02 +7.28365853e-02 -6.13166317e-02 +2.08002761e-01 +6.53052926e-02 -1.63293615e-01 +4.17947441e-01 -6.39939725e-01 +1.50472254e-01 +5.23413979e-02 -4.88782555e-01 +2.82094300e-01 -8.12096428e-03 +1.10063935e-02 -3.68501619e-02 +3.49923104e-01 +3.63571830e-02 +3.04072320e-01 +1.00830987e-01 -9.90372524e-02 -2.91736752e-01 +1.27293557e-01 -4.58705753e-01 -2.98985124e-01 -1.55726910e-01 -2.59636134e-01 +4.73905690e-02 -1.88839957e-01 +8.42484552e-03 +2.23416135e-01 -2.78318405e-01 -5.20968497e-01 +2.01344341e-01 +2.10818246e-01 -1.37688145e-01 +4.94635887e-02 +2.09832102e-01 +3.31422299e-01 +3.77218127e-01 -4.08775732e-02 -4.53257322e-01 +3.65558356e-01 +4.46360379e-01 -5.96933067e-02 +3.07486087e-01 +5.82361110e-02 +5.74911665e-03 +3.86390567e-01 +2.71986008e-01 +3.14283460e-01 +3.33768994e-01 +8.90566409e-02 -7.27408156e-02 +1.57671615e-01 -1.00732751e-01 -1.98941037e-01 -1.05398878e-01 -3.13817352e-01 +8.94712284e-02 -5.69690950e-02 -4.10664737e-01 +4.01388854e-01 +4.47951466e-01 +4.95631844e-02 +2.59587288e-01 -7.55161643e-02 +2.76164293e-01 +1.86268032e-01 +3.35740477e-01 -2.80009434e-02 +2.81103969e-01 -3.07891034e-02 +2.85810590e-01 +1.01516051e-02 +2.53398985e-01 -2.37150058e-01 -4.07456867e-02 +6.29935637e-02 +2.31225446e-01 -8.42242166e-02 +3.50388348e-01 +1.55062936e-02 -1.51063904e-01 +6.95564374e-02 +5.63302077e-04 -1.90628871e-01 +1.55569911e-01 -1.11343667e-01 +1.54979331e-02 -5.98874867e-01 -2.39377320e-01 -3.24107319e-01 -3.41427773e-01 +6.60122037e-02 -2.56147653e-01 -1.24748074e-01 -3.85500968e-01 -2.13179708e-01 -1.43891320e-01 -1.10009789e-01 -5.01499809e-02 -1.39192834e-01 +2.17717037e-01 +1.04220375e-01 +8.88786511e-04 +1.40596226e-01 -3.19932044e-01 -2.90062398e-01 -1.91335738e-01 +1.25391528e-01 -2.85645157e-01 -2.35117674e-01 -4.53563631e-02 -2.53270388e-01 +3.31462443e-01 +8.94122496e-02 -2.27024645e-01 -1.46744996e-01 +1.51582643e-01 +2.63423979e-01 +2.58753952e-02 -4.00281101e-01 +5.75957820e-02 +8.47160593e-02 -2.05282211e-01 -3.17453533e-01 -2.23245084e-01 -3.97838354e-02 -9.93530601e-02 +1.79263666e-01 +9.25361738e-02 -1.49619281e-01 +1.64911002e-01 +1.61347687e-01 -2.87874699e-01 -9.58896875e-02 +2.21222132e-01 -6.61448836e-02 +3.40094417e-01 +1.29337475e-01 +1.10147014e-01 -3.46034825e-01 -2.38370240e-01 +1.11431584e-01 -2.21480101e-01 +4.69117686e-02 -3.96824807e-01 -1.52427644e-01 +6.42116554e-03 +9.78645608e-02 -2.63326794e-01 -1.50735095e-01 +1.98411569e-01 -2.77577519e-01 +2.66815066e-01 +2.22242936e-01 -2.10777640e-01 -1.10909462e-01 +2.02132831e-03 +4.81644385e-02 -1.99670702e-01 +1.87774122e-01 +1.85858741e-01 +2.40290910e-01 +2.39983529e-01 -1.75583094e-01 +2.93986380e-01 +1.25471517e-01 +7.54069984e-02 +1.16433986e-01 +7.25799501e-02 -8.27888101e-02 +2.30314746e-01 +8.45120326e-02 -3.15244615e-01 +1.11557037e-01 +2.05434293e-01 +5.92748486e-02 -4.51790504e-02 +1.82098180e-01 +4.26886529e-02 +2.02764258e-01 -1.64322212e-01 +6.77257627e-02 -2.21669719e-01 +3.61606181e-01 -2.72439510e-01 -7.83474147e-02 +1.51227430e-01 -3.21198046e-01 -4.81564879e-01 +5.67858368e-02 -3.02800447e-01 -3.69373381e-01 -2.55529303e-02 +1.21815749e-01 -2.82562198e-03 +9.38990265e-02 +1.97796803e-02 +1.91650197e-01 +2.26143762e-01 +2.09592104e-01 +1.31393790e-01 -1.69830978e-01 -2.01462299e-01 +4.45510224e-02 +2.48885512e-01 -1.28873307e-02 +3.23081553e-01 -3.06484252e-01 -3.46216261e-01 -1.14642143e-01 +2.75463253e-01 -2.38270070e-02 -3.47887888e-03 +2.44111970e-01 -2.02643082e-01 -2.02207148e-01 +1.51201468e-02 +3.16565603e-01 +3.12985294e-02 -2.64654249e-01 +1.79998368e-01 -1.39813095e-01 -1.55852467e-01 -3.72060984e-01 -3.40448439e-01 -4.17123169e-01 -2.68405795e-01 +2.80123442e-01 -3.61789137e-01 +1.24555349e-01 -4.05164719e-01 -4.10720007e-03 -2.54654735e-01 -2.58065820e-01 -3.89070600e-01 +3.05230886e-01 +2.03636006e-01 +4.52334702e-01 +2.75365949e-01 -1.83155000e-01 +2.48462811e-01 -3.31077695e-01 +1.83520317e-01 +3.31074238e-01 -2.70330280e-01 -1.17490604e-03 -6.58761635e-02 +1.55828029e-01 +6.30459309e-01 +2.70857602e-01 +1.70247674e-01 -1.51807100e-01 -4.08306271e-02 -1.68839931e-01 +5.12509346e-01 +4.87256758e-02 -2.82713711e-01 -1.20782278e-01 +2.64381111e-01 +1.46128312e-01 -2.07359269e-01 -1.31219812e-02 -1.04904272e-01 -3.59083176e-01 +3.58283728e-01 -2.60044765e-02 +2.56720364e-01 +8.71615186e-02 +3.10820509e-02 -2.54823267e-02 +4.39088881e-01 +1.76523462e-01 +1.11758500e-01 -6.56942576e-02 +8.49521682e-02 +1.86877400e-01 +1.24196395e-01 +3.10044736e-01 +2.64702678e-01 -4.88014854e-02 -4.62042764e-02 +2.60101706e-01 -2.40790769e-01 -2.64721394e-01 -2.82891214e-01 -2.59720802e-01 +1.90618694e-01 -2.06516907e-01 +1.24924392e-01 +9.52979252e-02 -1.41776679e-02 -1.04850598e-01 -1.19117938e-01 +3.53161007e-01 -6.54541850e-02 +9.34269130e-02 +2.88187593e-01 +3.25770557e-01 +2.91882843e-01 -3.29095602e-01 +4.65712190e-01 -2.24039853e-01 -1.98951259e-01 -4.98435646e-02 -6.79301843e-02 -2.28299722e-01 -2.48325869e-01 +9.61215273e-02 -2.10613221e-01 -1.03016920e-01 +1.05233401e-01 -6.81408197e-02 -2.87152976e-01 -2.45115936e-01 +3.01752776e-01 -2.09565312e-01 +2.66711086e-01 +2.43517354e-01 +1.31244257e-01 +8.65899324e-02 +8.59718844e-02 -3.94482650e-02 -2.76548505e-01 +1.84857324e-01 -2.77128726e-01 +1.09041341e-01 +1.96769118e-01 -4.97569256e-02 -4.49474782e-01 +1.96660966e-01 +2.36106724e-01 -2.92711526e-01 -1.97414875e-01 -3.09929967e-01 -1.44313261e-01 
#Parameter# /_15 {25} 401 ZERO_GRAD
-9.86486971e-02 +1.87781379e-01 +2.83252418e-01 +2.83545315e-01 -3.55928481e-01 -1.55964661e-02 -7.67333210e-02 -2.84388959e-01 -4.21867698e-01 -7.41201490e-02 +6.92532137e-02 -3.89535844e-01 +5.88089749e-02 -6.73929453e-02 -8.37514084e-03 +1.59332156e-02 -2.41057947e-01 -2.07374394e-01 -2.17474565e-01 +1.62554160e-01 +3.45301211e-01 -1.09307468e-01 +2.38240525e-01 +3.39953870e-01 -2.91563272e-01 
#Parameter# /_16 {25,25} 10001 ZERO_GRAD
+2.16729641e-01 +2.63174832e-01 -1.72073439e-01 -1.51261747e-01 +2.81330347e-01 +6.05444014e-02 +1.77882969e-01 -3.28281224e-01 -2.78917581e-01 +2.23660946e-01 +3.34293842e-01 -8.04162621e-02 -1.62168264e-01 +9.08875763e-02 +2.96254456e-01 -2.94808805e-01 +2.10202515e-01 -1.99889764e-01 +2.08031535e-01 +2.88908601e-01 -1.43131748e-01 +1.22898012e-01 -1.72185928e-01 -1.10474795e-01 -3.10934752e-01 -1.50649622e-01 -2.87078559e-01 +9.58293676e-03 -2.00782746e-01 +1.35869235e-01 +1.14392370e-01 -1.86494917e-01 +1.19920820e-01 -2.52127498e-01 +1.27290815e-01 -2.65902579e-01 -2.12510511e-01 +1.10609025e-01 -1.89879447e-01 +2.60978699e-01 -1.32219419e-01 +1.05995774e-01 +3.08760583e-01 -2.43548706e-01 +3.90559435e-03 +1.72826588e-01 +2.53206611e-01 +2.32898772e-01 +2.67017663e-01 -1.65052742e-01 -9.04245079e-02 -1.89860344e-01 -3.14091802e-01 +3.01431000e-01 -1.09607577e-02 +2.22595870e-01 -2.69237459e-02 -3.55362296e-02 +5.13168275e-02 -2.60455608e-01 -1.75614923e-01 +1.99437916e-01 +7.54973292e-02 +1.56794310e-01 -1.70818105e-01 -2.41000652e-02 +1.74164891e-01 -3.18591684e-01 +1.26618862e-01 +1.41432911e-01 +2.42408633e-01 -1.32753432e-01 -2.47381464e-01 +2.29509473e-02 -9.37771499e-02 -1.00391313e-01 +5.49301505e-02 +2.78875291e-01 -1.33144587e-01 +4.23234105e-02 +1.94879234e-01 +1.60599828e-01 -6.27363920e-02 -2.45009392e-01 -1.78006366e-01 +2.80972838e-01 -2.12163955e-01 -1.64549008e-01 -2.23178059e-01 -2.99645662e-01 -2.05702245e-01 -2.41014481e-01 -2.75868237e-01 -3.00029814e-01 +1.11141711e-01 -6.42656684e-02 +3.14194262e-01 +2.97763288e-01 +3.83447111e-02 +3.41158926e-01 -2.56556213e-01 -2.91288137e-01 +8.32182765e-02 -2.86461055e-01 -5.53706884e-02 +3.43184590e-01 -1.50531739e-01 +2.00247645e-01 +1.82321906e-01 -7.23247230e-02 -3.14694405e-01 +2.36068368e-01 +3.25294912e-01 -1.28630698e-02 +3.10808599e-01 -2.80937970e-01 -2.48648733e-01 -8.54449570e-02 -1.21162504e-01 +8.58461261e-02 -1.73736989e-01 -5.09553850e-02 -2.69287288e-01 -2.43031412e-01 +4.48415577e-02 +6.02561831e-02 -2.43839592e-01 -2.77731419e-01 +4.16620970e-02 -2.54571736e-02 +2.45723426e-01 +1.48302823e-01 -1.79401889e-01 -8.72871280e-02 +7.50175416e-02 -2.27726310e-01 +2.33884335e-01 +2.20935822e-01 -4.43278849e-02 +1.51663393e-01 +2.87473202e-03 +1.16946816e-01 +1.75096571e-01 +1.61602974e-01 +3.07024360e-01 +3.31955075e-01 -8.99682045e-02 +3.39431107e-01 +9.57861543e-03 +1.68125451e-01 -1.48058295e-01 +3.31599534e-01 +2.89116859e-01 -2.32458115e-02 +3.15786362e-01 -8.93686116e-02 -3.18041444e-01 +6.77529573e-02 +1.47295892e-02 -2.74158418e-02 -3.35816860e-01 +1.83669329e-01 -3.25062871e-01 +1.67424679e-02 +2.07085848e-01 +3.38123560e-01 +1.27807498e-01 -1.63853958e-01 +2.19943643e-01 +3.07082832e-01 -1.59910411e-01 -2.14850813e-01 -2.64887542e-01 +3.03945124e-01 +7.30338991e-02 +1.91259921e-01 -4.33045924e-02 +6.51279092e-02 +6.34633601e-02 -1.92073122e-01 +3.22495282e-01 -3.16302091e-01 +2.27717221e-01 -6.83843791e-02 -2.06215113e-01 -2.13921070e-04 -2.11495668e-01 -1.69711873e-01 +3.40016484e-01 -3.21450710e-01 -3.27144384e-01 +9.96102393e-02 +2.56391466e-02 -1.96997136e-01 -1.41091779e-01 -1.58035636e-01 -2.51161546e-01 -2.72099078e-02 -3.41071397e-01 +1.59088135e-01 +3.41454744e-01 +2.42670536e-01 +5.48365414e-02 +2.35737264e-01 +1.88503742e-01 +1.89946830e-01 +1.99422181e-01 -1.57882765e-01 +7.24873543e-02 -5.01596630e-02 -1.30851880e-01 -2.10078001e-01 -3.26978117e-01 +2.46327221e-02 -7.52719641e-02 +5.24507463e-02 -3.38925302e-01 +1.59353614e-02 +3.34205866e-01 -3.10960859e-01 +1.11538827e-01 +3.34138691e-01 +5.23604751e-02 +2.30571508e-01 -1.54281467e-01 -1.82702065e-01 +2.00976133e-02 -2.09134310e-01 +2.13195026e-01 +1.12705529e-02 +2.65077293e-01 +1.81134164e-01 +1.29635930e-01 -2.32999921e-01 +2.66355991e-01 -1.98751360e-01 -3.57351303e-02 -2.83057302e-01 -1.44398808e-02 +1.88074112e-02 -2.71878809e-01 -2.97628224e-01 -2.26160914e-01 -1.56564921e-01 -6.44478202e-03 +1.80355608e-02 -3.41749877e-01 +4.30644453e-02 -1.21296540e-01 +1.39029771e-01 +6.82888031e-02 +2.37328410e-01 +1.58347666e-01 -7.62540400e-02 +2.06565559e-01 +9.89163518e-02 -1.38269246e-01 +1.09767795e-01 +1.86788738e-02 +2.36343443e-02 +2.41221368e-01 +1.20707005e-01 +2.48094797e-01 +1.17785692e-01 -1.33674547e-01 +8.03284049e-02 -1.20599151e-01 +2.18371928e-01 -8.60008597e-02 +7.19897747e-02 +1.82826042e-01 -6.88324571e-02 +3.17901015e-01 -1.67176515e-01 -1.34573087e-01 +2.08945990e-01 -3.52415442e-03 +8.34023058e-02 -3.07364047e-01 -4.60594893e-02 -9.33484733e-02 +3.32173824e-01 +2.20787644e-01 +2.13858724e-01 -2.33717561e-02 -1.68770269e-01 -9.60028470e-02 +3.43673646e-01 +1.73823416e-01 -1.44075766e-01 -3.39334339e-01 +2.13085830e-01 -6.70424700e-02 +3.32146108e-01 -2.53384978e-01 -2.63013363e-01 +3.42663169e-01 -1.93431482e-01 -1.76045105e-01 -6.14222884e-03 -2.28442505e-01 -3.18396270e-01 -1.36873797e-01 -1.55032650e-01 -3.08408797e-01 -1.82666674e-01 -1.62289798e-01 +1.48284733e-01 -2.34345287e-01 +1.38395995e-01 -3.26836824e-01 -8.51070881e-03 +1.99781358e-01 -2.36934423e-03 +1.75422907e-01 +2.07278848e-01 -1.54281735e-01 +5.23905754e-02 +2.69167721e-01 +1.07090265e-01 -1.60817295e-01 +3.45606625e-01 -1.36149660e-01 +1.78925693e-01 +5.40787280e-02 -2.59758592e-01 +3.46350372e-01 +2.52252042e-01 +2.41625905e-02 -3.17164183e-01 +2.05702960e-01 +7.44582415e-02 +3.10068190e-01 -3.23810518e-01 -1.93181142e-01 +1.39131457e-01 -2.16939405e-01 +5.69091141e-02 +4.74241972e-02 +1.19688749e-01 -2.21084505e-01 -2.72559822e-02 -3.21221709e-01 +2.53287017e-01 -5.00181615e-02 -1.82154551e-01 +2.30760813e-01 -2.64581591e-01 +3.18519950e-01 +1.43483549e-01 -9.97083932e-02 +2.35822260e-01 -2.80108392e-01 -2.73781389e-01 +2.45463848e-02 +1.07724965e-02 +1.19912326e-01 +3.40085626e-01 +3.20485532e-01 -2.89594322e-01 +6.77624345e-03 -3.24767470e-01 -9.50083137e-02 -1.52538240e-01 -6.10641837e-02 +2.30056286e-01 +1.07410789e-01 +2.38705873e-02 -6.40941858e-02 -2.55710781e-02 -1.23774931e-01 +9.10308957e-03 +1.96465373e-01 -1.93232358e-01 -2.42105916e-01 +1.86137199e-01 +3.13284397e-01 -2.89774656e-01 -3.08729857e-01 +2.77959168e-01 -1.99690923e-01 -1.90324292e-01 +1.22377127e-01 -3.99268568e-02 -3.76468003e-02 -2.80652523e-01 -3.42764556e-02 +2.02898204e-01 +1.07400745e-01 +2.72669852e-01 -5.24678230e-02 +5.39908409e-02 +9.46038067e-02 +2.05039561e-01 +1.30005181e-01 +1.11617923e-01 +3.44319046e-01 -3.17554057e-01 +1.92938626e-01 +1.35803640e-01 +2.97536790e-01 +3.43878567e-01 +3.99642289e-02 -2.91060984e-01 -2.02155650e-01 -3.11738253e-03 -3.37961584e-01 -9.07252431e-02 +1.07041031e-01 +2.71393120e-01 -2.57762462e-01 +2.87097692e-01 +1.04833841e-01 +7.10706413e-02 -1.04910359e-01 -2.18491003e-01 +1.02135479e-01 -1.73849270e-01 +1.97266638e-01 +1.39449865e-01 -8.48841667e-02 +2.21434176e-01 -2.57861406e-01 +4.20709252e-02 +2.52353072e-01 +2.56209254e-01 +2.12066352e-01 +2.86181390e-01 +3.25314641e-01 +2.74770796e-01 -6.06467724e-02 -2.46068835e-02 +1.44670606e-01 -2.02529922e-01 -3.31116140e-01 +2.79305458e-01 -2.20027894e-01 +2.38153040e-01 -2.46818364e-01 -5.74687123e-02 +3.44400346e-01 +2.46516287e-01 -8.83387327e-02 -2.55609721e-01 +1.85534239e-01 -1.84508204e-01 -2.72883713e-01 +1.03156626e-01 -1.72999531e-01 -2.20435262e-01 +2.98011541e-01 -1.91637844e-01 -2.31160641e-01 +6.91925585e-02 +2.79423475e-01 -2.04277664e-01 +1.24439597e-03 -2.60918826e-01 +1.31010413e-01 -3.36235762e-01 +1.76234663e-01 +2.26292312e-01 -2.93810368e-01 +9.09706354e-02 -2.58374184e-01 +1.63317919e-01 +2.65043676e-02 -2.99423307e-01 +2.85276473e-01 -2.10400552e-01 -3.94105017e-02 +3.35217535e-01 +2.67890871e-01 -8.60563219e-02 -1.86729223e-01 +4.59570885e-02 +7.54198432e-02 -6.67870641e-02 -1.98773310e-01 +6.96302950e-02 +2.75493622e-01 -3.13244551e-01 +1.88135207e-01 +2.90772080e-01 -7.74241090e-02 +1.96408510e-01 -8.03449452e-02 -1.85927704e-01 +2.25320280e-01 +5.89750707e-02 +2.43917704e-01 +1.32468164e-01 -2.12537602e-01 -8.54333341e-02 +2.71686733e-01 +2.58342803e-01 -2.14519203e-01 -2.74420857e-01 -1.88515991e-01 -3.17892820e-01 -1.90399840e-01 +3.33720624e-01 +2.73115456e-01 +3.00794244e-01 +1.30821556e-01 +3.42877865e-01 -2.87895024e-01 +8.14306736e-03 +9.55606103e-02 +3.09757948e-01 -2.08440021e-01 +1.99923098e-01 -2.04430640e-01 +1.32187396e-01 -8.24649334e-02 +2.10254252e-01 -2.43046314e-01 +2.45082080e-01 -2.64086127e-02 +3.45875144e-01 -3.39724123e-02 +5.21494150e-02 +1.98703349e-01 -1.77362859e-02 -3.43764037e-01 +4.66579497e-02 +1.71658218e-01 -8.52456987e-02 -1.34099945e-01 -3.57395411e-03 -1.08173326e-01 +3.60455513e-02 -2.98579365e-01 -2.44515583e-01 +2.27930009e-01 +7.95387626e-02 +2.81049967e-01 +2.12227345e-01 -1.63557291e-01 +1.35006547e-01 -2.08670586e-01 -3.30448747e-01 +7.89733529e-02 -6.66181147e-02 -1.60102680e-01 -3.04000258e-01 -1.44690722e-01 +2.56174803e-01 +8.41278732e-02 -9.35078561e-02 +3.12706232e-01 +1.80366814e-01 -1.53199300e-01 +9.86053646e-02 +2.44498909e-01 -2.55094528e-01 -3.10467750e-01 -8.44553411e-02 -2.85097450e-01 -5.11769354e-02 +1.86897635e-01 +1.08593941e-01 +4.03800607e-03 +2.23097563e-01 +8.95123184e-02 -6.80513084e-02 -1.84187293e-03 -1.88785627e-01 +1.54244721e-01 -2.54077077e-01 +4.12738323e-03 +3.37551713e-01 -3.05937737e-01 -1.16051912e-01 +2.19103396e-01 -8.45232606e-03 -1.06306076e-02 +2.59119987e-01 -2.89149910e-01 +1.26776725e-01 -2.12418035e-01 -1.34024724e-01 -1.16973385e-01 -2.49989659e-01 +2.44526386e-01 -8.74823630e-02 +1.70341492e-01 -1.55036896e-01 -3.31633657e-01 +6.53435886e-02 +3.33855748e-01 +2.77839780e-01 -2.27251858e-01 -1.40132010e-02 +3.48230600e-02 +3.32765520e-01 -2.28741258e-01 +3.29797626e-01 -2.97156841e-01 +5.49503565e-02 -2.57550180e-01 +1.73299372e-01 -2.59736627e-01 -1.25974849e-01 -3.00383061e-01 -2.11278468e-01 +2.52797544e-01 -3.22196752e-01 -4.33765054e-02 -1.11307874e-01 +1.22810215e-01 +1.07957214e-01 +1.64578378e-01 +1.83115184e-01 -1.12029791e-01 +2.92122781e-01 +2.31920779e-02 -3.38414550e-01 +3.24360132e-01 -1.42495468e-01 -2.18500853e-01 -7.57187605e-03 +3.23610961e-01 -1.99804351e-01 -1.37916550e-01 
#Parameter# /_17 {25,25} 10001 ZERO_GRAD
+2.05982625e-02 -6.84562922e-02 -2.05493227e-01 -4.98208404e-03 +2.29605675e-01 -2.28624672e-01 +6.38383627e-02 -3.08664531e-01 -1.40506461e-01 -1.05755299e-01 +2.29861379e-01 +1.15847707e-01 -4.68862057e-03 -9.21366811e-02 -3.07152987e-01 -7.42397010e-02 -9.18409228e-03 +2.66752243e-01 +1.56405091e-01 +2.77706206e-01 -2.81538218e-01 -6.53119683e-02 -1.56433135e-01 +1.72336161e-01 -1.14047751e-01 -1.18580341e-01 -2.37900957e-01 +1.68504238e-01 -8.21550786e-02 -1.68376431e-01 +9.04695690e-02 -6.68938160e-02 -2.89268315e-01 +2.70377219e-01 -2.70222276e-01 +1.61083400e-01 +1.60879791e-01 -2.03140810e-01 +6.58571720e-02 +2.38246620e-02 +2.20341921e-01 +1.30514205e-01 +2.42863297e-01 -3.36646855e-01 +3.70721221e-02 -1.82131857e-01 -3.37137699e-01 -4.43249941e-04 -9.59550738e-02 -3.29617232e-01 +7.86986947e-02 -1.48533583e-01 +2.43731201e-01 +3.39350283e-01 +1.00966007e-01 -1.47244737e-01 +1.92427576e-01 -5.27800322e-02 -2.63205469e-01 -9.67712998e-02 -1.33559316e-01 -2.86658585e-01 +2.16363907e-01 -2.53320038e-01 +6.31568432e-02 +9.40787792e-02 +3.27435195e-01 +1.73385322e-01 -1.55668154e-01 +3.23877811e-01 -3.04912835e-01 +2.73043394e-01 -5.58771193e-02 -1.99909180e-01 +3.20823312e-01 -3.76543701e-02 +2.59180486e-01 +2.10139453e-01 -2.89875835e-01 +2.86798418e-01 -1.74839944e-01 -1.82946593e-01 +1.72148764e-01 -5.02873063e-02 +1.36435866e-01 +6.87068701e-03 -8.51280987e-02 +1.74066961e-01 -9.07595158e-02 +1.22317851e-01 +2.19432652e-01 +3.24865043e-01 -1.66055128e-01 -1.76972121e-01 -1.11419156e-01 -1.62563831e-01 +1.89309895e-01 +5.44020534e-02 -4.25768197e-02 +1.53577864e-01 +3.11628699e-01 -2.06315309e-01 -7.20498860e-02 +2.80311525e-01 +2.27534890e-01 -2.70461589e-01 -1.47897139e-01 -2.84273297e-01 +8.63143504e-02 +3.04094970e-01 +3.32639337e-01 -2.53231287e-01 -1.33834124e-01 -8.25146437e-02 -8.18738341e-03 +8.22601020e-02 +1.71428859e-01 -1.57736450e-01 +3.25355530e-02 +6.56610727e-03 +7.20268786e-02 -1.40942678e-01 -9.38340425e-02 +3.59287858e-02 +2.50805378e-01 -2.86490917e-01 +3.42802763e-01 -2.99961805e-01 -2.07281291e-01 -2.70541340e-01 -1.60235435e-01 -2.45781958e-01 -3.43802959e-01 -2.35306293e-01 +5.26546240e-02 -3.19025636e-01 -1.80467665e-02 +2.40144014e-01 -1.75032422e-01 +2.54448712e-01 -2.83267200e-02 -2.11005688e-01 -3.33491385e-01 -5.50287962e-02 -5.27779162e-02 -1.58912539e-02 -2.26142079e-01 -3.04995477e-02 -1.57723039e-01 -2.14525133e-01 +2.20926940e-01 +1.16891265e-02 -2.44523853e-01 -1.74549878e-01 -4.65613604e-02 +4.32089865e-02 -2.83435941e-01 -3.08233947e-01 -3.14618170e-01 -5.69593012e-02 -6.21658862e-02 -1.94212496e-02 +3.05392265e-01 -3.04937720e-01 -1.15732223e-01 +1.03025973e-01 -1.75082967e-01 +2.05345154e-01 +1.58616006e-01 +2.43091106e-01 -3.33965302e-01 +3.33027542e-02 -2.83098549e-01 -1.28473312e-01 -3.04880500e-01 +5.75006604e-02 +1.79840744e-01 -9.25269723e-03 +2.87287891e-01 +1.91274703e-01 -1.95533648e-01 -1.85691476e-01 +8.69518518e-02 +1.84020758e-01 +1.35692269e-01 +9.97847319e-02 +1.52877301e-01 -2.77132422e-01 -3.73008251e-02 +2.85136998e-02 -1.24259979e-01 +3.05861413e-01 +2.56250441e-01 +1.66467786e-01 -1.47006452e-01 -2.53934652e-01 -2.00703144e-02 -1.15475565e-01 -1.40575245e-01 -2.66673863e-01 -2.41361886e-01 +3.05063605e-01 +2.69045472e-01 +5.88767827e-02 -3.11171949e-01 -1.32659525e-01 +2.36334085e-01 -2.80997336e-01 -1.34161711e-02 -1.07547164e-01 +1.86426044e-01 -2.59543866e-01 -1.91453353e-01 +3.49737108e-02 +3.37802410e-01 -2.30413258e-01 -1.60774544e-01 +1.24309480e-01 +1.11131459e-01 -2.97434032e-02 -1.21698260e-01 -8.93700123e-02 -2.05701873e-01 -3.26669097e-01 -2.66000211e-01 -2.30811715e-01 -3.42576444e-01 -2.66354054e-01 +1.55761182e-01 -1.65415540e-01 -1.04409605e-01 +8.57988000e-02 -3.17363888e-01 +4.94867563e-02 -2.34249443e-01 +2.26691902e-01 +9.57613885e-02 -1.19434729e-01 +1.67490482e-01 -3.06841135e-02 +2.90534198e-01 +3.26871216e-01 -7.16436505e-02 -3.18793833e-01 -1.41507730e-01 +1.81634247e-01 -2.97926396e-01 -1.49473175e-01 +2.72409022e-01 +1.39886111e-01 -1.80851474e-01 +6.77394867e-03 -2.92943954e-01 +2.82819748e-01 -2.64572948e-01 -2.83388525e-01 -1.64160579e-01 -1.69866085e-01 +3.03419232e-01 +1.06888771e-01 -1.09262839e-01 -1.25186309e-01 +2.10992932e-01 -1.55545205e-01 -1.07890233e-01 -9.41197574e-02 -3.13151389e-01 +1.34553581e-01 -4.86478209e-03 -2.30963171e-01 -2.71093637e-01 +2.09433138e-02 +1.61653936e-01 -1.74490213e-01 +3.40993702e-01 +5.66206276e-02 -2.28112042e-01 -9.18772817e-02 -1.91535056e-02 -3.53375375e-02 -2.79002428e-01 -2.57195055e-01 -3.34042728e-01 -3.42294931e-01 +1.80594683e-01 -6.25511706e-02 -2.10589081e-01 -8.29182565e-02 -6.79832399e-02 +6.32525086e-02 +2.96586752e-03 -2.74970263e-01 +1.58514559e-01 +3.12157869e-01 +2.76963890e-01 +3.33537936e-01 +5.47225177e-02 -1.24180585e-01 -3.58663499e-02 +2.87681222e-01 +7.68347383e-02 -3.14310640e-01 +3.56317461e-02 +1.09460235e-01 -3.25979412e-01 -3.45685273e-01 -1.50358096e-01 +1.41848326e-01 -2.86542118e-01 +3.36041927e-01 -1.99738368e-01 +1.90833390e-01 +3.13120961e-01 +4.48170900e-02 -2.32150525e-01 -6.52608275e-02 -3.40095460e-01 +2.07755148e-01 -1.61685571e-01 -2.68118083e-01 -1.45591110e-01 +1.71138763e-01 -2.19423175e-02 +3.38650107e-01 +2.51686990e-01 -2.44708121e-01 -3.84431779e-02 -3.08706075e-01 -7.80145526e-02 -3.06853235e-01 +8.82972479e-02 -1.66211963e-01 +1.11609101e-02 -7.67820776e-02 -1.74844816e-01 -2.81679124e-01 +4.91198897e-03 -3.44752729e-01 -2.73137987e-02 +2.77476311e-01 -9.07135308e-02 +2.59714425e-01 -2.83292055e-01 -1.64017841e-01 -2.22112656e-01 +2.40133941e-01 +2.71917164e-01 -1.97596416e-01 +1.98276281e-01 -7.47363865e-02 +2.62636006e-01 +2.97835052e-01 -7.70733953e-02 -2.58783102e-01 -2.28034556e-01 -7.62408972e-02 -1.76297858e-01 +2.34628856e-01 +2.53414392e-01 -6.41379058e-02 +3.13406765e-01 -3.40777516e-01 +1.44320548e-01 -2.49538809e-01 +1.94541514e-01 +1.43217117e-01 -1.96476072e-01 -7.18110204e-02 +2.15593874e-01 +2.95981407e-01 -2.06412688e-01 -2.25703865e-01 +4.67795432e-02 -9.83555913e-02 +9.32633877e-03 -2.81754404e-01 -8.32690299e-02 +1.33679897e-01 +1.59801126e-01 +1.59370720e-01 -1.09553143e-01 +5.00989258e-02 +2.39176035e-01 +2.70263076e-01 -8.95138383e-02 +4.81162667e-02 -2.85683960e-01 +2.06693709e-01 +3.20197344e-01 -2.91113347e-01 -2.46828943e-01 +9.60348845e-02 +9.21365619e-02 -3.17247570e-01 -1.75133139e-01 +1.13092661e-02 +1.14207923e-01 +2.61412740e-01 +3.50363553e-02 +3.06071222e-01 +3.28295767e-01 +3.41624439e-01 +1.12618417e-01 -1.03455037e-01 +1.96557820e-01 +1.79537237e-02 -1.22733131e-01 -1.82128802e-01 -1.74669668e-01 +1.02326542e-01 -7.06581771e-02 -2.47729689e-01 +6.27200305e-02 -2.28630543e-01 +6.31298721e-02 +3.37557137e-01 -2.53087461e-01 +1.97684944e-01 +2.23258913e-01 -1.68809354e-01 +2.29650736e-02 +1.41057551e-01 +3.13226283e-01 -1.11379936e-01 +2.60217965e-01 +2.66562819e-01 -1.51618779e-01 -6.45229220e-02 -1.28899515e-02 +1.20718539e-01 -2.93847561e-01 +4.26878333e-02 +3.09365153e-01 -3.07638824e-01 -1.59393847e-01 +1.51949853e-01 +1.67552948e-01 -2.77312100e-02 -2.83495188e-02 +2.89840102e-01 +2.41225660e-02 +7.14241564e-02 -1.17386743e-01 +3.60389650e-02 -2.93443859e-01 +3.43879044e-01 -7.76439905e-04 +7.67724812e-02 +1.22719526e-01 +2.09153533e-01 +7.40490556e-02 -3.72554064e-02 -2.34554186e-01 +3.35517824e-02 -1.60062894e-01 -1.32395953e-01 +2.65298545e-01 -2.55896360e-01 +3.20876658e-01 +8.74415338e-02 -3.14225286e-01 +1.09607697e-01 +1.46467268e-01 -3.38736296e-01 +6.09329343e-02 +1.56826019e-01 +2.87269056e-01 -2.18944326e-01 +2.19624043e-01 +3.23267043e-01 -3.04242313e-01 +5.38868606e-02 -8.52144063e-02 +2.84384429e-01 -1.77728489e-01 +8.83082449e-02 -1.92018211e-01 -2.65182853e-01 -2.38483295e-01 +2.75870562e-01 +1.53269053e-01 +1.23545974e-01 +3.14811587e-01 +1.17433548e-01 -2.64205545e-01 -1.75240099e-01 +3.10471892e-01 -5.69876432e-02 -6.83202446e-02 +3.62098813e-02 -2.24033937e-01 -2.76252478e-01 +1.23944283e-02 -8.02783668e-02 +2.15372741e-01 -7.15646148e-03 +1.26638919e-01 +8.96505117e-02 +2.30246425e-01 +3.93518806e-03 +2.20324457e-01 -2.17701510e-01 +2.22695172e-02 -2.89393038e-01 +1.88143134e-01 -2.27500603e-01 -2.72396922e-01 -1.74826860e-01 +1.05690539e-01 -3.36324185e-01 +2.83178687e-01 -8.52935016e-02 +2.69690931e-01 -1.76529616e-01 -2.57208347e-01 -3.43833268e-02 -1.16843566e-01 -1.41317233e-01 +2.02640057e-01 +1.43498927e-01 +1.54371500e-01 +3.06670070e-02 -1.79982558e-01 -2.08980367e-01 -5.86043894e-02 +2.81723738e-02 +2.36916542e-02 +3.16725075e-01 +3.16377163e-01 -5.80464602e-02 +3.11102152e-01 +2.60972083e-01 -2.58751184e-01 -3.33423615e-02 -6.26359582e-02 -3.16875279e-01 -1.07715860e-01 +2.81790614e-01 -1.66802749e-01 +3.79373431e-02 -1.36850983e-01 +1.70337677e-01 -1.79932490e-01 -8.73095095e-02 -3.39999884e-01 -8.26832950e-02 +1.60099626e-01 -2.13876635e-01 -2.34454274e-02 +2.68400908e-02 -9.90836918e-02 +1.01056546e-01 -1.94363594e-02 -3.42740864e-01 +3.41405392e-01 +1.12167180e-01 +2.57715046e-01 -1.78329811e-01 -3.44956458e-01 -2.52941966e-01 +1.13292634e-01 -3.39292526e-01 +2.22310305e-01 -3.24021280e-02 -2.90445477e-01 +1.88932955e-01 +8.74518156e-02 +3.13294470e-01 +3.80741358e-02 -9.73379910e-02 +7.88753331e-02 +2.48068392e-01 +1.21476024e-01 -3.22688341e-01 -4.61831987e-02 +9.44494605e-02 +2.90887773e-01 +1.71265662e-01 -2.14392096e-01 -2.79313385e-01 -1.15083128e-01 -2.97853529e-01 -3.07559669e-02 -3.25153857e-01 -2.21071199e-01 +1.54486835e-01 +2.54627049e-01 +2.25685418e-01 +2.95543253e-01 +3.26743722e-01 -8.82847309e-02 +1.91669047e-01 -6.47687912e-02 -8.88223946e-02 +3.21226299e-01 +8.18734467e-02 -3.36164117e-01 -9.93534178e-02 +3.43709469e-01 -2.01274753e-01 -9.08169448e-02 +7.18890131e-02 -1.51468366e-01 -2.53542960e-02 +3.40985954e-02 +1.98940754e-01 -1.71769977e-01 +2.63984323e-01 -3.35160494e-02 +3.98916900e-02 +2.49939084e-01 -2.14168131e-02 -4.64667976e-02 +2.07418919e-01 +2.35824287e-02 -2.69134462e-01 -1.62936315e-01 -9.68694538e-02 +5.66264391e-02 -3.17790210e-01 +7.13149607e-02 -2.92980582e-01 -1.14498779e-01 +1.83408678e-01 +2.80432284e-01 
#Parameter# /_18 {25} 401 ZERO_GRAD
-2.34243840e-01 +6.30538166e-02 +1.92166746e-01 -7.63738453e-02 -1.74821481e-01 +2.30332911e-02 +2.02676237e-01 +2.92948961e-01 -1.53841108e-01 +1.49344563e-01 +2.58447409e-01 +2.60233402e-01 +4.58583236e-02 -1.08271450e-01 -6.04129136e-02 +2.20521271e-01 -1.52545512e-01 +2.37545371e-01 +1.45441055e-01 +2.60069788e-01 -1.08775511e-01 -2.44005293e-01 -1.75747097e-01 +1.00993216e-01 -2.65862286e-01 
#Parameter# /_19 {25,25} 10001 ZERO_GRAD
-3.87625806e-02 +2.12847471e-01 +2.98404098e-01 +3.87267679e-01 -2.11000919e-01 -2.61247400e-02 -3.36560726e-01 -2.94591457e-01 +1.59232737e-03 +2.30791628e-01 -3.39115709e-01 +1.48825973e-01 +4.08801407e-01 -1.85685530e-01 +1.24522425e-01 -4.44816835e-02 -7.26858303e-02 +1.65454522e-02 -1.48886368e-01 -1.09136716e-01 -1.03520177e-01 -1.28223225e-01 +1.43775731e-01 +4.23497148e-02 +3.02917749e-01 -8.71384218e-02 +2.52218992e-01 -1.76540330e-01 +3.44630390e-01 +8.98392200e-02 -2.57790416e-01 -8.27466100e-02 +1.63853049e-01 +2.53262252e-01 +2.23104253e-01 +3.24913442e-01 +3.18526804e-01 -6.37411652e-03 +2.97006257e-02 -2.00225070e-01 -4.84083861e-01 -7.56573603e-02 -2.66742736e-01 +2.48745188e-01 -2.28677243e-02 +2.26134449e-01 +3.90343636e-01 +2.32257545e-01 -3.24262857e-01 -3.83185625e-01 +2.18372226e-01 -1.29322484e-01 -1.92032218e-01 -7.59883672e-02 +3.09834301e-01 -2.57187476e-03 -8.28868337e-03 +2.57073164e-01 +4.77600992e-01 +1.77062571e-01 +5.96642196e-01 +9.36731026e-02 -1.94570944e-01 +2.05648199e-01 -2.77410775e-01 -1.64317787e-01 +2.32397988e-01 -2.40461871e-01 -2.02980459e-01 +4.59758431e-01 -2.32490808e-01 +2.01541603e-01 +1.00903638e-01 +3.87160778e-01 -2.63566285e-01 +3.28178555e-01 +2.22806737e-01 +8.06070045e-02 -9.99018848e-02 -2.74863064e-01 +2.30940759e-01 -2.07786068e-01 -1.54999569e-01 +2.06140652e-01 +2.25470304e-01 -2.18965456e-01 -3.26897681e-01 -2.29576865e-04 +5.01943007e-02 -4.82288040e-02 -2.78511286e-01 +1.26732841e-01 +3.05611730e-01 +2.06901103e-01 +1.27892897e-01 +1.13502629e-02 -3.16768557e-01 -2.89713383e-01 -2.39360765e-01 -2.20926791e-01 +5.60555346e-02 +1.97962627e-01 +1.08108908e-01 +1.57285944e-01 -2.59215564e-01 +1.95411861e-01 +1.43330008e-01 -2.08976984e-01 +3.28686446e-01 -3.08640510e-01 +1.79731041e-01 -2.17607737e-01 -1.27905592e-01 +1.99808832e-02 +3.08088392e-01 -2.16568083e-01 +2.45722994e-01 +2.90012717e-01 -1.70656636e-01 -1.04460485e-01 -1.40615836e-01 +1.29842320e-02 +2.15043381e-01 -5.89770302e-02 -4.08407375e-02 -1.16220757e-01 -1.06734008e-01 -1.18096456e-01 +1.55618908e-02 -5.31858113e-03 +1.19192265e-01 +2.64725924e-01 +2.25209408e-02 -2.69086778e-01 +1.24340802e-01 -3.16234022e-01 +8.95861089e-02 -1.66260153e-01 -2.31847987e-01 +1.14706017e-01 -1.46653935e-01 -1.30198926e-01 +1.90717265e-01 -2.21218362e-01 +3.85659449e-02 -2.46612743e-01 +1.01497658e-01 -9.40335765e-02 -2.31931642e-01 -2.49404654e-01 -2.85720713e-02 -1.34806901e-01 +8.45883712e-02 +7.61576754e-04 +3.03597786e-02 -2.77807623e-01 +1.51505649e-01 +1.09034307e-01 +3.11261546e-02 +1.01426005e-01 +1.21611685e-01 +2.42193028e-01 +4.05012429e-01 +1.15204416e-01 -1.42613858e-01 +1.49400169e-02 -2.35080793e-01 +1.76349685e-01 -1.08435631e-01 -9.07199308e-02 -3.77874613e-01 -5.59570715e-02 -6.71373159e-02 +9.25594494e-02 -1.66986153e-01 -5.73535673e-02 -1.15466043e-01 -2.68161744e-01 +1.99910089e-01 -2.47544765e-01 -7.68989399e-02 -3.21568847e-01 -1.84972778e-01 -2.33855218e-01 -2.19332919e-01 +1.88943833e-01 -1.52273253e-01 -7.76070282e-02 -1.76877409e-01 +2.17259992e-02 +7.82486200e-02 -3.36919576e-01 -2.02498198e-01 +3.62249345e-01 -1.89433813e-01 -6.77483529e-02 -3.04531157e-01 +2.73399860e-01 -1.28175274e-01 -3.17019820e-01 +3.61358821e-01 +3.55646610e-01 +1.89522341e-01 -2.44625017e-01 -2.14795396e-01 +1.32283479e-01 -1.91456340e-02 +1.14409834e-01 +2.27681607e-01 +3.95014808e-02 +1.34809449e-01 +2.53095746e-01 -7.22273765e-03 -2.97324806e-01 +1.76439971e-01 -2.59863824e-01 -3.08399368e-02 -2.81861305e-01 +2.71068424e-01 +3.48208010e-01 -2.60669619e-01 -8.90699178e-02 +1.05598606e-01 +2.26385087e-01 -3.74657065e-01 -1.56155467e-01 -1.95319757e-01 +4.87743169e-02 -9.52872485e-02 +2.81600118e-01 -3.58768314e-01 +1.53915390e-01 +2.13894442e-01 -3.20946932e-01 +4.20939267e-01 -2.26614162e-01 +1.95062101e-01 +9.01153777e-03 +2.47749805e-01 -2.02366873e-03 +4.18436319e-01 -3.85501124e-02 +3.21839988e-01 -3.16690087e-01 +1.54731572e-02 -3.24951947e-01 -6.57461733e-02 -2.97678411e-01 +3.96573901e-01 -6.30684420e-02 +1.35992840e-01 -3.28511864e-01 -1.63587973e-01 +3.19919586e-01 -1.29491270e-01 +1.48310572e-01 -6.00021072e-02 -2.67253872e-02 +9.96835083e-02 +2.27815464e-01 -3.78359780e-02 +8.58914256e-02 -2.12902129e-01 -2.80248135e-01 -6.34239381e-03 +2.44936615e-01 +2.92101175e-01 -2.12446108e-01 +2.96529740e-01 +2.54586488e-01 -2.04840705e-01 -1.62836999e-01 +9.61195976e-02 +1.08489975e-01 -7.41640925e-02 -9.51403528e-02 -2.88955748e-01 -2.74836719e-01 -6.27457052e-02 -9.10225958e-02 -2.89177567e-01 +2.38274083e-01 +2.11460203e-01 -1.41617075e-01 +1.70411602e-01 +4.03188288e-01 +1.84332088e-01 -1.01545282e-01 -4.51256149e-02 +2.94606656e-01 +3.21857259e-02 -1.73792005e-01 -1.39339387e-01 +1.75088957e-01 +3.99912953e-01 -3.54697704e-01 +1.56852052e-01 +2.51119435e-01 -9.24575049e-03 -5.15232310e-02 +1.19355924e-01 -1.26842678e-01 +3.80414240e-02 -6.05250373e-02 +1.43868670e-01 +2.30466917e-01 +3.01996052e-01 +2.73078114e-01 -1.69201672e-01 +2.71137267e-01 -4.64048535e-02 -1.06037505e-01 +5.95814846e-02 +2.88662314e-01 +3.40592533e-01 +2.08185747e-01 -2.65930027e-01 -1.37461931e-01 +2.59050608e-01 +2.35847309e-01 -3.12669218e-01 +2.50523281e-03 -1.24645963e-01 +7.33335838e-02 -2.92612612e-01 +1.93378702e-02 -1.75837725e-01 -3.24805193e-02 +3.89726520e-01 -1.13645233e-01 +7.89802611e-01 +3.63246977e-01 +5.12981474e-01 +9.20253575e-01 +1.16394117e-01 +1.02772784e+00 +7.50497043e-01 -5.79897046e-01 +5.10650992e-01 +3.63655716e-01 -2.43572116e-01 +4.35052849e-02 -3.00711393e-01 +1.57363325e-01 +7.63442516e-01 +3.13692451e-01 -2.09706485e-01 +6.12454712e-01 +4.34258245e-02 -1.68413028e-01 -1.81351647e-01 -2.61244234e-02 +2.79294938e-01 +4.57803439e-03 +2.49368459e-01 -3.24744195e-01 +1.79289415e-01 +1.53072819e-01 -7.14829378e-03 -1.30727410e-01 -3.95769000e-01 +2.00196773e-01 -1.16587795e-01 -7.95367658e-02 +2.56559104e-01 -1.67425573e-01 +9.97921601e-02 +1.03369370e-01 -2.17873231e-01 -3.64660650e-01 -6.43661618e-02 +1.49802387e-01 -2.54141480e-01 -2.85078675e-01 -8.54555219e-02 -1.26542240e-01 +1.88735519e-02 -2.88311005e-01 +1.91420481e-01 -2.88800269e-01 +4.38133404e-02 -1.09509099e-02 -2.42670043e-03 -3.28205079e-02 -1.82327613e-01 +2.42614001e-01 +2.07957178e-02 +2.16561154e-01 -1.68323502e-01 -2.92107135e-01 +9.67591181e-02 -8.85941982e-02 +1.38446882e-01 -2.98239619e-01 +2.05332488e-01 +2.28887454e-01 -8.30291659e-02 +6.39055222e-02 -1.38246596e-01 -2.39130303e-01 -1.45518333e-01 +3.20120901e-01 -1.93500653e-01 -1.65820913e-03 +2.02108592e-01 -3.16380829e-01 +6.19724244e-02 +1.62030607e-01 -1.87399536e-01 +1.41767543e-02 +1.02540888e-01 +1.59575939e-02 -5.90985343e-02 +5.82418106e-02 -2.12190613e-01 -6.89301193e-02 -2.47576296e-01 +1.16545781e-01 +9.17159617e-02 +1.97043404e-01 +2.38051355e-01 -8.95138606e-02 +3.86565253e-02 +5.41433468e-02 +8.90253708e-02 -2.52122343e-01 -2.46944100e-01 +2.19774500e-01 +2.69227147e-01 -1.77223861e-01 -3.59461963e-01 +1.09538876e-01 -3.95610511e-01 -4.50907022e-01 +1.17632002e-01 +4.09564152e-02 -4.97376502e-01 +4.38813478e-01 +1.53218701e-01 +2.38110006e-01 -8.40281099e-02 +1.31339595e-01 +1.01364426e-01 +8.33067968e-02 -4.12435979e-01 -1.55288488e-01 +3.15468013e-02 +3.84210050e-02 -8.66062269e-02 -2.16472894e-01 -1.36787027e-01 -6.20854758e-02 -2.01203495e-01 -2.16559261e-01 +1.55889213e-01 +2.89773941e-01 +6.37670001e-03 +1.68462932e-01 +2.53633559e-01 +2.08543941e-01 +1.12263352e-01 -2.36724526e-01 -3.24792773e-01 -3.31542671e-01 -2.70235449e-01 -3.11232865e-01 -2.63356477e-01 +1.93243399e-02 +2.17943355e-01 -1.51901301e-02 -2.37323850e-01 -2.99823582e-01 +3.49773705e-01 -2.95171905e-02 +3.27375457e-02 -3.82538259e-01 -2.72651851e-01 +4.25575346e-01 -1.33096412e-01 -1.48026571e-02 +1.34500235e-01 +6.83633313e-02 -3.27198625e-01 -1.96082518e-01 +1.80692345e-01 +3.50045897e-02 +4.78318453e-01 -1.10437863e-01 +3.37593734e-01 +1.74082130e-01 +2.99397975e-01 +1.60078555e-01 +3.43707800e-02 +3.88153613e-01 -1.94452271e-01 -2.25951806e-01 -6.30972162e-02 +5.20221330e-02 +1.07300021e-01 +4.03357983e-01 -2.11385891e-01 -2.22731531e-01 -4.16903615e-01 +3.30388516e-01 +2.05460042e-01 +5.42537928e-01 +2.33670294e-01 +4.10487086e-01 +6.58463299e-01 +2.02800900e-01 +3.10963124e-01 +4.85460550e-01 -2.95604795e-01 +3.20842862e-03 +2.81968653e-01 -6.18066549e-01 -1.70208678e-01 +8.82676616e-02 +2.51620024e-01 +1.21046700e-01 +5.00158131e-01 +3.26971859e-01 +2.40496308e-01 -3.25608373e-01 +1.95636973e-01 -2.62134939e-01 -1.96348891e-01 -7.10873082e-02 -1.85052440e-01 -1.31963700e-01 +2.94716597e-01 +1.62756503e-01 -3.70159656e-01 +6.82614148e-02 -1.25413269e-01 +6.12531640e-02 -1.02114663e-01 -3.45440567e-01 -5.16913123e-02 -3.00241798e-01 +2.17459604e-01 -1.17030017e-01 +3.24412197e-01 -1.28060862e-01 -1.84886351e-01 +1.02232859e-01 +8.94004107e-02 -3.95132927e-03 -1.63312733e-01 -1.91516787e-01 +3.01710278e-01 -2.48020604e-01 -2.83133507e-01 +3.93581122e-01 -6.22205585e-02 -1.19935133e-01 +7.88587611e-03 -3.16948563e-01 -3.32913488e-01 +6.78920522e-02 -4.89453226e-01 -6.14602208e-01 +5.60052097e-01 -5.13585925e-01 -9.17018801e-02 +1.51659682e-01 +1.45362839e-01 -9.08319931e-03 -1.88020319e-01 -4.74801391e-01 +2.35812679e-01 +1.22429850e-03 -2.48330593e-01 +2.80867249e-01 -1.72694966e-01 +3.18466455e-01 +2.40626633e-02 -1.22360308e-02 -3.17373216e-01 -2.13326141e-02 +2.78185546e-01 -3.33943330e-02 -5.65976948e-02 +2.49168068e-01 +2.73044527e-01 -2.56480366e-01 -5.54227754e-02 +4.78386208e-02 +2.47922316e-01 +1.80389151e-01 +3.21302772e-01 -1.62709355e-02 +2.54639149e-01 +2.24960744e-01 -1.06403619e-01 -3.06882799e-01 +2.11615160e-01 +2.84771204e-01 -3.30682814e-01 -2.45678686e-02 +2.68379480e-01 -3.26561451e-01 +1.87535182e-01 -1.95609957e-01 -3.44742864e-01 -8.89360085e-02 +1.98950112e-01 +9.65456814e-02 +2.20390439e-01 -4.06222790e-02 +1.82200506e-01 +1.18927233e-01 +1.57304808e-01 +1.48940071e-01 +1.71777949e-01 +1.72110081e-01 +1.43448710e-01 +1.49073556e-01 -3.17063570e-01 -7.31984079e-02 +2.36232251e-01 -2.60574669e-01 -2.36016348e-01 +1.60242811e-01 +3.62638742e-01 
#Parameter# /_20 {25,25} 10001 ZERO_GRAD
-1.76489115e-01 +2.99016923e-01 +2.13337522e-02 -5.13682812e-02 +2.17669323e-01 +4.95541170e-02 -2.07991853e-01 -6.07790984e-02 -1.48964748e-01 -2.25850269e-01 -1.41135246e-01 -6.82842210e-02 +1.89295053e-01 -2.19938904e-01 -1.88938096e-01 -5.83880097e-02 -2.50492275e-01 +2.04208866e-01 +3.02157044e-01 -3.88905913e-01 +1.36857733e-01 +8.07150174e-03 +1.29598051e-01 -4.82860580e-02 -1.92173839e-01 +3.91324043e-01 +2.46851683e-01 -3.29319030e-01 -1.23014208e-03 +1.79221511e-01 -9.46739968e-03 +1.59659311e-01 +3.38337123e-01 +1.45200670e-01 -2.11217687e-01 +1.17998287e-01 +1.87341526e-01 +2.61238553e-02 -3.88445444e-02 -1.40121728e-01 -2.00384289e-01 -1.28600076e-01 +1.48306563e-01 +3.48904163e-01 +2.27533266e-01 -1.29729673e-01 +1.24289818e-01 +3.35311085e-01 +1.88444063e-01 -3.76776189e-01 -2.08286762e-01 -1.97871327e-01 -1.48344904e-01 -1.02861799e-01 -3.41126829e-01 -2.14910105e-01 -4.28827971e-01 -4.58529085e-01 -2.77524829e-01 +1.88408241e-01 +1.69778466e-01 -3.74847263e-01 +4.79894251e-01 +3.28015268e-01 -2.06575871e-01 +3.94204021e-01 -2.54217952e-01 +1.56096429e-01 +2.49847963e-01 -8.04632381e-02 +1.44657373e-01 +1.22095436e-01 -2.73408145e-01 -1.06767260e-01 +2.43618071e-01 -1.04814850e-01 -3.33717316e-01 +4.04689424e-02 -3.75004741e-03 -2.42864847e-01 -1.27603129e-01 +1.52177289e-01 -9.70131680e-02 -3.33660454e-01 +3.44769619e-02 -1.45504981e-01 +2.75966972e-01 -2.09626481e-01 +2.13632897e-01 -1.28602430e-01 +8.86418894e-02 +1.49095923e-01 -2.84977734e-01 +2.09736466e-01 -7.95285255e-02 -7.58952126e-02 +1.01462804e-01 -1.10227801e-01 +1.54750451e-01 +6.43425882e-02 -1.21862955e-01 +2.57265419e-01 -1.16622485e-01 +8.51012859e-03 +2.22745448e-01 +2.52856106e-01 +2.16234222e-01 -2.18328349e-02 +2.45051384e-01 +3.56259830e-02 +1.02592632e-01 -1.96156949e-01 -3.94908816e-01 -4.53850813e-02 +1.66732594e-01 +2.24945590e-01 +1.63619265e-01 -1.04467727e-01 -1.87033676e-02 -3.24281715e-02 +2.14103088e-01 +3.54054511e-01 -2.81388968e-01 +1.04208842e-01 +7.45279156e-03 +3.00749213e-01 -3.51986848e-02 +3.53671908e-02 -8.27852637e-02 +4.98878099e-02 +2.94685751e-01 +3.79228264e-01 -1.82691216e-01 +2.37244293e-01 -7.97755495e-02 -1.71657000e-02 +3.00437152e-01 -4.22515064e-01 +7.56204799e-02 +3.51607217e-03 -2.64538199e-01 +2.10313037e-01 +7.12229609e-02 +1.22093149e-01 +4.00763929e-01 -3.93232740e-02 -5.89507259e-02 +6.31623715e-02 +1.39003187e-01 -2.45089799e-01 +1.28555819e-01 +2.04700693e-01 -9.46799219e-02 +1.81581602e-01 -3.18333954e-01 -2.25840658e-01 +3.29430848e-01 +2.79050022e-01 +2.19375715e-01 -1.36250138e-01 +1.47893563e-01 +2.35457048e-01 -3.07230264e-01 +2.94461727e-01 +4.91746068e-02 +6.58918768e-02 -1.74243167e-01 +3.15429986e-01 -1.78428560e-01 -2.33482808e-01 +2.35163063e-01 -5.15737906e-02 +1.24305435e-01 -1.88593358e-01 +1.50357231e-01 -2.29916111e-01 -1.14911228e-01 +2.15738446e-01 -2.12655351e-01 -1.83254302e-01 +1.79299995e-01 -9.88898426e-02 +2.18859851e-01 +9.60113406e-02 -4.09190776e-04 -1.29338264e-01 +1.84230000e-01 +1.99857950e-01 -6.11886717e-02 -2.64057308e-01 -2.58255661e-01 +2.79100239e-01 -1.37478933e-01 -1.70543730e-01 -9.83224367e-04 -1.58550709e-01 +4.76394445e-02 +2.15744395e-02 -8.71216059e-02 +7.86104649e-02 +1.30598262e-01 -1.88932359e-01 -2.71116108e-01 +8.14785436e-02 -1.63030401e-02 -2.38089398e-01 -2.47228816e-01 -2.38210544e-01 +1.47906262e-02 -3.86369884e-01 +5.07358368e-03 -7.69714341e-02 +1.68093666e-01 +4.89101410e-02 -3.30706745e-01 -1.20897762e-01 -1.67173073e-01 -1.98528275e-01 +9.13742781e-02 -1.13134436e-01 +1.02345482e-01 +2.99521029e-01 +2.62443036e-01 +2.94077024e-02 -7.56467518e-04 -1.35782123e-01 +2.14269087e-01 -1.61555350e-01 +7.66693205e-02 -7.30724782e-02 +4.05490696e-02 -1.93871453e-01 -2.78141201e-01 +8.47681146e-03 +2.69161850e-01 -4.09122519e-02 -4.39770103e-01 +3.38051677e-01 +1.93360765e-02 -1.50613934e-01 -1.30837217e-01 +2.36355603e-01 +1.34388000e-01 -8.44925195e-02 -2.60995418e-01 -2.67221868e-01 -1.58135116e-01 -6.74614012e-02 +3.22651088e-01 +1.16383493e-01 -2.84825712e-01 +8.74570608e-02 -1.62347183e-01 -3.16694468e-01 -2.13165417e-01 -3.38627219e-01 +3.69334698e-01 -8.56977403e-02 +8.38529170e-02 +1.28965810e-01 +7.14010820e-02 -3.02518100e-01 +2.41451129e-01 -6.16411753e-02 -4.26077098e-02 +1.05530456e-01 +3.55491973e-02 -1.20527425e-03 -9.97248814e-02 -4.36711967e-01 -7.21663386e-02 +4.04256463e-01 -7.61768036e-03 -1.66469038e-01 +1.98761612e-01 -1.19878963e-01 -8.48605111e-03 -1.28357261e-01 -1.24503858e-01 +3.64663422e-01 -2.12349460e-01 +6.91634268e-02 -1.79792732e-01 +3.63065414e-02 -1.79693848e-01 -2.19187349e-01 -3.11605781e-02 +7.56614655e-02 +1.64781082e-02 +1.65548131e-01 -1.27083242e-01 +2.92194545e-01 -1.64994448e-01 -2.74755388e-01 -9.45146754e-03 -2.50502825e-01 +2.31854200e-01 +6.59385249e-02 -2.67438710e-01 -1.32354110e-01 +2.56959945e-01 +1.53211370e-01 +9.81359258e-02 -1.14732832e-01 -2.88804382e-01 +3.03269038e-03 +1.16474934e-01 -1.06863558e-01 +2.12102547e-01 +3.68492872e-01 +1.43745199e-01 +4.16040063e-01 +7.40980059e-02 +1.40043944e-01 +1.60688639e-01 -1.37850359e-01 -1.99909136e-01 -1.43208429e-01 -1.57428890e-01 +6.07863590e-02 -7.41101280e-02 -2.15026021e-01 -2.12998569e-01 +2.95513179e-02 +2.63043446e-03 -1.68687001e-01 +2.84514397e-01 -3.06656182e-01 +1.15354061e-01 -1.05487123e-01 +1.15054749e-01 +2.60237277e-01 -3.51591736e-01 -2.92167693e-01 -3.02388430e-01 -6.45919051e-03 -2.97955662e-01 +4.16064501e-01 +4.43548374e-02 -5.41655198e-02 +2.21418776e-03 +1.53962582e-01 +7.45317042e-02 +7.03252926e-02 +2.23201960e-01 -3.80354434e-01 +2.92173177e-01 -4.21188205e-01 -6.59116358e-02 -1.61572412e-01 -2.62566507e-01 -1.33835226e-01 -2.61121184e-01 +1.06805777e-02 -1.83630005e-01 -2.03212142e-01 -2.74892449e-01 +8.04659352e-02 -2.59430826e-01 -2.90629983e-01 -8.65533575e-02 +2.66480416e-01 +1.14414260e-01 -1.33208588e-01 +4.34805546e-03 +1.62026554e-01 -2.04973355e-01 +3.69930744e-01 -2.66591068e-02 +2.52402753e-01 +9.15995091e-02 -2.00312853e-01 +7.67022604e-03 -2.24275701e-02 -1.29048064e-01 +1.96268067e-01 -2.56038886e-02 +8.89255181e-02 +2.18518093e-01 +3.23892802e-01 -5.88745177e-02 -4.36014980e-01 -3.32549602e-01 -2.42935628e-01 +4.94504161e-02 -3.00796866e-01 -3.24651480e-01 -2.36977592e-01 +2.85233676e-01 -2.40203217e-02 +9.48854387e-02 -1.56371549e-01 +1.58992901e-01 -1.28760085e-01 +2.21760809e-01 +2.53647864e-01 +1.12238057e-01 +5.73636778e-02 -2.87978739e-01 -6.11817911e-02 +2.04033449e-01 +1.32275388e-01 +2.89055288e-01 +1.42774908e-02 +2.92373270e-01 +2.43936479e-01 -9.04013962e-02 -2.34997585e-01 -2.39557609e-01 +2.03390121e-02 +3.46627057e-01 -1.45706519e-01 -3.64793092e-01 +4.33065817e-02 +2.60014445e-01 -8.05803761e-02 -1.77994266e-01 +7.88766295e-02 +3.29896986e-01 -2.37642765e-01 +2.07972154e-01 +1.94492191e-01 +2.22694933e-01 +2.32235298e-01 -3.73404436e-02 +1.53497770e-01 -3.01756591e-01 +1.15348518e-01 +1.84784561e-01 -1.98054954e-01 -3.38798314e-01 -2.87341565e-01 +2.90397406e-01 -2.35954955e-01 +2.76737988e-01 -2.37113148e-01 +2.42648691e-01 +1.50668338e-01 +2.65137106e-01 -3.04808021e-01 +2.03591734e-01 +3.30441415e-01 +2.36299813e-01 +1.47627309e-01 -1.73749283e-01 -6.33820668e-02 -1.08698271e-01 +2.12439150e-01 -1.42727748e-01 -1.58854481e-02 +2.85134792e-01 +2.60109544e-01 -4.79264893e-02 -1.79445818e-01 +3.08076501e-01 +3.15706760e-01 +4.63232249e-02 +3.05990964e-01 -1.42285125e-02 -2.31235445e-01 -7.53322020e-02 -1.61314219e-01 +1.68487445e-01 -2.58462369e-01 +3.42499137e-01 -1.30690306e-01 +1.49187833e-01 +2.35502154e-01 -2.62089938e-01 -5.35944514e-02 -3.28943171e-02 -7.48492917e-03 +1.76388830e-01 +2.32070401e-01 -1.59472361e-01 +2.61513054e-01 +1.63633436e-01 -5.61986268e-02 +9.93532985e-02 -4.56528738e-02 +1.95852697e-01 -6.69925436e-02 -2.54167467e-01 -2.35827237e-01 -1.12443328e-01 +2.00117975e-02 +6.27456456e-02 +2.53148079e-01 +4.42162203e-03 +8.15675929e-02 +1.28341958e-01 +2.55858958e-01 +5.53570911e-02 +1.79902211e-01 -3.67794573e-01 -2.61623442e-01 +1.44289538e-01 -4.25713331e-01 +3.49593550e-01 -2.72688121e-01 -1.70948565e-01 -1.65235088e-03 +2.25469619e-01 -3.39135319e-01 +9.92862508e-02 +2.04348192e-01 +3.69000226e-01 +2.43766367e-01 +1.10402435e-01 -4.13700759e-01 +1.92998037e-01 -2.95706123e-01 +2.14334819e-02 -1.78924859e-01 +1.71177052e-02 +9.14624631e-02 -9.28370133e-02 -3.57801989e-02 -1.27763063e-01 -7.87171870e-02 +1.13913044e-01 -6.55347109e-02 +3.21316898e-01 -3.21843415e-01 -1.40092403e-01 -1.09021142e-01 +1.66275993e-01 -8.40632468e-02 +2.89475590e-01 +2.02986479e-01 +3.76380920e-01 +5.64161956e-01 +5.12680858e-02 +1.23141631e-01 -1.82364896e-01 -1.73977345e-01 +8.60440582e-02 +1.35905474e-01 -1.36278853e-01 -2.03659371e-01 -3.26882809e-01 +1.17022663e-01 -9.67109203e-02 +3.21211219e-01 +2.68655926e-01 +1.07893512e-01 +1.60799071e-01 -4.59258631e-02 -2.67695069e-01 +1.63952145e-03 -1.23665497e-01 +1.25260323e-01 -5.18516526e-02 +1.54868245e-01 -1.85915641e-02 +2.86837667e-01 +5.09284176e-02 -1.08787231e-01 +2.92363483e-02 +7.76932910e-02 -6.78620040e-02 +2.05362529e-01 -1.45255312e-01 +2.46467426e-01 +3.31271648e-01 -3.12828839e-01 +1.42469704e-02 -4.06876393e-02 -1.23917066e-01 +5.75851947e-02 +2.32320935e-01 +3.17609489e-01 +1.13435835e-01 +1.69600621e-01 +2.16306672e-01 -2.42308863e-02 +3.20528388e-01 -1.28285680e-02 +4.10076454e-02 +5.87906539e-02 +7.25971758e-02 -3.18986960e-02 +2.28860572e-01 +3.06413919e-01 -1.82321832e-01 +3.26389581e-01 -1.18471533e-01 -6.38375804e-02 +1.16888255e-01 -1.71104863e-01 +1.84495032e-01 +2.99761593e-01 +3.24356169e-01 +2.34144881e-01 +1.71521544e-01 -1.07136406e-01 +3.08068365e-01 -1.30257994e-01 -3.76866572e-02 +2.10256323e-01 +3.94869931e-02 -2.67763138e-01 -1.44789005e-02 -1.80854782e-01 -2.22059116e-01 -2.14777410e-01 -2.93004781e-01 +2.17977807e-01 -3.13180864e-01 -3.32958847e-01 -2.05189124e-01 -3.38223815e-01 +2.20928565e-01 -2.32833847e-01 +6.15159534e-02 -4.68754396e-03 +1.99035197e-01 -2.73029923e-01 +2.46893719e-01 -2.09234938e-01 +2.33529106e-01 -1.09372251e-01 -1.82373062e-01 -2.24782489e-02 -2.55706191e-01 
#Parameter# /_21 {25} 401 ZERO_GRAD
+2.40221679e-01 +4.56375740e-02 +1.57413393e-01 +2.01103076e-01 +7.72418901e-02 -1.34867281e-01 +1.04245748e-02 -1.94145173e-01 -1.44065067e-01 +2.05485046e-01 +1.40781581e-01 -3.69747318e-02 -2.28407159e-01 +2.10365564e-01 -1.50676042e-01 +2.14846790e-01 +3.26051712e-01 +3.34332705e-01 +1.32449895e-01 -3.77327800e-01 +2.62043417e-01 +7.39589632e-02 -2.24323571e-01 -1.34644330e-01 +2.96370238e-01 
#Parameter# /_22 {25} 401 ZERO_GRAD
+1.76991940e-01 -1.89854503e-02 +9.28119421e-02 +1.08565331e-01 -1.30784541e-01 -3.23077440e-01 -9.58611071e-02 +2.92867541e-01 +3.10293555e-01 +1.18664503e-02 +9.91991162e-03 -2.78556675e-01 -5.66948056e-02 -1.80544034e-01 +3.20843875e-01 -2.27634341e-01 -1.10563084e-01 -6.11807704e-02 -1.33716375e-01 +2.61979759e-01 +5.42257726e-02 -2.03495294e-01 +8.83094668e-02 -3.39435995e-01 -2.29889780e-01 
#LookupParameter# /_0 {3,2} 97 ZERO_GRAD
-3.58786955e-02 +8.76337707e-01 +1.15232432e+00 -1.39194953e+00 +4.43439096e-01 -2.37635195e-01 
