#Parameter# /_1 {2,25} 801 ZERO_GRAD
+3.01788360e-01 +3.37974310e-01 +9.85250771e-02 +2.92700399e-02 +4.64346170e-01 -6.54495955e-01 +6.76191747e-01 -2.85200477e-01 +2.47489557e-01 -2.21650317e-01 +3.15890461e-01 +5.05689919e-01 -5.40975392e-01 -2.10596099e-01 +2.20129892e-01 -3.02544534e-01 +5.27626216e-01 -4.03391957e-01 -3.50229800e-01 -1.77335963e-01 -3.53708982e-01 +4.18084323e-01 -5.95908701e-01 +7.19870925e-01 +6.88010931e-01 -7.08064973e-01 +1.06069893e-01 +2.53232479e-01 -2.86653906e-01 -1.62655652e-01 +1.29536361e-01 -6.43090546e-01 -2.14858189e-01 -4.14776765e-02 -2.16249585e-01 +1.15092017e-01 +4.10068065e-01 -6.70540750e-01 +1.46407470e-01 -2.58017868e-01 +7.70087838e-01 -4.76999760e-01 +5.35115367e-03 +1.32796347e-01 +4.14601177e-01 -2.37137049e-01 +6.38248682e-01 -6.88247502e-01 +5.52862883e-01 -3.84058505e-01 
#Parameter# /_2 {2} 33 ZERO_GRAD
-1.10394919e+00 -9.86653209e-01 
#Parameter# /_3 {25,3} 1201 ZERO_GRAD
+4.21964258e-01 +5.04941621e-04 -7.96257257e-01 +1.08166046e-01 -4.88518327e-01 -3.10257077e-01 -2.73528248e-01 -4.11680341e-01 -4.04523350e-02 +1.73171520e-01 -1.08874924e-01 -8.80488306e-02 +4.62999523e-01 +3.94007593e-01 +9.71611366e-02 +3.90342206e-01 +5.23560882e-01 -2.35048741e-01 +1.91402927e-01 -1.37018487e-01 +7.64962211e-02 +1.21875942e-01 +6.35306656e-01 +8.16973150e-02 +3.13338667e-01 +2.29717717e-01 +6.02321029e-01 +5.82663119e-01 -1.98248833e-01 -3.78651738e-01 -4.12346303e-01 -3.52598578e-01 +4.61270596e-04 +3.91750336e-02 +3.23599249e-01 -2.12836280e-01 +5.08936286e-01 +1.72029138e-01 +1.09322220e-01 -2.74824034e-02 +3.33687127e-01 +2.42562979e-01 +1.04903385e-01 +1.83624193e-01 +3.93648110e-02 -9.39838365e-02 -3.14637095e-01 +3.52422893e-02 -6.82963207e-02 -2.41744190e-01 +1.92686260e-01 +3.23484957e-01 -2.13286415e-01 +6.52294010e-02 +8.30649361e-02 +1.29819423e-01 -7.89375156e-02 +1.51863873e-01 -1.97371274e-01 +1.82533339e-01 -6.52353019e-02 -1.35662362e-01 +3.71058911e-01 -2.45707795e-01 -1.92249581e-01 -2.37735033e-01 -3.63626987e-01 -3.98800164e-01 +1.71146378e-01 -1.06441386e-01 -6.07011169e-02 +1.46969661e-01 +3.20701003e-02 +1.96658298e-01 +2.48362750e-01 
#Parameter# /_4 {25,25} 10001 ZERO_GRAD
+3.08617920e-01 +6.51538551e-01 +1.16657011e-01 +4.51233298e-01 +3.47124428e-01 +2.25173458e-02 +4.34375226e-01 +2.37650156e-01 +2.21840158e-01 +4.58650589e-02 +3.72452646e-01 +3.41912687e-01 -3.35079342e-01 +9.52745825e-02 +1.14131667e-01 +4.72619385e-01 -2.49796629e-01 +7.86789954e-02 +2.72370756e-01 +5.13594262e-02 +1.91709086e-01 -4.45965538e-03 +3.53008330e-01 +2.33284473e-01 +1.39390841e-01 -4.27125037e-01 +1.40083283e-01 +3.68301809e-01 +6.65915385e-02 -2.37208888e-01 -5.64240552e-02 -3.95363718e-01 +9.90236178e-02 -2.64252663e-01 +1.39876800e-02 +1.06954657e-01 -5.42501211e-01 -1.48274973e-01 -3.02394181e-01 -4.69045728e-01 -4.64732885e-01 -1.36416972e-01 +3.05002183e-03 -1.54645890e-01 -1.27651975e-01 -1.22825548e-01 +2.19406903e-01 -5.27567327e-01 +2.13072374e-02 -4.88055080e-01 +6.04679883e-01 +4.15854573e-01 -5.18793613e-02 +3.87143880e-01 -6.42993972e-02 -6.14775345e-02 +1.15096353e-01 -1.99518993e-01 +1.73797205e-01 +3.39536935e-01 +1.06177561e-01 -9.53989699e-02 +2.06837151e-02 -2.55254079e-02 +5.95926583e-01 +1.72986522e-01 +1.70689434e-01 +8.60213041e-02 +3.33476067e-01 +1.38800874e-01 +1.62831768e-01 +3.56721520e-01 +4.48081680e-02 +8.73396471e-02 +6.31214902e-02 -1.48302987e-01 -1.88872471e-01 -3.45564842e-01 -2.91112810e-02 +2.10409939e-01 -2.77825266e-01 -4.98474270e-01 -8.86513293e-02 -5.44791460e-01 +3.30705866e-02 +1.83551490e-01 -4.89905961e-02 -1.50002554e-01 -2.96580374e-01 -1.19940080e-01 -2.53232449e-01 +1.19717821e-01 +2.97145456e-01 -1.17031731e-01 -3.58359993e-01 -2.80719340e-01 +8.35114270e-02 +2.83552110e-01 +8.43728110e-02 -2.69189030e-01 +6.20420165e-02 -8.11138898e-02 -9.78451148e-02 -6.64347485e-02 -1.09591492e-01 -3.79597217e-01 -2.27535322e-01 -2.50912666e-01 -5.82942605e-01 +1.80224150e-01 +1.73053071e-02 -4.50717032e-01 -5.74648157e-02 +1.10883258e-01 +1.47085205e-01 -3.03532422e-01 -1.72719225e-01 -3.44658613e-01 +3.19649465e-02 -3.87205571e-01 -1.92896202e-01 -2.50733942e-01 -3.47358853e-01 +1.39235750e-01 +6.86270148e-02 +6.63087890e-02 +6.35995567e-02 +1.10618152e-01 +1.69719845e-01 +4.59897608e-01 +2.82356590e-01 +2.20876813e-01 +2.31683791e-01 +4.31523532e-01 -1.00243986e-01 +2.16219172e-01 +4.74465281e-01 +9.65889543e-02 +3.96383733e-01 -2.27368534e-01 +1.06257580e-01 +2.19812050e-01 +9.87285897e-02 -2.33658031e-01 +2.58954257e-01 +3.65449458e-01 +4.99672115e-01 +4.20894384e-01 +1.59425497e-01 +2.62310386e-01 +2.69386265e-02 +4.45406824e-01 +2.74650604e-01 -1.14586532e-01 -1.29608318e-01 -2.69026347e-02 -1.10248424e-01 +9.89184305e-02 +2.29063869e-01 -1.04580633e-01 +3.01791072e-01 +1.99471503e-01 +3.67097035e-02 +2.06239656e-01 +2.82438606e-01 -2.97490090e-01 -1.24293948e-02 -2.39996508e-01 +1.30209565e-01 -1.35577694e-01 -6.74761534e-02 +1.54776927e-02 +2.26197336e-02 +1.01003379e-01 -1.97815910e-01 -4.36485082e-01 -3.24079484e-01 +1.80054769e-01 +2.14311525e-01 -2.65740931e-01 -4.09783661e-01 +1.17915114e-02 -1.79238692e-01 +2.84492821e-01 +1.99287310e-01 +1.24102063e-01 -5.30458152e-01 -1.88994184e-01 -2.45368749e-01 +3.49047393e-01 +3.49983007e-01 -1.94899917e-01 +1.23020835e-01 -1.78123832e-01 -1.79960042e-01 -2.71172285e-01 +1.40908629e-01 -4.10373926e-01 -2.25507081e-01 +7.36981034e-02 +5.37053466e-01 +4.10914272e-01 +2.03558847e-01 +6.68389499e-02 +4.66652274e-01 +3.72769892e-01 +4.65918750e-01 -3.25143784e-01 -2.29077637e-01 -2.46825010e-01 -2.34982416e-01 +5.44925630e-01 +2.14927241e-01 +2.16875687e-01 -7.80274495e-02 +2.89485723e-01 -1.97152376e-01 -2.05315828e-01 -7.16690943e-02 -1.14132568e-01 -4.67905551e-02 -1.41877562e-01 +2.17592120e-01 +8.37438405e-02 -1.05694830e-01 +4.08480093e-02 -7.10729957e-02 +2.20931917e-02 +3.60934824e-01 +8.97044837e-02 +5.36114872e-02 -6.39458820e-02 -2.36742318e-01 +1.60472184e-01 -2.83644706e-01 -4.30134274e-02 -2.95753628e-01 -2.81410605e-01 +7.80150816e-02 +2.32860923e-01 +1.71310157e-01 +3.56289715e-01 -1.98384196e-01 -2.50315905e-01 -4.87332754e-02 +2.92874157e-01 +1.12378627e-01 +3.86502683e-01 +4.35279816e-01 +1.15130499e-01 +1.63514867e-01 -2.77282208e-01 -4.23364714e-02 -3.20263535e-01 +7.91517347e-02 +9.67648923e-02 -1.99190378e-01 -1.08723804e-01 -7.53724901e-03 +9.26764533e-02 -9.33527052e-02 -9.43270745e-04 -2.72897035e-01 -2.48363689e-01 -4.54831988e-01 -1.74558625e-01 -2.68797249e-01 -8.92812163e-02 +1.66248932e-01 +1.53629214e-01 +3.02179828e-02 +1.70961507e-02 -2.00486422e-01 -1.77237153e-01 -3.06832701e-01 +1.52905449e-01 +2.04778329e-01 +5.99364229e-02 +6.03942350e-02 +1.14764899e-01 +4.33184691e-02 -1.94989517e-01 -5.14772274e-02 +1.76409960e-01 -4.13682848e-01 -1.27651751e-01 +4.99476105e-01 -1.10956945e-01 +1.14823468e-01 -1.66853771e-01 +1.96405351e-01 +1.62831862e-02 -3.66259545e-01 +1.55257598e-01 +8.82379413e-02 +6.63109720e-02 +2.56184548e-01 +1.46692052e-01 +3.90953273e-01 +1.74412295e-01 +3.38948101e-01 +2.90606767e-02 -1.62124142e-01 -9.00157243e-02 +1.45152017e-01 +3.66752833e-01 -1.08175643e-01 -5.52915670e-02 +4.18444842e-01 -2.26920441e-01 +6.30863830e-02 +4.84823808e-02 -2.67965555e-01 +3.13763261e-01 +3.48420322e-01 +2.49674380e-01 +1.95907697e-01 +1.13382220e-01 +1.30323634e-01 -3.99056524e-02 -9.93352681e-02 +4.22827035e-01 +3.90408099e-01 -2.89354641e-02 +2.96699077e-01 -6.19522750e-01 -5.82329631e-01 +6.31199703e-02 -5.06420851e-01 -6.18767440e-01 +1.41838556e-02 +4.82582860e-02 +2.11725876e-01 -2.45626226e-01 -1.58093393e-01 -3.99235338e-01 -2.93103278e-01 +2.45635033e-01 -1.48356646e-01 -3.83792184e-02 -7.51854837e-01 +3.04879069e-01 +3.12724560e-02 +4.74937037e-02 -3.34155291e-01 +1.65541813e-01 -3.16868037e-01 -2.67966419e-01 -6.16999678e-02 -4.39792156e-01 -6.01977408e-02 -5.79619668e-02 +3.31626832e-01 -4.28800911e-01 +2.10523665e-01 +1.17460594e-01 +1.48139164e-01 -1.11915939e-01 -3.89309764e-01 -1.87329933e-01 -4.07903790e-01 -2.56941058e-02 +5.65911718e-02 -1.56488210e-01 +9.15110260e-02 -4.78982180e-02 +2.74201110e-03 -2.53645957e-01 +3.54217350e-01 -2.83862412e-01 +2.07529534e-02 -2.46527061e-01 -2.95414627e-01 +1.98131446e-02 +1.95750654e-01 -4.57419693e-01 +3.73250507e-02 +3.52533370e-01 +1.04785070e-01 +1.17920108e-01 +1.95539445e-01 -1.49190351e-01 -3.55088949e-01 +5.59847653e-02 -3.18797469e-01 -9.89309549e-02 -4.46451664e-01 +1.09587625e-01 -2.85255343e-01 -2.34689802e-01 -2.99338195e-02 +7.93882310e-02 -2.13934079e-01 +3.03037137e-01 -3.44123632e-01 +3.26356381e-01 -4.91358787e-02 +1.55001596e-01 +3.26286554e-01 -5.19691184e-02 -1.96300507e-01 -4.63229477e-01 +1.53087348e-01 -2.63374567e-01 -3.63285691e-01 -2.59208024e-01 -2.00291216e-01 +2.73834437e-01 -2.98534274e-01 -4.33088280e-02 -2.22290959e-02 -5.93902707e-01 +3.75325680e-01 -4.23726410e-01 +1.95641890e-01 -3.82840723e-01 -3.38493347e-01 -5.86273037e-02 +2.35104915e-02 -4.41176265e-01 -2.58234143e-01 +1.08096525e-01 +7.04461383e-03 +2.66224127e-02 -1.99618172e-02 +4.52683508e-01 +4.77166325e-01 +2.13129416e-01 +2.15218291e-01 -1.24202497e-01 +1.44713178e-01 -2.35057071e-01 -2.87663639e-01 +3.56921375e-01 -5.21172509e-02 +3.16619843e-01 +1.94857389e-01 -2.84612745e-01 +1.69136554e-01 +3.11431419e-02 -1.54209241e-01 -2.79751837e-01 +1.46065891e-01 -1.53210655e-01 -1.79957032e-01 -1.01965219e-01 +5.43464899e-01 -9.53900814e-03 +4.09502208e-01 +2.04029590e-01 +5.17003119e-01 +1.74043015e-01 -2.63645142e-01 -6.40330613e-02 +9.15672183e-02 -1.27605004e-02 +2.38103658e-01 -1.33851588e-01 +1.63649134e-02 +3.07527304e-01 +3.32882643e-01 +2.42491513e-01 +1.22934267e-01 +2.03728721e-01 +4.38062102e-02 +3.55692834e-01 +2.24789858e-01 +3.04237664e-01 +1.73658893e-01 -2.46322423e-01 +1.08106539e-01 -6.03450574e-02 +2.81185061e-01 -4.47684564e-02 -5.02128229e-02 +2.55680025e-01 -8.11311826e-02 -2.41898939e-01 +2.51102090e-01 -1.84043601e-01 +3.84803206e-01 -7.63901547e-02 +1.03897139e-01 +1.03460744e-01 -2.20488802e-01 -3.67467165e-01 +3.56545836e-01 -3.36979353e-03 +2.06554353e-01 +1.76993951e-01 -3.79632004e-02 +3.91729742e-01 -5.67287542e-02 -2.29853809e-01 -1.62438974e-01 -1.82259679e-02 +2.11921215e-01 -6.42534047e-02 -1.65215433e-01 -2.30551958e-01 +5.13158500e-01 +8.70606825e-02 +3.21062356e-01 +1.37688071e-01 +5.58014452e-01 -2.68934686e-02 +3.79083455e-01 -2.95808852e-01 -7.03013465e-02 -2.11615965e-01 +3.44294310e-01 +7.09308445e-01 +3.15782875e-01 +5.15942872e-01 +1.43519104e-01 +6.21082723e-01 -6.38497099e-02 +1.58121988e-01 -9.90258902e-02 +2.99243242e-01 -1.06592156e-01 +2.27526978e-01 +2.76371449e-01 +2.26403680e-02 +3.04718941e-01 -1.25553131e-01 -1.10466845e-01 -1.88372239e-01 +2.39467174e-01 +1.03791468e-01 +7.16884853e-03 +1.10430576e-01 +2.56816238e-01 -5.03649190e-03 +3.60478252e-01 +3.54754589e-02 -4.48173881e-01 +4.08613592e-01 -2.64515162e-01 -2.88405418e-01 -1.02911331e-01 +1.72789648e-01 -1.45719409e-01 +1.87001094e-01 -1.38407245e-01 +2.13819556e-02 +6.85908869e-02 +1.19812280e-01 -4.44689132e-02 +4.11552005e-02 -3.30285549e-01 -9.19799432e-02 -4.80097532e-01 -5.32169819e-01 -1.04010813e-01 +1.25704601e-01 -2.60273814e-01 +9.80181471e-02 -6.49028599e-01 +2.34918386e-01 -4.46953982e-01 +1.82749517e-02 +1.25814840e-01 +1.19184792e-01 -5.30835927e-01 -3.93208861e-01 -1.04444809e-01 -2.34122619e-01 +5.99751621e-02 +1.29880100e-01 -1.36581481e-01 -2.42428899e-01 -2.74951488e-01 -4.48552608e-01 -5.18708453e-02 +3.40445578e-01 -3.36241759e-02 -1.50028512e-01 -3.15836109e-02 -1.28290178e-02 +4.77765381e-01 +1.95970520e-01 +3.48090082e-01 +3.41903389e-01 -2.41189122e-01 -1.71810925e-01 +3.14950287e-01 -2.69563466e-01 +4.80112076e-01 +1.44806683e-01 -1.56269431e-01 +9.28272083e-02 +2.07012743e-01 +1.03293076e-01 +9.68392715e-02 +2.35761479e-01 +4.19414222e-01 -1.17238308e-03 +3.03087205e-01 +1.93850234e-01 +3.10197115e-01 +3.46346706e-01 -5.08659445e-02 +1.51524186e-01 +4.70183045e-01 -1.66452602e-01 -2.27797881e-01 -1.57573253e-01 +2.69428231e-02 -2.39508048e-01 +6.08706102e-02 +3.41504723e-01 +1.21529534e-01 +4.02053446e-01 +2.12009802e-01 -2.62816101e-01 +2.28462890e-01 -2.41682708e-01 +3.74177992e-01 +9.47305635e-02 +3.48571166e-02 +2.74024636e-01 -2.14483872e-01 +3.04177135e-01 -1.29304066e-01 
#Parameter# /_5 {25} 401 ZERO_GRAD
-5.50268888e-02 -9.40904468e-02 -3.75184625e-01 -9.33433995e-02 -9.51542109e-02 -4.75365132e-01 -2.98060149e-01 +9.22851488e-02 -3.43331069e-01 -1.09122016e-01 -7.14925528e-02 -4.61797357e-01 -1.02641983e-02 -5.79322636e-01 -1.59542680e-01 -9.07163322e-02 +2.35794008e-01 +3.35239023e-01 -6.72194883e-02 -2.83822149e-01 -3.51779908e-01 -2.20811188e-01 +8.72632340e-02 -2.99180955e-01 -1.61977008e-01 
#Parameter# /_6 {25,3} 1201 ZERO_GRAD
-3.15245509e-01 -2.90223926e-01 +6.60129786e-02 -2.44954228e-01 +2.54595697e-01 +1.66600645e-01 -1.47413015e-01 +3.25427175e-01 +3.12480688e-01 -3.33493590e-01 -1.20292604e-02 -9.44496393e-02 -2.84353316e-01 -1.25125766e-01 -4.12462443e-01 +1.14032328e-01 +1.54700100e-01 +1.53918386e-01 -3.19021463e-01 +1.68760240e-01 -2.72155046e-01 +4.24209714e-01 +1.39270246e-01 +2.84134388e-01 +3.90409708e-01 +2.93159902e-01 -2.32976183e-01 -3.38886380e-02 +2.38968432e-01 +9.95433927e-02 -1.16030604e-01 +3.62461507e-01 +3.16171408e-01 +3.59043419e-01 -1.72170997e-03 -3.95814657e-01 +2.76615024e-01 -4.18784261e-01 -1.25647753e-01 +4.53369617e-01 +1.33319199e-01 -1.90434784e-01 -1.13088071e-01 -3.45065832e-01 -2.28064522e-01 -2.89216310e-01 -4.26604599e-01 -2.64653534e-01 -2.79375851e-01 -4.06932890e-01 +3.92366707e-01 -2.89544225e-01 -9.76389050e-02 +1.52375877e-01 +1.10464036e-01 -2.88275898e-01 +4.08044517e-01 -1.00079447e-01 -1.96539909e-01 +1.92167759e-02 -5.53419888e-02 +2.41234064e-01 -4.39396769e-01 -1.14147335e-01 +4.04153585e-01 -1.61512494e-01 -4.32613850e-01 +1.65003955e-01 -1.53861046e-02 -1.00946128e-02 -3.88172984e-01 +2.80946195e-01 -1.75366402e-02 -1.39020711e-01 +1.22879446e-01 
#Parameter# /_7 {25,25} 10001 ZERO_GRAD
+1.81321025e-01 +8.23883414e-02 -2.87018031e-01 +9.69965160e-02 +9.62068439e-02 -1.65920854e-02 +1.61801338e-01 -1.24115795e-01 -2.20394522e-01 -3.28118205e-02 -2.26254165e-01 -1.50358200e-01 +4.06300724e-02 -3.54732871e-02 +1.45186484e-02 -9.01289880e-02 +2.07237720e-01 +2.45760500e-01 -2.27987915e-01 -3.16660643e-01 -1.03147030e-02 -1.60983175e-01 +1.95019186e-01 -2.90446788e-01 -2.27920339e-01 -3.20920080e-01 +2.83758223e-01 -7.27437139e-02 -3.22633237e-01 +2.90407300e-01 +3.37083697e-01 +4.02429402e-02 -1.83053195e-01 +1.48741573e-01 +3.29745412e-01 +2.57720947e-01 -1.01176307e-01 -1.29301265e-01 +2.36023366e-01 +1.56583786e-01 +1.13183856e-02 -7.62417614e-02 -2.45435014e-01 -9.76721942e-02 -1.19331032e-01 +3.40345442e-01 +1.91584527e-02 -2.81972557e-01 -3.14543247e-02 -3.04431915e-02 -2.12170169e-01 +2.20717371e-01 -1.57825410e-01 -1.87508538e-01 -1.11418962e-02 +2.72020519e-01 +1.46582872e-01 +2.91052163e-01 +1.60864592e-01 -1.14299908e-01 +2.87146986e-01 +2.55586267e-01 -2.43352458e-01 +1.66166008e-01 -3.24265063e-01 +2.91133761e-01 -2.11153656e-01 +1.81917846e-02 -3.90079021e-02 -2.91003078e-01 -8.82459879e-02 -1.72879174e-01 -3.41203362e-01 +1.46954060e-01 -2.86938965e-01 +9.79822874e-02 +1.09619856e-01 -1.14448339e-01 -3.20706993e-01 +2.65627503e-01 +1.82019770e-02 -1.95700526e-02 -3.27906996e-01 +7.85966516e-02 -2.60154694e-01 +2.20517814e-01 -1.99263945e-01 -2.59446621e-01 +8.43948126e-03 +2.00628638e-02 +2.91367114e-01 +2.94712245e-01 -2.19938695e-01 +1.01388544e-01 +1.53064489e-01 +2.36847758e-01 -1.10145837e-01 -3.18453431e-01 -4.76242304e-02 -7.88223743e-02 +1.71081245e-01 -3.24675351e-01 -1.84407502e-01 +2.14994311e-01 -4.89107370e-02 -4.74702418e-02 -9.70847160e-02 -3.05366427e-01 +6.25361204e-02 +2.52629578e-01 +2.47945428e-01 +2.97847390e-01 -2.62827247e-01 -1.99274287e-01 +1.71528220e-01 -1.34040281e-01 -2.11539567e-02 +1.01684093e-01 -1.68433666e-01 +1.78164005e-01 +2.74304569e-01 +1.61822617e-01 +2.45321453e-01 +2.01030254e-01 -9.95710194e-02 +1.48947269e-01 -2.98367143e-01 +6.33319020e-02 +2.42034972e-01 -2.70134360e-01 +2.04223573e-01 -8.86266828e-02 +3.21860731e-01 +2.74681866e-01 -3.21898907e-01 -3.10973287e-01 -1.22852102e-01 +1.66474581e-01 -2.71866769e-01 +1.50516689e-01 +2.38223076e-01 +5.40865660e-02 +1.14653975e-01 -3.40886831e-01 -2.38965929e-01 -3.11492354e-01 -7.20949173e-02 -8.70940089e-03 -7.35728443e-02 +1.56045496e-01 +5.68354726e-02 -1.66558355e-01 +1.95143223e-01 -2.54207611e-01 -1.11565888e-01 +1.69040561e-01 -1.59138039e-01 -2.47482538e-01 +2.14836299e-01 -1.82978213e-02 +2.37387538e-01 -1.56440169e-01 -2.72567898e-01 -2.81213850e-01 +1.90547109e-01 -3.22022915e-01 +9.96721387e-02 +2.09904015e-01 +9.15168822e-02 +3.32756281e-01 +1.51899219e-01 -1.91396773e-02 -2.78157234e-01 +1.73088610e-01 -7.17539489e-02 -2.46387064e-01 +3.25362265e-01 -2.66234577e-01 +1.76057816e-01 -1.34123012e-01 -1.86511904e-01 -2.39639878e-01 +3.00986826e-01 +4.08909321e-02 +8.23915303e-02 +1.66013002e-01 -1.50969788e-01 -3.46259415e-01 -2.12635145e-01 -2.89359927e-01 -2.60058850e-01 -3.43209028e-01 +1.15640312e-01 -3.12253624e-01 -2.05589607e-01 -6.81188107e-02 +1.62707090e-01 -1.75137222e-02 -2.82851070e-01 -2.36254424e-01 -2.07794726e-01 +2.92267859e-01 +3.25149596e-01 -2.29975164e-01 +2.93680727e-02 +2.51252770e-01 -2.60093093e-01 -3.25067222e-01 +2.58314788e-01 +5.42300344e-02 +1.47226065e-01 +2.76946664e-01 +2.95735598e-01 -3.80696356e-02 -1.82274938e-01 +1.40295893e-01 +6.15935922e-02 +3.30129921e-01 +3.35531831e-01 -1.90920591e-01 +3.44273984e-01 +1.76499605e-01 -1.66185364e-01 -2.98598409e-02 +2.28139162e-01 -2.53995836e-01 +3.27611268e-01 -2.30107218e-01 -3.07434678e-01 -2.58268416e-01 +2.95772076e-01 +2.53088951e-01 -3.19528967e-01 +2.28832245e-01 +2.70935535e-01 +8.80970955e-02 +1.92292988e-01 -2.15028137e-01 +1.64259255e-01 -3.17180812e-01 +2.49353230e-01 -1.56039521e-01 -7.53821731e-02 -2.82896936e-01 -3.41891527e-01 +5.93995154e-02 +1.21216834e-01 +2.66199768e-01 +2.37121701e-01 +2.41168261e-01 -1.56640410e-02 -1.50994003e-01 +1.81107640e-01 +2.32112706e-02 +2.25345433e-01 +1.85549617e-01 -9.20641422e-02 -2.66819745e-01 -3.28932881e-01 +2.07066596e-01 +1.51327580e-01 +5.06353080e-02 -3.18028480e-01 +1.76761448e-01 +1.39991432e-01 +6.52938187e-02 +1.33416504e-01 +2.89784849e-01 -1.55565143e-01 +2.31345892e-01 -3.24080825e-01 -1.70092240e-01 +3.09974909e-01 -3.33832085e-01 -2.17507496e-01 +3.32228541e-02 +2.06833899e-01 -3.07537735e-01 +1.35851085e-01 +1.21463776e-01 +3.48253250e-02 -2.65197724e-01 +3.30161750e-01 -1.48599625e-01 -5.63755035e-02 +3.29506397e-03 -1.34708077e-01 +1.05030239e-01 +3.11457992e-01 +2.77955949e-01 -6.14447892e-02 +7.88357854e-02 +2.15368152e-01 +3.87720466e-02 +2.36354172e-02 -5.90906739e-02 +3.42409194e-01 -1.78717479e-01 -2.58339882e-01 +3.38157058e-01 +2.23408878e-01 -1.61329553e-01 +1.51428580e-03 +1.11429602e-01 +1.30714476e-02 -7.77961314e-02 -2.62128592e-01 -1.49133489e-01 -2.55717903e-01 -3.80349755e-02 +7.44245052e-02 -2.11876005e-01 +2.90530562e-01 +1.23950958e-01 +4.30707037e-02 +1.71367109e-01 -1.42300367e-01 -1.22739956e-01 +1.43140823e-01 -2.56238878e-01 +3.05966914e-01 -2.31581450e-01 -2.14902833e-01 +1.37292147e-02 +1.36684418e-01 -2.09170684e-01 -1.90895557e-01 +7.16370344e-03 -2.92669058e-01 -1.13852322e-01 -1.82061762e-01 +2.85405993e-01 +1.16441458e-01 +2.54240155e-01 +2.25843132e-01 +7.50380754e-02 +2.27665722e-01 -2.14236677e-02 -2.92526364e-01 -3.32554311e-01 -2.43639261e-01 -1.79107949e-01 +2.35139847e-01 -4.36130762e-02 -3.42114061e-01 +3.09151649e-01 +6.40733540e-02 -1.74158201e-01 +1.51534706e-01 -2.92899013e-01 +2.45353818e-01 +1.76736891e-01 -2.95261592e-01 +2.94847488e-01 +4.47635651e-02 +2.95096219e-01 +1.26389772e-01 +6.45714402e-02 -3.42163891e-01 +5.32076061e-02 +2.88786113e-01 +3.04792702e-01 +2.96201825e-01 -2.52395272e-02 +1.66508555e-02 +3.17505240e-01 +1.41504824e-01 -2.83696353e-02 +7.35056996e-02 +3.75977159e-03 +3.15349936e-01 -7.35102594e-02 -2.82646358e-01 -2.62013495e-01 +3.24882865e-01 +2.83114314e-02 -2.88983405e-01 +2.15976834e-01 -1.89181268e-02 +3.26231420e-01 +2.31836855e-01 +6.53507411e-02 +3.31968427e-01 +3.45862627e-01 +1.03388995e-01 -3.35382640e-01 +6.09164536e-02 -1.59410581e-01 -2.18545794e-01 +1.50219202e-01 -2.68111706e-01 +2.87097931e-01 -2.33455896e-02 -2.49926299e-01 -2.62067586e-01 -2.59284526e-01 +2.61697054e-01 +2.43406653e-01 +2.76439607e-01 +3.34649384e-01 +3.21655869e-01 -7.10829794e-02 -2.36841932e-01 +2.59064138e-02 +2.48456836e-01 +2.86996782e-01 +2.80798376e-01 +6.63704872e-02 -4.04907465e-02 +1.36068493e-01 +1.13379955e-02 -1.31383702e-01 +9.24914181e-02 -2.78340191e-01 -9.00218189e-02 +3.22642326e-01 -2.21758664e-01 +2.70349741e-01 -1.61647514e-01 +3.18484306e-01 -1.16762504e-01 -4.58360910e-02 -6.89437687e-02 -2.73394287e-01 +1.61508203e-01 +1.13818347e-01 +2.03715444e-01 +5.85895777e-02 -3.03908408e-01 +2.37237930e-01 +1.02956027e-01 -3.12629402e-01 +1.44383997e-01 -8.69380534e-02 -1.68530717e-01 +2.82226086e-01 +1.77537918e-01 -1.15413859e-01 +1.15594864e-01 +2.65736580e-01 +1.48797899e-01 -3.39585483e-01 +8.61990750e-02 -2.30342120e-01 -2.73992896e-01 -3.45912218e-01 +5.97130954e-02 -1.42991632e-01 +2.54245937e-01 -2.48968452e-01 +1.57668412e-01 +1.33619010e-01 -8.51869285e-02 +2.80654371e-01 +3.43903601e-01 +2.49250293e-01 +5.99556267e-02 -2.39965811e-01 +3.39122832e-01 -1.84063315e-01 -3.28290045e-01 +3.22874308e-01 +2.72993386e-01 -3.29987466e-01 -3.09448361e-01 +1.00856453e-01 -6.73115253e-04 +1.28834337e-01 +3.24223518e-01 -9.43663716e-03 +2.82463372e-01 +7.59767294e-02 +2.06364989e-02 -8.52901638e-02 -2.00495526e-01 +3.39580059e-01 +3.03036869e-02 -2.86495686e-01 +8.71549845e-02 +2.18950629e-01 -1.34454370e-02 +2.81016529e-02 -9.99718308e-02 -8.58395100e-02 -2.28088081e-01 -5.07608056e-02 -1.96663961e-01 -1.83573365e-01 +1.30874455e-01 -2.78793663e-01 -1.04637578e-01 -2.98646390e-01 -1.09847710e-01 +5.31829894e-02 +5.31633198e-02 +2.19619215e-01 -7.94923306e-03 +3.40369284e-01 +1.04967177e-01 +8.49264562e-02 +2.25928068e-01 +6.05881214e-04 +2.73312926e-02 -1.29921436e-02 -6.32008314e-02 -3.34864110e-01 -8.99118185e-03 -7.80782700e-02 -2.59221792e-02 +3.09959233e-01 +1.85700476e-01 +1.01314515e-01 +3.22409451e-01 -2.44716942e-01 -2.97730446e-01 +3.39514852e-01 +2.69210100e-01 +2.99646497e-01 -2.55803972e-01 -9.98595953e-02 -1.76285684e-01 -3.38892698e-01 +1.88901961e-01 -2.99754620e-01 -3.05585980e-01 -3.46696973e-02 +3.37867498e-01 -2.79825956e-01 +5.46489358e-02 -1.43924803e-01 +2.20278382e-01 +3.45615745e-01 +9.33024883e-02 +1.33174717e-01 +2.52253652e-01 -1.20992631e-01 -2.85182357e-01 -3.42403054e-02 +2.73865581e-01 -2.57474124e-01 +5.28567135e-02 -3.40000957e-01 -2.31379792e-01 -1.96046129e-01 +2.58011937e-01 -1.22972041e-01 +6.94527924e-02 +1.79839432e-02 -9.10829008e-02 +1.13248050e-01 -7.66854584e-02 +8.27033520e-02 -9.59976017e-02 -2.64338881e-01 -9.71385390e-02 -2.13496596e-01 -2.51101077e-01 +2.88413227e-01 +6.42117262e-02 +1.23061538e-01 -1.29689008e-01 +3.46384645e-02 -1.98968649e-02 -1.65861309e-01 -3.08025658e-01 -2.36165941e-01 +8.99635255e-02 +2.87868917e-01 -2.69971073e-01 -3.38124901e-01 -8.16302001e-02 +8.75470042e-03 -1.28216147e-02 +1.72423244e-01 +2.75773644e-01 -2.12172166e-01 -2.36582160e-02 -2.62024462e-01 +2.21101224e-01 +7.40468204e-02 +2.54167199e-01 -1.81783706e-01 -2.91519970e-01 -3.16247642e-02 -3.01373750e-01 -1.07487783e-01 +3.06934237e-01 +1.37692392e-01 +2.83276141e-01 -6.41467571e-02 +1.82665884e-01 +8.95187259e-03 -2.75064826e-01 +2.52175629e-01 -1.88817501e-01 +2.10578799e-01 +6.21025562e-02 +1.94407761e-01 -1.18546993e-01 +3.38670194e-01 -9.29770768e-02 -2.06658542e-02 +2.19446719e-01 +4.87452745e-02 +3.02388549e-01 +3.21026742e-01 +3.11628878e-02 +4.11874056e-02 -8.68593752e-02 +3.35252345e-01 +3.13703120e-01 -1.50427058e-01 -1.23924434e-01 -2.87329942e-01 -9.88563895e-03 -1.67117670e-01 +2.69070923e-01 -1.96140513e-01 -1.45997331e-01 -2.98048198e-01 -3.43970627e-01 -2.91892648e-01 -2.68627942e-01 -1.22886017e-01 +1.24679953e-01 
#Parameter# /_8 {25} 401 ZERO_GRAD
+1.88127577e-01 -3.22904706e-01 -3.20607007e-01 +7.26527870e-02 +1.97536051e-01 +3.46209109e-01 -8.42654407e-02 -3.24080050e-01 -3.03159565e-01 +2.73177683e-01 +2.05592930e-01 -2.43687630e-02 +1.33447438e-01 +3.03198934e-01 -8.42677355e-02 -6.89753592e-02 +3.02723587e-01 +1.17796570e-01 +3.26205313e-01 +2.87165821e-01 -3.20122540e-01 +1.44857913e-01 +1.87847674e-01 +6.61228597e-02 -1.37460515e-01 
#Parameter# /_9 {25,3} 1201 ZERO_GRAD
-5.62325180e-01 -3.49454284e-01 +7.33850226e-02 +2.99550980e-01 +4.37592655e-01 -2.80278623e-01 -3.40866297e-01 -3.08544815e-01 +3.06419078e-02 -2.02427849e-01 -3.38031083e-01 -2.06599772e-01 -1.42707691e-01 +2.49510035e-02 +4.43286039e-02 -5.88646352e-01 +3.54541242e-01 +4.59641874e-01 -1.96945563e-01 +1.62835658e-01 -2.77443409e-01 +4.77405041e-01 +5.89110732e-01 +4.20703441e-01 +8.47049877e-02 +8.04711044e-01 +1.78640544e-01 +3.55091840e-01 -4.55371112e-01 -3.95877481e-01 +7.86250234e-02 +3.07698011e-01 +4.95636076e-01 -6.39523447e-01 -1.37216240e-01 +5.21155953e-01 -3.31478119e-02 -2.92199820e-01 -6.53547883e-01 -6.18375659e-01 +6.05636299e-01 -9.41729844e-02 +1.35204643e-01 -3.50156128e-01 -2.50879616e-01 +2.24926218e-01 +1.36051923e-01 -7.49352336e-01 -7.15575993e-01 -4.77030784e-01 -2.14447066e-01 +4.30586860e-02 -7.15662464e-02 +2.09091842e-01 -3.72668236e-01 +3.67562473e-01 +5.71324676e-02 -4.28796500e-01 +4.35851812e-01 +4.33301866e-01 +5.58553524e-02 -2.81258434e-01 +1.76354982e-02 +4.38465536e-01 +9.48859453e-02 -4.76851642e-01 -1.01670928e-01 -2.17517853e-01 +4.23274338e-01 +1.51899252e-02 +4.71086800e-01 +2.88121134e-01 +1.90053105e-01 -5.99893406e-02 +4.26562041e-01 
#Parameter# /_10 {25,25} 10001 ZERO_GRAD
-1.07740007e-01 +3.35096568e-01 -2.32453510e-01 -2.40846336e-01 -4.18259874e-02 -1.04834408e-01 -2.06955329e-01 -2.41842136e-01 -4.47468847e-01 +2.05304902e-02 +2.69248664e-01 +3.03229123e-01 -1.50235280e-01 +2.89065391e-01 +3.98822092e-02 +3.78313065e-02 -1.46862775e-01 +3.52315038e-01 -3.80659491e-01 -3.17399830e-01 -1.71844661e-01 -1.71242014e-01 -2.68994927e-01 -2.05901071e-01 -2.56072611e-01 -3.18629831e-01 +1.98964417e-01 -7.73782432e-02 -2.83267021e-01 +2.86212593e-01 +1.02381848e-01 -7.29231685e-02 -3.16356272e-01 -4.18225020e-01 -1.96295995e-02 +1.25445634e-01 +2.15991631e-01 -2.80194283e-01 -9.91187468e-02 -2.50752985e-01 +1.57729000e-01 -2.29672551e-01 -3.31365734e-01 -1.19428553e-01 +1.36110902e-01 -1.19895503e-01 -1.96190879e-01 -1.52294770e-01 +1.55036524e-01 -1.21533990e-01 -3.39849859e-01 +1.99084654e-01 +2.87025958e-01 +3.86958122e-02 -1.64891019e-01 -2.77226657e-01 -1.12791277e-01 -4.37192842e-02 -7.07745254e-02 +4.91654873e-02 +6.93112314e-02 -8.32797810e-02 +6.03625271e-03 -3.60834002e-01 +2.90232152e-01 -1.27523601e-01 +2.20608234e-01 +3.36680353e-01 +3.05465311e-01 +2.16880277e-01 -9.67797637e-02 -2.25436419e-01 -1.74224302e-01 +1.69093966e-01 +2.71163583e-01 -4.80144061e-02 +1.93357959e-01 -1.31889999e-01 -2.31974602e-01 +6.29739389e-02 +2.04084605e-01 -3.24466944e-01 +2.07994148e-01 -8.39721113e-02 -5.36399484e-02 -2.89040804e-01 +6.09273687e-02 +1.98655874e-01 -2.55460322e-01 +2.71883368e-01 +1.35594029e-02 -1.40560806e-01 -3.58965307e-01 +1.82138234e-01 -2.73000747e-01 +1.42675184e-03 -2.95859367e-01 -1.28024727e-01 -2.94599086e-01 -5.06095402e-02 -1.46463260e-01 -1.34463981e-01 -6.32059351e-02 +5.46163917e-02 -3.32003273e-02 +1.79025561e-01 +6.15657195e-02 -2.48905957e-01 +2.42595851e-01 +1.42748937e-01 -2.68673211e-01 -8.73556733e-02 -3.19751948e-01 +2.97426611e-01 -2.63243437e-01 -1.44140780e-01 -3.16326916e-01 -1.42852262e-01 +1.19601205e-01 -1.24180675e-01 -6.50073513e-02 -4.45008613e-02 +3.08535755e-01 -5.90964109e-02 +7.13162720e-02 -1.00834802e-01 -2.48534963e-01 +1.61242217e-01 -2.86353737e-01 -2.88035035e-01 +6.19981438e-02 -9.39274356e-02 -6.84243664e-02 -2.62216896e-01 +1.84438154e-01 -1.29320860e-01 +1.78979009e-01 -2.19184488e-01 +6.86006770e-02 -1.83223173e-01 -2.44063959e-01 -3.46932501e-01 +1.86601505e-01 -1.37798935e-01 -8.18988159e-02 +1.29742742e-01 +3.07768155e-02 +2.93249488e-02 -3.43743771e-01 +1.69064179e-01 +2.81912208e-01 +1.98670596e-01 -1.41281947e-01 -1.31944969e-01 -1.37157485e-01 +3.43160242e-01 -2.61485666e-01 +3.35224671e-03 -3.19766372e-01 +1.78647712e-01 +7.84142315e-02 +7.45364726e-02 +3.48472595e-01 -1.51277304e-01 -3.14676404e-01 +2.13133603e-01 -1.25195071e-01 -5.31289391e-02 -3.34115863e-01 -3.36471796e-02 -1.85711756e-01 -2.00531453e-01 +2.69587219e-01 +2.79533982e-01 +1.34845346e-01 +7.28171021e-02 +1.04568608e-01 -2.86494046e-01 -5.44173047e-02 -3.33704621e-01 -1.90759733e-01 -1.61001623e-01 +1.71990633e-01 -1.26528861e-02 +1.68181494e-01 -4.54976968e-02 +2.25234881e-01 +2.71488488e-01 +4.81114835e-02 +1.28425166e-01 -8.69754180e-02 +1.56214699e-01 -8.27901661e-02 -3.38643372e-01 -1.26461893e-01 -2.36092493e-01 -1.65128395e-01 +1.22808471e-01 -2.06675511e-02 +3.48618552e-02 +4.89930660e-02 -2.50348330e-01 +2.79129833e-01 -9.30059031e-02 +2.62401477e-02 +3.12606782e-01 -2.19151601e-02 +9.24131051e-02 +4.24864382e-01 +8.18476975e-02 -1.89982072e-01 +1.82532087e-01 +3.08594316e-01 -3.17846298e-01 -2.04428002e-01 +2.65058205e-02 -9.14673321e-03 -1.61041886e-01 -2.95984233e-03 -1.18558742e-01 -2.40552023e-01 -1.00280933e-01 -2.48214334e-01 +8.29290822e-02 -2.15774719e-02 +6.31622449e-02 +1.99742943e-01 -2.88497299e-01 +2.88924277e-01 +8.15677643e-03 -1.36107188e-02 +2.54914999e-01 -3.82163450e-02 -2.63353884e-01 -1.32648885e-01 +2.80774325e-01 +3.16243589e-01 +8.81305858e-02 +7.36906826e-02 -3.68400710e-03 -1.72690660e-01 +2.36749500e-01 +3.85146081e-01 +1.40937939e-01 -2.78610140e-01 -2.65983701e-01 -1.68795779e-01 +2.34279856e-01 +6.46343529e-02 -2.14802057e-01 +2.84786940e-01 +8.03152844e-02 +6.81928322e-02 -1.49011865e-01 +1.76405534e-01 +2.90106535e-02 -2.23794013e-01 +1.34223476e-01 +3.25491466e-02 +7.54656568e-02 +3.27686638e-01 +2.43653893e-01 -1.32171080e-01 -1.41987622e-01 -1.48498043e-01 -8.16482082e-02 +1.79215014e-01 -4.10122015e-02 -1.00588448e-01 +1.11591049e-01 -1.58783346e-01 +7.63235092e-02 -1.71008304e-01 -2.72215575e-01 +3.84785905e-02 -3.99115570e-02 -2.12207690e-01 -3.37030321e-01 -2.72343248e-01 -2.65040040e-01 +2.98663020e-01 -1.87266961e-01 -4.67697680e-02 -1.32566646e-01 -1.94310054e-01 +2.66883463e-01 -2.73065865e-01 +2.01353312e-01 -5.86335640e-03 +1.94030464e-01 -6.41484484e-02 +1.18627496e-01 +1.15575753e-01 -3.40987772e-01 -2.01137811e-01 +2.10414812e-01 -1.84717774e-01 -2.44487852e-01 +2.80403763e-01 +1.07101038e-01 -4.68448661e-02 -5.89505620e-02 -9.47595835e-02 +1.22730374e-01 -3.04886669e-01 +1.62491336e-01 -5.32615371e-02 +4.39491607e-02 +2.82712936e-01 +1.64088547e-01 -4.29588519e-02 -2.88955092e-01 -2.65033185e-01 -1.35250121e-01 +1.51298195e-01 +2.39614829e-01 -2.65045851e-01 +3.52490425e-01 +3.31180394e-01 -1.13139801e-01 +1.16225379e-02 -1.31241709e-01 -2.32594758e-02 +2.92276174e-01 -2.52502918e-01 -2.98629701e-01 -5.58985882e-02 -1.60749294e-02 +2.64244169e-01 -1.23487569e-01 -7.95045868e-02 +3.05226505e-01 -2.89094523e-02 +1.01416774e-01 -2.02676505e-01 -3.16684008e-01 -2.54633665e-01 -2.76773989e-01 +3.51672135e-02 -5.73622547e-02 -3.40045959e-01 +2.65542448e-01 -3.44802260e-01 +1.49011657e-01 -3.64856748e-03 -3.40507835e-01 +3.66462171e-01 +2.37720117e-01 +8.89179185e-02 +2.11273775e-01 -3.08218390e-01 -5.85699491e-02 +3.08945566e-01 +2.65260339e-01 -8.12029839e-02 +3.17764491e-01 -1.96093440e-01 -9.74766612e-02 +1.00346856e-01 -1.99340805e-01 +1.32412389e-01 -2.97495484e-01 -2.87814081e-01 +3.03505927e-01 -5.19311465e-02 -4.69087034e-01 +1.65662557e-01 +1.99017540e-01 -2.41893530e-01 -8.19110274e-02 +2.74086505e-01 -2.38414600e-01 -2.35184893e-01 +3.72937471e-01 +2.23960027e-01 -1.89945072e-01 -7.92951882e-02 -3.50535303e-01 +5.28221354e-02 -1.98214352e-01 -7.97671452e-02 +2.99574256e-01 +9.44799483e-02 -1.50070578e-01 -2.16757074e-01 -1.62024185e-01 +1.51772887e-01 -3.40491861e-01 +1.30607635e-01 +5.53360879e-02 -2.46206716e-01 +2.48464435e-01 +2.13020906e-01 -3.66656482e-01 +1.02299280e-01 -2.63625354e-01 +7.90661797e-02 +1.03858359e-01 -3.00540894e-01 -2.81011336e-03 +1.85889170e-01 +1.56952441e-01 +2.88772076e-01 +1.60322890e-01 -2.85251867e-02 +2.66795814e-01 -8.45200568e-02 +2.71903537e-02 +2.51377285e-01 +8.96611959e-02 +1.65530711e-01 -1.60425827e-01 -1.02468409e-01 -1.36828884e-01 +2.35482961e-01 -1.72595277e-01 +1.26851171e-01 -2.78620292e-02 +6.56112507e-02 -2.37996921e-01 -1.05820999e-01 +2.31752768e-02 -2.52797663e-01 -2.92518660e-02 -2.19831049e-01 +4.81458493e-02 -2.45890226e-02 -3.04919153e-01 -2.73368061e-01 +2.38098726e-01 -2.57995158e-01 +3.30913067e-01 -2.41048083e-01 -1.05236948e-01 +2.67226219e-01 +2.14958698e-01 +2.34843772e-02 +3.36324483e-01 -1.68667939e-02 +5.10851741e-02 +2.92967379e-01 -2.31941327e-01 -1.49349734e-01 -1.32185638e-01 -1.04961909e-01 +2.92836308e-01 +1.45735040e-01 -4.97714579e-02 -1.92755893e-01 +2.09457308e-01 +8.49013999e-02 +3.23990807e-02 -2.15419963e-01 +2.91270286e-01 -7.79775456e-02 -9.90763977e-02 -2.54169285e-01 -2.71477491e-01 -2.86181867e-01 +3.10666651e-01 -1.62877902e-01 +3.51005495e-01 -1.46686152e-01 +1.53770059e-01 -1.75051555e-01 -1.66737452e-01 +7.97087103e-02 +1.82983994e-01 +2.19820276e-01 -1.28899738e-01 -1.60991028e-01 -4.33189534e-02 +1.30067438e-01 +1.09415591e-01 -3.58346909e-01 -2.25928232e-01 +1.91685513e-01 +9.25834551e-02 +3.47760580e-02 -3.89610119e-02 +2.27238759e-01 +5.53174019e-02 -6.28816932e-02 -2.72787303e-01 +6.10913970e-02 +1.12112826e-02 +3.00263226e-01 +1.59123823e-01 -3.12063426e-01 -3.41890484e-01 -2.59481043e-01 -3.44879478e-02 -1.17592961e-01 +1.75487678e-02 +1.90934807e-01 -1.55019701e-01 -1.55566439e-01 +1.90135270e-01 -7.58135691e-02 +2.80413806e-01 +1.23953039e-03 +2.19838843e-01 -1.59314886e-01 +2.12284088e-01 -1.63656175e-01 +2.33305916e-01 +3.51155736e-02 +5.07620536e-02 +3.79955560e-01 +2.41174683e-01 -2.30753779e-01 -3.35756183e-01 +2.09493190e-01 -3.26869220e-01 -1.19313051e-03 -7.38510340e-02 -6.69320486e-03 +8.28547999e-02 +1.27613181e-02 +8.16755295e-02 +2.95209527e-01 -6.72399774e-02 -4.21510600e-02 +7.48807117e-02 -1.19077496e-01 +3.11839581e-01 -1.78362966e-01 -9.33252051e-02 -3.07597309e-01 +7.46105239e-02 -2.53355950e-01 -2.95382529e-01 -2.01827243e-01 -1.74961552e-01 -1.15106769e-01 +7.69132674e-02 +5.15894257e-02 +1.66109458e-01 -2.01459214e-01 +1.14849381e-01 -3.15299004e-01 -2.02211857e-01 -5.48357293e-02 +3.31283271e-01 -2.10595913e-02 -8.82877409e-02 +3.32458504e-02 -2.35026926e-01 +1.32345363e-01 -7.93680847e-02 -3.10380071e-01 -2.79485703e-01 +2.40648553e-01 +2.37188071e-01 +9.53555480e-02 +1.04772843e-01 -2.28017658e-01 +3.73549871e-02 +1.95594598e-02 -2.91966826e-01 +3.07792991e-01 +1.02067567e-01 -9.34175551e-02 -3.45660537e-01 +1.33187011e-01 -3.22398782e-01 -1.15531206e-01 +9.10043344e-02 -2.14787588e-01 +1.73248366e-01 -4.91650328e-02 +3.38710338e-01 -1.15917712e-01 -1.55718289e-02 +3.61160785e-01 +1.17412522e-01 -3.60859901e-01 +3.45113762e-02 -2.88901359e-01 +8.54596421e-02 +3.20016980e-01 +7.03888461e-02 +2.48333097e-01 -1.26306698e-01 -1.30116090e-01 -3.19976091e-01 +2.87511706e-01 +1.75595596e-01 -5.71222156e-02 +3.53614599e-01 -3.16259980e-01 -3.03156912e-01 +2.78353691e-01 -1.25130430e-01 -2.80940216e-02 -1.32448107e-01 -4.99148257e-02 -2.58720577e-01 +2.70988792e-01 +2.00488463e-01 -1.24161474e-01 -3.73089224e-01 +2.79632121e-01 -1.64921805e-01 -1.03049368e-01 -1.48483276e-01 -3.44689727e-01 +9.68205258e-02 +6.18823208e-02 +1.19668886e-01 +3.22653621e-01 +3.15327764e-01 +3.44226211e-01 -1.08855776e-01 -1.71892315e-01 -1.34318590e-01 -2.60171503e-01 +2.48782232e-01 -9.32758301e-02 +2.86527008e-01 +3.43871891e-01 +2.67465770e-01 +1.07202306e-01 +8.51563141e-02 -1.46920890e-01 
#Parameter# /_11 {25} 401 ZERO_GRAD
-2.68375576e-01 +2.42814392e-01 -3.42923731e-01 +2.46376678e-01 -1.55425102e-01 -2.69730333e-02 -3.26511621e-01 +2.53544033e-01 -2.43352890e-01 -3.27882051e-01 +1.49522230e-01 -9.17688161e-02 -2.77726591e-01 +4.30824608e-02 -6.96125850e-02 +2.08840623e-01 +1.38036653e-01 -6.17190450e-02 -2.52854884e-01 -2.80970544e-01 -5.21913804e-02 +1.07030042e-01 +2.08135307e-01 +1.35765463e-01 -2.08163843e-01 
#Parameter# /_12 {25} 401 ZERO_GRAD
-3.45282972e-01 -7.69403577e-03 +9.08443928e-02 +3.07045460e-01 +2.58943975e-01 -1.03112727e-01 -3.34872663e-01 +1.32542282e-01 -2.69552708e-01 +2.97805369e-01 +8.02579522e-03 -3.43614966e-01 -1.70298651e-01 +2.53374279e-01 -3.01269442e-01 +6.89599812e-02 +1.60810292e-01 +1.35355353e-01 +2.59356737e-01 +7.74155855e-02 -2.61678040e-01 +9.04672444e-02 -2.90758610e-02 +1.68701112e-01 -3.18117291e-01 
#Parameter# /_13 {25,25} 10001 ZERO_GRAD
+1.91252023e-01 -3.51786554e-01 +4.24729615e-01 +7.11084977e-02 +2.85239100e-01 +3.56848001e-01 -1.19368628e-01 +3.19589674e-01 +4.78437841e-01 -3.44790146e-02 -1.50041208e-01 -3.72219160e-02 +5.11703193e-01 -1.49049133e-01 +3.10732007e-01 +9.72409993e-02 +1.84264958e-01 -1.17374070e-01 +5.25360823e-01 +5.68897724e-01 +2.26058871e-01 +8.77270475e-02 -3.23344737e-01 -7.12246671e-02 +3.99832994e-01 +2.61390805e-01 -1.21625148e-01 -4.22887653e-02 -1.79942906e-01 +1.34622559e-01 +2.00693354e-01 +3.60066742e-01 -2.37880424e-01 +1.14713304e-01 +2.90482342e-02 -2.68350393e-01 +3.42774689e-01 +2.89562702e-01 -9.72436294e-02 +7.17780963e-02 +4.16703373e-02 +1.50237188e-01 +1.45329133e-01 +1.58303633e-01 -8.07636827e-02 -1.67431101e-01 -1.78906787e-02 -5.22439063e-01 -9.78146344e-02 +2.11748511e-01 -5.00248894e-02 +2.51614034e-01 -1.35563567e-01 -3.59804705e-02 +1.59154549e-01 +2.25455999e-01 +3.74861173e-02 +1.32452056e-01 +1.87256485e-01 -3.19475457e-02 -2.66783535e-01 -3.53257149e-03 +5.22155344e-01 -1.08033068e-01 -6.53252825e-02 -6.02728985e-02 +5.08442037e-02 +1.64064914e-01 +1.59461111e-01 -3.76082920e-02 +2.01153547e-01 -2.78695613e-01 +4.73039895e-01 -3.60269994e-01 -2.30519861e-01 +1.03653215e-01 -2.27995068e-01 -3.79526854e-01 -6.36506081e-02 -3.07841003e-01 +2.30995595e-01 -1.41078964e-01 -3.99945259e-01 +8.76836404e-02 +1.63669512e-01 -1.43407911e-01 -3.51599753e-01 -5.05818188e-01 -7.50496089e-02 +1.55865684e-01 -3.67825329e-01 -2.25787193e-01 -6.34292215e-02 -6.43358901e-02 +8.24532807e-02 -4.31184739e-01 -2.87172675e-01 +3.25020909e-01 -5.70627972e-02 -4.52720881e-01 -3.00138235e-01 -1.33935943e-01 -1.43138409e-01 -3.00009012e-01 -9.19096917e-02 -2.46477962e-01 +1.76816568e-01 +2.32123032e-01 -2.97930151e-01 -3.51708859e-01 -1.65725246e-01 -4.59979147e-01 -4.49555755e-01 -3.54244888e-01 -1.22375660e-01 -1.85572252e-01 +1.59781560e-01 -1.85902968e-01 -5.11496723e-01 -4.82923001e-01 -4.71303873e-02 -7.89654329e-02 +1.76570132e-01 +3.85321259e-01 -3.63086224e-01 +1.30394712e-01 +1.31443869e-02 +4.19774324e-01 +8.74146000e-02 +1.16418377e-01 -1.26161873e-01 +6.51501715e-02 +2.85458624e-01 +2.16515705e-01 -4.86850888e-02 +6.03731498e-02 +2.57991135e-01 -8.12291726e-02 +1.07474439e-02 +2.95260787e-01 -1.50410712e-01 -1.31011382e-01 -2.44110618e-02 -3.35942537e-01 +1.88967302e-01 +3.82090881e-02 -1.21791333e-01 +2.54940391e-01 -4.91386265e-01 +3.96816283e-01 -1.68438241e-01 -7.36182258e-02 +6.90741092e-02 +4.25236642e-01 -3.23175490e-01 +3.76028508e-01 -7.07509890e-02 +5.04694819e-01 +4.51054722e-01 +2.75997251e-01 +3.57869238e-01 +1.16522476e-01 +1.14304170e-01 -5.34948036e-02 +2.85509199e-01 -1.06466398e-01 -4.83463379e-03 +2.15866596e-01 +1.60654727e-02 +4.24262077e-01 +5.05398333e-01 +9.34321433e-02 +7.56482258e-02 -2.59347618e-01 +5.24554610e-01 -1.71257421e-01 -4.32765186e-01 +1.72842830e-01 +2.85244435e-02 +1.24304526e-01 -2.35735953e-01 -1.95101157e-01 -1.14446618e-02 +9.60572958e-02 -2.39871904e-01 -8.59642625e-02 -7.22962171e-02 +1.02413192e-01 +6.33373260e-02 -2.53395647e-01 -1.42898232e-01 -8.52148086e-02 +3.88999790e-01 -1.30826786e-01 -4.43695597e-02 +6.62525147e-02 +1.85403943e-01 -3.42871219e-01 +1.73489988e-01 -9.21920016e-02 -1.82972401e-01 -1.59791708e-01 -4.50272858e-01 +3.04589808e-01 +2.58825403e-02 +2.46803746e-01 +2.33784527e-01 +2.98655499e-02 -5.61426245e-02 -4.08418238e-01 -4.01522845e-01 -1.04333408e-01 +1.29172459e-01 -6.18116781e-02 +9.65500623e-02 +2.61574060e-01 -3.55388701e-01 -4.92864013e-01 -9.54887569e-02 +2.41782606e-01 -2.67119259e-01 -2.47900397e-01 +3.32682163e-01 -2.06200942e-01 +1.12770095e-01 +6.30350597e-03 -1.12030908e-01 +2.90596753e-01 +3.63419831e-01 +1.21223547e-01 -9.44755301e-02 -5.20267151e-02 +5.12830541e-03 -8.78485069e-02 +3.82103235e-01 +4.61911976e-01 +2.86491066e-01 -1.17600635e-02 +2.15495214e-01 -2.16139510e-01 -1.15516625e-01 -1.35699660e-01 +1.48766652e-01 -1.22812375e-01 -6.27506003e-02 +4.46122617e-01 -2.41973117e-01 +1.16165914e-02 +3.81633490e-01 +3.16259086e-01 +3.50191593e-01 -1.48712754e-01 -3.17058079e-02 -2.86853164e-01 -8.92725214e-03 +1.33255601e-01 -5.57321161e-02 +3.09473813e-01 +1.59181312e-01 +3.11627775e-01 -2.42685288e-01 +4.90816496e-02 +1.93517789e-01 -2.40125492e-01 +8.88405889e-02 -1.40966460e-01 +1.68432623e-01 -2.84140766e-01 -5.09542115e-02 +3.16049576e-01 +5.51943541e-01 +2.75510639e-01 -3.59158695e-01 -5.00914395e-01 +9.75176767e-02 +1.68929502e-01 +1.85337409e-01 -2.17001513e-01 +1.44458432e-02 -1.58626307e-02 +9.76709947e-02 +3.13146740e-01 +2.59505332e-01 +1.12808831e-01 -1.80643313e-02 +1.93590447e-01 -5.05290739e-02 +1.12271093e-01 -1.95161402e-01 -2.41778001e-01 -1.07037306e-01 +1.85664326e-01 -2.19789296e-01 +2.53801018e-01 +3.36129785e-01 +2.00761575e-03 +2.09147573e-01 +2.45380566e-01 +4.84105468e-01 +5.30598760e-01 -3.61388415e-01 -1.18846253e-01 +6.56126365e-02 +2.29893729e-01 +2.53532827e-01 -2.48523541e-02 -1.90536022e-01 -1.34264126e-01 +4.59933281e-01 +3.91764551e-01 +3.18893790e-01 +2.93538766e-03 +3.27232003e-01 +3.21813017e-01 -3.50393981e-01 -8.77127722e-02 +6.77390844e-02 +1.95563748e-01 +5.31268716e-02 +1.32349655e-01 +1.45612895e-01 -2.19149232e-01 +8.19712579e-02 +2.37318069e-01 +1.42647490e-01 -1.35069832e-01 -2.85080940e-01 -3.28031890e-02 +8.06705058e-02 -1.92237481e-01 +1.34978652e-01 +5.89823090e-02 -2.41108701e-01 -8.08986500e-02 -2.97007877e-02 -2.15575069e-01 +2.49545253e-03 -2.69266009e-01 -4.78864163e-02 +4.55736578e-01 -7.46300444e-03 +2.16616794e-01 +4.15378921e-02 +2.35764012e-01 -4.47997510e-01 +9.73063260e-02 -2.97430232e-02 +1.03546582e-01 +1.28773063e-01 +1.39945760e-01 +2.92392164e-01 -2.00502668e-02 -2.61500329e-01 +1.23369418e-01 -1.16043508e-01 +1.13636754e-01 +2.97567338e-01 -3.05178523e-01 -2.80153841e-01 -1.97037682e-02 -1.10641560e-02 -3.25310409e-01 -9.41420847e-04 -1.07307054e-01 -3.01394552e-01 +7.52346218e-02 -2.88806558e-01 -3.35724890e-01 -2.54191794e-02 -2.44343236e-01 +2.75686346e-02 -3.68588530e-02 +1.86658859e-01 +2.92105436e-01 +5.14387153e-02 +2.38471285e-01 -8.60129148e-02 +4.25776780e-01 +2.81634122e-01 +6.89983591e-02 +1.51412025e-01 +1.78177819e-01 +4.98045862e-01 -2.91011948e-02 +2.61607394e-02 -1.23095825e-01 -3.81970555e-02 -6.25033677e-02 -4.52539176e-02 -9.70830098e-02 +2.96470761e-01 +4.96465191e-02 -7.10590035e-02 +2.32199743e-01 +1.17688976e-01 +3.93736720e-01 -2.56933738e-03 -5.03986180e-01 -2.22038180e-01 -1.11036673e-01 +4.07543704e-02 -5.00593856e-02 -3.63565087e-01 -3.25258315e-01 +1.52733311e-01 -2.53417581e-01 -4.49203402e-02 +5.64516112e-02 -8.05844516e-02 -2.08016112e-01 +3.92788164e-02 -1.91653863e-01 +8.31108764e-02 -1.39729425e-01 +1.87171891e-01 -3.09971392e-01 +8.73688459e-02 -7.39583047e-03 +2.96482265e-01 +9.99675244e-02 +1.10180929e-01 -1.46479849e-02 +6.85838833e-02 -2.40136564e-01 -3.67699265e-01 -4.84810844e-02 +3.77770029e-02 -7.02977553e-02 +9.98491421e-02 -2.46722430e-01 +2.51754880e-01 -2.11898796e-02 +1.86651260e-01 +4.76362526e-01 +2.91482955e-01 -2.74439901e-02 +3.73177409e-01 -2.75814593e-01 -5.48191890e-02 +1.56489853e-02 -1.31179243e-01 -2.14774013e-01 -1.89877301e-01 +1.75239053e-02 +1.18373260e-02 +3.46360385e-01 +6.85651898e-02 -5.05042039e-02 +4.49518591e-01 +3.21389884e-01 -4.79727268e-01 +2.20307887e-01 +8.56401995e-02 -7.50899315e-02 -1.82002738e-01 +1.23466618e-01 -1.70870602e-01 -6.01787360e-06 -1.39188170e-01 -1.52913436e-01 +2.19357610e-01 -1.09134838e-02 -1.88760445e-01 +2.17816219e-01 -3.61010730e-01 +3.29932004e-01 +2.37228975e-01 -3.21444184e-01 +3.07143852e-02 -2.33650133e-01 +1.06549282e-02 -2.48451456e-01 +4.02112722e-01 +5.78418016e-01 -4.54457521e-01 +1.40856415e-01 +1.12677012e-02 +2.93385386e-01 -3.06794167e-01 -3.29200953e-01 +1.77789047e-01 +8.44660476e-02 -1.21003360e-01 +6.94130659e-02 +9.41330269e-02 -2.12787628e-01 -2.13229313e-01 -4.27265555e-01 -4.72177714e-02 +1.09585598e-01 -2.89979935e-01 -2.25695997e-01 -2.21913636e-01 -1.34800136e-01 -1.66636989e-01 -1.42409176e-01 -1.96842492e-01 +1.49317190e-01 +2.09604517e-01 -2.29196995e-02 -4.34288308e-02 +2.45312572e-01 +4.53710824e-01 +4.68545794e-01 +2.83296704e-01 +2.14366794e-01 +1.06966697e-01 -4.89882156e-02 +3.58302653e-01 +3.84636313e-01 +2.33887285e-01 +2.59856910e-01 -1.37095928e-01 +2.22539112e-01 +2.46289700e-01 +9.24788136e-03 +3.09102148e-01 +2.00259179e-01 -7.80886784e-02 -9.88359526e-02 +2.80764014e-01 -1.31777292e-02 +1.41123936e-01 +1.19466513e-01 +2.23598585e-01 +3.89137983e-01 +1.10526495e-01 -4.61627930e-01 +1.11788355e-01 -9.77986977e-02 +1.50520682e-01 -1.55967191e-01 -1.49800301e-01 +2.15264857e-02 +1.57749504e-01 -2.16185242e-01 +1.20774349e-02 -5.83470285e-01 +1.33531645e-01 +4.59378101e-02 -3.63276899e-01 -3.88617516e-01 -3.24239075e-01 -4.59129363e-01 -7.56925642e-02 -5.34990549e-01 +2.21837506e-01 -3.21071297e-01 -1.43333271e-01 -8.62483755e-02 +2.00219154e-01 +1.57720279e-02 -7.08343312e-02 -1.25215411e-01 -3.17049235e-01 -1.43209234e-01 +3.41294050e-01 -2.71635413e-01 +1.91851601e-01 -5.58264703e-02 +3.52924675e-01 -3.77216905e-01 -5.89256644e-01 -2.84522474e-01 +3.03988099e-01 -2.53999561e-01 +1.90935984e-01 +1.20315641e-01 -2.96606451e-01 +2.15548068e-01 -4.05825265e-02 -1.44661173e-01 -1.97912566e-03 -8.89800191e-02 +2.53403932e-01 +9.13041830e-03 +8.31264183e-02 -2.18263879e-01 +2.92839944e-01 -2.50075817e-01 +1.43155187e-01 +1.45825773e-01 -3.40984643e-01 +1.73926950e-01 -3.26060832e-01 -7.88573548e-02 +1.53471753e-01 -5.03854871e-01 +3.41042727e-01 -1.07017159e-01 -4.43348587e-02 -9.48094204e-02 -2.27092803e-02 -5.12856580e-02 +2.17018187e-01 -3.36657166e-01 -4.85600233e-02 +2.91425109e-01 +3.93912017e-01 -1.04244368e-03 -1.97056696e-01 -1.73562020e-01 +3.93727049e-02 +2.23098155e-02 -2.67950386e-01 +1.81157798e-01 -7.91124031e-02 -3.40250850e-01 +2.50346214e-01 +1.75582319e-01 -1.77932873e-01 -2.02291965e-01 -3.80089164e-01 -1.08528763e-01 -1.32631645e-01 -1.13813812e-02 +1.27894908e-01 -3.98295105e-01 -3.10698092e-01 +3.87392849e-01 +2.82832738e-02 -3.19973409e-01 +5.85467741e-02 -4.07935649e-01 +3.17549825e-01 
#Parameter# /_14 {25,25} 10001 ZERO_GRAD
-3.98834199e-01 +3.51951569e-01 +4.10398021e-02 +3.82512296e-03 -9.55447182e-02 -1.92549735e-01 +5.64784147e-02 +3.34269285e-01 +8.70227814e-02 -2.36064792e-02 -1.50192659e-02 +1.95157140e-01 +1.39183447e-01 +1.70489639e-01 -2.21430704e-01 -1.00623399e-01 +1.94121644e-01 +2.63342530e-01 +2.38262326e-01 -3.93006504e-01 +1.29114568e-01 -3.20529312e-01 +1.26951739e-01 +3.86281371e-01 +3.53622884e-01 -2.79322475e-01 +4.11631286e-01 +1.49987876e-01 -2.56132692e-01 -2.77456760e-01 +2.05934897e-01 -1.71993792e-01 +2.52684683e-01 +2.84217447e-01 -1.62601799e-01 +1.69342205e-01 +1.28935203e-01 +6.35939464e-02 -3.39800268e-02 -6.66262656e-02 +2.95621306e-01 -1.54996440e-01 -3.89313325e-02 +1.73951894e-01 +4.62898195e-01 +1.94702655e-01 +3.20409656e-01 +1.31507456e-01 -8.96819159e-02 +1.43920481e-01 +2.24370830e-04 -1.14332534e-01 +7.05354214e-02 +1.78096488e-01 +2.84531683e-01 -1.33166045e-01 +2.81820819e-03 +2.51222998e-02 -4.40154135e-01 -1.00853428e-01 -1.56488866e-01 -3.66024882e-01 -1.79055661e-01 +5.52207381e-02 +2.71742731e-01 +1.53730631e-01 +2.58559417e-02 -5.87119818e-01 -1.24988228e-01 +1.34858653e-01 -1.90182403e-01 +1.52308747e-01 +1.74828127e-01 -6.45096779e-01 +1.89823970e-01 -2.12843567e-01 +5.49694076e-02 -6.42139763e-02 -2.27457508e-01 -1.88301235e-01 -1.12597838e-01 +8.56050178e-02 +1.57974988e-01 -1.38005361e-01 +1.29061103e-01 -2.68245488e-01 -5.10542393e-01 -3.09229553e-01 -2.54957289e-01 +2.71664709e-01 -4.03691947e-01 -2.29327783e-01 -4.01028961e-01 -2.95133978e-01 +2.03032076e-01 -4.50066864e-01 +2.67607689e-01 -1.43670857e-01 +2.22036272e-01 -3.90975028e-01 -1.56937942e-01 +2.59868950e-02 -1.12038821e-01 -1.50141334e-02 +5.89272864e-02 +4.33615483e-02 -3.25237066e-01 +2.52836615e-01 +4.19935763e-01 -1.47790238e-01 +3.75357062e-01 +2.04349905e-01 -3.45637560e-01 +3.98018479e-01 +9.82075557e-02 -2.35046819e-01 +2.56238192e-01 +8.15012231e-02 -3.83550555e-01 +3.60276878e-01 +2.64773458e-01 -2.82603562e-01 +1.36911437e-01 +2.80756861e-01 +9.79336277e-02 -3.41431379e-01 -1.57839909e-01 +2.80500084e-01 +2.77598828e-01 -1.77779138e-01 +2.07597598e-01 +4.45574448e-02 +1.86780512e-01 +5.22923887e-01 -2.33003393e-01 +4.52368975e-01 +4.48344260e-01 +2.22855970e-01 +9.35722962e-02 -1.80970177e-01 +2.34090805e-01 +6.73913658e-02 -1.21731654e-01 +1.06503852e-01 +4.31326121e-01 +3.27450223e-02 -3.95054445e-02 -2.98885435e-01 +2.52134860e-01 +4.13906395e-01 -4.93742049e-01 -3.22595388e-01 -9.39769521e-02 -2.10800499e-01 +6.79615587e-02 -2.10929021e-01 +1.15388958e-03 +1.21682025e-01 +2.46127751e-02 +1.80890277e-01 -1.64244711e-01 +2.18544602e-01 +1.48460522e-01 +5.10116458e-01 -6.07630387e-02 -2.42306411e-01 -3.54245596e-04 +4.76737916e-01 +3.36904377e-01 +2.67132223e-01 +7.28461444e-02 -3.11238289e-01 -4.44150008e-02 +1.18130475e-01 +4.43550467e-01 +8.81600156e-02 -4.81206298e-01 -2.85928279e-01 -2.61564046e-01 -7.10825548e-02 +1.33263782e-01 +3.37289155e-01 -2.71772332e-02 -3.41778994e-01 +8.36800933e-02 -2.07877770e-01 -4.07609135e-01 -4.44715023e-01 -2.57859945e-01 -1.03226610e-01 +1.01849236e-01 -9.85662565e-02 -1.35420740e-01 -6.56222105e-01 -8.06285292e-02 -2.82351434e-01 -1.84506968e-01 -2.02573046e-01 -5.61065376e-01 -2.29392126e-01 +5.46001673e-01 -2.25928620e-01 -1.45146832e-01 -9.97997224e-02 +3.28039885e-01 -3.95949744e-02 +5.63752614e-02 -2.57585704e-01 -5.45223355e-01 +1.21966787e-01 -4.11221802e-01 +4.64856476e-02 -4.08263057e-02 +6.03790097e-02 +1.40906036e-01 +5.82796000e-02 +1.70656934e-01 -4.97391820e-01 +1.60595611e-01 -5.70565052e-02 +1.91801153e-02 +5.08664787e-01 -9.13538188e-02 -8.21520910e-02 +1.70783833e-01 -4.54195052e-01 +8.66103917e-02 +4.80089663e-03 +3.82142782e-01 -3.27624977e-02 -1.48999065e-01 -8.26358795e-03 -2.66264528e-02 +5.07393703e-02 -1.64079890e-01 +3.76304425e-02 +1.87581137e-01 +5.36826551e-01 +9.56946984e-02 -4.61921424e-01 +3.96671236e-01 -2.62009442e-01 +3.88952971e-01 +5.07202983e-01 +1.37537243e-02 +5.95984817e-01 +1.83044802e-02 -1.30603284e-01 +1.83263689e-01 +2.17809409e-01 +8.60017464e-02 +1.33282632e-01 +2.77901679e-01 +1.69156924e-01 +2.97120959e-01 +2.38633543e-01 -1.68116599e-01 -4.18056786e-01 +6.29331917e-02 -1.55771032e-01 -1.01134758e-02 +2.07607165e-01 -4.14796546e-02 -2.68911093e-01 -5.11026643e-02 -7.05919638e-02 +5.53359725e-02 +3.44461873e-02 -8.29723179e-02 -2.49882132e-01 +2.92608351e-01 -8.76123318e-04 -6.55912012e-02 -3.63804221e-01 +2.17706095e-02 +1.17919721e-01 -1.36762768e-01 +3.28342319e-01 -1.96187589e-02 -3.29750508e-01 -1.07143849e-01 -5.26480436e-01 -4.79536206e-02 -3.30336355e-02 -2.71728426e-01 -1.76444381e-01 +1.93055496e-01 +3.68464589e-01 +5.02523601e-01 -4.18566853e-01 +8.18622634e-02 +3.22647274e-01 +3.88930678e-01 +6.25356257e-01 +1.95590898e-01 +4.46385413e-01 -1.08262010e-01 +2.62023151e-01 -1.36011377e-01 +1.47392616e-01 -2.14568339e-02 -3.45619649e-01 -2.57624269e-01 +1.46477014e-01 -2.48555660e-01 +3.52229655e-01 +1.14850633e-01 -7.57674128e-02 +2.28497200e-02 -6.48319721e-02 +1.73234701e-01 +1.74130708e-01 -6.05028629e-01 -4.12101597e-01 +4.90907967e-01 +8.04494172e-02 -1.31328836e-01 -6.61383793e-02 -1.91355020e-01 -1.15884773e-01 +3.52521539e-02 +1.73917621e-01 -6.12463176e-01 +4.55510408e-01 +1.97207153e-01 -1.11949831e-01 +1.75641447e-01 -6.59239441e-02 -4.15185764e-02 -3.45172167e-01 +4.49859872e-02 -1.64744169e-01 +3.61318529e-01 +2.66299695e-01 -5.76704778e-02 +3.98057103e-01 -1.95769697e-01 +2.38979042e-01 +1.13751926e-01 -4.48530376e-01 -1.74558699e-01 +2.35793479e-02 +1.97036520e-01 -1.05247177e-01 +1.79715201e-01 -4.35919724e-02 +1.58806801e-01 +5.17649315e-02 +4.08402830e-01 -2.10225031e-01 +1.25036106e-01 +1.33049950e-01 +3.52833599e-01 -1.44024789e-01 -3.55223477e-01 +1.90225035e-01 -1.67265415e-01 +1.41859204e-01 -7.00411052e-02 -2.23015342e-02 -1.69868663e-01 +3.02079976e-01 +5.67442536e-01 +4.06619579e-01 +2.61406302e-01 -1.56605765e-01 +5.23469271e-03 +2.07952663e-01 +4.33043987e-01 +4.62248236e-01 +2.23294392e-01 +8.70032310e-02 +2.55801946e-01 -2.05219448e-01 +6.02063611e-02 +3.19272906e-01 -8.20916593e-02 +1.19716369e-01 +6.32628752e-03 +9.75772813e-02 +1.50275379e-02 +5.24505913e-01 -8.20486397e-02 +1.86530739e-01 -2.13085428e-01 -3.79161954e-01 -2.02048615e-01 -3.10420692e-01 -3.90143067e-01 -1.18377693e-01 +1.87855318e-01 -7.34738335e-02 -6.39519870e-01 -1.04860976e-01 +1.67233959e-01 -7.00318813e-02 -9.66162607e-02 +6.59280792e-02 -2.59571582e-01 +2.57880241e-01 +1.56619027e-01 +1.99127868e-01 -9.77381989e-02 -2.83906221e-01 +6.37149960e-02 -4.02698040e-01 +1.78688556e-01 -4.15303439e-01 +7.48393079e-03 -2.30673879e-01 -4.05187428e-01 +5.46867326e-02 +1.62231177e-01 -1.94041915e-02 -2.15328798e-01 +3.33689779e-01 -2.71586239e-01 +2.42290586e-01 +3.71761501e-01 +2.06883848e-01 +4.84187573e-01 -2.26980537e-01 +2.98873037e-01 -2.44556010e-01 +1.04421370e-01 -3.43951404e-01 +2.33465254e-01 +2.34862477e-01 -8.51737410e-02 -1.80563733e-01 -1.07523873e-02 -5.46660364e-01 -3.49548906e-01 -3.31059963e-01 -2.92233676e-01 -4.64657754e-01 -1.78830430e-01 +4.17951494e-01 +3.54123801e-01 -2.16964215e-01 +2.56908715e-01 +1.59203038e-02 +2.07839996e-01 +2.12781459e-01 -4.94767092e-02 +1.01548083e-01 -4.07385409e-01 +3.77129465e-01 -4.12150621e-01 -3.48815680e-01 +4.81796533e-01 -3.80454659e-02 +3.56886983e-01 -2.05402985e-01 -2.35073745e-01 +5.03952563e-01 +5.14109612e-01 +1.49039673e-02 +4.04277816e-03 -4.36224937e-02 -4.96873558e-02 +2.09980443e-01 -4.39251244e-01 +1.28079792e-02 +3.61685276e-01 +6.17788024e-02 -2.43029550e-01 -2.63858974e-01 -2.35624716e-01 +2.27987971e-02 -2.48673454e-01 +4.51106191e-01 -3.44429612e-01 -2.09590673e-01 -3.51989269e-02 +9.78259556e-03 -4.87626754e-02 -3.94729882e-01 -2.68678576e-01 +2.87846088e-01 +7.50813931e-02 -3.12665105e-01 +2.13333458e-01 +3.81461568e-02 -1.63650110e-01 +5.96230440e-02 -4.57564890e-01 -4.68177110e-01 -2.95138538e-01 -4.75572556e-01 -3.00327927e-01 +2.65029937e-01 -5.50703228e-01 -3.40330064e-01 +2.12468252e-01 -2.27262482e-01 +1.79440275e-01 +4.42784816e-01 -8.11736584e-02 -5.00505686e-01 +5.29550970e-01 -3.16221057e-03 -3.36400241e-01 -3.13187182e-01 +3.25956613e-01 +1.35186240e-01 +5.53503335e-01 +1.09500870e-01 -4.21532154e-01 +3.30158144e-01 -1.28021128e-02 -3.74756426e-01 +1.08650802e-02 -5.87046333e-02 -3.10737789e-02 -9.62691382e-02 +2.34163165e-01 -1.71009198e-01 -2.28185624e-01 -6.56123608e-02 +7.60381743e-02 +3.38306099e-01 -5.66486232e-02 -4.17753577e-01 -1.34470209e-01 +4.51560527e-01 -1.08214028e-01 -3.12542379e-01 -4.58102018e-01 +3.60954963e-02 +2.09258497e-01 -1.73382699e-01 +3.81246097e-02 -5.14590740e-01 -3.44530284e-01 -3.17639597e-02 -9.15279537e-02 -3.90252292e-01 -9.83122885e-02 -2.47756869e-01 -3.77974749e-01 -1.77890405e-01 -1.67000160e-01 -1.05390392e-01 -8.86700824e-02 -6.36444092e-02 -1.87717732e-02 -1.03858955e-01 +5.03318794e-02 -1.28036305e-01 +3.52617875e-02 +1.22517616e-01 -1.04334027e-01 +2.07593620e-01 +7.70947188e-02 -1.78296372e-01 +3.77654523e-01 -2.46529564e-01 -5.12910485e-01 -1.95903599e-01 -4.02188629e-01 -3.05695355e-01 -2.86245286e-01 -2.74137817e-02 +2.82359719e-01 -4.22670335e-01 -3.08576405e-01 -2.79409975e-01 -4.19655591e-01 -1.60251066e-01 -7.30987713e-02 -2.44276635e-02 -1.06118649e-01 -1.27943531e-01 +1.23464338e-01 -1.57378867e-01 +2.73119837e-01 -5.24653494e-02 +2.86781676e-02 +1.40329763e-01 +1.30416781e-01 -2.16768339e-01 +2.78539751e-02 +1.81896076e-01 +2.30211854e-01 -7.56670684e-02 +8.01395699e-02 -3.82416427e-01 -3.22135240e-01 -1.78669259e-01 +3.11954737e-01 +3.06931943e-01 +2.05835938e-01 -2.28445902e-01 -2.80113965e-01 -1.77173316e-01 +7.71731362e-02 +1.52214557e-01 +8.20889026e-02 -1.30411625e-01 +9.35527235e-02 -2.49329865e-01 -2.03826874e-01 -4.03436035e-01 -1.38998315e-01 +8.41736645e-02 +6.11777365e-01 -1.90180734e-01 -6.28838181e-01 +1.75604403e-01 -3.16565096e-01 -5.27480423e-01 -5.05513668e-01 -2.46714845e-01 +8.27454329e-02 +1.19293019e-01 -4.10305768e-01 -5.56486905e-01 -7.08630979e-01 -2.79405147e-01 -1.65064842e-01 +2.71138221e-01 -1.53283224e-01 -6.42598808e-01 -4.35227424e-01 
#Parameter# /_15 {25} 401 ZERO_GRAD
+1.80590123e-01 -2.65785694e-01 -3.85389566e-01 +2.43755266e-01 +2.79464900e-01 -2.18451008e-01 -1.30432054e-01 -2.43776113e-01 +1.16445245e-02 -1.06357753e-01 +3.18783522e-01 +3.78052033e-02 -1.34756444e-02 +2.44257778e-01 +3.83224368e-01 +1.95323214e-01 +2.78242379e-01 +5.94946854e-02 -1.42779380e-01 -4.36948210e-01 -3.10317606e-01 -1.27329722e-01 +1.60779014e-01 -8.27492326e-02 +8.10980052e-02 
#Parameter# /_16 {25,25} 10001 ZERO_GRAD
+1.79191291e-01 -2.92918861e-01 +3.36889923e-01 +2.17263222e-01 -2.60608852e-01 -1.75801486e-01 -6.84873164e-02 +2.49282598e-01 +1.46883160e-01 +4.98814583e-02 -1.90141439e-01 -2.47181594e-01 -4.44156528e-02 +3.22960675e-01 -1.98173746e-01 -2.43415505e-01 +3.08671296e-01 +1.32043064e-02 +2.42959142e-01 -2.53019512e-01 -3.00294667e-01 -1.27502874e-01 +3.18600595e-01 -2.98340946e-01 -1.22756392e-01 +1.01388007e-01 -1.90960214e-01 -4.60506678e-02 +2.31053233e-01 -2.71555007e-01 +2.74983466e-01 +2.08928883e-01 +1.38680875e-01 +2.03646123e-01 +4.33941483e-02 +8.56557488e-02 -2.41523579e-01 -2.27239847e-01 -4.90824580e-02 +4.32798862e-02 -1.16531804e-01 -2.40435123e-01 -1.28963783e-01 -2.50729918e-03 +2.77386725e-01 -2.97980607e-01 +9.49379504e-02 -2.22725689e-01 +3.47443819e-02 -7.23349154e-02 -3.45766842e-02 -2.16863796e-01 +4.43938673e-02 -3.18438500e-01 -2.02489927e-01 -1.14372119e-01 -9.28001106e-02 +9.27442312e-03 -3.15629303e-01 +8.17219019e-02 +2.22143114e-01 +3.02351177e-01 -1.84649706e-01 -2.62688041e-01 -1.84876382e-01 +2.60819495e-01 -3.00582290e-01 +3.40063155e-01 -2.97453135e-01 +4.37256694e-02 +1.02103442e-01 +2.32693672e-01 -2.97085911e-01 +2.18869627e-01 +2.14775562e-01 +1.54358745e-01 -1.71019420e-01 +3.26692462e-02 -1.01165965e-01 -9.54306126e-03 +2.61843264e-01 -2.45367408e-01 -2.68218875e-01 +3.68632972e-02 -1.64315104e-03 +3.47200930e-02 +1.68343425e-01 -2.30579019e-01 +3.05668950e-01 -2.21580595e-01 +4.01784480e-02 -1.70513347e-01 -1.32373601e-01 -1.36272058e-01 -2.02592000e-01 +3.00201416e-01 +2.83091128e-01 -1.01222396e-01 +2.66709208e-01 +1.72842741e-02 -3.02051485e-01 -2.55814463e-01 -3.06670099e-01 -2.67857164e-01 +1.83064103e-01 -1.37189209e-01 -1.28317401e-01 -2.21508741e-03 -3.70715261e-02 +2.20344722e-01 +7.23110139e-02 +6.31904602e-03 +1.25522166e-01 +4.78770435e-02 -2.05550283e-01 +2.62010694e-01 -1.68754458e-01 -3.12534600e-01 -9.07878280e-02 +6.71374500e-02 +2.36857116e-01 -1.03597745e-01 -2.84669638e-01 +6.14772439e-02 +1.04876131e-01 -1.07867271e-01 +2.90370047e-01 +1.29332900e-01 -1.56063557e-01 +2.54487395e-01 +7.96462595e-02 -1.99175030e-01 -1.06275082e-04 +3.88002396e-02 +1.69468522e-01 +3.46370935e-02 -9.93871093e-02 -2.40982667e-01 -2.78239906e-01 -1.04662254e-01 -8.73789489e-02 +2.63383031e-01 +1.42801434e-01 +3.17978442e-01 -2.47271061e-02 -1.61645412e-02 -3.38645071e-01 -3.14194381e-01 -2.06492364e-01 +1.71125889e-01 -2.94947594e-01 -2.26834089e-01 +2.65927851e-01 -2.27044255e-01 -4.16807830e-02 -3.24959934e-01 -7.30119944e-02 +3.26225877e-01 -3.96967232e-02 +1.70475483e-01 -1.45986661e-01 -2.81402409e-01 +2.69998670e-01 -2.66523004e-01 +1.97703242e-01 -2.60134548e-01 -2.56229520e-01 -2.99582660e-01 +5.29853106e-02 +3.28519940e-01 -3.00583571e-01 +2.56348610e-01 +2.26261616e-02 +2.57051110e-01 -1.20845109e-01 +1.63526535e-01 +3.17972779e-01 +2.26420939e-01 -6.70732260e-02 +2.55145848e-01 -2.77663767e-01 +8.81800950e-02 -8.22273493e-02 +2.21583426e-01 -9.30293202e-02 -1.53492510e-01 -1.75380602e-01 -1.20869339e-01 +1.18607074e-01 -1.08926743e-01 +5.09654284e-02 -7.59965181e-03 +2.12284982e-01 +1.85857773e-01 +1.16206706e-01 +2.93675303e-01 -2.52825916e-01 +1.17761821e-01 +2.62320638e-01 +9.91127193e-02 +2.68383265e-01 +2.71586180e-01 +1.06956244e-01 -1.23840570e-03 -9.69080925e-02 -3.19533408e-01 +1.48821861e-01 +6.10106289e-02 -4.47911024e-03 -2.24961579e-01 -2.93293834e-01 -2.85781980e-01 -2.06817389e-02 +2.57414460e-01 -2.77954578e-01 +8.71312916e-02 -3.33798736e-01 -2.30374321e-01 -1.36784911e-02 -2.59824455e-01 +2.82172024e-01 -2.15904415e-01 +2.66684592e-02 +3.33461165e-01 +2.42116809e-01 -1.96567729e-01 +4.92103696e-02 -7.73689151e-03 +2.54102647e-01 +2.59715140e-01 +1.89569473e-01 -2.62811691e-01 -2.30376378e-01 +3.12419713e-01 -5.83412647e-02 -1.15534574e-01 -2.24579424e-01 -1.07573137e-01 -1.67866796e-01 +2.70308673e-01 +7.37481415e-02 -3.12166691e-01 -1.31154060e-02 -4.76461649e-02 +1.88336134e-01 +1.02436841e-02 +1.13013625e-01 -2.04438016e-01 +2.36183703e-02 +4.01382446e-02 +1.30289555e-01 -2.66413510e-01 +1.64175868e-01 +3.32297385e-01 -1.36892468e-01 -3.03843081e-01 +3.16049159e-01 +2.94676781e-01 +1.49984986e-01 +3.87329757e-02 -9.49122012e-02 -6.36361837e-02 -2.48474270e-01 +2.42506146e-01 +1.83226705e-01 +6.13131225e-02 +8.10794234e-02 +5.35767376e-02 +2.68413723e-01 -2.60697871e-01 +3.01814675e-02 -8.01362991e-02 +7.22739697e-02 -2.70038396e-01 -2.23675966e-02 -3.91077995e-03 -1.87004104e-01 +1.58158362e-01 +1.35583401e-01 +2.70973980e-01 +2.08570600e-01 +2.79549062e-02 -8.93828273e-02 +2.58600652e-01 -3.22078764e-02 +1.39660835e-02 -2.45025158e-02 -2.98321277e-01 +1.55972540e-01 +4.66327369e-02 -8.46628845e-02 +8.65131021e-02 +6.85266852e-02 -5.85436821e-04 +2.98390388e-01 +3.05432975e-01 +2.63024211e-01 -2.65881717e-01 +3.37184966e-01 -1.98491022e-01 +3.28229666e-01 +1.23076588e-01 -1.30605698e-03 -2.16675565e-01 +3.05178404e-01 +1.25494659e-01 -2.21561342e-01 -1.91526264e-01 +1.18440270e-01 +3.02027524e-01 +7.75901675e-02 -2.28591323e-01 +6.62024021e-02 -3.10217500e-01 -8.60788822e-02 -3.09892207e-01 -1.93090126e-01 -1.00014284e-01 -2.73756385e-02 -2.14870408e-01 -1.15664378e-01 +1.23168916e-01 +1.73538208e-01 -2.07317457e-01 +1.61501110e-01 -1.47023126e-01 +1.88407063e-01 +1.91245198e-01 -2.68838465e-01 -1.08313799e-01 -2.24595368e-01 +1.30090326e-01 -2.54600793e-01 +1.27808660e-01 -1.21297240e-02 +5.51896393e-02 +9.43092406e-02 +2.61072755e-01 +1.12517357e-01 -2.71700621e-02 +1.26390368e-01 +1.25252098e-01 +3.02673280e-02 -2.36930311e-01 +2.45702147e-01 -2.52343655e-01 -3.61598432e-02 -1.30611017e-01 +1.26017749e-01 -2.49763757e-01 -1.33989260e-01 -5.99993765e-02 +1.66758239e-01 -1.00782648e-01 -2.51683772e-01 +1.29199892e-01 -1.15672126e-01 -2.83165157e-01 -1.01953313e-01 +1.93441808e-01 +3.08811069e-01 -2.40198970e-02 +9.70017612e-02 +3.42950821e-01 +1.81274235e-01 +2.35369623e-01 +2.59252548e-01 +1.34582907e-01 +2.59257138e-01 -9.98178273e-02 -3.39979529e-01 +2.98855484e-01 +4.80556786e-02 -1.77250445e-01 -4.70420718e-03 -1.04828164e-01 +2.76637793e-01 -8.64142179e-03 +1.84841454e-01 -5.58201969e-02 -1.94734991e-01 -7.93593228e-02 +2.73754835e-01 -4.79384363e-02 -4.06077504e-02 +2.30996192e-01 -2.86280692e-01 -1.36820838e-01 -3.10430080e-01 +7.15770721e-02 -1.94522828e-01 -1.58362389e-02 +8.07488859e-02 -2.62636185e-01 -2.16428578e-01 +1.23898029e-01 -2.21133083e-01 +2.92487442e-01 -1.18582800e-01 +6.08769953e-02 +2.65482306e-01 -2.04973713e-01 +3.27775180e-02 +1.78259015e-01 -1.13946185e-01 +2.23380446e-01 -1.25387594e-01 -1.64470136e-01 -2.28198215e-01 -1.73277587e-01 +1.67649865e-01 +4.53156829e-02 -1.47967950e-01 +3.38136077e-01 -3.11446995e-01 -1.03843331e-01 -1.35919094e-01 -1.49504647e-01 -2.58093178e-01 -7.48623908e-02 -2.79368043e-01 -1.86109647e-01 -3.43083680e-01 -2.22699642e-02 +1.19317621e-01 +8.02502036e-02 +1.97808504e-01 +1.80395186e-01 +1.22835428e-01 -2.31395856e-01 +1.20135188e-01 -1.13097727e-01 +2.27464199e-01 +2.56232262e-01 +8.07164013e-02 -2.69967616e-01 -3.05666804e-01 -3.00794810e-01 -3.23678613e-01 +2.86878526e-01 +3.04004848e-01 -3.40233684e-01 +1.98165178e-02 +2.72226036e-02 -7.32221603e-02 -1.17617622e-01 +2.49234438e-02 -2.55597472e-01 +1.77523136e-01 +6.70774579e-02 +1.38359398e-01 +1.45765454e-01 -8.47977400e-03 +1.98238313e-01 -3.30018848e-01 -3.30422401e-01 -2.01613262e-01 +1.59353971e-01 +1.21728659e-01 -2.74642378e-01 -3.11783731e-01 -5.48557341e-02 +1.05111539e-01 -1.40434965e-01 -1.48308948e-01 -1.55153871e-01 +3.09145451e-01 +2.64785528e-01 +2.25268960e-01 -1.72929615e-01 -1.58934593e-01 +9.12662745e-02 +2.54689395e-01 -1.54714361e-01 -2.58546412e-01 +2.11138904e-01 +1.11574322e-01 -3.46229106e-01 +9.49084759e-03 -1.21968523e-01 +3.06376398e-01 +3.36519480e-01 +5.27859032e-02 -3.23141992e-01 +3.36149096e-01 +5.03745377e-02 +2.37417579e-01 +2.35664964e-01 -6.68126941e-02 +2.32619345e-01 +8.15259516e-02 +3.07832599e-01 +1.46880686e-01 +3.20889533e-01 +3.05201471e-01 +1.92185938e-02 -1.50454611e-01 -2.67002106e-01 +1.06976867e-01 +2.09833384e-02 -1.09379768e-01 -3.05846810e-01 -3.37928444e-01 -7.41398335e-02 -1.78629309e-01 -2.04740733e-01 -2.87422359e-01 +8.82101357e-02 -3.70939672e-02 +2.91886330e-01 -2.77460992e-01 +5.88250756e-02 -1.39980912e-02 -6.04071021e-02 -2.52312899e-01 +1.89281523e-01 -6.10596538e-02 +1.60957813e-01 +2.00274646e-01 -3.41123521e-01 +1.32242680e-01 +3.40135515e-01 +1.11650735e-01 -2.95543909e-01 -1.51848346e-01 -6.88008666e-02 -3.42636794e-01 -1.55555010e-02 +8.36559534e-02 -3.91691923e-02 +3.06912065e-01 -1.13360286e-02 -1.99693173e-01 +1.10487580e-01 -7.94419646e-02 -2.50434428e-01 +3.02744269e-01 +2.18825936e-02 +2.98691094e-01 -6.14429712e-02 +2.18148530e-01 -8.27821791e-02 -9.27575827e-02 -2.95103669e-01 -1.59965754e-02 -2.47663558e-02 +2.14740098e-01 -2.58152038e-01 -2.54423916e-02 -1.06509954e-01 -3.42599690e-01 +2.74648309e-01 -1.74697608e-01 +3.24365914e-01 +2.19044507e-01 -1.43760324e-01 -3.11793655e-01 -5.43025136e-03 -2.04209104e-01 +1.25899166e-01 -3.15414608e-01 +2.79995859e-01 -4.49578166e-02 +2.63519883e-01 -2.94321477e-01 -1.11465454e-02 +9.83015299e-02 +1.27711058e-01 -1.94681257e-01 -1.66739404e-01 -5.78692555e-03 -2.17713073e-01 -1.74730286e-01 +5.36926091e-02 -1.84582561e-01 -4.91536260e-02 +2.70417035e-02 -2.56717950e-01 -1.85203373e-01 -1.63104162e-01 +2.52530277e-01 +1.37963653e-01 +2.26333916e-01 -1.46085039e-01 +1.05072230e-01 +2.81003594e-01 -1.07120693e-01 +6.06540442e-02 +6.98930025e-02 +1.73563421e-01 +6.56169653e-03 +5.77827096e-02 -2.89807320e-02 -1.77138060e-01 +3.10307682e-01 +1.02910846e-01 -3.40165973e-01 +2.57951558e-01 +2.49239087e-01 +2.01840699e-02 +3.06751192e-01 -8.18382800e-02 -2.26735741e-01 -1.16826266e-01 -1.10234395e-01 +1.01946592e-02 -3.20160657e-01 -2.81432211e-01 -1.73040316e-01 +1.53776109e-01 -3.42243463e-01 +3.56085598e-02 -1.03525892e-01 -1.66553080e-01 +1.36928678e-01 -3.06785017e-01 -3.08635265e-01 +1.62838757e-01 +1.84527040e-01 +2.72503138e-01 +2.46300399e-01 -5.04966974e-02 +7.71163404e-02 +2.46771872e-01 -9.16486979e-03 
#Parameter# /_17 {25,25} 10001 ZERO_GRAD
-3.23278308e-01 +2.92397857e-01 -2.18730867e-02 -1.62897423e-01 -2.25376591e-01 -5.86873293e-02 +1.35444194e-01 +2.71483243e-01 -2.79646456e-01 -3.14174235e-01 -2.77475357e-01 +5.31463325e-02 -1.24280021e-01 -8.78565609e-02 -2.27785408e-02 -6.44834638e-02 +2.52445042e-01 +2.37194002e-02 -1.96800858e-01 +1.91395223e-01 +2.64072120e-01 -7.05590546e-02 -4.42147255e-02 -1.03942394e-01 -1.97093531e-01 +1.00118071e-01 +8.08674991e-02 -1.84605017e-01 -2.40127534e-01 -1.98114902e-01 +3.11560273e-01 +3.36612701e-01 -1.16268694e-01 +9.33150947e-02 +1.57190561e-01 -3.19920838e-01 -1.02208674e-01 -9.38153863e-02 +3.23238969e-02 +2.48961627e-01 +7.33264685e-02 +2.93637395e-01 +2.80937672e-01 +2.41183937e-01 +2.09842741e-01 -3.27457786e-01 -8.81406367e-02 -2.13805944e-01 +2.79085040e-01 +2.20631421e-01 -3.24158251e-01 +3.17307234e-01 +2.32204795e-02 -3.00693929e-01 +4.02322412e-02 -4.80732322e-02 +3.45400691e-01 +3.31606209e-01 -1.04479253e-01 -2.42652953e-01 +1.90632343e-01 -4.27918732e-02 +6.61156774e-02 +1.76977694e-01 +1.26352996e-01 -1.20305255e-01 +1.88539028e-02 +6.65449798e-02 +1.63803339e-01 -1.77628487e-01 +2.88121641e-01 +2.65530229e-01 +5.45713305e-03 -2.73461580e-01 +1.12229913e-01 -2.72334158e-01 +2.87333369e-01 +3.22621763e-01 -2.61769861e-01 -8.72604847e-02 +8.84284079e-02 -2.28949279e-01 +1.06727898e-01 -4.42340374e-02 -1.26968771e-01 -1.77754760e-02 -2.85561472e-01 -2.31060535e-01 -1.82819739e-01 +2.30883002e-01 +2.86195755e-01 -6.37472868e-02 -1.43776372e-01 -1.22369334e-01 -2.60401070e-01 +1.46771252e-01 +3.16941381e-01 +2.40087509e-01 -2.30621725e-01 +6.81667924e-02 -1.51367784e-01 +2.13543236e-01 -6.56804442e-03 +1.69148684e-01 +5.80022633e-02 -6.39260709e-02 +8.58976245e-02 +9.60445106e-02 +5.55409491e-02 +2.08621919e-01 -2.43999586e-01 -2.21417546e-02 -2.22980082e-02 +1.49545640e-01 +1.54978275e-01 -1.44593000e-01 -6.15898967e-02 -1.50604501e-01 -6.32089674e-02 -2.16823086e-01 +2.44611502e-01 +1.26367033e-01 +3.33385885e-01 -3.39243114e-02 +1.12031579e-01 +2.95816600e-01 +2.71162271e-01 -2.99956977e-01 -2.44496524e-01 +3.01381648e-01 +1.53278649e-01 -8.44411254e-02 -2.30580389e-01 +2.38071144e-01 +7.07978010e-03 +2.75486231e-01 -2.47058451e-01 -1.82481498e-01 +3.12799454e-01 +3.08440506e-01 -9.44314599e-02 +2.62199521e-01 +2.53595054e-01 -4.76588607e-02 -1.11286089e-01 +1.92922652e-01 +2.57481337e-02 -2.96263456e-01 -3.00488532e-01 -3.23207915e-01 -1.83466494e-01 -6.88463748e-02 -2.66936958e-01 +3.00411820e-01 +2.17201352e-01 +2.29848742e-01 +3.12948525e-01 +1.49835080e-01 -2.53062665e-01 +2.55764484e-01 -1.17719755e-01 -1.80664480e-01 +1.23693347e-02 +7.19436407e-02 -3.17754537e-01 -1.73555568e-01 +7.22066164e-02 -2.62520671e-01 +5.75424433e-02 +1.57131135e-01 +2.63430238e-01 +3.09618115e-02 +1.68106556e-01 -9.28333104e-02 -5.56761026e-03 +1.85497880e-01 -1.35041952e-01 +1.47291392e-01 +4.71043587e-03 +1.41108841e-01 +2.09189177e-01 -1.85375437e-01 -2.07107797e-01 +1.47076219e-01 +1.59112215e-01 +3.66075337e-02 +1.28873229e-01 -2.28857845e-01 +1.54854655e-02 +1.25860274e-02 -2.92289078e-01 -1.85424089e-03 +1.05074644e-01 +1.66191339e-01 -1.07260421e-01 +4.37948406e-02 -2.87658274e-02 -1.65727198e-01 -1.28170356e-01 -2.13632986e-01 -7.01735616e-02 -3.64226997e-02 +1.78607702e-02 -1.58865407e-01 -7.81393647e-02 +1.43196553e-01 +7.50970840e-03 -1.65177062e-01 -2.19166547e-01 -2.74007678e-01 -2.94274032e-01 -7.48726130e-02 -7.82045424e-02 +2.44254589e-01 -2.76137173e-01 +1.44031525e-01 -2.06711859e-01 +1.97941899e-01 +3.19599152e-01 -3.70315611e-02 +1.27406418e-02 +1.76311612e-01 -2.33417749e-02 -1.04868859e-01 +1.14883602e-01 -1.22295812e-01 -7.32100904e-02 +1.73084974e-01 +1.94413066e-01 +2.15713441e-01 +3.03876936e-01 -1.53694525e-01 -2.37289965e-02 -1.47346601e-01 -3.07943434e-01 -2.61137307e-01 +2.06922889e-01 -1.89607441e-02 +5.55533469e-02 -1.56122983e-01 +3.28537405e-01 +2.47721076e-02 -2.36358464e-01 -1.10288560e-01 -2.68818974e-01 +1.98764384e-01 -1.53864220e-01 -1.77893177e-01 +7.23570585e-04 -2.51005232e-01 +2.28191614e-02 +2.93326318e-01 -8.08963180e-02 +5.79887331e-02 +1.49844766e-01 +2.30716407e-01 +1.30926847e-01 +2.20370114e-01 -2.65282094e-02 -1.79565966e-01 +9.71039832e-02 +2.02754259e-01 -6.10111654e-02 -1.99343860e-02 -1.39276743e-01 -1.62598535e-01 -1.34366348e-01 -3.26013565e-01 +1.51563376e-01 -1.49136826e-01 +3.09784293e-01 +3.93637717e-02 -1.90865919e-01 -3.45476210e-01 -1.74586773e-02 +3.82134020e-02 +2.41771340e-03 +2.83545852e-01 -1.17965892e-01 -1.95288658e-01 -1.77915350e-01 -1.35606214e-01 -9.66970474e-02 +2.44737148e-01 +1.33707851e-01 +1.18634373e-01 -9.89433676e-02 -1.54281259e-02 +2.62174666e-01 -1.59082159e-01 -2.50488013e-01 +4.87715304e-02 -3.66125107e-02 -1.67105287e-01 -1.05775103e-01 -2.69982874e-01 -9.09413695e-02 -4.24483418e-03 -8.61622691e-02 +1.13983750e-02 -2.76515126e-01 -1.77249402e-01 +3.40128839e-01 -2.93291867e-01 -2.42125899e-01 -1.60438597e-01 -4.53213155e-02 -8.33129585e-02 -2.28739962e-01 -3.20773482e-01 -4.35510576e-02 +7.45087862e-04 +1.24338180e-01 -5.00697792e-02 -1.05222881e-01 -2.98652709e-01 -8.85830522e-02 +1.94942832e-01 +2.88556278e-01 +2.49016285e-03 +9.44881141e-02 -3.01815212e-01 +2.12823093e-01 -3.55955958e-03 +6.96118772e-02 +2.24544048e-01 -3.17132831e-01 +6.77619278e-02 +4.19576168e-02 -1.33624777e-01 +7.40144551e-02 -1.28605753e-01 -2.24942148e-01 +5.45191765e-03 -1.65832028e-01 -3.13528597e-01 -2.81091720e-01 +3.20222676e-01 +3.05782199e-01 +1.65425718e-01 +1.12489790e-01 -2.66423017e-01 -9.59984660e-02 +9.53847170e-03 +2.87055373e-02 +1.90869153e-01 -2.64174521e-01 +2.40933955e-01 +2.60931671e-01 +1.87236667e-01 -2.47660860e-01 +2.37303019e-01 +3.25590074e-01 +1.04718536e-01 -2.84371078e-02 -2.14688003e-01 -2.16414779e-01 -3.55682075e-02 -3.07687491e-01 +2.08513916e-01 -3.07996333e-01 -2.55242914e-01 +1.52283758e-01 -3.42537731e-01 +2.97149420e-01 +7.45689273e-02 +2.77158320e-01 +5.37021160e-02 +1.18501544e-01 +1.67459905e-01 +3.44545007e-01 +1.19472831e-01 -6.05273545e-02 -1.30949318e-01 +1.64796054e-01 -6.03727996e-02 +1.15363032e-01 -2.22326279e-01 +3.10061157e-01 +1.32547915e-02 -9.58642364e-02 +9.50184464e-03 +8.14120770e-02 +5.84359169e-02 -2.21060380e-01 +1.48149133e-02 +9.67964828e-02 -8.48467946e-02 +6.51114583e-02 +1.74735785e-01 +2.25457966e-01 +1.30458355e-01 +2.64024556e-01 -1.72228590e-01 +1.50905639e-01 -3.24501812e-01 -1.80825070e-01 -1.25679299e-01 +2.44013250e-01 -3.19838256e-01 -2.86200106e-01 +2.92714059e-01 +1.24865621e-01 +1.83393002e-01 -6.76582456e-02 -6.16198182e-02 -2.03986585e-01 +1.49478614e-01 +2.29022682e-01 +2.70832658e-01 +6.83030188e-02 -2.01587081e-02 +2.95571506e-01 +1.79443538e-01 +1.40021950e-01 +8.68111551e-02 -4.41443622e-02 +1.06438696e-02 -2.67564803e-01 +5.59613407e-02 +1.40394390e-01 +2.08695829e-02 +1.35080010e-01 +1.44444972e-01 -3.46166372e-01 +3.44564736e-01 +2.86267340e-01 +1.50854707e-01 -2.21144527e-01 +2.04922438e-01 +2.63150752e-01 -1.26305640e-01 +1.54507995e-01 -2.18879789e-01 -3.36532414e-01 -2.15800896e-01 -2.52161801e-01 +2.72804677e-01 -2.78657794e-01 +3.41995001e-01 -2.74372697e-01 -2.02419356e-01 +2.68634260e-01 +1.45840526e-01 -1.62833288e-01 -1.30410731e-01 +2.90760577e-01 -4.86786962e-02 -1.47034302e-01 +1.21331483e-01 -1.20346799e-01 -2.17730165e-01 -4.39041853e-03 -6.32455051e-02 -1.15645513e-01 -5.91284037e-03 -2.28364646e-01 -1.02231219e-01 -9.01631713e-02 +1.90636694e-01 -3.24088663e-01 -2.33608395e-01 -1.74276099e-01 +1.60508752e-01 +2.64735043e-01 -2.61612236e-01 -2.84086823e-01 +2.13403165e-01 +2.66970515e-01 +3.25702429e-02 -2.89640993e-01 -2.53923178e-01 -4.18288708e-02 -2.90930897e-01 +4.56626713e-02 -2.76639462e-02 +1.73835039e-01 -1.08943388e-01 -2.78735608e-01 -9.30683315e-02 +2.07234204e-01 +7.60585368e-02 +6.86090887e-02 -3.95121276e-02 +2.30482638e-01 -2.08013847e-01 +1.17199928e-01 +2.31940448e-01 +8.56857896e-02 -3.43613148e-01 +2.96302140e-02 -3.39000911e-01 -2.91435003e-01 +2.49146760e-01 +1.54567122e-01 -1.96436495e-01 +7.25318193e-02 +1.28387451e-01 -2.31289476e-01 -1.76329777e-01 -3.41537178e-01 -1.01483226e-01 -1.97362602e-02 +1.43701404e-01 +4.27301228e-02 -9.48311687e-02 -2.65843332e-01 +1.50684029e-01 -3.22152674e-01 +8.76370966e-02 -6.50188327e-02 -2.35583559e-01 +2.07706690e-02 +6.27228618e-02 -7.91401565e-02 -2.19530255e-01 -1.47042572e-02 +1.95167422e-01 +1.29155457e-01 +2.67987609e-01 -1.43135488e-02 +4.59243059e-02 +1.65317237e-01 +1.63647532e-01 -2.36052722e-01 +3.27596068e-03 +1.59950256e-02 -1.56512111e-01 +1.12460375e-01 -9.49309766e-02 +1.71680868e-01 +3.37694645e-01 +1.24261171e-01 -6.22981787e-02 +2.25824356e-01 +6.74878359e-02 +2.78191745e-01 +1.16861254e-01 -2.53451288e-01 +2.21216440e-01 +3.24318051e-01 +9.52228904e-03 +1.08695894e-01 +2.74867356e-01 +2.03574538e-01 -9.28581953e-02 -3.08491915e-01 -9.63272750e-02 +3.28937352e-01 +3.16765130e-01 -1.37305394e-01 +1.27885371e-01 +3.28311324e-03 +2.73449540e-01 -2.92972684e-01 -9.57190990e-02 +8.92984867e-03 +2.13373005e-02 -2.76588529e-01 +1.09273374e-01 -2.04443634e-02 +3.47338617e-02 -1.23657301e-01 -3.31366748e-01 +1.81259096e-01 +1.82305276e-02 -2.32548967e-01 -1.63050741e-01 +2.28263736e-01 -9.31307971e-02 -1.17785037e-02 +2.04550922e-01 +2.37787664e-01 -1.40987933e-02 -1.54426157e-01 -1.96908996e-01 -1.12985492e-01 +1.25692189e-02 -1.19728088e-01 +1.74182653e-01 -2.14290321e-01 +6.41602278e-02 -2.66030401e-01 -3.54917347e-02 -1.53005049e-01 -3.26129496e-01 +4.77603674e-02 +1.40913963e-01 +1.29937142e-01 +2.42463529e-01 -1.66219488e-01 +5.31696081e-02 -1.97377563e-01 -9.85657424e-02 -2.30785489e-01 -2.60565281e-02 +3.17798078e-01 -3.26435268e-02 -1.49704218e-02 +1.92021012e-01 +1.43365383e-01 -2.21551001e-01 -2.21932232e-02 +1.80597484e-01 -1.60299927e-01 -3.09384733e-01 +8.53018463e-02 +2.60743320e-01 +1.84344053e-02 +1.76456332e-01 +2.79012680e-01 -4.01192307e-02 +5.11003435e-02 -2.35764146e-01 -2.88606882e-01 -7.02649355e-02 -1.13847256e-02 -2.01481685e-01 -3.22466046e-01 -2.45824590e-01 -3.08366388e-01 -2.99320579e-01 +1.46277934e-01 +2.45195627e-01 +1.26884013e-01 
#Parameter# /_18 {25} 401 ZERO_GRAD
+3.19374144e-01 -2.77818441e-02 -2.06516221e-01 +2.66347945e-01 +3.17891896e-01 -3.32525373e-01 -3.25555623e-01 +1.66090727e-01 -2.90000349e-01 -1.87566340e-01 -1.77686855e-01 -2.47130677e-01 -3.02425921e-01 +8.68025422e-02 -8.02312195e-02 +1.43985659e-01 +4.62116301e-02 +3.12205911e-01 +1.03052348e-01 -1.84330016e-01 -6.37543201e-02 -1.92844272e-01 +1.24748677e-01 -1.76801935e-01 +2.23765373e-01 
#Parameter# /_19 {25,25} 10001 ZERO_GRAD
+2.85143465e-01 -1.25995949e-02 +2.32160211e-01 -5.55856936e-02 +4.03064489e-02 +2.80294806e-01 +1.62306741e-01 +1.78120404e-01 +4.44122367e-02 -1.63474325e-02 -3.02229345e-01 -1.36435121e-01 -5.03020138e-02 +1.11733206e-01 +1.80348337e-01 +3.77161264e-01 -2.24584505e-01 +5.17897047e-02 +5.46579540e-01 -1.83117166e-01 +2.89520472e-01 -1.25341892e-01 -3.02888274e-01 +1.25568792e-01 +3.63527179e-01 +1.21222213e-01 -2.62226641e-01 -1.17877983e-01 +9.95563641e-02 -1.98104933e-01 -2.27203384e-01 -2.43049152e-02 -2.51048893e-01 +3.76747459e-01 -1.65531635e-01 +1.24096557e-01 -3.74775887e-01 +1.85977370e-02 -3.48304957e-01 -2.50050962e-01 -2.71549344e-01 -2.14155182e-01 -3.12276840e-01 -4.08668391e-04 -2.03225955e-01 -8.88248459e-02 -2.87002504e-01 +2.96689779e-01 +1.15841910e-01 -8.22487101e-02 +1.31314456e-01 +2.97023088e-01 -2.46219337e-03 -2.65149444e-01 -3.43773246e-01 +2.42174312e-01 +3.48849475e-01 -3.94287020e-01 -3.55358720e-01 +3.73905897e-01 +4.10851955e-01 +4.11007226e-01 +5.23364693e-02 +1.49782971e-01 -1.98932484e-01 -2.71099776e-01 +2.56857634e-01 +3.33704650e-01 -4.46599692e-01 -4.72920351e-02 -5.70500970e-01 -3.41957271e-01 -3.54785591e-01 -8.69267285e-02 -8.01285729e-02 -1.05202287e-01 -1.33512974e-01 +2.51992722e-03 +2.81521268e-02 -2.94191808e-01 -2.57642955e-01 -1.62993390e-02 +3.28035802e-01 +5.57574630e-02 +4.05296460e-02 -3.16613279e-02 +9.62083712e-02 -3.50352794e-01 +1.03989735e-01 -1.78545102e-01 +2.94831693e-01 -1.17156096e-01 +3.28665040e-02 -1.78338826e-01 -2.45069072e-01 -2.64883399e-01 +2.64983177e-01 +1.80406272e-01 -9.90946293e-02 -3.04446965e-01 -1.68373436e-01 +4.36873958e-02 -1.67462438e-01 -2.14638591e-01 -9.35364813e-02 -3.94893229e-01 +3.15815538e-01 +1.98152140e-01 -2.34493613e-01 -3.02222639e-01 +1.64734483e-01 +9.75920856e-02 -1.73385963e-01 +4.02781665e-01 +8.03587064e-02 -1.51738599e-01 -2.73859441e-01 +1.43075749e-01 +2.70635992e-01 +3.01004201e-01 -3.76747072e-01 +2.70620026e-02 -2.59481907e-01 -8.95453095e-02 +5.05527556e-02 -2.31030017e-01 +3.42647910e-01 -1.55897617e-01 +2.10640803e-01 +4.46662530e-02 -1.54420525e-01 -1.07912973e-01 -6.45632073e-02 +4.53022458e-02 +1.69002768e-02 +1.52280375e-01 +3.39145839e-01 -2.14011207e-01 -3.28042448e-01 +2.36491024e-01 -8.97562578e-02 +1.66623294e-01 +5.52374832e-02 -4.04955298e-01 +2.98953295e-01 +1.86575577e-01 +4.22454886e-02 -3.31179440e-01 -8.59265104e-02 +1.11110002e-01 -2.38516718e-01 +1.08990304e-01 -7.85194635e-02 +3.32882255e-01 +3.41532022e-01 +2.39436656e-01 -2.58936614e-01 +1.15515396e-01 +1.49285987e-01 -4.28706035e-02 -8.73037726e-02 +1.82320714e-01 +1.02009717e-02 -5.47827110e-02 +6.20473251e-02 +3.42137039e-01 -1.73125520e-01 -1.03610810e-02 +2.86781162e-01 +2.27819741e-01 -1.01257063e-01 +2.28690997e-01 +5.35344630e-02 -2.19350800e-01 +1.45390972e-01 -1.30461767e-01 -2.48167172e-01 +4.30525839e-03 +3.17857772e-01 -2.91994780e-01 -7.36134276e-02 +9.30791870e-02 -2.62674361e-01 -1.81397181e-02 -2.37637833e-01 +9.99761671e-02 +2.99186736e-01 -5.28498925e-02 -1.31853372e-01 +5.56840859e-02 +2.48963729e-01 +3.64464037e-02 -2.92541653e-01 +2.02907637e-01 -3.22191417e-01 -2.19175860e-01 +2.23371997e-01 -1.47730574e-01 -1.22733749e-01 +1.63847432e-01 +2.11224616e-01 +2.21488133e-01 -3.67756635e-01 -2.86245346e-01 -2.48504579e-01 -1.74360260e-01 -2.50165105e-01 -1.67954624e-01 -4.45893973e-01 +1.49812818e-01 +5.01306474e-01 +4.74389195e-01 -4.10333216e-01 +1.33563116e-01 +2.95109957e-01 -2.10424215e-01 -2.21817374e-01 +8.57703611e-02 -6.21919870e-01 +6.14181831e-02 -6.02902353e-01 -4.01466675e-02 -3.48909825e-01 -2.19526947e-01 -4.66748811e-02 +7.05064684e-02 -4.92660403e-02 +2.34919667e-01 +2.89584100e-01 +2.03524873e-01 -2.45916516e-01 +4.75498810e-02 +1.57137156e-01 -1.68228060e-01 -3.34320843e-01 -5.63810393e-03 +2.22212493e-01 -2.37156190e-02 +3.16133834e-02 -1.02288544e-01 +2.04246014e-01 +2.72672880e-03 +4.24295440e-02 -3.06716055e-01 -3.26097339e-01 +9.14996713e-02 -3.22768122e-01 -1.37198374e-01 +1.90072715e-01 +7.13468492e-02 +2.63626993e-01 -7.05264434e-02 -1.69169858e-01 +3.68871361e-01 -7.38875642e-02 +1.64335549e-01 -8.23197812e-02 +1.97891772e-01 -1.70974851e-01 +2.65132070e-01 -2.21424818e-01 -1.03206009e-01 +1.67901725e-01 -1.63670257e-01 +2.91768998e-01 +3.03743839e-01 +8.12650025e-02 +2.33535305e-01 +2.40751933e-02 -1.32732734e-01 +1.71247840e-01 -1.64702013e-02 -2.22574487e-01 +3.37053865e-01 +2.17483751e-02 -1.19741023e-01 +1.51404798e-01 +4.69409943e-01 -2.01460585e-01 -2.17287481e-01 +2.10962772e-01 -6.00547828e-02 -3.33886564e-01 +3.73427838e-01 +2.50936627e-01 +1.77371427e-01 -1.01164587e-01 +1.37326226e-01 -3.53691816e-01 +1.88198403e-01 +2.15135023e-01 +7.03362077e-02 -4.44162607e-01 -1.08446097e-02 -2.58771360e-01 -6.16989173e-02 +2.31811181e-01 +1.58077121e-01 +8.94675031e-04 +4.55886647e-02 -1.29130781e-01 +2.44761072e-02 +9.20755714e-02 +3.00151199e-01 -3.76828432e-01 -2.89374769e-01 -1.13808043e-01 -2.03290373e-01 -1.08985931e-01 +2.91097276e-02 -1.06070321e-02 -2.97357827e-01 +7.99338967e-02 +3.36060494e-01 +4.30994071e-02 +3.10751915e-01 +1.92400105e-02 +2.18731225e-01 +2.38593370e-01 -7.54705667e-02 -6.13134801e-02 -3.09152901e-01 -2.70969570e-01 -2.71050781e-01 +1.67585000e-01 -1.21288281e-02 -3.55693251e-01 +3.14345211e-01 +1.05558015e-01 +2.27523431e-01 -2.38274589e-01 -1.80007163e-02 +7.33525380e-02 +9.17593762e-02 -1.26791835e-01 -2.81755745e-01 +3.00247192e-01 +1.46770597e-01 +4.36148643e-01 -3.19798887e-01 -1.66073814e-01 -1.64249644e-01 +3.85003388e-01 -1.08182721e-01 +2.41577014e-01 +3.71493280e-01 +2.47425437e-01 +2.13620383e-02 +9.18463711e-03 -7.37042874e-02 +5.63208051e-02 -1.82326242e-01 -3.12862307e-01 +3.19993228e-01 +1.22335017e-01 +4.78482456e-04 +1.91201806e-01 +2.42637724e-01 +1.22716673e-01 +4.14389193e-01 -7.87730440e-02 +3.24013412e-01 -3.92924041e-01 -4.90498953e-02 +3.15913290e-01 +2.30943531e-01 -6.32001162e-02 +5.16403317e-01 -5.18007934e-01 -1.22854747e-01 -1.47123843e-01 +3.55638154e-02 +4.95327152e-02 -1.84536621e-01 +2.61052161e-01 +2.25137711e-01 +3.60885501e-01 +5.40991008e-01 +3.69601935e-01 -1.47108376e-01 +7.60141313e-02 +4.63362448e-02 +9.84222591e-02 +4.38824981e-01 -2.66593069e-01 -2.31712818e-01 -2.93059230e-01 +3.76020342e-01 -3.45055133e-01 +9.29226652e-02 -1.66667268e-01 +1.08999878e-01 -4.78851229e-01 -5.55693731e-02 +3.14183086e-01 +5.01915097e-01 -3.03074419e-01 +3.33536863e-01 +5.27956963e-01 +8.41718763e-02 -2.22088695e-01 +8.77390206e-02 +1.05353922e-01 +2.06192359e-01 -1.96062118e-01 -5.53027093e-02 -3.20587546e-01 -3.27154286e-02 -3.70038778e-01 +3.55177224e-01 -1.32504955e-01 -6.00076243e-02 +4.83577847e-02 +1.26968548e-01 +2.44336590e-01 -5.06365448e-02 -1.84507563e-03 +3.63107659e-02 -1.22912757e-01 -1.87995017e-01 +2.72789031e-01 -3.56413841e-01 -1.03025116e-01 +1.29014388e-01 -1.06956460e-01 -5.81469573e-02 +2.30191141e-01 +2.98638731e-01 -1.24223277e-01 +3.16188842e-01 -1.56955764e-01 -3.32596488e-02 -8.49614516e-02 +2.47981787e-01 +7.37084448e-02 -3.08730155e-01 -2.07677647e-01 -9.36041996e-02 +2.28029773e-01 -6.52773455e-02 +8.17290023e-02 -2.85898179e-01 -4.76858616e-02 +1.40037993e-02 +1.02168068e-01 -4.71992567e-02 -8.31976607e-02 -1.44660875e-01 +2.11403862e-01 +8.85109678e-02 -2.24983498e-01 +4.70473021e-02 -1.64679870e-01 +3.00665528e-01 +1.68606177e-01 +1.36246800e-01 -1.88966215e-01 -1.50590047e-01 -7.85779133e-02 +3.91518734e-02 +1.97674081e-01 -3.35920066e-01 -2.66038794e-02 -3.19512069e-01 +6.09037094e-02 -2.56913781e-01 +2.34711379e-01 -1.26727775e-01 -1.49825916e-01 -3.09080601e-01 -9.85548496e-02 +2.82988667e-01 -1.71958894e-01 -1.04677901e-01 -3.24554712e-01 +5.36655709e-02 +6.23548329e-02 -3.92467856e-01 -3.16249460e-01 -3.36397827e-01 -1.08101971e-01 +3.11329037e-01 +1.96224406e-01 +2.31008753e-01 -2.05997288e-01 -1.99016258e-01 +3.54909599e-01 -1.00980870e-01 +2.56567895e-01 -3.04785430e-01 -9.94728729e-02 -2.17820585e-01 -1.16338685e-01 +1.28582880e-01 +1.39870048e-01 -2.59004980e-01 +1.42635942e-01 +2.56228626e-01 -1.13339357e-01 -3.74231875e-01 -2.26052523e-01 -8.95346776e-02 -3.14092129e-01 -2.91605651e-01 +1.56239998e-02 +2.69209713e-01 +2.32947484e-01 -2.99246758e-01 +3.35585237e-01 +3.06807905e-01 +1.31553203e-01 -2.42012218e-01 -2.71037072e-01 -2.37802476e-01 -2.03947157e-01 -1.93600953e-01 +1.75706074e-02 -1.85647607e-01 +1.90462664e-01 -2.20038090e-02 -3.97615403e-01 +2.09911346e-01 +3.24855708e-02 +2.35496327e-01 -6.92184940e-02 -1.60258412e-01 -2.59391963e-01 -8.04270655e-02 -2.48729721e-01 -1.85600922e-01 -1.77528724e-01 -2.79635578e-01 -6.71971589e-02 +1.04134694e-01 -2.71321744e-01 -9.05512869e-02 -2.29127973e-01 -9.83906463e-02 +9.54501182e-02 -1.18837416e-01 +1.18927963e-01 +2.47178257e-01 +3.93829286e-01 -2.75052339e-01 +1.65567294e-01 +2.03376457e-01 -2.84073681e-01 +2.04047650e-01 -3.71182591e-01 -7.11174980e-02 -8.97114202e-02 -3.99549991e-01 +5.00922687e-02 +3.89943109e-03 -5.10352217e-02 -1.81205451e-01 -2.89631546e-01 -1.11597560e-01 -3.59097838e-01 +1.90094471e-01 +4.56240088e-01 +2.54174292e-01 -3.00121784e-01 -7.29406327e-02 -3.63597244e-01 +5.27488105e-02 -6.86772391e-02 -5.58229461e-02 -3.32338333e-01 +3.54798973e-01 -3.78499687e-01 +3.35903406e-01 +2.88812250e-01 -4.94408816e-01 +2.21659362e-01 +2.48389412e-02 -9.39058438e-02 -1.03329316e-01 -3.44538659e-01 +2.38526657e-01 -1.15145119e-02 +4.88457382e-02 +1.07677147e-01 -3.41056645e-01 +6.23504519e-02 +2.06447884e-01 +2.46244982e-01 -1.82712495e-01 +1.68700069e-01 +6.37956010e-03 -3.88623208e-01 -7.49964342e-02 +1.36727616e-01 -2.76870012e-01 +3.35842855e-02 -2.07382038e-01 -1.83988013e-03 -3.51269424e-01 -6.08887710e-02 +1.30287766e-01 -2.53650248e-01 -3.40503544e-01 +1.68286450e-02 +7.32176676e-02 +2.20498741e-02 -7.26259826e-03 -2.27055967e-01 -2.89324015e-01 -3.38655978e-01 +2.61991709e-01 -2.25623548e-01 +1.42728329e-01 -2.33665988e-01 +3.28624934e-01 +1.54706180e-01 -2.55945265e-01 +3.45538780e-02 +5.05537510e-01 -2.58461684e-01 +1.92664221e-01 -3.35905284e-01 -1.80662304e-01 -2.61481911e-01 +4.71200496e-02 -1.33623004e-01 
#Parameter# /_20 {25,25} 10001 ZERO_GRAD
-3.80294830e-01 -1.14243627e-01 -3.35281998e-01 -2.30884135e-01 -2.12329835e-01 +2.24583633e-02 -3.09126414e-02 -3.32469910e-01 +5.32566048e-02 +1.35175036e-02 +1.45524144e-01 -1.86890721e-01 +1.98045015e-01 +1.09067537e-01 -1.16749465e-01 +3.20757151e-01 -2.97211483e-03 +1.88151151e-01 -1.47393376e-01 -2.40542233e-01 -1.70391202e-01 -1.83473110e-01 -2.24606141e-01 -2.43398175e-01 -1.02422945e-01 -2.31534123e-01 +7.59424493e-02 +1.52837113e-01 -2.55351841e-01 +3.35019380e-01 -2.30944887e-01 -9.16409343e-02 +2.45001063e-01 +3.27783763e-01 -2.61424273e-01 +6.16356097e-02 +6.90864120e-03 +3.27869564e-01 +3.15177470e-01 +1.11392833e-01 +7.25250319e-02 +2.29152888e-01 +1.59273997e-01 +6.08664379e-03 +8.52529481e-02 +3.20105135e-01 -3.81981321e-02 -1.21666372e-01 +2.93882221e-01 -1.81493431e-01 +1.95334814e-02 -1.40760079e-01 +4.74154130e-02 +1.55820921e-01 +2.44736329e-01 -2.33346671e-01 -2.45828614e-01 -1.89174324e-01 -2.28348389e-01 +2.89929777e-01 -9.40247849e-02 +1.83333069e-01 -2.27078483e-01 -2.29512110e-01 -3.12380612e-01 -6.20022565e-02 -2.78120518e-01 +5.86471297e-02 +2.98671983e-03 +4.18663025e-01 +1.98604658e-01 +2.79208481e-01 +3.26029867e-01 +2.77029037e-01 +3.13720584e-01 +7.12337494e-02 -1.76259577e-02 -1.76536530e-01 -1.93134055e-01 +1.69686347e-01 +5.68563268e-02 +2.54292309e-01 -1.50069118e-01 -1.61802158e-01 -1.15337983e-01 +2.54536152e-01 +4.29451466e-02 -2.37975657e-01 +1.57342076e-01 +2.32699458e-02 +1.30116224e-01 -3.13196570e-01 -2.24089622e-01 -7.84218460e-02 -7.26458505e-02 +3.15770239e-01 +1.46360219e-01 -2.50849664e-01 -2.00900376e-01 +3.08618903e-01 -9.20467526e-02 +2.29285255e-01 -1.94612071e-01 -7.52523774e-04 -9.92986839e-03 +2.14840978e-01 +1.25969991e-01 -7.75039420e-02 -1.44801006e-01 +1.80501178e-01 -2.08663240e-01 -1.78754665e-02 +2.25151211e-01 -1.93157360e-01 -9.39939022e-02 -1.10334203e-01 -2.39282995e-01 +1.85455650e-01 -3.35236907e-01 +2.55617738e-01 -1.54034555e-01 -6.67749718e-02 +1.73656181e-01 -1.07520670e-01 +6.62224963e-02 +3.42375815e-01 -3.37025613e-01 -2.96192467e-01 -8.67550522e-02 +2.24487200e-01 +3.39844555e-01 +2.03686021e-02 -3.39107186e-01 -8.30115303e-02 +2.25456253e-01 +3.58393997e-01 -9.04106442e-03 -1.81777969e-01 -1.77355334e-01 +1.07586414e-01 -1.16951488e-01 -9.85902995e-02 -3.60044032e-01 +8.88432190e-02 -3.65340084e-01 +2.63515502e-01 -1.75193623e-02 -2.51818031e-01 -3.27561140e-01 +3.30834270e-01 -1.50896190e-02 -7.35036880e-02 +2.14293320e-03 -4.43271786e-01 -1.24528438e-01 -2.38608029e-02 -1.52794778e-01 -3.10472161e-01 -2.09489852e-01 +3.18058312e-01 -9.27748345e-03 +3.25943798e-01 +4.95017273e-03 -5.42421825e-02 +1.11912668e-01 +6.54716492e-02 -1.73402384e-01 -2.36918166e-01 +1.44653395e-01 -2.33747736e-01 -3.47954571e-01 -3.24982345e-01 +2.39436612e-01 -1.60620645e-01 -3.59157890e-01 -2.18207091e-01 +2.89825678e-01 -1.67125702e-01 +1.64814875e-01 +1.28942713e-01 -2.61157990e-01 -2.65578032e-01 -2.04284742e-01 -9.72790271e-02 -3.29889327e-01 +3.15357149e-02 -2.94694215e-01 -2.29976460e-01 +3.04311424e-01 +2.55772676e-02 -1.43517181e-01 -5.86610958e-02 +3.90990734e-01 -2.03869760e-01 +1.56519115e-01 +4.03031893e-03 -3.12620662e-02 -3.09351534e-01 +2.20805570e-01 +3.22081029e-01 -2.81431288e-01 -1.73315585e-01 +3.83029431e-01 -2.60898203e-01 -1.34204894e-01 -4.40016508e-01 -1.49004743e-01 +1.16170190e-01 +1.98699698e-01 -2.63611853e-01 +1.78342775e-01 -2.58642994e-02 +1.87865600e-01 +6.34429157e-02 +8.14127624e-02 -3.25039402e-02 -2.50448465e-01 -3.28397602e-01 +3.63129050e-01 +3.20223480e-01 +4.18694228e-01 -3.71175408e-02 +1.20571107e-02 -1.37030527e-01 +2.34077170e-01 +2.26360038e-01 +1.52149558e-01 -2.27283671e-01 +1.44866064e-01 +2.09483296e-01 +2.04971254e-01 +1.60287455e-01 +2.58024991e-01 -2.93253869e-01 +1.51165398e-02 -1.91152096e-02 +1.85734630e-02 -6.60445839e-02 +2.84211576e-01 -1.82239726e-01 -3.64808619e-01 -2.58555174e-01 +9.90751386e-02 -5.10706492e-02 +4.97850478e-02 -1.98494673e-01 -2.59504467e-01 -3.38396341e-01 -2.93566823e-01 +2.57260382e-01 +1.76309451e-01 +2.42649749e-01 +1.10189505e-01 -2.31261432e-01 -7.19423965e-02 -1.57691404e-01 +1.14661321e-01 -1.71643600e-01 -1.97918668e-01 +1.29131332e-01 -1.90216854e-01 +1.35251820e-01 +5.76171987e-02 -6.52197450e-02 +3.83123934e-01 -1.31124154e-01 -9.93944928e-02 -1.27585188e-01 -2.75880117e-02 +6.00757971e-02 -4.07845020e-01 +2.01451749e-01 +6.86482936e-02 -2.88270116e-01 -3.49521458e-01 +1.30408555e-02 -2.28013054e-01 -8.24990273e-02 -1.05976410e-01 +1.19669512e-01 +2.25325227e-01 +2.47012049e-01 -2.77369320e-01 -2.70511836e-01 -7.64657706e-02 -1.42046630e-01 +3.16755712e-01 -2.25305185e-01 +1.76535472e-01 +3.74584496e-01 +6.74300781e-03 +1.00886129e-01 -1.59999669e-01 -1.98595777e-01 -4.43352252e-01 +1.20710514e-01 -2.51254052e-01 -6.71889773e-03 -4.17454630e-01 -4.35209334e-01 -2.98299879e-01 +2.62964249e-01 +3.58390778e-01 +3.45749676e-01 +1.88271433e-01 +1.83463991e-01 -3.73651087e-01 +2.86429942e-01 +2.00566262e-01 -3.29823196e-01 -1.42319426e-01 -4.03036892e-01 +2.58249789e-01 -1.06113248e-01 -2.43158057e-01 +2.28211910e-01 -2.40731642e-01 -2.79538453e-01 +4.16025162e-01 +9.76674631e-02 +2.12011203e-01 +3.45903128e-01 +2.47888312e-01 +3.45298618e-01 +4.27415848e-01 +2.53752291e-01 +3.19557250e-01 -1.86630353e-01 +1.64969265e-01 -1.56291109e-02 +1.48884892e-01 -2.89225668e-01 -2.20240131e-02 +2.31019050e-01 -4.65742908e-02 +1.86665788e-01 +8.87345672e-02 -3.08162957e-01 +3.97052662e-03 +2.01520592e-01 -1.29309267e-01 -2.27282807e-01 +1.82537615e-01 -1.04224369e-01 -3.50868478e-02 -3.34369302e-01 +2.44207278e-01 -3.43570143e-01 -1.91740856e-01 +1.87866122e-01 +1.02332555e-01 -3.15116107e-01 -1.76563010e-01 -3.63207608e-01 -6.89045563e-02 -9.57670361e-02 +1.79452464e-01 -2.10361630e-01 -3.15653801e-01 +1.11640409e-01 +3.32125008e-01 +7.46375322e-02 -2.77327716e-01 +7.16628954e-02 +1.32245347e-01 -2.57461131e-01 +3.10379833e-01 +1.46390989e-01 +1.46655440e-01 -2.29757905e-01 -4.12243426e-01 -6.71589226e-02 -2.03571096e-01 +2.19130591e-01 -1.53268337e-01 -1.78592112e-02 -2.22639307e-01 +2.52217919e-01 -1.29723744e-02 -1.88464582e-01 +9.55831707e-02 +2.45255142e-01 -2.27654770e-01 +2.72596162e-02 -2.16148987e-01 +2.67968237e-01 -2.70372719e-01 -1.78045616e-01 +2.54888833e-01 -2.34304592e-01 +1.43523052e-01 -3.46677244e-01 -9.00077075e-02 -1.24731816e-01 +3.75769198e-01 +9.94475279e-03 +1.39406487e-01 -1.02887005e-02 +1.99737117e-01 -2.69068688e-01 +1.73023447e-01 -6.97614178e-02 -6.62700683e-02 -1.88719198e-01 +1.02539904e-01 +3.69258583e-01 +1.26276478e-01 +1.49885109e-02 -1.84316069e-01 +7.10601211e-02 -2.54925966e-01 -5.04919328e-02 -8.64008144e-02 -2.95417905e-01 +8.51027444e-02 -2.90930212e-01 -6.92652017e-02 +5.81107512e-02 +3.30903798e-01 -2.01645449e-01 -2.97879726e-01 +1.26547307e-01 -2.09078733e-02 -1.34869829e-01 +2.30792657e-01 +1.80080328e-02 +1.71845540e-01 -4.78578418e-01 -3.84211868e-01 -3.17620486e-01 +2.00063184e-01 -2.71960229e-01 -3.62640738e-01 -2.16588661e-01 -4.66049975e-03 -2.77494133e-01 +3.66015077e-01 -3.15711737e-01 -2.32033864e-01 -1.02648444e-01 -3.11124265e-01 +3.69753510e-01 -3.89147140e-02 -3.09360474e-01 +2.63540119e-01 -2.24694282e-01 +1.26877889e-01 +5.09304702e-02 +1.33284464e-01 -3.16306144e-01 -2.83940077e-01 +2.34556362e-01 +4.30527478e-02 +2.07385451e-01 -1.86817750e-01 -1.18753091e-01 +2.72083640e-01 -3.02429348e-02 +5.68847172e-03 -2.00249329e-01 -3.08577538e-01 +2.52511855e-02 -1.47330090e-01 -1.95761427e-01 -2.21163288e-01 +1.84637964e-01 +2.15726629e-01 +1.53720342e-02 +1.66232824e-01 -1.21674217e-01 +7.07994923e-02 +2.07367316e-01 +1.25605792e-01 -2.82993793e-01 +3.28303725e-01 -1.36712417e-01 -1.50286481e-01 -1.95574865e-01 -1.56509608e-01 +4.35282767e-01 -4.00303751e-01 +2.22446382e-01 +9.16449632e-03 -1.66750208e-01 +2.66168058e-01 -3.19085240e-01 +1.86130822e-01 -1.61510572e-01 +1.80165365e-01 +1.25212967e-01 -2.71411210e-01 +3.16592932e-01 -2.40939885e-01 -1.02984376e-01 -9.59420875e-02 -5.88979870e-02 -2.17014939e-01 -8.17180127e-02 +2.29612336e-01 -9.59161390e-03 +1.33190647e-01 +9.68439952e-02 +3.01743656e-01 -7.42858425e-02 +9.56985801e-02 -1.54992694e-03 +2.35424757e-01 -1.15664810e-01 +7.03039914e-02 +1.38245806e-01 +2.45697454e-01 -2.79552549e-01 +8.40386748e-02 -1.80049405e-01 -2.06183761e-01 -7.29706809e-02 -1.71685398e-01 +2.81124353e-01 -8.01259652e-02 +6.85336664e-02 -1.94685578e-01 -2.94858783e-01 +8.81320238e-02 +7.65191540e-02 +1.05090700e-01 +3.35239440e-01 -1.82870388e-01 +2.64030963e-01 +5.13987914e-02 -1.00909695e-01 -3.56900901e-01 +2.12309067e-03 -4.48707864e-03 +3.05823565e-01 -1.64368004e-01 +7.55914375e-02 +2.74418313e-02 +2.18253359e-01 +6.68946952e-02 -7.28905126e-02 +1.46959022e-01 +1.74525350e-01 +1.89279184e-01 -1.27596825e-01 +1.32077530e-01 +8.88701901e-02 -1.36262119e-01 -3.10892314e-01 +1.95885494e-01 +2.87352711e-01 +2.68020332e-01 -1.17926560e-01 -2.66167909e-01 -1.17970342e-02 +3.25836033e-01 +6.67825863e-02 +1.43187746e-01 -2.64150769e-01 +1.78452536e-01 +2.25813642e-01 +3.42333704e-01 +3.63691181e-01 -1.10448219e-01 +9.40181687e-02 +9.48204994e-02 -1.85307022e-02 +1.61300689e-01 -4.61147614e-02 +2.67785102e-01 +3.61817658e-01 -1.91363871e-01 +2.59041429e-01 -2.69893169e-01 -3.77133965e-01 +4.73497845e-02 -6.55815378e-02 +2.15273574e-01 +3.06213737e-01 +2.26938263e-01 +4.55195904e-01 -4.03553657e-02 +2.73714364e-01 +2.25740343e-01 +3.40228945e-01 -1.40322179e-01 -4.36468333e-01 -3.29938918e-01 +2.54997730e-01 +2.02887297e-01 -3.58388163e-02 +2.12368563e-01 +1.78615093e-01 -2.74893463e-01 +5.05765378e-01 -1.55850789e-02 +1.04216784e-02 -3.46462205e-02 +3.03444475e-01 -2.24195316e-01 +1.46516830e-01 +5.39164133e-02 +3.05635501e-02 -6.38493448e-02 +1.51611403e-01 -1.85329527e-01 -2.20339805e-01 -3.24083835e-01 +1.51900202e-01 +2.04042777e-01 -2.85996556e-01 -4.07713771e-01 -3.69556576e-01 -9.86621305e-02 -2.27549687e-01 -9.52211022e-02 +3.03200215e-01 +2.18655109e-01 +2.18628585e-01 +1.29028887e-01 +5.08749438e-03 -2.67362773e-01 +9.00817439e-02 -2.30834469e-01 -2.37717122e-01 -3.15808058e-02 
#Parameter# /_21 {25} 401 ZERO_GRAD
-1.77611828e-01 -2.41092607e-01 +1.43548138e-02 +3.49000275e-01 -4.42617685e-02 -2.00977102e-01 +2.66462058e-01 +4.31940146e-02 +1.29503027e-01 +6.91225426e-03 +2.94235706e-01 -1.18934095e-01 +1.70606986e-01 -1.82245344e-01 -3.13890547e-01 -2.90589511e-01 +2.39383444e-01 +2.40162805e-01 +5.10608405e-03 -2.77519703e-01 +3.07806790e-01 +1.89721078e-01 -8.21350813e-02 -2.36105770e-01 +2.41963774e-01 
#Parameter# /_22 {25} 401 ZERO_GRAD
+2.83484876e-01 -1.59589544e-01 -9.29833949e-02 +1.49386287e-01 -1.10170200e-01 -2.81693339e-02 +6.52043819e-02 -2.89497644e-01 +1.08550131e-01 -1.39720142e-02 +2.40989923e-02 -1.94977984e-01 +1.10993683e-01 +2.17182219e-01 -1.60625905e-01 -1.44486189e-01 -2.32702225e-01 -2.99646914e-01 -1.70249373e-01 +9.38130319e-02 -7.57399201e-02 +3.16231549e-02 +3.31852019e-01 +2.52114892e-01 -2.60424018e-02 
#LookupParameter# /_0 {3,2} 97 ZERO_GRAD
+2.73849308e-01 -1.99375317e-01 -1.09883241e-01 -7.12905705e-01 +3.86020333e-01 -7.14834571e-01 
