#Parameter# /_1 {2,25} 801 ZERO_GRAD
+4.23477769e-01 +3.94210428e-01 +2.61905283e-01 +3.16231161e-01 +1.92940608e-01 +2.00259104e-01 -3.73071432e-01 +5.47984898e-01 +7.71024525e-01 -6.66067183e-01 +4.01056826e-01 -3.65428030e-01 +2.34265864e-01 -5.72393894e-01 -2.51929641e-01 +5.64193547e-01 +5.34079909e-01 +2.52897263e-01 +2.64569908e-01 -2.71618277e-01 -4.53538299e-01 +2.13481501e-01 +6.02899790e-01 -2.03681767e-01 -6.19810462e-01 +7.67984509e-01 +5.38334846e-01 -6.69733584e-01 -1.96487997e-02 -1.75330758e-01 +7.95264840e-01 -8.37170243e-01 -4.40253109e-01 -4.16129053e-01 +1.00822546e-01 +2.33023986e-01 +2.33229890e-01 +3.31478983e-01 +5.80715597e-01 -3.04812312e-01 +1.74531594e-01 +9.70068350e-02 +2.03745693e-01 +2.93234497e-01 -1.47817686e-01 -5.39244652e-01 +8.13230649e-02 +1.61037236e-01 -2.08591074e-01 +3.34137291e-01 
#Parameter# /_2 {2} 33 ZERO_GRAD
+6.46918654e-01 -7.30286725e-03 
#Parameter# /_3 {25,3} 1201 ZERO_GRAD
-3.54783475e-01 -9.22029838e-02 -4.77702230e-01 -1.61184102e-01 +1.61270812e-01 +5.33511490e-02 +1.40449673e-01 +4.03349966e-01 +3.95492196e-01 -3.70927900e-01 -7.82843158e-02 -2.15537965e-01 +4.52216357e-01 +1.15307994e-01 +2.54998028e-01 +1.16636567e-01 +2.28574481e-02 +1.23833947e-01 +3.27885598e-01 -9.23684612e-03 -2.25651339e-01 +2.05707252e-01 -1.35558590e-01 -1.66147023e-01 +1.02110496e-02 +1.48434818e-01 -1.31813129e-02 +1.23708241e-01 -1.62285045e-01 +2.89066195e-01 +3.63821566e-01 -3.22700620e-01 +4.52939510e-01 +3.52531254e-01 +6.24333084e-01 +1.92372367e-01 +4.06400770e-01 +2.48060822e-01 +3.69229615e-01 -1.20986804e-01 +1.50402918e-01 +6.44225478e-01 +3.02902400e-01 -1.98035076e-01 -6.08474873e-02 -2.84383327e-01 -1.33637831e-01 +2.68879592e-01 +3.15258056e-01 +1.88873103e-03 +4.28752124e-01 -2.64703661e-01 +2.67668307e-01 +2.56811261e-01 -3.37716252e-01 -1.21007778e-01 -1.48980498e-01 +4.56948310e-01 +2.41507575e-01 +3.32051337e-01 +4.87725526e-01 +4.04537827e-01 +3.05410624e-01 -1.29700854e-01 +1.77503437e-01 +3.63284886e-01 +5.03568590e-01 +3.98296006e-02 -1.70352198e-02 -1.13676205e-01 -4.37623084e-01 -5.16111076e-01 +2.67630607e-01 -1.34905890e-01 +3.04044425e-01 
#Parameter# /_4 {25,25} 10001 ZERO_GRAD
-1.48386419e-01 +1.65016234e-01 +1.58830464e-01 -1.16783552e-01 +2.22480088e-01 +1.66234568e-01 +1.97814673e-01 -2.61246473e-01 +3.61157283e-02 +3.22359830e-01 +2.82351941e-01 -2.86731809e-01 -5.71849421e-02 -6.87246695e-02 -3.07083338e-01 -1.65038288e-01 +1.94002867e-01 +9.26837325e-02 -3.05877745e-01 -2.73598552e-01 +8.27810541e-02 -2.96540856e-01 -1.60088584e-01 -3.35886002e-01 -1.41559228e-01 -2.00965911e-01 +2.89765775e-01 +1.96945131e-01 +8.53724256e-02 +7.58578628e-02 +2.98788063e-02 -9.98324715e-03 -2.20852211e-01 -7.04741329e-02 +1.83727339e-01 -3.72463137e-01 -2.39567548e-01 +2.00586021e-01 -2.68352050e-02 +3.92580926e-02 -7.33629316e-02 +3.52993220e-01 -3.19543481e-01 -1.00406989e-01 -2.29250029e-01 -4.95843798e-01 -2.31586874e-01 +2.23763436e-01 -3.93762141e-01 +1.22694932e-01 -1.47088960e-01 -4.86091942e-01 -2.37630963e-01 -2.96535343e-01 -2.56004006e-01 -1.19481847e-01 -1.96612939e-01 -3.71581078e-01 -2.79844962e-02 -2.52158105e-01 -2.59402633e-01 +2.98432540e-02 -2.51698345e-01 -5.07550359e-01 -2.74502367e-01 -3.69009942e-01 +1.94154948e-03 +1.95489779e-01 +2.19611973e-02 +1.46488771e-01 -2.35165849e-01 +1.85612157e-01 -2.95900553e-01 -4.28960890e-01 +2.61200815e-01 +7.05477642e-03 -1.60731882e-01 +8.46265852e-02 -3.78628939e-01 +6.22069044e-03 +1.36585072e-01 +1.01727899e-02 -6.86592311e-02 -2.48035565e-01 +2.38015037e-02 -5.66548169e-01 +1.52408838e-01 +9.19193178e-02 -4.21894997e-01 -5.45998961e-02 -4.30454761e-01 -2.06438705e-01 -1.71722412e-01 -3.01229477e-01 -3.83243859e-01 +5.14209345e-02 -1.04740612e-01 +6.29397929e-02 +6.64896294e-02 -5.96549585e-02 +2.00312972e-01 -1.63388461e-01 -2.82979310e-01 -4.52678263e-01 +3.75497252e-01 -3.29823911e-01 -3.81415725e-01 -2.48726293e-01 +7.11166561e-02 +2.19584316e-01 +1.48892879e-01 -3.70423147e-03 -5.58886752e-02 -3.65429640e-01 -3.47429216e-01 +8.98740441e-02 +1.63426809e-02 -1.27855986e-01 -1.78142071e-01 +1.45055607e-01 -3.00533175e-01 +4.02227789e-01 -1.32641852e-01 -2.38594815e-01 -8.51282701e-02 -2.43794397e-01 +5.55304810e-02 +1.20421208e-01 -2.50130117e-01 +6.61882907e-02 +3.83589625e-01 +2.06334125e-02 -1.26697317e-01 -2.62835175e-01 +2.97702938e-01 -4.78462815e-01 -2.35291004e-01 -1.55570023e-02 -4.36200291e-01 -5.56790292e-01 -1.38672218e-01 -1.82110578e-01 -2.81394333e-01 -9.78313237e-02 +1.60979126e-02 -4.16290686e-02 -3.68937589e-02 +1.99600756e-01 -1.64563760e-01 -1.65702760e-01 +3.54214400e-01 -3.40505093e-01 +5.42315282e-02 +2.48853207e-01 -2.40168154e-01 +1.94713101e-02 +1.41493484e-01 -3.08492392e-01 +4.65732589e-02 +2.38267750e-01 -1.03943229e-01 +2.66125381e-01 -2.66306281e-01 +2.25440368e-01 -3.67225200e-01 +2.26910949e-01 -2.76954740e-01 +1.94699228e-01 -5.04446745e-01 +3.51198375e-01 +1.81429107e-02 -1.89537272e-01 -2.97137141e-01 -1.85407117e-01 -1.97140306e-01 +3.18021774e-01 +2.16323659e-01 -2.62231588e-01 +4.03636247e-01 -2.13632837e-01 -2.72657067e-01 +1.03283957e-01 +1.97131962e-01 -1.31127909e-01 +2.08250284e-01 +2.06046581e-01 +2.97255218e-01 -1.32991597e-02 -1.44570559e-01 +2.50577778e-01 -1.86299279e-01 +2.13412866e-01 +2.65752673e-01 -8.98126513e-02 +1.36522204e-01 -2.17682168e-01 +2.43298247e-01 -2.87360877e-01 +1.25304177e-01 -3.51650298e-01 +3.54303896e-01 +3.17040503e-01 +2.97943950e-01 +2.96984404e-01 -2.97555506e-01 +1.86942175e-01 +2.56564170e-01 -2.59768546e-01 -4.12616402e-01 +3.71155709e-01 +2.44307324e-01 -3.85399759e-02 +3.81568104e-01 +4.85882116e-03 +8.51131603e-03 +7.21878484e-02 +1.70167401e-01 -1.02095425e-01 +5.17292544e-02 +3.91577967e-02 +1.88974723e-01 -4.88537177e-02 +2.42729962e-01 -1.89243630e-01 +2.58275688e-01 +1.14750899e-01 +2.36726686e-01 -2.51982450e-01 +1.14303874e-02 -3.55685540e-02 -3.63376588e-01 -2.35234633e-01 -7.73912296e-02 +9.84114781e-03 +9.54974443e-02 +2.36967772e-01 +1.05461553e-01 +1.40600083e-02 +4.18708235e-01 -1.19260084e-02 -8.36695209e-02 -1.55989841e-01 +1.46807745e-01 -3.19259316e-01 +1.49962395e-01 -2.19236642e-01 +1.43561453e-01 -8.66939053e-02 +1.28119558e-01 -1.97470218e-01 -2.71730959e-01 +6.07901037e-01 -3.14503871e-02 +3.28370243e-01 +1.23733476e-01 +2.14511961e-01 -2.16452584e-01 +1.60847321e-01 +5.87846786e-02 -1.14620179e-01 +5.03329217e-01 -2.08795652e-01 +1.48206130e-01 +2.98031956e-01 +2.27581069e-01 +3.83383930e-01 -1.23774059e-01 -6.75397739e-02 +4.52941172e-02 -1.16653191e-02 -8.73130634e-02 -2.27787822e-01 +4.86693680e-01 -1.71857029e-01 -1.97931811e-01 -3.09242725e-01 +9.94994584e-03 +2.29720995e-01 -5.18184423e-01 +3.19677144e-01 +3.27522829e-02 -8.15047249e-02 +1.34704977e-01 +1.16808385e-01 -2.44195268e-01 +7.31387138e-02 -1.96614727e-01 -1.97700232e-01 -3.05328548e-01 -1.40048146e-01 +6.30413517e-02 +1.52399331e-01 +6.46867231e-03 -1.07789166e-01 -1.37803674e-01 +1.45882681e-01 -1.87173128e-01 -1.97294354e-01 -2.78635174e-01 -5.99099845e-02 +3.08400452e-01 +3.99827331e-01 +2.71069348e-01 +3.73762012e-01 -3.67298812e-01 +2.75653839e-01 +2.61038803e-02 -1.96007937e-01 +6.50245771e-02 +2.32742578e-01 -2.15214062e-02 +9.39614624e-02 +2.35839784e-02 -1.38347983e-01 +3.54923576e-01 -1.05408467e-01 +3.70187461e-01 -1.29313022e-01 +4.39212888e-01 +1.60002097e-01 +4.49406914e-02 -5.05551323e-02 +3.75696421e-01 -2.68119443e-02 +1.53185539e-02 -2.40925327e-01 -3.60607564e-01 +3.69261652e-01 -3.20933521e-01 -8.80951285e-02 -1.82251021e-01 -2.33741980e-02 +2.95186080e-02 +1.56791270e-01 -3.57659161e-01 -1.97223559e-01 -3.58303159e-01 +1.31059125e-01 -1.13038369e-01 -3.70659113e-01 -3.17222267e-01 -4.02645171e-01 +1.23436697e-01 -4.89962250e-01 +3.16192731e-02 -4.04305935e-01 +5.27966172e-02 +4.29580174e-02 -2.86284573e-02 -5.98702542e-02 -2.71614283e-01 +1.01654157e-01 +1.30712554e-01 +4.73549694e-01 -3.56557608e-01 +2.82063652e-02 -1.36328027e-01 +2.67705917e-01 +2.31483832e-01 +3.45435739e-01 +4.18107867e-01 -6.31048605e-02 +3.56953233e-01 -3.60269323e-02 +2.50148177e-01 +4.39661779e-02 +4.26335335e-01 +3.44374865e-01 +3.48858386e-01 +4.20097470e-01 +3.87663633e-01 +4.92589623e-02 +5.60269654e-01 +2.33287275e-01 +2.47325718e-01 +1.81925938e-01 +8.74734074e-02 +1.11994945e-01 -3.21992934e-01 -2.94205975e-02 -5.47155738e-01 -2.85735190e-01 +1.16181463e-01 -2.82095224e-01 -1.50909312e-02 -1.73382536e-01 -1.57678917e-01 -2.15644389e-01 -3.76201719e-01 -2.12568622e-02 -4.07353014e-01 -3.13413888e-01 -2.46781752e-01 +2.75500193e-02 -5.01340866e-01 -3.14150035e-01 +4.53827143e-01 -6.04773939e-01 -1.44969121e-01 -3.52804154e-01 -2.16012508e-01 -1.02382958e-01 -2.08263233e-01 -5.45536399e-01 +1.15530632e-01 -3.97843271e-01 -2.19912916e-01 +2.56021060e-02 +7.76454657e-02 +2.76916653e-01 -2.44925931e-01 -3.51008922e-02 -1.49692535e-01 -3.99482608e-01 -4.25847739e-01 +6.74413443e-02 -4.22561914e-01 -2.48503968e-01 -4.72929060e-01 -3.43135267e-01 +4.85754898e-03 +1.50566041e-01 +1.09741122e-01 +4.87793759e-02 -1.66673809e-01 +1.15852281e-01 +5.54528534e-01 -2.96644479e-01 +3.68125737e-01 -3.45934331e-02 +1.93087518e-01 +1.85258523e-01 -1.87375247e-01 +2.85411417e-01 +2.39696428e-01 +1.31123960e-01 +4.67427880e-01 +4.27562505e-01 +2.25167513e-01 +5.51240921e-01 +4.78918135e-01 -8.14775750e-03 +3.12945247e-01 +3.67895454e-01 +1.16327345e-01 +4.79881406e-01 +5.86025789e-02 +9.48716104e-02 +2.10194767e-01 +3.10617656e-01 -3.71323079e-01 +2.61103660e-02 -1.82818592e-01 -3.81831855e-01 +3.19992118e-02 -5.78029603e-02 -6.37492463e-02 +2.03403488e-01 +5.95883206e-02 -2.88036734e-01 -2.02759728e-01 -2.46219948e-01 +1.35580124e-02 -1.15490384e-01 -2.61580590e-02 -5.98424040e-02 +1.06186695e-01 -2.43766308e-01 +7.33060986e-02 -1.67211175e-01 +1.19974561e-01 +2.26086006e-01 -5.28510749e-01 -4.36351687e-01 +2.18081430e-01 -4.05774504e-01 +1.89810887e-01 -5.60275950e-02 -3.97410750e-01 +1.15102464e-02 -2.31894925e-01 +4.87380512e-02 -2.04295479e-03 +1.19038679e-01 -2.64161944e-01 -2.27706090e-01 -1.93464011e-01 +1.29355313e-02 -2.76140943e-02 +1.32331148e-01 +1.97908618e-02 -3.23150307e-01 -3.25271755e-01 +7.53053054e-02 -1.88828960e-01 -3.88163388e-01 -1.45231679e-01 -2.52413243e-01 +1.37009308e-01 -1.03423238e-01 -2.82277703e-01 +4.45659071e-01 -3.47227454e-01 +2.40336671e-01 -2.96297491e-01 +6.63373694e-02 -6.15608767e-02 -1.03539549e-01 +1.65069640e-01 +7.85499960e-02 +2.87075520e-01 +8.88556540e-02 -5.41728660e-02 +3.46065968e-01 +3.34492326e-01 +1.38100237e-01 +1.99894786e-01 -8.34164619e-02 +9.64355394e-02 +4.45316762e-01 +2.79232234e-01 -4.16512191e-01 -2.21751988e-01 -1.00873537e-01 -1.78111225e-01 -1.27056360e-01 +2.85735667e-01 -1.43478900e-01 +5.41845083e-01 -1.17148906e-01 +2.43646875e-01 +1.93684176e-01 +2.69378126e-01 +5.22685200e-02 +3.17689121e-01 +4.11169529e-01 -1.87973887e-01 +3.06836486e-01 +1.14163458e-01 +1.00391611e-01 -9.79220495e-02 +8.64051469e-03 -2.00331151e-01 +1.42225906e-01 -2.51869231e-01 +3.93930227e-01 -3.62420350e-01 +6.45823404e-02 -4.85722870e-02 +1.37809366e-01 -2.84809709e-01 +1.97901145e-01 -3.79723251e-01 -4.02763665e-01 +1.04881480e-01 +1.01860873e-01 -1.56474069e-01 +1.87652241e-02 -1.62059918e-01 +2.81223476e-01 -2.55889475e-01 -3.49429965e-01 -2.36263394e-01 +2.19100446e-01 +1.08878188e-01 +2.03994662e-01 -2.68576443e-01 -2.46358156e-01 +7.16508273e-03 -1.37790039e-01 -1.00444825e-02 +6.82981685e-02 -4.01348978e-01 -2.83889085e-01 +2.97524557e-02 -3.31993669e-01 -1.90107152e-01 +6.42744377e-02 -3.28860253e-01 +5.12656942e-02 +1.21919855e-01 +2.40682378e-01 -3.83888334e-01 +5.25573976e-02 +1.20313935e-01 -2.53873855e-01 +1.73992112e-01 -3.88571024e-01 +9.21397060e-02 -2.01411813e-01 -1.85054183e-01 -8.06936547e-02 +1.39011189e-01 -2.04392821e-01 -4.64927256e-02 +1.54037654e-01 -7.61320889e-02 -4.90475804e-01 -3.90133172e-01 -1.74340621e-01 -6.60073236e-02 +4.00991648e-01 +2.17261791e-01 +5.04323959e-01 -7.11818635e-02 -2.62597948e-01 +1.99224558e-02 +2.35368833e-01 -3.99663895e-02 -1.73342600e-01 +3.53993803e-01 +3.05567235e-01 -3.91333364e-02 +1.82872280e-01 -7.74030536e-02 +4.16711837e-01 -1.15007102e-01 +3.00593585e-01 +1.48591353e-03 -1.11996233e-01 +1.99782386e-01 -8.62187054e-03 +9.17673633e-02 +3.59732583e-02 +3.19259077e-01 
#Parameter# /_5 {25} 401 ZERO_GRAD
-3.52163285e-01 -2.39177018e-01 -3.78280818e-01 -4.09528971e-01 -4.13073376e-02 -3.05408388e-01 -3.40946823e-01 -1.65086403e-01 +1.96332201e-01 -1.59395002e-02 -4.40618575e-01 -1.09222822e-01 -1.39443129e-01 +3.38999517e-02 -3.27709198e-01 +4.06802893e-02 +2.05638304e-01 +1.23314105e-01 -3.80217209e-02 +8.38764757e-02 -1.37976371e-02 +3.22453320e-01 -3.69567007e-01 -4.37853813e-01 +6.11372106e-02 
#Parameter# /_6 {25,3} 1201 ZERO_GRAD
-2.33694524e-01 +1.02607548e-01 -4.30093944e-01 +3.35203052e-01 +4.52132702e-01 -1.85023010e-01 -3.62515688e-01 -4.42331821e-01 -2.70905137e-01 +3.77171874e-01 -2.56888568e-01 -4.82214391e-02 -1.74314827e-01 -3.41845751e-02 -2.50527561e-02 -1.53008789e-01 +4.49605584e-01 -2.93621182e-01 -3.83981764e-02 +4.27287102e-01 -4.35620070e-01 -4.42263037e-01 -1.73805505e-01 -2.37801284e-01 +1.58897340e-01 -1.81875080e-01 +1.15536332e-01 +2.25162685e-01 -2.69167006e-01 +1.97474360e-01 -1.92375153e-01 +3.41130078e-01 -1.54719204e-01 +4.50772762e-01 +2.80121267e-01 +4.48311210e-01 +1.28064632e-01 +9.17783380e-03 +3.62167954e-01 -2.81843841e-02 +4.58447695e-01 -2.73021936e-01 +4.60824907e-01 -1.18836761e-03 -2.10264236e-01 +4.55447614e-01 -2.83306032e-01 +4.25935149e-01 +2.89842665e-01 -4.37301010e-01 +8.51092339e-02 -2.39299342e-01 -3.57027531e-01 +2.03919709e-01 -4.54511106e-01 -1.72355622e-01 -2.22230390e-01 +9.47192311e-03 +1.34458303e-01 +4.19346273e-01 +1.95252240e-01 +4.45690513e-01 +2.85030127e-01 -2.62376666e-02 -5.04142642e-02 -4.60780561e-02 -2.17842802e-01 +2.08171308e-01 -4.90988493e-02 -2.13533714e-01 +8.54881406e-02 +2.46517539e-01 +4.51016068e-01 -3.43602777e-01 -1.69749141e-01 
#Parameter# /_7 {25,25} 10001 ZERO_GRAD
-2.70799696e-01 -6.47104383e-02 -7.13242590e-02 -7.24729598e-02 +8.43146443e-03 +4.36719358e-02 -2.30514646e-01 -2.15111673e-01 +1.72211647e-01 -1.10718757e-01 -1.38354808e-01 -2.18546212e-01 +9.78011787e-02 +1.83054268e-01 -6.10434413e-02 -1.75260961e-01 -1.22302532e-01 -1.65693879e-01 -2.33851835e-01 -3.14759374e-01 +3.34344208e-02 -3.26182395e-01 +1.04433000e-02 -2.26483211e-01 -2.71633089e-01 -5.49043417e-02 -2.14157492e-01 -2.48247832e-01 -8.35323036e-02 +3.06845605e-01 +1.31517202e-01 +2.50494838e-01 +9.36029553e-02 +1.80540264e-01 -3.25336128e-01 +9.51543450e-02 +2.41026580e-01 +6.40220642e-02 +1.46681517e-01 -3.39561641e-01 +1.53772235e-01 +2.95151532e-01 +3.31552804e-01 +1.16051286e-01 -2.61684924e-01 +1.70320868e-02 -4.36031222e-02 +1.99217796e-01 -1.66715503e-01 -2.78273642e-01 -1.58346057e-01 +1.19065344e-01 +3.00000906e-01 -1.61972836e-01 +1.07979923e-01 -2.54316926e-02 -3.37038219e-01 -4.51894403e-02 +2.08114624e-01 -1.08891636e-01 +1.56485260e-01 +2.58572102e-02 +1.42627925e-01 +1.60615146e-01 -2.36230299e-01 -2.00927749e-01 +2.72165954e-01 +7.46341944e-02 +2.85073876e-01 -2.33634889e-01 -4.74773943e-02 -3.37588310e-01 -1.49276823e-01 +1.04477406e-02 +1.93130374e-01 +2.20601797e-01 +1.39202565e-01 -9.42604542e-02 -6.85972869e-02 -2.54945159e-02 -2.30395570e-01 -1.04033411e-01 -1.39822647e-01 +2.30332971e-01 +3.40035319e-01 +5.24631739e-02 +1.51440233e-01 +2.50797689e-01 -1.79227933e-01 +2.52073169e-01 +2.78370917e-01 -2.29012713e-01 +2.51907647e-01 +1.82686210e-01 +3.34940910e-01 +2.09094763e-01 +3.37309241e-01 -7.44906068e-02 +1.06759816e-01 -9.65228081e-02 +6.22344017e-03 +2.30268776e-01 +2.34342158e-01 +1.49760753e-01 -1.06526747e-01 -6.27295375e-02 -3.13937843e-01 -2.98177004e-02 -2.90369809e-01 +2.75877476e-01 +2.31255651e-01 +2.51161993e-01 -1.11859679e-01 -1.59764275e-01 -4.92068231e-02 -2.71187425e-01 -1.58591986e-01 -1.94738537e-01 +2.80495524e-01 +1.71980619e-01 +1.53505445e-01 -2.15617850e-01 +9.88393724e-02 +1.43782079e-01 -1.68176010e-01 -5.43779731e-02 +3.29268217e-01 -1.48333013e-01 -1.38911575e-01 +3.11116159e-01 -3.83579731e-02 +2.99084425e-01 -1.48005724e-01 -2.50505477e-01 -3.35227579e-01 +2.70353734e-01 +3.28853071e-01 +2.31048584e-01 -1.07407078e-01 -1.61236092e-01 +2.93911219e-01 -2.13901415e-01 +1.70031071e-01 +9.65848565e-02 -2.36606359e-01 +2.65411198e-01 -3.09922695e-02 -1.61547065e-01 -3.12777460e-01 +1.35350376e-01 +7.91036785e-02 -2.88249105e-01 -4.69403565e-02 +2.05380201e-01 +6.68965876e-02 +9.16144252e-02 -8.24915767e-02 -2.24044785e-01 +1.19889915e-01 +3.11369419e-01 +1.00032598e-01 +3.29255283e-01 -1.03994012e-01 -8.03010464e-02 +1.25183791e-01 -2.49395967e-01 +3.69312167e-02 +1.27155274e-01 -1.46207467e-01 +3.26905966e-01 +1.90777838e-01 -2.14259341e-01 -1.48676902e-01 +3.22807789e-01 -2.26955116e-02 -3.00215751e-01 +3.24216604e-01 -4.11242247e-04 -1.33881792e-01 +9.16982591e-02 -2.55279303e-01 +3.36582720e-01 -2.54144371e-02 -1.69016987e-01 +1.15818709e-01 +3.04424167e-01 -4.90617454e-02 -1.01887494e-01 +3.04488540e-01 +1.89028800e-01 +3.27986836e-01 -7.61899352e-03 +1.69664621e-01 -7.46917725e-03 +2.17866600e-01 -2.91996121e-01 +2.79320061e-01 -3.66671085e-02 +2.05578566e-01 +2.00115561e-01 +2.28841722e-01 +7.01946020e-03 -1.23351216e-02 +3.40970814e-01 -2.76826203e-01 +2.30242252e-01 +1.52600288e-01 -2.37502515e-01 -1.60333365e-01 -2.87415445e-01 -2.61698484e-01 +2.24666655e-01 +1.52673990e-01 -3.32366675e-01 +2.58568347e-01 -1.42958269e-01 -1.75861746e-01 +2.64872193e-01 +1.40931427e-01 -1.22144997e-01 +2.60260403e-01 +2.40474164e-01 +1.74800932e-01 -1.81384400e-01 +2.87893057e-01 -1.47528559e-01 -2.53327012e-01 +3.91197801e-02 +2.68261313e-01 +8.46836269e-02 -9.09000635e-02 +5.65426946e-02 +2.06364095e-02 +4.30572033e-02 -1.38940543e-01 -1.95376873e-02 +2.47527122e-01 -3.39109600e-01 -2.44831383e-01 +7.81616867e-02 -3.10527503e-01 +1.55500412e-01 +1.34595007e-01 -1.53648779e-01 -3.96975577e-02 -2.57380605e-02 -2.52079934e-01 +1.08728141e-01 -7.62045383e-02 -2.35445350e-01 +2.14384198e-02 -2.88381159e-01 +1.19265199e-01 +9.94517803e-02 -2.86062568e-01 -2.61174142e-01 -1.61544934e-01 +1.29142940e-01 -1.20291084e-01 -1.07151911e-01 +2.78043270e-01 +7.30608702e-02 +3.04366827e-01 -1.22558296e-01 +1.58342898e-01 -1.50993198e-01 +2.50164926e-01 +3.27135623e-01 -1.00870341e-01 -7.48692453e-02 +1.50020450e-01 +7.81633556e-02 +2.41408050e-01 +2.45543122e-02 +2.28107631e-01 +1.46545440e-01 -2.49107242e-01 +6.30107522e-03 -9.77448970e-02 +2.15041935e-02 +1.98686123e-01 +7.48114586e-02 +2.22467422e-01 -2.35241741e-01 -1.59705803e-01 -1.50875717e-01 -5.67494929e-02 +1.94382250e-01 -1.31626725e-02 +1.19109213e-01 -1.71632126e-01 -3.10498178e-02 +1.52903616e-01 +1.82450891e-01 -2.78302968e-01 +1.35485500e-01 -3.41057777e-04 +2.14233994e-02 +3.50231826e-02 +3.03042293e-01 -1.96476892e-01 +7.85250068e-02 +1.29368037e-01 +6.79410100e-02 -2.51634777e-01 -2.41188228e-01 +4.38085496e-02 +8.61676037e-02 +1.25993192e-01 +1.63312256e-02 -1.65921986e-01 -1.47330567e-01 -5.30208349e-02 -2.82412916e-01 +1.32147312e-01 -3.21635395e-01 -1.80468187e-01 -1.04716659e-01 +2.04881430e-01 -1.08679056e-01 -1.38135642e-01 -1.21748880e-01 -2.90281802e-01 -4.20543849e-02 -2.96402186e-01 -1.77362427e-01 +2.46103048e-01 +2.84585476e-01 +6.94931149e-02 +2.97319293e-01 +3.24481964e-01 -1.41698807e-01 -7.84248710e-02 +1.67060316e-01 +1.20936543e-01 -9.07428265e-02 +1.57536328e-01 -1.12207487e-01 +6.42080605e-02 +1.31797820e-01 -6.07067347e-03 -5.24474680e-02 -1.37814879e-02 -1.73281997e-01 -9.55542028e-02 +3.26785564e-01 +1.58418059e-01 +2.17486739e-01 +2.97345042e-01 -1.09520480e-01 +3.11688662e-01 -8.85575116e-02 +1.90654993e-02 +2.66837299e-01 -2.33615920e-01 -2.82938540e-01 +3.74603271e-02 +1.13560289e-01 +3.01881373e-01 -3.70642543e-03 +1.23616964e-01 -1.09612882e-01 +2.18966663e-01 -1.77671015e-01 +1.64572597e-02 -2.91530192e-01 -2.94435233e-01 -2.90248513e-01 -3.38648170e-01 -1.60299525e-01 +1.41384900e-01 -2.71138012e-01 +3.44137430e-01 -1.08465061e-01 -1.36353925e-01 -1.50337353e-01 +2.13488758e-01 +1.80623472e-01 +1.73956752e-01 +8.07129145e-02 +1.40950561e-01 -2.19235003e-01 +1.94295764e-01 +3.53264511e-02 -5.50481677e-03 -2.89293319e-01 +2.56168723e-01 +3.36115718e-01 -1.55297443e-01 -1.04250938e-01 -1.83926404e-01 +1.65396810e-01 -1.27531931e-01 -1.90737844e-03 +1.77985370e-01 -4.26823497e-02 -2.64179736e-01 +2.27528811e-03 +1.32690966e-02 +1.59339726e-01 -1.78884268e-01 -1.22566685e-01 +3.29966128e-01 +2.19464064e-01 -1.92668155e-01 +1.88780725e-01 -7.08706677e-02 -3.23155522e-03 -3.17388922e-01 -1.70813352e-01 +2.90706933e-01 -1.16596475e-01 -2.29381382e-01 -1.73904926e-01 -9.65774059e-03 +3.37136924e-01 +2.81659544e-01 +1.23605072e-01 -6.31082058e-02 +4.34457660e-02 +2.13216901e-01 +1.08003885e-01 +2.91820467e-01 +1.19703293e-01 +1.38372481e-01 -2.81644046e-01 -2.94277996e-01 +1.51854038e-01 -8.28268826e-02 +1.10698968e-01 +5.11811674e-02 +1.77911222e-01 +1.38757557e-01 -1.02491155e-01 +1.77092493e-01 +1.53854728e-01 -8.09068084e-02 +3.08446050e-01 -1.56485125e-01 +1.54669881e-02 +3.44004273e-01 -2.29590043e-01 +2.19979584e-01 -4.05263901e-02 +1.19571179e-01 +9.14848149e-02 +7.31834769e-03 -1.80076957e-02 +8.12144578e-02 +1.00275666e-01 +8.47355723e-02 +2.86101699e-02 -5.95593452e-03 -1.80107906e-01 +2.83647358e-01 -1.23096153e-01 +2.55659699e-01 +3.03605378e-01 -1.58265159e-01 -8.50008726e-02 -2.97673106e-01 +1.76589370e-01 +9.28878188e-02 +4.47232425e-02 -2.15717778e-01 +1.95998132e-01 +2.76386678e-01 -2.93980539e-02 +2.10848451e-01 +4.28011119e-02 +1.14622861e-01 -2.64401078e-01 +1.79281235e-01 -1.76462427e-01 -8.97502005e-02 -3.37861180e-01 +1.46911621e-01 +1.02938205e-01 -6.66506886e-02 -6.82926178e-03 -1.26019716e-02 -1.47267848e-01 -1.74194694e-01 +8.57602358e-02 +9.92119908e-02 +5.37358522e-02 -2.82307714e-01 +3.12604606e-01 -3.28714162e-01 +2.10063398e-01 +3.00317705e-01 -5.21937013e-03 -3.61374915e-02 +2.46240079e-01 -1.40393749e-01 -2.22925931e-01 -2.06018016e-01 +2.22043812e-01 +2.34764218e-02 -6.06943667e-02 +1.67727351e-01 +3.20128202e-02 -3.10227305e-01 +3.20548117e-02 +2.18319774e-01 -2.53984779e-01 -9.87060070e-02 +7.64667988e-02 +3.29400599e-01 -1.92296833e-01 -3.12455535e-01 -4.55330312e-02 -2.25081831e-01 -2.15751112e-01 -8.11812282e-03 -1.54970035e-01 +2.84670591e-01 -2.53685832e-01 +2.88643360e-01 +2.29574740e-02 -1.51079118e-01 +2.42074609e-01 -1.04092360e-02 +2.19852626e-02 -8.39233398e-04 -2.33241916e-02 +1.65959597e-01 -2.74747133e-01 -2.78099835e-01 -2.80660152e-01 -1.00410476e-01 +3.78476381e-02 -3.98180187e-02 +2.34887719e-01 +2.90804684e-01 -2.01718464e-01 -1.51358470e-01 +1.60768390e-01 -1.96168140e-01 +2.76538432e-02 -1.24007002e-01 +1.31915092e-01 -2.28552043e-01 -1.38692483e-01 -1.00283861e-01 -2.88948506e-01 +3.17628086e-01 -1.17426530e-01 +2.80682445e-01 +2.43769228e-01 +2.39544809e-01 -7.29078650e-02 -3.35698694e-01 -2.46357799e-01 +1.41749918e-01 -1.44970924e-01 +2.19102621e-01 -1.05454177e-01 +5.44304252e-02 +1.16009891e-01 +2.70570755e-01 -7.95996189e-03 +2.70355284e-01 +2.19908953e-02 +3.12585294e-01 +1.81056619e-01 +3.21715355e-01 -2.77057797e-01 -2.16457546e-01 -4.93681431e-02 +5.25385737e-02 -2.37816334e-01 +2.87671745e-01 -3.40977103e-01 +1.91251040e-01 +1.90392315e-01 +3.38914514e-01 +3.05903792e-01 +1.82654977e-01 +3.20707560e-01 -2.36911684e-01 -3.19750339e-01 +3.91705036e-02 +1.36083692e-01 -1.07437074e-02 -3.24560612e-01 +2.04846084e-01 -2.67866433e-01 +1.50845140e-01 -1.34269997e-01 -3.89357209e-02 -1.91395432e-01 +2.89049745e-02 +6.95896149e-03 -3.88450623e-02 -2.79036105e-01 -1.80383682e-01 -3.32958400e-02 -2.60243297e-01 +1.74436927e-01 -9.99984890e-02 -5.91501594e-02 -3.34963500e-01 +3.43140304e-01 -2.30832711e-01 +3.00422609e-01 +3.00439477e-01 +2.60803342e-01 -4.97407019e-02 +1.31638139e-01 -3.23449820e-01 -2.34484032e-01 -1.80130005e-01 +3.28378856e-01 +8.57292712e-02 +2.66192555e-01 +1.01059407e-01 +3.39527071e-01 -2.42672354e-01 -1.79877073e-01 +1.54101670e-01 +6.40386641e-02 +1.18238956e-01 +1.15009546e-02 -3.39654028e-01 
#Parameter# /_8 {25} 401 ZERO_GRAD
+4.47008014e-02 +2.03918099e-01 +3.10526192e-01 +2.24194527e-01 +3.62137854e-02 +2.14239001e-01 -1.61596537e-02 +3.34847033e-01 -3.57090235e-02 +3.57534885e-02 -4.98722494e-02 -2.37654895e-01 -2.77143121e-01 -4.42973673e-02 -1.00750417e-01 -7.18986392e-02 +1.37633085e-03 -3.31543058e-01 +2.38829672e-01 +1.01072371e-01 +8.45656097e-02 -6.70773387e-02 +1.18481994e-01 +1.24498844e-01 +1.72916353e-01 
#Parameter# /_9 {25,3} 1201 ZERO_GRAD
+6.51850253e-02 -2.46978179e-01 +2.79393792e-01 +3.23024869e-01 +3.06017846e-01 -6.65626675e-02 +1.30894288e-01 +2.25653633e-01 -3.23122852e-02 +3.33204538e-01 -4.85106945e-01 +3.91282231e-01 -4.01846081e-01 +4.59014922e-01 -4.94835198e-01 +2.52679765e-01 +3.57489675e-01 -3.76722127e-01 +5.35307467e-01 +2.89031386e-01 -2.60323972e-01 -1.11096799e-01 +8.01156163e-02 +3.33089113e-01 -1.90038458e-01 +5.35432160e-01 -5.07841647e-01 -4.32852060e-02 +1.43458143e-01 +1.71905875e-01 -1.62893087e-01 +2.53389359e-01 +2.57136792e-01 -1.48082241e-01 +5.16825438e-01 -1.15648896e-01 -1.26205042e-01 -6.36907637e-01 +2.47770235e-01 -4.76281881e-01 +5.02246499e-01 -1.22435950e-01 -1.64792717e-01 -8.69687274e-02 +1.08521350e-01 +1.34403288e-01 -1.29918128e-01 +3.97542447e-01 +6.85696363e-01 +6.73111975e-02 -1.46469355e-01 +3.39586549e-02 +2.90371537e-01 +7.68377259e-02 -1.82192191e-01 +1.32966608e-01 +5.93922473e-02 -3.03831160e-01 +3.35708171e-01 -3.36711109e-02 -2.48913784e-02 -3.01198542e-01 -5.29418528e-01 -3.92745763e-01 -1.12821981e-01 +2.60259986e-01 +1.50801703e-01 -5.28915152e-02 +2.71463692e-01 +9.92192179e-02 -4.26183850e-01 +9.02024582e-02 -2.66742885e-01 +2.52342433e-01 -6.08224571e-02 
#Parameter# /_10 {25,25} 10001 ZERO_GRAD
+3.33742291e-01 +2.84998506e-01 -3.15999001e-01 +7.16127630e-04 +1.66960150e-01 +3.15855350e-03 -3.22073132e-01 -1.11548737e-01 -1.45621017e-01 -8.65385830e-02 +3.79558861e-01 +1.99972451e-01 +1.70696035e-01 +1.07612148e-01 -6.07176684e-02 +2.61557400e-01 -2.43710652e-01 -2.54736841e-02 -4.61734161e-02 +1.06099330e-01 +9.37720165e-02 +1.26089334e-01 -1.68644220e-01 +9.11643878e-02 -2.27738723e-01 -1.90244243e-01 -2.03509301e-01 +5.45948073e-02 +7.00097755e-02 +1.80689365e-01 -7.32692555e-02 +5.98560041e-03 +7.69901574e-02 -2.51295060e-01 +2.64427841e-01 -3.67939621e-01 -2.32344896e-01 +8.65304023e-02 -2.83709198e-01 +1.78163201e-01 -1.71054974e-01 +5.24166115e-02 +1.15461603e-01 -1.75547332e-01 +1.95022766e-02 +2.96393692e-01 -2.30500728e-01 +1.20522641e-01 +1.82115272e-01 -5.97464480e-02 +1.70201153e-01 +1.43452898e-01 -1.87728092e-01 -1.49884254e-01 +2.75747240e-01 +8.66883397e-02 +5.11759743e-02 -9.78991240e-02 -6.41979054e-02 -5.08841407e-03 -1.76665545e-01 -3.03005040e-01 -4.17874083e-02 +1.62862360e-01 +3.28995585e-01 -1.88595444e-01 -2.50353634e-01 -1.48778483e-01 +3.12158197e-01 +1.04097746e-01 +1.51657790e-01 -3.20947170e-02 +1.43355653e-01 -2.90316582e-01 -9.61401239e-02 +4.93370369e-02 +2.03828216e-01 -1.15927964e-01 +1.35605499e-01 +2.12610111e-01 +1.63901746e-01 -1.97239131e-01 +2.59999424e-01 -3.27667117e-01 -4.10977043e-02 +1.31583542e-01 +2.92435259e-01 -2.63001323e-01 +1.65093213e-01 +1.91377059e-01 +1.75843328e-01 +3.71178836e-02 +1.84788302e-01 +1.95923716e-01 +4.06058252e-01 -2.62771368e-01 +2.93510199e-01 +3.50389063e-01 +9.86759588e-02 +3.27275634e-01 +1.64969191e-01 +1.11835860e-01 +2.07023531e-01 -1.42450497e-01 -9.58312154e-02 -3.21332633e-01 +4.40886430e-02 -2.96192229e-01 -6.68577850e-02 -3.09673846e-01 +2.62363404e-01 -1.64928287e-01 -8.06099549e-02 -3.10582221e-01 -3.11261445e-01 -1.78122502e-02 -5.71727417e-02 -3.48253131e-01 -2.21982107e-01 +8.84665772e-02 +2.05152914e-01 +8.82458314e-02 -7.19674528e-02 +2.91113425e-02 +2.04073831e-01 -3.10196489e-01 -1.32971838e-01 -1.76763073e-01 -9.90241915e-02 -3.28122169e-01 -2.92374752e-03 +1.42400354e-01 -3.25540870e-01 -2.87300795e-01 -3.38377714e-01 -1.85746491e-01 -2.13268548e-01 -1.77610442e-01 -2.04881221e-01 -2.60110915e-01 -1.80239007e-01 -3.00177664e-01 +1.37917191e-01 -1.86154470e-01 -2.19811216e-01 +6.72401786e-02 +5.23354560e-02 -3.82796317e-01 -1.88608512e-01 +4.58695665e-02 -4.27320488e-02 +3.32512021e-01 +3.05739313e-01 -2.84554482e-01 +1.71052843e-01 -2.23124087e-01 +1.80536807e-01 -1.57321110e-01 -1.07094802e-01 +6.39028475e-02 -8.85006189e-02 +1.25744313e-01 +3.89495760e-01 -2.80493021e-01 -1.17311940e-01 +1.69321775e-01 -1.60355363e-02 +3.54535371e-01 -2.82209516e-01 +1.92343920e-01 +3.10645014e-01 -3.05027515e-03 -2.69511908e-01 -1.33031175e-01 +2.47300908e-01 -1.41788661e-01 -1.70152903e-01 -3.76375794e-01 -2.59361714e-01 +3.37025642e-01 +1.00337625e-01 +2.04205900e-01 -8.50944966e-02 -7.88048059e-02 +1.88850746e-01 -2.26581961e-01 -3.03628296e-01 +1.05306633e-01 -2.33556882e-01 +1.82234988e-01 +1.35233521e-01 -1.69280559e-01 +7.72615150e-02 +2.10217349e-02 -1.43704399e-01 +2.54605383e-01 +3.46851200e-01 +7.35014230e-02 +1.64631441e-01 -3.18209410e-01 +2.35841110e-01 +3.27881783e-01 -3.38547319e-01 +2.69543022e-01 -1.08996384e-01 +3.35050464e-01 +2.50781059e-01 -2.24965692e-01 +1.70087665e-01 +2.02870503e-01 +8.43716487e-02 +3.17109764e-01 +2.12974176e-01 +1.59932777e-01 +6.86186850e-02 -1.53195351e-01 +2.34586626e-01 +2.34077081e-01 +1.45783871e-01 +2.62746096e-01 +3.32536727e-01 +2.79617459e-01 -2.71713674e-01 -2.28430003e-01 +1.26288116e-01 +7.73603320e-02 +6.19553477e-02 -2.63638556e-01 +3.61906618e-01 +3.23233545e-01 +1.41506717e-01 -2.38239750e-01 -2.53300518e-01 -2.50621259e-01 -2.64049083e-01 -2.93052495e-01 +2.94229299e-01 +2.29328975e-01 +1.33916721e-01 -1.45018309e-01 +3.80483717e-01 +1.44923627e-01 +2.84337133e-01 +1.48273706e-01 -1.06538877e-01 +2.14515142e-02 +1.93844378e-01 -2.92263985e-01 +3.32641214e-01 +2.36341447e-01 +2.44170204e-01 -9.56328884e-02 -1.35824651e-01 -1.36720061e-01 -3.32697898e-01 -1.04735151e-01 +2.92694300e-01 +4.78799827e-02 +2.63573639e-02 -1.67671051e-02 -8.61963555e-02 +2.21478790e-01 +1.75577193e-01 -1.25917211e-01 +5.78305386e-02 +2.14733079e-01 +3.57933752e-02 -9.35982317e-02 +2.22319886e-01 -1.11789763e-01 +6.78777546e-02 +1.01776130e-01 -2.95409769e-01 -7.10516423e-02 +1.03333361e-01 +1.39416456e-01 -2.52623677e-01 +5.75810075e-02 -1.46026863e-02 +1.58345029e-01 +1.92074981e-02 -2.87023455e-01 +8.73625427e-02 +1.36229575e-01 -1.52862575e-02 +8.29636827e-02 +2.75502563e-01 -3.21712680e-02 +3.16257805e-01 +2.35135138e-01 -5.70436232e-02 -1.41098261e-01 -1.21701427e-01 -6.05477765e-02 -1.70463517e-01 +1.97246924e-01 +2.95945644e-01 -1.63023714e-02 -2.86970317e-01 -3.50740820e-01 +3.33547443e-01 +1.76883101e-01 -1.64048925e-01 -1.85919479e-01 -1.75568178e-01 -3.49153616e-02 -2.71641999e-01 +3.90165262e-02 +1.38762146e-01 +1.36565924e-01 +2.32406542e-01 -1.16744995e-01 -5.58297038e-02 +6.78090230e-02 -9.91642773e-02 -3.01422685e-01 +6.69844821e-02 -2.45997503e-01 -1.56071223e-02 -2.21862346e-01 +1.69949234e-01 +2.82422844e-02 +2.52203017e-01 -3.41465980e-01 +2.06997812e-01 +5.07829599e-02 -2.95780987e-01 -2.28537172e-01 +2.31672972e-01 -2.34144442e-02 +1.25595666e-02 -4.69274484e-02 +1.77408115e-03 -1.26416445e-01 -2.40823984e-01 +6.27732370e-04 +1.56336248e-01 +3.51535797e-01 +9.46822762e-02 +2.25593939e-01 +3.02763749e-02 -2.75718600e-01 -3.12978059e-01 -2.16193035e-01 -7.45631754e-02 +1.36234134e-01 +8.98263231e-02 +8.29589665e-02 -6.31919969e-03 -9.03634131e-02 +1.06811814e-01 -9.55630392e-02 -1.17237382e-01 -6.05331361e-02 +2.92650461e-01 -2.16917202e-01 +2.20057964e-01 +1.97209224e-01 +2.59815335e-01 -4.02846783e-02 +1.35255590e-01 -3.81968319e-01 -2.19613388e-01 -4.00970578e-01 +4.22361642e-01 +4.31753322e-02 +1.15111902e-01 -1.95747107e-01 +2.29725152e-01 -4.02630180e-01 +7.97736086e-03 +2.77797371e-01 +8.77839997e-02 +2.46201351e-01 +2.64418244e-01 +3.50637466e-01 +2.59151667e-01 -1.15154952e-01 -8.90885144e-02 -3.34320180e-02 -3.04819703e-01 +8.57108086e-02 +1.02867037e-01 +3.75896513e-01 -3.08498651e-01 +1.34657575e-02 +8.10948238e-02 -1.58604041e-01 +1.95286870e-01 +1.41624480e-01 -2.65565306e-01 -2.49237493e-01 -1.29244462e-01 -2.77608126e-01 +2.55113751e-01 -2.15360582e-01 +4.27546144e-01 -2.15145931e-01 +7.82025456e-02 +5.12896851e-02 +2.58726001e-01 -2.87235677e-01 -1.56298652e-01 +3.45556080e-01 -3.46379019e-02 -1.86681554e-01 -3.25803190e-01 +3.04302245e-01 +7.43429810e-02 +3.11703503e-01 -6.80268928e-02 -9.41803504e-04 -2.45686233e-01 -2.37729520e-01 -1.28445297e-01 -2.25127324e-01 -2.94107139e-01 +2.64088631e-01 +8.90752897e-02 +2.73805242e-02 -9.56402421e-02 -1.35403499e-01 +9.79197323e-02 -2.99327999e-01 -1.83939621e-01 -2.08373293e-02 -2.98314728e-02 -8.21260065e-02 -1.29349336e-01 -2.24906623e-01 +1.61609575e-01 +2.52775162e-01 -1.43100783e-01 +1.62792817e-01 +1.76823199e-01 +2.32381895e-01 -2.82580853e-01 -1.33598164e-01 +1.99259743e-01 +2.94273466e-01 -2.18743578e-01 -3.31539810e-01 +3.07271361e-01 +2.77403116e-01 -1.21480323e-01 +2.10094661e-01 +2.61966139e-01 +1.76022530e-01 -6.60571903e-02 +1.47493035e-01 +1.25975132e-01 -5.01745427e-03 +1.31946430e-01 +7.75547838e-03 +3.84221114e-02 +1.33053407e-01 -1.19744539e-01 +3.79529566e-01 +8.50188062e-02 +3.14934611e-01 +3.39632183e-01 +1.23019509e-01 -5.61542884e-02 +3.71833593e-02 +3.27003211e-01 +3.08767617e-01 +1.61121830e-01 +2.03095213e-01 -1.43128037e-01 -2.43186593e-01 -4.31104377e-02 +4.19098102e-02 -2.72845775e-01 -2.03527868e-01 -3.41163874e-02 +5.98911755e-02 +2.54709572e-02 +2.69332647e-01 -1.60991594e-01 +2.62506992e-01 +4.62883450e-02 -1.60097405e-02 +3.92619431e-01 +7.19431490e-02 +3.06309491e-01 -1.82132825e-01 -2.40090981e-01 -4.98550460e-02 -2.52038807e-01 -3.14829409e-01 +2.17551470e-01 +3.41889590e-01 -7.28726760e-02 +2.41322771e-01 -2.62780517e-01 +1.47024512e-01 +1.68039083e-01 +1.25107363e-01 +3.05005878e-01 +3.31045926e-01 -1.18417680e-01 -3.56474042e-01 -2.62261212e-01 +2.37836629e-01 -1.74890280e-01 -3.68487895e-01 -1.29133984e-01 -2.95736641e-01 +1.80333674e-01 -3.16728741e-01 -3.79259996e-02 +2.90921837e-01 +1.04653433e-01 -1.63273931e-01 +1.17392048e-01 +2.79334486e-01 -6.02624156e-02 +3.65012109e-01 -2.20616221e-01 +2.33793274e-01 +1.07253499e-01 -2.09520414e-01 +7.88407251e-02 -3.46070230e-01 +9.73454677e-03 +3.04449469e-01 -3.22932869e-01 -3.21271747e-01 +2.79502749e-01 +1.39379710e-01 -3.00687909e-01 -2.64722779e-02 -2.29917988e-01 +1.62739217e-01 +2.21432522e-01 -1.32395238e-01 +2.29804397e-01 -1.43370599e-01 +3.56332302e-01 -3.19607347e-01 +3.34516227e-01 +2.24219248e-01 +1.92496374e-01 +5.93016669e-02 +2.92141527e-01 +3.26579183e-01 -1.54618815e-01 +3.42790544e-01 +1.61086455e-01 +1.75499797e-01 -1.95250943e-01 +1.64857835e-01 -1.31715819e-01 -1.61666393e-01 -1.29672781e-01 -1.69960827e-01 +5.26447445e-02 -1.48928642e-01 -1.31586686e-01 +1.83452040e-01 -3.83534521e-01 +3.16219896e-01 -3.09239805e-01 -4.77217697e-02 +1.70233816e-01 +3.75597142e-02 +7.21622705e-02 -3.16667631e-02 -9.06358063e-02 +2.21032456e-01 -2.21801102e-01 -6.53923452e-02 -2.28620991e-01 +2.38595814e-01 +2.06882320e-02 +2.72537678e-01 -3.65488470e-01 +4.40677628e-03 +3.39753985e-01 -1.82613865e-01 +2.66083360e-01 -4.85409275e-02 -1.61813647e-01 -7.64526287e-03 +1.50217526e-02 -3.21066123e-03 +1.08884089e-01 -1.81482583e-01 +3.00249785e-01 -1.20843366e-01 -2.06421882e-01 -2.41837025e-01 +6.04183823e-02 -1.17267117e-01 +3.98594141e-01 -3.34995359e-01 +3.48544680e-02 -3.39331478e-01 +3.37414503e-01 +4.79996093e-02 -8.91831294e-02 -1.22227473e-03 -7.79870246e-03 +8.69970545e-02 -1.37224391e-01 +1.74593836e-01 +2.90794641e-01 +2.21701503e-01 -3.31320792e-01 -1.25979185e-01 -2.72614479e-01 -3.61129679e-02 +1.74384788e-01 -1.77498534e-01 -1.66677475e-01 +8.25112779e-03 -3.10591877e-01 +1.55748203e-01 +1.71825185e-01 +1.61142647e-01 +1.57987103e-01 +1.00981489e-01 -2.11062893e-01 +2.37716496e-01 +1.55897096e-01 
#Parameter# /_11 {25} 401 ZERO_GRAD
+8.97402316e-02 +2.47265026e-01 +2.67163575e-01 -1.86542928e-01 +3.07257921e-01 +3.39552999e-01 +1.76557973e-01 -3.27782899e-01 +2.77265072e-01 -3.51964295e-01 +2.77140796e-01 +2.96187401e-01 -2.08701953e-01 -8.81469995e-02 +1.99224114e-01 +8.67475569e-02 -1.51786268e-01 +2.21572965e-02 -3.10237017e-02 +2.01369897e-02 -4.03950028e-02 -2.37796828e-01 +1.17180958e-01 -1.22525573e-01 -1.85248971e-01 
#Parameter# /_12 {25} 401 ZERO_GRAD
-2.97878861e-01 +3.37193847e-01 +1.27798975e-01 +1.52785003e-01 +3.48135829e-03 +3.20782602e-01 +7.58734941e-02 -1.37243539e-01 -2.58626699e-01 +2.19740212e-01 -6.24324977e-02 +2.62233734e-01 +1.78429842e-01 +2.09216595e-01 -4.84015048e-02 -4.15488183e-02 +2.86278427e-01 -1.26471072e-01 -1.18274391e-02 -5.31578958e-02 -1.05031505e-01 -1.81383833e-01 +1.61645412e-01 +2.15895772e-01 +2.31553018e-02 
#Parameter# /_13 {25,25} 10001 ZERO_GRAD
-7.90890604e-02 -8.34660381e-02 +7.44932815e-02 +4.61021140e-02 +1.47990450e-01 -2.40346715e-01 -1.03616506e-01 +3.77704591e-01 +3.06882679e-01 +3.08518976e-01 +3.90676379e-01 +3.41191709e-01 -2.38402098e-01 +1.33640975e-01 -2.80037969e-01 +3.21216077e-01 +2.15231195e-01 +1.51486233e-01 +1.37367640e-02 +2.59717971e-01 +2.88599402e-01 -2.40504950e-01 +2.76969522e-01 -1.73029110e-01 +3.70612532e-01 +1.91509306e-01 +3.56412590e-01 -3.74800891e-01 -1.62036121e-01 -4.23082292e-01 -2.63579607e-01 -3.36118668e-01 +1.26892820e-01 +9.52738822e-02 +5.30694313e-02 -3.20365518e-01 -5.00998735e-01 -3.13285291e-02 -4.62252200e-01 -1.72344968e-01 -1.83799863e-02 -1.48966700e-01 -7.16192871e-02 -1.60066739e-01 -3.92687380e-01 -2.26202026e-01 -4.54402536e-01 +3.52018923e-02 -4.36837196e-01 -4.32545781e-01 +2.76159868e-02 +1.72974095e-01 -7.23645464e-02 -1.31304160e-01 -1.92203686e-01 +2.84799635e-01 -1.85988605e-01 -1.82314008e-01 -2.59269267e-01 -1.32325128e-01 -3.69579166e-01 +3.32567021e-02 +1.58373728e-01 -5.30632250e-02 -1.31056860e-01 +1.46897048e-01 -1.65858850e-01 -2.18406573e-01 +1.82016164e-01 -5.14358938e-01 -5.48631437e-02 -9.73238721e-02 -4.23326969e-01 +1.80389479e-01 -3.82605642e-01 +1.08767882e-01 +1.23449020e-01 +5.28909117e-02 +1.44034937e-01 +5.58516979e-01 +2.51008898e-01 +2.08850667e-01 +7.33222142e-02 -2.63680845e-01 +2.96277970e-01 +1.93955675e-01 +1.60730988e-01 +5.14969587e-01 +1.75899997e-01 +8.77020601e-03 +8.10182001e-03 +2.38186985e-01 -9.41004306e-02 -4.13183384e-02 +3.56285721e-01 -1.06405720e-01 +6.81372033e-03 +7.29989782e-02 +5.29495478e-02 +3.26973140e-01 +1.13250673e-01 +2.47186184e-01 +2.30990112e-01 -3.67682159e-01 -3.72754604e-01 -4.44540866e-02 -2.75995910e-01 -2.37005562e-01 +5.97421527e-02 +1.08711250e-01 -6.08432926e-02 +1.41025752e-01 +1.02481313e-01 -2.25654334e-01 +2.81757832e-01 -2.74197459e-01 +5.44911548e-02 +2.87740052e-01 -7.72142410e-02 -3.36719453e-01 +6.01940602e-02 -1.45585641e-01 -3.99037629e-01 +2.13903964e-01 +6.09281249e-02 +6.88911080e-02 +2.89182156e-01 +2.18364030e-01 -1.43908160e-02 -6.21208847e-02 -2.80429125e-01 -3.30642641e-01 +1.80101935e-02 +4.06413451e-02 +7.31598362e-02 -2.63009131e-01 +7.18057230e-02 -5.23599088e-01 -4.40446228e-01 +1.97210982e-01 -2.64272094e-01 +2.65139431e-01 +1.52345568e-01 -3.14679265e-01 -5.03623426e-01 +1.58419609e-01 +6.77224472e-02 -1.84365865e-02 +8.99689868e-02 +2.49850899e-01 +1.94086850e-01 +1.63786635e-01 +1.10727385e-01 +3.98691863e-01 +2.36217782e-01 -5.77917509e-02 +1.80962428e-01 +9.81330313e-03 -8.56167898e-02 +3.05780679e-01 +2.90355533e-01 +5.14790654e-01 -5.01419045e-02 +1.81359589e-01 -1.26225725e-01 +1.32031366e-02 -1.90835968e-01 -3.51275563e-01 -2.87650764e-01 +1.55642927e-01 +2.51609445e-01 +1.80754520e-03 +3.59296277e-02 -2.18406796e-01 +1.25400305e-01 +3.36153269e-01 +9.58837643e-02 +2.94387549e-01 +2.24388810e-03 -1.63170949e-01 -1.78961039e-01 -1.02184705e-01 +3.40633959e-01 -3.32870334e-01 +3.43554884e-01 +2.34142587e-01 +1.61424503e-01 +1.88959923e-04 -1.29364148e-01 -2.69687306e-02 +1.14228107e-01 +1.04620442e-01 +1.08892605e-01 +3.83977771e-01 +4.24734265e-01 -2.05024943e-01 -1.03290655e-01 +5.11044264e-01 +3.44942480e-01 +2.17096537e-01 +8.27799290e-02 +1.52750313e-02 -8.94215405e-02 +1.52155206e-01 -8.43923017e-02 +4.79855418e-01 -1.77111387e-01 +3.86204720e-02 +1.79537252e-01 -2.79812142e-02 +2.98836946e-01 +2.50110269e-01 +1.45539731e-01 -2.00882535e-02 -5.47156855e-02 -2.40703940e-01 +2.01357290e-01 +1.60575077e-01 -2.64238685e-01 +1.68108955e-01 +2.75107890e-01 -3.06970119e-01 +4.41243686e-02 -2.23717451e-01 +1.61338910e-01 -1.67496026e-01 +8.90151970e-03 +2.19838947e-01 +4.18305963e-01 +3.63247581e-02 +2.82793552e-01 +3.57366323e-01 -3.20487857e-01 -1.72288299e-01 +4.17976081e-01 +3.52443695e-01 +1.08257830e-01 +1.15702026e-01 +4.48678046e-01 +3.25359851e-01 +4.26766872e-01 +3.88587825e-02 -2.15815436e-02 +2.02814758e-01 +2.37953607e-02 +3.13133299e-01 +3.08848590e-01 +1.57440051e-01 +9.51207504e-02 -1.06288016e-01 -1.74162723e-02 +2.52733827e-01 -2.39713639e-01 -3.29968296e-02 -5.16175151e-01 -2.93804884e-01 -3.34342122e-01 +1.59571260e-01 -1.26852885e-01 +2.44940028e-01 +2.76109934e-01 +1.07183814e-01 +7.14163408e-02 -1.93959221e-01 -8.91665965e-02 -8.82573146e-03 -3.52242529e-01 -1.46969613e-02 +1.27134383e-01 +2.11093258e-02 -3.95609826e-01 +2.31252804e-01 -1.47529185e-01 -1.91897079e-01 -4.54610169e-01 -3.01914096e-01 +3.54150712e-01 +2.41589680e-01 +4.41397689e-02 +9.10835192e-02 +9.91825983e-02 +7.59559572e-02 -4.49125618e-02 +7.46718943e-02 +3.28579359e-02 +2.28935406e-02 +9.83455703e-02 -4.74213630e-01 -2.20517531e-01 +1.51826099e-01 -4.81472909e-02 -2.91711360e-01 -1.41420677e-01 +2.25627899e-01 -4.13093835e-01 +2.71781057e-01 +3.67614806e-01 -1.58071533e-01 -3.33842188e-01 -3.02014142e-01 +3.17219794e-01 -3.23444635e-01 +2.48980820e-01 -2.27052882e-01 +2.80758351e-01 -2.94194609e-01 +1.71950161e-01 +4.89680856e-01 -2.78173357e-01 +2.03332826e-01 +5.43315941e-03 +4.04333472e-02 +1.35669023e-01 +2.92338729e-01 -1.63165286e-01 +2.13634223e-01 +2.10073292e-01 -2.96692461e-01 -3.00877839e-01 +1.52292177e-01 -1.19642653e-01 -3.27088028e-01 -6.63820654e-02 -2.22223625e-01 +2.19537437e-01 +3.90644401e-01 +5.86124770e-02 +1.55393168e-01 -3.94149311e-02 +7.31487498e-02 -1.55557975e-01 +2.91065812e-01 -1.45657450e-01 +2.58275032e-01 -1.71013191e-01 +2.73808300e-01 +5.44902608e-02 +3.42670739e-01 +3.03256176e-02 -6.92101568e-02 +1.73549205e-01 +2.45907947e-01 -3.86676053e-03 -1.40065044e-01 -8.14609826e-02 -9.40757617e-03 +2.66634345e-01 -3.95976678e-02 -3.10596228e-01 +1.23547241e-01 +2.85897434e-01 -5.11728749e-02 +1.81150645e-01 -5.63729942e-01 -9.07284170e-02 -5.17872512e-01 -4.33512256e-02 +2.29293481e-01 +2.63899893e-01 -4.55940627e-02 -1.37839178e-02 -2.00242430e-01 -5.27246416e-01 +8.18976089e-02 -2.85085887e-02 -4.36421871e-01 -3.67471963e-01 +1.88626051e-02 -4.71186042e-02 +1.67853817e-01 -6.79708570e-02 -6.09339662e-02 +8.97769853e-02 -2.40326047e-01 -2.35153839e-01 -3.12692851e-01 +2.39317045e-01 -2.21992210e-01 +2.95251667e-01 +2.54267156e-02 +5.09586871e-01 +2.22597450e-01 +1.51723057e-01 -9.33924094e-02 +4.32300448e-01 +9.87508241e-03 +1.52268529e-01 +2.33267114e-01 +1.59946661e-02 -1.16341434e-01 +2.66410857e-01 +1.11789785e-01 +2.15007201e-01 +7.87486136e-02 -4.39298935e-02 +2.72122145e-01 +2.84549236e-01 +2.20443513e-02 -2.58448750e-01 +7.73449615e-02 -8.24787021e-02 -1.14592165e-01 -1.22702979e-01 -1.97335392e-01 +1.10878006e-01 +3.45288217e-01 +3.48495275e-01 -2.13026389e-01 +1.65392950e-01 -1.11775652e-01 -1.83490589e-01 +3.22353691e-01 -1.03976451e-01 +4.55710679e-01 +1.51249274e-04 -4.11078520e-02 +3.24478865e-01 +9.71985161e-02 -1.65742785e-01 +4.61017013e-01 +4.58494686e-02 -3.09391022e-01 +4.28515136e-01 -2.13615835e-01 +5.00481546e-01 -2.34360546e-01 +7.68027306e-02 +5.04579023e-02 -1.68529406e-01 -2.07627997e-01 -3.23335081e-02 -6.68477938e-02 +2.59957880e-01 +1.86205521e-01 +2.23354742e-01 +1.85606778e-01 -3.10922772e-01 +2.77493209e-01 +1.11403592e-01 -2.43714526e-01 +2.20269427e-01 +3.26319337e-02 -1.68656915e-01 -2.18933858e-02 +2.93209821e-01 -2.90875822e-01 -1.98824123e-01 -1.33866653e-01 -2.78254449e-01 -1.56038150e-01 -1.00826301e-01 -2.95708209e-01 -5.14196567e-02 +1.57753944e-01 +3.52143377e-01 +2.28239968e-01 +4.85437036e-01 -5.17552644e-02 +3.71813387e-01 +3.32074374e-01 -2.15870202e-01 +1.48550108e-01 +4.29360598e-01 +3.91667217e-01 +3.84408943e-02 +1.14361182e-01 +2.92553455e-01 +2.69947350e-01 +6.92701563e-02 +1.28815010e-01 +1.79814652e-01 +2.36044321e-02 +6.14820272e-02 -1.20951109e-01 -8.72399434e-02 -2.49466285e-01 -2.79133588e-01 +2.59398341e-01 -1.87109202e-01 -1.99985519e-01 -1.78502634e-01 +1.98520824e-01 -4.04690921e-01 -1.10392228e-01 +1.90897211e-01 +2.34487176e-01 -2.81186223e-01 +9.89736319e-02 -9.88098234e-02 -1.90321580e-01 -1.52643630e-02 +1.58971950e-01 +1.44357473e-01 -2.40422964e-01 +1.00153975e-01 -2.58134246e-01 -2.12683484e-01 -3.11452419e-01 +1.98850021e-01 +1.94016919e-01 +2.26645321e-01 +1.04676239e-01 +3.17913175e-01 +1.17207147e-01 -6.03872687e-02 +1.56590894e-01 +2.19319925e-01 +1.25543609e-01 +2.41898313e-01 +1.60755649e-01 -5.23374192e-02 +2.21013606e-01 +1.34654522e-01 -1.37164086e-01 +3.51468533e-01 +2.08968699e-01 -1.60638854e-01 +2.79986948e-01 +1.50266945e-01 +3.47310230e-02 -3.21285017e-02 +6.22440390e-02 -4.08243909e-02 +3.06295544e-01 -3.13187689e-01 +4.88983430e-02 -2.55707830e-01 -2.51251698e-01 +2.47169688e-01 +4.67790514e-02 +2.35528573e-02 -3.22934270e-01 +5.99756427e-02 -2.65706807e-01 +2.27827892e-01 +2.88272440e-01 +3.93508747e-02 -5.05494475e-02 -4.21995632e-02 +1.84751615e-01 +2.47599706e-01 -8.41517597e-02 +1.96674839e-03 -2.41625220e-01 +3.57720882e-01 -3.39601696e-01 +2.79373396e-02 +2.56440938e-01 +1.99150488e-01 -1.14842921e-01 +6.65247142e-02 +3.03032566e-02 -2.72909462e-01 +1.83714002e-01 +7.03187063e-02 +8.66623502e-03 +2.04363763e-01 -1.27583444e-02 -3.23213451e-02 +3.40753973e-01 +1.74343467e-01 +3.99893373e-01 +2.84639984e-01 -1.24927990e-01 -1.14427499e-01 +2.36436918e-01 +3.64571176e-02 -3.07442062e-02 -1.41283080e-01 +4.15409729e-02 +7.47423992e-02 +3.11913222e-01 -1.91869378e-01 +2.09520504e-01 +1.79869443e-01 +1.30215451e-01 -3.35021764e-01 -1.59442931e-01 +1.59723267e-01 +1.12177081e-01 +3.80514979e-01 +2.77016759e-01 -2.32995808e-01 -2.83172786e-01 +3.29943329e-01 +3.15363556e-01 +8.49299207e-02 +3.60790640e-01 -1.83795765e-01 -2.30807185e-01 +4.68772143e-01 +1.64624587e-01 +7.54956855e-04 -7.28620589e-02 -1.75395638e-01 +3.64186376e-01 -3.69691253e-01 +4.46482241e-01 -2.09555462e-01 +9.89498943e-02 -2.94540942e-01 -2.02883884e-01 -9.69005898e-02 +3.61079872e-01 +1.62700415e-01 +1.55064434e-01 +1.73855916e-01 -3.81908901e-02 -1.35544732e-01 +1.90108996e-02 +2.53793448e-01 +2.22194165e-01 -9.13394019e-02 +1.98408574e-01 -1.54421777e-01 +2.62665778e-01 -1.45613864e-01 -1.54914930e-01 +3.26783389e-01 +4.68373358e-01 -3.19165438e-01 -3.18998992e-02 -9.31435674e-02 -1.36990383e-01 -3.07521671e-01 
#Parameter# /_14 {25,25} 10001 ZERO_GRAD
+8.59008059e-02 -4.38023880e-02 -3.13662648e-01 +8.60348940e-02 +4.31425683e-02 +2.21011817e-01 -2.02099662e-02 -3.36393923e-01 +3.44510555e-01 +4.78595681e-02 -3.03475023e-03 -1.99727118e-02 +1.42654911e-01 +2.87398309e-01 -1.54902726e-01 +3.39786679e-01 -1.53081700e-01 -2.96920002e-01 -2.55070627e-01 +3.02340537e-01 +3.99222761e-01 +4.22063619e-02 -2.35476866e-01 +6.42930195e-02 -1.35327363e-02 +6.43391302e-03 +2.95399606e-01 +3.76675762e-02 -1.00457586e-01 -3.58457267e-01 -1.39650926e-01 -3.16122055e-01 -5.07360473e-02 -2.51669526e-01 -3.60519081e-01 -3.59952599e-01 -3.53274345e-01 -3.41040045e-01 -4.43469495e-01 +2.52223969e-01 -2.76692331e-01 +1.62187502e-01 +2.76482970e-01 -3.45706999e-01 -3.43788147e-01 +1.27815738e-01 +9.22652110e-02 +6.63595274e-02 +2.10943639e-01 -5.45987189e-02 +1.44755691e-01 -9.54391584e-02 +7.24641383e-02 +1.47832587e-01 -4.69795525e-01 -1.08361214e-01 +1.00928918e-01 +2.05736801e-01 -5.99952340e-02 -2.17113271e-02 +2.44581252e-01 +1.42474994e-01 -4.09757122e-02 +7.26431534e-02 -3.27928603e-01 -2.08452985e-01 -3.33200812e-01 +2.94989403e-02 -1.89247608e-01 +2.88387965e-02 +1.12576215e-02 +2.25017130e-01 -1.70555249e-01 +1.95630968e-01 +3.07975207e-02 +1.86682105e-01 +2.46528357e-01 -2.62883514e-01 +1.61607668e-01 +6.71356395e-02 +1.55321166e-01 -1.93902805e-01 -3.81127000e-01 +2.65439659e-01 -1.98256835e-01 -1.79740354e-01 -9.80531424e-02 -1.73816815e-01 +1.86070636e-01 -7.23248872e-04 -4.53479476e-02 -9.89075303e-02 -1.14793077e-01 -1.70676056e-02 +1.41584482e-02 +1.81293309e-01 +1.39099941e-01 +6.96374103e-02 -3.33217531e-01 +1.15595303e-01 -1.89279974e-01 +3.30877155e-02 +1.93467498e-01 +7.39267096e-02 +1.03150420e-02 -4.49989319e-01 +2.95588642e-01 +2.20336705e-01 -1.42095461e-01 -2.33744010e-01 +2.75887251e-01 +4.89743091e-02 +7.56043494e-02 -3.59055251e-01 +3.97209704e-01 +2.25402534e-01 +3.39745820e-01 -1.44955561e-01 +2.90370136e-01 -2.70253181e-01 +1.28002658e-01 +1.10097088e-01 +2.46357098e-01 +3.08674425e-01 -4.15455371e-01 -5.83121404e-02 +3.42724323e-01 -2.51862735e-01 -1.69670627e-01 +1.31412938e-01 -1.60884619e-01 +2.85916537e-01 +3.65296721e-01 +2.69970685e-01 +1.38486605e-02 +3.80147099e-01 +5.06533310e-02 +1.34166628e-01 +5.05149476e-02 -8.59971717e-02 -1.24566145e-02 +2.17486218e-01 +8.20619687e-02 -5.74308001e-02 +4.61589813e-01 -7.43191987e-02 +5.99600095e-03 -1.13997914e-01 -1.81505352e-01 +1.47658378e-01 +2.80672222e-01 -2.31210187e-01 -3.27995896e-01 -3.18925560e-01 +2.79009253e-01 -1.80713177e-01 -1.22805275e-02 -1.57675460e-01 +1.26322284e-01 -2.09803522e-01 -4.01612729e-01 -4.19778824e-01 -5.48487864e-02 -3.97499502e-01 -4.57575805e-02 +1.02413967e-01 -1.22198381e-01 -3.37391086e-02 -8.77659395e-02 +5.89276254e-02 -1.92769319e-01 -2.65993267e-01 +1.81427374e-01 +3.00168902e-01 -4.34298307e-01 +2.45707080e-01 -2.63286293e-01 +1.97520256e-01 +2.39419043e-01 +4.78854477e-01 -9.34916288e-02 -1.42577812e-02 -6.30037114e-02 -2.34754249e-01 +2.02234894e-01 +3.53210300e-01 +3.32785249e-01 +1.45806909e-01 +3.15073848e-01 -1.48121655e-01 +3.53734016e-01 +1.81344837e-01 +6.93855509e-02 -1.25909150e-01 +1.98442161e-01 -1.66472793e-01 +8.08175355e-02 +2.29076296e-01 +1.18086137e-01 +7.72203580e-02 -1.59263223e-01 +1.32831275e-01 -1.04537092e-01 +3.34702581e-01 +1.51608624e-02 -1.42090753e-01 +1.20023057e-01 -1.88152954e-01 +3.48599702e-01 -1.11010119e-01 +1.46769986e-01 +1.28972828e-01 -2.25565434e-01 +5.14230914e-02 +1.83103025e-01 -2.33711615e-01 +1.83216706e-01 -2.12426931e-01 -5.18938266e-02 +1.58482939e-01 -1.90008610e-01 +1.32652577e-02 -4.77318764e-02 +3.09221357e-01 -1.35581046e-01 -2.19527304e-01 -7.40886573e-03 +1.07297771e-01 -1.32238895e-01 -2.28601713e-02 +3.45943213e-01 +1.45982280e-02 +3.91250283e-01 -4.15426195e-02 +5.16358986e-02 +1.74253479e-01 +2.91433856e-02 +3.91036034e-01 +2.99787194e-01 +1.54223204e-01 +1.51452377e-01 +8.74499157e-02 +1.68017387e-01 +2.34011799e-01 +1.49068505e-01 -3.37110579e-01 +9.45574641e-02 +5.33931330e-02 +3.16481173e-01 -3.88755947e-01 +3.55407923e-01 -1.70227915e-01 +1.49998799e-01 +2.01284930e-01 +1.80967554e-01 -5.66247068e-02 +3.68480617e-03 +4.28295173e-02 -2.25602433e-01 +2.91468501e-01 +3.95939618e-01 +4.26005237e-02 +4.17508870e-01 +4.28144693e-01 +5.00333719e-02 +5.11879265e-01 +3.90729606e-02 +9.79190320e-02 +2.62240022e-02 -2.63938848e-02 -2.26213902e-01 +2.76748806e-01 +3.98086399e-01 +1.47908658e-01 -8.47827271e-02 -3.35911065e-02 +2.07624342e-02 -2.92306900e-01 +1.28372997e-01 -2.20188648e-01 +8.31675529e-02 -1.03024088e-01 +1.99898779e-01 -1.96323678e-01 -2.57875890e-01 -3.45027000e-01 -1.74200118e-01 -2.74478585e-01 -3.22206885e-01 -4.31805998e-02 -6.81981221e-02 +2.94560283e-01 -2.07379639e-01 +3.54673475e-01 -3.80977690e-01 +2.10163176e-01 +4.00699824e-01 -4.24763322e-01 -1.99681059e-01 -1.20345563e-01 +2.11474031e-01 +1.88952655e-01 +1.31483292e-02 +8.69905353e-02 -1.98131308e-01 +4.74128664e-01 -1.13995880e-01 +1.51326284e-01 -1.58047989e-01 +4.29206669e-01 +1.27684116e-01 +1.16166323e-01 +1.41033217e-01 +3.32274377e-01 -7.20962510e-02 -7.17156529e-02 +3.09030890e-01 +1.79635659e-01 -1.68428928e-01 +4.36662436e-01 +8.88846889e-02 -1.43946350e-01 +4.79444116e-01 -1.31082222e-01 +2.26771668e-01 +1.62389025e-01 +9.71345603e-02 +9.63752493e-02 -3.08954954e-01 +4.47058752e-02 -4.95043546e-01 -1.60970688e-01 -2.62087196e-01 -9.86725166e-02 -3.77346158e-01 +1.30762085e-01 -4.30651188e-01 -5.06264746e-01 -3.44395071e-01 +1.76111028e-01 -5.23601592e-01 +6.20977618e-02 -5.15985079e-02 -4.14232463e-01 -5.90940528e-02 +2.56294549e-01 +2.47683495e-01 -5.31977832e-01 +1.79693609e-01 -2.48298168e-01 +1.00751715e-02 -2.28372589e-01 -2.54269183e-01 -6.90281987e-02 +1.54207451e-02 -4.87558782e-01 -1.15627825e-01 +5.54728834e-03 +2.58015752e-01 +4.57677804e-02 -4.74686295e-01 -2.16695592e-01 -2.89187014e-01 -4.06313300e-01 -4.51960154e-02 +3.56510747e-03 +2.32452787e-02 -1.29761308e-01 +1.79566026e-01 -3.53700854e-02 +3.58716697e-01 +2.78875917e-01 +7.28562614e-03 -2.72574782e-01 -2.42059290e-01 -1.28901675e-01 +1.91830829e-01 -4.46232185e-02 +1.17669515e-01 +1.18304573e-01 -6.71229586e-02 -3.20363939e-01 +1.31251514e-01 -6.58647195e-02 +4.53783832e-02 -2.79752791e-01 +1.56457769e-03 -3.42327386e-01 -4.00409579e-01 -1.93589211e-01 -1.84985120e-02 -2.19172210e-01 -1.16433568e-01 -5.85006028e-02 +1.79372504e-01 -3.70011210e-01 -1.18226059e-01 -2.41866708e-02 +1.95187867e-01 -4.76391524e-01 -3.99487317e-01 +9.33006480e-02 +7.38005042e-02 +3.07780147e-01 +1.70799837e-01 +1.56632751e-01 +2.49698788e-01 -1.93449795e-01 +3.46283108e-01 -1.01757184e-01 -4.47155178e-01 -1.77682087e-01 +2.33938530e-01 -3.96107018e-01 +3.25002939e-01 +3.00811172e-01 +1.72492892e-01 +8.16574413e-03 +1.76940054e-01 +2.43027344e-01 +3.52417558e-01 +2.52421767e-01 -3.77175272e-01 -1.53561682e-01 -1.02878384e-01 +4.79631007e-01 +6.20358065e-02 +3.24640167e-03 +4.06418853e-02 -2.78878570e-01 -1.00241244e-01 -8.28417689e-02 -6.29375055e-02 +1.33426666e-01 +3.57095569e-01 +4.54414543e-03 -4.21373546e-02 +1.16105769e-02 -5.14434949e-02 +1.07910030e-01 +2.74628252e-01 +1.79834127e-01 -1.52183667e-01 +8.52841511e-02 +4.57541615e-01 -9.80259255e-02 +2.80923456e-01 +3.19020867e-01 +1.36134312e-01 +1.01855561e-01 -1.34296924e-01 -1.77300543e-01 -7.00791478e-02 -1.08934455e-01 +1.06110416e-01 -1.51653737e-01 +5.46708778e-02 +2.50129718e-02 -2.62339711e-01 -1.93037435e-01 +3.55498940e-01 +1.40541643e-01 -2.56018974e-02 +2.64600515e-01 +2.86625266e-01 +5.87650947e-03 -1.03429213e-01 +2.42191896e-01 +3.68491769e-01 +3.67428422e-01 +2.20746905e-01 +4.58699428e-02 -4.85498309e-02 -1.10268913e-01 +2.09715292e-01 -6.47605285e-02 +1.99114501e-01 +2.09075272e-01 +9.76302996e-02 +9.31260958e-02 +1.94738790e-01 -9.57803279e-02 +6.92087710e-02 -2.62608647e-01 -8.96712244e-02 -1.94234431e-01 -3.73692453e-01 -1.97391897e-01 +1.68801844e-01 +2.56682277e-01 +1.21770486e-01 +1.36664003e-01 +2.20686439e-02 +1.05353050e-01 +1.99104380e-02 -3.82074304e-02 -5.29734604e-02 -1.70070097e-01 -1.27338499e-01 -2.02737808e-01 -2.15299219e-01 -4.13318366e-01 +2.20831856e-01 +1.54528469e-02 +3.05968463e-01 +3.54462594e-01 +3.76395404e-01 -1.31030291e-01 +1.95724890e-02 +1.21564783e-01 +1.69837192e-01 +4.34609056e-01 +2.87289858e-01 -1.21878656e-02 -2.09192902e-01 -9.97651741e-02 -1.60522148e-01 +2.13965192e-01 +1.35132596e-01 -1.09068409e-01 -2.14327142e-01 -7.56740272e-02 +1.15673743e-01 +1.08233504e-01 -1.97025791e-01 -3.13892849e-02 -1.68791384e-01 +1.37988433e-01 +1.09204918e-01 -2.69519925e-01 +1.36257783e-02 -5.04298396e-02 -6.78838342e-02 +1.46880403e-01 +2.39868332e-02 -3.04739416e-01 -1.81234956e-01 -1.58082008e-01 -3.13588917e-01 -3.69337499e-01 -1.73920617e-01 -1.75520495e-01 +3.74994837e-02 -2.46689036e-01 -5.28736889e-01 -1.90599430e-02 +2.60647595e-01 -2.84287989e-01 -1.46445438e-01 +1.08573705e-01 +2.29806587e-01 -1.26890108e-01 -5.58739416e-02 +3.19629192e-01 +6.32916242e-02 -1.87837884e-01 -1.99369133e-01 -1.39195725e-01 -1.92737222e-01 +1.91979539e-02 +4.69482355e-02 -1.98132128e-01 -1.01142593e-01 +1.78609997e-01 +1.57094806e-01 +7.41488039e-02 +3.30821931e-01 -3.35727073e-02 +3.86193365e-01 -5.53779537e-03 +4.70521748e-02 +1.46473378e-01 +2.84317285e-01 +2.52949148e-01 +1.00380979e-01 +1.00017659e-01 -3.64647895e-01 +2.34172016e-01 -3.87638360e-02 -1.41264096e-01 +1.52698621e-01 -2.78664798e-01 +3.02139282e-01 +1.17438644e-01 -2.19158188e-01 -1.37858361e-01 -8.78435448e-02 -1.61683083e-01 -2.05534667e-01 -2.99974680e-01 +1.77759811e-01 +3.21563452e-01 -7.30508938e-02 -2.06297830e-01 -2.29069799e-01 -5.69487549e-02 +6.97621852e-02 +9.23484713e-02 -2.13642076e-01 +2.41806939e-01 +4.66909893e-02 -1.43375769e-01 -3.65281031e-02 +1.40831649e-01 -7.88021982e-02 +8.51164088e-02 +3.82118113e-02 -9.97412577e-03 +2.03019783e-01 -8.74342844e-02 +7.47973919e-02 -3.42557490e-01 -1.89205289e-01 -2.10812137e-01 +6.69433996e-02 -4.95870635e-02 -1.70863852e-01 -1.46832079e-01 +3.52130234e-02 +1.22500576e-01 -3.12492967e-01 -2.92598456e-01 +1.83873117e-01 -7.13423267e-02 -1.83316797e-01 
#Parameter# /_15 {25} 401 ZERO_GRAD
-3.57851177e-01 +2.78680235e-01 +2.59768635e-01 +1.78543717e-01 -3.95380855e-01 +1.91386595e-01 -2.70647049e-01 -8.43602757e-04 -9.16206315e-02 +8.42659101e-02 -2.93165836e-02 -8.91301855e-02 -9.36420076e-03 -1.35206580e-01 -9.51541886e-02 +3.80841680e-02 +1.44116193e-01 -2.06718132e-01 +1.17813200e-01 -5.20911276e-01 -1.69250965e-01 +1.98305026e-02 -4.57876861e-01 +1.49739653e-01 -3.64165232e-02 
#Parameter# /_16 {25,25} 10001 ZERO_GRAD
+2.49463141e-01 +9.00487602e-02 +1.38468951e-01 +1.87953591e-01 -3.37048471e-02 -3.26268405e-01 +3.16992521e-01 +5.24143875e-02 -2.95348197e-01 +7.17338622e-02 -2.19987452e-01 +2.00916588e-01 -1.13549069e-01 +7.83503354e-02 -1.93519980e-01 +2.15970635e-01 +3.15191925e-01 -2.17654154e-01 -2.03525960e-01 +1.95510924e-01 -1.79022878e-01 -3.27699184e-02 +2.56665468e-01 +1.03070438e-01 +1.23401910e-01 -3.40708196e-01 -2.34379515e-01 -1.18019879e-02 -2.43777931e-02 -1.58350274e-01 +7.30583668e-02 -2.83127666e-01 -3.03103060e-01 -8.15212727e-04 +2.49719322e-02 +1.31229311e-01 +2.15894461e-01 -1.67137325e-01 -3.46292347e-01 -3.05934370e-01 -2.60348022e-02 -1.27661079e-01 -1.87063128e-01 -2.30429143e-01 +3.02014410e-01 -9.58047509e-02 -1.34797424e-01 +7.34183192e-02 -1.32746994e-02 -7.61566162e-02 +2.61434257e-01 -1.14409700e-01 +2.97072530e-01 +9.33077037e-02 +2.73203552e-01 -2.27292150e-01 -3.44598025e-01 +2.73641407e-01 -3.33802640e-01 +1.89344108e-01 +5.68704903e-02 +1.73378646e-01 +3.37453425e-01 +7.88327456e-02 +7.00564086e-02 -2.29440033e-01 +1.43429548e-01 -1.61883160e-01 +1.34267241e-01 +3.31010103e-01 -1.93931818e-01 +1.54927015e-01 +2.65333772e-01 +2.51685917e-01 -1.41573742e-01 +3.13692808e-01 -1.89847559e-01 +1.22027814e-01 -3.22682559e-02 +2.63849080e-01 -1.35180235e-01 -3.04112762e-01 -4.56299186e-02 +1.77731633e-01 +1.47364736e-01 +2.38661826e-01 +2.41097033e-01 +1.76169813e-01 -2.93473393e-01 -1.37265384e-01 +4.39609289e-02 +7.59730339e-02 +3.08086872e-02 +6.95799887e-02 -3.38921845e-01 +1.64981425e-01 -2.01592758e-01 +2.78491497e-01 +1.07350737e-01 -3.16398472e-01 -6.75310493e-02 -2.95734465e-01 +3.53459418e-02 -2.39720136e-01 +6.91389740e-02 -2.12447122e-01 -2.53826380e-03 +3.31748724e-01 +1.65341437e-01 -1.56717926e-01 -7.17577338e-03 -5.03888428e-02 +3.22114468e-01 +2.42683291e-01 +1.43609881e-01 +9.09014344e-02 +2.97215283e-01 -5.26281595e-02 +1.64432049e-01 +1.43246144e-01 -2.63986856e-01 -3.09281856e-01 -2.57656008e-01 +1.54198229e-01 +1.49001181e-01 +6.47968352e-02 -1.36809513e-01 -3.18771929e-01 +1.24098569e-01 +2.74594128e-01 -4.80166674e-02 +8.41206908e-02 -9.65651870e-03 -1.51594132e-01 +2.71986306e-01 -1.14829987e-01 -8.99091363e-02 -1.29325897e-01 -2.91880369e-02 -1.81838557e-01 +2.16069996e-01 -2.98255950e-01 -2.69541144e-01 +2.68726349e-02 -1.64039433e-02 +1.84207737e-01 -8.66822898e-02 -1.38681576e-01 +2.75311172e-02 -2.30467469e-01 +6.91029429e-02 +4.62970734e-02 +1.23991966e-02 -2.17033625e-02 +1.76547229e-01 -4.14454043e-02 +2.80887902e-01 -2.62621641e-01 +2.03277528e-01 -1.67773336e-01 +3.30185771e-01 +8.60563815e-02 -1.84841186e-01 +1.05503112e-01 -1.27298728e-01 -2.98334956e-02 +1.50413752e-01 +2.98142970e-01 -1.58081502e-01 +2.08616495e-01 -1.81836784e-02 -6.37530982e-02 +1.41764492e-01 +2.09291279e-02 +9.62109566e-02 +1.83998764e-01 -2.16539457e-01 +2.10310519e-01 -2.42407277e-01 +6.98719919e-02 -2.37066299e-01 -1.98698685e-01 -1.11185104e-01 -2.48175621e-01 +2.56635308e-01 +1.26995295e-01 +2.68680453e-01 +5.67268729e-02 -1.37181625e-01 -6.36309385e-02 -3.11539918e-01 -3.23028475e-01 -2.22043961e-01 +1.13875538e-01 +1.86524153e-01 +1.77779794e-03 -1.99470758e-01 +2.06037700e-01 -2.85802305e-01 -7.52817988e-02 -2.12739974e-01 +2.49025166e-01 -1.69762328e-01 -2.21350908e-01 -2.11290330e-01 -3.06307346e-01 +1.22056633e-01 -1.69822827e-01 -5.79812229e-02 +1.22292340e-01 +3.04115713e-01 -2.27993578e-01 -2.49120101e-01 -2.76016772e-01 -2.48796955e-01 -2.76883543e-01 +2.37815976e-01 +2.51827955e-01 +2.05821931e-01 -3.37220430e-02 +3.37788403e-01 +9.87486541e-02 +1.98685646e-01 -1.61837339e-01 -2.24538863e-01 +1.97550416e-01 +4.89146709e-02 +2.57444561e-01 -2.98163533e-01 -2.31356263e-01 -6.60104752e-02 -1.45765767e-01 -2.67004132e-01 -5.39302826e-04 -2.00076103e-02 +2.56134808e-01 +3.01369905e-01 -1.42635360e-01 +2.21154988e-01 -3.01212311e-01 +2.17703700e-01 -8.62571597e-02 -1.84537217e-01 +2.87746549e-01 +7.17280209e-02 -3.01712304e-01 -2.24859416e-02 -1.07658982e-01 +2.40460932e-02 +3.44782531e-01 +2.29490042e-01 -2.93483883e-01 +2.31832266e-02 +1.99301839e-01 -2.23239467e-01 +2.65483618e-01 +4.48782146e-02 +1.64264143e-02 -1.53869420e-01 -1.66413963e-01 -1.67158663e-01 +1.33672357e-02 -2.00789317e-01 +2.78347433e-02 +1.34614110e-03 +2.81978965e-01 +2.50875711e-01 +2.01928616e-02 +3.16409349e-01 +2.45293498e-01 +5.18568456e-02 +2.89546430e-01 -3.42584252e-01 +9.16992128e-02 +1.06146812e-01 +3.84265780e-02 +5.50059974e-02 +1.53680146e-01 -1.89184248e-02 +2.10347712e-01 -3.88042033e-02 -2.55730033e-01 -2.80842781e-02 +3.07475030e-02 +4.86519933e-03 +2.09615827e-02 -2.06237793e-01 -2.36991584e-01 +2.74605632e-01 -1.33892640e-01 -5.28754890e-02 -3.05139333e-01 +2.70756900e-01 +2.81693697e-01 -1.58426329e-01 -4.66154218e-02 -1.82952344e-01 +3.15127909e-01 +8.95312428e-03 +9.05806124e-02 -3.27981502e-01 +1.15417153e-01 -8.18291903e-02 +1.83104932e-01 -3.17348331e-01 +2.69002914e-02 +1.29019141e-01 -8.73548687e-02 +2.19631433e-01 -2.33580619e-01 +3.30784678e-01 +1.91884458e-01 +1.89356208e-02 +4.12150621e-02 -1.45138040e-01 +1.97722793e-01 -8.18652511e-02 -3.36333156e-01 +2.29205549e-01 +9.26111341e-02 -2.93418378e-01 +2.39382088e-01 +2.93335795e-01 -1.36606887e-01 +1.71106637e-01 -2.73547292e-01 +2.96729147e-01 -6.45284355e-02 -2.78249353e-01 +1.52034253e-01 -2.67708004e-02 +2.80204594e-01 +3.20491552e-01 -2.87326813e-01 -8.74082446e-02 +2.84744442e-01 -1.44319654e-01 +1.93037271e-01 -4.21011448e-03 +2.01963007e-01 -2.27747500e-01 -1.85212821e-01 -3.44535172e-01 -2.86149800e-01 +2.20754445e-01 +6.64707422e-02 +2.67725646e-01 -2.38386601e-01 +1.77160323e-01 -2.16745794e-01 +1.52946413e-01 -2.73762912e-01 -4.87791300e-02 -2.97338665e-02 -1.63939595e-02 +2.38864005e-01 -2.43231356e-01 -1.58549607e-01 +2.54763961e-02 +2.93607473e-01 -2.46553689e-01 +8.64332914e-03 -2.97074497e-01 -1.74122795e-01 -2.55393505e-01 -2.68609464e-01 +3.28442454e-03 +1.47854835e-01 +3.39451075e-01 -1.40912101e-01 -3.04902673e-01 +3.03644896e-01 -1.02312446e-01 -1.12862289e-01 -2.54116714e-01 +6.83718622e-02 +3.00747156e-01 +7.26604164e-02 +2.06883192e-01 -3.18904161e-01 -5.47922552e-02 -1.67051658e-01 -3.61188352e-02 +3.00597906e-01 +2.69296229e-01 -2.11558297e-01 +1.55592918e-01 -2.76211858e-01 +2.50683606e-01 -2.54971564e-01 +9.57093537e-02 +6.65019751e-02 -2.16952741e-01 +1.32233620e-01 +2.03701973e-01 +8.46269429e-02 -2.67366290e-01 +2.55392909e-01 +5.21336198e-02 -1.66291624e-01 -8.05387497e-02 -3.19455892e-01 +3.06800246e-01 +7.21262693e-02 -2.19701722e-01 +1.43309385e-01 +1.09205455e-01 -1.78578898e-01 -3.10486853e-01 +1.35836691e-01 -2.67714471e-01 +2.51612067e-03 +6.17769659e-02 -1.57828942e-01 +2.20484436e-01 +6.47616982e-02 +1.09057605e-01 +2.60522604e-01 -6.40452206e-02 +4.76454496e-02 +1.87644243e-01 +3.04898381e-01 +2.67688394e-01 +2.99790919e-01 +2.99619496e-01 +2.39902675e-01 +1.08210117e-01 +2.70971954e-01 -1.77579015e-01 +7.45712817e-02 +3.90620232e-02 +1.39529318e-01 -2.43697762e-01 -2.24090457e-01 -2.53885776e-01 -3.12060714e-01 -1.18831977e-01 -1.42304301e-02 -3.09379905e-01 -1.26763582e-01 +1.98110461e-01 -2.00849503e-01 -2.96402484e-01 -5.07096946e-02 +5.86967468e-02 -1.84465125e-01 -3.88147533e-02 -1.42642066e-01 -1.78320035e-01 +1.90750420e-01 -6.22919798e-02 +1.67151749e-01 +2.86312163e-01 -1.77004933e-01 -3.79915237e-02 -1.84342831e-01 +1.50528461e-01 +1.74418390e-01 -2.41291419e-01 +1.45932734e-02 +5.44109941e-03 +3.25945675e-01 -2.48200908e-01 -3.81278992e-03 +3.18082631e-01 +3.21925700e-01 +3.42287302e-01 +2.06511378e-01 -3.39913905e-01 -2.68251002e-01 +1.45588815e-02 +3.39497149e-01 -1.94300637e-01 -8.53544772e-02 +1.65681243e-02 -3.10983509e-01 -2.22581863e-01 -1.33541226e-03 -1.08134836e-01 +9.58194137e-02 -2.69086093e-01 -2.72471339e-01 +6.66310489e-02 -2.66253889e-01 +5.18233776e-02 +3.43840957e-01 -2.92301893e-01 +3.11499774e-01 +7.03934431e-02 +3.33809912e-01 +3.60037386e-02 -3.40594351e-01 +1.08866215e-01 +2.03969121e-01 -1.96273118e-01 -5.22918105e-02 -2.12562546e-01 +3.14497709e-01 +1.84129655e-01 -2.75732428e-01 +3.03558528e-01 +1.89593017e-01 -3.10020506e-01 -1.01126716e-01 +1.82038248e-01 -2.54848063e-01 +3.25327814e-01 +3.02038491e-01 -1.64573342e-01 +1.20060533e-01 +1.57014251e-01 +1.28356516e-01 +3.41281295e-03 -2.93608308e-02 -1.13502219e-01 +2.52839983e-01 +1.87180817e-01 -1.78753540e-01 -2.54916340e-01 +5.14854193e-02 +2.72262931e-01 -2.08156377e-01 +2.41575837e-02 +1.06656611e-01 -6.06421530e-02 +1.85409009e-01 +3.50882113e-02 -2.21202940e-01 -2.08548948e-01 +8.40132833e-02 +1.36734247e-02 -1.21620029e-01 +2.58108616e-01 +1.94010139e-01 +2.40943193e-01 +1.73401177e-01 -1.36800110e-02 -1.26076847e-01 -2.60245830e-01 -3.28016341e-01 -1.12880126e-01 -3.15920979e-01 -3.07693720e-01 +9.75262225e-02 -1.83207303e-01 -2.11441517e-03 -3.02424520e-01 +5.18392920e-02 -2.83330947e-01 +1.31434619e-01 +1.59007430e-01 -2.98477352e-01 +1.11768186e-01 -1.09635696e-01 +9.89476740e-02 -6.88244700e-02 -2.05647990e-01 +1.59933567e-01 +1.84389114e-01 -4.72719669e-02 -2.69327939e-01 -2.09479675e-01 -1.17756173e-01 -2.77758539e-01 -1.99924007e-01 -9.42994952e-02 +5.81491292e-02 -1.62718281e-01 -2.79595375e-01 +5.65947592e-02 -2.14239672e-01 +2.29963124e-01 -4.48648334e-02 -1.89551994e-01 +7.38798678e-02 +6.79428875e-02 -3.01183015e-01 -3.26936573e-01 +3.12006295e-01 +2.75590062e-01 +1.66288018e-02 -1.40388384e-01 +4.53332067e-02 -9.20066833e-02 -3.24390680e-01 -2.00074226e-01 -2.61575252e-01 +1.63955152e-01 +2.97427952e-01 +2.80143440e-01 -1.40229166e-02 -3.26849699e-01 +5.92115223e-02 +2.78558850e-01 +2.50906110e-01 +1.74710810e-01 +2.43821025e-01 +2.53783762e-01 -5.46070635e-02 -2.58921236e-01 +1.63723707e-01 -1.95183188e-01 -3.80807221e-02 +3.43863964e-02 +1.22120887e-01 -2.26929232e-01 -1.93228289e-01 -2.31842771e-01 +3.27008903e-01 -2.91234732e-01 +2.50743568e-01 +1.76055253e-01 +2.88874865e-01 -3.33406687e-01 +1.51150048e-01 -3.05823684e-01 +3.06033373e-01 +8.43538940e-02 +1.62009299e-02 -2.27716088e-01 +1.76195860e-01 +1.26237899e-01 +1.00731105e-01 +3.24485779e-01 -6.33365214e-02 
#Parameter# /_17 {25,25} 10001 ZERO_GRAD
-2.49959886e-01 -1.55410826e-01 -3.83362770e-02 -2.96668500e-01 -1.64810047e-01 -2.67786592e-01 -3.21863621e-01 +1.50516242e-01 -1.80457219e-01 +2.40561962e-02 -1.09445751e-02 +9.00599957e-02 -3.34805280e-01 +1.70938313e-01 +6.00122511e-02 +6.11871481e-02 +1.66627944e-01 +1.45410269e-01 -8.73042941e-02 +3.24336231e-01 -2.68660903e-01 +1.57504618e-01 +2.02874660e-01 -1.76246390e-01 -3.17294955e-01 -2.25021750e-01 -3.98346782e-03 -9.51611698e-02 +2.86226749e-01 +3.34692359e-01 +2.69488037e-01 -2.55425483e-01 +3.29951763e-01 +6.16054833e-02 -1.24829486e-01 -2.34856039e-01 -1.38086885e-01 -1.10887155e-01 -1.99424133e-01 +1.59447968e-01 -1.18297949e-01 -1.43746451e-01 -1.74431697e-01 -1.26264364e-01 -2.65651286e-01 +1.86282992e-01 -3.08831453e-01 -5.77394962e-02 -1.70295954e-01 -1.14104509e-01 +5.97850084e-02 -2.18332559e-01 +2.38686621e-01 -6.27824664e-02 +3.12176526e-01 -3.02422136e-01 +1.56397700e-01 -2.80104041e-01 -2.52945006e-01 +2.52963364e-01 +1.72545850e-01 +5.45652211e-02 +3.07286799e-01 -3.34352553e-01 +1.56728208e-01 +2.14203775e-01 -1.30803138e-01 -1.84979439e-02 -2.25012600e-02 -8.85993838e-02 -1.02493525e-01 +3.25063348e-01 -2.74656028e-01 +1.62890732e-01 -1.02052599e-01 -3.41985136e-01 +1.89857662e-01 +4.97332513e-02 +3.39200020e-01 -1.58591434e-01 -3.15151215e-02 +1.15385234e-01 +1.46061867e-01 +2.46332586e-02 -3.14118624e-01 +1.83035314e-01 +2.84681201e-01 +9.45732892e-02 -3.35935444e-01 -2.42993772e-01 -2.00836062e-01 +3.07272315e-01 +2.95453906e-01 -3.28991115e-01 -2.07440153e-01 +2.80195773e-01 +3.27295959e-02 +1.27973855e-02 +3.12786818e-01 +1.09682947e-01 +2.26435721e-01 -2.14721978e-01 +4.58151102e-02 -1.47300094e-01 +2.37650990e-01 -4.14398313e-03 +6.35042191e-02 +2.04596341e-01 -3.35458100e-01 +1.08973682e-01 -2.53234148e-01 +1.47147775e-01 +2.78670192e-01 +2.16723204e-01 +9.92083549e-03 -6.30958080e-02 +3.10266376e-01 +1.66560888e-01 +2.89446712e-02 -1.90113991e-01 -1.51661634e-02 -2.18621761e-01 -2.03934416e-01 -2.64430404e-01 +1.36657685e-01 -1.72824234e-01 +3.04393053e-01 +3.57826352e-02 -2.16354012e-01 -2.93996781e-01 -4.16922867e-02 -3.57568264e-04 -9.90125537e-03 -1.16730064e-01 -2.46018320e-01 +2.87731528e-01 -1.62570745e-01 -2.49497265e-01 +2.20472276e-01 +1.57325983e-01 -1.60574988e-01 -2.93398738e-01 -2.10905075e-02 +1.04773790e-01 +1.97415590e-01 -2.53028214e-01 +8.93911719e-02 +1.04037821e-02 +1.40038133e-01 -2.08054483e-01 +3.33151579e-01 -8.96036625e-04 -1.70639455e-02 +3.87101769e-02 +1.57136977e-01 -1.20291501e-01 +1.95886672e-01 +1.74793661e-01 -2.69665241e-01 -3.18709612e-01 -4.39403057e-02 +6.14357293e-02 -3.38988006e-01 -1.24593869e-01 -2.57869571e-01 +5.23859262e-03 +1.58659041e-01 -4.84530330e-02 -3.22575122e-01 -1.83110878e-01 -2.67404288e-01 -2.48936608e-01 -2.99817115e-01 +1.33195281e-01 -3.06977987e-01 -3.07744890e-01 -7.67637789e-02 +1.07134193e-01 +1.06116772e-01 +6.02270067e-02 +3.02005529e-01 -2.39674568e-01 +2.40475059e-01 +2.65221655e-01 -1.06859460e-01 +1.50854856e-01 -1.85510099e-01 +1.05514705e-01 +3.08744848e-01 -2.87280917e-01 -3.22281778e-01 +7.48074055e-03 -2.49545902e-01 +4.95734513e-02 +2.91578591e-01 -2.05664977e-01 -6.43858016e-02 -2.79737294e-01 -2.06076324e-01 -2.32558459e-01 +3.35914195e-01 +1.25211537e-01 -2.65992314e-01 -2.77304947e-01 -1.35477245e-01 -3.38105947e-01 -9.74544436e-02 -6.72078133e-02 -3.45571429e-01 +1.57658696e-01 +1.01769239e-01 -1.69526577e-01 -2.47510821e-01 +1.68860495e-01 +1.09465063e-01 +1.60979450e-01 -1.18258700e-01 +1.67497933e-01 -3.07125002e-01 -3.01367640e-01 +3.34806144e-01 -1.03024676e-01 -1.88130751e-01 +8.38207901e-02 +2.05632150e-01 -2.31097177e-01 +2.93711722e-01 +2.86455333e-01 +2.16930091e-01 +2.28853285e-01 -2.50558704e-01 -1.34314910e-01 +1.97456181e-01 +4.78304923e-02 +1.48449689e-01 +3.37116957e-01 -2.56615758e-01 +3.10536921e-02 -8.43057036e-02 +3.45336914e-01 +1.33139968e-01 +1.33260012e-01 -3.40085745e-01 -2.60341346e-01 -9.82251763e-03 -2.42115632e-01 +1.02858096e-01 +2.00641155e-03 +1.74133003e-01 -2.03896150e-01 +1.82840109e-01 +1.70370102e-01 +2.34387517e-01 +8.72538090e-02 -1.98792905e-01 +2.95627773e-01 -1.64154381e-01 +2.80924320e-01 +2.96984076e-01 -2.09507480e-01 -6.77273273e-02 -2.43814796e-01 -2.22514153e-01 +1.04556143e-01 +1.21857584e-01 -1.51019365e-01 -8.49693120e-02 -2.28079587e-01 +3.45029533e-01 +2.07001269e-01 -3.35550845e-01 -2.37597108e-01 -7.26985037e-02 +3.23829234e-01 -2.73002774e-01 +7.84331262e-02 +2.39407301e-01 -1.70975626e-01 +1.77275836e-02 -2.02274799e-01 +2.51984954e-01 +1.24990135e-01 -5.95855713e-02 +2.27793038e-01 -6.22882843e-02 -3.16506326e-02 +3.08235228e-01 +3.25960159e-01 -5.62308431e-02 +3.07421684e-01 -2.82825232e-01 -2.96216786e-01 -3.31882775e-01 -1.76196173e-01 -3.22863162e-02 +1.73388600e-01 +2.29052246e-01 +3.09430838e-01 -1.40894413e-01 +8.84819031e-02 +3.27015877e-01 +2.33478427e-01 -1.25018075e-01 -1.71346068e-02 -1.88526452e-01 -1.24896049e-01 +3.00066292e-01 +1.67459726e-01 +1.01429731e-01 -1.59920320e-01 -8.17839205e-02 -2.44862393e-01 +3.00894618e-01 +1.37956381e-01 +1.52617216e-01 +9.37235057e-02 -3.13047647e-01 -1.90998882e-01 +2.81121612e-01 +2.25857496e-01 +2.80468702e-01 +2.04892993e-01 +5.56316972e-03 -3.61745954e-02 +2.10047603e-01 +3.93099487e-02 -2.30926976e-01 -1.06027424e-02 -2.32064709e-01 +2.08600163e-01 +2.51948416e-01 -1.91915885e-01 +6.97017312e-02 -1.84168145e-01 +9.92610753e-02 -3.38065565e-01 -2.02132344e-01 -2.38948047e-01 -2.83810079e-01 +3.44881713e-01 -4.18127477e-02 +1.40232474e-01 +3.05061758e-01 -2.05503598e-01 -2.54767656e-01 -2.84514487e-01 -1.11481190e-01 +1.75819695e-02 +1.94045067e-01 -1.89924166e-01 +2.54142761e-01 -1.94346040e-01 -2.75344372e-01 +1.85239911e-02 -2.95407712e-01 +4.24011052e-02 +2.28501678e-01 -1.91933304e-01 +2.10265696e-01 +6.71589375e-03 -2.60020852e-01 -8.56687129e-02 +6.20119572e-02 +1.94923460e-01 +1.78638697e-01 -2.64747620e-01 +3.16453338e-01 -3.25419784e-01 -2.83877552e-01 +1.72390997e-01 -2.97044814e-01 +2.40217149e-02 +1.42185569e-01 -6.05781674e-02 -6.15217388e-02 -3.22504878e-01 -8.12701881e-02 -1.44450948e-01 +1.82910562e-02 -2.57353932e-01 +2.25448787e-01 +2.82893658e-01 +1.43161267e-01 -1.09985322e-01 +5.62331080e-02 +7.86112845e-02 -2.65195727e-01 -4.77399230e-02 -3.23914200e-01 -2.66383886e-02 -3.42264801e-01 +1.97232068e-02 +9.73692536e-03 -3.28329891e-01 -3.25399190e-01 -2.28920639e-01 +3.18117976e-01 +2.25713253e-01 +2.82257795e-04 -1.70412943e-01 -3.16572100e-01 -3.22561026e-01 -1.62109241e-01 +8.21671784e-02 +2.77284682e-01 -3.14723969e-01 -1.08564273e-01 +2.60808587e-01 +8.55676234e-02 -1.95630878e-01 +1.98365510e-01 +2.13321090e-01 +2.38409400e-01 +1.16616547e-01 +9.59830582e-02 +6.27669394e-02 -2.66219258e-01 -2.32587218e-01 -1.12460360e-01 -1.54639557e-01 -2.66926587e-01 +7.31524825e-03 +6.26500547e-02 -1.14588946e-01 +2.87186563e-01 +6.52388930e-02 +2.11733222e-01 -2.37888724e-01 -8.72313976e-04 -4.55372036e-02 -1.57535732e-01 +1.63967609e-02 +1.66782141e-02 -2.13693038e-01 +1.44397318e-01 +1.51943564e-02 +5.92532754e-03 -2.73735106e-01 -1.29967958e-01 +2.18350828e-01 +2.13729322e-01 +3.17523777e-02 -1.95483074e-01 -3.35002542e-02 -3.03175092e-01 -2.05992401e-01 -5.44344783e-02 -8.27874243e-02 -2.98947752e-01 +7.87901878e-03 +1.94084823e-01 -4.85240817e-02 +7.39320517e-02 +7.81604946e-02 +1.81246400e-01 -1.69879511e-01 -1.58626363e-01 +2.81743109e-02 +3.98628712e-02 +2.00691879e-01 -2.33739972e-01 -2.96734452e-01 -2.11282775e-01 +2.08858788e-01 +2.81942606e-01 -4.03380692e-02 +8.51440430e-02 -9.09116864e-03 -7.53926337e-02 +1.68469787e-01 -1.84656903e-01 -1.97233573e-01 -4.38272953e-04 +1.05716199e-01 +3.74128520e-02 -2.04734281e-01 +2.44952023e-01 -3.83346975e-02 -1.84903756e-01 +1.95783794e-01 -3.43617499e-01 -5.68891466e-02 +1.51664078e-01 -1.54211074e-01 -1.11702383e-02 -9.64834392e-02 -1.75441667e-01 -2.29942709e-01 +2.50609517e-01 -3.19605768e-02 -3.35157394e-01 -1.90970376e-01 -3.02961767e-01 +9.61251259e-02 +1.17375016e-01 +1.44023031e-01 +2.39267230e-01 -9.00657177e-02 -2.42730826e-01 -9.34779942e-02 -2.01239675e-01 -1.79030821e-01 -2.18975261e-01 -2.41628185e-01 +4.81884778e-02 +2.67384231e-01 +7.02616572e-02 -2.15364292e-01 -1.41257748e-01 +3.46218109e-01 +2.49436378e-01 -1.20621100e-01 +1.50666356e-01 +2.29395330e-01 -2.83503234e-02 +1.49897724e-01 +1.61117315e-01 -1.59561455e-01 -1.15805969e-01 +1.55674577e-01 -8.08396935e-02 +7.81646967e-02 +3.16349864e-02 +1.86325014e-01 -2.14395016e-01 -1.38635188e-01 +1.14386201e-01 -6.57467544e-02 +3.46111655e-02 +3.55440378e-02 +1.02110535e-01 +1.05375379e-01 +5.75369298e-02 +2.75259376e-01 +2.11831510e-01 -1.36684313e-01 +2.35476673e-01 +2.09630132e-02 +2.64104605e-02 +2.22462058e-01 +5.96856773e-02 +1.27065629e-01 +2.57150650e-01 +5.24069965e-02 +2.26330638e-01 +2.73977458e-01 +1.78346694e-01 +2.98295140e-01 -7.25609660e-02 +1.95595860e-01 -1.70669973e-01 -2.70242929e-01 -1.17300019e-01 +1.37455404e-01 +1.65775180e-01 -1.73500180e-01 -3.07690740e-01 -1.68244183e-01 +2.43573129e-01 -2.05302939e-01 -1.56428814e-01 -2.14009091e-01 +3.10180843e-01 -4.36753035e-02 +3.18308592e-01 +2.24283993e-01 -2.79844433e-01 -1.73506960e-01 +1.26147449e-01 +1.22980952e-01 -2.02978328e-01 +2.36916840e-01 -9.90604609e-02 -2.71257162e-01 -2.15948030e-01 +1.06230021e-01 +1.49797767e-01 +5.65850735e-02 -2.57357597e-01 -3.28030765e-01 -2.15705141e-01 +7.70134926e-02 +2.56889880e-01 +7.77181089e-02 -7.60094523e-02 +3.29256237e-01 -2.67743468e-01 -3.29635262e-01 +3.24342847e-02 -9.34802592e-02 -1.95799649e-01 -6.96536303e-02 -1.67924210e-01 -2.45871693e-01 -2.66535014e-01 +3.10334802e-01 -2.87846863e-01 +5.91636300e-02 +1.40297353e-01 -1.41473189e-01 -2.79481530e-01 +6.52295351e-02 +2.27714121e-01 +1.52076900e-01 +1.29833430e-01 +3.10453653e-01 -3.28958571e-01 -1.09872162e-01 +1.73698545e-01 -1.79366380e-01 +3.21137667e-01 -3.88968885e-02 -1.86079577e-01 -8.04380774e-02 -3.22589487e-01 +1.84540629e-01 -3.45607460e-01 -1.47775739e-01 +5.58757782e-03 -2.01903909e-01 +1.40671551e-01 +3.20434034e-01 -1.37845397e-01 -2.78298050e-01 +9.03328359e-02 
#Parameter# /_18 {25} 401 ZERO_GRAD
+2.79987276e-01 +1.11686677e-01 -1.03869632e-01 +3.00722301e-01 -2.07492366e-01 +3.72371078e-03 -3.12600225e-01 +2.11132705e-01 +3.00363779e-01 +1.82802856e-01 -2.60601103e-01 -1.12484992e-02 -1.81507587e-01 +3.09882045e-01 +5.76440096e-02 +2.10687876e-01 -9.10305381e-02 +5.76035678e-02 +7.49050677e-02 +2.11061656e-01 +1.27011240e-01 +2.18325913e-01 -5.86152077e-02 +3.20339322e-01 -2.09446162e-01 
#Parameter# /_19 {25,25} 10001 ZERO_GRAD
-2.44312629e-01 -4.12501069e-03 -3.64060104e-01 -2.01944083e-01 +5.36888931e-03 -1.94149211e-01 +2.80437201e-01 +1.05222411e-01 +5.72073609e-02 +8.50652754e-02 +2.63413727e-01 +3.14213455e-01 -2.86732048e-01 +4.18347120e-01 -3.35553080e-01 +2.27646872e-01 -2.69129336e-01 +1.28948107e-01 +2.32164592e-01 -2.13000581e-01 -7.86346346e-02 +8.56334344e-02 +7.26451650e-02 +1.68377832e-01 +1.94045261e-01 -5.87860588e-03 +2.25284696e-01 +1.41241312e-01 +2.01279715e-01 -4.65314716e-01 -5.40028870e-01 -3.72132331e-01 -1.81495205e-01 -5.49707562e-02 -1.61381364e-01 +1.10002890e-01 -4.25438374e-01 +2.57094294e-01 -1.66909173e-01 +4.02968854e-01 -2.88218856e-01 +3.12644877e-02 +1.23232650e-02 -4.43762779e-01 +7.15731531e-02 -2.44678989e-01 -1.71193466e-01 -2.99924791e-01 +9.16593075e-02 +1.99532479e-01 +5.03200032e-02 -8.74355957e-02 -2.94045180e-01 +2.17434540e-01 -2.79186517e-02 +2.67342478e-01 +2.80143768e-01 +9.68644693e-02 +4.56794240e-02 -1.66018717e-02 +2.29301117e-02 +8.34755599e-02 -1.45775393e-01 -2.05935493e-01 -2.74637211e-02 +2.42723480e-01 +1.75006747e-01 -2.37031102e-01 -2.61171758e-02 +1.19501509e-01 -2.58990049e-01 +3.29925209e-01 -1.56644732e-01 -1.85103893e-01 -1.01327826e-03 +6.59167245e-02 +4.32703756e-02 +2.70245165e-01 -4.55437660e-01 +4.86787558e-01 +2.89014220e-01 +1.82247624e-01 -3.96746278e-01 +1.22691095e-01 +4.79713827e-01 -1.53668076e-01 +1.25717789e-01 -3.61572981e-01 +5.44228554e-01 -8.79157986e-03 +2.51587451e-01 -4.25720304e-01 +1.10338174e-01 -2.45404288e-01 +2.09523235e-02 +1.52062371e-01 -1.47412270e-01 -1.70144305e-01 +1.78514332e-01 -3.16560596e-01 -1.62781179e-01 -4.64409143e-02 -2.59407815e-02 -8.77030790e-02 -2.15364948e-01 +3.63180071e-01 -1.78959921e-01 +7.26503432e-02 +2.84745783e-01 +2.06073120e-01 +7.56398961e-02 -1.31475165e-01 -2.78999675e-02 -8.18883702e-02 -7.02469423e-02 -2.02349007e-01 +4.69644442e-02 +2.75972903e-01 +2.32309774e-01 +1.73737809e-01 +3.90206166e-02 +3.51169109e-02 +1.09655619e-01 -2.93341637e-01 +1.45120591e-01 -2.76556849e-01 +3.53968799e-01 -2.02136695e-01 +3.28828990e-01 -1.43138379e-01 -6.89569041e-02 -1.83585495e-01 -9.21089873e-02 -1.46617785e-01 -3.41401482e-03 +5.78842275e-02 -2.51247585e-01 -4.52169962e-02 -3.23715240e-01 +1.88396290e-01 -5.35386465e-02 -2.09017232e-01 +1.58026785e-01 +6.96272179e-02 +2.29491293e-01 +9.58194584e-02 +8.05447847e-02 -3.23636562e-01 +2.26078629e-01 -7.94710517e-02 +2.95380622e-01 +2.69181937e-01 +9.15896818e-02 -2.73072630e-01 -1.95300996e-01 +1.77851200e-01 +2.94728965e-01 -1.55426934e-01 -3.48101139e-01 +1.68987840e-01 -3.88200164e-01 -2.94993669e-01 -1.15174413e-01 +1.26325369e-01 -9.27796066e-02 +2.86433220e-01 +3.35623950e-01 -2.45688930e-01 -3.85628827e-02 -4.61637415e-02 +1.42072916e-01 -7.08590820e-02 +2.35837370e-01 +3.49379852e-02 -2.48436540e-01 -1.19430006e-01 +1.64617524e-01 +1.91494390e-01 -3.30242783e-01 +3.06823969e-01 -1.95541531e-01 -1.85058370e-01 -2.46944875e-02 -1.29856631e-01 +3.65958571e-01 +1.27756521e-02 -1.04483664e-01 +2.97520962e-03 +3.73352349e-01 +2.17078924e-01 -2.23504025e-02 -4.90591489e-02 +2.49125272e-01 +5.56855276e-02 +1.88293725e-01 +2.24110991e-01 -3.45477879e-01 -6.86419159e-02 +3.00533593e-01 +2.18452379e-01 -1.62435412e-01 -1.85000733e-01 +5.33452109e-02 +2.77322024e-01 +2.48918384e-02 -1.66130155e-01 -1.98630378e-01 -1.34641021e-01 -3.71245563e-01 -1.78264633e-01 +2.86115944e-01 -1.07332103e-01 -1.40052527e-01 -1.46009833e-01 +1.41384602e-01 +1.61183208e-01 -1.51953578e-01 -3.14613670e-01 +1.56931221e-01 -2.91628182e-01 +5.76029122e-02 -1.22185938e-01 -1.78937927e-01 -1.05444498e-01 +4.50129569e-01 -3.89665991e-01 +6.70992583e-02 +3.26523691e-01 +1.31562695e-01 -1.66147992e-01 +1.74316734e-01 -1.07275255e-01 +9.09872502e-02 +3.75200152e-01 -1.22108638e-01 +1.33351460e-01 +3.49222958e-01 -2.75816359e-02 -9.99878719e-03 -7.54835010e-02 +4.73735258e-02 +1.45625800e-01 -8.57815146e-02 +9.76984501e-02 +3.92674237e-01 -6.72603622e-02 +2.50531789e-02 +2.56068379e-01 +2.16993958e-01 -2.80991316e-01 -2.17997849e-01 -2.41899073e-01 +7.16453120e-02 -1.49629071e-01 +3.38519923e-02 +4.48021144e-02 -4.39621806e-01 -6.31514266e-02 +2.55357176e-01 -2.57456630e-01 +4.45265561e-01 -2.85105169e-01 +4.68176991e-01 -4.50047553e-01 -1.55898370e-02 -2.68693179e-01 -5.50689697e-02 +8.52987766e-02 -2.74750650e-01 +7.47405589e-02 +3.65794413e-02 +3.77640337e-01 -1.90747529e-01 +7.48979151e-02 -8.49699378e-02 -3.86278257e-02 -1.91431910e-01 +3.01507592e-01 -7.06035048e-02 +1.58213422e-01 +1.00711271e-01 +1.40232012e-01 -3.79794151e-01 +2.23493233e-01 -2.07519680e-02 -1.26961112e-01 -2.64829874e-01 -2.18605772e-02 -1.61693096e-02 -2.54876465e-02 +3.64883751e-01 +1.43940061e-01 +1.50149152e-01 +2.47177687e-02 +2.33990595e-01 -1.61950201e-01 -2.22680002e-01 -4.28406931e-02 +2.46171445e-01 -1.38640851e-01 -2.75346816e-01 -4.79906937e-03 -2.34142333e-01 -3.38654444e-02 +1.04922771e-01 +2.81269938e-01 +2.38586336e-01 -1.37584694e-02 -2.30223462e-01 -2.46385902e-01 +1.97213620e-01 -3.49960715e-01 +5.79534918e-02 -3.71213973e-01 +1.54811099e-01 -3.68694037e-01 +1.73435539e-01 +2.05318943e-01 +3.35338920e-01 -3.60889137e-01 -2.41110370e-01 +6.64990097e-02 +8.08164403e-02 -3.56662989e-01 -1.45524368e-01 -2.40649223e-01 +2.28135258e-01 +1.12252660e-01 -1.20557621e-01 +2.67819434e-01 -9.33294743e-02 +1.05215460e-01 +5.43614179e-02 -2.62333304e-01 +1.39890552e-01 -4.59502667e-01 +2.51479775e-01 -3.98493022e-01 +2.97028609e-02 -4.06500667e-01 +8.69938955e-02 -2.07217321e-01 -3.05857182e-01 +1.83222249e-01 +3.81760180e-01 +3.67750883e-01 -2.96790063e-01 +2.41009429e-01 +1.91092446e-01 -9.65853594e-03 -1.04566060e-01 -1.85674772e-01 +3.26531172e-01 +5.20687461e-01 -2.85463840e-01 -4.88054127e-01 -1.85115710e-01 +1.01816468e-01 -6.47674203e-02 -2.16272339e-01 +2.46060774e-01 -3.55633944e-01 +3.99601966e-01 +8.33135620e-02 -1.21157698e-01 +8.95786192e-03 -8.17519613e-03 -3.25109243e-01 +2.21851751e-01 -5.52329183e-01 -3.11637759e-01 -3.32882255e-02 -1.50985509e-01 +2.58374214e-01 +5.94733417e-01 -1.20078839e-01 -2.66224325e-01 -9.86330211e-02 -1.25540625e-02 +1.52667940e-01 -1.25446305e-01 +7.37961084e-02 +1.97797850e-01 +1.85311109e-01 +2.09965289e-01 -2.70022094e-01 +1.51912138e-01 +9.32666734e-02 +4.11825985e-01 -3.16092610e-01 +2.35208228e-01 -5.92821352e-02 +4.79218699e-02 +4.14192975e-01 +2.11978555e-01 +1.03262454e-01 -1.70154795e-01 +1.69732109e-01 +3.32242966e-01 -5.80835044e-01 -2.52059251e-01 +4.87032048e-02 -3.18191946e-01 -8.95696804e-02 -1.47119053e-02 +4.20000106e-01 +4.09227312e-01 +1.77813232e-01 -1.88354740e-03 -1.76959127e-01 -6.63069123e-03 -2.06450462e-01 -4.08760220e-01 +4.18676585e-01 -1.64591461e-01 -1.99289583e-02 -2.18441665e-01 +3.01413834e-01 +2.48747155e-01 +1.88062951e-01 -5.19128516e-02 -1.08041257e-01 +2.43573382e-01 +2.66479939e-01 -2.88852453e-01 +2.48264447e-01 -7.31210858e-02 -4.43412682e-05 -4.03242335e-02 -1.03337854e-01 -1.51653811e-01 -3.61072779e-01 +1.44838765e-01 +1.77500516e-01 -1.24587886e-01 -1.85287371e-01 -1.02130566e-02 -1.78534150e-01 -7.53756687e-02 -6.77569360e-02 +2.58246005e-01 +4.32744212e-02 +2.20527276e-02 +9.48614776e-02 +2.33457223e-01 +1.10731855e-01 -7.93080106e-02 +4.30199131e-02 -2.43562162e-01 +3.64626348e-01 -1.87013075e-01 -3.03067267e-01 +2.24845678e-01 -3.38188052e-01 -7.91395456e-02 +3.19389910e-01 -1.62489220e-01 -3.59434396e-01 -3.19790602e-01 +2.37447768e-01 -2.46029601e-01 +1.97974861e-01 -4.75285351e-01 -3.92902792e-02 -5.09426184e-02 +2.49770835e-01 -2.38784924e-01 -1.46192849e-01 +1.12646803e-01 +5.24899922e-02 -2.45790839e-01 +1.30301476e-01 +4.51286584e-01 +1.99328542e-01 +4.20256928e-02 -2.11649507e-01 -1.75681964e-01 -2.79375255e-01 +2.28007704e-01 +2.02556014e-01 +3.92348319e-01 +1.18154928e-01 -3.26454908e-01 -2.55169570e-01 +1.34497523e-01 +1.16620295e-01 +3.17631483e-01 -3.20178419e-02 -8.89815465e-02 +6.54548481e-02 +3.01983625e-01 -3.79520893e-01 -3.57525237e-02 -6.99957535e-02 +3.28779519e-01 +2.17504874e-01 +2.72577584e-01 -2.25679994e-01 +1.55041382e-01 -3.87246788e-01 +3.19694072e-01 +3.90786864e-02 -5.60239516e-02 +2.55818963e-01 -6.41699433e-02 +1.32220939e-01 +4.89097834e-02 +3.27693373e-01 +1.45899028e-01 +7.55735785e-02 -1.25528082e-01 -8.69727135e-02 +1.02423497e-01 -4.15724665e-01 -2.59039909e-01 -7.73530826e-02 -1.45403847e-01 +6.12073159e-03 +2.57599175e-01 -3.02602649e-01 +5.97841367e-02 -1.09718464e-01 -2.51774907e-01 +1.63731635e-01 -6.58687726e-02 +1.76994279e-02 -2.43729100e-01 +1.86754420e-01 -2.17261225e-01 -2.18689486e-01 -2.97197759e-01 -3.34746003e-01 -1.13168828e-01 -3.20930332e-01 -2.16376297e-02 +1.26314849e-01 +8.80699605e-03 -2.20021717e-02 -1.23334110e-01 -4.72232205e-06 +3.12953204e-01 +5.02227526e-03 -1.28719226e-01 -2.70884097e-01 +1.45974964e-01 +7.04792291e-02 -2.81762481e-01 -1.90162063e-01 +2.76254505e-01 +1.40890986e-01 -1.22203864e-01 +2.35921070e-01 +2.94309527e-01 -8.74579474e-02 +2.45006934e-01 +7.61931911e-02 +3.13238382e-01 +2.28331000e-01 +1.16650879e-01 +2.37801284e-01 +3.59023921e-02 +1.98627919e-01 +1.99800715e-01 -8.31469446e-02 +1.75335243e-01 -1.31524220e-01 +3.52767110e-02 +1.02702633e-01 +2.19667703e-01 +2.78199017e-01 +1.44149929e-01 +5.43221906e-02 +2.19893411e-01 +2.89558828e-01 +2.76413530e-01 +1.94086149e-01 -1.23012597e-02 +2.94332951e-01 -1.62365139e-01 +1.24976449e-01 +3.09709400e-01 +2.86385100e-02 +3.33453789e-02 +3.17335427e-01 +4.57308322e-01 -5.30502684e-02 +5.34652583e-02 -9.86410826e-02 +4.87613112e-01 +2.53335118e-01 +2.57346004e-01 -2.36057281e-01 +3.37542713e-01 -3.32012028e-02 +4.89870720e-02 -1.46417856e-01 +2.20704719e-01 -8.65580663e-02 +3.01730990e-01 -5.78148007e-01 -3.60943794e-01 -2.80131638e-01 -3.10021102e-01 -2.87739635e-01 -3.70051473e-01 +1.51630685e-01 +2.78054684e-01 -2.30389088e-01 +5.51240891e-02 +9.68085229e-02 -2.21314579e-01 -1.05152451e-01 -1.58267289e-01 -4.52581421e-02 -2.95948982e-01 +6.03219606e-02 -2.45920703e-01 -2.58224368e-01 -3.04494798e-01 -2.02405602e-01 -2.32775524e-01 +2.72200078e-01 -2.93045044e-01 +2.31809095e-01 +1.91380858e-01 
#Parameter# /_20 {25,25} 10001 ZERO_GRAD
-2.99746692e-01 +2.85785764e-01 +3.73040736e-01 +2.13680848e-01 -1.54687855e-02 -2.29782034e-02 +2.63123304e-01 -2.78847694e-01 +2.33597130e-01 +2.64946938e-01 +2.30387717e-01 +2.24062636e-01 +2.35650495e-01 -1.51240975e-01 +5.02701253e-02 -2.17135698e-01 -5.19254915e-02 +3.04996669e-01 -1.57852009e-01 -2.53803253e-01 -7.26423115e-02 -4.72559072e-02 +1.94646403e-01 +8.44714940e-02 +2.92468518e-01 -2.17590153e-01 -1.82840392e-01 +9.50477496e-02 -1.43639445e-01 +8.00756067e-02 -1.15461826e-01 +1.68180674e-01 +2.40037486e-01 -1.78333044e-01 -7.73215070e-02 -2.94088870e-01 +3.07189941e-01 -7.00990856e-02 -2.11331859e-01 +7.30000855e-03 -2.60261297e-01 -1.76277637e-01 -2.83078432e-01 +2.11388558e-01 -2.79485937e-02 -1.34551108e-01 -1.84490792e-02 -3.30901176e-01 -1.72432318e-01 -2.53209293e-01 +4.62451130e-02 -5.50673753e-02 -2.55491972e-01 +1.04807112e-02 -2.05953866e-01 +1.24060087e-01 +2.29169503e-01 +1.72501981e-01 +1.00361541e-01 +4.13485691e-02 +9.10016969e-02 -3.45951408e-01 -1.96655411e-02 +3.37286890e-02 -9.55757871e-02 -1.50107250e-01 -2.36148492e-01 +9.67879146e-02 -1.24700770e-01 +7.81001570e-03 -8.82039741e-02 +1.78678036e-01 -2.80380756e-01 -1.50893822e-01 +9.16029438e-02 +2.17562802e-02 +4.24154401e-01 +2.42224231e-01 -1.74845949e-01 -7.07541183e-02 -2.24695444e-01 -2.84540504e-01 +1.82313889e-01 +2.62053069e-02 -4.20131892e-01 -8.18478465e-02 +2.62810320e-01 +3.05085927e-01 +4.58259508e-02 -2.67015845e-02 +1.48661971e-01 -2.14537472e-01 -3.38684589e-01 -3.04830432e-01 -2.66059518e-01 -3.48154247e-01 +2.15254545e-01 -3.58614385e-01 +2.40351751e-01 +5.60100675e-02 -1.25448391e-01 +4.34957333e-02 +2.71215647e-01 -4.56983417e-01 +2.65680641e-01 +3.06551725e-01 +1.51577681e-01 +1.20338149e-01 +9.81530547e-03 -6.36949465e-02 -2.80043572e-01 -1.16032787e-01 -2.11943820e-01 +1.64341226e-01 -1.91953450e-01 +2.69905686e-01 -2.25554973e-01 +2.81718940e-01 +3.19557577e-01 +1.24303870e-01 -1.81155339e-01 +8.28364193e-02 +2.48330265e-01 +3.27236414e-01 -2.87509501e-01 -9.42185819e-02 -3.83063674e-01 -1.52641842e-02 +1.42777786e-01 +1.63165554e-01 +2.37797469e-01 +2.73561567e-01 -3.51723790e-01 +8.05031285e-02 +1.39948830e-01 +1.66607186e-01 +1.87179446e-01 +9.39686075e-02 +1.64394036e-01 -4.42982838e-02 -2.19325483e-01 -2.33903676e-01 -2.23971978e-02 +3.41787547e-01 -1.94489717e-01 +2.82413393e-01 -1.93120122e-01 +3.50402415e-01 -1.37744352e-01 -2.80287176e-01 +2.50505537e-01 +2.57848650e-01 -1.69002086e-01 +2.35497430e-01 +1.36553794e-01 -4.36035963e-03 -6.14783764e-02 -4.43323284e-01 +1.38489783e-01 -9.59914103e-02 -1.65837675e-01 +9.10535157e-02 +2.31633872e-01 +1.93704084e-01 -2.96528369e-01 +3.57730538e-01 -3.27679008e-01 +1.66067660e-01 -1.35074586e-01 +3.87080103e-01 -2.35072464e-01 -2.57636517e-01 +1.52436227e-01 -2.05940172e-01 +4.23619784e-02 +1.96267560e-01 +1.37092307e-01 -8.80009234e-02 +1.18309841e-01 +3.24378729e-01 -1.62649844e-02 -3.51807438e-02 +3.55669707e-01 +8.50869715e-02 -1.94546506e-01 +2.79996008e-01 +2.01518953e-01 +2.55940467e-01 +1.27614975e-01 -1.82538420e-01 -1.29282862e-01 +3.12845021e-01 -6.22290708e-02 +2.08509594e-01 +7.92527944e-02 +8.22779909e-02 -3.35985161e-02 +2.66990542e-01 +1.00640014e-01 +6.85170740e-02 -3.08116853e-01 +8.61577839e-02 +1.92177385e-01 +3.05293240e-02 -2.93010414e-01 +9.91905034e-02 +7.30592292e-03 -8.52130502e-02 -2.90212899e-01 -1.52455568e-02 -3.92443776e-01 -2.96509236e-01 -2.61409938e-01 +1.46329412e-02 -2.91044325e-01 +2.14238063e-01 +1.16063215e-01 -2.55907863e-01 +2.87966400e-01 -2.81956255e-01 -8.38825330e-02 -2.34302148e-01 -9.46697071e-02 +3.34926732e-02 -2.59549916e-01 -2.64502224e-02 -3.85113597e-01 -1.75457209e-01 +2.58631766e-01 -2.22249687e-01 -1.87297687e-02 -2.52629519e-02 -1.17195472e-01 +1.86619218e-02 -2.45360330e-01 -1.53910480e-02 +3.38895857e-01 +9.25292894e-02 -9.38830748e-02 +2.01443672e-01 +1.44368306e-01 +2.92263895e-01 -1.03793122e-01 +1.08736210e-01 -1.17312814e-03 +4.98023368e-02 -5.02180159e-02 -1.27681673e-01 -1.96273369e-03 +4.81628701e-02 +2.18641266e-01 -1.67524535e-02 -1.90414265e-01 -2.93537863e-02 +8.42559859e-02 +1.59876332e-01 +9.66345146e-02 +3.46881926e-01 -1.64051071e-01 +1.91655874e-01 +1.31380841e-01 -2.62270600e-01 +3.45002502e-01 -1.92445785e-01 +2.40322769e-01 -1.23908378e-01 -4.05444801e-02 +3.27067882e-01 -2.06203520e-01 -1.80042788e-01 +3.39091450e-01 -8.26145262e-02 +1.48827180e-01 -3.01393300e-01 +6.69010878e-02 +2.87424419e-02 +1.01143420e-01 +3.27459037e-01 -4.26318496e-01 -1.99961793e-02 -2.21059233e-01 +3.08421880e-01 -2.51246631e-01 -4.79058772e-02 -3.78168523e-02 -3.60308379e-01 -1.75734356e-01 +2.62867734e-02 +1.97125688e-01 +2.58425958e-02 +2.28155822e-01 -2.47702003e-01 +3.50604177e-01 +3.77570808e-01 -8.14733505e-02 +3.13287526e-01 +1.29914731e-01 -1.00916490e-01 -3.17526050e-02 +1.19301721e-01 +2.08636820e-01 -2.55568534e-01 -3.06983497e-02 -1.86922863e-01 -3.40315074e-01 +2.52415508e-01 -3.64580825e-02 +5.18092252e-02 +1.29109636e-01 +2.00186476e-01 -2.60047093e-02 -1.98119193e-01 -2.59563494e-02 -1.18259855e-01 +2.92272121e-01 -1.85555220e-01 -7.02153444e-02 -9.23473760e-02 +1.07193798e-01 -2.27766663e-01 +1.19470410e-01 +3.54202807e-01 -9.43004936e-02 -3.30493122e-01 -1.64489880e-01 -2.92169571e-01 -1.80307418e-01 +3.18683624e-01 +2.38481581e-01 +2.38016367e-01 -2.92865336e-01 -2.77274191e-01 -3.09253752e-01 -2.71930516e-01 +4.04707342e-01 -2.44223073e-01 -4.97928634e-02 +1.26196623e-01 +5.22316853e-03 +1.91563234e-01 -2.40839049e-02 +2.95128614e-01 +2.82991260e-01 +2.10022882e-01 +3.83792147e-02 -3.03113759e-01 -1.29463851e-01 -2.34747320e-01 -1.11034065e-01 +1.25036137e-02 +1.54974654e-01 -2.19271541e-01 +4.61707488e-02 +3.05639088e-01 +6.69680983e-02 -3.37461323e-01 -9.63245630e-02 -1.89322531e-01 +4.18053102e-03 -3.62558603e-01 -1.07389301e-01 -3.54609042e-01 -9.54620838e-02 -7.40004936e-03 +3.66830021e-01 -1.10449858e-01 +1.74272045e-01 -2.30450645e-01 +1.86010927e-01 -8.63663405e-02 -1.64727680e-02 -1.92537934e-01 -1.47141531e-01 +1.06709570e-01 -2.53777385e-01 +1.48828760e-01 +3.14091325e-01 -2.62266368e-01 -5.95938822e-04 +1.70546159e-01 +1.48617640e-01 +3.32932800e-01 -3.50894660e-01 -1.19206555e-01 +3.93447459e-01 -5.44597320e-02 +2.76577443e-01 -4.92728911e-02 +4.18813139e-01 -1.31472334e-01 +3.31055641e-01 +1.68162167e-01 +2.47711822e-01 -1.21366598e-01 -1.27719268e-01 +9.86810103e-02 +2.39683196e-01 +1.60277590e-01 +2.46558160e-01 -2.44329140e-01 +1.23407967e-01 -2.61012286e-01 -2.26984113e-01 -8.72489214e-02 -2.54211068e-01 -2.00626656e-01 -1.44960001e-01 +6.95726126e-02 +3.20240468e-01 +1.54707849e-01 +1.29991278e-01 -2.73045570e-01 +2.41653025e-01 +5.05368710e-02 -1.38314560e-01 +1.48016438e-01 +3.30163032e-01 +8.68727043e-02 +2.22316667e-01 +2.05899656e-01 -2.98283428e-01 +2.45251060e-02 -7.13784173e-02 -1.16103373e-01 +5.89261092e-02 -4.89468649e-02 -3.30389798e-01 +4.86797057e-02 -2.20141590e-01 +6.92937300e-02 +3.24772984e-01 +1.79935619e-01 +2.02068724e-02 -1.44400924e-01 -2.81253189e-01 -2.18776181e-01 +3.15981239e-01 -2.05133587e-01 -2.86317766e-01 +2.63655484e-01 -2.50309020e-01 +1.03118800e-01 -8.33366811e-02 -2.37105668e-01 +1.64244711e-01 +3.73793572e-01 -2.80821651e-01 -2.61144549e-01 -2.64820196e-02 -1.24182465e-04 -3.51704091e-01 -6.67837448e-03 +7.00707734e-02 -1.96074232e-01 -1.41473874e-01 -2.61523109e-02 +6.04963191e-02 +4.28829389e-03 -9.98171419e-02 -1.13413192e-01 -3.65328789e-01 -2.40594149e-01 +2.40400523e-01 -2.72957414e-01 -1.14082381e-01 +8.56496021e-02 +7.84156919e-02 +2.68087178e-01 -3.06054838e-02 +3.54836643e-01 -1.38748080e-01 +2.30367351e-02 +3.38152289e-01 +2.04375893e-01 -3.21023911e-01 +7.15862438e-02 -6.43563047e-02 -2.47066379e-01 -1.42570883e-01 -2.13342205e-01 +2.09742069e-01 +2.07084671e-01 -3.59073132e-01 +3.04539055e-01 +3.71041089e-01 +1.36409089e-01 -2.88039893e-01 -2.59642452e-01 -1.44715652e-01 -1.79146111e-01 -6.29588962e-02 -4.50659096e-02 -3.07274431e-01 +1.02528229e-01 +1.84897944e-01 -2.75851309e-01 -7.55399466e-02 +2.57027775e-01 +1.08678557e-01 +2.37688467e-01 +3.00503105e-01 +7.91492537e-02 -3.32816333e-01 -6.20985329e-02 -2.42369145e-01 +8.40809122e-02 +4.24010754e-02 -8.04314762e-02 -2.92398006e-01 +3.70193243e-01 +2.60228872e-01 +1.33763418e-01 -3.06287766e-01 +1.16014771e-01 -3.35232466e-01 +2.51006871e-01 -8.89783446e-03 +9.19813216e-02 +5.35257459e-02 +3.06825340e-01 -7.28618950e-02 +1.21828072e-01 -3.28954905e-02 +2.95495391e-01 -3.28870088e-01 -1.74427494e-01 -1.26644209e-01 -2.88597792e-01 -1.68709010e-01 -3.31615627e-01 -8.00207108e-02 +1.51515111e-01 -2.26433918e-01 -2.03437969e-01 +3.19172405e-02 +3.02862287e-01 -1.89472490e-03 +4.78724279e-02 +4.02609631e-02 +2.76259452e-01 -2.85391480e-01 +2.70618021e-01 -2.38445640e-01 +1.97887886e-02 +2.25871634e-02 +2.96005495e-02 +2.75421023e-01 +2.08600536e-01 -2.38864139e-01 -1.78586990e-01 -1.85135707e-01 -4.15070206e-01 +2.54192669e-02 +9.03127864e-02 -2.24217817e-01 +3.49794894e-01 +1.99141875e-01 +2.26478223e-02 -1.69657812e-01 -1.39745757e-01 +2.65914023e-01 +2.92833954e-01 -2.67592937e-01 -2.32710958e-01 -9.97562483e-02 +2.21970707e-01 +1.26358688e-01 -1.19369783e-01 -1.27614111e-01 +3.05728734e-01 +3.28968406e-01 +7.76388049e-02 +2.48370208e-02 +2.69070476e-01 -2.89686143e-01 -2.60156453e-01 -2.00319454e-01 -2.42007479e-01 -1.92974329e-01 +1.02294542e-01 +9.76695344e-02 +1.93281859e-01 -1.16377257e-01 -7.77082071e-02 -2.52156615e-01 -2.65359372e-01 +2.04561844e-01 +1.20577529e-01 +2.53629088e-01 +7.45132491e-02 -2.83261120e-01 +1.76250875e-01 -2.55356252e-01 +3.32579076e-01 -2.99888730e-01 -1.38813689e-01 -4.79197465e-02 +2.69219130e-01 -2.82150149e-01 -1.35902792e-01 +1.97082758e-01 +9.81797874e-02 +3.24857682e-01 -1.97760239e-01 -2.86438018e-02 -2.37977430e-02 +2.30344906e-01 +2.34643906e-01 +2.95701958e-02 +7.09945932e-02 +7.25180656e-02 +9.51492712e-02 -2.76994616e-01 -8.68086368e-02 -2.65865803e-01 +1.85719237e-01 +2.85510600e-01 -3.18382263e-01 -1.35578394e-01 +2.59282351e-01 +8.96237325e-03 -8.72999709e-03 -3.85561079e-01 +1.86392903e-01 +8.61876607e-02 
#Parameter# /_21 {25} 401 ZERO_GRAD
+6.00009970e-02 +1.66475058e-01 +2.85399646e-01 +9.40284412e-03 -3.42081487e-01 +6.95131999e-03 -2.07720280e-01 -1.48737177e-01 -3.70418787e-01 -2.88121123e-02 -2.45283931e-01 -4.58371900e-02 +5.15570380e-02 +2.05535010e-01 +1.50326937e-01 -2.68824548e-01 +6.94818445e-04 +7.86202922e-02 -3.67347568e-01 -3.61131251e-01 -2.82054752e-01 +6.64619207e-02 +3.01865041e-01 +3.98640856e-02 +2.60234475e-01 
#Parameter# /_22 {25} 401 ZERO_GRAD
+9.59784687e-02 +1.60523415e-01 -6.84727430e-02 -6.86576664e-02 +1.03625655e-01 -6.35703206e-02 +2.59836972e-01 -2.85027325e-02 +2.16302872e-01 -1.95235923e-01 -1.52870923e-01 +8.64266753e-02 -2.97482908e-01 +1.42578781e-01 +2.72571504e-01 +1.88638806e-01 +1.90715790e-01 -2.75502950e-01 -3.08584034e-01 -1.59406513e-01 -1.13381639e-01 +3.21085334e-01 -1.40127137e-01 -2.46575043e-01 +1.78994775e-01 
#LookupParameter# /_0 {3,2} 97 ZERO_GRAD
-1.12935698e+00 -6.40377581e-01 -2.35015839e-01 +1.07549310e+00 +2.46152896e-02 +3.54994237e-01 
