#Parameter# /_1 {2,25} 801 ZERO_GRAD
-4.87743318e-01 +3.31687480e-01 -3.45285326e-01 +1.05752394e-01 -3.32270265e-02 -5.53669870e-01 -4.36308980e-01 +4.62461025e-01 -2.56755859e-01 +7.24567950e-01 -4.15850729e-02 -1.03854455e-01 +3.59767675e-01 +3.43565315e-01 +2.37564623e-01 +8.45495611e-02 +7.31394291e-01 -2.69043297e-01 +5.96269608e-01 -5.24215877e-01 -7.86268413e-02 +4.50125694e-01 -1.53853148e-01 -3.83812457e-01 -1.88797817e-01 -1.78734124e-01 -2.31094435e-01 +4.58889127e-01 -6.71783537e-02 +3.77981931e-01 +4.42328304e-01 -5.84346473e-01 -2.49568671e-01 -1.28304005e-01 -6.87482715e-01 +6.62431538e-01 +4.28764999e-01 +2.04237938e-01 +2.35077709e-01 -4.64277774e-01 +5.89579225e-01 +9.21337306e-02 -6.08732224e-01 -1.70537531e-01 -2.61240900e-01 +5.35517275e-01 +1.69693992e-01 +3.84832978e-01 +3.56902540e-01 +4.62237537e-01 
#Parameter# /_2 {2} 33 ZERO_GRAD
+4.84328657e-01 +8.68312776e-01 
#Parameter# /_3 {25,3} 1201 ZERO_GRAD
+1.80999488e-01 -2.84375876e-01 +6.21470630e-01 +2.23874673e-01 -1.70558184e-01 -4.30251837e-01 -4.13136572e-01 -2.32314646e-01 -1.10046109e-02 +3.47898901e-01 +4.62112814e-01 -5.00692427e-01 -2.41108723e-02 -5.32080412e-01 -2.59134293e-01 +3.61676514e-01 +1.27529219e-01 -1.60274968e-01 +1.12529173e-01 +5.01521230e-01 +1.39952302e-01 +5.09851754e-01 +3.43782663e-01 -3.96004915e-01 +2.95620084e-01 -2.71118701e-01 -1.04433477e-01 +4.41082239e-01 +3.80533695e-01 +3.89141321e-01 +2.10461423e-01 -4.11989510e-01 -1.17302269e-01 +3.55277956e-01 -1.71382353e-01 +9.33493823e-02 -1.82386696e-01 -4.05891925e-01 -3.00865769e-01 +2.05177739e-02 -4.49220926e-01 +3.10286015e-01 +6.18477054e-02 -3.95598382e-01 +1.58581153e-01 +2.92833626e-01 -3.20682704e-01 -5.40784836e-01 +3.19240391e-01 -2.72157304e-02 +2.13996127e-01 -1.93529427e-01 +1.89004302e-01 +8.19991380e-02 +3.95056337e-01 +2.05709800e-01 -1.25095710e-01 +3.26333493e-02 +2.80274689e-01 +3.29538763e-01 +6.50589466e-01 +4.52887118e-01 +5.38322449e-01 +1.56121805e-01 +4.57793862e-01 +4.94878143e-01 +4.53747243e-01 +2.67184712e-02 -4.91982251e-02 +2.03117400e-01 -3.01179513e-02 +2.39915699e-01 +4.06309426e-01 +2.94634014e-01 +4.94890422e-01 
#Parameter# /_4 {25,25} 10001 ZERO_GRAD
-2.64226466e-01 -3.09797674e-01 -1.79723591e-01 -3.63562226e-01 +2.97445357e-01 +1.15563765e-01 +3.49884182e-01 -5.47218230e-03 +6.77569509e-02 +1.38272837e-01 +1.89557314e-01 +3.07137728e-01 +2.09819525e-01 +6.48691654e-02 -1.50665626e-01 -3.78093272e-01 +4.42472994e-02 +5.82014441e-01 -6.42349422e-02 +3.23695354e-02 +3.21959704e-02 +4.18034033e-04 +2.30667621e-01 +2.56271362e-01 -4.03593004e-01 -4.29393083e-01 -3.86284560e-01 -3.24278891e-01 -5.27217448e-01 -4.33548421e-01 +2.00786144e-01 +2.08373711e-01 -3.06377262e-01 +1.65563658e-01 +2.19265949e-02 +6.25207424e-02 -1.06874809e-01 +1.68934707e-02 +1.13786764e-01 +1.07213985e-02 +3.17056514e-02 -2.45301872e-01 -5.46136498e-01 +8.70351270e-02 -4.20482486e-01 -2.56278604e-01 -3.36380094e-01 -5.12433564e-03 +1.49615547e-02 +1.43101327e-02 -2.08896443e-01 +1.38487257e-02 +8.73117521e-02 -5.09433985e-01 -2.37682372e-01 +2.55685121e-01 -1.56994179e-01 +5.49483076e-02 -3.96435797e-01 -3.55239511e-01 -5.80746494e-02 +1.38062790e-01 -8.09802040e-02 +2.21366122e-01 -2.13839531e-01 -5.08969784e-01 -2.82789558e-01 -4.60387498e-01 +2.00591594e-01 +3.61748368e-01 +1.42286092e-01 +1.58095449e-01 -1.86188385e-01 +3.70945334e-01 +1.34845883e-01 +2.38953069e-01 -4.10757124e-01 +3.03137660e-01 +3.01594995e-02 -3.77886862e-01 +4.61883694e-02 -3.15698087e-01 -2.96138048e-01 +2.39959046e-01 -2.88900346e-01 -2.87346572e-01 -4.07520123e-02 -5.38254529e-02 -3.04810107e-01 -3.05341929e-01 -2.68856525e-01 +4.90142256e-02 -2.12575659e-01 -2.49184534e-01 +1.87048186e-02 +1.21848144e-01 +2.54792631e-01 -1.05431993e-02 +3.06279659e-01 -1.90606132e-01 +2.21749209e-02 +4.78142500e-01 +1.02638431e-01 +8.57189000e-02 -3.35306793e-01 +3.97099346e-01 +6.96921423e-02 -4.91683632e-02 +3.97523642e-02 -4.37045723e-01 +1.25055179e-01 +8.84458721e-02 +2.69079283e-02 -2.65680343e-01 +2.64358103e-01 +3.02023768e-01 -3.83776665e-01 -1.83245048e-01 +2.08345115e-01 -3.49015519e-02 +1.06055308e-02 +1.25679508e-01 +1.90458700e-01 -2.14033753e-01 +1.89334914e-01 -4.43538934e-01 -2.98339337e-01 -3.42171758e-01 +4.18594405e-02 -2.27876306e-01 +2.73549378e-01 -1.73817918e-01 -1.35141686e-01 +2.90495634e-01 -1.73967153e-01 -3.71960998e-01 -2.63705879e-01 -5.43102212e-02 +3.55613232e-01 -4.50653397e-02 -2.60488242e-01 -2.32521296e-01 -2.44450390e-01 -4.57078218e-02 +5.04411161e-02 -5.31696439e-01 -3.35034519e-01 -1.79486364e-01 -8.00444335e-02 -9.74636823e-02 -4.65419739e-01 -4.58528370e-01 -1.65436581e-01 -1.45205304e-01 -1.68519884e-01 -6.31956682e-02 -8.45386088e-02 -5.68481803e-01 +9.60633717e-03 -1.75847590e-01 +1.33768588e-01 -1.80517450e-01 +2.84529310e-02 -1.47958949e-01 +1.61195189e-01 -1.09916419e-01 -1.48292288e-01 -1.21452108e-01 -1.51403202e-02 -3.22233737e-01 +2.36045137e-01 +1.41363949e-01 -5.59278727e-01 +1.10964201e-01 +1.89224463e-02 -4.25062746e-01 -8.66921395e-02 -2.56441385e-01 -2.66121812e-02 +7.76822194e-02 -2.52439231e-01 +6.04696050e-02 -4.41544384e-01 -1.11712314e-01 +7.33038262e-02 -4.14889544e-01 -4.05427776e-02 +2.88448542e-01 -2.13929385e-01 +2.06356138e-01 -3.40935528e-01 +2.99741894e-01 +3.98095936e-01 +1.19882777e-01 +2.51159996e-01 +2.51451403e-01 -6.36543557e-02 -4.14195098e-03 +3.06621045e-01 -7.79040977e-02 +1.39834434e-01 -2.44866118e-01 -2.72786200e-01 -1.39330193e-01 -8.35932326e-03 -2.70713151e-01 -1.44519001e-01 +2.27660418e-01 +9.19070095e-02 +1.44344211e-01 +8.76354575e-02 -4.94574383e-02 -4.42236774e-02 -1.10654965e-01 +7.32235834e-02 +1.37111038e-01 +4.88258004e-02 +3.88197571e-01 +3.60858083e-01 +2.00752690e-02 +1.27655447e-01 -2.14981556e-01 +6.39325902e-02 +5.85039426e-03 +1.25408536e-02 +3.17312449e-01 +2.34575436e-01 +3.75492990e-01 +1.95912480e-01 -7.90728182e-02 -1.61536932e-01 -3.26125830e-01 +5.32433093e-01 +3.40019241e-02 -4.94474405e-03 -2.12961547e-02 -2.45691448e-01 +8.46480429e-02 -2.24297240e-01 -8.99759401e-03 +5.59587963e-02 +3.46576989e-01 +6.44198731e-02 +3.15812938e-02 +3.83748949e-01 -8.83167759e-02 +3.22257131e-01 +1.31870344e-01 +2.00415343e-01 +3.10842156e-01 +2.69543618e-01 -5.46874925e-02 +1.84758618e-01 -5.27977288e-01 -2.21637905e-01 -3.46333772e-01 -2.78340578e-02 -4.06801075e-01 +9.13686678e-02 +1.52768627e-01 -2.25003883e-02 -1.67319968e-01 -5.15455127e-01 -3.07507873e-01 -1.36193946e-01 +2.28384305e-02 +2.59233922e-01 -3.93083721e-01 +2.17132434e-01 -6.08074851e-02 +1.36052281e-01 +2.78610557e-01 -1.18459612e-01 -2.38795832e-01 -7.20372796e-02 +5.27303040e-01 +4.39857483e-01 -8.20590854e-02 +4.35334921e-01 -1.93356946e-01 +2.72097196e-02 -1.28504500e-01 +4.18939590e-01 +4.19010967e-01 -2.70724952e-01 +4.84331667e-01 +6.33396432e-02 -3.30461472e-01 +1.16943337e-01 -1.51772097e-01 -5.12900539e-02 -2.18560621e-01 -1.68692321e-02 -1.51883885e-01 +2.26727799e-01 -1.52297616e-01 +3.11225921e-01 +2.73787320e-01 -1.51227459e-01 -7.75666013e-02 +5.22510707e-02 +2.31838927e-01 -2.18592241e-01 +4.12875921e-01 -3.17327231e-01 +3.95657532e-02 +3.74668419e-01 +3.66937757e-01 +3.08218837e-01 -3.46085995e-01 +4.17814590e-02 -2.99589753e-01 +3.13236825e-02 +2.19758451e-01 +2.40162477e-01 -2.86857337e-02 +4.11445508e-03 -3.32190007e-01 +2.70709582e-02 +9.05921776e-03 +2.97051705e-02 +2.75820106e-01 +3.60563308e-01 -4.36742038e-01 +4.03754592e-01 +4.69247580e-01 +3.40103328e-01 +3.73504490e-01 +2.31133942e-02 -2.47299671e-02 -2.47378156e-01 +5.41374862e-01 +3.00717175e-01 -2.78544545e-01 +2.79982567e-01 -2.07767874e-01 -1.56898908e-02 +6.66873949e-03 +3.33248079e-02 -2.04754755e-01 -1.81097075e-01 -1.13035562e-02 +5.74295640e-01 +3.80527407e-01 -3.67044248e-02 +3.84628654e-01 -9.32713300e-02 +4.65933889e-01 +2.87482679e-01 +1.31723329e-01 -4.85810548e-01 +5.81206493e-02 -6.08854033e-02 -1.21302880e-01 -1.97932273e-01 -2.46989548e-01 -1.95896864e-01 -4.57444377e-02 +1.57500342e-01 -3.75149846e-01 +1.58466682e-01 -4.41618502e-01 +9.23035815e-02 -3.30121607e-01 +2.61605710e-01 +1.67332664e-01 +3.61654758e-02 -4.98656601e-01 +1.53304040e-01 -9.68527049e-02 -3.39586765e-01 -1.38855144e-01 -2.99280643e-01 +2.55655617e-01 -1.23339161e-01 -2.55296767e-01 -1.02125242e-01 -3.61148447e-01 -5.43255746e-01 +1.28456473e-01 -3.58534008e-01 +1.10637015e-02 -5.16713619e-01 +1.54341355e-01 -7.41845444e-02 -3.06487352e-01 +3.74555141e-02 -3.20091486e-01 +1.69719681e-01 -1.39659286e-01 -1.76948905e-01 -1.87089577e-01 -4.57488030e-01 -4.01458412e-01 +7.77339339e-02 +1.82950288e-01 -4.33098704e-01 -1.68649003e-01 +2.06540167e-01 +6.98220804e-02 -2.19380662e-01 +1.14270896e-02 -2.29553863e-01 -7.13312533e-03 -3.07473261e-03 +3.00697625e-01 +2.08855882e-01 -2.07834870e-01 +1.49768284e-02 -9.68708545e-02 +1.15807191e-01 +2.21470818e-01 +1.59300536e-01 -1.56101108e-01 -2.55191982e-01 -2.95875371e-01 +3.01869392e-01 +1.08588316e-01 -8.58403966e-02 +1.61064297e-01 -5.48556373e-02 -7.56165907e-02 +1.32450061e-02 -4.67337035e-02 -2.45241389e-01 +1.53271526e-01 -3.09587996e-02 -8.95246193e-02 +5.24607420e-01 -1.29783332e-01 +4.48462844e-01 -1.48215845e-01 +4.75519925e-01 -1.42445460e-01 -1.86744303e-01 +2.69937962e-01 -2.50176519e-01 +4.43980426e-01 +5.53827807e-02 +3.13324571e-01 -6.22033998e-02 -5.56919873e-02 +1.37145638e-01 -1.47568092e-01 -1.00831129e-01 -2.96157539e-01 +2.37964153e-01 +4.50549394e-01 -1.76598728e-01 -1.94099173e-02 -4.57416996e-02 -1.55650839e-01 -2.99411178e-01 +3.89593579e-02 -1.24837942e-01 +2.12153569e-02 -3.98885489e-01 +6.17378354e-02 +2.97453672e-01 -2.92615652e-01 -1.94335178e-01 -4.43871245e-02 -2.60560542e-01 -2.48656154e-01 -3.05077106e-01 -6.73927218e-02 -2.87611425e-01 -4.48708951e-01 -2.84291297e-01 -4.29488778e-01 -3.95042032e-01 -3.57941985e-01 -4.16248679e-01 +1.91107303e-01 -9.38018784e-02 -3.74717236e-01 -3.53267819e-01 +2.04732105e-01 -1.45314515e-01 +2.36391515e-01 -2.27080345e-01 -3.11755598e-01 +1.06376342e-01 +4.50366229e-01 -4.41212118e-01 -2.64492005e-01 -4.26567584e-01 -4.78692472e-01 -2.16803640e-01 -4.53551300e-03 -1.97649285e-01 -2.81939834e-01 -6.01370275e-01 -4.25941855e-01 -4.37683553e-01 +7.51676857e-02 +8.79092738e-02 -4.13391650e-01 -3.56552899e-01 -3.35238338e-01 +7.94314742e-02 +2.52130091e-01 -5.15087433e-02 +2.94304848e-01 -3.87664400e-02 -2.99976945e-01 +7.89391994e-03 +1.12122037e-01 +3.32324445e-01 +1.53885528e-01 -9.42144468e-02 +2.01512575e-01 -8.77015814e-02 -3.60763907e-01 +2.29243585e-03 +1.43664047e-01 -1.26137033e-01 +2.68273026e-01 +2.85787821e-01 +4.17701721e-01 +1.21085964e-01 +2.27608066e-02 -2.58101434e-01 +5.24642840e-02 +4.78529394e-01 +1.93138003e-01 +2.87833273e-01 +2.19334602e-01 +3.95918965e-01 +3.11976790e-01 -8.18447396e-02 +8.77129287e-02 -5.49938492e-02 -2.82173097e-01 +1.32733166e-01 -1.80878818e-01 +1.24129429e-01 +2.99170241e-02 -1.25352070e-01 +1.30994305e-01 +2.96882510e-01 -8.56962278e-02 +4.28736895e-01 +5.14694005e-02 +2.88410634e-01 -2.27339774e-01 +4.38461989e-01 +2.86903411e-01 -1.04564883e-01 +1.42233595e-01 +3.33170384e-01 +4.37718511e-01 +2.73420990e-01 -1.04404338e-01 +9.07610506e-02 +4.05765653e-01 -1.60170838e-01 +1.97369173e-01 -9.22666341e-02 -2.07337037e-01 +1.41244084e-01 +2.23866358e-01 +2.05139443e-01 +3.49362403e-01 +4.19699460e-01 +4.26328868e-01 -1.69939533e-01 +2.90606916e-01 -2.81807035e-01 -9.34634507e-02 -3.71420801e-01 +7.45959729e-02 -3.24770398e-02 -3.79405886e-01 -4.11425307e-02 +1.60011336e-01 -1.91255301e-01 +2.51088649e-01 +1.44934669e-01 +1.13437874e-02 -2.79235214e-01 +2.49328315e-01 +4.14628446e-01 +2.38764003e-01 +3.74390259e-02 +1.91718072e-01 +2.78978199e-01 +1.57162860e-01 -3.12254161e-01 +2.40053281e-01 +2.41024829e-02 -2.37881765e-01 +5.28387845e-01 +2.34044716e-01 +3.00529480e-01 +7.55144209e-02 -1.87517419e-01 +2.32666239e-01 -1.06086642e-01 -2.05845445e-01 +7.55153447e-02 +3.13529849e-01 +2.82411754e-01 -3.63942720e-02 +1.82657138e-01 -2.11694464e-01 +4.47775453e-01 +3.68982613e-01 -2.19358414e-01 -9.50892046e-02 -1.70953840e-01 +4.26280826e-01 +4.02481347e-01 -1.99563861e-01 -1.46832421e-01 -5.77943102e-02 -1.15670927e-01 +4.86956358e-01 +2.43690059e-01 -6.85744658e-02 +2.31961161e-02 -1.91897020e-01 +2.07920596e-01 -1.99252944e-02 -1.13466159e-01 
#Parameter# /_5 {25} 401 ZERO_GRAD
-1.89402774e-01 -4.97605860e-01 +1.39785055e-02 -6.96595982e-02 -3.95175070e-01 +1.22218676e-01 -3.17468166e-01 -2.12125808e-01 -2.94863135e-01 +7.78341144e-02 +2.70976741e-02 -1.88605651e-01 -3.70130360e-01 +2.18447015e-01 -2.34944969e-01 -3.59192550e-01 +2.43937790e-01 -5.14675677e-01 -8.44678134e-02 -3.34936082e-01 -4.22005236e-01 -3.77348461e-03 -1.61202490e-01 -4.39457521e-02 +2.17137322e-01 
#Parameter# /_6 {25,3} 1201 ZERO_GRAD
-3.05165887e-01 +2.28810310e-01 +2.18181252e-01 +2.41512299e-01 +1.22433662e-01 +1.69020474e-01 -3.00007045e-01 -4.40444112e-01 -3.69700193e-01 +1.22591734e-01 -3.48631620e-01 -1.04270816e-01 -4.43001390e-01 -2.27370948e-01 -1.39659852e-01 +4.19622302e-01 -2.16590390e-01 +3.52274060e-01 +6.12139702e-04 -2.00624257e-01 -4.85057831e-02 -1.14894956e-01 +2.68489420e-01 +4.22164142e-01 +4.28296387e-01 -6.96983337e-02 +4.22432125e-01 +5.29417396e-02 +2.36608326e-01 -2.77100146e-01 +2.12797880e-01 -4.32892859e-01 +3.26979041e-01 -1.88717782e-01 -2.64032513e-01 -1.46117985e-01 -4.59928066e-01 +2.82576859e-01 -1.03833497e-01 +1.60292566e-01 +3.87929499e-01 -1.14678830e-01 +2.26159513e-01 +3.00356448e-02 -1.73544884e-03 -1.55066431e-01 -1.21537268e-01 -9.75572169e-02 -6.72594309e-02 +2.83460855e-01 +1.43962502e-02 -3.78156334e-01 +3.51956844e-01 +3.69591117e-02 -3.47569048e-01 +3.72150183e-01 -3.75977486e-01 -5.01376390e-03 -3.57215405e-02 +2.53894448e-01 +2.28646696e-01 +1.48646832e-01 -3.32777679e-01 +1.46747530e-02 +8.31618905e-02 -3.10176820e-01 -2.08392739e-03 -8.04788172e-02 -1.99542969e-01 -5.71531057e-02 +1.56645775e-02 -1.03977442e-01 +4.53442693e-01 -3.49992335e-01 +3.47045839e-01 
#Parameter# /_7 {25,25} 10001 ZERO_GRAD
+2.54909396e-02 -4.67925966e-02 -3.26646328e-01 +9.08818543e-02 -3.22164178e-01 -1.01922274e-01 +5.27366698e-02 +1.09160960e-01 -1.60600841e-02 +1.45355493e-01 +5.70656061e-02 +3.50616574e-02 -1.31649137e-01 +2.17132330e-01 -5.60238063e-02 -3.31768483e-01 +7.17346072e-02 -2.81517267e-01 -2.98661768e-01 -1.35802478e-01 +5.21954894e-03 +1.81116998e-01 +1.90622330e-01 +1.03041917e-01 +1.66245639e-01 +1.90374911e-01 +4.39185500e-02 +2.11220860e-01 -2.62891680e-01 -1.07823759e-01 -1.17449969e-01 +1.48259908e-01 +4.84709144e-02 +1.95260882e-01 +2.42488682e-01 +3.29348803e-01 +3.21120501e-01 +4.65500951e-02 -1.70869544e-01 -1.75702646e-01 -2.87309587e-02 +1.94982588e-01 -3.41348499e-01 -2.34965712e-01 +5.06502390e-03 +1.03166699e-02 +2.04941928e-02 +2.34922528e-01 +1.67917848e-01 +2.53009021e-01 -1.54844522e-02 +1.49562061e-02 -3.37264061e-01 -1.15493074e-01 -3.39261740e-01 -3.26361388e-01 -2.98865825e-01 +2.70729601e-01 +3.69927287e-03 -2.51117051e-02 -3.17689210e-01 +1.91774964e-03 -1.56148031e-01 +1.57727659e-01 +3.08994710e-01 +1.34385169e-01 +3.07029486e-03 +3.45016897e-01 +1.90749168e-02 -2.15800941e-01 +2.26425171e-01 +9.49102342e-02 +2.15029716e-03 -1.30476475e-01 +3.16527128e-01 +2.81406522e-01 -1.86748207e-02 +6.33102953e-02 +2.96238184e-01 +8.00944865e-02 +2.94113874e-01 -1.34176761e-01 +2.88955212e-01 -9.94077176e-02 +2.35182881e-01 +1.65775001e-01 +8.27011466e-03 -9.40807164e-02 -3.08941185e-01 -1.96979836e-01 -3.79870236e-02 -2.14451626e-01 -1.60356790e-01 -1.71478197e-01 +5.94767332e-02 -3.36610883e-01 +2.19135165e-01 +2.43591428e-01 +1.95994079e-01 +1.96440995e-01 -2.57100493e-01 +1.51548922e-01 -1.57696605e-02 +3.23657334e-01 -2.03715846e-01 +1.94544733e-01 +1.76208496e-01 +1.71854377e-01 +2.63009071e-01 +5.21756411e-02 -1.33820876e-01 +2.30024338e-01 +2.53072917e-01 -1.14075735e-01 +2.68063366e-01 +1.97827637e-01 +2.35213757e-01 +1.53464407e-01 -2.79005647e-01 +1.56545639e-02 +1.32993937e-01 -2.16137722e-01 -2.10200757e-01 +1.56063735e-02 -1.17370889e-01 -1.10605329e-01 -3.31588119e-01 -1.77630395e-01 +7.08677471e-02 -8.61915648e-02 +1.56535029e-01 +1.43316388e-03 -1.92070901e-02 -2.84396410e-01 +2.33124077e-01 -1.65772915e-01 +3.42176557e-02 -2.55059451e-01 -3.37505579e-01 -9.32980478e-02 +2.41741300e-01 -3.10465693e-02 -3.14436346e-01 +1.54848039e-01 +1.37733757e-01 -1.23011500e-01 +1.14408135e-02 +1.58404708e-01 +6.59778714e-02 -2.62320936e-01 +2.04483569e-01 -1.05420247e-01 -2.33548075e-01 -3.07458758e-01 -1.31771103e-01 -1.32733315e-01 +2.87561834e-01 +2.14587748e-01 -2.68319905e-01 -9.80688483e-02 +1.27770573e-01 -8.97370875e-02 +2.51446366e-01 +4.30874825e-02 -2.87735075e-01 +2.35479414e-01 +8.97937715e-02 +9.54366326e-02 +3.36735547e-01 +7.73608088e-02 -2.42212623e-01 -7.45794177e-02 +2.58264363e-01 +1.53133959e-01 +1.61814272e-01 +1.91870332e-01 +2.23623872e-01 +3.35330725e-01 +2.58927703e-01 +2.52106130e-01 +7.61113465e-02 -1.97608143e-01 -1.68716595e-01 -1.97549999e-01 -2.87573040e-01 +2.10234225e-01 +6.57668114e-02 +8.93556178e-02 -1.65491596e-01 +2.41221249e-01 -1.09872028e-01 -1.88121185e-01 +2.70694315e-01 -5.78419566e-02 -2.80435830e-01 -1.76634997e-01 +1.93398416e-01 -1.90442115e-01 +1.76881552e-01 -3.19162548e-01 +3.06015551e-01 -1.69328153e-02 +2.07351208e-01 +1.57875001e-01 -3.04961264e-01 -5.77617586e-02 +1.46007240e-01 -8.18554163e-02 +3.02248120e-01 +2.09254086e-01 +1.09194666e-01 +7.60611594e-02 +1.80595517e-01 -1.12399220e-01 -2.32623339e-01 -1.82835802e-01 -2.10173458e-01 +1.21326208e-01 +2.58201599e-01 +1.17243230e-01 -1.51866674e-01 +1.25776082e-01 -1.99866295e-02 +1.17726237e-01 +1.62922621e-01 -2.66473591e-01 -2.34676823e-01 +3.56475115e-02 +2.72424102e-01 -9.27675068e-02 +2.38322675e-01 +1.87791765e-01 +2.43663609e-01 -3.23081613e-02 -2.22952306e-01 +1.19913816e-01 -1.34978727e-01 +2.18998194e-01 +1.24285668e-01 -4.02531326e-02 +3.36898327e-01 -4.65959609e-02 +2.25243568e-01 -1.59972891e-01 -5.60036600e-02 -1.98984981e-01 +1.82413757e-02 -2.95307577e-01 -4.76553738e-02 -3.12705964e-01 -3.04624766e-01 +1.43977791e-01 +1.27251536e-01 +8.38916600e-02 -3.06314141e-01 +9.18228030e-02 -4.79541719e-02 -2.00002894e-01 +4.19460535e-02 +2.05180764e-01 +1.58203542e-01 +2.47735739e-01 -1.80965364e-02 -4.01895046e-02 -2.28960335e-01 -2.24664867e-01 -1.49225011e-01 +2.50803053e-01 +1.67493880e-01 +2.18070626e-01 -2.76172280e-01 -2.12028742e-01 -2.02835530e-01 -1.75051987e-02 -2.17114136e-01 -2.96139747e-01 -1.20840669e-02 -1.56979576e-01 +2.28066444e-02 -3.32601875e-01 +1.41537488e-02 -5.34469187e-02 +3.32859218e-01 +2.61464119e-02 -3.43561143e-01 -1.03057384e-01 +2.95512676e-01 -9.80158597e-02 +1.31721556e-01 -1.94209650e-01 -2.02751279e-01 -1.53832376e-01 +2.44449079e-01 -1.84417874e-01 +2.06969619e-01 -7.60918856e-03 +3.35599363e-01 +2.72866130e-01 -1.82380363e-01 +4.54735756e-02 +1.27337009e-01 -9.52216983e-03 -8.41972232e-02 -5.67795932e-02 -2.24798322e-01 -1.06635079e-01 +1.90581620e-01 +3.29462409e-01 -1.04386151e-01 +1.41636252e-01 -7.09551573e-02 -2.92952627e-01 -2.97351778e-01 +2.75626123e-01 +2.64897168e-01 +1.83940053e-01 -1.81428045e-01 +1.12770259e-01 -6.61191940e-02 +2.68970907e-01 +1.72445595e-01 +1.25217378e-01 -2.63869613e-01 +2.48211682e-01 -9.89661068e-02 -1.04337156e-01 -1.05383396e-01 -2.61827230e-01 +1.23606890e-01 -9.19331014e-02 +4.18848097e-02 +2.73251534e-01 -1.31718203e-01 +5.57999611e-02 -2.10765213e-01 -3.96088958e-02 -3.45590770e-01 +2.34169602e-01 +2.44805276e-01 +2.63803720e-01 -8.60014260e-02 -7.31878579e-02 +2.01670825e-01 -2.08331168e-01 -3.09060514e-01 +2.94868410e-01 +2.97729194e-01 +4.63266969e-02 +7.00089633e-02 +1.24374330e-01 -8.21185410e-02 +3.26232910e-01 +4.88942564e-02 +4.43067551e-02 -2.23370597e-01 +7.76816010e-02 -1.11186072e-01 +1.63724422e-02 -3.03124368e-01 -1.92097634e-01 -3.35348248e-01 -1.53733328e-01 -3.60758007e-02 +1.74885690e-01 +2.70510137e-01 -2.22530767e-01 +9.17086303e-02 -1.74041942e-01 +1.00465864e-01 +1.63380146e-01 +1.40847236e-01 +1.80022836e-01 -2.20360875e-01 +1.38994902e-01 +2.14413762e-01 -2.76569009e-01 -3.92141938e-03 +3.29948246e-01 +3.25281620e-02 -1.08360589e-01 +2.90626407e-01 +2.51474857e-01 -2.61287570e-01 +4.08815742e-02 +1.97605312e-01 -1.01504013e-01 -2.68590659e-01 +3.08837354e-01 -3.83421779e-03 -7.41716325e-02 -5.99414408e-02 -5.04512191e-02 -3.34999084e-01 -1.94422826e-01 -2.77005494e-01 +6.52234256e-02 +8.91686678e-02 +4.12552655e-02 +2.74193883e-01 -4.63050604e-02 -3.35580438e-01 +8.44057798e-02 -3.92475128e-02 -2.00019851e-01 -1.05561852e-01 -2.15123147e-01 -1.78025752e-01 -3.38133752e-01 +3.61656845e-02 +1.32894516e-02 -1.16182536e-01 +3.87293696e-02 +1.87742114e-01 -2.96515137e-01 +2.50821650e-01 -2.32960284e-01 -2.29388505e-01 +2.43934095e-01 -1.01043597e-01 -3.58380675e-02 -4.17379141e-02 -1.78611159e-01 -2.66463280e-01 -2.27642834e-01 +1.24298394e-01 +3.20445240e-01 -2.82524765e-01 +2.47857928e-01 -1.76512346e-01 +4.01194394e-02 +3.31332266e-01 +2.64294505e-01 -9.51588154e-05 +5.37946820e-02 +1.89319432e-01 +2.74176955e-01 -2.36084163e-02 -1.14968479e-01 -9.54726636e-02 -2.00593576e-01 +2.14809120e-01 -1.51861563e-01 -1.62159473e-01 -1.20346710e-01 -2.64142990e-01 +3.07661176e-01 +9.47269797e-02 +1.71150923e-01 +9.66005325e-02 -2.68611610e-01 -1.90156087e-01 -2.57426769e-01 +2.57105649e-01 +5.43383956e-02 +2.81840563e-03 +2.74594605e-01 +2.87838519e-01 -3.44450176e-01 -1.48707107e-01 -2.09968030e-01 +2.74126232e-01 -2.79575169e-01 +2.89832234e-01 -2.26844549e-02 -3.16025913e-01 -1.75353587e-02 -1.55448139e-01 -1.15257740e-01 -1.12947404e-01 +1.52264684e-01 -1.34074837e-01 -3.62122357e-02 -2.09020078e-02 -2.36072898e-01 -1.89204812e-02 -2.93750823e-01 -1.38035476e-01 -4.19446528e-02 -2.19290480e-01 -2.30217189e-01 -6.93845749e-02 -9.98381227e-02 -2.22636938e-01 +4.66865897e-02 +3.25562835e-01 +1.30286604e-01 -1.65947258e-01 -2.47426376e-01 -2.79749930e-01 -3.11439753e-01 +1.23530567e-01 -6.25359416e-02 +3.42566967e-01 -1.07344911e-01 +5.54385483e-02 +2.73017943e-01 +1.34881347e-01 -2.88965762e-01 +8.38038027e-02 -3.09135586e-01 -3.44001651e-02 +4.47567105e-02 -9.14514065e-03 +6.34888113e-02 +3.28796327e-01 -3.01264942e-01 +2.99827218e-01 -1.12514794e-02 -9.95511413e-02 -1.93271130e-01 +2.37825334e-01 +2.23785341e-02 -1.87551886e-01 +3.14720571e-01 +1.07855052e-01 -1.25508457e-01 +3.43553126e-02 -2.72856593e-01 +4.02584672e-02 -2.03430057e-02 -1.49329126e-01 +4.14069593e-02 -1.28817707e-01 -7.91763663e-02 -1.25991136e-01 -1.55935198e-01 -1.32481217e-01 +1.14735395e-01 -2.01895878e-01 +2.37099648e-01 -2.79766232e-01 -3.46115053e-01 -1.51628628e-01 +3.42493474e-01 -2.52300054e-01 +3.01614940e-01 +2.90445566e-01 -2.55054235e-03 -2.32062891e-01 -3.08881402e-02 +3.22648823e-01 +5.88705838e-02 -3.40264171e-01 -9.21288431e-02 +5.54817915e-03 -2.76643485e-01 -2.64701486e-01 +1.40790075e-01 +8.46571028e-02 +3.04444671e-01 +5.85469902e-02 -8.26574266e-02 -3.02365720e-02 -1.73284307e-01 +6.31484091e-02 -1.90875560e-01 +1.05924159e-01 +2.52633154e-01 -2.49662071e-01 -1.72682613e-01 -5.50130904e-02 +2.13992476e-01 +3.33283484e-01 -2.00175941e-02 +3.28018606e-01 +1.13041610e-01 +2.50884950e-01 -4.23900783e-02 -5.80892861e-02 -1.72774598e-01 +2.23971486e-01 +2.58456290e-01 -2.18065381e-01 +1.15233392e-01 -3.43808830e-01 -2.18493834e-01 -2.66033471e-01 +2.41508484e-01 -2.87630588e-01 +2.90920198e-01 +1.59666717e-01 -2.49824047e-01 +1.37563378e-01 +6.08879030e-02 +1.03432357e-01 +3.37711275e-02 +1.79934084e-01 +2.45960534e-01 -5.92397749e-02 +1.30856872e-01 -6.95763826e-02 +3.24868858e-01 +1.71376050e-01 +1.62715137e-01 -1.01707265e-01 +1.66069269e-01 +6.63293600e-02 -1.00555539e-01 -5.03354073e-02 -7.94880092e-02 -9.93350148e-02 -2.95546949e-02 +1.96701169e-01 +7.47549534e-03 +2.76782453e-01 +9.15487707e-02 -3.73675525e-02 -3.78498435e-03 -8.27433765e-02 -2.32466787e-01 -2.04343677e-01 -1.79620117e-01 +1.67865455e-01 +2.77525902e-01 +3.36062968e-01 -1.44848824e-01 -1.16836667e-01 +1.63571119e-01 -2.66789079e-01 +2.24090993e-01 +2.93106437e-01 +3.44115853e-01 +1.01921231e-01 +1.28711075e-01 -3.02413225e-01 
#Parameter# /_8 {25} 401 ZERO_GRAD
-2.33599633e-01 +1.71815097e-01 -2.57773817e-01 +1.06001168e-01 +3.28772664e-01 +2.46236026e-02 +2.18173444e-01 -1.24586523e-01 +3.19873273e-01 -7.74072409e-02 -1.99628890e-01 -1.69938490e-01 +1.94601595e-01 +6.47084415e-02 +1.69600427e-01 +2.81279385e-02 -1.38667583e-01 +2.18785703e-01 -1.48400784e-01 -2.23500162e-01 +1.97086334e-01 -1.67900920e-02 +1.64944530e-01 -1.84132278e-01 -2.83662975e-02 
#Parameter# /_9 {25,3} 1201 ZERO_GRAD
+5.76411068e-01 +4.79400754e-01 +2.73913175e-01 +4.59859699e-01 +1.61560491e-01 +3.06364655e-01 +5.26190996e-01 +5.08502960e-01 -6.10967763e-02 +8.54825601e-03 +1.51388004e-01 +2.44144231e-01 -2.43174627e-01 -1.77112058e-01 -2.53957093e-01 +3.65278602e-01 -4.35625046e-01 -3.27942431e-01 -5.03385514e-02 -3.04429084e-01 -6.05964065e-01 +4.32969838e-01 -4.76143211e-01 -4.85430121e-01 +3.15282285e-01 +1.48968741e-01 -8.69445410e-03 +5.46615571e-02 +2.17407569e-01 -3.80762279e-01 +3.38894933e-01 +1.21595852e-01 +3.62815291e-01 -3.34155262e-01 -1.53111249e-01 +7.74269253e-02 -3.33184749e-01 +4.64217132e-03 -4.04751658e-01 +4.45245087e-01 +2.63869256e-01 +2.81602561e-01 +1.03907622e-01 +4.38582212e-01 -2.37148270e-01 -3.31757247e-01 -1.96535572e-01 +4.67574485e-02 -2.05340981e-01 +4.84914720e-01 -6.12413734e-02 +3.81730676e-01 -3.19804519e-01 -1.00203052e-01 +2.88712829e-01 +6.39698282e-02 +3.60232592e-01 +1.39375910e-01 +4.12343830e-01 +1.02021955e-02 +2.15161648e-02 -8.08678642e-02 +3.68311495e-01 +3.07887495e-01 -3.49526286e-01 -2.66945660e-01 -3.01413685e-01 +4.41559762e-01 -3.83877546e-01 -5.79643548e-01 +1.03335902e-01 +4.63927090e-01 -4.11885455e-02 -1.09743647e-01 -2.78988704e-02 
#Parameter# /_10 {25,25} 10001 ZERO_GRAD
-4.80057836e-01 -1.17401958e-01 -1.69028252e-01 -3.62626128e-02 +1.45965323e-01 +1.89329639e-01 -2.59452224e-01 -1.39129624e-01 -1.87934324e-01 +2.24726330e-02 -1.09079741e-01 +4.26316053e-01 +3.21169421e-02 -4.20315683e-01 +5.54669611e-02 -3.78369465e-02 -2.08007812e-01 +2.95700580e-01 +1.65024430e-01 +1.00410342e-01 +1.95065737e-01 +1.65093973e-01 +7.10290819e-02 +2.64885277e-01 +1.05115600e-01 +2.61865854e-01 +4.79411744e-02 -2.26890281e-01 +2.43326545e-01 -8.77702609e-02 +2.39479288e-01 -6.87600598e-02 +2.19260361e-02 +1.70257643e-01 +1.52424365e-01 -3.28955770e-01 +8.17508847e-02 -2.14441925e-01 -1.45219848e-01 +8.86030495e-02 +1.00389514e-02 -1.92354932e-01 -1.68060094e-01 -1.24575791e-03 +3.22733372e-01 +1.53732941e-01 -2.11862594e-01 +2.86818296e-01 +6.24519587e-02 -4.90644217e-01 +3.87903303e-01 +2.77901292e-01 +3.54109317e-01 +1.24005280e-01 -6.69175237e-02 +2.20374584e-01 -5.68074584e-01 +1.53277233e-01 +3.57206799e-02 -1.61101475e-01 +3.16884995e-01 -2.21243873e-01 +1.36836395e-01 -3.93127620e-01 +1.56925604e-01 +2.05242746e-02 -3.51052284e-02 -4.30227369e-01 +3.20000142e-01 +7.07497671e-02 -1.09708577e-01 -1.08127996e-01 +3.11097562e-01 +3.26511532e-01 +2.10448667e-01 -1.29060641e-01 +2.14728266e-02 +3.07344168e-01 -2.05359235e-02 -9.01378393e-02 -4.82726246e-02 -3.59947890e-01 -2.54954621e-02 -3.86482179e-01 -3.93680841e-01 +3.50875139e-01 -1.57307371e-01 +2.32540853e-02 +6.43149838e-02 +1.82240099e-01 -4.27680910e-02 +2.45728083e-02 -3.29578608e-01 +7.15512261e-02 +5.94994947e-02 -1.11048318e-01 -1.10034645e-01 -5.38282022e-02 +2.77700685e-02 -8.44401047e-02 -2.59181768e-01 -1.18508697e-01 -1.00102164e-01 -1.64030239e-01 -2.45831758e-02 +6.65072128e-02 +4.53440011e-01 +2.70215541e-01 -2.89399952e-01 +1.31819516e-01 +3.29835527e-02 -2.77546613e-04 +5.38580827e-02 +2.56533921e-01 -1.18653238e-01 +3.91665876e-01 -2.36030743e-01 -3.20604295e-02 +3.30143981e-02 +2.45441556e-01 -3.02012831e-01 +3.88544679e-01 -5.06327093e-01 -2.04724029e-01 -7.24387467e-02 +4.44360226e-01 +2.97717303e-01 +3.49796284e-03 +6.14375286e-02 -3.97553056e-01 +3.55160713e-01 +2.30187058e-01 +1.10055454e-01 -2.04438075e-01 -3.40297788e-01 -9.70667303e-02 -4.36825126e-01 -4.52792466e-01 +1.09174103e-01 +3.70785415e-01 -2.20187351e-01 +2.72839099e-01 -4.15126354e-01 +3.55390102e-01 +1.15600474e-01 +1.05745681e-01 -2.51000524e-01 -3.60229582e-01 +3.64254504e-01 +1.55967310e-01 -6.38895988e-01 -1.08081780e-01 -5.23823202e-01 -4.57992792e-01 +2.93654144e-01 +5.93035966e-02 -3.19610745e-01 -4.83626723e-01 +5.02054691e-01 +5.91591775e-01 -5.67985117e-01 -1.09746821e-01 +4.15553600e-01 -8.32869783e-02 -9.02079865e-02 -3.61537755e-01 -4.41897586e-02 +2.81345665e-01 -4.08200383e-01 +2.71122843e-01 -1.76931500e-01 +8.61492380e-02 +1.33458510e-01 +2.40809858e-01 +3.39746736e-02 +1.51024498e-02 -2.02709511e-01 +2.46267021e-01 -3.70551407e-01 -3.37161630e-01 -1.67655610e-02 -3.06483358e-01 +1.71830922e-01 +2.57285714e-01 +5.61602041e-02 -3.89032006e-01 -7.52771795e-02 +2.67961740e-01 +2.71010473e-02 -7.75544271e-02 -2.15417263e-03 +1.39100477e-01 +3.05025101e-01 +9.10806879e-02 +3.45302850e-01 -2.83559621e-03 -3.62530872e-02 +1.65265843e-01 +2.79036522e-01 -2.09546313e-01 +7.89698958e-02 -2.63504714e-01 -1.36347368e-01 +1.70875013e-01 -2.03935057e-01 +3.01660061e-01 +1.35416776e-01 -2.83726275e-01 -2.04598427e-01 +3.41102064e-01 -2.65770972e-01 -2.84042448e-01 +3.61037582e-01 +3.30450356e-01 +2.07038205e-02 -2.55216122e-01 +2.35997304e-01 +3.99193525e-01 +2.40531862e-01 +1.46197066e-01 -2.82412231e-01 +3.10000367e-02 -5.78547828e-02 +1.64276570e-01 -5.04659042e-02 +1.29089534e-01 +2.75121003e-01 +4.93589565e-02 -2.62194395e-01 +8.18826035e-02 +1.83630064e-01 +4.11546409e-01 -1.39678925e-01 +5.85693419e-02 -3.13673228e-01 -4.58566435e-02 -1.13690563e-01 -2.44407669e-01 +4.90338169e-02 -3.19649518e-01 +3.47849339e-01 -2.74505049e-01 +2.18897998e-01 -1.03111148e-01 -7.58040771e-02 -3.10100205e-02 +2.58953273e-01 -3.49361390e-01 -1.59466878e-01 +2.80486345e-01 +4.67089206e-01 -1.36547368e-02 -1.04864664e-01 +4.79990423e-01 -1.39588397e-03 +3.53652418e-01 -4.33438957e-01 +3.60929757e-01 +8.85586217e-02 -6.94167018e-02 +3.87295991e-01 +2.67023623e-01 -3.86766940e-01 -4.21299726e-01 -1.26335084e-01 +2.58306295e-01 +3.10145497e-01 +1.84006721e-01 +1.40884042e-01 +3.83072346e-02 +6.08894862e-02 -5.59515536e-01 +2.67929882e-01 -3.64695564e-02 +3.47565208e-03 +3.57793383e-02 +4.90130633e-01 +2.77309358e-01 +8.33014250e-02 -2.28613749e-01 +1.29452810e-01 +3.02694589e-01 +2.47819275e-01 -3.58277947e-01 -3.60787511e-01 -1.83894932e-01 -9.52116773e-02 +1.86662361e-01 +1.06532194e-01 +1.13454580e-01 +1.70439854e-01 -3.12674791e-02 -1.87251166e-01 -6.39739633e-02 -1.15631066e-01 +1.47234768e-01 -2.34152421e-01 +8.83129537e-02 +3.16879064e-01 +2.60805160e-01 -2.18764201e-01 -8.21954682e-02 +2.58839816e-01 +3.06862682e-01 +2.55069911e-01 -2.76241094e-01 +4.47910219e-01 -1.83886603e-01 +1.15638420e-01 -2.56871760e-01 +1.53966829e-01 -1.32001445e-01 +3.16734374e-01 -1.43059134e-01 -2.81975210e-01 -1.12274736e-01 +7.99866617e-02 -2.19650399e-02 -2.13798001e-01 -1.67545840e-01 -2.75759190e-01 -1.92469418e-01 -5.58099672e-02 -2.09816113e-01 +2.63400316e-01 -1.63748544e-02 -8.99119154e-02 -3.30257207e-01 -2.66537815e-01 +2.77769804e-01 +1.60266936e-01 +2.89966196e-01 -1.72873259e-01 +3.89968976e-02 +3.29952747e-01 +1.36068791e-01 -8.00516009e-02 +2.11456791e-01 +1.88123703e-01 -2.69047134e-02 -4.08361167e-01 +1.06454790e-01 -4.00228351e-02 -4.42626595e-01 -7.83055872e-02 -3.03669393e-01 +3.49926502e-02 -1.64211825e-01 -1.42811209e-01 +1.35371163e-02 -2.88049318e-02 -4.39950675e-02 +2.15058595e-01 +3.11880857e-01 -1.15537688e-01 +3.71057361e-01 +2.04180956e-01 +3.43323737e-01 -1.18884884e-01 -3.06973010e-01 +3.78790110e-01 -2.88664475e-02 -6.90444633e-02 +2.03221977e-01 +4.13672119e-01 -2.54142135e-01 -3.51452157e-02 -2.79113978e-01 +3.33626598e-01 +2.03753784e-01 -1.27912089e-01 +2.03040615e-01 +1.30444378e-01 -1.01465479e-01 -1.29298702e-01 +1.05815478e-01 -4.06528264e-02 +1.46462306e-01 +2.65257746e-01 -3.31177264e-02 +3.68612736e-01 -4.73687239e-02 +1.86099023e-01 +2.15447411e-01 -1.82248294e-01 -1.06457286e-01 -1.18631817e-01 -4.12468046e-01 -6.43892288e-02 +2.51858056e-01 +2.00630456e-01 +2.71514595e-01 -1.66485384e-01 +3.48925680e-01 +3.86956215e-01 +2.51014560e-01 -3.37046325e-01 -1.51939690e-01 -3.19242850e-02 -1.34494990e-01 -1.48620114e-01 +2.08398581e-01 +7.31375143e-02 +1.68532997e-01 -1.72133386e-01 +3.30672294e-01 -1.77794263e-01 +1.66425884e-01 +2.51986355e-01 +3.84770669e-02 -3.14301163e-01 -3.64151567e-01 -1.64133385e-02 -7.76863322e-02 +1.64767429e-01 +1.21892832e-01 +2.83055782e-01 -7.99816176e-02 +2.48800159e-01 +3.29132706e-01 -1.07421361e-01 -1.02104299e-01 -3.14071663e-02 +4.57453467e-02 -1.97464302e-01 +8.97161886e-02 -1.45718709e-01 +2.86065668e-01 +1.92594573e-01 -1.31652713e-01 -2.49896467e-01 +6.59027621e-02 +2.63654053e-01 -1.52716503e-01 +1.64685458e-01 -2.30424553e-02 -1.14055751e-02 +3.61935943e-01 -1.46592176e-02 +2.11752072e-01 -3.38488042e-01 -2.41826117e-01 +3.40184391e-01 -9.84586105e-02 -9.14678425e-02 +1.93181485e-02 +3.76531750e-01 -4.04994875e-01 -1.11901708e-01 -1.35620236e-01 -1.34154975e-01 +1.85082108e-01 -4.15434390e-02 -1.79154098e-01 -3.13243344e-02 +1.98801801e-01 +9.05882716e-02 -2.91555494e-01 +5.72504401e-02 -3.96168321e-01 +2.10248902e-01 +1.44002885e-01 +8.22425559e-02 -1.32023662e-01 -9.61568281e-02 +1.86598435e-01 -2.61687301e-02 -2.79885888e-01 -1.71337754e-01 +2.83467621e-01 -1.81898400e-01 +1.59801245e-01 +4.17977422e-02 +1.96464375e-01 +3.43238324e-01 +5.16895056e-01 +4.01209593e-01 +2.73758978e-01 +2.77006090e-01 +2.40228008e-02 +1.56770200e-01 -3.21474999e-01 +4.00547862e-01 +2.99348921e-01 -1.13349289e-01 +3.13561261e-01 -3.15928727e-01 -3.36006612e-01 -3.80535007e-01 +8.17342103e-02 +2.00520828e-01 -1.16815113e-01 -4.69561256e-02 +4.57259029e-01 +6.46345690e-02 -4.61453311e-02 -2.01092586e-02 -1.21995091e-01 +1.66311897e-02 +1.08411171e-01 +4.24269497e-01 +6.87769651e-02 +3.75911295e-01 +2.58116573e-01 +2.06146523e-01 +5.15652671e-02 +5.92007264e-02 +1.17754743e-01 -9.61492360e-02 +1.74087241e-01 -6.49509206e-02 +1.74459279e-01 -2.83774287e-01 -1.13288015e-01 +3.03427726e-01 +5.38165085e-02 -1.45137161e-01 -4.39046696e-02 +1.78170010e-01 +9.08441767e-02 -2.32936516e-02 +3.04804265e-01 -2.32799098e-01 -1.21506967e-01 +2.05775142e-01 -6.61510527e-01 -4.78538364e-01 -4.91333067e-01 +6.69917241e-02 -1.56304408e-02 +2.05406830e-01 -2.00455949e-01 +4.91354726e-02 -2.15818495e-01 +5.46737947e-02 -2.02688053e-01 -1.02080524e-01 -1.43003240e-01 -5.88419065e-02 -1.52855009e-01 -1.54566467e-01 -9.09798890e-02 -1.18666261e-01 -2.81569152e-03 -2.55020529e-01 -1.74502686e-01 +3.63146126e-01 +2.36692265e-01 -1.34468660e-01 -2.68158633e-02 +3.79557997e-01 +3.29020888e-01 +1.15821123e-01 +1.71934754e-01 -3.10002387e-01 -2.28544384e-01 +3.67190540e-01 +1.72322303e-01 +3.79158482e-02 +1.30109608e-01 +2.16028258e-01 -2.10658595e-01 +1.69581741e-01 +3.18934619e-01 -3.96243602e-01 +1.42914742e-01 +2.52781659e-01 -3.15772057e-01 +3.50560904e-01 -2.57644743e-01 +2.14758981e-02 +2.15514377e-01 -1.86510846e-01 -5.86730503e-02 +2.22406313e-02 -2.33075619e-01 -2.27959231e-01 -1.01271726e-01 +1.03276670e-01 -5.53996824e-02 -2.86942512e-01 +1.40568122e-01 +3.06742698e-01 -2.57098317e-01 +5.28488569e-02 +1.75190672e-01 +2.12637797e-01 +2.83684433e-01 -2.58947372e-01 +1.17648154e-01 -1.39873028e-01 -1.17300428e-01 +4.20358032e-01 -1.65444285e-01 -1.97983548e-01 +1.47310734e-01 -1.13473274e-01 +4.59670275e-02 -1.75473467e-01 -5.12430780e-02 +8.93104747e-02 -1.74436554e-01 -3.91729176e-01 -3.02383423e-01 +3.69043231e-01 -1.89387754e-01 -2.93518126e-01 +1.41889900e-01 +1.50308639e-01 +2.26943284e-01 +1.24083072e-01 +1.31793499e-01 +1.61218956e-01 -2.95956526e-02 +1.49768993e-01 +7.06633786e-03 -2.50044346e-01 +2.18491957e-01 -2.30046868e-01 -2.74817258e-01 -3.15821379e-01 +6.57437816e-02 +1.51268557e-01 -6.62722141e-02 +1.25063926e-01 
#Parameter# /_11 {25} 401 ZERO_GRAD
-3.59183587e-02 +2.07808793e-01 +7.76888356e-02 +1.68845922e-01 -2.13138476e-01 +1.97369635e-01 +3.76771614e-02 +2.83234745e-01 +1.08770721e-01 -3.47272754e-01 +2.04666778e-01 -3.20551217e-01 -4.26449299e-01 -4.81084324e-02 -2.28289068e-02 +2.77375370e-01 +8.11962038e-02 -4.63034779e-01 -4.03284095e-02 -3.64433080e-02 +6.86853081e-02 +3.52114290e-02 -5.15207112e-01 -1.53195737e-02 -1.83759317e-01 
#Parameter# /_12 {25} 401 ZERO_GRAD
-8.64908695e-02 +2.90423930e-01 +2.04206944e-01 +1.25490755e-01 +1.64380610e-01 +2.90790737e-01 -4.44124937e-02 -1.60945222e-01 -1.94488838e-01 +1.34603292e-01 +1.56436026e-01 +2.88747966e-01 +2.63674855e-01 -3.35790217e-01 +1.49230868e-01 +2.49469697e-01 -6.58653080e-02 -3.38019133e-02 +1.35350585e-01 +2.09322512e-01 -1.46176621e-01 -8.32170844e-02 -1.24664903e-01 -2.79854357e-01 -1.15797460e-01 
#Parameter# /_13 {25,25} 10001 ZERO_GRAD
+2.15041041e-01 -2.69930065e-01 +5.75349852e-02 +1.16106756e-01 +5.62423654e-02 -2.89399102e-02 -2.54562140e-01 +1.45868793e-01 +3.57215583e-01 +6.75418531e-04 +1.84769586e-01 +2.02224091e-01 -2.07333356e-01 -1.07251652e-01 -7.68631399e-02 -1.73114136e-01 -3.87797207e-01 +2.17954382e-01 +3.00512582e-01 +7.52618238e-02 -1.55670986e-01 -3.18962753e-01 -7.36845061e-02 -3.32602292e-01 -2.54452884e-01 +1.11162551e-01 +7.70751610e-02 +1.33106917e-01 +7.12920353e-02 -3.55551362e-01 -2.11911961e-01 -1.40332624e-01 -2.90742815e-01 -2.42552429e-01 +1.64670527e-01 -2.00764433e-01 +1.86238542e-01 -2.31861264e-01 +1.93759844e-01 +1.79877833e-01 -1.34290412e-01 -6.54644847e-01 -9.09522399e-02 +1.85347244e-03 -3.92572969e-01 -3.29840750e-01 -4.34534669e-01 +1.27786666e-01 +1.07452691e-01 -5.21996617e-01 +6.48306161e-02 -6.72126636e-02 +3.41571748e-01 +1.56297252e-01 +1.70491040e-01 +6.10991530e-02 -2.58249044e-01 -5.56848049e-01 +1.65031418e-01 +7.08239228e-02 +2.89159626e-01 -1.25916332e-01 +5.01884967e-02 -3.52016687e-01 -2.25327358e-01 +1.57364130e-01 -8.96126330e-02 -1.43988635e-02 +1.07740954e-01 -4.52328146e-01 -6.76271021e-01 -1.35637209e-01 +2.40806505e-01 +4.71657068e-01 +1.12117104e-01 -2.46281520e-01 +1.92067832e-01 -1.41043648e-01 -2.23046213e-01 +1.44904301e-01 -1.69008806e-01 -3.27792048e-01 -1.82485506e-01 -1.58063680e-01 -2.18499992e-02 +9.33820456e-02 +1.44210607e-01 -1.07166350e-01 +1.27367228e-01 -5.73478313e-03 -1.84074551e-01 -6.11435592e-01 +3.23375612e-02 -2.80115575e-01 +1.26816452e-01 -1.05745725e-01 -4.88653570e-01 +1.72667444e-01 -2.80640125e-01 -4.25301582e-01 +5.52130677e-02 +1.25944898e-01 +5.63368678e-01 +3.80948097e-01 +4.17980850e-01 +3.90569344e-02 +2.51235485e-01 -4.39179968e-03 +4.07053351e-01 +4.73143458e-01 +2.71766692e-01 +3.33904117e-01 +1.21451505e-01 +5.17297804e-01 +2.30400518e-01 +4.52440858e-01 -1.09375596e-01 +3.02924067e-01 -6.43270463e-02 +1.23332150e-01 -1.17471352e-01 -5.49766682e-02 +7.39934072e-02 -1.06584564e-01 +2.21668869e-01 +1.20081685e-01 -1.71175793e-01 -2.69256234e-01 -1.52279347e-01 -3.83693248e-01 -3.57062370e-01 -3.31255287e-01 -1.95080921e-01 +5.94757721e-02 -4.46942359e-01 -4.52786177e-01 -1.93528961e-02 +9.83588845e-02 -2.61663020e-01 +6.02418594e-02 +9.00648534e-02 +1.12788014e-01 -6.33301288e-02 -3.30246210e-01 +2.84989662e-02 -3.22579026e-01 -3.89240354e-01 -3.45171332e-01 -2.96133101e-01 -4.09756660e-01 +1.41167715e-01 -3.34221087e-02 +2.87005216e-01 +1.25788376e-01 -4.82042015e-01 +2.27569222e-01 -1.19172782e-01 -2.78004050e-01 +1.80896655e-01 +1.38116300e-01 +1.52155101e-01 +4.20141369e-01 +1.02182105e-01 -1.12294607e-01 +6.00537732e-02 -1.17163412e-01 -4.84210625e-02 +2.26071432e-01 +6.68165982e-02 +9.89822671e-02 +2.62608498e-01 +1.53187335e-01 +3.61833960e-01 -2.80244797e-01 +5.61975576e-02 +1.44820839e-01 -2.62650669e-01 -2.30598792e-01 +1.19628385e-01 +8.38809088e-02 +1.96958557e-01 -3.77610981e-01 -4.44481343e-01 +1.77138392e-02 -3.05370778e-01 -8.09095800e-02 +3.10904652e-01 +1.55494204e-02 +4.19245869e-01 +2.64426798e-01 +3.70923616e-02 -2.90014803e-01 -9.70151424e-02 -3.36537868e-01 -3.86970073e-01 +1.70626342e-01 -4.21898872e-01 +5.48126400e-02 +1.66882560e-01 +1.52845040e-01 -1.12592243e-01 -3.93617809e-01 -3.36052746e-01 -4.60420072e-01 +1.24545790e-01 +1.17436685e-02 +1.55287966e-01 +1.50070801e-01 -3.25738758e-01 +2.37321645e-01 -7.85862282e-02 +2.49859825e-01 -3.07358354e-01 +4.37777825e-02 -2.64509648e-01 -2.43712286e-03 +3.65450755e-02 -2.26504222e-01 -2.89763063e-01 +2.19979435e-01 +7.43896142e-02 -1.06809057e-01 -7.43687376e-02 -3.40332568e-01 +1.39312103e-01 +3.72464746e-01 +2.56173104e-01 +2.76706517e-01 +4.41492423e-02 +3.46487492e-01 -2.39701629e-01 -1.87742010e-01 +3.08583736e-01 +5.51551506e-02 +6.49421275e-01 +1.78364128e-01 +7.45241269e-02 +1.95118889e-01 +2.81295508e-01 +4.44676489e-01 +2.87897408e-01 -2.91058756e-02 -6.71709180e-02 +2.88674742e-01 -1.38831854e-01 +1.97517321e-01 +3.80770355e-01 +1.98371187e-01 +5.82115613e-02 +5.59214242e-02 -3.62078965e-01 +8.58843550e-02 +3.19436908e-01 +1.39076084e-01 +2.40743697e-01 -2.60266304e-01 -3.04888844e-01 +5.43149933e-02 -2.62748212e-01 -3.69952545e-02 +1.66099876e-01 -1.16061106e-01 +9.29056481e-02 +2.09720135e-01 +1.55981511e-01 -3.02203298e-01 -5.26801944e-01 +2.95110881e-01 +4.07924086e-01 -4.77212965e-01 -3.17691147e-01 -6.85086310e-01 -1.62952513e-01 +1.43023744e-01 -3.59031260e-01 +4.10829216e-01 +5.24958313e-01 +7.91151077e-02 +2.26466060e-02 -3.69295329e-02 -2.31074810e-01 +3.29320937e-01 +2.73223817e-01 -7.08441734e-02 +4.99456525e-01 +2.61425693e-02 +3.58965605e-01 +3.03238630e-02 -5.00957295e-02 -5.20030782e-02 +4.04234082e-01 -3.95252630e-02 +2.13464528e-01 +3.68160531e-02 -3.17570806e-01 -4.20877859e-02 -1.49690462e-02 -2.46365536e-02 -1.94433674e-01 +1.12631926e-02 +1.19946048e-01 +4.32265192e-01 +4.26027179e-01 +4.78905886e-01 +5.92208266e-01 +5.69924526e-02 -1.35127380e-01 -7.44648948e-02 +1.88005298e-01 +5.10540009e-01 -8.61291066e-02 -1.33897752e-01 +1.18124560e-01 +3.18376690e-01 +1.48053944e-01 +5.84982097e-01 -1.98007017e-01 +1.69983089e-01 +5.41103482e-01 +1.87369078e-01 -2.91548759e-01 +2.11036533e-01 +1.64748847e-01 -1.17275342e-01 +1.70262724e-01 +1.68029472e-01 +5.97616792e-01 -4.25330829e-03 +7.89998248e-02 +1.51696280e-01 +8.75450969e-02 -2.41459399e-01 -1.48426250e-01 +2.72372335e-01 +4.01363999e-01 +4.90565389e-01 -1.18595734e-01 -9.00926962e-02 +3.57538904e-03 +1.24816798e-01 -9.88062620e-02 +8.13167095e-02 +2.56430894e-01 +3.98760587e-01 +9.21549127e-02 -1.20565280e-01 +3.81566912e-01 +4.41985369e-01 +3.76189172e-01 +1.87089145e-01 -4.38159734e-01 -4.95565176e-01 -4.00499761e-01 -4.48121786e-01 -3.74048680e-01 -1.74473822e-01 -2.73019791e-01 +1.78295866e-01 -1.04558490e-01 -3.11121285e-01 -1.52055502e-01 +7.76434615e-02 +3.90205346e-03 -4.87203240e-01 -4.71084625e-01 -1.26730293e-01 +2.06980512e-01 -3.17301154e-01 -3.11168045e-01 -3.48801732e-01 -8.27441663e-02 +4.62723449e-02 -3.10642391e-01 -2.06266686e-01 -4.82174784e-01 -5.90353310e-02 -5.62844992e-01 -2.81701118e-01 -5.02901316e-01 -1.80640131e-01 +9.21536013e-02 -1.29037544e-01 -1.01315729e-01 -2.11811185e-01 -4.81446564e-01 -6.40908480e-02 -3.96587193e-01 -9.01732445e-02 +6.81163073e-02 -6.59768134e-02 -5.29699475e-02 -4.79312509e-01 -1.56000629e-01 -2.64300048e-01 -2.72588253e-01 +1.13980740e-01 -4.00328562e-02 -4.70097139e-02 +1.69642165e-01 -1.65683836e-01 -3.16056639e-01 -3.60583425e-01 +8.07772391e-03 -3.07630628e-01 -1.73002332e-02 +2.22690380e-03 +1.50306270e-01 -6.24745078e-02 -9.70380977e-02 -1.01714559e-01 +4.39670373e-04 +2.05855399e-01 +6.57669082e-02 -4.15434182e-01 -4.05993462e-01 -5.26125073e-01 +1.13477677e-01 -4.43585575e-01 -3.64657849e-01 +1.29724607e-01 -2.04412967e-01 -2.93853641e-01 -3.14011782e-01 -3.90098363e-01 +2.63800740e-01 +2.52012402e-01 +2.71763116e-01 +2.43389428e-01 -9.32138860e-02 +5.43992400e-01 -2.39282742e-01 -2.16850474e-01 +5.50804473e-02 +4.35544252e-01 +2.15297073e-01 +5.29551983e-01 -2.07669318e-01 -2.38272160e-01 -2.90539004e-02 -1.95532963e-01 +4.64685619e-01 +3.65340054e-01 +5.99265039e-01 +4.27515239e-01 +1.96754634e-01 +8.20283070e-02 -1.51993036e-01 -2.68532429e-02 -2.44538963e-01 +3.79123509e-01 +1.04684539e-01 -3.22906345e-01 -5.20341285e-02 -1.84384957e-01 -3.83326113e-01 -2.99789160e-01 -7.05155684e-03 +1.26561508e-01 -5.74403822e-01 +3.67884412e-02 -2.78915286e-01 +2.06480905e-01 +1.49648085e-01 +1.00479662e-01 +1.33572415e-01 -1.61612377e-01 +1.64141297e-01 -4.00644764e-02 -2.94550449e-01 -1.56944424e-01 +2.66623020e-01 -2.87265390e-01 +1.86314493e-01 -3.52159262e-01 -3.77052069e-01 -1.09875366e-01 -5.80971956e-01 +4.37437110e-02 -3.76783460e-01 -5.58766365e-01 -2.16217995e-01 -1.30880177e-01 +1.65387064e-01 -5.83210170e-01 -6.75838962e-02 -1.58308774e-01 -2.30364025e-01 -3.32684040e-01 -2.68200070e-01 -3.32252920e-01 -2.58452177e-01 +3.34778696e-01 -2.19336823e-01 -4.90502328e-01 -1.67424977e-01 +4.20769230e-02 -1.62001744e-01 +6.60807043e-02 +2.02595472e-01 -3.12579095e-01 -2.29294482e-03 -9.42194387e-02 -1.94700994e-02 -1.19701274e-01 -3.73986214e-01 +1.74385801e-01 -2.34715655e-01 -1.10939316e-01 -3.93636853e-01 -2.98837274e-01 +1.21345393e-01 -2.89044350e-01 +2.37944767e-01 -3.28444131e-02 +3.10887307e-01 -1.28959537e-01 -9.88904685e-02 -9.88646522e-02 -2.92008132e-01 -1.37733147e-01 +2.29901895e-01 -1.50209248e-01 -2.00693071e-01 -1.78871751e-01 +2.77197063e-01 +3.97398561e-01 +5.39564379e-02 +5.26182830e-01 +2.51790345e-01 +5.06653368e-01 +1.61426052e-01 +3.38902831e-01 -9.89941433e-02 +1.03936955e-01 -4.05242518e-02 +1.33788943e-01 +2.63223518e-02 -2.50326097e-01 +4.34340954e-01 -1.47104442e-01 +2.29023561e-01 -2.74051398e-01 +5.46948552e-01 +5.11542439e-01 +1.57843053e-01 -1.85225725e-01 +8.94640461e-02 +4.51670438e-01 +2.13340044e-01 +2.15861529e-01 +1.00707807e-01 -3.65883529e-01 +1.68836758e-01 -4.24824387e-01 -2.57458128e-02 +3.83088768e-01 +4.56829965e-01 +3.56472403e-01 +1.32385045e-01 -2.75396615e-01 +7.54471570e-02 -9.19308811e-02 +1.88730031e-01 -9.21925679e-02 +1.77883849e-01 -8.41185600e-02 -3.34735140e-02 -2.58749157e-01 -2.96712458e-01 +2.66522735e-01 +1.11099659e-02 +2.48369217e-01 +4.71331440e-02 -2.15244144e-02 +3.07319701e-01 +1.53768793e-01 -1.42197415e-01 -2.68454760e-01 -1.92150414e-01 -1.83227345e-01 +2.94639438e-01 +1.36655718e-01 +2.34216228e-01 +2.94560671e-01 +4.82461415e-02 -3.56921941e-01 +5.90849370e-02 +2.54307948e-02 +1.16795361e-01 +2.81656217e-02 +1.60639230e-02 -1.68741286e-01 -1.00852631e-01 +2.60581672e-01 -1.72379807e-01 -5.90739213e-02 -1.64858252e-01 +1.10980406e-01 +2.91918457e-01 +9.90724191e-02 +4.50925559e-01 +1.87027529e-01 +1.93432778e-01 -5.42173674e-03 +3.46954376e-01 -2.70402074e-01 -3.02347541e-01 +1.13079414e-01 +3.94751996e-01 +1.08282305e-01 -7.94978738e-02 +4.73260820e-01 +2.88257569e-01 -5.15816137e-02 +2.52110124e-01 +4.95508313e-01 -1.92113534e-01 +2.71743327e-01 -8.15616548e-02 -3.33611697e-01 -1.88537225e-01 -3.54521036e-01 -4.11370322e-02 +2.01344695e-02 -2.96517611e-01 
#Parameter# /_14 {25,25} 10001 ZERO_GRAD
-2.53557831e-01 +6.43621460e-02 +2.64992326e-01 +1.16358094e-01 +1.73757851e-01 +1.69064805e-01 +2.79513164e-03 -7.88013625e-04 -1.86896369e-01 +2.04521030e-01 -6.39713481e-02 +3.28706577e-02 -3.32919151e-01 +7.64442831e-02 +1.53858110e-01 +6.87429607e-02 +1.66039303e-01 -2.48055875e-01 +8.97376165e-02 -1.30825818e-01 +1.00496665e-01 -1.83242962e-01 -2.06477735e-02 -4.60877717e-01 -6.48039356e-02 -2.28878140e-01 -2.22040415e-01 -1.13650627e-01 -2.46869847e-01 -4.07502443e-01 -3.80959630e-01 -2.33037695e-01 -1.61355540e-01 -4.71338719e-01 -1.75885364e-01 -6.06295690e-02 -4.33789976e-02 +2.72748500e-01 -1.63010985e-01 +1.24343775e-01 -3.43981564e-01 -2.28747532e-01 -2.04865649e-01 -1.10941537e-01 -7.19858631e-02 -1.93855483e-02 +3.30264062e-01 +2.73123290e-02 -2.06393041e-02 -3.22657853e-01 -6.78514615e-02 -7.56459460e-02 +4.20071572e-01 +9.84422863e-02 -3.08653772e-01 -6.06903248e-02 -2.11719707e-01 +2.72719920e-01 -2.20451221e-01 +1.07293941e-01 +2.69695550e-01 -4.27025668e-02 -3.10619604e-02 +3.53223473e-01 +4.03152376e-01 -2.86412258e-02 +1.92705214e-01 +2.73729473e-01 -3.96137416e-01 +1.88915059e-01 +1.11521348e-01 -2.54694819e-01 +4.02401388e-01 +1.74853548e-01 +7.01351017e-02 -3.27634141e-02 +3.23525578e-01 +4.08610165e-01 -9.92996767e-02 -1.00262165e-01 -1.23086400e-01 +8.82265158e-03 +2.53286928e-01 +5.06324947e-01 +1.13048248e-01 +3.72420281e-01 -1.64113075e-01 +2.57188857e-01 -1.94361120e-01 -2.59609371e-01 +4.49031770e-01 -2.97403991e-01 +5.38529932e-01 +5.57429604e-02 -3.32923502e-01 -1.38768807e-01 -2.26716101e-01 -8.00226629e-02 -1.63087711e-01 +7.50318989e-02 -2.01076105e-01 -3.85686100e-01 +1.22179501e-01 +7.38876089e-02 -2.47158691e-01 -3.87400270e-01 +2.39109531e-01 +1.62989616e-01 +4.24582362e-02 -2.28663161e-01 -3.70624512e-01 +1.05408549e-01 +3.84290628e-02 -7.47650638e-02 +5.83971152e-03 -1.18961975e-01 +1.38844922e-01 -1.39654994e-01 -2.49434695e-01 +2.16173947e-01 +1.29870117e-01 +3.69535238e-01 +6.07873164e-02 -3.46909523e-01 +3.73833925e-02 +3.29990268e-01 +2.87238628e-01 -9.14416760e-02 +3.36644351e-02 +4.16193336e-01 -3.06043893e-01 -1.90037519e-01 -2.89255492e-02 -1.37721896e-01 +4.14692044e-01 +3.17304134e-01 +3.92923921e-01 -1.50689945e-01 +4.77366716e-01 +2.12972939e-01 +1.39607921e-01 -1.70341760e-01 +4.76447612e-01 +5.12276925e-02 -2.06817105e-01 -1.30448997e-01 -3.22949320e-01 +6.87068552e-02 +2.21514046e-01 -1.04974963e-01 +2.93800235e-01 -9.25986990e-02 +2.93136537e-01 +4.48747903e-01 -6.41810820e-02 -2.82765627e-02 +1.38680577e-01 -3.46323103e-01 -3.54748331e-02 +2.61896774e-02 +2.96111375e-01 -9.57354456e-02 +3.85404974e-01 +2.90266648e-02 -2.15651631e-01 +2.85863996e-01 +1.27830014e-01 +9.22284275e-02 +2.27054626e-01 +7.02097863e-02 -8.97722039e-03 +2.56304055e-01 +3.53954136e-01 -2.07824558e-01 -1.71597481e-01 -1.66691974e-01 +1.95407271e-01 -2.08912820e-01 +1.17106274e-01 +3.48221540e-01 +7.31015876e-02 -3.54601666e-02 -3.82338651e-02 +1.20364591e-01 -1.41024202e-01 -2.24642158e-01 +3.08634639e-01 +1.11210987e-01 +4.08470370e-02 +8.01396966e-02 +2.23369971e-01 +4.48767468e-02 -1.83588564e-02 -1.46900281e-01 -1.70905292e-02 +8.43022466e-02 +2.55028725e-01 +3.25173065e-02 +9.44986045e-02 +3.64100695e-01 +3.92962471e-02 +3.41888666e-02 +3.45461428e-01 -8.66240934e-02 -2.39350170e-01 +2.25140944e-01 -6.10891916e-02 -1.21508613e-01 +6.11269698e-02 +8.06338489e-02 +2.14349076e-01 +1.21495333e-02 -2.52525583e-02 +1.97260484e-01 -1.95505694e-01 +1.66610688e-01 -4.17212248e-02 -2.78222889e-01 +8.91150013e-02 -2.77340233e-01 +9.82047524e-03 -3.78154159e-01 +9.67505947e-02 +3.76670342e-03 -2.34158188e-01 +4.23027622e-03 +2.85196304e-01 -1.95786431e-01 -2.40537778e-01 +2.17966735e-02 +3.07274312e-01 -5.45245633e-02 -2.05672100e-01 +1.71660438e-01 +3.00074726e-01 +9.78616551e-02 -2.47744933e-01 -3.92358750e-02 +7.16098398e-02 -2.75923908e-01 +2.02786967e-01 -2.92511910e-01 +1.24643315e-02 +1.92070395e-01 +4.02615398e-01 -1.19292237e-01 -2.63597399e-01 +4.20306176e-01 +3.18006247e-01 +1.61299482e-02 -2.17042770e-02 +2.15171173e-01 -2.58216441e-01 -2.59528160e-01 +1.56131908e-01 -1.50584430e-01 +3.01710516e-01 -6.19925819e-02 -2.86160290e-01 -9.16175693e-02 +6.46188250e-03 -1.14488192e-01 -1.85864970e-01 +2.66499519e-01 -8.85486454e-02 -4.65320617e-01 -7.18138963e-02 -2.07434446e-01 -3.93170238e-01 -1.61092028e-01 -2.11115740e-02 +1.30795926e-01 -1.68448985e-01 -3.73502284e-01 +1.70036539e-01 -1.56625390e-01 -1.88160688e-01 +2.84190953e-01 -2.33183801e-02 -2.26073172e-02 +4.27189499e-01 -6.79964721e-02 +3.10908914e-01 -1.18646979e-01 +9.42969397e-02 +1.38150245e-01 -1.73625052e-01 -5.42873377e-03 +1.52474999e-01 +2.90727377e-01 +3.84897947e-01 -2.08732158e-01 +3.99889112e-01 +2.24813551e-01 -2.70651281e-01 +1.08839385e-01 -1.16041534e-01 +9.94602144e-02 +3.31992328e-01 +4.25917566e-01 +4.05246049e-01 +4.90293890e-01 +3.53168756e-01 +3.91035229e-01 +3.98513079e-01 +2.65772402e-01 +2.83359081e-01 -3.04696579e-02 -9.45535898e-02 +4.30776775e-01 +1.68448184e-02 -1.87052131e-01 -2.62426645e-01 +4.09303784e-01 -1.58252299e-01 +4.11049314e-02 +2.76659489e-01 +4.12187070e-01 -1.18546724e-01 +3.73329163e-01 +2.51979470e-01 +4.13396001e-01 -1.22892044e-01 +7.57960975e-02 +3.87308538e-01 -4.03276011e-02 -4.57872711e-02 -6.97857291e-02 -2.73242593e-01 -1.33298397e-01 -2.17826441e-01 -1.20509952e-01 +3.84268671e-01 -1.43306315e-01 -2.87762076e-01 -1.75524443e-01 -7.02959150e-02 -3.05432200e-01 -5.61149269e-02 -3.50685507e-01 +2.80664712e-01 -4.44932804e-02 -7.54407644e-02 +2.50091910e-01 +4.75704856e-02 +4.09692913e-01 +1.37650162e-01 -2.29179472e-01 -1.34459183e-01 -3.85943092e-02 +2.94737332e-02 +2.31652051e-01 -7.23874718e-02 +3.12526412e-02 -1.29247651e-01 +2.75928199e-01 +3.01734328e-01 -1.60301715e-01 -3.77649651e-03 +1.27871275e-01 -2.15405747e-01 +4.24266666e-01 +4.78935912e-02 +1.30627945e-01 -1.63877994e-01 +3.20161134e-01 +2.77160332e-02 +4.92732555e-01 +2.67796427e-01 -1.43538728e-01 +2.01949447e-01 -9.58337635e-02 +1.13532066e-01 -1.72876194e-01 +3.47981043e-02 -3.13173354e-01 +1.37731969e-01 -1.42712012e-01 +2.89588928e-01 +1.05143547e-01 +3.76716435e-01 -3.90537769e-01 -6.75733015e-02 +1.68437600e-01 -3.79151970e-01 +5.53678023e-03 -2.38729298e-01 +2.05861598e-01 -1.54370740e-01 -1.66240811e-01 +2.29379117e-01 +1.11651979e-01 +1.58565119e-01 +6.81284517e-02 -2.83486634e-01 -1.67950839e-01 -3.28838795e-01 -2.78897107e-01 -7.61504918e-02 -3.34400535e-01 -2.98914582e-01 -2.95333803e-01 -3.86759102e-01 +1.33961231e-01 -5.38761616e-01 -3.11505049e-01 -2.59453624e-01 -1.43611327e-01 -3.11215132e-01 -4.22923297e-01 -8.98700356e-02 +1.36274457e-01 +1.34727597e-01 -1.32993236e-01 +1.96269229e-01 -3.55344564e-01 +1.13723651e-02 -2.53260821e-01 +1.27748311e-01 +8.45028087e-02 -3.70474517e-01 -3.10838908e-01 +8.62428695e-02 +5.08835632e-03 -2.34748304e-01 -2.76700050e-01 -4.32989141e-03 -2.37724438e-01 -2.90879726e-01 +3.40924680e-01 +1.33270532e-01 -1.80718780e-01 +1.25710517e-01 +1.07271262e-02 -1.14103645e-01 +1.72777567e-04 +1.77550390e-01 -5.97961284e-02 +3.26182753e-01 +2.70993300e-02 +3.11906748e-02 -1.79708507e-02 +9.47866216e-02 -3.41206267e-02 -2.52353340e-01 +3.10424805e-01 -1.11889519e-01 +2.93384612e-01 -2.18993619e-01 +6.71580881e-02 -2.40112096e-02 -5.91814853e-02 +1.01570413e-01 +1.80501238e-01 +3.60054582e-01 +4.38463837e-02 +1.80689141e-01 -1.43094063e-01 +1.54416382e-01 +4.09465283e-01 -3.06241989e-01 -3.09277251e-02 -8.87381881e-02 +1.50744379e-01 +1.13856636e-01 +2.82914728e-01 +1.20239882e-02 +7.32187601e-03 +1.06275246e-01 +4.56544489e-01 -1.07637532e-01 -8.41670707e-02 +4.89055485e-01 +1.43446952e-01 -1.39399663e-01 +8.73825476e-02 -2.84135222e-01 -2.98354864e-01 +3.10181051e-01 -5.90168498e-02 +1.83142185e-01 -4.33240607e-02 -4.03902411e-01 -3.58470440e-01 +3.56349200e-02 -2.35470951e-01 +2.66333580e-01 +1.02833822e-01 -1.31728917e-01 +3.08776367e-03 +5.64501435e-02 -1.47890523e-01 -1.94188401e-01 +2.55014926e-01 +8.14882293e-02 -2.33284310e-02 -3.68669719e-01 -2.60038406e-01 +1.91880524e-01 +2.40927875e-01 -1.88797370e-01 +4.82096612e-01 +4.48592424e-01 +5.08768559e-01 +3.27230453e-01 -8.92258137e-02 -3.57754417e-02 -1.12971008e-01 -1.52246639e-01 -3.81185897e-02 +3.40081841e-01 +2.08088234e-01 +2.89766312e-01 +1.37058407e-01 +3.07460159e-01 +4.12376910e-01 -1.51513427e-01 +7.22377421e-03 +1.21713951e-01 -9.42208767e-02 -6.48818910e-02 -3.15655738e-01 -2.67023772e-01 -1.24450654e-01 +2.93127865e-01 +3.24935354e-02 +1.64125949e-01 +2.60122031e-01 +3.88577133e-02 +2.53497204e-03 -3.47033292e-01 -1.43631339e-01 +1.49615064e-01 -1.26577303e-01 +2.31886193e-01 -2.13086113e-01 -2.74131037e-02 -4.96160723e-02 +2.54108846e-01 -2.01306626e-01 +1.92978054e-01 -2.49855816e-01 -6.52190149e-02 +1.06864527e-01 +3.86799657e-04 +2.66227722e-01 -9.20581818e-02 +8.34190995e-02 -1.90400500e-02 -2.21123874e-01 +2.66596645e-01 +8.06201249e-02 +1.60748765e-01 +1.56950876e-01 +2.14503974e-01 +3.28596354e-01 +3.47374439e-01 +2.29479194e-01 +4.52050745e-01 +2.72155348e-02 +3.55063260e-01 +1.03259809e-01 -6.18944271e-03 -3.30575034e-02 -1.00316487e-01 -4.53013228e-03 -1.30761862e-01 +2.31271207e-01 +4.71855663e-02 +3.35679233e-01 -9.77749564e-03 +1.27135590e-01 -1.80565414e-03 -3.31368685e-01 -1.55175805e-01 -5.79007007e-02 +3.16438884e-01 -1.48178441e-02 +1.95445076e-01 -6.95840120e-02 +1.36596382e-01 -1.50487378e-01 -2.32065722e-01 +2.17869475e-01 +1.82482302e-01 +1.65507495e-01 +2.57270008e-01 +2.39984572e-01 +3.47249597e-01 -9.60903317e-02 -3.85042369e-01 -3.22499365e-01 +2.68899202e-01 +4.60943997e-01 -9.63918641e-02 -2.55022030e-02 -1.94088534e-01 +1.44138947e-01 +1.67960778e-01 +1.99286222e-01 -8.63914937e-02 -4.09255087e-01 -1.00667335e-01 -1.83016539e-01 -1.86787695e-01 +1.16841078e-01 +3.18572879e-01 +1.03604600e-01 +1.11934267e-01 -2.64712662e-01 -3.23429495e-01 +6.01950511e-02 +1.74220845e-01 +2.91076154e-01 -2.25216359e-01 -4.30983454e-02 -2.64809340e-01 -7.70833194e-02 +1.80587322e-01 -3.47466990e-02 +5.69993295e-02 +1.65854588e-01 -4.75154035e-02 -4.74242061e-01 +2.37282485e-01 
#Parameter# /_15 {25} 401 ZERO_GRAD
-1.04102328e-01 -2.98742563e-01 +8.62371624e-02 -4.15381938e-01 -5.14654219e-01 +1.07035451e-01 +1.84110880e-01 -1.95935801e-01 -6.65702373e-02 -1.87014580e-01 -1.97871506e-01 -7.92165473e-02 -1.13377115e-03 -3.96521807e-01 +1.53353751e-01 +1.01993546e-01 -1.18249275e-01 -5.37398636e-01 -3.49155456e-01 -4.63623405e-02 -3.45315367e-01 +2.11315110e-01 -7.47782886e-02 -2.25847542e-01 +9.78501812e-02 
#Parameter# /_16 {25,25} 10001 ZERO_GRAD
+1.18356943e-01 -1.42985836e-01 -2.89587587e-01 -1.75495401e-01 +1.25802577e-01 +3.29623938e-01 +2.47589648e-02 +2.69384801e-01 -2.63865411e-01 -2.29851872e-01 +2.41522551e-01 -9.91108716e-02 +1.68182731e-01 -2.81699896e-01 -1.13611445e-01 -2.22335726e-01 -4.56827879e-03 -2.08588615e-01 -3.25578451e-01 -3.48695219e-02 -5.08612096e-02 -1.15416050e-02 +1.33619100e-01 +3.42638135e-01 +8.70806873e-02 -2.46310279e-01 -3.11607718e-02 +1.32125676e-01 -9.23071206e-02 +2.04910219e-01 -3.44445646e-01 +5.76875508e-02 -3.48611772e-02 -3.40080291e-01 +3.44003916e-01 +1.71870112e-01 -2.73510426e-01 -1.43563539e-01 +1.69661045e-01 +3.39646816e-01 +2.98484683e-01 -1.10703737e-01 -1.99116603e-01 +2.98706889e-01 -2.92403072e-01 +5.51524758e-03 +3.07058752e-01 -2.32331038e-01 +3.29261839e-01 +6.36641979e-02 -1.00744322e-01 -3.43364775e-01 -2.72100151e-01 +1.69043720e-01 +2.22731709e-01 -3.87061834e-02 +2.60615766e-01 -2.56452262e-02 -2.79068142e-01 +2.24171102e-01 +4.26283479e-03 -2.80512989e-01 -1.49742350e-01 -6.87073171e-02 +1.90593004e-02 +2.25899160e-01 -2.60334313e-01 -1.57432973e-01 +2.73778379e-01 -2.25506246e-01 +9.69398618e-02 +2.70001829e-01 +2.54267871e-01 -2.10058957e-01 -2.58776248e-02 +2.74175942e-01 -3.43557686e-01 -1.91310972e-01 -1.20951831e-02 +1.59168780e-01 +1.42400712e-01 -2.47185826e-01 -5.12641668e-02 -3.12407613e-02 +1.52385503e-01 -9.76482332e-02 -1.82664320e-01 +2.15204537e-01 +2.02259004e-01 -1.73663631e-01 +1.30059123e-01 +4.86410856e-02 +2.41478145e-01 +7.36069977e-02 +4.20321524e-02 -3.02428335e-01 -3.45322669e-01 +2.51861811e-02 -1.89194828e-01 +1.95150614e-01 -2.91936517e-01 -2.57883966e-02 -1.91612974e-01 -2.33343571e-01 -4.99173403e-02 -1.65836379e-01 -2.71399617e-01 +1.37894213e-01 -2.84827173e-01 +3.05646896e-01 -9.17932391e-02 -1.42086998e-01 +2.92673171e-01 +2.99434900e-01 -3.06876570e-01 -3.13085139e-01 -2.30991587e-01 +1.27583802e-01 -2.64386594e-01 +1.46558672e-01 -2.15234324e-01 +9.07802582e-03 +1.19545132e-01 +7.03230500e-02 +2.10219443e-01 +4.88499403e-02 +3.25386465e-01 -2.85473078e-01 -1.13913566e-01 +2.95237362e-01 +3.20509136e-01 -2.35873297e-01 +6.08049333e-02 +9.93132591e-03 +3.10310960e-01 -3.22389603e-03 -3.37188423e-01 -2.49702871e-01 +4.72492576e-02 +2.54793763e-01 +8.69057775e-02 -3.33871543e-02 +2.64217615e-01 -1.50834829e-01 +4.47103381e-03 +3.30729425e-01 +2.01738834e-01 +3.29006433e-01 +1.08364642e-01 +1.20584458e-01 -2.27944493e-01 +2.32683539e-01 -4.61968780e-03 +3.11713040e-01 -1.20417237e-01 +2.84683168e-01 +2.63761580e-01 -3.02547514e-02 -2.02511400e-01 +2.28439927e-01 -1.58893570e-01 -1.90292865e-01 -1.26682565e-01 -1.71422035e-01 +2.55438566e-01 +2.67669439e-01 -2.50789076e-01 +1.21897310e-01 +1.35107189e-01 +1.79057598e-01 -1.57773480e-01 +2.97694564e-01 -3.03758562e-01 +8.14594924e-02 +1.67049408e-01 -2.33874798e-01 +3.11956465e-01 -1.24379411e-01 -3.81806791e-02 +8.07850063e-02 +2.25812852e-01 -2.16446728e-01 +2.90676057e-02 -6.18600845e-02 +1.94493651e-01 +2.41445959e-01 +1.16220146e-01 +3.26263785e-01 -9.90189463e-02 -3.38510513e-01 +2.00679362e-01 -3.02583754e-01 -3.27113152e-01 -3.01539063e-01 -3.04495096e-02 +1.62383318e-01 -8.25446844e-02 +1.73108816e-01 +3.21061552e-01 -3.23284715e-01 +1.10860258e-01 +9.57385898e-02 +3.45923305e-02 +1.15442485e-01 +1.46655917e-01 -8.69154632e-02 -2.89053619e-02 -6.71694279e-02 -1.35048702e-01 -1.61458895e-01 -1.26374841e-01 +7.79539347e-04 -1.65380016e-01 -4.71415818e-02 -5.05118072e-02 +8.49440694e-02 -2.24532276e-01 -4.97131050e-02 -3.06584567e-01 -1.29514709e-01 +3.09737027e-02 +3.24409366e-01 -1.01988867e-01 +3.30154181e-01 +6.97929859e-02 +4.44083214e-02 -2.65858889e-01 -1.25380278e-01 -3.08162242e-01 +2.99496651e-02 -9.35418308e-02 -5.02259731e-02 -2.48480871e-01 -2.40204692e-01 +3.37284863e-01 +2.34494865e-01 -1.02950543e-01 +2.67557859e-01 -5.15049696e-03 +5.32789230e-02 -3.03853273e-01 +1.08972579e-01 +6.24875128e-02 +2.93408096e-01 -2.37849504e-01 +6.48016632e-02 +3.57807279e-02 +1.81382477e-01 -1.12690493e-01 -2.50522494e-02 +1.73120439e-01 -1.20999157e-01 -2.49572247e-01 +2.20147789e-01 -1.16603121e-01 +2.27095604e-01 -8.43699276e-02 +3.12096417e-01 -3.42871010e-01 -3.19497615e-01 -1.25635505e-01 -2.48990953e-02 -9.60136652e-02 -1.28595412e-01 -1.50507942e-01 +1.58454955e-01 -2.48828813e-01 +3.14502537e-01 -5.99628389e-02 +2.89823592e-01 +1.23943448e-01 +4.70396578e-02 -3.40840966e-01 -5.96625805e-02 +9.83297825e-02 +1.66371465e-02 +2.48546064e-01 -5.02467155e-05 +2.02906728e-01 +2.18692303e-01 +1.47816569e-01 -1.01967156e-02 +7.03220963e-02 +2.63402641e-01 -1.60306618e-01 -1.65773794e-01 -1.36804879e-01 +2.37383485e-01 +2.80398309e-01 -3.22490394e-01 +7.05155432e-02 -2.47592539e-01 -2.25590006e-01 +2.29281366e-01 +3.43173206e-01 -8.29359889e-03 +2.30063796e-01 +3.14520419e-01 -1.77754730e-01 -1.72422752e-01 +2.10964501e-01 -6.71707094e-02 -1.28569454e-01 -1.72913700e-01 +1.80644393e-02 +8.14293921e-02 +2.95967579e-01 -4.97305989e-02 +1.81978703e-01 -4.81535196e-02 +2.45221913e-01 +1.06329858e-01 -6.81696832e-02 +5.27131259e-02 -1.53618768e-01 -3.44530076e-01 +1.12409592e-02 -1.13655031e-01 +1.44267887e-01 +6.18622601e-02 -2.64418840e-01 -2.96772927e-01 -6.35133684e-02 +2.34733820e-02 -2.84581006e-01 -2.37094760e-01 -1.54921889e-01 +2.21073627e-01 +2.22850680e-01 -1.73208937e-01 -3.37591171e-01 -1.49567932e-01 -1.89424992e-01 +2.09332526e-01 +9.36081707e-02 +1.53301805e-01 -1.78656042e-01 +3.10159922e-02 +5.63853681e-02 -2.63252735e-01 +2.00098693e-01 -6.30768538e-02 +6.98246658e-02 +3.35454166e-01 -2.27105707e-01 -2.17432112e-01 -2.87545830e-01 -1.43393397e-01 +3.31930280e-01 +2.54025877e-01 +9.23270881e-02 -2.82934397e-01 +2.98592806e-01 +2.26385295e-02 -1.42341316e-01 +7.39454031e-02 -1.33819655e-01 +8.68907869e-02 -1.36614293e-01 -2.66067088e-01 -4.91085351e-02 +2.28183448e-01 -1.43983066e-01 -1.60532534e-01 -1.55148849e-01 -1.65821314e-02 -2.77998656e-01 +9.31199193e-02 -2.86418349e-01 -4.34949696e-02 +5.27246594e-02 -1.31801412e-01 -1.33138895e-02 -1.20073855e-01 -1.13882452e-01 +5.17324507e-02 -3.44328672e-01 +1.01200104e-01 -1.67253017e-02 +8.29198658e-02 -2.07804129e-01 +2.60236740e-01 -1.28981650e-01 +2.19927907e-01 +3.00048172e-01 +7.68925548e-02 +3.42595577e-01 +8.65065753e-02 +1.29165024e-01 +3.20149243e-01 -2.22969621e-01 -2.83435971e-01 +9.53192413e-02 +1.98422730e-01 -1.64876997e-01 +1.85252964e-01 +3.20825994e-01 +2.67745852e-01 -1.68925524e-03 -9.42975879e-02 -9.38202441e-02 +3.40925038e-01 +2.83989310e-01 +1.87486827e-01 -2.09135562e-01 -2.29674622e-01 -1.45560592e-01 -3.12795550e-01 -1.96346715e-01 -1.92305580e-01 +1.71069860e-01 -2.29656756e-01 +2.41293967e-01 -1.78787977e-01 -3.42371970e-01 +2.43733168e-01 +1.92602575e-01 +1.70037270e-01 -2.37453878e-02 +2.91448057e-01 +8.18407834e-02 -2.39210919e-01 +2.98828185e-01 +4.28358018e-02 -2.67427862e-02 -3.07249010e-01 -9.07764137e-02 -1.64167389e-01 -1.63321480e-01 -5.81558347e-02 +1.57083690e-01 -4.59506810e-02 +1.88446879e-01 -2.81019747e-01 -1.32677883e-01 -1.61010012e-01 -1.31326810e-01 -1.56266838e-01 -3.23741794e-01 -8.98098946e-03 +1.31103396e-03 +8.88896883e-02 +2.85850406e-01 -8.83210003e-02 +1.83943212e-02 -2.34836861e-01 +1.76840782e-01 +3.37001622e-01 +3.12869191e-01 -8.13710093e-02 -3.21382284e-01 +2.04394042e-01 -1.30790681e-01 +1.25741899e-01 +3.20757687e-01 +2.57453620e-02 +1.17691129e-01 +1.04058236e-01 -2.30004370e-01 -1.39038265e-01 -2.63694167e-01 -3.01939011e-01 -3.95376086e-02 +3.15382123e-01 +1.86355174e-01 -1.88716352e-01 -3.00832808e-01 +6.03494942e-02 -2.20679328e-01 -1.35175377e-01 -2.07946569e-01 -2.01595455e-01 +1.20896965e-01 -2.76478827e-02 +1.16424471e-01 -1.71578243e-01 -5.59494793e-02 -1.90802202e-01 -2.65805930e-01 +1.90114319e-01 +6.39316738e-02 +2.94427574e-01 +1.26303345e-01 +2.47670352e-01 +3.26802731e-01 -9.65047032e-02 +1.41102016e-01 -1.74575552e-01 -3.02068293e-02 +3.13482881e-01 +2.62141526e-01 +1.63133383e-01 -1.05555266e-01 -2.03395382e-01 -2.13330418e-01 +2.88409173e-01 +5.30856550e-02 +7.01459050e-02 +1.21426582e-01 -6.55979514e-02 +8.86944830e-02 +1.19054139e-01 -3.22415411e-01 +2.21499622e-01 -1.98991731e-01 +2.24112988e-01 +1.62178993e-01 -3.25559527e-01 +2.05524683e-01 -1.75463006e-01 -3.07014108e-01 -2.07772672e-01 -9.95765179e-02 -3.38494509e-01 +3.52919102e-04 +1.19945735e-01 -2.12314248e-01 +1.12371147e-01 -9.88827795e-02 -2.19344944e-01 -7.37831891e-02 -2.70282030e-02 +1.47278160e-01 +2.28546500e-01 -3.31562668e-01 -1.33414596e-01 +3.14527094e-01 -1.60136521e-01 +1.10395253e-02 -2.53791094e-01 -2.73776352e-01 -2.49465644e-01 +1.03389084e-01 -2.85763919e-01 +3.40900242e-01 +2.54295290e-01 -1.11838281e-02 +9.16833580e-02 +3.41302574e-01 +1.35264814e-01 -2.53980190e-01 +3.39551687e-01 -3.19771409e-01 -1.34523198e-01 -2.72287309e-01 -1.32120699e-01 -9.56736803e-02 +2.70895600e-01 +6.62797689e-03 +3.13730478e-01 -5.84059060e-02 +3.63919139e-02 +2.71653652e-01 -2.11809799e-01 -1.38979778e-01 +1.52395636e-01 +3.36107016e-01 +2.52272189e-01 -8.01646113e-02 -5.71769178e-02 -1.40536711e-01 +1.17610723e-01 +1.17265999e-01 -1.17767051e-01 +1.20097369e-01 +1.47335798e-01 -2.31790185e-01 +4.43503261e-03 -5.62861860e-02 -2.50762224e-01 -9.00883675e-02 +2.67957151e-01 -3.41665268e-01 -6.50690496e-02 -2.73655772e-01 +3.71263921e-02 +1.35675311e-01 +1.26893431e-01 +3.27293217e-01 +2.03674018e-01 -2.61639655e-02 +1.09474242e-01 +6.44612014e-02 +5.25314212e-02 +3.11218500e-02 -2.15582982e-01 +2.34613121e-01 -3.17809284e-01 +2.22626090e-01 +1.18854135e-01 -2.77448237e-01 -9.69657302e-03 +2.88901389e-01 -2.94474185e-01 +3.27409744e-01 +8.76930654e-02 +2.71560073e-01 -2.38803029e-03 -3.37092996e-01 +1.72073901e-01 -2.13554204e-02 +4.40831482e-02 -3.37164283e-01 -2.30299532e-01 -2.87665963e-01 +7.07902014e-02 -2.88899839e-02 +3.23957920e-01 -2.21619904e-01 +2.50178218e-01 +1.96028054e-02 +1.87782764e-01 -2.26712644e-01 +3.22725832e-01 -5.86315393e-02 +1.69192553e-01 -3.17558080e-01 -8.62539709e-02 -2.61684358e-02 -1.51230589e-01 +1.94178820e-01 -3.01799357e-01 +9.81639326e-02 +7.00197816e-02 -2.52155215e-01 
#Parameter# /_17 {25,25} 10001 ZERO_GRAD
+2.49672472e-01 -9.69343185e-02 -1.55044988e-01 -2.45035201e-01 +1.69048607e-01 -2.79137850e-01 -2.94884890e-01 +3.31638098e-01 -7.62292743e-03 +3.18732500e-01 +1.27723247e-01 -1.81681767e-01 -3.05877417e-01 -6.41702116e-02 -2.38428727e-01 +3.52808833e-02 +1.05884790e-01 -1.93617865e-01 +1.31383538e-02 +1.66456819e-01 +1.85734034e-03 +3.02862346e-01 +5.65964580e-02 -1.84493452e-01 +3.28357100e-01 -2.05933779e-01 +2.71801412e-01 -1.61660612e-02 -9.62353647e-02 -9.27480757e-02 +2.66175508e-01 -7.12191164e-02 +2.07489133e-01 -1.39412954e-01 +1.70233130e-01 -2.30537564e-01 +1.88797712e-01 -2.18150049e-01 +1.82306588e-01 -2.88849652e-01 +3.04503739e-01 -2.57783294e-01 +1.57226503e-01 +3.14601719e-01 +7.17187524e-02 +1.19555771e-01 -2.23313630e-01 +3.19613576e-01 -2.41086513e-01 +8.11153054e-02 +7.63317943e-03 +3.67686450e-02 -2.84969866e-01 -1.91298023e-01 +1.85989261e-01 -1.96912885e-03 +9.24943089e-02 +3.21120560e-01 -2.17162609e-01 -2.68526256e-01 -2.77493656e-01 +1.16282672e-01 -1.06169045e-01 +2.72331417e-01 -2.10659847e-01 +1.92157924e-02 -3.20352167e-01 +1.56802833e-01 +1.74015105e-01 +1.02883220e-01 +4.68906164e-02 +6.50213957e-02 +1.00524515e-01 -7.20029175e-02 +2.85732508e-01 +1.37379169e-01 +1.32699668e-01 +2.98795998e-01 -1.48642778e-01 +2.01804936e-01 -1.09166458e-01 +1.41311526e-01 -2.05905065e-01 +1.48628265e-01 -2.87721515e-01 +2.09475338e-01 -2.14644149e-01 -5.66763878e-02 +3.32141161e-01 -1.03795916e-01 -2.12216645e-01 -2.36977518e-01 -2.44224310e-01 -3.48070264e-02 +1.10257119e-01 -2.62213945e-02 -5.50931692e-03 +2.49409199e-01 +7.43744671e-02 -1.27469629e-01 +1.48984969e-01 -5.25374711e-02 +3.45180571e-01 +1.73919678e-01 +3.06902945e-01 -5.14577627e-02 -2.35927373e-01 +3.12139332e-01 +2.55229056e-01 +2.21727908e-01 +2.67496169e-01 +3.71473134e-02 -1.38490111e-01 -1.64510086e-01 -3.41728926e-02 +3.21295917e-01 +3.10849965e-01 +3.19238365e-01 -2.12162137e-02 -7.33678341e-02 +5.88309169e-02 -2.84897149e-01 +2.96795428e-01 -2.12974474e-01 +2.69039154e-01 +3.10003936e-01 -3.05181503e-01 +2.05429316e-01 +3.74477804e-02 -2.89053470e-01 -1.23359486e-01 +3.29539120e-01 +2.24047720e-01 -3.09173882e-01 -1.56615928e-01 -5.07622361e-02 +1.93302035e-01 +1.22766048e-01 -3.74954939e-03 +2.70375073e-01 +3.26738775e-01 -1.94782913e-01 -2.04767212e-01 -1.07709497e-01 -7.05884993e-02 +2.35193014e-01 +1.22884274e-01 +7.51374364e-02 -2.22245157e-02 +3.01003456e-05 -2.95584500e-02 +3.95250320e-02 +4.61255014e-02 -4.32972908e-02 +1.22014970e-01 -3.31495166e-01 -1.30932778e-01 +1.91741228e-01 -1.17073953e-01 +2.34851897e-01 +2.91795671e-01 +1.58265352e-01 -3.27717960e-01 +6.08550310e-02 -2.69053161e-01 -1.28778890e-01 +7.29570389e-02 +2.28336573e-01 -4.23615873e-02 -1.99529365e-01 -2.82493263e-01 +1.68943703e-02 +2.73248613e-01 +4.92290854e-02 +1.18814409e-02 +2.60080874e-01 -2.57242352e-01 +1.88573241e-01 +2.89415002e-01 -3.44468117e-01 -6.12847209e-02 -2.99167931e-02 +1.96471870e-01 +7.34011233e-02 +2.47856200e-01 -2.16896653e-01 -1.55745119e-01 +2.22690761e-01 -7.75689185e-02 +1.62974477e-01 -7.96569288e-02 -2.52875984e-02 -1.41797230e-01 +9.17971730e-02 -1.09269127e-01 +2.90854871e-01 -2.32131705e-01 -4.82868850e-02 -1.77652225e-01 -3.50697339e-02 -1.00938678e-02 -2.36978695e-01 -2.47781515e-01 -1.04304627e-01 -7.78506100e-02 -2.41359442e-01 -5.87483644e-02 -1.56512156e-01 -1.95270851e-01 +1.36641622e-01 +3.07344496e-01 -2.36161426e-01 +2.32769251e-02 -2.34261751e-02 +3.37348700e-01 -1.39485747e-01 -2.57519186e-01 +1.46763980e-01 +2.25522459e-01 -3.17420989e-01 +2.13042974e-01 -1.54532433e-01 +2.27116346e-01 -1.38519078e-01 -2.45087147e-01 +1.67407393e-01 -1.14540175e-01 +8.06492567e-03 +2.25440979e-01 +1.15117133e-02 +2.68914104e-01 +1.16270363e-01 +2.98834801e-01 +2.32383668e-01 +2.39626288e-01 +3.14919770e-01 +1.84687912e-01 +3.31001580e-02 +3.18769753e-01 +2.66351044e-01 +2.21415102e-01 -1.81390345e-02 -2.65268385e-01 +5.39710224e-02 -2.28098631e-01 +2.25517094e-01 +2.09539890e-01 +2.73287535e-01 +2.33056545e-01 -2.19105572e-01 +9.38827395e-02 +2.45518386e-01 +1.89228952e-01 +3.11118960e-02 +1.01186484e-01 +2.97234774e-01 -3.12588155e-01 +7.45279193e-02 -2.04651356e-02 -2.99328417e-01 +5.22225797e-02 +4.83516753e-02 +1.89362288e-01 +2.91078091e-01 +1.57499909e-01 -5.90732396e-02 +2.58505762e-01 -1.62459373e-01 +9.77485478e-02 -7.89452791e-02 +2.44474351e-01 -3.16171736e-01 -2.34620571e-02 +3.38210821e-01 -2.87981540e-01 +1.38747871e-01 +1.90330863e-01 -2.90959716e-01 -1.65268734e-01 -5.40710092e-02 -5.13374805e-03 +6.72315657e-02 +3.15650821e-01 +9.27852988e-02 +1.91582620e-01 +3.93233299e-02 -2.81031132e-01 +2.78832674e-01 -2.26415083e-01 +2.03435004e-01 +1.15694493e-01 +2.44565666e-01 +1.81981385e-01 -2.70440042e-01 -3.13494802e-02 +3.15890014e-01 +1.69826686e-01 -2.33647019e-01 -8.82992148e-03 +3.28988850e-01 -1.80108413e-01 -1.44067690e-01 +1.97321177e-01 +3.82885039e-02 +2.50004470e-01 -1.47590935e-01 +1.00827694e-01 -1.93813533e-01 -1.39437795e-01 -1.01750284e-01 -3.32896203e-01 -3.27754319e-01 +3.09295654e-01 -1.25319824e-01 +2.12795854e-01 -1.47171870e-01 -1.61096916e-01 -4.78458405e-02 +1.92399621e-01 +3.06583941e-01 +2.82094419e-01 +1.14079684e-01 -2.77366132e-01 +2.75180042e-02 +4.87634540e-02 +3.33659828e-01 -1.14488006e-01 -2.64910311e-01 -3.23383629e-01 -1.05558589e-01 -2.21654087e-01 +1.61322951e-01 -1.32076502e-01 -2.93978393e-01 +1.91464901e-01 +2.52724290e-02 +2.61631191e-01 -3.41043234e-01 -2.05292881e-01 -3.02807450e-01 -2.60385871e-02 -1.51208684e-01 +8.18781853e-02 -3.46761942e-03 +2.18504667e-02 -3.13778162e-01 -9.57109928e-02 +1.79361105e-02 -1.61302552e-01 -2.71941841e-01 +3.32282186e-01 +1.81493104e-01 +1.23147160e-01 +6.88480437e-02 -2.81632185e-01 +1.78890347e-01 +6.47536814e-02 -1.26119643e-01 +1.63956285e-01 +1.07832819e-01 +6.70981407e-03 +1.37730747e-01 -1.20660931e-01 +1.64346755e-01 -1.33745804e-01 +1.31075770e-01 -7.17397928e-02 +1.69474721e-01 -3.31012368e-01 +3.42778623e-01 -2.28816539e-01 -1.94908768e-01 +1.30928099e-01 +9.59405303e-03 -4.19338048e-02 +2.03711212e-01 -2.64628321e-01 +6.13503456e-02 -1.10453919e-01 -1.76166698e-01 -3.02651018e-01 -2.16994300e-01 -1.88366905e-01 +2.61733234e-01 -2.89660394e-01 -7.69121051e-02 -1.62577629e-02 -3.44235748e-01 -2.89651901e-01 -2.01043382e-01 -5.81400096e-02 -3.35825652e-01 -3.05532217e-01 +1.80205703e-01 -2.33306497e-01 -3.10020745e-01 -3.13424081e-01 +2.35355020e-01 +2.63097942e-01 -8.59196484e-02 +2.01647699e-01 -2.13794634e-01 +3.24546874e-01 +2.95296669e-01 +5.23149669e-02 -1.40829042e-01 -2.94034094e-01 +2.70175815e-01 -9.14881229e-02 -1.94817394e-01 +6.75000250e-02 -1.41229585e-01 +2.17844963e-01 +2.74477184e-01 -1.77619502e-01 -1.07695132e-01 +2.94914961e-01 -3.00057232e-02 -1.29930541e-01 -1.32474497e-01 -9.27057862e-03 +7.68295825e-02 +3.39498162e-01 -5.11268675e-02 +2.19153762e-01 +2.91256070e-01 -2.68758982e-01 +2.40064979e-01 -1.91236183e-01 -3.40714961e-01 +2.54687607e-01 -1.62605539e-01 +2.87824929e-01 +2.38909483e-01 +1.32596910e-01 -2.23664641e-02 +2.17183232e-01 +3.65996659e-02 -1.99672967e-01 +3.40252817e-01 -2.70726144e-01 +2.57780910e-01 -3.21326196e-01 +1.17164165e-01 +2.11201489e-01 -2.42786109e-02 +1.69137120e-01 +2.71749198e-01 +1.30603671e-01 -2.92643130e-01 +3.36906493e-01 +1.83270991e-01 +1.33930981e-01 +2.34049141e-01 +3.11902583e-01 +1.08754158e-01 +1.59404695e-01 +1.41505629e-01 +1.70793891e-01 +5.40277362e-02 +1.97297812e-01 -1.28193125e-01 -2.23820925e-01 -2.87178993e-01 +2.88392127e-01 +4.97147441e-03 +1.62415087e-01 -7.71479905e-02 -2.07367525e-01 -2.53130823e-01 -2.64586568e-01 +2.30937243e-01 +7.59857893e-02 -4.36984003e-02 -3.39031905e-01 +5.93029559e-02 +1.03590012e-01 -2.59497166e-02 -1.34996489e-01 +2.86146998e-03 +1.52207196e-01 +1.42680824e-01 +1.24957174e-01 +6.68297708e-02 +1.38943553e-01 +1.35989189e-02 +7.55735636e-02 +6.63915873e-02 -7.91402757e-02 +1.30872279e-01 -2.44578779e-01 +3.43690753e-01 +2.90261090e-01 -1.88844010e-01 +3.25783193e-02 +3.92966568e-02 -2.52303869e-01 -6.41503930e-02 -2.69045949e-01 +1.22619033e-01 +9.22530890e-04 +1.72374845e-02 -3.33754241e-01 -2.81410813e-02 -3.47241461e-02 +2.68316567e-02 +1.77949965e-01 -1.09965429e-01 -1.28711730e-01 +4.81328070e-02 +5.11100590e-02 +1.20334357e-01 -2.43882447e-01 -2.69333363e-01 +5.58251739e-02 +3.09206963e-01 +1.69906914e-01 +2.51494110e-01 -1.84027582e-01 -9.51258540e-02 -2.09571525e-01 +1.65152133e-01 -1.26221687e-01 +1.66845024e-01 +2.04412937e-02 +9.04203355e-02 +1.17477953e-01 -5.80932796e-02 +1.52508378e-01 -3.82439196e-02 -1.47658154e-01 +4.50718999e-02 +2.01996386e-01 -7.25674927e-02 +1.39409304e-02 -1.37717038e-01 -5.62264621e-02 -7.79749751e-02 -4.00094390e-02 +4.73734140e-02 -2.97896266e-02 +7.48521984e-02 -1.34335086e-01 -3.19656581e-01 +3.49852145e-02 +1.20175511e-01 -2.22068846e-01 -1.28805637e-02 -3.41371834e-01 +3.29931676e-01 -1.15663603e-01 +1.41314447e-01 +2.75322318e-01 +1.02800637e-01 -1.33189261e-01 -5.44899404e-02 -2.43432045e-01 +1.15112036e-01 +1.67062104e-01 +3.23920667e-01 +2.97759771e-01 -1.43345281e-01 +2.78057814e-01 +1.03000700e-02 -2.42504537e-01 +2.08895683e-01 +1.21679604e-02 -2.47125924e-01 -3.03062409e-01 -1.32534817e-01 +5.81000745e-02 -2.24602580e-01 -3.45824510e-01 -2.44819626e-01 +7.13029206e-02 -2.67124236e-01 +9.41746831e-02 -9.35351849e-02 -2.70922005e-01 +1.57539129e-01 -1.04416862e-01 -9.34945345e-02 -3.08731198e-03 -3.13850403e-01 +2.59293199e-01 +1.52295828e-01 +3.27027678e-01 +7.73249567e-02 +2.79758990e-01 +1.07968062e-01 -1.42435923e-01 -3.32764715e-01 -6.05868101e-02 -2.87756890e-01 +3.39250207e-01 -1.57349870e-01 +1.65025353e-01 -1.85035035e-01 -2.76023597e-01 -3.11440259e-01 -1.51618227e-01 +2.60207653e-01 -6.36492372e-02 +1.87951624e-01 -2.86426365e-01 -2.91023523e-01 +2.20134616e-01 +1.31182730e-01 -1.63261428e-01 -1.22892916e-01 -2.17807889e-01 +2.82677591e-01 +1.24719977e-01 +9.40826535e-03 +1.51755095e-01 -2.74514884e-01 +2.59096324e-02 +2.32904494e-01 +4.24715281e-02 +2.41197824e-01 +1.61562800e-01 -1.60677075e-01 +6.65456057e-03 +5.99885285e-02 +2.54315495e-01 
#Parameter# /_18 {25} 401 ZERO_GRAD
+2.06196547e-01 -2.63239861e-01 -2.74220794e-01 +8.89610648e-02 +2.47785330e-01 -9.71442759e-02 -2.30193347e-01 -2.94533014e-01 +3.23157609e-01 -3.44336152e-01 +2.13281691e-01 +3.17190945e-01 +2.39913046e-01 +3.66476774e-02 +2.38434911e-01 +3.29004109e-01 -2.28219658e-01 -3.14303577e-01 -3.22370678e-01 +2.27806091e-01 +3.14180672e-01 -3.09442997e-01 +1.80209816e-01 -3.60697508e-04 +9.79094505e-02 
#Parameter# /_19 {25,25} 10001 ZERO_GRAD
+1.54051438e-01 +1.98566079e-01 -6.52628541e-01 +5.97983897e-01 +4.67888683e-01 -1.36573032e-01 +2.19659597e-01 +3.10453564e-01 -2.95167714e-01 -2.91742861e-01 +3.29173833e-01 -1.56066567e-01 -2.90583789e-01 +1.66136801e-01 +1.65885717e-01 -4.15667713e-01 +3.37106027e-02 +4.60135460e-01 -3.26668352e-01 +1.41045928e-01 +2.74243832e-01 -1.19447172e-01 +3.28799188e-01 +3.71505260e-01 -7.00929612e-02 +6.12192571e-01 +5.70041180e-01 -5.42200923e-01 +1.99497417e-01 +5.29743612e-01 +3.33127022e-01 +7.06836060e-02 +2.76164651e-01 -2.31211007e-01 -5.66803455e-01 +5.86612761e-01 +3.24513614e-01 +9.37614124e-04 +4.39640790e-01 +1.51799843e-01 -1.41939789e-01 +6.94052652e-02 +3.23432758e-02 -4.09050882e-01 +2.13766471e-01 +2.30557639e-02 -7.26097226e-02 +6.67698011e-02 +1.32986546e-01 -8.57849419e-02 +1.62663758e-01 +1.65702239e-01 +1.31266040e-03 +4.60678846e-01 +4.45775390e-01 +4.29366753e-02 -1.78778633e-01 -3.98702085e-01 -5.37954569e-01 -6.80986106e-01 +2.39350900e-01 +4.27722782e-02 -3.24030280e-01 +6.01218641e-01 -1.00214206e-01 -4.46981966e-01 +2.27874964e-01 +5.47554731e-01 -6.26010418e-01 -4.48446631e-01 -2.15938672e-01 +3.80267739e-01 +1.59844607e-01 +5.69397449e-01 -6.59197047e-02 +5.25837600e-01 +3.27813506e-01 -4.27347928e-01 +5.19417048e-01 +1.63922250e-01 -2.48855457e-01 +2.25606367e-01 +2.52358112e-02 -3.97787422e-01 -7.05309212e-01 +3.65602702e-01 +1.34275645e-01 -2.58613735e-01 +3.24664563e-01 +3.79004329e-01 -7.48745650e-02 +4.00837511e-01 +6.39441788e-01 -5.12758911e-01 -1.53418452e-01 +9.47386175e-02 -2.21428916e-01 +2.30000928e-01 +1.20766178e-01 -1.79229811e-01 +2.32545137e-01 +1.45170048e-01 +3.09157550e-01 -1.07329942e-01 -2.22592577e-01 +6.09104522e-02 +4.21557546e-01 +1.10824078e-01 +1.73351124e-01 +1.87025622e-01 +1.00398242e-01 +2.12227732e-01 -8.97859186e-02 -2.88369000e-01 -4.12054837e-01 -1.89172372e-01 +2.74085790e-01 -1.30077332e-01 -1.67325780e-01 +7.70659819e-02 -2.11053908e-01 +1.66505337e-01 -3.37389201e-01 -1.25275090e-01 +9.24913511e-02 -1.15951918e-01 +1.12542324e-01 +1.43756703e-01 +1.73782587e-01 +1.98729262e-01 +1.31270170e-01 -1.66185006e-01 -3.04658741e-01 -3.18997115e-01 -1.56606600e-01 -8.18624347e-02 +1.89103648e-01 +2.65823752e-01 +5.95305711e-02 -7.92722702e-02 -3.62518877e-01 +3.17744434e-01 -2.10614651e-01 +7.17991218e-02 -2.78951079e-01 -2.71912366e-01 +1.54116511e-01 +1.08140722e-01 -6.45792782e-02 +3.06743890e-01 +6.71237409e-02 -4.09127057e-01 +1.97768569e-01 -3.37601990e-01 +2.16118217e-01 -3.79922986e-02 +8.33181813e-02 +3.55175257e-01 +2.51831830e-01 +4.46988463e-01 -4.64299060e-02 +3.41275930e-01 +1.34565711e-01 -5.01878969e-02 +6.54671565e-02 -5.25200255e-02 -3.34122717e-01 -2.64283299e-01 -3.21188336e-03 +2.15160683e-01 +3.59654099e-01 -4.03303742e-01 -2.99116284e-01 -2.93432444e-01 +4.00284052e-01 -2.99236737e-03 +4.97582585e-01 -3.75610031e-02 +1.65664837e-01 +3.99214119e-01 -3.15036565e-01 +2.41187643e-02 +2.35118896e-01 -5.50657153e-01 -3.73051882e-01 +2.50290066e-01 -7.18227774e-02 +2.31615320e-01 +1.82667017e-01 +1.44353181e-01 +2.66609737e-03 +5.48355579e-02 +5.24269104e-01 -3.22005183e-01 -2.31333628e-01 -1.48472637e-01 -1.57557964e-01 +3.00053030e-01 +4.47577804e-01 +4.15351614e-02 -3.14561099e-01 -4.67583954e-01 +7.24569410e-02 +1.42257184e-01 +9.11834091e-02 +3.26292366e-01 -2.13260323e-01 -1.64506525e-01 -1.66449443e-01 -1.69079065e-01 -9.08202380e-02 -1.78467289e-01 -1.31212026e-01 -1.69084400e-01 -3.87241840e-02 -2.36842260e-01 -2.13841289e-01 -4.08809453e-01 +3.50644231e-01 +1.78516239e-01 -6.96683079e-02 -2.04124209e-02 +1.53113499e-01 -3.31168920e-01 +1.47677079e-01 -2.16607556e-01 -2.27501079e-01 +3.03122938e-01 +1.84513524e-01 +2.24783182e-01 -1.60810441e-01 +4.29615378e-01 +2.48708557e-02 +8.11719671e-02 +6.74623623e-03 +1.12264790e-01 +3.61269981e-01 +1.00977279e-01 +1.35796264e-01 +1.83545612e-02 -8.79234299e-02 -3.21357459e-01 -8.17526877e-02 +2.09930256e-01 +3.71840537e-01 +3.68418247e-01 -4.05839086e-01 -7.99956173e-02 +1.53222755e-01 +2.26416305e-01 +5.34424186e-01 +4.14295435e-01 -4.75690514e-01 +1.79912135e-01 +4.63471740e-01 -7.00569525e-02 -1.56960055e-01 -5.63906468e-02 -2.13917494e-01 -1.79546833e-01 +7.68994763e-02 -2.67411798e-01 -2.55061299e-01 +1.22651882e-01 +4.03568834e-01 -4.26229626e-01 -1.42628141e-02 -3.50035839e-02 -5.52187443e-01 -3.43019575e-01 +1.43088967e-01 -7.20078349e-02 +4.04696792e-01 +6.40789270e-02 +1.55330881e-01 +2.07974121e-01 -1.64228633e-01 +1.21009275e-01 +7.55975097e-02 -1.81015506e-01 +1.12846173e-01 +2.26246696e-02 +2.62582183e-01 +2.70664275e-01 -1.22199163e-01 +1.48460697e-02 +2.62972832e-01 -1.37547761e-01 -1.60427198e-01 -6.28536195e-02 +1.59864470e-01 +1.82675682e-02 -5.08309267e-02 +2.30587751e-01 +1.95995271e-01 +2.83642590e-01 +2.82398522e-01 +2.21133649e-01 -2.70181209e-01 -2.79979378e-01 -7.70893842e-02 -1.24314062e-01 +8.12589005e-02 -1.95501205e-02 -3.55100662e-01 +1.23205699e-01 +9.73589197e-02 -2.41497040e-01 +5.22826612e-02 +2.00416744e-02 -9.50675383e-02 +7.84991980e-02 +1.53642356e-01 +3.35794017e-02 +1.33727267e-01 +1.02497421e-01 -1.81702580e-02 -2.90183760e-02 +1.66669190e-01 -6.04437552e-02 -1.76831819e-02 -2.90231347e-01 +1.77119240e-01 +4.60611582e-02 -1.47913322e-02 +1.01819448e-01 +2.24461357e-04 +1.74093261e-01 -1.36493132e-01 +6.85970113e-02 -4.01059389e-02 +2.99716502e-01 +1.65343121e-01 +4.34058249e-01 -2.88604554e-02 -9.09862965e-02 -2.12863877e-01 +8.49894583e-02 -9.17649269e-02 -3.99512470e-01 +4.24117625e-01 +7.58568645e-02 +5.66090532e-02 +2.41150856e-01 -2.29696855e-01 +5.93501201e-04 -2.94560730e-01 +7.98935890e-02 -1.47327006e-01 -2.79163003e-01 -2.40194201e-01 +2.86720455e-01 -3.17436531e-02 +4.04122710e-01 -1.39370948e-01 -3.91277373e-01 +4.86510620e-02 +9.94526222e-02 -3.62607539e-02 +1.44360721e-01 +3.61458175e-02 -3.13379169e-01 -7.10988864e-02 +1.61483377e-01 +6.09593168e-02 -2.07934797e-01 +3.85092735e-01 +1.26601487e-01 -1.01466022e-01 -1.21996686e-01 -3.48895401e-01 +6.16325736e-02 -2.59213075e-02 -2.00276613e-01 +1.53824277e-02 +2.24209771e-01 -3.77155021e-02 -3.58259916e-01 +2.50951707e-01 +6.80049416e-03 -1.89346626e-01 -1.18246593e-01 -6.78404942e-02 -4.48378146e-01 -3.46839339e-01 -1.88642684e-02 -2.88460851e-01 -4.13261980e-01 +2.33817428e-01 -3.67282890e-02 -4.39907461e-01 +1.71830475e-01 +1.59139052e-01 -6.72742054e-02 -2.70537525e-01 -4.05486733e-01 +8.96550491e-02 +3.91056299e-01 -2.16994405e-01 -1.12581752e-01 +3.25270265e-01 +2.69050360e-01 +2.09343821e-01 +1.45367935e-01 +2.42652193e-01 -1.22518770e-01 +3.01372563e-03 +7.49120414e-02 -3.04274887e-01 +1.84736475e-01 +2.68529743e-01 +1.85940772e-01 +1.93055168e-01 +1.98384389e-01 +2.75519341e-01 +2.11316288e-01 -1.53595790e-01 -1.15360059e-01 +1.16229385e-01 +3.68487775e-01 -4.19400990e-01 -4.98615839e-02 +2.79579103e-01 +2.44765624e-01 -3.49666804e-01 +1.82585359e-01 -2.60921240e-01 +4.01512474e-01 +2.27819264e-01 -1.86565265e-01 +3.61986607e-01 +3.91275510e-02 +9.23357680e-02 +2.11485460e-01 -2.77063577e-03 -2.31566846e-01 -1.17301174e-01 +2.52244741e-01 -3.36536378e-01 +2.38270819e-01 -1.70034692e-01 +9.05955508e-02 -2.39627510e-01 +3.08129817e-01 +2.96657115e-01 +1.42350644e-01 -3.85517955e-01 +2.14653388e-01 +8.98877084e-02 +1.52965948e-01 +3.50185372e-02 -8.20400417e-02 -1.67149246e-01 +7.97391683e-02 +3.79667878e-01 -3.74591857e-01 +1.78705066e-01 +2.32637569e-01 +2.42917374e-01 +1.85311943e-01 +3.95189315e-01 -6.43696189e-02 -6.98529631e-02 +3.08878511e-01 -1.14983648e-01 -3.13886195e-01 +3.18791755e-02 +4.00479168e-01 -1.21415116e-01 +1.71887621e-01 -4.58264589e-01 -3.04733962e-01 -5.54990731e-02 +3.83358687e-01 +2.67798543e-01 -2.48030141e-01 -1.75901487e-01 -1.58742398e-01 -7.72361923e-03 -1.16094261e-01 +1.01984568e-01 +2.14853913e-01 -3.65516633e-01 -1.58692583e-01 +3.89812663e-02 -1.64457887e-01 -3.68049145e-02 -1.36642322e-01 -1.07950103e-02 -2.99699455e-01 -3.09079766e-01 -4.21855934e-02 +9.33127254e-02 +2.83908069e-01 +1.77025720e-01 -7.63044283e-02 +3.77330254e-03 +7.95451030e-02 -1.46637291e-01 -2.09676966e-01 +1.37875363e-01 -9.37922373e-02 -1.08477041e-01 -1.94252744e-01 -6.39613047e-02 +1.31997004e-01 -4.29980934e-01 -3.34772646e-01 -2.14578122e-01 -6.51149675e-02 +2.45688364e-01 -2.21700773e-01 -1.23181149e-01 +1.77809879e-01 +1.03553869e-01 +1.71080172e-01 +3.91970217e-01 -2.79438257e-01 -3.50730233e-02 -2.47245990e-02 -2.97493875e-01 +7.15233460e-02 -1.30211040e-01 -1.09093562e-01 -3.09219122e-01 -1.17602624e-01 +2.44380414e-01 -2.72983432e-01 +1.68057337e-01 -2.64016718e-01 -1.26911134e-01 +1.30247042e-01 +3.39408994e-01 +9.97613370e-02 -2.41013035e-01 +7.70990327e-02 +3.40259910e-01 +3.70630294e-01 -3.05573553e-01 +3.05693418e-01 +1.51928961e-01 -1.41620278e-01 +2.58892983e-01 -1.55002132e-01 +4.73919548e-02 +4.44280729e-02 -2.63672948e-01 -1.70187876e-01 +2.74773061e-01 +3.10406089e-01 -1.98954903e-02 -4.62101251e-01 -3.84472795e-02 +1.43587574e-01 -4.37059075e-01 +2.39015400e-01 +1.84313636e-02 -3.36152911e-01 +3.26658279e-01 +1.09051272e-01 -4.35048461e-01 -4.61111486e-01 -3.33995134e-01 -2.43072718e-01 -3.42372000e-01 +2.12051779e-01 +2.61189729e-01 -3.52898845e-04 +3.58693957e-01 +1.96951181e-01 -1.60464033e-01 +1.73085451e-01 +5.53904623e-02 +1.30133927e-01 -3.08464527e-01 +2.14616954e-02 -4.65034284e-02 -1.95752084e-01 +3.93256307e-01 -1.11297004e-01 -4.05238360e-01 -8.76124278e-02 -3.62128049e-01 -2.64482535e-02 -8.10427293e-02 -2.34449282e-01 +2.77905297e-02 +2.66134113e-01 -1.26928434e-01 +1.89237252e-01 -1.29072398e-01 +2.21473113e-01 +1.91955328e-01 -2.84936339e-01 -1.56742007e-01 -2.87520885e-01 +9.56140906e-02 +3.61152172e-01 +2.21191883e-01 +1.75948709e-01 +1.05312899e-01 +9.92388129e-02 -1.53614596e-01 +1.67936340e-01 +2.40763813e-01 -1.32365644e-01 +3.63643467e-01 +1.16769806e-01 -3.38182539e-01 -1.02917366e-01 +3.14807802e-01 +1.98721796e-01 -2.32484907e-01 -1.43219203e-01 -3.72975096e-02 -3.82057160e-01 +1.46620959e-01 -2.85027027e-01 -4.24091220e-02 -2.48251811e-01 +2.70682096e-01 -7.95930550e-02 -1.47297472e-01 +1.32517904e-01 +1.76056683e-01 
#Parameter# /_20 {25,25} 10001 ZERO_GRAD
+1.48923099e-01 -2.30147213e-01 +2.48332441e-01 +1.67606901e-02 +1.94319040e-01 -2.28340611e-01 -3.78967941e-01 +1.81010723e-01 +6.81095868e-02 -1.31772667e-01 +2.75233865e-01 -4.06690836e-02 -1.01640143e-01 -2.10272804e-01 +1.30151063e-01 +3.45653534e-01 -2.35870332e-01 +3.15741360e-01 +1.22319423e-01 -2.57651359e-01 -3.09284955e-01 -3.76588292e-02 +2.97675848e-01 -2.99994022e-01 -2.11017847e-01 +1.61807388e-01 -5.37387878e-02 +2.28874311e-01 -2.46231362e-01 +9.15174112e-02 +5.10135479e-02 -2.11596221e-01 -8.61506015e-02 +1.36694402e-01 -3.08929205e-01 +1.31533206e-01 +1.50909990e-01 -1.84314072e-01 -1.11612886e-01 +1.07762501e-01 -4.86853905e-03 -2.62839913e-01 -2.72094846e-01 +5.56433350e-02 -8.59853923e-02 -2.44234335e-02 +3.55581790e-01 -7.43149146e-02 -1.32050991e-01 -2.13368967e-01 +3.13786626e-01 +2.83196121e-01 -3.61508489e-01 -2.30873004e-01 +7.51005113e-02 -1.06271952e-01 -1.70955241e-01 -1.56377375e-01 +1.53529868e-01 -1.31151378e-01 -9.36734229e-02 -2.54313499e-01 +1.41516998e-01 +1.55477664e-02 +8.53639841e-02 -3.15861881e-01 +1.90973636e-02 -2.20403060e-01 +1.07203402e-01 -9.80319828e-03 +5.85714281e-02 +2.50242352e-01 +2.44637839e-02 +1.58700645e-01 +3.41408066e-02 +2.76004344e-01 -3.62613946e-01 -1.67130724e-01 -2.84829110e-01 +7.11411387e-02 +4.26057875e-01 +3.32910210e-01 -1.14770032e-01 +2.25202411e-01 +1.72188222e-01 -7.97677487e-02 +1.75960034e-01 -1.10914864e-01 -3.65945756e-01 +1.89965993e-01 -2.31113881e-01 -3.21176022e-01 -2.57145435e-01 +2.06361920e-01 -3.13066512e-01 +3.30465466e-01 -5.01010083e-02 -3.39544922e-01 +3.30094218e-01 +3.37349772e-02 +5.31146191e-02 -2.41513565e-01 -2.52345912e-02 -2.35945642e-01 -3.82505566e-01 -2.54979581e-01 -1.71821102e-01 +1.13177978e-01 +3.03989977e-01 +3.17554593e-01 -1.19309239e-01 +5.72262928e-02 +2.81343758e-01 -1.08945034e-01 -1.86753184e-01 +1.75621301e-01 +3.17481071e-01 -2.74530679e-01 +1.09946981e-01 +1.73746124e-01 +1.40551746e-01 +3.53490919e-01 -2.32957348e-01 +1.53187245e-01 -3.60300004e-01 +2.77552065e-02 -1.83884263e-01 -6.00206703e-02 -3.22245866e-01 -3.03632140e-01 +3.34971547e-01 +1.79065183e-01 +1.86310574e-01 +1.16577819e-02 +1.76675737e-01 +2.44055033e-01 -2.27158591e-01 +3.02019864e-01 -4.36734548e-03 -5.71006127e-02 +3.07116538e-01 +1.11677095e-01 +2.80913800e-01 +4.03042167e-01 -1.28935471e-01 +1.17843740e-01 +3.16064149e-01 -2.53131062e-01 +8.40757787e-02 +3.33455056e-02 -1.38982177e-01 -3.32891703e-01 -2.61263490e-01 -1.66485310e-01 +2.12704912e-01 +1.53274745e-01 +3.95360708e-01 +5.65187307e-03 -1.49135873e-01 +3.82834941e-01 -1.52234212e-01 -3.38196009e-01 +1.30704954e-01 +1.76723935e-02 -3.03872116e-02 -4.61946875e-02 +1.05316050e-01 -3.84187698e-01 +6.35830089e-02 +3.16250175e-01 -1.37688786e-01 -1.71599448e-01 +2.62061864e-01 +6.56320602e-02 -3.85107338e-01 +6.28914386e-02 -6.47208542e-02 +3.78212035e-01 +2.10778713e-01 -4.51253392e-02 -2.97424309e-02 -4.93246317e-02 +3.50793779e-01 +2.36491510e-03 -1.26188159e-01 -9.24492925e-02 +2.93892682e-01 -1.61947474e-01 -1.53970301e-01 +1.81033731e-01 +3.89949024e-01 -1.32985801e-01 -1.64710149e-01 +2.11826414e-01 +3.69929135e-01 +1.62035495e-01 +7.83066675e-02 +5.04940450e-02 +3.37434262e-02 -2.85965562e-01 -8.64293240e-03 -7.31383860e-02 -2.18397468e-01 -1.21724769e-01 +3.90418380e-01 +2.77640790e-01 +2.58486569e-01 +2.30428025e-01 -2.15653226e-01 -8.82535130e-02 +1.22778453e-01 -2.57770658e-01 -3.04654926e-01 -1.71000082e-02 +4.21789736e-02 -8.94655474e-03 +2.27580592e-01 -9.90707800e-02 +7.30742738e-02 -3.55163932e-01 -2.12757677e-01 -2.23754004e-01 +1.38767108e-01 +1.54096991e-01 +3.77297461e-01 -5.84376156e-02 +1.65926851e-02 +1.93028450e-01 +8.77909288e-02 +1.74045980e-01 +2.52340555e-01 +1.63824111e-01 +1.96114838e-01 -1.30703539e-01 +9.22278687e-02 -1.54868275e-01 -1.56368352e-02 -2.30650634e-01 +3.59956115e-01 +8.87605995e-02 +1.19524509e-01 -2.96873927e-01 +3.14877391e-01 +5.16969264e-02 +4.46019620e-02 +5.56990728e-02 -2.61208117e-01 -1.69113889e-01 -3.02835286e-01 +2.01718867e-01 +3.96059006e-02 +8.98272619e-02 +3.62467587e-01 -7.69450665e-02 -3.51678133e-02 -2.29714543e-01 -1.10735230e-01 -2.67798334e-01 +1.73161715e-01 -1.85189143e-01 -2.67431974e-01 -2.64587373e-01 +6.07692562e-02 +1.77336276e-01 -2.11361557e-01 +8.76630545e-02 +2.33841643e-01 -2.27249369e-01 -2.80839920e-01 +1.27703667e-01 +8.66267309e-02 +4.42745462e-02 +2.81814903e-01 -2.90423930e-01 +1.24388985e-01 -2.82002270e-01 +1.14122562e-01 +3.34266067e-01 +2.10267767e-01 -3.70229483e-01 +2.90281296e-01 -1.40883878e-01 +4.11284305e-02 +2.88936734e-01 +7.68420324e-02 -2.03381494e-01 +3.38242918e-01 -2.39062637e-01 -2.90343642e-01 +9.56669077e-02 +3.34070385e-01 +1.07736006e-01 -3.55023183e-02 -8.12902302e-02 +2.56957412e-01 +1.90430209e-01 -6.29517138e-02 -3.63356203e-01 -7.41619319e-02 -5.38685247e-02 -2.78420180e-01 -1.87872082e-01 +1.74814221e-02 +1.23190522e-01 -1.47685885e-01 -1.81077972e-01 -1.40540510e-01 +2.64857709e-01 +3.10777009e-01 +3.97158653e-01 +2.40045071e-01 +3.14772546e-01 -7.05738086e-03 -1.03109658e-01 +1.77803785e-01 +3.09783608e-01 -2.33367130e-01 -2.07817823e-01 +4.11277056e-01 -3.28340471e-01 +2.48160675e-01 -3.32664698e-01 +1.31213903e-01 +5.74052297e-02 -6.97433800e-02 +9.17453840e-02 +2.10166082e-01 -1.08552888e-01 -2.11421192e-01 -2.47000769e-01 +3.40779215e-01 -1.22557394e-01 -1.71093106e-01 -1.38585314e-01 +2.40308985e-01 +1.28489137e-01 +5.79807572e-02 +2.30153635e-01 -3.99599463e-01 -3.07329446e-01 -2.86769378e-03 +2.65505135e-01 -3.22639436e-01 +7.66608939e-02 +1.14216924e-01 -9.56943110e-02 +3.40181857e-01 -1.08435899e-01 -3.03846180e-01 -3.14657718e-01 -3.46973091e-01 -3.06382418e-01 -1.58667073e-01 +1.15784056e-01 -1.43188566e-01 -1.33484781e-01 +3.07695627e-01 +3.20607841e-01 -6.09681122e-02 +2.54255921e-01 -1.69988900e-01 +3.81480902e-01 -8.67011845e-02 -2.11715430e-01 -8.76892433e-02 +3.75223234e-02 -5.80775850e-02 -1.85442820e-01 +2.45975673e-01 +1.66630238e-01 +2.34793767e-01 -3.40460181e-01 -1.86287925e-01 -3.02002039e-02 +1.10738762e-01 +1.87385663e-01 +7.44558126e-02 +2.22598508e-01 -1.75048798e-01 +1.93975046e-01 +2.23472118e-01 -2.35049099e-01 +2.64344484e-01 -2.82409430e-01 -2.41018906e-01 +2.33798057e-01 -1.56227022e-01 +3.15663755e-01 -1.41115278e-01 -5.45170121e-02 -2.79721141e-01 -2.78439701e-01 -2.35483423e-01 +2.08685324e-01 -2.24971846e-02 -1.05870552e-01 +2.23364145e-01 +3.34231317e-01 -7.29825441e-03 +3.48077506e-01 +3.13729256e-01 +3.00571714e-02 +3.67252044e-02 +4.11054820e-01 -1.07829973e-01 +1.92867532e-01 -2.19011709e-01 -3.43350440e-01 -9.69410315e-02 +4.77576889e-02 +4.19296443e-01 +2.29564652e-01 -2.84159988e-01 -1.80285811e-01 -2.80912578e-01 -9.52378139e-02 +1.54421434e-01 -1.91748470e-01 -3.87542635e-01 +1.81223050e-01 -3.06937933e-01 +1.40250832e-01 -1.03721647e-02 +1.14340402e-01 +1.62759542e-01 -3.87431890e-01 +4.40610647e-02 +4.38230574e-01 +1.52926967e-01 -2.02934742e-01 +2.44811773e-01 +4.55102883e-02 +2.17689708e-01 +3.87672372e-02 +3.08177978e-01 +2.07198158e-01 +2.03244820e-01 +2.21723109e-01 +1.31610319e-01 -1.52283788e-01 +4.88875993e-02 +1.45707607e-01 +2.20689088e-01 +1.94523975e-01 -1.90801024e-01 -2.13480800e-01 +1.22190207e-01 -3.50827217e-01 +1.90422803e-01 -3.66746962e-01 +1.49371698e-01 +2.43473873e-01 +2.35774472e-01 +9.89347771e-02 +7.96465799e-02 -7.51810148e-03 -2.20159754e-01 +3.57549153e-02 +5.12249134e-02 +6.94943815e-02 +2.82262534e-01 +2.85009384e-01 +2.76713341e-01 +2.57722914e-01 -6.31047040e-02 +1.44649306e-02 +9.39008445e-02 +4.89763916e-02 -1.41260788e-01 +3.33897382e-01 -3.40628512e-02 +1.04586259e-01 -3.22074473e-01 -3.14077854e-01 -2.04547346e-01 +3.37090082e-02 +1.57510161e-01 +1.00799993e-01 +3.28582913e-01 +3.52275580e-01 +2.62060910e-01 +3.46251935e-01 -9.58222002e-02 -3.82251322e-01 -4.64320220e-02 -5.91213116e-04 +2.86537975e-01 -3.96967642e-02 +1.36754438e-01 +3.06879729e-01 +4.61555086e-02 +2.28910998e-01 -7.16050528e-03 -3.69975299e-01 +4.33498286e-02 +1.43334031e-01 +2.59676613e-02 +1.01046033e-01 -1.87171459e-01 +1.39412344e-01 +1.01880379e-01 -1.72754005e-01 -8.97257309e-03 +1.11127175e-01 -2.73639262e-01 +2.90333927e-01 -1.99343339e-02 +2.79409349e-01 -3.15406293e-01 +1.58489883e-01 -6.39645085e-02 -2.80821472e-01 +6.39202520e-02 -3.19938451e-01 -3.18329066e-01 -3.24160904e-01 -2.17432693e-01 -2.92886198e-01 -2.51100451e-01 +2.21834242e-01 +2.29734495e-01 +3.23521495e-01 -2.00041234e-01 -3.31379145e-01 +7.92851821e-02 +1.45064101e-01 -2.64985412e-01 +5.69513217e-02 -1.55574046e-02 -2.68144876e-01 -1.84563711e-01 -2.59980351e-01 -2.05190718e-01 -5.18414043e-02 +1.06080830e-01 +2.47476220e-01 -3.89713943e-01 -1.15550585e-01 +2.22446784e-01 +1.83512554e-01 +3.46222550e-01 -1.24046899e-01 -2.24164739e-01 -1.14811487e-01 +2.96192467e-01 +1.71559826e-02 +1.62603512e-01 +2.71860491e-02 +1.69563159e-01 -3.50015193e-01 +2.43289754e-01 +1.10276207e-01 +1.90125719e-01 -3.35987747e-01 +2.75949817e-02 -1.81429222e-01 +1.72394052e-01 +2.51010172e-02 +1.18593134e-01 -2.65761405e-01 -6.64154068e-02 +1.67340592e-01 -1.21067621e-01 +4.12353091e-02 -1.86070278e-02 -8.52988288e-02 +3.44221771e-01 -2.12179407e-01 -8.87779146e-02 +1.73574552e-01 +3.76795799e-01 -2.08055839e-01 +3.17009151e-01 +2.14799926e-01 -2.54429460e-01 +4.69433703e-03 +3.85091007e-01 +1.41479954e-01 +1.27660215e-01 +3.35089713e-01 -3.49299997e-01 +2.20628023e-01 -2.87456632e-01 +7.22215921e-02 -4.57568139e-01 -1.12747073e-01 -4.72542346e-01 -2.05456406e-01 +2.78504968e-01 +2.71108776e-01 -2.81221896e-01 -2.18159310e-03 +1.86034113e-01 +5.78066856e-02 -1.14473209e-01 -1.04760818e-01 -1.26720861e-01 -1.65824026e-01 -1.44705161e-01 -3.14756811e-01 +1.59601986e-01 -2.66657323e-01 +1.02734677e-01 -4.29267228e-01 -2.45249435e-01 +5.88426106e-02 +1.13524981e-02 -2.86094159e-01 +1.18898921e-01 -1.72622036e-02 -3.29415500e-02 -7.40397349e-02 -2.30602086e-01 -5.92645764e-01 -3.64531904e-01 +3.45474213e-01 +1.76249295e-01 -5.04127264e-01 +1.29706427e-01 -1.56448215e-01 -2.09491104e-01 -3.01311374e-01 -4.66022909e-01 -4.51345503e-01 -2.70070016e-01 
#Parameter# /_21 {25} 401 ZERO_GRAD
+2.94396549e-01 +3.10246199e-01 +6.47218600e-02 -1.05769098e-01 +3.12507004e-01 -3.77296895e-01 +7.09649101e-02 +8.81220177e-02 +1.69826925e-01 -8.90917983e-03 -1.04069039e-01 +3.79804075e-02 +3.95855866e-02 -1.16908468e-01 -7.32328594e-02 +1.09450392e-01 +3.66116852e-01 +1.50596619e-01 +8.77434611e-02 +1.86746642e-01 +6.53627738e-02 +5.70526943e-02 -1.30696237e-01 -4.46838476e-02 -1.21390343e-01 
#Parameter# /_22 {25} 401 ZERO_GRAD
-1.54320344e-01 +2.52941847e-01 -1.57391429e-02 -1.31354526e-01 -2.33502090e-02 -7.70501494e-02 -1.61054641e-01 -8.53865445e-02 +2.94891059e-01 +1.22024924e-01 -5.10586202e-02 +1.21719688e-01 -1.59378067e-01 -3.05508167e-01 -3.35849136e-01 +3.36354673e-01 +3.08075905e-01 -3.28209609e-01 -3.13308626e-01 +3.14053893e-01 +1.43103719e-01 -1.99872777e-01 -2.26402670e-01 +2.75081992e-01 -2.44789600e-01 
#LookupParameter# /_0 {3,2} 97 ZERO_GRAD
-1.09994209e+00 -1.58687085e-01 -5.89994192e-01 +8.20437491e-01 +1.05613053e+00 -3.88754569e-02 
