#Parameter# /_1 {2,25} 801 ZERO_GRAD
+4.75927234e-01 +3.12358886e-01 -5.98052919e-01 +5.54863572e-01 -3.50007743e-01 +2.31007263e-01 -1.91765428e-01 -5.47078788e-01 -4.90525872e-01 +1.00873977e-01 -4.28542733e-01 +7.35193789e-01 +2.52248496e-01 -4.37219948e-01 -8.12624618e-02 -8.22665170e-02 -6.92890346e-01 +7.65716076e-01 -1.61332846e-01 -3.90395403e-01 +7.99840450e-01 -6.24606609e-01 +6.88813388e-01 -5.75534046e-01 +4.85086679e-01 +2.58182704e-01 -5.77911913e-01 +4.37781692e-01 -4.22953635e-01 +2.32693210e-01 -7.17097998e-01 +5.75531602e-01 +7.23990083e-01 -5.01896918e-01 -9.59820509e-01 +8.37507904e-01 -7.65095130e-02 -3.30413669e-01 +3.80136341e-01 -1.25541449e-01 -6.04041874e-01 -8.41895565e-02 -2.08663285e-01 -4.24048364e-01 -2.47250825e-01 -3.87930006e-01 -6.16311394e-02 -2.48227328e-01 +8.08719039e-01 -6.22895479e-01 
#Parameter# /_2 {2} 33 ZERO_GRAD
+9.61830616e-01 -9.29254472e-01 
#Parameter# /_3 {25,3} 1201 ZERO_GRAD
+2.99644500e-01 -2.40677595e-01 +1.66760176e-01 +7.26906002e-01 +1.84420511e-01 -1.03927530e-01 -2.39405289e-01 +7.13980719e-02 -3.35429162e-01 +5.41677892e-01 +5.17457128e-01 -4.72523749e-01 +1.46149471e-01 -3.95793110e-01 +1.36403650e-01 -2.27346942e-01 +1.11774988e-01 -2.93424577e-01 -2.68045217e-01 -4.50517416e-01 -3.64673771e-02 +4.09460217e-01 -9.48147327e-02 +3.71230870e-01 -9.27938446e-02 -5.56489527e-01 -7.08266944e-02 -7.76352081e-03 +3.26847970e-01 +5.56796253e-01 -5.92862308e-01 -3.76171798e-01 +2.66853888e-02 +1.48650438e-01 +5.16484559e-01 +1.17677055e-01 -1.11832522e-01 +1.54472575e-01 +4.55943197e-01 +3.44788373e-01 -4.21050265e-02 -3.46270621e-01 +2.39199862e-01 +4.07559842e-01 +2.84386337e-01 -2.82776624e-01 -1.37265176e-01 -4.15061623e-01 +4.16871458e-01 +3.26884955e-01 +3.59743714e-01 +1.50987459e-02 +3.54898930e-01 -7.05903709e-01 +1.92881390e-01 +5.65976560e-01 -2.59251054e-03 -3.47671986e-01 +8.95345234e-04 -6.74304187e-01 +1.41946077e-01 +2.61468977e-01 -2.21190244e-01 -2.27734610e-01 -4.42609608e-01 -4.48501080e-01 -2.96244293e-01 +2.89832614e-02 +3.84924654e-03 -6.72169447e-01 +3.69729936e-01 -4.53780562e-01 +1.44774526e-01 -3.20460171e-01 -5.67577541e-01 
#Parameter# /_4 {25,25} 10001 ZERO_GRAD
+2.89859563e-01 -2.54805028e-01 -5.62212430e-03 -3.86851430e-01 -2.83058494e-01 -3.87777807e-03 -4.67511266e-01 +4.77837861e-01 -2.42850631e-01 +2.33849492e-02 -3.78939301e-01 -2.37258539e-01 -3.24712455e-01 +1.43385902e-01 +3.44061762e-01 -2.83978343e-01 +3.90581459e-01 -2.18727738e-01 -1.84992030e-01 +5.22962473e-02 -1.33927152e-01 -1.98773757e-01 +1.47210702e-01 +8.26267302e-02 -1.12928614e-01 -3.00916493e-01 +8.54451805e-02 +5.73801659e-02 +2.00521022e-01 +1.28778011e-01 +1.98344067e-01 -8.07189196e-02 +2.71987375e-02 -9.14156809e-03 +3.09802592e-01 -1.87293906e-02 -4.64681298e-01 -2.67669827e-01 +2.58907437e-01 +3.19904327e-01 -1.81380585e-01 +2.28085414e-01 +2.65174448e-01 +4.42883596e-02 +5.58823980e-02 +9.73409638e-02 -1.81898139e-02 -3.68609875e-01 -2.68334299e-01 +2.05100074e-01 -1.87439308e-01 -2.02778950e-01 -2.03507781e-01 -1.45835817e-01 -2.39681631e-01 -4.36235934e-01 -2.22411230e-01 -1.77174971e-01 -5.62979639e-01 -1.85652673e-01 -1.95042901e-02 -9.61090848e-02 -1.70134857e-01 -4.22420446e-03 -5.91585636e-02 -2.67881483e-01 +1.17728412e-02 +5.83980083e-02 +2.89970916e-02 -4.03082043e-01 -3.06787025e-02 -2.48995811e-01 +1.98173210e-01 -2.09811270e-01 -2.59201676e-01 -3.03149130e-02 -3.83280337e-01 -3.17160301e-02 -1.04998618e-01 -2.59586096e-01 -9.61912870e-02 +2.99172872e-03 +3.31496984e-01 -3.74066740e-01 -9.63382944e-02 +8.08971599e-02 +3.49366181e-02 -3.50029856e-01 +2.67235994e-01 +2.44896337e-01 -4.05886859e-01 -3.76688093e-01 -7.43924305e-02 +6.65869638e-02 -5.16912758e-01 +1.47929378e-02 +3.85267466e-01 +2.85543561e-01 -1.33332700e-01 -5.15656769e-01 -4.46625173e-01 -2.37082303e-01 +2.91226298e-01 +1.48929909e-01 +7.50622749e-02 -2.51432210e-02 -5.56809008e-02 -1.14906900e-01 -1.99321419e-01 -2.64160961e-01 -8.76107663e-02 -1.85769245e-01 -8.86266232e-02 -2.91076213e-01 -4.00570899e-01 -2.77168393e-01 +1.47774488e-01 -2.62177229e-01 +1.42437488e-01 -2.40821928e-01 -3.75586599e-01 -3.52300018e-01 +1.61845729e-01 +2.09613536e-02 -4.76276487e-01 +1.59751609e-01 +3.90725583e-01 -9.06741843e-02 +2.21749485e-01 +3.75912011e-01 -4.03893828e-01 +5.39911389e-01 -4.61385667e-01 -4.19419587e-01 +9.59679037e-02 +6.04740307e-02 +5.59937775e-01 +4.42264050e-01 +7.35692009e-02 -2.87294209e-01 +1.91553652e-01 -3.22345287e-01 -4.70746867e-02 +3.67395371e-01 +3.06315184e-01 -2.29107618e-01 +7.44035095e-02 +2.06761584e-01 +1.64084509e-01 -3.44456166e-01 -1.42657027e-01 +2.36574739e-01 +2.94021964e-01 -2.41902336e-01 +1.07323214e-01 +6.07834123e-02 -2.25463305e-02 +5.55570163e-02 -2.49527451e-02 +4.46702719e-01 -2.04165831e-01 -7.19135404e-02 +2.27895305e-01 -1.52363464e-01 -7.91366324e-02 -2.08303243e-01 +2.16117352e-01 -1.89606547e-01 +1.75569013e-01 +6.58966079e-02 -2.47926846e-01 -9.27558988e-02 +1.37817726e-01 -4.16639522e-02 -7.18885735e-02 +2.25642156e-02 -6.21656597e-01 +9.44509506e-02 +2.71088123e-01 -3.55077803e-01 -2.70308435e-01 -3.54131162e-01 -3.41629297e-01 -6.00780308e-01 -2.08093852e-01 -2.04569802e-01 +2.39785030e-01 -7.04172328e-02 +4.32565659e-02 +2.92432547e-01 -6.75811470e-01 +4.57883924e-02 +7.24822804e-02 +1.89681828e-01 +5.34503683e-02 -2.24650636e-01 +1.61846638e-01 +3.46627504e-01 +1.17738500e-01 -4.52578694e-01 -3.69818121e-01 -5.43280184e-01 +8.37508664e-02 -4.36639279e-01 -1.08191809e-02 -3.49783077e-04 +1.80249080e-01 -2.15315282e-01 -2.10370228e-01 -8.37279260e-02 -5.03097594e-01 -2.62892634e-01 +3.49336982e-01 -2.92495519e-01 +7.00869784e-02 -1.27048135e-01 -4.65850011e-02 -3.29060137e-01 +3.63210845e-03 -4.18871999e-01 -2.13787958e-01 +1.51295885e-02 -1.13755964e-01 +1.67643264e-01 -4.10934061e-01 -2.68545836e-01 +4.97627482e-02 +2.40597948e-01 -1.22034177e-01 -4.88773853e-01 -2.32188165e-01 -3.03516060e-01 +6.10819571e-02 -3.74374598e-01 +3.51008356e-01 -4.56390828e-01 -2.52437174e-01 +1.88306138e-01 +2.03993186e-01 -1.84352666e-01 -1.91781282e-01 -2.53771663e-01 -4.51755881e-01 +1.97799519e-01 -5.09522498e-01 +2.15653758e-02 +1.19386977e-02 -1.23001546e-01 -4.00290638e-02 -6.24775887e-02 -1.51358712e-02 -1.31872281e-01 +1.69821694e-01 +3.61503869e-01 +5.97279109e-02 -4.55327868e-01 -2.25490615e-01 -1.01818122e-01 +1.60687789e-01 -2.03881904e-01 -2.72759616e-01 +1.46473542e-01 -2.13424593e-01 -1.65076196e-01 -1.83334082e-01 -2.54258662e-01 -4.64172959e-01 +1.67191297e-01 -1.48899421e-01 -3.33992466e-02 -3.81432474e-01 -3.14932287e-01 +2.78211106e-02 -3.41212869e-01 -9.66179892e-02 +5.98964915e-02 +6.00092649e-01 -2.50358999e-01 -1.04537152e-01 +3.22167873e-01 +2.30107814e-01 -1.71720937e-01 +3.49936783e-01 +2.20146596e-01 +1.76100060e-01 +5.51076651e-01 -1.58570901e-01 -9.19164121e-02 +7.42464466e-03 +1.92247614e-01 +1.28061965e-01 +3.99262607e-01 +2.19395399e-01 -2.17291024e-02 -4.81926225e-04 -4.72382754e-02 +1.51479587e-01 +1.75546795e-01 +3.46155196e-01 +2.77166307e-01 +1.72692388e-01 -2.10030358e-02 -2.26932734e-01 -2.40507007e-01 +3.10762435e-01 +4.40424860e-01 -2.70163745e-01 +1.62699014e-01 +3.65844190e-01 -4.69861738e-02 +4.24940467e-01 -1.83250323e-01 +4.09229584e-02 -2.28295028e-01 +2.64626592e-01 +7.06785262e-01 -1.00561589e-01 +3.19353163e-01 -4.16770913e-02 +5.06516516e-01 -2.68665493e-01 +2.44593814e-01 +2.37578273e-01 +2.47051299e-01 +5.89917302e-01 -5.12356699e-01 -1.94339156e-01 +4.60373491e-01 +2.49684244e-01 +1.77609324e-02 -1.41059965e-01 -3.17167193e-01 +4.12115036e-03 -3.14544737e-01 +9.49345455e-02 -4.23052758e-01 -2.45528862e-01 -8.18996206e-02 -4.86855060e-02 -1.77409127e-01 -5.26214302e-01 +3.02403331e-01 +1.13880470e-01 +2.41231561e-01 +1.50736451e-01 -3.98303382e-03 +1.17039390e-01 -2.47875154e-01 +2.49368593e-01 -2.30125129e-01 +1.24474652e-01 +8.86683539e-02 -3.63944411e-01 +2.72060670e-02 +2.78531343e-01 -1.41925395e-01 +2.18473330e-01 +6.30070120e-02 +1.84514925e-01 +1.91321254e-01 +4.12697345e-01 +3.42188299e-01 +2.63186812e-01 -2.17370808e-01 +7.98829570e-02 +1.74114063e-01 +3.60452890e-01 +2.22853169e-01 -1.76763181e-02 -1.77934572e-01 +2.56372660e-01 +1.25786871e-01 -7.14258030e-02 -2.02798918e-01 +4.09648955e-01 +4.31510150e-01 -1.03869997e-02 +2.84615159e-01 -3.40961337e-01 -5.01280166e-02 +4.83147919e-01 -1.93946019e-01 +3.95274162e-01 +2.48897776e-01 +1.79799348e-01 +3.46185654e-01 -1.37789369e-01 +1.38179241e-02 +4.44632694e-02 +3.29848170e-01 +2.83438601e-02 +5.57985604e-01 -1.16120614e-01 +1.30360767e-01 +2.73345020e-02 +1.28951594e-01 +1.88165337e-01 +3.59098874e-02 +4.05262679e-01 +1.99225917e-01 -4.26887572e-01 +4.14697081e-01 +3.05562228e-01 +3.00525248e-01 -4.91641872e-02 +1.53742969e-01 -1.03058830e-01 -1.12473331e-01 -3.60174775e-01 -2.35245794e-01 -3.45531285e-01 +2.64349788e-01 +5.24362363e-02 -7.40119372e-04 -1.97055787e-01 +4.10531126e-02 +1.21566385e-01 +2.34740287e-01 -2.58621424e-01 +9.02851596e-02 -1.69106290e-01 +2.55529433e-02 +4.04452585e-04 -1.56173810e-01 +2.42398635e-01 -2.12255761e-01 +1.09793901e-01 +3.36350240e-02 -2.64902972e-02 +2.68605608e-03 +3.48536044e-01 -1.46733329e-01 -2.52164930e-01 -4.60341185e-01 +1.21581778e-01 +8.04723725e-02 -7.77959675e-02 +1.08139366e-02 +2.04980671e-01 -2.18630895e-01 -1.62973657e-01 +2.92588741e-01 +2.47200131e-01 -1.62541002e-01 -1.83749586e-01 -2.94624597e-01 -2.36897752e-01 -8.19466412e-02 +2.71267503e-01 +6.81444630e-02 +5.14668882e-01 +3.79505694e-01 +1.20450184e-01 +3.08884352e-01 +2.51912713e-01 +1.16109021e-01 +2.01719582e-01 +3.87150317e-01 +3.73115152e-01 -2.74857044e-01 +6.20271564e-01 -2.10829735e-01 -1.92189351e-01 +2.02907667e-01 +2.96573967e-01 +6.24775767e-01 -7.81765059e-02 +1.93849444e-01 -1.10061221e-01 +6.32025227e-02 +7.17769787e-02 +3.97765964e-01 +1.00917272e-01 +2.99492210e-01 +2.70159300e-02 -1.39912412e-01 -5.05884051e-01 -1.53333679e-01 -3.84828717e-01 -1.22149058e-01 -9.77987647e-02 -2.49583334e-01 -1.98336691e-01 -4.26738739e-01 -1.70592844e-01 -4.82702672e-01 -9.66974571e-02 +3.35800499e-01 -3.17890346e-01 +3.54051977e-01 -4.54673201e-01 +4.00280803e-01 -3.35416049e-01 -2.11370781e-01 -2.70452142e-01 +2.59518474e-01 +2.85721500e-03 +3.87889594e-01 -1.75687715e-01 -4.11916338e-02 -1.49543658e-01 -6.41972497e-02 -2.28887964e-02 -1.71379730e-01 +5.02203181e-02 +3.52280349e-01 -4.28490669e-01 +3.97838540e-02 -3.50123569e-02 +5.64583540e-02 -6.08090833e-02 +1.01814479e-01 +2.86170483e-01 +1.18225321e-01 +1.80784538e-01 +2.34821498e-01 +3.00409555e-01 +2.49911919e-01 +1.40170529e-01 +1.14560975e-02 +1.70257926e-01 -1.42170712e-01 +2.91841049e-02 +1.38987392e-01 +1.03448525e-01 +1.41835302e-01 +1.49370000e-01 +2.44414151e-01 -2.13726923e-01 +2.03432366e-01 +4.91372496e-01 +2.00104222e-01 +1.91154748e-01 -7.87755027e-02 -3.36245424e-03 +2.89317191e-01 +1.56055838e-01 +7.00662658e-02 -1.54420391e-01 +2.51148880e-01 +3.84805411e-01 -4.72825803e-02 +2.57542342e-01 -1.69815034e-01 +3.50832582e-01 -1.54784238e-02 -1.72530934e-01 +1.90625191e-01 -1.20491520e-01 +1.65204480e-01 +2.55606264e-01 +5.92066981e-02 -3.71961445e-01 -2.57763211e-02 +1.10113569e-01 -5.80395684e-02 -4.49011251e-02 -8.05025324e-02 -1.18348718e-01 +3.19455326e-01 +2.36241743e-01 +1.59761459e-01 +1.52952805e-01 +1.09942351e-02 -4.36224192e-02 +4.95057017e-01 +3.98390181e-02 +3.44189465e-01 -2.59666175e-01 -9.09980685e-02 -6.82441816e-02 +1.41869411e-01 +3.49530518e-01 -1.11984372e-01 +3.32133710e-01 -5.16470112e-02 +4.77625370e-01 -3.67031276e-01 -1.33208990e-01 -1.20439113e-03 -1.38290942e-01 -1.07114419e-01 +1.86658323e-01 -1.39732912e-01 +6.90322593e-02 -1.52416661e-01 +2.29486600e-02 +5.78999706e-02 -2.19998732e-02 +8.37419331e-02 +2.71167129e-01 -1.35589913e-01 +2.96528280e-01 +3.78626972e-01 +1.09485433e-01 -3.60906459e-02 -1.58998966e-01 -1.22450486e-01 -4.20426250e-01 -2.68300027e-01 +1.96778104e-01 +3.48040670e-01 -1.94415957e-01 +1.49754258e-02 +4.67232376e-01 -3.01270843e-01 +5.47469676e-01 -5.35487175e-01 +2.89504323e-02 -9.33740661e-02 +2.51715750e-01 +1.67032763e-01 -9.83988941e-02 -3.72181922e-01 -2.44897932e-01 +3.85341048e-01 -2.47376785e-01 -3.15289527e-01 -8.41863081e-02 +3.73483449e-01 -4.14549083e-01 -2.79504210e-01 +2.72140145e-01 -1.06647469e-01 +3.40893894e-01 
#Parameter# /_5 {25} 401 ZERO_GRAD
-4.64918345e-01 -5.72210811e-02 +1.84312686e-01 +1.79175049e-01 -1.41890079e-01 -4.69753027e-01 -2.03031719e-01 -9.98972431e-02 +6.90168142e-02 -1.74382016e-01 -4.86978143e-01 +1.86836928e-01 -1.10509411e-01 +1.63773060e-01 -1.96591057e-02 -6.84366107e-01 -2.35002398e-01 -1.64320499e-01 -1.48757100e-02 -3.86088252e-01 +1.43866897e-01 +1.87112257e-01 -2.39978954e-01 +4.55919318e-02 -5.45362413e-01 
#Parameter# /_6 {25,3} 1201 ZERO_GRAD
-2.82418013e-01 -4.11078334e-03 +9.38937068e-02 -4.04008806e-01 -4.04567331e-01 +3.70791614e-01 -3.55893463e-01 -2.98407972e-01 +1.45087063e-01 +9.36580896e-02 -3.85767400e-01 +2.19244063e-01 -3.86356533e-01 +1.42148256e-01 -1.37288392e-01 +4.59259629e-01 +3.14262152e-01 +2.85247922e-01 -1.20478451e-01 +1.74784124e-01 +2.47391760e-01 -2.20430344e-01 +1.24025345e-03 +2.16640234e-02 +5.96339107e-02 +3.31725478e-01 +1.72857046e-01 -2.96789408e-02 -2.47689843e-01 +1.79641247e-02 -1.15618259e-01 +6.22835159e-02 +1.59489751e-01 +2.90503502e-02 +3.76636922e-01 +1.78153396e-01 -4.51158047e-01 -2.52147138e-01 +1.86554849e-01 -3.67373586e-01 -3.53333652e-01 -2.68846601e-01 -1.45810932e-01 -3.96096438e-01 -9.84635949e-03 -1.90796912e-01 -1.99007124e-01 -1.22459322e-01 -3.75961542e-01 -4.47727710e-01 +2.31790662e-01 -4.54277784e-01 -9.77689326e-02 -3.12810361e-01 -2.46250838e-01 -1.57238007e-01 +2.18719482e-01 +3.95776987e-01 +2.36766160e-01 -3.28695714e-01 -2.96723068e-01 +3.96158516e-01 +2.83652425e-01 +4.12805080e-01 -2.51797259e-01 -1.45671278e-01 +3.21101069e-01 +3.03306758e-01 -2.37477079e-01 +2.43498862e-01 +1.42608583e-01 +1.16776288e-01 +1.73291504e-01 -1.22535497e-01 +1.23621702e-01 
#Parameter# /_7 {25,25} 10001 ZERO_GRAD
+3.13484430e-01 -3.42797160e-01 -2.42158175e-01 -2.25673020e-02 -5.05855978e-02 -1.85894966e-01 -3.20434868e-01 +2.48721182e-01 +3.45957696e-01 +1.89528763e-01 +1.00483179e-01 +2.84154475e-01 +1.98283792e-01 -1.71819314e-01 -1.04561657e-01 -3.43581259e-01 +1.55385971e-01 +9.91285145e-02 -3.03481638e-01 +2.48035431e-01 +3.34095955e-01 -3.32958996e-02 -1.47346556e-02 -5.93915582e-03 +2.89730132e-01 -3.33466053e-01 +1.35168552e-01 -4.58679497e-02 -1.28069147e-01 -2.54203707e-01 +1.51782274e-01 +3.43334198e-01 +1.20734602e-01 -5.32971621e-02 +1.74575150e-02 +1.44304156e-01 +5.10232151e-02 +2.72706926e-01 +1.88395202e-01 -2.65288740e-01 -2.09315538e-01 +3.39396834e-01 -2.19471082e-01 -2.06642061e-01 -1.07816085e-01 -2.04033107e-01 -1.93247005e-01 +2.53523111e-01 -1.59438640e-01 +2.36413479e-01 +1.86647236e-01 -2.15269625e-01 +7.60173202e-02 +2.60889053e-01 -8.42567384e-02 +9.14503336e-02 +1.83424711e-01 +1.93580151e-01 -3.16623956e-01 -1.17752463e-01 -1.89363778e-01 +2.33175159e-02 +3.11174452e-01 +8.08115602e-02 +1.57863557e-01 +3.73068154e-02 -2.45677888e-01 +2.74208009e-01 +7.78169334e-02 +7.45762289e-02 -1.69874221e-01 -1.32327363e-01 -3.33880961e-01 +1.79108560e-01 -1.56561434e-02 -6.60671890e-02 +1.73401833e-03 +8.66475105e-02 +3.35862279e-01 +1.34593248e-01 +2.32287467e-01 -1.48441911e-01 -2.01935098e-01 +2.07546949e-01 -1.73698917e-01 +9.93878245e-02 -1.30558908e-02 +4.99181747e-02 +3.83593440e-02 -1.97324365e-01 -2.72241950e-01 +2.87767589e-01 -3.45354617e-01 +3.39867473e-01 -6.70876205e-02 -1.15679562e-01 +3.22365761e-02 -2.35949278e-01 -2.96418577e-01 +1.29023105e-01 -2.97431290e-01 +1.54787362e-01 -1.93866387e-01 -1.63144410e-01 -2.61812389e-01 -2.58308828e-01 +1.59286797e-01 -2.11431026e-01 -8.54934454e-02 +2.24053860e-02 +7.40013719e-02 +2.89976001e-01 -2.55933404e-02 -3.35519016e-01 +1.49598777e-01 +2.03140795e-01 +3.45177710e-01 +1.93510294e-01 +6.42496645e-02 -3.12160075e-01 +1.09205574e-01 +5.18721342e-03 -2.92038381e-01 +5.43579459e-03 -2.47540578e-01 +2.21996784e-01 +2.50956118e-02 +2.52439976e-01 -2.45946944e-02 +8.95560086e-02 -2.02266127e-01 +1.38665140e-01 +1.13115519e-01 -9.12785232e-02 +1.73755646e-01 -3.35025966e-01 -2.93252379e-01 +2.70624876e-01 -1.28888443e-01 -3.46234798e-01 +5.28395474e-02 -2.93566018e-01 -2.79653400e-01 +3.43794525e-01 -2.99308896e-01 -3.11244130e-01 +1.02644861e-02 -2.38230526e-01 -1.47506326e-01 +2.20334530e-03 +2.90489554e-01 -4.03013825e-02 -2.01797098e-01 +5.25819063e-02 -3.22453290e-01 +2.82455742e-01 -1.57672152e-01 +2.57252634e-01 +2.34085560e-01 +1.26559228e-01 +1.64035559e-01 -2.52469152e-01 +6.65591955e-02 +3.76665294e-02 -2.93024778e-02 +3.42343211e-01 -4.82302010e-02 +4.12715971e-02 -2.46944830e-01 -1.73749611e-01 +2.95121193e-01 -2.37864509e-01 +1.74781442e-01 -2.27938503e-01 -1.34465620e-01 -1.30635455e-01 -2.02328831e-01 -2.11951017e-01 -7.21862912e-02 +7.61072934e-02 +2.14813352e-01 -1.29483491e-01 +1.56674445e-01 +2.52534866e-01 +7.48439431e-02 -2.18092188e-01 +3.22928131e-02 +1.17517412e-02 -8.21149051e-02 -2.20350921e-02 +1.06922984e-02 +8.02798867e-02 -1.58833489e-01 -3.21622163e-01 -5.54461777e-02 -1.44164771e-01 -1.69952184e-01 +6.85230792e-02 -2.44610608e-02 +2.42392242e-01 +1.64764106e-01 +9.40626562e-02 -2.02332780e-01 +1.01819336e-01 -3.40648085e-01 +1.97675705e-01 +3.14721525e-01 -2.42824197e-01 -2.83131450e-01 -2.67945290e-01 -9.50856507e-02 -2.28294939e-01 -3.09857368e-01 +9.61792469e-02 +3.08887362e-01 +2.15491831e-01 +2.94299424e-02 +1.21855974e-01 -1.19110614e-01 +6.94799423e-02 +1.26325935e-01 -3.03364486e-01 -2.97393799e-02 +3.27055931e-01 +5.18431962e-02 +1.92636192e-01 +1.44648552e-01 +7.41725266e-02 -2.00756565e-01 +7.90789723e-03 -2.61543691e-02 +1.76631212e-02 -1.04215741e-03 -3.39618117e-01 -2.50177652e-01 -1.87530890e-01 +1.40745848e-01 +3.26607943e-01 +1.68432593e-01 -1.44072205e-01 -9.56315398e-02 +1.19147152e-01 -8.35705400e-02 +2.60535717e-01 -2.45300844e-01 -3.36665243e-01 +2.92773366e-01 -9.40862000e-02 +2.81175971e-01 -2.59335995e-01 +1.06237531e-02 +3.44353914e-03 +1.28421426e-01 -2.73547828e-01 -2.99923778e-01 -7.69085586e-02 -3.44370574e-01 -2.17225328e-01 -2.49952033e-01 +3.11758876e-01 +6.71314299e-02 -1.57598898e-01 +1.51384175e-02 +3.27001631e-01 +1.89057231e-01 -1.80548906e-01 +3.07426631e-01 +1.00600094e-01 -1.84506908e-01 +1.64844871e-01 -8.62752795e-02 +1.88291073e-01 -9.76688415e-02 -3.00123572e-01 -2.23717228e-01 -2.09730864e-03 +2.62387037e-01 +4.01995778e-02 -2.07586110e-01 -2.35665262e-01 -1.56992450e-01 -3.35889697e-01 -1.07286260e-01 -7.59370029e-02 -1.37553230e-01 +3.15683424e-01 -2.51975864e-01 -2.98936158e-01 -3.93668115e-02 -1.84299603e-01 +1.24819785e-01 -2.72338361e-01 -3.03585470e-01 -6.40361905e-02 -3.80989611e-02 +1.76485062e-01 +4.72792387e-02 +3.29156756e-01 -2.70309985e-01 -1.42194882e-01 +1.45780027e-01 +2.80341804e-01 -1.04515478e-01 +1.31626695e-01 -1.54007018e-01 +8.79223645e-02 -2.18682975e-01 -2.53025204e-01 -4.65483665e-02 +6.75032437e-02 -1.15961164e-01 +1.33843958e-01 +1.08937889e-01 +9.00471807e-02 +1.65858924e-01 -6.45491481e-03 -1.06946528e-01 -2.37978488e-01 -4.90975976e-02 +2.38395035e-02 +3.41848731e-01 +2.53640413e-01 +2.18674779e-01 -2.15182111e-01 +1.64334595e-01 -2.52703458e-01 +7.37027526e-02 -4.89306152e-02 -1.52896911e-01 +1.45891786e-01 +2.21597195e-01 +2.47593760e-01 -5.63858747e-02 +1.17133439e-01 +1.81074202e-01 +3.41059327e-01 +2.22700715e-01 +8.68956149e-02 -3.33439022e-01 -1.57006174e-01 +4.17190790e-03 +3.32135856e-01 -2.44137406e-01 +9.64809954e-02 +2.51904845e-01 -2.31494248e-01 -1.74427435e-01 -3.30954820e-01 +1.61926448e-01 -2.16422975e-01 +2.62082934e-01 -3.04594457e-01 +8.45488906e-02 +3.45637500e-01 -1.35499611e-01 -5.67480624e-02 +1.18937671e-01 -8.71449709e-02 -8.38605165e-02 +2.73707271e-01 +5.28683960e-02 +2.35658765e-01 +2.11798608e-01 +2.67851412e-01 +1.74713671e-01 +5.18892407e-02 -1.02568522e-01 +1.81416512e-01 +1.57118380e-01 +2.54523635e-01 +3.42582643e-01 +1.30875885e-01 +2.77237773e-01 -2.45284885e-01 -5.56849539e-02 +2.29031682e-01 -7.82454014e-03 +3.80161405e-02 -2.08003029e-01 +1.50039434e-01 -1.96285367e-01 -8.88020992e-02 -5.65657616e-02 +6.02432191e-02 +2.99007654e-01 -3.41348916e-01 +7.27417767e-02 +1.24062121e-01 -1.12954721e-01 -7.45237768e-02 -5.71534634e-02 +2.86861420e-01 -1.46194950e-01 +1.44024909e-01 +1.13463372e-01 -3.18567723e-01 -2.58101404e-01 +5.65970242e-02 +1.94474161e-02 +3.09526265e-01 -2.56645113e-01 -3.83447111e-02 +7.30414093e-02 +2.67706394e-01 +5.67058027e-02 +3.39883566e-01 -2.57082880e-01 -2.74774402e-01 +1.05941832e-01 +1.09382778e-01 +5.92659414e-02 -5.23942709e-03 -2.95815170e-02 +1.89574003e-01 +3.24801147e-01 +3.16640854e-01 +3.05552304e-01 -1.05063811e-01 -2.21686125e-01 -1.85012683e-01 -2.89496571e-01 -1.56690717e-01 +2.66648889e-01 -3.11951518e-01 +1.59325778e-01 -2.29846895e-01 +3.20063114e-01 -2.49944299e-01 -3.16263139e-02 -2.48777330e-01 -2.68463731e-01 -1.13709956e-01 -3.22033942e-01 -2.25012571e-01 -3.21797252e-01 +2.96701312e-01 +2.47548521e-02 +1.57571554e-01 +2.03226984e-01 +1.65240109e-01 -2.41021156e-01 -5.10098338e-02 -1.92513108e-01 -2.19136894e-01 +3.34048867e-02 +1.20903909e-01 +3.07516515e-01 -1.23244137e-01 +3.11352193e-01 +1.57394707e-02 -2.68671960e-01 -2.37581640e-01 +3.27407181e-01 +2.85926580e-01 +1.77303612e-01 -6.14806414e-02 -2.71256179e-01 +2.80824363e-01 -1.62980914e-01 -3.45116407e-01 -9.94354486e-04 -1.77073792e-01 -3.34553510e-01 -9.24941897e-03 -4.92154956e-02 -2.22772658e-02 +6.38954043e-02 -2.75238246e-01 -1.49495810e-01 +6.70987964e-02 +1.58272922e-01 -8.49428773e-03 +1.64012790e-01 +1.65666103e-01 -3.42146873e-01 -2.15094060e-01 -1.95769399e-01 +2.94152081e-01 -2.94878453e-01 +2.55569577e-01 +3.59446406e-02 -4.01066542e-02 +3.41688573e-01 +6.47771060e-02 +2.66775787e-01 -2.93752968e-01 +1.69695079e-01 +1.91778660e-01 -2.56956846e-01 -1.29015520e-01 -2.70204514e-01 -3.38782609e-01 +6.41891658e-02 +1.84044659e-01 +5.39796650e-02 -2.95437276e-01 -1.12626716e-01 +2.42443264e-01 +1.43735498e-01 -3.01775575e-01 +1.00020736e-01 -2.09984556e-01 -2.86158442e-01 -1.08824417e-01 -3.32276911e-01 -3.66656780e-02 +1.12750858e-01 -6.31813109e-02 +1.39552385e-01 +3.32455873e-01 +2.64963150e-01 -9.64204371e-02 -1.20224297e-01 +1.85425282e-01 -1.02439657e-01 +3.26012313e-01 +1.01278722e-02 -3.03541750e-01 -3.18442881e-01 -1.52842626e-01 -1.89969867e-01 +2.71966755e-01 +9.35337842e-02 +2.57655621e-01 -1.10899687e-01 -3.10205966e-01 +1.40038282e-01 +2.34777689e-01 +2.25549579e-01 -3.39109361e-01 -1.90921307e-01 +7.36772418e-02 +2.35418916e-01 +2.24649906e-01 -1.24227896e-01 -5.91334701e-03 -2.23297611e-01 -7.65091777e-02 -1.52977720e-01 -2.81202078e-01 -7.93257356e-03 -2.09917739e-01 +2.25102365e-01 +3.10388207e-02 -1.89751923e-01 +1.43981963e-01 -1.68401897e-01 -2.10450754e-01 -1.79202557e-02 +3.36295247e-01 -2.78645873e-01 -2.79258430e-01 +2.14558840e-02 -3.17633629e-01 +1.76544487e-01 +6.36512339e-02 +3.06209266e-01 +2.65153706e-01 -2.59679615e-01 +1.79413855e-01 -2.39939421e-01 -1.33759782e-01 -8.59960020e-02 +2.99151957e-01 -9.40207839e-02 +2.34223425e-01 -3.01032633e-01 +2.10074604e-01 +1.73385739e-02 -2.67647803e-02 -3.20432246e-01 -9.20285583e-02 +7.20270574e-02 -1.44671172e-01 -2.27384448e-01 -2.34036133e-01 +1.67411983e-01 -2.69779801e-01 -1.95313856e-01 +8.30069184e-02 -7.50520527e-02 -1.55417100e-01 +2.75461495e-01 +3.18393886e-01 +2.67019093e-01 -7.62543678e-02 +2.93686986e-03 -1.44237533e-01 +2.49328911e-01 -3.05835724e-01 -3.42621297e-01 +7.81070292e-02 +1.90914929e-01 -1.28124893e-01 -8.87850821e-02 -3.25246990e-01 +2.96984315e-02 -2.64821053e-01 +1.05828643e-02 -2.10736006e-01 -4.50567305e-02 +3.29931319e-01 -5.04285097e-04 +1.13701254e-01 +8.71826410e-02 -5.52208424e-02 -2.48156965e-01 -3.23475301e-01 -5.73322177e-02 +6.46520853e-02 -7.48548508e-02 +2.34141111e-01 -3.26616496e-01 +1.86326206e-01 -2.23815143e-02 +2.85331905e-01 +1.52510136e-01 -1.55208379e-01 +3.27654541e-01 -8.41378570e-02 +2.65745878e-01 -3.26334894e-01 +2.21316040e-01 +3.91771495e-02 +1.09005213e-01 
#Parameter# /_8 {25} 401 ZERO_GRAD
-2.64297396e-01 -2.71113127e-01 +1.44963533e-01 -9.26550627e-02 -1.68519750e-01 -3.14571679e-01 -2.81578392e-01 -3.03439915e-01 -3.35563958e-01 -8.80358517e-02 -3.37256670e-01 +2.61616409e-01 +1.42370045e-01 +2.01122463e-01 +3.10364783e-01 -1.51171774e-01 +1.67169869e-02 -1.57742918e-01 +1.90411806e-02 -7.60498643e-02 -1.46093681e-01 +2.78576314e-01 +7.28220046e-02 -2.28611737e-01 +2.64376640e-01 
#Parameter# /_9 {25,3} 1201 ZERO_GRAD
-1.60764009e-01 +2.81394243e-01 -2.39695087e-01 +5.86031199e-01 -2.89321035e-01 -3.59904081e-01 -2.40115136e-01 -9.38556641e-02 +1.26487613e-01 +3.96439061e-02 +2.22371966e-02 -3.65380019e-01 -3.14764112e-01 +1.54313788e-01 +4.79238741e-02 +4.80771899e-01 +2.22723171e-01 +2.65664253e-02 -2.06346110e-01 +5.28223157e-01 +4.73468095e-01 +2.79170960e-01 +3.06574732e-01 +3.58319491e-01 -4.14764553e-01 +2.18784332e-01 +5.83179653e-01 -1.67062372e-01 +8.52062106e-02 -3.87062132e-01 -2.81949878e-01 -5.36352038e-01 -2.04768583e-01 +6.36968911e-02 -4.21354175e-02 -2.55531102e-01 -1.76647797e-01 +1.78915173e-01 +4.31107372e-01 -3.19859654e-01 +4.72061157e-01 -5.37359536e-01 -1.57663018e-01 +3.82728755e-01 +7.20190397e-03 +2.69961596e-01 -1.25131875e-01 -4.02712107e-01 +1.52864650e-01 -5.22228539e-01 -1.77040413e-01 -9.97829735e-02 +2.11540852e-02 -1.53852418e-01 +4.14287835e-01 +7.56921172e-02 +5.22422075e-01 -3.03910404e-01 +3.54763031e-01 +8.14628527e-02 +5.72728999e-02 -1.73888534e-01 -1.19300812e-01 +3.46368216e-02 -3.72448862e-01 -6.43930376e-01 +1.83506921e-01 -2.82787174e-01 -4.45103437e-01 -1.35986030e-01 +2.05025941e-01 -2.80652344e-01 -2.60943890e-01 +4.47124630e-01 +4.11545992e-01 
#Parameter# /_10 {25,25} 10001 ZERO_GRAD
-2.12587833e-01 +2.43651763e-01 -1.19659171e-01 -1.11179911e-01 +4.23893690e-01 +4.17413533e-01 +1.90238446e-01 -8.42576772e-02 -2.81042397e-01 -2.42106959e-01 +2.87466913e-01 -2.02924963e-02 -1.01197749e-01 +3.30205262e-01 -1.95945829e-01 +1.62187926e-02 +1.08442158e-02 -3.61159211e-03 +2.72126377e-01 +1.83278769e-01 -7.97369808e-04 +4.72326530e-03 -9.99855846e-02 +3.00468087e-01 -3.08038890e-01 -2.70690620e-01 +2.31589377e-02 +1.91238165e-01 -1.22945152e-01 -7.16794059e-02 +3.06458473e-01 -3.72659802e-01 +1.14235297e-01 -3.81794989e-01 -2.83985913e-01 -7.60651231e-02 +2.29592338e-01 -1.37882710e-01 +1.85830757e-01 -6.65850006e-03 -4.24718887e-01 -1.09761290e-01 -1.83724940e-01 -2.08467990e-02 +3.17666620e-01 +2.15206653e-01 -3.58076185e-01 -1.28639594e-01 +3.37258697e-01 -2.31365263e-01 -7.87938163e-02 +3.28094602e-01 +2.04332277e-01 +5.67503236e-02 +1.48549944e-01 +2.67886579e-01 +3.42558958e-02 +3.90629590e-01 -1.67700425e-01 +3.19229215e-01 +1.82827145e-01 -2.58053273e-01 -3.35749954e-01 +5.67722134e-02 +3.46156619e-02 -1.27895564e-01 -4.08706427e-01 -1.73488501e-02 -2.33601958e-01 +1.91910967e-01 -3.93090658e-02 -1.44675523e-01 +2.60715455e-01 -2.48475909e-01 -1.22939855e-01 -2.09943615e-02 -3.22795659e-01 +2.54732788e-01 -1.30129144e-01 +7.62554556e-02 -2.07044557e-01 -1.05953857e-01 -3.41995656e-01 +2.24580929e-01 -2.97831804e-01 -3.27187702e-02 -3.10420930e-01 -3.36649209e-01 +2.10369349e-01 -1.41954750e-01 -2.38755003e-01 -1.60295233e-01 -2.53662288e-01 -1.98206350e-01 +4.16306168e-01 -6.48482516e-02 -8.56419876e-02 -1.49332076e-01 +4.59805399e-01 +4.09359455e-01 +2.83002704e-01 -1.92808524e-01 -3.97104397e-02 +3.21123362e-01 -2.53230721e-01 -2.61802554e-01 +3.70734155e-01 +1.25134856e-01 +3.68395388e-01 +2.83380806e-01 -3.35809916e-01 +1.61766574e-01 -3.57563794e-01 -1.26170978e-01 +1.26624793e-01 +5.04664123e-01 +7.16289878e-02 +3.85600299e-01 +2.36905560e-01 +2.37813607e-01 +3.80836248e-01 +1.20111182e-01 -3.95259917e-01 -1.96721822e-01 +1.20300896e-01 +3.57289940e-01 +3.49055141e-01 -1.76520050e-01 +2.12672099e-01 -5.97377598e-01 -1.30517542e-01 +2.58110999e-03 +6.99303523e-02 +2.29935750e-01 -2.18765754e-02 -2.92770803e-01 +3.06183666e-01 +2.52503574e-01 -3.93904328e-01 +3.07159662e-01 +6.30097032e-01 -4.03840899e-01 -1.48605779e-01 +1.43927112e-01 -1.97884887e-02 +2.60346919e-01 -1.54424027e-01 -2.00038061e-01 -5.24162412e-01 -9.40976962e-02 +1.27341151e-01 +6.16911873e-02 -2.13026702e-01 +2.49346416e-03 -4.18375432e-03 -2.75740504e-01 +1.02320261e-01 +2.07541093e-01 +9.21828523e-02 -2.68445313e-01 -1.27860710e-01 -2.50776172e-01 +4.13283482e-02 -6.27731383e-02 +2.76890546e-02 +1.55393124e-01 -6.81354031e-02 -6.45800903e-02 -2.23512635e-01 -1.88040391e-01 +1.78981304e-01 +1.44019067e-01 -1.97252542e-01 -2.75009990e-01 -2.34028429e-01 -9.11286622e-02 +1.00876808e-01 +7.48379156e-02 -2.26504743e-01 -2.04559699e-01 +3.23215693e-01 +2.01115534e-01 +7.01952875e-02 -2.47647002e-01 -2.00433165e-01 -1.39686450e-01 -3.63588855e-02 -2.95325100e-01 +3.89121860e-01 +2.77637035e-01 +2.27066010e-01 +3.24008130e-02 -3.28809619e-01 +6.49908092e-04 -2.04986095e-01 -6.39677942e-02 -9.69100595e-02 -6.64694309e-02 -2.19573364e-01 +1.86881989e-01 +6.96071163e-02 -1.34661436e-01 +3.10592711e-01 -3.08824927e-01 +2.43072331e-01 +3.65040243e-01 -1.71518117e-01 -9.50297266e-02 -3.40351433e-01 -3.03618461e-01 +1.59608319e-01 +1.08684242e-01 -3.02746981e-01 -1.49353638e-01 -2.75423646e-01 -4.20671344e-01 -1.57475844e-01 -4.50255752e-01 +2.14216337e-01 -1.37000263e-01 -2.81551301e-01 -9.12406743e-02 -1.53167129e-01 -2.08451971e-02 -2.58596331e-01 +1.91965982e-01 +2.66706377e-01 +3.36802751e-01 -2.00436547e-01 -1.86129302e-01 +2.89342523e-01 +1.45044237e-01 +3.68814349e-01 -1.99647307e-01 -3.10844272e-01 -2.15005383e-01 -3.93880270e-02 -3.16635698e-01 +3.11359763e-01 +1.58026695e-01 -3.86725813e-01 +1.42943457e-01 -1.56694323e-01 -2.40062371e-01 +1.03823654e-01 -1.19806714e-01 -5.84982987e-03 +5.04576489e-02 +1.43292248e-01 +5.21414578e-02 +2.32559904e-01 +2.76302248e-01 -8.49767998e-02 +1.13052048e-01 -1.32553220e-01 -3.93862754e-01 -8.52162018e-02 +3.65703940e-01 +3.70043814e-01 +1.60436213e-01 +1.91318259e-01 -1.02246486e-01 -1.24058403e-01 +1.74443021e-01 +1.58195555e-01 +2.88267225e-01 -3.41370016e-01 +7.35743046e-02 -3.71881336e-01 -1.22956365e-01 +2.80048162e-01 +4.63971198e-02 -2.63246387e-01 -3.39932591e-01 -3.55286986e-01 -3.07185918e-01 +1.28122643e-01 -1.09136797e-01 -1.04718775e-01 -8.56782496e-02 -2.93414950e-01 +1.43459231e-01 -3.61226708e-01 +2.70664066e-01 -3.86401638e-02 -3.39851454e-02 -3.11146289e-01 +7.91046396e-02 -1.54274732e-01 -6.66148141e-02 -1.51323661e-01 -1.33767441e-01 +6.96877688e-02 +8.59838817e-03 -3.35339755e-01 -2.01277450e-01 +2.49536127e-01 -1.12182975e-01 +1.87627643e-01 +3.02160442e-01 +2.43921548e-01 +4.52301428e-02 -8.69500190e-02 -2.25794479e-01 -5.19361310e-02 +8.59853402e-02 -2.32921988e-01 -1.38713211e-01 -1.30902871e-01 -3.60258847e-01 -1.93704933e-01 -2.27880687e-01 +3.17490965e-01 -5.80013394e-02 +2.94523358e-01 +3.73099625e-01 -9.71561670e-02 -1.09646499e-01 -1.07186593e-01 +1.14775836e-01 -1.93023786e-01 +1.38850033e-01 -1.49097331e-02 -1.02720603e-01 +2.76358247e-01 +9.04648677e-02 -2.63041466e-01 -6.03175983e-02 +1.36783063e-01 +2.42992546e-02 -2.55296856e-01 +2.07356542e-01 +1.76760688e-01 +1.69904605e-01 +2.84950044e-02 +2.01660499e-01 +1.40284419e-01 +2.13482186e-01 -4.15823720e-02 -2.40939241e-02 +2.69338489e-01 -3.89282107e-01 -1.04158334e-01 +1.44871175e-01 -3.08448195e-01 +2.27278501e-01 +3.22799832e-01 -2.36716688e-01 -1.38469115e-01 -3.33321452e-01 -8.33316892e-02 +2.79776901e-01 -1.40240202e-02 -2.83331811e-01 +1.91923529e-01 -2.29365036e-01 -3.19040000e-01 -2.82600641e-01 -3.36321354e-01 +1.39315113e-01 +3.03401202e-01 -1.73371151e-01 -1.20244604e-02 -1.45926133e-01 +3.48892033e-01 -3.49655718e-01 -6.94121346e-02 -2.66427845e-01 +5.60173355e-02 -2.96959847e-01 -1.39842957e-01 +5.29934987e-02 -4.74628434e-02 -6.82796314e-02 +2.83696473e-01 -5.32994926e-01 -5.61748147e-02 -1.02784261e-02 -3.28835934e-01 +2.58081615e-01 +4.78445530e-01 -3.24687719e-01 +7.66014010e-02 -4.10229534e-01 -1.43888339e-01 -7.68154114e-02 +5.02888076e-02 +2.43348047e-01 +2.43189521e-02 -9.18546319e-02 +9.01599377e-02 -1.18079007e-01 -1.12281717e-01 +3.71973842e-01 -3.14335525e-02 +2.96553075e-01 -1.08347507e-02 -2.28122562e-01 +2.99578160e-02 -1.12266190e-01 -7.50047434e-03 +1.44428208e-01 +1.19072028e-01 +7.74939880e-02 -4.36870247e-01 -4.17370558e-01 +1.06314942e-01 -2.22635880e-01 -2.56155044e-01 -2.75906414e-01 +6.62011281e-02 +2.16448888e-01 +3.38918597e-01 -2.16276586e-01 +3.26658815e-01 -1.22261561e-01 -3.05392772e-01 -9.01601911e-02 -3.19793701e-01 -2.82472551e-01 -1.06064618e-01 +6.09777607e-02 +1.32686645e-01 -2.55435318e-01 -2.71709472e-01 -2.47516483e-02 -1.27498537e-01 +2.35290125e-01 +2.53206700e-01 +5.72783798e-02 -9.58628431e-02 -1.25184655e-01 +2.34964062e-02 -3.64637047e-01 -8.40205923e-02 +1.34872109e-01 -1.92520022e-01 -3.18779320e-01 -2.11114988e-01 +1.25852853e-01 +1.84546262e-01 +1.68328643e-01 -1.91590354e-01 +4.46282774e-02 +1.34951994e-01 -2.30086356e-01 +3.01526994e-01 -2.21017539e-03 +1.41173780e-01 -2.31834233e-01 +2.70676911e-02 +2.03417808e-01 +8.20624903e-02 -1.58485845e-01 +1.93612337e-01 +1.00018091e-01 +1.30209804e-01 -3.46416473e-01 -1.17377751e-01 +1.26630455e-01 -2.35568643e-01 +2.02639088e-01 +1.76483244e-01 -6.38626143e-02 +2.31870592e-01 +7.13588595e-02 +1.24790527e-01 -2.31191143e-01 +2.41124749e-01 -3.03018183e-01 +1.65464923e-01 +1.52143314e-01 -1.35218024e-01 -1.25589147e-01 -3.91926393e-02 +2.65536040e-01 +1.15198800e-02 -9.77017879e-02 +2.93493450e-01 +2.48999178e-01 -1.28069669e-01 +8.29306692e-02 +2.62465537e-01 +2.53976047e-01 +2.72459060e-01 -2.97978092e-02 +8.08192194e-02 -1.37313515e-01 -5.60851134e-02 -2.05293819e-01 -1.71190828e-01 -1.65703699e-01 +2.36084342e-01 -3.13043952e-01 -1.44643158e-01 -8.03643838e-02 +2.11792797e-01 -1.23741172e-01 -2.82892674e-01 +2.15866104e-01 +2.97591120e-01 -2.03446910e-01 -9.38694850e-02 -2.86628246e-01 -3.12147345e-02 -1.68993697e-01 -1.54747635e-01 -2.67921001e-01 +1.04469880e-02 -2.07453921e-01 +3.96199524e-01 +2.12780789e-01 +1.79794505e-01 +1.70753673e-01 -1.98440745e-01 -7.33467266e-02 -3.11477870e-01 +2.50024676e-01 -2.01353595e-01 +1.43414497e-01 +2.03587800e-01 -2.98646599e-01 +2.80275289e-02 -8.04074928e-02 -1.95490256e-01 +2.85947412e-01 -1.09238401e-01 -7.00429380e-02 -1.59123857e-02 +2.77583718e-01 +3.27051669e-01 -1.05518758e-01 -3.78050745e-01 -4.02201742e-01 -2.11560056e-01 -9.41924676e-02 +2.24102631e-01 -1.54497892e-01 +3.96802664e-01 -2.23496765e-01 -7.58078098e-02 -2.25976184e-01 -3.88069212e-01 -2.11399063e-01 -2.46061370e-01 +3.19625497e-01 -1.26078993e-01 -2.90751219e-01 -1.96958393e-01 +2.75172204e-01 +2.73668259e-01 -2.16163933e-01 +2.23488659e-01 +6.96777478e-02 +2.40779985e-02 +1.30476058e-01 +1.12156995e-01 -2.86154240e-01 +6.88377442e-03 -1.50406986e-01 -3.13795358e-01 +2.59658396e-01 +2.23202810e-01 -8.34974274e-02 +2.18692809e-01 +1.67129323e-01 +1.99222445e-01 +2.14028373e-01 +1.05082810e-01 +3.45809251e-01 -2.15784043e-01 +6.75604567e-02 +2.48254135e-01 +2.05179945e-01 -2.98586935e-01 +2.57728696e-01 +7.95665160e-02 -1.49822623e-01 -1.59801021e-01 -2.70873040e-01 -1.68132782e-01 -1.95410445e-01 +3.27551216e-02 -8.08131546e-02 +1.52069524e-01 -2.61321157e-01 -3.22062314e-01 +1.12107180e-01 -1.23464428e-01 +2.78896749e-01 +1.28824860e-01 +1.26342654e-01 +3.35696816e-01 -2.52101533e-02 -2.69709259e-01 -4.58608046e-02 +3.08550268e-01 -2.78828949e-01 -4.60034609e-01 +1.49808779e-01 +3.88413727e-01 -1.56010807e-01 +1.84176579e-01 -9.14395321e-03 +1.34393588e-01 +8.09692144e-02 +2.22441420e-01 +5.32545242e-03 -2.27564171e-01 -7.39557073e-02 -4.94204998e-01 +1.54728964e-01 -1.38090000e-01 -4.77835797e-02 +4.27294895e-02 -5.87038659e-02 -2.51955166e-02 -1.29798383e-01 +3.29992056e-01 +7.50942677e-02 +2.39607558e-01 +2.02461645e-01 +1.03850417e-01 -2.24104375e-01 +1.04019217e-01 
#Parameter# /_11 {25} 401 ZERO_GRAD
+2.78704315e-01 +1.17492206e-01 +2.51999140e-01 +3.15971971e-01 +2.47846246e-02 +1.73805192e-01 +1.50476485e-01 +3.75796139e-01 +1.61659777e-01 +2.35854387e-01 -2.23495648e-03 -3.24851155e-01 -3.14404130e-01 +3.14314753e-01 -2.06271172e-01 -2.54622519e-01 +2.55196750e-01 +2.38553345e-01 -3.10000539e-01 +3.52738559e-01 -2.79613305e-02 +3.27447891e-01 -3.36254574e-02 +1.63632184e-02 +9.95637774e-02 
#Parameter# /_12 {25} 401 ZERO_GRAD
-2.38086879e-02 +2.32933283e-01 -4.99318838e-02 +3.34203959e-01 -6.63449466e-02 -2.89972603e-01 -1.65083379e-01 +5.08150756e-02 -5.00841737e-02 +4.01621163e-02 +8.23827088e-02 -1.10949978e-01 -2.94503123e-01 -1.21519029e-01 -3.80323529e-02 -1.57913983e-01 -2.63644218e-01 -3.36924314e-01 -2.16968149e-01 -2.89284289e-01 -3.39251965e-01 -1.75320119e-01 -4.23173606e-02 -1.42394394e-01 -2.66949981e-01 
#Parameter# /_13 {25,25} 10001 ZERO_GRAD
+2.54507959e-01 -5.15776649e-02 +1.20476156e-01 -2.85945356e-01 +1.45261139e-01 -3.12771648e-01 -2.41709813e-01 -3.16127002e-01 -4.69557285e-01 -2.95644432e-01 +2.31138896e-02 -2.58406371e-01 +2.10625574e-01 +2.87348270e-01 +2.79257178e-01 +2.32688725e-01 -1.65309787e-01 -4.72947270e-01 -8.24263468e-02 +8.33146572e-02 -1.60599053e-01 +3.43612939e-01 +3.11969340e-01 -9.27656367e-02 -5.80962896e-01 +2.60656267e-01 +1.00754768e-01 +2.93669373e-01 +2.57773489e-01 +5.23606241e-01 -1.99110970e-01 -2.96643227e-01 +1.18743189e-01 -3.95974755e-01 +1.79270640e-01 -8.51756930e-01 +7.36208141e-01 -3.15565430e-02 +5.84290624e-01 +2.06910104e-01 +3.23143661e-01 -9.27038848e-01 -9.52930093e-01 +2.99373847e-02 -4.65439230e-01 +2.70217985e-01 +3.06750476e-01 -1.07869603e-01 -8.64815712e-02 -3.38043392e-01 +7.97766671e-02 +2.37357095e-01 -4.81467898e-04 -3.40089172e-01 -1.17509112e-01 +1.99920550e-01 -2.28393182e-01 +2.20303208e-01 +6.74049556e-02 -2.71081030e-01 -1.59613028e-01 -1.19893402e-01 +2.63996691e-01 -8.16359464e-03 -1.67071164e-01 +1.64421126e-01 -1.81081325e-01 +2.13485688e-01 -4.00273025e-01 +2.56597936e-01 -3.00794840e-02 -6.55392557e-02 -3.10757130e-01 -3.36990714e-01 +9.33996588e-02 +2.84790456e-01 +1.54534891e-01 -4.01671194e-02 -2.60620475e-01 +1.55792132e-01 +4.11400720e-02 -3.56084853e-01 +3.41916263e-01 -5.94933331e-02 +3.32662553e-01 -8.24488521e-01 +5.23984909e-01 +4.04475868e-01 -9.01899934e-02 +1.69464603e-01 -3.03726822e-01 -1.36602774e-01 -3.79625320e-01 +4.55874175e-01 -2.88708508e-01 -3.30939144e-01 -5.29102609e-02 +2.57557258e-02 -3.28444034e-01 -3.92191768e-01 +2.59278029e-01 +1.89396769e-01 +2.45131418e-01 -1.94707185e-01 -4.59517330e-01 +2.40591154e-01 +5.45500100e-01 +1.54797062e-01 +2.88950384e-01 -6.25751391e-02 +4.91541862e-01 -5.60282111e-01 -4.77618538e-02 -1.03832483e-01 -8.72990303e-03 +7.69376233e-02 +3.75736296e-01 +2.33053207e-01 +2.07295418e-01 +5.33296764e-02 +2.77541667e-01 +1.44690285e-02 -2.16100484e-01 +3.50385636e-01 +4.20086533e-01 -1.84409425e-01 +2.36376405e-01 +3.46071902e-03 +3.43616903e-01 -3.97266269e-01 -1.22843973e-01 +8.77307355e-02 -1.29273549e-01 +4.09933180e-02 +4.93955672e-01 +7.05178604e-02 -1.87917855e-02 -4.69034761e-01 +1.09208591e-01 +4.55363374e-03 +2.74901509e-01 +5.16182929e-03 +3.73815969e-02 -1.80815578e-01 +2.43021756e-01 +3.16777229e-01 -1.25270292e-01 -2.77756214e-01 +2.45743155e-01 -7.46963779e-03 -1.55344009e-01 +6.92538247e-02 -1.34810656e-01 -3.18130408e-03 +1.23850971e-01 -5.05986750e-01 -2.14215126e-02 -2.37549320e-01 +4.92358893e-01 +3.65615264e-02 +5.17728448e-01 -6.26351452e-03 -3.09146672e-01 -2.64127970e-01 -2.61285841e-01 -5.63872652e-03 +6.97975755e-01 +7.84821451e-01 -7.72794783e-02 -1.19838335e-01 -3.57742935e-01 +2.49057449e-03 +2.49515802e-01 +1.59524113e-01 +7.70968139e-01 +2.00233515e-02 +1.07344560e-01 +1.36900201e-01 -1.70895636e-01 -1.20858774e-01 -1.90386057e-01 -2.83927739e-01 -6.95951879e-02 -3.70242685e-01 -1.51157051e-01 -2.44621232e-01 -4.79402505e-02 -7.10795075e-02 +2.31924970e-02 -3.32044035e-01 -1.07727259e-01 -9.99192670e-02 -1.87438399e-01 -1.15764573e-01 -6.22063130e-02 -3.43942232e-02 -2.55184710e-01 +1.17821477e-01 -4.39302951e-01 -9.57955420e-02 -2.78048813e-01 -1.60424516e-01 -2.42155939e-01 -3.73932004e-01 +1.58975437e-01 -3.73873025e-01 -1.66601971e-01 +1.97609700e-02 -3.72699380e-01 -2.42727846e-01 +7.08814943e-03 -3.04434806e-01 +1.62833631e-01 +3.65833610e-01 -1.37431845e-01 -1.85890511e-01 -4.91151549e-02 +9.52493027e-02 +1.97541993e-02 +1.99618369e-01 +1.60399582e-02 -2.60309279e-01 -9.81088430e-02 -1.83670923e-01 -4.41897511e-01 +6.91540241e-02 +3.73725206e-01 -8.42795372e-02 -5.00757396e-02 +1.01508312e-01 +1.00247480e-01 -3.72861534e-01 +2.37780467e-01 -4.14595187e-01 +1.66893825e-01 -2.59867221e-01 +1.11862361e-01 -1.89176816e-02 +7.66066313e-02 -1.29603744e-01 +5.08163013e-02 -2.72682798e-03 -1.03255160e-01 -1.10519975e-01 -1.61709949e-01 -3.67855877e-01 -1.28151387e-01 +2.11784884e-01 -4.73454833e-01 -3.92844617e-01 -3.60175878e-01 -3.61901343e-01 -7.13927075e-02 +2.19191357e-01 -3.64480048e-01 -3.20929319e-01 -2.40881905e-01 +2.16085613e-01 +1.82812989e-01 -2.09115818e-02 +4.53109592e-02 -2.17142969e-01 -3.15144092e-01 +7.05956146e-02 +1.47730559e-01 -1.89615950e-01 +1.51605874e-01 +4.19778079e-01 +6.67871609e-02 -2.21658900e-01 +3.90747666e-01 +2.36835599e-01 -3.21451962e-01 +4.92464304e-02 +2.91554481e-01 +1.72778443e-01 +9.66396630e-02 +3.46148103e-01 -2.18218148e-01 -2.85654157e-01 +3.74174953e-01 +9.18284655e-02 -4.04744804e-01 +3.64088148e-01 -2.55715728e-01 +3.56225520e-01 -3.24407399e-01 +1.02809794e-01 +8.01580027e-02 -3.16546679e-01 +6.41346946e-02 +1.46251591e-02 +5.03656745e-01 -8.52127597e-02 +3.64775091e-01 +1.12412296e-01 +3.63173515e-01 +2.83051282e-01 +6.56252056e-02 +6.51870370e-02 +2.26427838e-01 +3.45063269e-01 -5.63842803e-02 -1.51465520e-01 +3.81712586e-01 +1.15562871e-01 -2.58176506e-01 -9.70714614e-02 +4.93444115e-01 -2.63120204e-01 +6.03326112e-02 -2.93389261e-01 +2.76596606e-01 +9.84395668e-02 -2.54515260e-01 +3.89402121e-01 +2.87934789e-04 +2.03910306e-01 -3.15078124e-02 -4.60523404e-02 -3.56409371e-01 -4.51946370e-02 -8.19057748e-02 +4.30901855e-01 -8.32961425e-02 +1.80524707e-01 -3.86595219e-01 +1.70754775e-01 +1.98911101e-01 +3.46870631e-01 -3.27702910e-01 +9.39452127e-02 -2.40793407e-01 -1.34955660e-01 -4.43633012e-02 -3.21329162e-02 +2.39846677e-01 +1.34445995e-01 +2.36716658e-01 -2.36492977e-01 -2.12965712e-01 +2.18238086e-02 -2.81859785e-01 -2.80832887e-01 -8.01919922e-02 -1.53987691e-01 -1.27894074e-01 +4.13062749e-03 -2.47020379e-01 -1.58578411e-01 +9.97618213e-02 -1.17754847e-01 +2.45655209e-01 +4.52843070e-01 +1.09315306e-01 +1.31341353e-01 +3.36838692e-01 +2.46255860e-01 +1.40902326e-01 +2.48862296e-01 -8.73851590e-04 +9.04928818e-02 -3.48889023e-01 -1.76512867e-01 +5.33987535e-03 +1.89872518e-01 +1.13106541e-01 +2.43782967e-01 +3.25535774e-01 +3.23159635e-01 +2.54247069e-01 -1.44516289e-01 +1.51650339e-01 -7.15836212e-02 -2.03987292e-05 +2.08399162e-01 +4.01031561e-02 +1.91053331e-01 +4.69151400e-02 -9.93775129e-02 -2.23737061e-01 -2.65294433e-01 +3.76906484e-01 -2.37711929e-02 +1.15752429e-01 -6.60355985e-01 +5.81084013e-01 +1.62441418e-01 +8.34924504e-02 -2.18762577e-01 -1.38136983e-01 -5.76322794e-01 -6.54365599e-01 +8.44727177e-03 -3.32110852e-01 -2.82161891e-01 +3.79724979e-01 -1.56522229e-01 +6.20532371e-02 -6.19818509e-01 -2.70063937e-01 +2.78036118e-01 -3.13505828e-01 -2.95574129e-01 +3.45541462e-02 +3.64245661e-02 +2.61894345e-01 +1.91844866e-01 +3.81192923e-01 +2.54389614e-01 +3.59524578e-01 -3.65952849e-01 -7.07873553e-02 -2.99493670e-01 -9.51656625e-02 -3.49062420e-02 +3.55791360e-01 +4.16218519e-01 -2.97827631e-01 +2.50584990e-01 -5.10037504e-02 +8.89567360e-02 +6.74238577e-02 +2.13931143e-01 -1.65004075e-01 +1.86508894e-01 +1.35856196e-01 +2.51981467e-01 -4.02152002e-01 +6.76931739e-02 -3.99023652e-01 +1.21426776e-01 -1.99158177e-01 -8.84486735e-02 -2.75160015e-01 +1.33765951e-01 +2.55302936e-01 +2.58723497e-01 +4.66908514e-02 -1.92467779e-01 -3.99463177e-01 +2.00701892e-01 +2.55584210e-01 -8.46858695e-02 +2.17261747e-01 -3.68941277e-01 -3.65399361e-01 +2.50327021e-01 -2.90466875e-01 +2.20449641e-02 +2.54567057e-01 +9.43215117e-02 +1.04841031e-01 +9.59208012e-02 -1.29027918e-01 +2.62525886e-01 -1.00401551e-01 +1.15783490e-01 +4.62755114e-01 -2.70770669e-01 -1.01685099e-01 +1.26284912e-01 -2.92930365e-01 -1.51236668e-01 -3.47066075e-01 -4.83407304e-02 -7.11686388e-02 +1.68158293e-01 +1.96222663e-01 -8.80172849e-02 +3.60034317e-01 +4.30862382e-02 -1.04991451e-01 -1.06132977e-01 -2.32221648e-01 -2.86481887e-01 -6.84438795e-02 +2.25521121e-02 -4.18462723e-01 -6.31158054e-02 +1.13041930e-01 -9.43273380e-02 -1.85370281e-01 -1.63437128e-01 +3.36817414e-01 -3.01558763e-01 -8.60958248e-02 +3.23580742e-01 -3.50322798e-02 -1.88389480e-01 -3.82715724e-02 -2.42969155e-01 -2.98641562e-01 +2.25518242e-01 -2.95012802e-01 -2.01426446e-01 -2.08585113e-01 +2.46252641e-01 -4.94402833e-02 -4.16361481e-01 +1.29264295e-01 -1.65313914e-01 -2.09453464e-01 +1.22018985e-01 +2.77807295e-01 -5.56051910e-01 +4.51280959e-02 -1.66987758e-02 -4.64557290e-01 -1.71683580e-01 -3.83523107e-01 +8.75246897e-03 +3.80020261e-01 +3.93637121e-01 +1.05227612e-01 -4.08720791e-01 +2.53755637e-02 -3.73438001e-01 -2.15434730e-01 -1.63579166e-01 +2.33338654e-01 +1.24562755e-02 -1.60624161e-01 +1.83240220e-01 -3.68502527e-01 -2.17335090e-01 -1.29171178e-01 +3.66199583e-01 -6.98951781e-02 +3.38396877e-01 -1.91398337e-01 +1.15242682e-01 -8.92612934e-02 -1.87936053e-02 -2.33219013e-01 -1.34632379e-01 -1.51242822e-01 +2.16785207e-01 -2.62585729e-01 +4.77181226e-01 +2.60185987e-01 -1.99128151e-01 -2.07851052e-01 -2.67040799e-03 -2.37251788e-01 -2.38791808e-01 -2.02925771e-01 +3.79085183e-01 -2.84733087e-01 -5.69908261e-01 -1.54299781e-01 -1.24348573e-01 +2.16326877e-01 -4.26310524e-02 +1.89423144e-01 +1.17852308e-01 +3.47453266e-01 -2.64328066e-02 +4.78571832e-01 +3.49503487e-01 -2.58705020e-01 -3.57132871e-03 -1.60436004e-01 +1.21245191e-01 -1.53375566e-01 +3.43280733e-01 +2.11892221e-02 +3.18750471e-01 +5.96258678e-02 +9.67406556e-02 +2.97379941e-01 +1.86401233e-01 +3.41536283e-01 +4.29105848e-01 +2.82552332e-01 +1.72212664e-02 -4.10762221e-01 +8.57267678e-02 -2.95408309e-01 +8.04407746e-02 +2.92159468e-01 +2.44117841e-01 +3.57751667e-01 +2.22601239e-02 -5.73513331e-03 -3.84547226e-02 -1.76513985e-01 -1.04873531e-01 -2.72723973e-01 -8.63110498e-02 -1.80568695e-01 -2.50502139e-01 -1.11801632e-01 +2.74689287e-01 -2.64737040e-01 -5.11110500e-02 +1.23132847e-01 -2.13377148e-01 +2.98299581e-01 +4.75111008e-02 -2.73374528e-01 +9.93130803e-02 -3.19834173e-01 -6.80248290e-02 -1.79311469e-01 +1.67218745e-01 -9.86579526e-03 -1.29128173e-01 +6.17951378e-02 +2.36472622e-01 +3.42750043e-01 -4.43945497e-01 -1.06584251e-01 -2.14116096e-01 -1.70479268e-01 +3.41652066e-01 +3.87586147e-01 +6.09119952e-01 -2.15857804e-01 -1.92360565e-01 +1.51583344e-01 -2.46894941e-01 -6.79289103e-02 +1.98250204e-01 +3.47529024e-01 
#Parameter# /_14 {25,25} 10001 ZERO_GRAD
-1.50374144e-01 +6.38437569e-02 +3.01166475e-01 +2.38478303e-01 +2.22614110e-01 +4.72307622e-01 -2.00931638e-01 -3.31060976e-01 -1.74914941e-01 +2.61363965e-02 +8.63436027e-04 -1.91524252e-01 +2.25895807e-01 -4.72601093e-02 +2.93407500e-01 +4.76833247e-02 +3.32438529e-01 +2.54882157e-01 +7.83637911e-02 +2.42742851e-01 +2.02363908e-01 +2.63422370e-01 -2.41784796e-01 +2.30166256e-01 +3.60278666e-01 -3.05260360e-01 +2.14488879e-01 -2.04361111e-01 -8.54229182e-02 +1.77382424e-01 +2.98610896e-01 +1.50176063e-01 -1.36374786e-01 -3.31199795e-01 +1.67703077e-01 -7.73238093e-02 +1.29476786e-02 +3.62676859e-01 +3.05669665e-01 +2.58902311e-01 -7.28390664e-02 -2.70968318e-01 -3.76664758e-01 -3.28011245e-01 +8.66178796e-02 +7.04976693e-02 -1.88272834e-01 -2.71195620e-01 +2.40768790e-01 +5.97404651e-02 +2.51761198e-01 +1.43065333e-01 -2.14758381e-01 -3.00230354e-01 -3.73301422e-03 -4.53684688e-01 -5.00868075e-02 +5.68633936e-02 -1.43607974e-01 -2.70052642e-01 -4.06471610e-01 +1.52194232e-01 -1.49544254e-01 -2.98068732e-01 -3.47176343e-01 -8.77822712e-02 +8.27189535e-02 -1.31077990e-01 +1.11593321e-01 -2.30204418e-01 -2.03392819e-01 -3.04392993e-01 -2.09356412e-01 -1.07227460e-01 -4.91770655e-01 +4.76970039e-02 -2.31754348e-01 -9.25474018e-02 -3.90116304e-01 -4.46261555e-01 -7.75473937e-02 -2.00854719e-01 +1.15845138e-02 -4.17059302e-01 +3.64518821e-01 +3.37729752e-02 +1.35998473e-01 -4.03996915e-01 -4.68871087e-01 -5.41540943e-02 +1.30321413e-01 -3.13628256e-01 +2.60613590e-01 -3.74772727e-01 -3.46696824e-01 +1.74765319e-01 -2.31180981e-01 +2.57639617e-01 +2.75189400e-01 -2.15975121e-01 +1.39084026e-01 +2.63470113e-01 -2.85812289e-01 +3.31903577e-01 +3.70202512e-02 +1.82854738e-02 -1.00671947e-01 -3.06528866e-01 -1.72409136e-02 -1.56092094e-02 +1.99533895e-01 +3.05205315e-01 -1.33409813e-01 +4.03949529e-01 +3.09222847e-01 -2.98247606e-01 +3.30384701e-01 +6.33505136e-02 -1.47932172e-01 -3.34501654e-01 -3.02696109e-01 -4.34085011e-01 -5.60812615e-02 +2.27150284e-02 +5.37630282e-02 +1.24104872e-01 -4.45248544e-01 -1.42519578e-01 -2.56370962e-01 +3.90994102e-01 -1.77730490e-02 +2.42550179e-01 -1.57690078e-01 -2.93679625e-01 -9.13893655e-02 +8.80734646e-04 -8.11468288e-02 +1.34894580e-01 -5.80978654e-02 -2.92376131e-01 +4.41223867e-02 -2.67980814e-01 -3.23925942e-01 +1.59841225e-01 -1.06958896e-01 -1.30789578e-01 -3.86559218e-01 -1.25929251e-01 -9.47645083e-02 -3.05611044e-01 -2.76262105e-01 -2.44406581e-01 -2.51573503e-01 -1.15995079e-01 +6.17828034e-03 +2.75938869e-01 +4.30256166e-02 -4.51714173e-03 -1.38275400e-01 -2.68326122e-02 -5.56775331e-02 -1.53348491e-01 -1.85676053e-01 +2.39506215e-02 +3.46911997e-02 +1.14887886e-01 +1.00896247e-01 +1.12038366e-01 +5.57142235e-02 +2.49586716e-01 -1.99985817e-01 -4.67656329e-02 +1.17502488e-01 +1.46618456e-01 -9.46943164e-02 +3.07662070e-01 -2.95546830e-01 -6.71394495e-03 -4.20508713e-01 +2.15409864e-02 -2.95419931e-01 -1.35435939e-01 +2.28122652e-01 -1.65084079e-01 -2.65683327e-02 -2.29058623e-01 -3.05476159e-01 -1.24834940e-01 +2.91987628e-01 -1.75509840e-01 -4.41203713e-01 -3.55471045e-01 +1.72289729e-01 -1.30810425e-01 +2.14294583e-01 +8.34691375e-02 -2.10841388e-01 +8.99422169e-02 -2.14325815e-01 -3.61918658e-01 +1.83611780e-01 -6.97564632e-02 -8.64403099e-02 -1.49732950e-04 +3.09694111e-01 +1.25541398e-02 +1.29512191e-01 -3.18999171e-01 +3.23240310e-01 +1.46072701e-01 +1.05656616e-01 +3.45979631e-01 +1.92471072e-01 +3.91544886e-02 -3.41740698e-01 -1.26669303e-01 +1.55165628e-01 +3.02861989e-01 +2.68955529e-01 +3.15655529e-01 +6.54154941e-02 -2.22368509e-01 +7.43592530e-02 -1.87728927e-01 +1.91201400e-02 +8.77195969e-04 +5.37143042e-03 -2.28910998e-01 +4.59200323e-01 -1.96143791e-01 +4.34029758e-01 -1.56209081e-01 -3.24111283e-01 +1.35313466e-01 -3.21031004e-01 -1.15952805e-01 +1.96537152e-01 -2.68463045e-01 +2.47015163e-01 -3.32230777e-02 +3.66202533e-01 -7.99125805e-02 +2.19748810e-01 -2.45308354e-01 -2.95012504e-01 +2.28327021e-01 -1.00808345e-01 +3.42404753e-01 +3.93216729e-01 +2.08027527e-01 -2.65173018e-01 +2.05496326e-01 -2.06782147e-01 -1.18447147e-01 -1.67029753e-01 -2.67164826e-01 +8.33886564e-02 -2.78562494e-02 -2.71524400e-01 +2.59207547e-01 -1.06486700e-01 +1.00821346e-01 -2.59527862e-01 +3.56141686e-01 +9.80316103e-02 -8.33391398e-02 +1.23660795e-01 +1.26786828e-01 +1.75030977e-01 +7.24137276e-02 -6.74225032e-01 +1.07579567e-01 +3.25263053e-01 +1.71806708e-01 -6.34238049e-02 +3.80925626e-01 -5.71811981e-02 -3.79404612e-02 +5.60822198e-03 -1.01858061e-02 -4.04553086e-01 -4.61128414e-01 +2.38862798e-01 -5.17159104e-01 +3.21410358e-01 -4.99452561e-01 -4.17344242e-01 -3.56728047e-01 +3.46108563e-02 +1.44755810e-01 -1.28765047e-01 -6.89409599e-02 -1.23874336e-01 +2.40686312e-02 +2.23940298e-01 +3.37771237e-01 +1.09940536e-01 -3.66356581e-01 -4.34849828e-01 +9.94382426e-02 +2.86695123e-01 +2.07001910e-01 +1.51250929e-01 -1.92450002e-01 +1.12941533e-01 +7.55123943e-02 +3.10290188e-01 +6.98802844e-02 +9.50416476e-02 -3.07997733e-01 -1.39611855e-01 -3.66220213e-02 -2.20379025e-01 -2.51868188e-01 -9.56940800e-02 +3.89731437e-01 +1.01739980e-01 -1.83084279e-01 -1.89816251e-01 -1.25969555e-02 -2.38849774e-01 +2.13272586e-01 -1.42158372e-02 -3.62936944e-01 -7.13765547e-02 -3.60396624e-01 -6.81723654e-02 -2.79330125e-04 +1.36259764e-01 +2.29902029e-01 +2.33864367e-01 -4.51503415e-03 -3.18104953e-01 +2.41881572e-02 +1.87516779e-01 +3.07357848e-01 -9.23235565e-02 +4.05732840e-01 +8.12031329e-02 +2.76034892e-01 -3.89253646e-01 -8.61646384e-02 +1.41736567e-02 +1.52592883e-01 -2.78710455e-01 +7.77605996e-02 -2.11405233e-01 +1.46109104e-01 +6.71313852e-02 +3.55312169e-01 -5.90889491e-02 -6.68287426e-02 +2.40362614e-01 +2.50187725e-01 -5.53430710e-03 -1.71380609e-01 -1.51033297e-01 -1.05180010e-01 -1.49442390e-01 -1.25711143e-01 -9.99354422e-02 +3.23041230e-01 +1.52963951e-01 +1.59227774e-01 +2.95164715e-02 +3.73296003e-04 -3.83823365e-02 -2.79631972e-01 +1.74883213e-02 -1.32209107e-01 +3.72792110e-02 +3.19721639e-01 -1.25284091e-01 -1.63013622e-01 -3.20543885e-01 -4.13362801e-01 +3.15400437e-02 -1.11661203e-01 -7.82347471e-02 +6.93911090e-02 +3.72151881e-02 +1.67615518e-01 -1.78197935e-01 +2.69439928e-02 -5.40395863e-02 +5.24722457e-01 +4.50972885e-01 +1.10114008e-01 -3.80475819e-02 -1.18157364e-01 -1.85721382e-01 -1.73938945e-01 -2.51833647e-02 +3.05674702e-01 -2.12184668e-01 +5.04032969e-01 +3.57253850e-02 -1.41419424e-03 +2.23538131e-01 +3.62504661e-01 +3.06829661e-01 -1.53119147e-01 -1.01672016e-01 +3.95286173e-01 -2.83003986e-01 +2.57131279e-01 -6.47306368e-02 -2.77494043e-01 +1.53794214e-01 +2.86567301e-01 +2.48513997e-01 -2.71933764e-01 +2.69148588e-01 -1.58018231e-01 +1.11690901e-01 +2.43756905e-01 -7.41725862e-02 +1.72152966e-01 +2.39281598e-02 +2.70328581e-01 -2.97686279e-01 -7.88458660e-02 +1.49365708e-01 +3.84406298e-01 +3.80027175e-01 +8.08935054e-03 -1.54462587e-02 +4.31133747e-01 -1.43485395e-02 +3.72145265e-01 -1.34807438e-01 +2.76964784e-01 +4.18399349e-02 +4.19983715e-01 -1.65355816e-01 +3.99440408e-01 -2.31030975e-02 +8.93040299e-02 -1.91755220e-01 -3.69118512e-01 -5.79064973e-02 -3.13279867e-01 +2.71376848e-01 -2.09415317e-01 +2.70990103e-01 +7.08860308e-02 -5.08332737e-02 +4.20218676e-01 -2.12559566e-01 +6.43063068e-01 +1.45423517e-01 +3.91317680e-02 +5.46344668e-02 -8.06716457e-02 -2.71034539e-01 -3.87464195e-01 -2.74988055e-01 +2.42750272e-01 +5.55954203e-02 +3.10418755e-01 -3.49621400e-02 +3.05880839e-03 -3.07260275e-01 -4.30364460e-01 -8.66131857e-02 +1.29260242e-01 -1.51229426e-01 -1.56301424e-01 -2.54232794e-01 -1.77397996e-01 +5.85736446e-02 -8.09819400e-02 -2.72049546e-01 +3.39450121e-01 +3.87466192e-01 -2.90832460e-01 +4.28157561e-02 +1.17510691e-01 +3.72922197e-02 +1.54162217e-02 +1.67408988e-01 +2.90574580e-01 -2.55352050e-01 +3.02233756e-01 -6.02573045e-02 -1.19474893e-02 -1.52843386e-01 -3.04498300e-02 +3.76270920e-01 +3.35208513e-02 -1.95434853e-01 +4.32395376e-03 -3.29521865e-01 +9.45621207e-02 -3.34577382e-01 +1.73747644e-01 +5.40433526e-02 -8.11854750e-02 +1.31140247e-01 +1.15940191e-01 +1.45411715e-01 -4.57846552e-01 +1.84971899e-01 -1.83557719e-01 +1.87945455e-01 -3.19753319e-01 +3.41178417e-01 +2.35619396e-01 -3.62404026e-02 -9.88984331e-02 -2.10134134e-01 -2.24444762e-01 -1.67023331e-01 -1.86454520e-01 +2.01058850e-01 +1.70497760e-01 +1.30153060e-01 +2.61238337e-01 +1.68846160e-01 -1.73484951e-01 +1.88199922e-01 +3.32653821e-02 -3.59738588e-01 +2.39076525e-01 +4.69608940e-02 -3.43727209e-02 +9.25979391e-02 +1.57010913e-01 -1.74657125e-02 -5.08205116e-01 -6.23573959e-01 -1.22044146e-01 -1.43108830e-01 -2.77876377e-01 -2.78040200e-01 -3.68707776e-01 -2.35427245e-01 -2.07313001e-01 -3.40743691e-01 +1.73238650e-01 -1.05197288e-01 -3.60875130e-01 +2.50532120e-01 +3.20330679e-01 -3.05330344e-02 -2.57114202e-01 +3.59082147e-02 +1.88600514e-02 -2.81369895e-01 -3.85980271e-02 +1.71210855e-01 +7.47713000e-02 -5.41540533e-02 +4.22060966e-01 -1.02022022e-01 +3.98007989e-01 -2.37313792e-01 -2.14888260e-01 +4.80166197e-01 -1.86250642e-01 +1.01195812e-01 -2.95582145e-01 -1.16321385e-01 -1.28710568e-01 -1.49701089e-01 +4.36978042e-01 -2.59277761e-01 -5.57294302e-02 -9.58707631e-02 -1.52190514e-02 +1.13853082e-01 -9.99643132e-02 -2.56895393e-01 +3.87163192e-01 +3.91072631e-01 -1.68821469e-01 +3.45409364e-01 +1.81142479e-01 +2.96949416e-01 +1.76036060e-01 -1.93489686e-01 +2.85860658e-01 -3.34966034e-02 -5.66194914e-02 -3.10166895e-01 -3.67305249e-01 +2.91965038e-01 +4.05435383e-01 +1.20903917e-01 +1.68680772e-01 +2.26390868e-01 +1.14818424e-01 +2.17109665e-01 +4.36059460e-02 +1.85753424e-02 -1.47478506e-01 +3.25291574e-01 +3.23817194e-01 +9.71535221e-02 -2.78224766e-01 -1.77855045e-01 +8.46389756e-02 -4.90093768e-01 +3.41565639e-01 -9.66544002e-02 +1.22526444e-01 -2.98240244e-01 +1.27228603e-01 -1.33164739e-02 +1.56028509e-01 -2.77073085e-01 -1.21957317e-01 +2.16175988e-01 +4.29246664e-01 -6.96996078e-02 -2.25618050e-01 -3.84264216e-02 +1.94700342e-02 -2.71730363e-01 -2.66279131e-02 -1.29255846e-01 +1.51796460e-01 -3.49461973e-01 +1.66084766e-01 -3.29163492e-01 
#Parameter# /_15 {25} 401 ZERO_GRAD
+1.37381881e-01 -2.45490987e-02 -4.56873663e-02 -8.24191840e-04 -3.89111310e-01 +1.46370634e-01 +1.73922405e-01 +1.72587708e-01 -8.98282081e-02 -6.89936578e-02 -1.68752834e-01 -1.76257074e-01 -6.68120608e-02 -2.45292753e-01 +2.15201959e-01 -1.07428327e-01 -3.28388304e-01 +2.73890439e-02 -3.93146425e-01 +2.21973285e-01 +7.37297982e-02 +2.84081548e-01 -1.07055485e-01 -1.12094603e-01 -3.33318084e-01 
#Parameter# /_16 {25,25} 10001 ZERO_GRAD
+1.80142045e-01 -3.03527087e-01 -2.22302705e-01 -1.61725640e-01 -2.26609588e-01 -3.31447273e-01 +1.05974615e-01 -1.17996857e-01 +5.56783676e-02 -5.39720058e-02 +1.36780918e-01 -2.02188596e-01 +2.33690917e-01 +1.91807747e-01 +3.19404721e-01 +5.87561727e-02 +1.72899604e-01 +2.27793157e-01 +2.91541159e-01 +2.70080090e-01 +2.06366479e-01 -9.77473408e-02 -1.53534174e-01 -3.45043570e-01 +2.34600067e-01 -9.12647545e-02 -3.06296051e-02 +2.72062957e-01 -6.10818863e-02 -1.64995492e-01 +1.45222306e-01 -1.38815850e-01 +6.71595037e-02 +7.80625939e-02 -1.82309479e-01 +1.08016104e-01 +1.64113760e-01 +3.50988507e-02 -1.83979645e-01 -1.86135888e-01 +3.36515486e-01 +7.03192651e-02 +1.46158606e-01 -1.58130035e-01 +1.10180974e-01 -1.32258609e-01 -2.84545630e-01 +2.27091134e-01 +2.98667073e-01 +3.83626819e-02 -1.44564152e-01 -2.59891063e-01 -2.60062605e-01 -4.33462858e-03 +3.18587482e-01 -1.03166088e-01 +2.59003043e-03 -3.15000713e-01 +9.60060954e-03 +2.02720761e-01 +1.47863418e-01 +1.36655480e-01 -3.23499501e-01 +1.96544290e-01 +2.49477923e-01 +4.37318981e-02 -2.58407891e-01 -1.95412725e-01 -2.82017946e-01 -1.07033655e-01 +1.89829230e-01 -1.04963481e-02 -3.03467542e-01 -3.39074254e-01 -2.63756961e-01 -2.45634317e-02 -3.14013422e-01 -1.16280839e-01 +3.17714810e-01 -6.28518462e-02 -2.28219151e-01 -2.21164122e-01 +2.77323306e-01 -2.97853351e-03 +2.83539116e-01 +2.83893645e-02 -5.75873256e-03 +1.69992566e-01 +1.27626985e-01 +2.49030292e-01 -2.82660365e-01 +7.23121762e-02 +3.25334787e-01 -3.12260926e-01 +6.13969862e-02 +5.73481619e-02 -3.07726026e-01 +5.51487207e-02 -1.84322029e-01 +2.85685658e-01 -2.59355366e-01 +2.04044759e-01 +3.13846946e-01 +4.04888391e-02 -1.12975597e-01 -3.13905478e-01 +1.83433175e-01 +2.55829692e-01 +8.54870677e-03 -1.29463047e-01 -7.69126713e-02 -2.21751630e-01 -5.91018200e-02 -2.90036201e-04 -1.91886738e-01 -7.75150359e-02 -9.44945216e-03 +1.35000199e-01 -1.93385303e-01 -4.57142889e-02 +3.02480519e-01 +2.91115463e-01 -2.35996455e-01 +8.08878839e-02 +1.68315947e-01 -9.56672430e-02 -1.94005087e-01 +2.71963894e-01 +1.30151659e-01 -1.74809456e-01 +1.17292583e-01 +2.14519322e-01 +3.86190414e-02 +3.49310040e-02 -1.93217993e-02 -1.15662053e-01 -3.11130196e-01 +5.74933887e-02 -1.21761650e-01 -9.26381648e-02 -4.45705652e-03 -2.17607021e-01 -1.49159804e-01 -1.35015935e-01 +4.57724929e-02 -2.31109351e-01 +6.98096454e-02 +2.18021870e-01 -1.27118707e-01 -3.15815508e-01 -3.14049155e-01 -2.97212869e-01 -8.45244527e-02 +3.93994749e-02 -5.14115989e-02 -1.83698863e-01 -1.33222595e-01 +2.91507781e-01 -2.95448571e-01 +2.51143515e-01 -2.09451631e-01 -2.23449022e-01 +2.75631785e-01 +7.53497183e-02 -1.94874883e-01 +2.68822908e-01 -1.63681477e-01 +1.97062254e-01 +1.05299324e-01 +1.90745950e-01 -1.77701905e-01 -1.90383911e-01 -1.52740836e-01 +8.87441635e-03 -9.62672830e-02 -2.42331922e-02 +1.68925941e-01 +1.27868146e-01 -2.31216609e-01 -2.28121042e-01 +1.94116890e-01 -3.03869694e-01 -1.27427757e-01 +1.87551379e-01 -2.97099054e-02 +1.39498144e-01 -1.94924399e-01 -8.53253305e-02 -1.67036965e-01 -1.47473946e-01 -3.03935647e-01 -2.73240328e-01 -4.22629714e-03 +5.26664555e-02 -1.25401407e-01 +2.57461488e-01 +2.99367428e-01 +3.04594398e-01 +2.01994419e-01 +1.74952567e-01 +4.26740348e-02 +2.19621360e-01 +1.73344791e-01 -6.52433932e-02 +1.09895229e-01 +1.84108913e-02 -2.81457901e-02 -6.33707345e-02 -3.10922891e-01 -1.74345791e-01 -4.70198393e-02 +1.26120120e-01 +3.21470320e-01 -1.77493528e-01 -7.70300627e-02 +8.11904669e-04 -8.25893581e-02 +3.01940918e-01 -3.37937772e-02 -2.71806210e-01 +1.62188172e-01 -2.21210435e-01 +1.34503841e-03 +2.57121921e-02 +3.06643248e-01 +2.84091592e-01 -1.10229552e-02 +1.36730075e-01 -2.08855912e-01 +2.46664584e-01 +3.10332537e-01 +1.72773182e-01 +2.71125734e-02 -2.76845813e-01 -3.35430682e-01 +2.11115062e-01 -2.53697038e-02 +2.96478331e-01 -5.30239046e-02 -3.11979830e-01 -1.53761849e-01 -2.49997675e-02 +2.52017140e-01 -2.91270614e-01 +1.44555390e-01 -1.08521819e-01 +6.71055913e-03 -1.68779358e-01 +3.13403666e-01 -1.27858043e-01 +1.52813256e-01 -5.25752306e-02 +3.28666687e-01 +1.37149274e-01 +2.25018561e-01 +7.50938356e-02 +1.94369078e-01 -1.15926549e-01 -2.29281634e-01 -2.00206041e-02 +5.82090020e-02 -3.13561469e-01 +3.19936275e-01 +2.69133329e-01 -2.55893946e-01 -3.37309241e-01 -1.94195718e-01 +3.08925927e-01 +7.12498128e-02 +3.30779552e-01 -2.75777429e-01 -1.46757036e-01 +2.32612729e-01 +8.23900998e-02 -2.35309035e-01 +3.02555025e-01 -1.16623178e-01 -2.84143150e-01 +4.09448445e-02 -3.03043395e-01 -1.52736396e-01 +3.42768133e-01 -2.72728145e-01 +1.55531168e-01 -1.86934307e-01 -8.33196044e-02 -2.74194717e-01 -2.67926335e-01 -3.33431035e-01 +3.13722491e-02 +2.39198446e-01 -1.26758859e-01 +3.03511858e-01 +7.33031929e-02 +2.76451290e-01 -3.25968802e-01 +2.23270595e-01 -2.43463159e-01 +2.70940185e-01 -2.03165770e-01 +1.04694098e-01 +2.68709064e-01 +3.29167604e-01 +2.65381575e-01 +1.53437793e-01 -1.67690754e-01 -3.05146962e-01 -1.05496839e-01 -1.29177585e-01 -9.96886939e-02 +2.64369905e-01 +2.22468913e-01 +2.01961219e-01 -3.33636791e-01 -1.94427773e-01 -2.74133831e-01 -3.25898081e-01 -1.57950073e-01 -2.02869058e-01 +2.66666949e-01 -5.65907359e-03 -1.29830673e-01 -1.66534230e-01 -1.93077326e-02 +2.21768856e-01 -2.99078465e-01 -1.94573402e-02 -3.30864191e-02 -1.45501658e-01 -1.14712298e-01 -2.16732726e-01 +3.07931542e-01 -2.85757780e-02 +1.82266176e-01 +3.99368703e-02 +4.23076749e-02 +3.08845103e-01 +2.79763341e-02 +2.55411744e-01 -9.21737850e-02 +2.65427530e-02 -2.22142980e-01 +2.60166287e-01 -4.69176769e-02 -7.41295516e-02 -1.63625225e-01 -1.03461280e-01 -1.52645260e-01 +3.26251984e-01 -1.58243477e-02 +9.70067382e-02 +2.73014069e-01 +1.76574051e-01 -5.83313704e-02 +1.46748483e-01 +3.42042744e-01 +2.14331806e-01 -2.52918482e-01 -2.50274807e-01 +2.41425514e-01 +3.27380776e-01 +3.37187946e-01 +1.65948033e-01 -2.06060693e-01 +3.19108844e-01 +2.51282454e-01 -1.98067412e-01 -6.35398626e-02 +2.38696396e-01 +2.75506437e-01 +1.37944877e-01 +1.00852817e-01 +7.13500679e-02 -1.98652208e-01 +3.17808390e-01 -2.89522111e-02 +1.90140009e-01 -3.31815183e-01 -1.58706546e-01 +2.27264643e-01 +3.12343538e-01 +3.27781856e-01 +2.45939851e-01 +8.76009762e-02 -1.35246783e-01 -6.04979694e-02 -7.20320940e-02 +6.21297359e-02 -1.46445930e-02 -2.25424483e-01 +7.86129236e-02 -1.42453268e-01 -2.18325645e-01 -1.09972954e-02 -1.14758790e-01 +8.79541039e-03 +8.26070905e-02 +2.55239010e-01 +2.09230840e-01 +1.04953766e-01 +9.78916883e-03 -2.15385050e-01 -1.66960403e-01 +2.78215706e-02 +8.68622959e-02 +2.12535083e-01 -1.79642856e-01 -3.32856178e-02 -2.04769552e-01 -2.50666320e-01 -2.35025853e-01 +1.06791615e-01 -2.70239115e-02 +3.22758853e-02 +2.23535001e-01 +2.87080109e-01 +8.39314759e-02 -1.98904455e-01 +2.94541121e-01 +3.67569625e-02 -2.20302299e-01 -1.15693450e-01 +1.95751846e-01 -2.65914977e-01 -2.25601599e-01 +2.97744811e-01 -1.32347226e-01 +2.16345429e-01 -2.94873953e-01 +9.16580856e-02 -1.41103700e-01 +1.72169745e-01 +7.68977404e-03 -1.86227649e-01 +3.18655014e-01 +1.22378469e-01 +1.72402918e-01 +2.74983048e-02 -5.80837429e-02 +3.09637070e-01 -2.16959581e-01 +4.40285504e-02 +1.71172976e-01 +2.80077159e-01 +1.42803431e-01 -1.76540017e-02 +9.03912485e-02 -1.08631402e-01 +2.97021568e-01 -8.52617323e-02 -2.73494214e-01 -3.30986500e-01 -3.62121165e-02 -1.95543960e-01 -8.61035585e-02 -9.43630934e-04 +1.28136903e-01 -3.25024426e-01 -2.75092423e-01 +2.27858126e-02 +1.22789234e-01 +3.39947879e-01 +3.40077519e-01 -7.66034722e-02 -2.94894278e-01 -8.26289952e-02 -8.51536095e-02 -3.04569155e-01 -5.99202514e-03 -3.19758475e-01 -1.03931189e-01 -3.22969258e-01 -2.22389609e-01 -7.03481734e-02 -6.14007413e-02 -1.08117744e-01 -2.97349840e-01 +1.03186518e-01 +1.83684766e-01 -8.22207630e-02 +2.57059157e-01 +7.94354379e-02 +3.00169468e-01 -1.03070140e-02 -1.32120535e-01 +1.13617837e-01 -2.75750428e-01 -9.26994681e-02 +1.72132075e-01 +5.63860536e-02 -3.33281100e-01 +1.91747427e-01 +3.72380316e-02 -1.51590228e-01 +2.29699016e-01 +1.47166491e-01 +1.82660401e-01 -2.55621374e-01 +1.18783593e-01 +9.61441398e-02 +1.62841916e-01 -2.07360297e-01 -2.45709270e-01 -3.71859372e-02 -1.41769394e-01 +7.75300562e-02 -8.49298835e-02 +2.69108415e-01 -1.78489551e-01 +2.50102520e-01 +2.96600759e-02 -8.59878659e-02 +3.36973846e-01 -5.31941652e-02 -3.29340339e-01 +2.69335628e-01 -2.98333526e-01 -1.19983956e-01 +2.72829533e-01 +3.14903855e-01 -3.02881002e-01 +6.28284216e-02 -1.36739194e-01 +1.02520436e-01 +6.74882531e-02 +2.10345268e-01 +1.93131447e-01 +1.32651776e-01 -6.63018227e-03 -1.08242854e-01 -2.35680521e-01 -3.46046329e-01 +1.86644495e-01 +3.23196471e-01 +3.17219973e-01 +2.00666487e-01 +3.04999769e-01 -2.94472456e-01 +6.96940124e-02 -2.64539540e-01 -3.51423621e-02 -6.53009415e-02 +1.14874780e-01 +2.47565925e-01 -1.04086369e-01 -2.82600641e-01 -1.15983218e-01 -3.12089503e-01 +2.27234423e-01 +3.85797322e-02 -5.29583097e-02 -3.45630050e-01 -2.50297189e-02 -7.81173706e-02 -2.52235144e-01 -8.59399438e-02 +2.94476569e-01 -1.29678249e-01 -2.18409315e-01 +6.60017431e-02 +1.59586072e-01 +2.28573442e-01 -1.90552756e-01 -2.24011973e-01 +2.38260329e-02 +3.02737236e-01 +2.95246303e-01 -3.15152347e-01 +2.83439577e-01 -8.10067952e-02 -2.64302164e-01 -1.81159332e-01 +2.98695326e-01 +2.89781511e-01 -2.56964684e-01 -1.39472157e-01 +2.20376849e-01 +2.14317679e-01 -3.20014954e-01 +1.63369238e-01 -3.44076931e-01 +1.09967560e-01 +3.42870831e-01 +5.18062413e-02 +2.13325024e-01 -3.39140862e-01 -1.72131747e-01 +2.29406536e-01 +8.47922266e-02 -1.70683771e-01 -2.45422527e-01 +2.35977054e-01 -2.86758542e-02 +2.06089735e-01 -7.26150274e-02 -4.28459644e-02 +1.44987345e-01 -2.83769518e-01 -1.95533931e-02 -1.66676044e-01 +3.10140789e-01 +2.21238971e-01 -1.89645335e-01 +3.01508188e-01 -2.95957893e-01 -3.34109694e-01 -1.65964440e-01 -5.52408993e-02 +3.46153975e-01 -2.33256727e-01 -2.73472965e-02 -1.13393039e-01 +2.32097447e-01 -1.76527068e-01 +2.22503364e-01 +2.26899385e-01 +2.62837052e-01 +1.88756287e-01 +3.11706841e-01 -9.63928998e-02 -3.44403386e-02 -7.63859451e-02 -1.59693941e-01 +1.01942748e-01 +3.29032242e-02 
#Parameter# /_17 {25,25} 10001 ZERO_GRAD
-2.53661543e-01 -2.60697901e-02 -2.58610547e-01 +9.90690291e-02 -2.67961323e-01 -1.38722137e-01 +9.63682532e-02 +3.14304829e-01 -2.60710388e-01 -1.81093305e-01 +9.67426300e-02 +1.98703527e-01 +5.71254194e-02 +1.50977373e-01 +1.04622811e-01 +2.21445203e-01 -7.32655525e-02 -1.38757095e-01 +1.59427285e-01 +1.46455973e-01 -1.31956026e-01 -2.15422392e-01 -1.18147492e-01 +3.17161679e-02 -1.64415821e-01 -1.36022612e-01 -1.95532769e-01 -2.33033538e-01 +1.81317151e-01 +6.60773516e-02 -1.55913189e-01 -2.22287849e-01 +4.42398787e-02 -1.27514258e-01 +1.30556613e-01 +3.48642766e-02 +1.26505792e-02 -1.43963575e-01 +2.71349311e-01 +1.59072876e-01 +6.69304132e-02 +4.10696566e-02 -3.39031577e-01 +2.23665774e-01 +1.55156195e-01 +2.50449836e-01 +1.39318854e-01 +2.82359958e-01 -5.01235723e-02 -2.61814356e-01 +1.13340318e-02 +2.94734716e-01 +7.38018751e-02 +3.27885151e-03 -2.05117688e-01 -1.54851839e-01 -2.20087498e-01 +9.17254686e-02 +2.18863189e-02 +1.79016471e-01 -2.35214040e-01 +1.58991933e-01 -1.78000331e-03 +3.30356002e-01 +2.39908993e-01 +1.27170175e-01 +2.01675475e-01 +1.07799262e-01 +8.01825523e-03 +2.68569231e-01 -1.42579347e-01 -2.52222121e-01 -5.76768517e-02 -3.84760499e-02 +2.66801775e-01 +1.79918706e-02 -8.01338255e-02 +2.62225449e-01 +1.72187030e-01 +2.05923975e-01 +2.53796339e-01 +8.75243843e-02 -5.16709089e-02 +2.07542837e-01 +1.38643146e-01 -8.55859518e-02 +3.34277034e-01 -2.32344687e-01 -1.56918466e-02 +3.01926076e-01 -3.42387289e-01 -7.01449513e-02 +2.17480600e-01 -1.66495830e-01 +1.33367687e-01 +1.34603679e-01 +1.20237947e-01 +2.71018744e-01 -3.18895757e-01 -2.87919164e-01 -2.05298260e-01 +1.93446338e-01 +1.35541767e-01 -2.22252578e-01 +1.15793347e-02 +3.11281085e-02 -2.52246559e-01 -2.07758039e-01 -1.81709170e-01 +3.21070433e-01 +1.28850818e-01 +2.65887082e-01 -2.06917614e-01 -6.37825131e-02 +9.67057347e-02 -1.36940390e-01 +3.26424241e-01 -2.25208044e-01 -1.26335338e-01 -1.93526879e-01 -3.00369561e-01 +2.96415687e-02 -1.05309620e-01 +3.30689967e-01 -2.23254696e-01 -2.57637858e-01 +2.45734394e-01 -2.18382478e-03 +1.38247371e-01 +3.13371003e-01 +6.08685017e-02 -2.05806598e-01 +5.07888198e-03 +2.44263113e-01 +1.17873877e-01 -2.10797057e-01 -2.90704668e-01 -2.77464688e-01 +1.26367807e-02 +1.19715601e-01 -1.12247065e-01 -1.00741312e-01 +2.64814436e-01 -5.64981699e-02 -3.31097484e-01 -1.07054695e-01 -2.84313977e-01 -1.76321268e-02 +8.97815228e-02 +2.02337444e-01 +3.29480827e-01 +1.38052821e-01 +8.03224742e-02 -9.99034345e-02 -2.23999217e-01 +2.57966816e-01 +1.31301463e-01 +2.67363191e-02 -1.79860145e-01 +3.58361006e-02 -4.96027768e-02 +2.56764412e-01 +1.11053288e-02 +2.31713176e-01 +6.14090562e-02 +5.36885858e-03 -3.14413548e-01 +1.06372118e-01 +2.19455004e-01 +1.16527885e-01 +1.18759781e-01 +2.38481104e-01 +1.59638166e-01 -2.94816017e-01 -1.13000572e-02 -1.51882127e-01 +3.28128517e-01 +7.25567341e-02 -2.36299217e-01 -2.67373651e-01 +2.02990532e-01 +4.08350229e-02 -8.88855159e-02 +1.06522143e-02 -1.26028642e-01 -1.82281435e-01 +2.16035426e-01 -1.55586019e-01 +2.58660257e-01 +6.05940521e-02 +2.78607547e-01 -4.63630855e-02 -1.20822996e-01 -2.29790211e-02 +1.68348432e-01 +1.07835233e-01 +1.89910233e-01 +2.74015784e-01 +3.15511823e-01 -1.11901984e-01 +3.41358244e-01 +1.00387901e-01 -1.31268889e-01 -1.06695384e-01 +2.53872812e-01 -5.50046563e-03 +7.34629035e-02 -3.09841633e-01 +1.95481718e-01 -2.85154372e-01 -1.94941461e-02 -2.16118783e-01 +3.11871886e-01 +1.88250422e-01 -2.16822907e-01 +1.54454052e-01 +1.36864126e-01 +1.56210005e-01 -2.29246542e-01 -2.53412157e-01 -1.73998758e-01 -1.22102097e-01 +1.56267583e-01 +3.44180524e-01 +2.38927424e-01 +2.68184066e-01 -1.95226967e-01 -4.45770323e-02 +2.95873821e-01 -7.83065557e-02 +1.27206892e-01 +3.37397456e-01 -1.30747452e-01 -1.03979379e-01 +2.06031859e-01 -3.09641212e-01 -3.01265150e-01 -2.11714372e-01 -7.07886815e-02 -1.83832854e-01 -7.13420212e-02 -1.77914813e-01 +2.54859269e-01 -2.89446920e-01 -6.72922134e-02 -2.10436478e-01 -3.10775220e-01 +2.09079444e-01 -1.14688367e-01 -1.06988356e-01 -1.37520611e-01 +1.46412820e-01 +1.42506570e-01 -2.95548737e-01 +3.45434904e-01 +4.71251011e-02 +1.54914320e-01 -9.92200375e-02 +2.48764098e-01 -2.31210470e-01 -6.06344044e-02 +1.54020548e-01 -6.64199293e-02 +1.09392017e-01 -2.11697891e-01 -1.73979789e-01 +9.71564353e-02 -2.71638721e-01 -1.74571276e-02 -3.78035307e-02 +3.36909771e-01 +8.95346701e-02 +3.22888911e-01 -2.71923959e-01 +1.95958495e-01 -1.63507700e-01 +1.96853876e-02 -3.29193950e-01 +3.40026915e-01 -8.58299136e-02 -8.98920894e-02 -1.70207471e-01 +1.62283301e-01 -2.02450842e-01 -9.48399603e-02 +4.96534705e-02 -1.32124573e-01 +1.13116324e-01 -2.06398159e-01 -1.12909526e-01 -1.74198672e-01 +2.10795224e-01 +2.37944424e-02 -3.35939646e-01 +2.25957334e-01 +2.89673388e-01 +1.30371511e-01 -9.01909769e-02 -9.34393406e-02 -9.44513381e-02 -3.63666415e-02 +7.25923479e-02 +3.40418398e-01 -2.32434750e-01 -4.66946363e-02 -1.30185559e-01 -1.61227658e-01 +2.59374201e-01 -1.01365805e-01 -3.00832331e-01 -1.28504097e-01 -1.96688518e-01 -2.36262083e-02 -5.87706566e-02 +2.29072273e-01 +1.91955864e-01 -1.43080816e-01 -1.23020500e-01 +3.18703055e-02 -1.54978812e-01 +6.89243972e-02 -2.32234925e-01 -6.73825443e-02 -2.13222116e-01 +2.43061781e-01 +1.50846779e-01 -1.75636321e-01 +2.99120963e-01 -1.71731085e-01 -2.21352533e-01 -3.11327696e-01 +2.32820213e-01 -1.84959143e-01 -1.93877682e-01 +3.22328091e-01 +1.11790597e-01 +3.27341735e-01 -3.24429423e-01 +1.62337363e-01 +1.51585698e-01 -3.05694848e-01 -1.08386621e-01 +1.98167443e-01 +4.13760543e-02 +1.51714087e-01 +1.83525681e-03 -6.06616735e-02 -1.68925256e-01 -8.41391683e-02 +1.71036839e-01 +7.57257342e-02 +2.16264009e-01 -2.83263326e-01 -2.37157643e-02 +6.57826662e-03 +3.61337662e-02 +1.11302704e-01 +3.26715529e-01 +1.78220689e-01 +3.21272552e-01 +3.16234529e-02 -1.92354843e-01 +4.37143445e-02 +1.69627547e-01 -2.36892492e-01 +3.04430902e-01 +1.97587252e-01 +2.64260590e-01 -2.25338042e-01 -7.59412348e-02 +2.02265739e-01 +7.65143037e-02 +2.57515192e-01 -1.69777647e-01 -2.96565086e-01 -1.72105253e-01 -2.00869799e-01 -3.43350530e-01 -9.79456007e-02 +2.49716520e-01 +1.79131627e-01 -3.48259807e-02 +1.14750564e-02 +2.78352916e-01 -1.95384085e-01 -1.62168160e-01 -2.65130103e-02 -1.64239392e-01 +2.27966428e-01 +3.34687352e-01 -3.13382149e-01 -1.60103172e-01 +8.91294479e-02 -3.18228513e-01 -1.98301822e-01 -1.25671312e-01 -1.87185079e-01 +3.09761047e-01 +3.36098194e-01 +2.88362026e-01 -3.44218254e-01 +1.55528307e-01 +2.02280879e-01 -3.70779634e-03 -2.81597227e-01 -2.44549185e-01 -1.79176033e-01 -1.26210704e-01 -1.78274810e-01 +1.98633730e-01 -2.42905915e-02 +1.84439421e-01 +2.12168872e-01 +2.74735987e-02 +7.47013688e-02 -1.74117029e-01 -1.41448840e-01 +1.17763072e-01 +1.24227226e-01 -8.13612640e-02 -3.46751809e-02 -2.26901636e-01 +3.36849272e-01 -6.65766001e-02 -2.80842841e-01 -1.70981288e-02 +2.89226532e-01 -1.31570876e-01 -2.62122810e-01 -2.69345015e-01 -1.47898108e-01 -1.06834635e-01 -1.16647422e-01 +2.86964059e-01 +3.43660712e-01 +7.27437139e-02 +3.32706690e-01 -2.12188557e-01 +7.51043558e-02 -1.14805400e-02 +6.82958364e-02 -2.86642939e-01 +3.50207388e-02 -2.64313579e-01 +3.22379649e-01 +7.61088729e-03 -7.62000680e-03 -3.37048292e-01 -1.46709383e-02 -2.87093610e-01 +2.29197204e-01 +1.21650249e-01 -5.42794168e-02 +1.27878159e-01 -1.13857090e-01 -2.60280967e-02 +6.76559210e-02 -2.27786303e-02 -3.06676537e-01 +2.95469880e-01 +8.34197998e-02 +1.95301592e-01 -8.10956359e-02 +2.47569799e-01 +2.39868641e-01 -4.17190492e-02 +1.42635167e-01 +2.13344932e-01 +1.71743870e-01 +2.72911787e-01 -2.86861718e-01 +1.62455976e-01 -2.00965852e-01 -8.86020064e-02 -2.05893219e-02 +2.83947706e-01 -1.81248739e-01 -3.25243145e-01 +3.41999888e-01 +8.76762569e-02 -3.10062647e-01 +3.30678880e-01 -2.42929086e-01 -2.73786485e-01 +2.06644773e-01 -1.20853782e-02 +2.47044444e-01 +2.98640132e-03 -2.13543758e-01 +1.47154629e-02 +3.10678959e-01 -4.40149605e-02 +5.27474284e-03 -3.42384547e-01 -2.85279632e-01 -2.12828532e-01 +1.48982286e-01 +3.37726772e-01 -1.05737954e-01 -2.13472247e-01 -1.26490295e-02 -2.69046038e-01 -2.76274979e-01 +1.31114930e-01 +2.28656471e-01 -1.32394075e-01 +1.95819736e-02 -1.66873187e-01 +1.12520427e-01 -1.16066888e-01 +1.46415085e-01 +2.69336700e-02 +1.27814174e-01 +1.29898161e-01 +4.82133925e-02 +3.43105018e-01 +3.05929363e-01 +2.20553398e-01 -3.41999829e-02 +1.69029832e-02 +1.36267632e-01 +3.02022874e-01 +2.58884311e-01 +2.06305444e-01 +1.39474034e-01 +7.27550983e-02 +1.28489971e-01 +8.19513202e-03 +1.65348828e-01 -1.17504150e-01 -2.76608109e-01 +2.98450589e-02 +2.01847792e-01 +1.88542604e-01 -1.25949562e-01 -1.82276100e-01 +3.19847465e-01 -1.29102245e-01 -1.06690228e-01 -2.15459540e-01 +2.28213370e-01 +1.85445189e-01 -8.48633349e-02 -1.22506067e-01 +5.70783317e-02 -1.19245365e-01 -3.00812572e-01 +2.48865545e-01 -2.75677800e-01 +2.06692815e-02 +2.77994871e-01 -6.75839782e-02 -1.75016984e-01 +2.08417356e-01 -3.13997924e-01 -3.44406784e-01 -3.08298796e-01 -9.61578488e-02 -1.81950524e-01 -2.95426875e-01 -7.13517964e-02 +3.03062499e-01 -2.01465115e-01 -1.63473040e-01 -2.50153810e-01 +2.14537859e-01 -2.56292194e-01 -1.13320887e-01 +3.22544634e-01 +2.50833094e-01 -2.58310914e-01 -2.17697576e-01 -1.67323053e-02 +5.56181371e-02 -3.11814249e-01 -2.62372345e-01 -2.65549302e-01 -2.89458066e-01 -3.07275027e-01 -2.84038484e-01 -1.03541836e-01 +1.93672299e-01 -1.78844854e-01 +3.44403267e-01 -3.43435079e-01 +2.14768052e-01 +1.34315193e-02 -2.82990754e-01 -1.59454465e-01 +2.05190063e-01 -2.89421558e-01 -3.24195564e-01 +2.58599520e-02 -2.50860244e-01 -1.96477771e-02 -4.68565822e-02 +2.70109951e-01 -2.91512400e-01 -1.36162490e-01 +8.62765610e-02 +5.53735793e-02 +1.56180024e-01 +2.55707800e-01 -2.18980938e-01 -2.97751099e-01 -2.91578472e-02 -1.41709059e-01 +2.94307470e-02 +1.34146482e-01 +1.41687840e-01 +3.19097817e-01 -1.94866523e-01 -1.99749812e-01 -1.13056719e-01 -1.73003212e-01 -3.56141925e-02 +1.10730350e-01 -1.97790876e-01 +5.17978668e-02 -2.97320306e-01 -3.05623442e-01 +2.35202014e-02 -1.82274759e-01 -2.43906617e-01 -2.55805522e-01 
#Parameter# /_18 {25} 401 ZERO_GRAD
-1.72683731e-01 -2.92587459e-01 -1.08874604e-01 +3.20524454e-01 +3.40039134e-02 +1.40666932e-01 -3.13658029e-01 +2.13259161e-02 -2.70654261e-01 -1.57375455e-01 +1.74546421e-01 -1.04463503e-01 -2.62780607e-01 -2.14014560e-01 +2.00820684e-01 +1.63204491e-01 -2.76549459e-02 +5.65592945e-02 -1.37512118e-01 +3.43051970e-01 +2.93264329e-01 +2.61159956e-01 +4.27391231e-02 +6.46041036e-02 +1.50633603e-01 
#Parameter# /_19 {25,25} 10001 ZERO_GRAD
-3.59156877e-01 +1.30638212e-01 -2.23924026e-01 -2.56567985e-01 -1.08898180e-02 +4.97666717e-01 -2.08361328e-01 +9.35736448e-02 +1.35597453e-01 +5.12254499e-02 -7.31860474e-02 -3.83537650e-01 +1.00657612e-01 -2.08358690e-01 +3.04008693e-01 -8.72642174e-02 +1.38820708e-01 +5.97617067e-02 +2.04886168e-01 -5.89294061e-02 +2.22795546e-01 -3.05636466e-01 -2.20614508e-01 -6.13942333e-02 -3.29162717e-01 -5.54610007e-02 -3.07370007e-01 +3.62095565e-01 +2.56564379e-01 +7.26084318e-03 +2.65734076e-01 -2.38857508e-01 +1.51269600e-01 -6.72763884e-02 -2.14644775e-01 -8.11518654e-02 -1.14740103e-01 +3.20400208e-01 -4.38914299e-01 -2.51099825e-01 -1.72717780e-01 +3.26214373e-01 -2.43591607e-01 +2.29103565e-01 -9.78582948e-02 +3.49520206e-01 +3.64908636e-01 +2.59730339e-01 -3.82576168e-01 -3.67689699e-01 -2.94233114e-01 -2.74026138e-03 +2.39722699e-01 -3.29951830e-02 -4.85416800e-02 -2.88340718e-01 +3.67883235e-01 +2.17770159e-01 -2.18644664e-01 -1.48949713e-01 +4.09636408e-01 +1.63753569e-01 +8.15245658e-02 +2.49714106e-01 +1.29462719e-01 +3.06405246e-01 +4.58537880e-03 +7.84444064e-02 +9.64746475e-02 -2.13832080e-01 -1.19790602e-02 +1.91939756e-01 -1.51937893e-02 +2.61625499e-01 -1.68012530e-01 +2.61953920e-01 -3.85945588e-01 +3.48271757e-01 +2.69430608e-01 -2.82482833e-01 -2.57204384e-01 +8.62521678e-03 +2.76768118e-01 -4.60112065e-01 +2.15125233e-01 +2.66311735e-01 +2.27792948e-01 +2.19999805e-01 +4.48757447e-02 -2.83409320e-02 -2.55968213e-01 -1.22950457e-01 -3.37100357e-01 +8.02303553e-02 -2.27345675e-01 -5.42866997e-02 +3.39127779e-01 -1.21073969e-01 -1.77994549e-01 +3.86308014e-01 +8.10603648e-02 -3.20964456e-01 +9.54235531e-03 -3.28604400e-01 +3.32271904e-01 +1.84541911e-01 +1.65557489e-01 +1.44399598e-01 +9.80819017e-02 +4.81879078e-02 +4.75444078e-01 -2.85320848e-01 +3.30590233e-02 -1.44605502e-01 -3.05152312e-03 +2.38970235e-01 +1.20265745e-01 +1.58610657e-01 -1.43433839e-01 -2.55227447e-01 -2.05593765e-01 +2.92405069e-01 +3.29453975e-01 +9.28508714e-02 +2.45932519e-01 -1.83379069e-01 -2.75194407e-01 +1.14589781e-01 +3.59278530e-01 -4.68393058e-01 -8.24809909e-01 +6.06880724e-01 -8.66128597e-03 -8.45779717e-01 +1.51197225e-01 +5.85442007e-01 -1.42138556e-01 -7.30357170e-02 -5.31011283e-01 -2.01015621e-01 -5.05252779e-01 +8.50940943e-01 -6.72994733e-01 +3.83120239e-01 -5.14712669e-02 -4.93299365e-01 +1.77902505e-01 +1.77557215e-01 +1.02279922e-02 +7.72414267e-01 -1.34853289e-01 +3.73575687e-01 +2.24727869e-01 -1.81232333e-01 +1.94429666e-01 +1.57512233e-01 +2.75624067e-01 +2.85559654e-01 +2.98616111e-01 -4.74906014e-03 -3.28770816e-01 -2.68371731e-01 -3.80578697e-01 +4.55345809e-01 +4.69662286e-02 -7.39551410e-02 -2.85977691e-01 +2.57369637e-01 +1.22022271e-01 -2.85864264e-01 -2.11174324e-01 -2.18605444e-01 +5.40237054e-02 -2.18570039e-01 -3.39787632e-01 -8.28504339e-02 +5.71538834e-03 +1.46492884e-01 +3.15930068e-01 -2.12157607e-01 -2.77774222e-02 -1.96327314e-01 +3.18926603e-01 -1.64819598e-01 +5.32614207e-03 -3.21532302e-02 +1.62162259e-02 -1.40157610e-01 -3.02711248e-01 +3.27507824e-01 -1.12552948e-01 -1.93687007e-01 +2.98942655e-01 +1.46813899e-01 -1.46103695e-01 +2.33674452e-01 +9.67753381e-02 +3.32436919e-01 +1.50710836e-01 -2.22586662e-01 -3.37214172e-01 -2.29711890e-01 -2.88955897e-01 +2.04973057e-01 +2.20725127e-02 +3.21723759e-01 -1.92240119e-01 +2.92029589e-01 -1.95177779e-01 +2.30796379e-03 -3.60521019e-01 -8.25226530e-02 +1.54720813e-01 +3.79572958e-02 +2.45247737e-01 +8.71601552e-02 -4.97353256e-01 +3.31898987e-01 -1.22516766e-01 -7.67706260e-02 -2.11347312e-01 +2.57856101e-01 -3.21070999e-01 -2.99929380e-01 -1.18183456e-01 +1.14584021e-01 +2.68526733e-01 +3.19580376e-01 +3.56708020e-01 -3.89046133e-01 -3.76933515e-01 +1.85112402e-01 +2.56943047e-01 -2.69618571e-01 +3.30813825e-01 -1.80055350e-02 -2.48048678e-01 +2.00683028e-01 -1.83965012e-01 +3.25361311e-01 -1.99222937e-01 +9.18671787e-02 -2.71492034e-01 -2.50404328e-01 -2.80257553e-01 +1.11606859e-01 -1.90596893e-01 -2.52608299e-01 -1.24567658e-01 +3.47002119e-01 -2.56600920e-02 -1.13146268e-01 +1.05894245e-02 +2.87498180e-02 +2.54766285e-01 +1.86496601e-01 +1.47895664e-01 -2.52688259e-01 -2.62454967e-03 +3.23166490e-01 +2.36870781e-01 +7.62214363e-02 -2.55763173e-01 +1.93137258e-01 -1.69749573e-01 +1.47561714e-01 +3.34641963e-01 -1.84968010e-01 -3.25514525e-01 +4.76727933e-02 -6.08118102e-02 +1.01272859e-01 -2.41414338e-01 +3.87313664e-01 +2.61262536e-01 -5.08153141e-02 +1.93370923e-01 -1.81164458e-01 +1.64760426e-01 +1.22381508e-01 +6.55462518e-02 +2.38732189e-01 -2.76506990e-01 +6.26969561e-02 +4.72365804e-02 +5.07816188e-02 -1.71003088e-01 +2.88484488e-02 -3.44224572e-01 +2.99219459e-01 +1.18798362e-02 -1.28293470e-01 +2.39864603e-01 +3.09871566e-02 +2.83485830e-01 -3.37506384e-01 -2.31934935e-01 +2.58237958e-01 -1.86708480e-01 -1.63164467e-01 -2.94831991e-01 -1.07228674e-01 -8.99076536e-02 +2.00544059e-01 -1.43646121e-01 +2.72375226e-01 +6.20989576e-02 +1.60563156e-01 -2.57837445e-01 +2.36448377e-01 -3.02443542e-02 -9.43829492e-02 -1.58337116e-01 -3.24480206e-01 +7.37842619e-02 -1.90119669e-02 +1.01253420e-01 +2.56396592e-01 +1.33561611e-01 +2.82155406e-02 +2.24164441e-01 +1.89207330e-01 +2.91370243e-01 -3.35817754e-01 +2.03141674e-01 -3.82688865e-02 +1.77603990e-01 -6.70800209e-02 -1.57030895e-01 +3.85345757e-01 +3.95530760e-01 +1.91854946e-02 -1.08076721e-01 +5.93287777e-03 -3.00119042e-01 -2.40009964e-01 +1.81053448e-02 -4.12102759e-01 +2.55996823e-01 -1.75245866e-01 -1.08836628e-01 +1.63731232e-01 +7.63866454e-02 -3.83421600e-01 -3.54899287e-01 -1.24023203e-02 -4.61012172e-03 -3.27934921e-01 -2.24668711e-01 +2.54726708e-01 +1.40645668e-01 -2.86392659e-01 +6.48197951e-03 +4.82861092e-03 -3.77559811e-01 -1.62804544e-01 -4.70169149e-02 +6.89486682e-04 -1.28251940e-01 +3.33162338e-01 +1.69934034e-01 -1.55230582e-01 -1.34708717e-01 -1.81849420e-01 -1.89102203e-01 -1.12346560e-01 +1.01695195e-01 +1.53345808e-01 -5.97618856e-02 -2.14914754e-02 -1.30923346e-01 +2.34609112e-01 +1.65218160e-01 -7.76477978e-02 -1.72867745e-01 -3.89678441e-02 -1.18225642e-01 +1.71347782e-02 +1.43248245e-01 +2.80373812e-01 +6.40446022e-02 -2.66358405e-01 -3.60487401e-01 +3.43762338e-01 +6.00976460e-02 -5.84116459e-01 -1.23188637e-01 -1.68042913e-01 -2.71695942e-01 -2.07028568e-01 +2.17469946e-01 -3.02955389e-01 +4.56581086e-01 -2.24411581e-02 +1.56874582e-01 +1.52311698e-01 +1.20801888e-01 -1.23500535e-02 +8.98500830e-02 -5.30198872e-01 -2.67187208e-02 +3.32242139e-02 -2.82072574e-01 -1.83734205e-02 -8.95325467e-02 -2.86917329e-01 +3.05963159e-01 -7.51220807e-02 -2.96108216e-01 +3.03920776e-01 -1.37553692e-01 +2.51664430e-01 -2.53055900e-01 -5.63434400e-02 -3.55501652e-01 -4.30892594e-02 +1.67708203e-01 -3.43531460e-01 +3.49038422e-01 +1.55524001e-01 -2.26156428e-01 +1.31979793e-01 +1.94295466e-01 -9.57191139e-02 +1.89236537e-01 +8.92946720e-02 -6.68791309e-02 -9.75359157e-02 +1.36721462e-01 -2.22686455e-01 +2.18733028e-01 -2.39653721e-01 -1.11902989e-01 +3.82522970e-01 -4.30744104e-02 +4.11632024e-02 +6.28551915e-02 +1.92639828e-01 -1.10944591e-01 +2.90743649e-01 +3.67913134e-02 -4.11186695e-01 +2.65225530e-01 +1.92361474e-01 +2.20547542e-01 -8.29935446e-02 +8.30948204e-02 +4.08014469e-02 -1.47380963e-01 -2.23935336e-01 +9.43741389e-03 -2.09539607e-01 -2.16316774e-01 -3.07899982e-01 +9.91601050e-02 -5.82368076e-02 -5.25855273e-02 +7.04786628e-02 +2.83311427e-01 +1.68101266e-01 -6.02794476e-02 +1.67039141e-01 -1.82555512e-01 +1.00004658e-01 -1.19353250e-01 -8.29520077e-02 +4.08969820e-01 -7.12456331e-02 -2.80400902e-01 +1.91796422e-01 -2.03691050e-01 +3.19703430e-01 +1.85413226e-01 -1.68348059e-01 +5.04273474e-02 +6.66627800e-03 -1.92596391e-01 +1.09997585e-01 +1.25623733e-01 +5.48320562e-02 -1.09865911e-01 -5.12437299e-02 -2.30167687e-01 -1.31952450e-01 -2.38174498e-01 -1.54680952e-01 +1.89994246e-01 +2.77997524e-01 -1.87480301e-01 -5.58259115e-02 -2.85103507e-02 +2.89331395e-02 -1.19789474e-01 -2.60292113e-01 +1.55108407e-01 +4.46253084e-03 +3.56703401e-01 -1.16865464e-01 -2.05318302e-01 -2.06244841e-01 -2.95621991e-01 -7.10733086e-02 +1.38392180e-01 +1.15709804e-01 +2.87029564e-01 +2.74869483e-02 -5.59124835e-02 +2.71381974e-01 +1.83612511e-01 -3.73086214e-01 +5.31234033e-02 -2.05112860e-01 -3.10888756e-02 +2.63211936e-01 -1.15127906e-01 +3.54305714e-01 -8.48858729e-02 +2.61562288e-01 +3.26453596e-02 +1.76725551e-01 +2.25845858e-01 +9.89879966e-02 +2.71247178e-01 +8.04114938e-02 -1.30749280e-02 +2.44507715e-01 +1.69372454e-01 -1.35920541e-02 +3.10805947e-01 +3.43223959e-01 +2.49239311e-01 -1.14449523e-01 -3.68171066e-01 -2.12932453e-01 +2.07739994e-01 +7.56480917e-02 +9.92397219e-02 -1.31053641e-01 -1.99143261e-01 -2.65708208e-01 +2.34064922e-01 -2.30555087e-01 -1.12973481e-01 +1.42594293e-01 +3.48436326e-01 +2.87396051e-02 +1.93989739e-01 -2.33727738e-01 -3.08348775e-01 -2.49436080e-01 +1.17634483e-01 +2.81523794e-01 -1.54213309e-01 +3.81303430e-01 -1.20027222e-01 -2.49655768e-02 -2.28133976e-01 -1.36343420e-01 -2.90771097e-01 -3.43320072e-01 +1.54267460e-01 +1.77041605e-01 +2.43919998e-01 +1.87840268e-01 +4.85031717e-02 +1.18524425e-01 +1.14495575e-01 -3.06553394e-01 -2.69334674e-01 -1.84677839e-01 +2.19330966e-01 +2.63342381e-01 +3.06259960e-01 -1.20541425e-02 -1.88417688e-01 +2.07478642e-01 +5.86119369e-02 -2.01776013e-01 +1.97775930e-01 +9.04974565e-02 +2.78779477e-01 -3.66254866e-01 -1.33257091e-01 -1.61181122e-01 +3.12477112e-01 +1.48065031e-01 -2.65103012e-01 -1.74541831e-01 -2.41770327e-01 +2.46893495e-01 +2.36265793e-01 +1.43705696e-01 +7.24293217e-02 +1.12894028e-01 -1.02272622e-01 -2.16713563e-01 +2.97577560e-01 -2.78742611e-01 -1.44170849e-02 -2.71118581e-01 -7.28649050e-02 -2.92907655e-01 +1.91929638e-01 -1.07099295e-01 +2.17199266e-01 -1.61822408e-01 +1.22287031e-02 +1.98401604e-02 -2.91935325e-01 -5.81920557e-02 +3.85323405e-01 -6.71481639e-02 +8.23528878e-03 +2.34117210e-02 +5.27168959e-02 -2.69728482e-01 -3.27706456e-01 -1.40053943e-01 +3.43543112e-01 +2.55332500e-01 -3.62064451e-01 +9.39910635e-02 -1.41185552e-01 +3.52932096e-01 +3.60966682e-01 
#Parameter# /_20 {25,25} 10001 ZERO_GRAD
+2.17238113e-01 -4.94040400e-02 -2.83004493e-01 +1.68004274e-01 +1.24001160e-01 +1.90162256e-01 -1.85898036e-01 +2.85149395e-01 -2.66275078e-01 -4.74321023e-02 -2.61285067e-01 +3.17543983e-01 +1.14668317e-01 -3.33789960e-02 +2.61513978e-01 -2.84806311e-01 -1.19762592e-01 -3.01144153e-01 -3.10670346e-01 -2.04274699e-01 -5.01459874e-02 +1.00544840e-01 +2.11589620e-01 -2.16645047e-01 +3.27260792e-01 -2.44531304e-01 +1.93216532e-01 +5.70395514e-02 -3.52048993e-01 -6.70802593e-02 -4.56479233e-04 +1.27252955e-02 -3.21108729e-01 -3.97302881e-02 -3.49759638e-01 +3.02339662e-02 -9.93832052e-02 -4.60939646e-01 -2.60327637e-01 +8.73061642e-02 -2.82653570e-01 -3.12757820e-01 -1.30934805e-01 -3.16354781e-01 -2.56404608e-01 -1.93793580e-01 -2.94617146e-01 -3.16485971e-01 +1.17553532e-01 -3.11621279e-01 -5.08201402e-03 -5.14785806e-03 +1.14706457e-02 +2.30160430e-01 -2.42333084e-01 -5.62177338e-02 +3.64657268e-02 -1.82416022e-01 -2.18803048e-01 -1.91861615e-01 -7.16341510e-02 +3.14518452e-01 -6.33589998e-02 +6.89122751e-02 -8.42121020e-02 -1.60609081e-01 +2.29461566e-01 -2.63507396e-01 +2.82485187e-01 +1.50620952e-01 +6.24208115e-02 +8.80150720e-02 +2.38761023e-01 -3.38593990e-01 +1.78606242e-01 -7.46073350e-02 +2.05893368e-01 +1.58211589e-01 -5.30254655e-02 +1.29339680e-01 -4.29678321e-01 +3.25995624e-01 +9.24680755e-02 -4.10207152e-01 +8.05025846e-02 -1.52266223e-03 -2.28446007e-01 -3.08345556e-01 -1.24161951e-01 +1.86210275e-02 -1.32040709e-01 -5.22998236e-02 -2.88545907e-01 -1.41702861e-01 +2.68120635e-02 -3.26483279e-01 +7.59853497e-02 -3.75268012e-01 -3.09146523e-01 +1.38937905e-01 +1.60265295e-03 +8.15072209e-02 +2.20763221e-01 -3.49116117e-01 +3.84499915e-02 +1.34961337e-01 +2.02612072e-01 -2.95648038e-01 -1.42549172e-01 +3.19485903e-01 -3.48888338e-01 +1.43565401e-01 -4.01329994e-02 +3.66719782e-01 -2.00931802e-02 -2.08648682e-01 -3.15118641e-01 +3.61285061e-02 -3.03960353e-01 +2.07052395e-01 +4.52827476e-02 +1.66902035e-01 +1.80119008e-01 +2.78799564e-01 -2.80537099e-01 -7.75537491e-02 +2.84112304e-01 +1.39952645e-01 -2.98693389e-01 +1.48026422e-01 +7.26213828e-02 +2.24089682e-01 -3.17316838e-02 +2.85404116e-01 -1.95171073e-01 +2.04819486e-01 -3.37396562e-01 -9.08529758e-03 -2.74215907e-01 -9.15524736e-02 -2.53438782e-02 -4.20846529e-02 +1.19340301e-01 -1.55085877e-01 -2.68748462e-01 -9.92899314e-02 +2.15867922e-01 -2.87899673e-01 +1.11221030e-01 +2.96322346e-01 -2.43102625e-01 +1.67408749e-01 -2.85057873e-01 +1.20313503e-01 +2.92923242e-01 +2.12377474e-01 -1.60590466e-02 -1.89677387e-01 -1.06343471e-01 +1.84375912e-01 +3.37600335e-03 -2.35925823e-01 +3.55112284e-01 -1.45906478e-01 -2.62763798e-01 -1.66687816e-01 -5.75933009e-02 -7.76523873e-02 +6.88066781e-02 +7.04625174e-02 +2.50144958e-01 +1.95975170e-01 -1.13940783e-01 +1.63547650e-01 -2.14762121e-01 -3.12852561e-01 -2.56609589e-01 +8.35832581e-02 -2.99422387e-02 +1.42146364e-01 +1.23438336e-01 -1.17209274e-02 +1.23922847e-01 +2.19232962e-01 -3.09592217e-01 -4.23850939e-02 +2.23009109e-01 +1.98454484e-01 -3.30923975e-01 +1.77397221e-01 +1.16435625e-01 +2.24754602e-01 +1.71378881e-01 +1.34471357e-01 +6.03025965e-02 -2.01106489e-01 +2.82189816e-01 -8.62859562e-02 +1.62763715e-01 +3.16037416e-01 +2.55208462e-01 +1.49324164e-01 -2.87252963e-01 -3.85139078e-01 -2.65800595e-01 -3.30588520e-01 +1.90079197e-01 +8.37838873e-02 -2.68521875e-01 -1.68770090e-01 -2.71380663e-01 -2.50766784e-01 +2.41718180e-02 +2.97503829e-01 -8.69194716e-02 -3.27584267e-01 +3.14982772e-01 -2.60450263e-02 -3.35342064e-02 +2.67896026e-01 -1.23649068e-01 -2.03631178e-01 -1.46127999e-01 -8.64232406e-02 -1.33671924e-01 +1.72202870e-01 +2.17626262e-02 -2.22748831e-01 -1.31403701e-02 -2.85774320e-01 -6.58886358e-02 +2.43156999e-01 -6.19974658e-02 +2.57149279e-01 +8.62743556e-02 -1.46174818e-01 +3.44051450e-01 -2.16808962e-03 +3.07750612e-01 +2.18206614e-01 -2.83098161e-01 -1.53309524e-01 +7.92082772e-02 +1.63095325e-01 +7.27000162e-02 -3.50292861e-01 +3.00759614e-01 +1.16048023e-01 +2.32245088e-01 +2.90044159e-01 -7.21956864e-02 +4.14439768e-01 +6.97278604e-02 +2.65422851e-01 +7.15805292e-02 -1.26056597e-01 -1.51041180e-01 +4.18477744e-01 +1.66956276e-01 -1.48065597e-01 -4.76959229e-01 +5.43909788e-01 -5.15383035e-02 +1.95421278e-01 -3.46288383e-01 -7.66112432e-02 -1.89855203e-01 +2.37133011e-01 +4.17350620e-01 -1.39690340e-01 +2.94629671e-03 -1.19220382e-02 -2.01400016e-02 -3.98146093e-01 -1.01247437e-01 +1.44871801e-01 +1.18820712e-01 +1.92812651e-01 +3.51100951e-01 -2.26070657e-02 +1.72794431e-01 +4.11219448e-01 -1.59603968e-01 -1.03364773e-02 -8.54898617e-02 +1.72401443e-01 +8.36874098e-02 -4.15647864e-01 -3.29279482e-01 +3.26939136e-01 -2.27218553e-01 -1.50420979e-01 -3.55263054e-01 +1.45543724e-01 +1.78083584e-01 -3.22147101e-01 -1.01105519e-01 -8.60170200e-02 -3.96234505e-02 +1.77629530e-01 -1.24955803e-01 +1.46970176e-03 +1.37359932e-01 -1.23624153e-01 +3.54833156e-02 +7.28220642e-02 -2.62287885e-01 -1.30817682e-01 -3.01724792e-01 -2.34985813e-01 -2.86085397e-01 -1.23220488e-01 +1.67859316e-01 +4.73604575e-02 -2.34293699e-01 -2.73378640e-01 +4.34684642e-02 -2.99870044e-01 +1.75613835e-01 -1.06822483e-01 +1.60604551e-01 -1.05958566e-01 -7.06781745e-02 -2.76733279e-01 -1.92172348e-01 +1.90257922e-01 +1.71913862e-01 -2.50731379e-01 +1.14610374e-01 -1.45366043e-01 -1.38892323e-01 -4.02309448e-01 +4.91922796e-02 +3.56103033e-01 -2.94553451e-02 -3.97880018e-01 -1.03078321e-01 -1.07853971e-01 -7.67576648e-03 +3.26744854e-01 +2.83107698e-01 -4.30654496e-01 +4.06643301e-01 -1.63749591e-01 -1.34357661e-01 +1.06597058e-02 -3.62628341e-01 -6.89000338e-02 -2.27144837e-01 -5.17316103e-01 +1.45322010e-01 +3.71072829e-01 +7.19814189e-03 +1.97188362e-01 -1.07603140e-01 -1.25833422e-01 -1.32109672e-01 +3.49834096e-04 +6.77926373e-03 +7.66263083e-02 -9.85975787e-02 +2.54088879e-01 +7.39871636e-02 -2.25779474e-01 +1.77109778e-01 +4.28520471e-01 -2.48238504e-01 +1.36659473e-01 +2.32645050e-01 -9.18038562e-02 +7.53864422e-02 -8.62370208e-02 +2.65550107e-01 +1.12618767e-01 +1.54137790e-01 +4.66603823e-02 -3.16671729e-02 +1.38026237e-01 -9.56531912e-02 +2.47772753e-01 +3.78618181e-01 -1.76319450e-01 +4.10661176e-02 +1.36671931e-01 +2.14620277e-01 -1.45260081e-01 +1.68080926e-01 +3.93085659e-01 +2.93201178e-01 +2.08977789e-01 +1.41217083e-01 -3.88140857e-01 +2.80646414e-01 +2.31544614e-01 +5.28535340e-03 +3.45011026e-01 -2.73320615e-01 +4.00939062e-02 +1.79414812e-03 +6.53934181e-02 +3.61254483e-01 -6.40774742e-02 +2.80279249e-01 +3.54062021e-01 -1.33486500e-03 -1.45626873e-01 +5.97809106e-02 +1.47992015e-01 +3.42286415e-02 -5.55060944e-03 +1.27068698e-01 -2.73061752e-01 +3.30752671e-01 +3.09144586e-01 +1.34571776e-01 +8.19221064e-02 -3.95727493e-02 +3.57935689e-02 +2.00913504e-01 -2.86409780e-02 +1.94611832e-01 -1.56656832e-01 +3.62315923e-02 -3.27996254e-01 -1.20467089e-01 -1.27061233e-01 +2.28811249e-01 +1.99430808e-01 -9.93082374e-02 +1.15098931e-01 -1.62775129e-01 +7.05186576e-02 -1.44465238e-01 +1.19859479e-01 -9.16026607e-02 -4.46508117e-02 -4.86920863e-01 -7.07834139e-02 +3.38795990e-01 +2.06157357e-01 +3.76387268e-01 +6.30466044e-02 +1.42232208e-02 -2.08382711e-01 +2.45597810e-02 +9.67855006e-02 -2.11264208e-01 +1.08944908e-01 -9.02742671e-04 +1.41379908e-01 +1.74191594e-01 +2.42009833e-01 +6.23168126e-02 -4.07030061e-03 -1.76212519e-01 -2.25751057e-01 -2.61321664e-01 +2.84528077e-01 +2.36956850e-01 +1.25605732e-01 +1.88957512e-01 -7.32390881e-02 +3.36107880e-01 -2.66300827e-01 +1.48197889e-01 -8.64636078e-02 +1.24933757e-01 +9.77185890e-02 +7.80275166e-02 +2.55870283e-01 -3.20502818e-01 +3.25961053e-01 +5.37494607e-02 +1.49948463e-01 +1.03579454e-01 +3.64503503e-01 -3.29913884e-01 +1.47466082e-02 -2.45570838e-01 -6.99291751e-02 -3.39344710e-01 +4.83673578e-03 -1.84980959e-01 -2.22555891e-01 +3.66467118e-01 -7.31544048e-02 -1.36978552e-01 -1.10374272e-01 +1.67769194e-01 -2.03847468e-01 +1.22627683e-01 +2.85269946e-01 -1.80421900e-02 +2.91262537e-01 +7.14307502e-02 -2.81046361e-01 -2.29370847e-01 -2.97388166e-01 +8.23899209e-02 -1.25704391e-03 -3.49242210e-01 -2.00207047e-02 +2.59632051e-01 +1.73976365e-02 +3.42250437e-01 +2.95754790e-01 +8.45516250e-02 -2.43114561e-01 +2.01239452e-01 -2.94316411e-02 +1.92867652e-01 -1.12835549e-01 -1.66503713e-01 +3.44019860e-01 -1.47561044e-01 -2.89946347e-01 -3.23205560e-01 +5.74333519e-02 +2.87922233e-01 +2.36230716e-01 +1.85573667e-01 +2.72952259e-01 +2.21752703e-01 +3.24209094e-01 -1.87666625e-01 +3.58870655e-01 -2.73598492e-01 -2.46576503e-01 +1.75435379e-01 -6.03911653e-02 -1.18557237e-01 -5.90461381e-02 +3.13478529e-01 -1.37926713e-01 +2.58448184e-01 +7.59979412e-02 +1.61290213e-01 -3.57850194e-01 -3.85274678e-01 -3.47422540e-01 -3.28324616e-01 +6.17655516e-02 -2.90905327e-01 +2.21742734e-01 +1.08890705e-01 +1.40494913e-01 +3.43289226e-01 +1.35722861e-01 -1.86059102e-01 -2.32269153e-01 -1.37855887e-01 -1.65961869e-02 -2.05344688e-02 +1.34627372e-01 +2.10670546e-01 +2.45969370e-01 +2.02141732e-01 -3.47817898e-01 -1.85852006e-01 +7.90524781e-02 +5.11365011e-02 -4.54055257e-02 +1.52186304e-01 +3.83915193e-02 -2.74937481e-01 +1.18880877e-02 -7.05987886e-02 -1.52421251e-01 -1.32897839e-01 -2.77003467e-01 +2.95429528e-01 -3.42840821e-01 +9.69391912e-02 -2.74532199e-01 -2.88851678e-01 +1.19944103e-01 +4.16355342e-01 +2.09340140e-01 -1.45576850e-01 -2.56396443e-01 +1.38610043e-03 +1.89145654e-01 +2.02927720e-02 -1.23950966e-01 -1.95266277e-01 -1.95591614e-01 -8.36112648e-02 +6.90610260e-02 -2.52130479e-01 -1.03069834e-01 +1.81039974e-01 -2.84710348e-01 +3.72932494e-01 -9.17521026e-03 -2.31762454e-01 -3.30724984e-01 -2.96433866e-01 -2.86689252e-01 +2.47699663e-01 -4.55295146e-01 -4.58168164e-02 -1.16948681e-02 +4.07947689e-01 -2.40369856e-01 -1.00596309e-01 -2.55267292e-01 -7.61094093e-02 -2.00242668e-01 +2.48529613e-01 +2.84463525e-01 -1.64517716e-01 +2.12355971e-01 -3.89538288e-01 -2.40056574e-01 +9.14615616e-02 +1.72332391e-01 +1.15202151e-01 +3.63666803e-01 -2.65363455e-01 -3.92160654e-01 -2.28462607e-01 +2.72758394e-01 -3.51471901e-01 -2.21199840e-01 -9.60545465e-02 
#Parameter# /_21 {25} 401 ZERO_GRAD
-4.70020249e-02 -3.11397621e-03 +2.53778517e-01 +3.20269287e-01 -2.01486290e-01 +1.75485671e-01 -2.51133353e-01 +8.54441375e-02 -1.17824346e-01 -2.57130831e-01 +1.15137383e-01 +1.55170575e-01 +2.50887543e-01 +2.53290962e-02 +7.57354721e-02 -1.52722791e-01 -2.89363235e-01 +9.48505923e-02 -3.38042378e-01 -1.27399459e-01 +3.35360736e-01 +2.09738076e-01 -5.21333180e-02 +2.33515091e-02 +3.00706476e-01 
#Parameter# /_22 {25} 401 ZERO_GRAD
-5.72320223e-02 +1.53801143e-01 -3.04148406e-01 -1.68520108e-01 +7.49360025e-02 -2.25191236e-01 +1.86375439e-01 +3.01697433e-01 -1.88445359e-01 -2.25050449e-01 -7.26646781e-02 +6.26253188e-02 -7.15157092e-02 -3.40461403e-01 -2.80459076e-01 +3.10914516e-02 +9.42919850e-02 +1.14450276e-01 -1.21397391e-01 +3.43596816e-01 +3.06446433e-01 -2.79821694e-01 +1.46023899e-01 -3.14738452e-02 +2.70693243e-01 
#LookupParameter# /_0 {3,2} 97 ZERO_GRAD
+5.21789551e-01 +1.00231636e+00 -1.49975270e-01 -6.17320478e-01 -1.13541830e+00 +7.80383706e-01 
