#Parameter# /_1 {2,50} 1601 ZERO_GRAD
+1.04673147e-01 -2.01347157e-01 -4.20044482e-01 +2.29433566e-01 -2.21188724e-01 +9.32018310e-02 -2.47925892e-01 +4.65492578e-03 -4.44247156e-01 +3.54203522e-01 -1.90253593e-02 -2.08823591e-01 -2.49276832e-01 +8.92373621e-02 -1.43761098e-01 +2.24424183e-01 -6.26429394e-02 +9.60254520e-02 +3.78959149e-01 -2.21806884e-01 -4.05811071e-01 +1.09578818e-01 -2.23430261e-01 +1.42097920e-01 -4.13900584e-01 +4.38277334e-01 +1.84351623e-01 -1.79005563e-02 +6.90269563e-03 +3.25929195e-01 -3.60534132e-01 +1.31250784e-01 +3.67275625e-01 -3.32936138e-01 +1.78652272e-01 -5.58360994e-01 -2.47068569e-01 +1.06038144e-02 +3.25596452e-01 -2.89625794e-01 -3.11793894e-01 -1.33120537e-01 -1.42042607e-01 +3.13851416e-01 -3.63043576e-01 +1.73847392e-01 +2.07662523e-01 +1.36605710e-01 -2.27041766e-01 +3.51318568e-01 +1.71337068e-01 -2.16576397e-01 -8.33281800e-02 +4.24115181e-01 +3.24850172e-01 -1.49630770e-01 -2.60384619e-01 +3.57517451e-01 +5.55590279e-02 -4.10726666e-01 +1.50119931e-01 +4.00255471e-01 -8.18415731e-02 -3.52281630e-01 +3.05936903e-01 +2.72229791e-01 +3.41623068e-01 +1.85968831e-01 +1.87061071e-01 -3.72706056e-01 +2.78580785e-01 -1.28350183e-01 +2.13029504e-01 +1.65489808e-01 +2.18592942e-01 -2.99798578e-01 -4.30789769e-01 +6.43457547e-02 -3.14037167e-02 +2.78882593e-01 +3.08086634e-01 -2.86432765e-02 -3.03230971e-01 +4.47311401e-01 -2.87026048e-01 +1.77693725e-01 +3.52539867e-01 +3.55258025e-02 -5.39903581e-01 +3.34028900e-01 +2.41934672e-01 -2.53863214e-03 -6.46577701e-02 -8.83987406e-04 -1.46665782e-01 -4.95499074e-02 +3.60101581e-01 +2.05122791e-02 -1.02708742e-01 -2.39104137e-01 
#Parameter# /_2 {2} 33 ZERO_GRAD
+1.00323200e+00 +8.45708609e-01 
#Parameter# /_3 {50,3} 2401 ZERO_GRAD
-5.82150996e-01 -3.82974148e-01 +1.39654949e-01 -6.75097331e-02 +2.04555541e-02 -4.84031171e-01 -2.56507874e-01 -7.46463314e-02 +3.61471772e-02 -3.37578356e-01 +1.36154190e-01 -4.71431278e-02 -4.42328095e-01 -2.01433331e-01 +2.83629477e-01 -3.90485197e-01 -2.07563981e-01 -7.76410162e-01 -4.41851139e-01 -5.59299707e-01 +1.13068953e-01 -1.86591700e-01 -2.11118251e-01 -1.04607843e-01 -6.80763245e-01 -6.20107204e-02 -2.77054831e-02 -8.72325450e-02 -1.12291455e-01 -3.36589962e-01 -5.16922534e-01 -9.14706290e-02 -4.11519945e-01 -1.72529206e-01 -5.44941545e-01 -6.78274393e-01 -1.58908099e-01 -5.97268820e-01 -1.03803240e-01 +2.65687048e-01 -1.19744793e-01 -4.72397327e-01 -1.10891156e-01 +9.24104229e-02 -1.19355790e-01 -3.80144805e-01 +2.43885621e-01 -2.08764583e-01 +1.43293232e-01 -2.81861246e-01 -4.36072052e-01 -4.29479539e-01 -1.90701991e-01 -2.63048083e-01 -7.46782273e-02 -2.21208677e-01 -6.51093498e-02 -1.94725394e-02 -1.30796507e-01 +1.12571623e-02 +4.32580225e-02 -5.91121800e-02 -3.87661785e-01 -3.07149142e-01 +1.86492950e-01 -3.00612599e-01 -3.41845214e-01 -3.88642609e-01 -4.04339731e-01 -6.06182754e-01 +3.22097600e-01 -2.83309042e-01 -2.44966179e-01 -4.36737597e-01 -2.45547578e-01 +2.92649478e-01 +8.11799765e-02 -2.76684277e-02 -9.86022055e-02 +6.26080483e-02 -1.79505810e-01 +2.08135068e-01 +7.73985963e-03 -4.26049113e-01 -5.29020190e-01 -5.50473571e-01 -2.51294762e-01 -5.99047206e-02 -5.44874132e-01 +2.39395369e-02 -4.10587907e-01 -4.49470371e-01 -7.04369247e-02 -4.65561301e-01 -1.23846315e-01 +4.82769571e-02 -1.42663956e-01 +6.60427436e-02 +2.25664884e-01 -4.03898090e-01 +3.78637940e-01 +4.85443249e-02 +2.82694936e-01 +2.58682638e-01 +2.70993739e-01 -3.75789590e-02 +1.46243662e-01 -4.65087816e-02 +2.07933918e-01 +3.06742579e-01 +3.40303242e-01 -3.90822232e-01 +3.41444701e-01 +4.50525343e-01 -3.40192109e-01 +1.92014232e-01 +3.92069280e-01 +4.71685827e-01 +3.04684281e-01 +1.73497990e-01 +2.29888916e-01 +3.28915149e-01 +2.24244192e-01 +3.03279966e-01 +3.46496612e-01 -1.81183554e-02 -1.12879813e-01 +6.86707720e-02 +2.83004999e-01 -1.52481630e-01 +2.55371690e-01 +2.75510162e-01 +6.88040853e-01 +2.01610684e-01 +6.35643583e-03 +2.37007290e-01 +4.03984994e-01 +2.19529402e-02 +5.79001844e-01 -3.15668225e-01 -1.56344727e-01 +2.84420222e-01 +5.39287567e-01 -5.56840710e-02 +3.95060301e-01 +1.00307792e-01 +3.76590155e-02 +1.70374706e-01 -8.90442804e-02 +2.67249376e-01 
#Parameter# /_4 {50,50} 40001 ZERO_GRAD
-9.02373716e-02 +1.87672406e-01 -2.91719735e-01 -1.06519088e-01 -1.32180884e-01 -1.42667573e-02 +8.56699944e-02 -1.34105369e-01 +8.10059309e-02 +1.28034770e-01 -4.14399728e-02 +4.49707471e-02 +7.02253282e-02 -1.41483724e-01 +1.11509621e-01 +2.76482135e-01 +4.44106683e-02 -1.14430778e-01 +4.71553486e-03 -2.52771825e-01 -9.18953493e-02 +2.51827270e-01 -3.61693352e-02 -3.26120108e-01 +1.78573787e-01 -2.46822368e-02 -1.24064811e-01 +2.73233086e-01 +2.61571119e-03 -1.04985982e-01 +1.93867922e-01 -1.18023790e-01 -3.69429022e-01 +9.98896435e-02 -2.76617825e-01 -2.21660018e-01 -2.88077947e-02 +1.72288835e-01 -1.54291540e-02 -2.37579077e-01 +5.48852384e-02 -1.56564102e-01 -1.73148334e-01 +2.31164888e-01 -1.96807116e-01 -1.01828218e-01 -7.24720508e-02 -4.86789569e-02 +1.34069383e-01 -1.48105294e-01 -3.62852842e-01 +1.57016978e-01 -2.45315544e-02 -1.92756623e-01 -1.83973927e-03 -2.82268018e-01 -2.39626050e-01 -1.64401904e-01 -7.04669431e-02 -2.35148758e-01 +1.82565600e-01 +9.71812978e-02 -1.28042400e-01 -7.71548226e-03 +1.80510119e-01 -1.62819579e-01 -1.58652097e-01 -4.63025719e-01 -3.31494659e-02 -7.36012310e-02 -2.20749170e-01 +7.88647532e-02 -3.45405400e-01 -7.37212971e-02 -3.84027064e-01 +3.07214558e-01 +8.36006999e-02 -1.10087067e-01 -2.33957395e-01 -1.07559063e-01 -1.81528717e-01 +2.51164883e-01 -1.74034894e-01 +6.45407066e-02 -2.60155469e-01 +3.87701020e-03 -8.22514147e-02 -2.52718359e-01 -2.60568023e-01 +2.09734395e-01 -9.45976973e-02 -1.02982335e-01 -4.37497169e-01 +5.41150309e-02 -3.53307486e-01 +1.49388164e-01 -1.51125282e-01 -1.34142563e-01 +4.06357870e-02 -2.79657543e-01 +2.49672681e-02 -1.93492755e-01 +2.27843583e-01 -8.64858925e-03 +2.85781056e-01 +2.15807129e-02 +4.20709640e-01 -1.14877149e-01 +3.97360027e-01 +2.55909294e-01 -4.39401828e-02 +1.63570821e-01 +2.47277357e-02 +4.69256371e-01 -8.78260955e-02 -8.59757662e-02 +2.08303943e-01 +2.20020860e-02 +3.05545658e-01 +6.09018542e-02 -1.31022647e-01 -7.17691183e-02 +2.05568150e-01 +2.91875958e-01 +1.57278985e-01 -2.60507643e-01 -3.07510257e-01 -5.33323437e-02 +2.55656719e-01 -2.09427997e-01 +3.08634073e-01 -1.97290540e-01 +1.99028254e-01 -1.90325961e-01 +2.45129332e-01 +3.90998185e-01 +6.74675032e-02 +9.10048485e-02 +4.03092653e-01 -2.03433827e-01 -1.65305883e-02 +6.03757389e-02 +3.07150692e-01 +1.11001246e-01 +4.16542619e-01 -3.31959993e-01 +2.69203067e-01 +2.54983634e-01 -1.11661524e-01 +7.02973828e-02 +3.90887111e-02 -1.14346318e-01 -3.15944105e-02 +1.66330621e-01 -2.37830952e-01 -2.53558129e-01 -1.00860611e-01 -2.23998189e-01 -8.78038555e-02 -8.25201347e-02 +1.62294835e-01 -1.36541799e-01 +1.85721219e-02 -1.60587400e-01 +3.29583138e-01 +2.60259807e-01 -2.68501878e-01 -3.12750548e-01 -6.59676865e-02 -2.64702290e-01 -3.23790699e-01 -2.24631175e-01 -5.25780469e-02 -3.07452410e-01 +2.32839078e-01 -3.58449481e-02 -1.03411064e-01 +1.74589038e-01 -6.93451688e-02 +2.09661767e-01 -1.40491098e-01 -2.26841971e-01 -8.99330303e-02 +2.39925340e-01 +1.00672044e-01 -4.57222939e-01 -1.88307703e-01 -7.37748714e-03 -1.19618410e-02 +2.19840989e-01 +1.59051448e-01 -3.99315596e-01 -7.19638467e-02 -1.68209836e-01 +1.02055505e-01 +1.07260952e-02 +1.82133925e-03 -3.97783481e-02 -1.70210943e-01 +1.41914226e-02 +7.59581402e-02 -1.54437041e-02 -1.84582338e-01 +8.81409645e-02 -4.03591134e-02 -1.91628411e-02 -2.58364648e-01 -1.18621141e-01 -5.77983223e-02 -2.34390885e-01 +1.95301145e-01 -1.04007393e-01 -1.12853967e-01 +5.96921667e-02 +4.19438668e-02 -4.27773595e-02 -1.57266125e-01 -3.68654370e-01 -1.66567460e-01 -2.46794984e-01 +1.59112304e-01 -2.77582973e-01 +1.15316801e-01 -1.44344598e-01 +1.64660931e-01 +1.65318489e-01 +1.18865050e-01 +2.97589898e-01 -2.49870926e-01 +2.28509203e-01 +8.77217948e-02 -1.63089201e-01 -7.08680302e-02 -2.62566715e-01 -5.52941188e-02 -9.21243150e-03 +6.17902242e-02 -2.63323337e-01 -3.71613771e-01 -1.97866485e-01 -1.29753366e-01 -3.12025342e-02 -3.01790088e-01 +1.22751202e-02 -3.94163579e-01 +1.25717983e-01 -1.32423669e-01 -2.18619093e-01 +8.07827711e-02 +2.33593881e-01 +5.38392179e-02 +2.11199954e-01 -1.22931778e-01 -1.66861609e-01 -1.68718826e-02 +2.22847834e-01 +2.08621114e-01 +4.93173711e-02 -1.06031068e-01 +8.76452476e-02 +9.94313881e-03 -1.48526281e-02 -2.48314589e-02 +4.34736200e-02 -1.16479866e-01 +3.73354435e-01 +3.28114450e-01 +4.08312201e-01 +1.09756500e-01 +1.25833392e-01 -2.57285744e-01 +3.20224732e-01 +2.52907753e-01 +2.22207382e-01 +4.34850037e-01 -9.18589756e-02 -2.30753794e-01 +4.32151467e-01 +2.63039246e-02 +1.79994851e-02 +3.63547236e-01 -8.13485906e-02 +2.75723815e-01 +1.47616029e-01 -8.47413391e-02 +1.34627670e-01 -1.46474868e-01 +2.29056016e-01 +4.31762189e-01 -2.51622885e-01 -1.98808908e-02 +1.99734285e-01 +2.88425952e-01 -2.27470860e-01 +3.88750672e-01 +2.53147900e-01 -1.63000628e-01 -2.17733294e-01 +4.07703295e-02 -7.80427456e-02 -3.07904601e-01 -2.88365334e-01 +3.09719741e-01 +1.89359859e-01 -2.05723971e-01 -9.50511396e-02 -1.44056782e-01 -1.84566110e-01 -3.19611430e-02 +1.72673374e-01 -1.07822947e-01 +4.22593147e-01 +1.83893293e-01 -4.12250198e-02 +9.67359841e-02 -9.75199938e-02 -1.67295679e-01 -1.69355452e-01 -8.24249536e-02 -1.76219434e-01 -3.02290753e-03 -2.78516471e-01 -7.67545998e-02 -9.29386616e-02 -2.47353211e-01 +1.77033946e-01 +1.68933403e-02 -3.02029312e-01 -3.02626759e-01 -8.11728835e-02 -1.45010397e-01 +2.14117378e-01 +3.38067599e-02 -4.60660219e-01 +9.78033766e-02 -1.56212375e-01 -1.64011404e-01 -2.29954973e-01 +1.62884250e-01 +3.04346508e-03 +2.44205758e-01 -5.99111840e-02 +7.79564753e-02 -1.49400681e-01 -3.18760902e-01 +3.51432040e-02 +2.57473797e-01 +4.46664281e-02 +4.43396956e-01 -3.09788942e-01 -3.37600037e-02 -1.10191360e-01 -2.64704078e-01 +1.62673458e-01 -4.73268330e-01 -2.67794043e-01 +9.75371990e-03 -2.20447078e-01 -2.51906574e-01 -1.23306043e-01 +5.31842820e-02 -4.07612100e-02 -4.88160476e-02 -9.88080800e-02 +2.44405448e-01 -1.81506440e-01 +7.53799900e-02 -3.52287799e-01 -2.15147346e-01 -9.66250077e-02 +3.66957903e-01 -4.71474707e-01 -1.46521762e-01 -1.14140436e-01 -3.75976376e-02 +2.76410937e-01 +4.37414765e-01 -2.36230478e-01 -1.67623609e-01 +7.93230757e-02 -2.63542771e-01 +8.81768167e-02 -3.13006073e-01 -1.10824689e-01 -1.12174325e-01 -1.42581940e-01 -4.41418998e-02 -2.50699759e-01 -3.46127748e-01 +3.12303603e-01 +2.55168468e-01 -1.24061368e-01 -1.73622712e-01 -8.31802785e-02 -4.30466890e-01 +9.60064605e-02 -2.31288299e-01 -3.95628422e-01 +7.99284205e-02 -2.61370867e-01 -1.39147028e-01 +1.63166121e-01 +7.55597055e-02 -2.65209973e-01 -8.58231559e-02 +1.03685364e-01 +1.69742722e-02 -1.91615984e-01 -1.49005027e-02 -2.20852625e-03 +2.30869099e-01 -6.53752014e-02 +7.07957968e-02 +2.68099625e-02 -1.28237128e-01 -2.19746128e-01 -5.59707321e-02 +1.07381009e-01 +7.83639178e-02 +3.06699842e-01 -2.19578631e-02 +1.34458154e-01 -2.97103263e-02 +2.81208783e-01 +2.60936558e-01 +3.68617885e-02 -5.05583920e-02 +9.36936438e-02 -2.75939107e-01 -1.77674145e-01 +8.49554986e-02 -1.80314407e-02 +1.42709851e-01 +5.71281612e-02 -9.91039202e-02 +2.27027729e-01 +1.66710779e-01 -7.20756426e-02 +9.46578383e-02 +8.07445031e-03 +4.98179905e-02 -8.83427635e-02 -1.94883849e-02 +1.79892406e-01 +1.54170141e-01 +4.20146249e-02 +1.54906869e-01 -1.43544987e-01 +2.75617391e-01 +8.02319869e-02 -1.15229622e-01 +2.06869617e-01 +1.63290039e-01 -2.82077312e-01 -1.03987018e-02 +2.89211154e-01 +1.48022786e-01 +1.76916659e-01 +1.45023242e-01 -2.02570528e-01 -9.06408653e-02 +4.08970676e-02 +1.25340596e-01 +1.59572154e-01 -4.29850399e-01 -4.72701080e-02 -7.11616278e-02 +4.75614443e-02 +1.58542871e-01 +4.12932217e-01 -7.99581334e-02 +6.62681907e-02 +4.18862879e-01 +2.93739647e-01 +3.80509734e-01 +1.20994620e-01 -7.20175654e-02 +1.34653952e-02 +1.77737102e-01 +4.62428741e-02 -1.62341855e-02 -5.72828017e-02 +1.37187883e-01 -2.47826576e-01 +2.70585388e-01 +2.54899710e-01 -3.80699575e-01 -3.07657998e-02 +3.31783235e-01 -1.08305916e-01 -1.45154834e-01 -1.77392319e-01 +9.31308717e-02 +2.21105991e-03 +8.48551616e-02 -1.79333389e-02 -2.15014175e-01 +1.75802827e-01 +1.34243801e-01 +2.49036685e-01 -1.16947833e-02 +1.00084521e-01 -3.84662449e-01 +2.61999816e-01 -2.45723411e-01 -3.70691791e-02 +7.16770366e-02 +7.96178877e-02 -2.25417256e-01 -2.24228442e-01 -2.85496593e-01 -2.91751385e-01 -6.14040866e-02 -4.25543666e-01 +2.87647724e-01 +5.30090444e-02 -2.27792487e-01 -2.73361027e-01 +2.40335613e-01 -3.06213230e-01 +8.70446339e-02 -2.19689444e-01 -2.05779269e-01 -4.78544831e-03 +1.18210606e-01 +1.95274577e-01 -1.19017333e-01 +2.25241527e-01 -1.35792837e-01 +1.02231897e-01 -3.20140794e-02 +5.26882000e-02 -1.06263578e-01 +2.05514356e-02 +2.43477039e-02 +1.12714162e-02 -1.95208117e-02 +6.02630898e-02 -1.49343953e-01 +1.05104201e-01 -2.50469059e-01 -1.22134656e-01 -1.23449199e-01 +4.24615853e-02 -2.96704531e-01 -8.15101899e-03 -2.95985788e-01 -3.31320286e-01 -2.08282143e-01 +1.21101491e-01 -3.36123049e-01 -2.49224886e-01 +1.08863853e-01 +1.44652367e-01 +1.01562083e-01 -1.40213355e-01 -9.45212767e-02 -3.60382169e-01 -1.65597141e-01 -3.63754258e-02 +9.83342901e-02 +1.39836609e-01 -9.20531526e-02 -3.18635225e-01 -1.02519967e-01 -2.60895967e-01 +7.75704756e-02 -2.36480743e-01 -1.70953155e-01 +2.78569367e-02 +2.96694487e-01 -2.75249273e-01 -1.74296394e-01 +2.04708084e-01 +5.31488517e-03 +2.19084725e-01 +2.44251460e-01 -1.95544526e-01 -2.33685553e-01 -9.67653990e-02 -1.35536328e-01 +3.14501196e-01 -2.47337535e-01 +1.08026741e-02 +1.37826040e-01 +1.13073125e-01 -2.08283380e-01 -2.87316054e-01 -2.99408466e-01 +8.08595959e-03 -1.60424054e-01 -2.07881421e-01 -1.10648490e-01 +1.11882396e-01 -2.63267726e-01 +1.28874466e-01 -2.28560101e-02 +6.91970661e-02 +8.79455730e-02 +3.62488255e-02 +2.07306251e-01 -1.02534674e-01 -1.43158302e-01 +4.51222472e-02 +1.14421040e-01 -2.00549811e-01 -2.23686069e-01 -1.66950881e-01 +5.70127405e-02 -6.55083954e-02 -2.36023724e-01 +2.94475645e-01 +2.23394930e-01 +3.19169909e-02 +1.90164730e-01 +2.43787542e-01 -5.47936484e-02 +5.52190803e-02 -1.52678475e-01 -2.77266711e-01 -1.45257592e-01 -1.25170827e-01 -7.99074322e-02 -2.33960122e-01 +3.99650726e-03 +1.59441963e-01 +2.34042197e-01 +3.21847290e-01 +3.62629920e-01 -1.09655984e-01 +2.41751689e-02 +1.30078718e-01 -1.65716931e-01 -1.59538954e-01 -1.89280018e-01 -9.04697478e-02 -1.50497407e-01 -1.80889904e-01 +5.80195477e-03 -2.21547350e-01 +8.55688304e-02 +1.63443953e-01 -3.06504279e-01 -1.16087422e-01 +5.97266853e-02 +7.36882389e-02 +7.34348074e-02 -6.33730739e-02 -1.89027354e-01 -1.74731463e-01 +2.75976360e-01 +1.13166884e-01 +3.53836967e-03 +3.42052691e-02 -1.68528944e-01 +1.15262717e-01 -3.55797410e-02 -1.74484923e-01 +2.43456602e-01 -1.28877655e-01 +2.33291313e-01 +1.00871120e-02 -1.44873157e-01 +6.01698011e-02 +2.33851999e-01 -2.74584264e-01 +6.08605221e-02 -7.55028427e-02 +1.06737249e-01 +2.61332601e-01 -1.64986327e-01 +9.04385000e-02 +1.34335771e-01 +6.53890744e-02 -1.27842814e-01 +1.08329698e-01 +1.78531468e-01 +1.67456076e-01 -5.49337128e-03 +2.02097267e-01 +1.27959952e-01 -1.38501316e-01 -1.03586176e-02 -2.69969672e-01 -3.14004064e-01 +2.01790720e-01 -3.47994208e-01 -3.63674134e-01 +2.86769778e-01 -2.26176959e-02 +2.15353146e-01 +1.68676320e-02 +1.62442010e-02 +2.03259632e-01 -1.39373213e-01 +2.38558576e-01 -5.88050708e-02 +9.80483368e-02 +3.67527962e-01 +1.36680201e-01 -3.44416291e-01 -1.03846505e-01 -4.00724299e-02 +6.23266958e-02 -2.45534137e-01 -4.69597906e-01 -1.52378485e-01 -5.09162918e-02 -3.45167279e-01 -1.47795290e-01 -1.37748867e-01 -1.51303923e-02 -2.38933906e-01 -3.94003510e-01 +1.21178240e-01 -3.88196826e-01 -1.12060130e-01 -2.66538918e-01 -2.32921559e-02 +7.35504106e-02 +1.21694831e-02 -3.21233064e-01 +2.15775862e-01 -1.82545140e-01 -2.88167924e-01 -1.23738199e-01 +1.39852315e-01 +1.82082087e-01 -1.63825169e-01 +2.02509388e-01 -2.95679986e-01 +2.19428122e-01 -1.75357968e-01 -4.18603532e-02 -8.78888145e-02 -3.11054230e-01 -3.01353395e-01 -8.43283348e-03 -2.30007470e-02 +5.72405495e-02 +1.05025649e-01 -2.44999453e-01 -2.20784530e-01 -2.28763208e-01 +6.82150722e-02 -5.71885072e-02 -3.27306718e-01 +2.24221826e-01 -1.97486840e-02 -2.31487509e-02 +5.18082902e-02 +1.83949098e-02 +3.58739406e-01 -8.00791383e-02 +4.98293117e-02 +2.50811815e-01 +1.20215639e-01 -3.00577283e-02 -5.72432503e-02 -9.03256014e-02 +2.07022175e-01 -1.13655224e-01 +1.96675912e-01 +4.58603315e-02 -2.31486753e-01 -9.47909877e-02 +3.23508143e-01 +3.54994647e-02 +1.89412355e-01 +3.68994981e-01 -1.46797091e-01 +9.74331144e-03 +2.78059691e-01 +1.64267555e-01 -5.67536242e-02 -5.46811847e-04 -2.35033650e-02 +2.50111133e-01 +1.96544439e-01 -2.57709950e-01 +1.16892993e-01 +2.73991168e-01 +6.14416897e-02 +1.12312652e-01 +3.37333322e-01 -1.36815235e-02 -1.33002639e-01 -1.11486726e-01 +3.74335647e-01 -4.43490781e-03 -3.39853205e-02 +1.58592820e-01 +7.48568028e-02 +2.09715962e-02 +3.75144780e-01 -1.23948403e-01 -1.33972302e-01 +2.33003348e-01 -2.91663498e-01 -5.51694892e-02 +2.20034011e-02 +3.26872729e-02 -4.67381515e-02 -2.50664473e-01 +1.98461473e-01 +4.05389458e-01 +1.02778174e-01 +2.04476893e-01 +5.07256866e-01 +1.73662528e-01 +2.07206607e-03 +1.47112399e-01 +2.97390848e-01 +1.62375748e-01 -1.81316644e-01 +2.24255174e-01 +1.42467767e-01 +4.88344073e-01 +6.72948733e-02 -1.82299074e-02 +4.65250500e-02 +2.49796793e-01 +3.92202973e-01 +2.38502860e-01 +4.78077773e-03 +2.10109234e-01 +1.77418709e-01 +2.07334608e-01 +2.20590726e-01 +7.15206983e-03 +2.55341053e-01 +1.55164376e-01 +2.34823629e-01 +1.41135585e-02 +3.04103196e-01 +3.74094069e-01 +3.24836597e-02 -2.04857588e-01 +3.50838512e-01 -2.02927053e-01 +1.87537283e-01 +2.97159627e-02 +4.88818198e-01 -5.02992906e-02 +2.06607953e-01 +2.30145574e-01 +3.03468645e-01 -1.30949557e-01 +2.08780751e-01 -3.15794386e-02 -2.88737297e-01 -3.85544449e-01 +1.34741798e-01 -9.40581635e-02 +2.19406504e-02 -1.77836809e-02 -2.28833705e-01 -2.14389786e-01 -2.26612538e-01 +8.86642635e-02 +4.07238491e-02 -1.70944348e-01 -1.49155194e-02 +2.18503531e-02 -3.84491347e-02 +1.98837236e-01 +1.73794001e-01 -1.16834249e-02 -2.65327126e-01 +2.08026194e-03 +3.16879153e-02 -2.13835821e-01 -3.54478270e-01 -3.14278662e-01 -2.38742352e-01 +1.24838583e-01 -1.05723895e-01 -1.64913118e-01 -1.55846909e-01 -1.17909938e-01 -1.51292205e-01 +2.56432682e-01 -3.67663354e-01 +5.60304411e-02 +1.11283474e-01 -1.68198034e-01 +3.52324635e-01 +1.83696777e-01 -1.76540151e-01 -6.40290901e-02 +2.19326332e-01 +4.71226610e-02 -1.64911509e-01 -8.81778002e-02 -2.45013721e-02 +2.15297997e-01 -5.35061844e-02 -1.07890628e-01 -2.47950435e-01 -2.96968579e-01 -3.53527725e-01 +8.97599086e-02 +2.58053690e-01 +2.08837807e-01 -3.68736178e-01 -3.93298864e-01 -1.69483542e-01 -2.02105775e-01 +3.70268710e-02 -1.91371012e-02 +5.21073267e-02 -7.21274987e-02 -1.77531630e-01 -4.76459265e-02 +2.97282279e-01 -4.80517387e-01 +3.93512920e-02 -3.63451064e-01 +1.17578603e-01 -1.08956017e-01 +1.45094872e-01 -2.43788004e-01 +4.64342609e-02 -1.18950211e-01 -5.86493611e-01 +6.72021061e-02 +4.47006464e-01 -2.99631536e-01 -4.46881205e-01 +1.04878787e-02 -2.33785987e-01 +2.61920154e-01 -1.49158448e-01 -1.19819276e-01 -2.79075623e-01 -3.30597878e-01 -4.88285087e-02 -3.46957326e-01 -2.93337665e-02 -8.76020789e-02 +4.45465669e-02 -3.71199936e-01 -1.89451739e-01 -1.11034952e-01 -2.45606974e-01 +1.77015942e-02 -1.08519830e-02 -1.12955682e-01 +5.45956373e-01 -1.79102346e-01 -1.78201050e-01 -1.11528814e-01 -1.25721052e-01 +1.45036787e-01 -3.36591676e-02 +6.76488876e-02 -1.95752516e-01 -1.35773301e-01 -1.74187586e-01 -2.16117665e-01 +1.35165438e-01 +1.44879490e-01 -3.65029648e-02 -1.38298020e-01 +4.25431095e-02 -4.28731859e-01 +8.20377767e-02 +8.23685061e-03 -1.54317599e-02 -2.43817300e-01 -9.85306650e-02 -1.48174033e-01 +3.46206725e-01 -1.81806386e-02 +6.19915314e-02 +2.75750428e-01 +2.89626449e-01 -3.12982239e-02 -1.36440456e-01 -1.33116707e-01 -9.81740057e-02 +2.39508718e-01 -1.44773960e-01 -2.51306444e-01 -2.03777567e-01 +7.22565800e-02 -1.03978954e-01 -4.03818190e-01 -3.28050345e-01 +2.03494176e-01 +9.36065838e-02 -2.76398569e-01 -1.16862267e-01 +2.55016744e-01 -1.08962290e-01 +2.16891110e-01 -1.91016216e-02 +4.68393676e-02 +1.65799513e-01 -1.97382137e-01 +7.91283995e-02 +1.57248467e-01 -3.02933812e-01 -1.80696607e-01 -2.36670524e-01 -3.25532049e-01 -8.87748450e-02 -3.02821279e-01 -2.17252329e-01 +5.98444822e-05 +2.33940259e-01 -1.81411192e-01 -2.15682104e-01 -3.23508948e-01 +4.15684223e-01 +1.64526373e-01 -2.27264851e-01 -5.92634976e-02 +3.44913863e-02 -6.18736334e-02 -2.56249905e-01 -3.76579285e-01 -1.54389620e-01 -3.22051793e-01 -3.14456671e-01 +2.37246156e-01 -1.70116395e-01 +3.59338298e-02 -2.82366335e-01 +2.31519088e-01 -1.59356833e-01 -9.99309123e-02 -6.22432753e-02 -1.49286479e-01 -3.59928936e-01 -5.19021094e-01 +9.90500227e-02 +1.72795922e-01 -1.23245433e-01 -2.20263988e-01 +2.00635299e-01 -7.42271617e-02 -2.02710837e-01 +2.35740438e-01 -1.18709229e-01 +6.75547794e-02 -6.58794194e-02 -1.46059662e-01 -3.06094825e-01 -1.97622776e-01 +7.82554373e-02 +8.70575197e-03 +7.43346810e-02 -3.48327011e-01 -2.63759851e-01 -3.18698101e-02 -1.01619855e-01 -1.29888803e-01 +1.12859935e-01 -9.65826437e-02 -1.16113558e-01 +1.48619130e-01 -7.99356122e-03 +1.48605138e-01 -2.20897589e-02 +6.91496208e-02 +2.77304873e-02 -7.18594864e-02 -2.57641971e-01 +1.28958285e-01 -1.34422556e-01 +1.37403710e-02 -7.66493306e-02 +2.14631841e-01 -1.67363390e-01 -2.15315551e-01 -2.40380198e-01 -4.33839589e-01 -1.66003361e-01 -2.28431463e-01 -2.32721325e-02 +1.95408270e-01 -1.92890298e-02 +2.49566715e-02 +3.03380769e-02 +3.41823660e-02 -2.05243185e-01 +2.59700537e-01 +1.83401346e-01 +1.32349804e-01 -1.04603115e-02 -5.97769879e-02 +1.84528723e-01 -4.03046422e-02 -2.49464642e-02 -1.53535664e-01 -2.00916171e-01 -5.50506748e-02 -1.28787145e-01 -9.45262704e-03 +2.32911572e-01 +1.36370081e-02 +1.80370182e-01 -2.89357483e-01 +1.76651254e-01 +3.03961962e-01 +1.01444967e-01 +2.66116351e-01 +3.48967224e-01 +2.33098835e-01 -1.19092315e-01 -2.91444585e-02 +2.85594344e-01 +1.91956192e-01 -1.16729543e-01 +8.72345120e-02 +2.11793676e-01 +3.04886907e-01 +5.89658804e-02 +2.95594931e-01 +2.80012786e-01 +2.08539695e-01 +2.31822267e-01 +1.33149683e-01 -1.25264779e-01 -8.27453062e-02 -4.11534645e-02 -5.26178703e-02 -1.54703245e-01 +7.37008005e-02 +1.00959301e-01 -2.37124469e-02 +9.01240930e-02 -2.59121239e-01 +2.90687501e-01 +4.97906029e-01 +2.68307328e-01 -9.99071449e-02 +2.51967758e-01 +2.34484613e-01 +4.02369797e-02 +3.82280387e-02 +1.15057364e-01 +1.26009330e-01 +4.68690515e-01 +2.50291258e-01 +8.04413855e-02 +5.53181805e-02 +9.42618176e-02 +4.35849614e-02 +7.11669102e-02 +2.06029877e-01 -1.58882007e-01 -4.56642285e-02 -3.11920404e-01 -8.84026662e-02 +2.08919495e-02 +1.16870388e-01 -1.91925377e-01 +1.12481214e-01 -2.78421342e-01 -1.02769881e-01 -9.06087980e-02 +1.20941602e-01 -8.49559829e-02 -4.79152836e-02 -1.38111681e-01 -3.32225680e-01 -4.50066596e-01 -1.62525639e-01 -1.46778286e-01 -1.45661935e-01 -1.17343791e-01 +4.16267663e-03 -1.13108270e-01 -4.93145287e-02 +1.22833766e-01 -2.07240254e-01 +1.96507633e-01 +1.83363050e-01 -6.70329332e-02 +4.57470529e-02 -3.26497853e-01 +4.39890087e-01 -1.59589618e-01 -7.90228993e-02 +1.42309219e-01 +2.78710872e-01 -1.69916093e-01 -1.79888219e-01 +3.86649463e-03 -1.61840603e-01 -2.71199327e-02 +1.86344441e-02 -9.40598622e-02 -1.66296531e-02 -2.32043609e-01 -1.01206295e-01 -2.10624337e-01 +1.42859429e-01 +4.52927113e-01 -5.54836392e-02 +2.46887788e-01 +2.66883522e-02 +2.96801125e-04 +2.60142624e-01 -1.05445191e-01 +1.29785076e-01 +5.27653880e-02 -1.94535017e-01 -1.71524808e-01 -3.29036891e-01 +9.86851156e-02 -3.43285352e-02 -3.87565732e-01 +3.89463186e-01 +1.00406721e-01 -3.72727476e-02 +9.53837186e-02 +2.20711812e-01 -9.39417034e-02 +4.49060142e-01 -4.47057694e-01 +2.51934409e-01 +2.05173150e-01 -1.42780900e-01 -2.53059000e-01 -1.72135577e-01 +2.84965485e-01 -8.06042850e-02 +4.09764424e-02 -5.59013188e-02 +2.54395872e-01 +5.07664263e-01 +2.97424197e-01 +3.51793140e-01 +2.08005860e-01 +4.19507504e-01 +7.10404068e-02 +2.11569235e-01 +8.58972073e-02 +1.47316471e-01 -1.59324296e-02 -2.21314386e-01 +1.63759053e-01 -4.45363373e-01 -8.86762366e-02 -3.49780172e-02 +2.10140310e-02 +2.24219486e-01 +3.08964908e-01 -1.98406979e-01 -1.74644575e-01 -1.45517066e-01 +8.65373462e-02 +1.86349437e-01 -1.13101535e-01 -1.17337309e-01 +1.90859511e-01 +1.95043564e-01 -3.98981152e-03 -3.00536722e-01 -1.58004954e-01 +4.22030240e-02 -1.71968147e-01 -6.70174435e-02 +4.29456308e-02 +3.14384937e-01 +3.78745347e-02 +1.44609019e-01 -2.50763446e-01 +2.46214241e-01 -1.75074741e-01 +1.17398180e-01 +4.53065217e-01 -2.45155185e-01 -3.39392662e-01 +3.01030815e-01 +5.35629019e-02 -2.57133450e-02 +2.91896284e-01 +7.72994850e-03 +4.80838567e-02 +4.09817360e-02 -2.36137226e-01 +7.48042762e-02 +1.44655537e-02 +1.96289122e-02 +1.31805018e-01 -2.50202686e-01 -1.00571819e-01 +7.62603059e-02 +4.21607904e-02 +2.67849743e-01 +2.21985042e-01 -2.21865281e-01 +3.06358635e-02 -2.50490904e-01 -2.36747742e-01 +3.25569302e-01 +9.01196450e-02 -1.65046319e-01 -6.70663491e-02 -3.78743485e-02 -1.90449625e-01 -3.98313217e-02 -3.40284884e-01 +3.52573656e-02 -3.28469545e-01 -1.52367070e-01 -1.17410839e-01 +1.47079855e-01 +1.36680144e-03 +1.11399554e-01 +1.47367558e-02 -3.63962770e-01 -1.46392435e-01 -4.12837416e-01 +8.82967263e-02 +1.06852315e-02 -2.81400740e-01 -2.10415334e-01 -1.53753329e-02 +6.42599910e-02 -1.16082363e-01 -1.47804290e-01 +4.77916710e-02 +2.51032799e-01 +1.34253681e-01 -1.52271623e-02 -1.32246882e-01 -1.41451925e-01 -1.46680146e-01 -6.45066127e-02 +1.15632132e-01 -1.10093735e-01 -2.17097491e-01 +2.52506047e-01 -6.12953864e-02 +3.78641337e-01 +2.92098522e-02 -3.12181637e-02 -4.53922629e-01 +1.14679918e-01 +1.57238282e-02 -1.69419736e-01 +4.15988900e-02 +1.87684342e-01 -3.29684645e-01 +1.11974612e-01 -4.92022395e-01 -3.37701231e-01 +1.24340475e-01 +2.84000814e-01 +1.71936806e-02 -2.25750744e-01 +7.73178617e-05 -2.12182999e-01 -1.80805445e-01 -2.43458316e-01 +6.54722825e-02 -8.25810991e-03 -2.34934419e-01 -2.67023087e-01 +4.10955042e-01 -2.50824392e-01 -2.25030303e-01 -4.04811919e-01 +3.05468105e-02 -3.42320085e-01 +1.13672256e-01 -2.76151121e-01 +4.09144610e-02 -3.15401077e-01 -5.13958514e-01 +3.44443977e-01 +1.11007638e-01 +9.26989615e-02 -5.17366707e-01 +1.57974750e-01 -3.29789221e-01 +2.80301511e-01 -2.61445910e-01 -3.47810090e-02 -3.25032294e-01 -4.56229925e-01 -2.24720482e-02 -4.00664866e-01 -4.35723871e-01 +1.15423046e-01 -5.82129210e-02 -4.20344681e-01 -9.23450887e-02 -1.67687565e-01 -2.33199671e-01 +3.05932820e-01 +1.59333423e-01 +1.12095855e-01 +1.33272693e-01 -2.87916452e-01 -2.31517293e-02 +2.79517043e-02 +2.96411753e-01 -1.92151546e-01 -2.10336838e-02 +1.75557673e-01 -2.53431350e-01 +2.33616661e-02 +8.29133317e-02 +1.47181466e-01 +1.95170820e-01 -1.09474137e-01 +4.75832708e-02 -3.91564555e-02 -1.14510708e-01 +7.35097826e-02 +1.73893541e-01 +1.66595414e-01 -1.06716109e-02 -3.07876676e-01 +1.31856754e-01 -2.08936885e-01 -1.84522822e-01 +6.87840953e-02 -8.53125975e-02 +1.01724319e-01 -4.92380261e-02 -3.71490121e-01 +2.20468298e-01 +2.02193558e-01 -2.69732513e-02 +1.09995723e-01 -2.20610619e-01 +3.82788628e-01 -1.11519225e-01 -7.67505094e-02 +3.20097417e-01 +2.99755305e-01 +3.76441069e-02 +1.35502353e-01 -2.21511871e-01 +1.24487318e-01 +2.22813323e-01 -4.27276529e-02 +4.09816578e-02 -2.69607082e-02 +1.58238366e-01 -2.69751400e-01 +1.55332789e-01 -2.25146443e-01 +2.18815148e-01 +9.36501399e-02 -2.72967488e-01 -2.91659646e-02 +6.29500300e-02 +8.30468908e-02 -1.05596744e-01 +3.63316953e-01 +1.82096977e-02 +1.86596632e-01 +1.44355057e-03 -2.91548818e-01 +1.58786222e-01 +4.91329879e-01 -1.44144092e-02 +3.17759454e-01 +3.74179751e-01 +4.18714523e-01 +3.58796328e-01 +3.53475869e-01 -2.50813574e-01 +2.74874926e-01 +2.03969255e-01 +2.25478947e-01 +2.58846313e-01 +1.58569273e-02 -1.76129684e-01 +4.26475763e-01 +1.83618739e-01 +1.21561050e-01 +3.09771180e-01 -6.99924678e-02 +2.75874853e-01 +1.98058814e-01 +1.52298912e-01 +3.24319661e-01 +8.08451325e-02 -4.11258116e-02 +4.16033685e-01 +1.67758204e-02 +2.08148062e-01 +1.94520876e-01 +2.96841592e-01 -2.62124181e-01 +3.54871452e-01 -1.59362555e-01 -9.52726603e-02 -2.73229957e-01 -2.45965272e-02 +4.22763109e-01 -1.09549731e-01 -2.40124941e-01 +1.82484612e-01 +2.86398281e-04 +2.06531957e-02 -2.42840350e-01 -2.30227277e-01 -1.53620631e-01 -1.20284796e-01 +5.21386676e-02 +1.33535445e-01 +2.85076052e-02 -2.64540404e-01 -1.58595160e-01 +9.46947932e-02 +1.25361774e-02 +3.98000441e-02 -7.87329897e-02 +6.10921904e-02 -1.15907565e-02 +1.12323545e-01 -2.98226595e-01 -5.88219762e-02 -1.85927562e-02 +5.28187715e-02 -2.90787280e-01 -1.98482275e-01 +8.35430250e-03 +1.65614143e-01 -3.27458978e-01 -9.47752222e-02 +1.43804774e-01 -2.71223992e-01 +1.87804222e-01 +7.64733627e-02 +3.80826965e-02 -5.69368303e-02 -3.40677239e-02 +1.52998284e-01 +2.85224378e-01 -2.71121025e-01 -6.00813814e-02 +5.25043570e-02 -5.94732873e-02 +8.66977870e-02 -1.26411483e-01 +1.07484758e-01 +1.04561836e-01 -2.80888349e-01 +1.67598277e-01 -3.16437542e-01 -1.34953156e-01 -3.34762828e-03 -1.71485797e-01 -3.04111034e-01 -2.58468777e-01 -3.55144382e-01 -2.87209600e-01 +8.92408490e-02 +8.72852746e-03 -7.84060657e-02 -1.06544472e-01 -7.40528628e-02 -4.48612422e-01 +3.23737204e-01 -1.20221242e-01 -1.95536062e-01 -8.95909294e-02 +1.69340715e-01 -4.41232026e-01 +1.68513328e-01 -4.24868375e-01 -6.77499697e-02 -2.34335423e-01 -2.63546556e-01 +1.68734878e-01 -1.51177391e-01 +2.43903890e-01 +2.50526937e-03 -3.86467092e-02 -2.92418659e-01 -1.55565649e-01 -3.51568252e-01 +1.89107955e-01 -1.55745015e-01 -3.60993594e-01 -1.12158388e-01 +7.29650557e-02 -4.94656712e-01 -2.80726869e-02 -1.04912482e-01 -4.56093326e-02 -1.36272982e-01 -1.03439778e-01 -2.29538456e-01 -1.15978662e-02 -1.44148208e-02 -1.79664791e-01 -9.75055173e-02 -2.82030851e-01 -8.59217197e-02 +5.71465567e-02 +1.46539316e-01 +2.78996825e-01 -2.28202883e-02 +1.51901767e-01 -9.67763588e-02 -8.54222700e-02 -5.48107587e-02 -2.78879821e-01 -2.35696752e-02 -4.47636276e-01 +3.83529291e-02 +2.58514774e-03 +3.00213620e-02 -5.09475991e-02 +1.91303492e-01 +1.64354406e-02 -7.42647424e-02 +1.31283090e-01 +1.64161503e-01 -1.38040511e-02 -3.11259091e-01 +6.88334331e-02 +2.54017740e-01 -1.93673372e-02 -3.87536436e-01 +2.05531284e-01 +1.05078608e-01 -1.50774792e-01 +7.83240125e-02 -1.15484118e-01 -1.26405567e-01 +4.71687347e-01 -2.02201590e-01 +3.57848741e-02 +7.25079924e-02 +9.82515365e-02 -2.11658254e-02 -7.13117346e-02 -1.31073162e-01 -1.90171242e-01 -3.13645273e-01 +2.79066805e-03 -2.08641589e-01 -3.55829149e-02 +9.81981084e-02 +2.19636664e-01 -1.57636210e-01 +3.05888504e-02 +7.44763315e-02 -1.79713070e-01 -1.25345632e-01 +3.14086050e-01 +4.41588700e-01 +2.67351687e-01 +2.32000928e-02 +2.13537693e-01 -1.02381423e-01 +1.03577621e-01 +5.80200693e-03 -1.90401509e-01 +4.75986600e-02 +2.09989902e-02 -7.59301856e-02 +2.25013539e-01 +2.69323826e-01 +2.74589181e-01 +4.12453681e-01 +1.22911043e-01 +5.93035333e-02 +3.68708998e-01 +6.97466955e-02 +1.96305901e-01 +1.03100292e-01 +1.45299494e-01 +2.76634961e-01 +4.78844404e-01 +1.46521956e-01 +2.74607033e-01 +2.08138585e-01 +5.12236767e-02 +3.13699067e-01 -5.36124147e-02 +1.23027250e-01 +2.96409000e-02 -2.03495428e-01 -2.68973500e-01 +2.74619192e-01 +1.31056145e-01 -1.47394940e-01 +3.61131996e-01 -4.91763325e-03 -1.04729719e-01 +3.79403859e-01 +2.41375923e-01 +2.94106930e-01 +1.45284478e-02 +5.32365255e-02 -4.62281294e-02 +2.08570972e-01 +1.23804361e-01 +4.06910963e-02 -6.31184652e-02 -4.21972771e-04 -2.61203200e-01 -3.34524340e-03 +2.98519194e-01 -2.02654168e-01 +4.00197227e-03 -2.69226640e-01 -1.59319296e-01 -9.86511484e-02 +1.42044395e-01 -3.54576439e-01 +3.68875265e-01 -7.76465461e-02 -2.76054174e-01 -1.42765492e-01 -1.34355932e-01 +1.38446555e-01 -9.47386399e-02 -4.15067703e-01 -3.53548629e-03 -1.49932280e-01 -3.90781403e-01 -4.75189388e-01 -1.09392352e-01 +6.28146157e-02 +2.53685564e-01 +1.28441468e-01 -2.15056524e-01 +8.53206962e-02 +5.53802252e-01 +6.46750331e-02 -1.49224952e-01 +1.32489264e-01 +8.50968882e-02 -5.90927377e-02 -5.99166863e-02 +1.88110769e-01 -2.42596820e-01 +1.42616615e-01 -2.40864102e-02 -1.78796679e-01 -3.61479014e-01 -2.68812716e-01 +2.19560906e-01 -3.88740212e-01 +1.96886569e-01 -9.60888416e-02 -2.09352404e-01 +2.08858982e-01 -1.54197276e-01 -9.58489371e-04 -3.17768127e-01 -1.37812048e-01 -9.12230462e-02 +3.11077505e-01 +2.20411777e-01 +1.97587460e-01 -5.00726001e-03 -1.95755452e-01 -3.24072212e-01 +1.09629184e-01 -1.92075910e-04 -1.63411468e-01 +1.17760882e-01 +2.26778835e-01 +1.53839707e-01 -8.95416830e-03 +1.71295684e-02 +1.93707317e-01 +1.32447511e-01 -1.50663748e-01 +1.62481055e-01 +4.77270670e-02 +1.51217192e-01 -1.20408267e-01 +3.61415558e-02 +1.61930799e-01 -5.54713272e-02 -2.11072370e-01 -4.00302410e-01 -2.34847993e-01 -1.53949678e-01 -1.62026435e-01 -2.07164422e-01 -1.13225952e-02 -1.99072570e-01 +1.69701070e-01 -3.25126529e-01 -5.12502827e-02 +1.16782106e-01 +7.44281011e-03 +5.44868335e-02 -1.34729892e-01 +1.33638158e-01 +4.93202582e-02 -2.99994677e-01 -3.36538762e-01 -2.23165914e-01 -1.60478294e-01 -1.12736128e-01 -1.46371171e-01 -4.26856041e-01 -1.07449874e-01 -3.03938955e-01 -2.79962271e-01 -1.57739013e-01 +2.79835761e-01 +3.73511225e-01 -1.63876459e-01 -3.33227336e-01 +1.81066006e-01 -4.11670357e-01 -8.16672072e-02 -4.68992233e-01 -4.12084490e-01 -4.04640555e-01 +2.49801531e-01 -3.60132307e-01 -4.66282964e-02 -2.02925935e-01 -2.63654500e-01 -7.54548907e-02 -3.08869854e-02 -3.33447129e-01 -6.50440872e-01 -4.55922559e-02 -2.58088022e-01 +5.56492507e-02 -2.39723608e-01 -4.10086662e-01 -1.62878871e-01 -4.43508178e-01 -7.17184842e-02 -4.46377784e-01 -1.15631707e-01 -8.56791735e-02 -6.40146658e-02 -4.32702154e-01 -1.65306911e-01 +7.18247071e-02 -4.06326145e-01 +3.41807678e-02 -1.27468109e-01 -1.15501806e-01 -9.98882502e-02 -2.90244937e-01 -1.20932847e-01 +3.88542045e-04 -1.70390323e-01 -1.55554488e-01 +3.97927314e-02 +2.42417515e-03 -3.93893212e-01 -2.30198577e-02 -7.93591216e-02 -2.00595766e-01 +1.06158771e-01 -1.66698620e-01 -1.61894709e-01 -6.11849837e-02 -9.13819671e-02 +4.01938885e-01 -2.76361853e-01 +1.61720932e-01 -9.84035209e-02 -7.28995651e-02 +1.44115901e-02 +2.74150759e-01 -1.41008586e-01 -2.10126340e-01 +2.93579735e-02 -1.72805056e-01 -1.91982072e-02 -2.86521763e-01 +1.38193056e-01 +1.80658456e-02 -3.31347138e-01 -5.37515022e-02 -2.86451221e-01 +1.44163206e-01 -1.16349325e-01 -2.45530099e-01 +1.29325464e-01 +4.94891196e-01 -1.59442157e-01 -1.09616190e-01 -1.14254378e-01 -7.30209202e-02 -6.50080247e-03 -5.90050407e-02 -1.42681384e-02 -3.97690564e-01 -3.15571576e-01 -1.01306938e-01 -9.72153544e-02 -1.55141443e-01 +2.01017205e-02 -1.34495059e-02 +2.71053631e-02 -1.77903116e-01 +2.38585994e-02 +1.08068930e-02 +9.09372717e-02 -6.14917651e-02 -4.41466570e-01 +7.66654685e-03 -7.02878758e-02 -6.37628958e-02 -2.03188151e-01 +8.70654508e-02 -1.52404010e-01 +3.77684593e-01 -1.74420122e-02 +2.68742815e-02 -1.71352327e-01 -1.43143669e-01 -1.50355026e-01 +2.86117196e-01 -9.54558030e-02 -6.66513816e-02 +3.23758721e-01 -2.65936613e-01 -2.64326870e-01 -1.04029365e-01 +1.99948221e-01 +1.08592086e-01 +1.76448002e-01 +1.47942528e-01 -2.60326490e-02 +2.81457871e-01 +2.05782577e-01 -2.34338462e-01 +2.28034079e-01 +4.51934844e-01 +2.27552816e-01 +1.20862603e-01 +2.68424377e-02 +1.57304078e-01 -1.57308936e-01 +8.73463154e-02 +1.45026222e-01 -1.74994260e-01 +4.12210748e-02 +1.25872135e-01 -2.87772030e-01 +5.86539805e-02 +1.97415471e-01 +2.32914612e-02 +2.95019541e-02 +7.19994977e-02 -9.26617347e-03 +2.91050971e-02 -2.14707386e-02 -6.63016513e-02 -3.08375597e-01 +2.87910640e-01 -1.41448006e-01 -1.48547322e-01 -5.99447042e-02 +9.26058367e-02 -1.71908483e-01 +2.87611876e-02 -2.37041488e-01 -3.08368057e-01 +3.71827930e-02 -1.10774398e-01 +1.26519918e-01 -8.16953480e-02 +6.17385991e-02 -3.46816182e-01 -3.75487387e-01 -6.09713700e-03 +2.02958047e-01 +7.80968964e-02 -2.09979758e-01 +2.03082368e-01 -3.17112744e-01 -3.23823363e-01 -3.68043900e-01 +1.87322438e-01 -1.57159343e-01 +1.07059479e-01 -1.33523360e-01 +1.80906400e-01 -4.30931836e-01 +5.88550493e-02 +1.77915320e-01 -1.57068804e-01 -2.86747783e-01 -4.02587503e-02 -1.51178107e-01 -3.64710838e-02 +1.28359199e-01 +4.00699154e-02 -3.22744966e-01 +1.26175746e-01 -1.79908261e-01 -1.01791304e-02 +1.83538452e-01 +1.77955180e-02 -4.40256059e-01 -2.76532620e-01 +1.82268351e-01 -2.26927027e-01 -2.09700435e-01 +1.27783224e-01 +2.17275575e-01 +1.88516364e-01 -2.10564122e-01 -6.08215809e-01 +3.91683310e-01 -7.66520277e-02 -5.00730611e-02 -4.73522425e-01 +1.68753583e-02 -2.97898173e-01 +1.79191813e-01 -3.48809361e-01 +1.43975765e-01 -3.40224981e-01 -3.94474149e-01 +2.25360617e-02 +1.81008264e-01 -4.37338352e-01 -3.51606995e-01 -3.63561995e-02 -3.43962610e-02 +4.06659216e-01 -2.89279789e-01 -2.29469940e-01 -3.84409159e-01 -1.69154316e-01 +2.15427607e-01 -1.47298172e-01 -1.43919855e-01 +3.45822066e-01 +2.05965087e-01 -2.81896293e-01 -1.89187992e-02 -9.94060487e-02 -4.18945134e-01 +3.57940316e-01 -5.58226630e-02 -7.65816420e-02 +2.55180776e-01 -1.63919002e-01 +3.23878437e-01 +3.70630100e-02 +1.54584914e-01 -9.21991020e-02 +1.04904428e-01 +3.88409644e-01 +2.45251909e-01 -1.97425373e-02 +1.88717563e-02 +1.58503816e-01 +5.56043983e-02 -1.81760892e-01 +4.12341952e-02 +3.68384570e-01 -2.69671649e-01 +2.37046525e-01 +1.13770269e-01 +5.27266324e-01 +1.06151797e-01 +6.87383711e-02 -2.33376965e-01 +4.77373719e-01 +1.38483876e-02 +1.26142129e-01 +4.28566664e-01 +9.74130034e-02 +4.75424752e-02 +1.52105853e-01 +1.73473209e-01 -1.86921507e-01 +6.68412447e-02 -7.93271363e-02 +2.42623433e-01 +7.55659863e-02 -1.46956099e-02 +1.98621467e-01 +2.48197138e-01 -2.80497782e-03 +5.12030482e-01 -2.87771463e-01 +1.85882598e-01 +9.26611722e-02 +8.89136717e-02 -4.70120497e-02 +2.75583416e-01 -1.01168908e-01 +9.90944207e-02 +1.69465393e-01 -4.02324833e-03 +3.93579334e-01 -1.49387062e-01 +1.10137559e-01 -1.54655144e-01 -5.54836728e-02 -2.99867004e-01 -1.08515620e-01 -4.41360846e-02 +1.00248776e-01 -3.10671479e-01 -1.14971511e-01 +1.15140356e-01 -1.13039926e-01 -1.18637562e-01 -2.35475451e-01 +1.59991443e-01 -1.99402496e-02 +1.62663106e-02 -3.62275630e-01 -2.32354909e-01 -4.51999873e-01 -1.68308958e-01 -4.11245614e-01 +5.72949797e-02 -1.22640565e-01 -5.46495378e-01 +9.44362208e-02 +1.66545913e-01 -1.99752793e-01 -4.57198083e-01 +4.58347723e-02 -2.66313702e-01 -9.48437005e-02 -3.43967170e-01 +2.07840383e-01 -2.75296628e-01 -1.79166511e-01 +1.54693335e-01 -1.70644745e-01 -3.99795294e-01 +2.14323118e-01 +2.08745956e-01 -1.24575101e-01 -1.80035606e-01 -1.96111724e-01 -5.13252616e-01 -1.68086305e-01 -2.29435995e-01 +1.28269151e-01 -1.73873678e-01 -4.05696958e-01 +4.36199099e-01 +2.28722006e-01 -8.59786049e-02 -2.14871436e-01 +7.41230622e-02 +1.70693353e-01 +2.48951674e-01 -8.00629929e-02 +3.32865007e-02 +9.11436602e-02 -2.41365179e-01 +4.73142564e-02 +1.17503315e-01 +2.46624395e-01 -3.42427969e-01 +1.24386042e-01 -2.50118226e-02 +3.43611628e-01 -1.32495806e-01 +1.15178656e-02 -2.50788301e-01 -3.92712317e-02 +2.85322309e-01 +3.47697169e-01 +2.62047261e-01 -1.84916630e-01 -2.18901619e-01 -3.75242755e-02 +1.28318712e-01 +1.30206689e-01 +1.31167173e-01 +4.77547273e-02 -1.31839186e-01 +2.95536190e-01 +2.59034067e-01 +4.18535680e-01 +1.22072101e-01 +2.22081244e-01 +3.07506770e-01 -1.65708989e-01 -3.29338461e-01 -1.02584057e-01 +1.59325749e-01 +1.02487400e-01 +3.08785349e-01 -3.44395876e-01 +1.90616563e-01 +8.90253335e-02 +1.40695155e-01 +1.86499953e-01 +2.94046663e-02 +1.49385601e-01 -6.02791607e-02 +2.57761091e-01 +1.32905900e-01 +1.11630308e-02 +2.77874589e-01 -8.32968857e-03 +2.07646862e-01 +1.37091309e-01 +1.14318728e-01 +3.59549075e-01 +2.43922174e-02 +1.70257196e-01 -1.67762175e-01 -2.14187145e-01 -2.39982545e-01 +2.04409242e-01 +1.26778215e-01 +2.37789422e-01 +3.65823060e-02 -1.93814203e-01 +2.42810085e-01 -2.00303197e-01 +2.28931844e-01 +1.20237216e-01 +2.22607329e-01 +2.77787238e-01 +6.30962476e-02 +1.97985351e-01 -8.54928568e-02 +1.42638627e-02 -4.28166846e-03 -9.65847373e-02 -2.80170530e-01 +9.61461365e-02 -1.52850762e-01 -2.20250085e-01 +3.38175267e-01 -9.87278968e-02 -9.01373997e-02 -2.53643215e-01 -6.45498782e-02 -8.53137672e-02 +8.54034442e-03 +2.11358294e-01 +1.56237096e-01 -3.23513262e-02 +7.96303004e-02 +1.96381867e-01 -1.59890398e-01 -9.77632031e-02 -6.02528118e-02 -3.84394117e-02 -2.03144312e-01 -1.61672290e-02 -3.78479287e-02 -1.29814846e-02 +2.25259773e-02 +4.10630330e-02 +1.57032713e-01 -7.50035718e-02 +1.91535592e-01 -1.89070642e-01 +2.57325858e-01 +1.92005396e-01 -1.15678608e-02 +1.15038902e-01 +9.34352428e-02 -1.75441429e-01 +1.52671173e-01 -6.89026760e-03 +3.35785956e-03 -6.41002357e-02 +2.02393368e-01 +2.50713468e-01 +5.09693287e-03 -4.29476909e-02 +1.53945252e-01 -1.63431197e-01 -1.78732444e-02 -1.15672782e-01 +4.35078740e-02 -1.51073381e-01 -1.40304729e-01 -1.91305429e-01 -1.40551701e-01 -1.98432673e-02 +2.45161504e-02 +2.38379594e-02 +1.02369435e-01 +2.14829952e-01 +1.37998834e-01 -1.39118701e-01 +2.45360285e-01 -1.59640253e-01 -6.75401166e-02 -2.78943360e-01 -8.84768218e-02 -5.91390580e-02 +3.61651361e-01 -1.81129165e-02 -2.67740995e-01 -2.39470210e-02 +1.72685474e-01 -1.22024780e-02 +7.36905932e-02 +2.26051897e-01 -5.11380099e-02 +8.39837566e-02 -1.40031263e-01 -4.84625176e-02 -1.55360743e-01 +3.01465213e-01 -1.63775146e-01 +2.14872003e-01 +2.15045750e-01 +5.02677672e-02 +3.75850275e-02 -1.47375494e-01 -9.92243662e-02 +1.37459040e-01 -7.98346475e-02 +1.93452373e-01 +1.93395726e-02 -1.96633916e-02 +1.68110222e-01 -1.81360804e-02 +6.51549548e-02 -7.94670656e-02 -3.25114541e-02 -1.03619292e-01 +5.66660948e-02 +1.96010515e-01 -1.74521804e-01 +8.19771886e-02 -1.58085212e-01 -1.89725637e-01 +9.28336903e-02 -1.74458519e-01 +2.64457583e-01 +1.02418242e-03 -2.30760023e-01 +3.09777021e-01 -1.55087575e-01 +6.46077394e-02 -1.62114590e-01 -1.98101252e-01 -1.28724933e-01 +2.77702492e-02 -1.64819643e-01 +1.38549909e-01 +2.27893423e-02 -3.41424882e-01 -1.34542167e-01 -1.14812374e-01 -3.88356507e-01 -5.86818419e-02 -2.52359331e-01 +6.74772933e-02 -2.59925753e-01 +6.26630783e-02 -2.77426451e-01 +1.98244080e-01 +8.98114070e-02 +2.67121762e-01 +2.59719968e-01 -1.37836754e-01 +2.13207960e-01 +1.11314759e-01 -1.02799214e-01 -1.04073800e-01 -1.80174395e-01 -1.28535211e-01 +3.53197694e-01 -2.47465700e-01 -2.19101846e-01 +1.54328883e-01 -2.17698254e-02 +6.51927665e-02 -1.47531405e-01 +4.31261733e-02 -2.26614967e-01 +7.80951157e-02 -5.55536821e-02 -1.98047236e-01 -1.60317436e-01 +8.92794654e-02 -4.44113696e-03 -1.28444076e-01 -2.35726550e-01 -7.28031099e-02 -3.41212481e-01 +7.74626508e-02 -1.57264248e-01 -4.40655500e-01 -3.32196027e-01 +7.54834060e-03 -4.25235838e-01 -1.91612005e-01 -4.11878049e-01 -9.80591122e-03 -9.49278921e-02 +1.02551967e-01 -2.45083466e-01 -4.25181687e-01 -1.82305068e-01 -2.90116131e-01 +1.16887093e-01 +1.75992355e-01 -1.24300264e-01 +3.89768243e-01 -2.54923910e-01 -2.12185681e-01 +2.91527808e-01 -3.99203151e-01 +1.24382809e-01 -1.76483333e-01 -1.61241382e-01 -1.30948976e-01 -2.33894791e-02 -3.50159854e-01 +9.86014977e-02 -2.59254515e-01 +3.67661193e-03 -1.19422674e-01 +3.90669182e-02 +9.41032171e-02 -2.55075663e-01 -4.15649787e-02 -1.12337999e-01 +9.66721773e-02 +1.26287537e-02 -4.77678269e-01 -9.24535654e-03 -2.23160595e-01 -1.41405627e-01 -4.29323047e-01 +5.54285310e-02 +1.86845779e-01 +3.09263542e-02 -2.80983061e-01 -7.28787556e-02 +1.96359809e-02 -1.56410500e-01 +2.57248115e-02 -4.37320322e-02 -5.78203425e-02 -4.67266366e-02 -3.30375314e-01 +6.56058416e-02 -1.35769799e-01 +3.54559980e-02 +8.91690478e-02 +1.29534230e-01 -3.27037810e-03 +5.52652292e-02 -7.17658922e-02 +1.91025183e-01 +1.24357361e-02 +4.11533415e-02 -8.47431496e-02 +1.11773096e-01 -1.43026471e-01 -7.82228820e-03 -4.26871888e-02 -1.92980200e-01 +2.91346639e-01 -2.42747158e-01 -3.61590236e-02 +8.74069855e-02 -2.33083040e-01 -1.61721021e-01 +2.25549832e-01 +1.75044000e-01 -1.97743848e-01 -1.21844538e-01 -2.50132978e-01 -6.73578233e-02 -6.08318411e-02 -2.67440528e-02 -2.29758292e-01 +1.25494391e-01 -4.39361520e-02 +2.32585087e-01 -1.37065902e-01 -2.71028113e-02 +2.71545708e-01 +2.80361056e-01 -4.11819443e-02 -5.62047884e-02 -1.83890417e-01 -1.32010669e-01 +9.39047411e-02 +2.95422792e-01 -1.89642027e-01 -2.48947203e-01 +2.55558282e-01 -2.44535342e-01 -1.25619173e-01 
#Parameter# /_5 {50} 801 ZERO_GRAD
-2.36059070e-01 -1.77160367e-01 +2.19968677e-01 +7.12930933e-02 -1.91615313e-01 -5.71389735e-01 -2.82690823e-01 -2.05830425e-01 +1.42522022e-01 -1.30534545e-01 -4.73566949e-02 +4.60730568e-02 -3.34150434e-01 -3.86572778e-01 +3.45524520e-01 -1.72296092e-01 -4.01009113e-01 -3.39752704e-01 +1.05501652e-01 -2.29266390e-01 +2.05967262e-01 -4.55791384e-01 -1.24323696e-01 -2.37084851e-02 -5.00669062e-01 -6.40859175e-03 +2.26031408e-01 -4.91327345e-02 -3.98248464e-01 -1.63335595e-02 -2.96406835e-01 +3.12087834e-01 -7.11175203e-02 -1.92319274e-01 +4.06884179e-02 -2.80638695e-01 +8.18525553e-02 -2.18975306e-01 -3.11122686e-01 +2.71479547e-01 +1.18258357e-01 -4.54499662e-01 -4.47256923e-01 +8.43888819e-02 -5.55340707e-01 +2.44092301e-01 +7.81647488e-02 +1.92591667e-01 +1.65607005e-01 -1.97165221e-01 
#Parameter# /_6 {50,3} 2401 ZERO_GRAD
+1.23484582e-01 -2.98835069e-01 -9.95965898e-02 +1.34344339e-01 -1.08797565e-01 +9.36024487e-02 +2.00726658e-01 -2.30535090e-01 -1.86301470e-01 -1.42610058e-01 -9.81908739e-02 -1.20296642e-01 +3.13381463e-01 +2.60112196e-01 -1.35124832e-01 -3.19885492e-01 +9.23365355e-03 -1.48372635e-01 +2.65134186e-01 +2.88617015e-02 +9.58023071e-02 -1.03358358e-01 +2.05992848e-01 +3.04312021e-01 -9.06371027e-02 +1.62301064e-01 -1.14446148e-01 -1.62849545e-01 +2.35069603e-01 +1.34560257e-01 -2.24383757e-01 -1.92441851e-01 -4.26003039e-02 -2.29786664e-01 +2.40652949e-01 -6.82891607e-02 -1.43482760e-01 +1.83665663e-01 +3.24833184e-01 -8.15605521e-02 -1.24835759e-01 +2.85876125e-01 -1.02745622e-01 -7.79128075e-03 +2.07905382e-01 -1.53692663e-02 -2.82857597e-01 +1.46383524e-01 +2.94760793e-01 +7.32439458e-02 -3.36765945e-02 -1.62445784e-01 +3.26812595e-01 -6.18550181e-02 -4.45067883e-02 -1.78139195e-01 -1.64767101e-01 +2.53080577e-01 -2.85950303e-02 -1.05720192e-01 -2.36257017e-01 +1.02651089e-01 -5.27981222e-02 +1.25531822e-01 -2.70139396e-01 -2.64536738e-01 +1.50687963e-01 +2.63280362e-01 -6.58899546e-03 -2.70129442e-02 -5.19286692e-02 +3.21130604e-01 +3.18589777e-01 -2.50920773e-01 +2.91762918e-01 +1.53101206e-01 +2.34237641e-01 +1.64743215e-01 +3.10183018e-01 +5.28072715e-02 -1.16272449e-01 +2.61870891e-01 +2.84541249e-02 +5.48382103e-02 -1.09840512e-01 +1.16840363e-01 -8.12758505e-02 -2.46761113e-01 -3.06685269e-02 +2.51448423e-01 +1.57478750e-01 +1.07212067e-01 +1.58675164e-01 -2.14971244e-01 +3.02761227e-01 +1.51264787e-01 -2.68015623e-01 +3.21295053e-01 -1.17938519e-01 -1.12703785e-01 -1.00984573e-01 +1.00749135e-02 -3.86741757e-03 +1.45913541e-01 -2.40654290e-01 +1.49663687e-02 +2.46709496e-01 +2.19967335e-01 -9.43887830e-02 -8.56742263e-02 +1.55147344e-01 +3.02459210e-01 +2.78483927e-02 +3.03996116e-01 -1.75777569e-01 +2.58292824e-01 -3.24047804e-02 +1.26695991e-01 -2.47751772e-02 +1.49791330e-01 -3.61486971e-02 +1.94002390e-02 +1.12659276e-01 +1.92406863e-01 +1.97624177e-01 -7.02874362e-02 -1.37948781e-01 -9.45419222e-02 +2.06953079e-01 +1.24447912e-01 +5.66891432e-02 +2.14639306e-02 +1.32281274e-01 +1.90786421e-02 -6.99347258e-03 +2.64795572e-01 +2.43589848e-01 -1.98006749e-01 +1.45642042e-01 +2.57420748e-01 -3.69546711e-02 +2.47984141e-01 +9.96458530e-03 -2.07090601e-01 +2.81578690e-01 -2.69544929e-01 -3.02936077e-01 -2.74013758e-01 -2.89551944e-01 -3.10393661e-01 
#Parameter# /_7 {50,50} 40001 ZERO_GRAD
-1.50274485e-01 +1.37540445e-01 -2.08471030e-01 +7.41718560e-02 -8.12651366e-02 -2.19061717e-01 -1.16780981e-01 -6.39363378e-02 +2.40359589e-01 +4.31791097e-02 -1.13392994e-01 -2.74721086e-02 +2.16097161e-01 +6.24754280e-02 +4.73458022e-02 +4.11664397e-02 -6.95666373e-02 -1.87053233e-01 -8.42275321e-02 +1.62021503e-01 +1.39378324e-01 -1.89530954e-01 +1.03514418e-01 +2.26195350e-01 +2.44162753e-01 -1.93555683e-01 -6.35724068e-02 +7.82742053e-02 -1.15919143e-01 -4.89112586e-02 -1.04942262e-01 -1.65426344e-01 -7.43649900e-03 -2.27329656e-01 +1.93536028e-01 -2.27607921e-01 +2.42548212e-01 +4.82472330e-02 -5.80358803e-02 -1.33155301e-01 +3.00018936e-02 -1.91051066e-02 +2.02282801e-01 -2.00889915e-01 -1.52163729e-01 +1.41391978e-01 +2.15011552e-01 +1.87748507e-01 -1.16609484e-01 -1.57592505e-01 +1.08594105e-01 +1.00575522e-01 +1.52147427e-01 -2.78211385e-02 +2.08018020e-01 -1.54202431e-01 +2.51417309e-02 -1.39645666e-01 -1.81582808e-01 -1.68315321e-01 +1.01441696e-01 -1.47320390e-01 +5.65643460e-02 +6.51402771e-03 -5.63517213e-02 -2.66446322e-02 -3.08743566e-02 +1.48144200e-01 -1.46976650e-01 +1.61295399e-01 +1.55704007e-01 +1.91497132e-01 +2.09965333e-01 +1.60929129e-01 -1.67603225e-01 +2.13978216e-01 +8.78405720e-02 -1.41747728e-01 -2.17261791e-01 -1.32807598e-01 -4.81607169e-02 -4.34618294e-02 -7.86989927e-02 -2.90386975e-02 +7.03964084e-02 -3.44273746e-02 +2.01521024e-01 -1.58332840e-01 +1.35413542e-01 -2.67419815e-02 +4.00733501e-02 -1.36900634e-01 -2.08147183e-01 -1.21949673e-01 +1.48192093e-01 +1.26306638e-01 +1.55673176e-02 -1.56960517e-01 -1.45170450e-01 -1.14051133e-01 -3.96163166e-02 -2.14266643e-01 +9.42588598e-02 -6.77606761e-02 +1.44839838e-01 +2.42249921e-01 -1.02548897e-02 +9.18804109e-03 -2.49906182e-02 +1.62160233e-01 +1.81196824e-01 -3.17020714e-02 -1.05010062e-01 -1.23280510e-01 +1.04732066e-02 +1.38697818e-01 -2.44239479e-01 +1.06613338e-03 -1.76691324e-01 +1.06842533e-01 +1.17483363e-01 -1.87259346e-01 -2.32149094e-01 -1.94369137e-01 -1.55398697e-01 +2.60392278e-02 -3.61983031e-02 -6.77853823e-03 -4.06580120e-02 +7.67399818e-02 +7.41248876e-02 +4.42335457e-02 -1.35830909e-01 -2.03663707e-02 -7.66487122e-02 +1.36321291e-01 +1.12798914e-01 -3.86639237e-02 -1.98987871e-01 -2.92918384e-02 +2.21275494e-01 +3.06734592e-02 -2.35576957e-01 +8.32476765e-02 -1.27960414e-01 +1.80735633e-01 -1.26281172e-01 +9.45728272e-02 -5.37714064e-02 +1.17406443e-01 -4.31576371e-03 -9.15617943e-02 -6.68009520e-02 -2.30491534e-01 +1.35909542e-01 +1.11653700e-01 -1.60485432e-01 +1.60202637e-01 +7.52208084e-02 -8.06825310e-02 -1.90549910e-01 -1.28406048e-01 -1.83577254e-01 -9.71204042e-03 +1.19624242e-01 -2.22004026e-01 -8.61450136e-02 +9.81727093e-02 -1.76624447e-01 -2.43344158e-02 -7.08983541e-02 -1.56724513e-01 +8.70128423e-02 -2.01089650e-01 +1.56544596e-02 +1.32754281e-01 -1.17925063e-01 +1.07934847e-01 +1.81957081e-01 +1.71670660e-01 -6.01325184e-02 +2.41203442e-01 +5.56473434e-03 +1.45031646e-01 +1.52725235e-01 -8.34194571e-02 -1.62669718e-01 +2.31938407e-01 +1.73307404e-01 -1.16885394e-01 -1.96820229e-01 -8.60887468e-02 -2.43671566e-01 +7.83493072e-02 +2.92432755e-02 -6.19678944e-02 -1.13678172e-01 +1.91320017e-01 +2.31356725e-01 +3.27942520e-02 -7.74188936e-02 -8.10798407e-02 +1.39483646e-01 -2.23330826e-01 +3.96550149e-02 -1.96633577e-01 +1.34486452e-01 -8.68333876e-03 -7.93420821e-02 +1.95177153e-01 +5.32026142e-02 -1.92806721e-01 +4.52500135e-02 +1.07306376e-01 +1.82409182e-01 -7.79385120e-02 +2.02299193e-01 +1.68345317e-01 -3.71907502e-02 -1.03042006e-01 +8.80526453e-02 +2.72402316e-02 +1.92530438e-01 +2.34530911e-01 +2.22517624e-01 -8.40809196e-02 -1.78802818e-01 -8.68611038e-03 +1.45118982e-02 +9.81235951e-02 -1.27786547e-01 -4.93736565e-03 +7.21051842e-02 -2.21670121e-02 -1.06202647e-01 -1.44964457e-02 -6.12286925e-02 +1.06214717e-01 -1.05566382e-01 +3.75873297e-02 -8.02589059e-02 +1.91123769e-01 +1.63968667e-01 +7.97203630e-02 -1.83440372e-01 +4.21787351e-02 +1.97070524e-01 -5.59612811e-02 +1.91191778e-01 +8.46441090e-03 +9.98198539e-02 +4.43636030e-02 +8.79459530e-02 +1.01951078e-01 -2.14103878e-01 +3.97270471e-02 +2.31197044e-01 -1.30189106e-01 +1.32803038e-01 +1.69879302e-01 +1.70146301e-01 +1.34292439e-01 -7.69670159e-02 -2.28512228e-01 -1.47779718e-01 +2.32142821e-01 +1.10901430e-01 +1.12167910e-01 -1.07192889e-01 +1.55203387e-01 +1.86650306e-02 -1.40615731e-01 -4.55269516e-02 -1.07180178e-02 +1.47575334e-01 +1.98425278e-01 +1.44267663e-01 +1.72630593e-01 +1.83776766e-02 -1.93371534e-01 +1.49772361e-01 -1.99174821e-01 +1.40291497e-01 +1.23882160e-01 +2.42661104e-01 -2.43949115e-01 +1.89985141e-01 +4.18620855e-02 -1.06246322e-01 +1.59408912e-01 +2.02363625e-01 -5.56978434e-02 +5.06754220e-03 +4.77515906e-02 -1.22647889e-01 -2.37318784e-01 -5.24145216e-02 -1.39876753e-01 -7.07986951e-02 -1.11750871e-01 +1.90916494e-01 +3.51710618e-03 +8.13391060e-02 -1.69605315e-01 -6.55985922e-02 -2.39801124e-01 -8.63832533e-02 +1.59116834e-02 -2.15126619e-01 +3.81909311e-03 +7.26961941e-02 +1.88907161e-01 -5.56344688e-02 -9.34338570e-02 -6.55010045e-02 +6.94754273e-02 +1.72558874e-02 -9.17844474e-02 -2.02967882e-01 +1.37776181e-01 +2.20519200e-01 +1.33629605e-01 +2.22679526e-02 +1.09844074e-01 -2.11880118e-01 +1.16181001e-01 -1.74167603e-01 +1.59179643e-01 -1.17992580e-01 -2.70236135e-02 +1.85769483e-01 +7.98239261e-02 -3.65196466e-02 +1.64047047e-01 +1.23165473e-01 +1.01527050e-01 +2.63458639e-02 -1.00296915e-01 +6.67409152e-02 +5.36506921e-02 -2.30679631e-01 -1.12203449e-01 +1.67161807e-01 -2.27956563e-01 +1.33342549e-01 +2.04156294e-01 +1.66120246e-01 -1.59029096e-01 -1.26810074e-01 +5.14164120e-02 +1.27496347e-01 -1.74171776e-02 -1.32571220e-01 +6.30011410e-02 +7.64281899e-02 +1.71874419e-01 -1.13820046e-01 -9.74924564e-02 +1.33893922e-01 -1.49857610e-01 -6.63095713e-03 -1.23194009e-02 -7.40119666e-02 +6.46803826e-02 -8.16292316e-02 -1.02271020e-01 +1.16316155e-01 +6.96098059e-02 -3.67529988e-02 -1.05305016e-03 +1.14067867e-01 +1.24630168e-01 -8.77172053e-02 +1.96650520e-01 +4.28544730e-02 +1.92419305e-01 +1.22519210e-01 +1.14007786e-01 +1.34979352e-01 +1.41180113e-01 -2.09931552e-01 -1.86965168e-02 +2.26705238e-01 -6.75376505e-02 -1.98969603e-01 -1.50736362e-01 -1.08986884e-01 +1.94719389e-01 +1.84342816e-01 -1.60362348e-01 -2.37829313e-01 -1.30144551e-01 +2.35170051e-01 -5.39416969e-02 -2.27990299e-01 -1.43069685e-01 +6.62731975e-02 -1.94033384e-01 -2.65442729e-02 +5.08638471e-02 +4.15309519e-02 +3.34338695e-02 +1.78870708e-02 -1.46257341e-01 -1.13229498e-01 +1.15925223e-02 +1.67803392e-01 +6.42061085e-02 -2.09999502e-01 +1.36827081e-02 -1.49289787e-01 -4.67938185e-03 -1.92658901e-01 +2.20031217e-01 +1.96676403e-02 -2.14468881e-01 -2.34031752e-01 +1.93243369e-01 +1.67158350e-01 -1.76337630e-01 +1.91577569e-01 -1.97898000e-01 -1.59366444e-01 +2.11225018e-01 +4.55179363e-02 -7.91028738e-02 +2.20585659e-01 +6.34753853e-02 -2.31952950e-01 +1.61266938e-01 +1.97317049e-01 -6.87894225e-02 +1.27210394e-01 +2.09072337e-01 -9.16771889e-02 -2.37158060e-01 -1.49319470e-01 +2.43535802e-01 -1.41001329e-01 -3.70448232e-02 -1.97204694e-01 -1.86849535e-01 +9.46701914e-02 -1.55209005e-01 -2.44742036e-01 -2.43494272e-01 -2.21848786e-02 -2.43788525e-01 +9.33440775e-02 -1.63591072e-01 -1.92441940e-01 +9.57213789e-02 +1.29329100e-01 +5.96165806e-02 -1.47949606e-01 +2.07265928e-01 +1.82602897e-01 +1.66427568e-01 +1.76309660e-01 +4.44859266e-04 +2.43503466e-01 +1.42618760e-01 +5.62445074e-02 +1.57790557e-01 -2.02172652e-01 +1.68461576e-01 +1.62098542e-01 -2.12894350e-01 -6.12471849e-02 -9.92434174e-02 -3.46764624e-02 +5.00885993e-02 +1.72001049e-01 +1.25094101e-01 +7.85574466e-02 -9.83841121e-02 +7.95253962e-02 +2.39350840e-01 -1.06178582e-01 +3.07907611e-02 +1.54883578e-01 +1.33689478e-01 -2.31268406e-01 -1.66292816e-01 +2.14148149e-01 +1.48905888e-01 +2.05616042e-01 -2.52338648e-02 +1.43313855e-02 +2.22117141e-01 -1.57877803e-04 -1.41322166e-01 -4.26709205e-02 -1.66912302e-01 -1.15434632e-01 -1.43358767e-01 +9.77734774e-02 -1.37397036e-01 -1.68360025e-01 -1.84689596e-01 -1.71995521e-01 +2.35075206e-02 +1.08665511e-01 -2.02128708e-01 -1.57085672e-01 -1.31469518e-02 +1.36077777e-01 +2.58720368e-02 -2.41865292e-01 -1.51086241e-01 -1.85243979e-01 -1.86429113e-01 -3.64080966e-02 +1.74439207e-01 +3.96783799e-02 +1.93482980e-01 -2.20824465e-01 +2.04280868e-01 +2.60900408e-02 -1.82725042e-01 -5.65836877e-02 +5.46822995e-02 -1.61866456e-01 +1.24922529e-01 -3.40288430e-02 -2.65769660e-03 -9.01615173e-02 -1.41910717e-01 +1.34763435e-01 +4.01645452e-02 +1.55583516e-01 -1.56841874e-01 +1.97712138e-01 -8.83784294e-02 -3.08184922e-02 -1.36292562e-01 -1.76351368e-01 -2.14191213e-01 +2.78880447e-02 -1.63878798e-02 -1.64113969e-01 +4.37669307e-02 -5.91419190e-02 -9.79743749e-02 +1.67914525e-01 +1.65198699e-01 -1.42644152e-01 -6.88903779e-02 +6.94604367e-02 +2.16542974e-01 -8.90814960e-02 +4.03202623e-02 +2.20507160e-01 +1.59912750e-01 +1.67108327e-02 -1.38393551e-01 +3.28192264e-02 -1.24842077e-02 +1.76877394e-01 +1.79349825e-01 -2.35270187e-01 -6.13325983e-02 +7.48953968e-02 +9.37940925e-02 -2.55860090e-02 -4.08822149e-02 -2.42406040e-01 +1.25377014e-01 +9.54045355e-03 -9.95244235e-02 -1.18702576e-01 +9.35073346e-02 -7.16340393e-02 +1.88429072e-01 +1.05205581e-01 +2.08502561e-02 +1.26243308e-01 +1.67783067e-01 -1.25623316e-01 +2.32855931e-01 -4.68887687e-02 +1.85087487e-01 -1.98489785e-01 +1.49033651e-01 +6.15249574e-03 -2.03606278e-01 +1.39098600e-01 -3.42560709e-02 -8.72482210e-02 -1.41053110e-01 +1.46250501e-01 +1.15051910e-01 -8.77053589e-02 -9.05994028e-02 +1.08582512e-01 -2.40241036e-01 -9.71955061e-03 -1.41020983e-01 -3.74043882e-02 -1.71790645e-01 -1.11555368e-01 -1.62408158e-01 -1.36720747e-01 +1.29751116e-02 -2.27148861e-01 -1.93952397e-01 +1.23213813e-01 -2.42531374e-01 +1.80911884e-01 +2.25756660e-01 +1.92044750e-01 +1.58817753e-01 -5.13839722e-02 +2.14321956e-01 -1.99823231e-02 +2.37293139e-01 +1.38031557e-01 +2.31015369e-01 +2.11884812e-01 -4.62398380e-02 +2.04220846e-01 +2.77471095e-02 -4.21293676e-02 +1.91154554e-01 -2.42121160e-01 +1.90559179e-02 -3.94538492e-02 -1.68353692e-01 -1.05592459e-02 -8.35333616e-02 +2.19958976e-01 -1.03898957e-01 -1.40934035e-01 +1.37837231e-03 -1.21649392e-01 +2.27186635e-01 +2.42889002e-01 -3.30389887e-02 +1.77139834e-01 -1.67274252e-01 -1.54517442e-02 +1.94559887e-01 +2.38750681e-01 +1.16082385e-01 +2.32035026e-01 -1.72325075e-01 -1.31985039e-01 +6.73386008e-02 -1.78834260e-01 +1.09440967e-01 -1.57294154e-01 +8.84059519e-02 -4.66126204e-02 +1.33143768e-01 +1.63380578e-01 -1.46524489e-01 +1.14439577e-02 +2.63700336e-02 -2.29252279e-02 -2.17232108e-02 +1.50763020e-01 +6.69819266e-02 +1.49255529e-01 +1.10304207e-02 -1.04050934e-02 +4.56184000e-02 +9.96052474e-02 +1.40118763e-01 -1.00126788e-01 +2.93132216e-02 +2.03797832e-01 +6.52766675e-02 +2.23548561e-02 -6.40117377e-02 -2.09552556e-01 -1.12353265e-02 +8.15844685e-02 -1.37093380e-01 +1.65786192e-01 -1.84707001e-01 -1.55339181e-01 -2.28816047e-01 +3.24526578e-02 -1.51579678e-01 -2.10873038e-02 +2.14213148e-01 +8.43394250e-02 +9.22754556e-02 +1.67549714e-01 +2.00335041e-01 +1.77995965e-01 -2.15247869e-02 -1.83048397e-02 -2.43768275e-01 +4.63347882e-02 -1.26087993e-01 -7.46190548e-04 -7.75840133e-02 +1.15719363e-01 -1.03920802e-01 -6.55674636e-02 -1.01860628e-01 -5.13201803e-02 -1.44230738e-01 +2.04348609e-01 +1.88013539e-01 -1.96230695e-01 +6.21631593e-02 -1.93648681e-01 +8.18577856e-02 +1.75143331e-02 +9.94363874e-02 +3.13511491e-03 -2.28793487e-01 +2.02189133e-01 +2.15603068e-01 +8.21287185e-02 +1.35020688e-01 -6.50429726e-02 +8.28239769e-02 -1.64866060e-01 +8.01642388e-02 +8.34839493e-02 +5.89317530e-02 -1.82595506e-01 +1.31446570e-02 -1.23571500e-01 +2.42589131e-01 -1.14699826e-01 +1.48093954e-01 -1.25134736e-01 -1.21430941e-01 -3.85062248e-02 +9.12363380e-02 -2.13239267e-01 +2.07443073e-01 -3.93664837e-02 -1.33878693e-01 -1.43915296e-01 -9.87206250e-02 -9.84056294e-03 +2.36208886e-02 -2.14019969e-01 +1.41533509e-01 +2.13176325e-01 -1.41721338e-01 +4.76103872e-02 +2.04556361e-01 -1.21401057e-01 +2.44670585e-01 +1.08490273e-01 -1.61952317e-01 +1.25351802e-01 +8.63123387e-02 +1.31441429e-01 +1.04542986e-01 +1.02135912e-01 +1.99620411e-01 +1.51837811e-01 +1.63721815e-01 +8.97100419e-02 -2.34415591e-01 +2.05978498e-01 +2.26389021e-02 +2.39008352e-01 -3.39628011e-02 +1.41983777e-02 +4.37203050e-03 -1.33615077e-01 -2.22087294e-01 +6.23035282e-02 -1.50467157e-01 -9.95187014e-02 +1.58451945e-02 -1.15952432e-01 -9.28025544e-02 -1.08452886e-01 -1.61453709e-01 -7.02691972e-02 +1.19797483e-01 +7.58871585e-02 +2.39580199e-01 +7.91762620e-02 -2.36675218e-01 +1.92334577e-01 +1.02849767e-01 +2.67115682e-02 +3.63043398e-02 -1.89380720e-01 -7.61484355e-02 +1.43936500e-01 +7.19539672e-02 -1.04335487e-01 +1.65716425e-01 -7.01525211e-02 -8.45762640e-02 -1.34365723e-01 +2.38355547e-02 +1.94694355e-01 +1.78491518e-01 +8.34198147e-02 +1.35458037e-01 +2.33817846e-02 +8.04692954e-02 -5.40536344e-02 -1.56764090e-01 -1.68690920e-01 +1.50096640e-01 -7.03690946e-03 +1.55081496e-01 -2.42932275e-01 +1.60973519e-02 -1.67177618e-03 +2.14081511e-01 -7.82293677e-02 +1.12994418e-01 -1.37468964e-01 +1.78750902e-02 -1.37033820e-01 +2.20194504e-01 +1.45832166e-01 -2.36518204e-01 -1.57891005e-01 -1.43265292e-01 -1.13353953e-01 +4.17299569e-03 -5.46111614e-02 -8.11752081e-02 +1.28777906e-01 +8.76677185e-02 +1.13453582e-01 -6.45350814e-02 +5.23393601e-02 -4.01148051e-02 +9.18913335e-02 +1.45209864e-01 +6.90810382e-03 -1.79482162e-01 +1.91470534e-02 -2.34989896e-01 +6.91129416e-02 -1.20245397e-01 +1.31584391e-01 -8.49070847e-02 +2.03063637e-02 -2.00937733e-01 +2.01137587e-01 +1.29714802e-01 -1.47180319e-01 -3.70524973e-02 +4.98342514e-03 -4.13302928e-02 +6.43494874e-02 -1.94103494e-01 -1.51451170e-01 -2.27102473e-01 +1.99160859e-01 +1.81592956e-01 +7.09630102e-02 +2.07953855e-01 +1.31823644e-01 -2.31879354e-02 -1.13017201e-01 +1.02801189e-01 -1.30574256e-02 -1.25373125e-01 -2.01693907e-01 -7.45945126e-02 +3.00646573e-02 +9.13449675e-02 -9.03604478e-02 -1.12913579e-01 -1.92683607e-01 +1.81708053e-01 +5.70105016e-03 +1.65799364e-01 +1.43506661e-01 -1.18322983e-01 -2.86242217e-02 +1.44136205e-01 -1.11704826e-01 -5.61544448e-02 +1.62100643e-02 -6.70067221e-02 +2.51628906e-02 +4.38379198e-02 -1.90249264e-01 +1.36831984e-01 -7.29533136e-02 +1.40843824e-01 +8.39945823e-02 +1.33257359e-02 -1.42814413e-01 +8.41327459e-02 +2.04900518e-01 +1.49026975e-01 +1.86162874e-01 -2.40454048e-01 +2.10144594e-01 +5.23410589e-02 -1.74875915e-01 +1.47676468e-03 -1.15407258e-02 +8.31058472e-02 -1.60090819e-01 +2.44670495e-01 +2.05720916e-01 -1.45863354e-01 +1.33712128e-01 -3.19529772e-02 +1.35463461e-01 -8.30067396e-02 -9.41241682e-02 +2.21485928e-01 +1.37807876e-02 -1.28504932e-01 -6.89751506e-02 -9.79321003e-02 +9.48935002e-02 +2.16529146e-01 -2.37982586e-01 +2.13584200e-01 -5.10728210e-02 +4.89558280e-03 +8.50195140e-02 -7.46402591e-02 -2.00975806e-01 -2.08196342e-02 +9.03736055e-03 +8.18199366e-02 -2.18660414e-01 -1.68770999e-01 +3.11000496e-02 -1.16860390e-01 +4.96610254e-02 +5.86588681e-03 -1.36743367e-01 -1.06432796e-01 +4.14116830e-02 +1.39599547e-01 -1.61424771e-01 +2.33488783e-01 +1.36599377e-01 +1.95469156e-01 -2.31223270e-01 -2.06656665e-01 -5.09739220e-02 -2.20792472e-01 -2.14569271e-01 +2.13915154e-01 +4.66553420e-02 +1.95939556e-01 -2.32465401e-01 -1.04055420e-01 -4.00856137e-04 -3.48098427e-02 -1.93946064e-03 +4.15260643e-02 +1.29245475e-01 -2.29455292e-01 +1.84307471e-01 +2.28889361e-01 +2.21561044e-02 +1.06156066e-01 +2.19559565e-01 +5.84800541e-03 -2.04981148e-01 +1.88406304e-01 -2.64910609e-02 +8.81884247e-02 -2.47840881e-02 -8.87321532e-02 +1.43607572e-01 +2.40691051e-01 -5.98713011e-02 -4.48629409e-02 -1.17610842e-02 +2.38631293e-01 -8.44496787e-02 +4.31871563e-02 +1.76140949e-01 -4.94645089e-02 -7.56233931e-05 -1.49537593e-01 +1.48798212e-01 -3.82694900e-02 +1.02051482e-01 -1.90033615e-01 -6.71747923e-02 +1.36718348e-01 +8.67298990e-02 -7.10717589e-02 +4.41870242e-02 +6.62101060e-02 +9.64374840e-03 -1.39038667e-01 +2.21108183e-01 +1.42587230e-01 +6.44286126e-02 +2.48726457e-02 +6.45629615e-02 +1.19343743e-01 +6.17593080e-02 +2.31033728e-01 +2.07293674e-01 +2.38777176e-01 +2.38909170e-01 -3.08636129e-02 +2.28727087e-01 -1.23969525e-01 -6.37853146e-03 -1.05003968e-01 +5.32055050e-02 +1.08643249e-01 +2.00146154e-01 +1.22409612e-02 +1.07259378e-01 -1.10444590e-01 +1.97383448e-01 -1.67639077e-01 -1.57833636e-01 +5.82075566e-02 +1.19855389e-01 +1.64305672e-01 -7.46304840e-02 -1.45498902e-01 +2.27010235e-01 +4.48554009e-02 +1.83346763e-01 -1.42316163e-01 -2.05694720e-01 -2.29872316e-02 -1.69176191e-01 +1.23142451e-02 +1.77679196e-01 -1.15931645e-01 +1.82645306e-01 +9.13864523e-02 -2.22801328e-01 -2.10875094e-01 +8.46665651e-02 +9.88165587e-02 +1.52644515e-03 -1.67326108e-01 +1.20398328e-01 -1.08746365e-01 -1.60453707e-01 +5.12142479e-03 +1.54967159e-02 -1.30149990e-01 +1.06053099e-01 +4.33022827e-02 -2.30279371e-01 +1.18824229e-01 -1.28229648e-01 -4.85631675e-02 +5.01727015e-02 -8.83358121e-02 +1.02602318e-01 +1.55189648e-01 +4.23322171e-02 -8.29923749e-02 +1.06109634e-01 +1.77207932e-01 +1.46567866e-01 +6.67102188e-02 +2.11900100e-01 -1.98769599e-01 -3.61013263e-02 -1.74113303e-01 +2.39621416e-01 +2.31539145e-01 -4.99202311e-03 +1.79708585e-01 -1.15461737e-01 +3.93689424e-02 +4.68401462e-02 +2.05158740e-02 +7.00506121e-02 -1.31853491e-01 +1.74000040e-01 +7.65740126e-02 +7.27827400e-02 +1.93375200e-02 -2.19527677e-01 -2.23152548e-01 +9.63037759e-02 -4.35150415e-02 +1.24151632e-01 +2.09660456e-01 +1.95653990e-01 +7.38154501e-02 +4.18605953e-02 +2.36247405e-01 -2.82401592e-02 -4.91014123e-02 -5.60271740e-03 +9.99728590e-02 +1.83306113e-01 -1.32595748e-01 +1.85818627e-01 -7.32602030e-02 -1.40127212e-01 +1.84395537e-01 +5.57109267e-02 -2.31941238e-01 -1.80832475e-01 +1.68682888e-01 -1.60619020e-02 -6.10766560e-02 +1.81983858e-02 +1.93401650e-01 +7.16285557e-02 -1.96435302e-01 -2.02034056e-01 -2.38447979e-01 +2.43788138e-01 -2.62917876e-02 -2.13076711e-01 +3.62115055e-02 -1.77677661e-01 -1.12299144e-01 -2.53989846e-02 -2.33162791e-01 -4.90043312e-02 -9.78418589e-02 -1.72385618e-01 -9.64975506e-02 -1.33013278e-01 +1.91688642e-01 -6.73705637e-02 -2.33240262e-01 -8.18400085e-03 -7.58730173e-02 -6.83398545e-02 -2.09977075e-01 -8.73729438e-02 +2.24302664e-01 +2.32759342e-01 +1.72962323e-01 -3.19218934e-02 -2.33915240e-01 +9.79079455e-02 -1.71016946e-01 -2.34830514e-01 +3.85852605e-02 -1.73405260e-02 -1.34407267e-01 -2.13013828e-01 -1.79954916e-02 +1.14374116e-01 +1.54817551e-02 -9.64252949e-02 -8.50255787e-03 +5.31106144e-02 +9.00208503e-02 +6.94944412e-02 -1.81341797e-01 -5.81082553e-02 +2.15881065e-01 +9.12781209e-02 +3.89250368e-02 -1.17401093e-01 -2.96113044e-02 +1.14049628e-01 +4.70945090e-02 +2.13906154e-01 +2.39822716e-02 -1.95691466e-01 -1.19687602e-01 +1.88519672e-01 -5.79335392e-02 -2.18126595e-01 -1.86373815e-01 +1.09872118e-01 -3.46763581e-02 +1.39255032e-01 -3.25942785e-02 -1.59956723e-01 +1.78010911e-02 -2.32774958e-01 -1.35746807e-01 -1.66789830e-01 +7.29614645e-02 +1.67811066e-02 +8.29728097e-02 +6.86735660e-02 +2.02585384e-01 +1.07580200e-01 -7.03285038e-02 +8.55268985e-02 +6.37356192e-02 -1.83193386e-01 -8.60579461e-02 +5.52027673e-02 +1.45326331e-01 +1.68832049e-01 +1.42982945e-01 -2.25334078e-01 -1.31814718e-01 -3.54583561e-02 -2.28397489e-01 +2.60614306e-02 -1.96015179e-01 -8.96336734e-02 -8.62653852e-02 +2.70400792e-02 -6.91304356e-02 -1.37085766e-02 +6.33482784e-02 -7.18555003e-02 +1.90779343e-01 +2.07425699e-01 +1.94711521e-01 -1.64211959e-01 -6.23786598e-02 +2.18198225e-01 -8.91875774e-02 +1.20216563e-01 -1.83237702e-01 +2.20649675e-01 -1.91334412e-01 +2.07971171e-01 +1.39691934e-01 -2.22292960e-01 -1.94777682e-01 +5.09006530e-02 +5.91868311e-02 -2.01892480e-01 +4.46888357e-02 +2.20896825e-01 -1.76461905e-01 +1.45723894e-01 +2.12911114e-01 -6.57380074e-02 -2.42605507e-01 +1.55158356e-01 -1.43879622e-01 +4.43246216e-02 -1.64626300e-01 +1.65925756e-01 -5.48667759e-02 -1.68715417e-01 -4.21740264e-02 +3.45524102e-02 +1.92256078e-01 -3.72188687e-02 -7.62996525e-02 -2.38190174e-01 -1.45768568e-01 +1.46264687e-01 -1.49692625e-01 +1.62349477e-01 -2.08939463e-01 -1.80155352e-01 +1.92888007e-01 +1.67291239e-01 +1.39211282e-01 +2.21968874e-01 +2.03092352e-01 -3.38604152e-02 +3.18141431e-02 -7.39183277e-02 +2.04997912e-01 +2.24649802e-01 +2.20254809e-02 -1.22034542e-01 +1.30157635e-01 +1.33960113e-01 +2.24407837e-01 +9.36071426e-02 +4.77606207e-02 +2.21730962e-01 -5.34979999e-02 +1.67800710e-01 -1.78945094e-01 +6.36540204e-02 +1.81095675e-01 -1.12053633e-01 -8.89246315e-02 +1.61555305e-01 +1.30839661e-01 -2.59360224e-02 -1.58551127e-01 +1.42327398e-02 -1.35940969e-01 +1.87355861e-01 +2.00346068e-01 -1.07712358e-01 -2.37160057e-01 -5.73818386e-02 +3.95972282e-02 -1.54806674e-02 +1.84274212e-01 +1.13918588e-01 -1.38027340e-01 +1.85570493e-01 -1.09904811e-01 -1.55499443e-01 +2.03928217e-01 +1.12940356e-01 -1.78258479e-01 +1.06103912e-01 -2.13788792e-01 -5.28280735e-02 +2.35769972e-01 -1.86558515e-01 +1.80317014e-02 -1.94692746e-01 +2.06326917e-01 +4.34413105e-02 +1.34245351e-01 -2.12328225e-01 +1.55377075e-01 -1.64539546e-01 +2.16826275e-01 +1.25280246e-01 +1.89715609e-01 +1.09753713e-01 -2.22469732e-01 -1.64099872e-01 +2.32429072e-01 +2.30188817e-02 -1.69464499e-01 -1.27943307e-02 -2.07081541e-01 -2.36605704e-02 -7.75949508e-02 +1.23083666e-01 +3.94384712e-02 -3.58723998e-02 +1.98225901e-01 -4.54415232e-02 +1.29352614e-01 +5.53929061e-02 -8.21076334e-02 +1.41117766e-01 -8.57451111e-02 +2.13341564e-02 +1.23469636e-01 +2.12124005e-01 -6.86639398e-02 +3.15559059e-02 +2.08396688e-01 +1.26174614e-01 +2.18776569e-01 +9.11322385e-02 +1.56714097e-01 -1.58744693e-01 +7.35623091e-02 +2.42968395e-01 +8.76742750e-02 +2.36588791e-01 -1.10224277e-01 -2.36953199e-01 -6.38959855e-02 +2.77140588e-02 +1.80250600e-01 +1.38930127e-01 +1.84651628e-01 +1.24527350e-01 +2.09690556e-01 -9.10128057e-02 +1.02840215e-02 -1.17558256e-01 -1.91687927e-01 +1.95354149e-01 +7.00742155e-02 -6.43192232e-02 -2.07862228e-01 -5.36095947e-02 -4.62359190e-03 -1.66844815e-01 -2.15200305e-01 -2.26895541e-01 -2.03620389e-01 +2.53803879e-02 -2.09022433e-01 +1.58154920e-01 -1.75826907e-01 +3.89624983e-02 +2.20684126e-01 -1.72602326e-01 -3.09139788e-02 +1.04403362e-01 +2.22382084e-01 -1.60298795e-02 -2.41838351e-01 -1.01665646e-01 +1.76720008e-01 +8.17907900e-02 -1.88411772e-01 -6.49555027e-02 +1.02367386e-01 +1.36913970e-01 -3.13652754e-02 -5.05523235e-02 +7.96197355e-03 -1.30931944e-01 -1.68818653e-01 +8.83743912e-02 -2.75765359e-03 +3.45374197e-02 -1.00294799e-02 -2.29502678e-01 +2.17037871e-01 +4.52478081e-02 -1.10909313e-01 -1.65302560e-01 +9.38668102e-02 +2.15978935e-01 -2.28831485e-01 +2.02032670e-01 -2.08907753e-01 -1.49571300e-02 +3.49680036e-02 +7.30595738e-02 -1.73820153e-01 -2.40856797e-01 -1.32080436e-01 +2.47906595e-02 +1.65415093e-01 -8.46704841e-03 -2.25753203e-01 +1.31398037e-01 -6.15958124e-02 +8.82371515e-02 +2.37467065e-01 -1.45261019e-01 +5.77461272e-02 +1.79341778e-01 -1.71168193e-01 -2.37414256e-01 +1.93305418e-01 -1.58824742e-01 +8.65815729e-02 -7.90929794e-03 +1.19430527e-01 -2.28608951e-01 +1.07336745e-01 -2.03150973e-01 +2.34858856e-01 -8.40700418e-02 -5.92307150e-02 -8.16253126e-02 +2.12175772e-01 +2.21435830e-01 +2.35926703e-01 +1.06246397e-01 -3.51333469e-02 +9.03537720e-02 -2.41683871e-02 +4.36468273e-02 +5.96637279e-02 +1.82535812e-01 -2.03815281e-01 -1.80108786e-01 -1.41274273e-01 -5.06108701e-02 +1.13411695e-02 -1.70770109e-01 +1.21668890e-01 +1.29125968e-01 +1.93526253e-01 +1.61777183e-01 +1.81368336e-01 -8.34687948e-02 -2.33522162e-01 +2.25475237e-01 -1.98705375e-01 -2.31718481e-01 +1.79068998e-01 +5.98773360e-04 -2.40336612e-01 +1.74385801e-01 +1.71905562e-01 +9.21674520e-02 +9.71189886e-02 +2.13312194e-01 -1.77700922e-01 +1.66605875e-01 +2.07104817e-01 +1.55514523e-01 -6.05224669e-02 -5.55205345e-03 +6.55021816e-02 +2.39714235e-02 -1.41935885e-01 +5.69147617e-02 -5.98698854e-04 -2.34265074e-01 -9.48662907e-02 -1.65716395e-01 -1.46718055e-01 +8.13714117e-02 +5.85920662e-02 -5.86208850e-02 -2.17325285e-01 +1.47338346e-01 +9.39423293e-02 +1.04987130e-01 +9.01616067e-02 -1.27462432e-01 +1.06155440e-01 -1.26396120e-03 -2.18729138e-01 -2.03779489e-01 +6.30226582e-02 -1.89551830e-01 -6.88503385e-02 +9.97301191e-02 +2.79420167e-02 +4.61460203e-02 -3.92877460e-02 +2.20962569e-01 +8.65454823e-02 -8.97513628e-02 -1.76570326e-01 -1.34333834e-01 -1.65845200e-01 +1.21170565e-01 +5.44368774e-02 -4.55871373e-02 +3.66052538e-02 +8.10280293e-02 -2.13522524e-01 +1.91294685e-01 +2.21898928e-01 -1.70729190e-01 +2.25306675e-01 +1.02254897e-02 +1.73130468e-01 -1.85687885e-01 +2.14415386e-01 +8.21523517e-02 +2.33099535e-01 -6.36136532e-03 +1.69924393e-01 +1.01326182e-01 -1.34833068e-01 -9.06201452e-02 -7.80139863e-02 +1.80196777e-01 -1.71983585e-01 -1.32190004e-01 +1.46448359e-01 -2.41959006e-01 -7.32813478e-02 +8.96940380e-02 -8.00700635e-02 +4.48493212e-02 +8.75921994e-02 -2.11234987e-01 -1.46786451e-01 -1.12196252e-01 +2.12784752e-01 +1.00914493e-01 -9.41031873e-02 -8.47529918e-02 -8.52814168e-02 -1.91877618e-01 -2.14569896e-01 +6.03118390e-02 +1.34410396e-01 +2.09786877e-01 -2.73136944e-02 -1.35527939e-01 +1.26320884e-01 +1.27290413e-01 -2.00001001e-01 -2.20742747e-01 -8.21018219e-02 -6.40640706e-02 -2.16077253e-01 +2.23271772e-01 +1.02924272e-01 +1.34436935e-02 +1.12284869e-02 +1.44572541e-01 -8.94529969e-02 -6.17386997e-02 +2.10288301e-01 +1.63880005e-01 +8.22853893e-02 -1.43932045e-01 +9.82657820e-02 +3.42924744e-02 -4.90242690e-02 +2.36818895e-01 +3.16028744e-02 +1.79622620e-02 -5.87325692e-02 +1.95423558e-01 +1.55063882e-01 +1.69376895e-01 -1.76675469e-02 -2.21988648e-01 -9.34838355e-02 +1.58355102e-01 -8.33137333e-03 +7.60793239e-02 -7.33492076e-02 -2.37607136e-01 -7.89865553e-02 +3.98699194e-02 +1.75871357e-01 +1.30251899e-01 +1.76224127e-01 +1.43850252e-01 -1.12360269e-01 +1.76102206e-01 -2.19773054e-01 +7.26812631e-02 -1.36990860e-01 +5.72566837e-02 -1.74149573e-02 -7.68474638e-02 -7.18571544e-02 -2.71520466e-02 -1.49786830e-01 +7.55296648e-03 -8.84177387e-02 +7.15434104e-02 +3.30508798e-02 +2.20862433e-01 +1.68349892e-02 -4.93250787e-03 +6.31467849e-02 +1.34932533e-01 -1.29069805e-01 +3.89193743e-02 +5.45749813e-02 +2.12945417e-01 +1.53356120e-01 -2.35792771e-01 -1.74489096e-01 -1.57747000e-01 +2.04299405e-01 +1.67235032e-01 -1.48621351e-01 -2.30091572e-01 -9.90034044e-02 -1.65415972e-01 -2.04832852e-02 -2.19310969e-01 -7.98242241e-02 +5.30668944e-02 +1.56558171e-01 -2.09913999e-02 +1.76884964e-01 +6.94096833e-02 +1.91218153e-01 -1.08265579e-01 -4.37170267e-02 +2.84316391e-02 -6.81633949e-02 -7.68204927e-02 +1.79913983e-01 +1.41070321e-01 -1.46496743e-01 +1.78315386e-01 +1.74976781e-01 +1.64873153e-02 -1.38476878e-01 +1.09709427e-01 +1.18098810e-01 +1.05868727e-02 -2.01031074e-01 +1.12291470e-01 +2.00012326e-03 -2.33462676e-01 -6.69881254e-02 +1.99290365e-02 -4.38523442e-02 +1.27087876e-01 -2.10309729e-01 -2.43983090e-01 +2.83796042e-02 -1.42689735e-01 +9.07604545e-02 +1.55811027e-01 -1.04202643e-01 -1.20049499e-01 +1.01906523e-01 -2.34487355e-02 +1.27690300e-01 -2.71434486e-02 +1.78762630e-01 +1.09247521e-01 -2.31281564e-01 +5.96062839e-03 +1.21850818e-02 -2.35887945e-01 +1.02865800e-01 +4.70080525e-02 -8.95921737e-02 -8.76329839e-03 -1.99344933e-01 -1.64602160e-01 -6.51981086e-02 -1.87117904e-01 +5.66236526e-02 -1.31868958e-01 +1.09239370e-02 -6.51981980e-02 +2.22014472e-01 +1.00523189e-01 -3.87171954e-02 +2.25253269e-01 +6.15551025e-02 -1.64894760e-01 -1.68198988e-01 -1.33579969e-03 -1.53526217e-01 +1.74708232e-01 -2.06689581e-01 +1.20085284e-01 -1.84072852e-02 -2.34076068e-01 -2.92917192e-02 -2.20655635e-01 -3.05903107e-02 -8.88015628e-02 +1.50580242e-01 -2.23743290e-01 -4.35428321e-02 -2.30894923e-01 -1.62453830e-01 -3.56913954e-02 +4.11534756e-02 -9.68263894e-02 -1.15098178e-01 -1.44634321e-01 +1.07281998e-01 +2.16677785e-03 -4.41278815e-02 -1.72939152e-01 +9.03311521e-02 -1.59282923e-01 +1.21610656e-01 +1.25457123e-01 -6.67224526e-02 +4.91666049e-02 +1.51080355e-01 -1.09831393e-02 +4.01574522e-02 -1.56656027e-01 -1.95745453e-01 +2.10165605e-01 -1.13018885e-01 +1.18361428e-01 +8.16948861e-02 +1.19080767e-01 -2.43177205e-01 +8.89926106e-02 -1.03670195e-01 +2.26223484e-01 -5.30655384e-02 -2.18128800e-01 +4.06665057e-02 -1.38792843e-01 +1.11225978e-01 +1.68932632e-01 -1.88646540e-01 -7.57247210e-03 +2.80904025e-02 -1.81658655e-01 -7.14544803e-02 +1.38213322e-01 -2.37237602e-01 +1.89009055e-01 -1.52138919e-02 +2.14375004e-01 -1.10305905e-01 +5.08752614e-02 +1.36129066e-01 +1.84662640e-03 -1.86826482e-01 -8.78786594e-02 +1.87412009e-01 +1.95662513e-01 -2.23962352e-01 +1.58419713e-01 -2.02901900e-01 +1.90129131e-02 -1.52544037e-01 +7.39384145e-02 -2.04067916e-01 +2.11988643e-01 -2.44333789e-01 -1.21509567e-01 -2.33059824e-02 +9.86698121e-02 -2.43204698e-01 +1.98462561e-01 +1.59519836e-01 -1.57366633e-01 +2.03639105e-01 +1.30986676e-01 +1.25716940e-01 -1.42219678e-01 -1.05183467e-01 +1.10526040e-01 +2.34811649e-01 +2.15126202e-01 +2.08727762e-01 +1.99807093e-01 -7.20909983e-02 +2.28564069e-01 -1.14208713e-01 +1.77113935e-01 -1.01175889e-01 -1.35160133e-01 +1.94762200e-02 -1.55138403e-01 +1.46795467e-01 -2.08625123e-01 -8.07385743e-02 +1.68612450e-02 -1.35829002e-02 +1.99879304e-01 +1.90629348e-01 +4.36969846e-02 -2.06633940e-01 -1.57106370e-02 +9.65210348e-02 +4.34996635e-02 +1.54793724e-01 -9.95101333e-02 -8.63645822e-02 -8.52111131e-02 +5.78648299e-02 -2.24259198e-02 -2.43634969e-01 -4.34212983e-02 +9.12170112e-03 +1.89311758e-01 +1.48845628e-01 -1.38734043e-01 -1.42909139e-02 -9.33510959e-02 +1.43477067e-01 +1.14397213e-01 +2.28331968e-01 -1.52708143e-02 +1.88046023e-01 -1.36571020e-01 -1.80939436e-02 +4.56264466e-02 +2.43244782e-01 +4.69455868e-02 +3.50028276e-04 -2.31985182e-01 -1.67043567e-01 +1.58507124e-01 +6.30089194e-02 -7.14435279e-02 +2.01480880e-01 -7.87233710e-02 +2.19300017e-01 +1.33843943e-01 -1.08240858e-01 -2.09302083e-01 +1.53986976e-01 -1.13343328e-01 +1.25826821e-01 +3.27844918e-03 -1.80390149e-01 -1.53614253e-01 +2.85044163e-02 -1.05535865e-01 -1.68567389e-01 +6.82547688e-04 -1.23126589e-01 +1.00176170e-01 -1.67432874e-01 -6.99870437e-02 -1.83274001e-01 -8.59287828e-02 -7.89043903e-02 -2.02025980e-01 +2.05492720e-01 -1.81750357e-02 +1.85243949e-01 +1.02185145e-01 +5.29625863e-02 -2.13149026e-01 -1.22064546e-01 -7.24912584e-02 +7.66348988e-02 -1.71602607e-01 +8.67884904e-02 -1.82221979e-01 +2.87527293e-02 +1.90498814e-01 -9.51577574e-02 +1.97882161e-01 -1.71146601e-01 -2.35075906e-01 -1.75795898e-01 -1.18249923e-01 +1.72367558e-01 -2.79474258e-02 +1.18651792e-01 +9.34352726e-02 -3.21041644e-02 -8.25046450e-02 -2.41735324e-01 -1.18687183e-01 -2.70508081e-02 -1.52888462e-01 +1.96165517e-01 +1.89895779e-02 +1.50586769e-01 +3.85970920e-02 -1.69988319e-01 -1.28709450e-01 +4.88315672e-02 +4.63503748e-02 -1.58282146e-01 -8.24957341e-02 +1.40297368e-01 -1.51580259e-01 -7.64183402e-02 +1.14058182e-01 +8.70108455e-02 -1.77418530e-01 -3.00274938e-02 -2.13413864e-01 +1.42165676e-01 +1.53238073e-01 -8.94657224e-02 -5.60327172e-02 +1.61657497e-01 +1.70236275e-01 +1.40725866e-01 +2.15624794e-01 +5.13778776e-02 +7.82482773e-02 +9.77687538e-03 -1.77840337e-01 -2.22267821e-01 +2.33241215e-01 -1.65706187e-01 -2.27100790e-01 +2.10558429e-01 -7.28481710e-02 +2.03175917e-01 +5.93185276e-02 +4.97928411e-02 -9.58962739e-03 +1.58629730e-01 -1.64680988e-01 -8.77351314e-02 +1.82322711e-02 -2.31812641e-01 -1.65475905e-02 +1.77613005e-01 -9.96212959e-02 +1.75015911e-01 +2.89793164e-02 -2.05530211e-01 -2.30190873e-01 +1.08878389e-01 -1.38311580e-01 -2.39295915e-01 -4.07278538e-04 -1.87496632e-01 -9.11038071e-02 -1.49642363e-01 -2.11655721e-01 +2.22959071e-02 -7.81401545e-02 +8.64074379e-02 -1.18812069e-01 +1.26325116e-01 -1.41789705e-01 +1.66562840e-01 -3.41369212e-02 -1.56920165e-01 +1.63091257e-01 +1.93314567e-01 -2.06507295e-01 +9.31612104e-02 +8.41659158e-02 +2.10384235e-01 -1.62148684e-01 -8.36706012e-02 -3.31939906e-02 -1.29625738e-01 +3.09346169e-02 -3.01255882e-02 +4.37367707e-02 -6.87338412e-02 +1.39139012e-01 -1.85406536e-01 +1.72919914e-01 -1.25789568e-01 -1.51749700e-01 +1.84996322e-01 +4.40927297e-02 +1.07411221e-01 +1.92476586e-01 +5.00134677e-02 -1.15450472e-02 -1.11943036e-02 +4.11976874e-03 +2.74342149e-02 -1.41107947e-01 +1.06794074e-01 -9.09179449e-03 +1.06122389e-01 +2.73150653e-02 +5.39948493e-02 +2.30387643e-01 -8.87275934e-02 +1.46345451e-01 +1.67540744e-01 -1.10781774e-01 +9.94717032e-02 +2.34193787e-01 -2.29262426e-01 +1.35725155e-01 -1.67734951e-01 +1.43778518e-01 -2.40353957e-01 +2.76329964e-02 -1.08608767e-01 +3.09306383e-03 +2.30350718e-01 +1.30015597e-01 +9.59608406e-02 -1.32438749e-01 +1.18622169e-01 -7.79736191e-02 -1.08634353e-01 +3.44481021e-02 -1.20619237e-01 +4.02152091e-02 -8.42240155e-02 -9.13795829e-03 +4.68365103e-02 +2.01642528e-01 -2.23235756e-01 +6.41169101e-02 -1.78496540e-02 -2.07110539e-01 -6.52627647e-03 -1.82241648e-02 -6.40487522e-02 +1.61004215e-02 -7.98291862e-02 -1.81978881e-01 +1.80694297e-01 -2.08171010e-02 +1.63617805e-01 +2.26950034e-01 +1.43076330e-02 -1.65171355e-01 -2.12564468e-02 -2.06494808e-01 +2.29311958e-01 -2.40873531e-01 +1.09209642e-01 +1.88610181e-01 +2.41815463e-01 +1.96365729e-01 -1.37296110e-01 +2.22324535e-01 -1.38748348e-01 +2.39763036e-01 +2.22006589e-02 -5.75242639e-02 -2.89686471e-02 +4.95047867e-03 -9.23018306e-02 -1.97009891e-01 +9.49977785e-02 -6.06851429e-02 -6.51517808e-02 -1.59198344e-02 -1.76885933e-01 +9.03729349e-02 +1.80752680e-01 +8.04463774e-02 -2.80311406e-02 +2.35135958e-01 +2.36757800e-01 +1.92407385e-01 -1.37679845e-01 +1.90683261e-01 -1.91750869e-01 -2.27678075e-01 -1.33167610e-01 +1.83897331e-01 -1.03731602e-02 -6.21585846e-02 -2.15286389e-01 +1.12078592e-01 -2.32938141e-01 -1.31064802e-01 +2.20905438e-01 +4.79087085e-02 -4.88761514e-02 -4.74044383e-02 -1.53565943e-01 -1.35246038e-01 +1.24533921e-02 -2.20568255e-01 -1.23061895e-01 +2.38372430e-01 +6.23001903e-02 -5.42790890e-02 -1.88447535e-03 -4.20685410e-02 -1.66756511e-01 +5.77781647e-02 -1.01928562e-01 +2.01321080e-01 +1.91400841e-01 -1.12335965e-01 -9.36655551e-02 -6.64336234e-02 -1.72645241e-01 -1.91801980e-01 +2.22712949e-01 -1.12006560e-01 -1.52003378e-01 +2.09931001e-01 +7.43599683e-02 -1.77145451e-01 -2.30336249e-01 +1.35873958e-01 +5.86827248e-02 +2.00436667e-01 +1.73299834e-01 +5.92025369e-02 +6.02574199e-02 +1.15289375e-01 -2.40568891e-01 +6.98359311e-03 -1.33038908e-02 -1.03258729e-01 -1.25153840e-01 -1.07786596e-01 -1.46931052e-01 -1.56493127e-01 +1.35648772e-01 -2.01978683e-02 -1.16076782e-01 +4.35030460e-03 -8.46564323e-02 -1.41138464e-01 -1.05759203e-02 +1.98870644e-01 -1.15414202e-01 +4.40393537e-02 +6.01059645e-02 +2.05811217e-01 +1.05169043e-01 -1.96227670e-01 -1.67517915e-01 +2.09579840e-01 -4.19030786e-02 -4.06582505e-02 +1.90077499e-01 +4.72094119e-03 -1.76650286e-02 -2.98224986e-02 +1.07701048e-01 +1.49440721e-01 +1.51347443e-01 -2.20417678e-01 -1.46517664e-01 -7.69170523e-02 +9.44551677e-02 -2.03398421e-01 +2.39429459e-01 +1.40089825e-01 +1.53357580e-01 +1.66953579e-01 +1.89696565e-01 -4.98682559e-02 +1.71919242e-01 -8.51768404e-02 +1.00163564e-01 -8.28704089e-02 -2.43424535e-01 -1.47265896e-01 -1.60894185e-01 +8.38845819e-02 +9.68802124e-02 +1.01219699e-01 -2.19795153e-01 +1.26149192e-01 +1.99188218e-01 -2.34577492e-01 +5.98434955e-02 +1.29355058e-01 -3.91390771e-02 -2.20790669e-01 -1.47423804e-01 -1.23603158e-01 -1.68980509e-01 -5.06686568e-02 -6.32149279e-02 +1.23623148e-01 -2.13415325e-01 +5.53190261e-02 -4.58803475e-02 -1.27284646e-01 +1.94824293e-01 +1.52951285e-01 -8.75680298e-02 +1.26105562e-01 -1.65503860e-01 -7.74275064e-02 -1.63278803e-01 +1.55599266e-02 +1.12796769e-01 +2.52472311e-02 -2.08492428e-01 +1.31494120e-01 +7.22155720e-02 -4.96711731e-02 -1.55952036e-01 +1.80009231e-01 +2.39572540e-01 -2.11569965e-01 -1.49542689e-01 +1.78955987e-01 +2.17806771e-01 +2.33587310e-01 -1.00438297e-03 -1.72332764e-01 -2.20176637e-01 -1.71538860e-01 -1.83345303e-01 +1.58779278e-01 -7.26391971e-02 -1.08537167e-01 +2.33875886e-01 -2.33123213e-01 +1.74960777e-01 -5.74141294e-02 +1.49851099e-01 +1.61246955e-03 +5.44007868e-02 +1.18091866e-01 +4.94444817e-02 +1.77377120e-01 +9.19610709e-02 +2.29872748e-01 +1.95988372e-01 +2.25312263e-02 +5.31412661e-03 -2.23688781e-03 -4.84783053e-02 +8.12994689e-02 -1.21336229e-01 -4.70798761e-02 +5.49208075e-02 +2.19016522e-02 -4.16353345e-04 +5.03572971e-02 +2.05851957e-01 +5.97251952e-03 +2.17434868e-01 -5.08516282e-02 +3.47033292e-02 +9.63429660e-02 -1.01560280e-01 +2.30013505e-01 +7.48026520e-02 +1.45396367e-01 -9.98439044e-02 +1.24076769e-01 -1.28445685e-01 -1.22264974e-01 -5.05838245e-02 +6.21400774e-03 -2.07136899e-01 -1.29773706e-01 +1.80809066e-01 -2.32095182e-01 -1.95674166e-01 +2.35913649e-01 -8.90334696e-02 +6.33519739e-02 -1.47461861e-01 +1.22055039e-01 +6.68774992e-02 -2.02478722e-01 +1.96610287e-01 +2.59562284e-02 +2.12000713e-01 +1.52104214e-01 +6.66727871e-02 +3.70588750e-02 -1.75821215e-01 +1.34721294e-01 +2.11310729e-01 -3.63242030e-02 +2.23498508e-01 -1.46782920e-01 -5.87538928e-02 -1.03143230e-01 -2.11370379e-01 +1.15179703e-01 +1.63946614e-01 -1.57885104e-02 +5.44833690e-02 +1.29278883e-01 -2.23348737e-01 +2.33217165e-01 -3.78332436e-02 +1.40697315e-01 -1.41822487e-01 +1.45470098e-01 +2.02841893e-01 +4.80964929e-02 -2.38735855e-01 +1.17187247e-01 -1.89368889e-01 +6.47810251e-02 +9.54984128e-03 +1.61627486e-01 +1.19013831e-01 -8.84964615e-02 -2.38573968e-01 +1.44095793e-01 -2.04212666e-02 -1.95739865e-02 +1.49587497e-01 +1.09023944e-01 -1.29485607e-01 -1.55610144e-01 +9.59003717e-02 -2.34642416e-01 -1.98646948e-01 -3.66597623e-02 +2.05705002e-01 +1.27231404e-01 +2.01629475e-01 +2.09897205e-01 +6.20821565e-02 +8.30692500e-02 -3.21738869e-02 +2.00536802e-01 +2.33872369e-01 +6.30277246e-02 +1.06578544e-01 -1.25256538e-01 -9.21547264e-02 +1.78830639e-01 -9.53710824e-02 -1.70965999e-01 +2.34637097e-01 -1.60320714e-01 +1.53063819e-01 +8.00208747e-03 +1.29893258e-01 -1.17854580e-01 +1.88565299e-01 +2.32307568e-01 +1.39858171e-01 -1.95463747e-01 +1.14318714e-01 -1.15128890e-01 +4.38579768e-02 +1.69129953e-01 +2.97586769e-02 +1.32214949e-01 -9.41917300e-02 +2.14702442e-01 +1.93258449e-01 -1.32860512e-01 -1.32015646e-02 +1.68477371e-01 +2.31737942e-02 -8.43720287e-02 -8.79668593e-02 +1.71570733e-01 +2.01347068e-01 -5.56507856e-02 -1.15360245e-01 +1.07835725e-01 +1.45263776e-01 -2.28803754e-01 +1.49692222e-01 +1.39926523e-02 +1.89304456e-01 +1.19596198e-01 -1.25621587e-01 +1.39952227e-01 -1.45501763e-01 +1.77225128e-01 -2.23796636e-01 +7.30422884e-02 +4.70159501e-02 -1.54980451e-01 +2.30733976e-01 -1.01408362e-01 +1.39172629e-01 -1.10036999e-01 +2.61856467e-02 -2.32534975e-01 +9.57201868e-02 -1.10108286e-01 +3.71379107e-02 -5.08728474e-02 +1.90426096e-01 +1.12964198e-01 +8.15600604e-02 +1.89362481e-01 -3.60205323e-02 +1.42076179e-01 -1.36831596e-01 -1.84837386e-01 -1.67814881e-01 -2.04027280e-01 +7.44567811e-03 +2.09519014e-01 +8.56426209e-02 -1.44984394e-01 +4.69979495e-02 -1.86919212e-01 +1.70062885e-01 +8.19021016e-02 +1.60217300e-01 +1.71957687e-01 -1.60503149e-01 -1.05491355e-01 -4.60532904e-02 +1.36208221e-01 -4.77754176e-02 -1.37553617e-01 -8.66761059e-02 +1.18920669e-01 +7.49092549e-02 -6.47695959e-02 -2.05697164e-01 +8.64425749e-02 -1.27237141e-01 +2.27592722e-01 -1.53215781e-01 +8.94007236e-02 +2.60329098e-02 +5.59062511e-02 +1.80483922e-01 -2.26397321e-01 +1.25760689e-01 +2.01996580e-01 +4.23623770e-02 -1.34352237e-01 -1.30439356e-01 -8.16798657e-02 -1.25875801e-01 -1.43400788e-01 -8.53547901e-02 -7.57896006e-02 +2.34313801e-01 -7.96628892e-02 -1.51603281e-01 -1.33690327e-01 -1.21426098e-01 +2.34189183e-02 -7.49872625e-03 -7.69623369e-02 -9.45623815e-02 -7.47113228e-02 +1.81220964e-01 -1.22350104e-01 +3.58115584e-02 +6.05726391e-02 -4.02230769e-02 +5.21848053e-02 -1.72292158e-01 +1.95105150e-01 +1.42394677e-01 +1.92159936e-01 -2.06005171e-01 -1.98248044e-01 +2.90169269e-02 +4.41707522e-02 -1.34816021e-01 -2.32540578e-01 -2.01965749e-01 -8.23341310e-02 +4.55173999e-02 +1.12867817e-01 -2.18889102e-01 +1.40692070e-01 -8.07257146e-02 +1.94963142e-01 +1.22932300e-01 +2.01075390e-01 -3.44098061e-02 -2.27534592e-01 +1.73165068e-01 
#Parameter# /_8 {50} 801 ZERO_GRAD
+1.70832500e-01 +1.20614901e-01 +1.50473043e-01 -8.52380693e-02 -1.68823749e-02 -1.60729125e-01 -2.82450616e-02 +1.15346238e-01 -1.59274921e-01 -1.39614031e-01 +2.96180099e-02 -1.08459815e-01 -6.55745268e-02 -1.22559920e-01 -4.17947620e-02 -1.34755671e-02 -6.40536398e-02 +4.14742976e-02 -9.25127566e-02 -1.31282836e-01 +1.61414221e-01 -1.06121004e-02 +2.19956473e-01 +2.44276971e-02 +2.37642378e-02 -4.21598256e-02 +1.94635108e-01 -2.18853667e-01 +2.39569768e-01 +1.41265407e-01 -9.49289501e-02 -4.59204465e-02 +2.37865821e-01 -1.11788228e-01 +1.44863650e-01 +2.39930019e-01 -1.99776977e-01 +7.93531984e-02 +2.12784633e-01 -1.48978829e-01 +1.42164931e-01 +8.49596411e-02 -1.56176209e-01 +1.50250539e-01 +2.35491827e-01 +2.00466663e-02 -1.64584324e-01 +3.49774808e-02 -1.12861529e-01 +7.84335881e-02 
#Parameter# /_9 {50,3} 2401 ZERO_GRAD
+1.89924613e-01 +4.85459179e-01 -3.32697004e-01 -9.62697342e-02 -4.60150987e-01 -6.15379930e-01 -4.26492870e-01 -3.31664592e-01 -4.16910142e-01 -1.31913587e-01 -1.44856334e-01 +7.46886879e-02 +4.71110605e-02 -5.26896060e-01 -1.03107467e-01 -2.75002033e-01 -5.78262091e-01 +5.12011409e-01 -5.23012578e-01 -3.04454297e-01 -2.64821738e-01 +2.97044009e-01 -3.15386266e-01 +4.13041562e-01 +4.68040049e-01 -2.66516536e-01 +2.22302705e-01 -1.32729009e-01 +3.07448089e-01 +1.79659277e-01 +5.04299283e-01 -8.49793553e-02 +5.32426059e-01 -5.08009076e-01 +4.31044668e-01 -4.29605156e-01 +5.19517899e-01 +2.47484460e-01 +5.12949288e-01 +1.23828396e-01 -1.63345605e-01 -4.31256324e-01 +7.25096881e-01 -1.06607743e-01 -5.48445523e-01 -8.34530219e-02 -1.88507751e-01 +4.71052349e-01 +3.99759024e-01 +1.06602602e-01 +5.49464822e-01 -2.17605326e-02 -1.94036677e-01 +2.63004415e-02 -5.89285970e-01 -1.26438618e-01 -1.51894260e-02 -3.73538822e-01 -3.29621941e-01 -3.51436764e-01 -2.98808575e-01 +5.77068068e-02 -3.84221703e-01 -4.14115608e-01 +1.61575779e-01 -2.35951170e-01 -4.28033948e-01 +5.22792995e-01 -1.50683001e-01 -3.09892237e-01 -1.48709655e-01 +6.46727860e-01 -3.36133927e-01 +5.54075539e-01 +5.75896323e-01 -2.84783036e-01 -1.44977361e-01 -4.77799594e-01 +5.59690833e-01 -2.06769854e-01 +2.42476150e-01 +1.22889198e-01 +3.92238587e-01 -4.06418115e-01 +5.66140354e-01 -4.26722646e-01 -1.14813950e-02 +3.42925638e-01 +2.00089723e-01 +2.53808886e-01 +6.23666458e-02 +3.18621218e-01 +2.86552399e-01 +3.06760192e-01 -4.29752618e-01 -3.21841419e-01 -1.79515436e-01 -2.74476677e-01 -2.38282636e-01 +4.54567134e-01 -1.37511089e-01 -1.67689025e-01 -2.61793102e-05 -3.41266364e-01 +3.54101285e-02 +3.40001553e-01 +1.52957067e-01 +3.88995647e-01 +6.36724457e-02 +1.95963100e-01 +2.47348681e-01 +1.64441779e-01 +4.85058039e-01 +2.49148637e-01 +1.23533592e-01 +4.50547397e-01 +6.19414926e-01 -4.30249572e-01 -8.84237699e-03 +6.35951281e-01 -2.20898375e-01 -4.72523600e-01 +3.27999033e-02 -1.10404998e-01 -3.09860796e-01 +2.89932899e-02 -3.50840896e-01 +6.13684133e-02 -4.22119081e-01 +2.95375437e-01 -4.52214450e-01 -4.42911565e-01 -1.00210294e-01 +1.98120520e-01 -7.47527480e-02 +4.77363378e-01 -3.86482738e-02 -3.80364269e-01 -3.92371804e-01 +9.37893763e-02 +3.28126460e-01 +5.48897803e-01 -4.16049361e-01 -1.43787563e-01 +3.50483000e-01 +2.72947196e-02 +4.20595139e-01 -3.11262488e-01 +1.48364022e-01 -4.87748742e-01 
#Parameter# /_10 {50,50} 40001 ZERO_GRAD
